svm_type c_svc
kernel_type rbf
gamma 0.041666666666666664
nr_class 8
total_sv 45
rho -0.3050600886344909 0.42387789487838745 -0.04634693264961243 -0.04779166663712791 -0.8199197572656837 0.647158294916153 0.9991443241598057 0.49465256929397583 0.0348827095011535 0.9476402401924133 -0.9479522705078125 0.4857879877090454 0.8359348773956299 -0.039512891886083146 -0.06608706712722778 -0.9164524510679364 0.6668961644172668 0.7041892409324646 -0.010295551815733023 -0.7179392576217651 0.04372077550383952 0.1522321481207892 -0.9567418373117825 0.11765742301940915 0.4078773856163025 0.8910515308380127 0.9779872894287109 0.7403057930491654
label 3 7 4 0 5 6 2 1
nr_sv 4 3 5 5 5 1 6 16
SV
0.3094281027424149 1.0 0.0803770391921701 0.8101232780923016 0.0 1.0 1.0 3:0.5 4:0.33 6:1.0 11:1.0 13:1.0 16:0.5 17:1.0 21:0.14 
0.6905718972575852 1.0 1.0 1.0 0.08512403138006026 1.0 1.0 1:1.0 3:0.5 6:1.0 11:0.29 13:0.5 16:1.0 17:1.0 
1.0 1.0 1.0 1.0 0.5858684146032906 1.0 1.0 1:1.0 3:1.0 4:0.67 6:1.0 8:0.25 10:0.14 11:0.29 12:0.5 13:1.0 15:0.08 16:0.5 17:0.5 18:0.17 19:0.17 21:0.14 23:0.33 
1.0 1.0 1.0 1.0 0.3290075540166491 1.0 1.0 3:0.5 4:0.33 6:1.0 11:1.0 13:1.0 16:0.5 17:1.0 21:0.14 
-1.0 1.0 1.0 1.0 0.4039064169218723 1.0 1.0 4:0.67 8:0.38 10:0.14 11:0.14 12:0.75 14:1.0 15:0.23 16:0.5 17:0.5 18:0.67 19:1.0 23:0.67 
-1.0 1.0 1.0 1.0 0.5960935830781278 1.0 1.0 8:0.38 12:0.75 14:1.0 15:0.15 18:1.0 19:0.67 23:1.0 
-1.0 1.0 0.8038560167123927 1.0 0.0 1.0 1.0 3:0.5 4:0.33 8:0.38 11:0.14 12:1.0 13:0.5 14:1.0 15:0.15 18:1.0 19:1.0 21:0.14 23:1.0 
-0.0 -0.0 0.08633277325434625 1.0 0.0 1.0 1.0 22:1.0 
-1.0 -1.0 1.0 1.0 0.5679113291586138 1.0 1.0 2:0.25 3:0.5 4:0.33 7:0.17 10:0.14 11:0.14 13:0.5 20:0.25 21:0.29 
-1.0 -0.22889094861142156 1.0 0.9425885719444295 0.0 1.0 1.0 1:1.0 2:0.25 3:1.0 4:1.0 7:0.17 8:0.12 10:0.29 11:0.29 13:0.5 15:0.08 16:1.0 17:0.5 20:0.25 21:0.29 22:1.0 
-1.0 -0.7711090513885784 1.0 1.0 0.16958998636026856 1.0 1.0 22:1.0 
-1.0 -1.0 0.9675494657678217 1.0 0.2624986844811177 1.0 1.0 4:0.33 8:0.12 10:0.14 11:0.14 15:0.08 16:0.5 17:0.5 22:1.0 
-1.0 -0.6248288492508103 -1.0 0.3247133855464798 0.0 1.0 1.0 1:1.0 2:1.0 3:0.5 5:1.0 7:1.0 9:1.0 10:0.86 11:0.14 16:1.0 17:0.5 18:0.17 20:1.0 21:0.14 24:1.0 
-0.0 -0.0 -0.34646443022054463 0.0 0.0 1.0 0.0 2:1.0 4:0.33 5:1.0 7:1.0 8:0.12 9:1.0 10:1.0 15:0.08 20:1.0 21:0.14 24:1.0 
-1.0 -1.0 -0.7074178088016233 1.0 0.7205003758753941 0.49664472755499345 1.0 2:1.0 4:0.33 5:1.0 7:1.0 8:0.38 9:1.0 10:1.0 11:0.14 12:0.25 14:0.25 15:0.15 16:0.5 17:0.5 18:0.17 19:0.17 20:1.0 21:0.14 23:0.33 24:1.0 
-0.0803770391921701 -0.21368446085025783 -1.0 0.7996626474839964 0.0 1.0 0.9205364666667751 2:1.0 4:0.33 5:1.0 7:1.0 8:0.12 9:1.0 10:1.0 15:0.08 20:1.0 21:0.14 24:1.0 
-1.0 -0.9653427066113245 -1.0 0.9139853047856088 0.27949962412460594 0.642397733058174 0.9727632110530213 2:1.0 4:0.33 5:1.0 7:1.0 8:0.12 9:1.0 10:1.0 15:0.08 20:1.0 21:0.14 24:1.0 
-1.0 -0.0 -1.0 -0.7178196209791932 0.0 1.0 1.0 4:0.33 8:1.0 10:0.14 12:1.0 14:0.5 15:0.23 18:0.5 19:0.5 23:1.0 
-1.0 -1.0 -1.0 -1.0 0.0 1.0 1.0 4:0.33 8:1.0 10:0.14 12:0.75 14:0.5 15:0.23 18:0.5 19:0.5 23:1.0 
-0.27965919531221456 -1.0 -0.9425885719444295 -0.0 0.054294616229894246 1.0 1.0 8:0.38 12:1.0 14:1.0 15:0.15 18:1.0 19:1.0 23:1.0 
-1.0 -0.20169528951056515 -1.0 -1.0 0.9170010786952759 1.0 1.0 4:0.33 8:1.0 10:0.14 12:0.75 14:0.5 15:0.23 18:0.5 19:0.5 23:1.0 
-0.530464082780087 -0.7983047104894349 -1.0 -0.32054171683689175 0.028704305074829833 0.5981901523371331 1.0 8:0.38 12:1.0 14:1.0 15:0.15 18:1.0 19:1.0 22:1.0 23:1.0 
-1.0 -1.0 -1.0 -1.0 -1.0 1.0 1.0 4:0.33 8:0.38 10:0.14 12:0.5 14:0.5 15:1.0 18:0.33 19:0.33 23:0.67 
-0.25990841168349654 -0.0 -0.0 -0.0 -0.0 -0.0 1.0 1:1.0 2:0.25 3:1.0 4:1.0 7:0.17 8:0.12 10:0.29 11:0.14 13:0.5 15:0.08 16:0.5 20:0.25 21:1.0 
-1.0 -0.4619961885897782 -1.0 -0.31983716741542567 -1.0 -0.0 1.0 3:0.5 4:0.33 6:1.0 11:1.0 13:1.0 16:0.5 17:1.0 21:0.14 
-0.0 -1.0 -1.0 -1.0 -1.0 -0.0 1.0 2:0.25 3:0.5 4:0.33 7:0.17 10:0.14 11:0.14 13:0.5 20:0.25 21:1.0 
-1.0 -1.0 -1.0 -0.9001037722343741 -1.0 -0.582642867960724 1.0 3:0.5 4:1.0 8:0.12 10:0.14 11:0.29 13:0.5 15:0.08 16:0.5 17:0.5 21:0.14 
-1.0 -0.0 -1.0 -0.9191015209633677 -0.5981901523371331 -0.0 1.0 1:1.0 2:0.25 3:1.0 4:1.0 7:0.17 8:0.12 10:0.29 11:0.14 13:0.5 15:0.08 16:0.5 20:0.25 21:1.0 
-0.7400915883165035 -0.5380038114102218 -1.0 -1.0 -1.0 -0.41735713203927605 1.0 2:0.25 3:0.5 4:0.33 7:0.17 10:0.14 11:0.14 13:0.5 20:0.25 21:1.0 
-0.6284746237711853 -1.0 -1.0 -1.0 -1.0 -0.5790047785788233 -1.0 4:0.33 8:0.12 10:0.14 11:0.14 12:0.25 15:0.08 16:0.5 17:0.5 19:0.17 22:1.0 
-0.4449307741877089 -0.0 -0.0 -0.0 -0.0 -0.0 -0.0 1:1.0 2:0.25 3:1.0 4:0.33 6:1.0 7:0.17 10:0.14 11:0.43 13:1.0 16:1.0 17:1.0 20:0.25 21:0.29 
-0.0 -0.0 -1.0 -0.44086532951868784 -0.0 -0.0 -0.0 1:1.0 2:0.25 3:0.5 4:0.33 6:1.0 7:0.17 8:0.12 10:0.29 11:0.29 13:0.5 15:0.08 16:1.0 17:1.0 20:0.25 21:0.14 22:1.0 
-0.0 -0.0 -0.0 -0.0 -0.0 -0.0 -1.0 1:1.0 2:0.25 3:1.0 4:0.67 7:0.17 10:0.14 11:0.29 13:0.5 16:1.0 17:0.5 18:0.17 20:0.25 21:0.29 
-0.0 -0.0 -0.0 -0.0 -0.0 -0.0 -0.35189096577292955 1:1.0 3:1.0 4:1.0 6:1.0 8:0.25 10:0.14 11:0.29 12:0.25 13:1.0 15:0.08 16:0.5 17:0.5 18:0.17 21:0.14 23:0.33 
-0.0 -0.0 -0.0 -1.0 -0.0 -0.0 -0.04581908369657214 1:1.0 2:0.25 3:1.0 4:0.33 7:0.17 10:0.14 11:0.29 12:0.25 13:0.5 16:1.0 17:0.5 18:0.17 19:0.17 20:0.25 21:0.29 
-0.0 -0.0 -0.0 -0.7847749358948559 -0.0 -0.0 -1.0 1:1.0 2:0.25 3:1.0 4:0.67 7:0.17 10:0.14 11:0.29 13:0.5 16:1.0 17:0.5 18:0.17 20:0.25 21:0.29 
-0.05778393790464957 -0.0 -0.06353992628522787 -0.0 -0.0 -0.0 -0.0 1:1.0 3:1.0 4:0.67 6:1.0 8:0.25 10:0.14 11:0.86 12:0.5 13:1.0 15:0.08 16:0.5 17:0.5 18:0.17 19:0.17 21:0.14 22:1.0 23:0.33 
-0.0 -1.0 -0.0 -0.3083042277509198 -1.0 -0.4209952214211768 -0.0 1:1.0 3:1.0 4:1.0 8:1.0 10:0.14 11:0.14 12:1.0 13:0.5 14:0.5 15:0.23 16:0.5 18:0.5 19:0.67 21:0.14 23:1.0 
-0.0 -0.0 -1.0 -0.0 -1.0 -0.0 -1.0 1:1.0 3:1.0 4:0.33 8:0.12 11:0.71 12:0.25 13:0.5 16:0.5 18:0.17 21:0.14 23:0.33 
-0.8688106641364562 -0.0 -0.0 -0.0 -0.0 -0.0 -0.9905639086389469 1:1.0 3:1.0 4:1.0 6:1.0 8:0.25 10:0.14 11:0.29 12:0.25 13:1.0 15:0.08 16:0.5 17:0.5 18:0.17 21:0.14 23:0.33 
-0.0 -0.0 -1.0 -0.23954977584866263 -0.5181436552244507 -0.0 -0.0 1:1.0 3:0.5 4:0.33 8:0.12 10:0.14 11:0.14 15:0.08 16:1.0 17:0.5 
-0.0 -0.09407288795120135 -0.9364600737147721 -0.0 -0.4818563447755493 -0.0 -0.6117260418915513 1:1.0 3:1.0 4:0.33 8:0.12 11:0.71 12:0.25 13:0.5 16:0.5 18:0.17 21:0.14 23:0.33 
-0.0 -0.9059271120487986 -0.0 -0.11980540870667022 -1.0 -0.0 -0.0 1:1.0 2:0.25 3:1.0 4:0.67 6:1.0 7:0.17 8:0.38 10:0.29 11:0.43 12:0.75 13:1.0 14:1.0 15:0.23 16:1.0 17:1.0 18:0.67 19:1.0 20:0.25 21:0.29 23:0.67 
-1.0 -0.0 -0.0 -0.0 -0.0 -0.0 -0.0 1:1.0 2:0.25 3:1.0 4:0.67 6:1.0 7:0.17 8:0.12 10:0.29 11:1.0 13:1.0 15:0.08 16:1.0 17:1.0 20:0.25 21:0.29 
-1.0 -0.0 -0.0 -0.0 -0.0 -0.0 -0.0 1:1.0 3:0.5 6:1.0 11:0.29 13:0.5 16:1.0 17:1.0 
