svm_type c_svc
kernel_type rbf
gamma 0.018518518518518517
nr_class 8
total_sv 78
rho -0.399696946144104 -0.5152863204254549 0.1872266072067373 -0.24193516373634338 -0.5479676723480225 -0.901128893717978 0.9824511279095404 0.190089985888056 0.607956698623817 0.48170983411705803 -0.1282673478126526 0.20824933052062988 0.6854842330214411 0.18496504426002502 0.01596882939338688 -0.34468063712120056 -0.6116754412651062 0.7938868019607003 -0.09102565050125122 -0.8005587756633759 -0.19901561737060547 -0.01025460803420311 -0.8375674708750414 -0.38342350721359253 0.782011043802617 0.360052227973938 0.7142039578197277 0.9548063899258675
label 3 7 4 0 5 6 2 1
nr_sv 10 4 8 12 9 4 7 24
SV
0.0 1.0 1.0 1.0 1.0 1.0 1.0 4:0.5 20:0.5 21:0.33 27:1.0 29:0.5 30:1.0 44:0.33 47:0.5 48:0.67 51:0.22 52:0.12 
0.0 1.0 0.8694074177158476 1.0 0.0 1.0 1.0 1:0.2 3:0.17 4:1.0 6:1.0 7:0.17 8:0.17 15:0.2 18:0.2 19:0.2 20:1.0 21:0.33 22:1.0 23:0.2 27:1.0 28:0.2 29:0.75 30:1.0 34:0.25 38:0.2 41:0.14 42:1.0 44:0.33 45:0.2 46:1.0 47:0.5 48:1.0 49:0.25 50:0.25 51:0.33 52:0.25 53:0.2 
1.0 0.3392548871731889 1.0 1.0 1.0 0.0 1.0 1:0.2 3:0.17 4:0.25 6:1.0 7:0.33 8:0.17 13:0.2 15:0.2 16:0.25 18:0.4 19:0.4 20:0.5 22:1.0 23:0.2 24:0.5 25:0.25 28:0.2 29:0.25 34:0.25 35:1.0 38:0.4 41:0.14 42:1.0 45:0.2 46:1.0 48:0.33 49:0.25 50:0.5 51:0.11 52:0.12 53:0.2 
1.0 0.8287722895867109 1.0 1.0 0.8353543471282843 0.9350268632945556 1.0 4:0.25 6:1.0 20:0.5 21:0.33 29:0.5 47:0.25 48:0.33 51:0.11 52:0.12 
0.3852564917964886 1.0 1.0 1.0 0.0 0.5673989428312467 1.0 1:0.2 3:0.17 4:0.5 6:1.0 7:0.17 8:0.17 15:0.2 18:0.2 19:0.2 20:1.0 21:0.33 22:1.0 23:0.2 27:1.0 28:0.2 29:0.5 30:0.5 34:0.25 38:0.2 41:0.14 42:1.0 44:0.33 45:0.2 46:1.0 47:0.25 48:0.67 49:0.25 50:0.25 51:0.22 52:0.25 53:0.2 
0.0 0.8319728232401001 0.0 0.0 0.0 1.0 1.0 4:0.75 6:1.0 20:1.0 21:0.33 27:1.0 29:1.0 30:1.0 44:0.33 47:0.5 48:1.0 51:0.22 52:0.12 
0.0 1.0 1.0 1.0 0.0 1.0 1.0 1:0.2 3:0.17 4:1.0 6:1.0 7:0.17 8:0.17 12:0.12 15:0.2 18:0.2 19:0.2 20:1.0 21:0.33 22:1.0 23:0.2 27:1.0 28:0.2 29:0.75 30:1.0 34:0.25 38:0.2 41:0.14 42:1.0 44:0.33 45:0.2 46:1.0 47:0.5 48:1.0 49:0.25 50:0.25 51:0.33 52:0.25 53:0.2 
0.0 0.0 0.4750612664267843 1.0 0.0 0.9887957648844432 1.0 4:0.75 6:1.0 7:0.17 13:0.2 16:0.25 18:0.2 19:0.2 20:1.0 21:0.33 24:0.5 25:0.25 27:1.0 29:1.0 30:1.0 35:1.0 38:0.2 44:0.33 47:0.5 48:1.0 50:0.25 51:0.22 52:0.12 
0.6147435082035114 1.0 1.0 1.0 1.0 0.0 1.0 4:0.5 7:0.17 13:0.2 16:0.25 18:0.2 19:0.2 20:0.5 21:0.33 24:0.5 25:0.25 27:1.0 29:0.75 30:1.0 35:1.0 38:0.2 44:0.33 47:0.5 48:0.67 50:0.25 51:0.22 52:0.12 
1.0 1.0 1.0 1.0 0.16464565287171576 0.5087784289897544 1.0 1:0.2 3:0.17 4:0.5 7:0.17 8:0.17 12:0.12 15:0.2 18:0.2 19:0.2 20:0.5 21:0.67 22:1.0 23:0.2 27:1.0 28:0.2 29:0.5 30:1.0 34:0.25 38:0.2 41:0.14 42:1.0 44:0.33 45:0.2 46:1.0 47:0.75 48:0.67 49:0.25 50:0.25 51:0.44 52:0.38 53:0.2 
-1.0 1.0 1.0 1.0 1.0 1.0 1.0 2:0.5 10:1.0 12:0.12 14:1.0 26:1.0 31:1.0 32:1.0 33:1.0 36:1.0 39:1.0 40:1.0 43:1.0 44:0.33 
-1.0 1.0 1.0 1.0 1.0 1.0 1.0 1:0.2 2:0.5 3:0.17 7:1.0 8:0.17 10:1.0 12:0.12 13:1.0 14:1.0 15:0.2 16:1.0 18:1.0 19:1.0 22:1.0 23:0.2 24:0.5 25:1.0 26:1.0 28:0.2 32:1.0 33:1.0 34:1.0 35:1.0 36:1.0 38:1.0 39:1.0 40:1.0 41:0.14 42:1.0 43:1.0 44:0.33 45:0.2 46:1.0 49:0.25 50:1.0 51:0.11 52:0.12 53:0.2 
-1.0 1.0 1.0 1.0 1.0 1.0 1.0 1:0.2 3:0.17 4:0.5 6:1.0 7:0.17 8:0.17 12:0.12 15:0.2 18:0.2 19:0.2 20:0.5 22:1.0 23:0.2 28:0.2 29:0.5 30:0.5 34:0.25 38:0.2 41:0.14 42:1.0 45:0.2 46:1.0 47:0.25 48:0.67 49:0.25 50:0.25 51:0.22 52:0.12 53:0.2 
-1.0 1.0 1.0 1.0 1.0 1.0 1.0 1:0.2 3:0.17 7:1.0 8:0.17 13:1.0 15:0.2 16:1.0 18:1.0 19:1.0 22:1.0 23:0.2 24:0.5 25:1.0 28:0.2 31:1.0 34:1.0 35:1.0 38:1.0 41:0.14 42:1.0 45:0.2 46:1.0 49:0.25 50:1.0 51:0.11 52:0.12 53:0.2 
-1.0 -0.0 1.0 1.0 0.0 1.0 1.0 1:0.2 3:0.17 4:0.75 6:1.0 7:0.17 8:0.17 15:0.2 18:0.2 19:0.2 20:1.0 21:1.0 22:1.0 23:0.2 27:1.0 28:0.2 29:0.75 30:1.0 34:0.25 38:0.2 41:0.14 42:1.0 44:0.33 45:0.2 46:1.0 47:1.0 48:1.0 49:0.25 50:0.25 51:1.0 52:1.0 53:0.2 54:1.0 
-1.0 -0.7048948717294357 1.0 1.0 0.261721868419429 0.8511444624239408 1.0 1:0.2 3:0.17 4:0.75 7:0.17 8:0.17 12:0.12 15:0.2 18:0.2 19:0.2 20:0.5 21:1.0 22:1.0 23:0.2 27:1.0 28:0.2 29:0.5 30:1.0 34:0.25 38:0.2 41:0.14 42:1.0 44:0.33 45:0.2 46:1.0 47:1.0 48:0.67 49:0.25 50:0.25 51:1.0 52:1.0 53:0.2 54:1.0 
-1.0 -0.0 0.0891402144216521 1.0 0.0 1.0 1.0 1:0.2 3:0.17 4:0.75 6:1.0 7:0.17 8:0.17 12:0.12 15:0.2 18:0.2 19:0.2 20:1.0 21:1.0 22:1.0 23:0.2 27:1.0 28:0.2 29:0.75 30:1.0 34:0.25 38:0.2 41:0.14 42:1.0 44:0.33 45:0.2 46:1.0 47:1.0 48:1.0 49:0.25 50:0.25 51:1.0 52:1.0 53:0.2 54:1.0 
-1.0 -1.0 1.0 1.0 1.0 1.0 1.0 21:0.33 47:0.25 51:0.56 52:0.62 54:1.0 
-1.0 -0.6463253305924396 1.0 1.0 0.0 1.0 1.0 1:0.2 3:0.17 4:0.75 6:1.0 7:0.17 8:0.17 12:0.12 15:0.2 18:0.2 19:0.2 20:1.0 21:1.0 22:1.0 23:0.2 27:1.0 28:0.2 29:0.75 30:1.0 34:0.25 38:0.2 41:0.14 42:1.0 44:0.33 45:0.2 46:1.0 47:1.0 48:1.0 49:0.25 50:0.25 51:1.0 52:1.0 53:0.2 54:1.0 
-1.0 -1.0 1.0 1.0 1.0 0.14885553757605918 1.0 1:0.2 3:0.17 4:0.25 7:0.33 8:0.17 13:0.2 15:0.2 16:0.25 18:0.4 19:0.4 20:0.5 21:1.0 22:1.0 23:0.2 24:0.5 25:0.25 27:1.0 28:0.2 29:0.25 30:0.5 31:1.0 34:0.25 35:1.0 38:0.4 41:0.14 42:1.0 44:0.33 45:0.2 46:1.0 47:0.75 48:0.33 49:0.25 50:0.5 51:0.89 52:1.0 53:0.2 54:1.0 
-1.0 -0.0 1.0 1.0 0.738278131580571 1.0 1.0 4:0.75 20:0.5 21:1.0 27:1.0 29:0.75 30:1.0 31:1.0 44:0.33 47:1.0 48:0.67 51:0.44 52:0.38 54:1.0 
-1.0 -0.6487797976781248 1.0 1.0 1.0 1.0 1.0 4:0.75 20:0.5 21:1.0 27:1.0 29:0.75 30:1.0 31:1.0 44:0.33 47:1.0 48:0.67 51:0.44 52:0.38 54:1.0 
-0.26501136956907706 -0.10508639330628096 -0.0 1.0 0.29363116401298506 0.0 0.3028361388441944 1:1.0 2:0.5 3:1.0 4:0.25 5:1.0 7:0.33 8:1.0 9:1.0 11:1.0 12:0.12 13:0.2 15:1.0 16:0.25 17:1.0 18:0.4 19:0.4 20:0.5 21:0.33 22:1.0 23:1.0 24:1.0 25:0.25 27:1.0 28:1.0 29:0.25 30:0.5 34:0.25 35:1.0 37:1.0 38:0.4 41:1.0 42:1.0 44:0.67 45:1.0 46:1.0 47:0.25 48:0.33 49:1.0 50:0.5 51:0.22 52:0.25 53:1.0 
-0.0 -0.0 -0.0 0.0 0.0 0.0 1.0 1:1.0 3:1.0 5:1.0 7:0.17 8:1.0 15:1.0 17:1.0 18:0.2 19:0.2 22:1.0 23:1.0 28:1.0 34:0.25 37:1.0 38:0.2 41:1.0 42:1.0 45:1.0 46:1.0 49:1.0 50:0.25 51:0.11 52:0.12 53:1.0 
-0.0 -0.0 -0.0 0.0 0.0 0.0 1.0 1:1.0 3:1.0 5:1.0 7:0.17 8:1.0 15:1.0 17:1.0 18:0.2 19:0.2 22:1.0 23:1.0 28:1.0 34:0.25 37:1.0 38:0.2 41:1.0 42:1.0 45:1.0 46:1.0 49:1.0 50:0.25 51:0.11 52:0.12 53:1.0 
-1.0 -0.6037836765569728 -1.0 1.0 1.0 1.0 1.0 4:0.25 7:0.17 13:0.2 16:0.25 18:0.2 19:0.2 20:0.5 21:0.33 24:0.5 25:0.25 27:1.0 29:0.25 30:0.5 35:1.0 38:0.2 44:0.33 47:0.25 48:0.33 50:0.25 51:0.11 52:0.12 
-1.0 -0.7469893021001763 -1.0 1.0 0.0 1.0 1.0 1:1.0 3:1.0 4:0.25 5:1.0 7:0.33 8:1.0 13:0.2 15:1.0 16:0.25 17:1.0 18:0.4 19:0.4 20:0.5 21:0.33 22:1.0 23:1.0 24:0.5 25:0.25 27:1.0 28:1.0 29:0.25 30:0.5 34:0.25 35:1.0 37:1.0 38:0.4 41:1.0 42:1.0 44:0.33 45:1.0 46:1.0 47:0.25 48:0.33 49:1.0 50:0.5 51:0.22 52:0.25 53:1.0 
-0.09006665694924913 -0.0 -0.0 0.0 0.0 0.0 1.0 1:1.0 3:1.0 5:1.0 7:0.17 8:1.0 15:1.0 17:1.0 18:0.2 19:0.2 22:1.0 23:1.0 28:1.0 34:0.25 37:1.0 38:0.2 41:1.0 42:1.0 45:1.0 46:1.0 49:1.0 50:0.25 51:0.11 52:0.12 53:1.0 
-0.9893906576243057 -0.05903405075012065 -0.0891402144216521 1.0 0.0 0.26411775199692433 1.0 1:1.0 3:1.0 5:1.0 7:0.17 8:1.0 15:1.0 17:1.0 18:0.2 19:0.2 22:1.0 23:1.0 28:1.0 34:0.25 37:1.0 38:0.2 41:1.0 42:1.0 45:1.0 46:1.0 49:1.0 50:0.25 51:0.11 52:0.12 53:1.0 
-1.0 -1.0 -1.0 1.0 1.0 1.0 1.0 10:0.25 14:0.17 26:0.2 32:0.2 33:0.2 36:0.2 39:0.25 40:0.25 43:0.25 
-1.0 -0.24241001671328596 -1.0 1.0 0.7063688359870149 0.7358822480030757 1.0 1:1.0 2:0.5 3:1.0 4:0.5 5:1.0 7:0.33 8:1.0 9:1.0 11:1.0 12:0.12 13:0.2 15:1.0 16:0.25 17:1.0 18:0.4 19:0.4 20:0.5 21:0.33 22:1.0 23:1.0 24:1.0 25:0.25 27:1.0 28:1.0 29:0.25 30:0.5 34:0.25 35:1.0 37:1.0 38:0.4 41:1.0 42:1.0 44:0.67 45:1.0 46:1.0 47:0.25 48:0.33 49:1.0 50:0.5 51:0.22 52:0.25 53:1.0 
-1.0 -0.0 -1.0 1.0 0.0 1.0 0.2871111831515778 1:1.0 2:0.5 3:1.0 4:0.25 5:1.0 7:0.17 8:1.0 9:1.0 11:1.0 12:0.12 15:1.0 17:1.0 18:0.2 19:0.2 20:0.5 21:0.33 22:1.0 23:1.0 24:0.5 27:1.0 28:1.0 29:0.25 30:0.5 34:0.25 37:1.0 38:0.2 41:1.0 42:1.0 44:0.67 45:1.0 46:1.0 47:0.25 48:0.33 49:1.0 50:0.25 51:0.22 52:0.25 53:1.0 
-1.0 -0.24269656057316316 -1.0 1.0 0.0 1.0 1.0 4:0.5 6:1.0 20:0.5 29:0.75 30:0.5 47:0.25 48:0.67 51:0.11 
-1.0 -1.0 -1.0 1.0 1.0 1.0 1.0 10:0.25 14:0.17 26:0.2 32:0.2 33:0.2 36:0.2 39:0.25 40:0.25 43:0.25 
-1.0 -0.6957096200280682 -1.0 -1.0 0.4540214270271086 1.0 1.0 4:0.5 7:0.17 13:0.2 16:0.25 18:0.2 19:0.2 20:0.5 21:0.67 24:0.5 25:0.25 27:1.0 29:0.5 30:0.5 35:1.0 38:0.2 44:0.33 47:0.5 48:0.33 50:0.25 51:0.22 52:0.25 
-1.0 -0.0 -1.0 -1.0 1.0 1.0 1.0 2:0.5 9:1.0 11:1.0 12:0.12 24:0.5 44:0.33 
-1.0 -0.0 -1.0 -1.0 0.0 0.43321925603006883 1.0 1:0.2 2:0.5 3:0.17 4:0.5 7:0.33 8:0.17 9:1.0 11:1.0 12:0.12 13:0.2 15:0.2 16:0.25 18:0.4 19:0.4 20:0.5 21:0.33 22:1.0 23:0.2 24:1.0 25:0.25 27:1.0 28:0.2 29:0.25 30:0.5 34:0.25 35:1.0 38:0.4 41:0.14 42:1.0 44:0.67 45:0.2 46:1.0 47:0.25 48:0.33 49:0.25 50:0.5 51:0.22 52:0.25 53:0.2 
-1.0 -0.8757973675710852 -0.943850952750935 -1.0 1.0 0.5667807439699312 1.0 2:1.0 9:1.0 10:0.25 11:1.0 12:0.25 14:0.17 24:0.5 26:0.2 32:0.2 33:0.2 36:0.2 43:0.25 44:0.67 
-1.0 -0.0 -1.0 -1.0 0.48933895831500374 1.0 1.0 1:0.2 2:0.5 3:0.17 4:0.5 7:0.33 8:0.17 9:1.0 11:1.0 12:0.12 13:0.2 15:0.2 16:0.25 18:0.4 19:0.4 20:0.5 21:0.33 22:1.0 23:0.2 24:1.0 25:0.25 27:1.0 28:0.2 29:0.25 30:0.5 34:0.25 35:1.0 38:0.4 41:0.14 42:1.0 44:0.67 45:0.2 46:1.0 47:0.25 48:0.33 49:0.25 50:0.5 51:0.22 52:0.25 53:0.2 
-1.0 -0.3171814091427086 -1.0 -1.0 0.9030377654915317 1.0 1.0 1:0.4 2:1.0 3:0.33 4:0.25 5:0.33 7:0.17 8:0.33 9:1.0 10:0.25 11:1.0 12:0.25 14:0.17 15:0.4 18:0.2 19:0.2 20:0.5 21:0.33 22:1.0 23:0.4 24:0.5 26:0.2 27:1.0 28:0.4 29:0.25 30:0.5 32:0.2 33:0.2 34:0.25 36:0.2 38:0.2 41:0.29 42:1.0 43:0.25 44:1.0 45:0.4 46:1.0 47:0.25 48:0.33 49:0.5 50:0.25 51:0.22 52:0.25 53:0.4 
-1.0 -0.11131160325813799 -1.0 -1.0 0.0 1.0 1.0 4:0.5 20:0.5 21:0.67 27:1.0 29:0.75 30:1.0 44:0.33 47:0.75 48:0.67 51:0.33 52:0.25 
-1.0 -1.0 -0.05614904724906496 -1.0 0.15360184916635594 0.0 1.0 1:0.2 2:0.5 3:0.17 7:0.33 8:0.17 9:1.0 11:1.0 12:0.12 13:0.2 15:0.2 16:0.25 18:0.4 19:0.4 22:1.0 23:0.2 24:1.0 25:0.25 28:0.2 34:0.25 35:1.0 38:0.4 41:0.14 42:1.0 44:0.33 45:0.2 46:1.0 49:0.25 50:0.5 51:0.11 52:0.12 53:0.2 
-1.0 -1.0 -1.0 -1.0 0.0 1.0 1.0 1:0.2 3:0.17 4:0.5 7:0.33 8:0.17 13:0.2 15:0.2 16:0.25 18:0.4 19:0.4 20:0.5 21:0.33 22:1.0 23:0.2 24:0.5 25:0.25 27:1.0 28:0.2 29:0.25 30:0.5 34:0.25 35:1.0 38:0.4 41:0.14 42:1.0 44:0.33 45:0.2 46:1.0 47:0.25 48:0.33 49:0.25 50:0.5 51:0.22 52:0.25 53:0.2 
-1.0 -1.0 -1.0 -1.0 -1.0 1.0 1.0 2:1.0 9:1.0 10:0.25 11:1.0 12:1.0 14:0.17 24:0.5 26:0.2 32:0.2 33:0.2 36:0.2 43:0.25 44:0.67 
-1.0 -1.0 -1.0 -1.0 -1.0 1.0 1.0 2:1.0 4:0.25 9:1.0 10:0.25 11:1.0 12:1.0 14:0.17 20:0.5 21:0.33 24:0.5 26:0.2 27:1.0 29:0.25 30:0.5 32:0.2 33:0.2 36:0.2 43:0.25 44:1.0 47:0.25 48:0.33 51:0.11 52:0.12 
-1.0 -1.0 -1.0 -1.0 -1.0 1.0 1.0 1:0.2 2:0.5 3:0.17 4:0.25 7:0.33 8:0.17 9:1.0 11:1.0 12:0.12 13:0.2 15:0.2 16:0.25 18:0.4 19:0.4 22:1.0 23:0.2 24:1.0 25:0.25 28:0.2 34:0.25 35:1.0 38:0.4 41:0.14 42:1.0 44:0.33 45:0.2 46:1.0 49:0.25 50:0.5 51:0.11 52:0.12 53:0.2 
-1.0 -1.0 -1.0 -1.0 -1.0 1.0 1.0 2:1.0 4:0.25 7:0.17 9:1.0 10:1.0 11:1.0 12:0.25 13:0.2 14:1.0 16:0.25 18:0.2 19:0.2 20:0.5 21:0.33 24:1.0 25:0.25 26:1.0 27:1.0 29:0.25 30:0.5 31:1.0 32:1.0 33:1.0 35:1.0 36:1.0 38:0.2 39:1.0 40:1.0 43:1.0 44:1.0 47:0.25 48:0.33 50:0.25 51:0.11 52:0.12 
-1.0 -1.0 -1.0 -1.0 -1.0 -1.0 1.0 1:0.2 3:0.17 7:0.17 8:0.17 15:0.2 18:0.2 19:0.2 21:0.33 22:1.0 23:0.2 28:0.2 31:1.0 34:0.25 38:0.2 41:0.14 42:1.0 45:0.2 46:1.0 47:0.25 49:0.25 50:0.25 51:0.22 52:0.25 53:0.2 54:1.0 
-1.0 -0.0 -1.0 -1.0 -1.0 -0.0 1.0 4:1.0 6:1.0 20:1.0 21:0.67 27:1.0 29:1.0 30:1.0 31:1.0 44:0.33 47:0.75 48:1.0 51:0.33 52:0.25 54:1.0 
-1.0 -1.0 -1.0 -1.0 -1.0 -1.0 1.0 4:0.75 6:1.0 20:1.0 21:0.33 27:1.0 29:1.0 30:1.0 44:0.33 47:0.5 48:1.0 51:0.22 52:0.12 
-1.0 -1.0 -1.0 -1.0 -1.0 -0.5483382106097157 1.0 1:0.2 3:0.17 4:1.0 6:1.0 7:0.17 8:0.17 12:0.12 15:0.2 18:0.2 19:0.2 20:1.0 21:0.33 22:1.0 23:0.2 27:1.0 28:0.2 29:0.75 30:1.0 34:0.25 38:0.2 41:0.14 42:1.0 44:0.33 45:0.2 46:1.0 47:0.5 48:1.0 49:0.25 50:0.25 51:0.33 52:0.25 53:0.2 
-1.0 -0.0 -1.0 -1.0 -1.0 -1.0 1.0 4:1.0 6:1.0 20:1.0 21:0.33 27:1.0 29:1.0 30:1.0 44:0.33 47:0.5 48:1.0 51:0.22 52:0.12 
-1.0 -0.0 -1.0 -1.0 -1.0 -0.45166178939028434 1.0 4:1.0 6:1.0 20:1.0 21:0.33 27:1.0 29:1.0 30:1.0 44:0.33 47:0.5 48:1.0 51:0.22 52:0.12 
-1.0 -1.0 -1.0 -1.0 -1.0 -0.0 1.0 1:0.2 3:0.17 4:0.75 6:1.0 7:0.17 8:0.17 12:0.12 15:0.2 18:0.2 19:0.2 20:1.0 21:0.67 22:1.0 23:0.2 27:1.0 28:0.2 29:0.75 30:1.0 34:0.25 38:0.2 41:0.14 42:1.0 44:0.33 45:0.2 46:1.0 47:0.75 48:1.0 49:0.25 50:0.25 51:0.44 52:0.38 53:0.2 
-0.0 -0.0 -0.958774423113481 -0.0 -0.0 -0.013350745236710412 -0.17061071241685677 4:0.75 20:0.5 21:0.67 27:1.0 29:0.75 30:1.0 31:1.0 44:0.33 47:0.75 48:0.67 51:0.33 52:0.25 
-0.0 -0.5017107301883637 -0.0 -1.0 -0.2815349731710952 -0.20119613969752476 -0.0 1:0.2 3:0.17 7:0.17 8:0.17 15:0.2 18:0.2 19:0.2 22:1.0 23:0.2 28:0.2 34:0.25 38:0.2 41:0.14 42:1.0 45:0.2 46:1.0 49:0.25 50:0.25 51:0.11 52:0.12 53:0.2 
-1.0 -0.0 -0.2221813220104809 -1.0 -1.0 -0.21410193670375968 -0.0 1:0.2 3:0.17 4:0.5 7:0.33 8:0.17 13:0.2 15:0.2 16:0.25 18:0.4 19:0.4 20:0.5 21:0.33 22:1.0 23:0.2 24:0.5 25:0.25 27:1.0 28:0.2 29:0.25 30:0.5 34:0.25 35:1.0 38:0.4 41:0.14 42:1.0 44:0.33 45:0.2 46:1.0 47:0.25 48:0.33 49:0.25 50:0.5 51:0.22 52:0.25 53:0.2 
-1.0 -0.11166843632910141 -1.0 -0.2669560131330668 -0.0 -0.03715350137596093 -1.0 1:0.2 3:0.17 4:0.75 6:1.0 7:0.17 8:0.17 15:0.2 18:0.2 19:0.2 20:1.0 21:0.67 22:1.0 23:0.2 27:1.0 28:0.2 29:0.75 30:1.0 31:1.0 34:0.25 38:0.2 41:0.14 42:1.0 44:0.33 45:0.2 46:1.0 47:0.75 48:1.0 49:0.25 50:0.25 51:0.44 52:0.38 53:0.2 
-0.28426826502472363 -0.0 -0.0 -0.0 -0.5884299378199984 -0.31275672716757763 -0.0 4:0.5 12:0.12 20:0.5 21:0.33 27:1.0 29:0.5 30:1.0 44:0.33 47:0.5 48:0.67 51:0.22 52:0.12 
-1.0 -0.0 -0.0 -0.6381837909270311 -0.0 -0.0 -1.0 4:0.75 6:1.0 20:1.0 21:0.33 27:1.0 29:1.0 30:1.0 44:0.33 47:0.5 48:1.0 51:0.22 52:0.12 
-1.0 -0.0 -1.0 -0.4956273485903458 -1.0 -0.0 -0.0 1:0.2 3:0.17 4:0.5 7:0.17 8:0.17 15:0.2 18:0.2 19:0.2 20:0.5 21:0.33 22:1.0 23:0.2 27:1.0 28:0.2 29:0.5 30:1.0 34:0.25 38:0.2 41:0.14 42:1.0 44:0.33 45:0.2 46:1.0 47:0.5 48:0.67 49:0.25 50:0.25 51:0.33 52:0.25 53:0.2 
-1.0 -0.8906226365967354 -0.0 -0.5284991377105177 -0.0 -0.0 -0.8900893834103029 1:0.2 3:0.17 4:0.25 6:1.0 7:0.17 8:0.17 15:0.2 18:0.2 19:0.2 20:0.5 22:1.0 23:0.2 28:0.2 29:0.25 34:0.25 38:0.2 41:0.14 42:1.0 45:0.2 46:1.0 48:0.33 49:0.25 50:0.25 51:0.11 52:0.12 53:0.2 
-0.0 -0.0 -0.0 -0.977780937699251 -0.36879309105964153 -1.0 -0.0 12:0.12 
-1.0 -0.0 -0.0 -0.0 -0.0 -0.0 -1.0 4:1.0 6:1.0 20:1.0 21:0.33 27:1.0 29:1.0 30:1.0 44:0.33 47:0.5 48:1.0 51:0.22 52:0.12 
-0.9866577287343989 -0.0 -1.0 -0.0 -1.0 -0.0 -0.6474143871864251 1:0.2 3:0.17 4:0.75 7:0.17 8:0.17 15:0.2 18:0.2 19:0.2 20:0.5 21:0.33 22:1.0 23:0.2 27:1.0 28:0.2 29:0.5 30:1.0 34:0.25 38:0.2 41:0.14 42:1.0 44:0.33 45:0.2 46:1.0 47:0.5 48:0.67 49:0.25 50:0.25 51:0.33 52:0.25 53:0.2 
-0.0 -0.0 -0.0 -1.0 -0.0 -0.0 -0.0 1:0.2 3:0.17 4:0.25 7:0.17 8:0.17 15:0.2 18:0.2 19:0.2 22:1.0 23:0.2 28:0.2 34:0.25 38:0.2 41:0.14 42:1.0 45:0.2 46:1.0 49:0.25 50:0.25 51:0.11 52:0.12 53:0.2 
-0.0 -0.0 -1.0 -0.018627768705107867 -0.1739385929426948 -0.0 -0.0 21:0.67 29:0.25 47:0.5 51:0.22 52:0.25 54:1.0 
-0.16637280841173296 -0.0 -1.0 -0.0 -0.0 -0.0 -1.0 4:0.75 20:0.5 21:0.67 27:1.0 29:0.75 30:1.0 44:0.33 47:0.75 48:0.67 51:0.33 52:0.25 54:1.0 
-0.0 -0.0 -0.0 -1.0 -1.0 -0.0 -0.0 1:0.2 3:0.17 7:0.17 8:0.17 15:0.2 18:0.2 19:0.2 21:0.33 22:1.0 23:0.2 28:0.2 34:0.25 38:0.2 41:0.14 42:1.0 45:0.2 46:1.0 47:0.25 49:0.25 50:0.25 51:0.22 52:0.25 53:0.2 
-0.0 -0.0 -0.0 -1.0 -0.0 -0.0 -0.0 1:0.2 3:0.17 4:0.25 7:0.17 8:0.17 15:0.2 18:0.2 19:0.2 22:1.0 23:0.2 28:0.2 34:0.25 38:0.2 41:0.14 42:1.0 45:0.2 46:1.0 49:0.25 50:0.25 51:0.11 52:0.12 53:0.2 
-1.0 -0.0 -0.0 -0.0 -1.0 -0.4298583133114362 -0.0 4:0.25 7:0.17 13:0.2 16:0.25 18:0.2 19:0.2 20:0.5 21:0.33 24:0.5 25:0.25 27:1.0 29:0.25 30:0.5 35:1.0 38:0.2 44:0.33 47:0.25 48:0.33 50:0.25 51:0.11 52:0.12 
-0.0 -1.0 -0.0 -0.6863220174227368 -0.5873034050065703 -0.3390109046566778 -0.0 1:0.2 3:0.17 7:1.0 8:0.17 12:0.12 13:1.0 15:0.2 16:1.0 18:1.0 19:1.0 22:1.0 23:0.2 24:0.5 25:1.0 28:0.2 31:1.0 34:1.0 35:1.0 38:1.0 41:0.14 42:1.0 45:0.2 46:1.0 49:0.25 50:1.0 51:0.11 52:0.12 53:0.2 
-0.0 -0.0 -1.0 -0.0 -0.0 -0.2948867321613666 -0.2918855169864153 1:0.2 3:0.17 7:0.17 8:0.17 12:0.12 15:0.2 18:0.2 19:0.2 21:0.67 22:1.0 23:0.2 28:0.2 31:1.0 34:0.25 38:0.2 41:0.14 42:1.0 45:0.2 46:1.0 47:0.5 49:0.25 50:0.25 51:0.33 52:0.38 53:0.2 54:1.0 
-1.0 -0.0 -0.6049292997315194 -0.0 -0.0 -0.0 -1.0 4:1.0 6:1.0 20:1.0 21:0.33 27:1.0 29:1.0 30:1.0 44:0.33 47:0.5 48:1.0 51:0.22 52:0.12 
-0.0 -0.0 -0.0 -0.8811133326436459 -0.0 -0.0 -0.0 1:0.2 3:0.17 4:0.25 7:0.17 8:0.17 15:0.2 18:0.2 19:0.2 22:1.0 23:0.2 28:0.2 34:0.25 38:0.2 41:0.14 42:1.0 45:0.2 46:1.0 49:0.25 50:0.25 51:0.11 52:0.12 53:0.2 
-0.0 -0.43770624301073635 -0.2141149551445187 -0.09683697516406915 -0.0 -0.0 -0.0 1:0.2 3:0.17 7:0.17 8:0.17 15:0.2 18:0.2 19:0.2 21:0.33 22:1.0 23:0.2 28:0.2 31:1.0 34:0.25 38:0.2 41:0.14 42:1.0 45:0.2 46:1.0 47:0.25 49:0.25 50:0.25 51:0.22 52:0.25 53:0.2 54:1.0 
-0.07771847408943104 -0.7321887322091567 -0.0 -1.0 -1.0 -1.0 -0.0 2:1.0 4:0.5 7:0.17 9:1.0 10:0.25 11:1.0 12:0.25 13:0.2 14:0.17 16:0.25 18:0.2 19:0.2 20:0.5 21:0.33 24:1.0 25:0.25 26:0.2 27:1.0 29:0.5 30:0.5 32:0.2 33:0.2 35:1.0 36:0.2 38:0.2 43:0.25 44:1.0 47:0.25 48:0.33 50:0.25 51:0.11 52:0.12 
-0.4849827237397133 -0.32610322166590666 -0.0 -0.0 -1.0 -0.15768499968898594 -0.0 4:0.25 7:0.17 13:0.2 16:0.25 18:0.2 19:0.2 24:0.5 25:0.25 29:0.25 35:1.0 38:0.2 50:0.25 
