svm_type c_svc
kernel_type rbf
gamma 0.029411764705882353
nr_class 8
total_sv 78
rho -0.9024054720536583 -0.18391998452797387 0.09186892459238143 0.015252314636615116 -0.45305922627449036 -0.8960196244662855 0.8496146584358252 0.6782263219356537 0.9626834402600568 0.9336128964003791 0.6610597934233355 0.8491738736629486 0.9399869716280632 0.35754305716281215 0.17721691727638245 -0.18309640884399414 -0.3767085373401642 0.750691399739344 -0.1884532083569236 -0.8378723318397835 -0.1382635235786438 -0.02561417923962518 -0.9236725651602608 0.0770118236541748 0.41223678223057175 0.26329964399337763 0.5919009672895996 0.96409494117812
label 3 7 4 0 5 6 2 1
nr_sv 11 3 8 12 10 4 7 23
SV
1.0 1.0 1.0 1.0 1.0 0.15443378126917687 1.0 2:0.25 4:0.33 7:0.67 8:0.67 13:0.25 16:0.33 27:0.5 33:1.0 
0.0 1.0 1.0 1.0 0.0 1.0 1.0 2:0.5 3:0.12 4:0.67 5:0.17 6:0.2 7:1.0 8:1.0 11:0.17 13:0.62 16:0.33 17:0.5 18:0.2 21:0.17 22:0.2 23:0.14 25:1.0 27:0.75 29:0.17 30:1.0 33:1.0 
0.5740159041270567 0.0 1.0 1.0 0.9635459911870768 0.0 1.0 7:0.33 8:0.33 13:0.12 14:1.0 17:1.0 27:0.5 28:0.5 30:1.0 31:1.0 
0.04612596660715978 0.8914079623073687 1.0 1.0 0.0 0.07256260349579617 1.0 2:0.25 4:0.17 7:0.33 8:0.33 13:0.25 14:1.0 17:1.0 27:0.5 30:1.0 
0.9905452827166451 1.0 1.0 1.0 1.0 0.8598401370008497 1.0 2:0.25 4:0.17 5:0.17 6:0.2 7:0.33 8:0.33 11:0.17 13:0.25 17:0.5 18:0.2 21:0.17 22:0.2 23:0.14 25:1.0 27:0.25 29:0.17 30:1.0 
0.0 0.0 0.0 0.0 0.0 1.0 1.0 2:0.25 4:0.33 7:1.0 8:1.0 13:0.38 14:1.0 16:0.33 17:1.0 27:1.0 30:1.0 33:1.0 
0.0 1.0 1.0 1.0 0.03645400881292316 1.0 1.0 2:0.5 3:0.12 4:0.67 5:0.17 6:0.2 7:1.0 8:1.0 11:0.17 13:0.62 16:0.33 17:0.5 18:0.2 21:0.17 22:0.2 23:0.14 25:1.0 27:0.75 29:0.17 30:1.0 33:1.0 
0.0 0.2537726486891707 0.4090986756603314 1.0 0.0 0.32949570687607205 1.0 2:0.25 4:0.33 7:1.0 8:1.0 13:0.38 14:1.0 16:0.33 17:1.0 27:1.0 28:0.5 30:1.0 31:1.0 33:1.0 
0.38931284654913834 1.0 1.0 1.0 1.0 0.6716365005282003 1.0 2:0.25 4:0.33 7:0.67 8:0.67 13:0.25 14:1.0 16:0.33 17:0.5 27:0.75 28:0.5 31:1.0 33:1.0 
0.0 0.8548193890034606 0.0 0.0 0.0 0.9602652168885644 1.0 2:0.25 4:0.33 7:1.0 8:1.0 13:0.38 14:1.0 16:0.33 17:1.0 27:1.0 30:1.0 33:1.0 
0.0 1.0 0.0 0.12874557381576682 0.0 0.9517660539413405 1.0 2:0.25 4:0.33 7:1.0 8:1.0 13:0.38 14:1.0 16:0.33 17:1.0 27:1.0 30:1.0 33:1.0 
-1.0 1.0 1.0 1.0 1.0 1.0 1.0 1:0.5 3:0.12 16:0.33 34:1.0 
-1.0 1.0 1.0 1.0 1.0 1.0 1.0 1:0.5 2:0.5 3:0.12 4:0.33 5:0.17 6:0.2 7:0.33 8:0.33 11:0.17 13:0.25 16:0.67 18:0.2 21:0.17 22:0.2 23:0.14 25:1.0 27:0.25 28:0.5 29:0.17 31:1.0 33:0.5 34:1.0 
-1.0 1.0 1.0 1.0 1.0 1.0 1.0 4:0.17 7:0.67 8:0.67 13:0.25 14:1.0 17:1.0 27:0.75 30:1.0 33:0.5 
-1.0 -0.0 0.0 0.0 0.0 1.0 1.0 2:1.0 3:0.12 4:1.0 5:0.17 6:0.2 7:1.0 8:1.0 11:0.17 12:1.0 13:1.0 16:0.33 17:0.5 18:0.2 21:0.17 22:0.2 23:0.14 25:1.0 27:0.75 29:0.17 30:1.0 33:1.0 
-1.0 -0.0 1.0 1.0 1.0 0.0 1.0 2:1.0 3:0.12 4:1.0 5:0.17 6:0.2 7:0.67 8:0.67 11:0.17 12:1.0 13:0.88 16:0.33 18:0.2 21:0.17 22:0.2 23:0.14 25:1.0 27:0.5 29:0.17 33:1.0 
-1.0 -0.0 0.6717296278794145 0.623488587611319 0.0 1.0 1.0 2:1.0 3:0.12 4:1.0 5:0.17 6:0.2 7:1.0 8:1.0 11:0.17 12:1.0 13:1.0 16:0.33 17:0.5 18:0.2 21:0.17 22:0.2 23:0.14 25:1.0 27:0.75 29:0.17 30:1.0 33:1.0 
-1.0 -1.0 1.0 1.0 1.0 1.0 1.0 2:0.25 4:0.17 12:1.0 13:0.25 
-1.0 -0.0 1.0 1.0 0.0 1.0 1.0 2:1.0 3:0.12 4:1.0 5:0.17 6:0.2 7:1.0 8:1.0 11:0.17 12:1.0 13:1.0 16:0.33 17:0.5 18:0.2 21:0.17 22:0.2 23:0.14 25:1.0 27:0.75 29:0.17 30:1.0 33:1.0 
-1.0 -1.0 1.0 1.0 1.0 1.0 1.0 2:1.0 4:0.67 5:0.17 6:0.2 7:0.33 8:0.33 11:0.17 12:1.0 13:0.62 16:0.33 18:0.2 21:0.17 22:0.2 23:0.14 25:1.0 27:0.25 28:0.5 29:0.17 31:1.0 33:0.5 
-1.0 -0.8880016201355235 1.0 0.8928697073672938 0.0 1.0 1.0 2:1.0 3:0.12 4:1.0 5:0.17 6:0.2 7:1.0 8:1.0 11:0.17 12:1.0 13:1.0 16:0.33 17:0.5 18:0.2 21:0.17 22:0.2 23:0.14 25:1.0 27:0.75 29:0.17 30:1.0 33:1.0 
-1.0 -0.11199837986447647 1.0 1.0 1.0 1.0 1.0 2:1.0 3:0.12 4:1.0 5:0.17 6:0.2 7:0.67 8:0.67 11:0.17 12:1.0 13:0.75 16:0.33 18:0.2 21:0.17 22:0.2 23:0.14 25:1.0 27:0.5 29:0.17 33:1.0 
-0.0 -0.0 -0.0 1.0 0.0 0.0 0.0 1:0.5 2:0.5 3:0.12 4:0.33 5:1.0 6:1.0 7:0.33 8:0.33 9:1.0 10:1.0 11:1.0 13:0.25 15:1.0 16:0.67 18:1.0 19:1.0 20:1.0 21:1.0 22:1.0 23:1.0 24:1.0 25:1.0 26:1.0 27:0.25 28:1.0 29:1.0 31:1.0 32:1.0 33:0.5 
-0.0 -0.0 -0.0 0.0 0.0 0.0 0.1384670722552706 2:0.25 4:0.17 5:1.0 6:1.0 9:1.0 10:1.0 11:1.0 13:0.12 15:1.0 18:1.0 19:1.0 21:1.0 22:1.0 23:1.0 25:1.0 26:1.0 29:1.0 32:1.0 
-1.0 -0.0 -1.0 1.0 1.0 1.0 1.0 2:0.25 4:0.17 7:0.33 8:0.33 13:0.12 16:0.33 27:0.25 28:0.5 31:1.0 33:0.5 
-1.0 -0.0 -0.05054278232958292 0.7634274584262932 0.0 1.0 1.0 2:0.25 4:0.17 5:0.83 6:0.8 7:0.33 8:0.33 9:1.0 10:1.0 11:0.83 13:0.12 14:1.0 15:1.0 16:0.33 17:0.5 18:0.8 19:1.0 21:0.83 22:0.8 23:0.86 26:1.0 27:0.5 28:0.5 29:0.83 31:1.0 32:1.0 33:0.5 
-0.0 -0.0 -0.0 0.0 0.0 0.0 1.0 2:0.25 4:0.17 5:1.0 6:1.0 9:1.0 10:1.0 11:1.0 13:0.12 15:1.0 18:1.0 19:1.0 21:1.0 22:1.0 23:1.0 25:1.0 26:1.0 29:1.0 32:1.0 
-0.36838930429598693 -0.0 -0.30835367233894984 0.0 0.0 0.0 1.0 2:0.25 4:0.17 5:1.0 6:1.0 9:1.0 10:1.0 11:1.0 13:0.12 15:1.0 18:1.0 19:1.0 21:1.0 22:1.0 23:1.0 25:1.0 26:1.0 29:1.0 32:1.0 
-1.0 -0.5799721952624698 -1.0 1.0 1.0 1.0 1.0 34:0.17 
-0.04070937136434449 -0.12980216150355045 -0.3128331732108817 1.0 0.5730322280552879 0.0 0.27824685009199296 1:0.5 2:0.5 3:0.12 4:0.33 5:1.0 6:1.0 7:0.33 8:0.33 9:1.0 10:1.0 11:1.0 13:0.25 15:1.0 16:0.67 18:1.0 19:1.0 20:1.0 21:1.0 22:1.0 23:1.0 24:1.0 25:1.0 26:1.0 27:0.25 28:1.0 29:1.0 31:1.0 32:1.0 33:0.5 
-1.0 -0.0 -1.0 0.7855978397534042 0.2738684300418933 0.9889435631020536 0.4532850343626918 1:0.5 2:0.5 3:0.12 4:0.33 5:1.0 6:1.0 7:0.33 8:0.33 9:1.0 10:1.0 11:1.0 13:0.25 15:1.0 16:0.67 18:1.0 19:1.0 20:1.0 21:1.0 22:1.0 23:1.0 24:1.0 25:1.0 26:1.0 27:0.25 28:0.5 29:1.0 32:1.0 33:0.5 
-1.0 -0.5216996684825245 -1.0 1.0 0.15309934190281876 1.0 1.0 2:0.5 4:0.33 5:0.17 6:0.2 11:0.17 13:0.25 18:0.2 21:0.17 22:0.2 23:0.14 25:1.0 29:0.17 
-1.0 -0.8052809689720012 -1.0 1.0 1.0 1.0 1.0 2:0.25 4:0.17 7:0.33 8:0.33 13:0.12 16:0.33 27:0.25 28:0.5 31:1.0 33:0.5 
-1.0 -0.9632450057794542 -1.0 1.0 0.0 1.0 1.0 4:0.17 7:0.67 8:0.67 13:0.25 14:1.0 17:1.0 27:0.75 30:1.0 33:0.5 
-1.0 -0.7964386009174386 -1.0 -1.0 0.0 1.0 1.0 2:0.25 4:0.17 13:0.12 14:1.0 17:0.5 27:0.25 28:0.5 31:1.0 
-1.0 -0.0 -0.0 -0.5490252981796975 0.14107403471618138 1.0 1.0 1:0.5 3:0.12 16:0.33 20:1.0 24:1.0 28:0.5 
-0.0 -0.0 -0.0 -1.0 0.0 0.0 1.0 1:0.5 2:0.25 3:0.12 4:0.17 5:0.17 6:0.2 11:0.17 13:0.12 16:0.33 18:0.2 20:1.0 21:0.17 22:0.2 23:0.14 24:1.0 25:1.0 28:1.0 29:0.17 31:1.0 
-0.2575055728905207 -0.48325542697629054 -0.0 -0.0 1.0 0.0 1.0 1:1.0 3:0.25 16:0.67 20:1.0 24:1.0 28:0.5 34:0.17 
-1.0 -0.0 -0.623488587611319 -1.0 0.15804693434956224 0.0 1.0 1:0.5 2:0.25 3:0.12 4:0.17 5:0.17 6:0.2 11:0.17 13:0.12 16:0.33 18:0.2 20:1.0 21:0.17 22:0.2 23:0.14 24:1.0 25:1.0 28:1.0 29:0.17 31:1.0 
-1.0 -0.4711715406586262 -1.0 -1.0 0.5956134931056485 1.0 1.0 1:1.0 2:0.5 3:0.25 4:0.33 5:0.33 6:0.2 7:0.33 8:0.33 9:0.25 10:0.17 11:0.33 13:0.25 15:0.2 16:1.0 18:0.4 19:0.2 20:1.0 21:0.33 22:0.4 23:0.29 24:1.0 25:1.0 27:0.25 28:0.5 29:0.33 32:0.2 33:0.5 34:0.17 
-1.0 -0.9078666583969436 -1.0 -1.0 0.0 1.0 1.0 2:0.5 4:0.5 7:0.67 8:0.67 13:0.38 14:1.0 16:0.33 17:0.5 27:0.75 33:1.0 
-1.0 -0.34126777305070105 -1.0 -1.0 0.10526553782860781 1.0 1.0 4:0.17 7:0.33 8:0.33 13:0.12 14:1.0 17:0.5 27:0.5 28:0.5 31:1.0 33:0.5 
-1.0 -0.0 -1.0 -1.0 1.0 1.0 1.0 1:0.5 2:0.25 3:0.12 4:0.17 7:0.33 8:0.33 13:0.12 16:0.67 20:1.0 24:1.0 27:0.25 28:0.5 33:0.5 
-0.8712400009252461 -0.0 -0.8928697073672938 -1.0 1.0 1.0 1.0 1:0.5 2:0.25 3:0.12 4:0.17 5:0.17 6:0.2 11:0.17 13:0.12 16:0.33 18:0.2 20:1.0 21:0.17 22:0.2 23:0.14 24:1.0 25:1.0 28:1.0 29:0.17 31:1.0 
-1.0 -0.36413779428099846 -1.0 -1.0 -1.0 1.0 1.0 1:1.0 3:1.0 4:0.17 13:0.12 16:0.67 20:1.0 24:1.0 28:0.5 34:0.17 
-1.0 -0.7649347339959371 -1.0 -1.0 -1.0 1.0 1.0 1:1.0 2:0.25 3:1.0 4:0.33 7:0.33 8:0.33 13:0.25 16:1.0 20:1.0 24:1.0 27:0.25 28:0.5 33:0.5 34:0.17 
-1.0 -1.0 -1.0 -1.0 -1.0 1.0 1.0 1:0.5 2:0.25 3:0.12 4:0.17 5:0.17 6:0.2 11:0.17 13:0.12 16:0.33 18:0.2 20:1.0 21:0.17 22:0.2 23:0.14 24:1.0 25:1.0 28:1.0 29:0.17 31:1.0 
-1.0 -0.8709274717230644 -1.0 -1.0 -1.0 1.0 1.0 1:1.0 2:0.25 3:0.25 4:0.17 7:0.33 8:0.33 13:0.12 16:1.0 20:1.0 24:1.0 27:0.25 28:1.0 31:1.0 33:0.5 34:1.0 
-1.0 -1.0 -1.0 -1.0 -1.0 -1.0 1.0 2:0.5 4:0.33 5:0.17 6:0.2 11:0.17 12:1.0 13:0.25 18:0.2 21:0.17 22:0.2 23:0.14 25:1.0 29:0.17 
-1.0 -0.0 -1.0 -1.0 -1.0 -0.30509855358044896 1.0 2:0.75 3:0.12 4:0.83 5:0.17 6:0.2 7:1.0 8:1.0 11:0.17 12:1.0 13:0.75 16:0.33 17:0.5 18:0.2 21:0.17 22:0.2 23:0.14 25:1.0 27:0.75 29:0.17 30:1.0 33:1.0 
-1.0 -0.0 -1.0 -1.0 -1.0 -0.0 1.0 2:0.25 4:0.33 7:1.0 8:1.0 13:0.38 14:1.0 16:0.33 17:1.0 27:1.0 30:1.0 33:1.0 
-1.0 -0.0 -1.0 -1.0 -1.0 -0.0 1.0 2:0.25 4:0.33 7:1.0 8:1.0 13:0.38 14:1.0 16:0.33 17:1.0 27:1.0 30:1.0 33:1.0 
-1.0 -0.29772136876473193 -1.0 -1.0 -1.0 -1.0 1.0 2:0.25 4:0.33 7:1.0 8:1.0 13:0.38 14:1.0 16:0.33 17:1.0 27:1.0 30:1.0 33:1.0 
-1.0 -1.0 -1.0 -0.9889435631020536 -1.0 -0.6949014464195511 1.0 2:0.25 4:0.33 7:1.0 8:1.0 13:0.38 14:1.0 16:0.33 17:1.0 27:1.0 30:1.0 33:1.0 
-1.0 -0.702278631235268 -1.0 -1.0 -1.0 -1.0 1.0 2:0.5 4:0.5 5:0.17 6:0.2 7:1.0 8:1.0 11:0.17 13:0.5 16:0.33 17:0.5 18:0.2 21:0.17 22:0.2 23:0.14 25:1.0 27:0.75 28:0.5 29:0.17 30:1.0 31:1.0 33:1.0 
-0.0 -0.0 -0.061554414025685095 -0.23635744028553546 -1.0 -0.39355918381943195 -0.0 2:0.25 3:0.12 4:0.33 12:1.0 13:0.25 
-1.0 -0.0 -0.0 -0.0 -1.0 -0.0 -0.0 2:0.5 4:0.5 7:0.67 8:0.67 13:0.38 14:1.0 16:0.33 17:0.5 27:0.75 33:1.0 
-1.0 -0.2764226849566751 -0.0 -1.0 -1.0 -1.0 -0.0 2:0.25 4:0.17 7:0.33 8:0.33 13:0.12 16:0.33 27:0.25 28:0.5 31:1.0 33:0.5 
-1.0 -0.0 -1.0 -0.0 -0.0 -0.0 -1.0 2:0.5 4:0.5 7:1.0 8:1.0 13:0.5 14:1.0 16:0.33 17:1.0 27:1.0 30:1.0 33:1.0 
-0.5482202547843041 -0.0 -1.0 -0.0 -0.0 -0.0 -0.0 2:0.5 4:0.5 5:0.17 6:0.2 7:0.67 8:0.67 11:0.17 13:0.38 16:0.33 18:0.2 21:0.17 22:0.2 23:0.14 25:1.0 27:0.5 29:0.17 33:1.0 
-0.0 -0.0 -0.0 -0.04733611830278594 -0.0 -0.0 -0.0 2:0.25 4:0.17 5:0.17 6:0.2 11:0.17 13:0.12 18:0.2 21:0.17 22:0.2 23:0.14 25:1.0 29:0.17 
-1.0 -0.0 -0.0 -0.0 -0.0 -0.0 -1.0 2:0.25 4:0.33 7:1.0 8:1.0 13:0.38 14:1.0 16:0.33 17:1.0 27:1.0 30:1.0 33:1.0 
-0.0 -0.0 -1.0 -0.0 -0.0 -0.0 -0.0 2:0.5 4:0.5 5:0.17 6:0.2 7:0.67 8:0.67 11:0.17 13:0.38 16:0.33 18:0.2 21:0.17 22:0.2 23:0.14 25:1.0 27:0.5 29:0.17 33:1.0 
-1.0 -0.24384451600456494 -0.0 -0.0 -0.0 -0.0 -0.42463373233472324 2:0.25 4:0.17 5:0.17 6:0.2 7:0.33 8:0.33 11:0.17 13:0.25 17:0.5 18:0.2 21:0.17 22:0.2 23:0.14 25:1.0 27:0.25 29:0.17 30:1.0 
-0.24790267283947848 -1.0 -0.0 -0.20387824586331804 -1.0 -1.0 -0.0 3:0.12 4:0.17 13:0.12 
-0.0 -0.0 -0.0 -1.0 -0.0 -0.0 -0.0 2:0.25 4:0.17 5:0.17 6:0.2 11:0.17 13:0.12 18:0.2 21:0.17 22:0.2 23:0.14 25:1.0 29:0.17 
-1.0 -0.0 -0.0 -0.0 -0.0 -0.0 -1.0 2:0.25 4:0.33 7:1.0 8:1.0 13:0.38 14:1.0 16:0.33 17:1.0 27:1.0 30:1.0 33:1.0 
-0.0 -0.0 -1.0 -0.0 -0.0 -0.0 -0.685877286677821 2:0.5 4:0.5 5:0.17 6:0.2 7:0.67 8:0.67 11:0.17 13:0.38 16:0.33 18:0.2 21:0.17 22:0.2 23:0.14 25:1.0 27:0.5 29:0.17 33:1.0 
-0.0 -0.0 -0.0 -1.0 -1.0 -0.0 -0.0 2:0.25 4:0.17 5:0.17 6:0.2 11:0.17 13:0.12 18:0.2 21:0.17 22:0.2 23:0.14 25:1.0 29:0.17 
-0.0 -0.0 -1.0 -0.0 -0.0 -0.0 -0.0 2:0.75 3:0.12 4:0.67 5:0.17 6:0.2 11:0.17 12:1.0 13:0.5 18:0.2 21:0.17 22:0.2 23:0.14 25:1.0 29:0.17 
-0.7917603474708418 -0.0 -1.0 -0.0 -0.027001602678735498 -0.0 -0.0 2:0.5 4:0.5 7:0.67 8:0.67 12:1.0 13:0.38 14:1.0 16:0.33 17:0.5 27:0.75 33:1.0 
-0.0 -0.0 -0.0 -1.0 -1.0 -0.0 -0.0 2:0.25 4:0.17 5:0.17 6:0.2 11:0.17 13:0.12 18:0.2 21:0.17 22:0.2 23:0.14 25:1.0 29:0.17 
-0.8486961560496311 -0.6527265070079256 -0.0 -1.0 -1.0 -0.427881775526901 -0.0 2:0.5 4:0.33 5:0.17 6:0.2 7:0.33 8:0.33 11:0.17 13:0.25 16:0.33 18:0.2 21:0.17 22:0.2 23:0.14 25:1.0 27:0.25 28:0.5 29:0.17 31:1.0 33:0.5 
-0.5634205688557444 -0.0 -0.6417623228550531 -0.786025806932759 -1.0 -1.0 -0.45422448960298745 2:0.5 3:0.12 4:0.5 5:0.17 6:0.2 7:0.33 8:0.33 11:0.17 13:0.38 16:0.33 18:0.2 21:0.17 22:0.2 23:0.14 25:1.0 27:0.25 28:0.5 29:0.17 31:1.0 33:0.5 
-1.0 -0.0 -0.0 -0.7158485832758545 -0.0 -0.0 -1.0 2:0.25 4:0.33 7:1.0 8:1.0 13:0.38 14:1.0 16:0.33 17:1.0 27:1.0 30:1.0 33:1.0 
-0.0 -0.0 -1.0 -0.0 -0.0 -0.0 -0.7655298243172148 2:0.75 3:0.12 4:0.67 5:0.17 6:0.2 11:0.17 12:1.0 13:0.5 18:0.2 21:0.17 22:0.2 23:0.14 25:1.0 29:0.17 
-1.0 -0.7710867406811059 -0.2966832631192619 -0.8805527620497023 -0.9927536513613525 -0.1785590406536671 -0.6697346670672536 2:0.25 4:0.33 7:1.0 8:1.0 13:0.38 14:1.0 16:0.33 17:1.0 27:1.0 30:1.0 33:1.0 
-0.0 -0.05591955134972847 -0.0 -1.0 -0.980244745959912 -0.0 -0.0 2:0.25 4:0.17 5:0.17 6:0.2 11:0.17 13:0.12 18:0.2 21:0.17 22:0.2 23:0.14 25:1.0 29:0.17 
