svm_type c_svc
kernel_type rbf
gamma 0.03333333333333333
nr_class 8
total_sv 81
rho -0.8193390191590542 -0.0637090802192688 0.19095024009051753 -0.04282177620603798 -0.07633708995674261 -1.0094858928874533 0.7326952299610112 0.7937175635462566 0.9935646930231431 0.9474667735576249 0.7355386043727984 0.2729049324989319 0.9860722446891511 0.14158088778945546 0.12363970767186525 -0.08360683685773238 -0.45937809348106384 0.5975205777118012 -0.37526068091392517 -0.2976219498163061 -0.5933960999719998 0.8813971558055728 -0.5580761134624481 -0.5378297091547672 0.45294372347718387 -0.10430440901179205 0.19512000059832058 0.9744859146561531
label 3 7 4 0 5 6 2 1
nr_sv 12 3 8 13 8 6 4 27
SV
1.0 1.0 1.0 1.0 1.0 0.0 1.0 1:1.0 2:0.25 3:0.12 5:0.5 7:1.0 8:0.25 9:0.38 11:0.67 13:0.5 15:0.5 16:0.33 17:0.5 19:0.67 20:0.14 22:0.6 23:1.0 25:0.33 26:0.6 27:1.0 28:0.33 29:1.0 
0.0 0.0 0.7041441844265256 1.0 0.4468270332755548 0.5977174710269052 1.0 2:0.5 3:0.12 8:0.25 9:0.88 11:1.0 12:1.0 13:1.0 17:0.25 18:1.0 19:0.33 22:0.2 23:0.5 24:0.5 25:0.67 26:0.4 27:1.0 29:1.0 
0.0 1.0 0.558270127286234 0.0 0.0 1.0 1.0 1:1.0 2:0.25 3:0.12 5:0.5 7:1.0 8:0.25 9:0.88 11:1.0 12:1.0 13:1.0 15:0.5 16:0.33 17:0.5 18:1.0 19:0.67 20:0.14 22:0.6 23:1.0 25:0.33 26:0.6 27:1.0 28:0.33 29:1.0 
0.2516977724877894 1.0 1.0 1.0 0.20135699863515993 0.10916906365708864 1.0 9:0.62 11:0.33 12:1.0 13:0.5 17:0.25 18:1.0 19:0.17 20:0.14 22:0.2 26:0.2 28:0.33 
1.0 1.0 1.0 1.0 1.0 0.0 1.0 1:1.0 3:0.12 5:0.5 7:1.0 8:0.12 9:0.12 11:0.33 13:0.25 15:0.5 16:0.33 17:0.25 18:1.0 19:0.17 20:0.14 22:0.2 23:0.5 26:0.2 28:0.33 
0.0 0.0 1.0 0.32031011677706794 0.0 0.2414438259139044 1.0 2:0.25 8:0.12 9:0.75 11:1.0 13:0.75 17:0.25 18:1.0 19:0.33 22:0.2 23:0.5 25:0.33 26:0.4 27:1.0 29:1.0 
0.0 1.0 1.0 0.0 0.0 0.0 1.0 1:1.0 2:0.25 3:0.12 5:0.5 7:1.0 8:0.25 9:0.75 11:1.0 13:0.75 15:0.5 16:0.33 17:0.5 18:1.0 19:0.67 20:0.14 22:0.6 23:1.0 25:0.33 26:0.6 27:1.0 28:0.33 29:1.0 
0.0 0.0 1.0 1.0 0.41414657219942047 1.0 1.0 2:0.5 4:0.33 8:0.12 9:0.88 11:1.0 12:1.0 13:1.0 16:0.33 17:0.25 18:1.0 19:0.33 21:0.5 22:0.2 23:0.5 25:0.33 26:0.4 27:1.0 29:1.0 
0.0 1.0 1.0 0.0 0.0 0.0 1.0 1:1.0 2:0.25 3:0.12 5:0.5 7:1.0 8:0.25 9:0.38 11:1.0 13:0.75 15:0.5 16:0.33 17:0.5 18:1.0 19:0.67 20:0.14 22:0.6 23:1.0 25:0.33 26:0.6 27:1.0 28:0.33 29:1.0 
0.0 0.0 0.0 0.0 0.0 1.0 1.0 2:0.25 8:0.12 9:1.0 11:1.0 12:1.0 13:1.0 17:0.25 18:1.0 19:0.33 22:0.2 23:0.5 25:0.33 26:0.4 27:1.0 29:1.0 
0.1193739767248261 1.0 1.0 0.9842986557123563 0.9376693958898649 0.05166963940210175 1.0 1:1.0 2:0.25 3:0.12 5:0.5 7:1.0 8:0.25 9:0.38 11:0.67 12:1.0 13:0.75 15:0.5 16:0.33 17:0.5 19:0.5 20:0.14 22:0.4 23:1.0 25:0.33 26:0.6 27:1.0 28:0.33 29:1.0 
0.6289282507873845 1.0 1.0 1.0 1.0 0.0 1.0 1:1.0 2:0.25 3:0.12 5:0.5 6:1.0 7:1.0 8:0.25 9:0.12 11:0.33 13:0.25 15:0.5 16:0.33 17:0.75 19:0.5 20:0.29 22:0.6 23:1.0 25:0.33 26:0.6 27:0.5 28:0.67 29:1.0 
-1.0 1.0 1.0 1.0 1.0 1.0 1.0 1:1.0 2:0.75 3:0.25 4:0.33 5:0.5 7:1.0 8:0.38 9:0.12 11:0.33 13:0.25 15:1.0 16:0.67 17:0.5 19:0.33 20:0.14 21:0.5 22:0.4 23:1.0 24:0.5 25:0.67 26:0.4 27:0.5 28:0.33 29:1.0 
-1.0 1.0 1.0 1.0 1.0 1.0 1.0 1:1.0 2:0.25 3:0.25 4:0.67 5:1.0 7:1.0 8:0.25 10:1.0 14:1.0 15:0.5 16:0.67 17:0.25 19:0.17 20:0.29 21:0.5 22:0.2 23:0.5 24:0.5 25:0.33 26:0.2 28:0.33 30:1.0 
-1.0 1.0 1.0 1.0 1.0 1.0 1.0 1:1.0 3:0.12 5:0.5 7:1.0 8:0.12 9:0.25 11:0.67 13:0.5 15:1.0 16:0.33 17:0.25 18:1.0 19:0.33 20:0.14 22:0.2 23:0.5 26:0.4 27:0.5 28:0.33 
-1.0 -0.0 1.0 0.0 0.0 0.5542468035012474 1.0 1:1.0 2:0.25 3:0.12 4:0.33 5:0.5 6:1.0 7:1.0 8:0.25 9:0.38 11:1.0 13:0.75 15:0.5 16:0.33 17:1.0 18:1.0 19:1.0 20:1.0 22:1.0 23:1.0 25:0.33 26:1.0 27:1.0 28:1.0 29:1.0 30:1.0 
-1.0 -0.0 1.0 1.0 0.9308603527422487 0.0 1.0 1:1.0 2:0.25 3:0.12 4:0.33 5:0.5 6:1.0 7:1.0 8:0.25 9:0.38 11:0.67 13:0.5 15:0.5 16:0.33 17:1.0 19:0.83 20:1.0 22:0.8 23:1.0 25:0.33 26:1.0 27:1.0 28:1.0 29:1.0 30:1.0 
-1.0 -0.8227695424601857 1.0 1.0 1.0 1.0 1.0 6:1.0 17:0.25 19:0.17 20:0.14 22:0.2 26:0.2 28:0.33 
-1.0 -0.4505494948517639 1.0 0.07855276272982102 0.34270892857599006 1.0 1.0 1:1.0 2:0.25 3:0.12 5:0.5 6:1.0 7:1.0 8:0.25 9:0.38 11:1.0 13:0.75 15:0.5 16:0.33 17:1.0 18:1.0 19:1.0 20:0.43 22:1.0 23:1.0 25:0.33 26:1.0 27:1.0 28:1.0 29:1.0 
-1.0 -0.900389568392765 1.0 1.0 1.0 0.44575319649875256 1.0 1:1.0 2:0.5 3:0.12 4:0.33 5:0.5 6:1.0 7:1.0 8:0.25 9:0.12 11:0.33 13:0.25 15:0.5 16:0.67 17:1.0 19:0.83 20:0.43 21:0.5 22:1.0 23:1.0 25:0.33 26:0.8 27:0.5 28:1.0 29:1.0 
-1.0 -0.011767709212775885 0.706785959425998 1.0 0.13893658367514933 1.0 1.0 1:1.0 2:0.25 3:0.12 4:0.33 5:0.5 6:1.0 7:1.0 8:0.25 9:0.88 11:1.0 12:1.0 13:1.0 15:0.5 16:0.33 17:1.0 18:1.0 19:1.0 20:1.0 22:1.0 23:1.0 25:0.33 26:1.0 27:1.0 28:1.0 29:1.0 30:1.0 
-1.0 -0.8145236850825096 1.0 1.0 1.0 0.0 1.0 1:1.0 3:0.12 4:0.33 5:0.5 6:1.0 7:1.0 8:0.12 15:0.5 16:0.33 17:0.75 19:0.5 20:1.0 22:0.6 23:0.5 26:0.6 28:1.0 30:1.0 
-1.0 -0.0 1.0 0.537220846182408 0.0 0.0 1.0 1:1.0 2:0.25 3:0.12 4:0.33 5:0.5 6:1.0 7:1.0 8:0.25 9:0.25 11:0.67 13:0.5 15:0.5 16:0.33 17:1.0 19:1.0 20:1.0 22:1.0 23:1.0 25:0.33 26:1.0 27:1.0 28:1.0 29:1.0 30:1.0 
-1.0 -0.0 -1.0 0.1657244294739693 0.6974735243114458 0.0 1.0 1:1.0 2:0.5 3:0.12 4:0.67 5:0.5 7:1.0 8:0.25 9:0.12 11:0.33 13:0.25 15:0.5 16:0.67 17:0.5 19:0.33 20:0.29 21:0.5 22:0.4 23:1.0 25:0.33 26:0.4 27:0.5 28:0.33 29:1.0 30:1.0 
-1.0 -0.0 -0.24538998637726472 1.0 0.6425817626983739 1.0 1.0 2:0.5 4:0.33 8:0.12 9:0.12 11:0.33 13:0.25 16:0.33 17:0.25 19:0.17 21:0.5 22:0.2 23:0.5 25:0.33 26:0.2 27:0.5 29:1.0 
-1.0 -0.0 -1.0 0.0 0.0 0.0 1.0 1:1.0 3:0.12 5:0.5 7:1.0 8:0.12 15:0.5 16:0.33 17:0.5 19:0.33 20:0.29 22:0.4 23:0.5 26:0.4 28:0.67 
-0.0 -0.0 -0.0 0.0 0.0 0.0 1.0 1:1.0 3:0.12 5:0.5 7:1.0 8:0.12 15:0.5 16:0.33 17:0.25 19:0.17 20:0.14 22:0.2 23:0.5 26:0.2 28:0.33 
-0.10063957674248453 -0.006248497031267478 -0.0 0.0 0.0 0.0 1.0 1:1.0 3:0.12 5:0.5 7:1.0 8:0.12 15:0.5 16:0.33 17:0.25 19:0.17 20:0.14 22:0.2 23:0.5 26:0.2 28:0.33 
-0.9944399330249961 -1.0 -0.0 0.8342755705260307 0.5627974109936431 0.0 1.0 1:1.0 3:0.12 5:0.5 7:1.0 8:0.12 15:0.5 16:0.33 17:0.25 19:0.17 20:0.14 22:0.2 23:0.5 26:0.2 28:0.33 
-1.0 -0.0 -0.0 1.0 0.21521685004442884 0.27172014632985453 1.0 9:0.12 15:0.5 
-0.16733480194527922 -0.5044771724959857 -0.4613959730487332 1.0 1.0 0.0 1.0 1:1.0 2:0.75 3:0.25 4:1.0 5:1.0 7:1.0 8:0.38 9:0.12 10:1.0 11:0.33 13:0.25 14:1.0 15:0.5 16:1.0 17:0.5 19:0.33 20:0.29 21:1.0 22:0.4 23:1.0 24:0.5 25:0.67 26:0.4 27:0.5 28:0.33 29:1.0 30:1.0 
-1.0 -0.5866264583083681 -1.0 1.0 1.0 0.6482724242327705 1.0 1:1.0 2:0.5 3:0.25 4:0.33 5:1.0 7:1.0 8:0.38 9:0.12 10:1.0 11:0.33 13:0.25 14:1.0 15:0.5 16:0.67 17:0.5 19:0.33 20:0.14 21:0.5 22:0.4 23:1.0 24:0.5 25:0.67 26:0.4 27:0.5 28:0.33 29:1.0 
-1.0 -0.1914468725734068 -1.0 0.0 0.0 0.0 1.0 1:1.0 3:0.12 5:0.5 7:1.0 8:0.12 15:0.5 16:0.33 17:0.5 19:0.33 20:0.29 22:0.4 23:0.5 26:0.4 28:0.67 
-1.0 -0.0 -1.0 1.0 1.0 0.08651636524582865 1.0 1:1.0 2:0.5 3:0.12 4:0.67 5:0.5 7:1.0 8:0.25 9:0.12 11:0.33 13:0.25 15:0.5 16:0.67 17:0.5 19:0.33 20:0.29 21:0.5 22:0.4 23:1.0 25:0.33 26:0.4 27:0.5 28:0.33 29:1.0 30:1.0 
-1.0 -0.4309003262785626 -1.0 1.0 0.8819304519521084 0.9934910641915463 1.0 1:1.0 2:0.5 3:0.12 4:0.67 5:0.5 7:1.0 8:0.25 9:0.12 11:0.33 13:0.25 15:0.5 16:0.67 17:0.5 19:0.33 20:0.29 21:0.5 22:0.4 23:1.0 25:0.33 26:0.4 27:0.5 28:0.33 29:1.0 30:1.0 
-1.0 -0.2803006733124091 -1.0 1.0 0.0 1.0 1.0 9:0.38 11:0.67 13:0.5 18:1.0 19:0.17 26:0.2 27:0.5 
-1.0 -0.8502391749476275 -1.0 -1.0 1.0 0.3777381685841303 1.0 1:1.0 2:0.5 3:1.0 4:0.33 5:1.0 7:1.0 8:0.88 9:0.25 10:1.0 12:1.0 13:0.25 14:1.0 15:0.5 16:0.67 17:0.25 19:0.33 20:0.14 21:0.5 22:0.4 23:0.5 24:1.0 25:0.67 26:0.2 28:0.33 
-1.0 -0.0 -0.0 -1.0 0.6894931188980659 0.0 1.0 2:0.25 3:0.12 4:0.33 5:0.5 8:0.12 10:1.0 14:1.0 16:0.33 21:0.5 24:0.5 25:0.33 
-1.0 -0.05137735030721921 -1.0 -1.0 1.0 0.9890913019765488 1.0 1:1.0 2:0.75 3:0.25 4:1.0 5:1.0 7:1.0 8:0.38 9:0.38 10:1.0 11:0.33 12:1.0 13:0.5 14:1.0 15:0.5 16:1.0 17:0.5 19:0.5 20:0.29 21:1.0 22:0.6 23:1.0 24:0.5 25:0.67 26:0.4 27:0.5 28:0.33 29:1.0 30:1.0 
-1.0 -0.0 -0.2358580341556672 -1.0 1.0 0.20744091853867305 1.0 2:0.75 3:0.25 4:0.67 5:0.5 8:0.38 9:0.25 10:1.0 11:0.33 13:0.25 14:1.0 16:0.33 17:0.25 19:0.17 20:0.14 21:0.5 22:0.2 23:0.5 24:1.0 25:1.0 26:0.2 27:0.5 29:1.0 30:1.0 
-1.0 -0.5766012632295436 -1.0 -1.0 0.31050688110193414 1.0 1.0 2:0.25 4:0.33 8:0.12 9:0.5 11:0.67 12:1.0 13:0.75 17:0.5 19:0.5 20:0.29 22:0.4 23:0.5 25:0.33 26:0.6 27:1.0 28:0.33 29:1.0 30:1.0 
-1.0 -0.5217822115156096 -1.0 -1.0 0.0 1.0 1.0 2:0.25 4:0.67 9:0.25 11:0.33 13:0.25 16:0.33 19:0.17 20:0.14 21:0.5 26:0.2 27:0.5 30:1.0 
-1.0 -0.0 -0.3799155747565617 -1.0 1.0 0.4257296109006479 1.0 2:0.25 3:0.12 4:0.33 5:0.5 8:0.12 10:1.0 14:1.0 16:0.33 21:0.5 24:0.5 25:0.33 
-0.3046087724894243 -1.0 -1.0 -1.0 1.0 0.0 1.0 1:1.0 2:0.5 3:0.25 4:1.0 5:1.0 7:1.0 8:0.25 10:1.0 14:1.0 15:0.5 16:1.0 17:0.25 19:0.17 20:0.29 21:1.0 22:0.2 23:0.5 24:0.5 25:0.33 26:0.2 28:0.33 30:1.0 
-0.0 -0.0 -0.11238575722761711 -1.0 -1.0 0.0 1.0 1:1.0 2:1.0 3:1.0 4:1.0 5:1.0 7:1.0 8:1.0 9:0.25 10:1.0 11:0.33 13:0.25 14:1.0 15:0.5 16:1.0 17:0.5 19:0.33 20:0.29 21:1.0 22:0.4 23:1.0 24:1.0 25:1.0 26:0.4 27:0.5 28:0.33 29:1.0 30:1.0 
-1.0 -0.8754014075575667 -1.0 -1.0 -1.0 0.30314994442470106 1.0 1:1.0 2:0.5 3:1.0 4:0.33 5:1.0 7:1.0 8:0.88 10:1.0 14:1.0 15:0.5 16:0.67 17:0.25 19:0.17 20:0.14 21:0.5 22:0.2 23:0.5 24:1.0 25:0.67 26:0.2 28:0.33 
-1.0 -0.7801613644070051 -1.0 -1.0 -1.0 1.0 1.0 1:1.0 2:0.75 3:1.0 4:0.33 5:1.0 7:1.0 8:1.0 9:0.12 10:1.0 11:0.33 13:0.25 14:1.0 15:0.5 16:0.67 17:0.5 19:0.33 20:0.14 21:0.5 22:0.4 23:1.0 24:1.0 25:1.0 26:0.4 27:0.5 28:0.33 29:1.0 
-1.0 -1.0 -1.0 -1.0 -1.0 0.6904928305610205 1.0 1:1.0 2:0.5 3:0.25 4:1.0 5:1.0 7:1.0 8:0.25 10:1.0 14:1.0 15:0.5 16:1.0 17:0.25 19:0.17 20:0.29 21:1.0 22:0.2 23:0.5 24:0.5 25:0.33 26:0.2 28:0.33 30:1.0 
-1.0 -0.3444372280354282 -1.0 -1.0 -1.0 1.0 1.0 2:1.0 3:0.25 4:1.0 5:0.5 8:0.38 9:0.12 10:1.0 11:0.33 13:0.25 14:1.0 15:0.5 16:0.67 17:0.25 19:0.17 20:0.14 21:1.0 22:0.2 23:0.5 24:1.0 25:1.0 26:0.2 27:0.5 29:1.0 30:1.0 
-1.0 -0.0 -0.3001201077657709 -1.0 -1.0 0.2659378512731975 1.0 1:1.0 2:1.0 3:1.0 4:0.67 5:1.0 7:1.0 8:1.0 9:0.12 10:1.0 11:0.33 13:0.25 14:1.0 15:0.5 16:1.0 17:0.5 19:0.33 20:0.14 21:1.0 22:0.4 23:1.0 24:1.0 25:1.0 26:0.4 27:0.5 28:0.33 29:1.0 
-1.0 -0.0 -1.0 -1.0 -1.0 -0.28057342758576337 1.0 2:0.25 8:0.12 9:1.0 11:1.0 12:1.0 13:1.0 17:0.25 18:1.0 19:0.33 22:0.2 23:0.5 25:0.33 26:0.4 27:1.0 29:1.0 
-1.0 -1.0 -1.0 -1.0 -1.0 -1.0 1.0 2:0.25 8:0.12 9:0.88 11:1.0 12:1.0 13:1.0 17:0.25 18:1.0 19:0.33 22:0.2 23:0.5 25:0.33 26:0.4 27:1.0 29:1.0 
-1.0 -1.0 -1.0 -1.0 -1.0 -0.9790071986731557 1.0 2:0.25 8:0.12 9:1.0 11:1.0 12:1.0 13:1.0 17:0.25 18:1.0 19:0.33 22:0.2 23:0.5 25:0.33 26:0.4 27:1.0 29:1.0 
-1.0 -1.0 -1.0 -1.0 -1.0 -1.0 1.0 1:1.0 2:0.5 3:0.12 4:0.33 5:0.5 7:1.0 8:0.25 9:0.5 11:1.0 12:1.0 13:1.0 15:0.5 16:0.67 17:0.5 18:1.0 19:0.67 20:0.14 21:0.5 22:0.6 23:1.0 25:0.33 26:0.6 27:1.0 28:0.33 29:1.0 
-0.1917961687909697 -0.0 -0.47184878034229555 -0.0 -0.40199700051600173 -0.0 -0.0 2:0.25 4:0.33 8:0.12 9:0.38 11:0.67 13:0.5 17:0.5 19:0.5 20:0.71 22:0.4 23:0.5 25:0.33 26:0.6 27:1.0 28:0.33 29:1.0 30:1.0 
-0.0 -0.0 -0.0 -0.9889619804162876 -0.0 -0.42380693011996284 -0.0 1:1.0 2:0.5 3:0.12 4:0.67 5:0.5 7:1.0 8:0.25 9:0.12 11:0.33 13:0.25 15:0.5 16:0.67 17:0.5 19:0.33 20:0.29 21:0.5 22:0.4 23:1.0 25:0.33 26:0.4 27:0.5 28:0.33 29:1.0 30:1.0 
-1.0 -0.0 -1.0 -0.0 -0.0 -0.0 -0.0 2:0.25 4:0.33 8:0.12 9:0.5 11:0.67 13:0.5 17:0.5 19:0.5 20:0.71 22:0.4 23:0.5 25:0.33 26:0.6 27:1.0 28:0.33 29:1.0 30:1.0 
-0.0 -0.0 -0.0 -0.9988782871136176 -0.0 -0.0 -0.0 1:1.0 3:0.12 5:0.5 7:1.0 8:0.12 9:0.12 15:0.5 16:0.33 17:0.25 19:0.17 20:0.14 22:0.2 23:0.5 26:0.2 28:0.33 
-0.0 -0.0 -0.0 -0.0 -1.0 -0.0 -0.0 9:0.25 12:1.0 13:0.25 19:0.17 22:0.2 
-0.8530221751625636 -0.0 -0.0 -1.0 -0.09072605564881814 -1.0 -0.0 1:1.0 2:0.5 3:0.12 4:0.67 5:0.5 7:1.0 8:0.25 9:0.12 11:0.33 13:0.25 15:0.5 16:0.67 17:0.5 19:0.33 20:0.29 21:0.5 22:0.4 23:1.0 25:0.33 26:0.4 27:0.5 28:0.33 29:1.0 30:1.0 
-0.0 -0.0 -0.0 -1.0 -0.0 -0.0 -0.0 1:1.0 3:0.12 5:0.5 7:1.0 8:0.12 9:0.12 15:0.5 16:0.33 17:0.25 19:0.17 20:0.14 22:0.2 23:0.5 26:0.2 28:0.33 
-1.0 -0.0 -1.0 -0.0 -0.0 -0.0 -0.0 1:1.0 2:0.25 3:0.12 5:0.5 7:1.0 8:0.25 9:0.38 11:0.67 12:1.0 13:0.75 15:0.5 16:0.33 17:0.5 19:0.5 20:0.14 22:0.4 23:1.0 25:0.33 26:0.6 27:1.0 28:0.33 29:1.0 
-1.0 -0.4951268026502494 -0.0 -0.0 -0.0 -0.08905761575636809 -0.19613523384539083 1:1.0 3:0.12 5:0.5 7:1.0 8:0.12 9:0.5 11:0.33 12:1.0 13:0.5 15:0.5 16:0.33 17:0.25 18:1.0 19:0.17 20:0.14 22:0.2 23:0.5 26:0.2 28:0.33 
-0.3283119810586838 -0.0 -0.0 -0.7215181450962741 -1.0 -0.26582693254620055 -0.0 9:0.25 12:1.0 13:0.25 19:0.17 22:0.2 
-1.0 -0.0 -0.0 -0.4706510488965452 -0.0 -0.0 -0.0 2:0.25 8:0.12 9:0.25 11:0.67 13:0.5 17:0.25 19:0.5 22:0.4 23:0.5 25:0.33 26:0.4 27:1.0 29:1.0 
-1.0 -0.0 -0.0 -0.0 -0.0 -0.0 -1.0 2:0.25 8:0.12 9:0.88 11:1.0 12:1.0 13:1.0 17:0.25 18:1.0 19:0.33 22:0.2 23:0.5 25:0.33 26:0.4 27:1.0 29:1.0 
-1.0 -0.0 -0.5685415756011729 -0.0 -0.0 -0.0 -0.8542578063730549 1:1.0 2:0.25 3:0.12 5:0.5 7:1.0 8:0.25 9:0.38 11:0.67 12:1.0 13:0.75 15:0.5 16:0.33 17:0.5 19:0.5 20:0.14 22:0.4 23:1.0 25:0.33 26:0.6 27:1.0 28:0.33 29:1.0 
-0.0 -0.0 -0.0 -1.0 -0.0 -0.0 -0.0 1:1.0 3:0.12 5:0.5 7:1.0 8:0.12 9:0.12 15:0.5 16:0.33 17:0.25 19:0.17 20:0.14 22:0.2 23:0.5 26:0.2 28:0.33 
-0.0 -0.0 -1.0 -0.07721966779564375 -0.0 -0.0 -0.0 1:1.0 3:0.12 4:0.33 5:0.5 6:1.0 7:1.0 8:0.12 15:0.5 16:0.33 17:0.75 19:0.67 20:1.0 22:0.8 23:0.5 26:0.6 28:1.0 30:1.0 
-1.0 -0.11319472696454032 -1.0 -0.04964348653066958 -0.0 -0.0 -0.0 1:1.0 2:0.25 3:0.12 5:0.5 6:1.0 7:1.0 8:0.25 9:0.25 11:0.67 13:0.5 15:0.5 16:0.33 17:0.75 19:0.83 20:0.29 22:0.8 23:1.0 25:0.33 26:0.8 27:1.0 28:0.67 29:1.0 
-0.0 -0.0 -0.5944589896805452 -0.0 -0.0 -0.0 -0.0 1:1.0 3:0.12 4:0.33 5:0.5 7:1.0 8:0.12 15:0.5 16:0.33 17:0.5 19:0.33 20:0.86 22:0.4 23:0.5 26:0.4 28:0.67 30:1.0 
-0.0 -0.0 -0.0 -1.0 -0.0 -0.0 -0.0 1:1.0 3:0.12 5:0.5 7:1.0 8:0.12 9:0.12 15:0.5 16:0.33 17:0.25 19:0.17 20:0.14 22:0.2 23:0.5 26:0.2 28:0.33 
-0.0 -0.0 -0.0 -1.0 -1.0 -1.0 -0.0 1:1.0 2:0.5 3:0.12 4:0.67 5:0.5 7:1.0 8:0.25 9:0.12 11:0.33 13:0.25 15:0.5 16:0.67 17:0.5 19:0.33 20:0.29 21:0.5 22:0.4 23:1.0 25:0.33 26:0.4 27:0.5 28:0.33 29:1.0 30:1.0 
-0.0 -0.0 -0.0 -0.6521739781818712 -1.0 -0.3488310267399174 -0.0 2:0.5 4:0.67 8:0.12 9:0.38 11:0.33 13:0.25 16:0.33 17:0.25 19:0.17 20:0.14 21:0.5 22:0.2 23:0.5 25:0.33 26:0.2 27:0.5 29:1.0 30:1.0 
-1.0 -0.0854687716735028 -0.2644538707180213 -0.7482307547353513 -0.0 -0.0 -0.9496069597815542 2:0.25 8:0.12 9:0.5 11:1.0 13:0.75 17:0.25 18:1.0 19:0.33 22:0.2 23:0.5 25:0.33 26:0.4 27:1.0 29:1.0 
-0.0 -0.28983556339109484 -0.7837491525271632 -0.2927226512337398 -0.9955508015021122 -1.0 -0.0 1:1.0 2:0.5 3:0.12 4:0.67 5:0.5 7:1.0 8:0.25 9:0.12 11:0.33 13:0.25 15:0.5 16:0.67 17:0.5 19:0.33 20:0.29 21:0.5 22:0.4 23:1.0 25:0.33 26:0.4 27:0.5 28:0.33 29:1.0 30:1.0 
-0.341189392148399 -1.0 -0.316947631130802 -1.0 -1.0 -1.0 -0.0 1:1.0 2:0.5 3:0.25 4:0.67 5:1.0 7:1.0 8:0.38 9:0.12 10:1.0 11:0.33 13:0.25 14:1.0 15:0.5 16:0.67 17:0.5 19:0.33 20:0.29 21:0.5 22:0.4 23:1.0 24:0.5 25:0.67 26:0.4 27:0.5 28:0.33 29:1.0 30:1.0 
-0.28568028283938385 -0.02046314055445825 -0.0 -1.0 -0.0 -0.0 -0.0 1:1.0 3:0.12 5:0.5 7:1.0 8:0.12 9:0.12 15:0.5 16:0.33 17:0.25 19:0.17 20:0.14 22:0.2 23:0.5 26:0.2 28:0.33 
-0.0 -0.0 -1.0 -0.0 -0.26312321694957375 -0.0 -0.0 1:1.0 3:0.12 4:0.33 5:0.5 6:1.0 7:1.0 8:0.12 9:0.25 12:1.0 13:0.25 15:0.5 16:0.33 17:0.75 19:0.67 20:1.0 22:0.8 23:0.5 26:0.6 28:1.0 30:1.0 
-1.0 -0.0 -0.0 -0.0 -0.45110689438644236 -0.06874724929972822 -1.0 2:0.25 8:0.12 9:1.0 11:1.0 12:1.0 13:1.0 17:0.25 18:1.0 19:0.33 22:0.2 23:0.5 25:0.33 26:0.4 27:1.0 29:1.0 
-1.0 -0.9959109947661545 -0.0 -1.0 -0.7974960309970518 -0.8037302455378228 -0.0 1:1.0 3:0.12 5:0.5 7:1.0 8:0.12 9:0.12 15:0.5 16:0.33 17:0.25 19:0.17 20:0.14 22:0.2 23:0.5 26:0.2 28:0.33 
