svm_type c_svc
kernel_type rbf
gamma 0.006329113924050633
nr_class 8
total_sv 50
rho -0.7025184937356715 0.8091931939125061 0.4735722541809082 0.3585379421710968 -0.8450865085214824 0.9639843517156528 0.9895238089406937 0.6713424026966095 0.6364050209522247 0.9855192759135847 -0.9996452033519745 0.6948641480361543 0.9722358794549913 0.42672431468963623 -0.09527426958084106 -0.8456502258777618 0.7800256609916686 0.9189822438818227 0.06132066249847412 -0.8523548245429993 -0.09107357263565063 0.39515296920872206 -0.9991800785064697 0.279538631439209 0.7496578693389893 0.8241863255799737 1.0007848739624023 0.9876371323207505
label 3 7 4 0 5 6 2 1
nr_sv 4 2 5 8 5 1 6 19
SV
0.11290153386499857 1.0 1.0 1.0 0.0 1.0 1.0 2:0.4 5:0.33 7:0.25 12:0.5 13:0.33 15:0.4 16:0.29 20:0.5 23:0.67 24:0.14 25:0.33 26:0.25 27:0.17 28:0.5 30:0.33 32:0.33 33:0.25 35:0.25 37:0.14 38:1.0 40:0.5 41:1.0 42:0.2 43:0.2 51:0.25 52:0.33 55:0.17 57:0.17 62:0.4 63:0.2 64:0.33 65:0.33 67:0.2 68:0.17 71:0.25 73:0.5 74:0.25 75:0.5 77:0.33 83:0.4 84:0.5 87:0.4 90:0.17 91:0.5 92:0.33 94:0.33 95:0.33 98:0.17 105:0.2 106:0.33 107:0.25 110:1.0 112:0.33 113:0.25 118:0.33 122:0.2 124:0.25 125:0.17 126:1.0 127:0.2 129:1.0 134:0.5 138:1.0 140:1.0 142:0.2 145:0.33 148:0.07 149:1.0 151:0.5 153:1.0 155:0.33 158:0.5 
0.1620921346000978 1.0 1.0 1.0 0.42012503202018797 1.0 1.0 1:0.33 2:0.8 3:0.67 4:0.17 5:0.33 7:0.25 10:0.33 12:0.5 13:0.33 14:0.33 15:0.4 16:0.57 18:0.14 19:0.33 20:0.5 23:0.67 24:0.29 25:0.67 26:0.25 27:0.17 28:0.5 30:0.67 32:0.33 33:0.75 35:0.75 36:0.67 37:0.43 38:1.0 40:0.5 42:0.4 43:0.6 48:0.2 49:0.33 51:0.75 52:0.67 53:0.2 55:0.33 56:0.4 57:0.33 61:1.0 62:0.4 63:0.6 64:0.67 65:1.0 67:0.2 68:0.33 69:0.33 71:0.5 73:0.75 74:0.25 75:0.5 77:0.67 80:0.5 82:0.17 83:0.8 84:1.0 85:0.2 87:0.6 90:0.33 91:0.5 92:0.33 93:0.25 94:0.33 95:0.33 97:0.5 98:0.5 101:0.5 104:0.17 105:0.6 106:0.33 107:0.5 110:1.0 111:0.33 112:0.67 113:0.25 114:0.5 115:0.5 118:0.67 119:0.17 120:0.5 121:0.5 122:0.2 123:1.0 124:0.25 125:0.33 126:1.0 127:0.2 129:1.0 130:0.12 138:1.0 139:0.14 140:0.5 142:0.2 145:0.33 146:1.0 147:1.0 148:0.14 151:0.5 153:0.5 154:1.0 155:0.67 158:0.5 
0.7250063315349037 1.0 1.0 1.0 0.06619774706121494 1.0 1.0 1:0.67 2:0.4 3:1.0 4:0.17 5:0.33 10:0.67 14:0.33 16:0.29 18:0.14 19:0.67 24:0.29 25:0.33 27:0.17 30:0.33 33:0.75 35:0.5 36:0.67 37:0.29 40:0.5 41:1.0 42:0.2 43:0.4 47:0.5 48:0.2 49:0.33 51:0.5 52:0.33 53:0.2 54:0.17 55:0.17 56:0.6 57:0.33 61:1.0 63:0.4 64:0.33 65:0.67 67:0.2 68:0.33 69:0.33 71:0.25 73:0.25 77:0.67 79:1.0 80:0.5 82:0.17 83:0.4 84:0.5 85:0.2 87:0.2 90:0.33 93:0.25 97:0.75 98:0.33 101:0.5 104:0.17 105:0.4 107:0.25 109:0.5 111:0.33 112:0.33 113:0.25 114:1.0 115:0.5 116:0.2 118:0.33 119:0.17 120:0.5 121:1.0 123:1.0 124:0.25 125:0.17 127:0.2 130:0.25 134:1.0 135:0.2 139:0.14 140:0.5 142:0.5 143:0.33 145:1.0 146:1.0 147:1.0 148:0.14 149:1.0 151:1.0 153:0.5 154:1.0 155:1.0 
1.0 1.0 1.0 1.0 0.513677220918597 1.0 1.0 2:0.2 7:0.25 12:0.5 13:0.33 15:0.2 16:0.14 20:0.5 23:0.33 24:0.14 25:0.17 26:0.25 27:0.17 28:0.5 37:0.14 38:1.0 41:1.0 42:0.2 51:0.25 55:0.17 57:0.17 62:0.2 64:0.17 67:0.2 68:0.17 71:0.25 73:0.25 74:0.25 75:0.25 83:0.2 87:0.2 90:0.17 91:0.5 92:0.33 94:0.17 95:0.33 98:0.17 105:0.2 106:0.33 110:1.0 112:0.33 113:0.25 118:0.33 122:0.2 124:0.25 125:0.17 127:0.2 129:1.0 134:0.5 138:0.5 140:1.0 142:0.2 145:0.33 148:0.07 149:1.0 151:0.5 153:1.0 155:0.33 158:0.5 
-1.0 1.0 1.0 1.0 0.1699565556954074 1.0 1.0 1:0.33 3:0.33 5:0.33 6:1.0 7:0.5 10:0.33 11:0.5 12:0.5 13:0.33 19:0.33 21:1.0 22:1.0 24:0.57 27:0.67 28:0.5 33:0.25 34:1.0 39:1.0 40:0.5 47:0.5 49:0.33 54:1.0 55:0.67 56:0.4 57:0.5 63:0.2 67:0.6 68:0.5 69:0.33 72:1.0 74:0.75 76:1.0 77:0.33 78:1.0 79:1.0 90:0.5 92:0.33 97:0.25 99:1.0 101:0.25 106:0.67 107:0.25 109:0.5 111:0.67 113:0.5 114:0.5 116:1.0 121:0.5 124:0.5 127:0.6 128:0.5 130:0.75 132:1.0 133:1.0 134:0.5 135:1.0 136:1.0 141:1.0 142:0.4 143:0.67 144:1.0 145:0.33 148:0.43 150:1.0 152:1.0 157:1.0 
-1.0 1.0 1.0 1.0 0.8300434443045925 1.0 1.0 1:0.33 2:0.4 3:0.33 4:0.17 7:0.75 11:0.5 12:1.0 13:0.67 14:0.33 15:0.2 16:0.29 18:0.14 19:0.33 20:0.5 21:1.0 22:1.0 23:0.33 24:1.0 25:0.33 26:0.25 27:1.0 28:1.0 33:0.25 34:1.0 35:0.25 36:0.33 37:0.29 38:1.0 39:1.0 41:1.0 42:0.4 43:0.2 47:1.0 48:0.2 51:0.5 53:0.2 54:0.83 55:1.0 56:0.2 57:1.0 61:0.5 62:0.2 63:0.2 64:0.33 65:0.33 67:1.0 68:1.0 69:0.67 71:0.5 72:1.0 73:0.25 74:1.0 75:0.25 76:1.0 78:1.0 82:0.17 83:0.4 84:0.5 85:0.2 87:0.2 90:1.0 91:0.5 92:0.67 93:0.25 94:0.17 95:0.33 97:0.25 98:0.33 99:1.0 101:0.25 104:0.17 105:0.4 106:1.0 110:1.0 111:1.0 112:0.33 113:1.0 114:0.5 115:0.5 116:0.8 118:0.67 119:0.17 120:0.25 122:0.2 124:1.0 125:0.33 127:1.0 128:0.5 129:1.0 130:1.0 132:1.0 133:1.0 134:0.5 135:0.8 136:1.0 138:0.5 139:0.14 140:1.0 141:1.0 142:1.0 143:1.0 144:1.0 145:0.33 147:0.5 148:0.64 149:1.0 150:1.0 151:0.5 152:1.0 153:1.0 154:0.5 155:0.67 157:1.0 158:0.5 
-1.0 -0.0 1.0 1.0 0.0 1.0 1.0 2:0.4 4:0.17 5:0.33 7:0.25 9:0.17 12:0.5 13:0.33 14:0.33 15:0.6 16:0.29 17:0.25 18:0.14 20:0.5 23:0.67 24:0.14 25:0.33 26:0.25 27:0.17 28:0.5 30:0.33 32:0.67 33:0.25 35:0.25 37:0.29 38:1.0 40:0.5 41:1.0 42:0.2 43:0.4 48:0.2 50:0.2 51:0.25 52:0.33 53:0.2 55:0.17 57:0.17 62:0.4 63:0.2 64:0.5 65:0.33 66:0.2 67:0.2 68:0.17 71:0.5 73:0.5 74:0.25 75:0.75 77:0.33 81:0.5 82:0.17 83:0.4 84:0.5 85:0.2 87:0.6 89:0.25 90:0.17 91:0.5 92:0.33 94:0.5 95:0.67 98:0.17 102:0.2 104:0.17 105:0.4 106:0.33 107:0.25 110:1.0 112:0.67 113:0.25 118:0.33 119:0.17 120:0.25 122:0.4 124:0.25 125:0.33 126:1.0 127:0.2 128:0.5 129:1.0 134:0.5 137:1.0 138:1.0 139:0.14 140:1.0 142:0.2 145:0.33 148:0.07 149:1.0 151:0.5 153:1.0 155:0.33 156:1.0 158:1.0 
-0.0 -0.0 1.0 1.0 0.0 1.0 1.0 4:0.17 9:0.17 14:0.33 15:0.2 17:0.25 18:0.14 32:0.33 37:0.14 43:0.2 48:0.2 50:0.2 53:0.2 64:0.17 66:0.2 71:0.25 75:0.25 81:0.5 82:0.17 85:0.2 87:0.2 89:0.25 94:0.17 95:0.33 102:0.2 104:0.17 105:0.2 112:0.33 119:0.17 120:0.25 122:0.2 125:0.17 128:0.5 137:1.0 139:0.14 156:1.0 158:0.5 
-1.0 -0.5757426786141281 1.0 1.0 0.28011186052452464 1.0 1.0 1:0.33 2:0.6 3:0.67 4:0.33 7:0.5 9:0.17 10:0.33 12:0.5 13:0.67 14:0.67 15:0.4 16:0.43 17:0.25 18:0.29 19:0.33 20:0.5 23:0.33 24:0.29 25:0.5 26:0.25 27:0.17 28:0.5 30:0.33 32:0.33 33:0.5 35:0.5 36:0.67 37:0.57 38:1.0 41:1.0 42:0.4 43:0.6 48:0.4 49:0.33 50:0.2 51:0.75 52:0.33 53:0.4 55:0.33 56:0.4 57:0.33 58:0.5 59:1.0 60:1.0 61:1.0 62:0.2 63:0.4 64:0.67 65:0.67 66:0.2 67:0.2 68:0.33 69:0.67 71:0.75 73:0.5 74:0.25 75:0.5 77:0.33 80:0.5 81:0.5 82:0.33 83:0.6 84:0.5 85:0.4 87:0.6 89:0.25 90:0.33 91:1.0 92:0.67 93:0.25 94:0.33 95:0.67 97:0.5 98:0.5 101:0.5 102:0.2 104:0.33 105:0.8 106:0.33 107:0.25 110:1.0 111:0.33 112:1.0 113:0.25 114:0.5 115:0.5 118:1.0 119:0.33 120:0.75 121:0.5 122:0.4 123:1.0 124:0.25 125:0.5 127:0.2 128:0.5 129:1.0 130:0.12 134:0.5 137:1.0 138:0.5 139:0.29 140:1.0 142:0.3 145:0.67 146:1.0 147:1.0 148:0.14 149:1.0 151:1.0 153:1.0 154:1.0 155:1.0 156:1.0 158:1.0 
-1.0 -0.4242573213858719 1.0 1.0 0.0 1.0 1.0 4:0.17 9:0.17 14:0.33 15:0.2 17:0.25 18:0.14 32:0.33 37:0.14 43:0.2 48:0.2 50:0.2 53:0.2 64:0.17 66:0.2 71:0.25 75:0.25 81:0.5 82:0.17 85:0.2 87:0.2 89:0.25 94:0.17 95:0.33 102:0.2 104:0.17 105:0.2 112:0.33 119:0.17 120:0.25 122:0.2 125:0.17 128:0.5 137:1.0 139:0.14 156:1.0 158:0.5 
-1.0 -1.0 1.0 1.0 0.7198881394754754 1.0 1.0 2:0.2 7:0.25 12:0.5 13:0.33 14:0.33 15:0.4 16:0.14 20:0.5 23:0.33 24:0.29 25:0.17 26:0.25 27:0.33 28:0.5 32:0.33 37:0.29 38:1.0 42:0.2 43:0.2 47:0.5 51:0.25 55:0.17 57:0.33 62:0.2 64:0.33 67:0.4 68:0.33 71:0.5 73:0.25 74:0.25 75:0.5 81:0.5 83:0.2 85:0.2 87:0.2 89:0.25 90:0.33 91:0.5 92:0.33 94:0.33 95:0.67 98:0.17 105:0.4 106:0.33 110:1.0 112:0.33 113:0.5 118:0.33 120:0.25 122:0.4 124:0.5 125:0.33 127:0.4 129:1.0 130:0.12 137:0.5 138:0.5 140:0.5 142:0.2 143:0.33 148:0.14 153:0.5 156:1.0 158:1.0 
-0.0 -0.0 -0.0 0.0 0.0 0.0 1.0 1:0.33 2:0.2 3:0.33 4:1.0 9:1.0 14:0.33 16:0.14 17:1.0 18:1.0 19:0.33 20:0.5 24:0.14 25:0.17 33:0.25 35:0.25 36:0.33 37:0.14 42:0.2 43:0.2 48:1.0 50:1.0 51:0.25 53:1.0 55:0.17 56:0.2 57:0.17 61:0.5 63:0.2 64:0.17 65:0.33 66:1.0 68:0.17 69:0.33 71:0.25 82:1.0 83:0.2 84:0.5 85:0.2 87:0.2 90:0.17 93:0.25 97:0.25 98:0.17 101:0.25 102:1.0 103:1.0 104:1.0 105:0.2 111:0.33 112:0.33 114:0.5 115:1.0 118:0.33 119:1.0 120:0.25 125:0.17 128:0.5 130:0.12 131:1.0 137:0.5 139:1.0 142:0.1 147:0.5 148:0.07 154:0.5 155:0.33 
-0.0 -0.0 -0.0 0.0 0.0 0.0 1.0 1:0.33 2:0.2 3:0.33 4:1.0 9:1.0 14:0.33 16:0.14 17:1.0 18:1.0 19:0.33 20:0.5 24:0.14 25:0.17 33:0.25 35:0.25 36:0.33 37:0.14 42:0.2 43:0.2 48:1.0 50:1.0 51:0.25 53:1.0 55:0.17 56:0.2 57:0.17 61:0.5 63:0.2 64:0.17 65:0.33 66:1.0 68:0.17 69:0.33 71:0.25 82:1.0 83:0.2 84:0.5 85:0.2 87:0.2 90:0.17 93:0.25 97:0.25 98:0.17 101:0.25 102:1.0 103:1.0 104:1.0 105:0.2 111:0.33 112:0.33 114:0.5 115:1.0 118:0.33 119:1.0 120:0.25 125:0.17 128:0.5 130:0.12 131:1.0 137:0.5 139:1.0 142:0.1 147:0.5 148:0.07 154:0.5 155:0.33 
-0.0 -0.0 -0.0 0.0 0.0 1.0 1.0 1:0.33 2:0.2 3:0.33 4:1.0 9:1.0 14:0.33 16:0.14 17:1.0 18:1.0 19:0.33 20:0.5 24:0.14 25:0.17 33:0.25 35:0.25 36:0.33 37:0.14 42:0.2 43:0.2 48:1.0 50:1.0 51:0.25 53:1.0 55:0.17 56:0.2 57:0.17 61:0.5 63:0.2 64:0.17 65:0.33 66:1.0 68:0.17 69:0.33 71:0.25 82:1.0 83:0.2 84:0.5 85:0.2 87:0.2 90:0.17 93:0.25 97:0.25 98:0.17 101:0.25 102:1.0 103:1.0 104:1.0 105:0.2 111:0.33 112:0.33 114:0.5 115:1.0 118:0.33 119:1.0 120:0.25 125:0.17 128:0.5 130:0.12 131:1.0 137:0.5 139:1.0 142:0.1 147:0.5 148:0.07 154:0.5 155:0.33 
-0.0 -0.0 -1.0 0.9051644190940038 0.0 1.0 1.0 1:0.33 2:0.2 3:0.33 4:1.0 9:1.0 14:0.33 16:0.14 17:1.0 18:1.0 19:0.33 20:0.5 24:0.14 25:0.17 33:0.25 35:0.25 36:0.33 37:0.14 42:0.2 43:0.2 48:1.0 50:1.0 51:0.25 53:1.0 55:0.17 56:0.2 57:0.17 61:0.5 63:0.2 64:0.17 65:0.33 66:1.0 68:0.17 69:0.33 71:0.25 82:1.0 83:0.2 84:0.5 85:0.2 87:0.2 90:0.17 93:0.25 97:0.25 98:0.17 101:0.25 102:1.0 103:1.0 104:1.0 105:0.2 111:0.33 112:0.33 114:0.5 115:1.0 118:0.33 119:1.0 120:0.25 125:0.17 128:0.5 130:0.12 131:1.0 137:0.5 139:1.0 142:0.1 147:0.5 148:0.07 154:0.5 155:0.33 
-1.0 -0.0 -1.0 1.0 0.0 1.0 1.0 1:0.33 2:0.2 3:0.33 4:1.0 9:1.0 14:0.33 16:0.14 17:1.0 18:1.0 19:0.33 20:0.5 24:0.14 25:0.17 33:0.25 35:0.25 36:0.33 37:0.14 42:0.2 43:0.2 48:1.0 50:1.0 51:0.25 53:1.0 55:0.17 56:0.2 57:0.17 61:0.5 63:0.2 64:0.17 65:0.33 66:1.0 68:0.17 69:0.33 71:0.25 82:1.0 83:0.2 84:0.5 85:0.2 87:0.2 90:0.17 93:0.25 97:0.25 98:0.17 101:0.25 102:1.0 103:1.0 104:1.0 105:0.2 111:0.33 112:0.33 114:0.5 115:1.0 118:0.33 119:1.0 120:0.25 125:0.17 128:0.5 130:0.12 131:1.0 137:0.5 139:1.0 142:0.1 147:0.5 148:0.07 154:0.5 155:0.33 
-1.0 -1.0 -1.0 1.0 0.6398353491679559 1.0 1.0 1:0.33 2:0.4 3:0.33 4:1.0 7:0.5 9:1.0 12:0.5 13:0.67 14:0.33 15:0.2 16:0.29 17:1.0 18:1.0 19:0.33 20:1.0 22:0.5 23:0.33 24:0.43 25:0.33 26:0.25 27:0.33 28:1.0 33:0.25 35:0.25 36:0.33 37:0.29 38:1.0 42:0.4 43:0.2 47:0.5 48:1.0 50:1.0 51:0.5 53:1.0 54:0.17 55:0.5 56:0.2 57:0.33 61:0.5 62:0.2 63:0.2 64:0.33 65:0.33 66:1.0 67:0.4 68:0.5 69:0.33 71:0.5 73:0.25 74:0.5 75:0.25 76:0.2 78:0.33 82:1.0 83:0.4 84:0.5 85:0.2 87:0.4 90:0.5 91:0.5 92:0.33 93:0.25 94:0.17 95:0.33 97:0.25 98:0.33 99:1.0 101:0.25 102:1.0 103:1.0 104:1.0 105:0.4 106:0.67 110:1.0 111:0.67 112:0.67 113:0.5 114:0.5 115:1.0 116:0.2 118:0.67 119:1.0 120:0.25 122:0.2 124:0.5 125:0.33 127:0.4 128:0.5 129:1.0 130:0.25 131:1.0 132:0.17 133:0.33 135:0.2 136:0.2 137:0.5 138:0.5 139:1.0 140:0.5 142:0.3 143:0.33 147:0.5 148:0.21 152:0.5 153:0.5 154:0.5 155:0.33 158:0.5 
-1.0 -0.0 -1.0 1.0 0.0 1.0 1.0 1:0.33 2:0.2 3:0.33 4:1.0 9:1.0 14:0.33 16:0.14 17:1.0 18:1.0 19:0.33 20:0.5 24:0.14 25:0.17 33:0.25 35:0.25 36:0.33 37:0.14 42:0.2 43:0.2 48:1.0 50:1.0 51:0.25 53:1.0 55:0.17 56:0.2 57:0.17 61:0.5 63:0.2 64:0.17 65:0.33 66:1.0 68:0.17 69:0.33 71:0.25 82:1.0 83:0.2 84:0.5 85:0.2 87:0.2 90:0.17 93:0.25 97:0.25 98:0.17 101:0.25 102:1.0 103:1.0 104:1.0 105:0.2 111:0.33 112:0.33 114:0.5 115:1.0 118:0.33 119:1.0 120:0.25 125:0.17 128:0.5 130:0.12 131:1.0 137:0.5 139:1.0 142:0.1 147:0.5 148:0.07 154:0.5 155:0.33 
-1.0 -1.0 -1.0 1.0 0.3601646508320441 1.0 1.0 2:0.2 4:0.17 7:0.25 9:0.17 12:0.5 13:0.33 15:0.2 16:0.14 17:0.25 18:0.14 20:1.0 23:0.33 24:0.14 25:0.17 26:0.25 27:0.17 28:0.5 37:0.14 38:1.0 42:0.2 48:0.2 51:0.25 53:0.2 55:0.17 57:0.17 62:0.2 64:0.17 66:0.2 67:0.2 68:0.17 71:0.25 73:0.25 74:0.25 75:0.25 83:0.2 87:0.2 90:0.17 91:0.5 92:0.33 94:0.17 95:0.33 98:0.17 102:0.2 103:1.0 104:0.17 105:0.2 106:0.33 110:1.0 112:0.33 113:0.25 115:0.5 118:0.33 119:0.17 122:0.2 124:0.25 125:0.17 127:0.2 129:1.0 131:1.0 138:0.5 139:0.14 140:0.5 142:0.1 148:0.07 153:0.5 158:0.5 
-1.0 -0.082011954969546 -1.0 -1.0 0.0 1.0 1.0 1:0.33 2:0.4 3:0.33 4:0.17 7:0.75 11:0.5 12:1.0 13:0.67 14:0.33 15:0.2 16:0.29 18:0.14 19:0.33 20:0.5 21:1.0 22:1.0 23:0.33 24:1.0 25:0.33 26:0.25 27:1.0 28:1.0 33:0.25 34:1.0 35:0.25 36:0.33 37:0.29 38:1.0 39:1.0 42:0.4 43:0.2 47:1.0 48:0.2 51:0.5 53:0.2 54:0.83 55:1.0 56:0.2 57:1.0 61:0.5 62:0.2 63:0.2 64:0.33 65:0.33 67:1.0 68:1.0 69:0.67 71:0.5 72:1.0 73:0.25 74:1.0 75:0.25 76:1.0 78:1.0 82:0.17 83:0.4 84:0.5 85:0.2 87:0.2 90:1.0 91:0.5 92:0.67 93:0.25 94:0.17 95:0.33 97:0.25 98:0.33 99:1.0 101:0.25 104:0.17 105:0.4 106:1.0 110:1.0 111:1.0 112:0.33 113:1.0 114:0.5 115:0.5 116:0.8 118:0.67 119:0.17 120:0.25 122:0.2 124:1.0 125:0.33 127:1.0 128:0.5 129:1.0 130:1.0 132:1.0 133:1.0 135:0.8 136:1.0 138:0.5 139:0.14 140:0.5 141:1.0 142:0.7 143:1.0 144:1.0 147:0.5 148:0.64 150:1.0 152:1.0 153:0.5 154:0.5 155:0.33 157:1.0 158:0.5 
-0.0 -0.4898240983406536 -1.0 -0.9051644190940038 0.0 1.0 1.0 1:1.0 2:0.2 3:0.67 4:0.17 5:0.33 6:1.0 7:0.75 10:0.33 11:0.5 12:0.5 13:0.67 14:0.33 16:0.14 18:0.14 19:0.67 21:1.0 22:1.0 24:0.86 25:0.17 27:0.83 28:0.5 33:0.5 34:1.0 35:0.25 36:0.33 37:0.14 39:1.0 40:0.5 42:0.2 43:0.2 47:1.0 48:0.2 49:0.33 51:0.25 53:0.2 54:1.0 55:0.83 56:0.6 57:0.83 58:0.5 59:1.0 60:1.0 61:0.5 63:0.4 64:0.17 65:0.33 67:0.8 68:0.83 69:1.0 71:0.25 72:1.0 74:0.75 76:1.0 77:0.33 78:1.0 79:1.0 82:0.17 83:0.2 84:0.5 85:0.2 90:0.83 91:0.5 92:0.67 93:0.25 97:0.5 98:0.17 99:1.0 101:0.5 104:0.17 105:0.2 106:0.67 107:0.25 109:0.5 111:1.0 113:0.75 114:1.0 115:0.5 116:1.0 118:0.67 119:0.17 120:0.25 121:0.5 124:0.75 125:0.17 127:0.8 128:0.5 130:1.0 132:1.0 133:1.0 134:0.5 135:1.0 136:1.0 139:0.14 141:1.0 142:0.6 143:1.0 144:1.0 145:0.33 147:0.5 148:0.57 150:1.0 152:1.0 154:0.5 155:0.33 157:1.0 
-1.0 -0.9948254256316991 -1.0 -1.0 1.0 1.0 1.0 1:0.33 2:0.4 3:0.33 4:0.17 7:0.75 11:0.5 12:1.0 13:0.67 14:0.33 15:0.2 16:0.29 18:0.14 19:0.33 20:0.5 21:1.0 22:1.0 23:0.33 24:1.0 25:0.33 26:0.25 27:1.0 28:1.0 33:0.25 34:1.0 35:0.25 36:0.33 37:0.29 38:1.0 39:1.0 42:0.4 43:0.2 47:1.0 48:0.2 51:0.5 53:0.2 54:0.83 55:1.0 56:0.2 57:1.0 61:0.5 62:0.2 63:0.2 64:0.33 65:0.33 67:1.0 68:1.0 69:0.67 71:0.5 72:1.0 73:0.25 74:1.0 75:0.25 76:1.0 78:1.0 82:0.17 83:0.4 84:0.5 85:0.2 87:0.2 90:1.0 91:0.5 92:0.67 93:0.25 94:0.17 95:0.33 97:0.25 98:0.33 99:1.0 101:0.25 104:0.17 105:0.4 106:1.0 110:1.0 111:1.0 112:0.33 113:1.0 114:0.5 115:0.5 116:0.8 118:0.67 119:0.17 120:0.25 122:0.2 124:1.0 125:0.33 127:1.0 128:0.5 129:1.0 130:1.0 132:1.0 133:1.0 135:0.8 136:1.0 138:0.5 139:0.14 140:0.5 141:1.0 142:0.7 143:1.0 144:1.0 147:0.5 148:0.64 150:1.0 152:1.0 153:0.5 154:0.5 155:0.33 157:1.0 158:0.5 
-1.0 -0.43333852105810144 -1.0 -1.0 0.0 1.0 1.0 1:0.33 3:0.33 5:0.33 7:0.5 8:0.25 10:0.33 11:0.5 12:0.5 13:0.33 15:0.2 16:0.14 19:0.33 21:1.0 22:1.0 24:0.29 25:0.17 26:0.25 27:0.33 28:0.5 31:0.14 33:0.25 37:0.14 39:1.0 40:0.5 42:0.2 44:0.25 45:0.17 46:0.17 47:0.5 54:0.33 55:0.33 56:0.2 57:0.17 62:0.2 67:0.4 68:0.17 69:0.33 70:0.17 72:1.0 74:0.25 76:0.2 77:0.33 78:0.33 79:1.0 85:0.2 88:0.2 89:0.25 90:0.33 92:0.33 93:0.25 94:0.17 97:0.25 98:0.17 99:1.0 100:0.2 106:0.67 108:0.17 109:0.5 111:0.67 113:0.25 114:0.5 116:0.4 117:0.2 121:0.5 122:0.2 124:0.25 125:0.17 127:0.2 128:0.5 130:0.25 132:0.33 133:0.33 134:0.5 135:0.6 136:0.4 141:0.5 142:0.2 143:0.67 144:0.33 145:0.33 148:0.14 152:1.0 
-1.0 -0.0 -1.0 -1.0 0.0 1.0 1.0 1:0.33 3:0.33 5:0.33 7:0.75 8:0.25 10:0.33 11:0.5 12:0.5 13:0.67 14:0.33 15:0.4 16:0.14 19:0.33 21:1.0 22:1.0 24:0.43 25:0.17 26:0.25 27:0.5 28:0.5 31:0.14 32:0.33 33:0.25 37:0.29 39:1.0 40:0.5 42:0.2 43:0.2 44:0.25 45:0.17 46:0.17 47:1.0 54:0.33 55:0.33 56:0.2 57:0.33 58:0.5 59:1.0 60:1.0 62:0.2 64:0.17 67:0.6 68:0.33 69:0.67 70:0.17 71:0.25 72:1.0 74:0.25 75:0.25 76:0.2 77:0.33 78:0.33 79:1.0 81:0.5 85:0.4 88:0.2 89:0.5 90:0.5 91:0.5 92:0.67 93:0.25 94:0.33 95:0.33 97:0.25 98:0.17 99:1.0 100:0.2 105:0.2 106:0.67 108:0.17 109:0.5 111:0.67 113:0.5 114:0.5 116:0.4 117:0.2 118:0.33 120:0.25 121:0.5 122:0.4 124:0.5 125:0.33 127:0.4 128:0.5 130:0.38 132:0.33 133:0.33 134:0.5 135:0.6 136:0.4 137:0.5 141:0.5 142:0.3 143:1.0 144:0.33 145:0.33 148:0.21 152:1.0 156:1.0 158:0.5 
-1.0 -1.0 -1.0 -1.0 -1.0 1.0 1.0 1:0.33 2:0.4 3:0.33 4:0.17 7:0.75 11:0.5 12:1.0 13:0.67 14:0.33 15:0.2 16:0.29 18:0.14 19:0.33 20:0.5 21:1.0 22:1.0 23:0.33 24:1.0 25:0.33 26:0.25 27:1.0 28:1.0 33:0.25 34:1.0 35:0.25 36:0.33 37:0.29 38:1.0 39:1.0 42:0.4 43:0.2 47:1.0 48:0.2 51:0.5 53:0.2 54:0.83 55:1.0 56:0.2 57:1.0 61:0.5 62:0.2 63:0.2 64:0.33 65:0.33 67:1.0 68:1.0 69:0.67 71:0.5 72:1.0 73:0.25 74:1.0 75:0.25 76:1.0 78:1.0 82:0.17 83:0.4 84:0.5 85:0.2 87:0.2 90:1.0 91:0.5 92:0.67 93:0.25 94:0.17 95:0.33 97:0.25 98:0.33 99:1.0 101:0.25 104:0.17 105:0.4 106:1.0 110:1.0 111:1.0 112:0.33 113:1.0 114:0.5 115:0.5 116:0.8 118:0.67 119:0.17 120:0.25 122:0.2 124:1.0 125:0.33 127:1.0 128:0.5 129:1.0 130:1.0 132:1.0 133:1.0 135:0.8 136:1.0 138:0.5 139:0.14 140:0.5 141:1.0 142:0.7 143:1.0 144:1.0 147:0.5 148:1.0 150:1.0 152:1.0 153:0.5 154:0.5 155:0.33 157:1.0 158:0.5 
-0.49839018931388723 -0.0 -1.0 -1.0 -0.0 -0.0 1.0 2:0.4 5:0.33 7:0.25 12:0.5 13:0.33 15:0.4 16:0.29 20:0.5 23:0.67 24:0.14 25:0.33 26:0.25 27:0.17 28:0.5 30:0.33 32:0.33 33:0.25 35:0.25 37:0.14 38:1.0 40:0.5 41:1.0 42:0.2 43:0.2 51:0.25 52:0.33 55:0.17 57:0.17 62:0.4 63:0.2 64:0.33 65:0.33 67:0.2 68:0.17 71:0.25 73:0.5 74:0.25 75:0.5 77:0.33 83:0.4 84:0.5 87:0.4 90:0.17 91:0.5 92:0.33 94:0.33 95:0.33 98:0.17 105:0.2 106:0.33 107:0.25 110:1.0 112:0.33 113:0.25 118:0.33 122:0.2 124:0.25 125:0.17 126:1.0 127:0.2 129:1.0 134:0.5 138:1.0 140:1.0 142:0.2 145:0.33 148:0.07 149:1.0 151:0.5 153:1.0 155:0.33 158:0.5 
-0.5016098106861128 -0.0 -0.1539787125057527 -1.0 -1.0 -0.0 1.0 1:0.67 2:0.4 3:1.0 4:0.17 5:0.33 7:0.25 10:0.67 13:0.33 14:0.33 16:0.29 18:0.14 19:0.67 24:0.14 25:0.33 30:0.33 33:0.75 35:0.5 36:0.67 37:0.29 40:0.5 41:1.0 42:0.2 43:0.4 48:0.2 49:0.33 51:0.5 52:0.33 53:0.2 54:0.17 55:0.17 56:0.6 57:0.17 58:0.5 59:1.0 60:1.0 61:1.0 63:0.4 64:0.33 65:0.67 68:0.17 69:0.67 71:0.25 73:0.25 77:0.67 79:1.0 80:0.5 82:0.17 83:0.4 84:0.5 85:0.2 87:0.2 90:0.17 91:0.5 92:0.33 93:0.25 97:0.75 98:0.33 101:0.5 104:0.17 105:0.4 107:0.25 109:0.5 111:0.33 112:0.33 114:1.0 115:0.5 116:0.2 118:0.67 119:0.17 120:0.5 121:1.0 123:1.0 125:0.17 130:0.12 134:1.0 135:0.2 139:0.14 140:0.5 142:0.2 145:1.0 146:1.0 147:1.0 148:0.07 149:1.0 151:1.0 153:0.5 154:1.0 155:1.0 
-1.0 -0.0 -1.0 -1.0 -1.0 -0.0 1.0 2:0.4 5:0.33 7:0.25 12:0.5 13:0.33 15:0.4 16:0.29 20:0.5 23:0.67 24:0.14 25:0.33 26:0.25 27:0.17 28:0.5 30:0.33 32:0.33 33:0.25 35:0.25 37:0.14 38:1.0 40:0.5 41:1.0 42:0.2 43:0.2 51:0.25 52:0.33 55:0.17 57:0.17 62:0.4 63:0.2 64:0.33 65:0.33 67:0.2 68:0.17 71:0.25 73:0.5 74:0.25 75:0.5 77:0.33 83:0.4 84:0.5 87:0.4 90:0.17 91:0.5 92:0.33 94:0.33 95:0.33 98:0.17 105:0.2 106:0.33 107:0.25 110:1.0 112:0.33 113:0.25 118:0.33 122:0.2 124:0.25 125:0.17 126:1.0 127:0.2 129:1.0 134:0.5 138:1.0 140:1.0 142:0.2 145:0.33 148:0.07 149:1.0 151:0.5 153:1.0 155:0.33 158:0.5 
-0.9831906174424728 -0.47008144923154155 -0.8460212874942474 -1.0 -1.0 -0.32389635024460606 1.0 2:0.4 5:0.33 7:0.25 12:0.5 13:0.33 15:0.4 16:0.29 20:0.5 23:0.67 24:0.14 25:0.33 26:0.25 27:0.17 28:0.5 30:0.33 32:0.33 33:0.25 35:0.25 37:0.14 38:1.0 40:0.5 41:1.0 42:0.2 43:0.2 51:0.25 52:0.33 55:0.17 57:0.17 62:0.4 63:0.2 64:0.33 65:0.33 67:0.2 68:0.17 71:0.25 73:0.5 74:0.25 75:0.5 77:0.33 83:0.4 84:0.5 87:0.4 90:0.17 91:0.5 92:0.33 94:0.33 95:0.33 98:0.17 105:0.2 106:0.33 107:0.25 110:1.0 112:0.33 113:0.25 118:0.33 122:0.2 124:0.25 125:0.17 126:1.0 127:0.2 129:1.0 134:0.5 138:1.0 140:1.0 142:0.2 145:0.33 148:0.07 149:1.0 151:0.5 153:1.0 155:0.33 158:0.5 
-1.0 -0.6999051589231893 -1.0 -1.0 -1.0 -0.24005893575982476 1.0 1:0.67 2:0.4 3:1.0 4:0.17 5:0.33 10:0.67 14:0.33 16:0.29 18:0.14 19:0.67 24:0.14 25:0.33 30:0.33 33:0.75 35:0.5 36:0.67 37:0.29 40:0.5 41:1.0 42:0.2 43:0.4 48:0.2 49:0.33 51:0.5 52:0.33 53:0.2 54:0.17 55:0.17 56:0.6 57:0.17 61:1.0 63:0.4 64:0.33 65:0.67 68:0.17 69:0.33 71:0.25 73:0.25 77:0.67 79:1.0 80:0.5 82:0.17 83:0.4 84:0.5 85:0.2 87:0.2 90:0.17 93:0.25 97:0.75 98:0.33 101:0.5 104:0.17 105:0.4 107:0.25 109:0.5 111:0.33 112:0.33 114:1.0 115:0.5 116:0.2 118:0.33 119:0.17 120:0.5 121:1.0 123:1.0 125:0.17 130:0.12 134:1.0 135:0.2 139:0.14 140:0.5 142:0.2 145:1.0 146:1.0 147:1.0 148:0.07 149:1.0 151:1.0 153:0.5 154:1.0 155:1.0 
-0.016809382557527168 -0.8300133918452691 -1.0 -1.0 -1.0 -0.43604471399556916 1.0 2:0.2 7:0.5 12:0.5 13:0.67 15:0.2 16:0.14 20:0.5 23:0.33 24:0.14 25:0.17 26:0.25 27:0.17 28:0.5 37:0.14 38:1.0 41:1.0 42:0.2 51:0.25 55:0.17 57:0.17 58:0.5 59:1.0 60:1.0 62:0.2 64:0.17 67:0.2 68:0.17 69:0.33 71:0.25 73:0.25 74:0.25 75:0.25 83:0.2 87:0.2 90:0.17 91:1.0 92:0.67 94:0.17 95:0.33 98:0.17 105:0.2 106:0.33 110:1.0 112:0.33 113:0.25 118:0.67 122:0.2 124:0.25 125:0.17 127:0.2 129:1.0 134:0.5 138:0.5 140:1.0 142:0.2 145:0.33 148:0.07 149:1.0 151:0.5 153:1.0 155:0.33 158:0.5 
-0.6058922926310989 -0.0 -1.0 -1.0 -0.24165005368247175 -0.0 -1.0 1:0.33 2:0.2 3:0.33 5:0.67 10:0.33 14:0.33 15:0.4 16:0.14 19:0.33 23:0.33 24:0.14 25:0.17 27:0.17 30:0.33 32:0.67 33:0.5 35:0.25 37:0.14 40:1.0 41:1.0 43:0.4 47:0.5 52:0.33 54:0.17 56:0.2 57:0.17 62:0.2 63:0.2 64:0.33 65:0.33 67:0.2 68:0.17 71:0.25 73:0.25 75:0.5 77:0.67 79:1.0 81:0.5 83:0.2 84:0.5 85:0.2 87:0.2 89:0.25 90:0.17 94:0.33 95:0.33 97:0.25 105:0.2 107:0.25 109:0.5 113:0.25 114:0.5 116:0.2 120:0.25 121:0.5 122:0.2 124:0.25 125:0.17 126:1.0 127:0.2 130:0.12 134:1.0 135:0.2 137:0.5 138:0.5 140:0.5 142:0.2 143:0.33 145:0.67 148:0.07 149:1.0 151:0.5 153:0.5 155:0.33 156:1.0 158:0.5 
-0.0 -0.41025307123774796 -1.0 -1.0 -1.0 -0.0 -0.1448306854210993 4:0.17 9:0.17 14:0.33 15:0.2 17:0.25 18:0.14 32:0.33 37:0.14 43:0.2 48:0.2 50:0.2 53:0.2 64:0.17 66:0.2 71:0.25 75:0.25 81:0.5 82:0.17 85:0.2 87:0.2 89:0.25 94:0.17 95:0.33 102:0.2 104:0.17 105:0.2 112:0.33 119:0.17 120:0.25 122:0.2 125:0.17 128:0.5 137:1.0 139:0.14 156:1.0 158:0.5 
-0.5724206958798393 -0.27345536923224933 -1.0 -1.0 -1.0 -0.32300820560329524 -1.0 2:0.2 7:0.25 12:0.5 13:0.33 14:0.33 15:0.4 16:0.14 20:0.5 23:0.33 24:0.29 25:0.17 26:0.25 27:0.33 28:0.5 32:0.33 37:0.29 38:1.0 42:0.2 43:0.2 47:0.5 51:0.25 55:0.17 57:0.33 62:0.2 64:0.33 67:0.4 68:0.33 71:0.5 73:0.25 74:0.25 75:0.5 81:0.5 83:0.2 85:0.2 87:0.2 89:0.25 90:0.33 91:0.5 92:0.33 94:0.33 95:0.67 98:0.17 105:0.4 106:0.33 110:1.0 112:0.33 113:0.5 118:0.33 120:0.25 122:0.4 124:0.5 125:0.33 127:0.4 129:1.0 130:0.12 137:0.5 138:0.5 140:0.5 142:0.2 143:0.33 148:0.14 153:0.5 156:1.0 158:1.0 
-0.0 -0.0 -0.0 -0.0 -0.0 -0.0 -0.08600203000089546 1:0.67 2:0.4 3:1.0 4:0.17 5:0.33 7:0.25 10:0.67 13:0.33 14:0.33 16:0.29 18:0.14 19:0.67 24:0.14 25:0.33 30:0.33 33:0.75 35:0.5 36:0.67 37:0.29 40:0.5 41:1.0 42:0.2 43:0.4 48:0.2 49:0.33 51:0.5 52:0.33 53:0.2 54:0.17 55:0.17 56:0.6 57:0.17 58:0.5 59:1.0 60:1.0 61:1.0 63:0.4 64:0.33 65:0.67 68:0.17 69:0.67 71:0.25 73:0.25 77:0.67 79:1.0 80:0.5 82:0.17 83:0.4 84:0.5 85:0.2 87:0.2 90:0.17 91:0.5 92:0.33 93:0.25 97:0.75 98:0.33 101:0.5 104:0.17 105:0.4 107:0.25 109:0.5 111:0.33 112:0.33 114:1.0 115:0.5 116:0.2 118:0.67 119:0.17 120:0.5 121:1.0 123:1.0 125:0.17 130:0.12 134:1.0 135:0.2 139:0.14 140:0.5 142:0.2 145:1.0 146:1.0 147:1.0 148:0.07 149:1.0 151:1.0 153:0.5 154:1.0 155:1.0 
-0.3388832424885025 -0.0 -0.0 -0.0 -0.0 -0.0 -0.796374791049612 2:0.4 3:0.33 7:0.25 10:0.33 12:0.5 13:0.33 15:0.2 16:0.29 20:0.5 23:0.33 24:0.29 25:0.33 26:0.25 27:0.33 28:0.5 30:0.33 33:0.25 35:0.25 36:0.33 37:0.29 38:1.0 41:1.0 42:0.2 43:0.2 47:0.5 49:0.33 51:0.5 52:0.33 55:0.17 56:0.2 57:0.33 61:0.5 62:0.2 63:0.2 64:0.33 65:0.33 67:0.4 68:0.33 71:0.25 73:0.5 74:0.25 75:0.25 77:0.33 80:0.5 83:0.4 87:0.4 90:0.33 91:0.5 92:0.33 94:0.17 95:0.33 97:0.25 98:0.33 101:0.25 105:0.4 106:0.33 107:0.25 110:1.0 112:0.67 113:0.5 118:0.33 120:0.25 121:0.5 122:0.2 123:1.0 124:0.5 125:0.17 127:0.4 129:1.0 130:0.12 134:0.5 138:0.5 140:1.0 142:0.5 143:0.33 145:0.67 146:1.0 147:0.5 148:0.14 149:1.0 151:1.0 153:1.0 154:0.5 155:0.67 158:0.5 
-0.14692783145236005 -0.0 -0.0 -0.0 -0.0 -0.0 -0.2562804513342843 1:0.33 2:0.6 3:0.67 4:0.17 7:0.5 10:0.33 12:0.5 13:0.67 14:0.33 15:0.2 16:0.43 18:0.14 19:0.33 20:0.5 23:0.33 24:0.29 25:0.5 26:0.25 27:0.17 28:0.5 30:0.33 33:0.5 35:0.5 36:0.67 37:0.43 38:1.0 41:1.0 42:0.4 43:0.4 48:0.2 49:0.33 51:0.75 52:0.33 53:0.2 55:0.33 56:0.4 57:0.33 58:0.5 59:1.0 60:1.0 61:1.0 62:0.2 63:0.4 64:0.5 65:0.67 67:0.2 68:0.33 69:0.67 71:0.5 73:0.5 74:0.25 75:0.25 77:0.33 80:0.5 82:0.17 83:0.6 84:0.5 85:0.2 87:0.4 90:0.33 91:1.0 92:0.67 93:0.25 94:0.17 95:0.33 97:0.5 98:0.5 101:0.5 104:0.17 105:0.6 106:0.33 107:0.25 110:1.0 111:0.33 112:0.67 113:0.25 114:0.5 115:0.5 118:1.0 119:0.17 120:0.5 121:0.5 122:0.2 123:1.0 124:0.25 125:0.33 127:0.2 129:1.0 130:0.12 134:0.5 138:0.5 139:0.14 140:1.0 142:0.3 145:0.67 146:1.0 147:1.0 148:0.14 149:1.0 151:1.0 153:1.0 154:1.0 155:1.0 158:0.5 
-0.09495879389882377 -0.0 -0.0 -0.0 -0.0 -0.0 -0.0 1:0.67 2:0.6 3:1.0 4:0.17 5:0.67 10:0.67 14:0.33 15:0.2 16:0.43 18:0.14 19:0.67 23:0.33 24:0.14 25:0.5 30:0.67 32:0.33 33:1.0 35:0.75 36:0.67 37:0.29 40:1.0 41:1.0 42:0.2 43:0.6 48:0.2 49:0.33 51:0.5 52:0.67 53:0.2 54:0.17 55:0.17 56:0.6 57:0.17 61:1.0 62:0.2 63:0.6 64:0.5 65:1.0 68:0.17 69:0.33 71:0.25 73:0.5 75:0.25 77:1.0 79:1.0 80:0.5 82:0.17 83:0.6 84:1.0 85:0.2 87:0.4 90:0.17 93:0.25 94:0.17 97:0.75 98:0.33 101:0.5 104:0.17 105:0.4 107:0.5 109:0.5 111:0.33 112:0.33 114:1.0 115:0.5 116:0.2 118:0.33 119:0.17 120:0.5 121:1.0 123:1.0 125:0.17 126:1.0 130:0.12 134:1.0 135:0.2 138:0.5 139:0.14 140:0.5 142:0.2 145:1.0 146:1.0 147:1.0 148:0.07 149:1.0 151:1.0 153:0.5 154:1.0 155:1.0 
-0.0 -0.0 -0.17459776343286149 -1.0 -0.7583499463175283 -0.0 -0.0 1:0.33 2:0.6 3:0.67 4:0.33 7:0.5 9:0.17 10:0.33 11:0.5 12:1.0 13:0.33 14:0.33 15:0.2 16:0.43 17:0.25 18:0.29 19:0.33 20:0.5 21:1.0 22:0.5 23:0.33 24:0.57 25:0.5 26:0.25 27:0.5 28:0.5 30:0.33 33:0.5 35:0.5 36:0.67 37:0.43 38:1.0 39:1.0 41:1.0 42:0.4 43:0.4 47:0.5 48:0.4 49:0.33 50:0.2 51:0.75 52:0.33 53:0.4 55:0.5 56:0.4 57:0.67 61:1.0 62:0.2 63:0.4 64:0.5 65:0.67 66:0.2 67:0.6 68:0.5 69:0.67 71:0.5 72:1.0 73:0.5 74:0.25 75:0.25 77:0.33 80:0.5 82:0.33 83:0.6 84:0.5 85:0.2 87:0.6 90:0.67 91:0.5 92:0.67 93:0.25 94:0.17 95:0.33 97:0.5 98:0.5 101:0.5 102:0.2 104:0.33 105:0.6 106:0.67 107:0.25 110:1.0 111:0.67 112:1.0 113:0.5 114:0.5 115:0.5 118:0.67 119:0.33 120:0.5 121:0.5 122:0.2 123:1.0 124:0.5 125:0.33 127:0.4 128:1.0 129:1.0 130:0.38 132:0.17 134:0.5 135:0.2 136:0.2 137:0.5 138:0.5 139:0.29 140:1.0 141:0.5 142:0.7 143:0.67 144:0.33 145:0.67 146:1.0 147:1.0 148:0.29 149:1.0 151:1.0 152:0.5 153:1.0 154:1.0 155:1.0 158:0.5 
-1.0 -0.0 -0.25634347068452634 -0.0 -0.0 -0.0 -1.0 2:0.4 3:0.33 7:0.25 10:0.33 12:0.5 13:0.33 15:0.2 16:0.29 20:0.5 23:0.33 24:0.14 25:0.33 26:0.25 27:0.17 28:0.5 30:0.33 33:0.25 35:0.25 36:0.33 37:0.29 38:1.0 41:1.0 42:0.2 43:0.2 49:0.33 51:0.5 52:0.33 55:0.17 56:0.2 57:0.17 61:0.5 62:0.2 63:0.2 64:0.33 65:0.33 67:0.2 68:0.17 71:0.25 73:0.5 74:0.25 75:0.25 77:0.33 80:0.5 83:0.4 87:0.4 90:0.17 91:0.5 92:0.33 94:0.17 95:0.33 97:0.25 98:0.33 101:0.25 105:0.4 106:0.33 107:0.25 110:1.0 112:0.67 113:0.25 118:0.33 120:0.25 121:0.5 122:0.2 123:1.0 124:0.25 125:0.17 127:0.2 129:1.0 134:0.5 138:0.5 140:1.0 142:0.2 145:0.67 146:1.0 147:0.5 148:0.07 149:1.0 151:1.0 153:1.0 154:0.5 155:0.67 158:0.5 
-0.0 -0.31629155953000265 -0.0 -0.0 -1.0 -0.0 -0.0 1:0.67 2:0.4 3:1.0 4:0.17 5:0.33 7:0.75 8:0.25 10:0.67 11:0.5 12:0.5 13:0.67 14:0.33 15:0.2 16:0.43 18:0.14 19:0.67 21:1.0 22:1.0 24:0.43 25:0.5 26:0.25 27:0.33 28:0.5 30:0.33 31:0.14 33:0.75 35:0.5 36:0.67 37:0.43 39:1.0 40:0.5 41:1.0 42:0.4 43:0.4 44:0.25 45:0.17 46:0.17 47:0.5 48:0.2 49:0.33 51:0.5 52:0.33 53:0.2 54:0.33 55:0.5 56:0.6 57:0.33 58:0.5 59:1.0 60:1.0 61:1.0 62:0.2 63:0.4 64:0.33 65:0.67 67:0.4 68:0.33 69:1.0 70:0.17 71:0.25 72:1.0 73:0.25 74:0.25 76:0.2 77:0.67 78:0.33 79:1.0 80:0.5 82:0.17 83:0.4 84:0.5 85:0.4 87:0.2 88:0.2 89:0.25 90:0.5 91:0.5 92:0.67 93:0.5 94:0.17 97:0.75 98:0.5 99:1.0 100:0.2 101:0.5 104:0.17 105:0.4 106:0.67 107:0.25 108:0.17 109:0.5 111:1.0 112:0.33 113:0.25 114:1.0 115:0.5 116:0.4 117:0.2 118:0.67 119:0.17 120:0.5 121:1.0 122:0.2 123:1.0 124:0.25 125:0.33 127:0.2 128:0.5 130:0.38 132:0.33 133:0.33 134:1.0 135:0.6 136:0.4 139:0.14 140:0.5 141:0.5 142:0.4 143:0.67 144:0.33 145:1.0 146:1.0 147:1.0 148:0.21 149:1.0 151:1.0 152:1.0 153:0.5 154:1.0 155:1.0 
-0.0 -0.0 -0.0 -1.0 -0.0 -0.0 -0.0 1:0.67 2:0.4 3:1.0 4:0.17 5:0.33 10:0.67 14:0.33 16:0.29 18:0.14 19:0.67 24:0.14 25:0.33 30:0.33 33:0.75 35:0.5 36:0.67 37:0.29 40:0.5 41:1.0 42:0.2 43:0.4 48:0.2 49:0.33 51:0.5 52:0.33 53:0.2 54:0.17 55:0.17 56:0.6 57:0.17 61:1.0 63:0.4 64:0.33 65:0.67 68:0.17 69:0.33 71:0.25 73:0.25 77:0.67 79:1.0 80:0.5 82:0.17 83:0.4 84:0.5 85:0.2 87:0.2 90:0.17 93:0.25 97:0.75 98:0.33 101:0.5 104:0.17 105:0.4 107:0.25 109:0.5 111:0.33 112:0.33 114:1.0 115:0.5 116:0.2 118:0.33 119:0.17 120:0.5 121:1.0 123:1.0 125:0.17 130:0.12 134:1.0 135:0.2 139:0.14 140:0.5 142:0.2 145:1.0 146:1.0 147:1.0 148:0.07 149:1.0 151:1.0 153:0.5 154:1.0 155:1.0 
-0.21630931008127852 -0.0 -0.0 -0.0 -0.0 -0.0 -0.0967787742524946 1:0.67 2:0.6 3:1.0 4:0.17 5:0.67 10:0.67 14:0.33 15:0.2 16:0.43 18:0.14 19:0.67 23:0.33 24:0.14 25:0.5 30:0.67 32:0.33 33:1.0 35:0.75 36:0.67 37:0.29 40:1.0 41:1.0 42:0.2 43:0.6 48:0.2 49:0.33 51:0.5 52:0.67 53:0.2 54:0.17 55:0.17 56:0.6 57:0.17 61:1.0 62:0.2 63:0.6 64:0.5 65:1.0 68:0.17 69:0.33 71:0.25 73:0.5 75:0.25 77:1.0 79:1.0 80:0.5 82:0.17 83:0.6 84:1.0 85:0.2 87:0.4 90:0.17 93:0.25 94:0.17 97:0.75 98:0.33 101:0.5 104:0.17 105:0.4 107:0.5 109:0.5 111:0.33 112:0.33 114:1.0 115:0.5 116:0.2 118:0.33 119:0.17 120:0.5 121:1.0 123:1.0 125:0.17 126:1.0 130:0.12 134:1.0 135:0.2 138:0.5 139:0.14 140:0.5 142:0.2 145:1.0 146:1.0 147:1.0 148:0.07 149:1.0 151:1.0 153:0.5 154:1.0 155:1.0 
-0.0 -0.0 -0.0 -0.0 -0.0 -0.0 -0.011084087453983982 1:0.33 2:0.4 3:0.67 5:0.67 10:0.67 15:0.2 16:0.29 19:0.33 23:0.33 24:0.14 25:0.33 27:0.17 30:0.67 32:0.33 33:0.75 35:0.5 36:0.33 37:0.14 40:1.0 41:1.0 43:0.4 47:0.5 49:0.33 51:0.25 52:0.67 54:0.17 56:0.4 57:0.17 61:0.5 62:0.2 63:0.4 64:0.33 65:0.67 67:0.2 68:0.17 73:0.5 75:0.25 77:1.0 79:1.0 80:0.5 83:0.4 84:0.5 87:0.4 90:0.17 94:0.17 97:0.5 98:0.17 101:0.25 105:0.2 107:0.5 109:0.5 112:0.33 113:0.25 114:0.5 116:0.2 120:0.25 121:1.0 123:1.0 124:0.25 126:1.0 127:0.2 130:0.12 134:1.0 135:0.2 138:0.5 140:0.5 142:0.4 143:0.33 145:1.0 146:1.0 147:0.5 148:0.07 149:1.0 151:1.0 153:0.5 154:0.5 155:0.67 
-0.7761754328782897 -0.0 -0.18507260504227577 -0.614010024927865 -0.0 -0.0 -0.0 1:0.33 2:0.8 3:0.67 4:0.17 5:0.33 7:0.25 10:0.33 12:0.5 13:0.33 14:0.33 15:0.4 16:0.57 18:0.14 19:0.33 20:0.5 23:0.67 24:0.29 25:0.67 26:0.25 27:0.17 28:0.5 30:0.67 32:0.33 33:0.75 35:0.75 36:0.67 37:0.43 38:1.0 40:0.5 42:0.4 43:0.6 48:0.2 49:0.33 51:0.75 52:0.67 53:0.2 55:0.33 56:0.4 57:0.33 61:1.0 62:0.4 63:0.6 64:0.67 65:1.0 67:0.2 68:0.33 69:0.33 71:0.5 73:0.75 74:0.25 75:0.5 77:0.67 80:0.5 82:0.17 83:0.8 84:1.0 85:0.2 87:0.6 90:0.33 91:0.5 92:0.33 93:0.25 94:0.33 95:0.33 97:0.5 98:0.5 101:0.5 104:0.17 105:0.6 106:0.33 107:0.5 110:1.0 111:0.33 112:0.67 113:0.25 114:0.5 115:0.5 118:0.67 119:0.17 120:0.5 121:0.5 122:0.2 123:1.0 124:0.25 125:0.33 126:1.0 127:0.2 129:1.0 130:0.12 138:1.0 139:0.14 140:0.5 142:0.2 145:0.33 146:1.0 147:1.0 148:0.14 151:0.5 153:0.5 154:1.0 155:0.67 158:0.5 
-0.23104449477023686 -0.0 -0.0 -0.849464475450052 -0.0 -0.0 -0.0 1:0.67 2:0.4 3:1.0 4:0.17 5:0.33 10:0.67 14:0.33 16:0.29 18:0.14 19:0.67 24:0.14 25:0.33 30:0.33 33:0.75 35:0.5 36:0.67 37:0.29 40:0.5 41:1.0 42:0.2 43:0.4 48:0.2 49:0.33 51:0.5 52:0.33 53:0.2 54:0.17 55:0.17 56:0.6 57:0.17 61:1.0 63:0.4 64:0.33 65:0.67 68:0.17 69:0.33 71:0.25 73:0.25 77:0.67 79:1.0 80:0.5 82:0.17 83:0.4 84:0.5 85:0.2 87:0.2 90:0.17 93:0.25 97:0.75 98:0.33 101:0.5 104:0.17 105:0.4 107:0.25 109:0.5 111:0.33 112:0.33 114:1.0 115:0.5 116:0.2 118:0.33 119:0.17 120:0.5 121:1.0 123:1.0 125:0.17 130:0.12 134:1.0 135:0.2 139:0.14 140:0.5 142:0.2 145:1.0 146:1.0 147:1.0 148:0.07 149:1.0 151:1.0 153:0.5 154:1.0 155:1.0 
-0.017387905919570252 -1.0 -0.0 -0.0 -1.0 -0.6769917943967048 -0.0 1:0.33 2:0.8 3:0.67 4:0.17 5:0.33 7:0.75 10:0.33 11:0.5 12:1.0 13:0.67 14:0.33 15:0.4 16:0.57 18:0.14 19:0.33 20:0.5 21:1.0 22:1.0 23:0.67 24:1.0 25:0.67 26:0.25 27:1.0 28:1.0 30:0.67 32:0.33 33:0.75 34:1.0 35:0.75 36:0.67 37:0.43 38:1.0 39:1.0 40:0.5 41:1.0 42:0.4 43:0.6 47:1.0 48:0.2 49:0.33 51:0.75 52:0.67 53:0.2 54:0.83 55:1.0 56:0.4 57:1.0 61:1.0 62:0.4 63:0.6 64:0.67 65:1.0 67:1.0 68:1.0 69:0.67 71:0.5 72:1.0 73:0.75 74:1.0 75:0.5 76:1.0 77:0.67 78:1.0 80:0.5 82:0.17 83:0.8 84:1.0 85:0.2 87:0.6 90:1.0 91:0.5 92:0.67 93:0.25 94:0.33 95:0.33 97:0.5 98:0.5 99:1.0 101:0.5 104:0.17 105:0.6 106:1.0 107:0.5 110:1.0 111:1.0 112:0.67 113:1.0 114:0.5 115:0.5 116:0.8 118:0.67 119:0.17 120:0.5 121:0.5 122:0.2 123:1.0 124:1.0 125:0.33 126:1.0 127:1.0 128:0.5 129:1.0 130:1.0 132:1.0 133:1.0 134:0.5 135:0.8 136:1.0 138:1.0 139:0.14 140:1.0 141:1.0 142:1.0 143:1.0 144:1.0 145:0.67 146:1.0 147:1.0 148:0.64 149:1.0 150:1.0 151:1.0 152:1.0 153:1.0 154:1.0 155:1.0 157:1.0 158:0.5 
-0.0 -0.0 -0.0 -0.0 -0.0 -0.0 -1.0 1:0.67 2:0.6 3:1.0 4:0.17 5:0.67 7:0.25 10:0.67 13:0.33 14:0.33 15:0.2 16:0.43 18:0.14 19:0.67 23:0.33 24:0.14 25:0.5 30:0.67 32:0.33 33:1.0 35:0.75 36:0.67 37:0.29 40:1.0 41:1.0 42:0.2 43:0.6 48:0.2 49:0.33 51:0.5 52:0.67 53:0.2 54:0.17 55:0.17 56:0.6 57:0.17 58:0.5 59:1.0 60:1.0 61:1.0 62:0.2 63:0.6 64:0.5 65:1.0 68:0.17 69:0.67 71:0.25 73:0.5 75:0.25 77:1.0 79:1.0 80:0.5 82:0.17 83:0.6 84:1.0 85:0.2 87:0.4 90:0.17 91:0.5 92:0.33 93:0.25 94:0.17 97:0.75 98:0.33 101:0.5 104:0.17 105:0.4 107:0.5 109:0.5 111:0.33 112:0.33 114:1.0 115:0.5 116:0.2 118:0.67 119:0.17 120:0.5 121:1.0 123:1.0 125:0.17 126:1.0 130:0.12 134:1.0 135:0.2 138:0.5 139:0.14 140:0.5 142:0.2 145:1.0 146:1.0 147:1.0 148:0.07 149:1.0 151:1.0 153:0.5 154:1.0 155:1.0 
-0.0 -0.0 -0.38398616084033654 -1.0 -0.0 -0.0 -0.0 1:0.33 2:0.6 3:0.67 4:0.17 7:0.5 10:0.33 12:0.5 13:0.67 14:0.33 15:0.2 16:0.43 18:0.14 19:0.33 20:0.5 23:0.33 24:0.29 25:0.5 26:0.25 27:0.17 28:0.5 30:0.33 33:0.5 35:0.5 36:0.67 37:0.43 38:1.0 42:0.4 43:0.4 48:0.2 49:0.33 51:0.75 52:0.33 53:0.2 55:0.33 56:0.4 57:0.33 58:0.5 59:1.0 60:1.0 61:1.0 62:0.2 63:0.4 64:0.5 65:0.67 67:0.2 68:0.33 69:0.67 71:0.5 73:0.5 74:0.25 75:0.25 77:0.33 80:0.5 82:0.17 83:0.6 84:0.5 85:0.2 87:0.4 90:0.33 91:1.0 92:0.67 93:0.25 94:0.17 95:0.33 97:0.5 98:0.5 101:0.5 104:0.17 105:0.6 106:0.33 107:0.25 110:1.0 111:0.33 112:0.67 113:0.25 114:0.5 115:0.5 118:1.0 119:0.17 120:0.5 121:0.5 122:0.2 123:1.0 124:0.25 125:0.33 127:0.2 129:1.0 130:0.12 138:0.5 139:0.14 140:0.5 142:0.2 145:0.33 146:1.0 147:1.0 148:0.14 151:0.5 153:0.5 154:1.0 155:0.67 158:0.5 
-0.0 -0.0 -1.0 -0.536525499622083 -0.0 -0.0 -0.6086491804876306 2:0.4 3:0.33 4:0.17 7:0.5 8:0.25 9:0.17 10:0.33 12:0.5 13:0.67 15:0.4 16:0.43 17:0.25 18:0.14 20:0.5 23:0.33 24:0.14 25:0.5 26:0.5 27:0.17 28:0.5 30:0.33 31:0.14 33:0.25 35:0.25 36:0.33 37:0.43 38:1.0 41:1.0 42:0.4 43:0.2 44:0.25 45:0.17 46:0.17 48:0.2 49:0.33 50:0.2 51:0.5 52:0.33 53:0.2 55:0.17 56:0.2 57:0.17 58:0.5 59:1.0 60:1.0 61:0.5 62:0.4 63:0.2 64:0.33 65:0.33 66:0.2 67:0.2 68:0.17 69:0.33 70:0.17 71:0.25 73:0.5 74:0.25 75:0.25 77:0.33 80:0.5 82:0.17 83:0.4 85:0.2 87:0.6 88:0.2 89:0.25 90:0.17 91:1.0 92:0.67 93:0.25 94:0.33 95:0.33 97:0.25 98:0.5 100:0.2 101:0.25 102:0.2 104:0.17 105:0.4 106:0.33 107:0.25 108:0.17 110:1.0 112:1.0 113:0.25 117:0.2 118:0.67 119:0.17 120:0.25 121:0.5 122:0.4 123:1.0 124:0.25 125:0.33 127:0.2 128:0.5 129:1.0 134:0.5 137:0.5 138:0.5 139:0.14 140:1.0 142:0.2 145:0.67 146:1.0 147:0.5 148:0.07 149:1.0 151:1.0 153:1.0 154:0.5 155:0.67 158:0.5 
