svm_type c_svc
kernel_type rbf
gamma 0.018518518518518517
nr_class 8
total_sv 72
rho 0.5460887551307678 0.40708157420158386 0.6232902990226655 0.4283040463924408 0.4620717465877533 0.7760151922702789 1.0161025209937307 -0.0406820749490931 0.10516680023002171 -0.57963627576828 -0.7811954021453857 0.07816158840919274 0.2844915354281907 0.027003704048583883 -0.10377554790791325 -0.05081459879875183 0.01707276701927185 0.36346579695007936 -0.20682382583618164 -0.475085973739624 -0.28223930789773544 0.22407818524857748 -0.7940343022346497 0.1849042002737687 0.7434186970517535 0.4799835979938507 0.9033323499550703 1.0509210392729034
label 3 7 4 0 5 6 2 1
nr_sv 3 8 4 11 7 4 9 26
SV
1.0 1.0 1.0 1.0 1.0 1.0 1.0 1:1.0 3:0.25 5:0.25 6:0.5 8:0.5 9:0.25 12:1.0 19:0.5 20:0.5 23:0.14 30:0.5 31:0.22 35:1.0 36:1.0 37:1.0 38:0.5 39:1.0 40:0.33 41:1.0 44:1.0 47:0.2 48:1.0 52:0.25 53:0.2 
1.0 1.0 1.0 1.0 1.0 1.0 1.0 1:1.0 4:1.0 5:0.5 6:0.5 8:1.0 9:0.25 23:1.0 27:0.25 28:0.33 30:1.0 31:0.67 32:0.5 36:0.2 38:1.0 40:0.17 41:0.5 48:1.0 50:0.33 52:0.12 53:0.2 
1.0 1.0 1.0 1.0 1.0 1.0 1.0 1:1.0 4:1.0 5:0.5 6:0.5 8:1.0 9:0.25 23:1.0 27:0.25 28:0.33 30:0.5 31:0.56 32:0.5 35:1.0 36:1.0 37:1.0 38:1.0 39:1.0 41:0.5 48:0.5 50:0.33 52:0.12 53:0.2 
-0.23101461531016143 0.8782673480671047 1.0 1.0 0.0 1.0 1.0 3:0.5 6:0.5 9:0.25 10:1.0 12:1.0 19:0.5 20:0.5 22:0.33 24:0.25 27:0.25 31:0.11 32:0.5 34:1.0 40:0.17 41:0.5 44:1.0 46:1.0 47:0.4 49:1.0 50:0.33 52:0.25 53:0.2 54:0.14 
-0.0 0.0 0.0 0.0 0.0 0.0 0.640142198879488 2:1.0 3:0.75 8:0.5 9:0.25 10:1.0 11:1.0 14:1.0 18:1.0 19:0.5 20:0.5 22:1.0 23:0.14 24:0.25 27:1.0 34:1.0 40:0.17 46:1.0 47:0.6 49:1.0 50:1.0 51:1.0 52:0.38 53:0.2 
-0.7689853846898386 0.42283263759098805 1.0 1.0 1.0 1.0 1.0 2:1.0 3:0.75 8:0.5 9:0.25 10:1.0 11:0.2 14:0.25 19:0.5 20:0.5 22:1.0 23:0.14 24:0.25 27:1.0 30:0.5 31:0.11 34:1.0 40:0.83 46:1.0 47:0.6 48:0.5 49:1.0 50:1.0 51:0.25 52:0.38 53:0.2 
-1.0 0.943262899833928 1.0 1.0 1.0 1.0 1.0 3:0.5 6:0.5 9:0.25 10:1.0 12:1.0 19:0.5 20:0.5 22:0.33 24:0.25 27:0.25 31:0.11 32:0.5 34:1.0 40:0.17 41:0.5 44:1.0 46:1.0 47:0.4 49:1.0 50:0.33 52:0.25 53:0.2 54:0.14 
-0.0 0.0 0.6745413617695238 1.0 0.0 0.5231103061388709 0.9920655455194236 2:1.0 3:0.75 8:0.5 9:0.25 10:1.0 11:1.0 14:1.0 18:1.0 19:0.5 20:0.5 22:1.0 23:0.14 24:0.25 27:1.0 34:1.0 40:0.17 46:1.0 47:0.6 49:1.0 50:1.0 51:1.0 52:0.38 53:0.2 
-1.0 1.0 1.0 1.0 1.0 1.0 1.0 2:1.0 3:0.5 6:0.5 11:1.0 12:1.0 14:1.0 18:1.0 19:1.0 20:1.0 22:0.33 27:0.25 31:0.11 32:0.5 40:0.33 41:0.5 44:1.0 47:0.4 51:1.0 52:0.25 54:0.14 
-0.0 0.3152912705360858 1.0 1.0 0.0 1.0 1.0 2:1.0 3:0.75 8:0.5 10:1.0 11:1.0 14:1.0 18:1.0 19:0.5 20:0.5 22:1.0 23:0.14 27:1.0 34:0.2 40:0.17 46:0.33 47:0.6 49:0.33 50:1.0 51:1.0 52:0.25 
-0.0 0.0 1.0 1.0 1.0 1.0 1.0 2:1.0 3:1.0 10:1.0 11:0.2 12:1.0 14:0.25 19:1.0 20:1.0 22:1.0 27:0.75 31:0.11 34:0.2 40:0.33 41:0.5 44:1.0 46:0.33 47:0.8 49:0.33 50:0.67 51:0.25 52:0.38 
-1.0 -0.8813508615060982 1.0 0.5504213514562792 0.3379914591887006 1.0 1.0 1:1.0 4:1.0 5:1.0 6:1.0 7:1.0 8:0.5 9:0.25 13:1.0 16:1.0 17:1.0 21:1.0 23:0.29 25:1.0 28:1.0 29:1.0 30:0.5 31:0.33 32:1.0 33:1.0 36:0.2 38:1.0 41:0.5 42:1.0 43:1.0 45:1.0 47:0.2 48:0.5 52:0.12 53:0.2 54:0.14 
-0.14134852519745067 -1.0 1.0 1.0 1.0 1.0 1.0 3:0.25 4:1.0 5:0.75 7:1.0 12:1.0 13:1.0 16:1.0 17:1.0 19:0.5 20:0.5 21:1.0 23:0.71 25:1.0 28:1.0 29:1.0 30:1.0 31:1.0 32:0.5 33:1.0 38:0.5 40:0.33 41:0.5 42:1.0 43:1.0 44:1.0 45:1.0 47:0.2 48:0.5 52:0.12 
-0.8586514748025493 -1.0 1.0 1.0 1.0 1.0 1.0 5:0.5 7:1.0 13:1.0 16:1.0 17:1.0 21:1.0 25:1.0 28:0.67 29:1.0 31:0.22 33:1.0 42:1.0 43:1.0 45:1.0 
-1.0 -0.6783032945220083 1.0 0.9441816328203488 1.0 1.0 1.0 1:1.0 3:0.25 4:1.0 5:1.0 6:0.5 7:1.0 8:0.5 9:0.25 12:1.0 13:1.0 16:1.0 17:1.0 19:0.5 20:0.5 21:1.0 23:0.86 25:1.0 28:1.0 29:1.0 30:1.0 31:1.0 32:0.5 33:1.0 35:1.0 36:1.0 37:1.0 38:1.0 39:1.0 40:0.33 41:1.0 42:1.0 43:1.0 44:1.0 45:1.0 47:0.2 48:1.0 52:0.25 53:0.2 
-0.0 -0.0 -0.0 0.0 0.0 0.0 0.9923091133746306 6:0.5 15:1.0 26:1.0 32:0.5 54:1.0 
-0.0 -1.0 -0.0 1.0 1.0 0.8410264383789182 1.0 2:1.0 3:0.75 11:0.2 12:1.0 14:0.25 15:1.0 19:1.0 20:1.0 22:0.67 26:1.0 27:0.5 30:0.5 31:0.22 40:1.0 41:0.5 44:1.0 47:0.6 48:0.5 50:0.33 51:0.25 52:0.38 54:0.86 
-1.0 -1.0 -0.6801047679334229 1.0 1.0 1.0 1.0 1:1.0 3:0.25 5:0.25 6:1.0 8:0.5 9:0.25 12:1.0 15:1.0 19:0.5 20:0.5 23:0.14 26:1.0 31:0.11 32:0.5 36:0.2 38:0.5 40:0.17 41:1.0 44:1.0 47:0.2 48:0.5 52:0.25 53:0.2 54:1.0 
-0.05470916738247797 -1.0 -0.29330082631241744 1.0 1.0 0.6205923879498205 1.0 2:1.0 3:1.0 10:1.0 11:0.2 12:1.0 14:0.25 15:1.0 19:1.0 20:1.0 22:1.0 26:1.0 27:0.75 30:0.5 31:0.22 34:0.2 40:1.0 41:0.5 44:1.0 46:0.33 47:0.8 48:0.5 49:0.33 50:0.67 51:0.25 52:0.38 54:0.86 
-0.0 -0.0 -0.0 0.0 0.0 1.0 1.0 6:0.5 15:1.0 26:1.0 32:0.5 54:1.0 
-1.0 -0.0 -1.0 1.0 0.0 1.0 1.0 3:0.25 4:1.0 5:0.25 6:0.5 12:1.0 15:1.0 19:0.5 20:0.5 23:0.71 26:1.0 28:0.33 30:1.0 31:0.78 32:1.0 38:0.5 40:0.33 41:0.5 44:1.0 47:0.2 48:0.5 52:0.12 54:1.0 
-0.0 -0.0 -0.0 0.0 0.0 1.0 1.0 6:0.5 15:1.0 26:1.0 32:0.5 54:1.0 
-0.0 -1.0 -0.0 0.0 0.0 1.0 1.0 6:0.5 15:1.0 26:1.0 32:0.5 54:1.0 
-0.24308780097007682 -0.7458247206343988 -0.9610447223907241 1.0 1.0 1.0 1.0 3:0.25 4:1.0 5:0.25 6:0.5 12:1.0 15:1.0 19:0.5 20:0.5 23:0.71 26:1.0 28:0.33 30:1.0 31:0.78 32:1.0 38:0.5 40:0.33 41:0.5 44:1.0 47:0.2 48:0.5 52:0.12 54:1.0 
-0.0 -1.0 -0.0655496833634356 1.0 0.0 1.0 1.0 6:0.5 15:1.0 26:1.0 32:0.5 54:1.0 
-0.7022030316474452 -0.9287166411351251 -1.0 1.0 0.0 0.5383811736712613 0.9939480296059062 6:0.5 15:1.0 26:1.0 32:0.5 54:1.0 
-1.0 -1.0 -1.0 -1.0 1.0 1.0 1.0 1:1.0 2:1.0 3:0.75 5:0.25 6:1.0 8:0.5 9:0.25 10:1.0 11:0.4 12:1.0 14:0.5 18:0.25 19:1.0 20:1.0 22:0.67 23:0.14 27:0.5 31:0.11 32:0.5 34:0.2 36:0.2 38:0.5 40:0.33 41:1.0 44:1.0 46:0.33 47:0.6 48:0.5 49:0.33 50:0.33 51:0.5 52:0.38 53:0.2 54:0.14 
-0.0 -1.0 -0.0 -1.0 0.0 1.0 1.0 2:1.0 3:1.0 10:1.0 11:0.2 12:1.0 14:0.25 19:1.0 20:1.0 22:1.0 27:0.75 31:0.11 34:0.2 40:0.33 41:0.5 44:1.0 46:0.33 47:0.8 49:0.33 50:0.67 51:0.25 52:0.38 
-1.0 -1.0 -1.0 -1.0 1.0 1.0 1.0 2:1.0 3:0.5 6:0.5 11:0.2 12:1.0 14:0.25 19:1.0 20:1.0 22:0.33 27:0.25 30:0.5 31:0.22 32:0.5 40:1.0 41:0.5 44:1.0 47:0.4 48:0.5 51:0.25 52:0.25 54:0.14 
-0.0 -1.0 -0.0 -1.0 1.0 1.0 1.0 2:1.0 3:1.0 10:1.0 11:0.2 12:1.0 14:0.25 19:1.0 20:1.0 22:1.0 27:0.75 31:0.11 34:0.2 40:0.33 41:0.5 44:1.0 46:0.33 47:1.0 49:0.33 50:0.67 51:0.25 52:0.38 
-0.0 -1.0 -0.4334690894973585 -1.0 0.0 1.0 1.0 2:1.0 3:1.0 10:1.0 11:0.2 12:1.0 14:0.25 19:1.0 20:1.0 22:1.0 27:0.75 31:0.11 34:0.2 40:0.33 41:0.5 44:1.0 46:0.33 47:0.8 49:0.33 50:0.67 51:0.25 52:0.38 
-0.0 -1.0 -0.06113389477926949 -1.0 1.0 0.7592984121783345 1.0 2:1.0 3:1.0 10:1.0 11:0.4 12:1.0 14:0.5 15:0.17 18:0.25 19:1.0 20:1.0 22:1.0 26:0.2 27:0.75 30:0.5 31:0.22 34:0.2 40:1.0 41:0.5 44:1.0 46:0.33 47:0.8 48:0.5 49:0.33 50:0.67 51:0.5 52:0.38 54:0.14 
-1.0 -1.0 -1.0 -1.0 0.0 1.0 1.0 2:1.0 3:0.5 6:0.5 11:0.2 12:1.0 14:0.25 19:1.0 20:1.0 22:0.33 27:0.25 31:0.11 32:0.5 40:0.33 41:0.5 44:1.0 47:0.4 51:0.25 52:0.25 54:0.14 
-0.48540765031004596 -1.0 -1.0 -1.0 -1.0 1.0 1.0 2:1.0 3:1.0 10:1.0 11:0.2 12:1.0 14:0.25 19:1.0 20:1.0 22:1.0 27:0.75 30:0.5 31:0.22 34:0.2 40:1.0 41:0.5 44:1.0 46:0.33 47:1.0 48:0.5 49:0.33 50:0.67 51:0.25 52:0.38 
-1.0 -1.0 -1.0 -1.0 -1.0 1.0 1.0 2:1.0 3:0.5 6:0.5 11:0.2 12:1.0 14:0.25 19:1.0 20:1.0 22:0.33 27:0.25 30:0.5 31:0.22 32:0.5 40:1.0 41:0.5 44:1.0 47:0.4 48:0.5 51:0.25 52:0.25 54:0.14 
-1.0 -1.0 -1.0 -1.0 -1.0 1.0 1.0 1:1.0 2:1.0 3:1.0 4:1.0 5:0.5 6:0.5 8:0.5 9:1.0 10:1.0 11:0.2 12:1.0 14:0.25 15:0.17 19:1.0 20:1.0 22:1.0 23:0.29 24:1.0 26:0.2 27:0.75 28:0.33 30:1.0 31:0.33 32:0.5 34:0.4 36:0.2 38:1.0 40:1.0 41:1.0 44:1.0 46:0.67 47:1.0 48:1.0 49:0.67 50:0.67 51:0.25 52:1.0 53:1.0 54:0.14 
-0.514592349689954 -1.0 -0.3379914591887006 -1.0 -1.0 1.0 1.0 1:1.0 2:1.0 3:1.0 5:0.25 6:0.5 8:0.5 9:1.0 10:1.0 11:0.2 12:1.0 14:0.25 19:1.0 20:1.0 22:1.0 23:0.14 24:1.0 27:0.75 31:0.11 34:0.4 36:0.2 38:0.5 40:0.33 41:1.0 44:1.0 46:0.67 47:1.0 48:0.5 49:0.67 50:0.67 51:0.25 52:1.0 53:1.0 
-0.0 -0.0 -0.0 -1.0 -0.26470586311220096 -0.0 1.0 1:1.0 3:0.25 5:0.25 6:1.0 8:0.5 9:1.0 12:1.0 19:0.5 20:0.5 23:0.14 24:1.0 31:0.11 32:0.5 34:0.2 36:0.2 38:0.5 40:0.17 41:1.0 44:1.0 46:0.33 47:0.2 48:0.5 49:0.33 52:0.75 53:1.0 54:0.14 
-0.0 -0.5129108048043041 -0.0 -1.0 -1.0 -1.0 1.0 1:1.0 3:0.25 5:0.25 6:1.0 8:0.5 9:1.0 12:1.0 19:0.5 20:0.5 23:0.14 24:1.0 31:0.11 32:0.5 34:0.2 36:0.2 38:0.5 40:0.17 41:1.0 44:1.0 46:0.33 47:0.2 48:0.5 49:0.33 52:0.75 53:1.0 54:0.14 
-0.0 -0.04457964356369436 -0.0 -1.0 -0.0 -0.0 1.0 1:1.0 5:0.25 6:0.5 8:0.5 9:0.25 15:0.17 23:0.14 26:0.2 36:0.2 38:0.5 41:0.5 48:0.5 52:0.12 53:0.2 54:0.14 
-0.0 -1.0 -0.0 -1.0 -1.0 -1.0 1.0 1:1.0 3:0.25 5:0.25 6:1.0 8:0.5 9:1.0 12:1.0 19:0.5 20:0.5 23:0.14 24:1.0 31:0.11 32:0.5 34:0.2 36:0.2 38:0.5 40:0.17 41:1.0 44:1.0 46:0.33 47:0.2 48:0.5 49:0.33 52:0.75 53:1.0 54:0.14 
-1.0 -1.0 -1.0 -1.0 -1.0 -0.40034509466719614 1.0 1:1.0 5:0.25 6:0.5 8:0.5 9:0.25 23:0.14 36:0.2 38:0.5 41:0.5 47:0.2 48:0.5 52:0.12 53:0.2 
-0.0 -1.0 -0.329581276866741 -1.0 -0.6972446782115769 -0.0 1.0 1:1.0 5:0.25 6:0.5 8:0.5 9:0.25 15:0.17 23:0.14 26:0.2 36:0.2 38:0.5 41:0.5 48:0.5 52:0.12 53:0.2 54:0.14 
-0.8292253473618311 -1.0 -1.0 -1.0 -0.8173124710809644 -0.0 1.0 1:1.0 5:0.25 6:0.5 8:0.5 9:0.25 15:0.17 23:0.14 26:0.2 36:0.2 38:0.5 41:0.5 48:0.5 52:0.12 53:0.2 54:0.14 
-1.0 -1.0 -1.0 -1.0 -1.0 -1.0 1.0 1:1.0 3:0.25 4:1.0 5:0.5 6:0.5 8:0.5 9:0.25 12:1.0 15:0.17 19:0.5 20:0.5 23:0.29 26:0.2 28:0.33 30:0.5 31:0.22 32:0.5 36:0.2 38:1.0 40:0.17 41:1.0 44:1.0 47:0.2 48:0.5 52:0.25 53:0.2 54:0.14 
-0.1707746526381689 -0.9656198577708724 -0.670418723133259 -1.0 -0.9800353997735922 -0.5996549053328039 1.0 1:1.0 3:0.25 5:0.25 6:1.0 8:0.5 9:1.0 12:1.0 19:0.5 20:0.5 23:0.14 24:1.0 31:0.11 32:0.5 34:0.2 36:0.2 38:0.5 40:0.17 41:1.0 44:1.0 46:0.33 47:0.2 48:0.5 49:0.33 52:0.75 53:1.0 54:0.14 
-0.0 -0.0 -0.0 -0.0 -0.0 -0.0 -0.49076716120528296 1:1.0 3:0.25 5:0.25 6:1.0 8:0.5 9:1.0 12:1.0 19:0.5 20:0.5 23:0.14 24:1.0 31:0.11 32:0.5 34:0.2 36:0.2 38:0.5 40:0.17 41:1.0 44:1.0 46:0.33 47:0.2 48:0.5 49:0.33 52:0.75 53:1.0 54:0.14 
-0.0 -0.0 -0.0 -0.0 -0.0 -0.0 -1.0 1:1.0 3:0.25 5:0.25 6:1.0 8:0.5 9:1.0 12:1.0 19:0.5 20:0.5 23:0.14 24:1.0 31:0.11 32:0.5 34:0.2 36:0.2 38:0.5 40:0.17 41:1.0 44:1.0 46:0.33 47:0.2 48:0.5 49:0.33 52:0.75 53:1.0 54:0.14 
-0.0 -0.0 -0.0 -0.0 -0.0 -0.0 -1.0 1:1.0 3:0.25 5:0.25 6:1.0 8:0.5 9:1.0 12:1.0 19:0.5 20:0.5 23:0.14 24:1.0 31:0.11 32:0.5 34:0.2 36:0.2 38:0.5 40:0.17 41:1.0 44:1.0 46:0.33 47:0.2 48:0.5 49:0.33 52:0.75 53:1.0 54:0.14 
-0.0 -0.0 -0.0 -0.014304224807083649 -0.0 -0.0 -1.0 1:1.0 3:0.25 5:0.25 6:1.0 8:0.5 9:1.0 12:1.0 19:0.5 20:0.5 23:0.14 24:1.0 31:0.11 32:0.5 34:0.2 36:0.2 38:0.5 40:0.17 41:1.0 44:1.0 46:0.33 47:0.2 48:0.5 49:0.33 52:0.75 53:1.0 54:0.14 
-0.8037277176200877 -0.646517889804623 -0.08591556760427783 -0.9248186808145445 -1.0 -0.31379877403542517 -1.0 1:1.0 3:0.25 5:0.25 6:0.5 8:0.5 9:0.25 12:1.0 19:0.5 20:0.5 23:0.14 30:0.5 31:0.22 35:1.0 36:1.0 37:1.0 38:0.5 39:1.0 40:0.33 41:1.0 44:1.0 47:0.2 48:1.0 52:0.25 53:0.2 
-0.0 -0.7934156027833981 -0.0 -1.0 -0.027697671865419302 -0.4672869728991593 -0.9046067521190864 1:1.0 3:0.25 5:0.25 6:1.0 8:0.5 9:1.0 12:1.0 19:0.5 20:0.5 23:0.14 24:1.0 31:0.11 32:0.5 34:0.2 36:0.2 38:0.5 40:0.17 41:1.0 44:1.0 46:0.33 47:0.2 48:0.5 49:0.33 52:0.75 53:1.0 54:0.14 
-0.0 -0.0 -1.0 -0.0 -0.0 -0.0 -0.0 1:1.0 3:0.25 4:1.0 5:0.75 6:1.0 7:0.17 8:0.5 9:0.25 11:0.2 12:1.0 13:0.33 14:0.25 16:0.14 18:0.25 19:0.5 20:0.5 21:0.25 23:0.29 25:0.17 28:0.67 30:0.5 31:0.33 32:1.0 36:0.2 38:1.0 40:0.17 41:1.0 43:0.2 44:1.0 45:0.25 47:0.4 48:0.5 51:0.25 52:0.25 53:0.2 54:0.14 
-0.0 -0.0 -0.0 -0.0 -0.0 -0.0 -1.0 1:1.0 3:0.25 4:1.0 5:0.5 6:0.5 8:1.0 9:0.75 22:0.33 23:0.43 24:0.75 27:0.5 28:0.33 30:0.5 31:0.11 32:0.5 36:0.2 38:1.0 41:0.5 47:0.2 48:0.5 50:0.67 52:0.62 53:0.8 
-0.0 -1.0 -0.0 -1.0 -1.0 -0.0 -0.0 3:0.25 4:1.0 5:0.25 6:0.5 12:1.0 19:0.5 20:0.5 23:0.14 28:0.33 30:0.5 31:0.22 32:1.0 38:0.5 40:0.17 41:0.5 44:1.0 47:0.2 52:0.12 54:0.14 
-0.0 -0.0 -0.0 -0.3429223948957032 -0.0 -0.0 -0.199097166161197 1:1.0 3:0.25 4:1.0 5:0.5 6:1.0 8:0.5 9:0.25 12:1.0 15:0.17 19:0.5 20:0.5 23:0.29 26:0.2 28:0.33 30:0.5 31:0.22 32:1.0 36:0.2 38:1.0 40:0.17 41:1.0 44:1.0 47:0.2 48:0.5 52:0.25 53:0.2 54:0.29 
-0.0 -0.0 -0.0 -0.0 -0.0 -0.0 -0.7477219405239564 1:1.0 3:0.25 4:1.0 5:0.5 6:0.5 8:1.0 9:0.75 22:0.33 23:0.43 24:0.75 27:0.5 28:0.33 30:0.5 31:0.11 32:0.5 36:0.2 38:1.0 41:0.5 47:0.2 48:0.5 50:0.67 52:0.62 53:0.8 
-0.219838306861484 -0.20658439721660193 -0.0 -0.618993164972708 -0.0 -0.0 -0.0 1:1.0 3:0.25 4:1.0 5:0.5 6:0.5 8:1.0 9:0.75 22:0.33 23:0.43 24:0.75 27:0.5 28:0.33 30:0.5 31:0.11 32:0.5 36:0.2 38:1.0 41:0.5 47:0.2 48:0.5 50:0.67 52:0.62 53:0.8 
-0.0 -1.0 -0.0 -1.0 -1.0 -0.0 -0.0 3:0.25 4:1.0 5:0.25 6:0.5 12:1.0 19:0.5 20:0.5 23:0.14 28:0.33 30:0.5 31:0.22 32:1.0 38:0.5 40:0.17 41:0.5 44:1.0 47:0.2 52:0.12 54:0.14 
-0.17909944675673703 -0.0 -0.19995528080226224 -0.0 -0.0 -0.0 -0.0 1:1.0 3:0.25 4:1.0 5:0.75 6:1.0 7:0.17 8:0.5 9:0.25 11:0.2 12:1.0 13:0.33 14:0.25 16:0.14 18:0.25 19:0.5 20:0.5 21:0.25 23:0.86 25:0.17 28:0.67 30:1.0 31:0.89 32:1.0 36:0.2 38:1.0 40:0.33 41:1.0 43:0.2 44:1.0 45:0.25 47:0.4 48:1.0 51:0.25 52:0.25 53:0.2 54:0.14 
-0.0 -1.0 -0.0 -1.0 -1.0 -0.0 -0.1905590905028552 3:0.25 4:1.0 5:0.25 6:0.5 12:1.0 19:0.5 20:0.5 23:0.14 28:0.33 30:0.5 31:0.22 32:1.0 38:0.5 40:0.17 41:0.5 44:1.0 47:0.2 52:0.12 54:0.14 
-0.0 -0.0 -0.5035032729221213 -0.0 -0.0 -0.0 -0.0 1:1.0 4:1.0 5:0.75 6:1.0 7:0.17 8:1.0 9:1.0 11:0.2 13:0.33 14:0.25 16:0.14 18:0.25 21:0.25 23:1.0 24:1.0 25:0.17 27:0.25 28:0.67 30:1.0 31:0.78 32:1.0 34:0.2 36:0.2 38:1.0 40:0.17 41:0.5 43:0.2 45:0.25 46:0.33 48:1.0 49:0.33 50:0.33 51:0.25 52:0.62 53:1.0 54:0.14 
-0.0 -0.0 -0.0 -0.8184351894423448 -0.0 -0.0 -0.0 3:0.25 4:1.0 5:0.25 12:1.0 19:0.5 20:0.5 23:0.71 28:0.33 30:1.0 31:0.78 32:0.5 38:0.5 40:0.33 41:0.5 44:1.0 47:0.2 48:0.5 52:0.12 
-0.0 -0.8648937040099868 -0.19925820128572458 -1.0 -0.8174176191439679 -0.5080220069520779 -0.9958982687413301 3:0.25 4:1.0 5:0.25 6:0.5 12:1.0 19:0.5 20:0.5 23:0.14 28:0.33 30:0.5 31:0.22 32:1.0 38:0.5 40:0.17 41:0.5 44:1.0 47:0.2 52:0.12 54:0.14 
-0.0026692023796849977 -0.0 -1.0 -0.0 -0.0 -0.0 -0.0 1:1.0 4:1.0 5:0.75 6:1.0 7:0.17 8:1.0 9:0.25 11:0.2 13:0.33 14:0.25 16:0.14 18:0.25 21:0.25 23:1.0 25:0.17 27:0.25 28:0.67 30:1.0 31:0.78 32:1.0 35:1.0 36:1.0 37:1.0 38:1.0 39:1.0 40:0.17 41:0.5 43:0.2 45:0.25 48:1.0 50:0.33 51:0.25 52:0.12 53:0.2 54:0.14 
-0.0 -0.0 -0.0 -1.0 -0.0 -0.0 -0.0 3:0.25 4:1.0 5:0.25 12:1.0 19:0.5 20:0.5 23:0.71 28:0.33 30:1.0 31:0.78 32:0.5 38:0.5 40:0.33 41:0.5 44:1.0 47:0.2 48:0.5 52:0.12 
-0.382867213917154 -0.0 -0.0 -0.0 -0.0 -0.0 -0.0 1:1.0 4:1.0 5:0.5 6:0.5 8:1.0 9:0.25 23:1.0 27:0.25 28:0.33 30:0.5 31:0.56 32:0.5 35:1.0 36:1.0 37:1.0 38:1.0 39:1.0 41:0.5 48:0.5 50:0.33 52:0.12 53:0.2 
-0.0 -1.0 -0.0 -0.0 -1.0 -1.0 -0.0 1:1.0 2:1.0 3:1.0 4:1.0 5:0.5 6:0.5 8:0.5 9:1.0 10:1.0 11:0.4 12:1.0 14:0.5 15:0.17 18:0.25 19:1.0 20:1.0 22:1.0 23:0.29 24:1.0 26:0.2 27:0.75 28:0.33 30:1.0 31:0.33 32:0.5 34:0.4 36:0.2 38:1.0 40:1.0 41:1.0 44:1.0 46:0.67 47:0.8 48:1.0 49:0.67 50:0.67 51:0.5 52:1.0 53:1.0 54:0.14 
-0.0 -1.0 -0.020962171839886475 -1.0 -1.0 -0.9537654832660332 -0.24536133310554248 1:1.0 2:1.0 3:0.5 5:0.25 6:0.5 8:1.0 9:1.0 11:1.0 14:1.0 18:1.0 19:0.5 20:0.5 22:0.67 23:0.29 24:1.0 27:0.75 34:0.2 36:0.2 38:0.5 40:0.17 41:0.5 46:0.33 47:0.4 48:0.5 49:0.33 50:0.67 51:1.0 52:0.88 53:1.0 
-1.0 -0.0 -0.0 -0.26678348804815266 -0.0 -0.0 -0.22598828764074957 1:1.0 4:1.0 5:0.5 6:0.5 8:1.0 9:0.25 23:1.0 27:0.25 28:0.33 30:0.5 31:0.56 32:0.5 35:1.0 36:1.0 37:1.0 38:1.0 39:1.0 41:0.5 48:0.5 50:0.33 52:0.12 53:0.2 
-0.2115451959726128 -0.12079615058430183 -0.9904055055457277 -1.0 -0.15488470899061282 -0.7571267628473045 -0.0 3:0.25 4:1.0 5:0.25 12:1.0 19:0.5 20:0.5 23:0.71 28:0.33 30:1.0 31:0.78 32:0.5 38:0.5 40:0.33 41:0.5 44:1.0 47:0.2 48:0.5 52:0.12 
-0.20025291649223956 -0.0 -0.0 -0.0 -0.0 -0.0 -0.0 1:1.0 4:1.0 5:0.5 6:1.0 8:1.0 9:1.0 23:1.0 24:1.0 27:0.25 28:0.33 30:1.0 31:0.67 32:1.0 34:0.2 36:0.2 38:1.0 40:0.17 41:0.5 46:0.33 48:1.0 49:0.33 50:0.33 52:0.62 53:1.0 54:0.14 
