svm_type c_svc
kernel_type rbf
gamma 0.006097560975609756
nr_class 8
total_sv 139
rho 0.10449005664053722 0.808058004327112 0.4265618622303009 0.003011571291738847 -0.0578557550907135 0.6906861662864685 1.0 0.1266053127518807 0.14473463512849477 -0.521013617515564 -0.9164624304024678 -0.0231014903256574 0.35913575839778705 0.07763521961815183 -0.11899016897815422 -0.09419817187117613 0.37017410993576055 0.8933828540951697 -0.10354554871139465 -0.17611330333148056 -0.14146372494385043 0.14803914679778726 -0.7966814254009114 -0.030026016708378945 0.22460385393567397 -0.029072842215369148 0.7424532021893122 0.9698550560907145
label 3 7 4 0 5 6 2 1
nr_sv 8 18 12 15 17 8 20 41
SV
1.0 1.0 1.0 1.0 1.0 1.0 1.0 1:0.5 2:0.67 4:0.33 5:0.33 7:0.67 8:0.33 10:0.5 11:0.25 12:0.17 13:0.4 17:0.5 19:0.67 20:0.17 21:0.5 22:0.33 25:0.14 28:0.2 30:0.33 32:0.25 35:0.17 37:0.5 38:0.25 40:0.5 41:0.5 43:0.33 44:0.67 47:0.33 50:0.33 53:0.5 56:0.33 58:0.33 62:0.33 69:1.0 70:0.33 71:0.2 74:0.33 77:1.0 80:0.25 83:0.14 84:0.33 86:1.0 87:0.5 88:0.33 89:0.33 90:0.25 92:0.25 93:0.25 94:0.17 95:1.0 96:0.14 100:0.33 102:0.5 104:0.17 105:1.0 106:0.5 107:0.5 108:0.33 109:0.5 110:0.4 111:0.17 112:0.5 116:1.0 119:1.0 123:0.5 124:0.5 125:0.5 128:1.0 129:0.5 141:1.0 143:0.33 144:0.33 145:1.0 147:1.0 148:1.0 159:1.0 160:1.0 161:1.0 162:1.0 
1.0 1.0 1.0 1.0 1.0 1.0 1.0 1:0.5 2:0.67 4:0.33 5:0.33 7:0.67 8:0.33 10:0.5 11:0.25 12:0.17 13:0.4 17:0.5 19:0.67 20:0.17 21:0.5 22:0.33 25:0.14 28:0.2 30:0.33 32:0.25 35:0.17 37:0.5 38:0.25 40:0.5 41:0.5 43:0.33 44:0.67 47:0.33 50:0.33 53:0.5 56:0.33 58:0.33 62:0.33 69:1.0 70:0.33 71:0.2 74:0.33 77:1.0 80:0.25 83:0.14 84:0.33 86:1.0 87:0.5 88:0.33 89:0.33 90:0.25 92:0.25 93:0.25 94:0.17 95:1.0 96:0.14 100:0.33 102:0.5 104:0.17 105:1.0 106:0.5 107:0.5 108:0.33 109:0.5 110:0.4 111:0.17 112:0.5 116:1.0 119:1.0 123:0.5 124:0.5 125:0.5 128:1.0 129:0.5 141:1.0 143:0.33 144:0.33 145:1.0 147:1.0 148:1.0 159:1.0 160:1.0 161:1.0 162:1.0 
1.0 1.0 1.0 1.0 0.0 1.0 1.0 2:0.67 4:0.33 5:0.67 7:1.0 8:0.33 9:0.5 10:1.0 11:0.25 12:0.17 13:0.8 16:1.0 17:0.5 19:1.0 20:0.17 21:0.75 22:0.33 25:0.14 28:0.6 29:0.67 30:0.67 32:0.5 35:0.17 37:0.5 38:0.25 40:1.0 41:0.75 43:0.33 44:0.67 47:0.33 50:0.33 52:0.5 53:1.0 54:0.5 55:0.33 56:0.33 58:0.33 60:0.5 62:1.0 69:0.5 70:0.67 71:0.2 74:0.33 76:0.4 77:1.0 80:0.25 83:0.14 84:0.33 87:1.0 88:0.33 89:0.67 90:0.75 92:0.25 93:0.75 94:0.17 95:1.0 96:0.14 98:0.33 99:0.67 100:0.67 101:0.33 102:1.0 103:0.33 104:0.17 105:1.0 106:0.75 107:0.5 108:0.67 109:0.75 110:0.6 111:0.17 112:0.5 113:0.67 116:1.0 120:1.0 123:0.5 124:0.5 125:0.5 126:0.5 127:1.0 128:1.0 140:1.0 141:0.5 143:0.33 144:0.33 145:0.5 148:1.0 157:1.0 160:1.0 161:0.5 
1.0 1.0 1.0 1.0 1.0 1.0 1.0 1:0.5 2:0.33 5:0.33 7:0.33 8:0.33 11:0.25 12:0.17 13:0.2 17:0.5 19:0.33 20:0.17 21:0.25 25:0.14 30:0.33 35:0.17 38:0.25 40:0.5 41:0.25 44:0.33 47:0.33 50:0.33 56:0.33 58:0.33 69:0.5 71:0.2 74:0.33 77:1.0 80:0.25 83:0.14 84:0.33 86:1.0 88:0.33 89:0.33 92:0.25 94:0.17 95:1.0 96:0.14 102:0.25 104:0.17 105:1.0 106:0.25 107:0.5 109:0.25 110:0.2 111:0.17 112:0.5 116:1.0 124:0.5 125:0.5 129:0.5 141:1.0 143:0.33 144:0.33 145:0.5 147:0.2 148:0.5 159:0.25 160:1.0 161:1.0 
1.0 1.0 1.0 1.0 1.0 1.0 1.0 2:0.33 3:0.33 5:0.67 7:0.67 8:0.33 9:0.25 11:0.5 12:0.17 13:0.4 16:0.5 17:1.0 19:0.33 20:0.17 21:0.25 25:0.14 28:0.2 29:0.33 30:0.67 32:0.5 35:0.17 38:0.25 40:1.0 41:0.5 44:0.33 47:0.67 50:0.33 52:0.5 53:0.5 54:0.5 56:0.33 57:0.5 58:0.33 59:1.0 62:0.33 66:0.5 71:0.2 74:0.33 76:0.4 77:1.0 80:0.25 83:0.14 84:0.67 85:0.5 88:0.33 89:1.0 90:0.25 91:0.5 92:0.25 93:0.25 94:0.17 95:1.0 96:0.14 98:0.33 99:0.33 100:0.33 101:0.67 102:0.5 103:0.67 104:0.17 105:1.0 106:0.75 107:0.5 109:0.5 110:0.4 111:0.17 112:0.5 113:0.33 115:0.2 116:1.0 118:0.17 121:0.2 122:0.5 124:0.5 125:0.5 126:0.5 130:1.0 133:0.17 136:0.2 140:0.2 141:0.5 143:0.33 144:0.33 148:0.5 152:0.17 154:0.14 155:0.17 157:1.0 160:1.0 161:0.5 
0.5630462481075639 1.0 1.0 0.0 0.6785288054245792 1.0 1.0 1:1.0 5:0.33 7:0.33 9:0.75 10:0.5 13:0.4 16:1.0 19:0.33 21:0.25 22:0.33 28:0.6 29:0.67 30:0.33 32:0.25 37:0.5 40:0.5 41:0.25 43:0.33 49:0.5 52:1.0 53:0.5 54:1.0 55:0.67 60:1.0 62:0.67 68:0.5 69:0.5 70:0.67 76:0.6 82:0.5 86:1.0 87:0.5 89:0.33 90:0.5 93:0.5 98:0.67 99:1.0 100:0.33 101:0.67 102:0.5 103:0.33 106:0.25 108:0.33 109:0.25 110:0.2 113:0.67 119:1.0 120:1.0 125:1.0 126:1.0 127:1.0 129:1.0 132:0.1 140:1.0 141:0.5 143:1.0 145:0.5 147:1.0 157:1.0 159:1.0 161:0.5 162:1.0 
0.9957699457083238 1.0 1.0 0.7189278621105246 1.0 1.0 1.0 1:1.0 5:0.33 7:0.33 9:0.75 10:0.5 13:0.4 16:1.0 19:0.33 21:0.25 22:0.33 28:0.6 29:0.67 30:0.33 32:0.25 37:0.5 40:0.5 41:0.25 43:0.33 49:0.5 52:1.0 53:0.5 54:1.0 55:0.67 60:1.0 62:0.67 68:0.5 69:0.5 70:0.67 76:0.6 82:0.5 86:1.0 87:0.5 89:0.33 90:0.5 93:0.5 98:0.67 99:1.0 100:0.33 101:0.67 102:0.5 103:0.33 106:0.25 108:0.33 109:0.25 110:0.2 113:0.67 119:1.0 120:1.0 125:1.0 126:1.0 127:1.0 129:1.0 132:0.1 140:1.0 141:0.5 143:1.0 145:0.5 147:1.0 157:1.0 159:1.0 161:0.5 162:1.0 
1.0 1.0 1.0 0.8415612032672667 1.0 1.0 1.0 1:1.0 2:0.33 3:0.33 4:0.33 5:0.33 7:0.67 9:0.75 10:1.0 11:0.25 13:0.6 16:1.0 17:0.5 19:0.67 21:0.5 22:0.67 27:0.5 28:0.8 29:0.67 30:0.33 32:0.75 37:1.0 40:0.5 41:0.5 43:0.67 44:0.33 47:0.33 49:0.5 52:1.0 53:1.0 54:1.0 55:0.67 57:0.5 59:1.0 60:1.0 62:1.0 66:0.5 68:0.5 69:1.0 70:1.0 74:0.33 76:0.8 82:0.5 84:0.33 85:0.5 86:1.0 87:1.0 89:0.67 90:0.75 91:0.5 92:0.25 93:0.75 98:0.67 99:1.0 100:0.67 101:1.0 102:0.75 103:0.67 106:0.75 108:0.67 109:0.5 110:0.4 113:0.67 115:0.2 118:0.17 120:1.0 121:0.2 122:0.5 123:0.5 125:1.0 126:1.0 127:1.0 128:1.0 129:1.0 130:1.0 132:0.1 133:0.17 136:0.2 139:1.0 140:1.0 141:0.5 143:1.0 145:1.0 147:0.2 148:0.5 152:0.17 154:0.14 155:0.17 157:1.0 159:0.25 161:0.5 
-0.4896046028984486 1.0 1.0 1.0 0.0 1.0 1.0 2:0.33 3:0.67 5:0.33 7:0.33 8:0.33 11:0.75 12:0.33 13:0.2 17:1.0 19:0.33 20:0.33 21:0.25 25:0.29 27:1.0 30:0.33 32:0.25 35:0.33 36:1.0 38:0.5 40:0.5 41:0.25 44:0.33 46:0.5 47:0.67 48:0.5 50:0.33 56:0.67 57:0.5 58:0.33 59:1.0 63:1.0 66:0.5 71:0.4 72:1.0 74:1.0 76:0.2 77:1.0 80:0.5 82:0.5 83:0.29 84:1.0 85:0.5 88:0.33 89:0.67 91:1.0 92:0.75 94:0.33 95:1.0 96:0.29 101:0.33 102:0.25 103:0.33 104:0.33 105:1.0 106:0.5 107:0.5 109:0.25 110:0.2 111:0.33 112:1.0 115:0.2 116:1.0 118:0.17 121:0.2 122:0.5 124:0.5 130:1.0 132:0.4 133:0.17 135:1.0 136:0.2 139:1.0 141:0.5 144:0.67 148:0.5 150:0.33 152:0.17 154:0.14 155:0.17 156:0.5 158:0.5 160:1.0 161:0.5 163:0.5 
-0.0 0.0 0.0 0.0 0.0 0.0 1.0 1:0.5 3:0.67 6:0.5 9:0.25 11:0.5 12:0.17 20:0.17 22:0.33 24:1.0 25:0.29 27:0.5 28:0.2 35:0.33 36:1.0 37:0.5 38:0.25 43:0.33 46:1.0 48:1.0 49:0.5 50:0.33 51:0.5 52:0.5 54:0.5 55:0.33 56:0.67 57:0.5 60:0.5 63:1.0 64:1.0 68:0.5 70:0.33 71:0.2 72:1.0 74:0.33 76:0.2 80:0.25 82:1.0 83:0.14 84:0.33 91:0.5 92:0.5 94:0.33 96:0.14 97:1.0 98:0.33 99:0.33 101:0.33 104:0.17 111:0.33 112:0.5 114:1.0 122:0.5 124:0.5 126:0.5 129:0.5 132:1.0 135:1.0 142:1.0 143:0.33 144:0.67 150:0.67 151:1.0 156:1.0 158:1.0 163:1.0 
-0.0 0.0 0.0 1.0 0.0 0.0 0.0 1:0.5 3:0.67 6:0.5 9:0.25 11:0.5 12:0.17 20:0.17 22:0.33 24:1.0 25:0.29 27:1.0 28:0.2 35:0.33 36:1.0 37:0.5 38:0.25 43:0.33 46:1.0 48:1.0 49:0.5 50:0.33 51:0.5 52:0.5 54:0.5 55:0.33 56:0.67 57:0.5 60:0.5 63:1.0 64:1.0 68:0.5 70:0.33 71:0.2 72:1.0 74:0.67 76:0.2 80:0.25 82:1.0 83:0.14 84:0.33 91:0.5 92:0.75 94:0.33 96:0.14 97:1.0 98:0.33 99:0.33 101:0.33 104:0.17 111:0.33 112:0.5 114:1.0 122:0.5 124:0.5 126:0.5 129:0.5 132:0.7 135:1.0 139:1.0 142:1.0 143:0.33 144:0.67 150:0.67 151:1.0 156:1.0 158:1.0 163:1.0 
-1.0 1.0 1.0 1.0 0.0 1.0 1.0 2:0.33 3:0.67 5:0.33 7:0.33 8:0.33 11:0.75 12:0.33 13:0.2 17:1.0 19:0.33 20:0.33 21:0.25 25:0.29 27:1.0 30:0.33 32:0.25 35:0.33 36:1.0 38:0.5 40:0.5 41:0.25 44:0.33 46:0.5 47:0.67 48:0.5 50:0.33 56:0.67 57:0.5 58:0.33 59:1.0 63:1.0 66:0.5 71:0.4 72:1.0 74:1.0 76:0.2 77:1.0 80:0.5 82:0.5 83:0.29 84:1.0 85:0.5 88:0.33 89:0.67 91:1.0 92:0.75 94:0.33 95:1.0 96:0.29 101:0.33 102:0.25 103:0.33 104:0.33 105:1.0 106:0.5 107:0.5 109:0.25 110:0.2 111:0.33 112:1.0 115:0.2 116:1.0 118:0.17 121:0.2 122:0.5 124:0.5 130:1.0 132:0.4 133:0.17 135:1.0 136:0.2 139:1.0 141:0.5 144:0.67 148:0.5 150:0.33 152:0.17 154:0.14 155:0.17 156:0.5 158:0.5 160:1.0 161:0.5 163:0.5 
-0.0 0.0 0.0 1.0 0.9179739883279274 0.0 1.0 1:0.5 3:0.67 6:0.5 9:0.25 11:0.5 12:0.17 20:0.17 22:0.33 24:1.0 25:0.29 27:0.5 28:0.2 35:0.33 36:1.0 37:0.5 38:0.25 43:0.33 46:1.0 48:1.0 49:0.5 50:0.33 51:0.5 52:0.5 54:0.5 55:0.33 56:0.67 57:0.5 60:0.5 63:1.0 64:1.0 68:0.5 70:0.33 71:0.2 72:1.0 74:0.33 76:0.2 80:0.25 82:1.0 83:0.14 84:0.33 91:0.5 92:0.5 94:0.33 96:0.14 97:1.0 98:0.33 99:0.33 101:0.33 104:0.17 111:0.33 112:0.5 114:1.0 122:0.5 124:0.5 126:0.5 129:0.5 132:1.0 135:1.0 142:1.0 143:0.33 144:0.67 150:0.67 151:1.0 156:1.0 158:1.0 163:1.0 
-0.0 0.0 0.9288219460055518 1.0 0.6884724460087176 0.0 1.0 2:0.33 3:1.0 4:0.33 5:0.67 6:0.5 7:0.33 8:0.33 11:1.0 12:0.5 13:0.2 14:0.2 15:0.33 17:1.0 19:0.33 20:0.5 21:0.25 24:1.0 25:0.57 27:0.5 30:0.33 31:1.0 32:0.25 35:0.5 36:1.0 38:0.75 39:0.25 40:0.5 41:0.25 42:0.25 44:0.67 45:0.2 46:1.0 47:1.0 48:1.0 50:1.0 51:1.0 56:1.0 57:1.0 58:0.67 59:1.0 61:0.5 63:1.0 64:1.0 65:1.0 66:0.5 67:0.5 71:0.6 72:1.0 73:0.2 74:0.67 75:0.5 76:0.2 77:1.0 78:0.25 79:1.0 80:0.75 81:0.17 82:0.5 83:0.29 84:1.0 85:0.5 88:0.67 89:0.67 91:1.0 92:0.75 94:0.5 95:1.0 96:0.43 97:1.0 101:0.33 102:0.25 103:0.33 104:0.5 105:1.0 106:0.5 107:0.5 109:0.25 110:0.4 111:0.67 112:1.0 114:1.0 115:0.4 116:1.0 117:0.2 118:0.33 121:0.4 122:1.0 124:1.0 130:1.0 131:0.33 132:0.2 133:0.17 134:0.25 135:1.0 136:0.4 137:0.5 138:0.2 141:0.5 142:1.0 144:1.0 148:0.5 149:0.17 150:1.0 151:1.0 152:0.33 154:0.29 155:0.33 156:1.0 158:1.0 160:1.0 161:0.5 163:1.0 164:0.2 
-0.0 0.7228744902031828 0.5416271330167324 1.0 1.0 0.5728627004815231 1.0 1:0.5 3:0.67 6:0.5 9:0.25 11:0.5 12:0.17 20:0.17 22:0.33 24:1.0 25:0.29 27:0.5 28:0.2 35:0.33 36:1.0 37:0.5 38:0.25 43:0.33 46:1.0 48:1.0 49:0.5 50:0.33 51:0.5 52:0.5 54:0.5 55:0.33 56:0.67 57:0.5 60:0.5 63:1.0 64:1.0 68:0.5 70:0.33 71:0.2 72:1.0 74:0.33 76:0.2 80:0.25 82:1.0 83:0.14 84:0.33 91:0.5 92:0.5 94:0.33 96:0.14 97:1.0 98:0.33 99:0.33 101:0.33 104:0.17 111:0.33 112:0.5 114:1.0 122:0.5 124:0.5 126:0.5 129:0.5 132:1.0 135:1.0 142:1.0 143:0.33 144:0.67 150:0.67 151:1.0 156:1.0 158:1.0 163:1.0 
-1.0 1.0 1.0 1.0 0.1302493092061418 1.0 1.0 2:0.33 3:0.67 5:0.33 6:0.5 7:0.33 8:0.33 11:0.75 12:0.17 13:0.2 17:1.0 19:0.33 20:0.17 21:0.25 24:1.0 25:0.29 27:0.5 30:0.33 32:0.25 35:0.33 38:0.25 40:0.5 41:0.25 44:0.33 46:0.5 47:0.67 48:0.5 50:0.67 51:0.5 56:0.67 57:1.0 58:0.33 59:1.0 64:1.0 66:0.5 71:0.2 74:0.67 76:0.2 77:1.0 80:0.25 83:0.14 84:0.67 85:0.5 88:0.33 89:0.67 91:0.5 92:0.75 94:0.33 95:1.0 96:0.14 97:1.0 101:0.33 102:0.25 103:0.33 104:0.17 105:1.0 106:0.5 107:0.5 109:0.25 110:0.2 111:0.33 112:0.5 114:1.0 115:0.2 116:1.0 118:0.17 121:0.2 122:1.0 124:1.0 130:1.0 132:0.4 133:0.17 136:0.2 139:1.0 141:0.5 142:1.0 144:0.67 148:0.5 150:0.33 151:1.0 152:0.17 154:0.14 155:0.17 156:0.5 158:0.5 160:1.0 161:0.5 163:0.5 
-0.5817030951078116 1.0 1.0 1.0 1.0 1.0 1.0 1:0.5 3:0.67 6:0.5 9:0.25 11:0.5 12:0.17 20:0.17 22:0.33 24:1.0 25:0.29 27:0.5 28:0.2 35:0.33 36:1.0 37:0.5 38:0.25 43:0.33 46:1.0 48:1.0 49:0.5 50:0.33 51:0.5 52:0.5 54:0.5 55:0.33 56:0.67 57:0.5 60:0.5 63:1.0 64:1.0 68:0.5 70:0.33 71:0.2 72:1.0 74:0.33 76:0.2 80:0.25 82:1.0 83:0.14 84:0.33 91:0.5 92:0.5 94:0.33 96:0.14 97:1.0 98:0.33 99:0.33 101:0.33 104:0.17 111:0.33 112:0.5 114:1.0 122:0.5 124:0.5 126:0.5 129:0.5 132:1.0 135:1.0 142:1.0 143:0.33 144:0.67 150:0.67 151:1.0 156:1.0 158:1.0 163:1.0 
-0.0 0.0 0.0 1.0 0.8774118486299487 0.0 0.0 1:0.5 3:1.0 4:0.33 6:0.5 9:0.25 11:0.75 12:0.33 17:0.5 20:0.33 22:0.33 24:1.0 25:0.43 27:1.0 28:0.2 31:1.0 32:0.25 35:0.33 36:1.0 37:0.5 38:0.5 43:0.33 46:1.0 47:0.33 48:1.0 49:0.5 50:0.67 51:1.0 52:0.5 54:0.5 55:0.33 56:0.67 57:1.0 58:0.33 59:1.0 60:0.5 61:0.5 63:1.0 64:1.0 65:1.0 66:0.5 67:0.5 68:0.5 70:0.33 71:0.4 72:1.0 74:0.67 75:0.5 76:0.4 80:0.5 82:1.0 83:0.14 84:0.67 85:0.5 88:0.33 89:0.33 91:1.0 92:0.75 94:0.33 96:0.29 97:1.0 98:0.33 99:0.33 101:0.67 103:0.33 104:0.33 106:0.25 111:0.5 112:0.5 114:1.0 115:0.2 118:0.17 121:0.2 122:1.0 124:0.5 126:0.5 129:0.5 130:1.0 132:0.6 133:0.17 135:1.0 136:0.2 139:1.0 142:1.0 143:0.33 144:0.67 150:0.67 151:1.0 152:0.17 154:0.14 155:0.17 156:1.0 158:1.0 163:1.0 
-1.0 0.9603029859548518 1.0 1.0 1.0 0.9066222791598096 1.0 1:0.5 3:0.67 6:0.5 9:0.25 11:0.5 12:0.17 20:0.17 22:0.33 24:1.0 25:0.29 27:0.5 28:0.2 35:0.33 36:1.0 37:0.5 38:0.25 43:0.33 46:1.0 48:1.0 49:0.5 50:0.33 51:0.5 52:0.5 54:0.5 55:0.33 56:0.67 57:0.5 60:0.5 63:1.0 64:1.0 68:0.5 70:0.33 71:0.2 72:1.0 74:0.33 76:0.2 80:0.25 82:1.0 83:0.14 84:0.33 91:0.5 92:0.5 94:0.33 96:0.14 97:1.0 98:0.33 99:0.33 101:0.33 104:0.17 111:0.33 112:0.5 114:1.0 122:0.5 124:0.5 126:0.5 129:0.5 132:1.0 135:1.0 142:1.0 143:0.33 144:0.67 150:0.67 151:1.0 156:1.0 158:1.0 163:1.0 
-0.0 0.0 0.0 1.0 0.2573601274667036 0.0 0.3233584152831317 1:0.5 3:0.67 6:0.5 9:0.25 11:0.5 12:0.17 20:0.17 22:0.33 24:1.0 25:0.29 27:1.0 28:0.2 35:0.33 36:1.0 37:0.5 38:0.25 43:0.33 46:1.0 48:1.0 49:0.5 50:0.33 51:0.5 52:0.5 54:0.5 55:0.33 56:0.67 57:0.5 60:0.5 63:1.0 64:1.0 68:0.5 70:0.33 71:0.2 72:1.0 74:0.67 76:0.2 80:0.25 82:1.0 83:0.14 84:0.33 91:0.5 92:0.75 94:0.33 96:0.14 97:1.0 98:0.33 99:0.33 101:0.33 104:0.17 111:0.33 112:0.5 114:1.0 122:0.5 124:0.5 126:0.5 129:0.5 132:0.7 135:1.0 139:1.0 142:1.0 143:0.33 144:0.67 150:0.67 151:1.0 156:1.0 158:1.0 163:1.0 
-1.0 1.0 1.0 1.0 0.18935809794182357 1.0 1.0 2:0.33 3:0.67 5:0.33 7:0.33 8:0.33 11:0.75 12:0.33 13:0.2 17:1.0 19:0.33 20:0.33 21:0.25 25:0.29 27:0.5 30:0.33 32:0.25 35:0.33 36:1.0 38:0.5 40:0.5 41:0.25 44:0.33 46:0.5 47:0.67 48:0.5 50:0.33 56:0.67 57:0.5 58:0.33 59:1.0 63:1.0 66:0.5 71:0.4 72:1.0 74:0.67 76:0.2 77:1.0 80:0.5 82:0.5 83:0.29 84:1.0 85:0.5 88:0.33 89:0.67 91:1.0 92:0.5 94:0.33 95:1.0 96:0.29 101:0.33 102:0.25 103:0.33 104:0.33 105:1.0 106:0.5 107:0.5 109:0.25 110:0.2 111:0.33 112:1.0 115:0.2 116:1.0 118:0.17 121:0.2 122:0.5 124:0.5 130:1.0 132:0.1 133:0.17 135:1.0 136:0.2 141:0.5 144:0.67 148:0.5 150:0.33 152:0.17 154:0.14 155:0.17 156:0.5 158:0.5 160:1.0 161:0.5 163:0.5 
-0.9957699457083238 1.0 1.0 1.0 0.0 1.0 1.0 2:0.33 3:0.67 5:0.33 7:0.33 8:0.33 11:0.75 12:0.33 13:0.2 17:1.0 19:0.33 20:0.33 21:0.25 25:0.29 27:1.0 30:0.33 32:0.25 35:0.33 36:1.0 38:0.5 40:0.5 41:0.25 44:0.33 46:0.5 47:0.67 48:0.5 50:0.33 56:0.67 57:0.5 58:0.33 59:1.0 63:1.0 66:0.5 71:0.4 72:1.0 74:1.0 76:0.2 77:1.0 80:0.5 82:0.5 83:0.29 84:1.0 85:0.5 88:0.33 89:0.67 91:1.0 92:0.75 94:0.33 95:1.0 96:0.29 101:0.33 102:0.25 103:0.33 104:0.33 105:1.0 106:0.5 107:0.5 109:0.25 110:0.2 111:0.33 112:1.0 115:0.2 116:1.0 118:0.17 121:0.2 122:0.5 124:0.5 130:1.0 132:0.4 133:0.17 135:1.0 136:0.2 139:1.0 141:0.5 144:0.67 148:0.5 150:0.33 152:0.17 154:0.14 155:0.17 156:0.5 158:0.5 160:1.0 161:0.5 163:0.5 
-0.4917385501013037 1.0 1.0 1.0 1.0 1.0 1.0 2:0.33 3:0.67 5:0.33 6:0.5 7:0.33 8:0.33 11:0.75 12:0.17 13:0.2 17:1.0 19:0.33 20:0.17 21:0.25 24:1.0 25:0.29 27:0.5 30:0.33 32:0.25 35:0.33 38:0.25 40:0.5 41:0.25 44:0.33 46:0.5 47:0.67 48:0.5 50:0.67 51:0.5 56:0.67 57:1.0 58:0.33 59:1.0 64:1.0 66:0.5 71:0.2 74:0.67 76:0.2 77:1.0 80:0.25 83:0.14 84:0.67 85:0.5 88:0.33 89:0.67 91:0.5 92:0.75 94:0.33 95:1.0 96:0.14 97:1.0 101:0.33 102:0.25 103:0.33 104:0.17 105:1.0 106:0.5 107:0.5 109:0.25 110:0.2 111:0.33 112:0.5 114:1.0 115:0.2 116:1.0 118:0.17 121:0.2 122:1.0 124:1.0 130:1.0 132:0.4 133:0.17 136:0.2 139:1.0 141:0.5 142:1.0 144:0.67 148:0.5 150:0.33 151:1.0 152:0.17 154:0.14 155:0.17 156:0.5 158:0.5 160:1.0 161:0.5 163:0.5 
-0.0 0.0 0.0 1.0 0.0 0.0 0.0 2:0.33 3:1.0 4:0.33 5:0.33 6:0.5 7:0.33 8:1.0 11:1.0 12:0.83 13:0.2 17:1.0 19:0.33 20:0.83 21:0.25 24:1.0 25:1.0 27:0.5 30:0.33 31:1.0 32:0.25 35:1.0 36:1.0 38:1.0 40:0.5 41:0.25 44:0.33 46:1.0 47:0.67 48:1.0 50:1.0 51:1.0 56:1.0 57:1.0 58:0.67 59:1.0 61:0.5 63:1.0 64:1.0 65:1.0 66:0.5 67:0.5 71:1.0 72:1.0 74:0.67 75:0.5 76:0.2 77:1.0 80:1.0 82:0.5 83:0.86 84:1.0 85:0.5 88:0.67 89:0.67 91:1.0 92:0.75 94:1.0 95:1.0 96:0.86 97:1.0 101:0.33 102:0.25 103:0.33 104:1.0 105:1.0 106:0.5 107:0.5 109:0.25 110:0.2 111:1.0 112:1.0 114:1.0 115:0.2 116:1.0 118:0.17 121:0.2 122:1.0 124:1.0 130:1.0 132:0.2 133:0.17 135:1.0 136:0.2 141:0.5 142:1.0 144:1.0 148:0.5 150:0.67 151:1.0 152:0.17 154:0.14 155:0.17 156:1.0 158:1.0 160:1.0 161:0.5 163:1.0 
-1.0 1.0 1.0 1.0 0.0 1.0 1.0 2:0.33 3:0.33 4:0.33 5:0.33 6:0.5 7:0.33 8:0.33 11:0.5 12:0.33 13:0.2 17:0.5 19:0.33 20:0.33 21:0.25 24:1.0 25:0.43 30:0.33 31:1.0 35:0.33 38:0.5 40:0.5 41:0.25 44:0.33 46:0.5 47:0.33 48:0.5 50:1.0 51:1.0 56:0.67 57:0.5 58:0.67 61:0.5 64:1.0 65:1.0 67:0.5 71:0.4 74:0.33 75:0.5 77:1.0 79:1.0 80:0.5 83:0.14 84:0.33 88:0.67 89:0.33 92:0.5 94:0.33 95:1.0 96:0.29 97:1.0 102:0.25 104:0.33 105:1.0 106:0.25 107:0.5 109:0.25 110:0.2 111:0.5 112:0.5 114:1.0 116:1.0 122:0.5 124:1.0 132:0.1 141:0.5 142:1.0 144:0.67 148:0.5 150:0.33 151:1.0 156:0.5 158:0.5 160:1.0 161:0.5 163:0.5 
-0.0 0.0 0.0 1.0 0.9391741824187374 1.0 1.0 1:0.5 2:0.33 3:0.67 5:0.33 6:0.5 7:0.33 8:0.33 11:0.75 12:0.33 13:0.2 17:0.5 19:0.33 20:0.33 21:0.25 24:1.0 25:0.43 27:1.0 30:0.33 35:0.5 36:1.0 38:0.5 40:0.5 41:0.25 44:0.33 46:1.0 47:0.33 48:1.0 50:0.67 51:0.5 56:1.0 57:0.5 58:0.33 63:1.0 64:1.0 69:0.5 71:0.4 72:1.0 74:1.0 77:1.0 80:0.5 82:0.5 83:0.29 84:0.67 86:1.0 88:0.33 89:0.33 91:0.5 92:1.0 94:0.5 95:1.0 96:0.29 97:1.0 102:0.25 104:0.33 105:1.0 106:0.25 107:0.5 109:0.25 110:0.2 111:0.5 112:1.0 114:1.0 116:1.0 122:0.5 124:1.0 125:0.5 129:0.5 132:0.6 135:1.0 139:1.0 141:1.0 142:1.0 143:0.33 144:1.0 145:0.5 147:0.2 148:0.5 150:0.67 151:1.0 156:1.0 158:1.0 159:0.25 160:1.0 161:1.0 163:1.0 
-0.0 -1.0 1.0 0.891125453503757 0.7090909301157807 1.0 1.0 1:0.5 2:0.67 3:0.33 4:0.33 5:1.0 7:1.0 8:0.33 9:0.25 10:0.5 11:0.5 12:0.17 13:0.6 14:0.4 15:0.67 16:0.5 17:1.0 18:0.5 19:0.67 20:0.17 21:0.5 22:0.33 25:0.14 26:1.0 28:0.4 29:0.33 30:0.67 32:0.75 35:0.17 37:0.5 38:0.25 39:0.5 40:1.0 41:0.75 42:0.5 43:0.33 44:1.0 45:0.4 47:1.0 50:0.33 52:0.5 53:1.0 54:0.5 56:0.33 57:0.5 58:0.33 59:1.0 62:0.67 66:0.5 69:1.0 70:0.33 71:0.2 73:0.4 74:0.33 76:0.4 77:1.0 78:0.5 80:0.25 81:0.33 83:0.14 84:0.67 85:1.0 86:1.0 87:0.5 88:0.67 89:1.0 90:0.5 91:0.5 92:0.25 93:0.5 94:0.17 95:1.0 96:0.14 98:0.33 99:0.33 100:0.67 101:0.67 102:0.75 103:0.67 104:0.17 105:1.0 106:1.0 107:1.0 108:0.33 109:0.75 110:0.8 111:0.17 112:0.5 113:0.33 115:0.6 116:1.0 117:0.4 118:0.33 121:0.6 122:0.5 123:1.0 124:0.5 125:1.0 126:0.5 128:1.0 129:0.5 130:1.0 131:0.67 133:0.33 134:0.5 136:0.4 137:1.0 138:0.4 140:0.2 141:1.0 143:0.67 144:0.33 145:1.0 146:1.0 147:0.2 148:1.0 149:0.33 150:0.33 152:0.5 153:1.0 154:0.43 155:0.5 157:1.0 159:0.25 160:1.0 161:1.0 164:0.4 
-0.49816087481698507 -0.5658547020543438 1.0 0.11928472263514961 0.0 1.0 1.0 1:0.5 2:0.67 4:0.33 5:0.67 7:0.67 8:0.33 10:0.5 11:0.25 12:0.17 13:0.4 14:0.2 15:0.33 17:0.5 18:0.5 19:0.67 20:0.17 21:0.5 22:0.33 25:0.14 28:0.2 30:0.33 32:0.25 35:0.17 37:0.5 38:0.25 39:0.25 40:0.5 41:0.5 42:0.25 43:0.33 44:1.0 45:0.2 47:0.67 50:0.33 53:0.5 56:0.33 58:0.33 62:0.33 69:1.0 70:0.33 71:0.2 73:0.2 74:0.33 77:1.0 78:0.25 80:0.25 81:0.17 83:0.14 84:0.33 86:1.0 87:0.5 88:0.33 89:0.33 90:0.25 92:0.25 93:0.25 94:0.17 95:1.0 96:0.14 100:0.33 102:0.5 104:0.17 105:1.0 106:0.5 107:0.5 108:0.33 109:0.5 110:0.6 111:0.17 112:0.5 115:0.2 116:1.0 117:0.2 118:0.17 119:1.0 121:0.2 123:1.0 124:0.5 125:0.5 128:1.0 129:0.5 131:0.33 134:0.25 136:0.2 137:1.0 138:0.2 141:1.0 143:0.33 144:0.33 145:1.0 146:1.0 147:1.0 148:1.0 149:0.17 150:0.33 152:0.17 154:0.14 155:0.17 159:1.0 160:1.0 161:1.0 162:1.0 164:0.2 
-0.9003253719655048 -0.5126937758867854 1.0 0.4847319380157345 0.08344935093152081 1.0 1.0 1:0.5 2:0.67 3:0.33 4:0.33 5:1.0 7:1.0 8:0.33 9:0.25 10:0.5 11:0.5 12:0.17 13:0.6 14:0.2 15:0.33 16:0.5 17:1.0 18:0.5 19:0.67 20:0.17 21:0.5 22:0.33 25:0.14 28:0.4 29:0.33 30:0.67 32:0.75 35:0.17 37:0.5 38:0.25 39:0.25 40:1.0 41:0.75 42:0.25 43:0.33 44:1.0 45:0.2 47:1.0 50:0.33 52:0.5 53:1.0 54:0.5 56:0.33 57:0.5 58:0.33 59:1.0 62:0.67 66:0.5 69:1.0 70:0.33 71:0.2 73:0.2 74:0.33 76:0.4 77:1.0 78:0.25 80:0.25 81:0.17 83:0.14 84:0.67 85:0.5 86:1.0 87:0.5 88:0.33 89:1.0 90:0.5 91:0.5 92:0.25 93:0.5 94:0.17 95:1.0 96:0.14 98:0.33 99:0.33 100:0.67 101:0.67 102:0.75 103:0.67 104:0.17 105:1.0 106:1.0 107:0.5 108:0.33 109:0.75 110:0.8 111:0.17 112:0.5 113:0.33 115:0.4 116:1.0 117:0.2 118:0.33 119:1.0 121:0.4 122:0.5 123:1.0 124:0.5 125:1.0 126:0.5 128:1.0 129:0.5 130:1.0 131:0.33 133:0.17 134:0.25 136:0.4 137:1.0 138:0.2 140:0.2 141:1.0 143:0.67 144:0.33 145:1.0 146:1.0 147:1.0 148:1.0 149:0.17 150:0.33 152:0.33 154:0.29 155:0.33 157:1.0 159:1.0 160:1.0 161:1.0 162:1.0 164:0.2 
-1.0 -0.6046289982169053 1.0 0.4712113402930805 0.0 1.0 1.0 2:0.67 4:0.33 5:1.0 7:1.0 8:0.33 9:0.5 10:1.0 11:0.25 12:0.17 13:0.8 14:0.2 15:0.33 16:1.0 17:0.5 18:0.5 19:1.0 20:0.17 21:0.75 22:0.33 25:0.14 28:0.6 29:0.67 30:0.67 32:0.5 35:0.17 37:0.5 38:0.25 39:0.25 40:1.0 41:0.75 42:0.25 43:0.33 44:1.0 45:0.2 47:0.67 50:0.33 52:0.5 53:1.0 54:0.5 55:0.33 56:0.33 58:0.33 60:0.5 62:1.0 69:0.5 70:0.67 71:0.2 73:0.2 74:0.33 76:0.4 77:1.0 78:0.25 80:0.25 81:0.17 83:0.14 84:0.33 87:1.0 88:0.33 89:0.67 90:0.75 92:0.25 93:0.75 94:0.17 95:1.0 96:0.14 98:0.33 99:0.67 100:0.67 101:0.33 102:1.0 103:0.33 104:0.17 105:1.0 106:0.75 107:0.5 108:0.67 109:0.75 110:0.8 111:0.17 112:0.5 113:0.67 115:0.2 116:1.0 117:0.2 118:0.17 120:1.0 121:0.2 123:1.0 124:0.5 125:0.5 126:0.5 127:1.0 128:1.0 131:0.33 134:0.25 136:0.2 137:1.0 138:0.2 140:1.0 141:0.5 143:0.33 144:0.33 145:0.5 146:1.0 148:1.0 149:0.17 150:0.33 152:0.17 154:0.14 155:0.17 157:1.0 160:1.0 161:0.5 164:0.2 
-1.0 -1.0 0.9686509140488173 0.08900342485969324 1.0 1.0 1.0 1:1.0 2:0.33 3:0.33 4:0.33 5:0.33 7:0.67 9:0.5 10:0.5 11:0.25 13:0.4 16:0.5 17:0.5 18:0.5 19:0.33 21:0.25 22:0.67 27:0.5 28:0.6 29:0.33 30:0.33 32:0.75 37:1.0 40:0.5 41:0.5 43:0.67 44:0.33 47:0.33 49:0.5 52:1.0 53:1.0 54:1.0 55:0.33 57:0.5 59:1.0 60:0.5 62:0.67 66:0.5 68:0.5 69:1.0 70:0.67 74:0.33 76:0.6 82:0.5 84:0.33 85:0.5 86:1.0 87:0.5 89:0.67 90:0.5 91:0.5 92:0.25 93:0.5 98:0.67 99:0.67 100:0.67 101:1.0 102:0.5 103:0.67 106:0.75 108:0.33 109:0.5 110:0.4 113:0.33 115:0.2 118:0.17 121:0.2 122:0.5 123:1.0 125:1.0 126:1.0 128:1.0 129:1.0 130:1.0 132:0.1 133:0.17 136:0.2 137:0.5 139:1.0 140:0.2 141:0.5 143:1.0 145:1.0 146:1.0 147:0.2 148:0.5 152:0.17 154:0.14 155:0.17 157:1.0 159:0.25 161:0.5 
-0.0 -1.0 1.0 1.0 1.0 1.0 1.0 5:0.33 14:0.2 15:0.33 18:0.5 39:0.25 42:0.25 44:0.33 45:0.2 47:0.33 73:0.2 78:0.25 81:0.17 110:0.2 115:0.2 117:0.2 118:0.17 121:0.2 123:0.5 131:0.33 134:0.25 136:0.2 137:1.0 138:0.2 146:1.0 149:0.17 150:0.33 152:0.17 154:0.14 155:0.17 164:0.2 
-0.0 -1.0 1.0 1.0 1.0 1.0 1.0 5:0.33 14:0.2 15:0.33 18:0.5 39:0.25 42:0.25 44:0.33 45:0.2 47:0.33 73:0.2 78:0.25 81:0.17 110:0.2 115:0.2 117:0.2 118:0.17 121:0.2 123:0.5 131:0.33 134:0.25 136:0.2 137:1.0 138:0.2 146:1.0 149:0.17 150:0.33 152:0.17 154:0.14 155:0.17 164:0.2 
-1.0 -1.0 1.0 1.0 1.0 1.0 1.0 1:0.5 2:0.67 4:0.33 5:0.33 7:0.67 8:0.33 10:0.5 11:0.25 12:0.17 13:0.4 17:0.5 19:0.67 20:0.17 21:0.5 22:0.33 25:0.14 28:0.2 30:0.33 32:0.25 35:0.17 37:0.5 38:0.25 40:0.5 41:0.5 43:0.33 44:0.67 47:0.33 50:0.33 53:0.5 56:0.33 58:0.33 62:0.33 69:1.0 70:0.33 71:0.2 74:0.33 77:1.0 80:0.25 83:0.14 84:0.33 86:1.0 87:0.5 88:0.33 89:0.33 90:0.25 92:0.25 93:0.25 94:0.17 95:1.0 96:0.14 100:0.33 102:0.5 104:0.17 105:1.0 106:0.5 107:0.5 108:0.33 109:0.5 110:0.4 111:0.17 112:0.5 116:1.0 119:1.0 123:0.5 124:0.5 125:0.5 128:1.0 129:0.5 141:1.0 143:0.33 144:0.33 145:1.0 147:1.0 148:1.0 159:1.0 160:1.0 161:1.0 162:1.0 
-1.0 -0.0 1.0 0.0 0.0 1.0 1.0 1:0.5 2:0.67 4:0.33 5:1.0 7:1.0 8:0.33 9:0.5 10:1.0 11:0.25 12:0.17 13:0.8 14:0.2 15:0.33 16:1.0 17:0.5 18:0.5 19:1.0 20:0.17 21:0.75 22:0.33 25:0.14 28:0.6 29:0.67 30:0.67 32:0.5 35:0.17 37:0.5 38:0.25 39:0.25 40:1.0 41:0.75 42:0.25 43:0.33 44:1.0 45:0.2 47:0.67 50:0.33 52:0.5 53:1.0 54:0.5 55:0.33 56:0.33 58:0.33 60:0.5 62:1.0 69:1.0 70:0.67 71:0.2 73:0.2 74:0.33 76:0.4 77:1.0 78:0.25 80:0.25 81:0.17 83:0.14 84:0.33 86:1.0 87:1.0 88:0.33 89:0.67 90:0.75 92:0.25 93:0.75 94:0.17 95:1.0 96:0.14 98:0.33 99:0.67 100:0.67 101:0.33 102:1.0 103:0.33 104:0.17 105:1.0 106:0.75 107:0.5 108:0.67 109:0.75 110:0.8 111:0.17 112:0.5 113:0.67 115:0.2 116:1.0 117:0.2 118:0.17 120:1.0 121:0.2 123:1.0 124:0.5 125:1.0 126:0.5 127:1.0 128:1.0 129:0.5 131:0.33 134:0.25 136:0.2 137:1.0 138:0.2 140:1.0 141:1.0 143:0.67 144:0.33 145:1.0 146:1.0 147:0.2 148:1.0 149:0.17 150:0.33 152:0.17 154:0.14 155:0.17 157:1.0 159:0.25 160:1.0 161:1.0 164:0.2 
-1.0 -1.0 1.0 1.0 1.0 1.0 1.0 1:0.5 2:0.33 3:0.33 5:0.33 7:0.33 8:0.33 11:0.5 12:0.17 13:0.2 17:1.0 19:0.33 20:0.17 21:0.25 25:0.14 27:0.5 30:0.33 32:0.25 35:0.17 38:0.25 40:0.5 41:0.25 44:0.33 47:0.67 50:0.33 56:0.33 57:0.5 58:0.33 59:1.0 66:0.5 69:0.5 71:0.2 74:0.67 76:0.2 77:1.0 80:0.25 83:0.14 84:0.67 85:0.5 86:1.0 88:0.33 89:0.67 91:0.5 92:0.5 94:0.17 95:1.0 96:0.14 101:0.33 102:0.25 103:0.33 104:0.17 105:1.0 106:0.5 107:0.5 109:0.25 110:0.2 111:0.17 112:0.5 115:0.2 116:1.0 118:0.17 121:0.2 122:0.5 124:0.5 125:0.5 129:0.5 130:1.0 133:0.17 136:0.2 139:1.0 141:1.0 143:0.33 144:0.33 145:0.5 147:0.2 148:0.5 152:0.17 154:0.14 155:0.17 159:0.25 160:1.0 161:1.0 
-0.6015137532175101 -1.0 1.0 1.0 1.0 1.0 1.0 5:0.33 14:0.2 15:0.33 18:0.5 39:0.25 42:0.25 44:0.33 45:0.2 47:0.33 73:0.2 78:0.25 81:0.17 110:0.2 115:0.2 117:0.2 118:0.17 121:0.2 123:0.5 131:0.33 134:0.25 136:0.2 137:1.0 138:0.2 146:1.0 149:0.17 150:0.33 152:0.17 154:0.14 155:0.17 164:0.2 
-1.0 -1.0 1.0 1.0 1.0 1.0 1.0 5:0.33 14:0.2 15:0.33 18:0.5 39:0.25 42:0.25 44:0.33 45:0.2 47:0.33 73:0.2 78:0.25 81:0.17 110:0.2 115:0.2 117:0.2 118:0.17 121:0.2 123:0.5 131:0.33 134:0.25 136:0.2 137:1.0 138:0.2 146:1.0 149:0.17 150:0.33 152:0.17 154:0.14 155:0.17 164:0.2 
-0.0 -1.0 -0.0 1.0 1.0 0.6456095452279872 0.9243643994109223 2:0.33 3:0.33 5:0.67 6:0.5 7:0.33 8:0.33 11:0.5 12:0.17 13:0.2 14:1.0 15:1.0 17:0.5 19:0.33 20:0.17 21:0.25 24:1.0 25:0.29 26:1.0 27:0.5 30:0.33 35:0.33 38:0.25 39:1.0 40:0.5 41:0.25 42:1.0 44:0.67 45:1.0 46:0.5 47:0.67 48:0.5 50:0.67 51:0.5 56:0.67 57:0.5 58:0.33 64:1.0 71:0.2 73:1.0 74:0.67 77:1.0 78:1.0 80:0.25 81:1.0 83:0.14 84:0.33 85:0.5 88:0.67 89:0.33 92:0.75 94:0.33 95:1.0 96:0.14 97:1.0 102:0.25 104:0.17 105:1.0 106:0.25 107:1.0 109:0.25 110:0.4 111:0.33 112:0.5 114:1.0 115:0.8 116:1.0 117:1.0 118:0.83 121:0.8 122:0.5 124:1.0 131:1.0 132:0.5 133:0.83 134:1.0 136:0.8 137:0.5 138:1.0 139:1.0 141:0.5 142:1.0 144:0.67 148:0.5 149:1.0 150:0.67 151:1.0 152:0.83 153:1.0 154:0.86 155:0.83 156:0.5 158:0.5 160:1.0 161:0.5 163:0.5 164:1.0 
-1.0 -0.3532517991203933 -1.0 0.4832600819825474 0.0 1.0 1.0 1:0.5 2:0.67 3:0.33 4:0.33 5:0.67 7:0.67 8:0.33 10:0.5 11:0.5 12:0.17 13:0.4 14:1.0 15:1.0 17:1.0 19:0.67 20:0.17 21:0.5 22:0.33 25:0.14 26:1.0 28:0.2 30:0.33 32:0.5 35:0.17 37:0.5 38:0.25 39:1.0 40:0.5 41:0.5 42:1.0 43:0.33 44:1.0 45:1.0 47:1.0 50:0.33 53:0.5 56:0.33 57:0.5 58:0.33 59:1.0 62:0.33 66:0.5 69:1.0 70:0.33 71:0.2 73:1.0 74:0.33 76:0.2 77:1.0 78:1.0 80:0.25 81:1.0 83:0.14 84:0.67 85:1.0 86:1.0 87:0.5 88:0.67 89:0.67 90:0.25 91:0.5 92:0.25 93:0.25 94:0.17 95:1.0 96:0.14 100:0.33 101:0.33 102:0.5 103:0.33 104:0.17 105:1.0 106:0.75 107:1.0 108:0.33 109:0.5 110:0.6 111:0.17 112:0.5 115:1.0 116:1.0 117:1.0 118:1.0 119:1.0 121:1.0 122:0.5 123:0.5 124:0.5 125:0.5 128:1.0 129:0.5 130:1.0 131:1.0 133:1.0 134:1.0 136:1.0 137:0.5 138:1.0 141:1.0 143:0.33 144:0.33 145:1.0 147:1.0 148:1.0 149:1.0 150:0.33 152:1.0 153:1.0 154:1.0 155:1.0 159:1.0 160:1.0 161:1.0 162:1.0 164:1.0 
-1.0 -1.0 -1.0 1.0 0.0 1.0 1.0 2:0.33 4:0.33 5:0.33 7:0.33 8:0.33 11:0.25 12:0.33 13:0.2 14:0.2 15:0.33 17:0.5 19:0.33 20:0.33 21:0.25 25:0.29 26:1.0 30:0.33 31:1.0 35:0.17 38:0.5 39:0.25 40:0.5 41:0.25 42:0.25 44:0.33 45:0.2 47:0.33 50:0.67 51:0.5 56:0.33 58:0.67 61:0.5 65:1.0 67:0.5 71:0.4 73:0.2 74:0.33 75:0.5 77:1.0 78:0.25 80:0.5 81:0.17 83:0.14 84:0.33 85:0.5 88:1.0 89:0.33 92:0.25 94:0.17 95:1.0 96:0.29 102:0.25 104:0.33 105:1.0 106:0.25 107:1.0 109:0.25 110:0.2 111:0.33 112:0.5 115:0.2 116:1.0 117:0.2 121:0.2 124:0.5 131:0.33 133:0.17 134:0.25 138:0.2 141:0.5 144:0.33 148:0.5 149:0.17 152:0.17 153:1.0 154:0.14 155:0.17 160:1.0 161:0.5 164:0.2 
-1.0 -1.0 -1.0 1.0 1.0 1.0 1.0 1:0.5 9:0.25 22:0.33 27:0.5 28:0.2 37:0.5 43:0.33 49:0.5 52:0.5 54:0.5 55:0.33 60:0.5 68:0.5 70:0.33 74:0.33 76:0.2 82:0.5 92:0.25 98:0.33 99:0.33 101:0.33 126:0.5 129:0.5 132:0.2 139:1.0 143:0.33 
-0.0 -1.0 -0.11765470096783211 1.0 1.0 0.0 1.0 2:0.33 3:0.67 5:0.67 6:0.5 7:0.33 8:0.33 11:0.75 12:0.5 13:0.2 14:1.0 15:1.0 17:0.5 19:0.33 20:0.5 21:0.25 23:1.0 24:1.0 25:0.43 26:1.0 27:1.0 30:0.33 35:0.5 36:1.0 38:0.5 39:1.0 40:0.5 41:0.25 42:1.0 44:0.67 45:1.0 46:1.0 47:0.67 48:1.0 49:0.5 50:0.67 51:0.5 56:1.0 57:0.5 58:0.67 63:1.0 64:1.0 71:0.4 72:1.0 73:1.0 74:1.0 75:0.5 77:1.0 78:1.0 80:0.5 81:1.0 82:0.5 83:0.43 84:0.67 85:0.5 88:0.67 89:0.33 91:0.5 92:1.0 94:0.5 95:1.0 96:0.43 97:1.0 102:0.25 104:0.33 105:1.0 106:0.25 107:1.0 109:0.25 110:0.4 111:0.5 112:1.0 114:1.0 115:0.8 116:1.0 117:1.0 118:0.83 121:0.8 122:0.5 124:1.0 131:1.0 132:0.6 133:0.83 134:1.0 135:1.0 136:0.8 137:0.5 138:1.0 139:1.0 141:0.5 142:1.0 144:1.0 148:0.5 149:1.0 150:1.0 151:1.0 152:0.83 153:1.0 154:0.86 155:0.83 156:1.0 158:1.0 160:1.0 161:0.5 163:1.0 164:1.0 
-1.0 -1.0 -1.0 1.0 0.42754635322349915 1.0 1.0 2:0.33 4:0.33 5:0.33 7:0.33 8:0.33 11:0.25 12:0.33 13:0.2 14:0.2 15:0.33 17:0.5 19:0.33 20:0.33 21:0.25 25:0.29 26:1.0 30:0.33 31:1.0 35:0.17 38:0.5 39:0.25 40:0.5 41:0.25 42:0.25 44:0.33 45:0.2 47:0.33 50:0.67 51:0.5 56:0.33 58:0.67 61:0.5 65:1.0 67:0.5 71:0.4 73:0.2 74:0.33 75:0.5 77:1.0 78:0.25 80:0.5 81:0.17 83:0.14 84:0.33 85:0.5 88:1.0 89:0.33 92:0.25 94:0.17 95:1.0 96:0.29 102:0.25 104:0.33 105:1.0 106:0.25 107:1.0 109:0.25 110:0.2 111:0.33 112:0.5 115:0.2 116:1.0 117:0.2 121:0.2 124:0.5 131:0.33 133:0.17 134:0.25 138:0.2 141:0.5 144:0.33 148:0.5 149:0.17 152:0.17 153:1.0 154:0.14 155:0.17 160:1.0 161:0.5 164:0.2 
-1.0 -0.6194785390597481 -1.0 0.16278823430663492 0.0 0.47663604845445523 1.0 2:0.67 3:0.33 4:0.33 5:1.0 7:1.0 8:0.33 9:0.5 10:1.0 11:0.5 12:0.17 13:0.8 14:1.0 15:1.0 16:1.0 17:1.0 19:1.0 20:0.17 21:0.75 22:0.33 25:0.14 26:1.0 28:0.6 29:0.67 30:0.67 32:0.75 35:0.17 37:0.5 38:0.25 39:1.0 40:1.0 41:0.75 42:1.0 43:0.33 44:1.0 45:1.0 47:1.0 50:0.33 52:0.5 53:1.0 54:0.5 55:0.33 56:0.33 57:0.5 58:0.33 59:1.0 60:0.5 62:1.0 66:0.5 69:0.5 70:0.67 71:0.2 73:1.0 74:0.33 76:0.6 77:1.0 78:1.0 80:0.25 81:1.0 83:0.14 84:0.67 85:1.0 87:1.0 88:0.67 89:1.0 90:0.75 91:0.5 92:0.25 93:0.75 94:0.17 95:1.0 96:0.14 98:0.33 99:0.67 100:0.67 101:0.67 102:1.0 103:0.67 104:0.17 105:1.0 106:1.0 107:1.0 108:0.67 109:0.75 110:0.8 111:0.17 112:0.5 113:0.67 115:1.0 116:1.0 117:1.0 118:1.0 120:1.0 121:1.0 122:0.5 123:0.5 124:0.5 125:0.5 126:0.5 127:1.0 128:1.0 130:1.0 131:1.0 133:1.0 134:1.0 136:1.0 137:0.5 138:1.0 140:1.0 141:0.5 143:0.33 144:0.33 145:0.5 148:1.0 149:1.0 150:0.33 152:1.0 153:1.0 154:1.0 155:1.0 157:1.0 160:1.0 161:0.5 164:1.0 
-0.0 -0.0 -1.0 0.0 0.0 1.0 1.0 2:0.33 5:1.0 7:0.67 8:0.33 9:0.25 11:0.25 12:0.17 13:0.4 14:1.0 15:1.0 16:0.5 17:0.5 19:0.33 20:0.17 21:0.25 25:0.14 26:1.0 28:0.2 29:0.33 30:0.67 32:0.25 35:0.17 38:0.25 39:1.0 40:1.0 41:0.5 42:1.0 44:0.67 45:1.0 47:0.67 50:0.33 52:0.5 53:0.5 54:0.5 56:0.33 58:0.33 62:0.33 71:0.2 73:1.0 74:0.33 76:0.2 77:1.0 78:1.0 80:0.25 81:1.0 83:0.14 84:0.33 85:0.5 88:0.67 89:0.67 90:0.25 92:0.25 93:0.25 94:0.17 95:1.0 96:0.14 98:0.33 99:0.33 100:0.33 101:0.33 102:0.5 103:0.33 104:0.17 105:1.0 106:0.5 107:1.0 109:0.5 110:0.6 111:0.17 112:0.5 113:0.33 115:0.8 116:1.0 117:1.0 118:0.83 121:0.8 124:0.5 125:0.5 126:0.5 131:1.0 132:0.1 133:0.83 134:1.0 136:0.8 137:0.5 138:1.0 140:0.2 141:0.5 143:0.33 144:0.33 148:0.5 149:1.0 150:0.33 152:0.83 153:1.0 154:0.86 155:0.83 157:1.0 160:1.0 161:0.5 164:1.0 
-0.16963432130901027 -0.0 -1.0 0.0 0.0 1.0 1.0 2:0.33 5:1.0 7:0.67 8:0.33 9:0.25 11:0.25 12:0.17 13:0.4 14:1.0 15:1.0 16:0.5 17:0.5 19:0.33 20:0.17 21:0.25 25:0.14 26:1.0 28:0.2 29:0.33 30:0.67 32:0.25 35:0.17 38:0.25 39:1.0 40:1.0 41:0.5 42:1.0 44:0.67 45:1.0 47:0.67 50:0.33 52:0.5 53:0.5 54:0.5 56:0.33 58:0.33 62:0.33 71:0.2 73:1.0 74:0.33 76:0.2 77:1.0 78:1.0 80:0.25 81:1.0 83:0.14 84:0.33 85:0.5 88:0.67 89:0.67 90:0.25 92:0.25 93:0.25 94:0.17 95:1.0 96:0.14 98:0.33 99:0.33 100:0.33 101:0.33 102:0.5 103:0.33 104:0.17 105:1.0 106:0.5 107:1.0 109:0.5 110:0.6 111:0.17 112:0.5 113:0.33 115:0.8 116:1.0 117:1.0 118:0.83 121:0.8 124:0.5 125:0.5 126:0.5 131:1.0 132:0.1 133:0.83 134:1.0 136:0.8 137:0.5 138:1.0 140:0.2 141:0.5 143:0.33 144:0.33 148:0.5 149:1.0 150:0.33 152:0.83 153:1.0 154:0.86 155:0.83 157:1.0 160:1.0 161:0.5 164:1.0 
-0.0 -1.0 -0.0 1.0 1.0 0.546412689519618 0.06953332100071638 2:0.33 3:0.33 5:0.67 7:0.33 8:0.33 11:0.5 12:0.33 13:0.2 14:1.0 15:1.0 17:0.5 19:0.33 20:0.33 21:0.25 25:0.29 26:1.0 27:1.0 30:0.33 35:0.33 36:1.0 38:0.5 39:1.0 40:0.5 41:0.25 42:1.0 44:0.67 45:1.0 46:0.5 47:0.67 48:0.5 50:0.33 56:0.67 58:0.33 63:1.0 71:0.4 72:1.0 73:1.0 74:1.0 77:1.0 78:1.0 80:0.5 81:1.0 82:0.5 83:0.29 84:0.67 85:0.5 88:0.67 89:0.33 91:0.5 92:0.75 94:0.33 95:1.0 96:0.29 102:0.25 104:0.33 105:1.0 106:0.25 107:1.0 109:0.25 110:0.4 111:0.33 112:1.0 115:0.8 116:1.0 117:1.0 118:0.83 121:0.8 124:0.5 131:1.0 132:0.5 133:0.83 134:1.0 135:1.0 136:0.8 137:0.5 138:1.0 139:1.0 141:0.5 144:0.67 148:0.5 149:1.0 150:0.67 152:0.83 153:1.0 154:0.86 155:0.83 156:0.5 158:0.5 160:1.0 161:0.5 163:0.5 164:1.0 
-1.0 -1.0 -1.0 1.0 1.0 1.0 1.0 1:0.5 9:0.25 22:0.33 27:0.5 28:0.2 37:0.5 43:0.33 49:0.5 52:0.5 54:0.5 55:0.33 60:0.5 68:0.5 70:0.33 74:0.33 76:0.2 82:0.5 92:0.25 98:0.33 99:0.33 101:0.33 126:0.5 129:0.5 132:0.2 139:1.0 143:0.33 
-0.0 -0.0 -1.0 0.0 0.0 0.7151500483113017 0.9774631111786047 3:0.33 5:0.33 11:0.25 14:1.0 15:1.0 17:0.5 26:1.0 32:0.25 39:1.0 42:1.0 44:0.33 45:1.0 47:0.67 57:0.5 59:1.0 66:0.5 73:1.0 76:0.2 78:1.0 81:1.0 84:0.33 85:1.0 88:0.33 89:0.33 91:0.5 101:0.33 103:0.33 106:0.25 107:0.5 110:0.2 115:1.0 117:1.0 118:1.0 121:1.0 122:0.5 130:1.0 131:1.0 133:1.0 134:1.0 136:1.0 137:0.5 138:1.0 149:1.0 150:0.33 152:1.0 153:1.0 154:1.0 155:1.0 164:1.0 
-0.0 -0.49771874084214274 -0.8509962130809853 0.0 0.5366345020836001 0.9097180383719521 0.9711771844230095 3:0.33 5:0.33 11:0.25 14:1.0 15:1.0 17:0.5 26:1.0 32:0.25 39:1.0 42:1.0 44:0.33 45:1.0 47:0.67 57:0.5 59:1.0 66:0.5 73:1.0 76:0.2 78:1.0 81:1.0 84:0.33 85:1.0 88:0.33 89:0.33 91:0.5 101:0.33 103:0.33 106:0.25 107:0.5 110:0.2 115:1.0 117:1.0 118:1.0 121:1.0 122:0.5 130:1.0 131:1.0 133:1.0 134:1.0 136:1.0 137:0.5 138:1.0 149:1.0 150:0.33 152:1.0 153:1.0 154:1.0 155:1.0 164:1.0 
-1.0 -1.0 -1.0 1.0 1.0 1.0 1.0 2:0.33 4:0.33 5:0.33 7:0.33 8:0.33 11:0.25 12:0.33 13:0.2 14:0.2 15:0.33 17:0.5 19:0.33 20:0.33 21:0.25 25:0.29 26:1.0 30:0.33 31:1.0 35:0.17 38:0.5 39:0.25 40:0.5 41:0.25 42:0.25 44:0.33 45:0.2 47:0.33 50:0.67 51:0.5 56:0.33 58:0.67 61:0.5 65:1.0 67:0.5 71:0.4 73:0.2 74:0.33 75:0.5 77:1.0 78:0.25 80:0.5 81:0.17 83:0.14 84:0.33 85:0.5 88:1.0 89:0.33 92:0.25 94:0.17 95:1.0 96:0.29 102:0.25 104:0.33 105:1.0 106:0.25 107:1.0 109:0.25 110:0.2 111:0.33 112:0.5 115:0.2 116:1.0 117:0.2 121:0.2 124:0.5 131:0.33 133:0.17 134:0.25 138:0.2 141:0.5 144:0.33 148:0.5 149:0.17 152:0.17 153:1.0 154:0.14 155:0.17 160:1.0 161:0.5 164:0.2 
-0.8303656786909898 -1.0 -1.0 1.0 0.971635422744848 1.0 1.0 2:0.33 4:0.33 5:0.33 7:0.33 8:0.33 11:0.25 12:0.33 13:0.2 14:0.2 15:0.33 17:0.5 19:0.33 20:0.33 21:0.25 25:0.29 26:1.0 30:0.33 31:1.0 35:0.17 38:0.5 39:0.25 40:0.5 41:0.25 42:0.25 44:0.33 45:0.2 47:0.33 50:0.67 51:0.5 56:0.33 58:0.67 61:0.5 65:1.0 67:0.5 71:0.4 73:0.2 74:0.33 75:0.5 77:1.0 78:0.25 80:0.5 81:0.17 83:0.14 84:0.33 85:0.5 88:1.0 89:0.33 92:0.25 94:0.17 95:1.0 96:0.29 102:0.25 104:0.33 105:1.0 106:0.25 107:1.0 109:0.25 110:0.2 111:0.33 112:0.5 115:0.2 116:1.0 117:0.2 121:0.2 124:0.5 131:0.33 133:0.17 134:0.25 138:0.2 141:0.5 144:0.33 148:0.5 149:0.17 152:0.17 153:1.0 154:0.14 155:0.17 160:1.0 161:0.5 164:0.2 
-1.0 -1.0 -1.0 -1.0 1.0 1.0 1.0 1:0.5 2:0.67 3:1.0 4:0.33 5:0.67 6:0.5 7:0.67 8:0.33 10:0.5 11:1.0 12:0.33 13:0.4 14:0.2 15:0.33 17:1.0 19:0.67 20:0.33 21:0.5 22:0.33 24:1.0 25:0.43 27:1.0 28:0.2 30:0.33 32:0.5 35:0.5 36:1.0 37:0.5 38:0.5 39:0.25 40:0.5 41:0.5 42:0.25 43:0.33 44:1.0 45:0.2 46:1.0 47:1.0 48:1.0 50:0.67 51:0.5 53:0.5 56:1.0 57:1.0 58:0.33 59:1.0 62:0.33 63:1.0 64:1.0 66:0.5 69:1.0 70:0.33 71:0.4 72:1.0 73:0.2 74:1.0 76:0.2 77:1.0 78:0.25 80:0.5 81:0.17 82:0.5 83:0.29 84:1.0 85:0.5 86:1.0 87:0.5 88:0.33 89:0.67 90:0.25 91:1.0 92:1.0 93:0.25 94:0.5 95:1.0 96:0.29 97:1.0 100:0.33 101:0.33 102:0.5 103:0.33 104:0.33 105:1.0 106:0.75 107:0.5 108:0.33 109:0.5 110:0.6 111:0.5 112:1.0 114:1.0 115:0.4 116:1.0 117:0.2 118:0.33 119:1.0 121:0.4 122:1.0 123:0.5 124:1.0 125:0.5 128:1.0 129:0.5 130:1.0 131:0.33 132:0.5 133:0.17 134:0.25 135:1.0 136:0.4 137:0.5 138:0.2 139:1.0 141:1.0 142:1.0 143:0.33 144:1.0 145:1.0 147:1.0 148:1.0 149:0.17 150:1.0 151:1.0 152:0.33 154:0.29 155:0.33 156:1.0 158:1.0 159:1.0 160:1.0 161:1.0 162:1.0 163:1.0 164:0.2 
-0.0 -1.0 -0.0 -0.0 0.0 0.0 0.0 2:0.33 3:1.0 4:0.33 5:0.67 6:0.5 7:0.33 8:0.33 11:1.0 12:0.5 13:0.2 14:0.2 15:0.33 17:1.0 19:0.33 20:0.5 21:0.25 24:1.0 25:0.57 27:0.5 30:0.33 31:1.0 32:0.25 35:0.5 36:1.0 38:0.75 39:0.25 40:0.5 41:0.25 42:0.25 44:0.67 45:0.2 46:1.0 47:1.0 48:1.0 50:1.0 51:1.0 56:1.0 57:1.0 58:0.67 59:1.0 61:0.5 63:1.0 64:1.0 65:1.0 66:0.5 67:0.5 71:0.6 72:1.0 73:0.2 74:0.67 75:0.5 76:0.2 77:1.0 78:0.25 79:1.0 80:0.75 81:0.17 82:0.5 83:0.29 84:1.0 85:0.5 88:0.67 89:0.67 91:1.0 92:0.75 94:0.5 95:1.0 96:0.43 97:1.0 101:0.33 102:0.25 103:0.33 104:0.5 105:1.0 106:0.5 107:0.5 109:0.25 110:0.4 111:0.67 112:1.0 114:1.0 115:0.4 116:1.0 117:0.2 118:0.33 121:0.4 122:1.0 124:1.0 130:1.0 131:0.33 132:0.2 133:0.17 134:0.25 135:1.0 136:0.4 137:0.5 138:0.2 141:0.5 142:1.0 144:1.0 148:0.5 149:0.17 150:1.0 151:1.0 152:0.33 154:0.29 155:0.33 156:1.0 158:1.0 160:1.0 161:0.5 163:1.0 164:0.2 
-0.0 -1.0 -1.0 -1.0 1.0 1.0 1.0 3:0.67 5:0.33 6:0.5 11:0.5 12:0.17 14:0.2 15:0.33 20:0.17 24:1.0 25:0.29 27:0.5 35:0.33 36:1.0 38:0.25 39:0.25 42:0.25 44:0.33 45:0.2 46:1.0 47:0.33 48:1.0 50:0.33 51:0.5 56:0.67 57:0.5 63:1.0 64:1.0 71:0.2 72:1.0 73:0.2 74:0.33 78:0.25 80:0.25 81:0.17 82:0.5 83:0.14 84:0.33 91:0.5 92:0.5 94:0.33 96:0.14 97:1.0 104:0.17 110:0.2 111:0.33 112:0.5 114:1.0 115:0.2 117:0.2 118:0.17 121:0.2 122:0.5 124:0.5 131:0.33 132:0.3 134:0.25 135:1.0 136:0.2 137:0.5 138:0.2 142:1.0 144:0.67 149:0.17 150:1.0 151:1.0 152:0.17 154:0.14 155:0.17 156:1.0 158:1.0 163:1.0 164:0.2 
-1.0 -1.0 -0.0 -0.0 0.0 0.3589613945296008 1.0 2:0.33 3:0.67 5:0.33 6:0.5 7:0.33 8:0.33 11:0.75 12:0.33 13:0.2 17:0.5 19:0.33 20:0.33 21:0.25 24:1.0 25:0.43 27:1.0 30:0.33 35:0.5 36:1.0 38:0.5 40:0.5 41:0.25 44:0.33 46:1.0 47:0.33 48:1.0 50:0.67 51:0.5 56:1.0 57:0.5 58:0.33 63:1.0 64:1.0 71:0.4 72:1.0 74:1.0 77:1.0 80:0.5 82:0.5 83:0.29 84:0.67 88:0.33 89:0.33 91:0.5 92:1.0 94:0.5 95:1.0 96:0.29 97:1.0 102:0.25 104:0.33 105:1.0 106:0.25 107:0.5 109:0.25 110:0.2 111:0.5 112:1.0 114:1.0 116:1.0 122:0.5 124:1.0 132:0.6 135:1.0 139:1.0 141:0.5 142:1.0 144:1.0 148:0.5 150:0.67 151:1.0 156:1.0 158:1.0 160:1.0 161:0.5 163:1.0 
-0.0 -1.0 -0.0 -0.0 0.0 0.0 0.0 2:0.33 3:1.0 4:0.33 5:0.67 6:0.5 7:0.33 8:0.33 11:1.0 12:0.5 13:0.2 14:0.2 15:0.33 17:1.0 19:0.33 20:0.5 21:0.25 24:1.0 25:0.57 27:0.5 30:0.33 31:1.0 32:0.25 35:0.5 36:1.0 38:0.75 39:0.25 40:0.5 41:0.25 42:0.25 44:0.67 45:0.2 46:1.0 47:1.0 48:1.0 50:1.0 51:1.0 56:1.0 57:1.0 58:0.67 59:1.0 61:0.5 63:1.0 64:1.0 65:1.0 66:0.5 67:0.5 71:0.6 72:1.0 73:0.2 74:0.67 75:0.5 76:0.2 77:1.0 78:0.25 79:1.0 80:0.75 81:0.17 82:0.5 83:0.29 84:1.0 85:0.5 88:0.67 89:0.67 91:1.0 92:0.75 94:0.5 95:1.0 96:0.43 97:1.0 101:0.33 102:0.25 103:0.33 104:0.5 105:1.0 106:0.5 107:0.5 109:0.25 110:0.4 111:0.67 112:1.0 114:1.0 115:0.4 116:1.0 117:0.2 118:0.33 121:0.4 122:1.0 124:1.0 130:1.0 131:0.33 132:0.2 133:0.17 134:0.25 135:1.0 136:0.4 137:0.5 138:0.2 141:0.5 142:1.0 144:1.0 148:0.5 149:0.17 150:1.0 151:1.0 152:0.33 154:0.29 155:0.33 156:1.0 158:1.0 160:1.0 161:0.5 163:1.0 164:0.2 
-1.0 -1.0 -1.0 -1.0 0.14587492466501825 1.0 1.0 2:0.33 3:0.33 4:0.33 5:0.33 6:0.5 7:0.33 8:0.33 11:0.5 12:0.33 13:0.2 17:0.5 19:0.33 20:0.33 21:0.25 24:1.0 25:0.43 30:0.33 31:1.0 35:0.33 38:0.5 40:0.5 41:0.25 44:0.33 46:0.5 47:0.33 48:0.5 50:1.0 51:1.0 56:0.67 57:0.5 58:0.67 61:0.5 64:1.0 65:1.0 67:0.5 71:0.4 74:0.33 75:0.5 77:1.0 79:1.0 80:0.5 83:0.14 84:0.33 88:0.67 89:0.33 92:0.5 94:0.33 95:1.0 96:0.29 97:1.0 102:0.25 104:0.33 105:1.0 106:0.25 107:0.5 109:0.25 110:0.2 111:0.5 112:0.5 114:1.0 116:1.0 122:0.5 124:1.0 132:0.1 141:0.5 142:1.0 144:0.67 148:0.5 150:0.33 151:1.0 156:0.5 158:0.5 160:1.0 161:0.5 163:0.5 
-0.4554322693825636 -1.0 -1.0 -1.0 1.0 1.0 1.0 3:0.67 5:0.33 6:0.5 11:0.5 12:0.17 14:0.2 15:0.33 20:0.17 24:1.0 25:0.29 27:0.5 35:0.33 36:1.0 38:0.25 39:0.25 42:0.25 44:0.33 45:0.2 46:1.0 47:0.33 48:1.0 50:0.33 51:0.5 56:0.67 57:0.5 63:1.0 64:1.0 71:0.2 72:1.0 73:0.2 74:0.33 78:0.25 80:0.25 81:0.17 82:0.5 83:0.14 84:0.33 91:0.5 92:0.5 94:0.33 96:0.14 97:1.0 104:0.17 110:0.2 111:0.33 112:0.5 114:1.0 115:0.2 117:0.2 118:0.17 121:0.2 122:0.5 124:0.5 131:0.33 132:0.3 134:0.25 135:1.0 136:0.2 137:0.5 138:0.2 142:1.0 144:0.67 149:0.17 150:1.0 151:1.0 152:0.17 154:0.14 155:0.17 156:1.0 158:1.0 163:1.0 164:0.2 
-0.0 -1.0 -0.0 -0.0 1.0 0.0 1.0 2:0.33 3:0.67 5:0.33 6:0.5 7:0.33 8:0.33 11:0.75 12:0.5 13:0.2 17:0.5 19:0.33 20:0.5 21:0.25 23:1.0 24:1.0 25:0.43 27:1.0 30:0.33 35:0.5 36:1.0 38:0.5 40:0.5 41:0.25 44:0.33 46:1.0 47:0.33 48:1.0 49:0.5 50:0.67 51:0.5 56:1.0 57:0.5 58:0.67 63:1.0 64:1.0 71:0.4 72:1.0 74:1.0 75:0.5 77:1.0 80:0.5 82:0.5 83:0.43 84:0.67 88:0.33 89:0.33 91:0.5 92:1.0 94:0.5 95:1.0 96:0.43 97:1.0 102:0.25 104:0.33 105:1.0 106:0.25 107:0.5 109:0.25 110:0.2 111:0.5 112:1.0 114:1.0 116:1.0 122:0.5 124:1.0 132:0.6 135:1.0 139:1.0 141:0.5 142:1.0 144:1.0 148:0.5 150:0.67 151:1.0 156:1.0 158:1.0 160:1.0 161:0.5 163:1.0 
-0.0 -1.0 -0.0 -0.06559269086855883 0.0 0.0 0.17145278463614566 2:0.33 3:1.0 4:0.33 5:0.67 6:0.5 7:0.33 8:1.0 9:0.25 10:0.5 11:1.0 12:1.0 13:0.4 14:0.2 15:0.33 16:0.5 17:1.0 19:0.67 20:1.0 21:0.5 23:1.0 24:1.0 25:1.0 27:1.0 28:0.2 29:0.33 30:0.33 31:1.0 32:0.25 35:1.0 36:1.0 38:1.0 39:0.25 40:0.5 41:0.25 42:0.25 44:0.67 45:0.2 46:1.0 47:1.0 48:1.0 49:0.5 50:1.0 51:1.0 55:0.33 56:1.0 57:1.0 58:1.0 59:1.0 60:0.5 61:0.5 62:0.33 63:1.0 64:1.0 65:1.0 66:0.5 67:0.5 70:0.33 71:1.0 72:1.0 73:0.2 74:1.0 75:1.0 76:0.4 77:1.0 78:0.25 80:1.0 81:0.17 82:0.5 83:1.0 84:1.0 85:0.5 87:0.5 88:0.67 89:0.67 90:0.25 91:1.0 92:1.0 93:0.25 94:1.0 95:1.0 96:1.0 97:1.0 99:0.33 101:0.33 102:0.5 103:0.33 104:1.0 105:1.0 106:0.5 107:0.5 108:0.33 109:0.25 110:0.4 111:1.0 112:1.0 113:0.33 114:1.0 115:0.4 116:1.0 117:0.2 118:0.33 120:0.33 121:0.4 122:1.0 124:1.0 130:1.0 131:0.33 132:0.2 133:0.17 134:0.25 135:1.0 136:0.4 137:0.5 138:0.2 139:1.0 140:0.2 141:0.5 142:1.0 144:1.0 148:0.5 149:0.17 150:1.0 151:1.0 152:0.33 154:0.29 155:0.33 156:1.0 158:1.0 160:1.0 161:0.5 163:1.0 164:0.2 
-0.36560704088339524 -1.0 -0.0 -0.5594326149122616 1.0 0.5187984629273676 1.0 2:0.33 3:0.67 5:0.33 6:0.5 7:0.33 8:0.33 11:0.75 12:0.5 13:0.2 17:0.5 19:0.33 20:0.5 21:0.25 23:1.0 24:1.0 25:0.43 27:1.0 30:0.33 35:0.5 36:1.0 38:0.5 40:0.5 41:0.25 44:0.33 46:1.0 47:0.33 48:1.0 49:0.5 50:0.67 51:0.5 56:1.0 57:0.5 58:0.67 63:1.0 64:1.0 71:0.4 72:1.0 74:1.0 75:0.5 77:1.0 80:0.5 82:0.5 83:0.43 84:0.67 88:0.33 89:0.33 91:0.5 92:1.0 94:0.5 95:1.0 96:0.43 97:1.0 102:0.25 104:0.33 105:1.0 106:0.25 107:0.5 109:0.25 110:0.2 111:0.5 112:1.0 114:1.0 116:1.0 122:0.5 124:1.0 132:0.6 135:1.0 139:1.0 141:0.5 142:1.0 144:1.0 148:0.5 150:0.67 151:1.0 156:1.0 158:1.0 160:1.0 161:0.5 163:1.0 
-0.0 -1.0 -1.0 -1.0 0.0 0.0 0.6297650121276971 2:0.33 3:0.67 5:0.67 6:0.5 7:0.33 8:0.33 11:0.75 12:0.33 13:0.2 14:0.2 15:0.33 17:0.5 19:0.33 20:0.33 21:0.25 24:1.0 25:0.43 27:1.0 30:0.33 35:0.5 36:1.0 38:0.5 39:0.25 40:0.5 41:0.25 42:0.25 44:0.67 45:0.2 46:1.0 47:0.67 48:1.0 50:0.67 51:0.5 56:1.0 57:0.5 58:0.33 63:1.0 64:1.0 71:0.4 72:1.0 73:0.2 74:1.0 77:1.0 78:0.25 80:0.5 81:0.17 82:0.5 83:0.29 84:0.67 88:0.33 89:0.33 91:0.5 92:1.0 94:0.5 95:1.0 96:0.29 97:1.0 102:0.25 104:0.33 105:1.0 106:0.25 107:0.5 109:0.25 110:0.4 111:0.5 112:1.0 114:1.0 115:0.2 116:1.0 117:0.2 118:0.17 121:0.2 122:0.5 124:1.0 131:0.33 132:0.6 134:0.25 135:1.0 136:0.2 137:0.5 138:0.2 139:1.0 141:0.5 142:1.0 144:1.0 148:0.5 149:0.17 150:1.0 151:1.0 152:0.17 154:0.14 155:0.17 156:1.0 158:1.0 160:1.0 161:0.5 163:1.0 164:0.2 
-0.7394497551118324 -1.0 -0.0 -0.4018204444485638 0.4990271231010535 1.0 1.0 2:0.33 3:0.67 5:0.33 6:0.5 7:0.33 8:0.33 11:0.75 12:0.33 13:0.2 17:0.5 19:0.33 20:0.33 21:0.25 24:1.0 25:0.43 27:1.0 30:0.33 35:0.5 36:1.0 38:0.5 40:0.5 41:0.25 44:0.33 46:1.0 47:0.33 48:1.0 50:0.67 51:0.5 56:1.0 57:0.5 58:0.33 63:1.0 64:1.0 71:0.4 72:1.0 74:1.0 77:1.0 80:0.5 82:0.5 83:0.29 84:0.67 88:0.33 89:0.33 91:0.5 92:1.0 94:0.5 95:1.0 96:0.29 97:1.0 102:0.25 104:0.33 105:1.0 106:0.25 107:0.5 109:0.25 110:0.2 111:0.5 112:1.0 114:1.0 116:1.0 122:0.5 124:1.0 132:0.6 135:1.0 139:1.0 141:0.5 142:1.0 144:1.0 148:0.5 150:0.67 151:1.0 156:1.0 158:1.0 160:1.0 161:0.5 163:1.0 
-0.0 -1.0 -0.0 -0.6044169191026054 0.3550979522339283 0.0 0.20699039586760506 2:0.33 3:1.0 4:0.33 5:0.67 6:0.5 7:0.33 8:0.33 11:1.0 12:0.5 13:0.2 14:0.2 15:0.33 17:1.0 19:0.33 20:0.5 21:0.25 24:1.0 25:0.57 27:0.5 30:0.33 31:1.0 32:0.25 35:0.5 36:1.0 38:0.75 39:0.25 40:0.5 41:0.25 42:0.25 44:0.67 45:0.2 46:1.0 47:1.0 48:1.0 50:1.0 51:1.0 56:1.0 57:1.0 58:0.67 59:1.0 61:0.5 63:1.0 64:1.0 65:1.0 66:0.5 67:0.5 71:0.6 72:1.0 73:0.2 74:0.67 75:0.5 76:0.2 77:1.0 78:0.25 79:1.0 80:0.75 81:0.17 82:0.5 83:0.29 84:1.0 85:0.5 88:0.67 89:0.67 91:1.0 92:0.75 94:0.5 95:1.0 96:0.43 97:1.0 101:0.33 102:0.25 103:0.33 104:0.5 105:1.0 106:0.5 107:0.5 109:0.25 110:0.4 111:0.67 112:1.0 114:1.0 115:0.4 116:1.0 117:0.2 118:0.33 121:0.4 122:1.0 124:1.0 130:1.0 131:0.33 132:0.2 133:0.17 134:0.25 135:1.0 136:0.4 137:0.5 138:0.2 141:0.5 142:1.0 144:1.0 148:0.5 149:0.17 150:1.0 151:1.0 152:0.33 154:0.29 155:0.33 156:1.0 158:1.0 160:1.0 161:0.5 163:1.0 164:0.2 
-1.0 -1.0 -1.0 -0.014785646957192507 1.0 0.5946833012490894 1.0 3:1.0 6:0.5 9:0.25 10:0.5 11:0.75 12:0.17 13:0.2 16:0.5 17:0.5 19:0.33 20:0.17 21:0.25 24:1.0 25:0.29 27:0.5 28:0.2 29:0.33 32:0.25 35:0.33 36:1.0 38:0.25 46:1.0 47:0.33 48:1.0 50:0.33 51:0.5 55:0.33 56:0.67 57:1.0 59:1.0 60:0.5 62:0.33 63:1.0 64:1.0 66:0.5 70:0.33 71:0.2 72:1.0 74:0.33 76:0.4 80:0.25 82:0.5 83:0.14 84:0.67 85:0.5 87:0.5 89:0.33 90:0.25 91:1.0 92:0.5 93:0.25 94:0.33 96:0.14 97:1.0 99:0.33 101:0.33 102:0.25 103:0.33 104:0.17 106:0.25 108:0.33 111:0.33 112:0.5 113:0.33 114:1.0 115:0.2 118:0.17 120:0.33 121:0.2 122:1.0 124:0.5 130:1.0 132:0.2 133:0.17 135:1.0 136:0.2 140:0.2 142:1.0 144:0.67 150:0.67 151:1.0 152:0.17 154:0.14 155:0.17 156:1.0 158:1.0 163:1.0 
-0.0 -1.0 -0.5241673046918564 -1.0 0.0 0.0 0.0 2:0.33 3:0.67 5:0.67 6:0.5 7:0.33 8:0.33 11:0.75 12:0.5 13:0.2 14:0.2 15:0.33 17:0.5 19:0.33 20:0.5 21:0.25 23:1.0 24:1.0 25:0.43 27:1.0 30:0.33 35:0.5 36:1.0 38:0.5 39:0.25 40:0.5 41:0.25 42:0.25 44:0.67 45:0.2 46:1.0 47:0.67 48:1.0 49:0.5 50:0.67 51:0.5 56:1.0 57:0.5 58:0.67 63:1.0 64:1.0 71:0.4 72:1.0 73:0.2 74:1.0 75:0.5 77:1.0 78:0.25 80:0.5 81:0.17 82:0.5 83:0.43 84:0.67 88:0.33 89:0.33 91:0.5 92:1.0 94:0.5 95:1.0 96:0.43 97:1.0 102:0.25 104:0.33 105:1.0 106:0.25 107:0.5 109:0.25 110:0.4 111:0.5 112:1.0 114:1.0 115:0.2 116:1.0 117:0.2 118:0.17 121:0.2 122:0.5 124:1.0 131:0.33 132:0.3 134:0.25 135:1.0 136:0.2 137:0.5 138:0.2 139:1.0 141:0.5 142:1.0 144:1.0 148:0.5 149:0.17 150:1.0 151:1.0 152:0.17 154:0.14 155:0.17 156:1.0 158:1.0 160:1.0 161:0.5 163:1.0 164:0.2 
-1.0 -1.0 -1.0 -1.0 1.0 1.0 1.0 3:0.67 6:0.5 11:0.5 17:0.5 24:1.0 25:0.14 32:0.25 35:0.17 46:0.5 47:0.33 48:0.5 50:0.33 51:0.5 56:0.33 57:1.0 59:1.0 64:1.0 66:0.5 76:0.2 84:0.33 85:0.5 89:0.33 91:0.5 92:0.25 94:0.17 97:1.0 101:0.33 103:0.33 106:0.25 111:0.17 114:1.0 115:0.2 118:0.17 121:0.2 122:1.0 124:0.5 130:1.0 132:0.1 133:0.17 136:0.2 142:1.0 144:0.33 150:0.33 151:1.0 152:0.17 154:0.14 155:0.17 156:0.5 158:0.5 163:0.5 
-0.0 -1.0 -0.5311895746155585 -1.0 0.0 0.9144875281235837 0.7490089765261883 2:0.33 3:0.67 4:0.33 5:0.67 6:0.5 7:0.33 8:1.0 11:0.75 12:0.83 13:0.2 14:0.2 15:0.33 17:0.5 18:0.5 19:0.33 20:0.83 21:0.25 24:1.0 25:1.0 27:0.5 30:0.33 31:1.0 35:1.0 36:1.0 38:1.0 39:0.25 40:0.5 41:0.25 42:0.25 44:0.67 45:0.2 46:1.0 47:0.67 48:1.0 50:1.0 51:1.0 56:1.0 57:0.5 58:0.67 61:0.5 63:1.0 64:1.0 65:1.0 67:0.5 71:1.0 72:1.0 73:0.2 74:0.67 75:0.5 77:1.0 78:0.25 79:1.0 80:1.0 81:0.17 82:0.5 83:0.86 84:0.67 88:0.67 89:0.33 91:0.5 92:0.75 94:1.0 95:1.0 96:0.86 97:1.0 102:0.25 104:1.0 105:1.0 106:0.25 107:0.5 109:0.25 110:0.4 111:1.0 112:1.0 114:1.0 115:0.2 116:1.0 117:0.2 118:0.17 121:0.2 122:0.5 123:0.5 124:1.0 131:0.33 132:0.2 134:0.25 135:1.0 136:0.2 137:1.0 138:0.2 141:0.5 142:1.0 144:1.0 146:1.0 148:0.5 149:0.17 150:1.0 151:1.0 152:0.17 154:0.14 155:0.17 156:1.0 158:1.0 160:1.0 161:0.5 163:1.0 164:0.2 
-0.6785288054245792 -1.0 -1.0 -1.0 -1.0 1.0 1.0 1:0.5 3:0.67 6:0.5 9:0.25 11:0.5 12:0.17 20:0.17 22:0.33 24:1.0 25:0.29 27:0.5 28:0.2 35:0.33 36:1.0 37:0.5 38:0.25 43:0.33 46:1.0 48:1.0 49:0.5 50:0.33 51:0.5 52:0.5 54:0.5 55:0.33 56:0.67 57:0.5 60:0.5 63:1.0 64:1.0 68:0.5 70:0.33 71:0.2 72:1.0 74:0.33 76:0.2 80:0.25 82:1.0 83:0.14 84:0.33 91:0.5 92:0.5 94:0.33 96:0.14 97:1.0 98:0.33 99:0.33 101:0.33 104:0.17 111:0.33 112:0.5 114:1.0 122:0.5 124:0.5 126:0.5 129:0.5 132:1.0 135:1.0 142:1.0 143:0.33 144:0.67 150:0.67 151:1.0 156:1.0 158:1.0 163:1.0 
-1.0 -1.0 -1.0 -1.0 -1.0 1.0 1.0 3:0.67 6:0.5 11:0.5 17:0.5 24:1.0 25:0.14 32:0.25 35:0.17 46:0.5 47:0.33 48:0.5 50:0.33 51:0.5 56:0.33 57:1.0 59:1.0 64:1.0 66:0.5 76:0.2 84:0.33 85:0.5 89:0.33 91:0.5 92:0.25 94:0.17 97:1.0 101:0.33 103:0.33 106:0.25 111:0.17 114:1.0 115:0.2 118:0.17 121:0.2 122:1.0 124:0.5 130:1.0 132:0.1 133:0.17 136:0.2 142:1.0 144:0.33 150:0.33 151:1.0 152:0.17 154:0.14 155:0.17 156:0.5 158:0.5 163:0.5 
-1.0 -1.0 -0.8436284621140365 -1.0 -1.0 0.921244089810934 1.0 2:0.33 3:1.0 5:0.33 6:0.5 7:0.33 8:0.33 11:1.0 12:0.5 13:0.2 17:1.0 19:0.33 20:0.5 21:0.25 23:1.0 24:1.0 25:0.43 27:0.5 30:0.33 32:0.25 35:0.5 36:1.0 38:0.5 40:0.5 41:0.25 44:0.33 46:1.0 47:0.67 48:1.0 49:0.5 50:0.67 51:0.5 56:1.0 57:1.0 58:0.67 59:1.0 63:1.0 64:1.0 66:0.5 71:0.4 72:1.0 74:0.67 75:0.5 76:0.2 77:1.0 79:1.0 80:0.5 82:0.5 83:0.43 84:1.0 85:0.5 88:0.33 89:0.67 91:1.0 92:0.75 94:0.5 95:1.0 96:0.43 97:1.0 101:0.33 102:0.25 103:0.33 104:0.33 105:1.0 106:0.5 107:0.5 109:0.25 110:0.2 111:0.5 112:1.0 114:1.0 115:0.2 116:1.0 118:0.17 121:0.2 122:1.0 124:1.0 130:1.0 132:0.2 133:0.17 135:1.0 136:0.2 141:0.5 142:1.0 144:1.0 148:0.5 150:0.67 151:1.0 152:0.17 154:0.14 155:0.17 156:1.0 158:1.0 160:1.0 161:0.5 163:1.0 
-1.0 -1.0 -1.0 -0.9358162780519472 -1.0 1.0 1.0 1:1.0 3:0.67 5:0.33 6:0.5 7:0.33 9:0.5 11:0.5 12:0.17 13:0.2 16:0.5 20:0.17 22:0.33 24:1.0 25:0.29 27:1.0 28:0.4 29:0.33 30:0.33 32:0.25 35:0.33 36:1.0 37:0.5 38:0.25 40:0.5 41:0.25 43:0.33 46:1.0 48:1.0 49:0.5 50:0.33 51:0.5 52:1.0 53:0.5 54:1.0 55:0.33 56:0.67 57:0.5 60:0.5 62:0.33 63:1.0 64:1.0 68:0.5 69:0.5 70:0.33 71:0.2 72:1.0 74:0.67 76:0.4 80:0.25 82:1.0 83:0.14 84:0.33 86:1.0 89:0.33 90:0.25 91:0.5 92:0.75 93:0.25 94:0.33 96:0.14 97:1.0 98:0.67 99:0.67 100:0.33 101:0.67 102:0.25 103:0.33 104:0.17 106:0.25 109:0.25 110:0.2 111:0.33 112:0.5 113:0.33 114:1.0 122:0.5 124:0.5 125:1.0 126:1.0 129:1.0 132:1.0 135:1.0 139:1.0 140:0.2 141:0.5 142:1.0 143:1.0 144:0.67 145:0.5 147:0.2 150:0.67 151:1.0 156:1.0 157:1.0 158:1.0 159:0.25 161:0.5 163:1.0 
-0.0 -1.0 -1.0 -1.0 -1.0 1.0 1.0 3:1.0 5:0.33 6:0.5 11:0.75 12:0.17 14:0.2 15:0.33 17:0.5 20:0.17 24:1.0 25:0.29 27:0.5 32:0.25 35:0.33 36:1.0 38:0.25 39:0.25 42:0.25 44:0.33 45:0.2 46:1.0 47:0.67 48:1.0 50:0.33 51:0.5 56:0.67 57:1.0 59:1.0 63:1.0 64:1.0 66:0.5 71:0.2 72:1.0 73:0.2 74:0.33 76:0.2 78:0.25 80:0.25 81:0.17 82:0.5 83:0.14 84:0.67 85:0.5 89:0.33 91:1.0 92:0.5 94:0.33 96:0.14 97:1.0 101:0.33 103:0.33 104:0.17 106:0.25 110:0.2 111:0.33 112:0.5 114:1.0 115:0.4 117:0.2 118:0.33 121:0.4 122:1.0 124:0.5 130:1.0 131:0.33 132:0.2 133:0.17 134:0.25 135:1.0 136:0.4 137:0.5 138:0.2 142:1.0 144:0.67 149:0.17 150:1.0 151:1.0 152:0.33 154:0.29 155:0.33 156:1.0 158:1.0 163:1.0 164:0.2 
-1.0 -1.0 -1.0 -1.0 -1.0 0.8603548539658551 1.0 1:0.5 3:0.67 6:0.5 9:0.25 11:0.5 12:0.17 20:0.17 22:0.33 24:1.0 25:0.29 27:0.5 28:0.2 35:0.33 36:1.0 37:0.5 38:0.25 43:0.33 46:1.0 48:1.0 49:0.5 50:0.33 51:0.5 52:0.5 54:0.5 55:0.33 56:0.67 57:0.5 60:0.5 63:1.0 64:1.0 68:0.5 70:0.33 71:0.2 72:1.0 74:0.33 76:0.2 80:0.25 82:1.0 83:0.14 84:0.33 91:0.5 92:0.5 94:0.33 96:0.14 97:1.0 98:0.33 99:0.33 101:0.33 104:0.17 111:0.33 112:0.5 114:1.0 122:0.5 124:0.5 126:0.5 129:0.5 132:1.0 135:1.0 142:1.0 143:0.33 144:0.67 150:0.67 151:1.0 156:1.0 158:1.0 163:1.0 
-1.0 -1.0 -0.948911818933265 -1.0 -1.0 1.0 1.0 1:1.0 3:0.67 6:0.5 9:0.25 11:0.5 12:0.17 20:0.17 22:0.33 24:1.0 25:0.29 27:1.0 28:0.2 35:0.33 36:1.0 37:0.5 38:0.25 43:0.33 46:1.0 48:1.0 49:0.5 50:0.33 51:0.5 52:0.5 54:0.5 55:0.33 56:0.67 57:0.5 60:0.5 63:1.0 64:1.0 68:0.5 69:0.5 70:0.33 71:0.2 72:1.0 74:0.67 76:0.2 80:0.25 82:1.0 83:0.14 84:0.33 86:1.0 91:0.5 92:0.75 94:0.33 96:0.14 97:1.0 98:0.33 99:0.33 101:0.33 104:0.17 111:0.33 112:0.5 114:1.0 122:0.5 124:0.5 125:0.5 126:0.5 129:1.0 132:1.0 135:1.0 139:1.0 141:0.5 142:1.0 143:0.67 144:0.67 145:0.5 147:0.2 150:0.67 151:1.0 156:1.0 158:1.0 159:0.25 161:0.5 163:1.0 
-1.0 -1.0 -1.0 -1.0 -1.0 1.0 1.0 1:0.5 2:0.33 3:1.0 5:0.67 6:0.5 7:0.33 8:0.33 11:1.0 12:0.5 13:0.2 14:0.2 15:0.33 17:1.0 19:0.33 20:0.5 21:0.25 23:1.0 24:1.0 25:0.43 27:1.0 30:0.33 32:0.25 35:0.5 36:1.0 38:0.5 39:0.25 40:0.5 41:0.25 42:0.25 44:0.67 45:0.2 46:1.0 47:1.0 48:1.0 49:0.5 50:0.67 51:0.5 56:1.0 57:1.0 58:0.67 59:1.0 63:1.0 64:1.0 66:0.5 69:0.5 71:0.4 72:1.0 73:0.2 74:1.0 75:0.5 76:0.2 77:1.0 78:0.25 79:1.0 80:0.5 81:0.17 82:0.5 83:0.43 84:1.0 85:0.5 86:1.0 88:0.33 89:0.67 91:1.0 92:1.0 94:0.5 95:1.0 96:0.43 97:1.0 101:0.33 102:0.25 103:0.33 104:0.33 105:1.0 106:0.5 107:0.5 109:0.25 110:0.4 111:0.5 112:1.0 114:1.0 115:0.4 116:1.0 117:0.2 118:0.33 121:0.4 122:1.0 124:1.0 125:0.5 129:0.5 130:1.0 131:0.33 132:0.5 133:0.17 134:0.25 135:1.0 136:0.4 137:0.5 138:0.2 139:1.0 141:1.0 142:1.0 143:0.33 144:1.0 145:0.5 147:0.2 148:0.5 149:0.17 150:1.0 151:1.0 152:0.33 154:0.29 155:0.33 156:1.0 158:1.0 159:0.25 160:1.0 161:1.0 163:1.0 164:0.2 
-0.0 -1.0 -0.0 -1.0 -0.2704533378703997 -1.0 1.0 1:0.5 2:0.33 5:0.33 7:0.33 8:0.33 11:0.25 12:0.17 13:0.2 17:0.5 19:0.33 20:0.17 21:0.25 25:0.14 30:0.33 35:0.17 38:0.25 40:0.5 41:0.25 44:0.33 47:0.33 50:0.33 56:0.33 58:0.33 69:0.5 71:0.2 74:0.33 77:1.0 80:0.25 83:0.14 84:0.33 86:1.0 88:0.33 89:0.33 92:0.25 94:0.17 95:1.0 96:0.14 102:0.25 104:0.17 105:1.0 106:0.25 107:0.5 109:0.25 110:0.2 111:0.17 112:0.5 116:1.0 124:0.5 125:0.5 129:0.5 141:1.0 143:0.33 144:0.33 145:0.5 147:0.2 148:0.5 159:0.25 160:1.0 161:1.0 
-0.0 -1.0 -0.893304106015002 -1.0 -1.0 -0.5647937503712407 1.0 1:0.5 2:0.33 5:0.33 7:0.33 8:0.33 11:0.25 12:0.17 13:0.2 17:0.5 19:0.33 20:0.17 21:0.25 25:0.14 30:0.33 35:0.17 38:0.25 40:0.5 41:0.25 44:0.33 47:0.33 50:0.33 56:0.33 58:0.33 69:0.5 71:0.2 74:0.33 77:1.0 80:0.25 83:0.14 84:0.33 86:1.0 88:0.33 89:0.33 92:0.25 94:0.17 95:1.0 96:0.14 102:0.25 104:0.17 105:1.0 106:0.25 107:0.5 109:0.25 110:0.2 111:0.17 112:0.5 116:1.0 124:0.5 125:0.5 129:0.5 141:1.0 143:0.33 144:0.33 145:0.5 147:0.2 148:0.5 159:0.25 160:1.0 161:1.0 
-0.0 -0.0 -0.0 -0.0 -0.0 -0.0 1.0 1:0.5 2:0.67 4:0.33 5:0.33 7:0.67 8:0.33 10:0.5 11:0.25 12:0.17 13:0.4 17:0.5 19:0.67 20:0.17 21:0.5 22:0.33 25:0.14 28:0.2 30:0.33 32:0.25 35:0.17 37:0.5 38:0.25 40:0.5 41:0.5 43:0.33 44:0.67 47:0.33 50:0.33 53:0.5 56:0.33 58:0.33 62:0.33 69:1.0 70:0.33 71:0.2 74:0.33 77:1.0 80:0.25 83:0.14 84:0.33 86:1.0 87:0.5 88:0.33 89:0.33 90:0.25 92:0.25 93:0.25 94:0.17 95:1.0 96:0.14 100:0.33 102:0.5 104:0.17 105:1.0 106:0.5 107:0.5 108:0.33 109:0.5 110:0.4 111:0.17 112:0.5 116:1.0 119:1.0 123:0.5 124:0.5 125:0.5 128:1.0 129:0.5 141:1.0 143:0.33 144:0.33 145:1.0 147:1.0 148:1.0 159:1.0 160:1.0 161:1.0 162:1.0 
-0.0 -0.0 -0.10669589398499797 -0.0 -0.0 -0.0 1.0 1:0.5 2:0.67 4:0.33 5:0.33 7:0.67 8:0.33 10:0.5 11:0.25 12:0.17 13:0.4 17:0.5 19:0.67 20:0.17 21:0.5 22:0.33 25:0.14 28:0.2 30:0.33 32:0.25 35:0.17 37:0.5 38:0.25 40:0.5 41:0.5 43:0.33 44:0.67 47:0.33 50:0.33 53:0.5 56:0.33 58:0.33 62:0.33 69:1.0 70:0.33 71:0.2 74:0.33 77:1.0 80:0.25 83:0.14 84:0.33 86:1.0 87:0.5 88:0.33 89:0.33 90:0.25 92:0.25 93:0.25 94:0.17 95:1.0 96:0.14 100:0.33 102:0.5 104:0.17 105:1.0 106:0.5 107:0.5 108:0.33 109:0.5 110:0.4 111:0.17 112:0.5 116:1.0 119:1.0 123:0.5 124:0.5 125:0.5 128:1.0 129:0.5 141:1.0 143:0.33 144:0.33 145:1.0 147:1.0 148:1.0 159:1.0 160:1.0 161:1.0 162:1.0 
-0.0 -0.0 -1.0 -1.0 -0.0 -1.0 1.0 1:0.5 5:0.33 14:0.2 15:0.33 39:0.25 42:0.25 44:0.33 45:0.2 47:0.33 69:0.5 73:0.2 78:0.25 81:0.17 86:1.0 110:0.2 115:0.2 117:0.2 118:0.17 121:0.2 125:0.5 129:0.5 131:0.33 134:0.25 136:0.2 137:0.5 138:0.2 141:0.5 143:0.33 145:0.5 147:0.2 149:0.17 150:0.33 152:0.17 154:0.14 155:0.17 159:0.25 161:0.5 164:0.2 
-0.0 -0.0 -1.0 -0.0 -0.0 -0.0 1.0 1:0.5 2:0.67 4:0.33 5:0.33 7:0.67 8:0.33 10:0.5 11:0.25 12:0.17 13:0.4 17:0.5 19:0.67 20:0.17 21:0.5 22:0.33 25:0.14 28:0.2 30:0.33 32:0.25 35:0.17 37:0.5 38:0.25 40:0.5 41:0.5 43:0.33 44:0.67 47:0.33 50:0.33 53:0.5 56:0.33 58:0.33 62:0.33 69:1.0 70:0.33 71:0.2 74:0.33 77:1.0 80:0.25 83:0.14 84:0.33 86:1.0 87:0.5 88:0.33 89:0.33 90:0.25 92:0.25 93:0.25 94:0.17 95:1.0 96:0.14 100:0.33 102:0.5 104:0.17 105:1.0 106:0.5 107:0.5 108:0.33 109:0.5 110:0.4 111:0.17 112:0.5 116:1.0 119:1.0 123:0.5 124:0.5 125:0.5 128:1.0 129:0.5 141:1.0 143:0.33 144:0.33 145:1.0 147:1.0 148:1.0 159:1.0 160:1.0 161:1.0 162:1.0 
-0.0 -1.0 -0.0 -0.03596439704483261 -0.0 -0.0 1.0 1:0.5 2:0.33 4:0.33 5:0.33 7:0.33 8:0.33 11:0.25 12:0.33 13:0.2 17:0.5 19:0.33 20:0.33 21:0.25 25:0.29 30:0.33 31:1.0 35:0.17 38:0.5 40:0.5 41:0.25 44:0.33 47:0.33 50:0.67 51:0.5 56:0.33 58:0.67 61:0.5 65:1.0 67:0.5 69:0.5 71:0.4 74:0.33 75:0.5 77:1.0 80:0.5 83:0.14 84:0.33 86:1.0 88:0.67 89:0.33 92:0.25 94:0.17 95:1.0 96:0.29 102:0.25 104:0.33 105:1.0 106:0.25 107:0.5 109:0.25 110:0.2 111:0.33 112:0.5 116:1.0 124:0.5 125:0.5 129:0.5 141:1.0 143:0.33 144:0.33 145:0.5 147:0.2 148:0.5 159:0.25 160:1.0 161:1.0 
-0.9325811157665698 -0.0 -1.0 -0.0 -0.0 -0.0 1.0 1:0.5 2:0.67 4:0.33 5:0.33 7:0.67 8:0.33 10:0.5 11:0.25 12:0.17 13:0.4 17:0.5 19:0.67 20:0.17 21:0.5 22:0.33 25:0.14 28:0.2 30:0.33 32:0.25 35:0.17 37:0.5 38:0.25 40:0.5 41:0.5 43:0.33 44:0.67 47:0.33 50:0.33 53:0.5 56:0.33 58:0.33 62:0.33 69:1.0 70:0.33 71:0.2 74:0.33 77:1.0 80:0.25 83:0.14 84:0.33 86:1.0 87:0.5 88:0.33 89:0.33 90:0.25 92:0.25 93:0.25 94:0.17 95:1.0 96:0.14 100:0.33 102:0.5 104:0.17 105:1.0 106:0.5 107:0.5 108:0.33 109:0.5 110:0.4 111:0.17 112:0.5 116:1.0 119:1.0 123:0.5 124:0.5 125:0.5 128:1.0 129:0.5 141:1.0 143:0.33 144:0.33 145:1.0 147:1.0 148:1.0 159:1.0 160:1.0 161:1.0 162:1.0 
-1.0 -0.0 -1.0 -0.0 -0.0 -0.0 1.0 1:0.5 2:0.67 4:0.33 5:0.33 7:0.67 8:0.33 10:0.5 11:0.25 12:0.17 13:0.4 17:0.5 19:0.67 20:0.17 21:0.5 22:0.33 25:0.14 28:0.2 30:0.33 32:0.25 35:0.17 37:0.5 38:0.25 40:0.5 41:0.5 43:0.33 44:0.67 47:0.33 50:0.33 53:0.5 56:0.33 58:0.33 62:0.33 69:1.0 70:0.33 71:0.2 74:0.33 77:1.0 80:0.25 83:0.14 84:0.33 86:1.0 87:0.5 88:0.33 89:0.33 90:0.25 92:0.25 93:0.25 94:0.17 95:1.0 96:0.14 100:0.33 102:0.5 104:0.17 105:1.0 106:0.5 107:0.5 108:0.33 109:0.5 110:0.4 111:0.17 112:0.5 116:1.0 119:1.0 123:0.5 124:0.5 125:0.5 128:1.0 129:0.5 141:1.0 143:0.33 144:0.33 145:1.0 147:1.0 148:1.0 159:1.0 160:1.0 161:1.0 162:1.0 
-1.0 -1.0 -1.0 -1.0 -1.0 -1.0 1.0 1:0.5 2:0.33 3:0.33 4:0.33 5:1.0 7:0.67 8:0.33 9:0.25 11:0.5 12:0.33 13:0.4 14:0.2 15:0.33 16:0.5 17:1.0 19:0.33 20:0.33 21:0.25 25:0.29 28:0.2 29:0.33 30:0.67 31:1.0 32:0.5 35:0.17 38:0.5 39:0.25 40:1.0 41:0.5 42:0.25 44:0.67 45:0.2 47:1.0 50:0.67 51:0.5 52:0.5 53:0.5 54:0.5 56:0.33 57:0.5 58:0.67 59:1.0 61:0.5 62:0.33 65:1.0 66:0.5 67:0.5 69:0.5 71:0.4 73:0.2 74:0.33 75:0.5 76:0.4 77:1.0 78:0.25 80:0.5 81:0.17 83:0.14 84:0.67 85:0.5 86:1.0 88:0.67 89:1.0 90:0.25 91:0.5 92:0.25 93:0.25 94:0.17 95:1.0 96:0.29 98:0.33 99:0.33 100:0.33 101:0.67 102:0.5 103:0.67 104:0.33 105:1.0 106:0.75 107:0.5 109:0.5 110:0.6 111:0.33 112:0.5 113:0.33 115:0.4 116:1.0 117:0.2 118:0.33 121:0.4 122:0.5 124:0.5 125:1.0 126:0.5 129:0.5 130:1.0 131:0.33 133:0.17 134:0.25 136:0.4 137:0.5 138:0.2 140:0.2 141:1.0 143:0.67 144:0.33 145:0.5 147:0.2 148:0.5 149:0.17 150:0.33 152:0.33 154:0.29 155:0.33 157:1.0 159:0.25 160:1.0 161:1.0 164:0.2 
-1.0 -0.0 -1.0 -0.0 -0.0 -0.0 1.0 1:0.5 2:0.67 4:0.33 5:0.33 7:0.67 8:0.33 10:0.5 11:0.25 12:0.17 13:0.4 17:0.5 19:0.67 20:0.17 21:0.5 22:0.33 25:0.14 28:0.2 30:0.33 32:0.25 35:0.17 37:0.5 38:0.25 40:0.5 41:0.5 43:0.33 44:0.67 47:0.33 50:0.33 53:0.5 56:0.33 58:0.33 62:0.33 69:1.0 70:0.33 71:0.2 74:0.33 77:1.0 80:0.25 83:0.14 84:0.33 86:1.0 87:0.5 88:0.33 89:0.33 90:0.25 92:0.25 93:0.25 94:0.17 95:1.0 96:0.14 100:0.33 102:0.5 104:0.17 105:1.0 106:0.5 107:0.5 108:0.33 109:0.5 110:0.4 111:0.17 112:0.5 116:1.0 119:1.0 123:0.5 124:0.5 125:0.5 128:1.0 129:0.5 141:1.0 143:0.33 144:0.33 145:1.0 147:1.0 148:1.0 159:1.0 160:1.0 161:1.0 162:1.0 
-0.06741888423343032 -0.6295264482425125 -1.0 -1.0 -1.0 -1.0 1.0 1:0.5 5:0.33 14:0.2 15:0.33 39:0.25 42:0.25 44:0.33 45:0.2 47:0.33 69:0.5 73:0.2 78:0.25 81:0.17 86:1.0 110:0.2 115:0.2 117:0.2 118:0.17 121:0.2 125:0.5 129:0.5 131:0.33 134:0.25 136:0.2 137:0.5 138:0.2 141:0.5 143:0.33 145:0.5 147:0.2 149:0.17 150:0.33 152:0.17 154:0.14 155:0.17 159:0.25 161:0.5 164:0.2 
-1.0 -1.0 -1.0 -1.0 -1.0 -1.0 1.0 1:0.5 5:0.33 14:0.2 15:0.33 39:0.25 42:0.25 44:0.33 45:0.2 47:0.33 69:0.5 73:0.2 78:0.25 81:0.17 86:1.0 110:0.2 115:0.2 117:0.2 118:0.17 121:0.2 125:0.5 129:0.5 131:0.33 134:0.25 136:0.2 137:0.5 138:0.2 141:0.5 143:0.33 145:0.5 147:0.2 149:0.17 150:0.33 152:0.17 154:0.14 155:0.17 159:0.25 161:0.5 164:0.2 
-1.0 -0.9431644281689772 -1.0 -1.0 -0.8609560755029237 -1.0 1.0 1:0.5 5:0.33 14:0.2 15:0.33 39:0.25 42:0.25 44:0.33 45:0.2 47:0.33 69:0.5 73:0.2 78:0.25 81:0.17 86:1.0 110:0.2 115:0.2 117:0.2 118:0.17 121:0.2 125:0.5 129:0.5 131:0.33 134:0.25 136:0.2 137:0.5 138:0.2 141:0.5 143:0.33 145:0.5 147:0.2 149:0.17 150:0.33 152:0.17 154:0.14 155:0.17 159:0.25 161:0.5 164:0.2 
-1.0 -0.4595836420233017 -1.0 -0.2628564647671204 -0.3337214856449531 -0.0 1.0 1:0.5 2:0.67 4:0.33 5:0.33 7:0.67 8:0.33 10:0.5 11:0.25 12:0.17 13:0.4 17:0.5 19:0.67 20:0.17 21:0.5 22:0.33 25:0.14 28:0.2 30:0.33 32:0.25 35:0.17 37:0.5 38:0.25 40:0.5 41:0.5 43:0.33 44:0.67 47:0.33 50:0.33 53:0.5 56:0.33 58:0.33 62:0.33 69:1.0 70:0.33 71:0.2 74:0.33 77:1.0 80:0.25 83:0.14 84:0.33 86:1.0 87:0.5 88:0.33 89:0.33 90:0.25 92:0.25 93:0.25 94:0.17 95:1.0 96:0.14 100:0.33 102:0.5 104:0.17 105:1.0 106:0.5 107:0.5 108:0.33 109:0.5 110:0.4 111:0.17 112:0.5 116:1.0 119:1.0 123:0.5 124:0.5 125:0.5 128:1.0 129:0.5 141:1.0 143:0.33 144:0.33 145:1.0 147:1.0 148:1.0 159:1.0 160:1.0 161:1.0 162:1.0 
-0.0 -1.0 -0.0 -1.0 -0.0 -0.0 1.0 1:0.5 2:0.33 4:0.33 5:0.33 7:0.33 8:0.33 11:0.25 12:0.33 13:0.2 17:0.5 19:0.33 20:0.33 21:0.25 25:0.29 30:0.33 31:1.0 35:0.17 38:0.5 40:0.5 41:0.25 44:0.33 47:0.33 50:0.67 51:0.5 56:0.33 58:0.67 61:0.5 65:1.0 67:0.5 69:0.5 71:0.4 74:0.33 75:0.5 77:1.0 80:0.5 83:0.14 84:0.33 86:1.0 88:0.67 89:0.33 92:0.25 94:0.17 95:1.0 96:0.29 102:0.25 104:0.33 105:1.0 106:0.25 107:0.5 109:0.25 110:0.2 111:0.33 112:0.5 116:1.0 124:0.5 125:0.5 129:0.5 141:1.0 143:0.33 144:0.33 145:0.5 147:0.2 148:0.5 159:0.25 160:1.0 161:1.0 
-1.0 -0.3899184740749949 -1.0 -1.0 -0.33726884924557327 -0.48145753129018076 1.0 1:0.5 2:0.67 4:0.33 5:1.0 7:1.0 8:0.33 9:0.5 10:1.0 11:0.25 12:0.17 13:0.8 14:0.2 15:0.33 16:1.0 17:0.5 19:1.0 20:0.17 21:0.75 22:0.33 25:0.14 28:0.6 29:0.67 30:0.67 32:0.5 35:0.17 37:0.5 38:0.25 39:0.25 40:1.0 41:0.75 42:0.25 43:0.33 44:1.0 45:0.2 47:0.67 50:0.33 52:0.5 53:1.0 54:0.5 55:0.33 56:0.33 58:0.33 60:0.5 62:1.0 69:1.0 70:0.67 71:0.2 73:0.2 74:0.33 76:0.4 77:1.0 78:0.25 80:0.25 81:0.17 83:0.14 84:0.33 86:1.0 87:1.0 88:0.33 89:0.67 90:0.75 92:0.25 93:0.75 94:0.17 95:1.0 96:0.14 98:0.33 99:0.67 100:0.67 101:0.33 102:1.0 103:0.33 104:0.17 105:1.0 106:0.75 107:0.5 108:0.67 109:0.75 110:0.8 111:0.17 112:0.5 113:0.67 115:0.2 116:1.0 117:0.2 118:0.17 120:1.0 121:0.2 123:0.5 124:0.5 125:1.0 126:0.5 127:1.0 128:1.0 129:0.5 131:0.33 134:0.25 136:0.2 137:0.5 138:0.2 140:1.0 141:1.0 143:0.67 144:0.33 145:1.0 147:0.2 148:1.0 149:0.17 150:0.33 152:0.17 154:0.14 155:0.17 157:1.0 159:0.25 160:1.0 161:1.0 164:0.2 
-0.0 -1.0 -0.0 -1.0 -0.6526735672653987 -0.0 1.0 1:0.5 2:0.33 4:0.33 5:0.33 7:0.33 8:0.33 11:0.25 12:0.33 13:0.2 17:0.5 19:0.33 20:0.33 21:0.25 25:0.29 30:0.33 31:1.0 35:0.17 38:0.5 40:0.5 41:0.25 44:0.33 47:0.33 50:0.67 51:0.5 56:0.33 58:0.67 61:0.5 65:1.0 67:0.5 69:0.5 71:0.4 74:0.33 75:0.5 77:1.0 80:0.5 83:0.14 84:0.33 86:1.0 88:0.67 89:0.33 92:0.25 94:0.17 95:1.0 96:0.29 102:0.25 104:0.33 105:1.0 106:0.25 107:0.5 109:0.25 110:0.2 111:0.33 112:0.5 116:1.0 124:0.5 125:0.5 129:0.5 141:1.0 143:0.33 144:0.33 145:0.5 147:0.2 148:0.5 159:0.25 160:1.0 161:1.0 
-0.0 -1.0 -0.0 -1.0 -1.0 -0.0 1.0 1:0.5 2:0.33 4:0.33 5:0.33 7:0.33 8:0.33 11:0.25 12:0.33 13:0.2 17:0.5 19:0.33 20:0.33 21:0.25 25:0.29 30:0.33 31:1.0 35:0.17 38:0.5 40:0.5 41:0.25 44:0.33 47:0.33 50:0.67 51:0.5 56:0.33 58:0.67 61:0.5 65:1.0 67:0.5 69:0.5 71:0.4 74:0.33 75:0.5 77:1.0 80:0.5 83:0.14 84:0.33 86:1.0 88:0.67 89:0.33 92:0.25 94:0.17 95:1.0 96:0.29 102:0.25 104:0.33 105:1.0 106:0.25 107:0.5 109:0.25 110:0.2 111:0.33 112:0.5 116:1.0 124:0.5 125:0.5 129:0.5 141:1.0 143:0.33 144:0.33 145:0.5 147:0.2 148:0.5 159:0.25 160:1.0 161:1.0 
-0.0 -0.05729198713154648 -0.0 -0.9947055080733612 -0.931857371300393 -0.7353476621153676 1.0 1:0.5 2:0.33 4:0.33 5:0.33 7:0.33 8:0.33 11:0.25 12:0.33 13:0.2 17:0.5 19:0.33 20:0.33 21:0.25 25:0.29 30:0.33 31:1.0 35:0.17 38:0.5 40:0.5 41:0.25 44:0.33 47:0.33 50:0.67 51:0.5 56:0.33 58:0.67 61:0.5 65:1.0 67:0.5 69:0.5 71:0.4 74:0.33 75:0.5 77:1.0 80:0.5 83:0.14 84:0.33 86:1.0 88:0.67 89:0.33 92:0.25 94:0.17 95:1.0 96:0.29 102:0.25 104:0.33 105:1.0 106:0.25 107:0.5 109:0.25 110:0.2 111:0.33 112:0.5 116:1.0 124:0.5 125:0.5 129:0.5 141:1.0 143:0.33 144:0.33 145:0.5 147:0.2 148:0.5 159:0.25 160:1.0 161:1.0 
-0.0 -1.0 -0.0 -0.0 -1.0 -0.5817013279607959 -1.0 1:0.5 2:0.33 3:0.33 5:0.33 7:0.33 8:0.33 11:0.5 12:0.17 13:0.2 17:1.0 19:0.33 20:0.17 21:0.25 25:0.14 30:0.33 32:0.25 35:0.17 38:0.25 40:0.5 41:0.25 44:0.33 47:0.67 50:0.33 56:0.33 57:0.5 58:0.33 59:1.0 66:0.5 69:0.5 71:0.2 74:0.33 76:0.2 77:1.0 80:0.25 83:0.14 84:0.67 85:0.5 86:1.0 88:0.33 89:0.67 91:0.5 92:0.25 94:0.17 95:1.0 96:0.14 101:0.33 102:0.25 103:0.33 104:0.17 105:1.0 106:0.5 107:0.5 109:0.25 110:0.2 111:0.17 112:0.5 115:0.2 116:1.0 118:0.17 121:0.2 122:0.5 124:0.5 125:0.5 129:0.5 130:1.0 133:0.17 136:0.2 141:1.0 143:0.33 144:0.33 145:0.5 147:0.2 148:0.5 152:0.17 154:0.14 155:0.17 159:0.25 160:1.0 161:1.0 
-0.0 -0.0 -0.0 -1.0 -0.0 -0.0 -1.0 1:0.5 2:0.33 4:0.33 5:0.33 7:0.33 8:0.33 11:0.25 12:0.33 13:0.2 17:0.5 19:0.33 20:0.33 21:0.25 25:0.29 30:0.33 31:1.0 35:0.17 38:0.5 40:0.5 41:0.25 44:0.33 47:0.33 50:0.67 51:0.5 56:0.33 58:0.67 61:0.5 65:1.0 67:0.5 69:0.5 71:0.4 74:0.33 75:0.5 77:1.0 80:0.5 83:0.14 84:0.33 86:1.0 88:0.67 89:0.33 92:0.25 94:0.17 95:1.0 96:0.29 102:0.25 104:0.33 105:1.0 106:0.25 107:0.5 109:0.25 110:0.2 111:0.33 112:0.5 116:1.0 124:0.5 125:0.5 129:0.5 141:1.0 143:0.33 144:0.33 145:0.5 147:0.2 148:0.5 159:0.25 160:1.0 161:1.0 
-0.0 -0.0 -0.24600624318871256 -0.0 -0.0 -0.0 -1.0 1:0.5 2:0.67 4:0.33 5:0.33 7:0.67 8:0.33 10:0.5 11:0.25 12:0.17 13:0.4 17:0.5 19:0.67 20:0.17 21:0.5 22:0.33 25:0.14 28:0.2 30:0.33 32:0.25 35:0.17 37:0.5 38:0.25 40:0.5 41:0.5 43:0.33 44:0.67 47:0.33 50:0.33 53:0.5 56:0.33 58:0.33 62:0.33 69:1.0 70:0.33 71:0.2 74:0.33 77:1.0 80:0.25 83:0.14 84:0.33 86:1.0 87:0.5 88:0.33 89:0.33 90:0.25 92:0.25 93:0.25 94:0.17 95:1.0 96:0.14 100:0.33 102:0.5 104:0.17 105:1.0 106:0.5 107:0.5 108:0.33 109:0.5 110:0.4 111:0.17 112:0.5 116:1.0 119:1.0 123:0.5 124:0.5 125:0.5 128:1.0 129:0.5 141:1.0 143:0.33 144:0.33 145:1.0 147:1.0 148:1.0 159:1.0 160:1.0 161:1.0 162:1.0 
-0.0 -0.0 -0.0 -1.0 -0.38317398613039266 -0.0 -1.0 1:0.5 2:0.33 4:0.33 5:0.33 7:0.33 8:0.33 11:0.25 12:0.33 13:0.2 17:0.5 19:0.33 20:0.33 21:0.25 25:0.29 30:0.33 31:1.0 35:0.17 38:0.5 40:0.5 41:0.25 44:0.33 47:0.33 50:0.67 51:0.5 56:0.33 58:0.67 61:0.5 65:1.0 67:0.5 69:0.5 71:0.4 74:0.33 75:0.5 77:1.0 80:0.5 83:0.14 84:0.33 86:1.0 88:0.67 89:0.33 92:0.25 94:0.17 95:1.0 96:0.29 102:0.25 104:0.33 105:1.0 106:0.25 107:0.5 109:0.25 110:0.2 111:0.33 112:0.5 116:1.0 124:0.5 125:0.5 129:0.5 141:1.0 143:0.33 144:0.33 145:0.5 147:0.2 148:0.5 159:0.25 160:1.0 161:1.0 
-0.0 -0.8757517943194686 -0.0 -0.2833152932059727 -1.0 -0.0 -1.0 1:0.5 2:0.33 4:0.33 5:0.33 7:0.33 8:0.33 11:0.25 12:0.33 13:0.2 17:0.5 19:0.33 20:0.33 21:0.25 25:0.29 30:0.33 31:1.0 35:0.17 38:0.5 40:0.5 41:0.25 44:0.33 47:0.33 50:0.67 51:0.5 56:0.33 58:0.67 61:0.5 65:1.0 67:0.5 69:0.5 71:0.4 74:0.33 75:0.5 77:1.0 80:0.5 83:0.14 84:0.33 86:1.0 88:0.67 89:0.33 92:0.25 94:0.17 95:1.0 96:0.29 102:0.25 104:0.33 105:1.0 106:0.25 107:0.5 109:0.25 110:0.2 111:0.33 112:0.5 116:1.0 124:0.5 125:0.5 129:0.5 141:1.0 143:0.33 144:0.33 145:0.5 147:0.2 148:0.5 159:0.25 160:1.0 161:1.0 
-1.0 -0.0 -1.0 -0.0 -0.0 -0.0 -1.0 1:0.5 2:0.67 4:0.33 5:0.33 7:0.67 8:0.33 10:0.5 11:0.25 12:0.17 13:0.4 17:0.5 19:0.67 20:0.17 21:0.5 22:0.33 25:0.14 28:0.2 30:0.33 32:0.25 35:0.17 37:0.5 38:0.25 40:0.5 41:0.5 43:0.33 44:0.67 47:0.33 50:0.33 53:0.5 56:0.33 58:0.33 62:0.33 69:1.0 70:0.33 71:0.2 74:0.33 77:1.0 80:0.25 83:0.14 84:0.33 86:1.0 87:0.5 88:0.33 89:0.33 90:0.25 92:0.25 93:0.25 94:0.17 95:1.0 96:0.14 100:0.33 102:0.5 104:0.17 105:1.0 106:0.5 107:0.5 108:0.33 109:0.5 110:0.4 111:0.17 112:0.5 116:1.0 119:1.0 123:0.5 124:0.5 125:0.5 128:1.0 129:0.5 141:1.0 143:0.33 144:0.33 145:1.0 147:1.0 148:1.0 159:1.0 160:1.0 161:1.0 162:1.0 
-1.0 -0.0 -0.0 -0.7922583560076195 -0.0 -0.0 -1.0 1:0.5 2:0.33 5:0.33 7:0.33 8:0.33 11:0.25 12:0.17 13:0.2 17:0.5 19:0.33 20:0.17 21:0.25 25:0.14 30:0.33 35:0.17 38:0.25 40:0.5 41:0.25 44:0.33 47:0.33 50:0.33 56:0.33 58:0.33 69:0.5 71:0.2 74:0.33 77:1.0 80:0.25 83:0.14 84:0.33 86:1.0 88:0.33 89:0.33 92:0.25 94:0.17 95:1.0 96:0.14 102:0.25 104:0.17 105:1.0 106:0.25 107:0.5 109:0.25 110:0.2 111:0.17 112:0.5 116:1.0 124:0.5 125:0.5 129:0.5 141:1.0 143:0.33 144:0.33 145:0.5 147:0.2 148:0.5 159:0.25 160:1.0 161:1.0 
-0.0 -1.0 -0.0 -0.0 -0.8558208127824088 -0.0 -1.0 1:0.5 2:0.33 4:0.33 5:0.33 7:0.33 8:0.33 11:0.25 12:0.33 13:0.2 17:0.5 19:0.33 20:0.33 21:0.25 25:0.29 30:0.33 31:1.0 35:0.17 38:0.5 40:0.5 41:0.25 44:0.33 47:0.33 50:0.67 51:0.5 56:0.33 58:0.67 61:0.5 65:1.0 67:0.5 69:0.5 71:0.4 74:0.33 75:0.5 77:1.0 80:0.5 83:0.14 84:0.33 86:1.0 88:0.67 89:0.33 92:0.25 94:0.17 95:1.0 96:0.29 102:0.25 104:0.33 105:1.0 106:0.25 107:0.5 109:0.25 110:0.2 111:0.33 112:0.5 116:1.0 124:0.5 125:0.5 129:0.5 141:1.0 143:0.33 144:0.33 145:0.5 147:0.2 148:0.5 159:0.25 160:1.0 161:1.0 
-1.0 -0.0 -0.9644031392968093 -0.0 -0.0 -0.0 -1.0 1:0.5 2:0.67 4:0.33 5:0.33 7:0.67 8:0.33 10:0.5 11:0.25 12:0.17 13:0.4 17:0.5 19:0.67 20:0.17 21:0.5 22:0.33 25:0.14 28:0.2 30:0.33 32:0.25 35:0.17 37:0.5 38:0.25 40:0.5 41:0.5 43:0.33 44:0.67 47:0.33 50:0.33 53:0.5 56:0.33 58:0.33 62:0.33 69:1.0 70:0.33 71:0.2 74:0.33 77:1.0 80:0.25 83:0.14 84:0.33 86:1.0 87:0.5 88:0.33 89:0.33 90:0.25 92:0.25 93:0.25 94:0.17 95:1.0 96:0.14 100:0.33 102:0.5 104:0.17 105:1.0 106:0.5 107:0.5 108:0.33 109:0.5 110:0.4 111:0.17 112:0.5 116:1.0 119:1.0 123:0.5 124:0.5 125:0.5 128:1.0 129:0.5 141:1.0 143:0.33 144:0.33 145:1.0 147:1.0 148:1.0 159:1.0 160:1.0 161:1.0 162:1.0 
-0.0 -0.0 -0.15183293947536963 -0.0 -0.0 -0.0 -1.0 1:1.0 2:0.33 4:0.33 7:0.33 9:0.25 10:0.5 13:0.2 18:0.5 19:0.33 21:0.25 22:0.67 27:0.5 28:0.4 32:0.25 37:1.0 41:0.25 43:0.67 44:0.33 49:0.5 52:0.5 53:0.5 54:0.5 55:0.33 60:0.5 62:0.33 68:0.5 69:1.0 70:0.67 74:0.33 76:0.2 82:0.5 86:1.0 87:0.5 90:0.25 92:0.25 93:0.25 98:0.33 99:0.33 100:0.33 101:0.33 102:0.25 106:0.25 108:0.33 109:0.25 110:0.2 119:1.0 123:1.0 125:0.5 126:0.5 128:1.0 129:1.0 132:0.1 137:0.5 139:1.0 141:0.5 143:0.67 145:1.0 146:1.0 147:1.0 148:0.5 159:1.0 161:0.5 162:1.0 
-0.0 -1.0 -1.0 -1.0 -0.27317219575729496 -0.884145397827052 -1.0 1:0.5 69:0.5 86:1.0 125:0.5 129:0.5 141:0.5 143:0.33 145:0.5 147:0.2 159:0.25 161:0.5 
-0.0 -0.0 -1.0 -0.0 -0.0 -0.0 -1.0 1:1.0 2:0.33 4:0.33 7:0.33 9:0.25 10:0.5 13:0.2 18:0.5 19:0.33 21:0.25 22:0.67 27:0.5 28:0.4 32:0.25 37:1.0 41:0.25 43:0.67 44:0.33 49:0.5 52:0.5 53:0.5 54:0.5 55:0.33 60:0.5 62:0.33 68:0.5 69:1.0 70:0.67 74:0.33 76:0.2 82:0.5 86:1.0 87:0.5 90:0.25 92:0.25 93:0.25 98:0.33 99:0.33 100:0.33 101:0.33 102:0.25 106:0.25 108:0.33 109:0.25 110:0.2 119:1.0 123:1.0 125:0.5 126:0.5 128:1.0 129:1.0 132:0.1 137:0.5 139:1.0 141:0.5 143:0.67 145:1.0 146:1.0 147:1.0 148:0.5 159:1.0 161:0.5 162:1.0 
-0.0 -1.0 -1.0 -1.0 -1.0 -1.0 -1.0 5:0.33 14:0.2 15:0.33 18:0.5 39:0.25 42:0.25 44:0.33 45:0.2 47:0.33 73:0.2 78:0.25 81:0.17 110:0.2 115:0.2 117:0.2 118:0.17 121:0.2 123:0.5 131:0.33 134:0.25 136:0.2 137:1.0 138:0.2 146:1.0 149:0.17 150:0.33 152:0.17 154:0.14 155:0.17 164:0.2 
-0.0 -0.0 -1.0 -0.4536250145338324 -0.0 -0.0 -0.0 1:0.5 2:0.33 3:0.33 5:1.0 7:0.67 8:0.33 9:0.25 11:0.5 12:0.17 13:0.4 14:0.2 15:0.33 16:0.5 17:1.0 18:0.5 19:0.33 20:0.17 21:0.25 25:0.14 28:0.2 29:0.33 30:0.67 32:0.5 35:0.17 38:0.25 39:0.25 40:1.0 41:0.5 42:0.25 44:0.67 45:0.2 47:1.0 50:0.33 52:0.5 53:0.5 54:0.5 56:0.33 57:0.5 58:0.33 59:1.0 62:0.33 66:0.5 69:0.5 71:0.2 73:0.2 74:0.33 76:0.4 77:1.0 78:0.25 80:0.25 81:0.17 83:0.14 84:0.67 85:0.5 86:1.0 88:0.33 89:1.0 90:0.25 91:0.5 92:0.25 93:0.25 94:0.17 95:1.0 96:0.14 98:0.33 99:0.33 100:0.33 101:0.67 102:0.5 103:0.67 104:0.17 105:1.0 106:0.75 107:0.5 109:0.5 110:0.6 111:0.17 112:0.5 113:0.33 115:0.4 116:1.0 117:0.2 118:0.33 121:0.4 122:0.5 123:0.5 124:0.5 125:1.0 126:0.5 129:0.5 130:1.0 131:0.33 133:0.17 134:0.25 136:0.4 137:1.0 138:0.2 140:0.2 141:1.0 143:0.67 144:0.33 145:0.5 146:1.0 147:0.2 148:0.5 149:0.17 150:0.33 152:0.33 154:0.29 155:0.33 157:1.0 159:0.25 160:1.0 161:1.0 164:0.2 
-0.0 -0.0 -0.18968955285551806 -0.0 -0.0 -0.0 -0.0 1:0.5 2:0.33 4:0.33 5:0.33 7:0.67 9:0.75 10:1.0 13:0.6 16:1.0 18:0.5 19:0.67 21:0.5 22:0.67 27:0.5 28:0.8 29:0.67 30:0.33 32:0.5 37:1.0 40:0.5 41:0.5 43:0.67 44:0.33 49:0.5 52:1.0 53:1.0 54:1.0 55:0.67 60:1.0 62:1.0 68:0.5 69:0.5 70:1.0 74:0.33 76:0.6 82:0.5 87:1.0 89:0.33 90:0.75 92:0.25 93:0.75 98:0.67 99:1.0 100:0.67 101:0.67 102:0.75 103:0.33 106:0.5 108:0.67 109:0.5 110:0.4 113:0.67 120:1.0 123:1.0 125:0.5 126:1.0 127:1.0 128:1.0 129:0.5 132:0.1 137:0.5 139:1.0 140:1.0 143:0.67 145:0.5 146:1.0 148:0.5 157:1.0 
-0.0 -0.5969003606068873 -0.07912054905720026 -1.0 -0.0 -0.5341532742121521 -0.0 1:0.5 3:0.33 4:0.33 5:0.33 7:0.33 9:0.5 11:0.25 12:0.17 13:0.2 14:0.2 15:0.33 16:0.5 17:0.5 20:0.17 22:0.33 25:0.14 26:1.0 28:0.4 29:0.33 30:0.33 31:1.0 32:0.5 37:0.5 38:0.25 39:0.25 40:0.5 41:0.25 42:0.25 43:0.33 45:0.2 47:0.33 49:0.5 50:0.33 51:0.5 52:1.0 53:0.5 54:1.0 55:0.33 57:0.5 58:0.33 59:1.0 60:0.5 61:0.5 62:0.33 65:1.0 66:0.5 67:0.5 68:0.5 70:0.33 71:0.2 73:0.2 75:0.5 76:0.6 78:0.25 80:0.25 81:0.17 82:0.5 84:0.33 85:1.0 88:0.67 89:0.67 90:0.25 91:0.5 93:0.25 96:0.14 98:0.67 99:0.67 100:0.33 101:1.0 102:0.25 103:0.67 104:0.17 106:0.5 107:0.5 109:0.25 110:0.2 111:0.17 113:0.33 115:0.4 117:0.2 118:0.17 121:0.4 122:0.5 125:0.5 126:1.0 129:0.5 130:1.0 131:0.33 132:0.1 133:0.33 134:0.25 136:0.2 138:0.2 140:0.2 143:0.67 149:0.17 152:0.33 153:1.0 154:0.29 155:0.33 157:1.0 164:0.2 
-0.0 -0.0 -0.552837978059876 -1.0 -0.0 -0.0 -1.0 1:0.5 2:0.33 3:0.33 4:0.33 5:1.0 7:0.67 8:0.33 9:0.25 11:0.5 12:0.33 13:0.4 14:0.2 15:0.33 16:0.5 17:1.0 19:0.33 20:0.33 21:0.25 25:0.29 28:0.2 29:0.33 30:0.67 31:1.0 32:0.5 35:0.17 38:0.5 39:0.25 40:1.0 41:0.5 42:0.25 44:0.67 45:0.2 47:1.0 50:0.67 51:0.5 52:0.5 53:0.5 54:0.5 56:0.33 57:0.5 58:0.67 59:1.0 61:0.5 62:0.33 65:1.0 66:0.5 67:0.5 69:0.5 71:0.4 73:0.2 74:0.33 75:0.5 76:0.4 77:1.0 78:0.25 80:0.5 81:0.17 83:0.14 84:0.67 85:0.5 86:1.0 88:0.67 89:1.0 90:0.25 91:0.5 92:0.25 93:0.25 94:0.17 95:1.0 96:0.29 98:0.33 99:0.33 100:0.33 101:0.67 102:0.5 103:0.67 104:0.33 105:1.0 106:0.75 107:0.5 109:0.5 110:0.6 111:0.33 112:0.5 113:0.33 115:0.4 116:1.0 117:0.2 118:0.33 121:0.4 122:0.5 124:0.5 125:1.0 126:0.5 129:0.5 130:1.0 131:0.33 133:0.17 134:0.25 136:0.4 137:0.5 138:0.2 140:0.2 141:1.0 143:0.67 144:0.33 145:0.5 147:0.2 148:0.5 149:0.17 150:0.33 152:0.33 154:0.29 155:0.33 157:1.0 159:0.25 160:1.0 161:1.0 164:0.2 
-0.0 -1.0 -0.0 -0.0 -0.0 -0.0 -0.0 2:0.33 3:0.33 5:0.67 7:0.67 8:0.33 9:0.25 11:0.5 12:0.17 13:0.4 16:0.5 17:1.0 19:0.33 20:0.17 21:0.25 25:0.14 28:0.2 29:0.33 30:0.67 32:0.5 35:0.17 38:0.25 40:1.0 41:0.5 44:0.33 47:0.67 50:0.33 52:0.5 53:0.5 54:0.5 56:0.33 57:0.5 58:0.33 59:1.0 62:0.33 66:0.5 71:0.2 74:0.33 76:0.4 77:1.0 80:0.25 83:0.14 84:0.67 85:0.5 88:0.33 89:1.0 90:0.25 91:0.5 92:0.25 93:0.25 94:0.17 95:1.0 96:0.14 98:0.33 99:0.33 100:0.33 101:0.67 102:0.5 103:0.67 104:0.17 105:1.0 106:0.75 107:0.5 109:0.5 110:0.4 111:0.17 112:0.5 113:0.33 115:0.2 116:1.0 118:0.17 121:0.2 122:0.5 124:0.5 125:0.5 126:0.5 130:1.0 133:0.17 136:0.2 140:0.2 141:0.5 143:0.33 144:0.33 148:0.5 152:0.17 154:0.14 155:0.17 157:1.0 160:1.0 161:0.5 
-0.0 -1.0 -1.0 -1.0 -1.0 -0.0 -1.0 2:0.33 5:0.33 7:0.33 8:0.33 11:0.25 12:0.17 13:0.2 17:0.5 18:0.5 19:0.33 20:0.17 21:0.25 25:0.14 27:0.5 30:0.33 35:0.17 38:0.25 40:0.5 41:0.25 44:0.33 47:0.33 50:0.33 56:0.33 58:0.33 71:0.2 74:0.67 77:1.0 80:0.25 83:0.14 84:0.33 88:0.33 89:0.33 92:0.5 94:0.17 95:1.0 96:0.14 102:0.25 104:0.17 105:1.0 106:0.25 107:0.5 109:0.25 110:0.2 111:0.17 112:0.5 116:1.0 123:0.5 124:0.5 137:0.5 139:1.0 141:0.5 144:0.33 146:1.0 148:0.5 160:1.0 161:0.5 
-0.0 -0.0 -0.0 -0.0 -0.0 -0.0 -1.0 1:0.5 2:0.67 3:0.33 4:0.33 5:0.67 7:1.0 8:0.33 9:0.25 10:0.5 11:0.5 12:0.17 13:0.6 16:0.5 17:1.0 19:0.67 20:0.17 21:0.5 22:0.33 25:0.14 28:0.4 29:0.33 30:0.67 32:0.75 35:0.17 37:0.5 38:0.25 40:1.0 41:0.75 43:0.33 44:0.67 47:0.67 50:0.33 52:0.5 53:1.0 54:0.5 56:0.33 57:0.5 58:0.33 59:1.0 62:0.67 66:0.5 69:1.0 70:0.33 71:0.2 74:0.33 76:0.4 77:1.0 80:0.25 83:0.14 84:0.67 85:0.5 86:1.0 87:0.5 88:0.33 89:1.0 90:0.5 91:0.5 92:0.25 93:0.5 94:0.17 95:1.0 96:0.14 98:0.33 99:0.33 100:0.67 101:0.67 102:0.75 103:0.67 104:0.17 105:1.0 106:1.0 107:0.5 108:0.33 109:0.75 110:0.6 111:0.17 112:0.5 113:0.33 115:0.2 116:1.0 118:0.17 119:1.0 121:0.2 122:0.5 123:0.5 124:0.5 125:1.0 126:0.5 128:1.0 129:0.5 130:1.0 133:0.17 136:0.2 140:0.2 141:1.0 143:0.67 144:0.33 145:1.0 147:1.0 148:1.0 152:0.17 154:0.14 155:0.17 157:1.0 159:1.0 160:1.0 161:1.0 162:1.0 
-0.0 -0.0 -0.035641085879858675 -0.0 -0.0 -0.0 -0.0 1:1.0 2:0.33 3:0.33 4:0.33 5:0.33 7:0.67 9:0.75 10:1.0 11:0.25 13:0.6 16:1.0 17:0.5 18:0.5 19:0.67 21:0.5 22:0.67 27:0.5 28:0.8 29:0.67 30:0.33 32:0.75 37:1.0 40:0.5 41:0.5 43:0.67 44:0.33 47:0.33 49:0.5 52:1.0 53:1.0 54:1.0 55:0.67 57:0.5 59:1.0 60:1.0 62:1.0 66:0.5 68:0.5 69:1.0 70:1.0 74:0.33 76:0.8 82:0.5 84:0.33 85:0.5 86:1.0 87:1.0 89:0.67 90:0.75 91:0.5 92:0.25 93:0.75 98:0.67 99:1.0 100:0.67 101:1.0 102:0.75 103:0.67 106:0.75 108:0.67 109:0.5 110:0.4 113:0.67 115:0.2 118:0.17 120:1.0 121:0.2 122:0.5 123:1.0 125:1.0 126:1.0 127:1.0 128:1.0 129:1.0 130:1.0 132:0.1 133:0.17 136:0.2 137:0.5 139:1.0 140:1.0 141:0.5 143:1.0 145:1.0 146:1.0 147:0.2 148:0.5 152:0.17 154:0.14 155:0.17 157:1.0 159:0.25 161:0.5 
-0.0 -0.0 -0.034349834080736705 -0.0 -0.0 -0.0 -0.0 1:0.5 3:0.33 5:0.33 7:0.33 9:0.25 11:0.25 13:0.2 16:0.5 17:0.5 28:0.2 29:0.33 30:0.33 32:0.5 40:0.5 41:0.25 47:0.33 52:0.5 53:0.5 54:0.5 57:0.5 59:1.0 62:0.33 66:0.5 69:0.5 76:0.4 84:0.33 85:0.5 86:1.0 89:0.67 90:0.25 91:0.5 93:0.25 98:0.33 99:0.33 100:0.33 101:0.67 102:0.25 103:0.67 106:0.5 109:0.25 110:0.2 113:0.33 115:0.2 118:0.17 121:0.2 122:0.5 125:1.0 126:0.5 129:0.5 130:1.0 133:0.17 136:0.2 140:0.2 141:0.5 143:0.67 145:0.5 147:0.2 152:0.17 154:0.14 155:0.17 157:1.0 159:0.25 161:0.5 
-0.0 -0.0 -0.0 -0.0 -0.0 -0.0 -1.0 1:0.5 2:0.33 5:0.67 7:0.67 8:0.33 9:0.25 11:0.25 12:0.17 13:0.4 16:0.5 17:0.5 19:0.33 20:0.17 21:0.25 25:0.14 27:0.5 28:0.2 29:0.33 30:0.67 32:0.25 35:0.17 38:0.25 40:1.0 41:0.5 44:0.33 47:0.33 50:0.33 52:0.5 53:0.5 54:0.5 56:0.33 58:0.33 62:0.33 69:0.5 71:0.2 74:0.67 76:0.2 77:1.0 80:0.25 83:0.14 84:0.33 86:1.0 88:0.33 89:0.67 90:0.25 92:0.5 93:0.25 94:0.17 95:1.0 96:0.14 98:0.33 99:0.33 100:0.33 101:0.33 102:0.5 103:0.33 104:0.17 105:1.0 106:0.5 107:0.5 109:0.5 110:0.4 111:0.17 112:0.5 113:0.33 116:1.0 124:0.5 125:1.0 126:0.5 129:0.5 132:0.1 139:1.0 140:0.2 141:1.0 143:0.67 144:0.33 145:0.5 147:0.2 148:0.5 157:1.0 159:0.25 160:1.0 161:1.0 
-0.0 -1.0 -0.0 -0.0 -0.0 -0.0 -0.0 2:0.33 3:0.33 5:0.67 7:0.67 8:0.33 9:0.25 11:0.5 12:0.17 13:0.4 16:0.5 17:1.0 19:0.33 20:0.17 21:0.25 25:0.14 28:0.2 29:0.33 30:0.67 32:0.5 35:0.17 38:0.25 40:1.0 41:0.5 44:0.33 47:0.67 50:0.33 52:0.5 53:0.5 54:0.5 56:0.33 57:0.5 58:0.33 59:1.0 62:0.33 66:0.5 71:0.2 74:0.33 76:0.4 77:1.0 80:0.25 83:0.14 84:0.67 85:0.5 88:0.33 89:1.0 90:0.25 91:0.5 92:0.25 93:0.25 94:0.17 95:1.0 96:0.14 98:0.33 99:0.33 100:0.33 101:0.67 102:0.5 103:0.67 104:0.17 105:1.0 106:0.75 107:0.5 109:0.5 110:0.4 111:0.17 112:0.5 113:0.33 115:0.2 116:1.0 118:0.17 121:0.2 122:0.5 124:0.5 125:0.5 126:0.5 130:1.0 133:0.17 136:0.2 140:0.2 141:0.5 143:0.33 144:0.33 148:0.5 152:0.17 154:0.14 155:0.17 157:1.0 160:1.0 161:0.5 
-0.0 -0.8507062603567758 -0.0 -0.6070645396403493 -0.2450501744875396 -0.0 -0.0 2:0.33 3:0.33 5:0.67 7:0.67 8:0.33 9:0.25 11:0.5 12:0.17 13:0.4 16:0.5 17:1.0 19:0.33 20:0.17 21:0.25 25:0.14 28:0.2 29:0.33 30:0.67 32:0.5 35:0.17 38:0.25 40:1.0 41:0.5 44:0.33 47:0.67 50:0.33 52:0.5 53:0.5 54:0.5 56:0.33 57:0.5 58:0.33 59:1.0 62:0.33 66:0.5 71:0.2 74:0.33 76:0.4 77:1.0 80:0.25 83:0.14 84:0.67 85:0.5 88:0.33 89:1.0 90:0.25 91:0.5 92:0.25 93:0.25 94:0.17 95:1.0 96:0.14 98:0.33 99:0.33 100:0.33 101:0.67 102:0.5 103:0.67 104:0.17 105:1.0 106:0.75 107:0.5 109:0.5 110:0.4 111:0.17 112:0.5 113:0.33 115:0.2 116:1.0 118:0.17 121:0.2 122:0.5 124:0.5 125:0.5 126:0.5 130:1.0 133:0.17 136:0.2 140:0.2 141:0.5 143:0.33 144:0.33 148:0.5 152:0.17 154:0.14 155:0.17 157:1.0 160:1.0 161:0.5 
-1.0 -0.0 -0.0 -0.9027823928583826 -1.0 -0.0 -0.0 2:0.33 3:0.33 5:0.67 7:0.67 8:0.33 9:0.25 11:0.5 12:0.17 13:0.4 16:0.5 17:1.0 19:0.33 20:0.17 21:0.25 25:0.14 28:0.2 29:0.33 30:0.67 32:0.5 35:0.17 38:0.25 40:1.0 41:0.5 44:0.33 47:0.67 50:0.33 52:0.5 53:0.5 54:0.5 56:0.33 57:0.5 58:0.33 59:1.0 62:0.33 66:0.5 71:0.2 74:0.33 76:0.4 77:1.0 80:0.25 83:0.14 84:0.67 85:0.5 88:0.33 89:1.0 90:0.25 91:0.5 92:0.25 93:0.25 94:0.17 95:1.0 96:0.14 98:0.33 99:0.33 100:0.33 101:0.67 102:0.5 103:0.67 104:0.17 105:1.0 106:0.75 107:0.5 109:0.5 110:0.4 111:0.17 112:0.5 113:0.33 115:0.2 116:1.0 118:0.17 121:0.2 122:0.5 124:0.5 125:0.5 126:0.5 130:1.0 133:0.17 136:0.2 140:0.2 141:0.5 143:0.33 144:0.33 148:0.5 152:0.17 154:0.14 155:0.17 157:1.0 160:1.0 161:0.5 
-1.0 -0.0 -0.0 -0.0 -0.0 -0.0 -0.0 1:1.0 5:0.33 7:0.33 9:0.75 10:0.5 13:0.4 16:1.0 19:0.33 21:0.25 22:0.33 28:0.6 29:0.67 30:0.33 32:0.25 37:0.5 40:0.5 41:0.25 43:0.33 49:0.5 52:1.0 53:0.5 54:1.0 55:0.67 60:1.0 62:0.67 68:0.5 69:0.5 70:0.67 76:0.6 82:0.5 86:1.0 87:0.5 89:0.33 90:0.5 93:0.5 98:0.67 99:1.0 100:0.33 101:0.67 102:0.5 103:0.33 106:0.25 108:0.33 109:0.25 110:0.2 113:0.67 119:1.0 120:1.0 125:1.0 126:1.0 127:1.0 129:1.0 132:0.1 140:1.0 141:0.5 143:1.0 145:0.5 147:1.0 157:1.0 159:1.0 161:0.5 162:1.0 
-0.0 -0.0 -1.0 -0.0 -0.0 -0.0 -0.0 1:0.5 2:0.33 3:0.33 4:0.33 5:0.33 7:0.67 9:0.5 10:0.5 11:0.25 13:0.4 16:0.5 17:0.5 18:0.5 19:0.33 21:0.25 22:0.67 27:0.5 28:0.6 29:0.33 30:0.33 32:0.75 37:1.0 40:0.5 41:0.5 43:0.67 44:0.33 47:0.33 49:0.5 52:1.0 53:1.0 54:1.0 55:0.33 57:0.5 59:1.0 60:0.5 62:0.67 66:0.5 68:0.5 69:0.5 70:0.67 74:0.33 76:0.6 82:0.5 84:0.33 85:0.5 87:0.5 89:0.67 90:0.5 91:0.5 92:0.25 93:0.5 98:0.67 99:0.67 100:0.67 101:1.0 102:0.5 103:0.67 106:0.75 108:0.33 109:0.5 110:0.4 113:0.33 115:0.2 118:0.17 121:0.2 122:0.5 123:1.0 125:0.5 126:1.0 128:1.0 129:0.5 130:1.0 132:0.1 133:0.17 136:0.2 137:0.5 139:1.0 140:0.2 143:0.67 145:0.5 146:1.0 148:0.5 152:0.17 154:0.14 155:0.17 157:1.0 
-0.0 -0.0 -0.0 -0.0 -0.0 -0.0 -1.0 1:0.5 2:0.33 5:0.67 7:0.67 8:0.33 9:0.25 11:0.25 12:0.17 13:0.4 16:0.5 17:0.5 19:0.33 20:0.17 21:0.25 25:0.14 27:0.5 28:0.2 29:0.33 30:0.67 32:0.25 35:0.17 38:0.25 40:1.0 41:0.5 44:0.33 47:0.33 50:0.33 52:0.5 53:0.5 54:0.5 56:0.33 58:0.33 62:0.33 69:0.5 71:0.2 74:0.67 76:0.2 77:1.0 80:0.25 83:0.14 84:0.33 86:1.0 88:0.33 89:0.67 90:0.25 92:0.5 93:0.25 94:0.17 95:1.0 96:0.14 98:0.33 99:0.33 100:0.33 101:0.33 102:0.5 103:0.33 104:0.17 105:1.0 106:0.5 107:0.5 109:0.5 110:0.4 111:0.17 112:0.5 113:0.33 116:1.0 124:0.5 125:1.0 126:0.5 129:0.5 132:0.1 139:1.0 140:0.2 141:1.0 143:0.67 144:0.33 145:0.5 147:0.2 148:0.5 157:1.0 159:0.25 160:1.0 161:1.0 
-0.0 -0.0 -1.0 -1.0 -0.0 -0.0 -0.0 1:0.5 2:0.33 3:0.33 5:1.0 7:0.67 8:0.33 9:0.25 11:0.5 12:0.17 13:0.4 14:0.2 15:0.33 16:0.5 17:1.0 18:0.5 19:0.33 20:0.17 21:0.25 25:0.14 27:0.5 28:0.2 29:0.33 30:0.67 32:0.5 35:0.17 38:0.25 39:0.25 40:1.0 41:0.5 42:0.25 44:0.67 45:0.2 47:1.0 50:0.33 52:0.5 53:0.5 54:0.5 56:0.33 57:0.5 58:0.33 59:1.0 62:0.33 66:0.5 69:0.5 71:0.2 73:0.2 74:0.67 76:0.4 77:1.0 78:0.25 80:0.25 81:0.17 83:0.14 84:0.67 85:0.5 86:1.0 88:0.33 89:1.0 90:0.25 91:0.5 92:0.5 93:0.25 94:0.17 95:1.0 96:0.14 98:0.33 99:0.33 100:0.33 101:0.67 102:0.5 103:0.67 104:0.17 105:1.0 106:0.75 107:0.5 109:0.5 110:0.6 111:0.17 112:0.5 113:0.33 115:0.4 116:1.0 117:0.2 118:0.33 121:0.4 122:0.5 123:0.5 124:0.5 125:1.0 126:0.5 129:0.5 130:1.0 131:0.33 133:0.17 134:0.25 136:0.4 137:1.0 138:0.2 139:1.0 140:0.2 141:1.0 143:0.67 144:0.33 145:0.5 146:1.0 147:0.2 148:0.5 149:0.17 150:0.33 152:0.33 154:0.29 155:0.33 157:1.0 159:0.25 160:1.0 161:1.0 164:0.2 
-0.0 -1.0 -0.0 -0.0 -1.0 -1.0 -0.0 1:0.5 2:0.33 3:0.33 5:0.67 6:0.5 7:0.67 8:0.33 9:0.25 11:0.5 12:0.17 13:0.4 16:0.5 17:0.5 19:0.33 20:0.17 21:0.25 24:1.0 25:0.29 27:0.5 28:0.2 29:0.33 30:0.67 32:0.25 35:0.33 38:0.25 40:1.0 41:0.5 44:0.33 46:0.5 47:0.33 48:0.5 50:0.67 51:0.5 52:0.5 53:0.5 54:0.5 56:0.67 57:0.5 58:0.33 62:0.33 64:1.0 69:0.5 71:0.2 74:0.67 76:0.2 77:1.0 80:0.25 83:0.14 84:0.33 86:1.0 88:0.33 89:0.67 90:0.25 92:0.75 93:0.25 94:0.33 95:1.0 96:0.14 97:1.0 98:0.33 99:0.33 100:0.33 101:0.33 102:0.5 103:0.33 104:0.17 105:1.0 106:0.5 107:0.5 109:0.5 110:0.4 111:0.33 112:0.5 113:0.33 114:1.0 116:1.0 122:0.5 124:1.0 125:1.0 126:0.5 129:0.5 132:0.2 139:1.0 140:0.2 141:1.0 142:1.0 143:0.67 144:0.67 145:0.5 147:0.2 148:0.5 150:0.33 151:1.0 156:0.5 157:1.0 158:0.5 159:0.25 160:1.0 161:1.0 163:0.5 
-0.0 -1.0 -0.21420601463338393 -0.9034924197670962 -1.0 -1.0 -0.0 1:0.5 2:0.67 3:1.0 4:0.67 5:1.0 6:0.5 7:1.0 8:0.33 9:0.5 10:1.0 11:1.0 12:0.5 13:0.8 14:0.2 15:0.33 16:1.0 17:1.0 19:1.0 20:0.5 21:0.75 22:0.33 24:1.0 25:0.57 27:0.5 28:0.6 29:0.67 30:0.67 31:1.0 32:0.75 35:0.5 36:1.0 37:0.5 38:0.75 39:0.25 40:1.0 41:0.75 42:0.25 43:0.33 44:1.0 45:0.2 46:1.0 47:1.0 48:1.0 50:1.0 51:1.0 52:0.5 53:1.0 54:0.5 55:0.33 56:1.0 57:1.0 58:0.67 59:1.0 60:0.5 61:0.5 62:1.0 63:1.0 64:1.0 65:1.0 66:0.5 67:0.5 69:1.0 70:0.67 71:0.6 72:1.0 73:0.2 74:0.67 75:0.5 76:0.6 77:1.0 78:0.25 80:0.75 81:0.17 82:0.5 83:0.29 84:1.0 85:0.5 86:1.0 87:1.0 88:0.67 89:1.0 90:0.75 91:1.0 92:0.75 93:0.75 94:0.5 95:1.0 96:0.43 97:1.0 98:0.33 99:0.67 100:0.67 101:0.67 102:1.0 103:0.67 104:0.5 105:1.0 106:1.0 107:0.5 108:0.67 109:0.75 110:0.8 111:0.67 112:1.0 113:0.67 114:1.0 115:0.4 116:1.0 117:0.2 118:0.33 120:1.0 121:0.4 122:1.0 123:0.5 124:1.0 125:1.0 126:0.5 127:1.0 128:1.0 129:0.5 130:1.0 131:0.33 132:0.2 133:0.17 134:0.25 135:1.0 136:0.4 137:0.5 138:0.2 140:1.0 141:1.0 142:1.0 143:0.67 144:1.0 145:1.0 147:0.2 148:1.0 149:0.17 150:1.0 151:1.0 152:0.33 154:0.29 155:0.33 156:1.0 157:1.0 158:1.0 159:0.25 160:1.0 161:1.0 163:1.0 164:0.2 
-0.0 -1.0 -0.0 -1.0 -1.0 -1.0 -0.4615468319113023 1:1.0 3:0.33 6:0.5 9:0.25 11:0.25 22:0.33 24:1.0 25:0.14 27:0.5 28:0.2 35:0.17 37:0.5 43:0.33 46:0.5 48:0.5 49:0.5 50:0.33 51:0.5 52:0.5 54:0.5 55:0.33 56:0.33 57:0.5 60:0.5 64:1.0 68:0.5 69:0.5 70:0.33 74:0.33 76:0.2 82:0.5 86:1.0 92:0.5 94:0.17 97:1.0 98:0.33 99:0.33 101:0.33 111:0.17 114:1.0 122:0.5 124:0.5 125:0.5 126:0.5 129:1.0 132:0.6 139:1.0 141:0.5 142:1.0 143:0.67 144:0.33 145:0.5 147:0.2 150:0.33 151:1.0 156:0.5 158:0.5 159:0.25 161:0.5 163:0.5 
-1.0 -0.0 -0.0 -0.0 -0.0 -0.0 -0.0 1:1.0 2:0.33 3:0.33 4:0.33 5:0.33 7:0.67 9:0.75 10:1.0 11:0.25 13:0.6 16:1.0 17:0.5 19:0.67 21:0.5 22:0.67 27:0.5 28:0.8 29:0.67 30:0.33 32:0.75 37:1.0 40:0.5 41:0.5 43:0.67 44:0.33 47:0.33 49:0.5 52:1.0 53:1.0 54:1.0 55:0.67 57:0.5 59:1.0 60:1.0 62:1.0 66:0.5 68:0.5 69:1.0 70:1.0 74:0.33 76:0.8 82:0.5 84:0.33 85:0.5 86:1.0 87:1.0 89:0.67 90:0.75 91:0.5 92:0.25 93:0.75 98:0.67 99:1.0 100:0.67 101:1.0 102:0.75 103:0.67 106:0.75 108:0.67 109:0.5 110:0.4 113:0.67 115:0.2 118:0.17 120:1.0 121:0.2 122:0.5 123:0.5 125:1.0 126:1.0 127:1.0 128:1.0 129:1.0 130:1.0 132:0.1 133:0.17 136:0.2 139:1.0 140:1.0 141:0.5 143:1.0 145:1.0 147:0.2 148:0.5 152:0.17 154:0.14 155:0.17 157:1.0 159:0.25 161:0.5 
-0.0 -0.0 -1.0 -1.0 -0.0 -0.0 -0.0 2:0.67 4:0.33 5:1.0 7:1.0 8:0.33 9:0.5 10:1.0 11:0.25 12:0.17 13:0.8 14:0.2 15:0.33 16:1.0 17:0.5 18:0.5 19:1.0 20:0.17 21:0.75 22:0.33 25:0.14 28:0.6 29:0.67 30:0.67 32:0.5 35:0.17 37:0.5 38:0.25 39:0.25 40:1.0 41:0.75 42:0.25 43:0.33 44:1.0 45:0.2 47:0.67 50:0.33 52:0.5 53:1.0 54:0.5 55:0.33 56:0.33 58:0.33 60:0.5 62:1.0 69:0.5 70:0.67 71:0.2 73:0.2 74:0.33 76:0.4 77:1.0 78:0.25 80:0.25 81:0.17 83:0.14 84:0.33 87:1.0 88:0.33 89:0.67 90:0.75 92:0.25 93:0.75 94:0.17 95:1.0 96:0.14 98:0.33 99:0.67 100:0.67 101:0.33 102:1.0 103:0.33 104:0.17 105:1.0 106:0.75 107:0.5 108:0.67 109:0.75 110:0.8 111:0.17 112:0.5 113:0.67 115:0.2 116:1.0 117:0.2 118:0.17 120:1.0 121:0.2 123:1.0 124:0.5 125:0.5 126:0.5 127:1.0 128:1.0 131:0.33 134:0.25 136:0.2 137:1.0 138:0.2 140:1.0 141:0.5 143:0.33 144:0.33 145:0.5 146:1.0 148:1.0 149:0.17 150:0.33 152:0.17 154:0.14 155:0.17 157:1.0 160:1.0 161:0.5 164:0.2 
-0.0 -1.0 -0.0 -0.0 -1.0 -1.0 -0.0 1:1.0 3:0.33 5:0.33 7:0.33 9:0.5 11:0.25 12:0.17 13:0.2 16:0.5 20:0.17 22:0.33 25:0.14 27:1.0 28:0.4 29:0.33 30:0.33 32:0.25 35:0.17 36:1.0 37:0.5 38:0.25 40:0.5 41:0.25 43:0.33 46:0.5 48:0.5 49:0.5 52:1.0 53:0.5 54:1.0 55:0.33 56:0.33 60:0.5 62:0.33 63:1.0 68:0.5 69:0.5 70:0.33 71:0.2 72:1.0 74:0.67 76:0.4 80:0.25 82:1.0 83:0.14 84:0.33 86:1.0 89:0.33 90:0.25 91:0.5 92:0.5 93:0.25 94:0.17 96:0.14 98:0.67 99:0.67 100:0.33 101:0.67 102:0.25 103:0.33 104:0.17 106:0.25 109:0.25 110:0.2 111:0.17 112:0.5 113:0.33 125:1.0 126:1.0 129:1.0 132:0.6 135:1.0 139:1.0 140:0.2 141:0.5 143:1.0 144:0.33 145:0.5 147:0.2 150:0.33 156:0.5 157:1.0 158:0.5 159:0.25 161:0.5 163:0.5 
-0.0 -0.0 -0.0 -0.0 -0.0 -0.0 -0.6508050760357195 1:0.5 2:0.33 5:0.67 7:0.67 8:0.33 9:0.25 11:0.25 12:0.17 13:0.4 16:0.5 17:0.5 19:0.33 20:0.17 21:0.25 25:0.14 27:0.5 28:0.2 29:0.33 30:0.67 32:0.25 35:0.17 38:0.25 40:1.0 41:0.5 44:0.33 47:0.33 50:0.33 52:0.5 53:0.5 54:0.5 56:0.33 58:0.33 62:0.33 69:0.5 71:0.2 74:0.67 76:0.2 77:1.0 80:0.25 83:0.14 84:0.33 86:1.0 88:0.33 89:0.67 90:0.25 92:0.5 93:0.25 94:0.17 95:1.0 96:0.14 98:0.33 99:0.33 100:0.33 101:0.33 102:0.5 103:0.33 104:0.17 105:1.0 106:0.5 107:0.5 109:0.5 110:0.4 111:0.17 112:0.5 113:0.33 116:1.0 124:0.5 125:1.0 126:0.5 129:0.5 132:0.1 139:1.0 140:0.2 141:1.0 143:0.67 144:0.33 145:0.5 147:0.2 148:0.5 157:1.0 159:0.25 160:1.0 161:1.0 
-0.0 -0.0 -0.14491499518737727 -0.0 -0.0 -0.0 -0.0 2:0.67 3:0.33 4:0.33 5:0.67 7:1.0 8:0.33 9:0.25 10:0.5 11:0.5 12:0.17 13:0.6 16:0.5 17:1.0 19:0.67 20:0.17 21:0.5 22:0.33 25:0.14 28:0.4 29:0.33 30:0.67 32:0.75 35:0.17 37:0.5 38:0.25 40:1.0 41:0.75 43:0.33 44:0.67 47:0.67 50:0.33 52:0.5 53:1.0 54:0.5 56:0.33 57:0.5 58:0.33 59:1.0 62:0.67 66:0.5 69:0.5 70:0.33 71:0.2 74:0.33 76:0.4 77:1.0 80:0.25 83:0.14 84:0.67 85:0.5 87:0.5 88:0.33 89:1.0 90:0.5 91:0.5 92:0.25 93:0.5 94:0.17 95:1.0 96:0.14 98:0.33 99:0.33 100:0.67 101:0.67 102:0.75 103:0.67 104:0.17 105:1.0 106:1.0 107:0.5 108:0.33 109:0.75 110:0.6 111:0.17 112:0.5 113:0.33 115:0.2 116:1.0 118:0.17 121:0.2 122:0.5 123:0.5 124:0.5 125:0.5 126:0.5 128:1.0 130:1.0 133:0.17 136:0.2 140:0.2 141:0.5 143:0.33 144:0.33 145:0.5 148:1.0 152:0.17 154:0.14 155:0.17 157:1.0 160:1.0 161:0.5 
-1.0 -0.0 -0.0 -0.0 -0.0 -0.0 -0.0 1:1.0 5:0.33 7:0.33 9:0.75 10:0.5 13:0.4 16:1.0 19:0.33 21:0.25 22:0.33 28:0.6 29:0.67 30:0.33 32:0.25 37:0.5 40:0.5 41:0.25 43:0.33 49:0.5 52:1.0 53:0.5 54:1.0 55:0.67 60:1.0 62:0.67 68:0.5 69:0.5 70:0.67 76:0.6 82:0.5 86:1.0 87:0.5 89:0.33 90:0.5 93:0.5 98:0.67 99:1.0 100:0.33 101:0.67 102:0.5 103:0.33 106:0.25 108:0.33 109:0.25 110:0.2 113:0.67 119:1.0 120:1.0 125:1.0 126:1.0 127:1.0 129:1.0 132:0.1 140:1.0 141:0.5 143:1.0 145:0.5 147:1.0 157:1.0 159:1.0 161:0.5 162:1.0 
-0.0 -1.0 -0.0 -0.0 -1.0 -1.0 -0.0 1:0.5 2:0.67 3:0.67 4:0.33 5:0.67 6:0.5 7:1.0 8:0.33 9:0.25 10:0.5 11:0.75 12:0.33 13:0.6 16:0.5 17:0.5 19:0.67 20:0.33 21:0.5 22:0.33 24:1.0 25:0.43 27:1.0 28:0.4 29:0.33 30:0.67 32:0.5 35:0.5 36:1.0 37:0.5 38:0.5 40:1.0 41:0.75 43:0.33 44:0.67 46:1.0 47:0.33 48:1.0 50:0.67 51:0.5 52:0.5 53:1.0 54:0.5 56:1.0 57:0.5 58:0.33 62:0.67 63:1.0 64:1.0 69:1.0 70:0.33 71:0.4 72:1.0 74:1.0 76:0.2 77:1.0 80:0.5 82:0.5 83:0.29 84:0.67 86:1.0 87:0.5 88:0.33 89:0.67 90:0.5 91:0.5 92:1.0 93:0.5 94:0.5 95:1.0 96:0.29 97:1.0 98:0.33 99:0.33 100:0.67 101:0.33 102:0.75 103:0.33 104:0.33 105:1.0 106:0.75 107:0.5 108:0.33 109:0.75 110:0.6 111:0.5 112:1.0 113:0.33 114:1.0 116:1.0 122:0.5 123:0.5 124:1.0 125:1.0 126:0.5 128:1.0 129:0.5 132:0.6 135:1.0 139:1.0 140:0.2 141:1.0 142:1.0 143:0.67 144:1.0 145:1.0 147:0.2 148:1.0 150:0.67 151:1.0 156:1.0 157:1.0 158:1.0 159:0.25 160:1.0 161:1.0 163:1.0 
-1.0 -0.0 -0.3869976682851574 -0.0 -0.0 -0.0 -0.8876480920529782 2:0.67 4:0.33 5:0.67 7:1.0 8:0.33 9:0.5 10:1.0 11:0.25 12:0.17 13:0.8 16:1.0 17:0.5 19:1.0 20:0.17 21:0.75 22:0.33 25:0.14 28:0.6 29:0.67 30:0.67 32:0.5 35:0.17 37:0.5 38:0.25 40:1.0 41:0.75 43:0.33 44:0.67 47:0.33 50:0.33 52:0.5 53:1.0 54:0.5 55:0.33 56:0.33 58:0.33 60:0.5 62:1.0 69:0.5 70:0.67 71:0.2 74:0.33 76:0.4 77:1.0 80:0.25 83:0.14 84:0.33 87:1.0 88:0.33 89:0.67 90:0.75 92:0.25 93:0.75 94:0.17 95:1.0 96:0.14 98:0.33 99:0.67 100:0.67 101:0.33 102:1.0 103:0.33 104:0.17 105:1.0 106:0.75 107:0.5 108:0.67 109:0.75 110:0.6 111:0.17 112:0.5 113:0.67 116:1.0 120:1.0 123:0.5 124:0.5 125:0.5 126:0.5 127:1.0 128:1.0 140:1.0 141:0.5 143:0.33 144:0.33 145:0.5 148:1.0 157:1.0 160:1.0 161:0.5 
