svm_type c_svc
kernel_type rbf
gamma 0.005780346820809248
nr_class 8
total_sv 142
rho 0.021332114934921237 0.7167157714988376 0.16484294388721718 -0.011323817045528954 -0.052962951410693106 0.7240070700645447 1.004426900655641 0.12292132165475651 0.09550690779004416 0.4192802309989929 -0.9531122794778591 -0.051957293203193415 0.35265024349084806 0.09825843572616577 -0.08685404333934792 -0.20409581303716803 0.5306076934287675 0.8550370603085377 -0.06952941811094922 -0.42069050669670105 -0.0950778625272159 0.08825076922091991 -0.9875666827985695 -0.032268822855842684 0.19679907436317678 0.12422938626640541 0.8311756598778235 0.9056645689641661
label 3 7 4 0 5 6 2 1
nr_sv 10 16 13 17 16 7 20 43
SV
1.0 1.0 1.0 0.5137028594093516 0.11261689587563906 1.0 1.0 3:1.0 5:0.17 7:0.2 9:0.2 13:0.14 14:0.5 15:0.5 16:0.33 17:0.33 19:0.67 20:0.5 22:0.33 25:0.5 26:0.33 27:0.25 28:0.33 29:0.33 32:0.5 33:0.33 34:0.17 36:0.33 37:0.5 38:0.33 39:1.0 40:0.67 41:0.33 42:0.33 44:0.33 47:0.2 49:0.33 50:1.0 51:0.25 52:0.25 53:0.17 54:0.17 56:0.2 57:0.33 58:0.5 63:0.2 64:0.25 65:1.0 66:0.2 67:0.17 69:0.5 71:0.14 73:0.67 74:0.5 75:0.2 78:0.67 79:0.5 83:0.17 87:0.2 93:0.33 100:0.17 101:0.17 102:0.5 103:0.25 105:0.5 106:0.5 108:0.4 111:0.25 112:0.33 114:0.25 115:0.14 116:0.5 118:0.33 119:0.5 126:0.25 127:0.33 128:1.0 129:1.0 130:0.33 135:1.0 139:0.5 141:1.0 143:1.0 145:1.0 148:0.33 152:1.0 154:1.0 155:1.0 160:0.5 163:1.0 164:1.0 167:1.0 171:0.5 
1.0 1.0 1.0 1.0 1.0 1.0 1.0 3:1.0 5:0.17 7:0.2 9:0.2 13:0.14 14:0.5 15:0.5 16:0.33 17:0.33 19:0.67 20:0.5 22:0.33 25:0.5 26:0.33 27:0.25 28:0.33 29:0.33 32:0.5 33:0.33 34:0.17 36:0.33 37:0.5 38:0.33 39:1.0 40:0.67 41:0.33 42:0.33 44:0.33 47:0.2 49:0.33 50:1.0 51:0.25 52:0.25 53:0.17 54:0.17 56:0.2 57:0.33 58:0.5 63:0.2 64:0.25 65:1.0 66:0.2 67:0.17 69:0.5 71:0.14 73:0.67 74:0.5 75:0.2 78:0.67 79:0.5 83:0.17 87:0.2 93:0.33 100:0.17 101:0.17 102:0.5 103:0.25 105:0.5 106:0.5 108:0.4 111:0.25 112:0.33 114:0.25 115:0.14 116:0.5 118:0.33 119:0.5 126:0.25 127:0.33 128:1.0 129:1.0 130:0.33 135:1.0 139:0.5 141:1.0 143:1.0 145:1.0 148:0.33 152:1.0 154:1.0 155:1.0 160:0.5 163:1.0 164:1.0 167:1.0 171:0.5 
1.0 1.0 1.0 1.0 0.0 1.0 1.0 1:0.5 3:1.0 5:0.17 7:0.2 9:0.6 11:0.5 13:0.14 14:0.75 16:0.33 17:0.33 19:1.0 20:1.0 22:0.33 23:1.0 25:0.75 26:0.33 27:0.25 28:0.67 29:0.33 32:1.0 33:0.67 34:0.17 35:0.33 36:0.67 37:0.5 38:1.0 39:1.0 40:0.67 41:0.67 42:0.33 44:0.33 45:0.67 47:0.2 49:0.67 51:0.25 52:0.25 53:0.17 54:0.17 55:0.5 56:0.2 57:0.67 58:1.0 59:0.33 60:0.5 62:0.33 63:0.2 64:0.5 65:0.5 66:0.2 67:0.17 69:0.5 71:0.14 73:0.67 74:0.5 75:0.2 78:1.0 79:1.0 80:0.4 83:0.17 85:0.67 87:0.6 89:0.5 91:0.67 93:0.33 95:0.5 100:0.17 101:0.17 102:0.5 103:0.25 105:0.5 106:1.0 107:1.0 108:0.8 111:0.75 112:0.33 114:0.75 115:0.14 116:0.75 118:0.33 119:0.5 126:0.25 127:0.33 128:0.2 129:1.0 130:0.33 136:1.0 143:0.17 145:1.0 147:0.5 148:0.33 152:1.0 154:0.2 155:0.5 159:0.5 160:0.5 163:0.5 167:0.2 171:0.5 173:1.0 
1.0 1.0 1.0 1.0 1.0 1.0 1.0 3:1.0 5:0.17 7:0.2 9:0.2 13:0.14 14:0.5 15:0.5 16:0.33 17:0.33 19:0.67 20:0.5 22:0.33 25:0.5 26:0.33 27:0.25 28:0.33 29:0.33 32:0.5 33:0.33 34:0.17 36:0.33 37:0.5 38:0.33 39:1.0 40:0.67 41:0.33 42:0.33 44:0.33 47:0.2 49:0.33 50:1.0 51:0.25 52:0.25 53:0.17 54:0.17 56:0.2 57:0.33 58:0.5 63:0.2 64:0.25 65:1.0 66:0.2 67:0.17 69:0.5 71:0.14 73:0.67 74:0.5 75:0.2 78:0.67 79:0.5 83:0.17 87:0.2 93:0.33 100:0.17 101:0.17 102:0.5 103:0.25 105:0.5 106:0.5 108:0.4 111:0.25 112:0.33 114:0.25 115:0.14 116:0.5 118:0.33 119:0.5 126:0.25 127:0.33 128:1.0 129:1.0 130:0.33 135:1.0 139:0.5 141:1.0 143:1.0 145:1.0 148:0.33 152:1.0 154:1.0 155:1.0 160:0.5 163:1.0 164:1.0 167:1.0 171:0.5 
1.0 1.0 1.0 0.9865878134640911 1.0 1.0 1.0 3:1.0 5:0.17 7:0.2 9:0.2 13:0.14 14:0.5 15:0.5 16:0.33 17:0.33 19:0.67 20:0.5 22:0.33 25:0.5 26:0.33 27:0.25 28:0.33 29:0.33 32:0.5 33:0.33 34:0.17 36:0.33 37:0.5 38:0.33 39:1.0 40:0.67 41:0.33 42:0.33 44:0.33 47:0.2 49:0.33 50:1.0 51:0.25 52:0.25 53:0.17 54:0.17 56:0.2 57:0.33 58:0.5 63:0.2 64:0.25 65:1.0 66:0.2 67:0.17 69:0.5 71:0.14 73:0.67 74:0.5 75:0.2 78:0.67 79:0.5 83:0.17 87:0.2 93:0.33 100:0.17 101:0.17 102:0.5 103:0.25 105:0.5 106:0.5 108:0.4 111:0.25 112:0.33 114:0.25 115:0.14 116:0.5 118:0.33 119:0.5 126:0.25 127:0.33 128:1.0 129:1.0 130:0.33 135:1.0 139:0.5 141:1.0 143:1.0 145:1.0 148:0.33 152:1.0 154:1.0 155:1.0 160:0.5 163:1.0 164:1.0 167:1.0 171:0.5 
1.0 1.0 1.0 1.0 1.0 1.0 1.0 1:0.5 2:0.33 9:0.4 11:1.0 13:0.14 14:0.5 15:1.0 17:0.33 20:0.25 22:0.33 24:1.0 25:0.25 27:0.5 28:0.33 29:0.33 32:0.5 33:0.33 35:0.67 36:0.67 38:0.33 41:0.33 43:0.5 44:0.33 45:0.33 46:0.33 49:0.33 50:1.0 52:0.25 53:0.17 55:1.0 59:0.33 60:1.0 62:0.67 64:0.25 65:0.5 67:0.17 69:0.5 72:0.5 74:0.5 76:0.5 78:0.33 80:0.6 85:0.33 86:0.5 87:0.4 89:0.5 91:0.67 94:0.5 95:0.5 97:0.5 105:0.5 106:0.5 107:0.5 108:0.2 109:0.5 110:0.5 111:0.25 114:0.25 118:0.33 123:1.0 125:0.5 127:1.0 128:0.2 131:0.14 135:0.25 136:1.0 139:1.0 140:0.17 141:0.2 143:0.17 146:0.33 147:1.0 149:0.17 150:0.17 153:0.33 154:0.2 155:0.5 156:0.2 158:0.2 159:1.0 161:0.5 163:0.5 164:0.25 167:0.2 168:0.2 170:0.2 171:1.0 173:1.0 
1.0 1.0 1.0 1.0 1.0 1.0 1.0 1:0.25 2:0.33 3:1.0 5:0.17 7:0.2 9:0.2 11:1.0 13:0.14 14:0.75 16:0.33 17:0.67 19:0.33 20:0.5 24:1.0 25:0.5 26:0.33 27:0.5 28:0.67 32:0.5 33:0.67 34:0.17 35:0.67 36:1.0 37:0.5 38:0.33 39:1.0 40:0.33 42:0.33 43:0.5 44:0.33 45:0.33 46:0.33 47:0.2 49:0.67 51:0.25 52:0.5 53:0.17 54:0.17 55:0.5 56:0.2 58:0.5 60:0.5 62:0.33 63:0.2 64:0.5 66:0.2 67:0.17 69:1.0 71:0.14 72:0.5 73:0.33 74:0.5 75:0.2 76:0.5 78:0.67 80:0.4 83:0.17 85:0.33 87:0.4 91:0.33 93:0.33 94:0.5 95:0.5 100:0.17 101:0.17 102:0.5 103:0.25 106:1.0 107:0.5 108:0.4 111:0.25 112:0.33 114:0.25 115:0.14 116:0.25 118:0.67 119:0.5 123:0.5 125:0.5 126:0.25 127:0.33 129:0.5 130:0.33 131:0.14 136:1.0 140:0.17 145:1.0 147:1.0 148:0.33 149:0.17 150:0.17 152:0.5 153:0.33 155:0.5 156:0.2 158:0.2 159:0.5 160:0.5 161:0.5 163:0.5 168:0.2 170:0.2 171:0.5 173:1.0 
0.0 1.0 1.0 0.0 0.1766677882512299 1.0 1.0 1:0.75 9:0.6 11:0.5 14:0.25 15:1.0 19:0.33 20:0.5 22:0.33 23:1.0 25:0.25 28:0.33 29:0.33 32:0.5 33:0.33 35:0.33 36:0.33 38:0.67 41:0.67 45:0.67 49:0.33 50:1.0 55:1.0 57:0.33 58:0.5 59:0.67 60:1.0 62:0.67 64:0.25 65:0.5 78:0.33 79:0.5 80:0.6 85:0.67 86:0.5 87:0.4 89:1.0 91:1.0 95:0.5 97:0.5 105:0.5 106:0.5 107:1.0 108:0.4 109:0.5 111:0.5 114:0.5 116:0.25 123:0.5 127:1.0 128:0.8 135:1.0 136:1.0 139:1.0 141:1.0 143:0.83 147:0.5 154:0.8 155:0.5 159:1.0 163:0.5 164:1.0 167:0.8 171:1.0 173:1.0 
0.0 1.0 0.3076107739279073 0.0 0.0 1.0 1.0 1:0.5 2:0.33 9:0.6 11:1.0 14:0.75 15:1.0 17:0.33 19:0.33 20:0.5 22:0.67 24:1.0 25:0.5 27:0.25 28:0.33 29:0.67 32:1.0 33:0.33 35:0.67 36:0.67 38:0.67 40:0.33 41:0.67 43:0.5 45:0.33 46:0.33 49:0.33 50:1.0 52:0.25 55:1.0 57:0.33 59:0.33 60:1.0 62:0.67 64:0.25 65:1.0 69:0.5 72:0.5 73:0.33 76:0.5 78:0.67 79:0.5 80:0.6 85:0.33 86:0.5 87:0.6 89:0.5 91:0.67 94:0.5 95:0.5 97:0.5 105:1.0 106:0.5 107:0.5 108:0.4 109:0.5 111:0.5 114:0.5 116:0.25 118:0.33 123:1.0 125:0.5 127:1.0 128:1.0 129:0.5 131:0.14 135:1.0 136:1.0 139:1.0 140:0.17 141:1.0 143:1.0 147:1.0 149:0.17 150:0.17 152:0.5 153:0.33 154:1.0 155:0.5 156:0.2 158:0.2 159:1.0 161:0.5 163:0.5 164:1.0 167:1.0 168:0.2 170:0.2 171:1.0 173:1.0 
1.0 1.0 1.0 0.7279462140172952 1.0 1.0 1.0 1:0.75 2:0.33 9:0.8 11:1.0 13:0.14 14:0.75 15:1.0 17:0.33 19:0.67 20:0.75 22:0.67 23:1.0 24:1.0 25:0.5 27:0.5 28:0.33 29:0.67 32:1.0 33:0.33 35:0.67 36:0.67 38:1.0 40:0.33 41:1.0 43:0.5 44:0.33 45:0.67 46:0.33 49:0.33 50:1.0 52:0.25 53:0.17 55:1.0 57:0.67 58:0.5 59:0.67 60:1.0 62:0.67 64:0.25 65:1.0 67:0.17 69:0.5 72:0.5 73:0.33 74:0.5 76:0.5 78:0.67 79:1.0 80:0.8 85:0.67 86:0.5 87:0.8 89:1.0 91:1.0 94:0.5 95:0.75 97:0.5 105:1.0 106:0.5 107:1.0 108:0.6 109:0.5 110:0.5 111:0.75 114:0.75 116:0.5 118:0.33 123:1.0 125:0.5 127:1.0 128:0.4 129:0.5 131:0.14 135:0.25 136:1.0 139:1.0 140:0.17 141:0.2 143:0.33 146:0.33 147:1.0 149:0.17 150:0.17 152:0.5 153:0.33 154:0.4 155:0.5 156:0.2 158:0.2 159:1.0 161:0.5 163:0.5 164:0.25 167:0.4 168:0.2 170:0.2 171:1.0 173:1.0 
-1.0 1.0 1.0 1.0 0.0 1.0 1.0 2:0.67 3:1.0 5:0.33 7:0.4 11:0.5 13:0.86 14:0.5 16:0.33 17:0.67 19:0.33 20:0.25 24:1.0 25:0.25 26:0.33 27:1.0 28:0.33 31:0.5 33:0.33 34:0.33 35:0.33 36:0.67 37:0.5 39:1.0 40:0.33 42:0.67 43:0.5 44:1.0 46:0.33 47:0.4 48:0.33 49:0.33 51:0.5 52:0.75 53:0.83 54:0.33 56:0.4 58:0.5 63:0.4 64:0.25 66:0.4 67:0.83 69:1.0 70:1.0 71:0.29 72:0.5 73:0.33 74:1.0 75:0.4 76:0.5 78:0.33 80:0.2 83:0.33 87:0.2 93:0.33 94:0.5 95:0.25 97:0.5 100:0.33 101:0.17 102:0.5 103:0.5 104:0.5 106:0.5 108:0.2 110:1.0 112:0.33 113:0.5 115:0.29 116:0.25 118:1.0 119:1.0 122:1.0 123:0.5 125:1.0 126:0.25 129:0.5 130:0.33 131:0.14 132:0.5 138:0.5 140:0.17 145:1.0 146:0.67 147:0.5 148:0.67 149:0.17 150:0.17 152:0.5 153:0.67 155:0.5 156:0.2 157:1.0 158:0.2 160:0.5 161:0.5 163:0.5 168:0.2 170:0.2 172:0.5 
-0.0 0.0 0.0 1.0 0.0 0.0 0.1969512050934746 1:0.25 2:0.67 4:1.0 5:0.17 7:0.2 9:0.2 10:1.0 13:0.71 15:0.5 16:0.33 22:0.33 27:0.25 29:0.33 31:1.0 34:0.17 41:0.33 42:0.67 44:0.33 46:0.33 47:0.2 48:0.67 51:0.25 52:0.5 53:0.67 54:0.33 55:0.5 56:0.2 59:0.33 60:0.5 62:0.33 63:0.2 66:0.4 67:0.67 70:1.0 71:0.29 75:0.2 80:0.2 81:1.0 83:0.33 86:0.5 88:0.5 89:0.5 91:0.33 92:0.5 94:0.5 97:1.0 98:1.0 100:0.33 103:0.25 104:0.5 105:0.5 109:0.5 110:0.5 113:1.0 115:0.14 118:0.33 119:0.5 122:1.0 123:0.5 125:0.5 127:0.33 132:1.0 138:1.0 139:0.5 142:1.0 146:0.67 148:0.67 153:0.67 157:1.0 159:0.5 160:0.5 161:0.5 165:1.0 169:1.0 172:1.0 
-0.0 0.0 0.0 1.0 0.0 0.0 1.0 1:0.25 2:0.67 4:1.0 5:0.17 7:0.2 9:0.2 10:1.0 13:0.71 15:0.5 16:0.33 22:0.33 27:0.25 29:0.33 31:1.0 34:0.17 41:0.33 42:0.67 44:0.33 46:0.33 47:0.2 48:0.67 51:0.25 52:0.5 53:0.67 54:0.33 55:0.5 56:0.2 59:0.33 60:0.5 62:0.33 63:0.2 66:0.4 67:0.67 70:1.0 71:0.29 75:0.2 80:0.2 81:1.0 83:0.33 86:0.5 88:0.5 89:0.5 91:0.33 92:0.5 94:0.5 97:1.0 98:1.0 100:0.33 103:0.25 104:0.5 105:0.5 109:0.5 110:0.5 113:1.0 115:0.14 118:0.33 119:0.5 122:1.0 123:0.5 125:0.5 127:0.33 132:1.0 138:1.0 139:0.5 142:1.0 146:0.67 148:0.67 153:0.67 157:1.0 159:0.5 160:0.5 161:0.5 165:1.0 169:1.0 172:1.0 
-1.0 1.0 1.0 1.0 0.0 1.0 1.0 2:0.67 3:1.0 5:0.33 7:0.4 11:0.5 13:0.86 14:0.5 16:0.33 17:0.67 19:0.33 20:0.25 24:1.0 25:0.25 26:0.33 27:1.0 28:0.33 31:0.5 33:0.33 34:0.33 35:0.33 36:0.67 37:0.5 39:1.0 40:0.33 42:0.67 43:0.5 44:1.0 46:0.33 47:0.4 48:0.33 49:0.33 51:0.5 52:0.75 53:0.83 54:0.33 56:0.4 58:0.5 63:0.4 64:0.25 66:0.4 67:0.83 69:1.0 70:1.0 71:0.29 72:0.5 73:0.33 74:1.0 75:0.4 76:0.5 78:0.33 80:0.2 83:0.33 87:0.2 93:0.33 94:0.5 95:0.25 97:0.5 100:0.33 101:0.17 102:0.5 103:0.5 104:0.5 106:0.5 108:0.2 110:1.0 112:0.33 113:0.5 115:0.29 116:0.25 118:1.0 119:1.0 122:1.0 123:0.5 125:1.0 126:0.25 129:0.5 130:0.33 131:0.14 132:0.5 138:0.5 140:0.17 145:1.0 146:0.67 147:0.5 148:0.67 149:0.17 150:0.17 152:0.5 153:0.67 155:0.5 156:0.2 157:1.0 158:0.2 160:0.5 161:0.5 163:0.5 168:0.2 170:0.2 172:0.5 
-0.0 0.0 0.0 1.0 0.19117189598077572 0.0 1.0 1:0.25 2:0.67 4:1.0 5:0.17 7:0.2 9:0.2 10:1.0 13:0.71 15:0.5 16:0.33 22:0.33 27:0.25 29:0.33 31:1.0 34:0.17 41:0.33 42:0.67 44:0.33 46:0.33 47:0.2 48:0.67 51:0.25 52:0.5 53:0.67 54:0.33 55:0.5 56:0.2 59:0.33 60:0.5 62:0.33 63:0.2 66:0.4 67:0.67 70:1.0 71:0.29 75:0.2 80:0.2 81:1.0 83:0.33 86:0.5 88:0.5 89:0.5 91:0.33 92:0.5 94:0.5 97:1.0 98:1.0 100:0.33 103:0.25 104:0.5 105:0.5 109:0.5 110:0.5 113:1.0 115:0.14 118:0.33 119:0.5 122:1.0 123:0.5 125:0.5 127:0.33 132:1.0 138:1.0 139:0.5 142:1.0 146:0.67 148:0.67 153:0.67 157:1.0 159:0.5 160:0.5 161:0.5 165:1.0 169:1.0 172:1.0 
-0.0 0.8663627532774356 1.0 1.0 0.0 1.0 1.0 1:0.25 2:0.67 3:1.0 4:1.0 5:0.5 7:0.4 8:0.2 9:0.2 10:1.0 12:0.2 13:0.43 14:0.25 16:1.0 17:0.67 18:0.5 19:0.67 20:0.5 21:0.25 23:1.0 25:0.25 26:1.0 27:0.5 28:0.67 30:0.2 31:1.0 33:0.33 34:0.5 36:0.33 37:0.5 38:0.33 39:1.0 40:0.33 41:0.33 42:1.0 44:0.67 45:0.33 46:0.67 47:0.6 48:1.0 49:0.33 51:0.75 52:0.75 53:0.5 54:0.67 56:0.6 57:0.33 58:1.0 59:0.33 61:0.17 63:0.6 64:0.5 66:0.8 67:0.5 68:0.2 69:0.5 70:1.0 71:0.57 73:0.67 74:0.5 75:0.6 76:0.5 77:0.5 78:0.33 79:0.5 80:0.2 83:0.67 84:0.25 85:0.33 87:0.2 88:0.5 89:0.5 91:0.33 92:1.0 93:0.67 94:0.5 95:0.25 96:0.33 97:0.5 98:1.0 99:1.0 100:0.67 101:0.33 102:0.5 103:0.75 104:1.0 106:0.5 107:0.5 108:0.4 110:0.5 111:0.25 112:0.67 113:1.0 114:0.25 115:0.43 116:0.5 117:0.25 118:0.67 119:1.0 122:1.0 124:0.5 125:0.5 126:0.5 129:0.5 130:0.67 131:0.14 132:1.0 133:0.2 134:0.25 137:0.5 138:1.0 140:0.17 142:1.0 144:0.2 145:1.0 146:0.67 148:1.0 149:0.17 152:0.5 153:0.67 155:0.5 157:1.0 158:0.2 160:1.0 161:0.5 162:0.2 163:0.5 165:1.0 166:0.17 168:0.2 169:1.0 170:0.2 172:1.0 
-0.0 1.0 0.9547526172931131 1.0 1.0 0.12863856937486387 1.0 1:0.25 2:0.67 4:1.0 5:0.17 7:0.2 9:0.2 10:1.0 13:0.71 15:0.5 16:0.33 22:0.33 27:0.25 29:0.33 31:1.0 34:0.17 41:0.33 42:0.67 44:0.33 46:0.33 47:0.2 48:0.67 51:0.25 52:0.5 53:0.67 54:0.33 55:0.5 56:0.2 59:0.33 60:0.5 62:0.33 63:0.2 66:0.4 67:0.67 70:1.0 71:0.29 75:0.2 80:0.2 81:1.0 83:0.33 86:0.5 88:0.5 89:0.5 91:0.33 92:0.5 94:0.5 97:1.0 98:1.0 100:0.33 103:0.25 104:0.5 105:0.5 109:0.5 110:0.5 113:1.0 115:0.14 118:0.33 119:0.5 122:1.0 123:0.5 125:0.5 127:0.33 132:1.0 138:1.0 139:0.5 142:1.0 146:0.67 148:0.67 153:0.67 157:1.0 159:0.5 160:0.5 161:0.5 165:1.0 169:1.0 172:1.0 
-0.0 0.0 0.0 1.0 1.0 0.0 0.0 1:0.25 2:1.0 4:1.0 5:0.33 7:0.2 9:0.2 10:1.0 11:0.5 13:0.86 14:0.25 15:0.5 16:0.67 17:0.33 18:0.5 22:0.33 24:1.0 26:0.33 27:0.75 29:0.33 31:1.0 34:0.33 35:0.33 36:0.33 41:0.33 42:0.67 43:0.5 44:0.67 46:1.0 47:0.4 48:1.0 51:0.5 52:0.75 53:0.83 54:0.5 55:0.5 56:0.4 59:0.33 60:0.5 62:0.33 63:0.4 66:0.6 67:0.83 69:0.5 70:1.0 71:0.43 72:0.5 74:0.5 75:0.4 76:1.0 77:0.5 80:0.4 83:0.5 86:0.5 87:0.2 88:0.5 89:0.5 91:0.33 92:1.0 93:0.33 94:1.0 95:0.25 97:1.0 98:1.0 99:1.0 100:0.5 101:0.17 103:0.5 104:1.0 105:0.5 109:0.5 110:1.0 112:0.33 113:1.0 115:0.29 118:0.67 119:0.5 122:1.0 123:1.0 124:0.5 125:1.0 126:0.25 127:0.33 131:0.14 132:1.0 138:1.0 139:0.5 140:0.17 142:1.0 146:1.0 147:0.5 148:0.67 149:0.17 150:0.17 153:1.0 156:0.2 157:1.0 158:0.2 159:0.5 160:0.5 161:1.0 165:1.0 168:0.2 169:1.0 170:0.2 172:1.0 
-1.0 1.0 1.0 1.0 1.0 1.0 1.0 1:0.25 2:0.67 4:1.0 5:0.17 7:0.2 9:0.2 10:1.0 13:0.71 15:0.5 16:0.33 22:0.33 27:0.25 29:0.33 31:1.0 34:0.17 41:0.33 42:0.67 44:0.33 46:0.33 47:0.2 48:0.67 51:0.25 52:0.5 53:0.67 54:0.33 55:0.5 56:0.2 59:0.33 60:0.5 62:0.33 63:0.2 66:0.4 67:0.67 70:1.0 71:0.29 75:0.2 80:0.2 81:1.0 83:0.33 86:0.5 88:0.5 89:0.5 91:0.33 92:0.5 94:0.5 97:1.0 98:1.0 100:0.33 103:0.25 104:0.5 105:0.5 109:0.5 110:0.5 113:1.0 115:0.14 118:0.33 119:0.5 122:1.0 123:0.5 125:0.5 127:0.33 132:1.0 138:1.0 139:0.5 142:1.0 146:0.67 148:0.67 153:0.67 157:1.0 159:0.5 160:0.5 161:0.5 165:1.0 169:1.0 172:1.0 
-0.7634337714056655 0.7138079959870594 1.0 1.0 0.9777840701515504 0.9793433323559013 1.0 1:0.25 2:0.67 4:1.0 5:0.17 7:0.2 9:0.2 10:1.0 13:0.71 15:0.5 16:0.33 22:0.33 27:0.25 29:0.33 31:1.0 34:0.17 41:0.33 42:0.67 44:0.33 46:0.33 47:0.2 48:0.67 51:0.25 52:0.5 53:0.67 54:0.33 55:0.5 56:0.2 59:0.33 60:0.5 62:0.33 63:0.2 66:0.4 67:0.67 70:1.0 71:0.29 75:0.2 80:0.2 81:1.0 83:0.33 86:0.5 88:0.5 89:0.5 91:0.33 92:0.5 94:0.5 97:1.0 98:1.0 100:0.33 103:0.25 104:0.5 105:0.5 109:0.5 110:0.5 113:1.0 115:0.14 118:0.33 119:0.5 122:1.0 123:0.5 125:0.5 127:0.33 132:1.0 138:1.0 139:0.5 142:1.0 146:0.67 148:0.67 153:0.67 157:1.0 159:0.5 160:0.5 161:0.5 165:1.0 169:1.0 172:1.0 
-1.0 1.0 1.0 1.0 0.0 1.0 1.0 2:0.67 3:1.0 5:0.33 7:0.4 11:0.5 13:0.86 14:0.5 16:0.33 17:0.67 19:0.33 20:0.25 24:1.0 25:0.25 26:0.33 27:1.0 28:0.33 31:0.5 33:0.33 34:0.33 35:0.33 36:0.67 37:0.5 39:1.0 40:0.33 42:0.67 43:0.5 44:1.0 46:0.33 47:0.4 48:0.33 49:0.33 51:0.5 52:0.75 53:0.83 54:0.33 56:0.4 58:0.5 63:0.4 64:0.25 66:0.4 67:0.83 69:1.0 70:1.0 71:0.29 72:0.5 73:0.33 74:1.0 75:0.4 76:0.5 78:0.33 80:0.2 83:0.33 87:0.2 93:0.33 94:0.5 95:0.25 97:0.5 100:0.33 101:0.17 102:0.5 103:0.5 104:0.5 106:0.5 108:0.2 110:1.0 112:0.33 113:0.5 115:0.29 116:0.25 118:1.0 119:1.0 122:1.0 123:0.5 125:1.0 126:0.25 129:0.5 130:0.33 131:0.14 132:0.5 138:0.5 140:0.17 145:1.0 146:0.67 147:0.5 148:0.67 149:0.17 150:0.17 152:0.5 153:0.67 155:0.5 156:0.2 157:1.0 158:0.2 160:0.5 161:0.5 163:0.5 168:0.2 170:0.2 172:0.5 
-1.0 1.0 1.0 1.0 0.6951678446849259 1.0 1.0 2:0.67 3:1.0 5:0.33 7:0.4 11:0.5 13:0.86 14:0.5 16:0.33 17:0.67 19:0.33 20:0.25 24:1.0 25:0.25 26:0.33 27:1.0 28:0.33 31:0.5 33:0.33 34:0.33 35:0.33 36:0.67 37:0.5 39:1.0 40:0.33 42:0.67 43:0.5 44:1.0 46:0.33 47:0.4 48:0.33 49:0.33 51:0.5 52:0.75 53:0.83 54:0.33 56:0.4 58:0.5 63:0.4 64:0.25 66:0.4 67:0.83 69:1.0 70:1.0 71:0.29 72:0.5 73:0.33 74:1.0 75:0.4 76:0.5 78:0.33 80:0.2 83:0.33 87:0.2 93:0.33 94:0.5 95:0.25 97:0.5 100:0.33 101:0.17 102:0.5 103:0.5 104:0.5 106:0.5 108:0.2 110:1.0 112:0.33 113:0.5 115:0.29 116:0.25 118:1.0 119:1.0 122:1.0 123:0.5 125:1.0 126:0.25 129:0.5 130:0.33 131:0.14 132:0.5 138:0.5 140:0.17 145:1.0 146:0.67 147:0.5 148:0.67 149:0.17 150:0.17 152:0.5 153:0.67 155:0.5 156:0.2 157:1.0 158:0.2 160:0.5 161:0.5 163:0.5 168:0.2 170:0.2 172:0.5 
-1.0 1.0 1.0 1.0 1.0 1.0 1.0 2:0.67 3:1.0 4:1.0 5:0.17 7:0.2 10:1.0 11:0.5 13:0.43 14:0.5 16:0.67 17:0.67 19:0.33 20:0.25 24:1.0 25:0.25 26:0.33 27:0.75 28:0.33 31:0.5 33:0.33 34:0.17 35:0.33 36:0.67 37:0.5 39:1.0 40:0.33 42:0.67 43:0.5 44:0.67 46:0.67 47:0.2 48:0.33 49:0.33 51:0.25 52:0.75 53:0.5 54:0.33 56:0.2 58:0.5 63:0.2 64:0.25 66:0.4 67:0.5 69:1.0 71:0.29 72:0.5 73:0.33 74:1.0 75:0.2 76:0.5 78:0.33 80:0.2 83:0.33 87:0.2 88:0.5 92:0.5 93:0.33 94:1.0 95:0.25 98:1.0 100:0.33 101:0.17 102:0.5 103:0.25 106:0.5 108:0.2 110:0.5 112:0.33 113:0.5 115:0.14 116:0.25 118:0.67 119:0.5 123:0.5 125:0.5 126:0.25 129:0.5 130:0.33 131:0.14 132:0.5 138:0.5 140:0.17 142:1.0 145:1.0 146:0.67 147:0.5 148:0.67 149:0.17 150:0.17 152:0.5 153:0.67 155:0.5 156:0.2 158:0.2 160:1.0 161:1.0 163:0.5 165:1.0 168:0.2 169:1.0 170:0.2 172:0.5 
-0.0 0.0 0.0 1.0 0.6243078876525712 0.0 1.0 2:1.0 3:1.0 4:1.0 5:0.83 7:0.8 10:1.0 11:0.5 13:0.43 14:0.5 16:1.0 17:0.67 18:0.5 19:0.33 20:0.25 24:1.0 25:0.25 26:0.67 27:0.75 28:0.33 31:1.0 33:0.33 34:0.83 35:0.33 36:0.67 37:0.5 39:1.0 40:0.33 42:1.0 43:0.5 44:0.67 46:1.0 47:0.8 48:1.0 49:0.33 51:1.0 52:1.0 53:0.5 54:1.0 56:1.0 58:0.5 63:0.8 64:0.25 66:1.0 67:0.5 69:1.0 70:1.0 71:1.0 72:0.5 73:0.33 74:0.5 75:1.0 76:1.0 77:0.5 78:0.33 80:0.2 83:1.0 87:0.2 88:0.5 92:1.0 93:0.67 94:1.0 95:0.25 97:0.5 98:1.0 99:1.0 100:1.0 101:0.83 102:0.5 103:1.0 104:1.0 106:0.5 108:0.2 110:0.5 112:0.67 113:1.0 115:0.86 116:0.25 118:1.0 119:1.0 122:1.0 123:0.5 124:0.5 125:1.0 126:0.75 129:0.5 130:0.33 131:0.14 132:1.0 138:1.0 140:0.17 142:1.0 145:1.0 146:0.67 147:0.5 148:1.0 149:0.17 150:0.17 152:0.5 153:1.0 155:0.5 156:0.2 157:1.0 158:0.2 160:1.0 161:1.0 163:0.5 165:1.0 168:0.2 169:1.0 170:0.2 172:1.0 
-1.0 1.0 1.0 1.0 0.0 1.0 1.0 2:0.33 3:1.0 4:1.0 5:0.33 7:0.2 10:1.0 13:0.29 14:0.25 16:1.0 17:0.33 18:0.5 19:0.33 20:0.25 25:0.25 26:0.67 27:0.25 28:0.33 31:0.5 33:0.33 34:0.33 36:0.33 37:0.5 39:1.0 40:0.33 42:0.67 44:0.33 46:0.67 47:0.4 48:0.67 49:0.33 51:0.5 52:0.5 53:0.33 54:0.5 56:0.4 58:0.5 63:0.4 64:0.25 66:0.6 67:0.33 69:0.5 71:0.43 73:0.33 74:0.5 75:0.4 76:0.5 77:0.5 78:0.33 83:0.5 88:0.5 92:1.0 93:0.67 94:0.5 98:1.0 99:1.0 100:0.5 101:0.33 102:0.5 103:0.5 104:0.5 106:0.5 108:0.2 112:0.67 113:0.5 115:0.29 116:0.25 118:0.33 119:0.5 124:0.5 126:0.5 129:0.5 130:0.33 132:0.5 138:0.5 142:1.0 145:1.0 146:0.33 148:0.67 152:0.5 153:0.33 155:0.5 160:1.0 161:0.5 163:0.5 165:1.0 169:1.0 172:0.5 
-0.23656622859433454 0.0 0.41968659137637837 1.0 0.5115683015301768 1.0 1.0 2:0.67 3:1.0 4:1.0 5:0.33 7:0.4 10:1.0 13:1.0 14:0.25 15:0.5 16:0.67 17:0.33 19:0.33 20:0.25 25:0.25 26:0.33 27:0.75 28:0.33 31:1.0 33:0.33 34:0.33 36:0.33 37:0.5 39:1.0 40:0.33 42:1.0 44:1.0 46:0.33 47:0.4 48:0.67 49:0.33 50:1.0 51:0.5 52:0.75 53:1.0 54:0.5 56:0.4 58:0.5 63:0.4 64:0.25 65:0.5 66:0.6 67:1.0 69:0.5 70:1.0 71:0.43 73:0.33 74:1.0 75:0.4 78:0.33 81:1.0 83:0.5 88:0.5 92:0.5 93:0.33 94:0.5 97:0.5 98:1.0 100:0.5 101:0.17 102:0.5 103:0.5 104:0.5 106:0.5 108:0.2 110:1.0 112:0.33 113:1.0 115:0.29 116:0.25 118:0.67 119:1.0 122:1.0 125:0.5 126:0.25 127:0.33 128:0.2 129:0.5 130:0.33 132:1.0 135:0.25 138:1.0 139:0.5 141:0.2 142:1.0 143:0.17 145:1.0 146:1.0 148:1.0 152:0.5 153:0.67 154:0.2 155:1.0 157:1.0 160:1.0 161:0.5 163:1.0 164:0.25 165:1.0 167:0.2 169:1.0 171:0.5 172:1.0 
-0.45025943155912973 -0.4843069983071753 1.0 0.2668320395489363 0.08897567677137706 1.0 1.0 1:0.25 2:0.33 3:1.0 5:0.17 6:0.5 7:0.2 8:0.4 9:0.4 11:1.0 12:0.2 13:0.14 14:1.0 15:0.5 16:0.33 17:1.0 19:0.67 20:0.75 21:0.5 22:0.33 24:1.0 25:0.75 26:0.67 27:0.5 28:1.0 29:0.33 30:0.4 32:1.0 33:0.67 34:0.17 35:0.67 36:1.0 37:1.0 38:0.67 39:1.0 40:0.67 41:0.33 42:0.33 43:1.0 44:0.33 45:0.33 46:0.33 47:0.2 49:0.67 50:1.0 51:0.25 52:0.5 53:0.17 54:0.17 55:0.5 56:0.2 57:0.33 58:0.5 60:0.5 61:0.33 62:0.33 63:0.2 64:0.75 65:1.0 66:0.2 67:0.17 68:0.4 69:1.0 71:0.14 72:0.5 73:1.0 74:0.5 75:0.2 76:0.5 78:1.0 79:0.5 80:0.4 83:0.17 84:0.5 85:0.33 87:0.6 91:0.33 93:0.67 94:0.5 95:0.5 96:0.67 100:0.17 101:0.17 102:0.5 103:0.25 105:0.5 106:1.0 107:0.5 108:0.6 111:0.5 112:0.33 114:0.5 115:0.14 116:0.5 117:0.5 118:0.67 119:0.5 120:1.0 123:0.5 125:0.5 126:0.25 127:0.67 128:0.4 129:1.0 130:1.0 131:0.43 133:0.4 134:0.25 135:0.25 136:1.0 137:1.0 139:0.5 140:0.33 141:0.2 143:0.33 144:0.4 145:1.0 147:1.0 148:0.33 149:0.5 150:0.33 151:1.0 152:1.0 153:0.33 154:0.4 155:1.0 156:0.4 158:0.4 159:0.5 160:0.5 161:0.5 162:0.4 163:1.0 164:0.25 166:0.33 167:0.4 168:0.4 170:0.6 171:1.0 173:1.0 
-1.0 -0.1636941279441988 1.0 0.0 0.0 1.0 1.0 3:1.0 5:0.17 6:0.5 7:0.2 8:0.2 9:0.2 12:0.2 13:0.14 14:0.5 15:0.5 16:0.33 17:0.67 19:0.67 20:0.5 21:0.25 22:0.33 25:0.5 26:0.67 27:0.25 28:0.67 29:0.33 30:0.2 32:0.5 33:0.33 34:0.17 36:0.33 37:0.5 38:0.33 39:1.0 40:0.67 41:0.33 42:0.33 44:0.33 47:0.2 49:0.33 50:1.0 51:0.25 52:0.25 53:0.17 54:0.17 56:0.2 57:0.33 58:0.5 61:0.17 63:0.2 64:0.5 65:1.0 66:0.2 67:0.17 68:0.2 69:0.5 71:0.14 73:1.0 74:0.5 75:0.2 78:0.67 79:0.5 83:0.17 84:0.25 87:0.2 93:0.33 96:0.33 100:0.17 101:0.17 102:0.5 103:0.25 105:0.5 106:0.5 108:0.4 111:0.25 112:0.33 114:0.25 115:0.14 116:0.5 117:0.25 118:0.33 119:0.5 126:0.25 127:0.33 128:1.0 129:1.0 130:1.0 131:0.14 133:0.2 134:0.25 135:1.0 137:1.0 139:0.5 140:0.17 141:1.0 143:1.0 144:0.2 145:1.0 148:0.33 149:0.17 152:1.0 154:1.0 155:1.0 158:0.2 160:0.5 162:0.2 163:1.0 164:1.0 166:0.17 167:1.0 168:0.2 170:0.2 171:0.5 
-1.0 -0.0 0.6817317703898123 0.0 0.0 1.0 1.0 1:0.25 2:0.33 3:1.0 5:0.17 6:0.5 7:0.2 8:0.2 9:0.4 11:1.0 12:0.2 13:0.14 14:1.0 15:0.5 16:0.33 17:1.0 19:0.67 20:0.75 21:0.25 22:0.33 24:1.0 25:0.75 26:0.67 27:0.5 28:1.0 29:0.33 30:0.2 32:1.0 33:0.67 34:0.17 35:0.67 36:1.0 37:0.5 38:0.67 39:1.0 40:0.67 41:0.33 42:0.33 43:0.5 44:0.33 45:0.33 46:0.33 47:0.2 49:0.67 50:1.0 51:0.25 52:0.5 53:0.17 54:0.17 55:0.5 56:0.2 57:0.33 58:0.5 60:0.5 61:0.17 62:0.33 63:0.2 64:0.75 65:1.0 66:0.2 67:0.17 68:0.2 69:1.0 71:0.14 72:0.5 73:1.0 74:0.5 75:0.2 76:0.5 78:1.0 79:0.5 80:0.4 83:0.17 84:0.25 85:0.33 87:0.6 91:0.33 93:0.33 94:0.5 95:0.5 96:0.33 100:0.17 101:0.17 102:0.5 103:0.25 105:0.5 106:1.0 107:0.5 108:0.6 111:0.5 112:0.33 114:0.5 115:0.14 116:0.5 117:0.25 118:0.67 119:0.5 123:0.5 125:0.5 126:0.25 127:0.67 128:1.0 129:1.0 130:1.0 131:0.29 133:0.2 134:0.25 135:1.0 136:1.0 137:1.0 139:0.5 140:0.33 141:1.0 143:1.0 144:0.2 145:1.0 147:1.0 148:0.33 149:0.33 150:0.17 152:1.0 153:0.33 154:1.0 155:1.0 156:0.2 158:0.4 159:0.5 160:0.5 161:0.5 162:0.2 163:1.0 164:1.0 166:0.17 167:1.0 168:0.4 170:0.4 171:1.0 173:1.0 
-1.0 -0.9321696230131209 1.0 1.0 0.0 1.0 1.0 1:0.5 3:1.0 5:0.17 6:0.5 7:0.2 8:0.2 9:0.6 11:0.5 12:0.2 13:0.14 14:0.75 16:0.33 17:0.67 19:1.0 20:1.0 21:0.25 22:0.33 23:1.0 25:0.75 26:0.67 27:0.25 28:1.0 29:0.33 30:0.2 32:1.0 33:0.67 34:0.17 35:0.33 36:0.67 37:0.5 38:1.0 39:1.0 40:0.67 41:0.67 42:0.33 44:0.33 45:0.67 47:0.2 49:0.67 51:0.25 52:0.25 53:0.17 54:0.17 55:0.5 56:0.2 57:0.67 58:1.0 59:0.33 60:0.5 61:0.17 62:0.33 63:0.2 64:0.75 65:0.5 66:0.2 67:0.17 68:0.2 69:0.5 71:0.14 73:1.0 74:0.5 75:0.2 78:1.0 79:1.0 80:0.4 83:0.17 84:0.25 85:0.67 87:0.6 89:0.5 91:0.67 93:0.33 95:0.5 96:0.33 100:0.17 101:0.17 102:0.5 103:0.25 105:0.5 106:1.0 107:1.0 108:0.8 111:0.75 112:0.33 114:0.75 115:0.14 116:0.75 117:0.25 118:0.33 119:0.5 126:0.25 127:0.33 128:0.2 129:1.0 130:1.0 131:0.14 133:0.2 134:0.25 136:1.0 137:1.0 140:0.17 143:0.17 144:0.2 145:1.0 147:0.5 148:0.33 149:0.17 152:1.0 154:0.2 155:0.5 158:0.2 159:0.5 160:0.5 162:0.2 163:0.5 166:0.17 167:0.2 168:0.2 170:0.2 171:0.5 173:1.0 
-1.0 -1.0 1.0 0.4907088954873238 0.6681543654495555 1.0 1.0 1:0.25 2:0.33 3:1.0 5:0.17 6:0.5 7:0.2 8:0.2 9:0.4 11:1.0 12:0.2 13:0.14 14:1.0 15:0.5 16:0.33 17:1.0 19:0.67 20:0.75 21:0.25 22:0.33 24:1.0 25:0.75 26:0.67 27:0.5 28:1.0 29:0.33 30:0.2 32:1.0 33:0.67 34:0.17 35:0.67 36:1.0 37:0.5 38:0.67 39:1.0 40:0.67 41:0.33 42:0.33 43:0.5 44:0.33 45:0.33 46:0.33 47:0.2 49:0.67 50:1.0 51:0.25 52:0.5 53:0.17 54:0.17 55:0.5 56:0.2 57:0.33 58:0.5 60:0.5 61:0.17 62:0.33 63:0.2 64:0.75 65:1.0 66:0.2 67:0.17 68:0.2 69:1.0 71:0.14 72:0.5 73:1.0 74:0.5 75:0.2 76:0.5 78:1.0 79:0.5 80:0.4 83:0.17 84:0.25 85:0.33 87:0.6 91:0.33 93:0.33 94:0.5 95:0.5 96:0.33 100:0.17 101:0.17 102:0.5 103:0.25 105:0.5 106:1.0 107:0.5 108:0.6 111:0.5 112:0.33 114:0.5 115:0.14 116:0.5 117:0.25 118:0.67 119:0.5 123:0.5 125:0.5 126:0.25 127:0.67 128:0.4 129:1.0 130:1.0 131:0.29 133:0.2 134:0.25 135:0.25 136:1.0 137:1.0 139:0.5 140:0.33 141:0.2 143:0.33 144:0.2 145:1.0 147:1.0 148:0.33 149:0.33 150:0.17 152:1.0 153:0.33 154:0.4 155:1.0 156:0.2 158:0.4 159:0.5 160:0.5 161:0.5 162:0.2 163:1.0 164:0.25 166:0.17 167:0.4 168:0.4 170:0.4 171:1.0 173:1.0 
-0.0 -1.0 1.0 0.3498309048546764 0.6148358539703237 1.0 1.0 6:0.5 8:0.2 12:0.2 17:0.33 21:0.25 26:0.33 28:0.33 30:0.2 61:0.17 64:0.25 68:0.2 73:0.33 84:0.25 96:0.33 117:0.25 130:0.67 131:0.14 133:0.2 134:0.25 137:1.0 140:0.17 144:0.2 149:0.17 158:0.2 162:0.2 166:0.17 168:0.2 170:0.2 
-0.32513175922075066 -1.0 1.0 1.0 1.0 1.0 1.0 6:0.5 8:0.2 12:0.2 17:0.33 21:0.25 26:0.33 28:0.33 30:0.2 61:0.17 64:0.25 68:0.2 73:0.33 84:0.25 96:0.33 117:0.25 130:0.67 131:0.14 133:0.2 134:0.25 137:1.0 140:0.17 144:0.2 149:0.17 158:0.2 162:0.2 166:0.17 168:0.2 170:0.2 
-1.0 -1.0 1.0 1.0 0.6280341038087437 1.0 1.0 3:1.0 5:0.17 7:0.2 9:0.2 13:0.14 14:0.5 15:0.5 16:0.33 17:0.33 19:0.67 20:0.5 22:0.33 25:0.5 26:0.33 27:0.25 28:0.33 29:0.33 32:0.5 33:0.33 34:0.17 36:0.33 37:0.5 38:0.33 39:1.0 40:0.67 41:0.33 42:0.33 44:0.33 47:0.2 49:0.33 50:1.0 51:0.25 52:0.25 53:0.17 54:0.17 56:0.2 57:0.33 58:0.5 63:0.2 64:0.25 65:1.0 66:0.2 67:0.17 69:0.5 71:0.14 73:0.67 74:0.5 75:0.2 78:0.67 79:0.5 83:0.17 87:0.2 93:0.33 100:0.17 101:0.17 102:0.5 103:0.25 105:0.5 106:0.5 108:0.4 111:0.25 112:0.33 114:0.25 115:0.14 116:0.5 118:0.33 119:0.5 126:0.25 127:0.33 128:1.0 129:1.0 130:0.33 135:1.0 139:0.5 141:1.0 143:1.0 145:1.0 148:0.33 152:1.0 154:1.0 155:1.0 160:0.5 163:1.0 164:1.0 167:1.0 171:0.5 
-0.27998698852254494 -1.0 1.0 1.0 1.0 1.0 1.0 1:0.25 2:0.33 3:1.0 5:0.33 6:0.5 7:0.2 8:0.2 9:0.2 11:1.0 12:0.2 13:0.14 14:0.75 15:0.5 16:0.67 17:1.0 18:0.5 19:0.33 20:0.5 21:0.25 24:1.0 25:0.5 26:1.0 27:0.5 28:1.0 30:0.2 32:0.5 33:0.67 34:0.33 35:0.67 36:1.0 37:0.5 38:0.33 39:1.0 40:0.33 42:0.33 43:0.5 44:0.33 45:0.33 46:0.67 47:0.4 48:0.33 49:0.67 50:1.0 51:0.5 52:0.5 53:0.17 54:0.33 55:0.5 56:0.4 58:0.5 60:0.5 61:0.17 62:0.33 63:0.4 64:0.75 65:0.5 66:0.4 67:0.17 68:0.2 69:1.0 71:0.29 72:0.5 73:0.67 74:0.5 75:0.4 76:1.0 77:0.5 78:0.67 80:0.4 83:0.33 84:0.25 85:0.33 87:0.4 91:0.33 92:0.5 93:0.67 94:0.5 95:0.5 96:0.33 99:1.0 100:0.33 101:0.33 102:0.5 103:0.5 104:0.5 106:1.0 107:0.5 108:0.4 111:0.25 112:0.67 114:0.25 115:0.29 116:0.25 117:0.25 118:0.67 119:0.5 123:0.5 124:0.5 125:0.5 126:0.5 127:0.67 128:0.2 129:0.5 130:1.0 131:0.29 133:0.2 134:0.25 135:0.25 136:1.0 137:1.0 139:0.5 140:0.33 141:0.2 143:0.17 144:0.2 145:1.0 147:1.0 148:0.33 149:0.33 150:0.17 152:0.5 153:0.33 154:0.2 155:1.0 156:0.2 158:0.4 159:0.5 160:0.5 161:0.5 162:0.2 163:1.0 164:0.25 166:0.17 167:0.2 168:0.4 170:0.4 171:1.0 173:1.0 
-1.0 -0.0 1.0 0.0 0.0 1.0 1.0 1:0.5 3:1.0 5:0.17 6:0.5 7:0.2 8:0.2 9:0.6 11:0.5 12:0.2 13:0.14 14:0.75 15:0.5 16:0.33 17:0.67 19:1.0 20:1.0 21:0.25 22:0.33 23:1.0 25:0.75 26:0.67 27:0.25 28:1.0 29:0.33 30:0.2 32:1.0 33:0.67 34:0.17 35:0.33 36:0.67 37:0.5 38:1.0 39:1.0 40:0.67 41:0.67 42:0.33 44:0.33 45:0.67 47:0.2 49:0.67 50:1.0 51:0.25 52:0.25 53:0.17 54:0.17 55:0.5 56:0.2 57:0.67 58:1.0 59:0.33 60:0.5 61:0.17 62:0.33 63:0.2 64:0.75 65:1.0 66:0.2 67:0.17 68:0.2 69:0.5 71:0.14 73:1.0 74:0.5 75:0.2 78:1.0 79:1.0 80:0.4 83:0.17 84:0.25 85:0.67 87:0.6 89:0.5 91:0.67 93:0.33 95:0.5 96:0.33 100:0.17 101:0.17 102:0.5 103:0.25 105:0.5 106:1.0 107:1.0 108:0.8 111:0.75 112:0.33 114:0.75 115:0.14 116:0.75 117:0.25 118:0.33 119:0.5 126:0.25 127:0.67 128:0.4 129:1.0 130:1.0 131:0.14 133:0.2 134:0.25 135:0.25 136:1.0 137:1.0 139:0.5 140:0.17 141:0.2 143:0.33 144:0.2 145:1.0 147:0.5 148:0.33 149:0.17 152:1.0 154:0.4 155:1.0 158:0.2 159:0.5 160:0.5 162:0.2 163:1.0 164:0.25 166:0.17 167:0.4 168:0.2 170:0.2 171:1.0 173:1.0 
-1.0 -1.0 1.0 1.0 1.0 1.0 1.0 2:0.33 3:1.0 5:0.17 7:0.2 11:0.5 13:0.29 14:0.5 15:0.5 16:0.33 17:0.67 19:0.33 20:0.25 24:1.0 25:0.25 26:0.33 27:0.75 28:0.33 33:0.33 34:0.17 35:0.33 36:0.67 37:0.5 39:1.0 40:0.33 42:0.33 43:0.5 44:0.67 46:0.33 47:0.2 49:0.33 50:1.0 51:0.25 52:0.5 53:0.33 54:0.17 56:0.2 58:0.5 63:0.2 64:0.25 65:0.5 66:0.2 67:0.33 69:1.0 71:0.14 72:0.5 73:0.33 74:1.0 75:0.2 76:0.5 78:0.33 80:0.2 83:0.17 87:0.2 93:0.33 94:0.5 95:0.25 100:0.17 101:0.17 102:0.5 103:0.25 106:0.5 108:0.2 110:0.5 112:0.33 115:0.14 116:0.25 118:0.67 119:0.5 123:0.5 125:0.5 126:0.25 127:0.33 128:0.2 129:0.5 130:0.33 131:0.14 135:0.25 139:0.5 140:0.17 141:0.2 143:0.17 145:1.0 146:0.33 147:0.5 148:0.33 149:0.17 150:0.17 152:0.5 153:0.33 154:0.2 155:1.0 156:0.2 158:0.2 160:0.5 161:0.5 163:1.0 164:0.25 167:0.2 168:0.2 170:0.2 171:0.5 
-1.0 -1.0 1.0 1.0 1.0 1.0 1.0 6:0.5 8:0.2 12:0.2 17:0.33 21:0.25 26:0.33 28:0.33 30:0.2 61:0.17 64:0.25 68:0.2 73:0.33 84:0.25 96:0.33 117:0.25 130:0.67 131:0.14 133:0.2 134:0.25 137:1.0 140:0.17 144:0.2 149:0.17 158:0.2 162:0.2 166:0.17 168:0.2 170:0.2 
-0.9446218206975747 -1.0 1.0 0.9933943979561034 1.0 1.0 1.0 6:0.5 8:0.2 12:0.2 17:0.33 21:0.25 26:0.33 28:0.33 30:0.2 61:0.17 64:0.25 68:0.2 73:0.33 84:0.25 96:0.33 117:0.25 130:0.67 131:0.14 133:0.2 134:0.25 137:1.0 140:0.17 144:0.2 149:0.17 158:0.2 162:0.2 166:0.17 168:0.2 170:0.2 
-0.0 -1.0 -0.0 1.0 1.0 0.18467845665695237 0.6721225200298944 2:0.33 3:1.0 4:1.0 5:0.17 7:0.2 8:1.0 10:1.0 12:1.0 13:0.43 14:0.25 16:0.67 17:0.67 19:0.33 20:0.25 21:1.0 25:0.25 26:0.67 27:0.5 28:0.67 30:1.0 31:0.5 33:0.33 34:0.17 36:0.33 37:1.0 39:1.0 40:0.33 42:0.67 43:0.5 44:0.67 46:0.33 47:0.2 48:0.33 49:0.33 51:0.25 52:0.5 53:0.5 54:0.33 56:0.2 58:0.5 61:1.0 63:0.2 64:0.5 66:0.4 67:0.5 68:1.0 69:0.5 71:0.29 73:0.67 74:1.0 75:0.2 78:0.33 81:1.0 83:0.33 84:1.0 88:0.5 92:0.5 93:0.67 94:0.5 96:1.0 98:1.0 100:0.33 101:0.17 102:0.5 103:0.25 106:0.5 108:0.2 110:0.5 112:0.33 113:0.5 115:0.14 116:0.25 117:1.0 118:0.33 119:0.5 120:1.0 126:0.25 129:0.5 130:0.67 131:0.86 132:0.5 133:1.0 134:1.0 137:0.5 138:0.5 140:0.83 142:1.0 144:1.0 145:1.0 146:0.67 148:0.67 149:0.83 150:0.83 151:1.0 152:0.5 153:0.33 155:0.5 156:0.8 158:0.8 160:1.0 161:0.5 162:1.0 163:0.5 165:1.0 166:1.0 168:0.8 169:1.0 170:0.8 172:0.5 
-1.0 -0.30088835053824686 -1.0 0.0 0.0 1.0 1.0 2:0.33 3:1.0 5:0.17 7:0.2 8:1.0 9:0.2 11:0.5 12:1.0 13:0.14 14:0.75 15:0.5 16:0.33 17:1.0 19:0.67 20:0.5 21:1.0 22:0.33 24:1.0 25:0.5 26:0.67 27:0.5 28:0.67 29:0.33 30:1.0 32:0.5 33:0.33 34:0.17 35:0.33 36:0.67 37:1.0 38:0.33 39:1.0 40:0.67 41:0.33 42:0.33 43:1.0 44:0.33 46:0.33 47:0.2 49:0.33 50:1.0 51:0.25 52:0.5 53:0.17 54:0.17 56:0.2 57:0.33 58:0.5 61:1.0 63:0.2 64:0.5 65:1.0 66:0.2 67:0.17 68:1.0 69:1.0 71:0.14 72:0.5 73:1.0 74:0.5 75:0.2 76:0.5 78:0.67 79:0.5 80:0.2 83:0.17 84:1.0 87:0.4 93:0.67 94:0.5 95:0.25 96:1.0 100:0.17 101:0.17 102:0.5 103:0.25 105:0.5 106:0.5 108:0.4 111:0.25 112:0.33 114:0.25 115:0.14 116:0.5 117:1.0 118:0.67 119:0.5 120:1.0 123:0.5 125:0.5 126:0.25 127:0.33 128:1.0 129:1.0 130:0.67 131:1.0 133:1.0 134:1.0 135:1.0 137:0.5 139:0.5 140:1.0 141:1.0 143:1.0 144:1.0 145:1.0 147:0.5 148:0.33 149:1.0 150:1.0 151:1.0 152:1.0 153:0.33 154:1.0 155:1.0 156:1.0 158:1.0 160:0.5 161:0.5 162:1.0 163:1.0 164:1.0 166:1.0 167:1.0 168:1.0 170:1.0 171:0.5 
-1.0 -1.0 -1.0 1.0 0.0 1.0 1.0 3:1.0 5:0.33 7:0.2 8:0.2 13:0.14 14:0.25 16:0.67 17:0.33 18:0.5 19:0.33 20:0.25 21:0.25 25:0.25 26:0.67 27:0.25 28:0.33 30:0.2 33:0.33 34:0.33 36:0.33 37:1.0 39:1.0 40:0.33 42:0.33 43:0.5 44:0.33 46:0.33 47:0.4 48:0.33 49:0.33 51:0.5 52:0.25 53:0.17 54:0.33 56:0.4 58:0.5 61:0.17 63:0.4 64:0.25 66:0.4 67:0.17 68:0.2 69:0.5 71:0.29 73:0.33 74:0.5 75:0.4 76:0.5 77:0.5 78:0.33 83:0.33 84:0.25 92:0.5 93:1.0 96:0.33 99:1.0 100:0.33 101:0.33 102:0.5 103:0.5 104:0.5 106:0.5 108:0.2 112:0.67 115:0.29 116:0.25 117:0.25 118:0.33 119:0.5 120:1.0 124:0.5 126:0.5 129:0.5 130:0.33 131:0.14 133:0.2 144:0.2 145:1.0 148:0.33 149:0.17 150:0.17 151:1.0 152:0.5 155:0.5 156:0.2 160:0.5 162:0.2 163:0.5 166:0.17 170:0.2 
-1.0 -1.0 -1.0 1.0 1.0 1.0 1.0 1:0.25 9:0.2 13:0.14 15:0.5 22:0.33 27:0.25 29:0.33 41:0.33 44:0.33 53:0.17 55:0.5 59:0.33 60:0.5 62:0.33 67:0.17 74:0.5 80:0.2 81:1.0 86:0.5 89:0.5 91:0.33 97:0.5 105:0.5 109:0.5 110:0.5 123:0.5 127:0.33 139:0.5 146:0.33 159:0.5 
-0.0 -1.0 -0.0 1.0 1.0 0.29010443721907186 0.979498981917559 2:0.67 3:1.0 4:1.0 5:0.5 7:0.6 8:1.0 10:1.0 12:1.0 13:1.0 14:0.25 16:0.67 17:0.67 18:0.5 19:0.33 20:0.25 21:1.0 25:0.25 26:0.67 27:0.75 28:0.67 30:1.0 31:1.0 33:0.33 34:0.5 36:0.33 37:1.0 39:1.0 40:0.33 42:1.0 43:0.5 44:1.0 46:0.33 47:0.6 48:0.67 49:0.33 51:0.5 52:0.75 53:1.0 54:0.5 56:0.4 58:0.5 61:1.0 63:0.6 64:0.5 66:0.6 67:1.0 68:1.0 69:0.5 70:1.0 71:0.43 73:0.67 74:1.0 75:0.4 78:0.33 81:1.0 83:0.5 84:1.0 86:0.5 88:0.5 92:0.5 93:0.67 94:0.5 96:1.0 97:0.5 98:1.0 100:0.5 101:0.33 102:0.5 103:0.5 104:0.5 106:0.5 108:0.2 110:1.0 112:0.67 113:1.0 115:0.43 116:0.25 117:1.0 118:0.67 119:1.0 120:1.0 121:1.0 122:1.0 125:0.5 126:0.5 129:0.5 130:0.67 131:0.86 132:1.0 133:1.0 134:1.0 137:0.5 138:1.0 140:0.83 142:1.0 144:1.0 145:1.0 146:1.0 148:1.0 149:0.83 150:0.83 151:1.0 152:0.5 153:0.67 155:0.5 156:0.8 157:1.0 158:0.8 160:1.0 161:0.5 162:1.0 163:0.5 165:1.0 166:1.0 168:0.8 169:1.0 170:0.8 172:1.0 
-1.0 -1.0 -1.0 1.0 0.0 1.0 1.0 3:1.0 5:0.33 7:0.2 8:0.2 13:0.14 14:0.25 16:0.67 17:0.33 18:0.5 19:0.33 20:0.25 21:0.25 25:0.25 26:0.67 27:0.25 28:0.33 30:0.2 33:0.33 34:0.33 36:0.33 37:1.0 39:1.0 40:0.33 42:0.33 43:0.5 44:0.33 46:0.33 47:0.4 48:0.33 49:0.33 51:0.5 52:0.25 53:0.17 54:0.33 56:0.4 58:0.5 61:0.17 63:0.4 64:0.25 66:0.4 67:0.17 68:0.2 69:0.5 71:0.29 73:0.33 74:0.5 75:0.4 76:0.5 77:0.5 78:0.33 83:0.33 84:0.25 92:0.5 93:1.0 96:0.33 99:1.0 100:0.33 101:0.33 102:0.5 103:0.5 104:0.5 106:0.5 108:0.2 112:0.67 115:0.29 116:0.25 117:0.25 118:0.33 119:0.5 120:1.0 124:0.5 126:0.5 129:0.5 130:0.33 131:0.14 133:0.2 144:0.2 145:1.0 148:0.33 149:0.17 150:0.17 151:1.0 152:0.5 155:0.5 156:0.2 160:0.5 162:0.2 163:0.5 166:0.17 170:0.2 
-0.2942339366359048 -0.0 -1.0 0.0 0.0 1.0 1.0 1:0.25 3:1.0 5:0.17 7:0.2 8:1.0 9:0.2 11:0.5 12:1.0 13:0.14 14:0.5 16:0.33 17:0.67 19:0.33 20:0.5 21:1.0 25:0.5 26:0.67 27:0.25 28:1.0 30:1.0 32:0.5 33:0.67 34:0.17 35:0.33 36:0.67 37:1.0 38:0.33 39:1.0 40:0.33 42:0.33 43:0.5 44:0.33 45:0.33 47:0.2 49:0.67 51:0.25 52:0.25 53:0.17 54:0.17 55:0.5 56:0.2 58:0.5 60:0.5 61:1.0 62:0.33 63:0.2 64:0.75 66:0.2 67:0.17 68:1.0 69:0.5 71:0.14 73:0.67 74:0.5 75:0.2 78:0.67 80:0.2 81:1.0 83:0.17 84:1.0 85:0.33 87:0.2 91:0.33 93:0.67 95:0.25 96:1.0 100:0.17 101:0.17 102:0.5 103:0.25 106:1.0 107:0.5 108:0.4 111:0.25 112:0.33 114:0.25 115:0.14 116:0.25 117:1.0 118:0.33 119:0.5 120:1.0 126:0.25 127:0.33 129:0.5 130:0.67 131:0.86 133:1.0 134:1.0 136:1.0 137:0.5 140:0.83 144:1.0 145:1.0 147:0.5 148:0.33 149:0.83 150:0.83 151:1.0 152:0.5 155:0.5 156:0.8 158:0.8 159:0.5 160:0.5 162:1.0 163:0.5 166:1.0 168:0.8 170:0.8 171:0.5 173:1.0 
-1.0 -0.0 -1.0 0.0 0.0 1.0 1.0 1:0.25 3:1.0 5:0.17 7:0.2 8:1.0 9:0.2 11:0.5 12:1.0 13:0.14 14:0.5 16:0.33 17:0.67 19:0.33 20:0.5 21:1.0 25:0.5 26:0.67 27:0.25 28:1.0 30:1.0 32:0.5 33:0.67 34:0.17 35:0.33 36:0.67 37:1.0 38:0.33 39:1.0 40:0.33 42:0.33 43:0.5 44:0.33 45:0.33 47:0.2 49:0.67 51:0.25 52:0.25 53:0.17 54:0.17 55:0.5 56:0.2 58:0.5 60:0.5 61:1.0 62:0.33 63:0.2 64:0.75 66:0.2 67:0.17 68:1.0 69:0.5 71:0.14 73:0.67 74:0.5 75:0.2 78:0.67 80:0.2 81:1.0 83:0.17 84:1.0 85:0.33 87:0.2 91:0.33 93:0.67 95:0.25 96:1.0 100:0.17 101:0.17 102:0.5 103:0.25 106:1.0 107:0.5 108:0.4 111:0.25 112:0.33 114:0.25 115:0.14 116:0.25 117:1.0 118:0.33 119:0.5 120:1.0 126:0.25 127:0.33 129:0.5 130:0.67 131:0.86 133:1.0 134:1.0 136:1.0 137:0.5 140:0.83 144:1.0 145:1.0 147:0.5 148:0.33 149:0.83 150:0.83 151:1.0 152:0.5 155:0.5 156:0.8 158:0.8 159:0.5 160:0.5 162:1.0 163:0.5 166:1.0 168:0.8 170:0.8 171:0.5 173:1.0 
-0.8740434322674859 -0.0 -1.0 0.0 0.0 1.0 1.0 1:0.25 3:1.0 5:0.17 7:0.2 8:1.0 9:0.2 11:0.5 12:1.0 13:0.14 14:0.5 16:0.33 17:0.67 19:0.33 20:0.5 21:1.0 25:0.5 26:0.67 27:0.25 28:1.0 30:1.0 32:0.5 33:0.67 34:0.17 35:0.33 36:0.67 37:1.0 38:0.33 39:1.0 40:0.33 42:0.33 43:0.5 44:0.33 45:0.33 47:0.2 49:0.67 51:0.25 52:0.25 53:0.17 54:0.17 55:0.5 56:0.2 58:0.5 60:0.5 61:1.0 62:0.33 63:0.2 64:0.75 66:0.2 67:0.17 68:1.0 69:0.5 71:0.14 73:0.67 74:0.5 75:0.2 78:0.67 80:0.2 81:1.0 83:0.17 84:1.0 85:0.33 87:0.2 91:0.33 93:0.67 95:0.25 96:1.0 100:0.17 101:0.17 102:0.5 103:0.25 106:1.0 107:0.5 108:0.4 111:0.25 112:0.33 114:0.25 115:0.14 116:0.25 117:1.0 118:0.33 119:0.5 120:1.0 126:0.25 127:0.33 129:0.5 130:0.67 131:0.86 133:1.0 134:1.0 136:1.0 137:0.5 140:0.83 144:1.0 145:1.0 147:0.5 148:0.33 149:0.83 150:0.83 151:1.0 152:0.5 155:0.5 156:0.8 158:0.8 159:0.5 160:0.5 162:1.0 163:0.5 166:1.0 168:0.8 170:0.8 171:0.5 173:1.0 
-0.0 -1.0 -0.0 1.0 0.0 0.010400946862991553 0.0 2:0.33 3:1.0 5:0.33 7:0.4 8:1.0 12:1.0 13:0.86 14:0.25 16:0.33 17:0.67 19:0.33 20:0.25 21:1.0 25:0.25 26:0.67 27:0.75 28:0.67 30:1.0 31:0.5 33:0.33 34:0.33 36:0.33 37:1.0 39:1.0 40:0.33 42:0.67 43:0.5 44:1.0 47:0.4 48:0.33 49:0.33 51:0.5 52:0.5 53:0.83 54:0.33 56:0.4 58:0.5 61:1.0 63:0.4 64:0.5 66:0.4 67:0.83 68:1.0 69:0.5 70:1.0 71:0.29 73:0.67 74:1.0 75:0.4 78:0.33 81:1.0 83:0.33 84:1.0 93:0.67 96:1.0 97:0.5 100:0.33 101:0.17 102:0.5 103:0.5 104:0.5 106:0.5 108:0.2 110:1.0 112:0.33 113:0.5 115:0.29 116:0.25 117:1.0 118:0.67 119:1.0 120:1.0 122:1.0 125:0.5 126:0.25 129:0.5 130:0.67 131:0.86 132:0.5 133:1.0 134:1.0 137:0.5 138:0.5 140:0.83 144:1.0 145:1.0 146:0.67 148:0.67 149:0.83 150:0.83 151:1.0 152:0.5 153:0.33 155:0.5 156:0.8 157:1.0 158:0.8 160:0.5 162:1.0 163:0.5 166:1.0 168:0.8 170:0.8 172:0.5 
-0.13933340502451658 -1.0 -1.0 1.0 1.0 0.0 1.0 1:0.25 2:0.67 3:1.0 5:0.33 7:0.4 8:1.0 9:0.2 11:0.5 12:1.0 13:0.29 14:0.5 16:0.33 17:1.0 19:0.67 20:0.5 21:1.0 23:1.0 24:1.0 25:0.25 26:0.67 27:0.75 28:0.67 30:1.0 31:0.5 33:0.33 34:0.33 35:0.33 36:0.67 37:1.0 38:0.33 39:1.0 40:0.33 41:0.33 42:0.67 43:1.0 44:0.67 45:0.33 46:0.33 47:0.4 48:0.33 49:0.33 51:0.5 52:0.75 53:0.33 54:0.33 56:0.4 57:0.33 58:1.0 59:0.33 61:1.0 63:0.4 64:0.5 66:0.4 67:0.33 68:1.0 69:1.0 70:1.0 71:0.29 72:0.5 73:0.67 74:0.5 75:0.4 76:0.5 78:0.33 79:0.5 80:0.4 83:0.33 84:1.0 85:0.33 87:0.4 89:0.5 91:0.33 93:0.67 94:0.5 95:0.5 96:1.0 97:0.5 100:0.33 101:0.17 102:0.5 103:0.5 104:0.5 106:0.5 107:0.5 108:0.4 110:0.5 111:0.25 112:0.33 113:0.5 114:0.25 115:0.29 116:0.5 117:1.0 118:1.0 119:1.0 120:1.0 122:1.0 123:0.5 125:1.0 126:0.25 129:0.5 130:0.67 131:1.0 132:0.5 133:1.0 134:1.0 137:0.5 138:0.5 140:1.0 144:1.0 145:1.0 146:0.33 147:0.5 148:0.67 149:1.0 150:1.0 151:1.0 152:0.5 153:0.67 155:0.5 156:1.0 157:1.0 158:1.0 160:0.5 161:0.5 162:1.0 163:0.5 166:1.0 168:1.0 170:1.0 172:0.5 
-1.0 -1.0 -1.0 1.0 1.0 1.0 1.0 1:0.25 9:0.2 13:0.14 15:0.5 22:0.33 27:0.25 29:0.33 41:0.33 44:0.33 53:0.17 55:0.5 59:0.33 60:0.5 62:0.33 67:0.17 74:0.5 80:0.2 81:1.0 86:0.5 89:0.5 91:0.33 97:0.5 105:0.5 109:0.5 110:0.5 123:0.5 127:0.33 139:0.5 146:0.33 159:0.5 
-0.0 -0.0 -0.0 0.0 0.0 0.5084110618855439 0.0 2:0.33 8:1.0 11:0.5 12:1.0 14:0.25 17:0.67 21:1.0 24:1.0 26:0.33 27:0.25 28:0.33 30:1.0 35:0.33 36:0.33 37:0.5 43:1.0 46:0.33 52:0.25 61:1.0 64:0.25 68:1.0 69:0.5 72:0.5 73:0.33 76:0.5 80:0.2 84:1.0 87:0.2 93:0.33 94:0.5 95:0.25 96:1.0 117:1.0 118:0.33 120:1.0 123:0.5 125:0.5 130:0.33 131:1.0 133:1.0 134:1.0 137:0.5 140:1.0 144:1.0 147:0.5 149:1.0 150:1.0 151:1.0 153:0.33 156:1.0 158:1.0 161:0.5 162:1.0 166:1.0 168:1.0 170:1.0 
-0.0 -0.0 -0.6817317703898123 0.0 0.0 1.0 0.8379788485251407 2:0.33 8:1.0 11:0.5 12:1.0 14:0.25 17:0.67 21:1.0 24:1.0 26:0.33 27:0.25 28:0.33 30:1.0 35:0.33 36:0.33 37:0.5 43:1.0 46:0.33 52:0.25 61:1.0 64:0.25 68:1.0 69:0.5 72:0.5 73:0.33 76:0.5 80:0.2 84:1.0 87:0.2 93:0.33 94:0.5 95:0.25 96:1.0 117:1.0 118:0.33 120:1.0 123:0.5 125:0.5 130:0.33 131:1.0 133:1.0 134:1.0 137:0.5 140:1.0 144:1.0 147:0.5 149:1.0 150:1.0 151:1.0 153:0.33 156:1.0 158:1.0 161:0.5 162:1.0 166:1.0 168:1.0 170:1.0 
-0.0 -0.07355085813124478 -1.0 0.0 0.03317727451834339 0.9078809070810568 0.5604956867056793 2:0.33 8:1.0 11:0.5 12:1.0 14:0.25 17:0.67 21:1.0 24:1.0 26:0.33 27:0.25 28:0.33 30:1.0 35:0.33 36:0.33 37:0.5 43:1.0 46:0.33 52:0.25 61:1.0 64:0.25 68:1.0 69:0.5 72:0.5 73:0.33 76:0.5 80:0.2 84:1.0 87:0.2 93:0.33 94:0.5 95:0.25 96:1.0 117:1.0 118:0.33 120:1.0 123:0.5 125:0.5 130:0.33 131:1.0 133:1.0 134:1.0 137:0.5 140:1.0 144:1.0 147:0.5 149:1.0 150:1.0 151:1.0 153:0.33 156:1.0 158:1.0 161:0.5 162:1.0 166:1.0 168:1.0 170:1.0 
-1.0 -1.0 -1.0 1.0 1.0 1.0 1.0 3:1.0 5:0.33 7:0.2 8:0.2 13:0.14 14:0.25 16:0.67 17:0.33 18:0.5 19:0.33 20:0.25 21:0.25 25:0.25 26:0.67 27:0.25 28:0.33 30:0.2 33:0.33 34:0.33 36:0.33 37:1.0 39:1.0 40:0.33 42:0.33 43:0.5 44:0.33 46:0.33 47:0.4 48:0.33 49:0.33 51:0.5 52:0.25 53:0.17 54:0.33 56:0.4 58:0.5 61:0.17 63:0.4 64:0.25 66:0.4 67:0.17 68:0.2 69:0.5 71:0.29 73:0.33 74:0.5 75:0.4 76:0.5 77:0.5 78:0.33 83:0.33 84:0.25 92:0.5 93:1.0 96:0.33 99:1.0 100:0.33 101:0.33 102:0.5 103:0.5 104:0.5 106:0.5 108:0.2 112:0.67 115:0.29 116:0.25 117:0.25 118:0.33 119:0.5 120:1.0 124:0.5 126:0.5 129:0.5 130:0.33 131:0.14 133:0.2 144:0.2 145:1.0 148:0.33 149:0.17 150:0.17 151:1.0 152:0.5 155:0.5 156:0.2 160:0.5 162:0.2 163:0.5 166:0.17 170:0.2 
-1.0 -1.0 -1.0 1.0 0.9668227254816566 1.0 1.0 3:1.0 5:0.33 7:0.2 8:0.2 13:0.14 14:0.25 16:0.67 17:0.33 18:0.5 19:0.33 20:0.25 21:0.25 25:0.25 26:0.67 27:0.25 28:0.33 30:0.2 33:0.33 34:0.33 36:0.33 37:1.0 39:1.0 40:0.33 42:0.33 43:0.5 44:0.33 46:0.33 47:0.4 48:0.33 49:0.33 51:0.5 52:0.25 53:0.17 54:0.33 56:0.4 58:0.5 61:0.17 63:0.4 64:0.25 66:0.4 67:0.17 68:0.2 69:0.5 71:0.29 73:0.33 74:0.5 75:0.4 76:0.5 77:0.5 78:0.33 83:0.33 84:0.25 92:0.5 93:1.0 96:0.33 99:1.0 100:0.33 101:0.33 102:0.5 103:0.5 104:0.5 106:0.5 108:0.2 112:0.67 115:0.29 116:0.25 117:0.25 118:0.33 119:0.5 120:1.0 124:0.5 126:0.5 129:0.5 130:0.33 131:0.14 133:0.2 144:0.2 145:1.0 148:0.33 149:0.17 150:0.17 151:1.0 152:0.5 155:0.5 156:0.2 160:0.5 162:0.2 163:0.5 166:0.17 170:0.2 
-1.0 -1.0 -1.0 -0.5618495159668622 1.0 1.0 1.0 1:0.25 2:1.0 4:1.0 5:0.17 7:0.2 9:0.4 10:1.0 11:0.5 13:0.86 14:0.5 15:1.0 16:0.33 17:0.33 19:0.33 20:0.25 22:0.67 24:1.0 25:0.25 27:0.75 29:0.67 31:1.0 32:0.5 34:0.17 35:0.33 36:0.33 38:0.33 40:0.33 41:0.67 42:0.67 43:0.5 44:0.67 46:0.67 47:0.2 48:0.67 50:1.0 51:0.25 52:0.75 53:0.83 54:0.33 55:0.5 56:0.2 57:0.33 59:0.33 60:0.5 62:0.33 63:0.2 65:1.0 66:0.4 67:0.83 69:0.5 70:1.0 71:0.29 72:0.5 73:0.33 74:0.5 75:0.2 76:0.5 78:0.33 79:0.5 80:0.4 83:0.33 86:0.5 87:0.4 88:0.5 89:0.5 91:0.33 92:0.5 94:1.0 95:0.25 97:1.0 98:1.0 100:0.33 103:0.25 104:0.5 105:1.0 108:0.2 109:0.5 110:1.0 111:0.25 113:1.0 114:0.25 115:0.14 116:0.25 118:0.67 119:0.5 122:1.0 123:1.0 125:1.0 127:0.67 128:1.0 129:0.5 131:0.14 132:1.0 135:1.0 138:1.0 139:1.0 140:0.17 141:1.0 142:1.0 143:1.0 146:1.0 147:0.5 148:0.67 149:0.17 150:0.17 152:0.5 153:1.0 154:1.0 155:0.5 156:0.2 157:1.0 158:0.2 159:0.5 160:0.5 161:1.0 163:0.5 164:1.0 165:1.0 167:1.0 168:0.2 169:1.0 170:0.2 171:0.5 172:1.0 
-1.0 -1.0 -1.0 -1.0 1.0 1.0 1.0 1:0.25 2:0.67 4:1.0 5:0.17 7:0.2 9:0.2 10:1.0 13:0.71 15:0.5 16:0.33 22:0.33 27:0.25 29:0.33 31:1.0 34:0.17 41:0.33 42:0.67 44:0.33 46:0.33 47:0.2 48:0.67 51:0.25 52:0.5 53:0.67 54:0.33 55:0.5 56:0.2 59:0.33 60:0.5 62:0.33 63:0.2 66:0.4 67:0.67 70:1.0 71:0.29 75:0.2 80:0.2 81:1.0 83:0.33 86:0.5 88:0.5 89:0.5 91:0.33 92:0.5 94:0.5 97:1.0 98:1.0 100:0.33 103:0.25 104:0.5 105:0.5 109:0.5 110:0.5 113:1.0 115:0.14 118:0.33 119:0.5 122:1.0 123:0.5 125:0.5 127:0.33 132:1.0 138:1.0 139:0.5 142:1.0 146:0.67 148:0.67 153:0.67 157:1.0 159:0.5 160:0.5 161:0.5 165:1.0 169:1.0 172:1.0 
-0.0 -1.0 -0.0 -0.5823548352347916 0.31079917362753773 0.21962866814657986 1.0 2:0.67 3:1.0 4:1.0 5:0.33 7:0.4 10:1.0 13:1.0 14:0.25 16:0.67 17:0.33 19:0.33 20:0.25 25:0.25 26:0.33 27:0.75 28:0.33 31:1.0 33:0.33 34:0.33 36:0.33 37:0.5 39:1.0 40:0.33 42:1.0 44:1.0 46:0.33 47:0.4 48:0.67 49:0.33 51:0.5 52:0.75 53:1.0 54:0.5 56:0.4 58:0.5 63:0.4 64:0.25 66:0.6 67:1.0 69:0.5 70:1.0 71:0.43 73:0.33 74:1.0 75:0.4 78:0.33 81:1.0 83:0.5 88:0.5 92:0.5 93:0.33 94:0.5 97:0.5 98:1.0 100:0.5 101:0.17 102:0.5 103:0.5 104:0.5 106:0.5 108:0.2 110:1.0 112:0.33 113:1.0 115:0.29 116:0.25 118:0.67 119:1.0 122:1.0 125:0.5 126:0.25 129:0.5 130:0.33 132:1.0 138:1.0 142:1.0 145:1.0 146:1.0 148:1.0 152:0.5 153:0.67 155:0.5 157:1.0 160:1.0 161:0.5 163:0.5 165:1.0 169:1.0 172:1.0 
-0.0 -1.0 -0.0 -0.3738662234228042 0.0 0.913121970632311 0.8943236434572094 1:0.25 2:0.67 3:1.0 4:1.0 5:0.5 7:0.4 8:0.2 9:0.2 10:1.0 12:0.2 13:0.43 14:0.25 16:1.0 17:0.67 18:0.5 19:0.67 20:0.5 21:0.25 23:1.0 25:0.25 26:1.0 27:0.5 28:0.67 30:0.2 31:1.0 33:0.33 34:0.5 36:0.33 37:0.5 38:0.33 39:1.0 40:0.33 41:0.33 42:1.0 44:0.67 45:0.33 46:0.67 47:0.6 48:1.0 49:0.33 51:0.75 52:0.75 53:0.5 54:0.67 56:0.6 57:0.33 58:1.0 59:0.33 61:0.17 63:0.6 64:0.5 66:0.8 67:0.5 68:0.2 69:0.5 70:1.0 71:0.57 73:0.67 74:0.5 75:0.6 76:0.5 77:0.5 78:0.33 79:0.5 80:0.2 83:0.67 84:0.25 85:0.33 87:0.2 88:0.5 89:0.5 91:0.33 92:1.0 93:0.67 94:0.5 95:0.25 96:0.33 97:0.5 98:1.0 99:1.0 100:0.67 101:0.33 102:0.5 103:0.75 104:1.0 106:0.5 107:0.5 108:0.4 110:0.5 111:0.25 112:0.67 113:1.0 114:0.25 115:0.43 116:0.5 117:0.25 118:0.67 119:1.0 122:1.0 124:0.5 125:0.5 126:0.5 129:0.5 130:0.67 131:0.14 132:1.0 133:0.2 134:0.25 137:0.5 138:1.0 140:0.17 142:1.0 144:0.2 145:1.0 146:0.67 148:1.0 149:0.17 152:0.5 153:0.67 155:0.5 157:1.0 158:0.2 160:1.0 161:0.5 162:0.2 163:0.5 165:1.0 166:0.17 168:0.2 169:1.0 170:0.2 172:1.0 
-1.0 -1.0 -1.0 -1.0 0.1829493684745696 1.0 1.0 2:0.33 3:1.0 4:1.0 5:0.33 7:0.2 10:1.0 13:0.29 14:0.25 16:1.0 17:0.33 18:0.5 19:0.33 20:0.25 25:0.25 26:0.67 27:0.25 28:0.33 31:0.5 33:0.33 34:0.33 36:0.33 37:0.5 39:1.0 40:0.33 42:0.67 44:0.33 46:0.67 47:0.4 48:0.67 49:0.33 51:0.5 52:0.5 53:0.33 54:0.5 56:0.4 58:0.5 63:0.4 64:0.25 66:0.6 67:0.33 69:0.5 71:0.43 73:0.33 74:0.5 75:0.4 76:0.5 77:0.5 78:0.33 83:0.5 88:0.5 92:1.0 93:0.67 94:0.5 98:1.0 99:1.0 100:0.5 101:0.33 102:0.5 103:0.5 104:0.5 106:0.5 108:0.2 112:0.67 113:0.5 115:0.29 116:0.25 118:0.33 119:0.5 124:0.5 126:0.5 129:0.5 130:0.33 132:0.5 138:0.5 142:1.0 145:1.0 146:0.33 148:0.67 152:0.5 153:0.33 155:0.5 160:1.0 161:0.5 163:0.5 165:1.0 169:1.0 172:0.5 
-0.0 -1.0 -0.0 -0.0 0.0 0.0 0.0 2:0.67 3:1.0 4:1.0 5:0.5 7:0.6 10:1.0 13:1.0 14:0.25 16:0.67 17:0.33 18:0.5 19:0.33 20:0.25 25:0.25 26:0.33 27:0.75 28:0.33 31:1.0 33:0.33 34:0.5 36:0.33 37:0.5 39:1.0 40:0.33 42:1.0 44:1.0 46:0.33 47:0.6 48:0.67 49:0.33 51:0.5 52:0.75 53:1.0 54:0.5 56:0.4 58:0.5 63:0.6 64:0.25 66:0.6 67:1.0 69:0.5 70:1.0 71:0.43 73:0.33 74:1.0 75:0.4 78:0.33 81:1.0 83:0.5 86:0.5 88:0.5 92:0.5 93:0.33 94:0.5 97:0.5 98:1.0 100:0.5 101:0.33 102:0.5 103:0.5 104:0.5 106:0.5 108:0.2 110:1.0 112:0.67 113:1.0 115:0.43 116:0.25 118:0.67 119:1.0 121:1.0 122:1.0 125:0.5 126:0.5 129:0.5 130:0.33 132:1.0 138:1.0 142:1.0 145:1.0 146:1.0 148:1.0 152:0.5 153:0.67 155:0.5 157:1.0 160:1.0 161:0.5 163:0.5 165:1.0 169:1.0 172:1.0 
-0.0 -1.0 -0.0 -0.0 1.0 0.0 0.8138115123884544 1:0.25 2:1.0 4:1.0 5:0.83 7:0.8 9:0.2 10:1.0 11:0.5 13:0.43 14:0.25 15:0.5 16:0.67 17:0.33 18:1.0 22:0.33 24:1.0 26:0.33 27:0.75 29:0.33 31:1.0 34:0.83 35:0.33 36:0.33 41:0.33 42:0.67 43:0.5 44:0.67 46:1.0 47:0.8 48:1.0 51:0.75 52:0.75 53:0.5 54:0.83 55:0.5 56:0.8 59:0.33 60:0.5 62:0.33 63:0.8 66:0.8 67:0.5 69:0.5 70:1.0 71:0.86 72:0.5 74:0.5 75:0.8 76:1.0 77:0.5 80:0.4 83:0.83 86:1.0 87:0.2 88:0.5 89:0.5 91:0.33 92:1.0 93:0.33 94:1.0 95:0.25 97:1.0 98:1.0 99:1.0 100:0.83 101:0.83 103:0.75 104:1.0 105:0.5 109:0.5 110:1.0 112:0.67 113:1.0 115:0.86 118:0.67 119:0.5 121:1.0 122:1.0 123:1.0 124:0.5 125:1.0 126:0.75 127:0.33 131:0.14 132:1.0 138:1.0 139:0.5 140:0.17 142:1.0 146:1.0 147:0.5 148:0.67 149:0.17 150:0.17 153:1.0 156:0.2 157:1.0 158:0.2 159:0.5 160:0.5 161:1.0 165:1.0 168:0.2 169:1.0 170:0.2 172:1.0 
-0.0 -1.0 -0.0 -0.0 0.0 0.0 0.0 2:0.67 3:1.0 4:1.0 5:0.5 7:0.6 10:1.0 13:1.0 14:0.25 16:0.67 17:0.33 18:0.5 19:0.33 20:0.25 25:0.25 26:0.33 27:0.75 28:0.33 31:1.0 33:0.33 34:0.5 36:0.33 37:0.5 39:1.0 40:0.33 42:1.0 44:1.0 46:0.33 47:0.6 48:0.67 49:0.33 51:0.5 52:0.75 53:1.0 54:0.5 56:0.4 58:0.5 63:0.6 64:0.25 66:0.6 67:1.0 69:0.5 70:1.0 71:0.43 73:0.33 74:1.0 75:0.4 78:0.33 81:1.0 83:0.5 86:0.5 88:0.5 92:0.5 93:0.33 94:0.5 97:0.5 98:1.0 100:0.5 101:0.33 102:0.5 103:0.5 104:0.5 106:0.5 108:0.2 110:1.0 112:0.67 113:1.0 115:0.43 116:0.25 118:0.67 119:1.0 121:1.0 122:1.0 125:0.5 126:0.5 129:0.5 130:0.33 132:1.0 138:1.0 142:1.0 145:1.0 146:1.0 148:1.0 152:0.5 153:0.67 155:0.5 157:1.0 160:1.0 161:0.5 163:0.5 165:1.0 169:1.0 172:1.0 
-0.3993595758537643 -1.0 -0.29833400679198147 -0.8243184151778259 0.18108007800660744 0.0 1.0 1:0.25 2:1.0 3:1.0 4:1.0 5:0.33 7:0.4 8:0.2 9:0.2 10:1.0 11:0.5 12:0.2 13:0.57 14:0.5 16:0.67 17:1.0 19:0.67 20:0.5 21:0.25 23:1.0 24:1.0 25:0.25 26:0.67 27:1.0 28:0.67 30:0.2 31:1.0 33:0.33 34:0.33 35:0.33 36:0.67 37:0.5 38:0.33 39:1.0 40:0.33 41:0.33 42:1.0 43:0.5 44:1.0 45:0.33 46:0.67 47:0.4 48:0.67 49:0.33 51:0.5 52:1.0 53:0.67 54:0.5 56:0.4 57:0.33 58:1.0 59:0.33 61:0.17 63:0.4 64:0.5 66:0.6 67:0.67 68:0.2 69:1.0 70:1.0 71:0.43 72:0.5 73:0.67 74:1.0 75:0.4 76:0.5 78:0.33 79:0.5 80:0.4 83:0.5 84:0.25 85:0.33 87:0.4 88:0.5 89:0.5 91:0.33 92:0.5 93:0.33 94:1.0 95:0.5 96:0.33 97:0.5 98:1.0 100:0.5 101:0.17 102:0.5 103:0.5 104:0.5 106:0.5 107:0.5 108:0.4 110:1.0 111:0.25 112:0.33 113:1.0 114:0.25 115:0.29 116:0.5 117:0.25 118:1.0 119:1.0 122:1.0 123:0.5 125:1.0 126:0.25 129:0.5 130:0.67 131:0.29 132:1.0 133:0.2 134:0.25 137:0.5 138:1.0 140:0.33 142:1.0 144:0.2 145:1.0 146:1.0 147:0.5 148:1.0 149:0.33 150:0.17 152:0.5 153:1.0 155:0.5 156:0.2 157:1.0 158:0.4 160:1.0 161:1.0 162:0.2 163:0.5 165:1.0 166:0.17 168:0.4 169:1.0 170:0.4 172:1.0 
-0.9008626743564296 -1.0 -0.9869088811126825 -0.9902476151482755 1.0 0.7671095867394127 1.0 2:0.67 3:1.0 4:1.0 5:0.33 7:0.4 10:1.0 13:1.0 14:0.25 16:0.67 17:0.33 19:0.33 20:0.25 25:0.25 26:0.33 27:0.75 28:0.33 31:1.0 33:0.33 34:0.33 36:0.33 37:0.5 39:1.0 40:0.33 42:1.0 44:1.0 46:0.33 47:0.4 48:0.67 49:0.33 51:0.5 52:0.75 53:1.0 54:0.5 56:0.4 58:0.5 63:0.4 64:0.25 66:0.6 67:1.0 69:0.5 70:1.0 71:0.43 73:0.33 74:1.0 75:0.4 78:0.33 81:1.0 83:0.5 88:0.5 92:0.5 93:0.33 94:0.5 97:0.5 98:1.0 100:0.5 101:0.17 102:0.5 103:0.5 104:0.5 106:0.5 108:0.2 110:1.0 112:0.33 113:1.0 115:0.29 116:0.25 118:0.67 119:1.0 122:1.0 125:0.5 126:0.25 129:0.5 130:0.33 132:1.0 138:1.0 142:1.0 145:1.0 146:1.0 148:1.0 152:0.5 153:0.67 155:0.5 157:1.0 160:1.0 161:0.5 163:0.5 165:1.0 169:1.0 172:1.0 
-0.0 -1.0 -0.8549811790002658 -1.0 0.0 1.0 1.0 1:0.25 2:0.67 3:1.0 4:1.0 5:0.5 7:0.4 8:0.2 9:0.2 10:1.0 12:0.2 13:0.43 14:0.25 16:1.0 17:0.67 18:0.5 19:0.67 20:0.5 21:0.25 23:1.0 25:0.25 26:1.0 27:0.5 28:0.67 30:0.2 31:1.0 33:0.33 34:0.5 36:0.33 37:0.5 38:0.33 39:1.0 40:0.33 41:0.33 42:1.0 44:0.67 45:0.33 46:0.67 47:0.6 48:1.0 49:0.33 51:0.75 52:0.75 53:0.5 54:0.67 56:0.6 57:0.33 58:1.0 59:0.33 61:0.17 63:0.6 64:0.5 66:0.8 67:0.5 68:0.2 69:0.5 70:1.0 71:0.57 73:0.67 74:0.5 75:0.6 76:0.5 77:0.5 78:0.33 79:0.5 80:0.2 83:0.67 84:0.25 85:0.33 87:0.2 88:0.5 89:0.5 91:0.33 92:1.0 93:0.67 94:0.5 95:0.25 96:0.33 97:0.5 98:1.0 99:1.0 100:0.67 101:0.33 102:0.5 103:0.75 104:1.0 106:0.5 107:0.5 108:0.4 110:0.5 111:0.25 112:0.67 113:1.0 114:0.25 115:0.43 116:0.5 117:0.25 118:0.67 119:1.0 122:1.0 124:0.5 125:0.5 126:0.5 129:0.5 130:0.67 131:0.14 132:1.0 133:0.2 134:0.25 137:0.5 138:1.0 140:0.17 142:1.0 144:0.2 145:1.0 146:0.67 148:1.0 149:0.17 152:0.5 153:0.67 155:0.5 157:1.0 158:0.2 160:1.0 161:0.5 162:0.2 163:0.5 165:1.0 166:0.17 168:0.2 169:1.0 170:0.2 172:1.0 
-0.9414268232164528 -1.0 -0.6363952281781372 -0.9689586296582601 0.0 1.0 0.9823195540711442 1:0.25 2:0.67 3:1.0 4:1.0 5:0.5 7:0.4 8:0.2 9:0.2 10:1.0 12:0.2 13:0.43 14:0.25 16:1.0 17:0.67 18:0.5 19:0.67 20:0.5 21:0.25 23:1.0 25:0.25 26:1.0 27:0.5 28:0.67 30:0.2 31:1.0 33:0.33 34:0.5 36:0.33 37:0.5 38:0.33 39:1.0 40:0.33 41:0.33 42:1.0 44:0.67 45:0.33 46:0.67 47:0.6 48:1.0 49:0.33 51:0.75 52:0.75 53:0.5 54:0.67 56:0.6 57:0.33 58:1.0 59:0.33 61:0.17 63:0.6 64:0.5 66:0.8 67:0.5 68:0.2 69:0.5 70:1.0 71:0.57 73:0.67 74:0.5 75:0.6 76:0.5 77:0.5 78:0.33 79:0.5 80:0.2 83:0.67 84:0.25 85:0.33 87:0.2 88:0.5 89:0.5 91:0.33 92:1.0 93:0.67 94:0.5 95:0.25 96:0.33 97:0.5 98:1.0 99:1.0 100:0.67 101:0.33 102:0.5 103:0.75 104:1.0 106:0.5 107:0.5 108:0.4 110:0.5 111:0.25 112:0.67 113:1.0 114:0.25 115:0.43 116:0.5 117:0.25 118:0.67 119:1.0 122:1.0 124:0.5 125:0.5 126:0.5 129:0.5 130:0.67 131:0.14 132:1.0 133:0.2 134:0.25 137:0.5 138:1.0 140:0.17 142:1.0 144:0.2 145:1.0 146:0.67 148:1.0 149:0.17 152:0.5 153:0.67 155:0.5 157:1.0 158:0.2 160:1.0 161:0.5 162:0.2 163:0.5 165:1.0 166:0.17 168:0.2 169:1.0 170:0.2 172:1.0 
-0.9865878134640911 -1.0 -1.0 -0.0 0.9741470693425561 0.0 1.0 1:0.25 2:1.0 3:1.0 4:1.0 5:0.33 7:0.4 8:0.2 9:0.2 10:1.0 11:0.5 12:0.2 13:0.57 14:0.5 16:0.67 17:1.0 19:0.67 20:0.5 21:0.25 23:1.0 24:1.0 25:0.25 26:0.67 27:1.0 28:0.67 30:0.2 31:1.0 33:0.33 34:0.33 35:0.33 36:0.67 37:0.5 38:0.33 39:1.0 40:0.33 41:0.33 42:1.0 43:0.5 44:1.0 45:0.33 46:0.67 47:0.4 48:0.67 49:0.33 51:0.5 52:1.0 53:0.67 54:0.5 56:0.4 57:0.33 58:1.0 59:0.33 61:0.17 63:0.4 64:0.5 66:0.6 67:0.67 68:0.2 69:1.0 70:1.0 71:0.43 72:0.5 73:0.67 74:1.0 75:0.4 76:0.5 78:0.33 79:0.5 80:0.4 83:0.5 84:0.25 85:0.33 87:0.4 88:0.5 89:0.5 91:0.33 92:0.5 93:0.33 94:1.0 95:0.5 96:0.33 97:0.5 98:1.0 100:0.5 101:0.17 102:0.5 103:0.5 104:0.5 106:0.5 107:0.5 108:0.4 110:1.0 111:0.25 112:0.33 113:1.0 114:0.25 115:0.29 116:0.5 117:0.25 118:1.0 119:1.0 122:1.0 123:0.5 125:1.0 126:0.25 129:0.5 130:0.67 131:0.29 132:1.0 133:0.2 134:0.25 137:0.5 138:1.0 140:0.33 142:1.0 144:0.2 145:1.0 146:1.0 147:0.5 148:1.0 149:0.33 150:0.17 152:0.5 153:1.0 155:0.5 156:0.2 157:1.0 158:0.4 160:1.0 161:1.0 162:0.2 163:0.5 165:1.0 166:0.17 168:0.4 169:1.0 170:0.4 172:1.0 
-0.0 -1.0 -0.0 -0.6984047653911805 0.35102431054872923 0.13939253969347942 0.801168659587757 2:0.67 3:1.0 4:1.0 5:0.5 7:0.6 10:1.0 13:1.0 14:0.25 16:0.67 17:0.33 18:0.5 19:0.33 20:0.25 25:0.25 26:0.33 27:0.75 28:0.33 31:1.0 33:0.33 34:0.5 36:0.33 37:0.5 39:1.0 40:0.33 42:1.0 44:1.0 46:0.33 47:0.6 48:0.67 49:0.33 51:0.5 52:0.75 53:1.0 54:0.5 56:0.4 58:0.5 63:0.6 64:0.25 66:0.6 67:1.0 69:0.5 70:1.0 71:0.43 73:0.33 74:1.0 75:0.4 78:0.33 81:1.0 83:0.5 86:0.5 88:0.5 92:0.5 93:0.33 94:0.5 97:0.5 98:1.0 100:0.5 101:0.33 102:0.5 103:0.5 104:0.5 106:0.5 108:0.2 110:1.0 112:0.67 113:1.0 115:0.43 116:0.25 118:0.67 119:1.0 121:1.0 122:1.0 125:0.5 126:0.5 129:0.5 130:0.33 132:1.0 138:1.0 142:1.0 145:1.0 146:1.0 148:1.0 152:0.5 153:0.67 155:0.5 157:1.0 160:1.0 161:0.5 163:0.5 165:1.0 169:1.0 172:1.0 
-1.0 -1.0 -1.0 -1.0 1.0 1.0 1.0 2:0.67 4:1.0 10:1.0 11:0.5 13:0.14 14:0.25 16:0.33 17:0.33 24:1.0 27:0.25 31:0.5 35:0.33 36:0.33 42:0.33 43:0.5 46:0.67 48:0.33 52:0.5 53:0.17 54:0.17 66:0.2 67:0.17 69:0.5 71:0.14 72:0.5 76:0.5 80:0.2 83:0.17 87:0.2 88:0.5 92:0.5 94:1.0 95:0.25 98:1.0 100:0.17 113:0.5 118:0.33 123:0.5 125:0.5 131:0.14 132:0.5 138:0.5 140:0.17 142:1.0 146:0.33 147:0.5 148:0.33 149:0.17 150:0.17 153:0.67 156:0.2 158:0.2 160:0.5 161:1.0 165:1.0 168:0.2 169:1.0 170:0.2 172:0.5 
-0.0 -1.0 -0.32414694276397293 -1.0 0.0 0.47935389168710857 0.0 2:0.67 3:1.0 4:1.0 5:0.83 6:0.5 7:0.8 8:0.2 10:1.0 12:0.2 13:0.43 14:0.25 16:1.0 17:0.67 18:0.5 19:0.33 20:0.25 21:0.25 25:0.25 26:1.0 27:0.5 28:0.67 30:0.2 31:1.0 33:0.33 34:0.83 36:0.33 37:0.5 39:1.0 40:0.33 42:1.0 44:0.67 46:0.67 47:0.8 48:1.0 49:0.33 51:1.0 52:0.75 53:0.5 54:1.0 56:1.0 58:0.5 61:0.17 63:0.8 64:0.5 66:1.0 67:0.5 68:0.2 69:0.5 70:1.0 71:1.0 73:0.67 74:0.5 75:1.0 76:0.5 77:0.5 78:0.33 83:1.0 84:0.25 88:0.5 92:1.0 93:0.67 94:0.5 96:0.33 97:0.5 98:1.0 99:1.0 100:1.0 101:0.83 102:0.5 103:1.0 104:1.0 106:0.5 108:0.2 110:0.5 112:0.67 113:1.0 115:0.86 116:0.25 117:0.25 118:0.67 119:1.0 122:1.0 124:0.5 125:0.5 126:0.75 129:0.5 130:1.0 131:0.14 132:1.0 133:0.2 134:0.25 137:1.0 138:1.0 140:0.17 142:1.0 144:0.2 145:1.0 146:0.67 148:1.0 149:0.17 152:0.5 153:0.67 155:0.5 157:1.0 158:0.2 160:1.0 161:0.5 162:0.2 163:0.5 165:1.0 166:0.17 168:0.2 169:1.0 170:0.2 172:1.0 
-1.0 -1.0 -1.0 -1.0 -1.0 1.0 1.0 1:0.25 2:0.67 4:1.0 5:0.17 7:0.2 9:0.2 10:1.0 13:0.71 15:0.5 16:0.33 22:0.33 27:0.25 29:0.33 31:1.0 34:0.17 41:0.33 42:0.67 44:0.33 46:0.33 47:0.2 48:0.67 51:0.25 52:0.5 53:0.67 54:0.33 55:0.5 56:0.2 59:0.33 60:0.5 62:0.33 63:0.2 66:0.4 67:0.67 70:1.0 71:0.29 75:0.2 80:0.2 81:1.0 83:0.33 86:0.5 88:0.5 89:0.5 91:0.33 92:0.5 94:0.5 97:1.0 98:1.0 100:0.33 103:0.25 104:0.5 105:0.5 109:0.5 110:0.5 113:1.0 115:0.14 118:0.33 119:0.5 122:1.0 123:0.5 125:0.5 127:0.33 132:1.0 138:1.0 139:0.5 142:1.0 146:0.67 148:0.67 153:0.67 157:1.0 159:0.5 160:0.5 161:0.5 165:1.0 169:1.0 172:1.0 
-1.0 -1.0 -1.0 -1.0 -1.0 1.0 1.0 2:0.67 4:1.0 10:1.0 11:0.5 13:0.14 14:0.25 16:0.33 17:0.33 24:1.0 27:0.25 31:0.5 35:0.33 36:0.33 42:0.33 43:0.5 46:0.67 48:0.33 52:0.5 53:0.17 54:0.17 66:0.2 67:0.17 69:0.5 71:0.14 72:0.5 76:0.5 80:0.2 83:0.17 87:0.2 88:0.5 92:0.5 94:1.0 95:0.25 98:1.0 100:0.17 113:0.5 118:0.33 123:0.5 125:0.5 131:0.14 132:0.5 138:0.5 140:0.17 142:1.0 146:0.33 147:0.5 148:0.33 149:0.17 150:0.17 153:0.67 156:0.2 158:0.2 160:0.5 161:1.0 165:1.0 168:0.2 169:1.0 170:0.2 172:0.5 
-1.0 -1.0 -1.0 -1.0 -1.0 1.0 1.0 2:1.0 3:1.0 4:1.0 5:0.5 7:0.6 10:1.0 11:0.5 13:1.0 14:0.5 16:0.67 17:0.67 18:0.5 19:0.33 20:0.25 24:1.0 25:0.25 26:0.33 27:1.0 28:0.33 31:1.0 33:0.33 34:0.5 35:0.33 36:0.67 37:0.5 39:1.0 40:0.33 42:1.0 43:0.5 44:1.0 46:0.67 47:0.6 48:0.67 49:0.33 51:0.5 52:1.0 53:1.0 54:0.5 56:0.4 58:0.5 63:0.6 64:0.25 66:0.6 67:1.0 69:1.0 70:1.0 71:0.43 72:0.5 73:0.33 74:1.0 75:0.4 76:0.5 78:0.33 80:0.2 83:0.5 86:0.5 87:0.2 88:0.5 92:0.5 93:0.33 94:1.0 95:0.25 97:0.5 98:1.0 100:0.5 101:0.33 102:0.5 103:0.5 104:0.5 106:0.5 108:0.2 110:1.0 112:0.67 113:1.0 115:0.43 116:0.25 118:1.0 119:1.0 121:1.0 122:1.0 123:0.5 125:1.0 126:0.5 129:0.5 130:0.33 131:0.14 132:1.0 138:1.0 140:0.17 142:1.0 145:1.0 146:1.0 147:0.5 148:1.0 149:0.17 150:0.17 152:0.5 153:1.0 155:0.5 156:0.2 157:1.0 158:0.2 160:1.0 161:1.0 163:0.5 165:1.0 168:0.2 169:1.0 170:0.2 172:1.0 
-0.2892846841268689 -1.0 -1.0 -1.0 -1.0 1.0 1.0 2:1.0 4:1.0 5:0.17 7:0.2 8:0.2 10:1.0 11:0.5 12:0.2 13:0.29 14:0.25 16:0.33 17:0.67 21:0.25 24:1.0 26:0.33 27:0.5 28:0.33 30:0.2 31:1.0 34:0.17 35:0.33 36:0.33 42:0.67 43:0.5 44:0.33 46:0.67 47:0.2 48:0.67 51:0.25 52:0.75 53:0.33 54:0.33 56:0.2 61:0.17 63:0.2 64:0.25 66:0.4 67:0.33 68:0.2 69:0.5 70:1.0 71:0.29 72:0.5 73:0.33 75:0.2 76:0.5 80:0.2 83:0.33 84:0.25 87:0.2 88:0.5 92:0.5 94:1.0 95:0.25 96:0.33 97:0.5 98:1.0 100:0.33 103:0.25 104:0.5 110:0.5 113:1.0 115:0.14 117:0.25 118:0.67 119:0.5 122:1.0 123:0.5 125:1.0 130:0.33 131:0.29 132:1.0 133:0.2 134:0.25 137:0.5 138:1.0 140:0.33 142:1.0 144:0.2 146:0.67 147:0.5 148:0.67 149:0.33 150:0.17 153:1.0 156:0.2 157:1.0 158:0.4 160:0.5 161:1.0 162:0.2 165:1.0 166:0.17 168:0.4 169:1.0 170:0.4 172:1.0 
-1.0 -1.0 -1.0 -1.0 -1.0 1.0 1.0 1:0.25 2:0.67 4:1.0 5:0.17 7:0.2 9:0.2 10:1.0 13:0.71 15:0.5 16:0.33 22:0.33 27:0.25 29:0.33 31:1.0 34:0.17 41:0.33 42:0.67 44:0.33 46:0.33 47:0.2 48:0.67 51:0.25 52:0.5 53:0.67 54:0.33 55:0.5 56:0.2 59:0.33 60:0.5 62:0.33 63:0.2 66:0.4 67:0.67 70:1.0 71:0.29 75:0.2 80:0.2 81:1.0 83:0.33 86:0.5 88:0.5 89:0.5 91:0.33 92:0.5 94:0.5 97:1.0 98:1.0 100:0.33 103:0.25 104:0.5 105:0.5 109:0.5 110:0.5 113:1.0 115:0.14 118:0.33 119:0.5 122:1.0 123:0.5 125:0.5 127:0.33 132:1.0 138:1.0 139:0.5 142:1.0 146:0.67 148:0.67 153:0.67 157:1.0 159:0.5 160:0.5 161:0.5 165:1.0 169:1.0 172:1.0 
-1.0 -1.0 -1.0 -1.0 -1.0 1.0 1.0 1:0.25 2:1.0 4:1.0 5:0.17 7:0.2 9:0.2 10:1.0 11:0.5 13:0.86 14:0.25 15:1.0 16:0.33 17:0.33 22:0.33 24:1.0 27:0.75 29:0.33 31:1.0 34:0.17 35:0.33 36:0.33 41:0.33 42:0.67 43:0.5 44:0.67 46:0.67 47:0.2 48:0.67 50:1.0 51:0.25 52:0.75 53:0.83 54:0.33 55:0.5 56:0.2 59:0.33 60:0.5 62:0.33 63:0.2 65:0.5 66:0.4 67:0.83 69:0.5 70:1.0 71:0.29 72:0.5 74:0.5 75:0.2 76:0.5 80:0.4 83:0.33 86:0.5 87:0.2 88:0.5 89:0.5 91:0.33 92:0.5 94:1.0 95:0.25 97:1.0 98:1.0 100:0.33 103:0.25 104:0.5 105:0.5 109:0.5 110:1.0 113:1.0 115:0.14 118:0.67 119:0.5 122:1.0 123:1.0 125:1.0 127:0.67 128:0.2 131:0.14 132:1.0 135:0.25 138:1.0 139:1.0 140:0.17 141:0.2 142:1.0 143:0.17 146:1.0 147:0.5 148:0.67 149:0.17 150:0.17 153:1.0 154:0.2 155:0.5 156:0.2 157:1.0 158:0.2 159:0.5 160:0.5 161:1.0 163:0.5 164:0.25 165:1.0 167:0.2 168:0.2 169:1.0 170:0.2 171:0.5 172:1.0 
-1.0 -1.0 -1.0 -1.0 -1.0 1.0 1.0 2:1.0 3:1.0 4:1.0 5:0.5 7:0.6 8:0.2 10:1.0 11:0.5 12:0.2 13:0.57 14:0.5 15:0.5 16:0.67 17:1.0 18:0.5 19:0.33 20:0.25 21:0.25 24:1.0 25:0.25 26:0.67 27:1.0 28:0.67 30:0.2 31:1.0 33:0.33 34:0.5 35:0.33 36:0.67 37:0.5 39:1.0 40:0.33 42:1.0 43:0.5 44:1.0 46:0.67 47:0.6 48:0.67 49:0.33 50:1.0 51:0.5 52:1.0 53:0.67 54:0.5 56:0.4 58:0.5 61:0.17 63:0.6 64:0.5 65:0.5 66:0.6 67:0.67 68:0.2 69:1.0 70:1.0 71:0.43 72:0.5 73:0.67 74:1.0 75:0.4 76:0.5 78:0.33 80:0.2 83:0.5 84:0.25 86:0.5 87:0.2 88:0.5 92:0.5 93:0.33 94:1.0 95:0.25 96:0.33 97:0.5 98:1.0 100:0.5 101:0.33 102:0.5 103:0.5 104:0.5 106:0.5 108:0.2 110:1.0 112:0.67 113:1.0 115:0.43 116:0.25 117:0.25 118:1.0 119:1.0 121:1.0 122:1.0 123:0.5 125:1.0 126:0.5 127:0.33 128:0.2 129:0.5 130:0.67 131:0.29 132:1.0 133:0.2 134:0.25 135:0.25 137:0.5 138:1.0 139:0.5 140:0.33 141:0.2 142:1.0 143:0.17 144:0.2 145:1.0 146:1.0 147:0.5 148:1.0 149:0.33 150:0.17 152:0.5 153:1.0 154:0.2 155:1.0 156:0.2 157:1.0 158:0.4 160:1.0 161:1.0 162:0.2 163:1.0 164:0.25 165:1.0 166:0.17 167:0.2 168:0.4 169:1.0 170:0.4 171:0.5 172:1.0 
-0.0 -1.0 -1.0 -0.9039739159378857 -0.23508959173414332 -0.0 1.0 3:1.0 5:0.17 7:0.2 13:0.14 14:0.25 15:0.5 16:0.33 17:0.33 19:0.33 20:0.25 25:0.25 26:0.33 27:0.25 28:0.33 33:0.33 34:0.17 36:0.33 37:0.5 39:1.0 40:0.33 42:0.33 44:0.33 47:0.2 49:0.33 50:1.0 51:0.25 52:0.25 53:0.17 54:0.17 56:0.2 58:0.5 63:0.2 64:0.25 65:0.5 66:0.2 67:0.17 69:0.5 71:0.14 73:0.33 74:0.5 75:0.2 78:0.33 83:0.17 93:0.33 100:0.17 101:0.17 102:0.5 103:0.25 106:0.5 108:0.2 112:0.33 115:0.14 116:0.25 118:0.33 119:0.5 126:0.25 127:0.33 128:0.2 129:0.5 130:0.33 135:0.25 139:0.5 141:0.2 143:0.17 145:1.0 148:0.33 152:0.5 154:0.2 155:1.0 160:0.5 163:1.0 164:0.25 167:0.2 171:0.5 
-0.0 -1.0 -1.0 -0.6231674528354798 -0.9454474966539588 -0.9816999008686489 1.0 3:1.0 5:0.17 7:0.2 13:0.14 14:0.25 15:0.5 16:0.33 17:0.33 19:0.33 20:0.25 25:0.25 26:0.33 27:0.25 28:0.33 33:0.33 34:0.17 36:0.33 37:0.5 39:1.0 40:0.33 42:0.33 44:0.33 47:0.2 49:0.33 50:1.0 51:0.25 52:0.25 53:0.17 54:0.17 56:0.2 58:0.5 63:0.2 64:0.25 65:0.5 66:0.2 67:0.17 69:0.5 71:0.14 73:0.33 74:0.5 75:0.2 78:0.33 83:0.17 93:0.33 100:0.17 101:0.17 102:0.5 103:0.25 106:0.5 108:0.2 112:0.33 115:0.14 116:0.25 118:0.33 119:0.5 126:0.25 127:0.33 128:0.2 129:0.5 130:0.33 135:0.25 139:0.5 141:0.2 143:0.17 145:1.0 148:0.33 152:0.5 154:0.2 155:1.0 160:0.5 163:1.0 164:0.25 167:0.2 171:0.5 
-1.0 -0.0 -0.0 -0.0 -0.0 -0.0 1.0 3:1.0 5:0.17 7:0.2 9:0.2 13:0.14 14:0.5 15:0.5 16:0.33 17:0.33 19:0.67 20:0.5 22:0.33 25:0.5 26:0.33 27:0.25 28:0.33 29:0.33 32:0.5 33:0.33 34:0.17 36:0.33 37:0.5 38:0.33 39:1.0 40:0.67 41:0.33 42:0.33 44:0.33 47:0.2 49:0.33 50:1.0 51:0.25 52:0.25 53:0.17 54:0.17 56:0.2 57:0.33 58:0.5 63:0.2 64:0.25 65:1.0 66:0.2 67:0.17 69:0.5 71:0.14 73:0.67 74:0.5 75:0.2 78:0.67 79:0.5 83:0.17 87:0.2 93:0.33 100:0.17 101:0.17 102:0.5 103:0.25 105:0.5 106:0.5 108:0.4 111:0.25 112:0.33 114:0.25 115:0.14 116:0.5 118:0.33 119:0.5 126:0.25 127:0.33 128:1.0 129:1.0 130:0.33 135:1.0 139:0.5 141:1.0 143:1.0 145:1.0 148:0.33 152:1.0 154:1.0 155:1.0 160:0.5 163:1.0 164:1.0 167:1.0 171:0.5 
-1.0 -0.0 -0.0 -0.0 -0.0 -0.0 1.0 3:1.0 5:0.17 7:0.2 9:0.2 13:0.14 14:0.5 15:0.5 16:0.33 17:0.33 19:0.67 20:0.5 22:0.33 25:0.5 26:0.33 27:0.25 28:0.33 29:0.33 32:0.5 33:0.33 34:0.17 36:0.33 37:0.5 38:0.33 39:1.0 40:0.67 41:0.33 42:0.33 44:0.33 47:0.2 49:0.33 50:1.0 51:0.25 52:0.25 53:0.17 54:0.17 56:0.2 57:0.33 58:0.5 63:0.2 64:0.25 65:1.0 66:0.2 67:0.17 69:0.5 71:0.14 73:0.67 74:0.5 75:0.2 78:0.67 79:0.5 83:0.17 87:0.2 93:0.33 100:0.17 101:0.17 102:0.5 103:0.25 105:0.5 106:0.5 108:0.4 111:0.25 112:0.33 114:0.25 115:0.14 116:0.5 118:0.33 119:0.5 126:0.25 127:0.33 128:1.0 129:1.0 130:0.33 135:1.0 139:0.5 141:1.0 143:1.0 145:1.0 148:0.33 152:1.0 154:1.0 155:1.0 160:0.5 163:1.0 164:1.0 167:1.0 171:0.5 
-0.0 -0.0 -0.009525009972818417 -1.0 -0.0 -0.0 1.0 8:0.2 12:0.2 15:0.5 17:0.33 21:0.25 26:0.33 28:0.33 30:0.2 50:1.0 61:0.17 64:0.25 65:0.5 68:0.2 73:0.33 84:0.25 96:0.33 117:0.25 127:0.33 128:0.2 130:0.33 131:0.14 133:0.2 134:0.25 135:0.25 137:0.5 139:0.5 140:0.17 141:0.2 143:0.17 144:0.2 149:0.17 154:0.2 155:0.5 158:0.2 162:0.2 163:0.5 164:0.25 166:0.17 167:0.2 168:0.2 170:0.2 171:0.5 
-1.0 -0.0 -1.0 -0.0 -0.0 -0.0 1.0 3:1.0 5:0.17 7:0.2 9:0.2 13:0.14 14:0.5 15:0.5 16:0.33 17:0.33 19:0.67 20:0.5 22:0.33 25:0.5 26:0.33 27:0.25 28:0.33 29:0.33 32:0.5 33:0.33 34:0.17 36:0.33 37:0.5 38:0.33 39:1.0 40:0.67 41:0.33 42:0.33 44:0.33 47:0.2 49:0.33 50:1.0 51:0.25 52:0.25 53:0.17 54:0.17 56:0.2 57:0.33 58:0.5 63:0.2 64:0.25 65:1.0 66:0.2 67:0.17 69:0.5 71:0.14 73:0.67 74:0.5 75:0.2 78:0.67 79:0.5 83:0.17 87:0.2 93:0.33 100:0.17 101:0.17 102:0.5 103:0.25 105:0.5 106:0.5 108:0.4 111:0.25 112:0.33 114:0.25 115:0.14 116:0.5 118:0.33 119:0.5 126:0.25 127:0.33 128:1.0 129:1.0 130:0.33 135:1.0 139:0.5 141:1.0 143:1.0 145:1.0 148:0.33 152:1.0 154:1.0 155:1.0 160:0.5 163:1.0 164:1.0 167:1.0 171:0.5 
-0.0 -1.0 -0.0 -1.0 -1.0 -0.0 1.0 3:1.0 5:0.33 7:0.2 13:0.14 14:0.25 15:0.5 16:0.67 17:0.33 18:0.5 19:0.33 20:0.25 25:0.25 26:0.67 27:0.25 28:0.33 33:0.33 34:0.33 36:0.33 37:0.5 39:1.0 40:0.33 42:0.33 44:0.33 46:0.33 47:0.4 48:0.33 49:0.33 50:1.0 51:0.5 52:0.25 53:0.17 54:0.33 56:0.4 58:0.5 63:0.4 64:0.25 65:0.5 66:0.4 67:0.17 69:0.5 71:0.29 73:0.33 74:0.5 75:0.4 76:0.5 77:0.5 78:0.33 83:0.33 92:0.5 93:0.67 99:1.0 100:0.33 101:0.33 102:0.5 103:0.5 104:0.5 106:0.5 108:0.2 112:0.67 115:0.29 116:0.25 118:0.33 119:0.5 124:0.5 126:0.5 127:0.33 128:0.2 129:0.5 130:0.33 135:0.25 139:0.5 141:0.2 143:0.17 145:1.0 148:0.33 152:0.5 154:0.2 155:1.0 160:0.5 163:1.0 164:0.25 167:0.2 171:0.5 
-1.0 -0.0 -1.0 -0.0 -0.0 -0.0 1.0 3:1.0 5:0.17 7:0.2 9:0.2 13:0.14 14:0.5 15:0.5 16:0.33 17:0.33 19:0.67 20:0.5 22:0.33 25:0.5 26:0.33 27:0.25 28:0.33 29:0.33 32:0.5 33:0.33 34:0.17 36:0.33 37:0.5 38:0.33 39:1.0 40:0.67 41:0.33 42:0.33 44:0.33 47:0.2 49:0.33 50:1.0 51:0.25 52:0.25 53:0.17 54:0.17 56:0.2 57:0.33 58:0.5 63:0.2 64:0.25 65:1.0 66:0.2 67:0.17 69:0.5 71:0.14 73:0.67 74:0.5 75:0.2 78:0.67 79:0.5 83:0.17 87:0.2 93:0.33 100:0.17 101:0.17 102:0.5 103:0.25 105:0.5 106:0.5 108:0.4 111:0.25 112:0.33 114:0.25 115:0.14 116:0.5 118:0.33 119:0.5 126:0.25 127:0.33 128:1.0 129:1.0 130:0.33 135:1.0 139:0.5 141:1.0 143:1.0 145:1.0 148:0.33 152:1.0 154:1.0 155:1.0 160:0.5 163:1.0 164:1.0 167:1.0 171:0.5 
-1.0 -1.0 -1.0 -1.0 -1.0 -1.0 1.0 1:0.25 2:0.33 3:1.0 5:0.33 7:0.2 8:0.2 9:0.2 11:1.0 12:0.2 13:0.14 14:0.75 15:0.5 16:0.67 17:1.0 18:0.5 19:0.33 20:0.5 21:0.25 24:1.0 25:0.5 26:1.0 27:0.5 28:1.0 30:0.2 32:0.5 33:0.67 34:0.33 35:0.67 36:1.0 37:0.5 38:0.33 39:1.0 40:0.33 42:0.33 43:0.5 44:0.33 45:0.33 46:0.67 47:0.4 48:0.33 49:0.67 50:1.0 51:0.5 52:0.5 53:0.17 54:0.33 55:0.5 56:0.4 58:0.5 60:0.5 61:0.17 62:0.33 63:0.4 64:0.75 65:0.5 66:0.4 67:0.17 68:0.2 69:1.0 71:0.29 72:0.5 73:0.67 74:0.5 75:0.4 76:1.0 77:0.5 78:0.67 80:0.4 83:0.33 84:0.25 85:0.33 87:0.4 91:0.33 92:0.5 93:0.67 94:0.5 95:0.5 96:0.33 99:1.0 100:0.33 101:0.33 102:0.5 103:0.5 104:0.5 106:1.0 107:0.5 108:0.4 111:0.25 112:0.67 114:0.25 115:0.29 116:0.25 117:0.25 118:0.67 119:0.5 123:0.5 124:0.5 125:0.5 126:0.5 127:0.67 128:0.2 129:0.5 130:0.67 131:0.29 133:0.2 134:0.25 135:0.25 136:1.0 137:0.5 139:0.5 140:0.33 141:0.2 143:0.17 144:0.2 145:1.0 147:1.0 148:0.33 149:0.33 150:0.17 152:0.5 153:0.33 154:0.2 155:1.0 156:0.2 158:0.4 159:0.5 160:0.5 161:0.5 162:0.2 163:1.0 164:0.25 166:0.17 167:0.2 168:0.4 170:0.4 171:1.0 173:1.0 
-1.0 -0.0 -1.0 -0.0 -0.0 -0.0 1.0 3:1.0 5:0.17 7:0.2 9:0.2 13:0.14 14:0.5 15:0.5 16:0.33 17:0.33 19:0.67 20:0.5 22:0.33 25:0.5 26:0.33 27:0.25 28:0.33 29:0.33 32:0.5 33:0.33 34:0.17 36:0.33 37:0.5 38:0.33 39:1.0 40:0.67 41:0.33 42:0.33 44:0.33 47:0.2 49:0.33 50:1.0 51:0.25 52:0.25 53:0.17 54:0.17 56:0.2 57:0.33 58:0.5 63:0.2 64:0.25 65:1.0 66:0.2 67:0.17 69:0.5 71:0.14 73:0.67 74:0.5 75:0.2 78:0.67 79:0.5 83:0.17 87:0.2 93:0.33 100:0.17 101:0.17 102:0.5 103:0.25 105:0.5 106:0.5 108:0.4 111:0.25 112:0.33 114:0.25 115:0.14 116:0.5 118:0.33 119:0.5 126:0.25 127:0.33 128:1.0 129:1.0 130:0.33 135:1.0 139:0.5 141:1.0 143:1.0 145:1.0 148:0.33 152:1.0 154:1.0 155:1.0 160:0.5 163:1.0 164:1.0 167:1.0 171:0.5 
-0.0 -0.0 -1.0 -1.0 -0.0 -0.0 1.0 8:0.2 12:0.2 15:0.5 17:0.33 21:0.25 26:0.33 28:0.33 30:0.2 50:1.0 61:0.17 64:0.25 65:0.5 68:0.2 73:0.33 84:0.25 96:0.33 117:0.25 127:0.33 128:0.2 130:0.33 131:0.14 133:0.2 134:0.25 135:0.25 137:0.5 139:0.5 140:0.17 141:0.2 143:0.17 144:0.2 149:0.17 154:0.2 155:0.5 158:0.2 162:0.2 163:0.5 164:0.25 166:0.17 167:0.2 168:0.2 170:0.2 171:0.5 
-0.0 -0.08153551959523522 -1.0 -1.0 -0.0 -1.0 1.0 8:0.2 12:0.2 15:0.5 17:0.33 21:0.25 26:0.33 28:0.33 30:0.2 50:1.0 61:0.17 64:0.25 65:0.5 68:0.2 73:0.33 84:0.25 96:0.33 117:0.25 127:0.33 128:0.2 130:0.33 131:0.14 133:0.2 134:0.25 135:0.25 137:0.5 139:0.5 140:0.17 141:0.2 143:0.17 144:0.2 149:0.17 154:0.2 155:0.5 158:0.2 162:0.2 163:0.5 164:0.25 166:0.17 167:0.2 168:0.2 170:0.2 171:0.5 
-0.7682073259672435 -1.0 -1.0 -1.0 -1.0 -1.0 1.0 8:0.2 12:0.2 15:0.5 17:0.33 21:0.25 26:0.33 28:0.33 30:0.2 50:1.0 61:0.17 64:0.25 65:0.5 68:0.2 73:0.33 84:0.25 96:0.33 117:0.25 127:0.33 128:0.2 130:0.33 131:0.14 133:0.2 134:0.25 135:0.25 137:0.5 139:0.5 140:0.17 141:0.2 143:0.17 144:0.2 149:0.17 154:0.2 155:0.5 158:0.2 162:0.2 163:0.5 164:0.25 166:0.17 167:0.2 168:0.2 170:0.2 171:0.5 
-0.2317926740327565 -0.16409004916389566 -0.7503643169141474 -0.0 -0.0 -0.0 1.0 3:1.0 5:0.17 7:0.2 9:0.2 13:0.14 14:0.5 15:0.5 16:0.33 17:0.33 19:0.67 20:0.5 22:0.33 25:0.5 26:0.33 27:0.25 28:0.33 29:0.33 32:0.5 33:0.33 34:0.17 36:0.33 37:0.5 38:0.33 39:1.0 40:0.67 41:0.33 42:0.33 44:0.33 47:0.2 49:0.33 50:1.0 51:0.25 52:0.25 53:0.17 54:0.17 56:0.2 57:0.33 58:0.5 63:0.2 64:0.25 65:1.0 66:0.2 67:0.17 69:0.5 71:0.14 73:0.67 74:0.5 75:0.2 78:0.67 79:0.5 83:0.17 87:0.2 93:0.33 100:0.17 101:0.17 102:0.5 103:0.25 105:0.5 106:0.5 108:0.4 111:0.25 112:0.33 114:0.25 115:0.14 116:0.5 118:0.33 119:0.5 126:0.25 127:0.33 128:1.0 129:1.0 130:0.33 135:1.0 139:0.5 141:1.0 143:1.0 145:1.0 148:0.33 152:1.0 154:1.0 155:1.0 160:0.5 163:1.0 164:1.0 167:1.0 171:0.5 
-1.0 -0.15537340563886837 -1.0 -0.374334440932251 -0.9886223791224048 -0.6602797882401481 1.0 1:0.75 5:0.17 9:0.8 11:0.5 14:0.5 15:1.0 16:0.33 18:0.5 19:0.67 20:0.75 22:0.67 23:1.0 25:0.5 26:0.33 28:0.33 29:0.67 32:1.0 33:0.33 34:0.17 35:0.33 36:0.33 38:1.0 40:0.33 41:1.0 45:0.67 46:0.33 47:0.2 48:0.33 49:0.33 50:1.0 51:0.25 54:0.17 55:1.0 56:0.2 57:0.67 58:0.5 59:0.67 60:1.0 62:0.67 63:0.2 64:0.25 65:1.0 66:0.2 71:0.14 73:0.33 75:0.2 76:0.5 77:0.5 78:0.67 79:1.0 80:0.6 83:0.17 85:0.67 86:0.5 87:0.6 89:1.0 91:1.0 92:0.5 93:0.33 95:0.5 97:0.5 99:1.0 100:0.17 101:0.17 103:0.25 104:0.5 105:1.0 106:0.5 107:1.0 108:0.6 109:0.5 111:0.75 112:0.33 114:0.75 115:0.14 116:0.5 123:0.5 124:0.5 126:0.25 127:1.0 128:0.4 129:0.5 135:0.25 136:1.0 139:1.0 141:0.2 143:0.33 147:0.5 152:0.5 154:0.4 155:0.5 159:1.0 163:0.5 164:0.25 167:0.4 171:1.0 173:1.0 
-1.0 -0.9493150342080648 -1.0 -1.0 -0.2346406487220867 -0.8717259959137283 1.0 8:0.2 12:0.2 15:0.5 17:0.33 21:0.25 26:0.33 28:0.33 30:0.2 50:1.0 61:0.17 64:0.25 65:0.5 68:0.2 73:0.33 84:0.25 96:0.33 117:0.25 127:0.33 128:0.2 130:0.33 131:0.14 133:0.2 134:0.25 135:0.25 137:0.5 139:0.5 140:0.17 141:0.2 143:0.17 144:0.2 149:0.17 154:0.2 155:0.5 158:0.2 162:0.2 163:0.5 164:0.25 166:0.17 167:0.2 168:0.2 170:0.2 171:0.5 
-1.0 -0.7576678931247012 -1.0 -1.0 -0.11480654066629792 -0.0 1.0 1:0.5 3:1.0 5:0.17 7:0.2 8:0.2 9:0.6 11:0.5 12:0.2 13:0.14 14:0.75 15:0.5 16:0.33 17:0.67 19:1.0 20:1.0 21:0.25 22:0.33 23:1.0 25:0.75 26:0.67 27:0.25 28:1.0 29:0.33 30:0.2 32:1.0 33:0.67 34:0.17 35:0.33 36:0.67 37:0.5 38:1.0 39:1.0 40:0.67 41:0.67 42:0.33 44:0.33 45:0.67 47:0.2 49:0.67 50:1.0 51:0.25 52:0.25 53:0.17 54:0.17 55:0.5 56:0.2 57:0.67 58:1.0 59:0.33 60:0.5 61:0.17 62:0.33 63:0.2 64:0.75 65:1.0 66:0.2 67:0.17 68:0.2 69:0.5 71:0.14 73:1.0 74:0.5 75:0.2 78:1.0 79:1.0 80:0.4 83:0.17 84:0.25 85:0.67 87:0.6 89:0.5 91:0.67 93:0.33 95:0.5 96:0.33 100:0.17 101:0.17 102:0.5 103:0.25 105:0.5 106:1.0 107:1.0 108:0.8 111:0.75 112:0.33 114:0.75 115:0.14 116:0.75 117:0.25 118:0.33 119:0.5 126:0.25 127:0.67 128:0.4 129:1.0 130:0.67 131:0.14 133:0.2 134:0.25 135:0.25 136:1.0 137:0.5 139:0.5 140:0.17 141:0.2 143:0.33 144:0.2 145:1.0 147:0.5 148:0.33 149:0.17 152:1.0 154:0.4 155:1.0 158:0.2 159:0.5 160:0.5 162:0.2 163:1.0 164:0.25 166:0.17 167:0.4 168:0.2 170:0.2 171:1.0 173:1.0 
-0.0 -1.0 -0.0 -1.0 -1.0 -0.0 1.0 3:1.0 5:0.33 7:0.2 13:0.14 14:0.25 15:0.5 16:0.67 17:0.33 18:0.5 19:0.33 20:0.25 25:0.25 26:0.67 27:0.25 28:0.33 33:0.33 34:0.33 36:0.33 37:0.5 39:1.0 40:0.33 42:0.33 44:0.33 46:0.33 47:0.4 48:0.33 49:0.33 50:1.0 51:0.5 52:0.25 53:0.17 54:0.33 56:0.4 58:0.5 63:0.4 64:0.25 65:0.5 66:0.4 67:0.17 69:0.5 71:0.29 73:0.33 74:0.5 75:0.4 76:0.5 77:0.5 78:0.33 83:0.33 92:0.5 93:0.67 99:1.0 100:0.33 101:0.33 102:0.5 103:0.5 104:0.5 106:0.5 108:0.2 112:0.67 115:0.29 116:0.25 118:0.33 119:0.5 124:0.5 126:0.5 127:0.33 128:0.2 129:0.5 130:0.33 135:0.25 139:0.5 141:0.2 143:0.17 145:1.0 148:0.33 152:0.5 154:0.2 155:1.0 160:0.5 163:1.0 164:0.25 167:0.2 171:0.5 
-0.0 -1.0 -0.0 -1.0 -1.0 -0.48629431497747466 1.0 3:1.0 5:0.33 7:0.2 13:0.14 14:0.25 15:0.5 16:0.67 17:0.33 18:0.5 19:0.33 20:0.25 25:0.25 26:0.67 27:0.25 28:0.33 33:0.33 34:0.33 36:0.33 37:0.5 39:1.0 40:0.33 42:0.33 44:0.33 46:0.33 47:0.4 48:0.33 49:0.33 50:1.0 51:0.5 52:0.25 53:0.17 54:0.33 56:0.4 58:0.5 63:0.4 64:0.25 65:0.5 66:0.4 67:0.17 69:0.5 71:0.29 73:0.33 74:0.5 75:0.4 76:0.5 77:0.5 78:0.33 83:0.33 92:0.5 93:0.67 99:1.0 100:0.33 101:0.33 102:0.5 103:0.5 104:0.5 106:0.5 108:0.2 112:0.67 115:0.29 116:0.25 118:0.33 119:0.5 124:0.5 126:0.5 127:0.33 128:0.2 129:0.5 130:0.33 135:0.25 139:0.5 141:0.2 143:0.17 145:1.0 148:0.33 152:0.5 154:0.2 155:1.0 160:0.5 163:1.0 164:0.25 167:0.2 171:0.5 
-0.0 -1.0 -0.24011067311303425 -1.0 -1.0 -1.0 1.0 3:1.0 5:0.33 7:0.2 13:0.14 14:0.25 15:0.5 16:0.67 17:0.33 18:0.5 19:0.33 20:0.25 25:0.25 26:0.67 27:0.25 28:0.33 33:0.33 34:0.33 36:0.33 37:0.5 39:1.0 40:0.33 42:0.33 44:0.33 46:0.33 47:0.4 48:0.33 49:0.33 50:1.0 51:0.5 52:0.25 53:0.17 54:0.33 56:0.4 58:0.5 63:0.4 64:0.25 65:0.5 66:0.4 67:0.17 69:0.5 71:0.29 73:0.33 74:0.5 75:0.4 76:0.5 77:0.5 78:0.33 83:0.33 92:0.5 93:0.67 99:1.0 100:0.33 101:0.33 102:0.5 103:0.5 104:0.5 106:0.5 108:0.2 112:0.67 115:0.29 116:0.25 118:0.33 119:0.5 124:0.5 126:0.5 127:0.33 128:0.2 129:0.5 130:0.33 135:0.25 139:0.5 141:0.2 143:0.17 145:1.0 148:0.33 152:0.5 154:0.2 155:1.0 160:0.5 163:1.0 164:0.25 167:0.2 171:0.5 
-0.0 -1.0 -0.5967245034764215 -1.0 -0.5527485191500634 -0.0 -1.0 3:1.0 5:0.17 7:0.2 13:0.14 14:0.25 15:0.5 16:0.33 17:0.33 19:0.33 20:0.25 25:0.25 26:0.33 27:0.25 28:0.33 33:0.33 34:0.17 36:0.33 37:0.5 39:1.0 40:0.33 42:0.33 44:0.33 47:0.2 49:0.33 50:1.0 51:0.25 52:0.25 53:0.17 54:0.17 56:0.2 58:0.5 63:0.2 64:0.25 65:0.5 66:0.2 67:0.17 69:0.5 71:0.14 73:0.33 74:0.5 75:0.2 78:0.33 83:0.17 93:0.33 100:0.17 101:0.17 102:0.5 103:0.25 106:0.5 108:0.2 112:0.33 115:0.14 116:0.25 118:0.33 119:0.5 126:0.25 127:0.33 128:0.2 129:0.5 130:0.33 135:0.25 139:0.5 141:0.2 143:0.17 145:1.0 148:0.33 152:0.5 154:0.2 155:1.0 160:0.5 163:1.0 164:0.25 167:0.2 171:0.5 
-0.0 -1.0 -0.0 -1.0 -1.0 -0.0 -1.0 3:1.0 5:0.33 7:0.2 13:0.14 14:0.25 15:0.5 16:0.67 17:0.33 18:0.5 19:0.33 20:0.25 25:0.25 26:0.67 27:0.25 28:0.33 33:0.33 34:0.33 36:0.33 37:0.5 39:1.0 40:0.33 42:0.33 44:0.33 46:0.33 47:0.4 48:0.33 49:0.33 50:1.0 51:0.5 52:0.25 53:0.17 54:0.33 56:0.4 58:0.5 63:0.4 64:0.25 65:0.5 66:0.4 67:0.17 69:0.5 71:0.29 73:0.33 74:0.5 75:0.4 76:0.5 77:0.5 78:0.33 83:0.33 92:0.5 93:0.67 99:1.0 100:0.33 101:0.33 102:0.5 103:0.5 104:0.5 106:0.5 108:0.2 112:0.67 115:0.29 116:0.25 118:0.33 119:0.5 124:0.5 126:0.5 127:0.33 128:0.2 129:0.5 130:0.33 135:0.25 139:0.5 141:0.2 143:0.17 145:1.0 148:0.33 152:0.5 154:0.2 155:1.0 160:0.5 163:1.0 164:0.25 167:0.2 171:0.5 
-0.0 -0.0 -0.0 -0.0 -0.0 -0.0 -1.0 3:1.0 5:0.17 7:0.2 9:0.2 13:0.14 14:0.5 15:0.5 16:0.33 17:0.33 19:0.67 20:0.5 22:0.33 25:0.5 26:0.33 27:0.25 28:0.33 29:0.33 32:0.5 33:0.33 34:0.17 36:0.33 37:0.5 38:0.33 39:1.0 40:0.67 41:0.33 42:0.33 44:0.33 47:0.2 49:0.33 50:1.0 51:0.25 52:0.25 53:0.17 54:0.17 56:0.2 57:0.33 58:0.5 63:0.2 64:0.25 65:1.0 66:0.2 67:0.17 69:0.5 71:0.14 73:0.67 74:0.5 75:0.2 78:0.67 79:0.5 83:0.17 87:0.2 93:0.33 100:0.17 101:0.17 102:0.5 103:0.25 105:0.5 106:0.5 108:0.4 111:0.25 112:0.33 114:0.25 115:0.14 116:0.5 118:0.33 119:0.5 126:0.25 127:0.33 128:1.0 129:1.0 130:0.33 135:1.0 139:0.5 141:1.0 143:1.0 145:1.0 148:0.33 152:1.0 154:1.0 155:1.0 160:0.5 163:1.0 164:1.0 167:1.0 171:0.5 
-0.0 -0.0 -0.0 -0.0 -0.0 -0.0 -1.0 3:1.0 5:0.17 7:0.2 9:0.2 13:0.14 14:0.5 15:0.5 16:0.33 17:0.33 19:0.67 20:0.5 22:0.33 25:0.5 26:0.33 27:0.25 28:0.33 29:0.33 32:0.5 33:0.33 34:0.17 36:0.33 37:0.5 38:0.33 39:1.0 40:0.67 41:0.33 42:0.33 44:0.33 47:0.2 49:0.33 50:1.0 51:0.25 52:0.25 53:0.17 54:0.17 56:0.2 57:0.33 58:0.5 63:0.2 64:0.25 65:1.0 66:0.2 67:0.17 69:0.5 71:0.14 73:0.67 74:0.5 75:0.2 78:0.67 79:0.5 83:0.17 87:0.2 93:0.33 100:0.17 101:0.17 102:0.5 103:0.25 105:0.5 106:0.5 108:0.4 111:0.25 112:0.33 114:0.25 115:0.14 116:0.5 118:0.33 119:0.5 126:0.25 127:0.33 128:1.0 129:1.0 130:0.33 135:1.0 139:0.5 141:1.0 143:1.0 145:1.0 148:0.33 152:1.0 154:1.0 155:1.0 160:0.5 163:1.0 164:1.0 167:1.0 171:0.5 
-0.0 -1.0 -0.0 -1.0 -1.0 -0.0 -1.0 3:1.0 5:0.33 7:0.2 13:0.14 14:0.25 15:0.5 16:0.67 17:0.33 18:0.5 19:0.33 20:0.25 25:0.25 26:0.67 27:0.25 28:0.33 33:0.33 34:0.33 36:0.33 37:0.5 39:1.0 40:0.33 42:0.33 44:0.33 46:0.33 47:0.4 48:0.33 49:0.33 50:1.0 51:0.5 52:0.25 53:0.17 54:0.33 56:0.4 58:0.5 63:0.4 64:0.25 65:0.5 66:0.4 67:0.17 69:0.5 71:0.29 73:0.33 74:0.5 75:0.4 76:0.5 77:0.5 78:0.33 83:0.33 92:0.5 93:0.67 99:1.0 100:0.33 101:0.33 102:0.5 103:0.5 104:0.5 106:0.5 108:0.2 112:0.67 115:0.29 116:0.25 118:0.33 119:0.5 124:0.5 126:0.5 127:0.33 128:0.2 129:0.5 130:0.33 135:0.25 139:0.5 141:0.2 143:0.17 145:1.0 148:0.33 152:0.5 154:0.2 155:1.0 160:0.5 163:1.0 164:0.25 167:0.2 171:0.5 
-1.0 -0.0 -0.0 -0.0 -0.0 -0.0 -1.0 3:1.0 5:0.17 7:0.2 9:0.2 13:0.14 14:0.5 15:0.5 16:0.33 17:0.33 19:0.67 20:0.5 22:0.33 25:0.5 26:0.33 27:0.25 28:0.33 29:0.33 32:0.5 33:0.33 34:0.17 36:0.33 37:0.5 38:0.33 39:1.0 40:0.67 41:0.33 42:0.33 44:0.33 47:0.2 49:0.33 50:1.0 51:0.25 52:0.25 53:0.17 54:0.17 56:0.2 57:0.33 58:0.5 63:0.2 64:0.25 65:1.0 66:0.2 67:0.17 69:0.5 71:0.14 73:0.67 74:0.5 75:0.2 78:0.67 79:0.5 83:0.17 87:0.2 93:0.33 100:0.17 101:0.17 102:0.5 103:0.25 105:0.5 106:0.5 108:0.4 111:0.25 112:0.33 114:0.25 115:0.14 116:0.5 118:0.33 119:0.5 126:0.25 127:0.33 128:1.0 129:1.0 130:0.33 135:1.0 139:0.5 141:1.0 143:1.0 145:1.0 148:0.33 152:1.0 154:1.0 155:1.0 160:0.5 163:1.0 164:1.0 167:1.0 171:0.5 
-0.0 -1.0 -0.0 -1.0 -0.9747793644774587 -0.0 -1.0 3:1.0 5:0.17 7:0.2 13:0.14 14:0.25 15:0.5 16:0.33 17:0.33 19:0.33 20:0.25 25:0.25 26:0.33 27:0.25 28:0.33 33:0.33 34:0.17 36:0.33 37:0.5 39:1.0 40:0.33 42:0.33 44:0.33 47:0.2 49:0.33 50:1.0 51:0.25 52:0.25 53:0.17 54:0.17 56:0.2 58:0.5 63:0.2 64:0.25 65:0.5 66:0.2 67:0.17 69:0.5 71:0.14 73:0.33 74:0.5 75:0.2 78:0.33 83:0.17 93:0.33 100:0.17 101:0.17 102:0.5 103:0.25 106:0.5 108:0.2 112:0.33 115:0.14 116:0.25 118:0.33 119:0.5 126:0.25 127:0.33 128:0.2 129:0.5 130:0.33 135:0.25 139:0.5 141:0.2 143:0.17 145:1.0 148:0.33 152:0.5 154:0.2 155:1.0 160:0.5 163:1.0 164:0.25 167:0.2 171:0.5 
-1.0 -0.0 -0.04128420560369847 -0.0 -0.0 -0.0 -1.0 3:1.0 5:0.17 7:0.2 9:0.2 13:0.14 14:0.5 15:0.5 16:0.33 17:0.33 19:0.67 20:0.5 22:0.33 25:0.5 26:0.33 27:0.25 28:0.33 29:0.33 32:0.5 33:0.33 34:0.17 36:0.33 37:0.5 38:0.33 39:1.0 40:0.67 41:0.33 42:0.33 44:0.33 47:0.2 49:0.33 50:1.0 51:0.25 52:0.25 53:0.17 54:0.17 56:0.2 57:0.33 58:0.5 63:0.2 64:0.25 65:1.0 66:0.2 67:0.17 69:0.5 71:0.14 73:0.67 74:0.5 75:0.2 78:0.67 79:0.5 83:0.17 87:0.2 93:0.33 100:0.17 101:0.17 102:0.5 103:0.25 105:0.5 106:0.5 108:0.4 111:0.25 112:0.33 114:0.25 115:0.14 116:0.5 118:0.33 119:0.5 126:0.25 127:0.33 128:1.0 129:1.0 130:0.33 135:1.0 139:0.5 141:1.0 143:1.0 145:1.0 148:0.33 152:1.0 154:1.0 155:1.0 160:0.5 163:1.0 164:1.0 167:1.0 171:0.5 
-1.0 -0.0 -1.0 -0.0 -0.0 -0.0 -1.0 3:1.0 5:0.17 7:0.2 9:0.2 13:0.14 14:0.5 15:0.5 16:0.33 17:0.33 19:0.67 20:0.5 22:0.33 25:0.5 26:0.33 27:0.25 28:0.33 29:0.33 32:0.5 33:0.33 34:0.17 36:0.33 37:0.5 38:0.33 39:1.0 40:0.67 41:0.33 42:0.33 44:0.33 47:0.2 49:0.33 50:1.0 51:0.25 52:0.25 53:0.17 54:0.17 56:0.2 57:0.33 58:0.5 63:0.2 64:0.25 65:1.0 66:0.2 67:0.17 69:0.5 71:0.14 73:0.67 74:0.5 75:0.2 78:0.67 79:0.5 83:0.17 87:0.2 93:0.33 100:0.17 101:0.17 102:0.5 103:0.25 105:0.5 106:0.5 108:0.4 111:0.25 112:0.33 114:0.25 115:0.14 116:0.5 118:0.33 119:0.5 126:0.25 127:0.33 128:1.0 129:1.0 130:0.33 135:1.0 139:0.5 141:1.0 143:1.0 145:1.0 148:0.33 152:1.0 154:1.0 155:1.0 160:0.5 163:1.0 164:1.0 167:1.0 171:0.5 
-0.0 -0.0 -0.18326221091296 -0.0 -0.0 -0.0 -1.0 1:0.25 6:0.5 9:0.4 13:0.14 14:0.25 15:1.0 19:0.33 20:0.25 22:0.67 25:0.25 27:0.25 29:0.67 32:0.5 38:0.33 40:0.33 41:0.67 44:0.33 50:1.0 53:0.17 55:0.5 57:0.33 59:0.33 60:0.5 62:0.33 65:1.0 67:0.17 73:0.33 74:0.5 78:0.33 79:0.5 80:0.2 86:0.5 87:0.2 89:0.5 91:0.33 97:0.5 105:1.0 108:0.2 109:0.5 110:0.5 111:0.25 114:0.25 116:0.25 123:0.5 127:0.67 128:1.0 129:0.5 130:0.33 135:1.0 137:0.5 139:1.0 141:1.0 143:1.0 146:0.33 152:0.5 154:1.0 155:0.5 159:0.5 163:0.5 164:1.0 167:1.0 171:0.5 
-0.9929651560456855 -0.0 -1.0 -0.0 -0.0 -0.0 -1.0 3:1.0 5:0.17 7:0.2 9:0.2 13:0.14 14:0.5 15:0.5 16:0.33 17:0.33 19:0.67 20:0.5 22:0.33 25:0.5 26:0.33 27:0.25 28:0.33 29:0.33 32:0.5 33:0.33 34:0.17 36:0.33 37:0.5 38:0.33 39:1.0 40:0.67 41:0.33 42:0.33 44:0.33 47:0.2 49:0.33 50:1.0 51:0.25 52:0.25 53:0.17 54:0.17 56:0.2 57:0.33 58:0.5 63:0.2 64:0.25 65:1.0 66:0.2 67:0.17 69:0.5 71:0.14 73:0.67 74:0.5 75:0.2 78:0.67 79:0.5 83:0.17 87:0.2 93:0.33 100:0.17 101:0.17 102:0.5 103:0.25 105:0.5 106:0.5 108:0.4 111:0.25 112:0.33 114:0.25 115:0.14 116:0.5 118:0.33 119:0.5 126:0.25 127:0.33 128:1.0 129:1.0 130:0.33 135:1.0 139:0.5 141:1.0 143:1.0 145:1.0 148:0.33 152:1.0 154:1.0 155:1.0 160:0.5 163:1.0 164:1.0 167:1.0 171:0.5 
-0.0 -0.09795977028632709 -1.0 -0.03438312863762011 -0.0 -0.0 -1.0 1:0.25 6:0.5 9:0.4 13:0.14 14:0.25 15:1.0 19:0.33 20:0.25 22:0.67 25:0.25 27:0.25 29:0.67 32:0.5 38:0.33 40:0.33 41:0.67 44:0.33 50:1.0 53:0.17 55:0.5 57:0.33 59:0.33 60:0.5 62:0.33 65:1.0 67:0.17 73:0.33 74:0.5 78:0.33 79:0.5 80:0.2 86:0.5 87:0.2 89:0.5 91:0.33 97:0.5 105:1.0 108:0.2 109:0.5 110:0.5 111:0.25 114:0.25 116:0.25 123:0.5 127:0.67 128:1.0 129:0.5 130:0.33 135:1.0 137:0.5 139:1.0 141:1.0 143:1.0 146:0.33 152:0.5 154:1.0 155:0.5 159:0.5 163:0.5 164:1.0 167:1.0 171:0.5 
-0.0 -1.0 -1.0 -1.0 -1.0 -1.0 -1.0 6:0.5 8:0.2 12:0.2 17:0.33 21:0.25 26:0.33 28:0.33 30:0.2 61:0.17 64:0.25 68:0.2 73:0.33 84:0.25 96:0.33 117:0.25 130:0.67 131:0.14 133:0.2 134:0.25 137:1.0 140:0.17 144:0.2 149:0.17 158:0.2 162:0.2 166:0.17 168:0.2 170:0.2 
-0.0 -0.0 -1.0 -1.0 -0.0 -0.0 -0.3960455583430942 1:0.25 2:0.33 3:1.0 5:0.17 6:0.5 7:0.2 8:0.2 9:0.2 11:1.0 12:0.2 13:0.14 14:0.75 15:0.5 16:0.33 17:1.0 19:0.33 20:0.5 21:0.25 24:1.0 25:0.5 26:0.67 27:0.5 28:1.0 30:0.2 32:0.5 33:0.67 34:0.17 35:0.67 36:1.0 37:0.5 38:0.33 39:1.0 40:0.33 42:0.33 43:0.5 44:0.33 45:0.33 46:0.33 47:0.2 49:0.67 50:1.0 51:0.25 52:0.5 53:0.17 54:0.17 55:0.5 56:0.2 58:0.5 60:0.5 61:0.17 62:0.33 63:0.2 64:0.75 65:0.5 66:0.2 67:0.17 68:0.2 69:1.0 71:0.14 72:0.5 73:0.67 74:0.5 75:0.2 76:0.5 78:0.67 80:0.4 83:0.17 84:0.25 85:0.33 87:0.4 91:0.33 93:0.33 94:0.5 95:0.5 96:0.33 100:0.17 101:0.17 102:0.5 103:0.25 106:1.0 107:0.5 108:0.4 111:0.25 112:0.33 114:0.25 115:0.14 116:0.25 117:0.25 118:0.67 119:0.5 123:0.5 125:0.5 126:0.25 127:0.67 128:0.2 129:0.5 130:1.0 131:0.29 133:0.2 134:0.25 135:0.25 136:1.0 137:1.0 139:0.5 140:0.33 141:0.2 143:0.17 144:0.2 145:1.0 147:1.0 148:0.33 149:0.33 150:0.17 152:0.5 153:0.33 154:0.2 155:1.0 156:0.2 158:0.4 159:0.5 160:0.5 161:0.5 162:0.2 163:1.0 164:0.25 166:0.17 167:0.2 168:0.4 170:0.4 171:1.0 173:1.0 
-0.16619379955298177 -0.0 -0.0 -0.0 -0.0 -0.0 -0.0 1:0.75 2:0.33 9:0.8 11:1.0 13:0.14 14:0.75 15:1.0 17:0.33 19:0.67 20:0.75 22:0.67 23:1.0 24:1.0 25:0.5 27:0.5 28:0.33 29:0.67 32:1.0 33:0.33 35:0.67 36:0.67 38:1.0 40:0.33 41:1.0 43:0.5 44:0.33 45:0.67 46:0.33 49:0.33 50:1.0 52:0.25 53:0.17 55:1.0 57:0.67 58:0.5 59:0.67 60:1.0 62:0.67 64:0.25 65:1.0 67:0.17 69:0.5 72:0.5 73:0.33 74:0.5 76:0.5 78:0.67 79:1.0 80:0.8 85:0.67 86:0.5 87:0.8 89:1.0 91:1.0 94:0.5 95:0.75 97:0.5 105:1.0 106:0.5 107:1.0 108:0.6 109:0.5 110:0.5 111:0.75 114:0.75 116:0.5 118:0.33 123:1.0 125:0.5 127:1.0 128:0.4 129:0.5 131:0.14 135:0.25 136:1.0 139:1.0 140:0.17 141:0.2 143:0.33 146:0.33 147:1.0 149:0.17 150:0.17 152:0.5 153:0.33 154:0.4 155:0.5 156:0.2 158:0.2 159:1.0 161:0.5 163:0.5 164:0.25 167:0.4 168:0.2 170:0.2 171:1.0 173:1.0 
-0.0 -1.0 -0.28078704944859106 -1.0 -0.6659958831939866 -0.044846216725200894 -0.14437274458574836 1:0.5 2:0.33 5:0.17 8:0.2 9:0.4 11:1.0 14:0.5 15:0.5 16:0.33 17:0.33 18:0.5 20:0.25 21:0.25 22:0.33 24:1.0 25:0.25 26:0.33 27:0.25 28:0.33 29:0.33 30:0.2 32:0.5 33:0.33 34:0.17 35:0.67 36:0.67 37:0.5 38:0.33 41:0.33 43:1.0 45:0.33 46:0.67 47:0.2 48:0.33 49:0.33 51:0.25 52:0.25 54:0.17 55:1.0 56:0.2 59:0.33 60:1.0 61:0.17 62:0.67 63:0.2 64:0.25 66:0.2 68:0.2 69:0.5 71:0.14 72:0.5 75:0.2 76:1.0 77:0.5 78:0.33 80:0.6 83:0.17 84:0.25 85:0.33 86:0.5 87:0.4 89:0.5 91:0.67 92:0.5 93:0.67 94:0.5 95:0.5 96:0.33 97:0.5 99:1.0 100:0.17 101:0.17 103:0.25 104:0.5 105:0.5 106:0.5 107:0.5 108:0.2 109:0.5 111:0.25 112:0.33 114:0.25 115:0.14 117:0.25 118:0.33 120:1.0 123:1.0 124:0.5 125:0.5 126:0.25 127:0.67 131:0.29 133:0.2 136:1.0 139:0.5 140:0.17 144:0.2 147:1.0 149:0.33 150:0.33 151:1.0 153:0.33 156:0.4 158:0.2 159:1.0 161:0.5 162:0.2 166:0.17 168:0.2 170:0.4 171:0.5 173:1.0 
-0.0 -1.0 -1.0 -1.0 -1.0 -1.0 -1.0 3:1.0 5:0.17 6:0.5 7:0.2 13:0.29 14:0.25 16:0.33 17:0.33 19:0.33 20:0.25 25:0.25 26:0.33 27:0.5 28:0.33 33:0.33 34:0.17 36:0.33 37:0.5 39:1.0 40:0.33 42:0.33 44:0.67 47:0.2 49:0.33 51:0.25 52:0.25 53:0.33 54:0.17 56:0.2 58:0.5 63:0.2 64:0.25 66:0.2 67:0.33 69:0.5 71:0.14 73:0.33 74:1.0 75:0.2 78:0.33 83:0.17 93:0.33 100:0.17 101:0.17 102:0.5 103:0.25 106:0.5 108:0.2 110:0.5 112:0.33 115:0.14 116:0.25 118:0.33 119:0.5 126:0.25 129:0.5 130:0.67 137:0.5 145:1.0 146:0.33 148:0.33 152:0.5 155:0.5 160:0.5 163:0.5 
-0.0 -0.0 -0.08570322751311267 -0.0 -0.0 -0.0 -0.0 1:0.25 2:0.33 3:1.0 5:0.17 7:0.2 9:0.4 11:1.0 13:0.14 14:1.0 15:0.5 16:0.33 17:0.67 19:0.67 20:0.75 22:0.33 24:1.0 25:0.75 26:0.33 27:0.5 28:0.67 29:0.33 32:1.0 33:0.67 34:0.17 35:0.67 36:1.0 37:0.5 38:0.67 39:1.0 40:0.67 41:0.33 42:0.33 43:0.5 44:0.33 45:0.33 46:0.33 47:0.2 49:0.67 50:1.0 51:0.25 52:0.5 53:0.17 54:0.17 55:0.5 56:0.2 57:0.33 58:0.5 60:0.5 62:0.33 63:0.2 64:0.5 65:1.0 66:0.2 67:0.17 69:1.0 71:0.14 72:0.5 73:0.67 74:0.5 75:0.2 76:0.5 78:1.0 79:0.5 80:0.4 83:0.17 85:0.33 87:0.6 91:0.33 93:0.33 94:0.5 95:0.5 100:0.17 101:0.17 102:0.5 103:0.25 105:0.5 106:1.0 107:0.5 108:0.6 111:0.5 112:0.33 114:0.5 115:0.14 116:0.5 118:0.67 119:0.5 123:0.5 125:0.5 126:0.25 127:0.67 128:1.0 129:1.0 130:0.33 131:0.14 135:1.0 136:1.0 139:0.5 140:0.17 141:1.0 143:1.0 145:1.0 147:1.0 148:0.33 149:0.17 150:0.17 152:1.0 153:0.33 154:1.0 155:1.0 156:0.2 158:0.2 159:0.5 160:0.5 161:0.5 163:1.0 164:1.0 167:1.0 168:0.2 170:0.2 171:1.0 173:1.0 
-0.0 -0.0 -0.7809487322901285 -0.0 -0.0 -0.0 -1.0 1:0.25 2:0.33 9:0.2 11:1.0 14:0.5 15:0.5 17:0.33 20:0.25 24:1.0 25:0.25 27:0.25 28:0.33 32:0.5 33:0.33 35:0.67 36:0.67 38:0.33 43:0.5 45:0.33 46:0.33 49:0.33 50:1.0 52:0.25 55:0.5 60:0.5 62:0.33 64:0.25 65:0.5 69:0.5 72:0.5 76:0.5 78:0.33 80:0.4 85:0.33 87:0.4 91:0.33 94:0.5 95:0.5 106:0.5 107:0.5 108:0.2 111:0.25 114:0.25 118:0.33 123:0.5 125:0.5 127:0.67 128:0.2 131:0.14 135:0.25 136:1.0 139:0.5 140:0.17 141:0.2 143:0.17 147:1.0 149:0.17 150:0.17 153:0.33 154:0.2 155:0.5 156:0.2 158:0.2 159:0.5 161:0.5 163:0.5 164:0.25 167:0.2 168:0.2 170:0.2 171:1.0 173:1.0 
-0.3146510615867424 -0.0 -0.0 -0.0 -0.0 -0.0 -0.0 1:0.5 2:0.33 6:0.5 9:0.6 11:1.0 13:0.14 14:0.75 15:1.0 17:0.33 19:0.33 20:0.5 22:0.67 24:1.0 25:0.5 27:0.5 28:0.33 29:0.67 32:1.0 33:0.33 35:0.67 36:0.67 38:0.67 40:0.33 41:0.67 43:0.5 44:0.33 45:0.33 46:0.33 49:0.33 50:1.0 52:0.25 53:0.17 55:1.0 57:0.33 59:0.33 60:1.0 62:0.67 64:0.25 65:1.0 67:0.17 69:0.5 72:0.5 73:0.33 74:0.5 76:0.5 78:0.67 79:0.5 80:0.6 85:0.33 86:0.5 87:0.6 89:0.5 91:0.67 94:0.5 95:0.5 97:0.5 105:1.0 106:0.5 107:0.5 108:0.4 109:0.5 110:0.5 111:0.5 114:0.5 116:0.25 118:0.33 123:1.0 125:0.5 127:1.0 128:1.0 129:0.5 130:0.33 131:0.14 135:1.0 136:1.0 137:0.5 139:1.0 140:0.17 141:1.0 143:1.0 146:0.33 147:1.0 149:0.17 150:0.17 152:0.5 153:0.33 154:1.0 155:0.5 156:0.2 158:0.2 159:1.0 161:0.5 163:0.5 164:1.0 167:1.0 168:0.2 170:0.2 171:1.0 173:1.0 
-0.006452146771971746 -1.0 -0.0 -0.0 -0.0 -0.0 -0.0 1:0.25 2:0.33 3:1.0 5:0.17 7:0.2 9:0.2 11:1.0 13:0.14 14:0.75 16:0.33 17:0.67 19:0.33 20:0.5 24:1.0 25:0.5 26:0.33 27:0.5 28:0.67 32:0.5 33:0.67 34:0.17 35:0.67 36:1.0 37:0.5 38:0.33 39:1.0 40:0.33 42:0.33 43:0.5 44:0.33 45:0.33 46:0.33 47:0.2 49:0.67 51:0.25 52:0.5 53:0.17 54:0.17 55:0.5 56:0.2 58:0.5 60:0.5 62:0.33 63:0.2 64:0.5 66:0.2 67:0.17 69:1.0 71:0.14 72:0.5 73:0.33 74:0.5 75:0.2 76:0.5 78:0.67 80:0.4 83:0.17 85:0.33 87:0.4 91:0.33 93:0.33 94:0.5 95:0.5 100:0.17 101:0.17 102:0.5 103:0.25 106:1.0 107:0.5 108:0.4 111:0.25 112:0.33 114:0.25 115:0.14 116:0.25 118:0.67 119:0.5 123:0.5 125:0.5 126:0.25 127:0.33 129:0.5 130:0.33 131:0.14 136:1.0 140:0.17 145:1.0 147:1.0 148:0.33 149:0.17 150:0.17 152:0.5 153:0.33 155:0.5 156:0.2 158:0.2 159:0.5 160:0.5 161:0.5 163:0.5 168:0.2 170:0.2 171:0.5 173:1.0 
-0.0 -1.0 -0.0 -0.0 -1.0 -0.6605152470708361 -0.0 1:0.25 2:0.33 3:1.0 4:1.0 5:0.17 7:0.2 9:0.2 10:1.0 11:0.5 13:0.43 14:0.5 15:0.5 16:0.67 17:0.33 19:0.33 20:0.5 25:0.5 26:0.33 27:0.5 28:0.67 31:0.5 32:0.5 33:0.67 34:0.17 35:0.33 36:0.67 37:0.5 38:0.33 39:1.0 40:0.33 42:0.67 44:0.67 45:0.33 46:0.33 47:0.2 48:0.33 49:0.67 50:1.0 51:0.25 52:0.5 53:0.5 54:0.33 55:0.5 56:0.2 58:0.5 60:0.5 62:0.33 63:0.2 64:0.5 65:0.5 66:0.4 67:0.5 69:0.5 71:0.29 73:0.33 74:1.0 75:0.2 78:0.67 80:0.2 81:1.0 83:0.33 85:0.33 87:0.2 88:0.5 91:0.33 92:0.5 93:0.33 94:0.5 95:0.25 98:1.0 100:0.33 101:0.17 102:0.5 103:0.25 106:1.0 107:0.5 108:0.4 110:0.5 111:0.25 112:0.33 113:0.5 114:0.25 115:0.14 116:0.25 118:0.33 119:0.5 126:0.25 127:0.67 128:0.2 129:0.5 130:0.33 132:0.5 135:0.25 136:1.0 138:0.5 139:0.5 141:0.2 142:1.0 143:0.17 145:1.0 146:0.67 147:0.5 148:0.67 152:0.5 153:0.33 154:0.2 155:1.0 159:0.5 160:1.0 161:0.5 163:1.0 164:0.25 165:1.0 167:0.2 169:1.0 171:1.0 172:0.5 173:1.0 
-0.0 -0.0 -1.0 -1.0 -0.0 -0.0 -1.0 1:0.25 3:1.0 5:0.17 7:0.2 8:0.2 9:0.2 11:0.5 12:0.2 13:0.14 14:0.5 15:0.5 16:0.33 17:0.67 19:0.33 20:0.5 21:0.25 25:0.5 26:0.67 27:0.25 28:1.0 30:0.2 32:0.5 33:0.67 34:0.17 35:0.33 36:0.67 37:0.5 38:0.33 39:1.0 40:0.33 42:0.33 44:0.33 45:0.33 47:0.2 49:0.67 50:1.0 51:0.25 52:0.25 53:0.17 54:0.17 55:0.5 56:0.2 58:0.5 60:0.5 61:0.17 62:0.33 63:0.2 64:0.75 65:0.5 66:0.2 67:0.17 68:0.2 69:0.5 71:0.14 73:0.67 74:0.5 75:0.2 78:0.67 80:0.2 83:0.17 84:0.25 85:0.33 87:0.2 91:0.33 93:0.33 95:0.25 96:0.33 100:0.17 101:0.17 102:0.5 103:0.25 106:1.0 107:0.5 108:0.4 111:0.25 112:0.33 114:0.25 115:0.14 116:0.25 117:0.25 118:0.33 119:0.5 126:0.25 127:0.67 128:0.2 129:0.5 130:0.67 131:0.14 133:0.2 134:0.25 135:0.25 136:1.0 137:0.5 139:0.5 140:0.17 141:0.2 143:0.17 144:0.2 145:1.0 147:0.5 148:0.33 149:0.17 152:0.5 154:0.2 155:1.0 158:0.2 159:0.5 160:0.5 162:0.2 163:1.0 164:0.25 166:0.17 167:0.2 168:0.2 170:0.2 171:1.0 173:1.0 
-0.0 -1.0 -0.0 -1.0 -1.0 -1.0 -0.0 1:0.5 2:1.0 3:1.0 4:1.0 5:0.5 7:0.4 8:0.2 9:0.4 10:1.0 11:1.0 12:0.2 13:0.43 14:0.75 15:0.5 16:1.0 17:1.0 18:0.5 19:0.67 20:0.75 21:0.25 23:1.0 24:1.0 25:0.5 26:1.0 27:0.75 28:1.0 30:0.2 31:1.0 32:0.5 33:0.67 34:0.5 35:0.67 36:1.0 37:0.5 38:0.67 39:1.0 40:0.33 41:0.33 42:1.0 43:0.5 44:0.67 45:0.67 46:1.0 47:0.6 48:1.0 49:0.67 50:1.0 51:0.75 52:1.0 53:0.5 54:0.67 55:0.5 56:0.6 57:0.33 58:1.0 59:0.33 60:0.5 61:0.17 62:0.33 63:0.6 64:0.75 65:0.5 66:0.8 67:0.5 68:0.2 69:1.0 70:1.0 71:0.57 72:0.5 73:0.67 74:0.5 75:0.6 76:1.0 77:0.5 78:0.67 79:0.5 80:0.6 83:0.67 84:0.25 85:0.67 87:0.6 88:0.5 89:0.5 91:0.67 92:1.0 93:0.67 94:1.0 95:0.75 96:0.33 97:0.5 98:1.0 99:1.0 100:0.67 101:0.33 102:0.5 103:0.75 104:1.0 106:1.0 107:1.0 108:0.6 110:0.5 111:0.5 112:0.67 113:1.0 114:0.5 115:0.43 116:0.5 117:0.25 118:1.0 119:1.0 122:1.0 123:0.5 124:0.5 125:1.0 126:0.5 127:0.67 128:0.2 129:0.5 130:0.67 131:0.29 132:1.0 133:0.2 134:0.25 135:0.25 136:1.0 137:0.5 138:1.0 139:0.5 140:0.33 141:0.2 142:1.0 143:0.17 144:0.2 145:1.0 146:0.67 147:1.0 148:1.0 149:0.33 150:0.17 152:0.5 153:1.0 154:0.2 155:1.0 156:0.2 157:1.0 158:0.4 159:0.5 160:1.0 161:1.0 162:0.2 163:1.0 164:0.25 165:1.0 166:0.17 167:0.2 168:0.4 169:1.0 170:0.4 171:1.0 172:1.0 173:1.0 
-0.017521803793357695 -0.0 -0.12037265578156763 -0.0 -0.0 -0.0 -0.0 1:0.5 2:0.33 6:0.5 9:0.6 11:1.0 13:0.14 14:0.75 15:0.5 17:0.33 19:0.33 20:0.5 22:0.67 24:1.0 25:0.5 27:0.5 28:0.33 29:0.67 32:1.0 33:0.33 35:0.67 36:0.67 38:0.67 40:0.33 41:0.67 43:0.5 44:0.33 45:0.33 46:0.33 49:0.33 52:0.25 53:0.17 55:1.0 57:0.33 59:0.33 60:1.0 62:0.67 64:0.25 65:0.5 67:0.17 69:0.5 72:0.5 73:0.33 74:0.5 76:0.5 78:0.67 79:0.5 80:0.6 85:0.33 86:0.5 87:0.6 89:0.5 91:0.67 94:0.5 95:0.5 97:0.5 105:1.0 106:0.5 107:0.5 108:0.4 109:0.5 110:0.5 111:0.5 114:0.5 116:0.25 118:0.33 123:1.0 125:0.5 127:0.67 128:0.2 129:0.5 130:0.33 131:0.14 136:1.0 137:0.5 139:0.5 140:0.17 143:0.17 146:0.33 147:1.0 149:0.17 150:0.17 152:0.5 153:0.33 154:0.2 156:0.2 158:0.2 159:1.0 161:0.5 167:0.2 168:0.2 170:0.2 171:0.5 173:1.0 
-0.0 -0.0 -0.0 -0.0 -0.0 -0.0 -0.8607155165609977 1:0.75 5:0.17 9:0.8 11:0.5 14:0.5 15:1.0 16:0.33 18:0.5 19:0.67 20:0.75 22:0.67 23:1.0 25:0.5 26:0.33 28:0.33 29:0.67 32:1.0 33:0.33 34:0.17 35:0.33 36:0.33 38:1.0 40:0.33 41:1.0 45:0.67 46:0.33 47:0.2 48:0.33 49:0.33 50:1.0 51:0.25 54:0.17 55:1.0 56:0.2 57:0.67 58:0.5 59:0.67 60:1.0 62:0.67 63:0.2 64:0.25 65:1.0 66:0.2 71:0.14 73:0.33 75:0.2 76:0.5 77:0.5 78:0.67 79:1.0 80:0.6 83:0.17 85:0.67 86:0.5 87:0.6 89:1.0 91:1.0 92:0.5 93:0.33 95:0.5 97:0.5 99:1.0 100:0.17 101:0.17 103:0.25 104:0.5 105:1.0 106:0.5 107:1.0 108:0.6 109:0.5 111:0.75 112:0.33 114:0.75 115:0.14 116:0.5 123:0.5 124:0.5 126:0.25 127:1.0 128:0.4 129:0.5 135:0.25 136:1.0 139:1.0 141:0.2 143:0.33 147:0.5 152:0.5 154:0.4 155:0.5 159:1.0 163:0.5 164:0.25 167:0.4 171:1.0 173:1.0 
-0.5762082587872878 -0.0 -0.0 -0.0 -0.0 -0.0 -0.0 1:0.5 2:0.33 9:0.6 11:1.0 14:0.75 15:1.0 17:0.33 19:0.33 20:0.5 22:0.67 24:1.0 25:0.5 27:0.25 28:0.33 29:0.67 32:1.0 33:0.33 35:0.67 36:0.67 38:0.67 40:0.33 41:0.67 43:0.5 45:0.33 46:0.33 49:0.33 50:1.0 52:0.25 55:1.0 57:0.33 59:0.33 60:1.0 62:0.67 64:0.25 65:1.0 69:0.5 72:0.5 73:0.33 76:0.5 78:0.67 79:0.5 80:0.6 85:0.33 86:0.5 87:0.6 89:0.5 91:0.67 94:0.5 95:0.5 97:0.5 105:1.0 106:0.5 107:0.5 108:0.4 109:0.5 111:0.5 114:0.5 116:0.25 118:0.33 123:1.0 125:0.5 127:1.0 128:1.0 129:0.5 131:0.14 135:1.0 136:1.0 139:1.0 140:0.17 141:1.0 143:1.0 147:1.0 149:0.17 150:0.17 152:0.5 153:0.33 154:1.0 155:0.5 156:0.2 158:0.2 159:1.0 161:0.5 163:0.5 164:1.0 167:1.0 168:0.2 170:0.2 171:1.0 173:1.0 
-0.0 -1.0 -0.41178829883132273 -0.0938482367612066 -1.0 -0.29463853620396296 -0.0 1:0.5 2:1.0 3:1.0 4:1.0 5:0.5 7:0.4 8:0.2 9:0.6 10:1.0 11:1.0 12:0.2 13:0.57 14:1.0 15:0.5 16:1.0 17:1.0 18:0.5 19:1.0 20:1.0 21:0.25 22:0.33 23:1.0 24:1.0 25:0.75 26:1.0 27:1.0 28:1.0 29:0.33 30:0.2 31:1.0 32:1.0 33:0.67 34:0.5 35:0.67 36:1.0 37:0.5 38:1.0 39:1.0 40:0.67 41:0.67 42:1.0 43:0.5 44:1.0 45:0.67 46:1.0 47:0.6 48:1.0 49:0.67 50:1.0 51:0.75 52:1.0 53:0.67 54:0.67 55:0.5 56:0.6 57:0.67 58:1.0 59:0.33 60:0.5 61:0.17 62:0.33 63:0.6 64:0.75 65:1.0 66:0.8 67:0.67 68:0.2 69:1.0 70:1.0 71:0.57 72:0.5 73:1.0 74:1.0 75:0.6 76:1.0 77:0.5 78:1.0 79:1.0 80:0.6 83:0.67 84:0.25 85:0.67 87:0.8 88:0.5 89:0.5 91:0.67 92:1.0 93:0.67 94:1.0 95:0.75 96:0.33 97:0.5 98:1.0 99:1.0 100:0.67 101:0.33 102:0.5 103:0.75 104:1.0 105:0.5 106:1.0 107:1.0 108:0.8 110:1.0 111:0.75 112:0.67 113:1.0 114:0.75 115:0.43 116:0.75 117:0.25 118:1.0 119:1.0 122:1.0 123:0.5 124:0.5 125:1.0 126:0.5 127:0.67 128:0.4 129:1.0 130:0.67 131:0.29 132:1.0 133:0.2 134:0.25 135:0.25 136:1.0 137:0.5 138:1.0 139:0.5 140:0.33 141:0.2 142:1.0 143:0.33 144:0.2 145:1.0 146:1.0 147:1.0 148:1.0 149:0.33 150:0.17 152:1.0 153:1.0 154:0.4 155:1.0 156:0.2 157:1.0 158:0.4 159:0.5 160:1.0 161:1.0 162:0.2 163:1.0 164:0.25 165:1.0 166:0.17 167:0.4 168:0.4 169:1.0 170:0.4 171:1.0 172:1.0 173:1.0 
-0.007034843954314492 -1.0 -0.0 -1.0 -1.0 -1.0 -0.6045001983333156 1:0.25 2:0.67 4:1.0 9:0.2 10:1.0 11:0.5 13:0.29 14:0.25 15:1.0 16:0.33 17:0.33 22:0.33 24:1.0 27:0.5 29:0.33 31:0.5 35:0.33 36:0.33 41:0.33 42:0.33 43:0.5 44:0.33 46:0.67 48:0.33 50:1.0 52:0.5 53:0.33 54:0.17 55:0.5 59:0.33 60:0.5 62:0.33 65:0.5 66:0.2 67:0.33 69:0.5 71:0.14 72:0.5 74:0.5 76:0.5 80:0.4 83:0.17 86:0.5 87:0.2 88:0.5 89:0.5 91:0.33 92:0.5 94:1.0 95:0.25 97:0.5 98:1.0 100:0.17 105:0.5 109:0.5 110:0.5 113:0.5 118:0.33 123:1.0 125:0.5 127:0.67 128:0.2 131:0.14 132:0.5 135:0.25 138:0.5 139:1.0 140:0.17 141:0.2 142:1.0 143:0.17 146:0.67 147:0.5 148:0.33 149:0.17 150:0.17 153:0.67 154:0.2 155:0.5 156:0.2 158:0.2 159:0.5 160:0.5 161:1.0 163:0.5 164:0.25 165:1.0 167:0.2 168:0.2 169:1.0 170:0.2 171:0.5 172:0.5 
-1.0 -0.0 -0.0 -0.0 -0.0 -0.0 -0.0 1:0.75 2:0.33 9:0.8 11:1.0 13:0.14 14:0.75 15:1.0 17:0.33 19:0.67 20:0.75 22:0.67 23:1.0 24:1.0 25:0.5 27:0.5 28:0.33 29:0.67 32:1.0 33:0.33 35:0.67 36:0.67 38:1.0 40:0.33 41:1.0 43:0.5 44:0.33 45:0.67 46:0.33 49:0.33 50:1.0 52:0.25 53:0.17 55:1.0 57:0.67 58:0.5 59:0.67 60:1.0 62:0.67 64:0.25 65:1.0 67:0.17 69:0.5 72:0.5 73:0.33 74:0.5 76:0.5 78:0.67 79:1.0 80:0.8 85:0.67 86:0.5 87:0.8 89:1.0 91:1.0 94:0.5 95:0.75 97:0.5 105:1.0 106:0.5 107:1.0 108:0.6 109:0.5 110:0.5 111:0.75 114:0.75 116:0.5 118:0.33 123:1.0 125:0.5 127:1.0 128:0.4 129:0.5 131:0.14 135:0.25 136:1.0 139:1.0 140:0.17 141:0.2 143:0.33 146:0.33 147:1.0 149:0.17 150:0.17 152:0.5 153:0.33 154:0.4 155:0.5 156:0.2 158:0.2 159:1.0 161:0.5 163:0.5 164:0.25 167:0.4 168:0.2 170:0.2 171:1.0 173:1.0 
-1.0 -0.09899143480714755 -0.0 -0.9218646717794466 -0.2980996026830561 -0.0 -0.0 1:0.25 2:0.33 3:1.0 5:0.17 7:0.2 9:0.2 11:1.0 13:0.14 14:0.75 16:0.33 17:0.67 19:0.33 20:0.5 24:1.0 25:0.5 26:0.33 27:0.5 28:0.67 32:0.5 33:0.67 34:0.17 35:0.67 36:1.0 37:0.5 38:0.33 39:1.0 40:0.33 42:0.33 43:0.5 44:0.33 45:0.33 46:0.33 47:0.2 49:0.67 51:0.25 52:0.5 53:0.17 54:0.17 55:0.5 56:0.2 58:0.5 60:0.5 62:0.33 63:0.2 64:0.5 66:0.2 67:0.17 69:1.0 71:0.14 72:0.5 73:0.33 74:0.5 75:0.2 76:0.5 78:0.67 80:0.4 83:0.17 85:0.33 87:0.4 91:0.33 93:0.33 94:0.5 95:0.5 100:0.17 101:0.17 102:0.5 103:0.25 106:1.0 107:0.5 108:0.4 111:0.25 112:0.33 114:0.25 115:0.14 116:0.25 118:0.67 119:0.5 123:0.5 125:0.5 126:0.25 127:0.33 129:0.5 130:0.33 131:0.14 136:1.0 140:0.17 145:1.0 147:1.0 148:0.33 149:0.17 150:0.17 152:0.5 153:0.33 155:0.5 156:0.2 158:0.2 159:0.5 160:0.5 161:0.5 163:0.5 168:0.2 170:0.2 171:0.5 173:1.0 
