svm_type c_svc
kernel_type rbf
gamma 0.008403361344537815
nr_class 7
total_sv 31
rho 0.0 0.9642369151115417 0.9585104584693909 0.9228311777114868 0.9958216845989227 0.9989803731441498 0.7751186788082123 0.7971338927745819 0.9463754909687886 0.7968104779720306 0.8975897841970273 0.7766696214675903 0.6084265112876892 0.6951484680175781 0.9273304955019114 -0.2053493857383728 -0.627376914024353 0.2630720138549805 -0.005127757787704468 0.5123865902423859 0.9976554811000824
label 3 7 4 0 5 2 1
nr_sv 1 1 3 7 4 4 11
SV
1.0 1.0 1.0 1.0 1.0 1.0 1:0.25 3:0.25 4:1.0 5:0.2 6:0.25 8:0.33 11:0.25 17:0.25 18:1.0 25:0.5 27:0.33 29:0.17 30:0.5 37:0.17 39:0.2 44:0.14 50:0.2 52:0.5 53:0.2 59:0.33 62:1.0 63:0.17 65:1.0 66:0.2 72:0.5 73:0.25 74:0.33 78:0.17 80:0.5 83:0.2 85:0.17 93:0.25 98:0.33 107:1.0 108:0.07 109:0.29 111:0.14 113:0.5 114:0.33 115:1.0 116:0.5 118:0.22 119:0.25 
-1.0 1.0 1.0 1.0 1.0 1.0 1:0.75 9:1.0 14:0.25 16:0.17 17:0.25 19:1.0 21:0.33 23:1.0 24:0.5 26:1.0 28:1.0 29:0.67 30:0.5 31:0.5 32:0.5 33:1.0 35:0.5 40:0.33 41:0.25 44:0.71 46:1.0 48:1.0 49:0.67 50:0.8 51:0.5 52:0.5 57:0.5 58:0.5 63:0.67 67:0.5 68:0.17 69:0.33 70:1.0 73:0.75 77:0.33 78:0.67 79:0.2 82:1.0 83:0.8 84:1.0 85:0.83 86:1.0 87:1.0 91:0.17 92:0.25 95:0.14 96:1.0 102:1.0 104:0.25 108:0.5 109:0.14 111:0.86 113:0.5 116:0.5 117:1.0 119:0.25 
-1.0 -0.7025648777514857 1.0 1.0 1.0 1.0 1:0.25 3:0.5 4:1.0 5:0.2 6:0.5 7:0.2 8:0.33 11:0.25 12:0.14 14:0.25 17:0.5 18:1.0 22:0.33 25:0.5 27:0.33 29:0.17 30:0.5 37:0.33 39:0.6 44:0.14 45:0.4 50:0.2 52:0.5 53:0.2 54:0.4 56:1.0 59:0.33 62:1.0 63:0.17 64:0.17 65:1.0 66:0.4 71:0.5 72:0.5 73:0.25 74:0.67 75:0.2 78:0.17 80:0.5 81:0.17 83:0.2 85:0.17 89:0.17 90:0.2 93:0.5 98:0.33 105:0.17 107:1.0 108:0.07 109:0.29 110:0.14 111:0.14 113:0.5 114:1.0 115:0.29 116:0.5 118:1.0 119:0.25 
-0.0 -0.29743512224851437 1.0 1.0 1.0 1.0 1:0.25 3:0.75 4:1.0 5:0.8 6:0.75 7:0.2 8:0.67 10:1.0 11:0.75 12:0.14 14:0.5 15:0.25 16:0.33 17:0.5 18:1.0 20:0.5 21:0.33 22:0.67 24:0.5 25:0.5 27:0.67 29:0.33 30:0.5 34:0.4 35:0.5 37:0.67 38:0.67 39:1.0 40:0.33 41:0.5 44:0.29 45:0.6 49:0.33 50:0.2 52:0.5 53:0.6 54:0.8 56:1.0 57:0.5 59:0.67 61:0.25 63:0.33 64:0.17 65:1.0 66:0.8 67:0.5 68:0.33 69:0.33 71:0.5 72:0.5 73:0.25 74:0.67 75:0.2 76:0.25 77:0.67 78:0.33 80:0.5 81:0.17 83:0.2 85:0.17 88:1.0 89:0.17 90:0.2 91:0.33 93:0.5 94:0.33 95:0.29 97:0.67 98:0.33 99:0.5 101:1.0 103:0.75 105:0.17 106:0.5 107:0.5 108:0.14 109:0.14 110:0.14 111:0.14 114:1.0 115:0.14 116:0.5 118:0.33 119:0.5 
-0.0 -0.0 1.0 1.0 1.0 1.0 1:0.25 3:0.75 4:1.0 5:0.8 6:0.75 7:0.2 8:0.67 10:1.0 11:0.75 12:0.14 14:0.5 15:0.25 16:0.33 17:0.5 18:1.0 20:0.5 21:0.33 22:0.67 24:0.5 25:0.5 27:0.67 29:0.33 30:0.5 34:0.4 35:0.5 37:0.67 38:0.67 39:1.0 40:0.33 41:0.5 44:0.29 45:0.6 49:0.33 50:0.2 52:0.5 53:0.6 54:0.8 56:1.0 57:0.5 59:0.67 61:0.25 62:1.0 63:0.33 64:0.17 65:1.0 66:0.8 67:0.5 68:0.33 69:0.33 71:0.5 72:0.5 73:0.25 74:0.67 75:0.2 76:0.25 77:0.67 78:0.33 80:0.5 81:0.17 83:0.2 85:0.17 88:1.0 89:0.17 90:0.2 91:0.33 93:0.5 94:0.33 95:0.29 97:0.67 98:0.33 99:0.5 101:1.0 103:0.75 105:0.17 106:0.5 107:1.0 108:0.14 109:0.29 110:0.14 111:0.14 113:0.5 114:1.0 115:0.29 116:0.5 118:1.0 119:0.75 
-0.0 -0.0 -1.0 1.0 1.0 1.0 1:0.25 3:0.25 4:1.0 5:0.2 6:0.25 8:0.33 11:0.25 12:0.14 17:0.25 18:1.0 25:0.5 27:0.33 29:0.17 30:0.5 36:1.0 37:0.17 39:0.2 44:0.14 47:0.5 50:0.2 52:0.5 53:0.2 59:0.33 63:0.17 64:0.17 65:1.0 66:0.2 72:0.5 73:0.25 74:0.33 75:0.2 78:0.17 80:1.0 83:0.2 85:0.17 89:0.17 90:0.2 93:0.25 98:0.33 105:0.17 107:0.5 108:0.07 109:0.14 110:0.14 111:0.14 112:1.0 114:0.33 115:0.14 116:0.5 118:0.11 
-1.0 -0.7527024826065936 -1.0 1.0 1.0 1.0 1:0.25 3:0.25 4:1.0 5:0.2 6:0.25 8:0.33 11:0.25 12:0.14 17:0.25 18:1.0 25:0.5 27:0.33 29:0.17 30:0.5 36:1.0 37:0.17 39:0.2 44:0.14 47:0.5 50:0.2 52:0.5 53:0.2 59:0.33 63:0.17 64:0.17 65:1.0 66:0.2 72:0.5 73:0.25 74:0.33 75:0.2 78:0.17 80:1.0 83:0.2 85:0.17 89:0.17 90:0.2 93:0.25 98:0.33 105:0.17 107:0.5 108:0.07 109:0.14 110:0.14 111:0.14 112:1.0 114:0.33 115:0.14 116:0.5 118:0.11 
-0.0 -0.0 -0.0 0.0 0.0 1.0 3:0.25 6:0.25 7:1.0 12:1.0 15:0.25 16:0.17 22:0.33 34:0.2 36:1.0 37:0.17 39:0.2 45:0.2 47:1.0 54:0.2 56:1.0 61:0.25 64:1.0 66:0.2 71:0.5 74:0.33 75:1.0 76:0.25 80:0.5 81:1.0 89:1.0 90:1.0 91:0.17 93:0.25 94:0.33 95:0.14 105:1.0 110:1.0 112:1.0 114:0.33 118:0.11 
-0.0 -0.0 -0.0 0.0 0.0 1.0 3:0.25 6:0.25 7:1.0 12:1.0 15:0.25 16:0.17 22:0.33 34:0.2 36:1.0 37:0.17 39:0.2 45:0.2 47:1.0 54:0.2 56:1.0 61:0.25 64:1.0 66:0.2 71:0.5 74:0.33 75:1.0 76:0.25 80:0.5 81:1.0 89:1.0 90:1.0 91:0.17 93:0.25 94:0.33 95:0.14 105:1.0 110:1.0 112:1.0 114:0.33 118:0.11 
-0.0 -0.0 -1.0 1.0 0.8105231329748231 1.0 1:0.25 3:0.5 4:1.0 5:0.6 6:0.75 7:1.0 8:0.33 10:1.0 11:0.75 12:1.0 14:0.25 15:0.5 16:0.5 17:0.25 18:1.0 21:0.33 22:0.67 24:0.5 25:0.5 27:0.67 29:0.33 30:0.5 34:0.6 35:0.5 36:1.0 37:0.67 38:0.67 39:0.6 40:0.33 41:0.5 44:0.29 45:0.4 47:1.0 49:0.33 50:0.2 52:0.5 53:0.6 54:0.4 56:1.0 57:0.5 59:0.67 61:0.5 63:0.33 64:1.0 65:1.0 66:0.8 68:0.33 69:0.33 71:0.5 72:0.5 73:0.25 74:0.67 75:1.0 76:0.5 77:0.67 78:0.33 80:1.0 81:1.0 83:0.2 85:0.17 88:1.0 89:1.0 90:1.0 91:0.5 93:0.5 94:0.67 95:0.43 97:0.67 98:0.33 99:0.5 103:0.5 105:1.0 106:0.5 107:0.5 108:0.14 109:0.14 110:1.0 111:0.14 112:1.0 114:0.67 115:0.14 116:0.5 118:0.22 119:0.5 
-0.0 -0.0 -0.0 0.0 0.18947686702517688 1.0 3:0.25 6:0.25 7:1.0 12:1.0 15:0.25 16:0.17 22:0.33 34:0.2 36:1.0 37:0.17 39:0.2 45:0.2 47:1.0 54:0.2 56:1.0 61:0.25 64:1.0 66:0.2 71:0.5 74:0.33 75:1.0 76:0.25 80:0.5 81:1.0 89:1.0 90:1.0 91:0.17 93:0.25 94:0.33 95:0.14 105:1.0 110:1.0 112:1.0 114:0.33 118:0.11 
-0.0 -0.2472975173934065 -0.0 1.0 1.0 1.0 3:0.25 6:0.25 7:1.0 12:1.0 15:0.25 16:0.17 22:0.33 34:0.2 36:1.0 37:0.17 39:0.2 45:0.2 47:1.0 54:0.2 56:1.0 61:0.25 64:1.0 66:0.2 71:0.5 74:0.33 75:1.0 76:0.25 80:0.5 81:1.0 89:1.0 90:1.0 91:0.17 93:0.25 94:0.33 95:0.14 105:1.0 110:1.0 112:1.0 114:0.33 118:0.11 
-0.0 -0.20626134812022257 -1.0 -1.0 1.0 1.0 1:0.5 3:0.5 4:1.0 5:0.2 6:0.5 7:0.2 8:0.33 9:1.0 11:0.25 12:0.14 17:0.25 18:1.0 22:0.33 23:1.0 25:0.5 26:1.0 27:0.33 28:1.0 29:0.5 30:1.0 31:0.5 33:1.0 37:0.33 39:0.4 44:0.43 45:0.2 46:1.0 49:0.67 50:0.6 52:1.0 53:0.2 54:0.2 56:1.0 57:0.5 58:0.5 59:0.33 63:0.33 64:0.17 65:1.0 66:0.4 70:0.17 71:0.5 72:0.5 73:0.25 74:0.67 75:0.2 78:0.5 79:0.2 80:0.5 81:0.17 82:1.0 83:0.4 84:1.0 85:0.5 86:1.0 87:1.0 89:0.17 90:0.2 92:0.25 93:0.5 96:1.0 98:0.33 104:0.25 105:0.17 107:0.5 108:0.21 109:0.29 110:0.14 111:1.0 114:0.67 115:0.14 116:1.0 117:0.54 118:0.22 
-0.09959235989145822 -0.42978651885679353 -0.7067800291284463 -1.0 1.0 1.0 1:1.0 3:0.25 4:1.0 5:0.4 6:0.25 8:0.33 9:1.0 10:1.0 11:0.5 14:0.5 16:0.17 17:0.5 18:1.0 19:1.0 22:0.33 23:1.0 25:0.5 27:0.67 28:1.0 29:1.0 30:1.0 31:0.5 32:0.5 33:1.0 34:0.2 35:0.5 37:0.33 38:0.33 39:0.4 40:0.33 41:0.25 44:1.0 46:1.0 49:1.0 50:1.0 52:1.0 53:0.4 54:0.2 57:1.0 59:0.33 61:0.25 63:1.0 65:1.0 66:0.4 68:0.17 69:0.33 70:0.83 72:0.5 73:1.0 74:0.33 76:0.25 77:0.33 78:1.0 79:0.2 80:0.5 82:1.0 83:1.0 84:1.0 85:1.0 86:1.0 88:0.5 91:0.17 92:0.25 93:0.25 95:0.14 96:1.0 97:0.33 98:0.33 102:1.0 103:0.25 104:0.25 106:0.5 107:0.5 108:1.0 109:0.14 111:0.29 114:0.33 115:0.14 116:1.0 117:0.54 118:0.11 119:0.25 
-0.9004076401085418 -0.29366058134141454 -1.0 -1.0 1.0 1.0 1:0.25 3:0.25 4:1.0 5:0.2 6:0.25 8:0.33 11:0.25 17:0.25 18:1.0 23:1.0 25:0.5 26:1.0 27:0.33 28:1.0 29:0.33 30:0.5 31:0.5 37:0.17 39:0.2 44:0.29 49:0.33 50:0.4 52:1.0 53:0.2 57:0.5 58:0.5 59:0.33 63:0.33 65:1.0 66:0.2 72:0.5 73:0.25 74:0.33 78:0.33 79:0.2 80:0.5 82:0.5 83:0.2 84:1.0 85:0.33 86:1.0 87:1.0 92:0.25 93:0.25 96:0.5 98:0.33 104:0.25 107:0.5 108:0.14 109:0.29 111:1.0 114:0.33 115:0.14 116:1.0 117:0.46 118:0.11 
-0.0 -0.07029155168156935 -0.29321997087155377 -1.0 1.0 1.0 1:1.0 3:0.25 4:1.0 5:0.4 6:0.25 8:0.33 9:1.0 10:1.0 11:0.5 14:0.5 16:0.17 17:0.5 18:1.0 19:1.0 22:0.33 23:1.0 25:0.5 27:0.67 28:1.0 29:1.0 30:1.0 31:0.5 32:0.5 33:1.0 34:0.2 35:0.5 37:0.33 38:0.33 39:0.4 40:0.33 41:0.25 44:1.0 46:1.0 49:1.0 50:1.0 52:1.0 53:0.4 54:0.2 57:1.0 59:0.33 60:1.0 61:0.25 63:1.0 65:1.0 66:0.4 68:0.17 69:0.67 70:0.83 72:0.5 73:1.0 74:0.33 76:0.25 77:0.33 78:1.0 79:0.2 80:0.5 82:1.0 83:1.0 84:1.0 85:1.0 86:1.0 88:0.5 91:0.17 92:0.25 93:0.25 95:0.14 96:1.0 97:0.33 98:0.33 102:1.0 103:0.25 104:0.25 106:0.5 107:0.5 108:1.0 109:0.14 111:0.29 114:0.33 115:0.14 116:1.0 117:0.54 118:0.11 119:0.25 
-0.0 -0.0 -0.0 -1.0 -1.0 1.0 1:0.25 3:0.25 4:1.0 5:0.2 6:0.25 8:0.33 11:0.25 17:0.25 18:1.0 25:0.5 26:1.0 27:0.33 29:0.17 30:0.5 37:0.17 39:0.2 44:0.14 50:0.2 52:0.5 53:0.2 58:0.5 59:0.33 62:1.0 63:0.17 65:1.0 66:0.2 72:0.5 73:0.25 74:0.33 78:0.17 80:0.5 83:0.2 85:0.17 87:1.0 93:0.25 98:0.33 107:1.0 108:0.07 109:1.0 111:0.29 113:0.5 114:0.33 115:0.29 116:0.5 117:0.08 118:0.22 119:0.25 
-0.0 -0.0 -1.0 -1.0 -1.0 1.0 1:0.25 3:0.25 4:1.0 5:0.2 6:0.25 8:0.33 11:0.25 17:0.25 18:1.0 25:0.5 27:0.33 29:0.17 30:0.5 37:0.17 39:0.2 44:0.14 50:0.2 52:0.5 53:0.2 59:0.33 62:1.0 63:0.17 65:1.0 66:0.2 72:0.5 73:0.25 74:0.33 78:0.17 80:0.5 83:0.2 85:0.17 93:0.25 98:0.33 107:1.0 108:0.07 109:0.29 111:0.14 113:0.5 114:0.33 115:0.29 116:0.5 118:0.22 119:0.25 
-0.0 -0.7683382799264586 -1.0 -1.0 -1.0 1.0 1:0.25 3:0.25 4:1.0 5:0.2 6:0.25 8:0.33 11:0.25 17:0.25 18:1.0 25:0.5 26:1.0 27:0.33 29:0.17 30:0.5 37:0.17 39:0.2 44:0.14 50:0.2 52:0.5 53:0.2 58:0.5 59:0.33 62:1.0 63:0.17 65:1.0 66:0.2 72:0.5 73:0.25 74:0.33 78:0.17 80:0.5 83:0.2 85:0.17 87:1.0 93:0.25 98:0.33 107:1.0 108:0.07 109:1.0 111:0.29 113:0.5 114:0.33 115:0.29 116:0.5 117:0.08 118:0.22 119:0.25 
-1.0 -0.23166172007354136 -1.0 -1.0 -1.0 1.0 1:0.25 3:0.25 4:1.0 5:0.2 6:0.25 8:0.33 11:0.25 17:0.25 18:1.0 25:0.5 27:0.33 29:0.17 30:0.5 37:0.17 39:0.2 44:0.14 50:0.2 52:0.5 53:0.2 59:0.33 62:1.0 63:0.17 65:1.0 66:0.2 72:0.5 73:0.25 74:0.33 78:0.17 80:0.5 83:0.2 85:0.17 93:0.25 98:0.33 107:1.0 108:0.07 109:0.29 111:0.14 113:0.5 114:0.33 115:0.29 116:0.5 118:0.22 119:0.25 
-0.9783698582013542 -0.0 -1.0 -1.0 -1.0 -1.0 1:0.25 3:0.25 4:1.0 5:0.2 6:0.25 8:0.33 11:0.25 17:0.25 18:1.0 25:0.5 27:0.33 29:0.17 30:0.5 37:0.17 39:0.2 44:0.14 50:0.2 52:0.5 53:0.2 59:0.33 62:1.0 63:0.17 65:1.0 66:0.2 72:0.5 73:0.25 74:0.33 78:0.17 80:0.5 83:0.2 85:0.17 93:0.25 98:0.33 107:1.0 108:0.07 109:0.29 111:0.14 113:0.5 114:0.33 115:0.29 116:0.5 118:0.22 119:0.25 
-0.0 -0.009194276993704203 -0.13975286052448493 -1.0 -1.0 -1.0 1:0.25 3:0.25 4:1.0 5:0.2 6:0.25 8:0.33 11:0.25 17:0.25 18:1.0 25:0.5 26:1.0 27:0.33 29:0.17 30:0.5 37:0.17 39:0.2 44:0.14 50:0.2 52:0.5 53:0.2 58:0.5 59:0.33 62:1.0 63:0.17 65:1.0 66:0.2 72:0.5 73:0.25 74:0.33 78:0.17 80:0.5 83:0.2 85:0.17 87:1.0 93:0.25 98:0.33 107:1.0 108:0.07 109:1.0 111:0.29 113:0.5 114:0.33 115:0.29 116:0.5 117:0.08 118:0.22 119:0.25 
-0.0 -0.0 -0.0 -1.0 -0.0 -0.7750786164931487 62:1.0 107:0.5 109:0.14 113:0.5 115:0.14 118:0.11 119:0.25 
-0.0 -0.4406796796328727 -0.0 -1.0 -0.0 -0.0 1:0.25 14:0.5 16:0.17 17:0.5 19:1.0 21:0.33 24:0.5 29:0.17 32:0.5 35:0.5 39:0.2 40:0.33 41:0.25 44:0.14 45:0.2 48:1.0 50:0.2 51:0.5 54:0.2 62:1.0 63:0.17 67:0.5 68:0.17 69:0.33 70:0.17 73:0.25 77:0.33 78:0.17 83:0.2 85:0.17 91:0.17 95:0.14 102:1.0 107:0.5 108:0.07 109:0.14 113:1.0 114:0.33 115:0.14 117:0.15 118:0.22 119:0.5 
-0.0 -0.309908443403118 -0.7793478252182477 -1.0 -1.0 -1.0 1:0.5 3:0.25 4:1.0 5:0.2 6:0.25 8:0.33 11:0.25 14:0.5 17:0.75 18:1.0 19:1.0 25:0.5 27:0.33 29:0.33 30:0.5 32:0.5 37:0.17 39:0.4 44:0.29 45:0.2 50:0.4 52:0.5 53:0.2 54:0.2 59:0.33 63:0.33 65:1.0 66:0.2 72:0.5 73:0.5 74:0.33 78:0.33 80:0.5 83:0.4 85:0.33 93:0.25 98:0.33 102:1.0 107:0.5 108:0.14 109:0.14 111:0.14 114:0.67 115:0.14 116:0.5 117:0.08 118:0.22 
-0.0 -0.23535376620672074 -0.0 -0.0 -0.24537155594175877 -0.0 5:0.4 6:0.25 10:1.0 11:0.5 14:0.25 15:0.25 16:0.5 21:0.67 22:0.33 24:1.0 26:1.0 27:0.33 29:0.17 34:0.4 35:1.0 37:0.33 38:0.67 39:0.2 40:0.67 41:0.75 44:0.14 45:0.2 48:1.0 49:0.33 51:0.5 53:0.4 54:0.2 57:0.5 58:0.5 59:0.33 61:0.25 62:1.0 63:0.17 66:0.4 67:0.5 68:0.5 69:0.67 70:0.17 76:0.25 77:1.0 78:0.17 87:1.0 88:1.0 91:0.5 94:0.33 95:0.43 97:0.67 99:0.5 103:0.5 106:0.5 107:0.5 108:0.07 109:0.29 111:0.14 113:1.0 115:0.14 117:0.15 118:0.11 119:1.0 
-0.0 -0.004863833763584458 -0.0 -0.0 -0.0 -0.22492138350685137 5:0.4 6:0.25 10:1.0 11:0.5 14:0.25 15:0.25 16:0.5 21:0.67 22:0.33 24:1.0 26:1.0 27:0.33 29:0.17 34:0.4 35:1.0 37:0.33 38:0.67 39:0.2 40:0.67 41:0.75 44:0.14 45:0.2 48:1.0 49:0.33 51:0.5 53:0.4 54:0.2 57:0.5 58:0.5 59:0.33 61:0.25 62:1.0 63:0.17 66:0.4 67:0.5 68:0.5 69:0.67 70:0.17 76:0.25 77:1.0 78:0.17 87:1.0 88:1.0 91:0.5 94:0.33 95:0.43 97:0.67 99:0.5 103:0.5 106:0.5 107:0.5 108:0.07 109:0.86 111:0.14 113:1.0 115:0.14 117:0.15 118:0.11 119:1.0 
-0.0 -0.0 -0.27833737155972593 -0.0 -0.7546284440582413 -0.0 1:0.25 3:0.25 5:0.6 6:0.25 8:0.33 10:1.0 11:0.5 14:0.75 15:0.25 16:0.5 17:0.5 19:1.0 20:0.5 21:0.67 22:0.33 24:1.0 27:0.33 29:0.33 32:0.5 34:0.4 35:1.0 37:0.33 38:0.67 39:0.6 40:0.67 41:0.75 44:0.29 45:0.4 48:1.0 49:0.33 50:0.2 51:0.5 53:0.4 54:0.6 57:0.5 59:0.33 61:0.25 62:1.0 63:0.33 66:0.4 67:1.0 68:0.5 69:0.67 70:0.17 73:0.25 76:0.25 77:1.0 78:0.33 83:0.2 85:0.17 88:1.0 91:0.5 94:0.33 95:0.43 97:0.67 99:0.5 101:1.0 102:1.0 103:0.75 106:0.5 107:0.5 108:0.14 109:0.14 113:1.0 114:0.33 115:0.14 117:0.15 118:0.22 119:1.0 
-0.0 -0.0 -0.8025619426975416 -0.742301757225643 -0.0 -0.0 3:0.25 5:0.6 6:0.25 8:0.33 10:1.0 11:0.5 14:0.25 15:0.25 16:0.5 20:0.5 21:0.67 22:0.33 24:1.0 27:0.33 29:0.17 34:0.4 35:1.0 37:0.33 38:0.67 39:0.4 40:0.67 41:0.75 44:0.14 45:0.2 48:1.0 49:0.33 51:0.5 53:0.4 54:0.4 57:0.5 59:0.33 61:0.25 62:1.0 63:0.17 66:0.4 67:1.0 68:0.5 69:0.67 70:0.17 76:0.25 77:1.0 78:0.17 88:1.0 91:0.5 94:0.33 95:0.43 97:0.67 99:0.5 101:1.0 103:0.75 106:0.5 107:0.5 108:0.07 109:0.14 113:1.0 115:0.14 117:0.08 118:0.11 119:1.0 
-0.0 -0.0 -0.0 -0.257698242774357 -0.0 -0.0 5:0.4 6:0.25 10:1.0 11:0.5 14:0.25 15:0.25 16:0.5 21:0.67 22:0.33 24:1.0 27:0.33 29:0.17 34:0.4 35:1.0 37:0.33 38:0.67 39:0.2 40:0.67 41:0.75 44:0.14 45:0.2 48:1.0 49:0.33 51:0.5 53:0.4 54:0.2 57:0.5 59:0.33 61:0.25 62:1.0 63:0.17 66:0.4 67:0.5 68:0.5 69:0.67 70:0.17 76:0.25 77:1.0 78:0.17 88:1.0 91:0.5 94:0.33 95:0.43 97:0.67 99:0.5 103:0.5 106:0.5 107:0.5 108:0.07 109:0.14 113:1.0 115:0.86 117:0.08 118:0.11 119:1.0 
-0.021630141798645763 -0.0 -0.0 -1.0 -0.0 -0.0 5:0.4 6:0.25 10:1.0 11:0.5 14:0.25 15:0.25 16:0.5 21:0.67 22:0.33 24:1.0 27:0.33 29:0.17 34:0.4 35:1.0 37:0.33 38:0.67 39:0.2 40:0.67 41:0.75 44:0.14 45:0.2 48:1.0 49:0.33 51:0.5 53:0.4 54:0.2 57:0.5 59:0.33 61:0.25 62:1.0 63:0.17 66:0.4 67:0.5 68:0.5 69:0.67 70:0.17 76:0.25 77:1.0 78:0.17 88:1.0 91:0.5 94:0.33 95:0.43 97:0.67 99:0.5 103:0.5 106:0.5 107:0.5 108:0.07 109:0.14 113:1.0 115:0.86 117:0.08 118:0.11 119:1.0 
