svm_type c_svc
kernel_type rbf
gamma 0.006896551724137931
nr_class 8
total_sv 82
rho 0.44885366394528897 0.7714539468288422 0.4835817217826844 0.24106204509735107 0.04861614108085632 0.9171959562749976 1.0 0.05339110218464524 0.08624608689239212 -0.7552646398544312 -0.8788489536534092 0.2544769266024169 0.6420814227573451 0.2827685816361905 0.08166975482975866 -0.09062016010284424 0.6112495597023871 0.9303066796404479 0.0639410534842074 -0.36843302845954895 -0.049319946952754976 0.17592996315910364 -0.9244505011670521 0.0042651157067159435 0.42091137170791626 0.3926072849445988 0.8359421789646149 0.9073000014715232
label 3 7 4 0 5 6 2 1
nr_sv 5 9 7 11 8 5 10 27
SV
1.0 1.0 1.0 1.0 1.0 1.0 1.0 1:0.25 4:0.33 5:0.25 7:0.5 8:0.33 9:0.5 11:0.25 15:0.2 17:0.5 19:0.33 20:0.17 21:0.17 25:0.2 26:0.4 30:1.0 32:0.5 33:0.25 36:1.0 37:0.14 38:0.5 42:0.5 45:0.33 46:0.5 47:0.33 48:0.33 49:0.17 50:0.25 52:0.25 54:0.17 56:0.2 59:0.33 60:0.5 61:0.2 62:0.33 63:0.33 64:0.25 66:0.25 74:1.0 75:1.0 76:0.25 78:1.0 79:0.25 83:0.5 84:0.33 85:0.5 87:0.25 88:0.67 89:0.33 91:0.33 92:0.5 93:0.5 97:0.5 99:0.33 100:0.33 102:0.33 104:0.2 106:0.5 107:0.33 109:0.25 113:0.17 114:0.33 115:0.2 125:0.14 127:0.2 129:1.0 130:1.0 133:0.33 137:1.0 142:0.5 143:1.0 144:0.5 145:0.33 
1.0 1.0 1.0 1.0 1.0 1.0 1.0 1:0.25 4:0.33 7:0.5 8:0.33 9:0.25 11:0.25 12:0.5 15:0.2 19:0.67 20:0.33 21:0.17 25:0.4 26:0.2 30:1.0 31:0.5 32:0.5 33:0.25 36:1.0 37:0.29 38:0.5 42:0.5 43:0.5 45:0.33 46:0.25 47:0.33 48:0.67 49:0.33 50:0.25 51:0.5 56:0.4 60:0.5 61:0.2 62:0.67 63:0.33 64:0.25 65:0.33 67:1.0 74:0.5 75:1.0 76:0.25 78:1.0 79:0.5 83:0.5 84:0.17 87:0.25 88:0.33 89:0.33 91:0.33 92:0.5 93:0.25 102:0.67 104:0.4 108:0.5 110:1.0 113:0.33 114:0.33 125:0.14 127:0.2 129:1.0 130:1.0 133:0.33 137:1.0 142:0.5 143:1.0 144:0.5 145:0.33 
1.0 1.0 1.0 1.0 1.0 1.0 1.0 1:0.25 5:0.5 8:0.33 9:0.25 11:0.25 12:0.5 15:0.4 17:0.5 21:0.33 22:0.67 23:0.67 24:0.75 26:0.4 27:0.5 32:0.5 34:0.67 36:1.0 41:1.0 44:0.5 50:0.5 52:0.5 54:0.33 55:0.5 57:1.0 58:0.5 59:0.67 61:0.4 64:0.25 66:0.5 69:0.5 73:1.0 74:0.5 76:0.5 77:0.5 82:0.33 84:0.33 85:0.5 86:0.67 87:0.25 89:0.33 94:1.0 95:0.33 96:0.5 97:0.5 98:1.0 99:0.33 100:0.33 101:0.33 103:0.5 107:0.33 109:0.25 114:0.33 115:0.4 117:0.5 118:0.5 119:1.0 125:1.0 126:0.14 127:0.4 128:0.17 131:0.5 133:1.0 136:1.0 137:0.5 138:0.33 142:1.0 143:1.0 
1.0 1.0 1.0 1.0 1.0 1.0 1.0 1:0.25 5:0.5 8:0.33 9:0.25 11:0.25 12:0.5 15:0.4 17:0.5 21:0.33 22:0.67 23:0.67 24:0.75 26:0.4 27:0.5 32:0.5 34:0.67 36:1.0 41:1.0 44:0.5 50:0.5 52:0.5 54:0.33 55:0.5 57:1.0 58:0.5 59:0.67 61:0.4 64:0.25 66:0.5 69:0.5 73:1.0 74:0.5 76:0.5 77:0.5 82:0.33 84:0.33 85:0.5 86:0.67 87:0.25 89:0.33 94:1.0 95:0.33 96:0.5 97:0.5 98:1.0 99:0.33 100:0.33 101:0.33 103:0.5 107:0.33 109:0.25 114:0.33 115:0.4 117:0.5 118:0.5 119:1.0 125:1.0 126:0.14 127:0.4 128:0.17 131:0.5 133:1.0 136:1.0 137:0.5 138:0.33 142:1.0 143:1.0 
1.0 1.0 1.0 1.0 1.0 1.0 1.0 1:0.25 5:0.75 8:0.33 9:0.5 11:0.25 12:0.5 15:0.4 17:1.0 21:0.33 22:0.67 23:0.67 24:0.75 26:0.6 27:0.5 32:0.5 34:0.67 36:1.0 41:1.0 44:0.5 46:0.25 50:0.5 52:0.75 54:0.5 55:0.5 57:1.0 58:0.5 59:1.0 61:0.4 64:0.25 66:0.75 69:0.5 73:1.0 74:1.0 76:0.5 77:0.5 82:0.33 84:0.5 85:1.0 86:0.67 87:0.25 88:0.33 89:0.33 93:0.25 94:1.0 95:0.33 96:0.5 97:1.0 98:1.0 99:0.67 100:0.67 101:0.33 103:0.5 106:0.5 107:0.67 109:0.5 114:0.33 115:0.6 117:0.5 118:0.5 119:1.0 125:1.0 126:0.14 127:0.4 128:0.17 131:0.5 133:1.0 136:1.0 137:0.5 138:0.33 142:1.0 143:1.0 
-0.0 1.0 1.0 0.0 0.0 1.0 1.0 1:0.5 4:0.67 5:0.25 7:1.0 8:0.33 9:0.25 10:1.0 11:0.5 12:0.5 15:0.4 17:0.5 19:0.33 20:0.33 21:0.33 23:0.33 24:0.25 25:0.4 26:0.4 27:0.5 29:0.5 30:1.0 32:0.5 33:0.25 34:0.33 37:0.29 38:0.5 42:0.5 43:0.5 44:0.5 45:0.67 46:0.25 47:0.33 48:0.33 49:0.17 50:0.5 52:0.25 54:0.17 55:0.5 56:0.2 57:0.5 58:0.5 59:0.33 60:0.5 61:0.4 62:0.33 63:0.67 64:0.25 65:0.33 66:0.25 68:1.0 72:0.5 75:1.0 76:0.5 77:0.17 78:1.0 79:0.5 83:0.5 84:0.33 86:0.33 87:0.75 88:0.33 89:0.33 91:0.33 92:1.0 93:0.25 94:0.5 95:0.67 98:0.33 101:0.33 102:0.33 103:0.5 104:0.2 111:1.0 113:0.33 114:0.67 115:0.2 116:1.0 118:0.25 121:0.5 122:0.5 123:0.67 125:0.14 126:0.14 127:0.4 128:0.17 129:1.0 130:1.0 131:1.0 133:0.33 135:1.0 136:0.5 137:0.5 138:0.67 144:0.5 145:0.67 
-0.0 0.0 0.7426855323170852 1.0 0.1051999785050861 1.0 1.0 4:0.33 7:0.5 10:1.0 14:1.0 18:1.0 20:0.17 22:0.33 24:0.25 25:0.2 28:0.25 29:1.0 34:0.33 37:0.14 42:0.5 43:0.5 44:0.5 45:0.67 48:0.33 55:0.5 57:0.5 58:1.0 63:0.67 65:0.67 68:1.0 69:0.5 71:1.0 72:1.0 73:1.0 77:0.17 79:0.25 81:0.2 87:0.5 90:0.25 92:0.5 95:0.67 96:0.5 98:0.33 99:0.33 100:0.33 102:0.33 108:0.5 113:0.17 116:1.0 119:0.5 120:1.0 121:1.0 122:1.0 123:0.67 125:0.14 132:1.0 135:1.0 138:0.67 140:1.0 141:1.0 144:0.5 145:0.67 
-0.0950941103893856 0.4408818693258845 0.036952543342991764 1.0 1.0 0.2065425808652537 1.0 1:0.25 4:0.33 5:0.25 7:0.5 10:1.0 11:0.25 12:0.5 14:1.0 15:0.2 17:0.5 18:1.0 20:0.17 21:0.17 22:0.33 23:0.33 24:0.5 25:0.2 26:0.2 27:0.5 28:0.25 29:1.0 34:0.67 37:0.14 42:0.5 43:0.5 44:1.0 45:0.67 48:0.33 50:0.25 52:0.25 54:0.17 55:1.0 57:1.0 58:1.0 59:0.33 61:0.2 63:0.67 65:0.67 66:0.25 68:1.0 69:0.5 71:1.0 72:1.0 73:1.0 76:0.25 77:0.33 79:0.25 81:0.2 84:0.17 86:0.33 87:0.75 90:0.25 92:0.5 94:0.5 95:1.0 96:0.5 98:0.67 99:0.33 100:0.33 101:0.33 102:0.33 103:0.5 108:0.5 111:1.0 113:0.17 114:0.33 115:0.2 116:1.0 118:0.25 119:0.5 120:1.0 121:1.0 122:1.0 123:1.0 125:0.29 126:0.14 127:0.2 128:0.17 131:1.0 132:1.0 133:0.33 135:1.0 136:0.5 138:1.0 140:1.0 141:1.0 144:0.5 145:0.67 
-1.0 1.0 1.0 1.0 0.0 1.0 1.0 1:0.5 4:0.67 5:0.25 7:1.0 8:0.33 9:0.25 10:1.0 11:0.5 12:0.5 15:0.4 17:0.5 19:0.33 20:0.33 21:0.33 23:0.33 24:0.25 25:0.4 26:0.4 27:0.5 29:0.5 30:1.0 32:0.5 33:0.25 34:0.33 37:0.29 38:0.5 42:0.5 43:0.5 44:0.5 45:0.67 46:0.25 47:0.33 48:0.33 49:0.17 50:0.5 52:0.25 54:0.17 55:0.5 56:0.2 57:0.5 58:0.5 59:0.33 60:0.5 61:0.4 62:0.33 63:0.67 64:0.25 65:0.33 66:0.25 68:1.0 72:0.5 75:1.0 76:0.5 77:0.17 78:1.0 79:0.5 83:0.5 84:0.33 86:0.33 87:0.75 88:0.33 89:0.33 91:0.33 92:1.0 93:0.25 94:0.5 95:0.67 98:0.33 101:0.33 102:0.33 103:0.5 104:0.2 111:1.0 113:0.33 114:0.67 115:0.2 116:1.0 118:0.25 121:0.5 122:0.5 123:0.67 125:0.14 126:0.14 127:0.4 128:0.17 129:1.0 130:1.0 131:1.0 133:0.33 135:1.0 136:0.5 137:0.5 138:0.67 144:0.5 145:0.67 
-0.0 0.47611598468442107 1.0 1.0 1.0 1.0 1.0 4:0.33 7:0.5 10:1.0 14:1.0 18:1.0 20:0.17 22:0.33 24:0.25 25:0.2 28:0.25 29:1.0 34:0.33 37:0.14 42:0.5 43:0.5 44:0.5 45:0.67 48:0.33 55:0.5 57:0.5 58:1.0 63:0.67 65:0.67 68:1.0 69:0.5 71:1.0 72:1.0 73:1.0 77:0.17 79:0.25 81:0.2 87:0.5 90:0.25 92:0.5 95:0.67 96:0.5 98:0.33 99:0.33 100:0.33 102:0.33 108:0.5 113:0.17 116:1.0 119:0.5 120:1.0 121:1.0 122:1.0 123:0.67 125:0.14 132:1.0 135:1.0 138:0.67 140:1.0 141:1.0 144:0.5 145:0.67 
-0.9855953053641568 0.6092365729447553 0.9545289761663522 1.0 1.0 1.0 1.0 4:0.33 7:0.5 10:1.0 14:1.0 18:1.0 20:0.17 22:0.33 24:0.25 25:0.2 28:0.25 29:1.0 34:0.33 37:0.14 42:0.5 43:0.5 44:0.5 45:0.67 48:0.33 55:0.5 57:0.5 58:1.0 63:0.67 65:0.67 68:1.0 69:0.5 71:1.0 72:1.0 73:1.0 77:0.17 79:0.25 81:0.2 87:0.5 90:0.25 92:0.5 95:0.67 96:0.5 98:0.33 99:0.33 100:0.33 102:0.33 108:0.5 113:0.17 116:1.0 119:0.5 120:1.0 121:1.0 122:1.0 123:0.67 125:0.14 132:1.0 135:1.0 138:0.67 140:1.0 141:1.0 144:0.5 145:0.67 
-1.0 1.0 1.0 1.0 0.04971497956969975 1.0 1.0 1:0.25 4:0.67 7:1.0 8:0.33 9:0.25 10:1.0 11:0.25 15:0.2 19:0.33 20:0.33 21:0.17 25:0.4 26:0.2 29:0.5 30:1.0 32:0.5 33:0.25 37:0.29 38:0.5 42:0.5 43:0.5 45:0.67 46:0.25 47:0.33 48:0.33 49:0.17 50:0.25 56:0.2 58:0.5 60:0.5 61:0.2 62:0.33 63:0.67 64:0.25 65:0.33 68:1.0 72:0.5 75:1.0 76:0.25 78:1.0 79:0.5 83:0.5 84:0.17 87:0.5 88:0.33 89:0.33 91:0.33 92:1.0 93:0.25 95:0.33 102:0.33 104:0.2 113:0.33 114:0.33 116:1.0 121:0.5 122:0.5 123:0.33 127:0.2 129:1.0 130:1.0 135:1.0 137:0.5 138:0.33 144:0.5 145:0.67 
-0.9193105842464575 1.0 1.0 1.0 0.8450850419252142 1.0 1.0 1:0.5 4:0.67 5:0.25 7:1.0 8:0.33 9:0.25 10:1.0 11:0.5 12:0.5 15:0.4 17:0.5 19:0.33 20:0.33 21:0.33 23:0.33 24:0.25 25:0.4 26:0.4 27:0.5 29:0.5 30:1.0 32:0.5 33:0.25 34:0.33 37:0.29 38:0.5 42:0.5 43:0.5 44:0.5 45:0.67 46:0.25 47:0.33 48:0.33 49:0.17 50:0.5 52:0.25 54:0.17 55:0.5 56:0.2 57:0.5 58:0.5 59:0.33 60:0.5 61:0.4 62:0.33 63:0.67 64:0.25 65:0.33 66:0.25 68:1.0 72:0.5 75:1.0 76:0.5 77:0.17 78:1.0 79:0.5 83:0.5 84:0.33 86:0.33 87:0.75 88:0.33 89:0.33 91:0.33 92:1.0 93:0.25 94:0.5 95:0.67 98:0.33 101:0.33 102:0.33 103:0.5 104:0.2 111:1.0 113:0.33 114:0.67 115:0.2 116:1.0 118:0.25 121:0.5 122:0.5 123:0.67 125:0.14 126:0.14 127:0.4 128:0.17 129:1.0 130:1.0 131:1.0 133:0.33 135:1.0 136:0.5 137:0.5 138:0.67 144:0.5 145:0.67 
-1.0 1.0 1.0 1.0 1.0 1.0 1.0 1:0.5 4:0.33 5:0.25 7:0.5 8:0.33 9:0.25 11:0.5 12:0.5 14:1.0 15:0.4 17:0.5 18:1.0 19:0.33 20:0.17 21:0.33 23:0.33 24:0.25 25:0.2 26:0.4 27:0.5 28:0.25 29:0.5 30:1.0 32:0.5 33:0.25 34:0.33 37:0.14 38:0.5 42:1.0 44:1.0 45:0.67 46:0.25 47:0.33 48:0.67 49:0.17 50:0.5 52:0.25 54:0.17 55:1.0 56:0.2 57:0.5 59:0.33 60:0.5 61:0.4 62:0.33 63:0.67 64:0.25 65:0.33 66:0.25 71:1.0 72:0.5 75:1.0 76:0.5 77:0.17 78:1.0 79:0.25 81:0.2 83:0.5 84:0.33 86:0.33 87:0.75 88:0.33 89:0.33 90:0.25 91:0.33 92:0.5 93:0.25 94:0.5 95:0.67 98:0.33 101:0.33 102:0.67 103:0.5 104:0.2 108:0.5 111:1.0 113:0.17 114:0.67 115:0.2 118:0.25 120:1.0 121:0.5 122:0.5 123:0.67 125:0.14 126:0.14 127:0.4 128:0.17 129:1.0 130:1.0 131:1.0 132:1.0 133:0.33 136:0.5 137:0.5 138:0.67 140:1.0 141:1.0 144:1.0 145:0.67 
-1.0 -1.0 1.0 0.6896974876902114 0.0 1.0 1.0 1:0.5 2:0.25 4:0.33 5:0.75 7:0.5 8:0.67 9:0.75 11:0.75 12:0.5 13:0.2 15:0.6 17:1.0 19:0.33 20:0.17 21:0.67 22:0.33 23:0.67 24:0.5 25:0.2 26:0.8 27:0.5 30:1.0 32:1.0 33:0.5 34:0.33 35:0.25 36:1.0 37:0.14 38:0.5 39:0.17 40:0.2 41:1.0 42:0.5 44:0.5 45:0.33 46:0.75 47:0.33 48:0.33 49:0.17 50:0.75 52:0.75 54:0.5 55:0.5 56:0.2 57:0.5 59:1.0 60:0.5 61:0.8 62:0.33 63:0.33 64:0.75 66:0.75 70:0.2 74:1.0 75:1.0 76:0.75 77:0.33 78:1.0 79:0.25 80:0.2 82:0.33 83:0.5 84:0.83 85:1.0 86:0.67 87:0.5 88:0.67 89:1.0 91:0.67 92:0.5 93:0.5 94:1.0 95:0.33 97:1.0 98:0.67 99:0.33 100:0.33 101:0.67 102:0.33 103:0.5 104:0.2 105:0.5 106:0.5 107:0.67 109:0.5 112:0.25 113:0.17 114:0.67 115:0.6 117:0.5 118:0.5 119:0.5 124:1.0 125:0.43 126:0.29 127:1.0 128:0.17 129:1.0 130:1.0 131:0.5 133:1.0 134:0.17 136:1.0 137:1.0 138:0.33 142:1.0 143:1.0 144:0.5 145:0.33 
-0.0 -1.0 1.0 1.0 1.0 1.0 1.0 1:0.5 2:0.25 4:0.33 5:0.75 7:0.5 8:0.67 9:0.75 11:0.75 12:0.5 13:0.2 15:0.6 17:1.0 19:0.33 20:0.17 21:0.67 22:0.33 23:0.67 24:0.5 25:0.2 26:0.8 27:0.5 30:1.0 32:1.0 33:0.5 34:0.33 35:0.25 37:0.14 38:0.5 39:0.17 40:0.2 41:1.0 42:0.5 44:0.5 45:0.33 46:0.75 47:0.33 48:0.33 49:0.17 50:0.75 52:0.75 54:0.5 55:0.5 56:0.2 57:0.5 59:1.0 60:0.5 61:0.8 62:0.33 63:0.33 64:0.75 66:0.75 70:0.2 74:0.5 75:1.0 76:0.75 77:0.33 78:1.0 79:0.25 80:0.2 82:0.33 83:0.5 84:0.83 85:1.0 86:0.67 87:0.5 88:0.67 89:1.0 91:0.67 92:0.5 93:0.5 94:1.0 95:0.33 97:1.0 98:0.67 99:0.33 100:0.33 101:0.67 102:0.33 103:0.5 104:0.2 105:0.5 106:0.5 107:0.67 109:0.5 112:0.25 113:0.17 114:0.67 115:0.6 117:0.5 118:0.5 119:0.5 124:1.0 125:0.71 126:0.29 127:1.0 128:0.17 129:1.0 130:1.0 131:0.5 133:0.67 134:0.17 136:1.0 137:0.5 138:0.33 142:0.5 144:0.5 145:0.33 
-0.11638129044306589 -1.0 1.0 0.9775984678294289 1.0 1.0 1.0 1:0.5 2:0.25 4:0.33 5:0.75 7:0.5 8:0.67 9:0.75 11:0.75 12:0.5 13:0.2 15:0.6 17:1.0 19:0.33 20:0.17 21:0.67 22:0.33 23:0.67 24:0.5 25:0.2 26:0.8 27:0.5 30:1.0 32:1.0 33:0.5 34:0.33 35:0.25 36:1.0 37:0.14 38:0.5 39:0.17 40:0.2 41:1.0 42:0.5 44:0.5 45:0.33 46:0.75 47:0.33 48:0.33 49:0.17 50:0.75 52:0.75 54:0.5 55:0.5 56:0.2 57:0.5 59:1.0 60:0.5 61:0.8 62:0.33 63:0.33 64:0.75 66:0.75 70:0.2 74:1.0 75:1.0 76:0.75 77:0.33 78:1.0 79:0.25 80:0.2 82:0.33 83:0.5 84:0.83 85:1.0 86:0.67 87:0.5 88:0.67 89:1.0 91:0.67 92:0.5 93:0.5 94:1.0 95:0.33 97:1.0 98:0.67 99:0.33 100:0.33 101:0.67 102:0.33 103:0.5 104:0.2 105:0.5 106:0.5 107:0.67 109:0.5 112:0.25 113:0.17 114:0.67 115:0.6 117:0.5 118:0.5 119:0.5 124:1.0 125:0.43 126:0.29 127:1.0 128:0.17 129:1.0 130:1.0 131:0.5 133:1.0 134:0.17 136:1.0 137:1.0 138:0.33 142:1.0 143:1.0 144:0.5 145:0.33 
-1.0 -1.0 1.0 1.0 1.0 1.0 1.0 2:0.25 11:0.25 13:0.2 21:0.17 33:0.25 35:0.25 39:0.17 40:0.2 46:0.25 61:0.2 64:0.25 70:0.2 80:0.2 84:0.17 89:0.33 91:0.33 101:0.33 105:0.5 112:0.25 124:1.0 126:0.14 127:0.4 134:0.17 
-0.8836187095569341 -1.0 1.0 1.0 1.0 1.0 1.0 1:0.5 2:0.25 4:0.33 5:0.5 7:0.5 8:0.67 9:0.5 11:0.75 12:1.0 13:0.2 15:0.6 17:0.5 19:0.67 20:0.33 21:0.67 22:0.33 23:0.67 24:0.5 25:0.4 26:0.6 27:0.5 30:1.0 31:0.5 32:1.0 33:0.5 34:0.33 35:0.25 36:1.0 37:0.29 38:0.5 39:0.17 40:0.2 41:1.0 42:0.5 43:0.5 44:0.5 45:0.33 46:0.5 47:0.33 48:0.67 49:0.33 50:0.75 51:0.5 52:0.5 54:0.33 55:0.5 56:0.4 57:0.5 59:0.67 60:0.5 61:0.8 62:0.67 63:0.33 64:0.75 65:0.33 66:0.5 67:1.0 70:0.2 74:0.5 75:1.0 76:0.75 77:0.33 78:1.0 79:0.5 80:0.2 82:0.33 83:0.5 84:0.67 85:0.5 86:0.67 87:0.5 88:0.33 89:1.0 91:0.67 92:0.5 93:0.25 94:1.0 95:0.33 97:0.5 98:0.67 101:0.67 102:0.67 103:0.5 104:0.4 105:0.5 107:0.33 108:0.5 109:0.25 110:1.0 112:0.25 113:0.33 114:0.67 115:0.4 117:0.5 118:0.5 119:0.5 124:1.0 125:0.43 126:0.29 127:1.0 128:0.17 129:1.0 130:1.0 131:0.5 133:1.0 134:0.17 136:1.0 137:1.0 138:0.33 142:1.0 143:1.0 144:0.5 145:0.33 
-1.0 -0.5262344269550608 1.0 0.0 0.0 1.0 1.0 1:0.5 2:0.25 4:0.33 5:0.75 7:0.5 8:0.67 9:0.75 11:0.75 12:0.5 13:0.2 15:0.6 17:1.0 19:0.33 20:0.17 21:0.67 22:0.33 23:0.67 24:0.5 25:0.2 26:0.8 27:0.5 30:1.0 32:1.0 33:0.5 34:0.33 35:0.25 36:1.0 37:0.14 38:0.5 39:0.17 40:0.2 41:1.0 42:0.5 44:0.5 45:0.33 46:0.75 47:0.33 48:0.33 49:0.17 50:0.75 52:0.75 54:0.5 55:0.5 56:0.2 57:0.5 59:1.0 60:0.5 61:0.8 62:0.33 63:0.33 64:0.75 66:0.75 70:0.2 74:1.0 75:1.0 76:0.75 77:0.33 78:1.0 79:0.25 80:0.2 82:0.33 83:0.5 84:0.83 85:1.0 86:0.67 87:0.5 88:0.67 89:1.0 91:0.67 92:0.5 93:0.5 94:1.0 95:0.33 97:1.0 98:0.67 99:0.33 100:0.33 101:0.67 102:0.33 103:0.5 104:0.2 105:0.5 106:0.5 107:0.67 109:0.5 112:0.25 113:0.17 114:0.67 115:0.6 117:0.5 118:0.5 119:0.5 124:1.0 125:0.86 126:0.29 127:1.0 128:0.17 129:1.0 130:1.0 131:0.5 133:1.0 134:0.17 136:1.0 137:1.0 138:0.33 142:1.0 143:1.0 144:0.5 145:0.33 
-1.0 -1.0 1.0 1.0 1.0 1.0 1.0 1:0.25 4:0.33 7:0.5 8:0.33 9:0.25 11:0.25 15:0.2 19:0.33 20:0.17 21:0.17 25:0.2 26:0.2 30:1.0 32:0.5 33:0.25 36:1.0 37:0.14 38:0.5 42:0.5 45:0.33 46:0.25 47:0.33 48:0.33 49:0.17 50:0.25 56:0.2 60:0.5 61:0.2 62:0.33 63:0.33 64:0.25 74:0.5 75:1.0 76:0.25 78:1.0 79:0.25 83:0.5 84:0.17 87:0.25 88:0.33 89:0.33 91:0.33 92:0.5 93:0.25 102:0.33 104:0.2 113:0.17 114:0.33 125:0.14 127:0.2 129:1.0 130:1.0 133:0.33 137:1.0 142:0.5 143:1.0 144:0.5 145:0.33 
-0.0 -1.0 -0.5937338419678946 1.0 1.0 1.0 1.0 1:0.25 2:1.0 3:1.0 4:0.33 7:0.5 8:0.33 9:0.25 11:0.5 13:1.0 14:1.0 15:0.2 18:1.0 19:0.67 20:0.17 21:0.33 25:0.2 26:0.2 28:0.25 29:0.5 30:1.0 32:0.5 33:0.5 35:1.0 37:0.14 38:0.5 39:1.0 40:1.0 42:1.0 44:0.5 45:0.67 46:0.5 47:0.33 48:0.67 49:0.17 50:0.25 55:0.5 56:0.2 60:1.0 61:0.4 62:0.33 63:0.67 64:0.5 65:0.33 70:1.0 71:1.0 72:0.5 75:1.0 76:0.25 78:1.0 79:0.25 80:1.0 81:0.2 83:0.5 84:0.33 87:0.5 88:0.33 89:0.67 90:0.25 91:0.67 92:0.5 93:0.25 95:0.33 101:0.33 102:0.67 103:0.5 104:0.2 105:0.5 108:0.5 111:1.0 112:1.0 113:0.17 114:0.33 120:1.0 121:0.5 122:0.5 123:0.67 124:0.5 126:0.86 127:0.4 128:0.83 129:1.0 130:1.0 131:0.5 132:1.0 134:1.0 137:0.5 138:0.33 139:1.0 140:1.0 141:1.0 144:1.0 145:0.67 
-1.0 -0.8054592461479273 -1.0 1.0 0.1796299820402726 1.0 1.0 1:0.5 2:1.0 3:1.0 4:0.33 5:0.5 7:0.5 8:0.33 9:0.5 11:0.75 12:0.5 13:1.0 15:0.4 17:1.0 19:0.67 20:0.17 21:0.5 23:0.33 24:0.25 25:0.2 26:0.6 27:0.5 30:1.0 32:0.5 33:0.5 34:0.33 35:1.0 36:1.0 37:0.14 38:0.5 39:1.0 40:1.0 42:0.5 44:0.5 45:0.33 46:0.75 47:0.33 48:0.33 49:0.17 50:0.5 52:0.5 54:0.33 55:0.5 56:0.2 57:0.5 59:0.67 60:1.0 61:0.6 62:0.33 63:0.33 64:0.5 66:0.5 70:1.0 74:1.0 75:1.0 76:0.5 77:0.17 78:1.0 79:0.25 80:1.0 83:0.5 84:0.67 85:0.5 86:0.33 87:0.5 88:0.67 89:0.67 91:0.67 92:0.5 93:0.5 94:0.5 95:0.33 97:0.5 98:0.33 99:0.33 100:0.33 101:0.67 102:0.33 103:1.0 104:0.2 105:0.5 106:0.5 107:0.33 109:0.25 112:1.0 113:0.17 114:0.67 115:0.4 118:0.25 124:0.5 125:0.29 126:1.0 127:0.6 128:1.0 129:1.0 130:1.0 131:0.5 133:0.67 134:1.0 136:0.5 137:1.0 138:0.33 139:1.0 142:0.5 143:1.0 144:0.5 145:0.33 
-0.0 -1.0 -0.024997291544477752 1.0 1.0 0.44146260481715 1.0 1:0.25 2:1.0 3:1.0 4:1.0 7:1.0 8:0.33 9:0.25 10:1.0 11:0.5 13:1.0 14:1.0 15:0.2 18:1.0 19:0.67 20:0.33 21:0.33 25:0.4 26:0.2 28:0.25 29:1.0 30:1.0 32:0.5 33:0.5 35:1.0 37:0.29 38:0.5 39:1.0 40:1.0 42:1.0 43:0.5 44:0.5 45:1.0 46:0.5 47:0.33 48:0.67 49:0.17 50:0.25 51:0.5 53:1.0 55:0.5 56:0.2 58:0.5 60:1.0 61:0.4 62:0.67 63:1.0 64:0.5 65:0.67 68:1.0 69:0.5 70:1.0 71:1.0 72:1.0 75:1.0 76:0.25 78:1.0 79:0.5 80:1.0 81:0.2 83:1.0 84:0.33 87:0.75 88:0.33 89:0.67 90:0.25 91:0.67 92:1.0 93:0.25 95:0.67 101:0.33 102:0.67 103:0.5 104:0.2 105:0.5 108:0.5 111:1.0 112:1.0 113:0.33 114:0.33 116:1.0 120:1.0 121:1.0 122:1.0 123:1.0 124:0.5 126:0.86 127:0.4 128:0.83 129:1.0 130:1.0 131:0.5 132:1.0 134:1.0 135:1.0 137:0.5 138:0.67 139:1.0 140:1.0 141:1.0 144:1.0 145:1.0 
-1.0 -1.0 -1.0 1.0 1.0 1.0 1.0 1:0.25 2:0.25 3:1.0 4:0.33 7:0.5 8:0.33 9:0.25 11:0.25 12:0.5 15:0.2 19:1.0 20:0.33 21:0.17 25:0.4 26:0.2 30:1.0 31:0.5 32:0.5 33:0.25 35:0.25 37:0.29 38:0.5 39:0.17 40:0.2 42:0.5 43:0.5 45:0.33 46:0.25 47:0.33 48:0.67 49:0.33 50:0.25 51:0.5 56:0.4 60:1.0 61:0.2 62:0.67 63:0.33 64:0.25 65:0.33 67:1.0 70:0.2 75:1.0 76:0.25 78:1.0 79:0.5 80:0.2 83:0.5 84:0.17 87:0.25 88:0.33 89:0.33 91:0.33 92:0.5 93:0.25 102:0.67 103:0.5 104:0.4 108:0.5 110:1.0 113:0.33 114:0.33 126:0.14 127:0.2 128:0.17 129:1.0 130:1.0 134:0.17 137:0.5 139:1.0 144:0.5 145:0.33 
-0.0 -0.0 -1.0 0.0 0.0 1.0 1.0 1:0.25 2:1.0 3:1.0 4:0.33 5:0.25 7:0.5 8:0.67 9:0.5 11:0.5 13:1.0 15:0.4 19:0.67 20:0.17 21:0.5 22:0.33 23:0.33 24:0.25 25:0.2 26:0.4 30:1.0 32:1.0 33:0.5 35:1.0 37:0.14 38:0.5 39:1.0 40:1.0 41:1.0 42:0.5 45:0.33 46:0.5 47:0.33 48:0.33 49:0.17 50:0.5 52:0.25 54:0.17 56:0.2 59:0.33 60:1.0 61:0.6 62:0.33 63:0.33 64:0.75 66:0.25 70:1.0 75:1.0 76:0.5 77:0.17 78:1.0 79:0.25 80:1.0 82:0.33 83:0.5 84:0.5 85:0.5 86:0.33 87:0.25 88:0.33 89:1.0 91:0.67 92:0.5 93:0.25 94:0.5 97:0.5 98:0.33 101:0.33 102:0.33 103:0.5 104:0.2 105:0.5 107:0.33 109:0.25 112:1.0 113:0.17 114:0.33 115:0.2 117:0.5 118:0.25 119:0.5 124:0.5 125:0.14 126:0.86 127:0.6 128:0.83 129:1.0 130:1.0 133:0.33 134:1.0 136:0.5 137:0.5 139:1.0 142:0.5 144:0.5 145:0.33 
-0.0 -0.0 -0.0 0.0 0.0 0.03414792430841282 0.7860796536743981 1:0.25 2:1.0 3:1.0 5:0.25 11:0.5 12:0.5 13:1.0 15:0.2 17:0.5 19:0.33 21:0.33 23:0.33 24:0.25 26:0.2 27:0.5 33:0.25 34:0.33 35:1.0 39:1.0 40:1.0 44:0.5 46:0.25 50:0.25 52:0.25 54:0.17 55:0.5 57:0.5 59:0.33 60:0.5 61:0.4 64:0.25 66:0.25 70:1.0 76:0.25 77:0.17 80:1.0 84:0.33 86:0.33 87:0.25 89:0.33 91:0.33 94:0.5 95:0.33 98:0.33 101:0.67 103:1.0 105:0.5 112:1.0 114:0.33 115:0.2 118:0.25 124:0.5 125:0.14 126:1.0 127:0.4 128:1.0 131:0.5 133:0.33 134:1.0 136:0.5 138:0.33 139:1.0 
-0.9565700076718163 -0.988443971830875 -1.0 0.9361699849651123 0.0 1.0 1.0 1:0.25 2:1.0 3:1.0 4:0.33 5:0.25 7:0.5 8:0.67 9:0.5 11:0.5 13:1.0 15:0.4 19:0.67 20:0.17 21:0.5 22:0.33 23:0.33 24:0.25 25:0.2 26:0.4 30:1.0 32:1.0 33:0.5 35:1.0 37:0.14 38:0.5 39:1.0 40:1.0 41:1.0 42:0.5 45:0.33 46:0.5 47:0.33 48:0.33 49:0.17 50:0.5 52:0.25 54:0.17 56:0.2 59:0.33 60:1.0 61:0.6 62:0.33 63:0.33 64:0.75 66:0.25 70:1.0 75:1.0 76:0.5 77:0.17 78:1.0 79:0.25 80:1.0 82:0.33 83:0.5 84:0.5 85:0.5 86:0.33 87:0.25 88:0.33 89:1.0 91:0.67 92:0.5 93:0.25 94:0.5 97:0.5 98:0.33 101:0.33 102:0.33 103:0.5 104:0.2 105:0.5 107:0.33 109:0.25 112:1.0 113:0.17 114:0.33 115:0.2 117:0.5 118:0.25 119:0.5 124:0.5 125:0.14 126:0.86 127:0.6 128:0.83 129:1.0 130:1.0 133:0.33 134:1.0 136:0.5 137:0.5 139:1.0 142:0.5 144:0.5 145:0.33 
-1.0 -1.0 -0.9154376252765738 1.0 1.0 1.0 1.0 1:0.25 2:0.75 3:1.0 4:0.33 5:0.25 7:0.5 10:1.0 11:0.25 12:0.5 13:0.8 15:0.2 17:0.5 19:0.33 20:0.17 21:0.17 23:0.33 24:0.25 25:0.2 26:0.2 27:0.5 29:0.5 34:0.33 35:0.75 37:0.14 39:0.83 40:0.8 43:0.5 44:0.5 45:0.33 50:0.25 52:0.25 54:0.17 55:0.5 57:0.5 58:0.5 59:0.33 60:0.5 61:0.2 63:0.33 65:0.33 66:0.25 68:1.0 70:0.8 72:0.5 76:0.25 77:0.17 79:0.25 80:0.8 84:0.17 86:0.33 87:0.5 92:0.5 94:0.5 95:0.67 98:0.33 101:0.33 103:1.0 112:0.75 113:0.17 114:0.33 115:0.2 116:1.0 118:0.25 121:0.5 122:0.5 123:0.33 125:0.14 126:0.86 127:0.2 128:1.0 131:0.5 133:0.33 134:0.83 135:1.0 136:0.5 138:0.67 139:1.0 145:0.33 
-0.0 -0.0 -0.0 0.0 0.0 1.0 1.0 1:0.25 2:1.0 3:1.0 5:0.25 11:0.5 12:0.5 13:1.0 15:0.2 17:0.5 19:0.33 21:0.33 23:0.33 24:0.25 26:0.2 27:0.5 33:0.25 34:0.33 35:1.0 39:1.0 40:1.0 44:0.5 46:0.25 50:0.25 52:0.25 54:0.17 55:0.5 57:0.5 59:0.33 60:0.5 61:0.4 64:0.25 66:0.25 70:1.0 76:0.25 77:0.17 80:1.0 84:0.33 86:0.33 87:0.25 89:0.33 91:0.33 94:0.5 95:0.33 98:0.33 101:0.67 103:1.0 105:0.5 112:1.0 114:0.33 115:0.2 118:0.25 124:0.5 125:0.14 126:1.0 127:0.4 128:1.0 131:0.5 133:0.33 134:1.0 136:0.5 138:0.33 139:1.0 
-0.04342999232818363 -0.9449642325844965 -1.0 0.0 0.0 1.0 1.0 1:0.25 2:1.0 3:1.0 5:0.25 11:0.5 12:0.5 13:1.0 15:0.2 17:0.5 19:0.33 21:0.33 23:0.33 24:0.25 26:0.2 27:0.5 33:0.25 34:0.33 35:1.0 39:1.0 40:1.0 44:0.5 46:0.25 50:0.25 52:0.25 54:0.17 55:0.5 57:0.5 59:0.33 60:0.5 61:0.4 64:0.25 66:0.25 70:1.0 76:0.25 77:0.17 80:1.0 84:0.33 86:0.33 87:0.25 89:0.33 91:0.33 94:0.5 95:0.33 98:0.33 101:0.67 103:1.0 105:0.5 112:1.0 114:0.33 115:0.2 118:0.25 124:0.5 125:0.14 126:1.0 127:0.4 128:1.0 131:0.5 133:0.33 134:1.0 136:0.5 138:0.33 139:1.0 
-1.0 -0.9952996012631306 -0.4658312412110538 0.826896433542305 0.8203700179597274 1.0 0.986335978652933 1:0.25 2:1.0 3:1.0 5:0.25 11:0.5 12:0.5 13:1.0 15:0.2 17:0.5 19:0.33 21:0.33 23:0.33 24:0.25 26:0.2 27:0.5 33:0.25 34:0.33 35:1.0 39:1.0 40:1.0 44:0.5 46:0.25 50:0.25 52:0.25 54:0.17 55:0.5 57:0.5 59:0.33 60:0.5 61:0.4 64:0.25 66:0.25 70:1.0 76:0.25 77:0.17 80:1.0 84:0.33 86:0.33 87:0.25 89:0.33 91:0.33 94:0.5 95:0.33 98:0.33 101:0.67 103:1.0 105:0.5 112:1.0 114:0.33 115:0.2 118:0.25 124:0.5 125:0.14 126:1.0 127:0.4 128:1.0 131:0.5 133:0.33 134:1.0 136:0.5 138:0.33 139:1.0 
-1.0 -1.0 -1.0 -0.8686626268021241 1.0 1.0 1.0 1:0.25 4:0.33 5:0.5 7:0.5 9:0.25 10:1.0 11:0.25 12:1.0 14:1.0 15:0.2 17:1.0 18:1.0 19:0.33 20:0.33 21:0.17 22:0.33 23:0.33 24:0.5 25:0.4 26:0.4 27:0.5 28:0.25 29:1.0 31:0.5 34:0.67 36:1.0 37:0.29 42:0.5 43:1.0 44:1.0 45:0.67 46:0.25 48:0.67 49:0.17 50:0.25 51:0.5 52:0.5 54:0.33 55:1.0 56:0.2 57:1.0 58:1.0 59:0.67 61:0.2 62:0.33 63:0.67 65:1.0 66:0.5 67:1.0 68:1.0 69:0.5 71:1.0 72:1.0 73:1.0 74:1.0 76:0.25 77:0.33 79:0.5 81:0.2 84:0.33 85:0.5 86:0.33 87:0.75 88:0.33 90:0.25 92:0.5 93:0.25 94:0.5 95:1.0 96:0.5 97:0.5 98:0.67 99:0.67 100:0.67 101:0.33 102:0.67 103:0.5 104:0.2 106:0.5 107:0.33 108:1.0 109:0.25 110:1.0 111:1.0 113:0.33 114:0.33 115:0.4 116:1.0 118:0.25 119:0.5 120:1.0 121:1.0 122:1.0 123:1.0 125:0.43 126:0.14 127:0.2 128:0.17 131:1.0 132:1.0 133:0.67 135:1.0 136:0.5 137:0.5 138:1.0 140:0.5 141:0.25 142:0.5 143:1.0 144:0.5 145:0.67 
-0.0 -1.0 -0.9748398909685865 -1.0 0.33126563277434473 1.0 1.0 1:0.25 4:0.67 7:1.0 8:0.33 9:0.25 10:1.0 11:0.25 14:1.0 15:0.2 18:1.0 19:0.33 20:0.33 21:0.17 25:0.4 26:0.2 28:0.25 29:1.0 30:1.0 32:0.5 33:0.25 37:0.29 38:0.5 42:1.0 43:0.5 44:0.5 45:1.0 46:0.25 47:0.33 48:0.67 49:0.17 50:0.25 55:0.5 56:0.2 58:0.5 60:0.5 61:0.2 62:0.33 63:1.0 64:0.25 65:0.67 68:1.0 71:1.0 72:1.0 75:1.0 76:0.25 78:1.0 79:0.5 81:0.2 83:0.5 84:0.17 87:0.75 88:0.33 89:0.33 90:0.25 91:0.33 92:1.0 93:0.25 95:0.67 102:0.67 104:0.2 108:0.5 111:1.0 113:0.33 114:0.33 116:1.0 120:1.0 121:1.0 122:1.0 123:1.0 127:0.2 129:1.0 130:1.0 131:0.5 132:1.0 135:1.0 137:0.5 138:0.67 140:0.5 141:0.25 144:1.0 145:1.0 
-1.0 -1.0 -0.0 -1.0 0.7376002716379169 1.0 1.0 4:0.33 7:0.5 10:1.0 14:1.0 18:1.0 20:0.67 22:0.33 24:0.25 25:0.6 28:0.25 29:1.0 34:0.33 37:0.71 42:0.5 43:0.5 44:0.5 45:0.67 48:0.33 49:0.67 55:0.5 56:0.6 57:0.5 58:1.0 63:0.67 65:0.67 68:1.0 69:0.5 71:1.0 72:1.0 73:1.0 77:0.17 79:0.5 81:0.2 87:0.5 90:0.25 92:0.5 95:0.67 96:0.5 98:0.33 99:0.33 100:0.33 102:0.33 104:0.6 108:0.5 113:0.67 116:1.0 119:0.5 120:1.0 121:1.0 122:1.0 123:0.67 125:0.14 132:1.0 135:1.0 138:0.67 140:0.5 141:0.25 144:0.5 145:0.67 
-1.0 -1.0 -1.0 -1.0 0.4271374690997641 1.0 1.0 1:0.25 4:0.33 7:0.5 8:0.33 9:0.25 11:0.25 12:0.5 14:1.0 15:0.2 18:1.0 19:0.67 20:0.33 21:0.17 25:0.4 26:0.2 28:0.25 29:0.5 30:1.0 31:0.5 32:0.5 33:0.25 37:0.29 38:0.5 42:1.0 43:0.5 44:0.5 45:0.67 46:0.25 47:0.33 48:1.0 49:0.33 50:0.25 51:0.5 55:0.5 56:0.4 60:0.5 61:0.2 62:0.67 63:0.67 64:0.25 65:0.67 67:1.0 71:1.0 72:0.5 75:1.0 76:0.25 78:1.0 79:0.5 81:0.2 83:0.5 84:0.17 87:0.5 88:0.33 89:0.33 90:0.25 91:0.33 92:0.5 93:0.25 95:0.33 102:1.0 104:0.4 108:1.0 110:1.0 113:0.33 114:0.33 120:1.0 121:0.5 122:0.5 123:0.33 127:0.2 129:1.0 130:1.0 132:1.0 137:0.5 138:0.33 140:0.5 141:0.25 144:1.0 145:0.67 
-0.0 -1.0 -0.0 -0.6323631076399252 0.572862530900236 1.0 1.0 1:0.25 4:1.0 7:1.0 8:0.33 9:0.25 10:1.0 11:0.25 14:1.0 15:0.2 18:1.0 19:0.33 20:0.33 21:0.17 25:0.4 26:0.2 28:0.25 29:1.0 30:1.0 32:0.5 33:0.25 37:0.29 38:0.5 42:1.0 43:0.5 44:0.5 45:1.0 46:0.25 47:0.33 48:0.67 49:0.17 50:0.25 51:0.5 53:1.0 55:0.5 56:0.2 58:0.5 60:0.5 61:0.2 62:0.67 63:1.0 64:0.25 65:0.67 68:1.0 69:0.5 71:1.0 72:1.0 75:1.0 76:0.25 78:1.0 79:0.5 81:0.2 83:1.0 84:0.17 87:0.75 88:0.33 89:0.33 90:0.25 91:0.33 92:1.0 93:0.25 95:0.67 102:0.67 104:0.2 108:0.5 111:1.0 113:0.33 114:0.33 116:1.0 120:1.0 121:1.0 122:1.0 123:1.0 127:0.2 129:1.0 130:1.0 131:0.5 132:1.0 135:1.0 137:0.5 138:0.67 140:0.5 141:0.25 144:1.0 145:1.0 
-1.0 -1.0 -0.8414434077225876 -0.26204068406536796 0.9311340955877384 1.0 1.0 4:0.33 7:0.5 10:1.0 14:1.0 18:1.0 20:0.67 22:0.33 24:0.25 25:0.6 28:0.25 29:1.0 34:0.33 37:0.71 42:0.5 43:0.5 44:0.5 45:0.67 48:0.33 49:0.67 55:0.5 56:0.6 57:0.5 58:1.0 63:0.67 65:0.67 68:1.0 69:0.5 71:1.0 72:1.0 73:1.0 77:0.17 79:0.5 81:0.2 87:0.5 90:0.25 92:0.5 95:0.67 96:0.5 98:0.33 99:0.33 100:0.33 102:0.33 104:0.6 108:0.5 113:0.67 116:1.0 119:0.5 120:1.0 121:1.0 122:1.0 123:0.67 125:0.14 132:1.0 135:1.0 138:0.67 140:0.5 141:0.25 144:0.5 145:0.67 
-0.0 -1.0 -0.8510126568284664 -1.0 0.0 1.0 1.0 1:0.25 2:0.25 4:0.67 7:1.0 8:0.33 9:0.25 10:1.0 11:0.5 12:0.5 13:0.2 14:1.0 15:0.2 18:1.0 19:0.67 20:0.5 21:0.33 25:0.6 26:0.2 28:0.25 29:1.0 30:1.0 31:0.5 32:0.5 33:0.5 35:0.25 37:0.43 38:0.5 39:0.17 40:0.2 42:1.0 43:1.0 44:0.5 45:1.0 46:0.5 47:0.33 48:1.0 49:0.33 50:0.25 51:0.5 55:0.5 56:0.4 58:0.5 60:0.5 61:0.4 62:0.67 63:1.0 64:0.5 65:1.0 67:1.0 68:1.0 70:0.2 71:1.0 72:1.0 75:1.0 76:0.25 78:1.0 79:0.75 80:0.2 81:0.2 83:0.5 84:0.33 87:0.75 88:0.33 89:0.67 90:0.25 91:0.67 92:1.0 93:0.25 95:0.67 101:0.33 102:1.0 104:0.4 105:0.5 108:1.0 110:1.0 112:0.25 113:0.5 114:0.33 116:1.0 120:1.0 121:1.0 122:1.0 123:0.67 124:0.5 126:0.14 127:0.4 129:1.0 130:1.0 132:1.0 134:0.17 135:1.0 137:0.5 138:0.67 140:0.5 141:0.25 144:1.0 145:1.0 
-1.0 -1.0 -1.0 -1.0 1.0 0.3058130024334025 1.0 1:0.5 2:0.25 4:1.0 5:0.25 7:1.0 8:0.33 9:0.25 10:1.0 11:0.75 12:0.5 13:0.2 14:1.0 15:0.4 17:0.5 18:1.0 19:0.33 20:0.33 21:0.5 23:0.33 24:0.25 25:0.4 26:0.4 27:0.5 28:0.25 29:1.0 30:1.0 32:0.5 33:0.5 34:0.33 35:0.25 37:0.29 38:0.5 39:0.17 40:0.2 42:1.0 43:0.5 44:1.0 45:1.0 46:0.5 47:0.33 48:0.67 49:0.17 50:0.5 51:0.5 52:0.25 53:1.0 54:0.17 55:1.0 56:0.2 57:0.5 58:0.5 59:0.33 60:0.5 61:0.6 62:0.67 63:1.0 64:0.5 65:0.67 66:0.25 68:1.0 69:0.5 70:0.2 71:1.0 72:1.0 75:1.0 76:0.5 77:0.17 78:1.0 79:0.5 80:0.2 81:0.2 83:1.0 84:0.5 86:0.33 87:1.0 88:0.33 89:0.67 90:0.25 91:0.67 92:1.0 93:0.25 94:0.5 95:1.0 98:0.33 101:0.67 102:0.67 103:0.5 104:0.2 105:0.5 108:0.5 111:1.0 112:0.25 113:0.33 114:0.67 115:0.2 116:1.0 118:0.25 120:1.0 121:1.0 122:1.0 123:1.0 124:0.5 125:0.14 126:0.29 127:0.6 128:0.17 129:1.0 130:1.0 131:1.0 132:1.0 133:0.33 134:0.17 135:1.0 136:0.5 137:0.5 138:1.0 140:0.5 141:0.25 144:1.0 145:1.0 
-1.0 -1.0 -1.0 -1.0 -1.0 1.0 1.0 4:0.33 7:0.5 10:1.0 14:1.0 18:1.0 20:0.17 22:0.33 24:0.25 25:0.2 28:0.25 29:1.0 34:0.33 37:0.14 42:0.5 43:0.5 44:0.5 45:0.67 48:0.33 55:0.5 57:0.5 58:1.0 63:0.67 65:0.67 68:1.0 69:0.5 71:1.0 72:1.0 73:1.0 77:0.17 79:0.25 81:0.2 87:0.5 90:0.25 92:0.5 95:0.67 96:0.5 98:0.33 99:0.33 100:0.33 102:0.33 108:0.5 113:0.17 116:1.0 119:0.5 120:1.0 121:1.0 122:1.0 123:0.67 125:0.14 132:1.0 135:1.0 138:0.67 140:1.0 141:1.0 144:0.5 145:0.67 
-1.0 -1.0 -1.0 -1.0 -1.0 1.0 1.0 14:1.0 18:1.0 28:0.25 29:0.5 42:0.5 44:0.5 45:0.33 48:0.33 54:0.17 55:0.5 63:0.33 65:0.33 71:1.0 72:0.5 77:0.17 81:0.2 82:0.33 87:0.25 90:0.25 95:0.33 102:0.33 108:0.5 109:0.25 115:0.2 118:0.25 120:1.0 121:0.5 122:0.5 123:0.33 132:1.0 138:0.33 140:0.5 141:0.25 144:0.5 145:0.33 
-1.0 -1.0 -1.0 -1.0 -1.0 1.0 1.0 1:0.5 4:1.0 5:0.25 7:1.0 8:0.33 9:0.25 10:1.0 11:0.5 12:0.5 14:1.0 15:0.4 17:0.5 18:1.0 19:0.33 20:0.33 21:0.33 23:0.33 24:0.25 25:0.4 26:0.4 27:0.5 28:0.75 29:1.0 30:1.0 32:0.5 33:0.25 34:0.33 37:0.29 38:0.5 42:1.0 43:0.5 44:1.0 45:1.0 46:0.25 47:0.33 48:0.67 49:0.17 50:0.5 51:0.5 52:0.25 53:1.0 54:0.17 55:1.0 56:0.2 57:0.5 58:0.5 59:0.33 60:0.5 61:0.4 62:0.67 63:1.0 64:0.25 65:0.67 66:0.25 68:1.0 69:0.5 71:1.0 72:1.0 75:1.0 76:0.5 77:0.17 78:1.0 79:0.5 81:0.8 83:1.0 84:0.33 86:0.33 87:1.0 88:0.33 89:0.33 90:0.75 91:0.33 92:1.0 93:0.25 94:0.5 95:1.0 98:0.33 101:0.33 102:0.67 103:0.5 104:0.2 108:0.5 113:0.33 114:0.67 115:0.2 116:1.0 118:0.25 120:1.0 121:1.0 122:1.0 123:0.67 125:0.14 126:0.14 127:0.4 128:0.17 129:1.0 130:1.0 131:0.5 132:1.0 133:0.33 135:1.0 136:0.5 137:0.5 138:1.0 140:0.5 141:0.25 144:1.0 145:1.0 
-1.0 -1.0 -1.0 -1.0 -1.0 1.0 1.0 1:0.25 4:0.33 5:0.25 7:0.5 10:1.0 11:0.25 12:0.5 14:1.0 15:0.2 17:0.5 18:1.0 20:0.17 21:0.17 22:0.33 23:0.33 24:0.5 25:0.2 26:0.2 27:0.5 28:0.25 29:1.0 34:0.67 36:1.0 37:0.14 42:0.5 43:0.5 44:1.0 45:0.67 48:0.33 50:0.25 52:0.25 54:0.17 55:1.0 57:1.0 58:1.0 59:0.33 61:0.2 63:0.67 65:0.67 66:0.25 68:1.0 69:0.5 71:1.0 72:1.0 73:1.0 74:0.5 76:0.25 77:0.33 79:0.25 81:0.2 84:0.17 86:0.33 87:0.75 90:0.25 92:0.5 94:0.5 95:1.0 96:0.5 98:0.67 99:0.33 100:0.33 101:0.33 102:0.33 103:0.5 108:0.5 111:1.0 113:0.17 114:0.33 115:0.2 116:1.0 118:0.25 119:0.5 120:1.0 121:1.0 122:1.0 123:1.0 125:0.43 126:0.14 127:0.2 128:0.17 131:1.0 132:1.0 133:0.67 135:1.0 136:0.5 137:0.5 138:1.0 140:1.0 141:1.0 142:0.5 143:1.0 144:0.5 145:0.67 
-1.0 -1.0 -1.0 -1.0 -1.0 1.0 1.0 1:0.5 2:0.25 4:1.0 5:0.25 7:1.0 8:0.33 9:0.25 10:1.0 11:0.75 12:0.5 13:0.2 14:1.0 15:0.4 17:0.5 18:1.0 19:0.33 20:0.33 21:0.5 23:0.33 24:0.25 25:0.4 26:0.4 27:0.5 28:0.25 29:1.0 30:1.0 32:0.5 33:0.5 34:0.33 35:0.25 36:1.0 37:0.29 38:0.5 39:0.17 40:0.2 42:1.0 43:0.5 44:1.0 45:1.0 46:0.5 47:0.33 48:0.67 49:0.17 50:0.5 51:0.5 52:0.25 53:1.0 54:0.17 55:1.0 56:0.2 57:0.5 58:0.5 59:0.33 60:0.5 61:0.6 62:0.67 63:1.0 64:0.5 65:0.67 66:0.25 68:1.0 69:0.5 70:0.2 71:1.0 72:1.0 74:0.5 75:1.0 76:0.5 77:0.17 78:1.0 79:0.5 80:0.2 81:0.2 83:1.0 84:0.5 86:0.33 87:1.0 88:0.33 89:0.67 90:0.25 91:0.67 92:1.0 93:0.25 94:0.5 95:1.0 98:0.33 101:0.67 102:0.67 103:0.5 104:0.2 105:0.5 108:0.5 111:1.0 112:0.25 113:0.33 114:0.67 115:0.2 116:1.0 118:0.25 120:1.0 121:1.0 122:1.0 123:1.0 124:0.5 125:0.29 126:0.29 127:0.6 128:0.17 129:1.0 130:1.0 131:1.0 132:1.0 133:0.67 134:0.17 135:1.0 136:0.5 137:1.0 138:1.0 140:1.0 141:1.0 142:0.5 143:1.0 144:1.0 145:1.0 
-0.0 -1.0 -1.0 -1.0 -1.0 -0.6745297115332141 1.0 1:0.25 4:0.33 7:0.5 8:0.33 9:0.25 11:0.25 15:0.2 19:0.33 20:0.17 21:0.17 25:0.2 26:0.2 30:1.0 32:0.5 33:0.25 36:1.0 37:0.14 38:0.5 42:0.5 45:0.33 46:0.25 47:0.33 48:0.33 49:0.17 50:0.25 56:0.2 60:0.5 61:0.2 62:0.33 63:0.33 64:0.25 74:0.5 75:1.0 76:0.25 78:1.0 79:0.25 83:0.5 84:0.17 87:0.25 88:0.33 89:0.33 91:0.33 92:0.5 93:0.25 102:0.33 104:0.2 113:0.17 114:0.33 125:0.14 127:0.2 129:1.0 130:1.0 133:0.33 137:1.0 142:0.5 143:1.0 144:0.5 145:0.33 
-0.38664217869670375 -1.0 -0.7165849594803779 -1.0 -1.0 -1.0 1.0 1:0.25 4:0.33 7:0.5 8:0.33 9:0.25 11:0.25 15:0.2 19:0.33 20:0.17 21:0.17 25:0.2 26:0.2 30:1.0 32:0.5 33:0.25 36:1.0 37:0.14 38:0.5 42:0.5 45:0.33 46:0.25 47:0.33 48:0.33 49:0.17 50:0.25 56:0.2 60:0.5 61:0.2 62:0.33 63:0.33 64:0.25 74:0.5 75:1.0 76:0.25 78:1.0 79:0.25 83:0.5 84:0.17 87:0.25 88:0.33 89:0.33 91:0.33 92:0.5 93:0.25 102:0.33 104:0.2 113:0.17 114:0.33 125:0.14 127:0.2 129:1.0 130:1.0 133:0.33 137:1.0 142:0.5 143:1.0 144:0.5 145:0.33 
-0.5886135174319369 -1.0 -0.0 -1.0 -0.3289670897488572 -1.0 1.0 2:0.25 11:0.25 13:0.2 21:0.17 33:0.25 35:0.25 36:1.0 39:0.17 40:0.2 46:0.25 61:0.2 64:0.25 70:0.2 74:0.5 80:0.2 84:0.17 89:0.33 91:0.33 101:0.33 105:0.5 112:0.25 124:0.5 125:0.14 126:0.14 127:0.2 133:0.33 134:0.17 137:0.5 142:0.5 143:1.0 
-0.0 -0.0 -1.0 -0.48039629900720016 -0.021589975811343663 -0.0 1.0 1:0.25 4:0.33 5:0.25 7:0.5 8:0.33 9:0.5 11:0.25 15:0.2 17:0.5 19:0.33 20:0.17 21:0.17 25:0.2 26:0.4 30:1.0 32:0.5 33:0.25 36:1.0 37:0.14 38:0.5 42:0.5 45:0.33 46:0.5 47:0.33 48:0.33 49:0.17 50:0.25 52:0.25 54:0.17 56:0.2 59:0.33 60:0.5 61:0.2 62:0.33 63:0.33 64:0.25 66:0.25 74:1.0 75:1.0 76:0.25 78:1.0 79:0.25 83:0.5 84:0.33 85:0.5 87:0.25 88:0.67 89:0.33 91:0.33 92:0.5 93:0.5 97:0.5 99:0.33 100:0.33 102:0.33 104:0.2 106:0.5 107:0.33 109:0.25 113:0.17 114:0.33 115:0.2 125:0.14 127:0.2 129:1.0 130:1.0 133:0.33 137:1.0 142:0.5 143:1.0 144:0.5 145:0.33 
-0.0 -1.0 -0.0 -1.0 -1.0 -0.0 1.0 1:0.25 4:0.33 7:0.5 8:0.33 9:0.25 11:0.25 12:0.5 15:0.2 19:0.67 20:0.33 21:0.17 25:0.4 26:0.2 30:1.0 31:0.5 32:0.5 33:0.25 36:1.0 37:0.29 38:0.5 42:0.5 43:0.5 45:0.33 46:0.25 47:0.33 48:0.67 49:0.33 50:0.25 51:0.5 56:0.4 60:0.5 61:0.2 62:0.67 63:0.33 64:0.25 65:0.33 67:1.0 74:0.5 75:1.0 76:0.25 78:1.0 79:0.5 83:0.5 84:0.17 87:0.25 88:0.33 89:0.33 91:0.33 92:0.5 93:0.25 102:0.67 104:0.4 108:0.5 110:1.0 113:0.33 114:0.33 125:0.14 127:0.2 129:1.0 130:1.0 133:0.33 137:1.0 142:0.5 143:1.0 144:0.5 145:0.33 
-0.8499492217053667 -0.3895656338079188 -1.0 -0.9952142301183626 -0.5898240842602935 -0.0 1.0 1:0.25 4:0.33 5:0.25 7:0.5 8:0.33 9:0.5 11:0.25 15:0.2 17:0.5 19:0.33 20:0.17 21:0.17 25:0.2 26:0.4 30:1.0 32:0.5 33:0.25 36:1.0 37:0.14 38:0.5 42:0.5 45:0.33 46:0.5 47:0.33 48:0.33 49:0.17 50:0.25 52:0.25 54:0.17 56:0.2 59:0.33 60:0.5 61:0.2 62:0.33 63:0.33 64:0.25 66:0.25 74:1.0 75:1.0 76:0.25 78:1.0 79:0.25 83:0.5 84:0.33 85:0.5 87:0.25 88:0.67 89:0.33 91:0.33 92:0.5 93:0.5 97:0.5 99:0.33 100:0.33 102:0.33 104:0.2 106:0.5 107:0.33 109:0.25 113:0.17 114:0.33 115:0.2 125:0.14 127:0.2 129:1.0 130:1.0 133:0.33 137:1.0 142:0.5 143:1.0 144:0.5 145:0.33 
-0.9256907674808532 -0.8931037194707709 -0.7459543480091307 -1.0 -0.928951106237616 -0.26813908037654577 1.0 2:0.25 11:0.25 13:0.2 21:0.17 33:0.25 35:0.25 36:1.0 39:0.17 40:0.2 46:0.25 61:0.2 64:0.25 70:0.2 74:0.5 80:0.2 84:0.17 89:0.33 91:0.33 101:0.33 105:0.5 112:0.25 124:0.5 125:0.14 126:0.14 127:0.2 133:0.33 134:0.17 137:0.5 142:0.5 143:1.0 
-1.0 -1.0 -1.0 -1.0 -1.0 -1.0 1.0 1:0.25 5:0.75 8:0.33 9:0.5 11:0.25 12:1.0 15:0.4 17:1.0 19:0.33 20:0.17 21:0.33 22:0.67 23:0.67 24:0.75 25:0.2 26:0.6 27:0.5 31:0.5 32:0.5 34:0.67 36:1.0 37:0.14 41:1.0 43:0.5 44:0.5 46:0.25 48:0.33 49:0.17 50:0.5 51:0.5 52:0.75 54:0.5 55:0.5 56:0.2 57:1.0 58:0.5 59:1.0 61:0.4 62:0.33 64:0.25 65:0.33 66:0.75 67:1.0 69:0.5 73:1.0 74:1.0 76:0.5 77:0.5 79:0.25 82:0.33 84:0.5 85:1.0 86:0.67 87:0.25 88:0.33 89:0.33 93:0.25 94:1.0 95:0.33 96:0.5 97:1.0 98:1.0 99:0.67 100:0.67 101:0.33 102:0.33 103:0.5 104:0.2 106:0.5 107:0.67 108:0.5 109:0.5 110:1.0 113:0.17 114:0.33 115:0.6 117:0.5 118:0.5 119:1.0 125:1.0 126:0.14 127:0.4 128:0.17 131:0.5 133:1.0 136:1.0 137:0.5 138:0.33 142:1.0 143:1.0 
-1.0 -0.9238732275865642 -1.0 -1.0 -0.436480746375292 -0.421527071645909 1.0 1:0.5 2:0.25 4:0.33 5:0.75 7:0.5 8:0.67 9:0.75 11:0.75 12:0.5 13:0.2 15:0.6 17:1.0 19:0.33 20:0.17 21:0.67 22:0.33 23:0.67 24:0.5 25:0.2 26:0.8 27:0.5 30:1.0 32:1.0 33:0.5 34:0.33 35:0.25 36:1.0 37:0.14 38:0.5 39:0.17 40:0.2 41:1.0 42:0.5 44:0.5 45:0.33 46:0.75 47:0.33 48:0.33 49:0.17 50:0.75 52:0.75 54:0.5 55:0.5 56:0.2 57:0.5 59:1.0 60:0.5 61:0.8 62:0.33 63:0.33 64:0.75 66:0.75 70:0.2 74:1.0 75:1.0 76:0.75 77:0.33 78:1.0 79:0.25 80:0.2 82:0.33 83:0.5 84:0.83 85:1.0 86:0.67 87:0.5 88:0.67 89:1.0 91:0.67 92:0.5 93:0.5 94:1.0 95:0.33 97:1.0 98:0.67 99:0.33 100:0.33 101:0.67 102:0.33 103:0.5 104:0.2 105:0.5 106:0.5 107:0.67 109:0.5 112:0.25 113:0.17 114:0.67 115:0.6 117:0.5 118:0.5 119:0.5 124:0.5 125:0.86 126:0.29 127:0.8 128:0.17 129:1.0 130:1.0 131:0.5 133:1.0 134:0.17 136:1.0 137:1.0 138:0.33 142:1.0 143:1.0 144:0.5 145:0.33 
-0.2491043146851395 -1.0 -0.5374606925104913 -1.0 -1.0 -0.6358041364443312 1.0 1:0.25 4:0.33 7:0.5 8:0.33 9:0.25 11:0.25 12:0.5 15:0.2 19:0.67 20:0.33 21:0.17 25:0.4 26:0.2 30:1.0 31:0.5 32:0.5 33:0.25 36:1.0 37:0.29 38:0.5 42:0.5 43:0.5 45:0.33 46:0.25 47:0.33 48:0.67 49:0.33 50:0.25 51:0.5 56:0.4 60:0.5 61:0.2 62:0.67 63:0.33 64:0.25 65:0.33 67:1.0 74:0.5 75:1.0 76:0.25 78:1.0 79:0.5 83:0.5 84:0.17 87:0.25 88:0.33 89:0.33 91:0.33 92:0.5 93:0.25 102:0.67 104:0.4 108:0.5 110:1.0 113:0.33 114:0.33 125:0.14 127:0.2 129:1.0 130:1.0 133:0.33 137:1.0 142:0.5 143:1.0 144:0.5 145:0.33 
-0.0 -1.0 -0.3521558338895587 -1.0 -1.0 -0.6245728883039698 -1.0 1:0.25 4:0.33 7:0.5 8:0.33 9:0.25 11:0.25 15:0.2 19:0.33 20:0.17 21:0.17 25:0.2 26:0.2 30:1.0 32:0.5 33:0.25 36:1.0 37:0.14 38:0.5 42:0.5 45:0.33 46:0.25 47:0.33 48:0.33 49:0.17 50:0.25 56:0.2 60:0.5 61:0.2 62:0.33 63:0.33 64:0.25 74:0.5 75:1.0 76:0.25 78:1.0 79:0.25 83:0.5 84:0.17 87:0.25 88:0.33 89:0.33 91:0.33 92:0.5 93:0.25 102:0.33 104:0.2 113:0.17 114:0.33 125:0.14 127:0.2 129:1.0 130:1.0 133:0.33 137:1.0 142:0.5 143:1.0 144:0.5 145:0.33 
-1.0 -1.0 -0.0 -1.0 -1.0 -0.0 -1.0 1:0.25 4:0.33 7:0.5 8:0.33 9:0.25 11:0.25 12:0.5 15:0.2 19:0.67 20:0.33 21:0.17 25:0.4 26:0.2 30:1.0 31:0.5 32:0.5 33:0.25 36:1.0 37:0.29 38:0.5 42:0.5 43:0.5 45:0.33 46:0.25 47:0.33 48:0.67 49:0.33 50:0.25 51:0.5 56:0.4 60:0.5 61:0.2 62:0.67 63:0.33 64:0.25 65:0.33 67:1.0 74:0.5 75:1.0 76:0.25 78:1.0 79:0.5 83:0.5 84:0.17 87:0.25 88:0.33 89:0.33 91:0.33 92:0.5 93:0.25 102:0.67 104:0.4 108:0.5 110:1.0 113:0.33 114:0.33 125:0.14 127:0.2 129:1.0 130:1.0 133:0.33 137:1.0 142:0.5 143:1.0 144:0.5 145:0.33 
-0.0 -0.0 -0.0 -0.0 -0.0 -0.0 -1.0 1:0.25 4:0.33 5:0.25 7:0.5 8:0.33 9:0.5 11:0.25 15:0.2 17:0.5 19:0.33 20:0.17 21:0.17 25:0.2 26:0.4 30:1.0 32:0.5 33:0.25 36:1.0 37:0.14 38:0.5 42:0.5 45:0.33 46:0.5 47:0.33 48:0.33 49:0.17 50:0.25 52:0.25 54:0.17 56:0.2 59:0.33 60:0.5 61:0.2 62:0.33 63:0.33 64:0.25 66:0.25 74:1.0 75:1.0 76:0.25 78:1.0 79:0.25 83:0.5 84:0.33 85:0.5 87:0.25 88:0.67 89:0.33 91:0.33 92:0.5 93:0.5 97:0.5 99:0.33 100:0.33 102:0.33 104:0.2 106:0.5 107:0.33 109:0.25 113:0.17 114:0.33 115:0.2 125:0.14 127:0.2 129:1.0 130:1.0 133:0.33 137:1.0 142:0.5 143:1.0 144:0.5 145:0.33 
-0.0 -1.0 -0.038031833889058786 -1.0 -1.0 -1.0 -1.0 1:0.25 4:0.33 7:0.5 8:0.33 9:0.25 11:0.25 15:0.2 19:0.33 20:0.17 21:0.17 25:0.2 26:0.2 30:1.0 32:0.5 33:0.25 36:1.0 37:0.14 38:0.5 42:0.5 45:0.33 46:0.25 47:0.33 48:0.33 49:0.17 50:0.25 56:0.2 60:0.5 61:0.2 62:0.33 63:0.33 64:0.25 74:0.5 75:1.0 76:0.25 78:1.0 79:0.25 83:0.5 84:0.17 87:0.25 88:0.33 89:0.33 91:0.33 92:0.5 93:0.25 102:0.33 104:0.2 113:0.17 114:0.33 125:0.14 127:0.2 129:1.0 130:1.0 133:0.33 137:1.0 142:0.5 143:1.0 144:0.5 145:0.33 
-0.0 -0.0 -0.0 -0.0 -0.0 -0.0 -1.0 1:0.25 4:0.33 5:0.25 7:0.5 8:0.33 9:0.5 11:0.25 15:0.2 17:0.5 19:0.33 20:0.17 21:0.17 25:0.2 26:0.4 30:1.0 32:0.5 33:0.25 36:1.0 37:0.14 38:0.5 42:0.5 45:0.33 46:0.5 47:0.33 48:0.33 49:0.17 50:0.25 52:0.25 54:0.17 56:0.2 59:0.33 60:0.5 61:0.2 62:0.33 63:0.33 64:0.25 66:0.25 74:1.0 75:1.0 76:0.25 78:1.0 79:0.25 83:0.5 84:0.33 85:0.5 87:0.25 88:0.67 89:0.33 91:0.33 92:0.5 93:0.5 97:0.5 99:0.33 100:0.33 102:0.33 104:0.2 106:0.5 107:0.33 109:0.25 113:0.17 114:0.33 115:0.2 125:0.14 127:0.2 129:1.0 130:1.0 133:0.33 137:1.0 142:0.5 143:1.0 144:0.5 145:0.33 
-0.0 -0.0 -0.06908219941111467 -0.0 -0.0 -0.0 -1.0 1:0.25 4:0.33 5:0.25 7:0.5 8:0.33 9:0.5 11:0.25 15:0.2 17:0.5 19:0.33 20:0.17 21:0.17 25:0.2 26:0.4 30:1.0 32:0.5 33:0.25 36:1.0 37:0.14 38:0.5 42:0.5 45:0.33 46:0.5 47:0.33 48:0.33 49:0.17 50:0.25 52:0.25 54:0.17 56:0.2 59:0.33 60:0.5 61:0.2 62:0.33 63:0.33 64:0.25 66:0.25 74:1.0 75:1.0 76:0.25 78:1.0 79:0.25 83:0.5 84:0.33 85:0.5 87:0.25 88:0.67 89:0.33 91:0.33 92:0.5 93:0.5 97:0.5 99:0.33 100:0.33 102:0.33 104:0.2 106:0.5 107:0.33 109:0.25 113:0.17 114:0.33 115:0.2 125:0.14 127:0.2 129:1.0 130:1.0 133:0.33 137:1.0 142:0.5 143:1.0 144:0.5 145:0.33 
-1.0 -0.5274175184051255 -0.973599009590666 -0.8025404640884443 -0.8082237385363373 -0.0 -1.0 1:0.25 4:0.33 5:0.25 7:0.5 8:0.33 9:0.5 11:0.25 15:0.2 17:0.5 19:0.33 20:0.17 21:0.17 25:0.2 26:0.4 30:1.0 32:0.5 33:0.25 36:1.0 37:0.14 38:0.5 42:0.5 45:0.33 46:0.5 47:0.33 48:0.33 49:0.17 50:0.25 52:0.25 54:0.17 56:0.2 59:0.33 60:0.5 61:0.2 62:0.33 63:0.33 64:0.25 66:0.25 74:1.0 75:1.0 76:0.25 78:1.0 79:0.25 83:0.5 84:0.33 85:0.5 87:0.25 88:0.67 89:0.33 91:0.33 92:0.5 93:0.5 97:0.5 99:0.33 100:0.33 102:0.33 104:0.2 106:0.5 107:0.33 109:0.25 113:0.17 114:0.33 115:0.2 125:0.14 127:0.2 129:1.0 130:1.0 133:0.33 137:1.0 142:0.5 143:1.0 144:0.5 145:0.33 
-0.0 -0.0 -1.0 -0.5606303369829923 -0.0 -0.0 -0.0 1:0.5 2:0.25 4:0.33 5:0.5 7:0.5 8:0.67 9:0.5 11:0.75 12:0.5 13:0.2 15:0.6 17:0.5 19:0.33 20:0.17 21:0.67 22:0.33 23:0.67 24:0.5 25:0.2 26:0.6 27:0.5 30:1.0 32:1.0 33:0.5 34:0.33 35:0.25 36:1.0 37:0.14 38:0.5 39:0.17 40:0.2 41:1.0 42:0.5 44:0.5 45:0.33 46:0.5 47:0.33 48:0.33 49:0.17 50:0.75 52:0.5 54:0.33 55:0.5 56:0.2 57:0.5 59:0.67 60:0.5 61:0.8 62:0.33 63:0.33 64:0.75 66:0.5 70:0.2 74:0.5 75:1.0 76:0.75 77:0.33 78:1.0 79:0.25 80:0.2 82:0.33 83:0.5 84:0.67 85:0.5 86:0.67 87:0.5 88:0.33 89:1.0 91:0.67 92:0.5 93:0.25 94:1.0 95:0.33 97:0.5 98:0.67 101:0.67 102:0.33 103:0.5 104:0.2 105:0.5 107:0.33 109:0.25 112:0.25 113:0.17 114:0.67 115:0.4 117:0.5 118:0.5 119:0.5 124:1.0 125:0.43 126:0.29 127:1.0 128:0.17 129:1.0 130:1.0 131:0.5 133:1.0 134:0.17 136:1.0 137:1.0 138:0.33 142:1.0 143:1.0 144:0.5 145:0.33 
-0.0 -0.0 -0.11008034186532273 -0.0 -0.0 -0.0 -0.0 1:0.5 2:0.25 4:0.33 5:0.5 7:0.5 8:0.67 9:0.5 11:0.75 12:1.0 13:0.2 15:0.6 17:0.5 19:0.67 20:0.33 21:0.67 22:0.33 23:0.67 24:0.5 25:0.4 26:0.6 27:0.5 30:1.0 31:0.5 32:1.0 33:0.5 34:0.33 35:0.25 36:1.0 37:0.29 38:0.5 39:0.17 40:0.2 41:1.0 42:0.5 43:0.5 44:0.5 45:0.33 46:0.5 47:0.33 48:0.67 49:0.33 50:0.75 51:0.5 52:0.5 54:0.33 55:0.5 56:0.4 57:0.5 59:0.67 60:0.5 61:0.8 62:0.67 63:0.33 64:0.75 65:0.33 66:0.5 67:1.0 70:0.2 74:0.5 75:1.0 76:0.75 77:0.33 78:1.0 79:0.5 80:0.2 82:0.33 83:0.5 84:0.67 85:0.5 86:0.67 87:0.5 88:0.33 89:1.0 91:0.67 92:0.5 93:0.25 94:1.0 95:0.33 97:0.5 98:0.67 101:0.67 102:0.67 103:0.5 104:0.4 105:0.5 107:0.33 108:0.5 109:0.25 110:1.0 112:0.25 113:0.33 114:0.67 115:0.4 117:0.5 118:0.5 119:0.5 124:0.5 125:0.43 126:0.29 127:0.8 128:0.17 129:1.0 130:1.0 131:0.5 133:1.0 134:0.17 136:1.0 137:1.0 138:0.33 142:1.0 143:1.0 144:0.5 145:0.33 
-0.0 -1.0 -0.0 -0.0 -0.0 -0.0 -0.0 1:0.5 4:0.33 5:0.5 7:0.5 8:0.67 9:0.5 11:0.5 12:0.5 15:0.6 17:0.5 19:0.33 20:0.17 21:0.5 22:0.33 23:0.67 24:0.5 25:0.2 26:0.6 27:0.5 30:1.0 32:1.0 33:0.25 34:0.33 37:0.14 38:0.5 41:1.0 42:0.5 44:0.5 45:0.33 46:0.25 47:0.33 48:0.33 49:0.17 50:0.75 52:0.5 54:0.33 55:0.5 56:0.2 57:0.5 59:0.67 60:0.5 61:0.6 62:0.33 63:0.33 64:0.5 66:0.5 75:1.0 76:0.75 77:0.33 78:1.0 79:0.25 82:0.33 83:0.5 84:0.5 85:0.5 86:0.67 87:0.5 88:0.33 89:0.67 91:0.33 92:0.5 93:0.25 94:1.0 95:0.33 97:0.5 98:0.67 101:0.33 102:0.33 103:0.5 104:0.2 107:0.33 109:0.25 113:0.17 114:0.67 115:0.4 117:0.5 118:0.5 119:0.5 125:0.29 126:0.14 127:0.6 128:0.17 129:1.0 130:1.0 131:0.5 133:0.67 136:1.0 137:0.5 138:0.33 142:0.5 144:0.5 145:0.33 
-0.0 -0.27477555816520227 -0.0 -1.0 -0.1917762614636627 -0.0 -0.15685977478135693 1:0.25 2:0.25 3:1.0 5:0.5 8:0.33 9:0.25 11:0.25 12:1.0 15:0.4 17:0.5 19:0.67 20:0.17 21:0.33 22:0.67 23:0.67 24:0.75 25:0.2 26:0.4 27:0.5 31:0.5 32:0.5 34:0.67 35:0.25 37:0.14 39:0.17 40:0.2 41:1.0 43:0.5 44:0.5 48:0.33 49:0.17 50:0.5 51:0.5 52:0.5 54:0.33 55:0.5 56:0.2 57:1.0 58:0.5 59:0.67 60:0.5 61:0.4 62:0.33 64:0.25 65:0.33 66:0.5 67:1.0 69:0.5 70:0.2 73:1.0 76:0.5 77:0.5 79:0.25 80:0.2 82:0.33 84:0.33 85:0.5 86:0.67 87:0.25 89:0.33 94:1.0 95:0.33 96:0.5 97:0.5 98:1.0 99:0.33 100:0.33 101:0.33 102:0.33 103:1.0 104:0.2 107:0.33 108:0.5 109:0.25 110:1.0 113:0.17 114:0.33 115:0.4 117:0.5 118:0.5 119:1.0 125:0.43 126:0.29 127:0.4 128:0.33 131:0.5 133:0.67 134:0.17 136:1.0 138:0.33 139:1.0 142:0.5 
-0.0 -0.0 -1.0 -1.0 -0.0 -0.0 -0.0 1:0.5 2:0.25 4:0.33 5:0.75 7:0.5 8:0.67 9:0.75 11:0.75 12:0.5 13:0.2 15:0.6 17:1.0 19:0.33 20:0.17 21:0.67 22:0.33 23:0.67 24:0.5 25:0.2 26:0.8 27:0.5 30:1.0 32:1.0 33:0.5 34:0.33 35:0.25 37:0.14 38:0.5 39:0.17 40:0.2 41:1.0 42:0.5 44:0.5 45:0.33 46:0.75 47:0.33 48:0.33 49:0.17 50:0.75 52:0.75 54:0.5 55:0.5 56:0.2 57:0.5 59:1.0 60:0.5 61:0.8 62:0.33 63:0.33 64:0.75 66:0.75 70:0.2 74:0.5 75:1.0 76:0.75 77:0.33 78:1.0 79:0.25 80:0.2 82:0.33 83:0.5 84:0.83 85:1.0 86:0.67 87:0.5 88:0.67 89:1.0 91:0.67 92:0.5 93:0.5 94:1.0 95:0.33 97:1.0 98:0.67 99:0.33 100:0.33 101:0.67 102:0.33 103:0.5 104:0.2 105:0.5 106:0.5 107:0.67 109:0.5 112:0.25 113:0.17 114:0.67 115:0.6 117:0.5 118:0.5 119:0.5 124:1.0 125:0.71 126:0.29 127:1.0 128:0.17 129:1.0 130:1.0 131:0.5 133:0.67 134:0.17 136:1.0 137:0.5 138:0.33 142:0.5 144:0.5 145:0.33 
-1.0 -0.0 -0.0 -0.0 -0.0 -0.0 -0.0 1:0.25 5:0.5 8:0.33 9:0.25 11:0.25 12:0.5 15:0.4 17:0.5 21:0.33 22:0.67 23:0.67 24:0.75 26:0.4 27:0.5 32:0.5 34:0.67 36:1.0 41:1.0 44:0.5 50:0.5 52:0.5 54:0.33 55:0.5 57:1.0 58:0.5 59:0.67 61:0.4 64:0.25 66:0.5 69:0.5 73:1.0 74:0.5 76:0.5 77:0.5 82:0.33 84:0.33 85:0.5 86:0.67 87:0.25 89:0.33 94:1.0 95:0.33 96:0.5 97:0.5 98:1.0 99:0.33 100:0.33 101:0.33 103:0.5 107:0.33 109:0.25 114:0.33 115:0.4 117:0.5 118:0.5 119:1.0 125:1.0 126:0.14 127:0.4 128:0.17 131:0.5 133:1.0 136:1.0 137:0.5 138:0.33 142:1.0 143:1.0 
-0.0 -0.0 -0.0 -0.0 -0.0 -0.0 -0.5414945749470936 1:0.25 5:0.5 8:0.33 9:0.25 11:0.25 12:1.0 15:0.4 17:0.5 19:0.33 20:0.17 21:0.33 22:0.67 23:0.67 24:0.75 25:0.2 26:0.4 27:0.5 31:0.5 32:0.5 34:0.67 36:1.0 37:0.14 41:1.0 43:0.5 44:0.5 48:0.33 49:0.17 50:0.5 51:0.5 52:0.5 54:0.33 55:0.5 56:0.2 57:1.0 58:0.5 59:0.67 61:0.4 62:0.33 64:0.25 65:0.33 66:0.5 67:1.0 69:0.5 73:1.0 74:0.5 76:0.5 77:0.5 79:0.25 82:0.33 84:0.33 85:0.5 86:0.67 87:0.25 89:0.33 94:1.0 95:0.33 96:0.5 97:0.5 98:1.0 99:0.33 100:0.33 101:0.33 102:0.33 103:0.5 104:0.2 107:0.33 108:0.5 109:0.25 110:1.0 113:0.17 114:0.33 115:0.4 117:0.5 118:0.5 119:1.0 125:0.57 126:0.14 127:0.4 128:0.17 131:0.5 133:1.0 136:1.0 137:0.5 138:0.33 142:1.0 143:1.0 
-1.0 -0.0 -0.0 -0.0 -0.0 -0.0 -0.1913768856932262 1:0.25 5:0.5 8:0.33 9:0.25 11:0.25 12:0.5 15:0.4 17:0.5 21:0.33 22:0.67 23:0.67 24:0.75 26:0.4 27:0.5 32:0.5 34:0.67 36:1.0 41:1.0 44:0.5 50:0.5 52:0.5 54:0.33 55:0.5 57:1.0 58:0.5 59:0.67 61:0.4 64:0.25 66:0.5 69:0.5 73:1.0 74:0.5 76:0.5 77:0.5 82:0.33 84:0.33 85:0.5 86:0.67 87:0.25 89:0.33 94:1.0 95:0.33 96:0.5 97:0.5 98:1.0 99:0.33 100:0.33 101:0.33 103:0.5 107:0.33 109:0.25 114:0.33 115:0.4 117:0.5 118:0.5 119:1.0 125:1.0 126:0.14 127:0.4 128:0.17 131:0.5 133:1.0 136:1.0 137:0.5 138:0.33 142:1.0 143:1.0 
-0.0 -0.18987142310411942 -0.0 -0.0 -0.0 -0.0 -0.0 1:0.5 4:0.33 5:0.5 7:0.5 8:0.67 9:0.5 11:0.5 12:0.5 15:0.6 17:0.5 19:0.33 20:0.17 21:0.5 22:0.33 23:0.67 24:0.5 25:0.2 26:0.6 27:0.5 30:1.0 32:1.0 33:0.25 34:0.33 37:0.14 38:0.5 41:1.0 42:0.5 44:0.5 45:0.33 46:0.25 47:0.33 48:0.33 49:0.17 50:0.75 52:0.5 54:0.33 55:0.5 56:0.2 57:0.5 59:0.67 60:0.5 61:0.6 62:0.33 63:0.33 64:0.5 66:0.5 75:1.0 76:0.75 77:0.33 78:1.0 79:0.25 82:0.33 83:0.5 84:0.5 85:0.5 86:0.67 87:0.5 88:0.33 89:0.67 91:0.33 92:0.5 93:0.25 94:1.0 95:0.33 97:0.5 98:0.67 101:0.33 102:0.33 103:0.5 104:0.2 107:0.33 109:0.25 113:0.17 114:0.67 115:0.4 117:0.5 118:0.5 119:0.5 125:0.29 126:0.14 127:0.6 128:0.17 129:1.0 130:1.0 131:0.5 133:0.67 136:1.0 137:0.5 138:0.33 142:0.5 144:0.5 145:0.33 
-0.0 -0.00793550032555279 -0.0 -0.4372969843112126 -0.0 -0.0 -0.0 1:0.5 4:0.33 5:0.5 7:0.5 8:0.67 9:0.5 11:0.5 12:0.5 15:0.6 17:0.5 19:0.33 20:0.17 21:0.5 22:0.33 23:0.67 24:0.5 25:0.2 26:0.6 27:0.5 30:1.0 32:1.0 33:0.25 34:0.33 37:0.14 38:0.5 41:1.0 42:0.5 44:0.5 45:0.33 46:0.25 47:0.33 48:0.33 49:0.17 50:0.75 52:0.5 54:0.33 55:0.5 56:0.2 57:0.5 59:0.67 60:0.5 61:0.6 62:0.33 63:0.33 64:0.5 66:0.5 75:1.0 76:0.75 77:0.33 78:1.0 79:0.25 82:0.33 83:0.5 84:0.5 85:0.5 86:0.67 87:0.5 88:0.33 89:0.67 91:0.33 92:0.5 93:0.25 94:1.0 95:0.33 97:0.5 98:0.67 101:0.33 102:0.33 103:0.5 104:0.2 107:0.33 109:0.25 113:0.17 114:0.67 115:0.4 117:0.5 118:0.5 119:0.5 125:0.29 126:0.14 127:0.6 128:0.17 129:1.0 130:1.0 131:0.5 133:0.67 136:1.0 137:0.5 138:0.33 142:0.5 144:0.5 145:0.33 
-0.0 -0.0 -0.7818315748323842 -1.0 -0.0 -0.0 -0.8678526562829447 1:0.25 2:0.25 4:0.33 5:0.25 7:0.5 8:0.67 9:0.5 11:0.5 13:0.2 15:0.4 19:0.33 20:0.17 21:0.5 22:0.33 23:0.33 24:0.25 25:0.2 26:0.4 30:1.0 32:1.0 33:0.5 35:0.25 36:1.0 37:0.14 38:0.5 39:0.17 40:0.2 41:1.0 42:0.5 45:0.33 46:0.5 47:0.33 48:0.33 49:0.17 50:0.5 52:0.25 54:0.17 56:0.2 59:0.33 60:0.5 61:0.6 62:0.33 63:0.33 64:0.75 66:0.25 70:0.2 74:0.5 75:1.0 76:0.5 77:0.17 78:1.0 79:0.25 80:0.2 82:0.33 83:0.5 84:0.5 85:0.5 86:0.33 87:0.25 88:0.33 89:1.0 91:0.67 92:0.5 93:0.25 94:0.5 97:0.5 98:0.33 101:0.33 102:0.33 104:0.2 105:0.5 107:0.33 109:0.25 112:0.25 113:0.17 114:0.33 115:0.2 117:0.5 118:0.25 119:0.5 124:0.5 125:0.29 126:0.14 127:0.6 129:1.0 130:1.0 133:0.67 134:0.17 136:0.5 137:1.0 142:1.0 143:1.0 144:0.5 145:0.33 
-0.0 -0.0 -0.5718047955382175 -0.0 -0.0 -0.0 -0.0 1:0.25 5:0.75 8:0.33 9:0.5 11:0.25 12:0.5 15:0.4 17:1.0 21:0.33 22:0.67 23:0.67 24:0.75 26:0.6 27:0.5 32:0.5 34:0.67 36:1.0 41:1.0 44:0.5 46:0.25 50:0.5 52:0.75 54:0.5 55:0.5 57:1.0 58:0.5 59:1.0 61:0.4 64:0.25 66:0.75 69:0.5 73:1.0 74:1.0 76:0.5 77:0.5 82:0.33 84:0.5 85:1.0 86:0.67 87:0.25 88:0.33 89:0.33 93:0.25 94:1.0 95:0.33 96:0.5 97:1.0 98:1.0 99:0.67 100:0.67 101:0.33 103:0.5 106:0.5 107:0.67 109:0.5 111:1.0 114:0.33 115:0.6 117:0.5 118:0.5 119:1.0 123:0.33 124:0.5 125:0.57 126:0.14 127:0.6 128:0.17 131:1.0 133:1.0 136:1.0 137:0.5 138:0.33 142:1.0 143:1.0 
-0.0 -1.0 -0.0 -0.39806188258124015 -1.0 -1.0 -0.0 1:0.25 4:0.33 5:0.5 7:0.5 8:0.33 9:0.25 10:1.0 11:0.25 12:0.5 14:1.0 15:0.4 17:0.5 18:1.0 20:0.67 21:0.33 22:0.67 23:0.67 24:0.75 25:0.6 26:0.4 27:0.5 28:0.25 29:1.0 32:0.5 34:0.67 36:1.0 37:0.71 41:1.0 42:0.5 43:0.5 44:1.0 45:0.67 48:0.33 49:0.67 50:0.5 52:0.5 54:0.33 55:1.0 56:0.6 57:1.0 58:1.0 59:0.67 61:0.4 63:0.67 64:0.25 65:0.67 66:0.5 68:1.0 69:0.5 71:1.0 72:1.0 73:1.0 74:0.5 76:0.5 77:0.5 79:0.5 81:0.2 82:0.33 84:0.33 85:0.5 86:0.67 87:0.75 89:0.33 90:0.25 92:0.5 94:1.0 95:1.0 96:0.5 97:0.5 98:1.0 99:0.33 100:0.33 101:0.33 102:0.33 103:0.5 104:0.6 107:0.33 108:0.5 109:0.25 113:0.67 114:0.33 115:0.4 116:1.0 117:0.5 118:0.5 119:1.0 120:1.0 121:1.0 122:1.0 123:0.67 125:0.57 126:0.14 127:0.4 128:0.17 131:0.5 132:1.0 133:1.0 135:1.0 136:1.0 137:0.5 138:1.0 140:0.5 141:0.25 142:1.0 143:1.0 144:0.5 145:0.67 
-0.0 -0.0 -0.0 -0.0 -0.0 -0.0 -0.9396221591060699 1:0.25 5:0.5 8:0.33 9:0.25 11:0.25 12:1.0 15:0.4 17:0.5 19:0.33 20:0.17 21:0.33 22:0.67 23:0.67 24:0.75 25:0.2 26:0.4 27:0.5 31:0.5 32:0.5 34:0.67 36:1.0 37:0.14 41:1.0 43:0.5 44:0.5 48:0.33 49:0.17 50:0.5 51:0.5 52:0.5 54:0.33 55:0.5 56:0.2 57:1.0 58:0.5 59:0.67 61:0.4 62:0.33 64:0.25 65:0.33 66:0.5 67:1.0 69:0.5 73:1.0 74:0.5 76:0.5 77:0.5 79:0.25 82:0.33 84:0.33 85:0.5 86:0.67 87:0.25 89:0.33 94:1.0 95:0.33 96:0.5 97:0.5 98:1.0 99:0.33 100:0.33 101:0.33 102:0.33 103:0.5 104:0.2 107:0.33 108:0.5 109:0.25 110:1.0 113:0.17 114:0.33 115:0.4 117:0.5 118:0.5 119:1.0 125:0.57 126:0.14 127:0.4 128:0.17 131:0.5 133:1.0 136:1.0 137:0.5 138:0.33 142:1.0 143:1.0 
-0.0 -1.0 -0.048065562388560676 -0.2876668709368096 -1.0 -1.0 -0.0 1:0.5 2:0.25 4:0.67 5:0.75 7:1.0 8:0.67 9:0.75 10:1.0 11:0.75 12:1.0 13:0.2 14:1.0 15:0.6 17:1.0 18:1.0 19:0.67 20:0.5 21:0.67 22:0.33 23:0.67 24:0.5 25:0.6 26:0.8 27:0.5 28:0.25 29:1.0 30:1.0 31:0.5 32:1.0 33:0.5 34:0.33 35:0.25 36:1.0 37:0.43 38:0.5 39:0.17 40:0.2 41:1.0 42:1.0 43:1.0 44:1.0 45:1.0 46:0.75 47:0.33 48:1.0 49:0.33 50:0.75 51:0.5 52:0.75 54:0.5 55:1.0 56:0.4 57:0.5 58:0.5 59:1.0 60:0.5 61:0.8 62:0.67 63:1.0 64:0.75 65:1.0 66:0.75 67:1.0 68:1.0 70:0.2 71:1.0 72:1.0 74:1.0 75:1.0 76:0.75 77:0.33 78:1.0 79:0.75 80:0.2 81:0.2 82:0.33 83:0.5 84:0.83 85:1.0 86:0.67 87:1.0 88:0.67 89:1.0 90:0.25 91:0.67 92:1.0 93:0.5 94:1.0 95:1.0 97:1.0 98:0.67 99:0.33 100:0.33 101:0.67 102:1.0 103:0.5 104:0.4 105:0.5 106:0.5 107:0.67 108:1.0 109:0.5 110:1.0 112:0.25 113:0.5 114:0.67 115:0.6 116:1.0 117:0.5 118:0.5 119:0.5 120:1.0 121:1.0 122:1.0 123:0.67 124:0.5 125:0.86 126:0.29 127:0.8 128:0.17 129:1.0 130:1.0 131:0.5 132:1.0 133:1.0 134:0.17 135:1.0 136:1.0 137:1.0 138:1.0 140:0.5 141:0.25 142:1.0 143:1.0 144:1.0 145:1.0 
-0.0 -1.0 -0.05534884859511678 -1.0 -1.0 -1.0 -0.3027939491893087 1:0.25 5:0.25 11:0.25 12:0.5 14:1.0 15:0.2 17:0.5 18:1.0 21:0.17 22:0.33 23:0.33 24:0.5 26:0.2 27:0.5 28:0.25 29:0.5 34:0.67 36:1.0 42:0.5 44:1.0 45:0.33 48:0.33 50:0.25 52:0.25 54:0.17 55:1.0 57:1.0 58:0.5 59:0.33 61:0.2 63:0.33 65:0.33 66:0.25 69:0.5 71:1.0 72:0.5 73:1.0 74:0.5 76:0.25 77:0.33 81:0.2 84:0.17 86:0.33 87:0.5 90:0.25 94:0.5 95:0.67 96:0.5 98:0.67 99:0.33 100:0.33 101:0.33 102:0.33 103:0.5 108:0.5 111:1.0 114:0.33 115:0.2 118:0.25 119:0.5 120:1.0 121:0.5 122:0.5 123:0.67 125:0.43 126:0.14 127:0.2 128:0.17 131:1.0 132:1.0 133:0.67 136:0.5 137:0.5 138:0.67 140:1.0 141:1.0 142:0.5 143:1.0 144:0.5 145:0.33 
-1.0 -0.0 -0.0 -0.0 -0.0 -0.0 -0.0 1:0.25 5:0.75 8:0.33 9:0.5 11:0.25 12:0.5 15:0.4 17:1.0 21:0.33 22:0.67 23:0.67 24:0.75 26:0.6 27:0.5 32:0.5 34:0.67 36:1.0 41:1.0 44:0.5 46:0.25 50:0.5 52:0.75 54:0.5 55:0.5 57:1.0 58:0.5 59:1.0 61:0.4 64:0.25 66:0.75 69:0.5 73:1.0 74:1.0 76:0.5 77:0.5 82:0.33 84:0.5 85:1.0 86:0.67 87:0.25 88:0.33 89:0.33 93:0.25 94:1.0 95:0.33 96:0.5 97:1.0 98:1.0 99:0.67 100:0.67 101:0.33 103:0.5 106:0.5 107:0.67 109:0.5 114:0.33 115:0.6 117:0.5 118:0.5 119:1.0 125:1.0 126:0.14 127:0.4 128:0.17 131:0.5 133:1.0 136:1.0 137:0.5 138:0.33 142:1.0 143:1.0 
-0.0 -0.0 -1.0 -1.0 -0.0 -0.0 -0.0 1:0.5 2:0.25 4:0.33 5:0.75 7:0.5 8:0.67 9:0.75 11:0.75 12:0.5 13:0.2 15:0.6 17:1.0 19:0.33 20:0.17 21:0.67 22:0.33 23:0.67 24:0.5 25:0.2 26:0.8 27:0.5 30:1.0 32:1.0 33:0.5 34:0.33 35:0.25 37:0.14 38:0.5 39:0.17 40:0.2 41:1.0 42:0.5 44:0.5 45:0.33 46:0.75 47:0.33 48:0.33 49:0.17 50:0.75 52:0.75 54:0.5 55:0.5 56:0.2 57:0.5 59:1.0 60:0.5 61:0.8 62:0.33 63:0.33 64:0.75 66:0.75 70:0.2 74:0.5 75:1.0 76:0.75 77:0.33 78:1.0 79:0.25 80:0.2 82:0.33 83:0.5 84:0.83 85:1.0 86:0.67 87:0.5 88:0.67 89:1.0 91:0.67 92:0.5 93:0.5 94:1.0 95:0.33 97:1.0 98:0.67 99:0.33 100:0.33 101:0.67 102:0.33 103:0.5 104:0.2 105:0.5 106:0.5 107:0.67 109:0.5 112:0.25 113:0.17 114:0.67 115:0.6 117:0.5 118:0.5 119:0.5 124:1.0 125:0.71 126:0.29 127:1.0 128:0.17 129:1.0 130:1.0 131:0.5 133:0.67 134:0.17 136:1.0 137:0.5 138:0.33 142:0.5 144:0.5 145:0.33 
-0.0 -0.0 -1.0 -0.0 -0.0 -0.0 -0.0 1:0.5 2:0.25 4:0.33 5:0.5 7:0.5 8:0.67 9:0.5 11:0.75 12:1.0 13:0.2 15:0.6 17:0.5 19:0.67 20:0.33 21:0.67 22:0.33 23:0.67 24:0.5 25:0.4 26:0.6 27:0.5 30:1.0 31:0.5 32:1.0 33:0.5 34:0.33 35:0.25 36:1.0 37:0.29 38:0.5 39:0.17 40:0.2 41:1.0 42:0.5 43:0.5 44:0.5 45:0.33 46:0.5 47:0.33 48:0.67 49:0.33 50:0.75 51:0.5 52:0.5 54:0.33 55:0.5 56:0.4 57:0.5 59:0.67 60:0.5 61:0.8 62:0.67 63:0.33 64:0.75 65:0.33 66:0.5 67:1.0 70:0.2 74:0.5 75:1.0 76:0.75 77:0.33 78:1.0 79:0.5 80:0.2 82:0.33 83:0.5 84:0.67 85:0.5 86:0.67 87:0.5 88:0.33 89:1.0 91:0.67 92:0.5 93:0.25 94:1.0 95:0.33 97:0.5 98:0.67 101:0.67 102:0.67 103:0.5 104:0.4 105:0.5 107:0.33 108:0.5 109:0.25 110:1.0 112:0.25 113:0.33 114:0.67 115:0.4 117:0.5 118:0.5 119:0.5 124:0.5 125:0.43 126:0.29 127:0.8 128:0.17 129:1.0 130:1.0 131:0.5 133:1.0 134:0.17 136:1.0 137:1.0 138:0.33 142:1.0 143:1.0 144:0.5 145:0.33 
-0.0 -1.0 -0.0 -0.2862190934266325 -1.0 -0.37542711169603016 -0.0 1:0.25 4:0.33 5:0.5 7:0.5 8:0.33 9:0.25 10:1.0 11:0.25 12:0.5 15:0.4 17:0.5 20:0.17 21:0.33 22:0.67 23:0.67 24:0.75 25:0.2 26:0.4 27:0.5 29:0.5 32:0.5 34:0.67 36:1.0 37:0.14 41:1.0 43:0.5 44:0.5 45:0.33 50:0.5 52:0.5 54:0.33 55:0.5 57:1.0 58:1.0 59:0.67 61:0.4 63:0.33 64:0.25 65:0.33 66:0.5 68:1.0 69:0.5 72:0.5 73:1.0 74:0.5 76:0.5 77:0.5 79:0.25 82:0.33 84:0.33 85:0.5 86:0.67 87:0.5 89:0.33 92:0.5 94:1.0 95:0.67 96:0.5 97:0.5 98:1.0 99:0.33 100:0.33 101:0.33 103:0.5 107:0.33 109:0.25 111:1.0 113:0.17 114:0.33 115:0.4 116:1.0 117:0.5 118:0.5 119:1.0 121:0.5 122:0.5 123:0.67 125:0.57 126:0.14 127:0.4 128:0.17 131:1.0 133:1.0 135:1.0 136:1.0 137:0.5 138:0.67 142:1.0 143:1.0 145:0.33 
