svm_type c_svc
kernel_type rbf
gamma 0.006711409395973154
nr_class 8
total_sv 83
rho 0.3816098399589787 0.6857632696628571 0.4968720078468323 0.1477457582950592 0.05131378769874573 0.9594001646564461 1.0 -0.1433409154415131 0.09945168672961588 -0.7306001782417297 -0.8741945841713564 0.20666322112083435 0.6144504641833609 0.5177280048327446 0.10894563096086439 -0.15320369601249695 0.7730571696537283 0.9630181430175128 0.06023280510607811 -0.43926009535789484 -0.06941128696271173 0.1595965079573791 -0.9026044438346814 0.037085123798160126 0.4188266552996847 0.4165407482965885 0.8292936682701111 0.9473413915011752
label 3 7 4 0 5 6 2 1
nr_sv 5 9 6 12 8 5 10 28
SV
1.0 1.0 1.0 1.0 1.0 1.0 1.0 1:0.33 2:0.33 3:0.2 4:0.33 5:0.33 6:0.2 7:0.33 9:0.25 12:0.2 16:0.5 22:0.33 27:0.14 29:0.2 30:0.33 33:0.17 34:0.33 35:0.5 36:0.2 37:0.17 38:0.5 39:0.33 40:0.17 45:0.33 47:0.5 48:0.25 49:0.33 50:0.4 51:0.25 53:0.25 54:0.25 61:0.25 62:1.0 63:0.25 64:0.5 65:0.5 66:0.5 67:0.33 68:0.67 69:0.5 70:0.33 71:0.33 72:0.2 73:0.17 76:0.25 77:1.0 78:0.2 80:0.17 81:1.0 82:0.25 83:0.5 84:0.5 88:1.0 94:0.25 95:0.5 97:1.0 99:0.5 100:0.5 101:0.33 105:0.5 108:0.2 111:0.5 116:0.5 117:0.33 119:0.2 120:0.25 124:0.25 128:0.5 129:1.0 130:0.5 131:0.33 132:1.0 137:1.0 138:0.62 140:1.0 141:1.0 142:1.0 143:1.0 144:1.0 145:0.33 
1.0 1.0 1.0 1.0 1.0 1.0 1.0 1:0.33 2:0.33 3:0.2 4:0.33 5:0.33 6:0.2 7:0.33 9:0.25 12:0.2 16:0.5 22:0.33 27:0.14 29:0.2 30:0.33 33:0.17 34:0.33 35:0.5 36:0.2 37:0.17 38:0.5 39:0.33 40:0.17 45:0.33 47:0.5 48:0.25 49:0.33 50:0.4 51:0.25 53:0.25 54:0.25 61:0.25 62:1.0 63:0.25 64:0.5 65:0.5 66:0.5 67:0.33 68:0.67 69:0.5 70:0.33 71:0.33 72:0.2 73:0.17 76:0.25 77:1.0 78:0.2 80:0.17 81:1.0 82:0.25 83:0.5 84:0.5 88:1.0 94:0.25 95:0.5 97:1.0 99:0.5 100:0.5 101:0.33 105:0.5 108:0.2 111:0.5 116:0.5 117:0.33 119:0.2 120:0.25 124:0.25 128:0.5 129:1.0 130:0.5 131:0.33 132:1.0 137:1.0 138:0.62 140:1.0 141:1.0 142:1.0 143:1.0 144:1.0 145:0.33 
1.0 1.0 1.0 1.0 1.0 1.0 1.0 4:0.33 12:0.4 14:0.5 20:1.0 21:0.67 22:0.33 24:0.5 25:1.0 26:0.5 29:0.2 31:0.5 32:0.67 33:0.33 36:0.4 37:0.33 38:0.5 39:0.33 41:0.33 42:0.5 45:0.33 46:0.5 48:0.25 49:0.33 50:0.4 51:0.25 53:0.5 54:0.5 59:0.33 60:0.33 61:0.5 63:0.25 65:0.5 66:1.0 69:0.5 70:0.67 71:0.33 72:0.2 75:0.5 76:0.5 77:1.0 78:0.4 82:0.5 83:0.25 88:0.5 89:0.5 90:1.0 91:0.67 92:0.67 94:0.25 95:0.5 98:0.5 101:0.33 102:0.5 105:0.5 107:0.5 113:0.75 114:1.0 118:0.14 119:0.4 120:0.5 124:0.25 125:1.0 126:0.5 127:0.17 129:1.0 130:1.0 138:1.0 140:1.0 141:1.0 142:1.0 143:0.5 144:1.0 145:1.0 149:0.33 
1.0 1.0 1.0 1.0 1.0 1.0 1.0 4:0.33 12:0.4 14:0.5 20:1.0 21:0.67 22:0.33 24:0.5 25:1.0 26:0.5 29:0.2 31:0.5 32:0.67 33:0.33 36:0.4 37:0.33 38:0.5 39:0.33 41:0.33 42:0.5 45:0.33 46:0.5 48:0.25 49:0.33 50:0.4 51:0.25 53:0.5 54:0.5 59:0.33 60:0.33 61:0.5 63:0.25 65:0.5 66:1.0 69:0.5 70:0.67 71:0.33 72:0.2 75:0.5 76:0.5 77:1.0 78:0.4 82:0.5 83:0.25 88:0.5 89:0.5 90:1.0 91:0.67 92:0.67 94:0.25 95:0.5 98:0.5 101:0.33 102:0.5 105:0.5 107:0.5 113:0.75 114:1.0 118:0.14 119:0.4 120:0.5 124:0.25 125:1.0 126:0.5 127:0.17 129:1.0 130:1.0 138:1.0 140:1.0 141:1.0 142:1.0 143:0.5 144:1.0 145:1.0 149:0.33 
1.0 1.0 1.0 1.0 1.0 1.0 1.0 4:0.33 12:0.4 14:0.5 20:1.0 21:0.67 22:0.33 24:0.5 25:1.0 26:0.5 29:0.2 31:0.5 32:0.67 33:0.33 36:0.4 37:0.33 38:0.5 39:0.33 41:0.33 42:0.5 45:0.33 46:0.5 48:0.25 49:0.33 50:0.4 51:0.25 53:0.5 54:0.5 59:0.33 60:0.33 61:0.5 63:0.25 65:0.5 66:1.0 69:0.5 70:0.67 71:0.33 72:0.2 75:0.5 76:0.5 77:1.0 78:0.4 82:0.5 83:0.25 88:0.5 89:0.5 90:1.0 91:0.67 92:0.67 94:0.25 95:0.5 98:0.5 101:0.33 102:0.5 105:0.5 107:0.5 113:0.75 114:1.0 118:0.14 119:0.4 120:0.5 124:0.25 125:1.0 126:0.5 127:0.17 129:1.0 130:1.0 138:1.0 140:1.0 141:1.0 142:1.0 143:0.5 144:1.0 145:1.0 149:0.33 
-0.0 1.0 1.0 0.0 0.0 1.0 1.0 1:0.67 2:0.33 3:0.4 5:0.67 6:0.4 7:0.33 9:0.25 10:0.5 12:0.4 13:1.0 14:0.5 16:0.25 18:0.5 20:0.5 21:0.33 24:0.25 26:0.5 27:0.29 29:0.2 30:0.67 31:0.5 32:0.33 33:0.17 34:0.33 35:1.0 36:0.2 37:0.33 39:0.33 40:0.33 41:0.67 42:0.5 45:0.33 46:0.5 47:1.0 48:0.5 49:0.33 50:0.4 51:0.75 53:0.25 54:0.25 60:0.33 61:0.5 62:1.0 64:0.5 67:0.33 68:0.33 70:0.33 72:0.6 73:0.17 75:0.5 76:0.5 78:0.4 79:1.0 80:0.33 81:1.0 82:0.25 83:0.25 84:0.25 87:0.5 92:0.33 94:0.25 95:0.5 97:1.0 100:0.5 101:0.67 103:1.0 104:0.33 105:0.5 107:0.17 108:0.2 111:0.5 113:0.25 114:0.5 115:1.0 116:0.5 117:0.33 118:0.14 119:0.4 120:0.5 122:0.83 124:0.5 125:0.5 126:1.0 127:0.17 128:0.5 131:0.67 132:1.0 133:1.0 134:0.5 137:1.0 138:0.12 143:0.5 145:0.33 147:0.5 149:0.67 
-0.0 0.0 1.0 1.0 0.11491318596184773 1.0 1.0 1:0.33 3:0.2 4:0.33 5:0.67 6:0.2 7:0.33 10:1.0 13:1.0 18:0.5 20:0.5 22:0.33 23:0.5 27:0.14 30:0.67 31:0.5 35:0.5 38:0.5 40:0.17 41:0.67 42:1.0 43:0.2 44:1.0 46:0.5 47:0.5 51:0.5 64:0.5 66:0.5 72:0.4 74:1.0 79:1.0 80:0.17 87:1.0 90:0.5 91:0.33 92:0.33 98:0.5 102:0.5 104:0.67 106:0.25 107:0.17 109:1.0 113:0.25 115:1.0 121:1.0 122:0.83 123:1.0 128:0.5 131:0.67 133:1.0 134:1.0 135:1.0 136:1.0 138:0.12 147:1.0 149:0.67 
-0.29633482462877075 0.24180098073623732 0.6128196135975922 1.0 1.0 0.16427633244981682 1.0 1:0.33 3:0.2 4:0.33 5:0.67 6:0.2 7:0.33 10:1.0 12:0.2 13:1.0 14:0.5 18:0.5 20:1.0 21:0.33 22:0.33 23:0.5 24:0.25 26:0.5 27:0.14 29:0.2 30:0.67 31:1.0 32:0.33 33:0.17 35:0.5 36:0.2 37:0.17 38:0.5 40:0.17 41:1.0 42:1.0 43:0.2 44:1.0 45:0.17 46:1.0 47:0.5 48:0.25 50:0.2 51:0.75 53:0.25 54:0.25 60:0.33 61:0.25 64:0.5 66:0.5 70:0.33 72:0.6 74:1.0 75:0.5 76:0.25 78:0.2 79:1.0 80:0.17 82:0.25 87:1.0 90:0.5 91:0.33 92:0.67 98:0.5 101:0.33 102:0.5 103:1.0 104:0.67 105:0.5 106:0.25 107:0.33 109:1.0 113:0.5 114:0.5 115:1.0 118:0.14 119:0.2 120:0.25 121:1.0 122:0.5 123:1.0 124:0.25 125:0.5 126:1.0 127:0.17 128:0.5 131:0.67 133:1.0 134:1.0 135:1.0 136:1.0 138:0.25 145:0.33 147:1.0 149:1.0 
-1.0 1.0 1.0 1.0 0.0 1.0 1.0 1:0.67 2:0.33 3:0.4 5:0.67 6:0.4 7:0.33 9:0.25 10:0.5 12:0.4 13:1.0 14:0.5 16:0.25 18:0.5 20:0.5 21:0.33 24:0.25 26:0.5 27:0.29 29:0.2 30:0.67 31:0.5 32:0.33 33:0.17 34:0.33 35:1.0 36:0.2 37:0.33 39:0.33 40:0.33 41:0.67 42:0.5 45:0.33 46:0.5 47:1.0 48:0.5 49:0.33 50:0.4 51:0.75 53:0.25 54:0.25 60:0.33 61:0.5 62:1.0 64:0.5 67:0.33 68:0.33 70:0.33 72:0.6 73:0.17 75:0.5 76:0.5 78:0.4 79:1.0 80:0.33 81:1.0 82:0.25 83:0.25 84:0.25 87:0.5 92:0.33 94:0.25 95:0.5 97:1.0 100:0.5 101:0.67 103:1.0 104:0.33 105:0.5 107:0.17 108:0.2 111:0.5 113:0.25 114:0.5 115:1.0 116:0.5 117:0.33 118:0.14 119:0.4 120:0.5 122:0.83 124:0.5 125:0.5 126:1.0 127:0.17 128:0.5 131:0.67 132:1.0 133:1.0 134:0.5 137:1.0 138:0.12 143:0.5 145:0.33 147:0.5 149:0.67 
-0.0 0.0 1.0 1.0 1.0 1.0 1.0 1:0.33 3:0.2 4:0.33 5:0.67 6:0.2 7:0.33 10:1.0 13:1.0 18:0.5 20:0.5 22:0.33 23:0.5 27:0.14 30:0.67 31:0.5 35:0.5 38:0.5 40:0.17 41:0.67 42:1.0 43:0.2 44:1.0 46:0.5 47:0.5 51:0.5 64:0.5 66:0.5 72:0.4 74:1.0 79:1.0 80:0.17 87:1.0 90:0.5 91:0.33 92:0.33 98:0.5 102:0.5 104:0.67 106:0.25 107:0.17 109:1.0 113:0.25 115:1.0 121:1.0 122:0.83 123:1.0 128:0.5 131:0.67 133:1.0 134:1.0 135:1.0 136:1.0 138:0.12 147:1.0 149:0.67 
-0.8860400558354137 0.7581990192637627 0.5877210609022874 1.0 1.0 1.0 1.0 1:0.33 3:0.2 4:0.33 5:0.67 6:0.2 7:0.33 10:1.0 13:1.0 18:0.5 20:0.5 22:0.33 23:0.5 27:0.14 30:0.67 31:0.5 35:0.5 38:0.5 40:0.17 41:0.67 42:1.0 43:0.2 44:1.0 46:0.5 47:0.5 51:0.5 64:0.5 66:0.5 72:0.4 74:1.0 79:1.0 80:0.17 87:1.0 90:0.5 91:0.33 92:0.33 98:0.5 102:0.5 104:0.67 106:0.25 107:0.17 109:1.0 113:0.25 115:1.0 121:1.0 122:0.83 123:1.0 128:0.5 131:0.67 133:1.0 134:1.0 135:1.0 136:1.0 138:0.12 147:1.0 149:0.67 
-1.0 1.0 1.0 1.0 0.050567416796354805 1.0 1.0 1:0.67 2:0.33 3:0.4 5:0.67 6:0.4 7:0.33 9:0.25 10:0.5 12:0.2 13:1.0 16:0.25 18:0.5 27:0.29 30:0.67 34:0.33 35:1.0 37:0.17 39:0.33 40:0.33 41:0.33 42:0.5 45:0.17 47:1.0 48:0.25 49:0.33 50:0.2 51:0.5 61:0.25 62:1.0 64:0.5 67:0.33 68:0.33 72:0.4 73:0.17 76:0.25 78:0.2 79:1.0 80:0.33 81:1.0 83:0.25 84:0.25 87:0.5 94:0.25 95:0.5 97:1.0 100:0.5 101:0.33 104:0.33 108:0.2 111:0.5 115:1.0 116:0.5 117:0.33 119:0.2 120:0.25 122:0.17 124:0.25 128:0.5 131:0.67 132:1.0 133:1.0 134:0.5 137:1.0 143:0.5 147:0.5 149:0.33 
-0.8176251195358155 1.0 1.0 1.0 0.8345193972417975 1.0 1.0 1:0.67 2:0.33 3:0.4 5:0.67 6:0.4 7:0.33 9:0.25 10:0.5 12:0.4 13:1.0 14:0.5 16:0.25 18:0.5 20:0.5 21:0.33 24:0.25 26:0.5 27:0.29 29:0.2 30:0.67 31:0.5 32:0.33 33:0.17 34:0.33 35:1.0 36:0.2 37:0.33 39:0.33 40:0.33 41:0.67 42:0.5 45:0.33 46:0.5 47:1.0 48:0.5 49:0.33 50:0.4 51:0.75 53:0.25 54:0.25 60:0.33 61:0.5 62:1.0 64:0.5 67:0.33 68:0.33 70:0.33 72:0.6 73:0.17 75:0.5 76:0.5 78:0.4 79:1.0 80:0.33 81:1.0 82:0.25 83:0.25 84:0.25 87:0.5 92:0.33 94:0.25 95:0.5 97:1.0 100:0.5 101:0.67 103:1.0 104:0.33 105:0.5 107:0.17 108:0.2 111:0.5 113:0.25 114:0.5 115:1.0 116:0.5 117:0.33 118:0.14 119:0.4 120:0.5 122:0.83 124:0.5 125:0.5 126:1.0 127:0.17 128:0.5 131:0.67 132:1.0 133:1.0 134:0.5 137:1.0 138:0.12 143:0.5 145:0.33 147:0.5 149:0.67 
-1.0 1.0 1.0 1.0 1.0 1.0 1.0 1:0.33 2:0.33 3:0.2 5:0.67 6:0.2 7:0.67 9:0.25 10:0.5 12:0.4 14:0.5 16:0.25 20:0.5 21:0.33 23:0.5 24:0.25 26:0.5 27:0.14 29:0.2 30:0.67 31:1.0 32:0.33 33:0.17 34:0.33 35:0.5 36:0.2 37:0.33 39:0.33 40:0.17 41:0.67 43:0.2 44:1.0 45:0.33 46:1.0 47:0.5 48:0.5 49:0.33 50:0.4 51:0.75 53:0.25 54:0.25 60:0.33 61:0.5 62:1.0 64:1.0 67:0.33 68:0.33 70:0.33 72:0.6 73:0.17 74:1.0 75:0.5 76:0.5 78:0.4 80:0.17 81:1.0 82:0.25 83:0.25 84:0.25 87:0.5 92:0.33 94:0.25 95:0.5 97:1.0 100:0.5 101:0.67 103:1.0 104:0.33 105:0.5 106:0.25 107:0.17 108:0.2 109:1.0 111:0.5 113:0.25 114:0.5 116:0.5 117:0.33 118:0.14 119:0.4 120:0.5 121:1.0 122:0.33 123:1.0 124:0.5 125:0.5 126:1.0 127:0.17 128:1.0 131:0.67 132:1.0 134:0.5 135:1.0 136:1.0 137:1.0 138:0.12 143:0.5 145:0.33 147:0.5 149:0.67 
-1.0 -1.0 1.0 1.0 1.0 1.0 1.0 1:0.33 2:0.67 3:0.2 5:0.33 6:0.2 7:0.33 9:0.5 12:0.6 14:0.5 16:0.5 17:0.2 20:0.5 21:0.67 24:0.5 25:1.0 26:0.5 27:0.14 29:0.2 30:0.33 31:0.5 32:0.67 33:0.33 34:0.33 35:0.5 36:0.4 37:0.67 39:1.0 40:0.17 41:0.33 45:0.67 46:0.5 47:0.5 48:0.75 49:0.67 50:0.6 51:0.5 53:0.5 54:0.5 55:0.17 57:0.2 59:0.33 60:0.67 61:0.75 62:1.0 63:0.25 64:0.5 65:0.5 66:0.5 67:0.33 68:0.33 69:0.5 70:0.67 71:0.33 72:0.4 73:0.17 75:0.5 76:0.75 77:1.0 78:0.8 80:0.17 81:1.0 82:0.5 83:0.5 84:0.25 85:0.2 86:0.5 88:0.5 89:0.5 90:0.5 91:0.33 92:0.33 94:0.75 95:1.0 96:0.25 97:1.0 100:0.5 101:0.67 105:0.5 107:0.33 108:0.2 111:0.5 112:0.2 113:0.5 114:1.0 116:0.5 117:0.33 118:0.29 119:1.0 120:1.0 124:1.0 125:1.0 126:0.5 127:0.17 128:0.5 130:1.0 131:0.33 132:1.0 137:1.0 138:0.38 139:1.0 140:0.2 141:0.25 142:1.0 143:1.0 144:0.25 145:1.0 146:0.17 149:0.33 
-0.22338273367518255 -1.0 1.0 1.0 1.0 1.0 1.0 1:0.33 2:0.67 3:0.2 4:0.33 5:0.33 6:0.2 7:0.33 9:0.5 12:0.6 14:0.5 16:0.75 17:0.2 20:0.5 21:0.67 22:0.33 24:0.5 25:1.0 26:0.5 27:0.14 29:0.4 30:0.33 31:0.5 32:0.67 33:0.5 34:0.33 35:0.5 36:0.6 37:0.67 38:0.5 39:1.0 40:0.17 41:0.33 45:0.83 46:0.5 47:0.5 48:0.75 49:0.67 50:0.8 51:0.5 53:0.75 54:0.75 55:0.17 57:0.2 59:0.33 60:0.67 61:0.75 62:1.0 63:0.5 64:0.5 65:1.0 67:0.33 68:0.67 69:1.0 70:1.0 71:0.67 72:0.4 73:0.17 75:0.5 76:0.75 78:0.8 80:0.17 81:1.0 82:0.75 83:0.75 84:0.5 85:0.2 86:0.5 88:0.5 89:0.5 90:0.5 91:0.33 92:0.33 94:0.75 95:1.0 96:0.25 97:1.0 99:0.5 100:0.5 101:0.67 105:1.0 107:0.33 108:0.2 111:0.5 112:0.2 113:0.5 114:1.0 116:0.5 117:0.33 118:0.29 119:1.0 120:1.0 124:1.0 125:1.0 126:0.5 127:0.17 128:0.5 130:0.5 131:0.33 132:1.0 137:1.0 138:0.25 139:1.0 143:0.5 145:0.67 146:0.17 149:0.33 
-1.0 -1.0 1.0 1.0 1.0 1.0 1.0 2:0.33 9:0.25 16:0.25 17:0.2 37:0.17 39:0.33 45:0.17 48:0.25 55:0.17 57:0.2 60:0.33 78:0.2 85:0.2 86:0.5 94:0.25 96:0.25 112:0.2 118:0.14 119:0.4 120:0.25 124:0.5 139:1.0 146:0.17 
-0.7766172663248174 -1.0 1.0 1.0 1.0 1.0 1.0 1:0.33 2:0.67 3:0.4 5:0.33 6:0.4 7:0.67 8:1.0 9:0.5 12:0.6 14:0.5 15:0.5 16:0.5 17:0.2 18:0.5 19:0.5 20:0.5 21:0.67 23:0.5 24:0.5 25:1.0 26:1.0 27:0.29 29:0.2 30:0.33 31:0.5 32:0.67 33:0.33 34:0.67 35:0.5 36:0.4 37:0.67 39:1.0 40:0.33 41:0.33 45:0.67 46:0.5 47:0.5 48:0.75 49:0.67 50:0.6 51:0.5 52:1.0 53:0.5 54:0.5 55:0.17 57:0.2 59:0.33 60:0.67 61:0.75 62:1.0 63:0.25 64:0.5 65:0.5 66:0.5 67:0.33 68:0.33 69:0.5 70:0.67 71:0.33 72:0.6 73:0.33 75:0.5 76:0.75 77:1.0 78:0.8 80:0.33 81:1.0 82:0.5 83:0.5 84:0.25 85:0.2 86:0.5 88:0.5 89:0.5 90:0.5 91:0.33 92:0.33 94:0.75 95:1.0 96:0.25 97:1.0 100:0.5 101:0.67 104:0.33 105:0.5 107:0.33 108:0.4 110:0.5 111:0.5 112:0.2 113:0.5 114:1.0 116:0.5 117:0.67 118:0.29 119:1.0 120:1.0 124:1.0 125:1.0 126:0.5 127:0.17 128:0.5 130:1.0 131:0.33 132:1.0 137:1.0 138:0.38 139:1.0 140:0.2 141:0.25 142:1.0 143:1.0 144:0.25 145:1.0 146:0.17 149:0.33 
-1.0 -1.0 1.0 0.6461479468702311 0.0 1.0 1.0 1:0.33 2:0.67 3:0.2 4:0.33 5:0.33 6:0.2 7:0.33 9:0.5 12:0.6 14:0.5 16:0.75 17:0.2 20:0.5 21:0.67 22:0.33 24:0.5 25:1.0 26:0.5 27:0.14 29:0.4 30:0.33 31:0.5 32:0.67 33:0.5 34:0.33 35:0.5 36:0.6 37:0.67 38:0.5 39:1.0 40:0.17 41:0.33 45:0.83 46:0.5 47:0.5 48:0.75 49:0.67 50:0.8 51:0.5 53:0.75 54:0.75 55:0.17 57:0.2 59:0.33 60:0.67 61:0.75 62:1.0 63:0.5 64:0.5 65:1.0 66:0.5 67:0.33 68:0.67 69:1.0 70:1.0 71:0.67 72:0.4 73:0.17 75:0.5 76:0.75 77:1.0 78:0.8 80:0.17 81:1.0 82:0.75 83:0.75 84:0.5 85:0.2 86:0.5 88:1.0 89:0.5 90:0.5 91:0.33 92:0.33 94:0.75 95:1.0 96:0.25 97:1.0 99:0.5 100:0.5 101:0.67 105:1.0 107:0.33 108:0.2 111:0.5 112:0.2 113:0.5 114:1.0 116:0.5 117:0.33 118:0.29 119:1.0 120:1.0 124:1.0 125:1.0 126:0.5 127:0.17 128:0.5 130:1.0 131:0.33 132:1.0 137:1.0 138:0.38 139:1.0 140:0.2 141:0.25 142:1.0 143:1.0 144:0.25 145:1.0 146:0.17 149:0.33 
-1.0 -1.0 1.0 1.0 1.0 1.0 1.0 1:0.33 2:0.33 3:0.2 5:0.33 6:0.2 7:0.33 9:0.25 12:0.2 16:0.25 27:0.14 30:0.33 34:0.33 35:0.5 37:0.17 39:0.33 40:0.17 45:0.17 47:0.5 48:0.25 49:0.33 50:0.2 51:0.25 61:0.25 62:1.0 64:0.5 66:0.5 67:0.33 68:0.33 72:0.2 73:0.17 76:0.25 77:1.0 78:0.2 80:0.17 81:1.0 83:0.25 84:0.25 88:0.5 94:0.25 95:0.5 97:1.0 100:0.5 101:0.33 108:0.2 111:0.5 116:0.5 117:0.33 119:0.2 120:0.25 124:0.25 128:0.5 130:0.5 131:0.33 132:1.0 137:1.0 138:0.12 140:0.2 141:0.25 142:1.0 143:1.0 144:0.25 145:0.33 
-0.0 -1.0 -0.16233479592945746 1.0 1.0 1.0 1.0 1:0.33 2:0.67 3:0.2 5:0.67 6:0.2 7:0.67 9:0.5 10:0.5 12:0.2 14:0.5 16:0.5 17:1.0 23:0.5 27:0.14 30:0.67 31:0.5 34:0.33 35:0.5 37:0.33 39:0.67 40:0.17 41:0.33 43:0.2 44:1.0 45:0.33 46:0.5 47:0.5 48:0.5 49:0.33 50:0.2 51:0.5 55:1.0 56:1.0 57:1.0 60:0.33 61:0.25 62:1.0 64:1.0 67:0.33 68:0.33 72:0.4 73:0.17 74:1.0 76:0.25 78:0.4 80:0.17 81:1.0 83:0.25 84:0.25 85:1.0 86:0.5 87:0.5 94:0.5 95:0.5 96:1.0 97:1.0 100:0.5 101:0.33 103:1.0 104:0.33 106:0.25 108:0.2 109:1.0 111:0.5 112:1.0 116:1.0 117:0.67 118:0.86 119:0.4 120:0.25 121:1.0 122:0.33 123:1.0 124:0.5 126:0.5 127:0.83 128:1.0 131:0.67 132:1.0 134:0.5 135:1.0 136:1.0 137:1.0 139:0.5 143:0.5 146:1.0 147:0.5 148:1.0 149:0.33 
-1.0 -0.8325757165003236 -1.0 1.0 0.3211424902878904 1.0 1.0 1:0.33 2:0.67 3:0.2 4:0.33 5:0.33 6:0.2 7:0.33 9:0.5 12:0.4 14:1.0 16:0.75 17:1.0 20:0.5 21:0.33 22:0.33 24:0.25 26:0.5 27:0.14 29:0.4 30:0.33 31:0.5 32:0.33 33:0.33 34:0.33 35:0.5 36:0.4 37:0.5 38:0.5 39:0.67 40:0.17 41:0.33 45:0.67 46:0.5 47:0.5 48:0.75 49:0.33 50:0.6 51:0.5 53:0.5 54:0.5 55:1.0 56:1.0 57:1.0 60:0.67 61:0.5 62:1.0 63:0.25 64:0.5 65:0.5 66:0.5 67:0.33 68:0.67 69:0.5 70:0.67 71:0.33 72:0.4 73:0.17 75:0.5 76:0.5 77:1.0 78:0.6 80:0.17 81:1.0 82:0.5 83:0.5 84:0.5 85:1.0 86:0.5 88:1.0 92:0.33 94:0.5 95:0.5 96:1.0 97:1.0 99:0.5 100:0.5 101:0.67 105:1.0 107:0.17 108:0.2 111:0.5 112:1.0 113:0.25 114:0.5 116:1.0 117:0.67 118:1.0 119:0.6 120:0.5 124:0.75 125:0.5 126:0.5 127:1.0 128:0.5 129:1.0 130:0.5 131:0.33 132:1.0 137:1.0 138:0.75 139:0.5 140:1.0 141:1.0 142:1.0 143:1.0 144:1.0 145:0.67 146:1.0 148:1.0 149:0.33 
-0.0 -1.0 -0.11523790821356401 1.0 1.0 0.4457491987227127 1.0 1:1.0 2:0.67 3:0.4 5:1.0 6:0.4 7:0.67 9:0.5 10:1.0 12:0.2 13:1.0 14:0.5 16:0.5 17:1.0 18:0.5 19:0.5 23:0.5 27:0.29 30:1.0 31:0.5 34:0.67 35:1.0 37:0.33 39:0.67 40:0.33 41:0.67 42:0.5 43:0.2 44:1.0 45:0.33 46:0.5 47:1.0 48:0.5 49:0.33 50:0.2 51:0.75 55:1.0 56:1.0 57:1.0 60:0.33 61:0.25 62:1.0 64:1.0 67:0.33 68:0.33 72:0.6 73:0.17 74:1.0 76:0.25 78:0.4 79:1.0 80:0.33 81:1.0 83:0.25 84:0.25 85:1.0 86:0.5 87:1.0 93:1.0 94:0.5 95:0.5 96:1.0 97:1.0 98:0.5 100:1.0 101:0.33 103:1.0 104:0.67 106:0.25 108:0.2 109:1.0 111:0.5 112:1.0 115:1.0 116:1.0 117:0.67 118:0.86 119:0.4 120:0.25 121:1.0 122:1.0 123:1.0 124:0.5 126:0.5 127:0.83 128:1.0 131:1.0 132:1.0 133:1.0 134:1.0 135:1.0 136:1.0 137:1.0 139:0.5 143:0.5 146:1.0 147:1.0 148:1.0 149:0.67 
-0.0 -0.0 -0.0 0.0 0.0 0.0 0.5988716277380185 2:0.33 9:0.25 12:0.2 14:1.0 16:0.25 17:1.0 20:0.5 21:0.33 24:0.25 26:0.5 29:0.2 31:0.5 32:0.33 33:0.17 36:0.2 37:0.33 39:0.33 41:0.33 45:0.33 46:0.5 48:0.5 50:0.2 51:0.25 53:0.25 54:0.25 55:1.0 56:1.0 57:1.0 60:0.67 61:0.25 70:0.33 72:0.2 75:0.5 76:0.25 78:0.4 82:0.25 85:1.0 86:0.5 92:0.33 94:0.25 96:1.0 101:0.33 105:0.5 107:0.17 112:1.0 113:0.25 114:0.5 116:0.5 117:0.33 118:1.0 119:0.4 120:0.25 124:0.5 125:0.5 126:0.5 127:1.0 138:0.12 139:0.5 145:0.33 146:1.0 148:1.0 149:0.33 
-1.0 -1.0 -1.0 1.0 1.0 1.0 1.0 1:0.33 2:0.33 3:0.4 5:0.33 6:0.4 7:0.67 8:1.0 9:0.25 12:0.2 14:0.5 15:0.5 16:0.25 17:0.2 18:0.5 19:0.5 23:0.5 26:0.5 27:0.29 30:0.33 34:0.67 35:0.5 37:0.17 39:0.33 40:0.33 45:0.17 47:0.5 48:0.25 49:0.33 50:0.2 51:0.25 52:1.0 55:0.17 56:1.0 57:0.2 61:0.25 62:1.0 64:0.5 67:0.33 68:0.33 72:0.4 73:0.33 76:0.25 78:0.2 80:0.33 81:1.0 83:0.25 84:0.25 94:0.25 95:0.5 96:0.25 97:1.0 100:0.5 101:0.33 104:0.33 108:0.4 110:0.5 111:0.5 112:0.2 116:1.0 117:1.0 118:0.14 119:0.2 120:0.25 124:0.25 127:0.17 128:0.5 131:0.33 132:1.0 137:1.0 143:0.5 146:0.17 148:1.0 
-0.0 -0.004186254132988485 -1.0 0.08973833201022775 0.0 1.0 1.0 1:0.33 2:0.67 3:0.2 5:0.33 6:0.2 7:0.33 9:0.5 12:0.4 14:0.5 16:0.5 17:1.0 21:0.33 24:0.25 25:1.0 27:0.14 30:0.33 32:0.33 33:0.17 34:0.33 35:0.5 36:0.2 37:0.5 39:1.0 40:0.17 45:0.5 47:0.5 48:0.5 49:0.67 50:0.4 51:0.25 53:0.25 54:0.25 55:1.0 56:1.0 57:1.0 59:0.33 60:0.33 61:0.5 62:1.0 63:0.25 64:0.5 65:0.5 67:0.33 68:0.33 69:0.5 70:0.33 71:0.33 72:0.2 73:0.17 76:0.5 78:0.6 80:0.17 81:1.0 82:0.25 83:0.5 84:0.25 85:1.0 86:0.5 89:0.5 90:0.5 91:0.33 94:0.75 95:1.0 96:1.0 97:1.0 100:0.5 101:0.33 107:0.17 108:0.2 111:0.5 112:1.0 113:0.25 114:0.5 116:1.0 117:0.67 118:0.86 119:0.6 120:0.5 124:0.5 125:0.5 127:0.83 128:0.5 130:0.5 131:0.33 132:1.0 137:1.0 138:0.12 139:0.5 143:0.5 145:0.33 146:1.0 148:1.0 
-0.0 -0.0 -0.0 0.0 0.0 0.12735416201985447 1.0 2:0.33 9:0.25 12:0.2 14:1.0 16:0.25 17:1.0 20:0.5 21:0.33 24:0.25 26:0.5 29:0.2 31:0.5 32:0.33 33:0.17 36:0.2 37:0.33 39:0.33 41:0.33 45:0.33 46:0.5 48:0.5 50:0.2 51:0.25 53:0.25 54:0.25 55:1.0 56:1.0 57:1.0 60:0.67 61:0.25 70:0.33 72:0.2 75:0.5 76:0.25 78:0.4 82:0.25 85:1.0 86:0.5 92:0.33 94:0.25 96:1.0 101:0.33 105:0.5 107:0.17 112:1.0 113:0.25 114:0.5 116:0.5 117:0.33 118:1.0 119:0.4 120:0.25 124:0.5 125:0.5 126:0.5 127:1.0 138:0.12 139:0.5 145:0.33 146:1.0 148:1.0 149:0.33 
-0.954740655861941 -1.0 -1.0 1.0 0.0 1.0 1.0 1:0.33 2:0.67 3:0.2 5:0.33 6:0.2 7:0.33 9:0.5 12:0.4 14:0.5 16:0.5 17:1.0 21:0.33 24:0.25 25:1.0 27:0.14 30:0.33 32:0.33 33:0.17 34:0.33 35:0.5 36:0.2 37:0.5 39:1.0 40:0.17 45:0.5 47:0.5 48:0.5 49:0.67 50:0.4 51:0.25 53:0.25 54:0.25 55:1.0 56:1.0 57:1.0 59:0.33 60:0.33 61:0.5 62:1.0 63:0.25 64:0.5 65:0.5 67:0.33 68:0.33 69:0.5 70:0.33 71:0.33 72:0.2 73:0.17 76:0.5 78:0.6 80:0.17 81:1.0 82:0.25 83:0.5 84:0.25 85:1.0 86:0.5 89:0.5 90:0.5 91:0.33 94:0.75 95:1.0 96:1.0 97:1.0 100:0.5 101:0.33 107:0.17 108:0.2 111:0.5 112:1.0 113:0.25 114:0.5 116:1.0 117:0.67 118:0.86 119:0.6 120:0.5 124:0.5 125:0.5 127:0.83 128:0.5 130:0.5 131:0.33 132:1.0 137:1.0 138:0.12 139:0.5 143:0.5 145:0.33 146:1.0 148:1.0 
-1.0 -1.0 -0.49648198409786826 1.0 1.0 1.0 1.0 1:0.33 3:0.2 5:0.33 6:0.2 10:0.5 12:0.2 13:1.0 14:1.0 17:0.8 18:0.5 20:0.5 21:0.33 24:0.25 26:0.5 27:0.14 29:0.2 30:0.33 31:0.5 32:0.33 33:0.17 35:0.5 36:0.2 37:0.17 40:0.17 41:0.67 42:0.5 45:0.17 46:0.5 47:0.5 48:0.25 50:0.2 51:0.5 53:0.25 54:0.25 55:0.83 56:1.0 57:0.8 60:0.33 61:0.25 70:0.33 72:0.4 75:0.5 76:0.25 78:0.2 79:1.0 80:0.17 82:0.25 85:0.8 87:0.5 92:0.33 96:0.75 101:0.33 104:0.33 105:0.5 107:0.17 112:0.8 113:0.25 114:0.5 115:1.0 116:0.5 117:0.33 118:0.86 119:0.2 120:0.25 122:0.17 124:0.25 125:0.5 126:0.5 127:1.0 131:0.33 133:1.0 134:0.5 138:0.12 145:0.33 146:0.83 147:0.5 148:1.0 149:0.67 
-0.0 -0.3637787038665674 -0.0 0.0 0.0 1.0 1.0 2:0.33 9:0.25 12:0.2 14:1.0 16:0.25 17:1.0 20:0.5 21:0.33 24:0.25 26:0.5 29:0.2 31:0.5 32:0.33 33:0.17 36:0.2 37:0.33 39:0.33 41:0.33 45:0.33 46:0.5 48:0.5 50:0.2 51:0.25 53:0.25 54:0.25 55:1.0 56:1.0 57:1.0 60:0.67 61:0.25 70:0.33 72:0.2 75:0.5 76:0.25 78:0.4 82:0.25 85:1.0 86:0.5 92:0.33 94:0.25 96:1.0 101:0.33 105:0.5 107:0.17 112:1.0 113:0.25 114:0.5 116:0.5 117:0.33 118:1.0 119:0.4 120:0.25 124:0.5 125:0.5 126:0.5 127:1.0 138:0.12 139:0.5 145:0.33 146:1.0 148:1.0 149:0.33 
-0.04525934413805895 -1.0 -1.0 0.0 0.0 1.0 1.0 2:0.33 9:0.25 12:0.2 14:1.0 16:0.25 17:1.0 20:0.5 21:0.33 24:0.25 26:0.5 29:0.2 31:0.5 32:0.33 33:0.17 36:0.2 37:0.33 39:0.33 41:0.33 45:0.33 46:0.5 48:0.5 50:0.2 51:0.25 53:0.25 54:0.25 55:1.0 56:1.0 57:1.0 60:0.67 61:0.25 70:0.33 72:0.2 75:0.5 76:0.25 78:0.4 82:0.25 85:1.0 86:0.5 92:0.33 94:0.25 96:1.0 101:0.33 105:0.5 107:0.17 112:1.0 113:0.25 114:0.5 116:0.5 117:0.33 118:1.0 119:0.4 120:0.25 124:0.5 125:0.5 126:0.5 127:1.0 138:0.12 139:0.5 145:0.33 146:1.0 148:1.0 149:0.33 
-1.0 -1.0 -0.22594531175911023 0.9589349975542749 0.6788575097121097 0.9949891497949896 0.9739320032478992 2:0.33 9:0.25 12:0.2 14:1.0 16:0.25 17:1.0 20:0.5 21:0.33 24:0.25 26:0.5 29:0.2 31:0.5 32:0.33 33:0.17 36:0.2 37:0.33 39:0.33 41:0.33 45:0.33 46:0.5 48:0.5 50:0.2 51:0.25 53:0.25 54:0.25 55:1.0 56:1.0 57:1.0 60:0.67 61:0.25 70:0.33 72:0.2 75:0.5 76:0.25 78:0.4 82:0.25 85:1.0 86:0.5 92:0.33 94:0.25 96:1.0 101:0.33 105:0.5 107:0.17 112:1.0 113:0.25 114:0.5 116:0.5 117:0.33 118:1.0 119:0.4 120:0.25 124:0.5 125:0.5 126:0.5 127:1.0 138:0.12 139:0.5 145:0.33 146:1.0 148:1.0 149:0.33 
-1.0 -1.0 -1.0 -1.0 1.0 1.0 1.0 1:0.33 3:0.4 4:0.67 5:0.67 6:0.4 7:0.67 8:1.0 10:1.0 12:0.2 13:1.0 14:0.5 15:0.5 16:0.25 18:1.0 19:0.5 20:1.0 21:0.33 22:0.67 23:1.0 24:0.25 26:1.0 27:0.29 29:0.4 30:0.67 31:1.0 32:0.33 33:0.33 34:0.33 35:0.5 36:0.4 37:0.17 38:1.0 40:0.33 41:1.0 42:1.0 43:0.2 44:1.0 45:0.33 46:1.0 47:0.5 48:0.25 50:0.4 51:0.75 52:1.0 53:0.5 54:0.5 60:0.33 61:0.25 63:0.25 64:0.5 65:0.5 66:1.0 68:0.33 69:0.5 70:0.67 71:0.33 72:0.8 73:0.17 74:1.0 75:0.5 76:0.25 77:1.0 78:0.2 79:1.0 80:0.33 82:0.5 83:0.25 84:0.25 87:1.0 88:1.0 90:0.5 91:0.33 92:0.67 98:0.5 99:0.5 101:0.33 102:0.5 103:1.0 104:1.0 105:1.0 106:0.25 107:0.33 108:0.2 109:1.0 110:0.5 113:0.5 114:0.5 115:1.0 117:0.33 118:0.14 119:0.2 120:0.25 121:0.25 122:1.0 123:1.0 124:0.25 125:0.5 126:1.0 127:0.17 128:0.5 129:1.0 130:0.5 131:0.67 133:1.0 134:1.0 135:0.33 136:1.0 138:0.88 140:1.0 141:1.0 142:1.0 143:0.5 144:1.0 145:0.67 147:1.0 149:1.0 
-1.0 -1.0 -1.0 -1.0 0.31025798206873223 1.0 1.0 1:0.67 2:0.33 3:0.4 5:1.0 6:0.4 7:0.67 9:0.25 10:1.0 12:0.2 13:1.0 16:0.25 18:0.5 23:0.5 27:0.29 30:1.0 31:0.5 34:0.33 35:1.0 37:0.17 39:0.33 40:0.33 41:0.67 42:0.5 43:0.2 44:1.0 45:0.17 46:0.5 47:1.0 48:0.25 49:0.33 50:0.2 51:0.75 61:0.25 62:1.0 64:1.0 67:0.33 68:0.33 72:0.6 73:0.17 74:1.0 76:0.25 78:0.2 79:1.0 80:0.33 81:1.0 83:0.25 84:0.25 87:1.0 94:0.25 95:0.5 97:1.0 100:0.5 101:0.33 103:1.0 104:0.67 106:0.25 108:0.2 109:1.0 111:0.5 115:1.0 116:0.5 117:0.33 119:0.2 120:0.25 121:0.25 122:1.0 123:1.0 124:0.25 126:0.5 128:1.0 131:1.0 132:1.0 133:1.0 134:1.0 135:0.33 136:1.0 137:1.0 143:0.5 147:1.0 149:0.67 
-1.0 -1.0 -0.0 -1.0 0.7018790633475854 1.0 1.0 1:0.33 3:0.6 4:0.33 5:0.67 6:0.6 7:0.33 10:1.0 13:1.0 18:0.5 20:0.5 22:0.33 23:0.5 27:0.71 30:0.67 31:0.5 35:0.5 38:0.5 40:0.67 41:0.67 42:1.0 43:0.2 44:1.0 46:0.5 47:0.5 51:0.5 64:0.5 66:0.5 72:0.4 73:0.67 74:1.0 79:1.0 80:0.67 87:1.0 90:0.5 91:0.33 92:0.33 98:0.5 102:0.5 104:0.67 106:0.25 107:0.17 108:0.6 109:1.0 113:0.25 115:1.0 121:0.25 122:0.33 123:1.0 128:0.5 131:0.67 133:1.0 134:1.0 135:0.33 136:1.0 138:0.12 147:1.0 149:0.67 
-1.0 -1.0 -1.0 -1.0 0.45344133210078075 1.0 1.0 1:0.33 2:0.33 3:0.4 5:0.67 6:0.4 7:1.0 8:1.0 9:0.25 10:0.5 12:0.2 15:0.5 16:0.25 18:0.5 19:0.5 23:1.0 26:0.5 27:0.29 30:0.67 31:0.5 34:0.67 35:0.5 37:0.17 39:0.33 40:0.33 41:0.33 43:0.2 44:1.0 45:0.17 46:0.5 47:0.5 48:0.25 49:0.33 50:0.2 51:0.5 52:1.0 61:0.25 62:1.0 64:1.0 67:0.33 68:0.33 72:0.6 73:0.33 74:1.0 76:0.25 78:0.2 80:0.33 81:1.0 83:0.25 84:0.25 87:0.5 94:0.25 95:0.5 97:1.0 100:0.5 101:0.33 104:0.67 106:0.25 108:0.4 109:1.0 110:0.5 111:0.5 116:0.5 117:0.67 119:0.2 120:0.25 121:0.25 122:0.17 123:1.0 124:0.25 128:1.0 131:0.67 132:1.0 134:0.5 135:0.33 136:1.0 137:1.0 143:0.5 147:0.5 149:0.33 
-0.0 -1.0 -0.0 -0.719318771098543 1.0 0.3554357961678144 1.0 1:1.0 2:0.33 3:0.4 5:1.0 6:0.4 7:0.67 9:0.25 10:1.0 12:0.2 13:1.0 16:0.25 18:0.5 19:0.5 23:0.5 27:0.29 30:1.0 31:0.5 34:0.67 35:1.0 37:0.17 39:0.33 40:0.33 41:0.67 42:0.5 43:0.2 44:1.0 45:0.17 46:0.5 47:1.0 48:0.25 49:0.33 50:0.2 51:0.75 61:0.25 62:1.0 64:1.0 67:0.33 68:0.33 72:0.6 73:0.17 74:1.0 76:0.25 78:0.2 79:1.0 80:0.33 81:1.0 83:0.25 84:0.25 87:1.0 93:1.0 94:0.25 95:0.5 97:1.0 98:0.5 100:1.0 101:0.33 103:1.0 104:0.67 106:0.25 108:0.2 109:1.0 111:0.5 115:1.0 116:0.5 117:0.33 119:0.2 120:0.25 121:0.25 122:1.0 123:1.0 124:0.25 126:0.5 128:1.0 131:1.0 132:1.0 133:1.0 134:1.0 135:0.33 136:1.0 137:1.0 143:0.5 147:1.0 149:0.67 
-1.0 -1.0 -0.9243725521554671 -0.33591773196482533 0.966615226400381 1.0 1.0 1:0.33 3:0.6 4:0.33 5:0.67 6:0.6 7:0.33 10:1.0 13:1.0 18:0.5 20:0.5 22:0.33 23:0.5 27:0.71 30:0.67 31:0.5 35:0.5 38:0.5 40:0.67 41:0.67 42:1.0 43:0.2 44:1.0 46:0.5 47:0.5 51:0.5 64:0.5 66:0.5 72:0.4 73:0.67 74:1.0 79:1.0 80:0.67 87:1.0 90:0.5 91:0.33 92:0.33 98:0.5 102:0.5 104:0.67 106:0.25 107:0.17 108:0.6 109:1.0 113:0.25 115:1.0 121:0.25 122:0.33 123:1.0 128:0.5 131:0.67 133:1.0 134:1.0 135:0.33 136:1.0 138:0.12 147:1.0 149:0.67 
-0.0 -1.0 -1.0 -1.0 0.0 1.0 1.0 1:0.67 2:0.67 3:0.6 5:1.0 6:0.6 7:1.0 8:1.0 9:0.5 10:1.0 12:0.2 13:1.0 15:0.5 16:0.5 17:0.2 18:1.0 19:0.5 23:1.0 26:0.5 27:0.43 30:1.0 31:0.5 34:0.67 35:1.0 37:0.33 39:0.67 40:0.5 41:0.67 42:0.5 43:0.2 44:1.0 45:0.33 46:0.5 47:1.0 48:0.5 49:0.33 50:0.2 51:0.75 52:1.0 55:0.17 57:0.2 60:0.33 61:0.25 62:1.0 64:1.0 67:0.33 68:0.33 72:0.8 73:0.33 74:1.0 76:0.25 78:0.4 79:1.0 80:0.5 81:1.0 83:0.25 84:0.25 85:0.2 86:0.5 87:1.0 94:0.5 95:0.5 96:0.25 97:1.0 100:0.5 101:0.33 104:1.0 106:0.25 108:0.4 109:1.0 110:0.5 111:0.5 112:0.2 115:1.0 116:0.5 117:0.67 118:0.14 119:0.4 120:0.25 121:0.25 122:0.33 123:1.0 124:0.5 128:1.0 131:1.0 132:1.0 133:1.0 134:1.0 135:0.33 136:1.0 137:1.0 139:0.5 143:0.5 146:0.17 147:1.0 149:0.67 
-0.0 -1.0 -0.721775394714764 -0.9934368265011343 0.5678063960825206 0.9360067479758825 1.0 1:1.0 2:0.33 3:0.4 5:1.0 6:0.4 7:0.67 9:0.25 10:1.0 12:0.2 13:1.0 16:0.25 18:0.5 19:0.5 23:0.5 27:0.29 30:1.0 31:0.5 34:0.67 35:1.0 37:0.17 39:0.33 40:0.33 41:0.67 42:0.5 43:0.2 44:1.0 45:0.17 46:0.5 47:1.0 48:0.25 49:0.33 50:0.2 51:0.75 61:0.25 62:1.0 64:1.0 67:0.33 68:0.33 72:0.6 73:0.17 74:1.0 76:0.25 78:0.2 79:1.0 80:0.33 81:1.0 83:0.25 84:0.25 87:1.0 93:1.0 94:0.25 95:0.5 97:1.0 98:0.5 100:1.0 101:0.33 103:1.0 104:0.67 106:0.25 108:0.2 109:1.0 111:0.5 115:1.0 116:0.5 117:0.33 119:0.2 120:0.25 121:0.25 122:1.0 123:1.0 124:0.25 126:0.5 128:1.0 131:1.0 132:1.0 133:1.0 134:1.0 135:0.33 136:1.0 137:1.0 143:0.5 147:1.0 149:0.67 
-1.0 -1.0 -1.0 -1.0 -1.0 1.0 1.0 1:0.33 3:0.2 4:0.33 5:0.67 6:0.2 7:0.33 10:1.0 13:1.0 18:0.5 20:0.5 22:0.33 23:0.5 27:0.14 30:0.67 31:0.5 35:0.5 38:0.5 40:0.17 41:0.67 42:1.0 43:0.2 44:1.0 46:0.5 47:0.5 51:0.5 64:0.5 66:0.5 72:0.4 74:1.0 79:1.0 80:0.17 87:1.0 90:0.5 91:0.33 92:0.33 98:0.5 102:0.5 104:0.67 106:0.25 107:0.17 109:1.0 113:0.25 115:1.0 121:1.0 122:0.83 123:1.0 128:0.5 131:0.67 133:1.0 134:1.0 135:1.0 136:1.0 138:0.12 147:1.0 149:0.67 
-1.0 -1.0 -1.0 -1.0 -1.0 1.0 1.0 5:0.33 7:0.33 10:0.5 23:0.5 24:0.25 29:0.2 30:0.33 31:0.5 33:0.17 36:0.2 41:0.33 43:0.2 44:1.0 46:0.5 51:0.25 59:0.33 63:0.25 64:0.5 72:0.2 74:1.0 87:0.5 104:0.33 106:0.25 107:0.17 109:1.0 121:0.25 122:0.17 123:1.0 128:0.5 131:0.33 134:0.5 135:0.33 136:1.0 147:0.5 149:0.33 
-1.0 -1.0 -1.0 -1.0 -1.0 1.0 1.0 1:1.0 2:0.33 3:0.4 5:1.0 6:0.4 7:0.67 9:0.25 10:1.0 12:0.4 13:1.0 14:0.5 16:0.25 18:0.5 19:0.5 20:0.5 21:0.33 23:0.5 24:0.25 26:0.5 27:0.29 28:0.75 29:0.2 30:1.0 31:1.0 32:0.33 33:0.17 34:0.67 35:1.0 36:0.2 37:0.33 39:0.33 40:0.33 41:1.0 42:0.5 43:0.8 44:1.0 45:0.33 46:1.0 47:1.0 48:0.5 49:0.33 50:0.4 51:1.0 53:0.25 54:0.25 60:0.33 61:0.5 62:1.0 64:1.0 67:0.33 68:0.33 70:0.33 72:0.8 73:0.17 74:1.0 75:0.5 76:0.5 78:0.4 79:1.0 80:0.33 81:1.0 82:0.25 83:0.25 84:0.25 87:1.0 92:0.33 93:1.0 94:0.25 95:0.5 97:1.0 98:0.5 100:1.0 101:0.67 104:0.67 105:0.5 106:0.75 107:0.17 108:0.2 109:1.0 111:0.5 113:0.25 114:0.5 115:1.0 116:0.5 117:0.33 118:0.14 119:0.4 120:0.5 121:0.25 122:0.33 123:1.0 124:0.5 125:0.5 126:0.5 127:0.17 128:1.0 131:1.0 132:1.0 133:1.0 134:1.0 135:0.33 136:1.0 137:1.0 138:0.12 143:0.5 145:0.33 147:1.0 149:1.0 
-1.0 -1.0 -1.0 -1.0 -1.0 1.0 1.0 1:0.33 3:0.2 4:0.33 5:0.67 6:0.2 7:0.33 10:1.0 12:0.2 13:1.0 14:0.5 18:0.5 20:1.0 21:0.33 22:0.33 23:0.5 24:0.25 26:0.5 27:0.14 29:0.2 30:0.67 31:1.0 32:0.33 33:0.17 35:0.5 36:0.2 37:0.17 38:0.5 40:0.17 41:1.0 42:1.0 43:0.2 44:1.0 45:0.17 46:1.0 47:0.5 48:0.25 50:0.2 51:0.75 53:0.25 54:0.25 60:0.33 61:0.25 64:0.5 66:1.0 70:0.33 72:0.6 74:1.0 75:0.5 76:0.25 77:1.0 78:0.2 79:1.0 80:0.17 82:0.25 87:1.0 88:0.5 90:0.5 91:0.33 92:0.67 98:0.5 101:0.33 102:0.5 103:1.0 104:0.67 105:0.5 106:0.25 107:0.33 109:1.0 113:0.5 114:0.5 115:1.0 118:0.14 119:0.2 120:0.25 121:1.0 122:1.0 123:1.0 124:0.25 125:0.5 126:1.0 127:0.17 128:0.5 130:0.5 131:0.67 133:1.0 134:1.0 135:1.0 136:1.0 138:0.38 140:0.2 141:0.25 142:1.0 143:0.5 144:0.25 145:0.67 147:1.0 149:1.0 
-1.0 -1.0 -1.0 -1.0 -1.0 1.0 1.0 1:1.0 2:0.67 3:0.4 5:1.0 6:0.4 7:0.67 9:0.5 10:1.0 12:0.4 13:1.0 14:0.5 16:0.5 17:0.2 18:0.5 19:0.5 20:0.5 21:0.33 23:0.5 24:0.25 26:0.5 27:0.29 29:0.2 30:1.0 31:1.0 32:0.33 33:0.17 34:0.67 35:1.0 36:0.2 37:0.5 39:0.67 40:0.33 41:1.0 42:0.5 43:0.2 44:1.0 45:0.5 46:1.0 47:1.0 48:0.75 49:0.33 50:0.4 51:1.0 53:0.25 54:0.25 55:0.17 57:0.2 60:0.67 61:0.5 62:1.0 64:1.0 66:0.5 67:0.33 68:0.33 70:0.33 72:0.8 73:0.17 74:1.0 75:0.5 76:0.5 77:1.0 78:0.6 79:1.0 80:0.33 81:1.0 82:0.25 83:0.25 84:0.25 85:0.2 86:0.5 87:1.0 88:0.5 92:0.33 93:1.0 94:0.5 95:0.5 96:0.25 97:1.0 98:0.5 100:1.0 101:0.67 103:1.0 104:0.67 105:0.5 106:0.25 107:0.17 108:0.2 109:1.0 111:0.5 112:0.2 113:0.25 114:0.5 115:1.0 116:0.5 117:0.33 118:0.29 119:0.6 120:0.5 121:1.0 122:0.5 123:1.0 124:0.75 125:0.5 126:1.0 127:0.17 128:1.0 130:0.5 131:1.0 132:1.0 133:1.0 134:1.0 135:1.0 136:1.0 137:1.0 138:0.25 139:0.5 140:0.2 141:0.25 142:1.0 143:1.0 144:0.25 145:0.67 146:0.17 147:1.0 149:1.0 
-0.0 -1.0 -1.0 -1.0 -1.0 -1.0 1.0 1:0.33 2:0.33 3:0.2 5:0.33 6:0.2 7:0.33 9:0.25 12:0.2 16:0.25 27:0.14 30:0.33 34:0.33 35:0.5 37:0.17 39:0.33 40:0.17 45:0.17 47:0.5 48:0.25 49:0.33 50:0.2 51:0.25 61:0.25 62:1.0 64:0.5 66:0.5 67:0.33 68:0.33 72:0.2 73:0.17 76:0.25 77:1.0 78:0.2 80:0.17 81:1.0 83:0.25 84:0.25 88:0.5 94:0.25 95:0.5 97:1.0 100:0.5 101:0.33 108:0.2 111:0.5 116:0.5 117:0.33 119:0.2 120:0.25 124:0.25 128:0.5 130:0.5 131:0.33 132:1.0 137:1.0 138:0.12 140:0.2 141:0.25 142:1.0 143:1.0 144:0.25 145:0.33 
-0.2580236280206673 -0.0 -0.0 -0.5899261179988863 -0.0 -0.0 1.0 1:0.33 2:0.33 3:0.2 4:0.33 5:0.33 6:0.2 7:0.33 9:0.25 12:0.2 16:0.5 22:0.33 27:0.14 29:0.2 30:0.33 33:0.17 34:0.33 35:0.5 36:0.2 37:0.17 38:0.5 39:0.33 40:0.17 45:0.33 47:0.5 48:0.25 49:0.33 50:0.4 51:0.25 53:0.25 54:0.25 61:0.25 62:1.0 63:0.25 64:0.5 65:0.5 66:0.5 67:0.33 68:0.67 69:0.5 70:0.33 71:0.33 72:0.2 73:0.17 76:0.25 77:1.0 78:0.2 80:0.17 81:1.0 82:0.25 83:0.5 84:0.5 88:1.0 94:0.25 95:0.5 97:1.0 99:0.5 100:0.5 101:0.33 105:0.5 108:0.2 111:0.5 116:0.5 117:0.33 119:0.2 120:0.25 124:0.25 128:0.5 129:1.0 130:0.5 131:0.33 132:1.0 137:1.0 138:0.62 140:1.0 141:1.0 142:1.0 143:1.0 144:1.0 145:0.33 
-0.040424212790853786 -1.0 -0.0 -1.0 -1.0 -1.0 1.0 2:0.33 9:0.25 16:0.25 17:0.2 37:0.17 39:0.33 45:0.17 48:0.25 55:0.17 57:0.2 60:0.33 66:0.5 77:1.0 78:0.2 85:0.2 86:0.5 88:0.5 94:0.25 96:0.25 112:0.2 118:0.14 119:0.2 124:0.25 130:0.5 138:0.12 139:0.5 140:0.2 141:0.25 142:1.0 143:0.5 144:0.25 145:0.33 146:0.17 
-1.0 -0.16427633244981682 -1.0 -1.0 -0.26784672516970226 -0.0 1.0 1:0.33 2:0.33 3:0.2 4:0.33 5:0.33 6:0.2 7:0.33 9:0.25 12:0.2 16:0.5 22:0.33 27:0.14 29:0.2 30:0.33 33:0.17 34:0.33 35:0.5 36:0.2 37:0.17 38:0.5 39:0.33 40:0.17 45:0.33 47:0.5 48:0.25 49:0.33 50:0.4 51:0.25 53:0.25 54:0.25 61:0.25 62:1.0 63:0.25 64:0.5 65:0.5 66:0.5 67:0.33 68:0.67 69:0.5 70:0.33 71:0.33 72:0.2 73:0.17 76:0.25 77:1.0 78:0.2 80:0.17 81:1.0 82:0.25 83:0.5 84:0.5 88:1.0 94:0.25 95:0.5 97:1.0 99:0.5 100:0.5 101:0.33 105:0.5 108:0.2 111:0.5 116:0.5 117:0.33 119:0.2 120:0.25 124:0.25 128:0.5 129:1.0 130:0.5 131:0.33 132:1.0 137:1.0 138:0.62 140:1.0 141:1.0 142:1.0 143:1.0 144:1.0 145:0.33 
-0.0 -1.0 -0.11065022110245802 -1.0 -1.0 -0.028116130083198472 1.0 1:0.33 2:0.33 3:0.4 5:0.33 6:0.4 7:0.67 8:1.0 9:0.25 12:0.2 15:0.5 16:0.25 18:0.5 19:0.5 23:0.5 26:0.5 27:0.29 30:0.33 34:0.67 35:0.5 37:0.17 39:0.33 40:0.33 45:0.17 47:0.5 48:0.25 49:0.33 50:0.2 51:0.25 52:1.0 61:0.25 62:1.0 64:0.5 66:0.5 67:0.33 68:0.33 72:0.4 73:0.33 76:0.25 77:1.0 78:0.2 80:0.33 81:1.0 83:0.25 84:0.25 88:0.5 94:0.25 95:0.5 97:1.0 100:0.5 101:0.33 104:0.33 108:0.4 110:0.5 111:0.5 116:0.5 117:0.67 119:0.2 120:0.25 124:0.25 128:0.5 130:0.5 131:0.33 132:1.0 137:1.0 138:0.12 140:0.2 141:0.25 142:1.0 143:1.0 144:0.25 145:0.33 
-1.0 -1.0 -0.8828597717358011 -1.0 -0.7070509794599217 -0.49209275190185126 1.0 2:0.33 9:0.25 16:0.25 17:0.2 37:0.17 39:0.33 45:0.17 48:0.25 55:0.17 57:0.2 60:0.33 66:0.5 77:1.0 78:0.2 85:0.2 86:0.5 88:0.5 94:0.25 96:0.25 112:0.2 118:0.14 119:0.2 124:0.25 130:0.5 138:0.12 139:0.5 140:0.2 141:0.25 142:1.0 143:0.5 144:0.25 145:0.33 146:0.17 
-0.9630585251350435 -1.0 -0.021614608952914744 -0.9781663925386705 -0.9064636529273609 -0.0 1.0 1:0.33 2:0.33 3:0.2 4:0.33 5:0.33 6:0.2 7:0.33 9:0.25 12:0.2 16:0.5 22:0.33 27:0.14 29:0.2 30:0.33 33:0.17 34:0.33 35:0.5 36:0.2 37:0.17 38:0.5 39:0.33 40:0.17 45:0.33 47:0.5 48:0.25 49:0.33 50:0.4 51:0.25 53:0.25 54:0.25 61:0.25 62:1.0 63:0.25 64:0.5 65:0.5 66:0.5 67:0.33 68:0.67 69:0.5 70:0.33 71:0.33 72:0.2 73:0.17 76:0.25 77:1.0 78:0.2 80:0.17 81:1.0 82:0.25 83:0.5 84:0.5 88:1.0 94:0.25 95:0.5 97:1.0 99:0.5 100:0.5 101:0.33 105:0.5 108:0.2 111:0.5 116:0.5 117:0.33 119:0.2 120:0.25 124:0.25 128:0.5 129:1.0 130:0.5 131:0.33 132:1.0 137:1.0 138:0.62 140:1.0 141:1.0 142:1.0 143:1.0 144:1.0 145:0.33 
-1.0 -1.0 -1.0 -1.0 -1.0 -0.9207366021996051 1.0 3:0.2 4:0.67 6:0.2 7:0.33 8:1.0 12:0.4 14:0.5 15:0.5 16:0.25 18:0.5 19:0.5 20:1.0 21:0.67 22:0.67 23:0.5 24:0.5 25:1.0 26:1.0 27:0.14 29:0.4 31:0.5 32:0.67 33:0.5 34:0.33 36:0.6 37:0.33 38:1.0 39:0.33 40:0.17 41:0.33 42:0.5 45:0.5 46:0.5 48:0.25 49:0.33 50:0.6 51:0.25 52:1.0 53:0.75 54:0.75 59:0.33 60:0.33 61:0.5 63:0.5 65:1.0 66:1.0 68:0.33 69:1.0 70:1.0 71:0.67 72:0.4 73:0.17 75:0.5 76:0.5 77:1.0 78:0.4 80:0.17 82:0.75 83:0.5 84:0.25 88:1.0 89:0.5 90:1.0 91:0.67 92:0.67 94:0.25 95:0.5 98:0.5 99:0.5 101:0.33 102:0.5 104:0.33 105:1.0 107:0.5 108:0.2 110:0.5 113:0.75 114:1.0 117:0.33 118:0.14 119:0.4 120:0.5 124:0.25 125:1.0 126:0.5 127:0.17 130:1.0 138:0.5 140:0.2 141:0.25 142:1.0 143:0.5 144:0.25 145:1.0 149:0.33 
-0.7384936340534354 -1.0 -1.0 -1.0 -0.410081186586712 -0.5647860816792726 1.0 1:0.33 2:0.67 3:0.2 4:0.33 5:0.33 6:0.2 7:0.33 9:0.5 12:0.6 14:0.5 16:0.75 17:0.2 20:0.5 21:0.67 22:0.33 24:0.5 25:1.0 26:0.5 27:0.14 29:0.4 30:0.33 31:0.5 32:0.67 33:0.5 34:0.33 35:0.5 36:0.6 37:0.67 38:0.5 39:1.0 40:0.17 41:0.33 45:0.83 46:0.5 47:0.5 48:0.75 49:0.67 50:0.8 51:0.5 53:0.75 54:0.75 55:0.17 57:0.2 59:0.33 60:0.67 61:0.75 62:1.0 63:0.5 64:0.5 65:1.0 66:0.5 67:0.33 68:0.67 69:1.0 70:1.0 71:0.67 72:0.4 73:0.17 75:0.5 76:0.75 77:1.0 78:0.8 80:0.17 81:1.0 82:0.75 83:0.75 84:0.5 85:0.2 86:0.5 88:1.0 89:0.5 90:0.5 91:0.33 92:0.33 94:0.75 95:1.0 96:0.25 97:1.0 99:0.5 100:0.5 101:0.67 105:1.0 107:0.33 108:0.2 111:0.5 112:0.2 113:0.5 114:1.0 116:0.5 117:0.33 118:0.29 119:0.8 120:0.75 124:0.75 125:1.0 126:0.5 127:0.17 128:0.5 130:1.0 131:0.33 132:1.0 137:1.0 138:0.38 139:0.5 140:0.2 141:0.25 142:1.0 143:1.0 144:0.25 145:1.0 146:0.17 149:0.33 
-0.0 -1.0 -0.9848753982088261 -1.0 -1.0 -0.9942684341360726 1.0 1:0.33 2:0.33 3:0.4 5:0.33 6:0.4 7:0.67 8:1.0 9:0.25 12:0.2 15:0.5 16:0.25 18:0.5 19:0.5 23:0.5 26:0.5 27:0.29 30:0.33 34:0.67 35:0.5 37:0.17 39:0.33 40:0.33 45:0.17 47:0.5 48:0.25 49:0.33 50:0.2 51:0.25 52:1.0 61:0.25 62:1.0 64:0.5 66:0.5 67:0.33 68:0.33 72:0.4 73:0.33 76:0.25 77:1.0 78:0.2 80:0.33 81:1.0 83:0.25 84:0.25 88:0.5 94:0.25 95:0.5 97:1.0 100:0.5 101:0.33 104:0.33 108:0.4 110:0.5 111:0.5 116:0.5 117:0.67 119:0.2 120:0.25 124:0.25 128:0.5 130:0.5 131:0.33 132:1.0 137:1.0 138:0.12 140:0.2 141:0.25 142:1.0 143:1.0 144:0.25 145:0.33 
-0.0 -1.0 -1.0 -1.0 -1.0 -0.6128648635301598 -1.0 1:0.33 2:0.33 3:0.2 5:0.33 6:0.2 7:0.33 9:0.25 12:0.2 16:0.25 27:0.14 30:0.33 34:0.33 35:0.5 37:0.17 39:0.33 40:0.17 45:0.17 47:0.5 48:0.25 49:0.33 50:0.2 51:0.25 61:0.25 62:1.0 64:0.5 66:0.5 67:0.33 68:0.33 72:0.2 73:0.17 76:0.25 77:1.0 78:0.2 80:0.17 81:1.0 83:0.25 84:0.25 88:0.5 94:0.25 95:0.5 97:1.0 100:0.5 101:0.33 108:0.2 111:0.5 116:0.5 117:0.33 119:0.2 120:0.25 124:0.25 128:0.5 130:0.5 131:0.33 132:1.0 137:1.0 138:0.12 140:0.2 141:0.25 142:1.0 143:1.0 144:0.25 145:0.33 
-0.0 -1.0 -0.12492477588137749 -1.0 -1.0 -0.0 -1.0 1:0.33 2:0.33 3:0.4 5:0.33 6:0.4 7:0.67 8:1.0 9:0.25 12:0.2 15:0.5 16:0.25 18:0.5 19:0.5 23:0.5 26:0.5 27:0.29 30:0.33 34:0.67 35:0.5 37:0.17 39:0.33 40:0.33 45:0.17 47:0.5 48:0.25 49:0.33 50:0.2 51:0.25 52:1.0 61:0.25 62:1.0 64:0.5 66:0.5 67:0.33 68:0.33 72:0.4 73:0.33 76:0.25 77:1.0 78:0.2 80:0.33 81:1.0 83:0.25 84:0.25 88:0.5 94:0.25 95:0.5 97:1.0 100:0.5 101:0.33 104:0.33 108:0.4 110:0.5 111:0.5 116:0.5 117:0.67 119:0.2 120:0.25 124:0.25 128:0.5 130:0.5 131:0.33 132:1.0 137:1.0 138:0.12 140:0.2 141:0.25 142:1.0 143:1.0 144:0.25 145:0.33 
-0.0 -0.0 -0.0 -0.0 -0.0 -0.0 -1.0 1:0.33 2:0.33 3:0.2 4:0.33 5:0.33 6:0.2 7:0.33 9:0.25 12:0.2 16:0.5 22:0.33 27:0.14 29:0.2 30:0.33 33:0.17 34:0.33 35:0.5 36:0.2 37:0.17 38:0.5 39:0.33 40:0.17 45:0.33 47:0.5 48:0.25 49:0.33 50:0.4 51:0.25 53:0.25 54:0.25 61:0.25 62:1.0 63:0.25 64:0.5 65:0.5 66:0.5 67:0.33 68:0.67 69:0.5 70:0.33 71:0.33 72:0.2 73:0.17 76:0.25 77:1.0 78:0.2 80:0.17 81:1.0 82:0.25 83:0.5 84:0.5 88:1.0 94:0.25 95:0.5 97:1.0 99:0.5 100:0.5 101:0.33 105:0.5 108:0.2 111:0.5 116:0.5 117:0.33 119:0.2 120:0.25 124:0.25 128:0.5 129:1.0 130:0.5 131:0.33 132:1.0 137:1.0 138:0.62 140:1.0 141:1.0 142:1.0 143:1.0 144:1.0 145:0.33 
-0.0 -1.0 -0.42033963841497607 -1.0 -1.0 -1.0 -1.0 1:0.33 2:0.33 3:0.2 5:0.33 6:0.2 7:0.33 9:0.25 12:0.2 16:0.25 27:0.14 30:0.33 34:0.33 35:0.5 37:0.17 39:0.33 40:0.17 45:0.17 47:0.5 48:0.25 49:0.33 50:0.2 51:0.25 61:0.25 62:1.0 64:0.5 66:0.5 67:0.33 68:0.33 72:0.2 73:0.17 76:0.25 77:1.0 78:0.2 80:0.17 81:1.0 83:0.25 84:0.25 88:0.5 94:0.25 95:0.5 97:1.0 100:0.5 101:0.33 108:0.2 111:0.5 116:0.5 117:0.33 119:0.2 120:0.25 124:0.25 128:0.5 130:0.5 131:0.33 132:1.0 137:1.0 138:0.12 140:0.2 141:0.25 142:1.0 143:1.0 144:0.25 145:0.33 
-0.0 -0.0 -0.0 -0.0 -0.0 -0.0 -1.0 1:0.33 2:0.33 3:0.2 4:0.33 5:0.33 6:0.2 7:0.33 9:0.25 12:0.2 16:0.5 22:0.33 27:0.14 29:0.2 30:0.33 33:0.17 34:0.33 35:0.5 36:0.2 37:0.17 38:0.5 39:0.33 40:0.17 45:0.33 47:0.5 48:0.25 49:0.33 50:0.4 51:0.25 53:0.25 54:0.25 61:0.25 62:1.0 63:0.25 64:0.5 65:0.5 66:0.5 67:0.33 68:0.67 69:0.5 70:0.33 71:0.33 72:0.2 73:0.17 76:0.25 77:1.0 78:0.2 80:0.17 81:1.0 82:0.25 83:0.5 84:0.5 88:1.0 94:0.25 95:0.5 97:1.0 99:0.5 100:0.5 101:0.33 105:0.5 108:0.2 111:0.5 116:0.5 117:0.33 119:0.2 120:0.25 124:0.25 128:0.5 129:1.0 130:0.5 131:0.33 132:1.0 137:1.0 138:0.62 140:1.0 141:1.0 142:1.0 143:1.0 144:1.0 145:0.33 
-1.0 -0.0 -0.0 -0.0 -0.0 -0.0 -1.0 1:0.33 2:0.33 3:0.2 4:0.33 5:0.33 6:0.2 7:0.33 9:0.25 12:0.2 16:0.5 22:0.33 27:0.14 29:0.2 30:0.33 33:0.17 34:0.33 35:0.5 36:0.2 37:0.17 38:0.5 39:0.33 40:0.17 45:0.33 47:0.5 48:0.25 49:0.33 50:0.4 51:0.25 53:0.25 54:0.25 61:0.25 62:1.0 63:0.25 64:0.5 65:0.5 66:0.5 67:0.33 68:0.67 69:0.5 70:0.33 71:0.33 72:0.2 73:0.17 76:0.25 77:1.0 78:0.2 80:0.17 81:1.0 82:0.25 83:0.5 84:0.5 88:1.0 94:0.25 95:0.5 97:1.0 99:0.5 100:0.5 101:0.33 105:0.5 108:0.2 111:0.5 116:0.5 117:0.33 119:0.2 120:0.25 124:0.25 128:0.5 129:1.0 130:0.5 131:0.33 132:1.0 137:1.0 138:0.62 140:1.0 141:1.0 142:1.0 143:1.0 144:1.0 145:0.33 
-1.0 -0.08451950243406446 -0.0 -0.7604940967645049 -0.759177432109076 -0.0 -0.7143047275081619 1:0.33 2:0.33 3:0.2 4:0.33 5:0.33 6:0.2 7:0.33 9:0.25 12:0.2 16:0.5 22:0.33 27:0.14 29:0.2 30:0.33 33:0.17 34:0.33 35:0.5 36:0.2 37:0.17 38:0.5 39:0.33 40:0.17 45:0.33 47:0.5 48:0.25 49:0.33 50:0.4 51:0.25 53:0.25 54:0.25 61:0.25 62:1.0 63:0.25 64:0.5 65:0.5 66:0.5 67:0.33 68:0.67 69:0.5 70:0.33 71:0.33 72:0.2 73:0.17 76:0.25 77:1.0 78:0.2 80:0.17 81:1.0 82:0.25 83:0.5 84:0.5 88:1.0 94:0.25 95:0.5 97:1.0 99:0.5 100:0.5 101:0.33 105:0.5 108:0.2 111:0.5 116:0.5 117:0.33 119:0.2 120:0.25 124:0.25 128:0.5 129:1.0 130:0.5 131:0.33 132:1.0 137:1.0 138:0.62 140:1.0 141:1.0 142:1.0 143:1.0 144:1.0 145:0.33 
-0.0 -0.0 -1.0 -0.0 -0.0 -0.0 -0.0 1:0.33 2:0.67 3:0.2 5:0.33 6:0.2 7:0.33 9:0.5 12:0.6 14:0.5 16:0.5 17:0.2 20:0.5 21:0.67 24:0.5 25:1.0 26:0.5 27:0.14 29:0.2 30:0.33 31:0.5 32:0.67 33:0.33 34:0.33 35:0.5 36:0.4 37:0.67 39:1.0 40:0.17 41:0.33 45:0.67 46:0.5 47:0.5 48:0.75 49:0.67 50:0.6 51:0.5 53:0.5 54:0.5 55:0.17 57:0.2 59:0.33 60:0.67 61:0.75 62:1.0 63:0.25 64:0.5 65:0.5 66:0.5 67:0.33 68:0.33 69:0.5 70:0.67 71:0.33 72:0.4 73:0.17 75:0.5 76:0.75 77:1.0 78:0.8 80:0.17 81:1.0 82:0.5 83:0.5 84:0.25 85:0.2 86:0.5 88:0.5 89:0.5 90:0.5 91:0.33 92:0.33 94:0.75 95:1.0 96:0.25 97:1.0 100:0.5 101:0.67 105:0.5 107:0.33 108:0.2 111:0.5 112:0.2 113:0.5 114:1.0 116:0.5 117:0.33 118:0.29 119:1.0 120:1.0 124:1.0 125:1.0 126:0.5 127:0.17 128:0.5 130:1.0 131:0.33 132:1.0 137:1.0 138:0.38 139:1.0 140:0.2 141:0.25 142:1.0 143:1.0 144:0.25 145:1.0 146:0.17 149:0.33 
-0.0 -0.0 -0.6079640895574115 -0.0 -0.0 -0.0 -0.23727452539801297 1:0.33 2:0.67 3:0.4 5:0.33 6:0.4 7:0.67 8:1.0 9:0.5 12:0.6 14:0.5 15:0.5 16:0.5 17:0.2 18:0.5 19:0.5 20:0.5 21:0.67 23:0.5 24:0.5 25:1.0 26:1.0 27:0.29 29:0.2 30:0.33 31:0.5 32:0.67 33:0.33 34:0.67 35:0.5 36:0.4 37:0.67 39:1.0 40:0.33 41:0.33 45:0.67 46:0.5 47:0.5 48:0.75 49:0.67 50:0.6 51:0.5 52:1.0 53:0.5 54:0.5 55:0.17 57:0.2 59:0.33 60:0.67 61:0.75 62:1.0 63:0.25 64:0.5 65:0.5 66:0.5 67:0.33 68:0.33 69:0.5 70:0.67 71:0.33 72:0.6 73:0.33 75:0.5 76:0.75 77:1.0 78:0.8 80:0.33 81:1.0 82:0.5 83:0.5 84:0.25 85:0.2 86:0.5 88:0.5 89:0.5 90:0.5 91:0.33 92:0.33 94:0.75 95:1.0 96:0.25 97:1.0 100:0.5 101:0.67 104:0.33 105:0.5 107:0.33 108:0.4 110:0.5 111:0.5 112:0.2 113:0.5 114:1.0 116:0.5 117:0.67 118:0.29 119:0.8 120:0.75 124:0.75 125:1.0 126:0.5 127:0.17 128:0.5 130:1.0 131:0.33 132:1.0 137:1.0 138:0.38 139:0.5 140:0.2 141:0.25 142:1.0 143:1.0 144:0.25 145:1.0 146:0.17 149:0.33 
-0.0 -0.19880997089159363 -0.17186928878368732 -1.0 -0.15115281565781505 -0.0 -0.6253783719016806 3:0.2 4:0.33 6:0.2 7:0.33 8:1.0 12:0.4 14:1.0 15:0.5 17:0.2 18:0.5 19:0.5 20:1.0 21:0.67 22:0.33 23:0.5 24:0.5 25:1.0 26:1.0 27:0.14 29:0.2 31:0.5 32:0.67 33:0.33 34:0.33 36:0.4 37:0.33 38:0.5 39:0.33 40:0.17 41:0.33 42:0.5 45:0.33 46:0.5 48:0.25 49:0.33 50:0.4 51:0.25 52:1.0 53:0.5 54:0.5 55:0.17 56:1.0 57:0.2 59:0.33 60:0.33 61:0.5 63:0.25 65:0.5 66:0.5 69:0.5 70:0.67 71:0.33 72:0.4 73:0.17 75:0.5 76:0.5 78:0.4 80:0.17 82:0.5 83:0.25 89:0.5 90:1.0 91:0.67 92:0.67 94:0.25 95:0.5 96:0.25 98:0.5 101:0.33 102:0.5 104:0.33 105:0.5 107:0.5 108:0.2 110:0.5 112:0.2 113:0.75 114:1.0 116:0.5 117:0.67 118:0.29 119:0.4 120:0.5 124:0.25 125:1.0 126:0.5 127:0.33 130:0.5 138:0.38 145:0.67 146:0.17 148:1.0 149:0.33 
-0.0 -0.0 -0.8471773271543991 -1.0 -0.0 -0.0 -0.0 1:0.33 2:0.67 3:0.2 4:0.33 5:0.33 6:0.2 7:0.33 9:0.5 12:0.6 14:0.5 16:0.75 17:0.2 20:0.5 21:0.67 22:0.33 24:0.5 25:1.0 26:0.5 27:0.14 29:0.4 30:0.33 31:0.5 32:0.67 33:0.5 34:0.33 35:0.5 36:0.6 37:0.67 38:0.5 39:1.0 40:0.17 41:0.33 45:0.83 46:0.5 47:0.5 48:0.75 49:0.67 50:0.8 51:0.5 53:0.75 54:0.75 55:0.17 57:0.2 59:0.33 60:0.67 61:0.75 62:1.0 63:0.5 64:0.5 65:1.0 67:0.33 68:0.67 69:1.0 70:1.0 71:0.67 72:0.4 73:0.17 75:0.5 76:0.75 78:0.8 80:0.17 81:1.0 82:0.75 83:0.75 84:0.5 85:0.2 86:0.5 88:0.5 89:0.5 90:0.5 91:0.33 92:0.33 94:0.75 95:1.0 96:0.25 97:1.0 99:0.5 100:0.5 101:0.67 105:1.0 107:0.33 108:0.2 111:0.5 112:0.2 113:0.5 114:1.0 116:0.5 117:0.33 118:0.29 119:1.0 120:1.0 124:1.0 125:1.0 126:0.5 127:0.17 128:0.5 130:0.5 131:0.33 132:1.0 137:1.0 138:0.25 139:1.0 143:0.5 145:0.67 146:0.17 149:0.33 
-0.0 -0.0 -0.0 -0.0 -0.0 -0.0 -0.2954441810468836 3:0.2 4:0.67 6:0.2 7:0.33 8:1.0 12:0.4 14:0.5 15:0.5 16:0.25 18:0.5 19:0.5 20:1.0 21:0.67 22:0.67 23:0.5 24:0.5 25:1.0 26:1.0 27:0.14 29:0.4 31:0.5 32:0.67 33:0.5 34:0.33 36:0.6 37:0.33 38:1.0 39:0.33 40:0.17 41:0.33 42:0.5 45:0.5 46:0.5 48:0.25 49:0.33 50:0.6 51:0.25 52:1.0 53:0.75 54:0.75 59:0.33 60:0.33 61:0.5 63:0.5 65:1.0 66:1.0 68:0.33 69:1.0 70:1.0 71:0.67 72:0.4 73:0.17 75:0.5 76:0.5 77:1.0 78:0.4 80:0.17 82:0.75 83:0.5 84:0.25 88:1.0 89:0.5 90:1.0 91:0.67 92:0.67 94:0.25 95:0.5 98:0.5 99:0.5 101:0.33 102:0.5 104:0.33 105:1.0 107:0.5 108:0.2 110:0.5 113:0.75 114:1.0 117:0.33 118:0.14 119:0.4 120:0.5 124:0.25 125:1.0 126:0.5 127:0.17 129:1.0 130:1.0 138:1.0 140:1.0 141:1.0 142:1.0 143:0.5 144:1.0 145:1.0 149:0.33 
-0.0 -1.0 -0.0 -0.0 -0.0 -0.0 -0.0 1:0.33 2:0.33 3:0.2 5:0.33 6:0.2 7:0.33 9:0.25 12:0.6 14:0.5 16:0.25 20:0.5 21:0.67 24:0.5 25:1.0 26:0.5 27:0.14 29:0.2 30:0.33 31:0.5 32:0.67 33:0.33 34:0.33 35:0.5 36:0.4 37:0.5 39:0.67 40:0.17 41:0.33 45:0.5 46:0.5 47:0.5 48:0.5 49:0.67 50:0.6 51:0.5 53:0.5 54:0.5 59:0.33 60:0.33 61:0.75 62:1.0 63:0.25 64:0.5 65:0.5 67:0.33 68:0.33 69:0.5 70:0.67 71:0.33 72:0.4 73:0.17 75:0.5 76:0.75 78:0.6 80:0.17 81:1.0 82:0.5 83:0.5 84:0.25 89:0.5 90:0.5 91:0.33 92:0.33 94:0.5 95:1.0 97:1.0 100:0.5 101:0.67 105:0.5 107:0.33 108:0.2 111:0.5 113:0.5 114:1.0 116:0.5 117:0.33 118:0.14 119:0.6 120:0.75 124:0.5 125:1.0 126:0.5 127:0.17 128:0.5 130:0.5 131:0.33 132:1.0 137:1.0 138:0.25 143:0.5 145:0.67 149:0.33 
-0.0 -0.0 -0.11444646653426596 -0.0 -0.0 -0.0 -0.0 1:0.33 2:0.67 3:0.2 4:0.33 5:0.33 6:0.2 7:0.33 9:0.5 12:0.6 14:0.5 16:0.75 17:0.2 20:0.5 21:0.67 22:0.33 24:0.5 25:1.0 26:0.5 27:0.14 29:0.4 30:0.33 31:0.5 32:0.67 33:0.5 34:0.33 35:0.5 36:0.6 37:0.67 38:0.5 39:1.0 40:0.17 41:0.33 45:0.83 46:0.5 47:0.5 48:0.75 49:0.67 50:0.8 51:0.5 53:0.75 54:0.75 55:0.17 57:0.2 59:0.33 60:0.67 61:0.75 62:1.0 63:0.5 64:0.5 65:1.0 66:0.5 67:0.33 68:0.67 69:1.0 70:1.0 71:0.67 72:0.4 73:0.17 75:0.5 76:0.75 77:1.0 78:0.8 80:0.17 81:1.0 82:0.75 83:0.75 84:0.5 85:0.2 86:0.5 88:1.0 89:0.5 90:0.5 91:0.33 92:0.33 94:0.75 95:1.0 96:0.25 97:1.0 99:0.5 100:0.5 101:0.67 105:1.0 107:0.33 108:0.2 111:0.5 112:0.2 113:0.5 114:1.0 116:0.5 117:0.33 118:0.29 119:1.0 120:1.0 124:1.0 125:1.0 126:0.5 127:0.17 128:0.5 129:1.0 130:1.0 131:0.33 132:1.0 137:1.0 138:0.88 139:1.0 140:1.0 141:1.0 142:1.0 143:1.0 144:1.0 145:1.0 146:0.17 149:0.33 
-1.0 -0.0 -0.0 -0.0 -0.0 -0.0 -0.0 4:0.33 12:0.4 14:0.5 20:1.0 21:0.67 22:0.33 24:0.5 25:1.0 26:0.5 29:0.2 31:0.5 32:0.67 33:0.33 36:0.4 37:0.33 38:0.5 39:0.33 41:0.33 42:0.5 45:0.33 46:0.5 48:0.25 49:0.33 50:0.4 51:0.25 53:0.5 54:0.5 59:0.33 60:0.33 61:0.5 63:0.25 65:0.5 66:1.0 69:0.5 70:0.67 71:0.33 72:0.2 75:0.5 76:0.5 77:1.0 78:0.4 82:0.5 83:0.25 88:0.5 89:0.5 90:1.0 91:0.67 92:0.67 94:0.25 95:0.5 98:0.5 101:0.33 102:0.5 105:0.5 107:0.5 113:0.75 114:1.0 118:0.14 119:0.4 120:0.5 124:0.25 125:1.0 126:0.5 127:0.17 129:1.0 130:1.0 138:1.0 140:1.0 141:1.0 142:1.0 143:0.5 144:1.0 145:1.0 149:0.33 
-0.0 -0.7100049512722618 -0.0 -0.8210201761229826 -0.0 -0.0 -0.0 1:0.33 2:0.33 3:0.2 5:0.33 6:0.2 7:0.33 9:0.25 12:0.6 14:0.5 16:0.25 20:0.5 21:0.67 24:0.5 25:1.0 26:0.5 27:0.14 29:0.2 30:0.33 31:0.5 32:0.67 33:0.33 34:0.33 35:0.5 36:0.4 37:0.5 39:0.67 40:0.17 41:0.33 45:0.5 46:0.5 47:0.5 48:0.5 49:0.67 50:0.6 51:0.5 53:0.5 54:0.5 59:0.33 60:0.33 61:0.75 62:1.0 63:0.25 64:0.5 65:0.5 67:0.33 68:0.33 69:0.5 70:0.67 71:0.33 72:0.4 73:0.17 75:0.5 76:0.75 78:0.6 80:0.17 81:1.0 82:0.5 83:0.5 84:0.25 89:0.5 90:0.5 91:0.33 92:0.33 94:0.5 95:1.0 97:1.0 100:0.5 101:0.67 105:0.5 107:0.33 108:0.2 111:0.5 113:0.5 114:1.0 116:0.5 117:0.33 118:0.14 119:0.6 120:0.75 124:0.5 125:1.0 126:0.5 127:0.17 128:0.5 130:0.5 131:0.33 132:1.0 137:1.0 138:0.25 143:0.5 145:0.67 149:0.33 
-0.0 -0.006665575402080005 -0.0 -0.952462487425258 -0.089669752233109 -0.0 -0.0 1:0.33 2:0.33 3:0.2 5:0.33 6:0.2 7:0.33 9:0.25 12:0.6 14:0.5 16:0.25 20:0.5 21:0.67 24:0.5 25:1.0 26:0.5 27:0.14 29:0.2 30:0.33 31:0.5 32:0.67 33:0.33 34:0.33 35:0.5 36:0.4 37:0.5 39:0.67 40:0.17 41:0.33 45:0.5 46:0.5 47:0.5 48:0.5 49:0.67 50:0.6 51:0.5 53:0.5 54:0.5 59:0.33 60:0.33 61:0.75 62:1.0 63:0.25 64:0.5 65:0.5 67:0.33 68:0.33 69:0.5 70:0.67 71:0.33 72:0.4 73:0.17 75:0.5 76:0.75 78:0.6 80:0.17 81:1.0 82:0.5 83:0.5 84:0.25 89:0.5 90:0.5 91:0.33 92:0.33 94:0.5 95:1.0 97:1.0 100:0.5 101:0.67 105:0.5 107:0.33 108:0.2 111:0.5 113:0.5 114:1.0 116:0.5 117:0.33 118:0.14 119:0.6 120:0.75 124:0.5 125:1.0 126:0.5 127:0.17 128:0.5 130:0.5 131:0.33 132:1.0 137:1.0 138:0.25 143:0.5 145:0.67 149:0.33 
-0.0 -0.0 -0.36604049596930066 -1.0 -0.0 -0.0 -0.8945919309691917 1:0.33 2:0.67 3:0.2 5:0.33 6:0.2 7:0.33 9:0.5 12:0.4 16:0.5 17:0.2 21:0.33 24:0.25 25:1.0 27:0.14 30:0.33 32:0.33 33:0.17 34:0.33 35:0.5 36:0.2 37:0.5 39:1.0 40:0.17 45:0.5 47:0.5 48:0.5 49:0.67 50:0.4 51:0.25 53:0.25 54:0.25 55:0.17 57:0.2 59:0.33 60:0.33 61:0.5 62:1.0 63:0.25 64:0.5 65:0.5 66:0.5 67:0.33 68:0.33 69:0.5 70:0.33 71:0.33 72:0.2 73:0.17 76:0.5 77:1.0 78:0.6 80:0.17 81:1.0 82:0.25 83:0.5 84:0.25 85:0.2 86:0.5 88:0.5 89:0.5 90:0.5 91:0.33 94:0.75 95:1.0 96:0.25 97:1.0 100:0.5 101:0.33 107:0.17 108:0.2 111:0.5 112:0.2 113:0.25 114:0.5 116:0.5 117:0.33 118:0.14 119:0.6 120:0.5 124:0.5 125:0.5 128:0.5 130:1.0 131:0.33 132:1.0 137:1.0 138:0.25 139:0.5 140:0.2 141:0.25 142:1.0 143:1.0 144:0.25 145:0.67 146:0.17 
-0.0 -0.0 -0.07973246288086935 -0.0 -0.0 -0.0 -0.0 4:0.67 12:0.4 14:0.5 16:0.25 20:1.0 21:0.67 22:0.67 24:0.5 25:1.0 26:0.5 29:0.4 31:0.5 32:0.67 33:0.5 36:0.6 37:0.33 38:1.0 39:0.33 41:0.33 42:0.5 45:0.5 46:0.5 48:0.25 49:0.33 50:0.6 51:0.25 53:0.75 54:0.75 59:0.33 60:0.33 61:0.5 63:0.5 65:1.0 66:1.0 68:0.33 69:1.0 70:1.0 71:0.67 72:0.2 75:0.5 76:0.5 77:1.0 78:0.4 82:0.75 83:0.5 84:0.25 88:1.0 89:0.5 90:1.0 91:0.67 92:0.67 94:0.25 95:0.5 98:0.5 99:0.5 101:0.33 102:0.5 103:1.0 105:1.0 107:0.5 113:0.75 114:1.0 118:0.14 119:0.6 120:0.75 122:0.17 124:0.5 125:1.0 126:1.0 127:0.17 130:1.0 138:0.5 139:0.5 140:0.2 141:0.25 142:1.0 143:0.5 144:0.25 145:1.0 149:0.33 
-0.0 -1.0 -0.0 -0.6024126073191362 -1.0 -1.0 -0.0 1:0.33 3:0.6 4:0.33 5:0.67 6:0.6 7:0.33 10:1.0 12:0.4 13:1.0 14:0.5 18:0.5 20:1.0 21:0.67 22:0.33 23:0.5 24:0.5 25:1.0 26:0.5 27:0.71 29:0.2 30:0.67 31:1.0 32:0.67 33:0.33 35:0.5 36:0.4 37:0.33 38:0.5 39:0.33 40:0.67 41:1.0 42:1.0 43:0.2 44:1.0 45:0.33 46:1.0 47:0.5 48:0.25 49:0.33 50:0.4 51:0.75 53:0.5 54:0.5 59:0.33 60:0.33 61:0.5 63:0.25 64:0.5 65:0.5 66:1.0 69:0.5 70:0.67 71:0.33 72:0.6 73:0.67 74:1.0 75:0.5 76:0.5 77:1.0 78:0.4 79:1.0 80:0.67 82:0.5 83:0.25 87:1.0 88:0.5 89:0.5 90:1.0 91:0.67 92:0.67 94:0.25 95:0.5 98:0.5 101:0.33 102:0.5 104:0.67 105:0.5 106:0.25 107:0.5 108:0.6 109:1.0 113:0.75 114:1.0 115:1.0 118:0.14 119:0.4 120:0.5 121:0.25 122:0.33 123:1.0 124:0.25 125:1.0 126:0.5 127:0.17 128:0.5 130:1.0 131:0.67 133:1.0 134:1.0 135:0.33 136:1.0 138:0.5 140:0.2 141:0.25 142:1.0 143:0.5 144:0.25 145:1.0 147:1.0 149:1.0 
-1.0 -0.0 -0.0 -0.0 -0.0 -0.0 -0.0 4:0.33 12:0.4 14:0.5 20:1.0 21:0.67 22:0.33 24:0.5 25:1.0 26:0.5 29:0.2 31:0.5 32:0.67 33:0.33 36:0.4 37:0.33 38:0.5 39:0.33 41:0.33 42:0.5 45:0.33 46:0.5 48:0.25 49:0.33 50:0.4 51:0.25 53:0.5 54:0.5 59:0.33 60:0.33 61:0.5 63:0.25 65:0.5 66:1.0 69:0.5 70:0.67 71:0.33 72:0.2 75:0.5 76:0.5 77:1.0 78:0.4 82:0.5 83:0.25 88:0.5 89:0.5 90:1.0 91:0.67 92:0.67 94:0.25 95:0.5 98:0.5 101:0.33 102:0.5 105:0.5 107:0.5 113:0.75 114:1.0 118:0.14 119:0.4 120:0.5 124:0.25 125:1.0 126:0.5 127:0.17 129:1.0 130:1.0 138:1.0 140:1.0 141:1.0 142:1.0 143:0.5 144:1.0 145:1.0 149:0.33 
-0.0 -0.0 -0.0 -0.0 -0.0 -0.0 -0.4218192326882791 4:0.67 12:0.4 14:0.5 16:0.25 20:1.0 21:0.67 22:0.67 24:0.5 25:1.0 26:0.5 29:0.4 31:0.5 32:0.67 33:0.5 36:0.6 37:0.33 38:1.0 39:0.33 41:0.33 42:0.5 45:0.5 46:0.5 48:0.25 49:0.33 50:0.6 51:0.25 53:0.75 54:0.75 59:0.33 60:0.33 61:0.5 63:0.5 65:1.0 66:1.0 68:0.33 69:1.0 70:1.0 71:0.67 72:0.2 75:0.5 76:0.5 77:1.0 78:0.4 82:0.75 83:0.5 84:0.25 88:1.0 89:0.5 90:1.0 91:0.67 92:0.67 94:0.25 95:0.5 98:0.5 99:0.5 101:0.33 102:0.5 105:1.0 107:0.5 113:0.75 114:1.0 118:0.14 119:0.4 120:0.5 124:0.25 125:1.0 126:0.5 127:0.17 130:1.0 138:0.5 140:0.2 141:0.25 142:1.0 143:0.5 144:0.25 145:1.0 149:0.33 
-0.0 -1.0 -0.0 -0.0 -1.0 -1.0 -0.0 1:0.67 2:0.67 3:0.6 4:0.33 5:1.0 6:0.6 7:1.0 8:1.0 9:0.5 10:1.0 12:0.6 13:1.0 14:0.5 15:0.5 16:0.75 17:0.2 18:1.0 19:0.5 20:0.5 21:0.67 22:0.33 23:1.0 24:0.5 25:1.0 26:1.0 27:0.43 29:0.4 30:1.0 31:1.0 32:0.67 33:0.5 34:0.67 35:1.0 36:0.6 37:0.67 38:0.5 39:1.0 40:0.5 41:1.0 42:0.5 43:0.2 44:1.0 45:0.83 46:1.0 47:1.0 48:0.75 49:0.67 50:0.8 51:1.0 52:1.0 53:0.75 54:0.75 55:0.17 57:0.2 59:0.33 60:0.67 61:0.75 62:1.0 63:0.5 64:1.0 65:1.0 66:0.5 67:0.33 68:0.67 69:1.0 70:1.0 71:0.67 72:1.0 73:0.33 74:1.0 75:0.5 76:0.75 77:1.0 78:0.8 79:1.0 80:0.5 81:1.0 82:0.75 83:0.75 84:0.5 85:0.2 86:0.5 87:1.0 88:1.0 89:0.5 90:0.5 91:0.33 92:0.33 94:0.75 95:1.0 96:0.25 97:1.0 99:0.5 100:0.5 101:0.67 104:1.0 105:1.0 106:0.25 107:0.33 108:0.4 109:1.0 110:0.5 111:0.5 112:0.2 113:0.5 114:1.0 115:1.0 116:0.5 117:0.67 118:0.29 119:0.8 120:0.75 121:0.25 122:0.33 123:1.0 124:0.75 125:1.0 126:0.5 127:0.17 128:1.0 130:1.0 131:1.0 132:1.0 133:1.0 134:1.0 135:0.33 136:1.0 137:1.0 138:0.38 139:0.5 140:0.2 141:0.25 142:1.0 143:1.0 144:0.25 145:1.0 146:0.17 147:1.0 149:1.0 
-0.0 -1.0 -0.12915455003474852 -1.0 -1.0 -1.0 -0.3798905021561735 4:0.33 5:0.33 7:0.33 10:0.5 12:0.2 14:0.5 20:1.0 21:0.33 22:0.33 23:0.5 24:0.25 26:0.5 29:0.2 30:0.33 31:1.0 32:0.33 33:0.17 36:0.2 37:0.17 38:0.5 41:0.67 42:0.5 43:0.2 44:1.0 45:0.17 46:1.0 48:0.25 50:0.2 51:0.5 53:0.25 54:0.25 60:0.33 61:0.25 64:0.5 66:1.0 70:0.33 72:0.4 74:1.0 75:0.5 76:0.25 77:1.0 78:0.2 82:0.25 87:0.5 88:0.5 90:0.5 91:0.33 92:0.67 98:0.5 101:0.33 102:0.5 103:1.0 104:0.33 105:0.5 106:0.25 107:0.33 109:1.0 113:0.5 114:0.5 118:0.14 119:0.2 120:0.25 121:1.0 122:0.33 123:1.0 124:0.25 125:0.5 126:1.0 127:0.17 128:0.5 130:0.5 131:0.33 134:0.5 135:1.0 136:1.0 138:0.38 140:0.2 141:0.25 142:1.0 143:0.5 144:0.25 145:0.67 147:0.5 149:0.67 
-1.0 -0.0 -0.0 -0.0 -0.0 -0.0 -0.0 4:0.33 12:0.4 14:0.5 20:1.0 21:0.67 22:0.33 24:0.5 25:1.0 26:0.5 29:0.2 31:0.5 32:0.67 33:0.33 36:0.4 37:0.33 38:0.5 39:0.33 41:0.33 42:0.5 45:0.33 46:0.5 48:0.25 49:0.33 50:0.4 51:0.25 53:0.5 54:0.5 59:0.33 60:0.33 61:0.5 63:0.25 65:0.5 66:1.0 69:0.5 70:0.67 71:0.33 72:0.2 75:0.5 76:0.5 77:1.0 78:0.4 82:0.5 83:0.25 88:0.5 89:0.5 90:1.0 91:0.67 92:0.67 94:0.25 95:0.5 98:0.5 101:0.33 102:0.5 105:0.5 107:0.5 113:0.75 114:1.0 118:0.14 119:0.4 120:0.5 124:0.25 125:1.0 126:0.5 127:0.17 129:1.0 130:1.0 138:1.0 140:1.0 141:1.0 142:1.0 143:0.5 144:1.0 145:1.0 149:0.33 
-0.0 -0.0 -0.9949099625861185 -1.0 -0.0 -0.0 -0.0 1:0.33 2:0.67 3:0.2 4:0.33 5:0.33 6:0.2 7:0.33 9:0.5 12:0.6 14:0.5 16:0.75 17:0.2 20:0.5 21:0.67 22:0.33 24:0.5 25:1.0 26:0.5 27:0.14 29:0.4 30:0.33 31:0.5 32:0.67 33:0.5 34:0.33 35:0.5 36:0.6 37:0.67 38:0.5 39:1.0 40:0.17 41:0.33 45:0.83 46:0.5 47:0.5 48:0.75 49:0.67 50:0.8 51:0.5 53:0.75 54:0.75 55:0.17 57:0.2 59:0.33 60:0.67 61:0.75 62:1.0 63:0.5 64:0.5 65:1.0 67:0.33 68:0.67 69:1.0 70:1.0 71:0.67 72:0.4 73:0.17 75:0.5 76:0.75 78:0.8 80:0.17 81:1.0 82:0.75 83:0.75 84:0.5 85:0.2 86:0.5 88:0.5 89:0.5 90:0.5 91:0.33 92:0.33 94:0.75 95:1.0 96:0.25 97:1.0 99:0.5 100:0.5 101:0.67 105:1.0 107:0.33 108:0.2 111:0.5 112:0.2 113:0.5 114:1.0 116:0.5 117:0.33 118:0.29 119:1.0 120:1.0 124:1.0 125:1.0 126:0.5 127:0.17 128:0.5 130:0.5 131:0.33 132:1.0 137:1.0 138:0.25 139:1.0 143:0.5 145:0.67 146:0.17 149:0.33 
-0.0 -0.0 -0.14344094220284556 -0.0 -0.0 -0.0 -0.43129652833161675 4:0.33 12:0.4 14:0.5 20:1.0 21:0.67 22:0.33 24:0.5 25:1.0 26:0.5 29:0.2 31:0.5 32:0.67 33:0.33 36:0.4 37:0.33 38:0.5 39:0.33 41:0.33 42:0.5 45:0.33 46:0.5 48:0.25 49:0.33 50:0.4 51:0.25 53:0.5 54:0.5 59:0.33 60:0.33 61:0.5 63:0.25 65:0.5 66:1.0 69:0.5 70:0.67 71:0.33 72:0.2 75:0.5 76:0.5 77:1.0 78:0.4 82:0.5 83:0.25 88:0.5 89:0.5 90:1.0 91:0.67 92:0.67 94:0.25 95:0.5 98:0.5 101:0.33 102:0.5 105:0.5 107:0.5 113:0.75 114:1.0 118:0.14 119:0.4 120:0.5 124:0.25 125:1.0 126:0.5 127:0.17 130:1.0 138:0.5 140:0.2 141:0.25 142:1.0 143:0.5 144:0.25 145:1.0 149:0.33 
-0.0 -1.0 -0.0 -0.43641426335403605 -1.0 -0.3871351364698402 -0.0 1:0.33 3:0.2 4:0.33 5:0.33 6:0.2 10:0.5 12:0.4 13:1.0 14:0.5 18:0.5 20:1.0 21:0.67 22:0.33 24:0.5 25:1.0 26:0.5 27:0.14 29:0.2 30:0.33 31:0.5 32:0.67 33:0.33 35:0.5 36:0.4 37:0.33 38:0.5 39:0.33 40:0.17 41:0.67 42:1.0 45:0.33 46:0.5 47:0.5 48:0.25 49:0.33 50:0.4 51:0.5 53:0.5 54:0.5 59:0.33 60:0.33 61:0.5 63:0.25 65:0.5 66:1.0 69:0.5 70:0.67 71:0.33 72:0.4 75:0.5 76:0.5 77:1.0 78:0.4 79:1.0 80:0.17 82:0.5 83:0.25 87:0.5 88:0.5 89:0.5 90:1.0 91:0.67 92:0.67 94:0.25 95:0.5 98:0.5 101:0.33 102:0.5 103:1.0 104:0.33 105:0.5 107:0.5 113:0.75 114:1.0 115:1.0 118:0.14 119:0.4 120:0.5 122:0.83 124:0.25 125:1.0 126:1.0 127:0.17 130:1.0 131:0.33 133:1.0 134:0.5 138:0.5 140:0.2 141:0.25 142:1.0 143:0.5 144:0.25 145:1.0 147:0.5 149:0.67 
