svm_type c_svc
kernel_type rbf
gamma 0.02
nr_class 8
total_sv 87
rho -0.4902345836162567 -0.6123853325843811 -0.009296029806137085 -0.028532891779909624 -0.1124020516872406 -0.9551241099834442 0.8693264126777649 0.3449915051460266 0.9533512724298054 0.473648269415926 0.033970922231674194 0.3049578070640564 0.9714797363912454 0.05047991871833801 -0.007400401524860881 -0.03453502058982843 -0.5964536368846893 0.9075726972873539 0.035297362071734076 -0.0018702615697699244 0.0729882636565441 0.9734267838411247 -0.22635185509861427 0.02760281189467985 0.06781906222292183 0.049379374770892846 0.018826271653850184 0.9123865635946252
label 3 7 4 0 5 6 2 1
nr_sv 11 5 8 14 11 5 7 26
SV
1.0 1.0 1.0 1.0 1.0 1.0 1.0 2:0.14 7:1.0 8:0.67 10:0.5 11:0.5 15:0.4 20:0.67 23:0.8 27:0.5 28:0.67 29:0.5 33:1.0 34:0.33 35:0.57 36:0.67 39:0.2 43:0.75 45:0.2 48:1.0 
0.0 0.8812577301957852 0.0 0.0 0.0 1.0 1.0 4:0.17 8:0.33 10:1.0 15:1.0 18:1.0 20:0.67 23:0.4 28:1.0 29:0.5 31:1.0 32:1.0 34:1.0 35:0.43 36:1.0 39:1.0 43:0.75 45:1.0 48:1.0 
1.0 1.0 1.0 1.0 0.0 1.0 1.0 2:0.14 7:1.0 8:0.67 10:1.0 11:0.5 15:0.6 18:1.0 20:0.67 23:0.8 27:0.5 28:1.0 29:0.5 31:1.0 32:0.5 33:1.0 34:0.5 35:0.71 36:1.0 39:0.4 43:1.0 45:0.4 48:1.0 
1.0 0.11874226980421478 1.0 1.0 1.0 0.9325722458943964 1.0 2:0.14 10:0.5 11:0.5 12:0.17 15:0.2 18:1.0 28:0.33 31:1.0 32:1.0 34:0.17 35:0.14 36:0.33 39:0.2 43:0.25 45:0.2 
1.0 1.0 1.0 1.0 1.0 0.0 1.0 8:0.17 10:0.5 15:0.2 18:1.0 28:0.33 29:0.25 31:1.0 32:1.0 34:0.17 35:0.29 36:0.33 39:0.2 43:0.25 45:0.2 
0.0 1.0 1.0 0.0 0.0 0.0 1.0 8:0.33 10:0.75 15:1.0 18:1.0 20:0.67 23:0.4 28:0.67 29:0.5 31:0.5 32:1.0 34:1.0 35:0.43 36:0.67 39:1.0 43:0.5 45:1.0 48:1.0 
0.0 0.0 0.0 0.0 0.0 0.06742775410560368 1.0 8:0.33 10:1.0 15:1.0 18:1.0 20:0.67 23:0.4 28:1.0 29:0.5 31:1.0 32:1.0 34:1.0 35:0.43 36:1.0 39:1.0 43:0.75 45:1.0 48:1.0 
0.0 1.0 1.0 0.36093874578482915 0.0 0.0 1.0 8:0.33 10:0.75 15:1.0 18:1.0 20:0.67 23:0.4 28:0.67 29:0.5 31:0.5 32:1.0 34:1.0 35:0.43 36:0.67 39:1.0 43:0.5 45:1.0 48:1.0 
0.0 0.0 0.0 0.0 0.0 1.0 1.0 8:0.33 10:1.0 15:1.0 18:1.0 20:0.67 23:0.4 28:1.0 29:0.5 31:1.0 32:1.0 34:1.0 35:0.43 36:1.0 39:1.0 43:0.75 45:1.0 48:1.0 
0.0 1.0 0.8183879076973575 0.0 0.0 1.0 1.0 2:0.14 7:1.0 8:0.5 10:1.0 11:0.5 15:1.0 18:1.0 20:0.67 23:0.6 27:0.5 28:1.0 29:0.5 31:1.0 32:0.5 33:1.0 34:1.0 35:0.57 36:1.0 39:1.0 43:1.0 45:1.0 48:1.0 
1.0 1.0 1.0 1.0 0.9476496149900897 1.0 1.0 2:0.14 7:1.0 8:0.67 10:0.75 11:0.5 15:0.8 20:0.67 23:0.6 27:0.5 28:1.0 29:0.75 31:0.5 33:1.0 34:0.83 35:0.57 36:1.0 39:0.8 43:1.0 45:0.8 48:1.0 
-1.0 1.0 1.0 1.0 1.0 1.0 1.0 4:0.17 
-1.0 1.0 1.0 1.0 1.0 1.0 1.0 2:0.29 4:0.17 7:1.0 8:0.17 11:1.0 12:0.17 23:0.2 27:0.5 33:1.0 35:0.14 43:0.25 
-1.0 1.0 1.0 1.0 1.0 1.0 1.0 1:0.17 2:0.29 4:0.17 6:0.2 7:1.0 8:0.33 10:0.25 11:0.5 12:0.17 13:0.25 14:0.17 15:0.2 16:0.25 17:0.25 19:0.17 20:0.33 22:0.17 23:0.4 25:0.2 27:1.0 28:0.33 29:0.25 30:0.2 33:1.0 34:0.17 35:0.29 36:0.33 37:0.25 40:0.2 41:0.17 42:0.14 43:0.5 44:0.17 45:0.2 46:0.14 47:0.2 48:0.5 50:0.17 
-1.0 1.0 1.0 1.0 1.0 1.0 1.0 2:0.29 7:1.0 8:0.17 11:1.0 12:0.17 23:0.2 27:0.5 33:1.0 35:0.14 43:0.25 
-1.0 1.0 1.0 1.0 1.0 1.0 1.0 2:0.29 7:1.0 8:0.17 11:1.0 12:0.17 23:0.2 27:0.5 33:1.0 35:0.14 43:0.25 
-1.0 -0.0 1.0 0.0 0.0 1.0 1.0 2:0.14 7:1.0 8:1.0 10:0.75 11:0.5 15:0.6 18:1.0 20:1.0 23:1.0 27:0.5 28:0.67 29:1.0 31:0.5 32:0.5 33:1.0 34:0.5 35:1.0 36:0.67 39:0.4 43:0.75 45:0.4 48:1.0 
-1.0 -0.0 1.0 0.32904305390011396 0.0 1.0 1.0 2:0.14 7:1.0 8:1.0 10:0.75 11:0.5 15:0.8 20:1.0 23:1.0 27:0.5 28:1.0 29:1.0 31:0.5 33:1.0 34:0.83 35:0.86 36:1.0 39:0.8 43:1.0 45:0.8 48:1.0 
-1.0 -1.0 1.0 0.731107580314887 0.0 1.0 1.0 2:0.14 7:1.0 8:1.0 10:0.75 11:0.5 15:0.6 18:1.0 20:1.0 23:1.0 27:0.5 28:0.67 29:1.0 31:0.5 32:0.5 33:1.0 34:0.5 35:1.0 36:0.67 39:0.4 43:0.75 45:0.4 48:1.0 
-1.0 -1.0 1.0 1.0 1.0 0.0 1.0 2:0.14 7:1.0 8:0.83 10:0.5 11:0.5 15:0.4 20:1.0 23:1.0 27:0.5 28:0.67 29:0.75 33:1.0 34:0.33 35:0.71 36:0.67 39:0.2 43:0.75 45:0.2 48:1.0 
-1.0 -1.0 1.0 1.0 0.47406500956664205 1.0 1.0 2:0.14 7:1.0 8:1.0 10:0.75 11:0.5 15:0.6 18:1.0 20:1.0 23:1.0 27:0.5 28:0.67 29:1.0 31:0.5 32:0.5 33:1.0 34:0.5 35:1.0 36:0.67 39:0.4 43:0.75 45:0.4 48:1.0 
-1.0 -0.0 0.15815341335652627 0.0 0.0 1.0 1.0 2:0.14 7:1.0 8:1.0 10:1.0 11:0.5 15:0.6 18:1.0 20:1.0 23:1.0 27:0.5 28:1.0 29:1.0 31:1.0 32:0.5 33:1.0 34:0.5 35:1.0 36:1.0 39:0.4 43:1.0 45:0.4 48:1.0 
-1.0 -1.0 1.0 1.0 1.0 1.0 1.0 8:0.67 10:0.5 15:0.4 20:1.0 23:0.6 28:0.67 29:1.0 32:0.5 34:0.33 35:0.57 36:0.67 39:0.2 43:0.5 45:0.2 48:1.0 
-1.0 -1.0 1.0 1.0 1.0 1.0 1.0 8:0.67 10:0.5 15:0.4 20:1.0 23:0.6 28:0.67 29:1.0 32:0.5 34:0.33 35:0.57 36:0.67 39:0.2 43:0.5 45:0.2 48:1.0 
-0.0 -1.0 -0.0 1.0 1.0 0.0 1.0 2:0.29 7:1.0 8:0.17 11:1.0 12:0.17 23:0.2 27:0.5 33:1.0 35:0.14 43:0.25 
-1.0 -0.0 -1.0 1.0 0.0 1.0 1.0 2:0.14 8:0.17 10:0.25 11:0.5 12:0.17 15:0.2 20:0.33 23:0.2 28:0.33 29:0.25 34:0.17 35:0.14 36:0.33 43:0.25 45:0.2 48:0.5 
-1.0 -0.0 -1.0 1.0 0.0 1.0 1.0 2:0.14 7:1.0 8:0.33 11:0.5 23:0.2 27:0.5 29:0.25 33:1.0 35:0.29 43:0.25 
-0.0 -0.0 -0.0 0.0 0.0 0.0 1.0 2:0.14 7:1.0 8:0.17 11:0.5 23:0.2 27:0.5 33:1.0 35:0.14 43:0.25 
-0.0 -0.0 -0.0 0.0 0.0 0.0 1.0 2:0.14 7:1.0 8:0.17 11:0.5 23:0.2 27:0.5 33:1.0 35:0.14 43:0.25 
-1.0 -0.0 -1.0 1.0 0.842316711439879 1.0 1.0 2:0.14 8:0.17 10:0.25 11:0.5 12:0.17 15:0.2 20:0.33 23:0.2 28:0.33 29:0.25 34:0.17 35:0.14 36:0.33 43:0.25 45:0.2 48:0.5 
-1.0 -0.04719486197354088 -0.0 0.0 0.20231184404632796 0.1713904354231573 1.0 2:0.14 11:0.5 12:0.17 32:0.5 
-0.0 -0.841172026784817 -0.15815341335652627 0.0 0.0 0.0 1.0 2:0.14 7:1.0 8:0.17 11:0.5 23:0.2 27:0.5 33:1.0 35:0.14 43:0.25 
-0.8183879076973575 -1.0 -1.0 0.20335974670668783 0.235623234896607 0.8109634586391002 1.0 2:0.14 7:1.0 8:0.17 11:0.5 23:0.2 27:0.5 33:1.0 35:0.14 43:0.25 
-0.0 -0.0 -0.0 0.0 0.0 0.0 1.0 
-1.0 -0.1926184824556575 -1.0 0.12307248659809011 0.5012358653656697 1.0 1.0 2:0.14 7:1.0 8:0.33 11:0.5 23:0.2 27:0.5 29:0.25 33:1.0 35:0.29 43:0.25 
-1.0 -0.9190146287859846 -1.0 1.0 0.9678486990208406 1.0 1.0 2:0.14 8:0.17 10:0.25 11:0.5 12:0.17 15:0.2 20:0.33 23:0.2 28:0.33 29:0.25 34:0.17 35:0.14 36:0.33 43:0.25 45:0.2 48:0.5 
-1.0 -1.0 -1.0 1.0 1.0 1.0 1.0 2:0.14 7:1.0 8:0.17 11:0.5 23:0.2 27:0.5 33:1.0 35:0.14 43:0.25 
-0.0 -0.0 -0.0 0.0 0.0 0.0 1.0 
-0.6546202650166995 -0.0 -0.4704542753840237 -0.0 0.0 1.0 0.4270193919882444 1:1.0 2:0.29 3:1.0 4:0.33 6:1.0 7:1.0 8:0.17 10:0.25 11:0.5 12:0.17 13:1.0 14:1.0 16:1.0 17:1.0 19:1.0 21:1.0 22:1.0 23:0.2 25:1.0 26:1.0 27:1.0 28:0.33 30:1.0 31:0.5 33:1.0 35:0.14 36:0.33 37:0.25 40:0.2 41:0.17 42:0.14 43:0.5 44:0.17 46:1.0 47:1.0 49:1.0 50:1.0 
-0.0 -0.0 -0.0 -1.0 0.0 0.0 0.8666352773898504 1:1.0 2:0.14 3:1.0 4:0.17 6:1.0 12:0.17 13:1.0 14:1.0 16:1.0 17:1.0 19:1.0 21:1.0 22:1.0 25:1.0 26:1.0 27:0.5 30:1.0 37:0.25 40:0.2 41:0.17 42:0.14 44:0.17 46:1.0 47:1.0 49:1.0 50:1.0 
-0.0 -0.2844423612576328 -0.0 -0.47786426932639087 0.8861566318776875 0.0 0.2803353944410315 1:1.0 2:0.43 3:1.0 4:0.17 6:1.0 7:1.0 8:0.17 10:0.25 11:1.0 12:0.33 13:1.0 14:1.0 16:1.0 17:1.0 19:1.0 21:1.0 22:1.0 23:0.2 25:1.0 26:1.0 27:1.0 28:0.33 30:1.0 31:0.5 33:1.0 35:0.14 36:0.33 37:0.25 40:0.2 41:0.17 42:0.14 43:0.5 44:0.17 46:1.0 47:1.0 49:1.0 50:1.0 
-0.0 -0.0 -0.0 -0.17228948136333236 0.8707814641046087 0.0 0.0 1:1.0 2:0.14 3:1.0 4:0.33 6:1.0 12:0.17 13:1.0 14:1.0 16:1.0 17:1.0 19:1.0 21:1.0 22:1.0 25:1.0 26:1.0 27:0.5 30:1.0 37:0.25 40:0.2 41:0.17 42:0.14 44:0.17 46:1.0 47:1.0 49:1.0 50:1.0 
-1.0 -0.0 -1.0 -0.6762784826150549 0.0 1.0 1.0 1:1.0 2:0.43 3:1.0 4:0.17 6:1.0 7:1.0 8:0.33 10:0.25 11:1.0 12:0.33 13:1.0 14:1.0 15:0.2 16:1.0 17:1.0 19:1.0 20:0.33 21:1.0 22:1.0 23:0.4 25:1.0 26:1.0 27:1.0 28:0.33 29:0.25 30:1.0 33:1.0 34:0.17 35:0.29 36:0.33 37:0.25 40:0.2 41:0.17 42:0.14 43:0.5 44:0.17 45:0.2 46:1.0 47:1.0 48:0.5 49:1.0 50:1.0 
-0.0 -0.16223836008549375 -0.0 -0.0 0.036516066902274366 0.0 0.0 1:1.0 2:0.29 3:1.0 4:0.33 6:1.0 7:1.0 8:0.33 11:0.5 12:0.17 13:1.0 14:1.0 16:1.0 17:1.0 19:1.0 21:1.0 22:1.0 23:0.2 25:1.0 26:1.0 27:1.0 29:0.25 30:1.0 33:1.0 35:0.29 37:0.25 40:0.2 41:0.17 42:0.14 43:0.25 44:0.17 46:1.0 47:1.0 49:1.0 50:1.0 
-0.0 -1.0 -0.0 -0.0 0.0 0.0 0.0 1:1.0 2:0.29 3:1.0 4:0.17 6:1.0 7:1.0 8:0.17 11:0.5 12:0.17 13:1.0 14:1.0 16:1.0 17:1.0 19:1.0 21:1.0 22:1.0 23:0.2 25:1.0 26:1.0 27:1.0 30:1.0 33:1.0 35:0.14 37:0.25 40:0.2 41:0.17 42:0.14 43:0.25 44:0.17 46:1.0 47:1.0 49:1.0 50:1.0 
-1.0 -1.0 -1.0 -1.0 1.0 1.0 1.0 1:0.17 2:0.29 4:0.33 6:0.2 7:1.0 8:0.33 10:0.25 11:0.5 12:0.17 13:0.25 14:0.17 15:0.2 16:0.25 17:0.25 19:0.17 20:0.33 22:0.17 23:0.4 25:0.2 27:1.0 28:0.33 29:0.25 30:0.2 33:1.0 34:0.17 35:0.29 36:0.33 37:0.25 40:0.2 41:0.17 42:0.14 43:0.5 44:0.17 45:0.2 46:0.14 47:0.2 48:0.5 50:0.17 
-1.0 -1.0 -1.0 -1.0 1.0 1.0 1.0 2:0.14 8:0.33 10:0.5 11:0.5 12:0.17 15:0.4 20:0.67 23:0.4 28:0.67 29:0.5 32:0.5 34:0.33 35:0.29 36:0.67 39:0.2 43:0.5 45:0.2 48:1.0 
-0.7063184807681295 -0.5533192786568734 -0.5896963588309774 -1.0 0.0 0.09144249048441157 0.993922133799001 1:1.0 2:0.14 3:1.0 4:0.17 6:1.0 12:0.17 13:1.0 14:1.0 16:1.0 17:1.0 19:1.0 21:1.0 22:1.0 25:1.0 26:1.0 27:0.5 30:1.0 37:0.25 40:0.2 41:0.17 42:0.14 44:0.17 46:1.0 47:1.0 49:1.0 50:1.0 
-1.0 -1.0 -1.0 -1.0 1.0 1.0 1.0 2:0.29 7:1.0 8:0.17 11:1.0 12:0.17 23:0.2 27:0.5 33:1.0 35:0.14 43:0.25 
-0.0 -1.0 -0.0 -0.7880806702069776 -1.0 0.0 0.9594103599018513 1:0.17 2:1.0 4:1.0 5:1.0 6:0.2 7:1.0 8:0.17 9:1.0 11:1.0 12:1.0 13:0.25 14:0.17 16:0.25 17:0.25 19:0.17 22:0.17 23:0.2 24:1.0 25:0.2 27:1.0 30:0.2 33:1.0 35:0.14 37:1.0 38:1.0 40:1.0 41:1.0 42:1.0 43:0.25 44:1.0 46:0.14 47:0.2 50:0.17 
-1.0 -1.0 -1.0 -1.0 -1.0 0.968660806267606 1.0 1:0.17 2:0.71 4:1.0 5:1.0 6:0.2 9:1.0 12:0.83 13:0.25 14:0.17 16:0.25 17:0.25 19:0.17 22:0.17 24:1.0 25:0.2 27:0.5 30:0.2 37:1.0 38:1.0 40:1.0 41:1.0 42:1.0 44:1.0 46:0.14 47:0.2 50:0.17 
-1.0 -1.0 -1.0 -1.0 -1.0 1.0 1.0 1:0.17 2:1.0 4:0.83 5:1.0 6:0.2 7:1.0 8:0.33 9:1.0 10:0.25 11:1.0 12:1.0 13:0.25 14:0.17 15:0.2 16:0.25 17:0.25 19:0.17 20:0.33 22:0.17 23:0.4 24:1.0 25:0.2 27:1.0 28:0.33 29:0.25 30:0.2 33:1.0 34:0.17 35:0.29 36:0.33 37:1.0 38:1.0 40:1.0 41:1.0 42:1.0 43:0.5 44:1.0 45:0.2 46:0.14 47:0.2 48:0.5 50:0.17 
-1.0 -1.0 -1.0 -1.0 -1.0 1.0 1.0 1:0.17 2:0.86 4:0.83 5:1.0 6:0.2 8:0.17 9:1.0 10:0.25 11:0.5 12:1.0 13:0.25 14:0.17 15:0.2 16:0.25 17:0.25 19:0.17 20:0.33 22:0.17 23:0.2 24:1.0 25:0.2 27:0.5 28:0.33 29:0.25 30:0.2 34:0.17 35:0.14 36:0.33 37:1.0 38:1.0 40:1.0 41:1.0 42:1.0 43:0.25 44:1.0 45:0.2 46:0.14 47:0.2 48:0.5 50:0.17 
-0.9476496149900897 -1.0 -0.474065009566642 -0.9612556845623463 -0.7934541628845706 0.716112228112254 0.9897081530793649 1:0.17 2:1.0 4:1.0 5:1.0 6:0.2 7:1.0 8:0.17 9:1.0 11:1.0 12:1.0 13:0.25 14:0.17 16:0.25 17:0.25 19:0.17 22:0.17 23:0.2 24:1.0 25:0.2 27:1.0 30:0.2 33:1.0 35:0.14 37:1.0 38:1.0 40:1.0 41:1.0 42:1.0 43:0.25 44:1.0 46:0.14 47:0.2 50:0.17 
-1.0 -1.0 -1.0 -1.0 -1.0 -0.6847730343798599 1.0 2:0.14 7:1.0 8:0.5 10:1.0 11:0.5 15:0.6 18:1.0 20:0.67 23:0.6 27:0.5 28:1.0 29:0.5 31:1.0 32:0.5 33:1.0 34:0.5 35:0.57 36:1.0 39:0.4 43:1.0 45:0.4 48:1.0 
-1.0 -0.0 -1.0 -1.0 -0.0 -0.0 1.0 8:0.33 10:1.0 15:1.0 18:1.0 20:0.67 23:0.4 28:1.0 29:0.5 31:1.0 32:1.0 34:1.0 35:0.43 36:1.0 39:1.0 43:0.75 45:1.0 48:1.0 
-1.0 -1.0 -1.0 -1.0 -1.0 -1.0 1.0 2:0.14 7:1.0 8:0.5 10:0.75 11:0.5 15:0.8 20:0.67 23:0.6 27:0.5 28:1.0 29:0.5 31:0.5 33:1.0 34:0.83 35:0.43 36:1.0 39:0.8 43:1.0 45:0.8 48:1.0 
-1.0 -0.10399909073732082 -1.0 -1.0 -0.12736928628714775 -0.0 1.0 8:0.33 10:1.0 15:1.0 18:1.0 20:0.67 23:0.4 28:1.0 29:0.5 31:1.0 32:1.0 34:1.0 35:0.43 36:1.0 39:1.0 43:0.75 45:1.0 48:1.0 
-1.0 -0.8960009092626792 -1.0 -0.9823538940622576 -0.9640732041972638 -1.0 1.0 2:0.43 4:0.17 7:1.0 8:0.5 9:0.2 10:1.0 11:1.0 12:0.33 15:1.0 18:1.0 20:0.67 23:0.6 24:0.2 27:0.5 28:1.0 29:0.5 31:1.0 32:0.5 33:1.0 34:1.0 35:0.57 36:1.0 37:0.25 38:0.25 39:1.0 40:0.2 41:0.17 42:0.14 43:1.0 44:0.17 45:1.0 48:1.0 
-1.0 -1.0 -1.0 -1.0 -1.0 -1.0 1.0 8:0.17 20:0.33 23:0.2 29:0.25 35:0.14 
-1.0 -1.0 -1.0 -1.0 -1.0 -0.0 1.0 2:0.14 7:1.0 8:0.67 10:1.0 11:0.5 15:0.6 18:1.0 20:0.67 23:0.6 27:0.5 28:1.0 29:0.75 31:1.0 32:0.5 33:1.0 34:0.5 35:0.71 36:1.0 39:0.4 43:1.0 45:0.4 48:1.0 
-1.0 -0.0 -0.07645626738829707 -0.0 -0.0 -0.0 -0.0 8:0.5 10:0.75 15:0.8 20:0.67 23:0.4 28:1.0 29:0.75 31:0.5 32:0.5 34:0.83 35:0.43 36:1.0 39:0.8 43:0.75 45:0.8 48:1.0 
-0.0 -0.0 -0.810284045429558 -1.0 -1.0 -1.0 -0.0 2:0.29 7:1.0 8:0.33 10:0.25 11:1.0 12:0.17 15:0.2 20:0.33 23:0.4 27:0.5 28:0.33 29:0.25 33:1.0 34:0.17 35:0.29 36:0.33 43:0.5 45:0.2 48:0.5 
-1.0 -0.0 -1.0 -0.08464580212689073 -0.0 -0.0 -0.4079094465969909 8:0.5 10:0.75 15:0.8 20:0.67 23:0.4 28:1.0 29:0.75 31:0.5 32:0.5 34:0.83 35:0.43 36:1.0 39:0.8 43:0.75 45:0.8 48:1.0 
-0.0 -0.5064039493634979 -0.0 -1.0 -0.03459634823029546 -0.0 -0.0 2:0.14 7:1.0 8:0.17 11:0.5 23:0.2 27:0.5 33:1.0 35:0.14 43:0.25 
-0.0 -0.0 -0.0 -0.22680583765504017 -0.0 -0.0 -0.0 2:0.14 7:1.0 8:0.17 10:0.25 11:0.5 23:0.2 27:0.5 28:0.33 31:0.5 33:1.0 35:0.14 36:0.33 43:0.5 
-0.0 -0.6407896381488332 -0.0 -0.7003932390912588 -0.16818663059791406 -1.0 -0.0 2:0.29 7:1.0 8:0.33 10:0.25 11:1.0 12:0.17 15:0.2 20:0.33 23:0.4 27:0.5 28:0.33 29:0.25 33:1.0 34:0.17 35:0.29 36:0.33 43:0.5 45:0.2 48:0.5 
-0.0 -1.0 -0.0 -1.0 -0.27917743459233846 -0.0 -0.0 2:0.14 7:1.0 8:0.17 11:0.5 23:0.2 27:0.5 33:1.0 35:0.14 43:0.25 
-1.0 -0.0 -1.0 -0.0 -0.0 -0.0 -0.9896541564874374 2:0.14 7:1.0 8:0.83 10:0.75 11:0.5 15:0.6 18:1.0 20:0.67 23:0.8 27:0.5 28:0.67 29:0.75 31:0.5 32:0.5 33:1.0 34:0.5 35:0.86 36:0.67 39:0.4 43:0.75 45:0.4 48:1.0 
-1.0 -0.0 -1.0 -0.0 -0.037220385238785375 -0.0 -1.0 2:0.14 7:1.0 8:0.5 10:0.75 11:0.5 15:0.8 20:0.67 23:0.6 27:0.5 28:1.0 29:0.5 31:0.5 33:1.0 34:0.83 35:0.43 36:1.0 39:0.8 43:1.0 45:0.8 48:1.0 
-0.0 -1.0 -0.0 -1.0 -1.0 -0.25656102515130785 -0.0 2:0.14 7:1.0 8:0.17 11:0.5 23:0.2 27:0.5 33:1.0 35:0.14 43:0.25 
-1.0 -0.0 -0.0 -0.0 -0.0 -0.0 -1.0 8:0.33 10:0.75 15:1.0 18:1.0 20:0.67 23:0.4 28:0.67 29:0.5 31:0.5 32:1.0 34:1.0 35:0.43 36:0.67 39:1.0 43:0.5 45:1.0 48:1.0 
-0.8277211029455773 -0.0 -1.0 -0.0 -0.19048096443692986 -0.0 -0.9143995878021495 2:0.14 7:1.0 8:0.5 10:0.75 11:0.5 15:0.8 20:0.67 23:0.6 27:0.5 28:1.0 29:0.5 31:0.5 33:1.0 34:0.83 35:0.43 36:1.0 39:0.8 43:1.0 45:0.8 48:1.0 
-0.1722788970544227 -0.0 -0.0 -0.0 -0.0 -0.0 -0.0 2:0.14 7:1.0 8:0.17 10:0.25 11:0.5 15:0.2 18:1.0 23:0.2 27:0.5 31:0.5 32:0.5 33:1.0 34:0.17 35:0.29 39:0.2 43:0.25 45:0.2 
-0.0 -0.0 -0.0 -1.0 -0.0 -0.0 -0.0 2:0.14 7:1.0 8:0.17 10:0.25 11:0.5 23:0.2 27:0.5 28:0.33 31:0.5 33:1.0 35:0.14 36:0.33 43:0.5 
-1.0 -0.0 -0.0 -0.0 -0.0 -0.0 -0.0 2:0.14 7:1.0 8:0.17 10:0.25 11:0.5 15:0.2 18:1.0 23:0.2 27:0.5 31:0.5 32:0.5 33:1.0 34:0.17 35:0.29 39:0.2 43:0.25 45:0.2 
-0.0 -0.0 -0.0 -1.0 -1.0 -0.4720291097900029 -0.0 32:0.5 
-0.0 -0.0 -0.0 -0.9881551211268103 -0.0 -0.0 -0.26643682474118047 2:0.14 7:1.0 8:0.17 10:0.25 11:0.5 23:0.2 27:0.5 28:0.33 31:0.5 33:1.0 35:0.14 36:0.33 43:0.5 
-0.0 -1.0 -0.0 -1.0 -0.985952083806742 -1.0 -0.0 2:0.14 7:1.0 8:0.17 11:0.5 23:0.2 27:0.5 33:1.0 35:0.14 43:0.25 
-1.0 -0.0 -1.0 -0.0 -0.4128023897260304 -0.0 -1.0 2:0.14 7:1.0 8:0.67 10:1.0 11:0.5 15:0.6 18:1.0 20:0.67 23:0.8 27:0.5 28:1.0 29:0.5 31:1.0 32:0.5 33:1.0 34:0.5 35:0.71 36:1.0 39:0.4 43:1.0 45:0.4 48:1.0 
-0.0 -0.0 -0.20720202740378782 -1.0 -0.0 -0.0 -0.0 8:0.33 20:0.33 23:0.2 29:0.5 32:0.5 35:0.29 
-1.0 -0.0 -1.0 -0.0 -0.4594959609890914 -0.0 -0.0 8:0.5 10:0.75 15:0.8 20:1.0 23:0.6 28:1.0 29:0.75 31:0.5 32:0.5 34:0.83 35:0.43 36:1.0 39:0.8 43:0.75 45:0.8 48:1.0 
-1.0 -0.0 -0.26346866958610665 -0.0 -0.0 -0.11469215923449677 -1.0 8:0.33 10:0.75 15:1.0 18:1.0 20:0.67 23:0.4 28:0.67 29:0.5 31:0.5 32:1.0 34:1.0 35:0.43 36:0.67 39:1.0 43:0.5 45:1.0 48:1.0 
-1.0 -0.0 -0.0 -1.0 -0.0 -0.10583621880540853 -0.42159998437224183 10:0.25 15:0.2 18:1.0 31:0.5 32:1.0 34:0.17 35:0.14 39:0.2 45:0.2 
-0.0 -0.0 -0.0 -1.0 -0.0 -0.0 -0.0 2:0.14 7:1.0 8:0.33 11:0.5 20:0.33 23:0.4 27:0.5 29:0.25 33:1.0 35:0.29 43:0.25 
-0.0 -0.0 -0.6425889901922504 -1.0 -0.0 -0.0 -0.0 2:0.14 7:1.0 8:0.33 11:0.5 20:0.33 23:0.4 27:0.5 29:0.25 33:1.0 35:0.29 43:0.25 
-0.0 -0.852806412487669 -0.0 -1.0 -1.0 -1.0 -0.0 1:0.17 2:0.29 4:0.33 6:0.2 8:0.17 10:0.25 11:0.5 12:0.33 13:0.25 14:0.17 15:0.2 16:0.25 17:0.25 19:0.17 20:0.33 22:0.17 23:0.2 25:0.2 27:0.5 28:0.33 29:0.25 30:0.2 32:0.5 34:0.17 35:0.14 36:0.33 37:0.25 40:0.2 41:0.17 42:0.14 43:0.25 44:0.17 45:0.2 46:0.14 47:0.2 48:0.5 50:0.17 
