svm_type c_svc
kernel_type rbf
gamma 0.08333333333333333
nr_class 5
total_sv 10
rho -0.9510435163974762 0.03169339895248413 -0.6104959845542908 0.5929279327392578 0.8219503462314606 0.0 0.8451186081574615 -0.7683647871017456 0.7055151164531708 1.0
label 3 4 0 2 1
nr_sv 2 1 2 1 4
SV
0.024805730086344697 1.0 1.0 1.0 1:0.36 2:0.18 3:0.5 4:0.5 5:1.0 6:0.5 7:1.0 8:0.14 9:1.0 10:1.0 11:0.29 12:1.0 
0.9751942699136553 1.0 0.0 1.0 1:0.36 2:0.09 3:0.5 5:1.0 6:0.25 7:1.0 8:0.14 9:1.0 10:1.0 11:0.29 12:1.0 
-1.0 1.0 1.0 1.0 1:1.0 2:0.09 3:0.5 5:0.82 6:0.25 7:0.69 8:0.14 9:0.9 10:0.75 11:0.29 12:1.0 
-1.0 -0.25332317104093205 0.5196262969812329 1.0 1:0.04 5:0.09 7:0.08 8:1.0 9:0.1 10:0.08 11:0.14 12:1.0 
-1.0 -0.746676828959068 0.48037370301876714 1.0 1:0.08 3:0.5 5:0.18 6:0.25 7:0.15 8:0.14 9:0.2 10:0.17 11:1.0 12:1.0 
-1.0 -1.0 -1.0 1.0 1:0.04 2:1.0 4:1.0 5:0.09 6:0.5 7:0.08 9:0.1 10:0.08 
-0.7147620841941902 -0.03974021958141523 -0.0 -0.0 1:0.16 2:0.27 3:1.0 4:1.0 5:0.27 6:1.0 7:0.23 9:0.3 10:0.25 11:0.14 
-0.28523791580580987 -0.1357251304254916 -0.8778002809954675 -1.0 1:0.04 2:1.0 4:1.0 5:0.09 6:0.5 7:0.08 9:0.1 10:0.08 
-0.0 -0.0 -0.12219971900453247 -0.0 1:0.04 2:0.18 3:1.0 4:1.0 5:0.09 6:1.0 7:0.08 9:0.1 10:0.08 11:0.14 
-1.0 -0.8245346499930931 -1.0 -0.0 1:0.08 3:1.0 5:0.18 6:0.5 7:0.15 8:0.14 9:0.2 10:0.17 11:0.29 12:1.0 
