svm_type c_svc
kernel_type rbf
gamma 0.006578947368421052
nr_class 8
total_sv 86
rho -0.878888875246048 0.016640020479595383 0.013693312521730946 0.05583480541202022 -0.07499269886251188 -0.9939943815071661 0.6648107418838564 0.7655469457054009 1.001514606310137 0.977708630339983 0.8489355742931366 0.5269412100315094 0.9808865338564631 0.034149284624376046 0.16182624441541327 -0.08631246976389656 -0.7043185071998065 0.48344834883629734 -0.10326170921325684 -0.2121222222714863 -0.6863857224022833 0.8680940316202439 -0.7685426184398202 -0.729446142911911 0.29507825069665505 -0.22546693682670593 0.2283553175224804 1.0042435814174653
label 3 7 4 0 5 6 2 1
nr_sv 13 3 9 15 10 7 4 25
SV
0.0 1.0 1.0 1.0 0.7187295530546276 0.1206322138783823 1.0 1:1.0 2:0.17 4:1.0 5:0.5 7:0.5 9:0.17 10:1.0 11:0.33 13:1.0 14:1.0 15:0.14 16:0.5 17:0.5 19:1.0 20:0.33 22:0.5 25:0.33 26:0.5 28:1.0 32:0.2 36:0.67 39:1.0 40:0.5 45:0.33 47:0.5 49:0.67 50:0.25 58:0.5 59:1.0 62:0.14 65:1.0 69:1.0 71:1.0 72:0.33 74:0.14 77:1.0 78:0.2 79:0.75 80:0.33 81:0.5 87:1.0 88:0.17 89:0.2 92:0.5 95:1.0 97:1.0 99:0.5 102:0.25 103:0.33 104:0.17 105:1.0 110:0.5 113:0.17 116:0.33 117:0.2 118:0.2 119:1.0 120:0.29 121:0.5 126:1.0 130:1.0 133:0.33 135:0.17 137:0.43 139:0.5 140:0.33 142:1.0 143:0.5 144:0.5 145:0.67 146:0.14 147:0.4 152:1.0 
0.13528654708779952 0.7181910209411843 1.0 1.0 1.0 0.006907140417001924 1.0 2:0.17 3:0.33 4:1.0 5:1.0 8:0.5 9:0.33 10:1.0 11:0.33 12:0.25 14:1.0 15:0.29 17:0.5 18:0.5 19:1.0 20:0.33 22:1.0 24:0.2 26:0.25 27:0.25 30:0.25 32:0.2 34:0.25 35:0.2 36:0.33 40:1.0 45:0.33 46:1.0 47:0.5 49:0.67 50:0.5 51:0.2 53:1.0 54:0.17 55:1.0 56:0.25 57:0.5 58:0.5 59:1.0 61:0.33 62:0.14 63:0.33 65:0.5 66:0.5 67:0.17 69:0.67 72:0.67 74:0.29 76:0.33 78:0.2 79:0.5 80:0.33 81:0.5 82:0.5 83:0.33 86:0.5 87:0.5 88:0.33 89:0.2 90:0.33 92:0.5 93:0.2 95:1.0 98:0.33 99:0.5 100:0.5 101:0.33 103:0.67 104:0.33 105:0.67 106:0.33 107:0.5 111:0.5 113:0.17 115:1.0 116:0.33 117:0.2 118:0.4 119:1.0 120:0.43 121:0.5 130:1.0 133:0.5 135:0.17 137:0.57 139:0.5 140:0.33 142:1.0 143:0.5 144:1.0 145:1.0 146:0.14 147:0.6 149:1.0 152:1.0 
0.0 0.2567151526276129 0.0 0.0 0.0 0.0 1.0 1:1.0 4:1.0 6:0.5 7:0.5 10:1.0 13:1.0 15:0.14 16:0.5 17:1.0 20:0.33 22:0.5 23:0.5 25:0.33 26:0.25 28:1.0 36:0.33 39:1.0 41:1.0 45:0.33 47:1.0 49:1.0 53:1.0 57:0.5 59:0.5 65:1.0 69:1.0 71:1.0 73:0.5 77:1.0 79:0.5 81:1.0 83:0.33 84:0.33 87:1.0 88:0.17 95:1.0 97:1.0 98:0.33 102:0.25 103:0.33 104:0.17 105:0.67 106:0.33 110:1.0 118:1.0 119:1.0 120:1.0 123:0.17 126:1.0 127:0.2 129:0.17 130:0.5 133:1.0 134:0.14 135:0.33 136:0.17 137:0.86 141:0.2 142:1.0 144:1.0 145:1.0 146:0.14 147:1.0 149:1.0 152:0.5 
0.0 0.0 1.0 1.0 0.0 0.0 1.0 2:0.17 4:1.0 5:0.5 9:0.17 10:1.0 11:0.33 14:1.0 15:0.14 17:1.0 19:1.0 20:0.33 22:0.5 26:0.25 32:0.2 36:0.33 40:0.5 41:1.0 45:0.33 47:1.0 49:1.0 50:0.25 53:1.0 57:0.5 58:0.5 59:1.0 62:0.14 65:0.5 69:0.67 72:0.33 74:0.14 78:0.2 79:0.5 80:0.33 81:1.0 83:0.33 87:0.5 88:0.17 89:0.2 92:0.5 95:1.0 98:0.33 99:0.5 103:0.33 104:0.17 105:0.67 106:0.33 110:0.5 113:0.17 116:0.33 117:0.2 118:0.4 119:1.0 120:0.43 121:0.5 130:1.0 133:0.5 135:0.17 137:0.57 139:0.5 140:0.33 142:1.0 143:0.5 144:1.0 145:1.0 146:0.14 147:0.6 149:1.0 152:1.0 
0.0 0.0 1.0 1.0 0.0 0.8450156159349442 1.0 2:0.17 4:1.0 5:0.5 9:0.17 10:1.0 11:0.33 14:1.0 15:0.14 17:0.5 19:1.0 20:0.33 22:0.5 26:0.25 32:0.2 36:0.33 40:0.5 45:0.33 47:0.5 49:0.67 50:0.25 53:1.0 58:0.5 59:1.0 62:0.14 65:0.5 69:0.67 72:0.33 74:0.14 78:0.2 79:0.5 80:0.33 81:0.5 87:0.5 88:0.17 89:0.2 92:0.5 95:1.0 99:0.5 103:0.33 104:0.17 105:0.67 113:0.17 116:0.33 117:0.2 118:0.4 119:1.0 120:0.43 121:0.5 130:1.0 133:0.5 135:0.17 137:0.57 139:0.5 140:0.33 142:1.0 143:0.5 144:1.0 145:1.0 146:0.14 147:0.6 149:1.0 152:1.0 
1.0 1.0 1.0 1.0 1.0 0.0 1.0 7:0.5 9:0.17 12:0.25 18:0.5 23:0.5 25:0.33 26:0.25 27:0.25 30:0.25 31:0.5 32:0.2 37:0.33 38:0.5 42:0.25 48:0.33 50:0.25 52:1.0 53:1.0 56:0.25 61:0.33 63:0.33 67:0.17 68:0.33 74:0.14 76:0.33 80:0.33 84:0.33 90:0.33 93:0.2 94:1.0 96:0.33 102:0.25 106:0.33 108:1.0 109:0.33 116:0.33 118:0.2 120:0.14 121:0.5 122:1.0 124:0.33 128:0.14 131:0.17 133:0.17 135:0.17 136:0.17 137:0.14 138:1.0 141:0.2 144:0.5 145:0.33 146:0.14 147:0.2 148:0.14 149:1.0 
0.0 1.0 0.8299576394548116 0.0 0.0 1.0 1.0 2:0.17 4:1.0 5:0.5 6:0.5 9:0.17 10:1.0 11:0.33 14:1.0 15:0.14 17:0.5 19:1.0 20:0.33 22:0.5 23:0.5 26:0.25 32:0.2 36:0.33 40:0.5 41:1.0 45:0.67 47:0.5 49:1.0 50:0.25 53:1.0 58:0.5 59:1.0 62:0.14 65:0.5 69:0.67 72:0.33 73:0.5 74:0.14 78:0.2 79:0.5 80:0.33 81:1.0 84:0.33 87:0.5 88:0.17 89:0.2 92:0.5 95:1.0 99:0.5 103:0.33 104:0.17 105:0.67 110:0.5 113:0.17 116:0.33 117:0.2 118:1.0 119:1.0 120:1.0 121:0.5 123:0.17 127:0.2 129:0.17 130:1.0 133:1.0 134:0.14 135:0.33 136:0.17 137:1.0 139:0.5 140:0.33 141:0.2 142:1.0 143:0.5 144:1.0 145:1.0 146:0.29 147:1.0 149:1.0 152:1.0 
0.0 1.0 1.0 1.0 0.9905373920916789 0.3707666023502913 1.0 2:0.33 4:1.0 5:0.5 6:0.5 7:1.0 9:0.33 11:0.33 12:0.25 13:0.25 14:1.0 16:0.5 17:0.5 18:0.5 19:1.0 23:1.0 25:0.67 26:0.75 27:0.25 28:0.17 30:0.25 31:0.5 32:0.4 36:0.67 37:0.33 38:0.5 40:0.5 41:1.0 42:0.25 44:0.25 45:0.67 47:0.5 48:0.33 49:0.67 50:0.5 52:1.0 53:1.0 56:0.25 58:0.5 59:1.0 60:0.2 61:0.33 62:0.29 63:0.33 65:0.5 67:0.17 68:0.33 69:0.67 72:0.33 73:0.5 74:0.29 76:0.33 77:0.33 78:0.4 79:0.75 80:0.67 81:1.0 84:0.67 85:0.17 87:1.0 89:0.4 90:0.33 92:0.5 93:0.2 94:1.0 95:1.0 96:0.33 97:1.0 99:0.5 102:0.5 105:1.0 106:0.33 108:1.0 109:0.33 110:1.0 113:0.33 114:0.2 116:0.67 117:0.4 118:0.8 119:1.0 120:0.86 121:1.0 122:1.0 123:0.17 124:0.33 126:1.0 127:0.2 128:0.14 129:0.17 130:1.0 131:0.17 133:0.83 134:0.14 135:0.5 136:0.33 137:0.86 138:1.0 139:0.5 140:0.33 141:0.4 142:0.5 143:0.5 144:1.0 145:0.67 146:0.43 147:0.8 148:0.14 149:1.0 152:1.0 
0.0 1.0 1.0 0.5664922378506981 0.0 0.43334369687955787 1.0 1:0.25 2:0.17 4:1.0 5:0.5 6:0.5 9:0.17 10:1.0 11:0.33 13:0.25 14:1.0 15:0.14 17:0.5 19:1.0 20:0.33 22:0.5 23:0.5 26:0.25 28:0.17 32:0.2 36:0.33 39:0.33 40:0.5 41:1.0 45:0.67 47:0.5 49:1.0 50:0.25 53:1.0 58:0.5 59:1.0 62:0.14 65:0.5 69:0.67 71:1.0 72:0.33 73:0.5 74:0.14 77:0.33 78:0.2 79:0.5 80:0.33 81:1.0 84:0.33 87:0.5 88:0.17 89:0.2 92:0.5 95:1.0 99:0.5 103:0.33 104:0.17 105:0.67 110:0.5 113:0.17 116:0.33 117:0.2 118:1.0 119:1.0 120:1.0 121:0.5 123:0.17 127:0.2 129:0.17 130:1.0 133:1.0 134:0.14 135:0.33 136:0.17 137:1.0 139:0.5 140:0.33 141:0.2 142:1.0 143:0.5 144:1.0 145:1.0 146:0.29 147:1.0 148:0.14 149:1.0 150:0.5 152:1.0 
0.0 0.0 1.0 0.30578289086064664 0.0839918485419335 0.0 1.0 4:1.0 10:1.0 15:0.14 17:1.0 20:0.33 22:0.5 41:1.0 47:1.0 49:1.0 53:1.0 57:0.5 59:0.5 65:0.5 69:0.67 79:0.25 81:1.0 83:0.33 87:0.5 88:0.17 95:1.0 98:0.33 103:0.33 104:0.17 105:0.33 106:0.33 110:0.5 118:0.4 119:1.0 120:0.43 130:0.5 133:0.5 135:0.17 137:0.43 142:1.0 144:1.0 145:1.0 147:0.6 149:1.0 152:0.5 
0.0 0.9866620422887484 0.0 0.0 0.0 0.6150819527006623 1.0 1:1.0 4:1.0 6:0.5 7:0.5 10:1.0 13:1.0 15:0.14 16:0.5 17:1.0 20:0.33 22:0.5 23:0.5 25:0.33 26:0.25 28:1.0 36:0.33 39:1.0 41:1.0 45:0.33 47:1.0 49:1.0 53:1.0 57:0.5 59:0.5 65:1.0 69:1.0 71:1.0 73:0.5 77:1.0 79:0.5 81:1.0 83:0.33 84:0.33 87:1.0 88:0.17 95:1.0 97:1.0 98:0.33 102:0.25 103:0.33 104:0.17 105:0.67 106:0.33 110:1.0 118:1.0 119:1.0 120:1.0 123:0.17 126:1.0 127:0.2 129:0.17 130:0.5 133:1.0 134:0.14 135:0.33 136:0.17 137:0.86 141:0.2 142:1.0 144:1.0 145:1.0 146:0.14 147:1.0 149:1.0 152:0.5 
1.0 1.0 1.0 1.0 1.0 0.3659545727365835 1.0 4:1.0 7:0.5 9:0.17 12:0.25 17:1.0 18:0.5 23:0.5 25:0.33 26:0.25 27:0.25 30:0.25 31:0.5 32:0.2 37:0.33 38:0.5 41:1.0 42:0.25 47:1.0 48:0.33 49:0.67 50:0.25 52:1.0 56:0.25 57:0.5 59:0.5 61:0.33 63:0.33 67:0.17 68:0.33 69:0.33 74:0.14 76:0.33 79:0.25 80:0.33 81:1.0 83:0.33 84:0.33 87:0.5 90:0.33 93:0.2 94:1.0 95:1.0 96:0.33 98:0.33 102:0.25 105:0.33 106:0.67 108:1.0 109:0.33 110:0.5 116:0.33 119:1.0 120:0.14 121:0.5 122:1.0 124:0.33 128:0.14 130:0.5 131:0.17 133:0.17 135:0.33 136:0.17 137:0.14 138:1.0 141:0.2 142:0.5 144:0.5 145:0.33 146:0.14 147:0.2 148:0.14 152:0.5 
0.8647134529122005 1.0 1.0 1.0 1.0 0.24229820510257638 1.0 1:0.25 2:0.17 5:0.5 7:0.5 9:0.33 11:0.33 12:0.25 13:0.25 14:1.0 18:0.5 19:1.0 23:0.5 25:0.33 26:0.5 27:0.25 28:0.17 30:0.25 31:0.5 32:0.4 36:0.33 37:0.33 38:0.5 39:0.33 40:0.5 42:0.25 45:0.33 48:0.33 50:0.5 52:1.0 56:0.25 58:0.5 59:0.5 61:0.33 62:0.14 63:0.33 67:0.17 68:0.33 71:1.0 72:0.33 73:0.5 74:0.29 76:0.33 77:0.33 78:0.2 79:0.25 80:0.67 84:0.33 89:0.2 90:0.33 92:0.5 93:0.2 94:1.0 96:0.33 99:0.5 102:0.25 105:0.33 106:0.33 108:1.0 109:0.33 113:0.17 116:0.67 117:0.2 121:1.0 122:1.0 123:0.17 124:0.33 127:0.2 128:0.14 129:0.17 130:0.5 131:0.17 134:0.14 135:0.33 136:0.33 137:0.14 138:1.0 139:0.5 140:0.33 141:0.4 143:0.5 146:0.43 148:0.14 151:0.17 152:0.5 
-1.0 1.0 1.0 1.0 1.0 1.0 1.0 3:0.67 7:0.5 9:0.17 12:0.5 15:0.14 18:0.5 20:0.33 23:0.5 24:0.2 25:0.33 26:0.25 27:0.5 29:0.5 30:0.5 31:0.5 32:0.2 33:1.0 34:0.25 35:0.2 37:0.67 38:0.5 42:0.75 43:1.0 48:0.67 50:0.25 52:1.0 54:0.17 56:0.75 61:0.67 63:0.67 67:0.33 68:0.33 72:0.33 74:0.29 76:0.33 80:0.33 83:0.33 84:0.33 86:0.5 88:0.17 90:0.33 93:0.4 94:1.0 96:0.67 98:0.33 101:0.33 102:0.25 103:0.33 106:0.33 107:0.5 108:1.0 109:1.0 111:0.5 112:1.0 116:0.33 121:0.5 122:1.0 124:1.0 125:1.0 128:0.29 131:0.33 132:1.0 135:0.17 136:0.17 138:1.0 140:0.33 141:0.2 143:0.5 146:0.14 148:0.29 150:0.5 
-1.0 1.0 1.0 1.0 1.0 1.0 1.0 3:0.67 7:0.5 9:0.17 12:0.5 15:0.14 18:0.5 20:0.33 23:0.5 24:0.2 25:0.33 26:0.25 27:0.5 29:0.5 30:0.5 31:0.5 32:0.2 33:1.0 34:0.25 35:0.2 37:0.67 38:0.5 42:0.75 43:1.0 48:0.67 50:0.25 52:1.0 54:0.17 56:0.75 61:0.67 63:0.67 67:0.33 68:0.33 72:0.33 74:0.29 76:0.33 80:0.33 83:0.33 84:0.33 86:0.5 88:0.17 90:0.33 93:0.4 94:1.0 96:0.67 98:0.33 101:0.33 102:0.25 103:0.33 106:0.33 107:0.5 108:1.0 109:1.0 111:0.5 112:1.0 116:0.33 121:0.5 122:1.0 124:1.0 125:1.0 128:0.29 131:0.33 132:1.0 135:0.17 136:0.17 138:1.0 140:0.33 141:0.2 143:0.5 146:0.14 148:0.29 150:0.5 
-1.0 1.0 1.0 1.0 1.0 1.0 1.0 2:0.17 4:1.0 7:0.5 9:0.17 12:0.25 15:0.14 17:0.5 18:0.5 20:0.33 23:0.5 25:0.33 26:0.25 27:0.25 30:0.25 31:0.5 32:0.2 35:0.2 37:0.33 38:0.5 42:0.25 44:0.25 47:0.5 48:0.33 49:0.33 50:0.25 51:0.2 52:1.0 53:1.0 54:0.17 56:0.25 59:0.5 60:0.2 61:0.33 62:0.14 63:0.33 67:0.17 68:0.33 69:0.33 74:0.14 76:0.33 78:0.2 79:0.25 80:0.33 81:0.5 84:0.33 85:0.17 87:0.5 88:0.17 89:0.2 90:0.33 91:0.25 93:0.2 94:1.0 95:1.0 96:0.33 100:0.5 102:0.25 104:0.17 105:0.33 106:0.33 108:1.0 109:0.33 113:0.17 114:0.2 116:0.33 117:0.2 118:0.2 119:1.0 120:0.29 121:0.5 122:1.0 124:0.33 128:0.14 130:0.5 131:0.17 133:0.33 135:0.33 136:0.17 137:0.29 138:1.0 141:0.2 142:0.5 144:1.0 145:0.67 146:0.14 147:0.4 148:0.14 149:1.0 152:0.5 
-1.0 -0.0 1.0 0.010263282402886782 0.0 0.30881454611073444 1.0 4:1.0 6:1.0 7:0.5 9:0.17 11:0.33 12:0.25 16:0.5 17:1.0 18:0.5 23:1.0 25:0.67 26:0.5 27:0.25 30:0.25 31:0.5 32:0.2 36:0.33 37:0.33 38:1.0 41:1.0 42:0.25 45:0.67 47:1.0 48:0.33 49:0.67 50:0.25 52:1.0 53:1.0 56:0.25 57:0.5 58:0.5 59:0.5 61:0.33 63:0.33 67:0.17 68:0.67 69:0.33 70:0.5 73:1.0 74:0.14 75:1.0 76:0.33 79:0.5 80:0.67 81:1.0 83:0.33 84:1.0 87:0.5 90:0.33 93:0.2 94:1.0 95:1.0 96:0.33 98:0.33 102:0.5 105:0.33 106:0.67 108:1.0 109:0.33 110:0.5 116:0.33 118:0.4 119:1.0 120:0.43 121:0.5 122:1.0 123:1.0 124:0.33 127:1.0 128:0.14 129:1.0 130:0.5 131:0.17 133:0.5 134:1.0 135:1.0 136:1.0 137:0.43 138:1.0 141:1.0 142:0.5 144:1.0 145:0.67 146:0.86 147:0.4 148:0.14 149:1.0 151:1.0 152:0.5 
-1.0 -0.0 1.0 1.0 0.0 0.0 1.0 1:1.0 2:0.17 4:1.0 5:0.5 6:1.0 7:1.0 9:0.33 11:1.0 12:0.25 13:1.0 14:1.0 16:1.0 17:0.5 18:0.5 19:1.0 23:1.0 25:1.0 26:1.0 27:0.5 28:1.0 29:0.5 30:0.5 31:0.5 32:0.4 36:1.0 37:0.67 38:1.0 39:1.0 40:0.5 41:1.0 42:0.5 45:1.0 47:0.5 48:0.67 49:0.67 50:0.5 52:1.0 56:0.25 58:1.0 59:1.0 61:0.33 62:0.14 63:0.33 65:0.5 67:0.17 68:1.0 69:0.67 70:1.0 71:1.0 72:0.33 73:1.0 74:0.29 75:1.0 76:0.33 77:1.0 78:0.2 79:1.0 80:1.0 81:1.0 82:0.5 84:1.0 87:1.0 89:0.2 90:0.67 92:0.5 93:0.2 94:1.0 95:1.0 96:0.33 97:1.0 99:0.5 101:0.33 102:1.0 105:1.0 106:0.33 108:1.0 109:0.33 110:1.0 113:0.17 116:0.67 117:0.2 118:0.2 119:1.0 120:0.29 121:1.0 122:1.0 123:1.0 124:0.33 126:1.0 127:1.0 128:0.14 129:1.0 130:1.0 131:0.17 133:0.33 134:1.0 135:1.0 136:1.0 137:0.43 138:1.0 139:0.5 140:0.33 141:1.0 142:0.5 143:0.5 144:0.5 145:0.33 146:1.0 147:0.2 148:0.14 151:1.0 152:1.0 
-1.0 -1.0 1.0 1.0 1.0 1.0 1.0 4:1.0 6:0.5 7:0.5 9:0.17 12:0.25 17:1.0 18:0.5 23:1.0 25:0.33 26:0.25 27:0.25 30:0.25 31:0.5 32:0.2 37:0.33 38:0.5 41:1.0 42:0.25 45:0.33 47:1.0 48:0.33 49:0.67 50:0.25 52:1.0 56:0.25 57:0.5 59:0.5 61:0.33 63:0.33 67:0.17 68:0.33 69:0.33 73:1.0 74:0.14 76:0.33 79:0.25 80:0.33 81:1.0 83:0.33 84:0.67 87:0.5 90:0.33 93:0.2 94:1.0 95:1.0 96:0.33 98:0.33 102:0.25 105:0.33 106:0.67 108:1.0 109:0.33 110:0.5 116:0.33 118:0.2 119:1.0 120:0.29 121:0.5 122:1.0 123:1.0 124:0.33 127:1.0 128:0.14 129:1.0 130:0.5 131:0.17 133:0.33 134:1.0 135:1.0 136:0.83 137:0.29 138:1.0 141:1.0 142:0.5 144:0.5 145:0.33 146:0.71 147:0.2 148:0.14 151:1.0 152:0.5 
-1.0 -0.8316717734987447 1.0 1.0 1.0 1.0 1.0 6:0.5 23:0.5 45:0.33 73:1.0 84:0.33 118:0.2 120:0.14 123:1.0 127:1.0 129:1.0 133:0.17 134:1.0 135:0.67 136:0.67 137:0.14 141:0.8 146:0.57 151:1.0 
-1.0 -0.1834471394495477 1.0 1.0 0.0 0.309777912449101 1.0 2:0.17 4:1.0 5:0.5 6:1.0 7:0.5 9:0.33 11:1.0 12:0.25 14:1.0 16:0.5 17:0.5 18:0.5 19:1.0 23:1.0 25:0.67 26:0.75 27:0.5 29:0.5 30:0.5 31:0.5 32:0.4 36:0.67 37:0.67 38:1.0 40:0.5 42:0.5 45:1.0 47:0.5 48:0.67 49:0.33 50:0.5 52:1.0 53:1.0 56:0.25 58:1.0 59:1.0 61:0.33 62:0.14 63:0.33 67:0.17 68:1.0 69:0.33 70:1.0 72:0.33 73:1.0 74:0.29 75:1.0 76:0.33 78:0.2 79:0.75 80:1.0 81:0.5 82:0.5 84:1.0 87:0.5 89:0.2 90:0.67 92:0.5 93:0.2 94:1.0 95:1.0 96:0.33 99:0.5 101:0.33 102:0.75 105:0.67 106:0.33 108:1.0 109:0.33 113:0.17 116:0.67 117:0.2 118:0.4 119:1.0 120:0.43 121:1.0 122:1.0 123:1.0 124:0.33 127:1.0 128:0.14 129:1.0 130:1.0 131:0.17 133:0.5 134:1.0 135:1.0 136:1.0 137:0.57 138:1.0 139:0.5 140:0.33 141:1.0 142:0.5 143:0.5 144:1.0 145:0.67 146:1.0 147:0.4 148:0.14 149:1.0 151:1.0 152:1.0 
-0.9615682158575457 -0.03011044784911804 1.0 1.0 1.0 0.0 1.0 1:0.25 2:0.33 5:0.5 6:1.0 7:0.5 9:0.33 11:0.67 12:0.25 13:0.25 14:1.0 16:0.5 18:0.5 19:1.0 23:1.0 25:0.67 26:0.75 27:0.25 28:0.17 30:0.25 31:0.5 32:0.4 36:0.67 37:0.33 38:1.0 39:0.33 40:0.5 42:0.25 44:0.25 45:1.0 48:0.33 50:0.5 52:1.0 56:0.25 58:1.0 59:0.5 60:0.2 61:0.33 62:0.29 63:0.33 67:0.17 68:0.67 70:0.5 71:1.0 72:0.33 73:1.0 74:0.29 75:1.0 76:0.33 77:0.33 78:0.4 79:0.5 80:1.0 84:1.0 85:0.17 89:0.4 90:0.33 92:0.5 93:0.2 94:1.0 96:0.33 99:0.5 102:0.5 105:0.33 106:0.33 108:1.0 109:0.33 113:0.33 114:0.2 116:0.67 117:0.4 118:0.2 120:0.14 121:1.0 122:1.0 123:1.0 124:0.33 127:1.0 128:0.14 129:1.0 130:0.5 131:0.17 133:0.17 134:1.0 135:0.83 136:1.0 137:0.29 138:1.0 139:0.5 140:0.33 141:1.0 143:0.5 146:1.0 148:0.29 150:0.5 151:1.0 152:0.5 
-1.0 -0.05972936885983944 0.8457646134110011 0.41201215083249915 0.6404750155580131 0.9509372162258038 1.0 1:1.0 2:0.17 4:1.0 5:0.5 6:1.0 7:1.0 9:0.33 11:1.0 12:0.25 13:1.0 14:1.0 16:1.0 17:0.5 18:0.5 19:1.0 23:1.0 25:1.0 26:1.0 27:0.5 28:1.0 29:0.5 30:0.5 31:0.5 32:0.4 36:1.0 37:0.67 38:1.0 39:1.0 40:0.5 42:0.5 45:1.0 47:0.5 48:0.67 49:0.33 50:0.5 52:1.0 53:1.0 56:0.25 58:1.0 59:1.0 61:0.33 62:0.14 63:0.33 65:0.5 67:0.17 68:1.0 69:0.67 70:1.0 71:1.0 72:0.33 73:1.0 74:0.29 75:1.0 76:0.33 77:1.0 78:0.2 79:1.0 80:1.0 81:0.5 82:0.5 84:1.0 87:1.0 89:0.2 90:0.67 92:0.5 93:0.2 94:1.0 95:1.0 96:0.33 97:1.0 99:0.5 101:0.33 102:1.0 105:1.0 106:0.33 108:1.0 109:0.33 110:0.5 113:0.17 116:0.67 117:0.2 118:0.4 119:1.0 120:0.43 121:1.0 122:1.0 123:1.0 124:0.33 126:1.0 127:1.0 128:0.14 129:1.0 130:1.0 131:0.17 133:0.5 134:1.0 135:1.0 136:1.0 137:0.57 138:1.0 139:0.5 140:0.33 141:1.0 142:0.5 143:0.5 144:1.0 145:0.67 146:1.0 147:0.4 148:0.14 149:1.0 151:1.0 152:1.0 
-1.0 -0.8950412703427503 1.0 1.0 1.0 0.0 1.0 6:1.0 7:0.5 8:0.5 9:0.33 11:0.33 12:0.25 16:0.5 18:0.5 23:1.0 24:0.2 25:0.67 26:0.5 27:0.25 30:0.25 31:0.5 32:0.4 36:0.33 37:0.33 38:1.0 42:0.25 45:0.67 48:0.33 50:0.25 52:1.0 56:0.25 58:0.5 61:0.33 63:0.33 66:0.5 67:0.33 68:0.67 70:0.5 73:1.0 74:0.29 75:1.0 76:0.67 79:0.25 80:0.67 84:1.0 90:0.33 93:0.2 94:1.0 96:0.33 99:0.5 102:0.5 106:0.33 108:1.0 109:0.33 116:0.33 118:0.2 120:0.14 121:0.5 122:1.0 123:1.0 124:0.33 127:1.0 128:0.14 129:1.0 131:0.33 133:0.17 134:1.0 135:0.83 136:1.0 137:0.14 138:1.0 139:0.5 140:0.33 141:1.0 146:0.86 148:0.29 151:1.0 
-1.0 -0.0 1.0 1.0 0.5736590712685862 0.4304703252143607 1.0 2:0.17 4:1.0 5:0.5 6:1.0 7:0.5 8:0.5 9:0.5 11:0.67 12:0.25 14:1.0 16:0.5 17:0.5 18:0.5 19:1.0 23:1.0 24:0.2 25:0.67 26:0.75 27:0.25 30:0.25 31:0.5 32:0.6 36:0.67 37:0.33 38:1.0 40:0.5 41:1.0 42:0.25 45:1.0 47:0.5 48:0.33 49:0.67 50:0.5 52:1.0 56:0.25 58:1.0 59:1.0 61:0.33 62:0.14 63:0.33 66:0.5 67:0.33 68:0.67 69:0.33 70:0.5 72:0.33 73:1.0 74:0.43 75:1.0 76:0.67 78:0.2 79:0.75 80:1.0 81:1.0 84:1.0 87:0.5 89:0.2 90:0.33 92:0.5 93:0.2 94:1.0 95:1.0 96:0.33 99:1.0 102:0.5 105:0.67 106:0.33 108:1.0 109:0.33 110:0.5 113:0.17 116:0.67 117:0.2 118:0.2 119:1.0 120:0.29 121:1.0 122:1.0 123:1.0 124:0.33 127:1.0 128:0.14 129:1.0 130:1.0 131:0.33 133:0.33 134:1.0 135:1.0 136:1.0 137:0.43 138:1.0 139:1.0 140:0.67 141:1.0 142:0.5 143:0.5 144:0.5 145:0.33 146:1.0 147:0.2 148:0.29 151:1.0 152:1.0 
-1.0 -0.0 -0.9792191532934644 1.0 1.0 0.0 1.0 2:0.17 5:0.5 7:0.5 8:0.5 9:0.5 11:0.33 12:0.25 14:1.0 18:0.5 19:1.0 23:0.5 24:0.2 25:0.33 26:0.5 27:0.25 30:0.25 31:0.5 32:0.6 36:0.33 37:0.33 38:0.5 40:0.5 42:0.25 45:0.33 48:0.33 50:0.5 52:1.0 56:0.25 58:0.5 59:0.5 61:0.33 62:0.14 63:0.33 66:0.5 67:0.33 68:0.33 72:0.33 74:0.43 76:0.67 78:0.2 79:0.25 80:0.67 84:0.33 89:0.2 90:0.33 92:0.5 93:0.2 94:1.0 96:0.33 99:1.0 102:0.25 105:0.33 106:0.33 108:1.0 109:0.33 113:0.17 116:0.67 117:0.2 121:1.0 122:1.0 124:0.33 128:0.14 130:0.5 131:0.33 135:0.17 136:0.17 137:0.14 138:1.0 139:1.0 140:0.67 141:0.2 143:0.5 146:0.29 148:0.43 150:0.5 152:0.5 
-1.0 -0.0 -0.0 1.0 0.0 1.0 1.0 2:0.17 5:0.5 9:0.17 11:0.33 14:1.0 19:1.0 26:0.25 32:0.2 36:0.33 40:0.5 45:0.33 50:0.25 58:0.5 59:0.5 62:0.14 72:0.33 74:0.14 78:0.2 79:0.25 80:0.33 89:0.2 92:0.5 99:0.5 105:0.33 113:0.17 116:0.33 117:0.2 121:0.5 130:0.5 137:0.14 139:0.5 140:0.33 143:0.5 146:0.14 148:0.14 150:0.5 152:0.5 
-1.0 -0.0 -1.0 0.0 0.3321799669081519 0.0 1.0 6:0.5 7:0.5 9:0.17 11:0.33 12:0.25 16:0.5 18:0.5 23:0.5 25:0.67 26:0.5 27:0.25 30:0.25 31:0.5 32:0.2 36:0.33 37:0.33 38:1.0 42:0.25 45:0.33 48:0.33 50:0.25 52:1.0 56:0.25 58:0.5 61:0.33 63:0.33 67:0.17 68:0.67 70:0.5 74:0.14 75:1.0 76:0.33 79:0.25 80:0.67 84:0.67 90:0.33 93:0.2 94:1.0 96:0.33 102:0.5 106:0.33 108:1.0 109:0.33 116:0.33 121:0.5 122:1.0 124:0.33 128:0.14 131:0.17 135:0.17 136:0.33 138:1.0 141:0.2 146:0.29 148:0.14 
-0.0 -0.0 -0.0 0.0 0.0 0.0 1.0 1:0.25 2:0.33 5:0.5 7:0.5 9:0.33 11:0.33 12:0.25 13:0.25 14:1.0 18:0.5 19:1.0 21:1.0 23:0.5 25:0.33 26:0.5 27:0.25 28:0.17 30:0.25 31:1.0 32:0.4 36:0.33 37:0.33 38:0.5 39:0.33 40:0.5 42:0.25 44:0.25 45:0.33 48:0.33 50:0.5 52:1.0 56:0.25 58:0.5 59:0.5 60:0.2 61:0.33 62:0.29 63:0.33 67:0.17 68:0.33 71:1.0 72:0.33 74:0.29 76:0.33 77:0.33 78:0.4 79:0.25 80:0.67 84:0.33 85:0.17 89:0.2 90:0.33 92:1.0 93:0.2 94:1.0 96:0.33 99:0.5 102:0.25 105:0.33 106:0.33 108:1.0 109:0.33 113:0.33 114:0.2 116:1.0 117:0.4 121:1.0 122:1.0 124:0.33 128:0.14 130:0.5 131:0.17 135:0.17 136:0.17 137:0.14 138:1.0 139:0.5 140:0.33 141:0.2 143:0.5 146:0.29 148:0.14 152:0.5 
-0.28305133075979727 -0.0 -0.0 0.0 0.0 0.0 1.0 1:0.25 2:0.33 5:0.5 7:0.5 9:0.33 11:0.33 12:0.25 13:0.25 14:1.0 18:0.5 19:1.0 21:1.0 23:0.5 25:0.33 26:0.5 27:0.25 28:0.17 30:0.25 31:1.0 32:0.4 36:0.33 37:0.33 38:0.5 39:0.33 40:0.5 42:0.25 44:0.25 45:0.33 48:0.33 50:0.5 52:1.0 56:0.25 58:0.5 59:0.5 60:0.2 61:0.33 62:0.29 63:0.33 67:0.17 68:0.33 71:1.0 72:0.33 74:0.29 76:0.33 77:0.33 78:0.4 79:0.25 80:0.67 84:0.33 85:0.17 89:0.2 90:0.33 92:1.0 93:0.2 94:1.0 96:0.33 99:0.5 102:0.25 105:0.33 106:0.33 108:1.0 109:0.33 113:0.33 114:0.2 116:1.0 117:0.4 121:1.0 122:1.0 124:0.33 128:0.14 130:0.5 131:0.17 135:0.17 136:0.17 137:0.14 138:1.0 139:0.5 140:0.33 141:0.2 143:0.5 146:0.29 148:0.14 152:0.5 
-1.0 -0.0 -0.5140911879395406 0.0 0.0 0.0 1.0 1:0.25 2:0.33 5:0.5 7:0.5 9:0.33 11:0.33 12:0.25 13:0.25 14:1.0 18:0.5 19:1.0 21:1.0 23:0.5 25:0.33 26:0.5 27:0.25 28:0.17 30:0.25 31:1.0 32:0.4 36:0.33 37:0.33 38:0.5 39:0.33 40:0.5 42:0.25 44:0.25 45:0.33 48:0.33 50:0.5 52:1.0 56:0.25 58:0.5 59:0.5 60:0.2 61:0.33 62:0.29 63:0.33 67:0.17 68:0.33 71:1.0 72:0.33 74:0.29 76:0.33 77:0.33 78:0.4 79:0.25 80:0.67 84:0.33 85:0.17 89:0.2 90:0.33 92:1.0 93:0.2 94:1.0 96:0.33 99:0.5 102:0.25 105:0.33 106:0.33 108:1.0 109:0.33 113:0.33 114:0.2 116:1.0 117:0.4 121:1.0 122:1.0 124:0.33 128:0.14 130:0.5 131:0.17 135:0.17 136:0.17 137:0.14 138:1.0 139:0.5 140:0.33 141:0.2 143:0.5 146:0.29 148:0.14 152:0.5 
-1.0 -0.0 -1.0 1.0 0.0 0.0 1.0 1:0.25 2:0.33 5:0.5 7:0.5 9:0.33 11:0.33 12:0.25 13:0.25 14:1.0 18:0.5 19:1.0 21:1.0 23:0.5 25:0.33 26:0.5 27:0.25 28:0.17 30:0.25 31:1.0 32:0.4 36:0.33 37:0.33 38:0.5 39:0.33 40:0.5 42:0.25 44:0.25 45:0.33 48:0.33 50:0.5 52:1.0 56:0.25 58:0.5 59:0.5 60:0.2 61:0.33 62:0.29 63:0.33 67:0.17 68:0.33 71:1.0 72:0.33 74:0.29 76:0.33 77:0.33 78:0.4 79:0.25 80:0.67 84:0.33 85:0.17 89:0.2 90:0.33 92:1.0 93:0.2 94:1.0 96:0.33 99:0.5 102:0.25 105:0.33 106:0.33 108:1.0 109:0.33 113:0.33 114:0.2 116:1.0 117:0.4 121:1.0 122:1.0 124:0.33 128:0.14 130:0.5 131:0.17 135:0.17 136:0.17 137:0.14 138:1.0 139:0.5 140:0.33 141:0.2 143:0.5 146:0.29 148:0.14 152:0.5 
-0.8750023699086494 -0.0 -0.8229275610446082 1.0 0.0 0.8216740223154171 1.0 1:0.25 2:0.33 5:0.5 7:0.5 9:0.33 11:0.33 12:0.25 13:0.25 14:1.0 18:0.5 19:1.0 21:1.0 23:0.5 25:0.33 26:0.5 27:0.25 28:0.17 30:0.25 31:1.0 32:0.4 36:0.33 37:0.33 38:0.5 39:0.33 40:0.5 42:0.25 44:0.25 45:0.33 48:0.33 50:0.5 52:1.0 56:0.25 58:0.5 59:0.5 60:0.2 61:0.33 62:0.29 63:0.33 67:0.17 68:0.33 71:1.0 72:0.33 74:0.29 76:0.33 77:0.33 78:0.4 79:0.25 80:0.67 84:0.33 85:0.17 89:0.2 90:0.33 92:1.0 93:0.2 94:1.0 96:0.33 99:0.5 102:0.25 105:0.33 106:0.33 108:1.0 109:0.33 113:0.33 114:0.2 116:1.0 117:0.4 121:1.0 122:1.0 124:0.33 128:0.14 130:0.5 131:0.17 135:0.17 136:0.17 137:0.14 138:1.0 139:0.5 140:0.33 141:0.2 143:0.5 146:0.29 148:0.14 152:0.5 
-1.0 -0.0 -0.44156795257494075 1.0 0.2734401253741221 0.6027902358347307 1.0 2:0.17 7:0.5 13:0.25 16:0.5 25:0.33 26:0.25 28:0.17 36:0.33 44:0.25 60:0.2 62:0.14 65:0.5 69:0.33 77:0.33 78:0.2 79:0.25 85:0.17 87:0.5 89:0.2 97:1.0 102:0.25 105:0.33 110:0.5 113:0.17 114:0.2 117:0.2 126:1.0 
-0.0 -0.3924665456327765 -0.0 1.0 1.0 0.0 1.0 1:0.25 2:0.33 3:0.33 7:0.5 8:0.5 9:0.33 12:0.25 13:0.25 15:0.29 18:0.5 20:0.67 21:1.0 23:0.5 24:0.4 25:0.33 26:0.25 27:0.25 28:0.17 29:0.5 30:0.5 31:1.0 32:0.4 33:1.0 34:0.25 35:0.4 37:0.33 38:0.5 39:0.33 42:0.5 44:0.25 48:0.67 50:0.25 51:0.2 52:1.0 54:0.33 56:0.5 60:0.4 61:0.33 62:0.29 63:0.67 66:0.5 67:0.5 68:0.33 71:1.0 72:0.33 74:0.43 76:0.67 77:0.33 78:0.2 80:0.33 84:0.33 85:0.33 86:0.5 88:0.33 89:0.2 90:0.33 91:0.25 92:0.5 93:0.4 94:1.0 96:0.33 98:0.33 99:0.5 100:0.5 101:0.33 102:0.25 103:0.33 104:0.17 106:0.33 108:1.0 109:0.67 111:0.5 112:1.0 113:0.33 114:0.2 116:0.67 117:0.2 121:0.5 122:1.0 124:0.67 125:1.0 128:1.0 131:1.0 132:1.0 135:0.17 136:0.17 138:1.0 139:0.5 140:0.67 141:0.2 143:0.5 146:0.14 148:1.0 150:1.0 
-0.15421256724573723 -1.0 -0.10232203448893445 1.0 1.0 0.0 1.0 1:0.25 2:0.33 3:0.33 7:0.5 9:0.17 12:0.25 13:0.25 15:0.29 18:0.5 20:0.67 21:1.0 23:0.5 24:0.2 25:0.33 26:0.25 27:0.25 28:0.17 29:0.5 30:0.5 31:1.0 32:0.2 33:1.0 34:0.25 35:0.4 37:0.33 38:0.5 39:0.33 42:0.5 44:0.25 48:0.67 50:0.25 51:0.2 52:1.0 54:0.33 56:0.5 60:0.4 61:0.33 62:0.29 63:0.67 67:0.33 68:0.33 71:1.0 72:0.33 74:0.29 76:0.33 77:0.33 78:0.2 80:0.33 84:0.33 85:0.33 86:0.5 88:0.33 89:0.2 90:0.33 91:0.25 92:0.5 93:0.4 94:1.0 96:0.33 98:0.33 100:0.5 101:0.33 102:0.25 103:0.33 104:0.17 106:0.33 108:1.0 109:0.67 111:0.5 112:1.0 113:0.33 114:0.2 116:0.67 117:0.2 121:0.5 122:1.0 124:0.67 125:1.0 128:1.0 131:0.83 132:1.0 135:0.17 136:0.17 138:1.0 140:0.33 141:0.2 143:0.5 146:0.14 148:0.71 150:0.5 
-0.5176913715406275 -0.915135963118931 -1.0 0.0 0.8528444683510932 0.0 1.0 6:0.5 7:0.5 9:0.17 11:0.33 12:0.25 16:0.5 18:0.5 23:0.5 25:0.67 26:0.5 27:0.25 30:0.25 31:0.5 32:0.2 36:0.33 37:0.33 38:1.0 42:0.25 45:0.33 48:0.33 50:0.25 52:1.0 56:0.25 58:0.5 61:0.33 63:0.33 67:0.17 68:0.67 70:0.5 74:0.14 75:1.0 76:0.33 79:0.25 80:0.67 84:0.67 90:0.33 93:0.2 94:1.0 96:0.33 102:0.5 106:0.33 108:1.0 109:0.33 116:0.33 121:0.5 122:1.0 124:0.33 128:0.14 131:0.17 135:0.17 136:0.33 138:1.0 141:0.2 146:0.29 148:0.14 
-1.0 -0.0 -1.0 1.0 1.0 0.0 1.0 2:0.17 5:0.5 7:0.5 8:0.5 9:0.5 11:0.33 12:0.25 14:1.0 18:0.5 19:1.0 23:0.5 24:0.2 25:0.33 26:0.5 27:0.25 30:0.25 31:0.5 32:0.6 36:0.33 37:0.33 38:0.5 40:0.5 42:0.25 45:0.33 48:0.33 50:0.5 52:1.0 56:0.25 58:0.5 59:0.5 61:0.33 62:0.14 63:0.33 66:0.5 67:0.33 68:0.33 72:0.33 74:0.43 76:0.67 78:0.2 79:0.25 80:0.67 84:0.33 89:0.2 90:0.33 92:0.5 93:0.2 94:1.0 96:0.33 99:1.0 102:0.25 105:0.33 106:0.33 108:1.0 109:0.33 113:0.17 116:0.67 117:0.2 121:1.0 122:1.0 124:0.33 128:0.14 130:0.5 131:0.33 135:0.17 136:0.17 137:0.14 138:1.0 139:1.0 140:0.67 141:0.2 143:0.5 146:0.29 148:0.43 150:0.5 152:0.5 
-1.0 -0.17540946581624028 -0.9856367240695126 1.0 1.0 0.5755357418498523 1.0 2:0.17 5:0.5 7:0.5 8:0.5 9:0.5 11:0.33 12:0.25 14:1.0 18:0.5 19:1.0 23:0.5 24:0.2 25:0.33 26:0.5 27:0.25 30:0.25 31:0.5 32:0.6 36:0.33 37:0.33 38:0.5 40:0.5 42:0.25 45:0.33 48:0.33 50:0.5 52:1.0 56:0.25 58:0.5 59:0.5 61:0.33 62:0.14 63:0.33 66:0.5 67:0.33 68:0.33 72:0.33 74:0.43 76:0.67 78:0.2 79:0.25 80:0.67 84:0.33 89:0.2 90:0.33 92:0.5 93:0.2 94:1.0 96:0.33 99:1.0 102:0.25 105:0.33 106:0.33 108:1.0 109:0.33 113:0.17 116:0.67 117:0.2 121:1.0 122:1.0 124:0.33 128:0.14 130:0.5 131:0.33 135:0.17 136:0.17 137:0.14 138:1.0 139:1.0 140:0.67 141:0.2 143:0.5 146:0.29 148:0.43 150:0.5 152:0.5 
-1.0 -0.5169880254320522 -1.0 1.0 0.5415354393666328 1.0 1.0 4:1.0 10:1.0 15:0.14 17:0.5 20:0.33 22:0.5 41:1.0 47:0.5 49:1.0 53:1.0 59:0.5 65:0.5 69:0.67 79:0.25 81:1.0 87:0.5 88:0.17 95:1.0 103:0.33 104:0.17 105:0.33 110:0.5 118:0.4 119:1.0 120:0.43 130:0.5 133:0.5 135:0.17 137:0.43 142:1.0 144:1.0 145:1.0 147:0.6 149:1.0 152:0.5 
-1.0 -0.0 -0.9210797001216834 -1.0 1.0 0.0 1.0 1:1.0 2:0.17 3:0.67 5:1.0 7:1.0 8:1.0 9:1.0 11:0.33 12:0.75 13:1.0 14:1.0 15:0.71 16:0.5 18:1.0 19:1.0 20:0.33 22:0.5 23:0.5 24:1.0 25:0.67 26:0.75 27:0.5 28:1.0 29:0.5 30:0.75 31:0.5 32:1.0 33:1.0 34:1.0 35:0.8 36:0.67 37:0.33 38:0.5 39:1.0 40:1.0 42:0.5 45:0.33 46:1.0 48:0.67 50:1.0 51:0.8 52:1.0 54:0.83 55:1.0 56:0.75 57:0.5 58:0.5 59:0.5 61:0.67 62:0.14 63:1.0 65:0.5 66:1.0 67:1.0 68:0.33 69:0.33 71:1.0 72:1.0 74:1.0 76:1.0 77:1.0 78:0.2 79:0.5 80:0.67 82:0.5 83:0.33 84:0.33 86:1.0 87:0.5 88:0.67 89:0.2 90:0.67 91:0.75 92:0.5 93:1.0 94:1.0 96:0.67 97:1.0 98:0.67 99:1.0 100:0.5 101:0.67 102:0.5 103:0.67 104:0.67 105:0.67 106:0.67 107:0.5 108:1.0 109:0.67 110:0.5 111:1.0 112:1.0 113:0.17 115:1.0 116:0.67 117:0.2 121:1.0 122:1.0 124:0.67 125:1.0 126:1.0 128:0.29 130:0.5 131:0.5 132:1.0 135:0.17 136:0.17 137:0.14 138:1.0 139:1.0 140:1.0 141:0.2 143:1.0 146:0.29 148:0.43 150:0.5 152:0.5 
-1.0 -1.0 -1.0 -1.0 1.0 0.0 1.0 3:0.67 7:0.5 9:0.17 12:0.5 15:0.14 18:0.5 20:0.33 23:0.5 24:0.2 25:0.33 26:0.25 27:0.5 29:0.5 30:0.5 31:0.5 32:0.2 33:1.0 34:0.25 35:0.2 37:0.67 38:0.5 42:0.75 43:1.0 48:0.67 50:0.25 52:1.0 54:0.17 56:0.75 61:0.67 63:0.67 67:0.33 68:0.33 72:0.33 74:0.29 76:0.33 80:0.33 83:0.33 84:0.33 86:0.5 88:0.17 90:0.33 93:0.4 94:1.0 96:0.67 98:0.33 101:0.33 102:0.25 103:0.33 106:0.33 107:0.5 108:1.0 109:1.0 111:0.5 112:1.0 116:0.33 121:0.5 122:1.0 124:1.0 125:1.0 128:0.29 131:0.33 132:1.0 135:0.17 136:0.17 138:1.0 140:0.33 141:0.2 143:0.5 146:0.14 148:0.29 150:0.5 
-1.0 -0.0 -0.5011957331137025 -1.0 0.12684312168291112 0.8729968340127305 1.0 1:1.0 2:0.17 3:0.67 5:0.5 7:0.5 8:0.5 9:0.33 10:1.0 11:0.33 12:0.25 13:1.0 14:1.0 15:0.29 16:0.5 19:1.0 20:0.67 22:0.5 24:0.4 25:0.33 26:0.5 27:0.25 28:1.0 29:0.5 30:0.25 32:0.4 33:1.0 34:0.25 35:0.2 36:0.67 37:0.33 39:1.0 40:0.5 42:0.5 43:1.0 45:0.33 48:0.33 49:0.33 50:0.25 54:0.17 56:0.5 58:0.5 59:0.5 61:0.33 62:0.14 63:0.33 65:1.0 66:0.5 67:0.33 69:0.67 71:1.0 72:0.67 74:0.43 76:0.33 77:1.0 78:0.2 79:0.5 80:0.33 83:0.33 86:0.5 87:0.5 88:0.33 89:0.2 92:0.5 93:0.2 96:0.33 97:1.0 98:0.33 99:1.0 101:0.33 102:0.25 103:0.67 104:0.17 105:0.67 107:0.5 109:0.67 110:0.5 111:0.5 112:1.0 113:0.17 116:0.33 117:0.2 118:0.2 120:0.14 121:0.5 124:0.67 125:1.0 126:1.0 128:0.14 130:0.5 131:0.33 132:1.0 133:0.17 137:0.29 139:1.0 140:1.0 142:0.5 143:1.0 145:0.33 146:0.14 147:0.2 148:0.43 150:1.0 152:0.5 
-0.3042643328316559 -0.12418269355782634 -1.0 -1.0 1.0 0.0 1.0 2:0.17 3:1.0 5:1.0 6:0.5 7:0.5 8:1.0 9:0.67 11:0.67 12:1.0 14:1.0 15:0.29 16:0.5 17:0.5 18:1.0 19:1.0 20:0.33 22:0.5 23:0.5 24:0.6 25:0.67 26:0.75 27:0.75 29:0.5 30:0.75 31:0.5 32:0.6 33:1.0 34:0.5 35:0.4 36:0.67 37:0.67 38:1.0 40:1.0 42:0.75 43:1.0 45:0.67 46:1.0 47:0.5 48:0.67 50:0.75 51:0.2 52:1.0 54:0.33 55:1.0 56:1.0 57:1.0 58:1.0 59:0.5 61:1.0 62:0.14 63:1.0 66:1.0 67:0.67 68:0.67 70:0.5 72:1.0 74:0.71 75:1.0 76:1.0 78:0.2 79:0.5 80:1.0 82:0.5 83:1.0 84:0.67 86:1.0 88:0.33 89:0.2 90:0.67 92:0.5 93:0.6 94:1.0 96:1.0 98:1.0 99:1.0 100:0.5 101:0.67 102:0.5 103:0.67 104:0.17 105:0.33 106:1.0 107:1.0 108:1.0 109:1.0 111:1.0 112:1.0 113:0.17 115:1.0 116:0.67 117:0.2 121:1.0 122:1.0 124:1.0 125:1.0 128:0.29 130:0.5 131:0.5 132:1.0 135:0.17 136:0.33 137:0.14 138:1.0 139:1.0 140:1.0 141:0.2 143:1.0 146:0.43 148:0.43 150:0.5 152:0.5 
-1.0 -0.0 -0.0 -1.0 0.5114713171231194 0.0 1.0 2:0.17 3:0.67 5:0.5 8:0.5 9:0.33 10:1.0 11:0.33 12:0.5 14:1.0 15:0.29 19:1.0 20:0.67 22:0.5 24:0.4 26:0.25 27:0.25 29:0.5 30:0.25 32:0.4 33:1.0 34:0.25 35:0.2 36:0.33 37:0.33 40:0.5 42:0.5 43:1.0 45:0.33 48:0.33 49:0.33 50:0.25 54:0.17 56:0.5 58:0.5 59:0.5 61:0.33 62:0.14 63:0.33 65:0.5 66:0.5 67:0.33 69:0.33 72:0.67 74:0.43 76:0.33 78:0.2 79:0.25 80:0.33 83:0.33 86:0.5 88:0.33 89:0.2 92:0.5 93:0.2 96:0.67 98:0.33 99:1.0 101:0.33 103:0.67 104:0.17 105:0.33 107:0.5 109:0.67 111:0.5 112:1.0 113:0.17 116:0.33 117:0.2 118:0.2 120:0.14 121:0.5 124:0.67 125:1.0 128:0.14 130:0.5 131:0.33 132:1.0 133:0.17 137:0.29 139:1.0 140:1.0 142:0.5 143:1.0 145:0.33 146:0.14 147:0.2 148:0.29 150:0.5 152:0.5 
-0.568010795879689 -0.09096907181821268 -0.0 -1.0 1.0 0.0 1.0 2:0.33 3:0.67 5:1.0 7:0.5 8:1.0 9:1.0 11:0.33 12:0.5 14:1.0 15:0.71 18:1.0 19:1.0 20:0.33 21:1.0 22:0.5 23:0.5 24:1.0 25:0.33 26:0.5 27:0.5 29:0.5 30:0.75 31:1.0 32:1.0 33:1.0 34:1.0 35:0.8 36:0.33 37:0.33 38:0.5 40:1.0 42:0.5 44:0.25 45:0.33 46:1.0 48:0.67 50:1.0 51:0.8 52:1.0 54:0.83 55:1.0 56:0.75 57:0.5 58:0.5 59:0.5 60:0.2 61:0.67 62:0.29 63:1.0 66:1.0 67:1.0 68:0.33 72:1.0 74:1.0 76:1.0 78:0.4 79:0.25 80:0.67 82:0.5 83:0.33 84:0.33 85:0.17 86:1.0 88:0.67 89:0.2 90:0.67 91:0.75 92:1.0 93:1.0 94:1.0 96:0.33 98:0.67 99:1.0 100:0.5 101:0.67 102:0.25 103:0.67 104:0.67 105:0.33 106:0.67 107:0.5 108:1.0 109:0.67 111:1.0 112:1.0 113:0.33 114:0.2 115:1.0 116:1.0 117:0.4 121:1.0 122:1.0 124:0.67 125:1.0 128:0.29 130:0.5 131:0.5 132:1.0 135:0.17 136:0.17 137:0.14 138:1.0 139:1.0 140:1.0 141:0.2 143:1.0 146:0.29 148:0.43 150:0.5 152:0.5 
-1.0 -0.784848234623961 -1.0 -1.0 0.36168556119396955 1.0 1.0 2:0.17 4:1.0 5:0.5 6:0.5 7:0.5 8:0.5 9:0.5 11:1.0 12:0.25 14:1.0 16:0.5 17:0.5 18:0.5 19:1.0 23:0.5 24:0.2 25:0.67 26:0.75 27:0.5 29:0.5 30:0.5 31:0.5 32:0.6 36:0.67 37:0.67 38:1.0 40:0.5 42:0.5 45:0.67 47:0.5 48:0.67 49:0.33 50:0.5 52:1.0 56:0.25 58:1.0 59:1.0 61:0.33 62:0.14 63:0.33 66:0.5 67:0.33 68:1.0 69:0.33 70:1.0 72:0.33 74:0.43 75:1.0 76:0.67 78:0.2 79:0.75 80:1.0 81:0.5 82:0.5 84:0.67 87:0.5 89:0.2 90:0.67 92:0.5 93:0.2 94:1.0 95:1.0 96:0.33 99:1.0 101:0.33 102:0.75 105:0.67 106:0.33 108:1.0 109:0.33 113:0.17 116:0.67 117:0.2 119:1.0 120:0.14 121:1.0 122:1.0 124:0.33 128:0.14 130:1.0 131:0.33 133:0.17 135:0.33 136:0.33 137:0.29 138:1.0 139:1.0 140:0.67 141:0.2 142:0.5 143:0.5 144:0.5 145:0.33 146:0.43 147:0.2 148:0.29 152:1.0 
-1.0 -0.0 -1.0 -1.0 0.0 1.0 1.0 2:0.17 4:1.0 5:0.5 8:0.5 9:0.33 10:1.0 11:0.33 14:1.0 15:0.14 17:1.0 19:1.0 20:0.33 22:0.5 24:0.2 26:0.25 32:0.4 36:0.33 40:0.5 41:1.0 45:0.33 47:1.0 49:1.0 50:0.25 57:0.5 58:0.5 59:1.0 62:0.14 65:0.5 66:0.5 67:0.17 69:0.67 72:0.33 74:0.29 76:0.33 78:0.2 79:0.5 80:0.33 81:1.0 83:0.33 87:0.5 88:0.17 89:0.2 92:0.5 95:1.0 98:0.33 99:1.0 103:0.33 104:0.17 105:0.67 106:0.33 110:0.5 113:0.17 116:0.33 117:0.2 118:0.2 119:1.0 120:0.29 121:0.5 130:1.0 131:0.17 133:0.33 135:0.17 137:0.43 139:1.0 140:0.67 142:1.0 143:0.5 144:0.5 145:0.67 146:0.14 147:0.4 148:0.29 150:0.5 152:1.0 
-1.0 -0.0 -1.0 -1.0 1.0 0.1270031659872695 1.0 2:0.33 3:0.33 5:0.5 9:0.17 11:0.33 14:1.0 15:0.14 19:1.0 20:0.33 24:0.2 26:0.25 29:0.5 30:0.25 32:0.2 33:1.0 34:0.25 35:0.2 36:0.33 40:0.5 42:0.25 45:0.33 48:0.33 50:0.25 54:0.17 56:0.25 58:0.5 59:0.5 60:0.2 62:0.29 63:0.33 67:0.17 72:0.67 74:0.29 78:0.2 79:0.25 80:0.33 85:0.17 86:0.5 88:0.17 89:0.4 92:0.5 93:0.2 98:0.33 99:0.5 101:0.33 103:0.33 105:0.33 109:0.33 111:0.5 112:1.0 113:0.33 116:0.33 117:0.2 121:0.5 124:0.33 125:1.0 128:0.86 130:0.5 131:0.67 132:1.0 137:0.14 139:0.5 140:0.67 143:1.0 146:0.14 148:0.57 150:0.5 152:0.5 
-1.0 -1.0 -1.0 -1.0 1.0 1.0 1.0 3:0.33 15:0.29 20:0.67 24:0.2 29:0.5 30:0.25 33:1.0 34:0.25 35:0.4 42:0.25 48:0.33 51:0.2 54:0.33 56:0.25 63:0.33 67:0.17 72:0.33 74:0.14 86:0.5 88:0.33 91:0.25 93:0.2 98:0.33 100:0.5 101:0.33 103:0.33 104:0.17 109:0.33 111:0.5 112:1.0 124:0.33 125:1.0 128:0.14 131:0.17 132:1.0 140:0.33 143:0.5 148:0.29 150:1.0 
-1.0 -0.0 -1.0 -1.0 -1.0 0.530341781641889 1.0 1:1.0 2:0.33 3:0.67 5:1.0 7:1.0 8:1.0 9:1.0 11:0.33 12:0.75 13:1.0 14:1.0 15:0.71 16:0.5 18:1.0 19:1.0 20:0.33 22:0.5 23:0.5 24:1.0 25:0.67 26:0.75 27:0.5 28:1.0 29:0.5 30:0.75 31:0.5 32:1.0 33:1.0 34:1.0 35:0.8 36:0.67 37:0.33 38:0.5 39:1.0 40:1.0 42:0.5 45:0.33 46:1.0 48:0.67 50:1.0 51:0.8 52:1.0 54:0.83 55:1.0 56:0.75 57:0.5 58:0.5 59:0.5 60:0.2 61:0.67 62:0.29 63:1.0 65:0.5 66:1.0 67:1.0 68:0.33 69:0.33 71:1.0 72:1.0 74:1.0 76:1.0 77:1.0 78:0.2 79:0.5 80:0.67 82:0.5 83:0.33 84:0.33 85:0.17 86:1.0 87:0.5 88:0.67 89:0.4 90:0.67 91:0.75 92:0.5 93:1.0 94:1.0 96:0.67 97:1.0 98:0.67 99:1.0 100:0.5 101:0.67 102:0.5 103:0.67 104:0.67 105:0.67 106:0.67 107:0.5 108:1.0 109:0.67 110:0.5 111:1.0 112:1.0 113:0.33 115:1.0 116:0.67 117:0.2 121:1.0 122:1.0 124:0.67 125:1.0 126:1.0 128:1.0 130:0.5 131:1.0 132:1.0 135:0.17 136:0.17 137:0.14 138:1.0 139:1.0 140:1.0 141:0.2 143:1.0 146:0.29 148:1.0 150:1.0 152:0.5 
-1.0 -0.5109548936902116 -1.0 -1.0 -1.0 0.46965821835811095 1.0 2:0.33 3:1.0 5:1.0 7:0.5 8:0.5 9:0.5 11:0.33 12:0.75 14:1.0 15:0.29 17:0.5 18:1.0 19:1.0 20:0.33 22:0.5 23:0.5 24:0.4 25:0.33 26:0.5 27:0.75 29:0.5 30:0.75 31:0.5 32:0.4 33:1.0 34:0.5 35:0.4 36:0.33 37:0.67 38:0.5 40:1.0 42:0.75 43:1.0 45:0.33 46:1.0 47:0.5 48:0.67 50:0.75 51:0.2 52:1.0 54:0.33 55:1.0 56:1.0 57:1.0 58:0.5 59:0.5 60:0.2 61:1.0 62:0.29 63:1.0 66:0.5 67:0.5 68:0.33 72:1.0 74:0.57 76:0.67 78:0.2 79:0.25 80:0.67 82:0.5 83:1.0 84:0.33 85:0.17 86:1.0 88:0.33 89:0.4 90:0.67 92:0.5 93:0.6 94:1.0 96:0.67 98:1.0 99:0.5 100:0.5 101:0.67 102:0.25 103:0.67 104:0.17 105:0.33 106:1.0 107:1.0 108:1.0 109:1.0 111:1.0 112:1.0 113:0.33 115:1.0 116:0.67 117:0.2 121:1.0 122:1.0 124:1.0 125:1.0 128:1.0 130:0.5 131:0.83 132:1.0 135:0.17 136:0.17 137:0.14 138:1.0 139:0.5 140:0.67 141:0.2 143:1.0 146:0.29 148:0.71 150:0.5 152:0.5 
-1.0 -1.0 -1.0 -1.0 -1.0 1.0 1.0 2:0.17 3:0.33 7:0.5 8:0.5 9:0.33 12:0.25 15:0.29 18:0.5 20:0.67 23:0.5 24:0.4 25:0.33 26:0.25 27:0.25 29:0.5 30:0.5 31:0.5 32:0.4 33:1.0 34:0.25 35:0.4 37:0.33 38:0.5 42:0.5 48:0.67 50:0.25 51:0.2 52:1.0 54:0.33 56:0.5 60:0.2 61:0.33 62:0.14 63:0.67 66:0.5 67:0.5 68:0.33 72:0.33 74:0.43 76:0.67 80:0.33 84:0.33 85:0.17 86:0.5 88:0.33 89:0.2 90:0.33 91:0.25 93:0.4 94:1.0 96:0.33 98:0.33 99:0.5 100:0.5 101:0.33 102:0.25 103:0.33 104:0.17 106:0.33 108:1.0 109:0.67 111:0.5 112:1.0 113:0.17 116:0.33 121:0.5 122:1.0 124:0.67 125:1.0 128:1.0 131:1.0 132:1.0 135:0.17 136:0.17 138:1.0 139:0.5 140:0.67 141:0.2 143:0.5 146:0.14 148:1.0 150:1.0 
-0.7932587936882398 -0.0 -0.21413408682659923 -1.0 -1.0 0.0 1.0 2:0.17 3:0.67 5:0.5 7:0.5 8:1.0 9:0.83 12:0.5 15:0.86 18:1.0 20:0.67 22:0.5 23:0.5 24:1.0 25:0.33 26:0.25 27:0.5 29:0.5 30:0.75 31:0.5 32:0.8 33:1.0 34:1.0 35:1.0 37:0.33 38:0.5 40:0.5 42:0.5 46:1.0 48:0.67 50:0.75 51:1.0 52:1.0 54:1.0 55:1.0 56:0.75 57:0.5 60:0.2 61:0.67 62:0.14 63:1.0 66:1.0 67:1.0 68:0.33 72:0.67 74:0.86 76:1.0 80:0.33 82:0.5 83:0.33 84:0.33 85:0.17 86:1.0 88:0.83 89:0.2 90:0.67 91:1.0 93:1.0 94:1.0 96:0.33 98:0.67 99:0.5 100:1.0 101:0.67 102:0.25 103:0.67 104:0.83 106:0.67 107:0.5 108:1.0 109:0.67 111:1.0 112:1.0 113:0.17 115:1.0 116:0.33 121:0.5 122:1.0 124:0.67 125:1.0 128:1.0 131:1.0 132:1.0 135:0.17 136:0.17 138:1.0 139:0.5 140:0.67 141:0.2 143:0.5 146:0.14 148:0.86 150:0.5 
-1.0 -1.0 -1.0 -1.0 -1.0 1.0 1.0 2:0.17 3:0.33 7:0.5 8:0.5 9:0.33 12:0.25 15:0.29 18:0.5 20:0.67 23:0.5 24:0.4 25:0.33 26:0.25 27:0.25 29:0.5 30:0.5 31:0.5 32:0.4 33:1.0 34:0.25 35:0.4 37:0.33 38:0.5 42:0.5 48:0.67 50:0.25 51:0.2 52:1.0 54:0.33 56:0.5 60:0.2 61:0.33 62:0.14 63:0.67 66:0.5 67:0.5 68:0.33 72:0.33 74:0.43 76:0.67 80:0.33 84:0.33 85:0.17 86:0.5 88:0.33 89:0.2 90:0.33 91:0.25 93:0.4 94:1.0 96:0.33 98:0.33 99:0.5 100:0.5 101:0.33 102:0.25 103:0.33 104:0.17 106:0.33 108:1.0 109:0.67 111:0.5 112:1.0 113:0.17 116:0.33 121:0.5 122:1.0 124:0.67 125:1.0 128:1.0 131:1.0 132:1.0 135:0.17 136:0.17 138:1.0 139:0.5 140:0.67 141:0.2 143:0.5 146:0.14 148:1.0 150:1.0 
-1.0 -0.48904510630978837 -1.0 -1.0 -1.0 1.0 1.0 3:0.67 5:0.5 8:0.5 9:0.17 11:0.33 12:0.25 15:0.43 18:0.5 20:0.67 22:0.5 24:0.4 27:0.5 29:1.0 30:0.75 33:1.0 34:0.5 35:0.6 37:0.33 40:0.5 42:0.5 46:1.0 48:0.67 50:0.25 51:0.4 54:0.5 55:1.0 56:0.5 57:0.5 61:0.33 63:0.67 66:0.5 67:0.33 68:0.33 70:0.5 72:0.67 74:0.29 76:0.33 82:1.0 83:0.33 86:1.0 88:0.5 90:0.67 91:0.25 93:0.4 98:0.67 100:1.0 101:1.0 102:0.25 103:0.67 104:0.33 106:0.33 107:0.5 109:0.33 111:1.0 112:1.0 115:1.0 124:0.33 125:1.0 128:0.14 131:0.17 132:1.0 140:0.33 143:0.5 148:0.29 150:1.0 
-0.0 -0.0 -0.0 -1.0 -1.0 0.0 1.0 2:0.17 3:0.67 5:0.5 7:0.5 8:1.0 9:0.83 12:0.5 15:0.86 18:1.0 20:0.67 22:0.5 23:0.5 24:1.0 25:0.33 26:0.25 27:0.5 29:0.5 30:0.75 31:0.5 32:0.8 33:1.0 34:1.0 35:1.0 37:0.33 38:0.5 40:0.5 42:0.5 46:1.0 48:0.67 50:0.75 51:1.0 52:1.0 54:1.0 55:1.0 56:0.75 57:0.5 60:0.2 61:0.67 62:0.14 63:1.0 66:1.0 67:1.0 68:0.33 72:0.67 74:0.86 76:1.0 80:0.33 82:0.5 83:0.33 84:0.33 85:0.17 86:1.0 88:0.83 89:0.2 90:0.67 91:1.0 93:1.0 94:1.0 96:0.33 98:0.67 99:0.5 100:1.0 101:0.67 102:0.25 103:0.67 104:0.83 106:0.67 107:0.5 108:1.0 109:0.67 111:1.0 112:1.0 113:0.17 115:1.0 116:0.33 121:0.5 122:1.0 124:0.67 125:1.0 128:1.0 131:1.0 132:1.0 135:0.17 136:0.17 138:1.0 139:0.5 140:0.67 141:0.2 143:0.5 146:0.14 148:1.0 150:1.0 
-1.0 -1.0 -1.0 -1.0 -1.0 -1.0 1.0 2:0.17 4:1.0 5:0.5 7:0.5 9:0.33 11:0.33 12:0.25 14:1.0 17:0.5 18:0.5 19:1.0 23:0.5 25:0.33 26:0.5 27:0.25 30:0.25 31:0.5 32:0.4 36:0.33 37:0.33 38:0.5 40:0.5 42:0.25 45:0.33 47:0.5 48:0.33 49:0.33 50:0.5 52:1.0 56:0.25 58:0.5 59:1.0 61:0.33 62:0.14 63:0.33 67:0.17 68:0.33 69:0.33 72:0.33 74:0.29 76:0.33 78:0.2 79:0.5 80:0.67 81:0.5 84:0.33 87:0.5 89:0.2 90:0.33 92:0.5 93:0.2 94:1.0 95:1.0 96:0.33 99:0.5 102:0.25 105:0.67 106:0.33 108:1.0 109:0.33 113:0.17 116:0.67 117:0.2 119:1.0 120:0.14 121:1.0 122:1.0 124:0.33 128:0.14 130:1.0 131:0.17 133:0.17 135:0.33 136:0.17 137:0.29 138:1.0 139:0.5 140:0.33 141:0.2 142:0.5 143:0.5 144:0.5 145:0.33 146:0.29 147:0.2 148:0.14 152:1.0 
-1.0 -1.0 -1.0 -1.0 -1.0 -1.0 1.0 2:0.17 4:1.0 5:0.5 6:0.5 9:0.17 10:1.0 11:0.33 14:1.0 15:0.14 17:0.5 19:1.0 20:0.33 22:0.5 23:0.5 26:0.25 32:0.2 36:0.33 40:0.5 45:0.67 47:0.5 49:0.67 50:0.25 53:1.0 58:0.5 59:1.0 62:0.14 65:0.5 69:0.67 72:0.33 73:0.5 74:0.14 78:0.2 79:0.5 80:0.33 81:0.5 84:0.33 87:0.5 88:0.17 89:0.2 92:0.5 95:1.0 99:0.5 103:0.33 104:0.17 105:0.67 113:0.17 116:0.33 117:0.2 118:1.0 119:1.0 120:1.0 121:0.5 123:0.17 127:0.2 129:0.17 130:1.0 133:1.0 134:0.14 135:0.33 136:0.17 137:1.0 139:0.5 140:0.33 141:0.2 142:1.0 143:0.5 144:1.0 145:1.0 146:0.29 147:1.0 149:1.0 152:1.0 
-1.0 -0.0 -1.0 -1.0 -1.0 -1.0 1.0 1:1.0 2:0.17 4:1.0 5:0.5 6:0.5 7:0.5 9:0.17 10:1.0 11:0.33 13:1.0 14:1.0 15:0.14 16:0.5 17:0.5 19:1.0 20:0.33 22:0.5 23:0.5 25:0.33 26:0.5 28:1.0 32:0.2 36:0.67 39:1.0 40:0.5 41:1.0 45:0.67 47:0.5 49:1.0 50:0.25 53:1.0 58:0.5 59:1.0 62:0.14 65:1.0 69:1.0 71:1.0 72:0.33 73:0.5 74:0.14 77:1.0 78:0.2 79:0.75 80:0.33 81:1.0 84:0.33 87:1.0 88:0.17 89:0.2 92:0.5 95:1.0 97:1.0 99:0.5 102:0.25 103:0.33 104:0.17 105:1.0 110:1.0 113:0.17 116:0.33 117:0.2 118:1.0 119:1.0 120:1.0 121:0.5 123:0.17 126:1.0 127:0.2 129:0.17 130:1.0 133:1.0 134:0.14 135:0.33 136:0.17 137:1.0 139:0.5 140:0.33 141:0.2 142:1.0 143:0.5 144:1.0 145:1.0 146:0.29 147:1.0 149:1.0 152:1.0 
-1.0 -1.0 -1.0 -1.0 -1.0 -1.0 1.0 4:1.0 6:0.5 10:1.0 15:0.14 17:1.0 20:0.33 22:0.5 23:0.5 41:1.0 45:0.33 47:1.0 49:1.0 53:1.0 57:0.5 59:0.5 65:0.5 69:0.67 73:0.5 79:0.25 81:1.0 83:0.33 84:0.33 87:0.5 88:0.17 95:1.0 98:0.33 103:0.33 104:0.17 105:0.33 106:0.33 110:0.5 118:1.0 119:1.0 120:1.0 123:0.17 127:0.2 129:0.17 130:0.5 133:1.0 134:0.14 135:0.33 136:0.17 137:0.86 141:0.2 142:1.0 144:1.0 145:1.0 146:0.14 147:1.0 148:0.14 149:1.0 150:0.5 152:0.5 
-1.0 -0.0 -0.07369287614311922 -0.4285442004383064 -0.22689155686449397 -0.0 -0.13625301564027686 2:0.17 4:1.0 5:0.5 6:0.5 9:0.17 10:1.0 11:0.67 14:1.0 15:0.14 16:0.5 17:0.5 19:1.0 20:0.33 22:0.5 25:0.33 26:0.5 32:0.2 36:0.67 38:0.5 40:0.5 41:1.0 45:0.67 47:0.5 49:1.0 50:0.25 58:1.0 59:1.0 62:0.14 65:0.5 68:0.33 69:0.67 70:0.5 72:0.33 74:0.14 75:1.0 78:0.2 79:0.75 80:0.67 81:1.0 84:0.33 87:0.5 88:0.17 89:0.2 92:0.5 95:1.0 99:0.5 102:0.25 103:0.33 104:0.17 105:0.67 110:0.5 113:0.17 116:0.33 117:0.2 118:0.2 119:1.0 120:0.29 121:0.5 130:1.0 133:0.33 135:0.17 136:0.17 137:0.43 139:0.5 140:0.33 142:1.0 143:0.5 144:0.5 145:0.67 146:0.29 147:0.4 152:1.0 
-0.0 -0.0 -0.0 -1.0 -1.0 -0.05307703021276972 -0.0 2:0.17 5:0.5 7:0.5 8:0.5 9:0.5 11:0.33 12:0.25 14:1.0 18:0.5 19:1.0 23:0.5 24:0.2 25:0.33 26:0.5 27:0.25 30:0.25 31:0.5 32:0.6 36:0.33 37:0.33 38:0.5 40:0.5 42:0.25 45:0.33 48:0.33 50:0.5 52:1.0 56:0.25 58:0.5 59:0.5 61:0.33 62:0.14 63:0.33 66:0.5 67:0.33 68:0.33 72:0.33 74:0.43 76:0.67 78:0.2 79:0.25 80:0.67 84:0.33 89:0.2 90:0.33 92:0.5 93:0.2 94:1.0 96:0.33 99:1.0 102:0.25 105:0.33 106:0.33 108:1.0 109:0.33 113:0.17 116:0.67 117:0.2 121:1.0 122:1.0 124:0.33 128:0.14 130:0.5 131:0.33 135:0.17 136:0.17 137:0.14 138:1.0 139:1.0 140:0.67 141:0.2 143:0.5 146:0.29 148:0.43 150:0.5 152:0.5 
-1.0 -0.0 -1.0 -0.0 -0.5567094620548161 -0.0 -0.12885602632260248 1:1.0 2:0.17 4:1.0 5:0.5 6:0.5 7:0.5 9:0.17 10:1.0 11:0.67 13:1.0 14:1.0 15:0.14 16:1.0 17:0.5 19:1.0 20:0.33 22:0.5 25:0.67 26:0.75 28:1.0 32:0.2 36:1.0 38:0.5 39:1.0 40:0.5 41:1.0 45:0.67 47:0.5 49:1.0 50:0.25 58:1.0 59:1.0 62:0.14 65:1.0 68:0.33 69:1.0 70:0.5 71:1.0 72:0.33 74:0.14 75:1.0 77:1.0 78:0.2 79:1.0 80:0.67 81:1.0 84:0.33 87:1.0 88:0.17 89:0.2 92:0.5 95:1.0 97:1.0 99:0.5 102:0.5 103:0.33 104:0.17 105:1.0 110:1.0 113:0.17 116:0.33 117:0.2 118:0.2 119:1.0 120:0.29 121:0.5 126:1.0 130:1.0 133:0.33 135:0.17 136:0.17 137:0.43 139:0.5 140:0.33 142:1.0 143:0.5 144:0.5 145:0.67 146:0.29 147:0.4 152:1.0 
-0.0 -0.0 -0.0 -1.0 -1.0 -1.0 -0.0 2:0.17 5:0.5 7:0.5 8:0.5 9:0.5 11:0.33 12:0.25 14:1.0 18:0.5 19:1.0 23:0.5 24:0.2 25:0.33 26:0.5 27:0.25 30:0.25 31:0.5 32:0.6 36:0.33 37:0.33 38:0.5 40:0.5 42:0.25 45:0.33 48:0.33 50:0.5 52:1.0 56:0.25 58:0.5 59:0.5 61:0.33 62:0.14 63:0.33 66:0.5 67:0.33 68:0.33 72:0.33 74:0.43 76:0.67 78:0.2 79:0.25 80:0.67 84:0.33 89:0.2 90:0.33 92:0.5 93:0.2 94:1.0 96:0.33 99:1.0 102:0.25 105:0.33 106:0.33 108:1.0 109:0.33 113:0.17 116:0.67 117:0.2 121:1.0 122:1.0 124:0.33 128:0.14 130:0.5 131:0.33 135:0.17 136:0.17 137:0.14 138:1.0 139:1.0 140:0.67 141:0.2 143:0.5 146:0.29 148:0.43 150:0.5 152:0.5 
-1.0 -0.6907771694281678 -1.0 -1.0 -0.0 -0.0 -0.0724465411218978 6:0.5 7:0.5 9:0.17 12:0.25 18:0.5 23:1.0 25:0.33 26:0.25 27:0.25 30:0.25 31:0.5 32:0.2 37:0.33 38:0.5 41:1.0 42:0.25 45:0.33 48:0.33 49:0.33 50:0.25 52:1.0 53:1.0 56:0.25 61:0.33 63:0.33 67:0.17 68:0.33 73:0.5 74:0.14 76:0.33 80:0.33 81:0.5 84:0.67 90:0.33 93:0.2 94:1.0 96:0.33 102:0.25 106:0.33 108:1.0 109:0.33 110:0.5 116:0.33 118:0.8 120:0.71 121:0.5 122:1.0 123:0.17 124:0.33 127:0.2 128:0.14 129:0.17 131:0.17 133:0.67 134:0.14 135:0.33 136:0.33 137:0.57 138:1.0 141:0.4 144:0.5 145:0.33 146:0.29 147:0.6 148:0.14 149:1.0 
-0.0 -0.0 -0.0031117165100560903 -0.0 -0.0 -0.0 -0.0 1:1.0 7:1.0 9:0.17 12:0.25 13:1.0 16:0.5 18:0.5 23:0.5 25:0.67 26:0.5 27:0.25 28:1.0 30:0.25 31:0.5 32:0.2 36:0.33 37:0.33 38:0.5 39:1.0 42:0.25 48:0.33 50:0.25 52:1.0 56:0.25 61:0.33 63:0.33 65:0.5 67:0.17 68:0.33 69:0.33 71:1.0 74:0.14 76:0.33 77:1.0 79:0.25 80:0.33 84:0.33 87:0.5 90:0.33 93:0.2 94:1.0 96:0.33 97:1.0 102:0.5 105:0.33 106:0.33 108:1.0 109:0.33 110:0.5 116:0.33 121:0.5 122:1.0 124:0.33 126:1.0 128:0.14 131:0.17 135:0.17 136:0.17 138:1.0 141:0.2 146:0.14 148:0.14 
-0.0 -0.0 -0.0 -1.0 -0.0 -0.0 -0.0 1:1.0 7:1.0 9:0.17 12:0.25 13:1.0 16:0.5 18:0.5 23:0.5 25:0.67 26:0.5 27:0.25 28:1.0 30:0.25 31:0.5 32:0.2 36:0.33 37:0.33 38:0.5 39:1.0 42:0.25 48:0.33 50:0.25 52:1.0 56:0.25 61:0.33 63:0.33 65:0.5 67:0.17 68:0.33 69:0.33 71:1.0 74:0.14 76:0.33 77:1.0 79:0.25 80:0.33 84:0.33 87:0.5 90:0.33 93:0.2 94:1.0 96:0.33 97:1.0 102:0.5 105:0.33 106:0.33 108:1.0 109:0.33 110:0.5 116:0.33 121:0.5 122:1.0 124:0.33 126:1.0 128:0.14 131:0.17 135:0.17 136:0.17 138:1.0 141:0.2 146:0.14 148:0.14 
-1.0 -0.7749925509070852 -1.0 -0.9211616176701062 -0.22805815457256 -0.4014176209460474 -0.0 4:1.0 7:0.5 9:0.17 12:0.25 17:1.0 18:0.5 23:0.5 25:0.33 26:0.25 27:0.25 30:0.25 31:0.5 32:0.2 37:0.33 38:0.5 41:1.0 42:0.25 47:1.0 48:0.33 49:0.67 50:0.25 52:1.0 56:0.25 57:0.5 59:0.5 61:0.33 63:0.33 67:0.17 68:0.33 69:0.33 74:0.14 76:0.33 79:0.25 80:0.33 81:1.0 83:0.33 84:0.33 87:0.5 90:0.33 93:0.2 94:1.0 95:1.0 96:0.33 98:0.33 102:0.25 105:0.33 106:0.67 108:1.0 109:0.33 110:0.5 116:0.33 119:1.0 120:0.14 121:0.5 122:1.0 124:0.33 128:0.14 130:0.5 131:0.17 133:0.17 135:0.33 136:0.17 137:0.14 138:1.0 141:0.2 142:0.5 144:0.5 145:0.33 146:0.14 147:0.2 148:0.14 152:0.5 
-1.0 -0.0 -0.9537804218610709 -0.2685302986795473 -0.0 -0.0 -1.0 2:0.17 4:1.0 5:0.5 6:0.5 9:0.17 10:1.0 11:0.33 14:1.0 15:0.14 17:0.5 19:1.0 20:0.33 22:0.5 23:0.5 26:0.25 32:0.2 36:0.33 40:0.5 45:0.67 47:0.5 49:0.67 50:0.25 53:1.0 58:0.5 59:1.0 62:0.14 65:0.5 69:0.67 72:0.33 73:0.5 74:0.14 78:0.2 79:0.5 80:0.33 81:0.5 84:0.33 87:0.5 88:0.17 89:0.2 92:0.5 95:1.0 99:0.5 103:0.33 104:0.17 105:0.67 113:0.17 116:0.33 117:0.2 118:1.0 119:1.0 120:1.0 121:0.5 123:0.17 127:0.2 129:0.17 130:1.0 133:1.0 134:0.14 135:0.33 136:0.17 137:1.0 139:0.5 140:0.33 141:0.2 142:1.0 143:0.5 144:1.0 145:1.0 146:0.29 147:1.0 149:1.0 152:1.0 
-1.0 -0.0 -1.0 -1.0 -0.016958559489385502 -0.0 -0.8785523102995543 2:0.17 4:1.0 5:0.5 7:0.5 9:0.33 11:0.33 12:0.25 14:1.0 17:0.5 18:0.5 19:1.0 23:0.5 25:0.33 26:0.5 27:0.25 30:0.25 31:0.5 32:0.4 36:0.33 37:0.33 38:0.5 40:0.5 42:0.25 45:0.33 47:0.5 48:0.33 49:0.33 50:0.5 52:1.0 56:0.25 58:0.5 59:1.0 61:0.33 62:0.14 63:0.33 67:0.17 68:0.33 69:0.33 72:0.33 74:0.29 76:0.33 78:0.2 79:0.5 80:0.67 81:0.5 84:0.33 87:0.5 89:0.2 90:0.33 92:0.5 93:0.2 94:1.0 95:1.0 96:0.33 99:0.5 102:0.25 105:0.67 106:0.33 108:1.0 109:0.33 113:0.17 116:0.67 117:0.2 119:1.0 120:0.14 121:1.0 122:1.0 124:0.33 128:0.14 130:1.0 131:0.17 133:0.17 135:0.33 136:0.17 137:0.29 138:1.0 139:0.5 140:0.33 141:0.2 142:0.5 143:0.5 144:0.5 145:0.33 146:0.29 147:0.2 148:0.14 152:1.0 
-0.0 -0.0 -0.0 -1.0 -0.0 -0.0 -0.0 1:1.0 7:1.0 9:0.17 12:0.25 13:1.0 16:0.5 18:0.5 23:0.5 25:0.67 26:0.5 27:0.25 28:1.0 30:0.25 31:0.5 32:0.2 36:0.33 37:0.33 38:0.5 39:1.0 42:0.25 48:0.33 50:0.25 52:1.0 56:0.25 61:0.33 63:0.33 65:0.5 67:0.17 68:0.33 69:0.33 71:1.0 74:0.14 76:0.33 77:1.0 79:0.25 80:0.33 84:0.33 87:0.5 90:0.33 93:0.2 94:1.0 96:0.33 97:1.0 102:0.5 105:0.33 106:0.33 108:1.0 109:0.33 110:0.5 116:0.33 121:0.5 122:1.0 124:0.33 126:1.0 128:0.14 131:0.17 135:0.17 136:0.17 138:1.0 141:0.2 146:0.14 148:0.14 
-0.0 -0.0 -0.0 -1.0 -0.0 -0.0 -0.0 2:0.17 7:0.5 13:0.25 16:0.5 25:0.33 26:0.25 28:0.17 36:0.33 44:0.25 60:0.2 62:0.14 65:0.5 69:0.33 77:0.33 78:0.2 79:0.25 85:0.17 87:0.5 89:0.2 97:1.0 102:0.25 105:0.33 110:0.5 113:0.17 114:0.2 117:0.2 126:1.0 
-0.726766813663871 -0.006234887767117749 -0.0 -1.0 -0.020477665126354315 -0.0 -0.0 6:0.5 10:1.0 11:0.33 15:0.14 16:0.5 20:0.33 22:0.5 25:0.33 26:0.25 36:0.33 38:0.5 45:0.33 49:0.33 58:0.5 65:0.5 68:0.33 69:0.33 70:0.5 73:0.5 75:1.0 79:0.25 80:0.33 84:0.33 88:0.17 102:0.25 103:0.33 104:0.17 118:0.2 120:0.14 123:0.17 127:0.2 129:0.17 133:0.17 134:0.14 135:0.17 136:0.33 137:0.14 141:0.2 142:0.5 145:0.33 146:0.29 147:0.2 151:0.17 
-1.0 -0.0 -0.0 -0.0 -1.0 -0.0 -0.39311768797723196 2:0.17 4:1.0 5:0.5 8:0.5 9:0.33 10:1.0 11:0.33 14:1.0 15:0.14 17:0.5 19:1.0 20:0.33 22:0.5 24:0.2 26:0.25 32:0.4 36:0.33 40:0.5 41:1.0 45:0.33 47:0.5 49:1.0 50:0.25 58:0.5 59:1.0 62:0.14 65:0.5 66:0.5 67:0.17 69:0.67 72:0.33 73:0.5 74:0.29 76:0.33 78:0.2 79:0.5 80:0.33 81:1.0 87:0.5 88:0.17 89:0.2 92:0.5 95:1.0 99:1.0 103:0.33 104:0.17 105:0.67 110:0.5 113:0.17 116:0.33 117:0.2 118:0.2 119:1.0 120:0.29 121:0.5 123:0.17 127:0.2 129:0.17 130:1.0 131:0.17 133:0.33 134:0.14 135:0.33 136:0.17 137:0.43 139:1.0 140:0.67 141:0.2 142:1.0 143:0.5 144:0.5 145:0.67 146:0.29 147:0.4 148:0.14 151:0.17 152:1.0 
-0.0 -0.15439896029194763 -1.0 -1.0 -0.8063200818328482 -1.0 -0.0 6:0.5 7:0.5 8:0.5 9:0.33 11:0.33 12:0.25 16:0.5 18:0.5 23:0.5 24:0.2 25:0.67 26:0.5 27:0.25 30:0.25 31:0.5 32:0.4 36:0.33 37:0.33 38:1.0 42:0.25 45:0.33 48:0.33 50:0.25 52:1.0 56:0.25 58:0.5 61:0.33 63:0.33 66:0.5 67:0.33 68:0.67 70:0.5 74:0.29 75:1.0 76:0.67 79:0.25 80:0.67 84:0.67 90:0.33 93:0.2 94:1.0 96:0.33 99:0.5 102:0.5 106:0.33 108:1.0 109:0.33 116:0.33 121:0.5 122:1.0 124:0.33 128:0.14 131:0.33 135:0.17 136:0.33 138:1.0 139:0.5 140:0.33 141:0.2 146:0.29 148:0.29 
-0.0 -0.0 -0.0 -0.6146381031036647 -0.0 -0.05416193685546253 -0.0 1:1.0 7:1.0 9:0.17 12:0.25 13:1.0 16:0.5 18:0.5 23:0.5 25:0.67 26:0.5 27:0.25 28:1.0 30:0.25 31:0.5 32:0.2 36:0.33 37:0.33 38:0.5 39:1.0 42:0.25 48:0.33 50:0.25 52:1.0 56:0.25 61:0.33 63:0.33 65:0.5 67:0.17 68:0.33 69:0.33 71:1.0 74:0.14 76:0.33 77:1.0 79:0.25 80:0.33 84:0.33 87:0.5 90:0.33 93:0.2 94:1.0 96:0.33 97:1.0 102:0.5 105:0.33 106:0.33 108:1.0 109:0.33 110:0.5 116:0.33 121:0.5 122:1.0 124:0.33 126:1.0 128:0.14 131:0.17 135:0.17 136:0.17 138:1.0 141:0.2 146:0.14 148:0.14 
-0.0 -0.0 -1.0 -1.0 -1.0 -1.0 -0.0 2:0.17 5:0.5 7:0.5 8:0.5 9:0.5 11:0.33 12:0.25 14:1.0 18:0.5 19:1.0 23:0.5 24:0.2 25:0.33 26:0.5 27:0.25 30:0.25 31:0.5 32:0.6 36:0.33 37:0.33 38:0.5 40:0.5 42:0.25 45:0.33 48:0.33 50:0.5 52:1.0 56:0.25 58:0.5 59:0.5 61:0.33 62:0.14 63:0.33 66:0.5 67:0.33 68:0.33 72:0.33 74:0.43 76:0.67 78:0.2 79:0.25 80:0.67 84:0.33 89:0.2 90:0.33 92:0.5 93:0.2 94:1.0 96:0.33 99:1.0 102:0.25 105:0.33 106:0.33 108:1.0 109:0.33 113:0.17 116:0.67 117:0.2 121:1.0 122:1.0 124:0.33 128:0.14 130:0.5 131:0.33 135:0.17 136:0.17 137:0.14 138:1.0 139:1.0 140:0.67 141:0.2 143:0.5 146:0.29 148:0.43 150:0.5 152:0.5 
-1.0 -0.0 -0.0 -0.4875197046523429 -1.0 -0.01564382305104947 -0.0 1:1.0 2:0.17 5:0.5 7:0.5 8:0.5 9:0.33 10:1.0 11:0.33 13:1.0 14:1.0 15:0.14 16:0.5 19:1.0 20:0.33 22:0.5 24:0.2 25:0.33 26:0.5 28:1.0 32:0.4 36:0.67 39:1.0 40:0.5 45:0.33 49:0.33 50:0.25 58:0.5 59:0.5 62:0.14 65:1.0 66:0.5 67:0.17 69:0.67 71:1.0 72:0.33 74:0.29 76:0.33 77:1.0 78:0.2 79:0.5 80:0.33 87:0.5 88:0.17 89:0.2 92:0.5 97:1.0 99:1.0 102:0.25 103:0.33 104:0.17 105:0.67 110:0.5 113:0.17 116:0.33 117:0.2 118:0.2 120:0.14 121:0.5 126:1.0 130:0.5 131:0.17 133:0.17 137:0.29 139:1.0 140:0.67 142:0.5 143:0.5 145:0.33 146:0.14 147:0.2 148:0.29 150:0.5 152:0.5 
-1.0 -0.007396784358720198 -0.0 -0.0 -0.5810787077884064 -0.41524829872888724 -0.4772030321833459 4:1.0 6:0.5 10:1.0 15:0.14 17:1.0 20:0.33 22:0.5 23:0.5 45:0.33 47:1.0 49:0.67 53:1.0 57:0.5 59:0.5 65:0.5 69:0.67 73:0.5 79:0.25 81:0.5 83:0.33 84:0.33 87:0.5 88:0.17 95:1.0 98:0.33 103:0.33 104:0.17 105:0.33 106:0.33 118:1.0 119:1.0 120:1.0 123:0.17 127:0.2 129:0.17 130:0.5 133:1.0 134:0.14 135:0.33 136:0.17 137:0.86 141:0.2 142:1.0 144:1.0 145:1.0 146:0.14 147:1.0 149:1.0 152:0.5 
-0.5168641349908314 -0.0 -0.20162020762556138 -1.0 -1.0 -0.9881792092003286 -0.0 2:0.17 5:0.5 7:0.5 8:0.5 9:0.5 11:0.33 12:0.25 14:1.0 18:0.5 19:1.0 23:0.5 24:0.2 25:0.33 26:0.5 27:0.25 30:0.25 31:0.5 32:0.6 36:0.33 37:0.33 38:0.5 40:0.5 42:0.25 45:0.33 48:0.33 50:0.5 52:1.0 56:0.25 58:0.5 59:0.5 61:0.33 62:0.14 63:0.33 66:0.5 67:0.33 68:0.33 72:0.33 74:0.43 76:0.67 78:0.2 79:0.25 80:0.67 84:0.33 89:0.2 90:0.33 92:0.5 93:0.2 94:1.0 96:0.33 99:1.0 102:0.25 105:0.33 106:0.33 108:1.0 109:0.33 113:0.17 116:0.67 117:0.2 121:1.0 122:1.0 124:0.33 128:0.14 130:0.5 131:0.33 135:0.17 136:0.17 137:0.14 138:1.0 139:1.0 140:0.67 141:0.2 143:0.5 146:0.29 148:0.43 150:0.5 152:0.5 
-0.41066984425726494 -1.0 -0.5573419679445628 -1.0 -1.0 -1.0 -0.0 2:0.17 3:0.33 5:0.5 7:0.5 8:0.5 9:0.5 11:0.33 12:0.25 14:1.0 15:0.14 18:0.5 19:1.0 20:0.33 23:0.5 24:0.4 25:0.33 26:0.5 27:0.25 29:0.5 30:0.5 31:0.5 32:0.6 33:1.0 34:0.25 35:0.2 36:0.33 37:0.33 38:0.5 40:0.5 42:0.5 45:0.33 48:0.67 50:0.5 52:1.0 54:0.17 56:0.5 58:0.5 59:0.5 61:0.33 62:0.14 63:0.67 66:0.5 67:0.5 68:0.33 72:0.67 74:0.57 76:0.67 78:0.2 79:0.25 80:0.67 84:0.33 86:0.5 88:0.17 89:0.2 90:0.33 92:0.5 93:0.4 94:1.0 96:0.33 98:0.33 99:1.0 101:0.33 102:0.25 103:0.33 105:0.33 106:0.33 108:1.0 109:0.67 111:0.5 112:1.0 113:0.17 116:0.67 117:0.2 121:1.0 122:1.0 124:0.67 125:1.0 128:0.29 130:0.5 131:0.5 132:1.0 135:0.17 136:0.17 137:0.14 138:1.0 139:1.0 140:1.0 141:0.2 143:1.0 146:0.29 148:0.43 150:0.5 152:0.5 
-0.947426997709136 -0.1012070534092476 -0.0 -0.27960607545603233 -0.15925598688944395 -0.0 -0.0 2:0.17 7:0.5 13:0.25 16:0.5 25:0.33 26:0.25 28:0.17 36:0.33 44:0.25 60:0.2 62:0.14 65:0.5 69:0.33 77:0.33 78:0.2 79:0.25 85:0.17 87:0.5 89:0.2 97:1.0 102:0.25 105:0.33 110:0.5 113:0.17 114:0.2 117:0.2 126:1.0 
-0.0 -0.0 -0.7231461815069256 -0.0 -0.3473800196167721 -0.07227208100545535 -0.0 1:1.0 6:0.5 7:0.5 8:0.5 9:0.17 10:1.0 11:0.33 13:1.0 15:0.14 16:1.0 20:0.33 22:0.5 24:0.2 25:0.67 26:0.5 28:1.0 32:0.2 36:0.67 38:0.5 39:1.0 45:0.33 49:0.33 58:0.5 65:1.0 66:0.5 67:0.17 68:0.33 69:0.67 70:0.5 71:1.0 73:0.5 74:0.14 75:1.0 76:0.33 77:1.0 79:0.5 80:0.33 84:0.33 87:0.5 88:0.17 97:1.0 99:0.5 102:0.5 103:0.33 104:0.17 105:0.33 110:0.5 118:0.2 120:0.14 123:0.17 126:1.0 127:0.2 129:0.17 131:0.17 133:0.17 134:0.14 135:0.17 136:0.33 137:0.14 139:0.5 140:0.33 141:0.2 142:0.5 145:0.33 146:0.29 147:0.2 148:0.14 151:0.17 
-1.0 -0.0 -0.34077526355741594 -0.0 -0.0 -0.0 -0.9135713864550908 1:1.0 4:1.0 6:0.5 7:0.5 10:1.0 13:1.0 15:0.14 16:0.5 17:1.0 20:0.33 22:0.5 23:0.5 25:0.33 26:0.25 28:1.0 36:0.33 39:1.0 41:1.0 45:0.33 47:1.0 49:1.0 53:1.0 57:0.5 59:0.5 65:1.0 69:1.0 71:1.0 73:0.5 77:1.0 79:0.5 81:1.0 83:0.33 84:0.33 87:1.0 88:0.17 95:1.0 97:1.0 98:0.33 102:0.25 103:0.33 104:0.17 105:0.67 106:0.33 110:1.0 118:1.0 119:1.0 120:1.0 123:0.17 126:1.0 127:0.2 129:0.17 130:0.5 133:1.0 134:0.14 135:0.33 136:0.17 137:0.86 141:0.2 142:1.0 144:1.0 145:1.0 146:0.14 147:1.0 149:1.0 152:0.5 
-0.39827220937889685 -0.2649925938377137 -0.14653136485128795 -0.0 -0.05686980576491956 -1.0 -0.0 1:1.0 7:1.0 9:0.17 12:0.25 13:1.0 16:0.5 18:0.5 23:0.5 25:0.67 26:0.5 27:0.25 28:1.0 30:0.25 31:0.5 32:0.2 36:0.33 37:0.33 38:0.5 39:1.0 42:0.25 48:0.33 50:0.25 52:1.0 56:0.25 61:0.33 63:0.33 65:0.5 67:0.17 68:0.33 69:0.33 71:1.0 74:0.14 76:0.33 77:1.0 79:0.25 80:0.33 84:0.33 87:0.5 90:0.33 93:0.2 94:1.0 96:0.33 97:1.0 102:0.5 105:0.33 106:0.33 108:1.0 109:0.33 110:0.5 116:0.33 121:0.5 122:1.0 124:0.33 126:1.0 128:0.14 131:0.17 135:0.17 136:0.17 138:1.0 141:0.2 146:0.14 148:0.14 
