svm_type c_svc
kernel_type rbf
gamma 0.014285714285714285
nr_class 8
total_sv 39
rho -0.9368147253990173 -0.9404789701119557 0.47347062826156616 -0.6554348403654009 -0.8433808857726153 0.01678355875522614 1.0051068906217644 0.012132316827774048 0.7066646942573079 0.03491213917732239 -0.8189834952354431 0.09665697813034058 0.9243805407783879 0.7617048085142849 -0.009103357791900635 -0.8522251844406128 0.25853157043457026 0.9795932356215074 -0.539839373412262 -0.7616514283181246 0.043723344802856445 0.4491223990917206 -0.8097653334534801 0.043527521516651235 0.7043273136025604 0.39844438802540644 0.8728121634752638 0.24547115820309465
label 3 7 4 0 5 6 2 1
nr_sv 6 3 3 7 3 2 4 11
SV
0.09726348835805276 0.8039403804153544 1.0 0.4669039774348505 0.6482107582786375 0.0 1.0 1:0.33 2:0.2 3:0.25 5:0.67 13:0.08 16:0.12 17:0.17 19:0.14 21:0.25 23:0.17 24:0.14 30:0.25 32:1.0 33:1.0 34:0.12 36:0.25 38:0.14 39:0.2 40:0.14 49:0.25 50:0.33 57:0.12 61:0.43 65:0.2 67:0.25 70:0.11 
1.0 0.8076495535631769 1.0 1.0 0.7629124796903951 0.0 1.0 2:0.2 4:0.2 5:0.67 6:0.14 9:0.29 10:0.5 11:1.0 12:0.25 13:0.08 15:0.25 16:0.12 17:0.17 19:0.14 20:0.14 22:0.12 23:0.17 24:0.14 31:0.2 34:0.25 38:0.14 39:0.2 40:0.14 42:0.2 44:0.08 50:0.33 51:0.25 52:1.0 54:0.25 55:0.25 57:0.25 59:0.17 60:0.17 61:0.29 62:0.25 66:0.33 70:0.11 
0.0 0.0 1.0 0.0 0.0 1.0 1.0 2:0.2 3:0.25 5:0.33 11:0.5 13:0.06 16:0.25 17:0.33 19:0.29 21:0.25 23:0.17 24:0.29 26:0.25 27:0.25 30:0.5 33:1.0 34:0.06 39:0.2 40:0.29 43:0.25 47:0.25 49:0.25 52:1.0 53:0.25 54:0.25 61:0.43 67:0.5 70:0.22 
1.0 0.0 1.0 0.1910558632975407 0.03978397561269619 0.8596410574797441 1.0 2:0.2 3:0.25 5:0.33 6:0.14 9:0.14 10:1.0 11:0.5 12:0.25 13:0.08 14:0.25 15:0.25 16:0.25 17:0.33 19:0.29 20:0.14 22:0.12 23:0.33 24:0.29 28:0.2 29:0.25 34:0.06 37:0.25 39:0.4 40:0.29 42:0.4 45:0.33 48:0.25 50:0.67 51:0.25 54:0.25 55:0.5 57:0.12 59:0.17 61:0.29 62:0.25 64:1.0 70:0.22 
0.0 0.3884100660214688 1.0 0.3420401592676088 0.0 1.0 1.0 1:0.33 2:0.4 3:0.25 5:0.67 6:0.14 9:0.14 10:1.0 11:1.0 12:0.25 13:0.08 15:0.25 16:0.25 17:0.33 19:0.29 20:0.14 21:0.25 22:0.12 23:0.33 24:0.29 30:0.25 32:1.0 33:1.0 34:0.19 36:0.25 38:0.14 39:0.4 40:0.29 42:0.4 49:0.25 50:0.67 51:0.25 52:1.0 54:0.25 55:0.25 57:0.25 59:0.17 61:0.43 62:0.25 64:1.0 65:0.2 67:0.25 70:0.22 
0.9027365116419472 1.0 1.0 1.0 0.5490927864182712 1.0 1.0 1:0.33 2:0.2 3:0.25 5:0.67 6:0.14 9:0.14 10:1.0 11:0.5 12:0.25 13:0.17 14:0.25 15:0.25 16:0.25 17:0.33 19:0.29 20:0.14 22:0.12 23:0.33 24:0.29 28:0.2 29:0.25 32:1.0 34:0.12 36:0.25 37:0.25 38:0.14 39:0.4 40:0.29 42:0.4 45:0.33 48:0.25 50:1.0 51:0.25 54:0.25 55:0.5 57:0.25 59:0.17 61:0.43 62:0.25 64:1.0 65:0.2 70:0.22 
-1.0 1.0 1.0 1.0 0.0 1.0 1.0 2:0.2 5:0.33 6:0.14 9:0.14 10:1.0 11:0.5 12:0.25 13:0.11 15:1.0 16:0.12 17:0.17 19:0.14 20:0.14 22:0.12 23:0.17 24:0.14 34:0.06 39:0.2 40:0.14 42:1.0 44:0.08 50:0.33 51:0.25 54:0.25 55:0.25 57:0.25 59:0.17 61:0.14 62:0.25 64:1.0 66:0.33 70:0.11 
-1.0 1.0 1.0 1.0 1.0 1.0 1.0 2:0.4 3:0.25 5:0.67 6:0.29 9:0.14 10:0.5 11:0.5 12:0.25 13:0.31 15:1.0 16:0.25 17:0.17 19:0.14 20:0.29 22:0.25 23:0.33 24:0.14 27:0.25 34:0.12 39:0.4 40:0.29 41:0.25 42:0.8 44:0.15 47:0.25 49:0.25 50:0.33 51:0.5 53:0.25 54:0.25 55:0.25 57:0.38 58:0.25 59:0.33 61:0.29 62:0.5 66:0.67 67:0.25 68:0.25 69:0.25 70:0.22 
-1.0 1.0 1.0 1.0 1.0 1.0 1.0 1:0.33 2:0.2 5:0.67 6:0.29 9:0.29 10:1.0 11:0.5 12:0.25 13:0.31 15:1.0 16:0.12 17:0.17 19:0.14 20:0.29 22:0.25 23:0.17 24:0.14 31:0.2 32:1.0 34:0.12 36:0.25 38:0.29 39:0.2 40:0.14 42:1.0 44:0.15 46:0.2 50:0.67 51:0.25 54:0.25 55:0.25 57:0.5 59:0.33 60:0.17 61:0.29 62:0.5 64:1.0 65:0.2 66:0.67 70:0.11 
-1.0 -1.0 1.0 1.0 1.0 1.0 1.0 1:0.33 2:0.4 3:0.5 4:0.2 5:1.0 6:0.29 7:0.5 8:0.33 9:0.29 10:0.5 11:0.5 12:0.5 13:0.25 14:0.25 15:0.25 16:0.5 17:0.5 19:0.57 20:0.29 21:0.5 22:0.25 23:0.5 24:0.57 25:0.33 28:0.2 29:0.25 30:0.25 31:0.2 32:1.0 33:1.0 34:1.0 35:0.25 36:0.5 37:0.25 38:0.29 39:0.6 40:0.57 41:0.25 42:0.2 43:0.25 44:0.15 45:0.33 48:0.5 49:0.5 50:1.0 51:0.25 53:0.25 54:0.25 55:0.75 57:0.5 58:0.25 59:0.33 60:0.17 61:0.86 62:0.5 65:0.4 66:0.33 67:0.5 68:0.25 70:0.44 
-1.0 -1.0 1.0 1.0 0.0 1.0 1.0 1:0.33 2:0.2 5:1.0 6:0.29 7:0.5 9:0.14 10:0.5 11:1.0 12:0.5 13:0.11 15:0.25 16:0.25 17:0.17 19:0.29 20:0.29 21:0.25 22:0.25 23:0.17 24:0.29 32:1.0 34:1.0 36:0.25 38:0.14 39:0.2 40:0.29 41:0.25 42:0.2 43:0.25 44:0.08 48:0.25 49:0.25 50:0.67 51:0.25 52:1.0 53:0.25 54:0.25 55:0.5 57:0.38 58:0.25 59:0.33 61:0.57 62:0.5 65:0.2 67:0.25 68:0.25 70:0.22 
-1.0 -1.0 1.0 1.0 1.0 1.0 1.0 1:0.33 2:0.2 5:1.0 6:0.14 9:0.14 10:0.5 11:0.5 12:0.25 13:0.14 15:0.25 16:0.12 17:0.17 19:0.14 20:0.14 22:0.12 23:0.17 24:0.14 32:1.0 34:0.19 36:0.25 38:0.14 39:0.2 40:0.14 42:0.2 50:0.67 51:0.25 54:0.25 55:0.25 57:0.25 59:0.17 61:0.43 62:0.25 65:0.2 70:0.11 
-1.0 -0.45594106280837987 -0.44955692639497313 0.5409020545098795 0.0 1.0 1.0 1:0.33 2:0.4 3:0.25 4:1.0 5:1.0 6:0.14 9:1.0 10:0.5 11:1.0 12:0.25 13:0.14 15:0.25 16:0.38 17:0.5 19:0.43 20:0.14 21:0.25 22:0.12 23:0.33 24:0.43 26:0.25 27:0.25 30:0.5 31:1.0 32:1.0 33:1.0 34:0.25 36:0.25 38:1.0 39:0.4 40:0.43 42:0.2 43:0.25 44:0.08 46:1.0 47:0.25 49:0.25 50:0.67 51:0.25 52:1.0 53:0.25 54:0.5 55:0.25 57:0.38 59:0.17 60:1.0 61:0.71 62:0.25 65:0.2 66:0.33 67:0.5 70:0.33 
-1.0 -0.0 -0.0 0.0 0.0 0.0 1.0 1:0.33 4:1.0 5:0.33 9:0.86 13:0.06 31:1.0 32:1.0 34:0.06 36:0.25 38:1.0 44:0.08 46:1.0 50:0.33 57:0.25 60:1.0 61:0.14 65:0.2 66:0.33 
-0.2746456542779513 -0.0 -0.5982341428384874 0.0 0.29682355245694425 1.0 1.0 1:0.33 4:1.0 5:0.33 9:0.86 12:0.25 13:0.08 16:0.25 17:0.17 19:0.29 21:0.25 24:0.29 26:0.25 27:0.25 30:0.25 31:1.0 32:1.0 34:0.12 36:0.25 38:1.0 40:0.29 41:0.25 43:0.5 44:0.08 46:1.0 47:0.25 48:0.25 49:0.25 50:0.33 53:0.5 54:0.25 55:0.25 57:0.25 58:0.25 60:1.0 61:0.43 65:0.2 66:0.33 67:0.5 68:0.25 70:0.22 
-1.0 -0.21743397798516237 -1.0 0.4474920650969372 0.6275054273746751 1.0 1.0 1:0.33 2:0.4 3:0.25 4:1.0 5:1.0 6:0.14 8:0.33 9:1.0 10:0.5 11:1.0 12:0.25 13:0.17 15:0.25 16:0.38 17:0.5 19:0.43 20:0.14 21:0.25 22:0.12 23:0.33 24:0.43 25:0.33 26:0.25 27:0.25 30:0.5 31:1.0 32:1.0 33:1.0 34:0.19 35:0.25 36:0.5 38:1.0 39:0.4 40:0.43 42:0.2 43:0.25 44:0.08 46:1.0 47:0.25 49:0.25 50:0.67 51:0.25 52:1.0 53:0.25 54:0.5 55:0.25 57:0.38 59:0.17 60:1.0 61:0.71 62:0.25 65:0.4 66:0.33 67:0.5 70:0.33 
-0.7253543457220487 -0.32662495920645773 -0.0 0.011605880393183342 0.0 0.0 1.0 1:0.33 4:1.0 5:0.33 9:0.86 13:0.06 31:1.0 32:1.0 34:0.06 36:0.25 38:1.0 44:0.08 46:1.0 50:0.33 57:0.25 60:1.0 61:0.14 65:0.2 66:0.33 
-1.0 -1.0 -0.9522089307665395 1.0 0.28303110501614415 0.3008615018213396 1.0 2:0.2 4:1.0 5:0.67 6:0.14 9:1.0 10:0.5 11:0.5 12:0.25 13:0.14 15:0.25 16:0.12 17:0.17 19:0.14 20:0.14 22:0.12 23:0.17 24:0.14 31:1.0 34:0.12 38:0.86 39:0.2 40:0.14 42:0.2 44:0.08 46:1.0 50:0.33 51:0.25 54:0.25 55:0.25 57:0.25 59:0.17 60:1.0 61:0.29 62:0.25 66:0.33 70:0.11 
-1.0 -1.0 -0.0 1.0 0.7926399151522365 0.0 1.0 2:0.2 4:1.0 5:0.33 6:0.14 9:1.0 10:0.5 11:0.5 12:0.25 13:0.06 15:0.25 16:0.12 17:0.17 19:0.14 20:0.14 22:0.12 23:0.17 24:0.14 31:1.0 34:0.06 38:0.86 39:0.2 40:0.14 42:0.2 44:0.08 46:1.0 50:0.33 51:0.25 54:0.25 55:0.25 57:0.25 59:0.17 60:1.0 61:0.14 62:0.25 66:0.33 70:0.11 
-1.0 -1.0 -1.0 -1.0 0.6282161522795645 0.7049646597340719 1.0 1:0.33 2:0.2 4:0.2 5:0.67 6:1.0 7:1.0 9:0.29 10:0.5 11:0.5 12:0.25 13:0.14 15:0.5 16:0.12 17:0.17 19:0.14 20:1.0 22:1.0 23:0.17 24:0.14 31:0.2 32:1.0 34:0.44 36:0.25 38:0.29 39:0.2 40:0.14 42:0.4 44:0.92 50:0.67 51:0.25 54:0.25 55:0.25 56:1.0 57:1.0 59:1.0 60:0.17 61:0.29 62:1.0 63:1.0 65:0.2 66:1.0 70:0.11 
-1.0 -1.0 -1.0 -1.0 0.478458418452288 1.0 1.0 2:0.2 5:0.67 6:1.0 7:1.0 9:0.14 10:0.5 11:1.0 12:0.25 13:0.08 15:0.25 16:0.12 17:0.17 19:0.14 20:1.0 22:1.0 23:0.17 24:0.14 34:0.25 39:0.2 40:0.14 42:0.2 44:0.46 50:0.33 51:0.25 52:1.0 54:0.25 55:0.25 56:1.0 57:0.62 59:1.0 61:0.29 62:1.0 63:1.0 66:0.33 70:0.11 
-1.0 -1.0 -1.0 -1.0 0.8933254292681475 1.0 1.0 1:0.33 2:0.4 3:0.25 4:0.2 5:0.67 6:1.0 7:1.0 9:0.29 10:0.5 11:0.5 12:0.25 13:0.14 15:0.5 16:0.25 17:0.17 19:0.14 20:1.0 22:1.0 23:0.33 24:0.14 27:0.25 31:0.2 32:1.0 34:0.19 36:0.25 38:0.29 39:0.4 40:0.29 41:0.25 42:0.4 44:0.92 47:0.25 49:0.25 50:0.67 51:0.5 53:0.25 54:0.25 55:0.25 56:1.0 57:1.0 58:0.25 59:1.0 60:0.17 61:0.29 62:1.0 63:1.0 65:0.2 66:1.0 67:0.25 68:0.25 69:0.25 70:0.22 
-1.0 -1.0 -1.0 -1.0 -1.0 1.0 1.0 4:0.2 6:0.71 7:0.5 9:0.14 13:0.08 15:0.25 20:0.86 22:0.75 31:0.2 34:0.06 38:0.14 42:0.2 44:1.0 56:0.5 57:0.75 59:0.83 60:0.17 62:0.75 63:0.5 66:1.0 
-1.0 -1.0 -1.0 -1.0 -1.0 1.0 1.0 1:0.33 2:0.4 3:0.5 4:0.2 5:1.0 6:0.29 8:0.33 9:0.29 10:0.5 11:0.5 12:0.5 13:1.0 14:0.25 15:1.0 16:0.5 17:0.5 19:0.57 20:0.29 21:0.5 22:0.25 23:0.5 24:0.57 25:0.33 28:0.2 29:0.25 30:0.25 31:0.2 32:1.0 33:1.0 34:0.25 35:0.25 36:0.5 37:0.25 38:0.29 39:0.6 40:0.57 41:0.25 42:0.8 43:0.25 44:0.23 45:0.33 48:0.5 49:0.5 50:1.0 51:0.25 53:0.25 54:0.25 55:0.75 57:0.62 58:0.25 59:0.33 60:0.17 61:0.86 62:0.5 65:0.4 66:1.0 67:0.5 68:0.25 70:0.44 
-0.9457870969503104 -0.6867842862754182 -0.1385785907588784 -0.3008615018213396 -0.27273846895185827 -0.24433733617921047 1.0 2:1.0 3:1.0 5:0.33 6:0.14 9:0.14 10:1.0 11:1.0 12:1.0 13:0.11 14:1.0 15:0.25 16:1.0 17:1.0 18:1.0 19:1.0 20:0.14 21:1.0 22:0.12 23:1.0 24:1.0 26:1.0 27:1.0 28:1.0 29:1.0 30:1.0 33:1.0 34:0.19 37:1.0 39:1.0 40:1.0 41:1.0 42:0.4 43:1.0 45:1.0 47:1.0 48:1.0 49:1.0 50:0.67 51:1.0 52:1.0 53:1.0 54:1.0 55:1.0 57:0.12 58:1.0 59:0.17 61:0.71 62:0.25 64:1.0 67:1.0 68:1.0 69:1.0 70:1.0 
-0.9138539605294337 -0.3132157137245818 -1.0 -1.0 -0.43222619078221364 -0.039584993919705665 1.0 1:0.33 2:1.0 3:1.0 5:1.0 6:0.14 9:0.14 10:0.5 11:1.0 12:1.0 13:0.17 14:0.25 15:0.25 16:1.0 17:1.0 19:1.0 20:0.14 21:1.0 22:0.12 23:1.0 24:1.0 26:1.0 27:1.0 28:0.2 29:0.25 30:1.0 32:1.0 33:1.0 34:0.25 36:0.25 37:0.25 38:0.14 39:1.0 40:1.0 41:1.0 42:0.2 43:1.0 45:0.33 47:1.0 48:1.0 49:1.0 50:1.0 51:1.0 52:1.0 53:1.0 54:1.0 55:1.0 57:0.25 58:1.0 59:0.17 61:1.0 62:0.25 65:0.2 67:1.0 68:1.0 69:1.0 70:1.0 
-1.0 -1.0 -0.8614214092411216 -1.0 -1.0 -0.7160776699010838 1.0 2:1.0 3:1.0 5:0.67 6:0.14 9:0.14 10:0.5 11:1.0 12:1.0 13:0.14 14:0.25 15:0.25 16:1.0 17:1.0 19:1.0 20:0.14 21:1.0 22:0.12 23:1.0 24:1.0 26:1.0 27:1.0 28:0.2 29:0.25 30:1.0 33:1.0 34:0.25 37:0.25 39:1.0 40:1.0 41:1.0 42:0.2 43:1.0 45:0.33 47:1.0 48:1.0 49:1.0 50:0.67 51:1.0 52:1.0 53:1.0 54:1.0 55:1.0 57:0.12 58:1.0 59:0.17 61:0.86 62:0.25 67:1.0 68:1.0 69:1.0 70:1.0 
-1.0 -1.0 -1.0 -1.0 -1.0 -1.0 1.0 1:0.33 2:1.0 3:1.0 5:1.0 6:0.14 9:0.14 10:0.5 11:0.5 12:1.0 13:0.17 14:0.25 15:0.25 16:1.0 17:1.0 19:1.0 20:0.14 21:1.0 22:0.12 23:1.0 24:1.0 26:1.0 27:1.0 28:0.2 29:0.25 30:1.0 32:1.0 33:1.0 34:0.25 36:0.25 37:0.25 38:0.14 39:1.0 40:1.0 41:1.0 42:0.2 43:1.0 45:0.33 47:1.0 48:1.0 49:1.0 50:1.0 51:1.0 53:1.0 54:1.0 55:1.0 57:0.25 58:1.0 59:0.17 61:1.0 62:0.25 65:0.2 67:1.0 68:1.0 69:1.0 70:1.0 
-0.0 -0.0 -0.0 -0.0 -0.4304137853478577 -0.18978722535630474 -0.0 1:1.0 2:0.4 3:0.5 5:1.0 6:0.29 7:0.5 8:1.0 9:0.14 10:0.5 11:1.0 12:0.25 13:0.19 14:1.0 15:0.5 16:0.38 17:0.5 18:1.0 19:0.43 20:0.29 21:0.25 22:0.25 23:0.5 24:0.43 25:1.0 28:1.0 29:1.0 30:0.25 32:1.0 33:1.0 34:0.5 35:1.0 36:1.0 37:1.0 38:0.14 39:0.6 40:0.43 42:0.4 44:0.15 45:1.0 48:0.25 49:0.25 50:1.0 51:0.25 52:1.0 54:0.25 55:0.5 57:0.5 59:0.33 61:0.71 62:0.5 65:1.0 66:0.33 67:0.25 70:0.33 
-0.0 -0.0 -0.0 -0.0 -0.0 -0.0 -0.4591997079277881 1:1.0 2:0.4 3:0.5 5:0.67 6:0.14 8:1.0 9:0.29 10:1.0 11:1.0 12:0.25 13:0.14 14:1.0 15:0.25 16:0.5 17:0.67 18:1.0 19:0.57 20:0.14 21:0.25 22:0.12 23:0.5 24:0.57 25:1.0 26:0.25 27:0.25 28:1.0 29:1.0 30:0.5 31:0.2 32:1.0 33:1.0 34:0.12 35:1.0 36:1.0 37:1.0 38:0.29 39:0.6 40:0.57 42:0.4 43:0.25 45:1.0 46:0.2 47:0.25 48:0.25 49:0.25 50:1.0 51:0.25 52:1.0 53:0.25 54:0.5 55:0.5 57:0.25 59:0.17 60:0.17 61:0.71 62:0.25 64:1.0 65:1.0 67:0.5 70:0.44 
-0.7655316701992038 -0.0 -0.0 -0.0 -0.0 -0.0 -0.0 1:0.67 2:0.2 3:0.25 8:1.0 10:0.5 11:0.5 13:0.06 16:0.12 17:0.17 19:0.14 21:0.25 23:0.17 24:0.14 25:1.0 30:0.25 33:1.0 35:1.0 36:0.75 39:0.2 40:0.14 42:0.2 49:0.25 52:1.0 61:0.14 64:1.0 65:0.8 67:0.25 70:0.11 
-0.6850404177905446 -0.4218175806998368 -0.4615616256443063 -1.0 -0.4777444664742578 -0.05017429118673279 -0.733688028659688 1:0.67 2:0.4 3:0.25 5:0.67 6:0.14 8:1.0 9:0.14 10:0.5 11:1.0 12:0.25 13:0.08 15:0.25 16:0.25 17:0.17 19:0.14 20:0.14 22:0.12 23:0.33 24:0.14 25:1.0 27:0.25 34:0.12 35:1.0 36:0.75 39:0.4 40:0.29 41:0.25 42:0.2 47:0.25 49:0.25 50:0.33 51:0.5 52:1.0 53:0.25 54:0.25 55:0.25 57:0.12 58:0.25 59:0.17 61:0.29 62:0.25 65:0.8 67:0.25 68:0.25 69:0.25 70:0.22 
-0.0 -0.0 -0.0 -0.0 -0.0 -0.0 -1.0 1:1.0 2:0.4 3:0.5 5:0.67 6:0.14 8:1.0 9:0.14 10:1.0 11:1.0 12:0.5 13:0.22 14:1.0 15:0.25 16:0.5 17:0.5 18:1.0 19:0.57 20:0.14 21:0.5 22:0.12 23:0.5 24:0.57 25:1.0 28:1.0 29:1.0 30:0.25 32:1.0 33:1.0 34:0.19 35:1.0 36:1.0 37:1.0 38:0.14 39:0.6 40:0.57 41:0.25 42:0.4 43:0.25 45:1.0 48:0.5 49:0.5 50:1.0 51:0.25 52:1.0 53:0.25 54:0.25 55:0.75 57:0.25 58:0.25 59:0.17 61:0.71 62:0.25 64:1.0 65:1.0 67:0.5 68:0.25 70:0.44 
-0.8469563538793923 -0.3677614832814466 -0.0 -1.0 -0.0 -0.0 -0.0 3:0.25 10:0.5 13:0.03 14:1.0 16:0.12 17:0.17 18:1.0 19:0.14 23:0.17 24:0.14 28:1.0 29:1.0 34:0.06 37:1.0 39:0.2 40:0.14 42:0.2 45:1.0 48:0.25 50:0.33 55:0.25 61:0.14 64:1.0 70:0.11 
-0.0 -0.0 -0.0 -1.0 -0.0 -0.0 -0.0 1:1.0 2:0.2 3:0.25 5:0.33 8:1.0 10:0.5 13:0.08 16:0.25 17:0.33 19:0.29 21:0.25 23:0.17 24:0.29 25:1.0 26:0.25 27:0.25 30:0.5 32:1.0 33:1.0 34:0.06 35:1.0 36:1.0 38:0.14 39:0.2 40:0.29 42:0.2 43:0.25 47:0.25 49:0.25 50:0.33 53:0.25 54:0.25 57:0.12 61:0.43 64:1.0 65:1.0 67:0.5 70:0.22 
-0.7024715581308594 -0.21042093601871661 -0.32169398086734646 -1.0 -0.0 -0.235994577095436 -0.0 1:1.0 2:0.2 3:0.25 5:0.33 8:1.0 10:0.5 13:0.08 16:0.25 17:0.33 19:0.29 21:0.25 23:0.17 24:0.29 25:1.0 26:0.25 27:0.25 30:0.5 32:1.0 33:1.0 34:0.06 35:1.0 36:1.0 38:0.14 39:0.2 40:0.29 42:0.2 43:0.25 47:0.25 49:0.25 50:0.33 53:0.25 54:0.25 57:0.12 61:0.43 64:1.0 65:1.0 67:0.5 70:0.22 
-1.0 -1.0 -0.5697802942179139 -1.0 -1.0 -0.3807024005276445 -0.04127226329591187 2:0.2 5:0.33 6:0.14 9:0.14 10:1.0 11:1.0 12:0.25 13:0.03 15:0.25 16:0.12 17:0.17 19:0.14 20:0.14 22:0.12 23:0.17 24:0.14 34:0.12 39:0.2 40:0.14 42:0.4 50:0.33 51:0.25 52:1.0 54:0.25 55:0.25 57:0.12 59:0.17 61:0.14 62:0.25 64:1.0 70:0.11 
-1.0 -1.0 -1.0 -1.0 -1.0 -1.0 -0.7658400001166122 1:0.33 2:0.2 3:0.25 5:0.67 6:0.14 9:0.14 10:0.5 11:0.5 12:0.25 13:0.08 14:0.25 15:0.25 16:0.25 17:0.33 19:0.29 20:0.14 22:0.12 23:0.33 24:0.29 28:0.2 29:0.25 32:1.0 34:0.12 36:0.25 37:0.25 38:0.14 39:0.4 40:0.29 42:0.2 45:0.33 48:0.25 50:1.0 51:0.25 54:0.25 55:0.5 57:0.25 59:0.17 61:0.43 62:0.25 65:0.2 70:0.22 
-1.0 -0.0 -0.6469640992704334 -1.0 -0.09184174817788451 -0.14334150583388205 -1.0 1:0.33 2:0.4 3:0.5 4:0.2 5:1.0 6:0.14 9:0.29 10:0.5 11:1.0 12:0.25 13:0.33 14:1.0 15:0.25 16:0.38 17:0.5 18:1.0 19:0.43 20:0.14 21:0.25 22:0.12 23:0.5 24:0.43 28:1.0 29:1.0 30:0.25 31:0.2 32:1.0 33:1.0 34:0.19 36:0.25 37:1.0 38:0.29 39:0.6 40:0.43 42:0.2 44:0.08 45:1.0 48:0.25 49:0.25 50:1.0 51:0.25 52:1.0 54:0.25 55:0.5 57:0.38 59:0.17 60:0.17 61:0.71 62:0.25 65:0.2 66:0.33 67:0.25 70:0.33 
