svm_type c_svc
kernel_type rbf
gamma 0.007874015748031496
nr_class 8
total_sv 31
rho 0.91728875041008 0.0 0.9332061111927032 0.8710554540157318 0.0 0.9772482812404633 1.0 -0.7664158642292023 0.7944890558719635 0.7762767672538757 -0.9336341229239834 0.5633808374404907 0.6458790600299835 0.8445350825786591 0.7620154448545163 0.0 0.812177836894989 1.0 -0.2103571891784668 -0.9116897284984589 -0.681816816329956 0.1400606457616458 -0.9252876672372469 -0.027135491371154785 0.4800296723842621 0.7965048551559448 0.8654874095826046 0.8520504534244537
label 3 7 4 0 5 6 2 1
nr_sv 1 3 1 6 4 1 4 11
SV
1.0 1.0 1.0 1.0 1.0 1.0 1.0 3:0.25 5:0.33 6:0.5 7:0.25 13:0.17 14:1.0 15:1.0 18:0.2 19:1.0 20:0.14 21:0.2 23:0.17 25:0.25 26:1.0 29:0.5 30:0.14 32:0.5 33:0.25 37:1.0 38:0.5 39:0.25 50:0.17 51:0.5 53:0.17 58:0.2 59:0.5 61:0.33 62:0.17 64:0.17 79:0.33 83:0.25 86:0.5 87:0.2 90:1.0 91:0.17 93:0.25 97:0.33 99:0.25 107:0.17 109:1.0 110:0.08 112:0.1 113:1.0 114:0.5 116:0.5 118:0.07 119:0.5 122:0.5 123:0.33 124:0.33 125:0.14 126:0.29 
-0.37107571513140536 0.3515935710291629 1.0 1.0 0.2758398968014835 1.0 1.0 2:0.2 3:0.5 5:1.0 6:1.0 7:0.25 9:1.0 13:0.17 14:1.0 15:1.0 17:1.0 18:0.2 20:0.43 21:0.4 22:0.14 23:0.33 25:0.25 26:0.5 29:0.5 30:0.29 32:1.0 33:0.25 35:1.0 36:0.25 37:1.0 38:0.5 39:0.75 42:1.0 44:0.5 45:0.17 46:0.17 50:0.5 51:0.5 53:0.17 54:0.67 55:0.5 58:0.4 59:1.0 60:1.0 61:1.0 62:0.33 64:0.33 66:0.2 68:1.0 70:1.0 72:0.25 73:0.5 76:0.17 79:0.33 81:0.17 82:0.5 83:0.25 86:1.0 87:0.4 89:0.2 90:1.0 91:0.33 93:0.5 96:1.0 97:0.67 99:0.25 102:0.33 104:1.0 107:0.5 109:0.29 110:0.16 111:1.0 112:0.1 114:1.0 115:0.14 118:0.21 119:0.5 122:0.5 123:1.0 125:0.14 126:0.14 127:0.2 
-0.6289242848685946 0.6484064289708371 1.0 1.0 0.41046934329963347 1.0 1.0 3:0.25 5:0.67 6:0.5 7:0.25 10:1.0 13:0.17 14:1.0 15:1.0 17:1.0 18:0.2 20:0.43 21:0.2 22:0.14 23:0.17 25:0.5 26:0.5 29:0.5 30:0.14 32:1.0 33:0.5 36:0.25 39:0.5 46:0.17 48:0.2 49:0.25 50:0.5 51:0.5 53:0.17 54:0.33 55:0.5 58:0.2 59:0.5 60:1.0 61:0.67 62:0.17 64:0.5 66:0.2 68:0.5 69:0.25 70:1.0 73:0.5 75:0.2 76:0.17 79:0.33 81:0.17 82:0.5 83:0.25 85:0.33 86:0.5 87:0.2 91:0.33 92:0.5 93:0.25 97:0.33 98:0.25 99:0.25 101:0.33 104:0.5 105:0.17 107:0.5 109:0.14 110:0.28 111:1.0 112:0.05 114:1.0 115:0.14 118:0.21 119:0.5 122:0.5 123:0.67 126:0.14 127:1.0 
-0.0 0.0 1.0 1.0 0.31369075989888295 1.0 1.0 5:0.67 6:0.5 9:1.0 10:1.0 11:0.5 17:1.0 20:0.71 22:0.14 24:0.33 25:0.5 28:0.25 32:0.5 36:0.25 39:0.5 40:0.5 42:1.0 44:1.0 46:0.17 47:0.33 48:0.4 49:0.25 50:0.67 52:0.5 54:0.67 55:0.5 56:0.25 57:0.33 59:0.5 60:1.0 61:0.67 64:0.67 66:0.2 68:1.0 70:1.0 71:0.5 73:0.5 75:0.4 76:0.17 77:0.33 81:0.17 82:0.5 86:0.5 91:0.67 92:0.5 96:1.0 98:0.25 101:0.33 103:1.0 104:1.0 105:0.33 106:0.33 107:0.67 110:0.4 111:1.0 114:0.5 115:0.14 118:0.43 123:0.67 127:1.0 
-1.0 -1.0 1.0 1.0 1.0 1.0 1.0 1:0.5 2:0.2 3:0.75 5:0.33 7:0.75 8:1.0 11:0.5 12:1.0 13:0.83 14:1.0 15:1.0 18:0.8 19:1.0 20:0.14 21:0.6 22:0.14 23:0.83 24:0.67 25:0.25 26:1.0 27:0.75 28:0.5 29:1.0 30:0.71 31:0.67 32:0.5 33:0.5 34:0.67 35:1.0 36:0.25 39:0.5 41:1.0 43:1.0 45:0.17 46:0.17 47:0.33 48:0.2 49:0.25 50:0.17 51:0.5 52:0.5 53:0.67 54:0.33 56:0.75 57:0.33 58:0.8 59:0.5 61:0.33 62:0.83 63:1.0 64:0.17 65:0.8 66:0.2 67:1.0 69:0.5 72:0.75 73:0.5 74:0.67 75:0.4 76:0.17 77:0.33 78:1.0 79:0.67 80:0.5 81:0.17 83:0.75 84:1.0 85:0.33 86:0.5 87:0.8 89:0.2 91:0.17 93:0.75 97:0.67 98:0.5 99:0.5 100:1.0 101:0.33 102:0.67 105:0.33 106:0.67 107:0.17 108:1.0 109:0.29 110:0.12 112:1.0 113:1.0 114:0.5 115:0.14 116:1.0 117:1.0 118:0.14 119:1.0 121:1.0 122:0.5 123:0.33 124:1.0 125:0.29 126:0.29 
-0.0 -1.0 -0.0 1.0 0.0 1.0 1.0 2:0.2 3:0.25 4:1.0 5:0.33 7:0.25 13:0.17 14:1.0 15:1.0 18:0.2 20:0.14 21:0.2 22:0.14 23:0.17 25:0.25 26:0.5 29:0.5 30:0.14 32:0.5 33:0.25 36:0.25 39:0.25 45:0.17 50:0.17 51:1.0 53:0.17 58:0.2 59:0.5 61:0.33 62:0.17 64:0.17 66:0.2 76:0.17 79:0.33 81:0.17 83:0.25 86:0.5 87:0.2 89:0.2 91:0.17 92:0.5 93:0.25 97:0.33 99:0.25 107:0.17 109:0.14 110:0.04 112:0.05 114:0.5 115:0.14 118:0.07 119:0.5 120:1.0 122:1.0 123:0.33 126:0.14 
-0.994505803459327 -1.0 -0.6538319828815538 1.0 0.36783874994672305 1.0 1.0 2:0.2 3:0.25 4:1.0 5:0.33 7:0.25 13:0.17 14:1.0 15:1.0 18:0.2 20:0.14 21:0.2 22:0.14 23:0.17 25:0.25 26:0.5 29:0.5 30:0.14 32:0.5 33:0.25 36:0.25 39:0.25 45:0.17 50:0.17 51:1.0 53:0.17 58:0.2 59:0.5 61:0.33 62:0.17 64:0.17 66:0.2 76:0.17 79:0.33 81:0.17 83:0.25 86:0.5 87:0.2 89:0.2 91:0.17 92:0.5 93:0.25 97:0.33 99:0.25 107:0.17 109:0.14 110:0.04 112:0.05 114:0.5 115:0.14 118:0.07 119:0.5 120:1.0 122:1.0 123:0.33 126:0.14 
-0.005494196540672999 -1.0 -0.34616801711844625 1.0 0.632161250053277 0.13074019363138645 1.0 2:1.0 3:0.5 4:1.0 5:1.0 6:0.5 7:0.5 8:0.5 9:1.0 10:1.0 13:0.33 14:1.0 15:1.0 17:1.0 18:0.4 20:0.57 21:0.4 22:1.0 23:0.5 25:0.5 26:0.5 27:0.25 28:0.25 29:1.0 30:0.43 32:1.0 33:0.5 34:0.33 35:1.0 36:1.0 39:1.0 40:0.5 41:0.25 42:1.0 44:0.5 45:1.0 46:1.0 48:0.2 49:0.25 50:0.67 51:1.0 53:0.33 54:1.0 55:0.5 56:0.25 58:0.6 59:1.0 60:1.0 61:1.0 62:0.5 63:0.25 64:0.5 65:0.2 66:1.0 67:1.0 68:1.0 69:0.5 70:1.0 72:0.5 73:1.0 74:0.33 75:0.4 76:1.0 77:0.33 79:0.33 81:1.0 82:1.0 83:0.25 84:0.33 85:0.33 86:1.0 87:0.4 89:1.0 91:0.5 92:1.0 93:0.5 94:1.0 96:1.0 97:0.67 98:0.5 99:0.25 101:0.33 102:0.33 104:1.0 105:0.33 106:0.33 107:0.67 109:0.14 110:0.32 111:1.0 112:0.15 114:1.0 115:1.0 117:0.5 118:0.36 119:0.5 120:1.0 122:1.0 123:1.0 124:0.33 125:0.14 126:0.14 127:1.0 
-0.0 -0.0 -0.0 0.0 0.0 0.0 1.0 2:1.0 3:0.25 4:1.0 10:1.0 21:0.2 22:1.0 23:0.17 30:0.14 35:1.0 36:1.0 45:1.0 46:1.0 48:0.2 49:0.25 51:0.5 58:0.2 62:0.17 66:1.0 72:0.25 75:0.2 76:1.0 81:1.0 87:0.2 89:1.0 92:1.0 93:0.25 97:0.33 98:0.25 101:0.33 102:0.33 105:0.17 110:0.04 112:0.05 115:1.0 120:1.0 122:0.5 125:0.14 127:0.2 
-0.0 -0.0 -0.0 0.0 0.0 0.8692598063686136 1.0 2:1.0 3:0.25 4:1.0 10:1.0 21:0.2 22:1.0 23:0.17 30:0.14 35:1.0 36:1.0 45:1.0 46:1.0 48:0.2 49:0.25 51:0.5 58:0.2 62:0.17 66:1.0 72:0.25 75:0.2 76:1.0 81:1.0 87:0.2 89:1.0 92:1.0 93:0.25 97:0.33 98:0.25 101:0.33 102:0.33 105:0.17 110:0.04 112:0.05 115:1.0 120:1.0 122:0.5 125:0.14 127:0.2 
-0.0 -0.0 -0.0 1.0 0.0 1.0 1.0 2:1.0 3:0.25 4:1.0 10:1.0 21:0.2 22:1.0 23:0.17 30:0.14 35:1.0 36:1.0 45:1.0 46:1.0 48:0.2 49:0.25 51:0.5 58:0.2 62:0.17 66:1.0 72:0.25 75:0.2 76:1.0 81:1.0 87:0.2 89:1.0 92:1.0 93:0.25 97:0.33 98:0.25 101:0.33 102:0.33 105:0.17 110:0.04 112:0.05 115:1.0 120:1.0 122:0.5 125:0.14 127:0.2 
-0.9090793730363302 -1.0 -0.40485001046834906 -1.0 0.2338621605927451 1.0 1.0 2:0.2 3:0.5 5:1.0 6:1.0 7:0.25 9:1.0 13:0.17 14:1.0 15:1.0 17:1.0 18:0.2 20:0.43 21:0.4 22:0.14 23:0.33 25:0.25 26:0.5 29:0.5 30:0.29 32:1.0 33:0.25 35:1.0 36:0.25 37:1.0 38:0.5 39:0.75 42:1.0 44:0.5 45:0.17 46:0.17 50:0.5 51:0.5 53:0.17 54:0.67 55:0.5 58:0.4 59:1.0 60:1.0 61:1.0 62:0.33 64:0.33 66:0.2 68:1.0 70:1.0 72:0.25 73:0.5 76:0.17 79:0.33 81:0.17 82:0.5 83:0.25 86:1.0 87:0.4 89:0.2 90:1.0 91:0.33 93:0.5 96:1.0 97:0.67 99:0.25 102:0.33 104:1.0 107:0.5 109:0.29 110:0.16 111:1.0 112:0.1 114:1.0 115:0.14 118:0.21 119:0.5 122:0.5 123:1.0 125:0.14 126:0.14 127:0.2 
-0.0 -1.0 -0.0 -1.0 0.0 1.0 1.0 3:0.25 5:1.0 6:0.5 7:0.5 8:0.5 9:1.0 13:0.33 14:1.0 15:1.0 17:1.0 18:0.4 20:1.0 21:0.2 23:0.33 25:1.0 26:0.5 27:0.25 28:0.25 29:1.0 30:0.29 32:1.0 33:0.5 34:0.33 39:1.0 41:0.25 42:1.0 44:0.5 50:1.0 51:0.5 53:0.33 54:1.0 55:0.5 56:0.25 58:0.4 59:1.0 60:1.0 61:1.0 62:0.33 63:0.25 64:1.0 65:0.2 67:1.0 68:1.0 69:0.5 70:1.0 72:0.25 73:1.0 74:0.33 75:0.2 77:0.33 79:0.33 82:1.0 83:0.25 84:0.33 85:0.33 86:1.0 87:0.2 91:1.0 93:0.25 96:1.0 97:0.33 98:0.25 99:0.25 104:1.0 105:0.17 106:0.33 107:1.0 109:0.14 110:0.32 111:1.0 112:0.1 114:1.0 117:0.5 118:1.0 119:0.5 122:0.5 123:1.0 124:0.33 126:0.14 127:0.2 
-0.0 -0.7121652872444011 -0.475588427175868 -1.0 0.7226738184108342 1.0 1.0 3:0.25 5:1.0 6:0.5 7:0.5 8:0.5 9:1.0 13:0.33 14:1.0 15:1.0 17:1.0 18:0.4 20:1.0 21:0.2 23:0.33 25:1.0 26:0.5 27:0.25 28:0.25 29:1.0 30:0.29 32:1.0 33:0.5 34:0.33 39:1.0 41:0.25 42:1.0 44:0.5 50:1.0 51:0.5 53:0.33 54:1.0 55:0.5 56:0.25 58:0.4 59:1.0 60:1.0 61:1.0 62:0.33 63:0.25 64:1.0 65:0.2 67:1.0 68:1.0 69:0.5 70:1.0 72:0.25 73:1.0 74:0.33 75:0.2 77:0.33 79:0.33 82:1.0 83:0.25 84:0.33 85:0.33 86:1.0 87:0.2 91:1.0 93:0.25 96:1.0 97:0.33 98:0.25 99:0.25 104:1.0 105:0.17 106:0.33 107:1.0 109:0.14 110:0.32 111:1.0 112:0.1 114:1.0 117:0.5 118:1.0 119:0.5 122:0.5 123:1.0 124:0.33 126:0.14 127:0.2 
-0.09092062696366979 -0.28783471275559885 -0.119561562355783 -1.0 0.0434640209964207 1.0 1.0 3:0.25 5:1.0 6:0.5 7:0.5 8:0.5 9:1.0 13:0.33 14:1.0 15:1.0 17:1.0 18:0.4 20:1.0 21:0.2 23:0.33 25:1.0 26:0.5 27:0.25 28:0.25 29:1.0 30:0.29 32:1.0 33:0.5 34:0.33 39:1.0 40:0.5 41:0.25 42:1.0 44:0.5 50:1.0 51:0.5 53:0.33 54:1.0 55:0.5 56:0.25 58:0.4 59:1.0 60:1.0 61:1.0 62:0.33 63:0.25 64:1.0 65:0.2 67:1.0 68:1.0 69:0.5 70:1.0 72:0.25 73:1.0 74:0.33 75:0.2 77:0.33 79:0.33 82:1.0 83:0.25 84:0.33 85:0.33 86:1.0 87:0.2 91:1.0 93:0.25 94:1.0 96:1.0 97:0.33 98:0.25 99:0.25 104:1.0 105:0.17 106:0.33 107:1.0 109:0.14 110:0.32 111:1.0 112:0.1 114:1.0 117:0.5 118:1.0 119:0.5 122:0.5 123:1.0 124:0.33 126:0.14 127:0.2 
-1.0 -1.0 -1.0 -1.0 -1.0 1.0 1.0 3:0.5 5:1.0 6:0.5 7:0.25 8:0.5 9:1.0 10:1.0 13:0.33 14:1.0 15:1.0 17:1.0 18:0.4 19:1.0 20:1.0 21:0.2 22:0.14 23:0.33 24:0.33 25:1.0 26:1.0 27:0.25 28:0.25 29:0.5 30:0.29 32:1.0 33:0.5 34:0.33 36:0.25 39:0.75 41:0.25 42:1.0 44:0.5 46:0.17 47:0.33 48:0.4 49:0.5 50:1.0 51:0.5 52:0.5 53:0.33 54:0.67 55:0.5 56:0.25 58:0.2 59:1.0 60:1.0 61:1.0 62:0.33 63:0.25 64:1.0 65:0.2 66:0.2 68:1.0 69:0.25 70:1.0 73:0.5 75:0.4 76:0.17 78:0.5 79:0.33 80:0.5 81:0.17 82:1.0 83:0.25 84:0.33 85:0.33 86:1.0 87:0.2 91:1.0 92:0.5 93:0.25 96:1.0 97:0.33 98:0.5 99:0.25 100:1.0 101:0.67 104:1.0 105:0.33 106:0.33 107:1.0 108:0.33 109:0.29 110:1.0 111:1.0 112:0.15 113:1.0 114:1.0 115:0.14 116:1.0 117:0.5 118:0.57 119:1.0 121:1.0 122:0.5 123:1.0 124:0.67 125:0.14 126:0.29 127:1.0 
-0.0 -1.0 -0.0 -1.0 -1.0 -0.0 1.0 3:0.25 5:0.33 7:0.25 13:0.17 14:1.0 15:1.0 18:0.2 19:1.0 20:0.14 21:0.2 23:0.17 25:0.25 26:1.0 29:0.5 30:0.14 32:0.5 33:0.25 39:0.25 50:0.17 51:0.5 53:0.17 58:0.2 59:0.5 61:0.33 62:0.17 64:0.17 79:0.33 83:0.25 86:0.5 87:0.2 91:0.17 93:0.25 97:0.33 99:0.25 107:0.17 109:0.29 110:0.08 112:0.1 113:1.0 114:0.5 116:0.5 118:0.07 119:0.5 122:0.5 123:0.33 124:0.33 125:0.14 126:1.0 
-0.9290539586826787 -1.0 -0.795203170785413 -1.0 -1.0 -1.0 1.0 3:0.25 5:0.33 7:0.25 13:0.17 14:1.0 15:1.0 18:0.2 19:1.0 20:0.14 21:0.2 23:0.17 25:0.25 26:1.0 29:0.5 30:0.14 32:0.5 33:0.25 39:0.25 50:0.17 51:0.5 53:0.17 58:0.2 59:0.5 61:0.33 62:0.17 64:0.17 79:0.33 83:0.25 86:0.5 87:0.2 91:0.17 93:0.25 97:0.33 99:0.25 107:0.17 109:0.29 110:0.08 112:0.1 113:1.0 114:0.5 116:0.5 118:0.07 119:0.5 122:0.5 123:0.33 124:0.33 125:0.14 126:1.0 
-0.0 -0.0 -0.0 -1.0 -1.0 -0.0 1.0 2:0.2 3:0.25 19:1.0 21:0.2 22:0.14 23:0.17 26:0.5 30:0.14 35:1.0 36:0.25 45:0.17 46:0.17 58:0.2 62:0.17 66:0.2 72:0.25 76:0.17 81:0.17 87:0.2 89:0.2 93:0.25 97:0.33 102:0.33 109:0.14 110:0.04 112:0.1 113:1.0 115:0.14 116:0.5 124:0.33 125:1.0 126:0.14 
-0.07094604131732132 -1.0 -0.20479682921458697 -1.0 -1.0 -0.0 1.0 2:0.2 3:0.25 19:1.0 21:0.2 22:0.14 23:0.17 26:0.5 30:0.14 35:1.0 36:0.25 45:0.17 46:0.17 58:0.2 62:0.17 66:0.2 72:0.25 76:0.17 81:0.17 87:0.2 89:0.2 93:0.25 97:0.33 102:0.33 109:0.14 110:0.04 112:0.1 113:1.0 115:0.14 116:0.5 124:0.33 125:1.0 126:0.14 
-0.0 -1.0 -0.0 -1.0 -1.0 -0.0 -1.0 3:0.25 5:0.33 7:0.25 13:0.17 14:1.0 15:1.0 18:0.2 19:1.0 20:0.14 21:0.2 23:0.17 25:0.25 26:1.0 29:0.5 30:0.14 32:0.5 33:0.25 39:0.25 50:0.17 51:0.5 53:0.17 58:0.2 59:0.5 61:0.33 62:0.17 64:0.17 79:0.33 83:0.25 86:0.5 87:0.2 91:0.17 93:0.25 97:0.33 99:0.25 107:0.17 109:0.29 110:0.08 112:0.1 113:1.0 114:0.5 116:0.5 118:0.07 119:0.5 122:0.5 123:0.33 124:0.33 125:0.14 126:1.0 
-1.0 -1.0 -0.0 -1.0 -1.0 -0.06643655984376018 -1.0 3:0.25 5:0.33 6:0.5 7:0.25 13:0.17 14:1.0 15:1.0 18:0.2 19:1.0 20:0.14 21:0.2 23:0.17 25:0.25 26:1.0 29:0.5 30:0.14 32:0.5 33:0.25 37:1.0 38:0.5 39:0.25 50:0.17 51:0.5 53:0.17 58:0.2 59:0.5 61:0.33 62:0.17 64:0.17 79:0.33 83:0.25 86:0.5 87:0.2 90:1.0 91:0.17 93:0.25 97:0.33 99:0.25 107:0.17 109:1.0 110:0.08 112:0.1 113:1.0 114:0.5 116:0.5 118:0.07 119:0.5 122:0.5 123:0.33 124:0.33 125:0.14 126:0.29 
-0.0 -0.0 -1.0 -0.0 -0.0 -0.0700733512356386 -0.0 1:0.5 2:0.2 3:0.75 5:0.33 7:0.75 8:1.0 11:0.5 12:1.0 13:0.83 14:1.0 15:1.0 18:0.8 19:1.0 20:0.14 21:0.6 22:0.14 23:0.83 24:0.67 25:0.25 26:1.0 27:0.75 28:0.5 29:1.0 30:0.71 31:0.67 32:0.5 33:0.5 34:0.67 35:1.0 36:0.25 39:0.5 41:1.0 43:1.0 45:0.17 46:0.17 47:0.33 48:0.2 49:0.25 50:0.17 51:0.5 52:0.5 53:0.67 54:0.33 56:0.75 57:0.33 58:0.8 59:0.5 61:0.33 62:0.83 63:1.0 64:0.17 65:0.8 66:0.2 67:1.0 69:0.5 72:0.75 73:0.5 74:0.67 75:0.4 76:0.17 77:0.33 78:1.0 79:0.67 80:0.5 81:0.17 83:0.75 84:1.0 85:0.33 86:0.5 87:0.8 89:0.2 91:0.17 93:0.75 97:0.67 98:0.5 99:0.5 100:1.0 101:0.33 102:0.67 105:0.33 106:0.67 107:0.17 108:1.0 109:0.29 110:0.12 112:1.0 113:1.0 114:0.5 115:0.14 116:1.0 117:1.0 118:0.14 119:1.0 121:1.0 122:0.5 123:0.33 124:1.0 125:0.29 126:0.29 
-0.0 -0.13324954088192675 -0.0 -0.08274028978304758 -0.0 -0.0 -0.0 3:0.25 7:0.25 8:1.0 11:0.5 13:0.33 18:0.4 19:1.0 23:0.33 24:0.67 26:0.5 27:0.5 28:0.75 29:0.5 30:0.29 34:0.67 39:0.25 40:0.5 41:0.5 44:0.5 47:0.67 48:0.4 49:0.25 52:1.0 53:0.33 54:0.33 56:0.75 57:0.33 58:0.2 62:0.33 63:0.5 65:0.4 67:1.0 69:0.25 71:0.5 72:0.25 73:0.5 74:0.33 75:0.6 77:0.67 78:0.5 80:0.5 84:0.67 98:0.5 100:1.0 101:0.33 103:1.0 105:0.5 106:1.0 108:0.33 109:0.71 110:0.08 112:0.15 113:1.0 116:1.0 117:1.0 118:0.07 119:0.5 121:1.0 124:1.0 125:0.14 126:0.14 
-0.0 -0.0 -0.0 -0.6946717490547908 -0.4962131160178693 -0.060741612911370604 -0.0 2:0.2 3:0.75 5:0.33 6:0.5 7:0.5 8:1.0 13:0.5 14:1.0 15:1.0 18:0.6 19:1.0 20:0.14 21:0.4 22:0.14 23:0.67 24:0.33 25:0.25 26:1.0 27:0.5 28:0.5 29:1.0 30:0.57 32:0.5 33:0.25 34:0.67 35:1.0 36:0.25 37:1.0 38:0.5 39:0.5 41:0.5 45:0.17 46:0.17 47:0.33 48:0.2 49:0.25 50:0.17 51:0.5 52:0.5 53:0.5 54:0.33 56:0.5 58:0.6 59:0.5 61:0.33 62:0.67 63:0.5 64:0.17 65:0.4 66:0.2 67:1.0 69:0.25 72:0.5 73:0.5 74:0.33 75:0.4 76:0.17 77:0.33 78:0.5 79:0.33 80:0.5 81:0.17 83:0.25 84:0.67 86:0.5 87:0.4 89:0.2 90:1.0 91:0.17 93:0.5 97:0.67 98:0.5 99:0.25 100:1.0 101:0.33 102:0.33 105:0.33 106:0.67 107:0.17 108:0.33 109:0.43 110:0.12 112:0.25 113:1.0 114:0.5 115:0.14 116:1.0 117:1.0 118:0.14 119:1.0 121:1.0 122:0.5 123:0.33 124:1.0 125:1.0 126:0.29 
-0.0 -0.0 -0.0 -0.22258796116216165 -0.5037868839821307 -0.0 -0.0 3:0.5 5:0.33 7:0.5 8:1.0 11:0.5 12:1.0 13:0.67 14:1.0 15:1.0 18:0.6 20:0.14 21:0.2 23:0.5 24:0.67 25:0.25 26:0.5 27:0.5 28:0.5 29:1.0 30:0.43 31:0.33 32:0.5 33:0.25 34:0.67 39:0.5 41:1.0 43:1.0 47:0.33 48:0.2 49:0.25 50:0.17 51:0.5 52:0.5 53:0.5 54:0.33 56:0.75 57:0.33 58:0.6 59:0.5 61:0.33 62:0.67 63:1.0 64:0.17 65:0.6 67:1.0 69:0.25 72:0.25 73:0.5 74:0.33 75:0.4 77:0.33 78:1.0 79:0.33 80:0.5 83:0.5 84:1.0 86:0.5 87:0.4 91:0.17 93:0.25 97:0.33 98:0.5 99:0.25 100:1.0 101:0.33 105:0.33 106:0.67 107:0.17 108:1.0 109:0.14 110:0.08 112:0.35 114:0.5 116:0.5 117:1.0 118:0.14 119:1.0 121:1.0 122:0.5 123:0.33 124:0.67 126:0.14 
-0.0 -0.0 -0.0 -1.0 -0.0 -0.695250007852303 -1.0 3:0.5 5:0.33 7:0.25 8:0.5 13:0.33 14:1.0 15:1.0 18:0.4 19:1.0 20:0.14 21:0.2 23:0.33 24:0.33 25:0.25 26:1.0 27:0.25 28:0.25 29:0.5 30:0.29 32:0.5 33:0.25 34:0.33 39:0.25 41:0.25 47:0.33 48:0.2 49:0.25 50:0.17 51:0.5 52:0.5 53:0.33 56:0.25 58:0.2 59:0.5 61:0.33 62:0.33 63:0.25 64:0.17 65:0.2 75:0.2 78:0.5 79:0.33 80:0.5 83:0.25 84:0.33 86:0.5 87:0.2 91:0.17 93:0.25 97:0.33 98:0.25 99:0.25 100:1.0 101:0.33 105:0.17 106:0.33 107:0.17 108:0.33 109:0.29 110:0.56 112:0.15 113:1.0 114:0.5 116:1.0 117:0.5 118:0.07 119:1.0 121:1.0 122:0.5 123:0.33 124:0.67 125:0.14 126:0.29 
-0.0 -0.0 -0.0 -0.0 -0.0 -0.010715765965396145 -0.0 1:0.5 3:0.25 7:0.5 8:1.0 11:1.0 12:1.0 13:0.67 18:0.6 19:1.0 20:0.14 21:0.2 23:0.5 24:1.0 25:0.25 26:0.5 27:0.75 28:0.75 29:0.5 30:0.43 31:0.67 33:0.5 34:0.67 39:0.25 40:0.5 41:0.75 43:1.0 44:0.5 47:0.67 48:0.4 49:0.25 50:0.17 52:1.0 53:0.5 54:0.33 56:1.0 57:0.67 58:0.4 62:0.5 63:0.75 64:0.17 65:0.8 67:1.0 69:0.75 71:0.5 72:0.5 73:0.5 74:0.67 75:0.6 77:0.67 78:0.5 79:0.33 80:0.5 82:0.5 83:0.5 84:0.67 85:0.67 87:0.4 91:0.17 93:0.25 98:0.5 99:0.25 100:1.0 101:0.33 102:0.33 103:1.0 105:0.5 106:1.0 107:0.17 108:0.67 109:0.14 110:0.32 112:0.25 113:1.0 116:1.0 117:1.0 118:0.14 119:0.5 121:1.0 124:1.0 125:0.14 126:0.14 
-0.0 -0.0 -0.0 -1.0 -0.0 -0.0 -1.0 3:0.25 7:0.25 8:1.0 13:0.33 18:0.4 19:1.0 23:0.33 24:0.33 26:0.5 27:0.5 28:0.5 29:0.5 30:0.29 34:0.67 39:0.25 41:0.5 47:0.33 48:0.2 49:0.25 52:0.5 53:0.33 54:0.33 56:0.5 58:0.2 62:0.33 63:0.5 65:0.4 67:1.0 69:0.25 72:0.25 73:0.5 74:0.33 75:0.4 77:0.33 78:0.5 80:0.5 84:0.67 98:0.5 100:1.0 101:0.33 105:0.33 106:0.67 108:0.33 109:0.14 110:0.08 112:0.15 113:1.0 116:1.0 117:1.0 118:0.07 119:0.5 121:1.0 124:1.0 125:0.14 126:0.14 
-0.0 -0.0 -0.0 -0.0 -0.0 -0.0967827021915316 -0.0 3:0.5 5:0.33 7:0.5 8:1.0 13:0.5 14:1.0 15:1.0 18:0.6 19:1.0 20:0.14 21:0.2 23:0.5 24:0.33 25:0.25 26:1.0 27:0.5 28:0.5 29:1.0 30:0.43 32:0.5 33:0.25 34:0.67 39:0.5 41:0.5 47:0.33 48:0.2 49:0.25 50:0.17 51:0.5 52:0.5 53:0.5 54:0.33 56:0.5 58:0.4 59:0.5 61:0.33 62:0.5 63:0.5 64:0.17 65:0.4 67:1.0 69:0.25 72:0.25 73:0.5 74:0.33 75:0.4 77:0.33 78:0.5 79:0.33 80:0.5 83:0.25 84:0.67 86:0.5 87:0.2 91:0.17 93:0.25 97:0.33 98:0.5 99:0.25 100:1.0 101:0.33 105:0.33 106:0.67 107:0.17 108:0.33 109:0.29 110:0.36 112:0.2 113:1.0 114:0.5 116:1.0 117:1.0 118:0.14 119:1.0 121:1.0 122:0.5 123:0.33 124:1.0 125:0.14 126:0.29 
-0.0 -0.8667504591180732 -0.0 -1.0 -1.0 -0.0 -0.0 3:0.5 5:0.33 7:0.5 8:1.0 11:0.5 12:1.0 13:0.67 14:1.0 15:1.0 18:0.6 20:0.14 21:0.2 23:0.5 24:0.67 25:0.25 26:0.5 27:0.5 28:0.5 29:1.0 30:0.43 31:0.33 32:0.5 33:0.25 34:0.67 39:0.5 41:0.75 43:1.0 47:0.33 48:0.2 49:0.25 50:0.17 51:0.5 52:0.5 53:0.5 54:0.33 56:0.75 57:0.33 58:0.6 59:0.5 61:0.33 62:0.67 63:0.75 64:0.17 65:0.6 67:1.0 69:0.25 72:0.25 73:0.5 74:0.33 75:0.4 77:0.33 78:0.5 79:0.33 80:0.5 83:0.5 84:0.67 86:0.5 87:0.4 91:0.17 93:0.25 97:0.33 98:0.5 99:0.25 100:1.0 101:0.33 105:0.33 106:0.67 107:0.17 108:0.67 109:0.14 110:0.08 112:0.2 114:0.5 116:0.5 117:1.0 118:0.14 119:1.0 121:1.0 122:0.5 123:0.33 124:0.67 126:0.14 
