svm_type c_svc
kernel_type rbf
gamma 0.009433962264150943
nr_class 8
total_sv 74
rho -0.7363417635490214 0.03731433467820616 0.020754424022061218 -0.3779931962490081 -0.8069068848129006 0.6550191938877106 0.7543484543476268 0.07784233978527055 0.24887582135991826 0.7787348628044128 -0.8375748247385406 0.6502897773726152 0.7443639643101451 -0.021881814139616495 -0.030008941888809204 -0.038519435812781964 -0.13163259625434875 0.05322145802825385 -0.016972804817335617 -0.472867100766341 0.12143714613443225 0.12009874489258388 -0.9341115057468414 0.33682417869567866 0.27418058315982524 0.7658177316188812 0.8147594771623131 0.5350841181102948
label 3 7 4 0 5 6 2 1
nr_sv 9 5 7 12 8 4 10 19
SV
0.0 0.0 1.0 1.0 0.970231185916038 1.0 1.0 1:0.2 2:0.4 3:0.17 6:0.33 7:0.33 11:1.0 13:0.5 21:0.29 22:0.2 26:0.33 29:0.14 30:0.29 33:0.14 38:0.5 41:0.17 44:0.25 45:0.5 46:0.14 49:0.4 50:0.17 51:0.17 52:0.12 54:0.14 58:0.29 60:0.5 62:0.2 69:0.17 70:0.17 74:0.4 75:0.33 79:0.2 82:0.14 83:0.33 90:0.2 95:0.2 96:0.25 97:0.67 100:0.17 101:0.33 103:0.17 104:1.0 105:1.0 
1.0 1.0 1.0 1.0 0.6695105465408662 1.0 1.0 1:0.2 2:0.2 3:0.33 5:0.17 7:0.33 8:0.2 9:0.33 10:0.2 14:0.17 15:0.67 16:0.17 17:0.2 19:0.5 21:0.14 22:0.4 23:0.2 24:0.2 26:0.5 29:0.29 30:0.43 33:0.14 34:0.2 35:0.2 36:0.2 40:0.5 41:0.17 42:0.2 43:0.33 45:0.5 47:0.2 48:0.33 49:0.2 50:0.17 51:0.17 52:0.12 54:0.14 55:0.2 57:0.2 58:0.43 59:0.17 60:0.25 62:0.4 63:0.2 64:0.14 65:0.4 66:0.4 68:0.2 69:0.17 71:0.2 73:0.25 74:0.4 75:0.33 76:0.29 78:0.17 80:0.25 83:0.33 84:0.2 87:0.5 89:0.12 91:0.25 92:0.25 95:0.2 99:0.14 100:0.17 101:0.5 102:0.17 103:0.17 104:1.0 105:0.5 106:0.4 
0.359067046849772 0.0 1.0 1.0 0.5250543928006356 1.0 1.0 1:0.2 2:0.4 3:0.17 6:0.33 7:0.33 11:1.0 13:0.5 21:0.29 22:0.2 26:0.33 29:0.14 30:0.29 33:0.14 38:0.5 41:0.17 44:0.25 45:0.5 46:0.14 49:0.4 50:0.17 51:0.17 52:0.12 54:0.14 58:0.29 60:0.5 62:0.2 69:0.17 70:0.17 74:0.4 75:0.33 79:0.2 82:0.14 83:0.33 90:0.2 95:0.2 96:0.25 97:0.67 100:0.17 101:0.33 103:0.17 104:1.0 105:1.0 
0.0 1.0 1.0 0.44279789470968406 0.0 1.0 1.0 1:0.2 2:0.2 3:0.33 5:0.17 6:0.33 7:0.67 9:0.17 10:0.2 11:1.0 13:0.5 15:0.33 16:0.17 19:1.0 20:0.5 21:0.14 22:0.4 24:0.2 26:0.33 28:0.2 29:0.29 30:0.43 33:0.14 34:0.2 35:0.2 36:0.2 38:0.5 41:0.17 42:0.2 43:0.17 44:0.25 45:1.0 46:0.14 47:0.2 48:0.17 49:0.6 50:0.17 51:0.17 52:0.12 55:0.2 57:0.2 58:0.29 59:0.17 60:0.5 62:0.2 63:0.2 64:0.14 65:0.2 66:0.2 68:0.2 69:0.17 70:0.17 71:0.2 73:0.25 74:0.6 75:0.33 76:0.14 78:0.17 79:0.2 80:0.25 82:0.14 83:0.67 84:0.2 87:0.5 89:0.12 90:0.2 92:0.25 94:0.14 95:0.2 96:0.25 97:0.67 99:0.14 100:0.17 101:0.5 102:0.17 103:0.5 104:1.0 105:1.0 106:0.2 
1.0 0.0 1.0 1.0 0.0 1.0 1.0 3:0.17 5:0.17 6:0.33 7:0.67 9:0.17 10:0.2 15:0.33 16:0.17 19:1.0 20:0.5 21:0.14 22:0.2 24:0.2 26:0.17 28:0.2 29:0.14 30:0.14 31:0.25 34:0.2 35:0.2 36:0.2 38:0.5 42:0.2 43:0.17 44:0.25 45:0.5 47:0.2 48:0.17 49:0.4 54:0.14 55:0.2 57:0.2 58:0.14 59:0.17 62:0.2 63:0.2 64:0.14 65:0.2 66:0.2 68:0.2 70:0.17 71:0.2 73:0.25 74:0.2 76:0.14 78:0.17 79:0.2 80:0.25 83:0.67 84:0.2 85:0.25 87:1.0 89:0.12 90:0.2 92:0.25 94:0.14 96:0.25 97:0.33 99:0.14 101:0.17 102:0.17 103:0.33 106:0.2 
0.6914981640394561 1.0 1.0 1.0 0.6141008209589396 1.0 1.0 1:0.2 2:0.2 3:0.33 5:0.33 6:0.33 7:0.67 9:0.17 10:0.2 11:1.0 13:0.5 15:0.33 16:0.17 19:1.0 20:1.0 21:0.14 22:0.4 24:0.2 25:0.2 26:0.33 27:0.25 28:0.2 29:0.29 30:0.29 31:0.25 33:0.14 34:0.2 35:0.2 36:0.2 38:0.5 41:0.17 42:0.2 43:0.17 44:0.5 45:1.0 46:0.14 47:0.2 48:0.17 49:0.6 50:0.17 51:0.17 52:0.12 55:0.2 57:0.2 58:0.29 59:0.17 60:0.25 62:0.2 63:0.2 64:0.14 65:0.2 66:0.2 68:0.2 69:0.17 70:0.33 71:0.2 73:0.25 74:0.4 75:0.17 76:0.14 78:0.17 79:0.2 80:0.25 82:0.14 83:0.67 84:0.4 85:0.25 87:0.5 89:0.12 90:0.4 92:0.5 94:0.14 95:0.2 96:0.5 97:0.67 98:0.25 99:0.14 100:0.17 101:0.33 102:0.17 103:0.5 105:0.5 106:0.2 
1.0 0.5664542840269325 0.8192102268208155 1.0 0.22110305378352066 1.0 1.0 1:0.2 2:0.2 3:0.33 5:0.17 6:0.33 7:0.67 9:0.17 10:0.2 11:1.0 13:0.5 15:0.67 16:0.17 19:1.0 20:0.5 21:0.14 22:0.4 24:0.2 26:0.33 28:0.2 29:0.43 30:0.43 33:0.14 34:0.2 35:0.2 36:0.2 38:0.5 40:0.5 41:0.17 42:0.2 43:0.17 44:0.25 45:1.0 46:0.14 47:0.2 48:0.17 49:0.6 50:0.17 51:0.17 52:0.25 55:0.2 57:0.2 58:0.29 59:0.17 60:0.5 62:0.2 63:0.2 64:0.14 65:0.2 66:0.2 68:0.2 69:0.17 70:0.17 71:0.2 73:0.25 74:0.6 75:0.33 76:0.14 78:0.17 79:0.2 80:0.25 82:0.14 83:0.67 84:0.2 87:0.5 89:0.12 90:0.2 91:0.25 92:0.25 94:0.14 95:0.2 96:0.25 97:0.67 99:0.14 100:0.33 101:0.5 102:0.17 103:0.5 104:1.0 105:1.0 106:0.4 
0.949434789110772 1.0 1.0 1.0 1.0 1.0 1.0 1:0.2 2:0.4 3:0.33 5:0.17 7:0.67 9:0.17 10:0.2 11:0.5 13:0.5 15:0.33 16:0.17 19:0.5 21:0.14 22:0.4 24:0.2 26:0.5 29:0.29 30:0.29 33:0.14 34:0.2 35:0.2 36:0.2 41:0.17 42:0.2 43:0.17 44:0.25 45:1.0 46:0.14 47:0.2 48:0.17 49:0.4 50:0.17 51:0.17 52:0.12 54:0.14 55:0.2 57:0.2 58:0.43 59:0.17 60:0.25 62:0.4 63:0.2 64:0.14 65:0.2 66:0.2 68:0.2 69:0.17 70:0.17 71:0.2 73:0.25 74:0.4 75:0.17 76:0.14 78:0.17 79:0.2 80:0.25 82:0.14 83:0.33 84:0.2 87:0.5 89:0.12 90:0.2 92:0.25 95:0.2 96:0.25 97:0.33 99:0.14 100:0.17 101:0.33 102:0.17 103:0.33 105:0.5 106:0.2 
0.0 1.0 0.2049670885571608 0.557202105290316 0.0 1.0 1.0 1:0.2 2:0.2 3:0.33 5:0.17 6:0.33 7:1.0 9:0.17 10:0.2 11:0.5 13:0.5 15:0.33 16:0.17 19:1.0 20:0.5 21:0.14 22:0.4 24:0.2 26:0.33 28:0.2 29:0.29 30:0.43 31:0.25 33:0.14 34:0.2 35:0.2 36:0.2 38:0.5 41:0.17 42:0.2 43:0.17 44:0.5 45:1.0 46:0.14 47:0.2 48:0.17 49:0.6 50:0.17 51:0.17 52:0.12 54:0.14 55:0.2 57:0.2 58:0.29 59:0.17 60:0.5 62:0.2 63:0.2 64:0.14 65:0.2 66:0.2 68:0.2 69:0.17 70:0.33 71:0.2 73:0.25 74:0.6 75:0.33 76:0.14 78:0.17 79:0.4 80:0.25 82:0.14 83:0.67 84:0.2 85:0.25 87:1.0 89:0.12 90:0.4 92:0.25 94:0.14 95:0.2 96:0.5 97:0.67 99:0.14 100:0.17 101:0.5 102:0.17 103:0.5 104:1.0 105:1.0 106:0.2 
-1.0 1.0 1.0 1.0 0.8417362864455968 1.0 1.0 2:0.2 3:0.17 4:0.2 6:0.33 12:1.0 13:0.5 15:0.33 16:0.17 19:0.5 20:0.5 22:0.2 26:0.17 28:1.0 29:0.29 30:0.14 34:0.2 35:0.2 37:0.2 39:0.2 40:0.5 42:0.2 46:0.14 49:0.2 52:0.25 56:1.0 57:0.2 58:0.14 59:0.17 61:0.67 62:0.2 63:0.2 64:0.14 67:0.2 71:0.2 72:0.2 73:0.25 74:0.2 75:0.17 80:0.25 82:0.29 86:0.2 88:0.2 89:0.12 91:0.5 94:1.0 99:0.14 100:0.33 101:0.17 102:0.17 103:0.67 106:0.4 
-1.0 1.0 1.0 1.0 0.7849269197061964 1.0 1.0 1:0.2 2:0.2 3:0.33 5:0.17 7:0.67 9:0.17 10:0.2 11:0.5 12:1.0 13:0.5 15:0.67 16:0.17 19:1.0 20:0.5 22:0.4 24:0.2 26:0.33 28:1.0 29:0.43 30:0.29 33:0.14 34:0.2 35:0.2 36:0.2 40:0.5 41:0.17 42:0.2 43:0.17 44:0.25 45:1.0 46:0.14 47:0.2 48:0.17 49:0.4 50:0.17 51:0.17 52:0.25 55:0.2 56:1.0 57:0.2 58:0.29 59:0.17 60:0.25 61:0.33 62:0.2 63:0.2 64:0.14 65:0.2 66:0.2 68:0.2 69:0.17 70:0.17 71:0.2 73:0.25 74:0.4 75:0.17 76:0.14 78:0.17 79:0.2 80:0.25 82:0.29 83:0.33 84:0.2 87:0.5 89:0.12 90:0.2 91:0.25 92:0.25 94:0.57 95:0.2 96:0.25 97:0.33 99:0.14 100:0.33 101:0.33 102:0.17 103:1.0 105:0.5 106:0.4 
-1.0 1.0 1.0 1.0 0.9988559016549892 1.0 1.0 1:0.2 2:0.2 3:0.33 5:0.17 7:0.67 9:0.17 10:0.2 11:0.5 12:1.0 13:1.0 15:0.67 16:0.17 19:1.0 20:0.5 22:0.4 24:0.2 26:0.33 28:1.0 29:0.57 30:0.43 33:0.14 34:0.2 35:0.2 36:0.2 40:0.5 41:0.17 42:0.2 43:0.17 44:0.25 45:1.0 46:0.29 47:0.2 48:0.17 49:0.4 50:0.17 51:0.17 52:0.38 55:0.2 56:1.0 57:0.2 58:0.29 59:0.17 60:0.5 61:0.67 62:0.2 63:0.2 64:0.14 65:0.2 66:0.2 68:0.2 69:0.17 70:0.17 71:0.2 73:0.25 74:0.6 75:0.33 76:0.14 78:0.17 79:0.2 80:0.25 82:0.43 83:0.33 84:0.2 87:0.5 89:0.12 90:0.2 91:0.5 92:0.25 94:1.0 95:0.2 96:0.25 97:0.33 99:0.14 100:0.5 101:0.5 102:0.17 103:1.0 104:1.0 105:1.0 106:0.6 
-1.0 0.3073895879298216 1.0 1.0 1.0 1.0 1.0 12:1.0 13:0.5 15:0.33 19:0.5 20:0.5 28:1.0 29:0.29 40:0.5 46:0.14 52:0.25 56:1.0 61:0.67 82:0.29 91:0.5 94:1.0 100:0.33 103:0.67 106:0.4 
-1.0 1.0 1.0 1.0 0.3744808921932175 1.0 1.0 1:0.4 2:0.2 3:0.33 5:0.17 7:0.67 8:0.2 9:0.33 10:0.2 11:0.5 12:1.0 13:1.0 14:0.17 15:0.67 16:0.17 17:0.2 18:0.25 19:1.0 20:0.5 22:0.4 23:0.2 24:0.2 26:0.33 28:1.0 29:0.57 30:0.43 33:0.29 34:0.2 35:0.2 36:0.2 40:0.5 41:0.33 42:0.2 43:0.33 44:0.25 45:1.0 46:0.29 47:0.2 48:0.33 49:0.4 50:0.33 51:0.17 52:0.38 55:0.2 56:1.0 57:0.2 58:0.29 59:0.17 60:0.5 61:0.67 62:0.2 63:0.2 64:0.14 65:0.4 66:0.2 68:0.2 69:0.33 70:0.17 71:0.2 73:0.25 74:0.6 75:0.33 76:0.29 77:0.2 78:0.33 79:0.2 80:0.25 82:0.43 83:0.33 84:0.2 87:0.5 89:0.12 90:0.2 91:0.5 92:0.25 94:1.0 95:0.4 96:0.25 97:0.33 99:0.14 100:0.5 101:0.5 102:0.17 103:1.0 104:1.0 105:1.0 106:0.6 
-0.32491925759207163 -0.17435166581943942 0.6319325650817019 0.0 0.3544186652775697 1.0 1.0 1:0.4 2:1.0 3:1.0 4:1.0 5:0.33 6:1.0 7:1.0 8:0.2 9:0.33 10:0.2 11:1.0 13:0.5 14:0.17 15:0.33 16:1.0 17:0.2 19:0.5 20:0.5 21:0.57 22:1.0 23:0.2 24:1.0 25:0.2 26:1.0 27:0.25 29:0.43 30:1.0 31:0.5 32:1.0 33:0.29 34:1.0 35:1.0 36:1.0 37:1.0 38:1.0 39:1.0 41:0.33 42:1.0 43:0.33 44:0.75 45:1.0 46:0.29 47:1.0 48:0.33 49:1.0 50:0.33 51:0.33 52:0.25 53:1.0 54:0.43 55:1.0 57:1.0 58:1.0 59:1.0 60:1.0 61:0.33 62:1.0 63:1.0 64:1.0 65:0.4 66:0.4 67:1.0 68:1.0 69:0.33 70:0.5 71:1.0 72:1.0 73:1.0 74:1.0 75:1.0 76:0.29 78:0.17 79:0.4 80:1.0 81:1.0 82:0.29 83:1.0 84:0.4 85:0.5 86:1.0 87:1.0 88:1.0 89:1.0 90:0.6 91:0.25 92:0.5 95:0.4 96:0.75 97:1.0 98:0.25 99:1.0 100:0.33 101:1.0 102:1.0 103:0.33 104:1.0 105:1.0 106:0.4 
-1.0 -1.0 1.0 1.0 1.0 1.0 1.0 2:0.8 3:0.67 4:1.0 5:0.17 6:0.33 7:0.33 9:0.17 10:0.2 15:0.67 16:1.0 19:0.5 21:0.14 22:0.6 24:1.0 26:0.67 29:0.29 30:0.57 32:1.0 34:1.0 35:1.0 36:1.0 37:1.0 39:1.0 40:0.5 42:1.0 43:0.17 45:0.5 47:1.0 48:0.17 49:0.4 52:0.12 53:1.0 54:0.14 55:1.0 57:1.0 58:0.71 59:1.0 60:0.5 62:1.0 63:1.0 64:1.0 65:0.2 66:0.2 67:1.0 68:1.0 71:1.0 72:1.0 73:1.0 74:0.6 75:0.5 76:0.14 78:0.17 80:1.0 81:1.0 83:0.33 84:0.2 86:1.0 87:0.5 88:1.0 89:1.0 91:0.25 92:0.25 99:1.0 100:0.17 101:0.5 102:1.0 103:0.17 106:0.4 
-0.24153502643486116 -0.44128998453529705 0.0 1.0 0.21827395345531192 1.0 1.0 1:0.2 2:1.0 3:1.0 4:1.0 5:0.5 6:0.67 7:1.0 9:0.17 10:0.4 11:0.5 13:0.5 15:0.33 16:1.0 19:0.5 20:0.5 21:0.43 22:1.0 24:1.0 25:0.4 26:1.0 27:0.5 29:0.43 30:1.0 31:0.5 32:1.0 33:0.14 34:1.0 35:1.0 36:1.0 37:1.0 38:0.5 39:1.0 41:0.17 42:1.0 43:0.17 44:0.75 45:1.0 46:0.29 47:1.0 48:0.17 49:0.8 50:0.17 51:0.17 52:0.25 53:1.0 54:0.43 55:1.0 57:1.0 58:1.0 59:1.0 60:1.0 61:0.33 62:1.0 63:1.0 64:1.0 65:0.2 66:0.2 67:1.0 68:1.0 69:0.17 70:0.5 71:1.0 72:1.0 73:1.0 74:1.0 75:1.0 76:0.14 78:0.17 79:0.4 80:1.0 81:1.0 82:0.29 83:0.67 84:0.6 85:0.5 86:1.0 87:1.0 88:1.0 89:1.0 90:0.6 91:0.25 92:0.75 93:0.25 95:0.2 96:0.75 97:0.67 98:0.25 99:1.0 100:0.33 101:1.0 102:1.0 103:0.33 104:1.0 105:1.0 106:0.4 
-1.0 -0.0 0.657457121830161 0.0 0.0 1.0 1.0 1:0.4 2:1.0 3:1.0 4:1.0 5:0.33 6:1.0 7:1.0 8:0.2 9:0.33 10:0.2 11:1.0 13:0.5 14:0.17 15:0.33 16:1.0 17:0.2 19:0.5 20:0.5 21:0.43 22:1.0 23:0.2 24:1.0 25:0.2 26:1.0 27:0.25 29:0.29 30:1.0 31:0.5 32:1.0 33:0.29 34:1.0 35:1.0 36:1.0 37:1.0 38:1.0 39:1.0 41:0.33 42:1.0 43:0.33 44:0.75 45:1.0 46:0.14 47:1.0 48:0.33 49:1.0 50:0.33 51:0.33 52:0.12 53:1.0 54:0.29 55:1.0 57:1.0 58:1.0 59:1.0 60:1.0 62:1.0 63:1.0 64:1.0 65:0.4 66:0.4 67:1.0 68:1.0 69:0.33 70:0.5 71:1.0 72:1.0 73:1.0 74:1.0 75:1.0 76:0.29 78:0.17 79:0.4 80:1.0 81:1.0 82:0.14 83:1.0 84:0.4 85:0.5 86:1.0 87:1.0 88:1.0 89:1.0 90:0.6 92:0.5 95:0.4 96:0.75 97:1.0 98:0.25 99:1.0 100:0.17 101:1.0 102:1.0 103:0.33 104:1.0 105:1.0 106:0.2 
-1.0 -1.0 1.0 0.6484995714600365 0.42730738126711837 0.5171665851076523 0.0 1:0.4 2:0.8 3:1.0 4:1.0 5:0.17 6:0.33 7:0.67 8:0.2 9:0.33 10:0.2 11:0.5 13:0.5 14:0.17 15:0.33 16:1.0 17:0.2 19:0.5 22:1.0 23:0.2 24:1.0 26:0.83 29:0.29 30:1.0 32:1.0 33:0.29 34:1.0 35:1.0 36:1.0 37:1.0 39:1.0 41:0.33 42:1.0 43:0.33 44:0.25 45:1.0 46:0.14 47:1.0 48:0.33 49:0.6 50:0.33 51:0.33 52:0.12 53:1.0 55:1.0 57:1.0 58:0.86 59:1.0 60:1.0 62:0.8 63:1.0 64:1.0 65:0.4 66:0.4 67:1.0 68:1.0 69:0.33 70:0.17 71:1.0 72:1.0 73:1.0 74:1.0 75:1.0 76:0.29 78:0.17 79:0.2 80:1.0 81:1.0 82:0.14 83:0.33 84:0.2 86:1.0 87:0.5 88:1.0 89:1.0 90:0.2 92:0.25 95:0.4 96:0.25 97:0.33 99:1.0 100:0.17 101:1.0 102:1.0 103:0.33 104:1.0 105:1.0 106:0.2 
-1.0 -0.6917479375750851 0.0 1.0 1.0 1.0 0.5722200848066868 1:0.2 2:1.0 3:1.0 4:1.0 5:0.17 6:0.33 7:0.67 9:0.17 10:0.2 11:0.5 13:0.5 15:0.33 16:1.0 19:0.5 21:0.14 22:1.0 24:1.0 26:1.0 29:0.29 30:0.86 32:1.0 33:0.14 34:1.0 35:1.0 36:1.0 37:1.0 39:1.0 41:0.17 42:1.0 43:0.17 44:0.25 45:1.0 46:0.14 47:1.0 48:0.17 49:0.6 50:0.17 51:0.17 52:0.12 53:1.0 54:0.14 55:1.0 57:1.0 58:1.0 59:1.0 60:0.75 62:1.0 63:1.0 64:1.0 65:0.2 66:0.2 67:1.0 68:1.0 69:0.17 70:0.17 71:1.0 72:1.0 73:1.0 74:0.8 75:0.83 76:0.14 78:0.17 79:0.2 80:1.0 81:1.0 82:0.14 83:0.33 84:0.2 86:1.0 87:0.5 88:1.0 89:1.0 90:0.2 92:0.25 95:0.2 96:0.25 97:0.33 99:1.0 100:0.17 101:0.83 102:1.0 103:0.33 105:0.5 106:0.2 
-1.0 -1.0 1.0 1.0 1.0 1.0 1.0 1:0.2 2:0.4 3:0.33 5:0.17 7:0.67 9:0.17 10:0.2 11:0.5 13:0.5 15:0.33 16:0.17 19:0.5 21:0.14 22:0.4 24:0.2 26:0.5 29:0.29 30:0.29 33:0.14 34:0.2 35:0.2 36:0.2 41:0.17 42:0.2 43:0.17 44:0.25 45:1.0 46:0.14 47:0.2 48:0.17 49:0.4 50:0.17 51:0.17 52:0.12 54:0.14 55:0.2 57:0.2 58:0.43 59:0.17 60:0.25 62:0.4 63:0.2 64:0.14 65:0.2 66:0.2 68:0.2 69:0.17 70:0.17 71:0.2 73:0.25 74:0.4 75:0.17 76:0.14 78:0.17 79:0.2 80:0.25 82:0.14 83:0.33 84:0.2 87:0.5 89:0.12 90:0.2 92:0.25 95:0.2 96:0.25 97:0.33 99:0.14 100:0.17 101:0.33 102:0.17 103:0.33 105:0.5 106:0.2 
-1.0 -0.6554685838645612 -1.0 1.0 0.6435747543057685 1.0 1.0 1:1.0 2:0.4 3:0.33 5:0.17 6:0.33 7:0.67 8:1.0 9:1.0 10:0.2 11:1.0 13:0.5 14:1.0 15:0.67 16:0.17 17:1.0 18:1.0 19:0.5 21:0.29 22:0.4 23:1.0 24:0.2 26:0.5 29:0.43 30:0.29 33:1.0 34:0.2 35:0.2 36:0.2 38:0.5 40:0.5 41:1.0 42:0.2 43:1.0 44:0.25 45:1.0 46:0.14 47:0.2 48:1.0 49:0.6 50:1.0 51:1.0 52:0.25 54:0.14 55:0.2 57:0.2 58:0.43 59:0.17 60:0.25 62:0.4 63:0.2 64:0.14 65:1.0 66:1.0 68:0.2 69:1.0 70:0.17 71:0.2 73:0.25 74:0.4 75:0.17 76:1.0 77:1.0 78:1.0 79:0.2 80:0.25 82:0.14 83:0.67 84:0.2 87:0.5 89:0.12 90:0.2 91:0.25 92:0.25 95:1.0 96:0.25 97:0.67 99:0.14 100:0.33 101:0.33 102:0.17 103:0.33 105:0.5 106:0.4 
-0.04553854161536565 -0.0 -0.0 0.0 0.0 0.0 0.0 1:1.0 2:0.2 3:0.17 7:0.33 8:1.0 9:0.83 11:0.5 13:0.5 14:1.0 17:1.0 18:1.0 22:0.2 23:1.0 26:0.17 29:0.14 30:0.14 33:1.0 41:1.0 43:0.83 44:0.25 45:0.5 46:0.14 48:0.83 49:0.2 50:1.0 51:1.0 52:0.12 58:0.14 60:0.25 65:0.8 66:0.8 69:1.0 70:0.17 74:0.2 75:0.17 76:0.86 77:1.0 78:0.83 79:0.2 82:0.14 90:0.2 95:1.0 96:0.25 97:0.33 100:0.17 101:0.17 103:0.17 105:0.5 
-1.0 -0.0 -1.0 0.0 0.0 1.0 1.0 1:1.0 2:0.4 3:0.33 5:0.33 6:0.33 7:0.67 8:1.0 9:1.0 10:0.2 11:1.0 13:0.5 14:1.0 15:0.33 16:0.17 17:1.0 18:1.0 19:0.5 20:0.5 21:0.29 22:0.4 23:1.0 24:0.2 25:0.2 26:0.5 27:0.25 29:0.29 30:0.29 31:0.25 33:1.0 34:0.2 35:0.2 36:0.2 38:0.5 41:1.0 42:0.2 43:1.0 44:0.5 45:1.0 46:0.14 47:0.2 48:1.0 49:0.6 50:1.0 51:1.0 52:0.12 54:0.14 55:0.2 57:0.2 58:0.43 59:0.17 60:0.25 62:0.4 63:0.2 64:0.14 65:1.0 66:1.0 68:0.2 69:1.0 70:0.33 71:0.2 73:0.25 74:0.4 75:0.17 76:1.0 77:1.0 78:1.0 79:0.2 80:0.25 82:0.14 83:0.67 84:0.4 85:0.25 87:0.5 89:0.12 90:0.4 92:0.5 95:1.0 96:0.5 97:0.67 98:0.25 99:0.14 100:0.17 101:0.33 102:0.17 103:0.33 105:0.5 106:0.2 
-0.39772074754873377 -1.0 -0.4114483701270071 1.0 0.1515454727824366 1.0 0.0 1:1.0 2:0.4 3:0.33 5:0.17 7:0.67 8:1.0 9:1.0 10:0.2 11:0.5 13:0.5 14:1.0 15:0.67 16:0.17 17:1.0 18:1.0 19:0.5 21:0.14 22:0.4 23:1.0 24:0.2 26:0.5 29:0.43 30:0.29 33:1.0 34:0.2 35:0.2 36:0.2 40:0.5 41:1.0 42:0.2 43:1.0 44:0.25 45:1.0 46:0.14 47:0.2 48:1.0 49:0.4 50:1.0 51:1.0 52:0.25 54:0.14 55:0.2 57:0.2 58:0.43 59:0.17 60:0.25 62:0.4 63:0.2 64:0.14 65:1.0 66:1.0 68:0.2 69:1.0 70:0.17 71:0.2 73:0.25 74:0.4 75:0.17 76:1.0 77:1.0 78:1.0 79:0.2 80:0.25 82:0.14 83:0.33 84:0.2 87:0.5 89:0.12 90:0.2 91:0.25 92:0.25 95:1.0 96:0.25 97:0.33 99:0.14 100:0.33 101:0.33 102:0.17 103:0.33 105:0.5 106:0.4 
-1.0 -0.0 -0.0 0.032587133388576245 0.2383447726097158 0.0 0.0 1:1.0 2:0.2 3:0.17 7:0.33 8:1.0 9:0.83 11:0.5 13:0.5 14:1.0 17:1.0 18:1.0 22:0.2 23:1.0 26:0.17 29:0.14 30:0.14 33:1.0 41:1.0 43:0.83 44:0.25 45:0.5 46:0.14 48:0.83 49:0.2 50:1.0 51:1.0 52:0.12 58:0.14 60:0.25 65:0.8 66:0.8 69:1.0 70:0.17 74:0.2 75:0.17 76:0.86 77:1.0 78:0.83 79:0.2 82:0.14 90:0.2 95:1.0 96:0.25 97:0.33 100:0.17 101:0.17 103:0.17 105:0.5 
-0.0 -0.0 -0.0 0.0 0.0 0.0 0.6673532005802909 1:0.8 3:0.17 5:0.17 7:0.33 8:1.0 9:1.0 10:0.2 14:1.0 15:0.33 16:0.17 17:1.0 18:1.0 19:0.5 22:0.2 23:1.0 24:0.2 26:0.17 29:0.14 30:0.14 33:0.86 34:0.2 35:0.2 36:0.2 41:0.83 42:0.2 43:1.0 45:0.5 47:0.2 48:1.0 49:0.2 50:0.83 51:0.83 55:0.2 57:0.2 58:0.14 59:0.17 62:0.2 63:0.2 64:0.14 65:1.0 66:1.0 68:0.2 69:0.83 71:0.2 73:0.25 74:0.2 76:1.0 77:1.0 78:1.0 80:0.25 83:0.33 84:0.2 87:0.5 89:0.12 92:0.25 95:0.8 99:0.14 101:0.17 102:0.17 103:0.17 106:0.2 
-1.0 -1.0 -1.0 1.0 1.0 1.0 1.0 3:0.33 5:0.17 7:0.33 9:0.17 10:0.2 15:0.33 16:0.17 19:1.0 20:0.5 22:0.4 24:0.2 26:0.33 28:0.2 29:0.14 30:0.29 34:0.2 35:0.2 36:0.2 42:0.2 43:0.17 45:0.5 47:0.2 48:0.17 49:0.2 55:0.2 57:0.2 58:0.29 59:0.17 62:0.2 63:0.2 64:0.14 65:0.2 66:0.2 68:0.2 71:0.2 73:0.25 74:0.2 75:0.17 76:0.14 78:0.17 80:0.25 83:0.33 84:0.2 87:0.5 89:0.12 92:0.25 94:0.14 99:0.14 101:0.33 102:0.17 103:0.33 106:0.2 
-1.0 -0.0 -0.0 0.0 0.0 0.14623366980020477 1.0 1:0.8 3:0.17 5:0.17 7:0.33 8:1.0 9:1.0 10:0.2 14:1.0 15:0.33 16:0.17 17:1.0 18:1.0 19:0.5 22:0.2 23:1.0 24:0.2 26:0.17 29:0.14 30:0.14 33:0.86 34:0.2 35:0.2 36:0.2 41:0.83 42:0.2 43:1.0 45:0.5 47:0.2 48:1.0 49:0.2 50:0.83 51:0.83 55:0.2 57:0.2 58:0.14 59:0.17 62:0.2 63:0.2 64:0.14 65:1.0 66:1.0 68:0.2 69:0.83 71:0.2 73:0.25 74:0.2 76:1.0 77:1.0 78:1.0 80:0.25 83:0.33 84:0.2 87:0.5 89:0.12 92:0.25 95:0.8 99:0.14 101:0.17 102:0.17 103:0.17 106:0.2 
-1.0 -0.6810160601550473 -0.0 1.0 1.0 0.8107088432057714 1.0 1:1.0 2:0.2 3:0.17 7:0.33 8:1.0 9:0.83 11:0.5 13:0.5 14:1.0 17:1.0 18:1.0 22:0.2 23:1.0 26:0.17 29:0.14 30:0.14 33:1.0 41:1.0 43:0.83 44:0.25 45:0.5 46:0.14 48:0.83 49:0.2 50:1.0 51:1.0 52:0.12 58:0.14 60:0.25 65:0.8 66:0.8 69:1.0 70:0.17 74:0.2 75:0.17 76:0.86 77:1.0 78:0.83 79:0.2 82:0.14 90:0.2 95:1.0 96:0.25 97:0.33 100:0.17 101:0.17 103:0.17 105:0.5 
-1.0 -0.9586186958308527 -0.0 1.0 0.9665350003020791 0.83780199912955 0.38760984992842273 1:1.0 2:0.2 3:0.17 7:0.33 8:1.0 9:0.83 11:0.5 13:0.5 14:1.0 17:1.0 18:1.0 22:0.2 23:1.0 26:0.17 29:0.14 30:0.14 33:1.0 41:1.0 43:0.83 44:0.25 45:0.5 46:0.14 48:0.83 49:0.2 50:1.0 51:1.0 52:0.12 58:0.14 60:0.25 65:0.8 66:0.8 69:1.0 70:0.17 74:0.2 75:0.17 76:0.86 77:1.0 78:0.83 79:0.2 82:0.14 90:0.2 95:1.0 96:0.25 97:0.33 100:0.17 101:0.17 103:0.17 105:0.5 
-0.0 -0.0 -0.8779413167848559 0.0 0.0 0.0 0.0 1:1.0 2:0.4 3:0.33 5:0.17 7:0.67 8:1.0 9:1.0 10:0.2 11:0.5 13:0.5 14:1.0 15:0.33 16:0.17 17:1.0 18:1.0 19:0.5 21:0.14 22:0.4 23:1.0 24:0.2 26:0.5 29:0.29 30:0.29 33:1.0 34:0.2 35:0.2 36:0.2 41:1.0 42:0.2 43:1.0 44:0.25 45:1.0 46:0.14 47:0.2 48:1.0 49:0.4 50:1.0 51:1.0 52:0.12 54:0.14 55:0.2 57:0.2 58:0.43 59:0.17 60:0.25 62:0.4 63:0.2 64:0.14 65:1.0 66:1.0 68:0.2 69:1.0 70:0.17 71:0.2 73:0.25 74:0.4 75:0.17 76:1.0 77:1.0 78:1.0 79:0.2 80:0.25 82:0.14 83:0.33 84:0.2 87:0.5 89:0.12 90:0.2 92:0.25 95:1.0 96:0.25 97:0.33 99:0.14 100:0.17 101:0.33 102:0.17 103:0.33 105:0.5 106:0.2 
-0.5809180262138768 -0.7048966601495388 -0.0 0.9484915181656869 0.0 1.0 1.0 1:0.8 3:0.17 5:0.17 7:0.33 8:1.0 9:1.0 10:0.2 14:1.0 15:0.33 16:0.17 17:1.0 18:1.0 19:0.5 22:0.2 23:1.0 24:0.2 26:0.17 29:0.14 30:0.14 33:0.86 34:0.2 35:0.2 36:0.2 41:0.83 42:0.2 43:1.0 45:0.5 47:0.2 48:1.0 49:0.2 50:0.83 51:0.83 55:0.2 57:0.2 58:0.14 59:0.17 62:0.2 63:0.2 64:0.14 65:1.0 66:1.0 68:0.2 69:0.83 71:0.2 73:0.25 74:0.2 76:1.0 77:1.0 78:1.0 80:0.25 83:0.33 84:0.2 87:0.5 89:0.12 92:0.25 95:0.8 99:0.14 101:0.17 102:0.17 103:0.17 106:0.2 
-1.0 -0.0 -0.6845271942496971 -0.10622168003784122 0.0 1.0 1.0 1:0.2 2:0.4 3:0.33 5:0.17 7:0.67 9:0.17 10:0.2 11:0.5 12:1.0 13:1.0 15:1.0 16:0.17 19:0.5 21:0.29 22:0.4 24:0.2 26:0.5 28:0.2 29:1.0 30:0.29 33:0.14 34:0.2 35:0.2 36:0.2 40:1.0 41:0.17 42:0.2 43:0.17 44:0.25 45:1.0 46:1.0 47:0.2 48:0.17 49:0.4 50:0.17 51:0.17 52:1.0 54:0.29 55:0.2 56:0.33 57:0.2 58:0.43 59:0.17 60:0.25 61:1.0 62:0.4 63:0.2 64:0.14 65:0.2 66:0.2 68:0.2 69:0.17 70:0.17 71:0.2 73:0.25 74:0.4 75:0.17 76:0.14 78:0.17 79:0.2 80:0.25 82:1.0 83:0.33 84:0.2 87:0.5 89:0.12 90:0.2 91:1.0 92:0.25 94:0.29 95:0.2 96:0.25 97:0.33 99:0.14 100:1.0 101:0.33 102:0.17 103:0.5 105:0.5 106:1.0 
-1.0 -1.0 -0.0 -1.0 1.0 1.0 1.0 1:0.2 2:0.2 3:0.17 7:0.33 11:0.5 12:1.0 13:1.0 15:0.33 21:0.14 22:0.2 26:0.17 28:0.2 29:0.71 30:0.14 33:0.14 40:0.5 41:0.17 44:0.25 45:0.5 46:1.0 49:0.2 50:0.17 51:0.17 52:0.88 54:0.14 56:0.33 58:0.14 60:0.25 61:1.0 69:0.17 70:0.17 74:0.2 75:0.17 79:0.2 82:1.0 90:0.2 91:0.75 94:0.29 95:0.2 96:0.25 97:0.33 100:0.83 101:0.17 103:0.33 105:0.5 106:0.6 
-1.0 -0.0 -0.9639723772103393 -0.9792817946376694 0.0 1.0 1.0 1:0.2 2:0.4 3:0.33 5:0.17 7:0.67 9:0.17 10:0.2 11:0.5 12:1.0 13:1.0 15:1.0 16:0.17 19:0.5 21:0.29 22:0.4 24:0.2 26:0.5 28:0.2 29:1.0 30:0.29 33:0.14 34:0.2 35:0.2 36:0.2 40:1.0 41:0.17 42:0.2 43:0.17 44:0.25 45:1.0 46:1.0 47:0.2 48:0.17 49:0.4 50:0.17 51:0.17 52:1.0 54:0.29 55:0.2 56:0.33 57:0.2 58:0.43 59:0.17 60:0.25 61:1.0 62:0.4 63:0.2 64:0.14 65:0.2 66:0.2 68:0.2 69:0.17 70:0.17 71:0.2 73:0.25 74:0.4 75:0.17 76:0.14 78:0.17 79:0.2 80:0.25 82:1.0 83:0.33 84:0.2 87:0.5 89:0.12 90:0.2 91:1.0 92:0.25 94:0.29 95:0.2 96:0.25 97:0.33 99:0.14 100:1.0 101:0.33 102:0.17 103:0.5 105:0.5 106:1.0 
-1.0 -0.5721049868502689 -0.0 -0.3957878197202947 1.0 1.0 1.0 1:0.2 2:0.2 3:0.17 7:0.33 11:0.5 12:1.0 13:1.0 15:0.67 21:0.14 22:0.2 26:0.17 28:0.2 29:0.86 30:0.14 33:0.14 40:1.0 41:0.17 44:0.25 45:0.5 46:1.0 49:0.2 50:0.17 51:0.17 52:1.0 54:0.14 56:0.33 58:0.14 60:0.25 61:1.0 69:0.17 70:0.17 74:0.2 75:0.17 79:0.2 82:1.0 90:0.2 91:1.0 94:0.29 95:0.2 96:0.25 97:0.33 100:1.0 101:0.17 103:0.33 105:0.5 106:0.8 
-1.0 -1.0 -1.0 -1.0 0.0 1.0 1.0 2:0.2 3:0.33 4:0.2 5:0.17 7:0.33 9:0.17 10:0.2 12:1.0 13:0.5 15:1.0 16:0.17 19:0.5 21:0.14 22:0.4 24:0.4 26:0.33 28:0.2 29:0.71 30:0.29 34:0.2 35:0.4 36:0.2 37:0.2 39:0.2 40:1.0 42:0.4 43:0.17 45:0.5 46:0.29 47:0.2 48:0.17 49:0.2 52:0.5 53:0.25 54:0.14 55:0.2 56:0.33 57:0.2 58:0.29 59:0.33 60:0.25 61:1.0 62:0.4 63:0.2 64:0.29 65:0.2 66:0.2 67:0.2 68:0.2 71:0.4 73:0.25 74:0.4 75:0.17 76:0.14 78:0.17 80:0.25 81:0.25 82:0.43 83:0.33 84:0.2 86:0.2 87:0.5 88:0.2 89:0.25 91:1.0 92:0.25 94:0.29 99:0.29 100:0.67 101:0.33 102:0.33 103:0.33 106:1.0 
-1.0 -0.4278950131497311 -0.0 -1.0 1.0 1.0 1.0 1:0.2 2:0.2 3:0.33 5:0.17 7:0.67 9:0.17 10:0.2 11:0.5 12:1.0 13:1.0 15:1.0 16:0.17 19:0.5 21:0.14 22:0.4 24:0.2 26:0.33 28:0.2 29:1.0 30:0.29 33:0.14 34:0.2 35:0.2 36:0.2 40:1.0 41:0.17 42:0.2 43:0.17 44:0.25 45:1.0 46:1.0 47:0.2 48:0.17 49:0.4 50:0.17 51:0.17 52:1.0 54:0.14 55:0.2 56:0.33 57:0.2 58:0.29 59:0.17 60:0.25 61:1.0 62:0.2 63:0.2 64:0.14 65:0.2 66:0.2 68:0.2 69:0.17 70:0.17 71:0.2 73:0.25 74:0.4 75:0.17 76:0.14 78:0.17 79:0.2 80:0.25 82:1.0 83:0.33 84:0.2 87:0.5 89:0.12 90:0.2 91:1.0 92:0.25 94:0.29 95:0.2 96:0.25 97:0.33 99:0.14 100:1.0 101:0.33 102:0.17 103:0.5 105:0.5 106:1.0 
-1.0 -1.0 -1.0 -1.0 0.8196581375960352 1.0 1.0 2:0.2 3:0.17 5:0.17 7:0.33 9:0.17 10:0.2 12:1.0 15:1.0 16:0.17 19:0.5 21:0.14 22:0.2 24:0.2 26:0.33 28:0.2 29:0.43 30:0.14 34:0.2 35:0.2 36:0.2 40:1.0 42:0.2 43:0.17 45:0.5 47:0.2 48:0.17 49:0.2 52:0.25 54:0.14 55:0.2 56:0.33 57:0.2 58:0.29 59:0.17 61:0.33 62:0.4 63:0.2 64:0.14 65:0.2 66:0.2 68:0.2 71:0.2 73:0.25 74:0.2 76:0.14 78:0.17 80:0.25 82:0.14 83:0.33 84:0.2 87:0.5 89:0.12 91:0.5 92:0.25 94:0.14 99:0.14 100:0.33 101:0.17 102:0.17 103:0.33 106:0.6 
-1.0 -1.0 -1.0 -0.49978735715845796 0.18034186240396477 1.0 1.0 1:0.2 2:0.4 3:0.33 5:0.17 7:0.67 9:0.17 10:0.2 11:0.5 12:1.0 13:1.0 15:1.0 16:0.17 19:0.5 21:0.29 22:0.4 24:0.2 26:0.5 28:0.2 29:1.0 30:0.43 33:0.14 34:0.2 35:0.2 36:0.2 40:1.0 41:0.17 42:0.2 43:0.17 44:0.25 45:1.0 46:1.0 47:0.2 48:0.17 49:0.4 50:0.17 51:0.17 52:1.0 54:0.29 55:0.2 56:0.33 57:0.2 58:0.43 59:0.17 60:0.5 61:1.0 62:0.4 63:0.2 64:0.14 65:0.2 66:0.2 68:0.2 69:0.17 70:0.17 71:0.2 73:0.25 74:0.6 75:0.33 76:0.14 78:0.17 79:0.2 80:0.25 82:1.0 83:0.33 84:0.2 87:0.5 89:0.12 90:0.2 91:1.0 92:0.25 94:0.29 95:0.2 96:0.25 97:0.33 99:0.14 100:1.0 101:0.5 102:0.17 103:0.5 104:1.0 105:1.0 106:1.0 
-1.0 -1.0 -1.0 -1.0 -1.0 1.0 1.0 1:0.2 2:0.2 3:0.17 7:0.33 11:0.5 12:1.0 13:1.0 15:0.67 21:0.14 22:0.2 26:0.17 28:0.2 29:0.86 30:0.14 33:0.14 40:1.0 41:0.17 44:0.25 45:0.5 46:1.0 49:0.2 50:0.17 51:0.17 52:1.0 54:0.14 56:0.33 58:0.14 60:0.25 61:1.0 69:0.17 70:0.17 74:0.2 75:0.17 79:0.2 82:1.0 90:0.2 91:1.0 94:0.29 95:0.2 96:0.25 97:0.33 100:1.0 101:0.17 103:0.33 105:0.5 106:0.8 
-1.0 -1.0 -1.0 -1.0 -1.0 1.0 1.0 1:0.2 2:0.2 3:0.17 7:0.33 11:0.5 12:1.0 13:1.0 15:0.67 21:0.14 22:0.2 26:0.17 28:0.2 29:0.86 30:0.14 33:0.14 40:1.0 41:0.17 44:0.25 45:0.5 46:1.0 49:0.2 50:0.17 51:0.17 52:1.0 54:0.14 56:0.33 58:0.14 60:0.25 61:1.0 69:0.17 70:0.17 74:0.2 75:0.17 79:0.2 82:1.0 90:0.2 91:1.0 94:0.29 95:0.2 96:0.25 97:0.33 100:1.0 101:0.17 103:0.33 105:0.5 106:0.8 
-1.0 -1.0 -1.0 -1.0 -1.0 1.0 1.0 1:0.2 2:0.2 3:0.17 7:0.33 11:0.5 13:1.0 21:0.14 22:0.2 26:0.17 29:0.57 30:0.14 33:0.14 41:0.17 44:0.25 45:0.5 46:1.0 49:0.2 50:0.17 51:0.17 52:0.75 54:0.14 58:0.14 60:0.25 61:0.67 69:0.17 70:0.17 74:0.2 75:0.17 79:0.2 82:0.86 90:0.2 91:0.5 94:0.14 95:0.2 96:0.25 97:0.33 100:0.67 101:0.17 103:0.17 105:0.5 106:0.4 
-1.0 -1.0 -1.0 -1.0 -1.0 1.0 1.0 1:0.2 2:0.2 3:0.33 5:0.17 7:0.67 9:0.17 10:0.2 11:0.5 13:1.0 15:0.33 16:0.17 19:1.0 20:0.5 22:0.4 24:0.2 26:0.33 28:0.2 29:0.43 30:0.29 33:0.14 34:0.2 35:0.2 36:0.2 41:0.17 42:0.2 43:0.17 44:0.25 45:1.0 46:0.29 47:0.2 48:0.17 49:0.4 50:0.17 51:0.17 52:0.25 55:0.2 57:0.2 58:0.29 59:0.17 60:0.25 61:0.33 62:0.2 63:0.2 64:0.14 65:0.2 66:0.2 68:0.2 69:0.17 70:0.17 71:0.2 73:0.25 74:0.4 75:0.17 76:0.14 78:0.17 79:0.2 80:0.25 82:0.29 83:0.33 84:0.2 87:0.5 89:0.12 90:0.2 91:0.25 92:0.25 94:0.57 95:0.2 96:0.25 97:0.33 99:0.14 100:0.33 101:0.33 102:0.17 103:0.5 105:0.5 106:0.4 
-1.0 -0.6991838562571963 -0.5171665851076523 -0.8800888066095194 -1.0 -0.0 1.0 2:0.2 3:0.17 5:0.17 6:0.67 7:0.67 9:0.17 10:0.2 11:0.5 15:0.33 16:0.17 19:0.5 21:1.0 22:0.2 24:0.2 26:0.33 29:0.29 30:0.29 31:0.25 34:0.2 35:0.2 36:0.2 38:1.0 42:0.2 43:0.17 44:0.25 45:0.5 46:0.14 47:0.2 48:0.17 49:0.6 52:0.12 54:1.0 55:0.2 57:0.2 58:0.29 59:0.17 60:0.25 61:0.33 62:0.4 63:0.2 64:0.14 65:0.2 66:0.2 68:0.2 70:0.17 71:0.2 73:0.25 74:0.4 75:0.17 76:0.14 78:0.17 79:0.2 80:0.25 82:0.14 83:1.0 84:0.2 85:0.25 87:1.0 89:0.12 90:0.2 91:0.25 92:0.25 96:0.25 97:0.67 99:0.14 100:0.17 101:0.33 102:0.17 103:0.17 104:1.0 105:0.5 106:0.4 
-1.0 -1.0 -1.0 -1.0 -1.0 -1.0 1.0 1:0.2 2:0.4 3:0.5 4:0.2 5:0.33 6:1.0 7:1.0 9:0.17 10:0.4 11:1.0 13:0.5 15:0.67 16:0.33 19:1.0 20:0.5 21:0.29 22:0.6 24:0.2 25:0.2 26:0.5 27:0.25 28:0.2 29:0.43 30:0.43 31:0.25 33:0.14 34:0.4 35:0.4 36:0.2 37:0.2 38:1.0 39:0.2 40:0.5 41:0.17 42:0.4 43:0.17 44:0.5 45:1.0 46:0.14 47:0.2 48:0.17 49:1.0 50:0.17 51:0.17 52:0.25 54:0.14 55:0.2 57:0.4 58:0.43 59:0.33 60:0.25 62:0.4 63:0.4 64:0.29 65:0.2 66:0.2 67:0.2 68:0.2 69:0.17 70:0.33 71:0.4 72:0.2 73:0.5 74:0.6 75:0.33 76:0.14 78:0.17 79:0.4 80:0.5 82:0.14 83:1.0 84:0.4 85:0.25 86:0.2 87:1.0 88:0.2 89:0.25 90:0.4 91:0.25 92:0.5 93:0.25 94:0.14 95:0.2 96:0.5 97:1.0 99:0.29 100:0.33 101:0.5 102:0.33 103:0.5 105:0.5 106:0.4 
-1.0 -0.0 -1.0 -0.0 -0.19622360706001812 -0.0 1.0 2:0.6 3:0.5 4:0.4 6:1.0 7:0.33 11:0.5 16:0.17 21:1.0 22:0.6 24:0.2 26:0.67 29:0.14 30:0.43 31:0.25 34:0.2 35:0.4 37:0.4 38:1.0 39:0.4 42:0.4 44:0.25 46:0.14 49:0.6 52:0.12 53:0.25 54:1.0 57:0.2 58:0.57 59:0.33 60:0.25 61:0.33 62:0.6 63:0.2 64:0.29 67:0.4 70:0.17 71:0.4 72:0.2 73:0.25 74:0.4 75:0.5 79:0.2 80:0.25 81:0.25 82:0.14 83:0.67 85:0.25 86:0.4 87:0.5 88:0.4 89:0.25 90:0.2 91:0.25 96:0.25 97:0.67 99:0.29 100:0.17 101:0.5 102:0.33 106:0.2 
-1.0 -1.0 -0.0 -1.0 -1.0 -1.0 1.0 2:0.2 3:0.17 6:0.33 7:0.33 21:0.86 22:0.2 26:0.33 29:0.14 30:0.14 31:0.25 38:0.5 44:0.25 46:0.14 49:0.2 52:0.12 54:1.0 58:0.29 61:0.33 62:0.2 70:0.17 75:0.17 79:0.2 82:0.14 83:0.33 85:0.25 87:0.5 90:0.2 91:0.25 96:0.25 97:0.33 100:0.17 101:0.17 106:0.2 
-0.0 -0.0 -1.0 -0.0 -0.0 -0.0 1.0 1:0.2 2:0.8 3:0.67 4:0.4 5:0.17 6:1.0 7:1.0 9:0.17 10:0.2 11:1.0 13:0.5 15:0.33 16:0.33 19:0.5 21:1.0 22:0.8 24:0.4 26:0.83 29:0.43 30:0.57 31:0.25 33:0.14 34:0.4 35:0.6 36:0.2 37:0.4 38:1.0 39:0.4 41:0.17 42:0.6 43:0.17 44:0.5 45:1.0 46:0.29 47:0.2 48:0.17 49:1.0 50:0.17 51:0.17 52:0.25 53:0.25 54:1.0 55:0.2 57:0.4 58:0.71 59:0.5 60:0.5 61:0.33 62:0.8 63:0.4 64:0.43 65:0.2 66:0.2 67:0.4 68:0.2 69:0.17 70:0.33 71:0.6 72:0.2 73:0.5 74:0.8 75:0.5 76:0.14 78:0.17 79:0.4 80:0.5 81:0.25 82:0.29 83:1.0 84:0.2 85:0.25 86:0.4 87:1.0 88:0.4 89:0.38 90:0.4 91:0.25 92:0.25 95:0.2 96:0.5 97:1.0 99:0.43 100:0.33 101:0.67 102:0.5 103:0.33 105:0.5 106:0.4 
-1.0 -0.19835233401721694 -1.0 -0.9207067826422545 -1.0 -0.0 1.0 1:0.2 2:0.6 3:0.67 4:0.4 5:0.33 6:1.0 7:1.0 9:0.17 10:0.4 11:1.0 13:0.5 15:0.67 16:0.33 19:1.0 20:0.5 21:0.29 22:0.8 24:0.4 25:0.2 26:0.67 27:0.25 28:0.2 29:0.43 30:0.57 31:0.25 33:0.14 34:0.4 35:0.6 36:0.2 37:0.4 38:1.0 39:0.4 40:0.5 41:0.17 42:0.6 43:0.17 44:0.5 45:1.0 46:0.14 47:0.2 48:0.17 49:1.0 50:0.17 51:0.17 52:0.25 53:0.25 54:0.14 55:0.2 57:0.4 58:0.57 59:0.5 60:0.5 62:0.6 63:0.4 64:0.43 65:0.2 66:0.2 67:0.4 68:0.2 69:0.17 70:0.33 71:0.6 72:0.2 73:0.5 74:0.8 75:0.5 76:0.14 78:0.17 79:0.4 80:0.5 81:0.25 82:0.14 83:1.0 84:0.4 85:0.25 86:0.4 87:1.0 88:0.4 89:0.38 90:0.4 91:0.25 92:0.5 93:0.25 94:0.14 95:0.2 96:0.5 97:1.0 99:0.43 100:0.33 101:0.67 102:0.5 103:0.5 105:0.5 106:0.4 
-1.0 -0.11410648551415525 -0.0 -1.0 -1.0 -1.0 1.0 1:0.2 2:0.4 3:0.17 6:0.67 7:0.67 11:1.0 13:0.5 21:1.0 22:0.2 26:0.33 29:0.29 30:0.14 31:0.25 33:0.14 38:1.0 41:0.17 44:0.5 45:0.5 46:0.29 49:0.6 50:0.17 51:0.17 52:0.25 54:1.0 58:0.29 60:0.25 61:0.33 62:0.2 69:0.17 70:0.33 74:0.2 75:0.17 79:0.4 82:0.29 83:0.67 85:0.25 87:0.5 90:0.4 91:0.25 95:0.2 96:0.5 97:1.0 100:0.33 101:0.17 103:0.17 105:0.5 106:0.2 
-1.0 -1.0 -0.0 -1.0 -1.0 -0.7949591103398758 1.0 2:0.2 6:0.67 7:0.33 11:0.5 21:1.0 26:0.17 29:0.14 31:0.25 38:1.0 44:0.25 46:0.14 49:0.4 52:0.12 54:1.0 58:0.14 61:0.33 62:0.2 70:0.17 79:0.2 82:0.14 83:0.67 85:0.25 87:0.5 90:0.2 91:0.25 96:0.25 97:0.67 100:0.17 106:0.2 
-1.0 -0.9883573242114314 -1.0 -0.9939489228837524 -1.0 -0.20504088966012426 1.0 1:0.2 2:0.6 3:0.67 4:0.4 5:0.33 6:1.0 7:1.0 9:0.17 10:0.4 11:1.0 13:0.5 15:0.67 16:0.33 19:1.0 20:0.5 21:0.29 22:0.8 24:0.4 25:0.2 26:0.67 27:0.25 28:0.2 29:0.43 30:0.57 31:0.25 33:0.14 34:0.4 35:0.6 36:0.2 37:0.4 38:1.0 39:0.4 40:0.5 41:0.17 42:0.6 43:0.17 44:0.5 45:1.0 46:0.14 47:0.2 48:0.17 49:1.0 50:0.17 51:0.17 52:0.25 53:0.25 54:0.14 55:0.2 57:0.4 58:0.57 59:0.5 60:0.5 62:0.6 63:0.4 64:0.43 65:0.2 66:0.2 67:0.4 68:0.2 69:0.17 70:0.33 71:0.6 72:0.2 73:0.5 74:0.8 75:0.5 76:0.14 78:0.17 79:0.4 80:0.5 81:0.25 82:0.14 83:1.0 84:0.4 85:0.25 86:0.4 87:1.0 88:0.4 89:0.38 90:0.4 91:0.25 92:0.5 93:0.25 94:0.14 95:0.2 96:0.5 97:1.0 99:0.43 100:0.33 101:0.67 102:0.5 103:0.5 105:0.5 106:0.4 
-1.0 -0.0 -1.0 -0.0 -0.8037763929399819 -0.0 1.0 1:0.2 2:0.6 3:0.5 4:0.2 5:0.17 6:1.0 7:1.0 9:0.17 10:0.2 11:1.0 13:0.5 15:0.33 16:0.33 19:0.5 21:1.0 22:0.6 24:0.2 26:0.67 29:0.43 30:0.43 31:0.25 33:0.14 34:0.4 35:0.4 36:0.2 37:0.2 38:1.0 39:0.2 41:0.17 42:0.4 43:0.17 44:0.5 45:1.0 46:0.29 47:0.2 48:0.17 49:1.0 50:0.17 51:0.17 52:0.25 54:1.0 55:0.2 57:0.4 58:0.57 59:0.33 60:0.25 61:0.33 62:0.6 63:0.4 64:0.29 65:0.2 66:0.2 67:0.2 68:0.2 69:0.17 70:0.33 71:0.4 72:0.2 73:0.5 74:0.6 75:0.33 76:0.14 78:0.17 79:0.4 80:0.5 82:0.29 83:1.0 84:0.2 85:0.25 86:0.2 87:1.0 88:0.2 89:0.25 90:0.4 91:0.25 92:0.25 95:0.2 96:0.5 97:1.0 99:0.29 100:0.33 101:0.5 102:0.33 103:0.33 105:0.5 106:0.4 
-0.1520214642750391 -0.0 -0.0 -0.0 -0.0 -0.0 -0.029861055922369494 1:0.2 2:0.2 3:0.17 5:0.67 6:0.33 7:0.67 10:0.6 11:0.5 13:0.5 19:0.5 20:1.0 21:0.14 22:0.2 25:0.8 26:0.17 27:0.75 28:0.2 29:0.14 30:0.14 31:1.0 33:0.14 38:0.5 41:0.17 44:1.0 45:0.5 46:0.14 49:0.4 50:0.17 51:0.17 52:0.12 54:0.14 58:0.14 60:0.25 69:0.17 70:1.0 74:0.2 75:0.17 79:1.0 82:0.14 83:0.33 84:0.6 85:1.0 87:0.5 90:1.0 92:0.5 93:0.75 94:0.14 95:0.2 96:1.0 97:0.67 98:1.0 100:0.17 101:0.17 103:0.33 105:0.5 
-1.0 -0.0 -1.0 -0.0 -0.6313945538933863 -0.0 -1.0 1:0.2 2:0.6 3:0.67 4:0.2 5:1.0 6:0.67 7:1.0 9:0.17 10:1.0 11:0.5 13:0.5 15:0.33 16:0.33 19:0.5 20:0.5 21:0.43 22:0.8 24:0.2 25:1.0 26:0.83 27:1.0 29:0.43 30:0.71 31:1.0 33:0.14 34:0.4 35:0.4 36:0.2 37:0.2 38:0.5 39:0.2 41:0.17 42:0.4 43:0.17 44:1.0 45:1.0 46:0.29 47:0.2 48:0.17 49:0.8 50:0.17 51:0.17 52:0.25 54:0.43 55:0.2 57:0.4 58:0.71 59:0.33 60:0.5 61:0.33 62:0.6 63:0.4 64:0.29 65:0.2 66:0.2 67:0.2 68:0.2 69:0.17 70:1.0 71:0.4 72:0.2 73:0.5 74:0.8 75:0.67 76:0.14 78:0.17 79:1.0 80:0.5 82:0.29 83:0.67 84:1.0 85:1.0 86:0.2 87:1.0 88:0.2 89:0.25 90:1.0 91:0.25 92:1.0 93:1.0 95:0.2 96:1.0 97:0.67 98:1.0 99:0.29 100:0.33 101:0.83 102:0.33 103:0.33 104:1.0 105:1.0 106:0.4 
-0.22731081387550334 -0.0 -0.0 -0.0 -0.0 -0.0 -0.0 1:0.2 2:0.2 3:0.33 5:1.0 6:0.67 7:1.0 9:0.17 10:1.0 11:1.0 13:0.5 15:0.67 16:0.17 19:1.0 20:1.0 21:0.29 22:0.4 24:0.2 25:1.0 26:0.33 27:1.0 28:0.2 29:0.43 30:0.43 31:1.0 33:0.14 34:0.2 35:0.2 36:0.2 38:1.0 40:0.5 41:0.17 42:0.2 43:0.17 44:1.0 45:1.0 46:0.14 47:0.2 48:0.17 49:0.8 50:0.17 51:0.17 52:0.25 54:0.14 55:0.2 57:0.2 58:0.29 59:0.17 60:0.5 62:0.2 63:0.2 64:0.14 65:0.2 66:0.2 68:0.2 69:0.17 70:1.0 71:0.2 73:0.25 74:0.6 75:0.33 76:0.14 78:0.17 79:1.0 80:0.25 82:0.14 83:1.0 84:1.0 85:1.0 87:1.0 89:0.12 90:1.0 91:0.25 92:1.0 93:1.0 94:0.14 95:0.2 96:1.0 97:1.0 98:1.0 99:0.14 100:0.33 101:0.5 102:0.17 103:0.5 104:1.0 105:1.0 106:0.4 
-0.0 -0.0 -0.0 -0.0 -1.0 -0.0 -0.0 1:0.2 2:0.2 3:0.5 5:1.0 6:0.33 7:1.0 9:0.17 10:1.0 11:0.5 13:0.5 15:0.67 16:0.17 19:1.0 20:1.0 21:0.14 22:0.6 24:0.2 25:1.0 26:0.5 27:1.0 28:0.2 29:0.43 30:0.43 31:1.0 33:0.14 34:0.2 35:0.2 36:0.2 38:0.5 40:0.5 41:0.17 42:0.2 43:0.17 44:1.0 45:1.0 46:0.14 47:0.2 48:0.17 49:0.6 50:0.17 51:0.17 52:0.25 54:0.14 55:0.2 57:0.2 58:0.43 59:0.17 60:0.25 62:0.2 63:0.2 64:0.14 65:0.2 66:0.2 68:0.2 69:0.17 70:1.0 71:0.2 73:0.25 74:0.4 75:0.33 76:0.14 78:0.17 79:1.0 80:0.25 82:0.14 83:0.67 84:1.0 85:1.0 87:1.0 89:0.12 90:1.0 91:0.25 92:1.0 93:1.0 94:0.14 95:0.2 96:1.0 97:0.67 98:1.0 99:0.14 100:0.33 101:0.5 102:0.17 103:0.5 105:0.5 106:0.4 
-0.3081349034246796 -0.0 -0.0 -0.0 -0.0 -0.0 -0.8943231349515817 1:0.2 2:0.4 3:0.33 5:1.0 6:0.67 7:1.0 9:0.17 10:1.0 11:1.0 13:1.0 15:0.33 16:0.17 19:0.5 20:0.5 21:0.43 22:0.4 24:0.2 25:1.0 26:0.5 27:1.0 29:0.43 30:0.43 31:1.0 33:0.14 34:0.2 35:0.2 36:0.2 38:1.0 41:0.17 42:0.2 43:0.17 44:1.0 45:1.0 46:0.29 47:0.2 48:0.17 49:0.8 50:0.17 51:0.17 52:0.25 54:0.29 55:0.2 57:0.2 58:0.43 59:0.17 60:0.5 61:0.33 62:0.4 63:0.2 64:0.14 65:0.2 66:0.2 68:0.2 69:0.17 70:1.0 71:0.2 73:0.25 74:0.6 75:0.33 76:0.14 78:0.17 79:1.0 80:0.25 82:0.29 83:1.0 84:1.0 85:1.0 87:1.0 89:0.12 90:1.0 91:0.25 92:1.0 93:1.0 94:0.14 95:0.2 96:1.0 97:1.0 98:1.0 99:0.14 100:0.33 101:0.5 102:0.17 103:0.33 104:1.0 105:1.0 106:0.4 
-0.0 -0.0 -0.0 -1.0 -0.0 -0.0 -1.0 1:0.4 2:0.4 3:0.33 5:1.0 6:0.67 7:1.0 8:0.2 9:0.33 10:1.0 11:1.0 13:0.5 14:0.17 15:0.33 16:0.17 17:0.2 18:0.25 19:0.5 20:0.5 21:1.0 22:0.4 23:0.2 24:0.2 25:1.0 26:0.5 27:1.0 29:0.43 30:0.43 31:1.0 33:0.29 34:0.2 35:0.2 36:0.2 38:1.0 41:0.33 42:0.2 43:0.33 44:1.0 45:1.0 46:0.29 47:0.2 48:0.33 49:0.8 50:0.33 51:0.17 52:0.25 54:1.0 55:0.2 57:0.2 58:0.43 59:0.17 60:0.5 61:0.33 62:0.4 63:0.2 64:0.14 65:0.4 66:0.2 68:0.2 69:0.33 70:1.0 71:0.2 73:0.25 74:0.6 75:0.33 76:0.29 77:0.2 78:0.33 79:1.0 80:0.25 82:0.29 83:1.0 84:1.0 85:1.0 87:1.0 89:0.12 90:1.0 91:0.25 92:1.0 93:1.0 95:0.4 96:1.0 97:1.0 98:1.0 99:0.14 100:0.33 101:0.5 102:0.17 103:0.33 104:1.0 105:1.0 106:0.4 
-0.9858233713857546 -0.0 -0.0 -0.0 -0.0 -0.3154656439588443 -1.0 1:0.2 2:0.2 3:0.17 5:0.67 6:0.33 7:0.67 10:0.6 11:0.5 13:0.5 19:0.5 20:1.0 21:0.14 22:0.2 25:0.8 26:0.17 27:0.75 28:0.2 29:0.14 30:0.14 31:1.0 33:0.14 38:0.5 41:0.17 44:1.0 45:0.5 46:0.14 49:0.4 50:0.17 51:0.17 52:0.12 54:0.14 58:0.14 60:0.25 69:0.17 70:1.0 74:0.2 75:0.17 79:1.0 82:0.14 83:0.33 84:0.6 85:1.0 87:0.5 90:1.0 92:0.5 93:0.75 94:0.14 95:0.2 96:1.0 97:0.67 98:1.0 100:0.17 101:0.17 103:0.33 105:0.5 
-0.0 -0.0 -0.0 -0.0 -0.14790711039431895 -0.0 -0.0 1:0.2 2:0.4 3:0.33 5:1.0 6:0.33 7:1.0 9:0.17 10:1.0 11:0.5 13:0.5 15:0.33 16:0.17 19:0.5 20:0.5 21:0.86 22:0.4 24:0.2 25:1.0 26:0.5 27:1.0 29:0.43 30:0.43 31:1.0 33:0.14 34:0.2 35:0.2 36:0.2 38:0.5 41:0.17 42:0.2 43:0.17 44:1.0 45:1.0 46:0.29 47:0.2 48:0.17 49:0.6 50:0.17 51:0.17 52:0.25 54:1.0 55:0.2 57:0.2 58:0.43 59:0.17 60:0.5 61:0.33 62:0.4 63:0.2 64:0.14 65:0.2 66:0.2 68:0.2 69:0.17 70:1.0 71:0.2 73:0.25 74:0.6 75:0.33 76:0.14 78:0.17 79:1.0 80:0.25 82:0.29 83:0.67 84:1.0 85:1.0 87:1.0 89:0.12 90:1.0 91:0.25 92:1.0 93:1.0 95:0.2 96:1.0 97:0.67 98:1.0 99:0.14 100:0.33 101:0.5 102:0.17 103:0.33 104:1.0 105:1.0 106:0.4 
-1.0 -1.0 -0.10565429310440339 -1.0 -1.0 -0.8859345811303042 -1.0 5:0.17 6:0.33 11:0.5 19:0.5 20:1.0 21:0.14 25:0.2 27:0.25 28:0.2 30:0.14 31:0.25 38:0.5 44:0.25 49:0.2 60:0.25 70:0.17 74:0.2 75:0.17 83:0.33 84:0.2 85:0.25 90:0.2 92:0.25 94:0.14 96:0.25 97:0.33 98:0.25 101:0.17 103:0.17 104:1.0 105:0.5 
-0.05424137105903636 -0.0 -0.0 -1.0 -0.3310129810200427 -0.0 -0.0 3:0.17 5:1.0 7:0.33 9:0.17 10:1.0 15:0.33 16:0.17 19:1.0 20:1.0 22:0.2 24:0.2 25:1.0 26:0.17 27:1.0 28:0.2 29:0.14 30:0.14 31:0.75 34:0.2 35:0.2 36:0.2 42:0.2 43:0.17 44:0.5 45:0.5 47:0.2 48:0.17 49:0.2 55:0.2 57:0.2 58:0.14 59:0.17 62:0.2 63:0.2 64:0.14 65:0.2 66:0.2 68:0.2 70:0.67 71:0.2 73:0.25 74:0.2 76:0.14 78:0.17 79:0.6 80:0.25 83:0.33 84:1.0 85:0.75 87:0.5 89:0.12 90:0.6 92:1.0 93:1.0 94:0.14 96:0.5 98:1.0 99:0.14 101:0.17 102:0.17 103:0.33 106:0.2 
-0.0 -0.434346128803572 -0.0 -0.054963050508713716 -0.8896853546922521 -0.0 -0.0 1:0.2 2:0.2 3:0.5 5:1.0 6:0.33 7:1.0 9:0.17 10:1.0 11:0.5 13:0.5 15:0.67 16:0.17 19:1.0 20:1.0 21:0.14 22:0.6 24:0.2 25:1.0 26:0.5 27:1.0 28:0.2 29:0.43 30:0.43 31:1.0 33:0.14 34:0.2 35:0.2 36:0.2 38:0.5 40:0.5 41:0.17 42:0.2 43:0.17 44:1.0 45:1.0 46:0.14 47:0.2 48:0.17 49:0.6 50:0.17 51:0.17 52:0.25 54:0.14 55:0.2 57:0.2 58:0.43 59:0.17 60:0.25 62:0.2 63:0.2 64:0.14 65:0.2 66:0.2 68:0.2 69:0.17 70:1.0 71:0.2 73:0.25 74:0.4 75:0.33 76:0.14 78:0.17 79:1.0 80:0.25 82:0.14 83:0.67 84:1.0 85:1.0 87:1.0 89:0.12 90:1.0 91:0.25 92:1.0 93:1.0 94:0.14 95:0.2 96:1.0 97:0.67 98:1.0 99:0.14 100:0.33 101:0.5 102:0.17 103:0.5 105:0.5 106:0.4 
-0.27246807597998696 -0.0 -1.0 -0.0 -0.0 -0.0 -1.0 1:0.2 2:0.4 3:0.5 4:0.2 5:1.0 6:1.0 7:1.0 9:0.17 10:1.0 11:1.0 13:0.5 15:0.33 16:0.33 19:1.0 20:1.0 21:0.29 22:0.6 24:0.2 25:1.0 26:0.5 27:1.0 28:0.2 29:0.29 30:0.57 31:1.0 33:0.14 34:0.4 35:0.4 36:0.2 37:0.2 38:1.0 39:0.2 41:0.17 42:0.4 43:0.17 44:1.0 45:1.0 46:0.14 47:0.2 48:0.17 49:1.0 50:0.17 51:0.17 52:0.12 54:0.14 55:0.2 57:0.4 58:0.43 59:0.33 60:0.5 62:0.4 63:0.4 64:0.29 65:0.2 66:0.2 67:0.2 68:0.2 69:0.17 70:1.0 71:0.4 72:0.2 73:0.5 74:0.8 75:0.5 76:0.14 78:0.17 79:1.0 80:0.5 82:0.14 83:1.0 84:1.0 85:1.0 86:0.2 87:1.0 88:0.2 89:0.25 90:1.0 92:1.0 93:1.0 94:0.14 95:0.2 96:1.0 97:1.0 98:1.0 99:0.29 100:0.17 101:0.67 102:0.33 103:0.5 104:1.0 105:1.0 106:0.2 
-1.0 -1.0 -0.0 -1.0 -1.0 -0.47547038253534674 -1.0 3:0.17 5:0.17 6:0.33 7:0.33 10:0.2 19:0.5 20:0.5 21:0.14 22:0.2 25:0.2 26:0.17 27:0.25 28:0.2 30:0.14 31:0.25 38:0.5 44:0.25 49:0.2 54:0.14 58:0.14 70:0.17 75:0.17 79:0.2 83:0.33 84:0.2 85:0.25 87:0.5 90:0.2 92:0.25 93:0.25 94:0.14 96:0.25 97:0.33 101:0.17 103:0.17 
-1.0 -0.0 -0.0 -0.0 -0.0 -0.0 -0.0 5:0.83 6:0.33 10:0.8 11:0.5 19:0.5 20:1.0 21:0.14 25:1.0 27:1.0 28:0.2 30:0.14 31:0.75 38:0.5 44:0.5 49:0.2 60:0.25 70:0.67 74:0.2 75:0.17 79:0.6 83:0.33 84:0.8 85:0.75 90:0.6 92:0.75 93:1.0 94:0.14 96:0.5 97:0.33 98:1.0 101:0.17 103:0.17 104:1.0 105:0.5 
-0.0 -0.0 -0.0 -0.0 -0.0 -0.0 -0.07581580912604886 5:0.83 6:0.33 10:0.8 11:0.5 19:0.5 20:1.0 21:0.14 25:1.0 27:1.0 28:0.2 31:0.75 38:0.5 44:0.5 49:0.2 70:0.67 79:0.6 83:0.33 84:0.8 85:0.75 90:0.6 92:0.75 93:1.0 94:0.14 96:0.5 97:0.33 98:1.0 103:0.17 
-0.0 -0.0 -0.4665657917022835 -0.0 -0.0 -0.0 -0.0 1:0.2 2:0.4 3:0.5 5:1.0 6:0.33 7:1.0 9:0.17 10:1.0 11:0.5 13:0.5 15:0.33 16:0.17 19:0.5 20:0.5 21:0.86 22:0.6 24:0.2 25:1.0 26:0.67 27:1.0 29:0.43 30:0.57 31:1.0 33:0.14 34:0.2 35:0.2 36:0.2 38:0.5 41:0.17 42:0.2 43:0.17 44:1.0 45:1.0 46:0.29 47:0.2 48:0.17 49:0.6 50:0.17 51:0.17 52:0.25 54:1.0 55:0.2 57:0.2 58:0.57 59:0.17 60:0.5 61:0.33 62:0.4 63:0.2 64:0.14 65:0.2 66:0.2 68:0.2 69:0.17 70:1.0 71:0.2 73:0.25 74:0.6 75:0.5 76:0.14 78:0.17 79:1.0 80:0.25 82:0.29 83:0.67 84:1.0 85:1.0 87:1.0 89:0.12 90:1.0 91:0.25 92:1.0 93:1.0 95:0.2 96:1.0 97:0.67 98:1.0 99:0.14 100:0.33 101:0.67 102:0.17 103:0.33 104:1.0 105:1.0 106:0.4 
-1.0 -1.0 -1.0 -1.0 -1.0 -1.0 -1.0 3:0.33 5:0.17 7:0.33 9:0.17 10:0.2 15:0.67 16:0.17 19:1.0 20:0.5 22:0.4 24:0.2 26:0.33 28:0.2 29:0.29 30:0.29 34:0.2 35:0.2 36:0.2 40:0.5 42:0.2 43:0.17 45:0.5 47:0.2 48:0.17 49:0.2 52:0.12 55:0.2 57:0.2 58:0.29 59:0.17 62:0.2 63:0.2 64:0.14 65:0.2 66:0.2 68:0.2 71:0.2 73:0.25 74:0.2 75:0.17 76:0.14 78:0.17 80:0.25 83:0.33 84:0.2 87:0.5 89:0.12 91:0.25 92:0.25 94:0.14 99:0.14 100:0.17 101:0.33 102:0.17 103:0.33 106:0.4 
-1.0 -0.8256992067367228 -1.0 -1.0 -1.0 -0.3231293923755048 -1.0 2:0.2 3:0.17 5:0.17 6:0.33 7:0.67 9:0.17 10:0.2 15:0.33 16:0.17 19:0.5 21:0.86 22:0.2 24:0.2 26:0.33 29:0.29 30:0.29 31:0.25 34:0.2 35:0.2 36:0.2 38:0.5 42:0.2 43:0.17 44:0.25 45:0.5 46:0.14 47:0.2 48:0.17 49:0.4 52:0.12 54:1.0 55:0.2 57:0.2 58:0.29 59:0.17 60:0.25 61:0.33 62:0.4 63:0.2 64:0.14 65:0.2 66:0.2 68:0.2 70:0.17 71:0.2 73:0.25 74:0.4 75:0.17 76:0.14 78:0.17 79:0.2 80:0.25 82:0.14 83:0.67 84:0.2 85:0.25 87:1.0 89:0.12 90:0.2 91:0.25 92:0.25 96:0.25 97:0.33 99:0.14 100:0.17 101:0.33 102:0.17 103:0.17 104:1.0 105:0.5 106:0.4 
-1.0 -0.7399546644597051 -1.0 -1.0 -1.0 -1.0 -1.0 1:0.2 2:0.4 3:0.33 5:0.17 6:0.67 7:1.0 9:0.17 10:0.2 11:1.0 13:0.5 15:0.33 16:0.17 19:0.5 21:1.0 22:0.4 24:0.2 26:0.5 29:0.43 30:0.29 31:0.25 33:0.14 34:0.2 35:0.2 36:0.2 38:1.0 41:0.17 42:0.2 43:0.17 44:0.5 45:1.0 46:0.29 47:0.2 48:0.17 49:0.8 50:0.17 51:0.17 52:0.25 54:1.0 55:0.2 57:0.2 58:0.43 59:0.17 60:0.25 61:0.33 62:0.4 63:0.2 64:0.14 65:0.2 66:0.2 68:0.2 69:0.17 70:0.33 71:0.2 73:0.25 74:0.4 75:0.17 76:0.14 78:0.17 79:0.4 80:0.25 82:0.29 83:1.0 84:0.2 85:0.25 87:1.0 89:0.12 90:0.4 91:0.25 92:0.25 95:0.2 96:0.5 97:1.0 99:0.14 100:0.33 101:0.33 102:0.17 103:0.33 105:0.5 106:0.4 
