svm_type c_svc
kernel_type rbf
gamma 0.0125
nr_class 8
total_sv 26
rho -0.01129952073097229 -0.9944140315055847 0.554733157157898 -0.6344494223594666 0.038971662521362305 0.6874004602432251 0.7985622088861721 -0.9287676811218262 0.42020750045776367 -0.6287915408611298 -0.002258807420730591 0.30150580406188965 0.6314084827899933 1.0156593918800354 0.8215338885784149 0.9835396137399209 0.8239187896251678 0.9160132110118866 -0.6322398480414452 -0.5961665511131287 -0.07467740774154663 -0.12515908479690552 0.7935358285903931 0.3976678848266601 0.5288749635219574 0.5118392407894135 0.6507508158683777 -0.07895299792289734
label 3 7 4 0 5 6 2 1
nr_sv 3 3 1 6 2 3 4 4
SV
1.0 0.41827450945132505 1.0 1.0 1.0 1.0 1.0 1:0.17 3:0.15 7:0.14 10:0.17 13:1.0 15:0.5 16:0.14 18:0.5 21:0.09 23:0.7 25:0.64 27:0.14 28:0.88 29:0.2 30:0.2 32:0.58 35:0.67 37:0.5 38:0.64 39:0.08 40:0.12 41:0.2 43:0.62 44:0.07 46:1.0 47:0.1 51:0.17 52:0.09 54:1.0 56:0.17 58:0.86 59:0.11 60:0.54 62:0.06 63:0.2 64:0.2 65:0.78 67:0.17 68:0.12 70:0.17 71:0.2 72:0.5 73:0.14 74:0.5 75:0.2 77:0.5 80:0.7 
1.0 0.581725490548675 1.0 1.0 1.0 1.0 1.0 1:0.17 2:1.0 3:0.15 6:0.2 9:0.25 10:0.17 11:0.17 16:0.14 21:0.09 22:1.0 23:0.1 24:0.14 25:0.09 26:0.5 31:1.0 32:0.08 38:0.09 39:0.08 40:0.12 41:0.2 42:0.33 43:0.12 44:0.53 47:0.1 48:0.14 50:1.0 51:0.17 52:0.64 57:0.25 58:0.14 59:0.11 60:0.08 62:0.06 63:0.2 65:0.11 68:0.12 70:0.17 71:0.2 73:0.14 74:0.07 75:0.2 76:0.33 78:0.2 79:1.0 80:0.1 
1.0 0.0 1.0 0.0 1.0 1.0 1.0 1:0.17 2:1.0 3:0.15 4:0.2 5:0.25 6:0.2 9:0.5 10:0.17 11:0.17 13:1.0 15:0.5 16:0.14 18:0.5 22:1.0 23:0.6 24:0.14 25:0.55 27:0.14 28:0.75 29:0.2 31:1.0 32:0.5 33:0.33 35:0.33 37:0.5 38:0.55 41:0.2 42:0.67 43:0.75 44:0.53 46:1.0 48:0.14 50:1.0 51:0.17 52:0.73 54:1.0 56:0.17 57:0.5 58:0.86 60:0.46 62:0.11 63:0.2 65:0.67 68:0.12 70:0.17 71:0.2 72:0.5 73:0.14 74:0.43 75:0.2 76:0.33 77:0.5 78:0.2 79:1.0 80:0.6 
-1.0 0.40786429357633297 1.0 0.0 1.0 1.0 1.0 1:0.17 2:1.0 3:0.23 6:0.2 9:0.25 10:0.17 11:0.17 13:0.5 16:0.14 19:0.5 21:0.09 22:1.0 23:0.1 24:0.29 25:0.09 27:0.14 28:0.12 29:0.2 31:1.0 32:0.08 35:0.67 38:0.09 39:0.08 40:0.12 41:0.2 42:0.33 43:0.12 44:1.0 46:0.17 47:0.1 48:0.14 50:1.0 51:0.17 52:0.64 54:0.2 55:1.0 56:0.17 57:0.25 58:0.29 59:0.11 60:0.08 62:0.11 63:0.2 65:0.11 68:0.12 70:0.17 71:0.2 73:0.14 74:0.07 75:0.2 76:1.0 78:1.0 79:1.0 80:0.1 
-1.0 0.0 1.0 1.0 1.0 1.0 1.0 1:0.17 2:1.0 3:0.31 6:0.2 9:0.25 10:0.17 11:0.17 13:0.5 16:0.14 19:0.5 20:0.5 21:0.18 22:1.0 23:0.1 24:0.29 25:0.09 27:0.14 28:0.12 29:0.2 31:1.0 32:0.08 34:0.5 35:0.67 38:0.09 39:0.17 40:0.25 41:0.2 42:0.33 43:0.12 44:1.0 46:0.17 47:0.2 48:0.14 50:1.0 51:0.17 52:0.64 54:0.2 55:1.0 56:0.17 57:0.25 58:0.29 59:0.22 60:0.08 62:0.11 63:0.2 65:0.11 68:0.12 70:0.17 71:0.2 73:0.14 74:0.07 75:0.2 76:1.0 78:1.0 79:1.0 80:0.1 
-1.0 0.592135706423667 1.0 1.0 1.0 1.0 1.0 2:0.14 3:0.15 9:0.25 19:0.5 20:0.5 21:0.18 22:0.25 24:0.14 31:0.5 34:0.5 35:0.33 39:0.17 40:0.25 42:0.67 43:0.12 44:0.27 47:0.2 50:0.5 55:1.0 59:0.22 76:1.0 78:1.0 79:0.2 
-1.0 -1.0 1.0 1.0 1.0 1.0 1.0 1:0.17 2:0.14 3:0.23 6:0.4 7:0.14 8:0.2 10:0.17 11:0.17 13:0.5 16:0.29 22:0.25 23:0.1 24:0.14 25:0.09 27:0.29 28:0.12 29:0.4 31:0.5 32:0.08 35:0.33 38:0.09 41:0.4 44:0.13 46:0.17 48:0.29 51:0.33 52:0.18 53:0.2 54:0.2 56:0.33 57:0.25 58:0.29 60:0.08 61:0.17 62:1.0 63:0.2 65:0.11 66:0.33 67:0.17 68:0.25 69:0.2 70:0.33 71:0.2 73:0.29 74:0.07 75:0.4 79:0.2 80:0.1 
-0.0 -0.0 -0.2489581524570238 0.0 0.0 0.0 0.0 1:0.67 3:0.15 6:0.8 7:0.86 8:1.0 10:0.67 11:0.83 13:0.5 16:0.71 23:0.1 25:0.09 27:1.0 28:0.12 29:1.0 30:0.8 32:0.08 35:0.33 38:0.09 41:0.6 44:0.07 46:0.17 48:0.86 51:0.67 52:0.09 53:1.0 54:0.2 56:1.0 58:0.14 60:0.08 61:1.0 62:0.22 63:0.6 64:0.8 65:0.11 66:1.0 67:0.83 68:0.75 69:1.0 70:0.67 71:0.6 73:0.71 74:0.07 75:0.6 80:0.1 
-1.0 -0.07574621771241477 -0.0 0.16531042969160653 0.7153370376953613 1.0 1.0 1:1.0 2:0.14 3:0.31 4:0.2 5:0.25 6:1.0 7:1.0 8:1.0 9:0.25 10:1.0 11:1.0 13:1.0 15:0.5 16:1.0 18:0.5 21:0.09 22:0.25 23:0.7 24:0.14 25:0.64 27:1.0 28:0.88 29:1.0 30:1.0 31:0.5 32:0.58 33:0.33 35:0.67 37:0.5 38:0.64 39:0.08 40:0.12 41:1.0 42:0.33 43:0.62 44:0.4 46:1.0 47:0.1 48:1.0 51:1.0 52:0.27 53:1.0 54:1.0 56:1.0 57:0.5 58:1.0 59:0.11 60:0.54 61:1.0 62:0.17 63:1.0 64:1.0 65:0.78 66:1.0 67:1.0 68:1.0 69:1.0 70:1.0 71:1.0 72:0.5 73:1.0 74:0.5 75:1.0 77:0.5 79:0.2 80:0.7 
-0.0 -1.0 -0.0 0.0 1.0 1.0 1.0 1:0.67 3:0.15 6:0.8 7:0.86 8:1.0 10:0.67 11:0.83 13:0.5 16:0.71 23:0.1 25:0.09 27:1.0 28:0.12 29:1.0 30:0.8 32:0.08 35:0.33 38:0.09 41:0.6 44:0.07 46:0.17 48:0.86 51:0.67 52:0.09 53:1.0 54:0.2 56:1.0 58:0.14 60:0.08 61:1.0 62:0.11 63:0.6 64:0.8 65:0.11 66:1.0 67:0.83 68:0.75 69:1.0 70:0.67 71:0.6 73:0.71 74:0.07 75:0.6 80:0.1 
-1.0 -1.0 -0.7510418475429762 1.0 1.0 1.0 1.0 1:0.17 2:0.29 3:0.15 6:0.2 9:0.25 10:0.17 11:0.17 13:0.5 16:0.14 22:0.5 23:0.1 24:0.14 25:0.09 27:0.14 28:0.12 29:0.2 31:1.0 32:0.08 35:0.33 38:0.09 41:0.2 42:0.33 43:0.12 44:0.47 46:0.17 48:0.14 50:0.5 51:0.17 52:0.18 54:0.2 56:0.17 57:0.25 58:0.29 60:0.08 62:0.17 63:0.2 65:0.11 68:0.12 70:0.17 71:0.2 73:0.14 74:0.07 75:0.2 76:0.33 78:0.2 79:0.4 80:0.1 
-0.0 -0.0 -0.0 0.11212338144645115 0.0 0.0 0.0 1:1.0 2:0.14 3:0.23 6:1.0 7:1.0 8:1.0 10:1.0 11:1.0 16:1.0 21:0.09 22:0.25 23:0.1 24:0.14 25:0.09 27:0.86 28:0.12 29:0.8 30:1.0 31:0.5 32:0.08 35:0.33 38:0.09 39:0.08 40:0.12 41:1.0 42:0.33 44:0.33 47:0.1 48:1.0 51:1.0 52:0.09 53:1.0 56:0.83 57:0.25 58:0.29 59:0.11 60:0.08 61:1.0 62:0.11 63:1.0 64:1.0 65:0.11 66:1.0 67:1.0 68:1.0 69:1.0 70:1.0 71:1.0 73:1.0 74:0.07 75:1.0 79:0.2 80:0.1 
-1.0 -0.9242537822875853 -0.0 0.7225661888619423 0.2846629623046387 1.0 1.0 1:0.67 3:0.15 6:0.8 7:0.86 8:1.0 10:0.67 11:0.83 13:0.5 16:0.71 23:0.1 25:0.09 27:1.0 28:0.12 29:1.0 30:0.8 32:0.08 35:0.33 38:0.09 41:0.6 44:0.07 46:0.17 48:0.86 51:0.67 52:0.09 53:1.0 54:0.2 56:1.0 58:0.14 60:0.08 61:1.0 62:0.11 63:0.6 64:0.8 65:0.11 66:1.0 67:0.83 68:0.75 69:1.0 70:0.67 71:0.6 73:0.71 74:0.07 75:0.6 80:0.1 
-1.0 -1.0 -0.403234101531117 -1.0 1.0 1.0 1.0 1:0.17 3:0.38 7:0.14 10:0.17 14:1.0 16:0.14 17:1.0 19:1.0 20:1.0 21:1.0 23:0.1 24:0.14 25:0.09 26:1.0 28:0.12 30:0.2 32:0.08 34:1.0 35:0.67 36:1.0 38:0.09 39:1.0 40:1.0 41:0.2 44:0.07 45:1.0 47:1.0 49:1.0 51:0.17 55:1.0 58:0.14 59:1.0 60:0.08 63:0.2 64:0.2 65:0.11 67:0.17 68:0.12 70:0.17 71:0.2 73:0.14 74:0.07 75:0.2 78:0.2 80:0.1 
-1.0 -1.0 -0.5967658984688831 -1.0 1.0 1.0 1.0 1:0.33 2:0.14 3:1.0 6:0.4 7:0.29 8:0.2 10:0.33 11:0.17 13:0.5 14:1.0 16:0.43 17:1.0 19:1.0 20:1.0 21:1.0 22:0.25 23:0.2 24:0.29 25:0.18 26:1.0 27:0.29 28:0.25 29:0.4 30:0.2 31:0.5 32:0.17 34:1.0 35:1.0 36:1.0 38:0.18 39:1.0 40:1.0 41:0.6 44:0.2 45:1.0 46:0.17 47:1.0 48:0.29 49:1.0 51:0.5 52:0.18 53:0.2 54:0.2 55:1.0 56:0.33 57:0.25 58:0.43 59:1.0 60:0.15 61:0.17 62:0.17 63:0.4 64:0.2 65:0.22 66:0.33 67:0.33 68:0.38 69:0.2 70:0.5 71:0.4 73:0.43 74:0.14 75:0.6 78:0.2 79:0.2 80:0.2 
-1.0 -1.0 -0.1402099868318145 -1.0 -0.6948594608177479 1.0 1.0 1:0.33 2:0.14 3:0.54 4:0.2 5:0.25 6:0.4 7:0.29 8:0.2 9:0.25 10:0.33 11:0.17 13:1.0 15:0.5 16:0.43 18:0.5 19:0.5 20:0.5 21:0.36 22:0.25 23:0.8 24:1.0 25:0.73 26:0.5 27:0.29 28:0.88 29:0.4 30:0.2 31:0.5 32:0.67 33:0.33 34:0.5 35:1.0 37:0.5 38:0.73 39:0.33 40:0.5 41:0.6 42:0.33 43:0.62 44:0.2 46:1.0 47:0.4 48:0.29 51:0.5 52:0.36 53:0.2 54:1.0 55:1.0 56:0.33 57:0.5 58:1.0 59:0.44 60:0.62 61:0.17 62:0.22 63:0.4 64:0.2 65:0.89 66:0.33 67:0.33 68:0.38 69:0.2 70:0.5 71:0.4 72:0.5 73:0.43 74:0.57 75:0.6 77:0.5 78:0.2 79:0.2 80:0.8 
-1.0 -1.0 -0.5576350518912254 -1.0 -1.0 1.0 1.0 1:0.17 3:0.23 7:0.14 10:0.17 13:0.5 16:0.14 19:0.5 21:0.18 23:0.2 24:0.14 25:0.18 27:0.14 28:0.25 29:0.2 30:0.2 32:0.17 35:1.0 38:0.18 39:0.17 40:0.25 41:0.2 44:0.33 46:0.17 47:0.2 51:0.17 52:0.09 54:0.2 55:1.0 56:0.17 58:0.29 59:0.22 60:0.15 62:0.06 63:0.2 64:0.2 65:0.22 67:0.17 68:0.12 70:0.17 71:0.2 73:0.14 74:0.14 75:0.2 76:0.67 78:0.8 80:0.2 
-1.0 -1.0 -0.30215496127696007 -1.0 -0.3051405391822522 1.0 1.0 1:0.17 2:1.0 3:0.15 6:0.2 9:0.25 10:0.17 11:0.17 16:0.14 19:0.5 21:0.09 22:1.0 24:1.0 31:1.0 35:0.33 39:0.08 40:0.12 41:0.2 42:0.33 43:0.12 44:0.53 47:0.1 48:0.14 50:1.0 51:0.17 52:0.55 55:1.0 57:0.25 58:0.14 59:0.11 62:0.06 63:0.2 68:0.12 70:0.17 71:0.2 73:0.14 75:0.2 76:0.33 78:0.4 79:1.0 
-1.0 -1.0 -0.0 -1.0 -0.0 -1.0 1.0 1:0.33 2:0.86 3:0.62 6:0.2 7:0.14 10:0.33 11:0.17 13:1.0 15:1.0 16:0.29 18:1.0 21:0.09 22:0.75 23:1.0 24:0.14 25:1.0 27:0.14 28:1.0 29:0.2 30:0.2 31:0.5 32:1.0 35:0.67 37:1.0 38:1.0 39:0.08 40:0.12 41:0.4 43:0.62 44:0.47 46:1.0 47:0.1 48:0.14 50:0.5 51:0.33 52:0.73 54:1.0 56:0.17 57:0.25 58:1.0 59:0.11 60:1.0 62:0.17 63:0.4 64:0.2 65:1.0 67:0.17 68:0.25 70:0.33 71:0.4 72:1.0 73:0.29 74:1.0 75:0.4 77:1.0 79:0.8 80:1.0 
-1.0 -1.0 -0.36567127298372337 -1.0 -0.6571201124108768 -0.5941367630048539 1.0 1:0.33 2:0.86 3:0.62 6:0.2 7:0.14 10:0.33 11:0.17 13:1.0 15:1.0 16:0.29 18:1.0 21:0.09 22:0.75 23:1.0 24:0.14 25:1.0 27:0.14 28:1.0 29:0.2 30:0.2 31:0.5 32:1.0 35:0.67 37:1.0 38:1.0 39:0.08 40:0.12 41:0.4 43:0.62 44:0.47 46:1.0 47:0.1 48:0.14 50:0.5 51:0.33 52:0.73 54:1.0 56:0.17 57:0.25 58:1.0 59:0.11 60:1.0 62:0.17 63:0.4 64:0.2 65:1.0 67:0.17 68:0.25 70:0.33 71:0.4 72:1.0 73:0.29 74:1.0 75:0.4 77:1.0 79:0.8 80:1.0 
-0.0 -0.0 -0.0 -1.0 -0.3428798875891233 -0.40586323699514615 1.0 1:0.17 3:0.15 7:0.14 10:0.17 13:1.0 15:1.0 16:0.14 18:1.0 21:0.09 23:1.0 25:1.0 27:0.14 28:1.0 29:0.2 30:0.2 32:1.0 35:0.67 37:1.0 38:1.0 39:0.08 40:0.12 41:0.2 43:0.62 44:0.07 46:1.0 47:0.1 51:0.17 52:0.18 54:1.0 56:0.17 58:0.86 59:0.11 60:1.0 62:0.06 63:0.2 64:0.2 65:1.0 67:0.17 68:0.12 70:0.17 71:0.2 72:1.0 73:0.14 74:1.0 75:0.2 77:1.0 80:1.0 
-1.0 -1.0 -0.6343287270162766 -1.0 -1.0 -1.0 1.0 1:0.17 3:0.15 7:0.14 10:0.17 13:1.0 15:1.0 16:0.14 18:1.0 21:0.09 23:1.0 25:1.0 27:0.14 28:1.0 29:0.2 30:0.2 32:1.0 35:0.67 37:1.0 38:1.0 39:0.08 40:0.12 41:0.2 43:0.62 44:0.07 46:1.0 47:0.1 51:0.17 52:0.18 54:1.0 56:0.17 58:0.86 59:0.11 60:1.0 62:0.06 63:0.2 64:0.2 65:1.0 67:0.17 68:0.12 70:0.17 71:0.2 72:1.0 73:0.14 74:1.0 75:0.2 77:1.0 80:1.0 
-0.7915993219029046 -0.6418631054463111 -0.0 -1.0 -0.04088952764794957 -0.7692976906042391 -1.0 2:0.14 4:1.0 5:1.0 9:1.0 12:1.0 13:0.5 15:0.5 18:0.5 22:0.25 23:0.5 25:0.45 28:0.62 31:0.5 32:0.42 33:1.0 37:0.5 38:0.45 42:1.0 43:1.0 44:0.07 46:0.83 50:0.5 52:0.27 54:0.8 57:0.75 58:0.57 60:0.38 65:0.56 72:0.5 74:0.36 76:0.33 77:0.5 78:0.2 79:0.2 80:0.5 
-0.4666470453149352 -1.0 -0.63500345441564 -1.0 -1.0 -1.0 -1.0 1:0.17 2:0.29 3:0.38 4:1.0 5:1.0 6:0.2 9:1.0 10:0.17 11:0.17 12:1.0 16:0.14 22:0.5 24:0.14 31:1.0 33:1.0 41:0.2 42:1.0 43:0.38 44:0.13 48:0.14 50:0.5 51:0.17 52:0.36 57:1.0 58:0.14 62:0.06 63:0.2 68:0.12 70:0.17 71:0.2 73:0.14 75:0.2 76:0.33 78:0.2 79:0.4 
-0.9520197135539039 -1.0 -0.36499654558436007 -1.0 -0.9591104723520504 -1.0 -1.0 1:0.33 2:0.86 3:0.23 4:1.0 5:1.0 6:0.2 7:0.14 9:0.75 10:0.33 11:0.17 12:1.0 13:0.5 15:0.5 16:0.29 18:0.5 21:0.09 22:0.75 23:0.5 24:0.14 25:0.55 27:0.14 28:0.38 29:0.2 30:0.2 31:0.5 32:0.58 33:1.0 35:0.67 37:0.5 38:0.55 39:0.08 40:0.12 41:0.4 42:0.33 43:0.25 44:0.53 46:0.17 47:0.1 48:0.14 50:0.5 51:0.33 52:1.0 54:0.2 56:0.17 57:1.0 58:0.43 59:0.11 60:0.62 62:0.17 63:0.4 64:0.2 65:0.44 67:0.17 68:0.25 70:0.33 71:0.4 72:0.5 73:0.29 74:0.64 75:0.4 77:0.5 79:0.8 80:0.5 
-0.7897339192282563 -0.3581368945536889 -0.0 -1.0 -0.0 -0.23070230939576084 -1.0 1:0.17 2:1.0 3:0.15 4:1.0 5:1.0 6:0.2 9:1.0 10:0.17 11:0.17 12:1.0 13:1.0 15:0.5 16:0.14 18:0.5 22:1.0 23:0.7 24:0.14 25:0.64 27:0.14 28:0.75 29:0.2 31:1.0 32:0.58 33:1.0 35:0.33 37:0.5 38:0.64 41:0.2 42:0.67 43:1.0 44:0.53 46:1.0 48:0.14 50:1.0 51:0.17 52:1.0 54:1.0 56:0.17 57:1.0 58:0.86 60:0.54 62:0.11 63:0.2 65:0.78 68:0.12 70:0.17 71:0.2 72:0.5 73:0.14 74:0.5 75:0.2 76:0.33 77:0.5 78:0.2 79:1.0 80:0.7 
