svm_type c_svc
kernel_type rbf
gamma 0.00684931506849315
nr_class 8
total_sv 97
rho -0.7511843044546592 -0.04302064287748214 0.026524469282348202 -0.0992092490196228 -0.12864867630565444 -0.9028421640396118 0.9057018013387343 0.38585829734802246 0.9278853580179636 1.0327464607288181 0.6861076653003693 0.7199609779814597 1.045545354397264 0.098673279927493 0.04119535228815748 -0.14420382890433514 -0.024673701720455302 0.1468624033762885 -0.4347228407859802 -0.31095484849051447 -0.12275551856715482 0.6336587946004668 -0.6538218855857849 -0.028479382279150502 0.7418304979117082 0.05584788322448743 0.4130261644091025 0.9764682221186907
label 3 7 4 0 5 6 2 1
nr_sv 13 5 10 16 9 7 9 28
SV
1.0 1.0 1.0 1.0 1.0 1.0 1.0 1:0.25 4:1.0 5:0.17 6:0.33 10:0.5 11:0.33 19:0.5 20:0.5 24:0.33 25:0.25 26:0.5 28:0.25 31:1.0 34:1.0 36:1.0 40:0.33 41:1.0 43:0.67 45:0.2 46:0.33 47:0.33 49:0.5 54:0.33 57:0.33 59:0.17 60:0.25 61:1.0 63:0.14 64:1.0 65:0.5 66:0.67 71:0.5 77:0.5 78:1.0 79:0.33 80:0.25 82:1.0 85:0.25 86:0.5 90:0.33 91:1.0 92:0.17 96:0.5 97:0.33 98:0.25 99:0.5 102:0.33 103:0.5 105:0.25 108:0.33 109:0.25 110:0.5 111:1.0 113:0.29 114:0.5 115:0.5 117:0.4 118:0.2 119:1.0 122:0.17 123:0.33 124:0.5 125:1.0 126:0.57 127:1.0 129:0.25 130:0.57 131:1.0 132:0.5 141:0.5 143:0.14 146:0.4 
0.4710334502447475 0.0 1.0 1.0 0.7803789064698907 1.0 1.0 5:0.17 9:0.33 10:0.5 11:0.33 12:0.2 14:0.33 15:0.14 21:0.17 22:0.2 23:0.5 25:0.25 27:0.5 29:0.2 31:0.4 33:0.17 34:0.5 36:0.5 38:0.17 40:0.67 43:0.33 45:0.2 58:0.17 59:0.17 61:0.2 63:0.14 64:1.0 65:1.0 67:0.17 68:0.14 69:0.5 70:0.5 75:0.2 77:0.5 78:0.33 80:0.25 81:0.33 82:0.25 83:0.5 88:0.33 90:0.33 92:0.17 93:0.2 94:0.5 95:0.2 96:0.5 97:0.33 98:0.25 100:0.2 102:0.33 104:1.0 108:0.33 109:0.25 110:0.5 111:0.25 113:0.14 114:0.5 115:0.25 117:0.2 119:1.0 120:1.0 123:0.33 124:0.5 125:0.5 126:0.29 129:0.25 130:0.29 135:1.0 141:0.5 143:0.14 145:1.0 146:0.2 
0.0 0.5224693471983016 0.0 0.0 0.0 1.0 1.0 1:0.25 4:1.0 7:1.0 9:0.33 10:1.0 15:0.14 19:0.5 20:0.25 21:0.17 23:0.5 24:0.67 28:0.25 30:1.0 31:1.0 34:1.0 36:1.0 37:1.0 40:1.0 43:1.0 48:0.33 49:1.0 53:0.5 56:1.0 57:0.33 61:1.0 64:1.0 65:1.0 66:0.33 77:1.0 78:1.0 79:0.33 80:0.25 81:0.33 82:1.0 83:1.0 86:0.5 90:1.0 103:0.5 104:1.0 106:1.0 108:0.67 110:0.5 111:1.0 112:0.2 113:0.29 114:1.0 115:0.5 116:0.2 117:0.4 118:0.2 119:1.0 121:0.2 122:0.17 125:0.5 126:0.57 128:0.14 130:0.57 134:0.25 135:1.0 137:0.2 138:0.25 140:0.17 141:1.0 142:0.2 143:0.14 145:1.0 146:0.2 
0.0 0.0 1.0 0.0 0.0 0.022145987696064275 1.0 4:1.0 9:0.33 10:0.5 15:0.14 20:0.25 21:0.17 23:0.5 31:0.8 34:0.5 36:0.5 40:0.33 43:0.33 49:0.5 61:1.0 65:0.5 66:0.33 78:0.83 81:0.33 82:1.0 83:0.5 86:0.25 90:0.67 104:1.0 108:0.33 110:0.5 111:0.75 114:1.0 126:0.29 130:0.29 135:1.0 141:1.0 145:1.0 
0.0 0.0 1.0 1.0 0.0 0.0 1.0 4:1.0 5:0.17 9:0.33 10:0.5 12:0.2 14:0.33 15:0.14 20:0.25 21:0.17 22:0.2 23:0.5 27:0.5 29:0.2 31:0.2 33:0.17 34:0.5 36:0.5 38:0.17 40:0.33 43:0.33 49:0.5 58:0.17 59:0.17 61:0.2 63:0.14 65:0.5 66:0.33 67:0.17 68:0.14 69:0.5 70:0.5 75:0.2 78:0.17 80:0.25 81:0.33 82:0.25 83:0.5 86:0.25 88:0.33 90:0.67 92:0.17 93:0.2 94:0.5 95:0.2 96:0.5 97:0.33 100:0.2 104:1.0 108:0.67 110:1.0 111:0.25 112:0.2 113:0.14 114:1.0 115:0.25 116:0.2 117:0.2 118:0.2 120:1.0 121:0.2 122:0.17 126:0.29 128:0.14 130:0.29 134:0.25 135:1.0 137:0.2 138:0.25 140:0.17 141:1.0 142:0.2 145:1.0 
1.0 1.0 1.0 1.0 1.0 1.0 1.0 1:0.25 5:0.17 6:0.33 11:0.33 19:0.5 20:0.25 24:0.33 25:0.25 26:0.5 28:0.25 41:1.0 45:0.2 46:0.33 47:0.33 54:0.33 57:0.33 59:0.17 60:0.25 63:0.14 66:0.33 71:0.5 79:0.33 80:0.25 85:0.25 86:0.25 91:1.0 92:0.17 96:0.5 97:0.33 98:0.25 99:0.5 102:0.33 103:0.5 104:1.0 105:0.25 109:0.25 112:0.2 113:0.29 114:0.5 115:0.5 116:0.2 117:0.4 118:0.4 121:0.2 122:0.33 123:0.33 124:0.5 125:0.5 126:0.29 127:1.0 128:0.14 129:0.25 130:0.29 131:1.0 132:0.5 134:0.25 135:0.5 137:0.2 138:0.25 140:0.17 142:0.2 143:0.14 145:1.0 146:0.2 
0.0 0.0 1.0 0.5845326403689052 0.0 1.0 1.0 4:1.0 9:0.33 10:0.5 15:0.14 20:0.25 21:0.17 23:0.5 31:0.6 34:0.5 36:0.5 40:0.33 43:0.33 49:0.5 61:0.8 65:0.5 66:0.33 78:0.67 81:0.33 82:0.75 83:0.5 86:0.25 90:0.67 104:1.0 108:0.33 110:0.5 111:0.75 114:1.0 126:0.14 130:0.14 135:1.0 141:1.0 145:1.0 
0.0 0.7127531338938481 1.0 1.0 0.596398515807686 0.0 1.0 4:1.0 5:0.17 9:0.33 10:0.5 11:0.33 12:0.2 14:0.33 15:0.14 20:0.25 21:0.17 22:0.2 23:0.5 25:0.25 27:0.5 29:0.2 31:0.2 33:0.17 34:0.5 36:0.5 38:0.17 40:0.33 43:0.33 45:0.2 49:0.5 58:0.17 59:0.17 61:0.2 63:0.14 65:0.5 66:0.33 67:0.17 68:0.14 69:0.5 70:0.5 75:0.2 78:0.17 80:0.25 81:0.33 82:0.25 83:0.5 86:0.25 88:0.33 90:0.67 92:0.17 93:0.2 94:0.5 95:0.2 96:0.5 97:0.33 98:0.25 100:0.2 102:0.33 104:1.0 108:0.67 109:0.25 110:1.0 111:0.25 112:0.2 113:0.14 114:1.0 115:0.25 116:0.2 117:0.2 118:0.2 120:1.0 121:0.2 122:0.17 123:0.33 124:0.5 126:0.29 128:0.14 129:0.25 130:0.29 134:0.25 135:1.0 137:0.2 138:0.25 140:0.17 141:1.0 142:0.2 143:0.14 145:1.0 
0.5846830456827815 1.0 1.0 1.0 0.6232225777224234 0.0 1.0 4:1.0 5:0.17 9:0.33 10:0.5 12:0.2 14:0.33 15:0.14 20:0.25 21:0.17 22:0.2 23:0.5 27:0.5 29:0.2 31:0.2 33:0.17 34:0.5 36:0.5 38:0.17 40:0.33 43:0.33 49:0.5 58:0.17 59:0.17 61:0.2 63:0.14 65:0.5 66:0.33 67:0.17 68:0.14 69:0.5 70:0.5 75:0.2 78:0.17 80:0.25 81:0.33 82:0.25 83:0.5 86:0.25 88:0.33 90:0.67 92:0.17 93:0.2 94:0.5 95:0.2 96:0.5 97:0.33 100:0.2 108:0.67 110:1.0 111:0.25 112:0.2 113:0.14 114:0.5 115:0.25 116:0.2 117:0.2 118:0.2 120:1.0 121:0.2 122:0.17 126:0.29 128:0.14 130:0.29 134:0.25 135:0.5 137:0.2 138:0.25 140:0.17 141:1.0 142:0.2 143:0.14 
0.0 1.0 0.0 0.0 0.0 1.0 1.0 4:1.0 9:0.33 10:0.75 15:0.14 20:0.25 21:0.17 23:0.5 31:1.0 34:1.0 36:1.0 40:0.67 43:0.67 49:0.5 61:1.0 64:1.0 65:1.0 66:0.33 77:0.5 78:1.0 81:0.33 82:1.0 83:0.5 86:0.25 90:0.67 104:1.0 108:0.33 110:0.5 111:1.0 112:0.2 113:0.29 114:1.0 115:0.5 116:0.2 117:0.4 118:0.2 119:1.0 121:0.2 122:0.17 125:0.5 126:0.57 128:0.14 130:0.57 134:0.25 135:1.0 137:0.2 138:0.25 140:0.17 141:1.0 142:0.2 143:0.14 145:1.0 146:0.2 
0.944283504072471 1.0 1.0 1.0 1.0 1.0 1.0 1:0.25 4:1.0 5:0.17 6:0.33 10:0.5 11:0.33 19:0.5 20:0.5 24:0.33 25:0.25 26:0.5 28:0.25 31:1.0 34:1.0 36:1.0 40:0.33 41:1.0 43:0.67 45:0.2 46:0.33 47:0.33 49:0.5 54:0.33 57:0.33 59:0.17 60:0.25 61:1.0 63:0.14 64:1.0 65:0.5 66:0.67 71:0.5 77:0.5 78:1.0 79:0.33 80:0.25 82:1.0 85:0.25 86:0.5 90:0.33 91:1.0 92:0.17 96:0.5 97:0.33 98:0.25 99:0.5 102:0.33 103:0.5 105:0.25 108:0.33 109:0.25 110:0.5 111:1.0 113:0.29 114:0.5 115:0.5 117:0.4 118:0.2 119:1.0 122:0.17 123:0.33 124:0.5 125:1.0 126:0.57 127:1.0 129:0.25 130:0.57 131:1.0 132:0.5 141:0.5 143:0.14 146:0.4 
1.0 1.0 1.0 1.0 1.0 1.0 1.0 1:0.25 5:0.33 6:0.33 7:0.2 11:0.33 12:0.2 14:0.33 19:1.0 20:0.25 22:0.2 24:0.67 25:0.25 26:0.5 27:0.5 28:0.5 29:0.2 33:0.17 37:0.2 38:0.17 41:1.0 45:0.2 46:0.33 47:0.33 48:0.33 53:0.5 54:0.33 56:0.2 57:0.33 58:0.17 59:0.33 60:0.25 62:1.0 63:0.29 66:0.33 67:0.17 68:0.14 69:0.5 70:0.5 71:0.5 75:0.2 79:0.67 80:0.5 85:0.25 86:0.25 88:0.33 91:1.0 92:0.33 93:0.2 94:0.5 95:0.2 96:1.0 97:0.67 98:0.25 99:0.5 100:0.2 102:0.33 103:0.5 105:0.25 106:0.17 108:0.33 109:0.25 110:0.5 112:0.2 113:0.29 115:0.5 116:0.2 117:0.2 118:0.4 120:1.0 122:0.33 123:0.33 124:0.5 125:0.5 126:0.29 127:1.0 128:0.14 129:0.25 130:0.14 131:1.0 132:0.5 134:0.25 136:0.2 140:0.17 142:0.2 143:0.14 146:0.4 
0.0 1.0 0.5539594370093043 0.4154673596310948 0.0 0.9778540123039358 1.0 1:0.5 4:1.0 7:1.0 9:0.33 10:1.0 15:0.14 19:0.5 20:0.5 21:0.17 23:0.5 24:0.67 28:0.5 30:1.0 31:1.0 34:1.0 36:1.0 37:1.0 40:1.0 43:1.0 46:0.33 48:0.67 49:1.0 50:0.5 53:1.0 56:1.0 57:0.67 61:1.0 64:1.0 65:1.0 66:0.67 69:0.5 71:0.5 77:1.0 78:1.0 79:0.67 80:0.5 81:0.33 82:1.0 83:1.0 84:1.0 86:0.75 88:0.33 90:1.0 97:0.33 103:0.5 106:1.0 108:0.67 110:0.5 111:1.0 113:0.29 114:0.5 115:0.25 117:0.2 119:1.0 122:0.17 125:0.5 126:0.57 130:0.43 135:0.5 141:1.0 146:0.2 
-1.0 1.0 1.0 1.0 1.0 1.0 1.0 1:0.25 3:1.0 5:0.17 6:0.67 8:0.2 9:0.33 11:0.67 12:0.2 13:0.5 14:0.33 15:0.14 17:0.33 19:0.5 20:0.25 21:0.17 23:0.5 24:0.33 25:0.5 26:1.0 27:0.5 28:0.25 33:0.17 39:0.5 41:1.0 42:1.0 44:0.33 45:0.6 46:0.33 47:0.67 52:0.5 54:0.67 55:0.5 57:0.33 59:0.33 60:0.5 63:0.29 66:0.33 71:0.5 72:0.33 73:1.0 76:0.5 79:0.33 80:0.25 85:0.5 86:0.25 89:0.17 91:1.0 92:0.33 94:0.5 96:0.5 97:0.33 98:0.75 99:0.5 102:1.0 103:0.5 105:0.5 109:0.75 113:0.14 115:0.25 117:0.2 118:0.2 122:0.17 123:0.67 124:1.0 125:0.5 126:0.14 127:1.0 129:0.75 130:0.14 131:1.0 132:0.5 143:0.14 146:0.2 
-1.0 1.0 1.0 1.0 1.0 1.0 1.0 1:0.25 5:0.33 6:0.33 9:0.33 11:1.0 14:0.33 15:0.14 17:0.33 19:0.5 20:0.25 24:0.33 25:0.75 26:0.5 28:0.25 32:1.0 33:0.17 39:0.5 41:1.0 44:0.33 45:0.6 46:0.33 47:0.67 54:0.33 57:0.33 59:0.33 60:0.5 63:0.29 66:0.33 71:0.5 79:0.33 80:0.25 81:0.33 85:0.5 86:0.25 89:0.17 91:1.0 92:0.17 96:0.5 97:0.33 98:0.75 99:0.5 102:0.67 103:0.5 105:0.5 107:1.0 109:0.5 113:0.14 115:0.25 117:0.2 118:0.2 122:0.17 123:0.67 124:1.0 125:0.5 126:0.14 127:1.0 129:0.75 130:0.14 131:1.0 132:1.0 139:1.0 143:0.29 146:0.2 
-1.0 1.0 1.0 1.0 1.0 1.0 1.0 1:0.25 3:1.0 5:0.17 6:0.67 8:0.2 9:0.33 11:0.67 12:0.2 13:0.5 14:0.33 15:0.14 17:0.33 19:0.5 20:0.25 21:0.17 23:0.5 24:0.33 25:0.5 26:1.0 27:0.5 28:0.25 33:0.17 39:0.5 41:1.0 42:1.0 44:0.33 45:0.6 46:0.33 47:0.67 52:0.5 54:0.67 55:0.5 57:0.33 59:0.33 60:0.5 63:0.29 66:0.33 71:0.5 72:0.33 73:1.0 76:0.5 79:0.33 80:0.25 85:0.5 86:0.25 89:0.17 91:1.0 92:0.33 94:0.5 96:0.5 97:0.33 98:0.75 99:0.5 102:1.0 103:0.5 105:0.5 109:0.75 113:0.14 115:0.25 117:0.2 118:0.2 122:0.17 123:0.67 124:1.0 125:0.5 126:0.14 127:1.0 129:0.75 130:0.14 131:1.0 132:0.5 143:0.14 146:0.2 
-1.0 1.0 1.0 1.0 1.0 1.0 1.0 1:0.25 5:0.33 6:0.67 7:0.2 11:0.33 12:0.2 19:0.5 20:0.25 24:0.33 25:0.25 26:0.5 28:0.25 33:0.17 41:1.0 44:0.33 45:0.2 46:0.33 47:0.33 52:0.5 54:0.33 56:0.2 57:0.33 59:0.17 60:0.5 63:0.29 66:0.33 70:0.5 71:0.5 76:0.5 79:0.33 80:0.25 85:0.25 86:0.25 91:1.0 92:0.33 96:0.5 97:0.33 98:0.25 99:0.5 102:0.33 103:0.5 105:0.5 106:0.17 109:0.25 113:0.14 115:0.25 117:0.2 118:0.2 122:0.17 123:0.33 124:0.5 125:0.5 126:0.14 127:1.0 129:0.25 130:0.14 131:1.0 132:0.5 143:0.29 146:0.2 
-1.0 1.0 1.0 1.0 1.0 1.0 1.0 1:0.25 5:0.33 6:0.67 7:0.2 11:0.33 12:0.2 19:0.5 20:0.25 24:0.33 25:0.25 26:0.5 28:0.25 33:0.17 41:1.0 44:0.33 45:0.2 46:0.33 47:0.33 52:0.5 54:0.33 56:0.2 57:0.33 59:0.17 60:0.5 63:0.29 66:0.33 70:0.5 71:0.5 76:0.5 79:0.33 80:0.25 85:0.25 86:0.25 91:1.0 92:0.33 96:0.5 97:0.33 98:0.25 99:0.5 102:0.33 103:0.5 105:0.5 106:0.17 109:0.25 113:0.14 115:0.25 117:0.2 118:0.2 122:0.17 123:0.33 124:0.5 125:0.5 126:0.14 127:1.0 129:0.25 130:0.14 131:1.0 132:0.5 143:0.29 146:0.2 
-1.0 -0.0 0.0 0.0 0.0 1.0 1.0 1:0.5 4:1.0 5:0.17 6:0.33 10:0.5 11:0.33 19:0.5 20:0.75 24:0.33 25:0.25 26:0.5 28:0.5 31:1.0 34:1.0 36:1.0 40:0.33 41:1.0 43:0.67 45:0.2 46:0.67 47:0.33 48:0.33 49:0.5 50:0.5 53:0.5 54:0.33 57:0.67 59:0.17 60:0.25 61:1.0 62:1.0 63:0.14 64:1.0 65:0.5 66:1.0 69:0.5 71:1.0 77:0.5 78:1.0 79:0.67 80:0.5 82:1.0 84:1.0 85:0.25 86:0.75 88:0.33 90:0.33 91:1.0 92:0.17 96:0.5 97:0.67 98:0.25 99:0.5 102:0.33 103:0.5 104:1.0 105:0.25 108:0.33 109:0.25 110:0.5 111:1.0 112:1.0 113:1.0 114:1.0 115:1.0 116:1.0 117:1.0 118:1.0 119:1.0 121:1.0 122:1.0 123:0.33 124:0.5 125:1.0 126:1.0 127:1.0 128:1.0 129:0.25 130:1.0 131:1.0 132:0.5 133:1.0 134:1.0 135:0.5 136:1.0 137:1.0 138:1.0 140:1.0 141:0.5 142:1.0 143:0.14 145:1.0 146:1.0 
-0.26175292453280713 -0.0 0.6647163773368621 1.0 0.42359873882684873 0.46769087416426725 1.0 1:0.75 2:0.2 4:1.0 5:0.33 6:0.33 7:0.2 10:0.5 11:0.33 12:0.2 14:0.33 16:0.25 17:0.33 18:0.5 19:1.0 20:1.0 22:0.4 24:0.67 25:0.5 26:0.5 27:0.5 28:1.0 29:0.4 31:0.6 33:0.17 34:1.0 35:0.2 36:1.0 37:0.2 38:0.33 40:0.33 41:1.0 43:0.67 45:0.4 46:1.0 47:0.33 48:1.0 49:0.5 50:1.0 51:0.2 53:1.0 54:0.67 55:0.5 56:0.2 57:0.67 58:0.33 59:0.33 60:0.25 61:0.4 62:1.0 63:0.29 64:1.0 65:0.5 66:1.0 67:0.33 68:0.29 69:1.0 70:0.5 71:1.0 74:0.2 75:0.4 77:0.5 78:0.5 79:1.0 80:0.75 82:0.5 84:1.0 85:0.5 86:0.75 88:1.0 90:0.33 91:1.0 92:0.33 93:0.4 94:0.5 95:0.4 96:1.0 97:1.0 98:0.25 99:0.5 100:0.4 101:0.17 102:0.33 103:0.5 104:1.0 105:0.25 106:0.17 108:0.67 109:0.5 110:1.0 111:0.5 112:1.0 113:1.0 114:1.0 115:1.0 116:1.0 117:1.0 118:1.0 119:1.0 120:1.0 121:1.0 122:1.0 123:0.33 124:0.5 125:1.0 126:1.0 127:1.0 128:1.0 129:0.25 130:1.0 131:1.0 132:0.5 133:1.0 134:1.0 135:0.5 136:1.0 137:1.0 138:1.0 140:1.0 141:0.5 142:1.0 143:0.14 145:1.0 146:1.0 
-1.0 -1.0 1.0 1.0 1.0 0.48762275580206016 1.0 1:0.5 5:0.33 6:0.33 11:0.33 12:0.2 14:0.33 19:0.5 20:0.5 22:0.2 24:0.33 25:0.25 26:0.5 27:0.5 28:0.5 29:0.2 33:0.17 38:0.17 41:1.0 45:0.2 46:0.67 47:0.33 48:0.33 50:0.5 53:0.5 54:0.33 57:0.67 58:0.17 59:0.33 60:0.25 62:1.0 63:0.29 66:0.67 67:0.17 68:0.14 69:1.0 70:0.5 71:1.0 75:0.2 79:0.67 80:0.75 84:1.0 85:0.25 86:0.5 88:0.67 91:1.0 92:0.33 93:0.2 94:0.5 95:0.2 96:1.0 97:1.0 98:0.25 99:0.5 100:0.2 102:0.33 103:0.5 105:0.25 108:0.33 109:0.25 110:0.5 112:1.0 113:0.86 115:0.75 116:1.0 117:0.8 118:1.0 120:1.0 121:1.0 122:1.0 123:0.33 124:0.5 125:0.5 126:0.57 127:1.0 128:1.0 129:0.25 130:0.57 131:1.0 132:0.5 133:1.0 134:1.0 136:1.0 137:1.0 138:1.0 140:1.0 142:1.0 143:0.29 146:0.8 
-1.0 -1.0 1.0 1.0 0.47092620096910676 1.0 1.0 1:0.25 4:1.0 5:0.17 6:0.33 10:0.5 11:0.33 19:0.5 20:0.5 24:0.33 25:0.25 26:0.5 28:0.25 31:1.0 34:1.0 36:1.0 40:0.33 41:1.0 43:0.67 45:0.2 46:0.33 47:0.33 49:0.5 54:0.33 57:0.33 59:0.17 60:0.25 61:1.0 62:1.0 63:0.14 64:1.0 65:0.5 66:0.67 71:0.5 77:0.5 78:1.0 79:0.33 80:0.25 82:1.0 85:0.25 86:0.5 90:0.33 91:1.0 92:0.17 96:0.5 97:0.33 98:0.25 99:0.5 102:0.33 103:0.5 105:0.25 108:0.33 109:0.25 110:0.5 111:1.0 112:1.0 113:0.86 114:0.5 115:1.0 116:1.0 117:1.0 118:1.0 119:1.0 121:1.0 122:0.83 123:0.33 124:0.5 125:1.0 126:0.86 127:1.0 128:1.0 129:0.25 130:1.0 131:1.0 132:0.5 133:1.0 134:1.0 136:1.0 137:1.0 138:1.0 140:1.0 141:0.5 142:1.0 143:0.14 146:1.0 
-1.0 -1.0 1.0 1.0 1.0 1.0 1.0 62:1.0 112:1.0 113:0.57 115:0.5 116:1.0 117:0.6 118:0.8 121:1.0 122:0.67 126:0.29 128:1.0 130:0.43 133:1.0 134:1.0 136:1.0 137:1.0 138:1.0 140:1.0 142:1.0 146:0.6 
-1.0 -0.0 0.0 0.0 0.0 1.0 1.0 1:0.5 4:1.0 5:0.17 6:0.33 10:0.5 11:0.33 19:0.5 20:0.75 24:0.33 25:0.25 26:0.5 28:0.5 31:1.0 34:1.0 36:1.0 40:0.33 41:1.0 43:0.67 45:0.2 46:0.67 47:0.33 48:0.33 49:0.5 50:0.5 53:0.5 54:0.33 57:0.67 59:0.17 60:0.25 61:1.0 62:1.0 63:0.14 64:1.0 65:0.5 66:1.0 69:0.5 71:1.0 77:0.5 78:1.0 79:0.67 80:0.5 82:1.0 84:1.0 85:0.25 86:0.75 88:0.33 90:0.33 91:1.0 92:0.17 96:0.5 97:0.67 98:0.25 99:0.5 102:0.33 103:0.5 104:1.0 105:0.25 108:0.33 109:0.25 110:0.5 111:1.0 112:1.0 113:1.0 114:1.0 115:1.0 116:1.0 117:1.0 118:1.0 119:1.0 121:1.0 122:1.0 123:0.33 124:0.5 125:1.0 126:1.0 127:1.0 128:1.0 129:0.25 130:1.0 131:1.0 132:0.5 133:1.0 134:1.0 135:0.5 136:1.0 137:1.0 138:1.0 140:1.0 141:0.5 142:1.0 143:0.14 145:1.0 146:1.0 
-0.957598719784145 -1.0 1.0 1.0 1.0 0.5779893693845394 1.0 1:0.75 2:0.2 5:0.17 6:0.33 7:0.2 11:0.33 16:0.25 17:0.33 18:0.5 19:1.0 20:0.75 22:0.2 24:0.67 25:0.5 26:0.5 28:1.0 29:0.2 35:0.2 37:0.2 38:0.17 41:1.0 45:0.4 46:1.0 47:0.33 48:1.0 50:1.0 51:0.2 53:1.0 54:0.67 55:0.5 56:0.2 57:0.67 58:0.17 59:0.17 60:0.25 62:1.0 63:0.14 66:0.67 67:0.17 68:0.14 69:0.5 71:1.0 74:0.2 75:0.2 79:1.0 80:0.5 84:1.0 85:0.5 86:0.5 88:0.67 91:1.0 92:0.17 93:0.2 95:0.2 96:0.5 97:0.67 98:0.25 99:0.5 100:0.2 101:0.17 102:0.33 103:0.5 105:0.25 106:0.17 109:0.5 112:1.0 113:0.86 115:0.75 116:1.0 117:0.8 118:1.0 121:1.0 122:1.0 123:0.33 124:0.5 125:0.5 126:0.57 127:1.0 128:1.0 129:0.25 130:0.57 131:1.0 132:0.5 133:1.0 134:1.0 136:1.0 137:1.0 138:1.0 140:1.0 142:1.0 143:0.29 146:0.8 
-0.8654482336453531 -0.0 0.0 0.42374464844407683 0.0 1.0 1.0 1:0.5 4:1.0 5:0.33 6:0.67 10:0.5 11:0.33 12:0.2 19:0.5 20:0.75 24:0.33 25:0.25 26:0.5 28:0.5 31:1.0 33:0.17 34:1.0 36:1.0 40:0.33 41:1.0 43:0.67 44:0.33 45:0.2 46:0.67 47:0.33 48:0.33 49:0.5 50:0.5 52:0.5 53:0.5 54:0.33 57:0.67 59:0.17 60:0.5 61:1.0 62:1.0 63:0.29 64:1.0 65:0.5 66:1.0 69:0.5 70:0.5 71:1.0 76:0.5 77:0.5 78:1.0 79:0.67 80:0.5 82:1.0 84:1.0 85:0.25 86:0.75 88:0.33 90:0.33 91:1.0 92:0.33 96:0.5 97:0.67 98:0.25 99:0.5 102:0.33 103:0.5 105:0.5 108:0.33 109:0.25 110:0.5 111:1.0 112:1.0 113:1.0 114:0.5 115:1.0 116:1.0 117:1.0 118:1.0 119:1.0 121:1.0 122:1.0 123:0.33 124:0.5 125:1.0 126:1.0 127:1.0 128:1.0 129:0.25 130:1.0 131:1.0 132:0.5 133:1.0 134:1.0 136:1.0 137:1.0 138:1.0 140:1.0 141:0.5 142:1.0 143:0.14 146:1.0 
-0.15042260312984446 -1.0 1.0 1.0 1.0 1.0 1.0 1:0.5 5:0.33 6:0.67 10:0.25 11:0.33 12:0.2 19:0.5 20:0.5 24:0.33 25:0.25 26:0.5 28:0.5 31:0.2 33:0.17 34:0.5 36:0.5 40:0.33 41:1.0 43:0.33 44:0.33 45:0.2 46:0.67 47:0.33 48:0.33 50:0.5 52:0.5 53:0.5 54:0.33 57:0.67 59:0.17 60:0.5 62:1.0 63:0.29 64:1.0 65:0.5 66:0.67 69:0.5 70:0.5 71:1.0 76:0.5 77:0.5 78:0.17 79:0.67 80:0.5 84:1.0 85:0.25 86:0.5 88:0.33 91:1.0 92:0.33 96:0.5 97:0.67 98:0.25 99:0.5 102:0.33 103:0.5 105:0.5 109:0.25 111:0.25 112:1.0 113:1.0 115:1.0 116:1.0 117:1.0 118:1.0 119:1.0 121:1.0 122:1.0 123:0.33 124:0.5 125:1.0 126:0.71 127:1.0 128:1.0 129:0.25 130:0.71 131:1.0 132:0.5 133:1.0 134:1.0 136:1.0 137:1.0 138:1.0 140:1.0 142:1.0 143:0.14 146:1.0 
-1.0 -0.0 0.7384385291588418 0.0 0.0 0.5507225881111009 1.0 1:0.5 4:1.0 5:0.17 6:0.33 10:0.5 11:0.33 19:0.5 20:0.75 24:0.33 25:0.25 26:0.5 28:0.5 31:1.0 34:1.0 36:1.0 40:0.33 41:1.0 43:0.67 45:0.2 46:0.67 47:0.33 48:0.33 49:0.5 50:0.5 53:0.5 54:0.33 57:0.67 59:0.17 60:0.25 61:1.0 62:1.0 63:0.14 64:1.0 65:0.5 66:1.0 69:0.5 71:1.0 77:0.5 78:1.0 79:0.67 80:0.5 82:1.0 84:1.0 85:0.25 86:0.75 88:0.33 90:0.33 91:1.0 92:0.17 96:0.5 97:0.67 98:0.25 99:0.5 102:0.33 103:0.5 105:0.25 108:0.33 109:0.25 110:0.5 111:1.0 112:1.0 113:1.0 114:0.5 115:1.0 116:1.0 117:1.0 118:1.0 119:1.0 121:1.0 122:1.0 123:0.33 124:0.5 125:1.0 126:1.0 127:1.0 128:1.0 129:0.25 130:1.0 131:1.0 132:0.5 133:1.0 134:1.0 136:1.0 137:1.0 138:1.0 140:1.0 141:0.5 142:1.0 143:0.14 146:1.0 
-0.49266270838885284 -0.4123801340396117 -0.0 1.0 1.0 0.0 1.0 1:0.25 2:0.2 5:0.5 6:0.33 9:0.33 11:1.0 12:0.2 14:0.67 15:0.14 16:0.25 17:0.33 19:0.5 20:0.25 22:0.2 24:0.33 25:0.75 26:0.5 27:0.5 28:0.25 29:0.2 32:1.0 33:0.33 38:0.17 39:0.5 41:1.0 44:0.33 45:0.6 46:0.33 47:0.67 51:0.2 54:0.33 57:0.33 58:0.33 59:0.5 60:0.5 63:0.43 66:0.33 67:0.33 68:0.29 69:0.5 70:0.5 71:0.5 74:0.2 75:0.4 79:0.33 80:0.5 81:0.33 85:0.5 86:0.25 87:1.0 88:0.33 89:0.17 91:1.0 92:0.33 93:0.2 94:0.5 95:0.4 96:1.0 97:0.67 98:0.75 99:1.0 100:0.4 101:0.17 102:0.67 103:0.5 105:0.5 107:1.0 108:0.33 109:0.5 110:0.5 113:0.14 115:0.25 117:0.2 118:0.2 120:1.0 122:0.17 123:1.0 124:1.0 125:0.5 126:0.14 127:1.0 129:0.75 130:0.14 131:1.0 132:1.0 139:1.0 143:0.43 144:1.0 146:0.2 
-1.0 -0.0 -0.0 1.0 0.0 0.6614033678733109 1.0 1:0.25 2:1.0 5:0.17 12:0.2 14:0.33 16:1.0 17:0.33 18:0.5 20:0.25 22:1.0 25:0.25 27:0.5 28:0.25 29:1.0 33:0.17 35:1.0 38:1.0 45:0.2 46:0.33 48:0.33 50:0.5 51:1.0 54:0.33 55:0.5 58:1.0 59:0.17 63:0.14 67:1.0 68:1.0 69:0.5 70:0.5 74:1.0 75:1.0 80:0.25 85:0.25 87:1.0 88:0.67 92:0.17 93:1.0 94:0.5 95:1.0 96:0.5 97:0.33 99:0.5 100:1.0 101:1.0 108:0.33 109:0.25 110:0.5 120:1.0 123:0.33 144:1.0 
-1.0 -0.0 -1.0 1.0 0.23690570205264194 1.0 1.0 5:0.17 12:0.2 14:0.33 22:0.2 27:0.5 29:0.2 33:0.17 38:0.17 58:0.17 59:0.17 63:0.14 67:0.17 68:0.14 69:0.5 70:0.5 75:0.2 80:0.25 88:0.33 92:0.17 93:0.2 94:0.5 95:0.2 96:0.5 97:0.33 100:0.2 108:0.33 110:0.5 120:1.0 143:0.14 
-0.0 -0.0 -0.7372250373827212 0.0 1.0 0.0 1.0 1:0.5 2:1.0 5:0.17 6:0.33 8:0.2 11:0.67 13:0.5 15:0.14 16:1.0 17:0.33 18:0.5 19:0.5 20:0.5 21:0.17 22:0.8 24:0.33 25:0.75 26:0.5 28:0.5 29:0.8 35:1.0 38:0.83 41:1.0 45:0.6 46:0.67 47:0.33 48:0.33 50:0.5 51:1.0 54:0.67 55:0.5 57:0.33 58:0.83 59:0.17 60:0.25 63:0.14 66:0.33 67:0.83 68:0.86 71:0.5 72:0.33 74:1.0 75:0.8 79:0.33 80:0.25 81:0.33 85:0.5 86:0.25 87:1.0 88:0.33 89:0.17 91:1.0 92:0.17 93:0.8 95:0.8 96:0.5 97:0.33 98:0.5 99:1.0 100:0.8 101:1.0 102:0.67 103:0.5 105:0.25 109:0.75 113:0.14 115:0.25 117:0.2 118:0.2 122:0.17 123:1.0 124:1.0 125:0.5 126:0.14 127:1.0 129:0.5 130:0.14 131:1.0 132:0.5 143:0.29 144:1.0 146:0.2 
-0.0 -0.0 -0.0 0.0 0.0 0.0 1.0 1:0.25 2:0.2 5:0.17 6:0.33 11:0.67 16:0.25 19:0.5 20:0.25 24:0.33 25:0.5 26:0.5 28:0.25 41:1.0 45:0.4 46:0.33 47:0.33 51:0.2 54:0.33 57:0.33 58:0.17 59:0.17 60:0.25 63:0.14 66:0.33 67:0.17 68:0.14 71:0.5 74:0.2 75:0.2 79:0.33 80:0.25 85:0.25 86:0.25 87:1.0 91:1.0 92:0.17 95:0.2 96:0.5 97:0.33 98:0.5 99:1.0 100:0.2 101:0.17 102:0.67 103:0.5 105:0.25 109:0.5 113:0.14 115:0.25 117:0.2 118:0.2 122:0.17 123:1.0 124:1.0 125:0.5 126:0.14 127:1.0 129:0.5 130:0.14 131:1.0 132:0.5 143:0.14 144:1.0 146:0.2 
-0.0 -0.0 -0.0 0.0 0.0 0.0 1.0 1:0.25 2:0.2 5:0.17 6:0.33 11:0.67 16:0.25 19:0.5 20:0.25 24:0.33 25:0.5 26:0.5 28:0.25 41:1.0 45:0.4 46:0.33 47:0.33 51:0.2 54:0.33 57:0.33 58:0.17 59:0.17 60:0.25 63:0.14 66:0.33 67:0.17 68:0.14 71:0.5 74:0.2 75:0.2 79:0.33 80:0.25 85:0.25 86:0.25 87:1.0 91:1.0 92:0.17 95:0.2 96:0.5 97:0.33 98:0.5 99:1.0 100:0.2 101:0.17 102:0.67 103:0.5 105:0.25 109:0.5 113:0.14 115:0.25 117:0.2 118:0.2 122:0.17 123:1.0 124:1.0 125:0.5 126:0.14 127:1.0 129:0.5 130:0.14 131:1.0 132:0.5 143:0.14 144:1.0 146:0.2 
-1.0 -0.0 -0.0 0.0 0.0 0.0 1.0 1:0.25 2:0.2 5:0.17 6:0.33 11:0.67 16:0.25 19:0.5 20:0.25 24:0.33 25:0.5 26:0.5 28:0.25 41:1.0 45:0.4 46:0.33 47:0.33 51:0.2 54:0.33 57:0.33 58:0.17 59:0.17 60:0.25 63:0.14 66:0.33 67:0.17 68:0.14 71:0.5 74:0.2 75:0.2 79:0.33 80:0.25 85:0.25 86:0.25 87:1.0 91:1.0 92:0.17 95:0.2 96:0.5 97:0.33 98:0.5 99:1.0 100:0.2 101:0.17 102:0.67 103:0.5 105:0.25 109:0.5 113:0.14 115:0.25 117:0.2 118:0.2 122:0.17 123:1.0 124:1.0 125:0.5 126:0.14 127:1.0 129:0.5 130:0.14 131:1.0 132:0.5 143:0.14 144:1.0 146:0.2 
-1.0 -0.0 -0.0 0.0 0.0 1.0 1.0 1:0.25 2:0.2 5:0.17 6:0.33 11:0.67 16:0.25 19:0.5 20:0.25 24:0.33 25:0.5 26:0.5 28:0.25 41:1.0 45:0.4 46:0.33 47:0.33 51:0.2 54:0.33 57:0.33 58:0.17 59:0.17 60:0.25 63:0.14 66:0.33 67:0.17 68:0.14 71:0.5 74:0.2 75:0.2 79:0.33 80:0.25 85:0.25 86:0.25 87:1.0 91:1.0 92:0.17 95:0.2 96:0.5 97:0.33 98:0.5 99:1.0 100:0.2 101:0.17 102:0.67 103:0.5 105:0.25 109:0.5 113:0.14 115:0.25 117:0.2 118:0.2 122:0.17 123:1.0 124:1.0 125:0.5 126:0.14 127:1.0 129:0.5 130:0.14 131:1.0 132:0.5 143:0.14 144:1.0 146:0.2 
-1.0 -0.0 -0.0 0.0 0.0 1.0 1.0 1:0.25 2:0.2 5:0.17 6:0.33 11:0.67 16:0.25 19:0.5 20:0.25 24:0.33 25:0.5 26:0.5 28:0.25 41:1.0 45:0.4 46:0.33 47:0.33 51:0.2 54:0.33 57:0.33 58:0.17 59:0.17 60:0.25 63:0.14 66:0.33 67:0.17 68:0.14 71:0.5 74:0.2 75:0.2 79:0.33 80:0.25 85:0.25 86:0.25 87:1.0 91:1.0 92:0.17 95:0.2 96:0.5 97:0.33 98:0.5 99:1.0 100:0.2 101:0.17 102:0.67 103:0.5 105:0.25 109:0.5 113:0.14 115:0.25 117:0.2 118:0.2 122:0.17 123:1.0 124:1.0 125:0.5 126:0.14 127:1.0 129:0.5 130:0.14 131:1.0 132:0.5 143:0.14 144:1.0 146:0.2 
-1.0 -1.0 -1.0 0.0 0.0 1.0 1.0 1:0.25 2:0.2 5:0.17 6:0.33 11:0.67 16:0.25 19:0.5 20:0.25 24:0.33 25:0.5 26:0.5 28:0.25 41:1.0 45:0.4 46:0.33 47:0.33 51:0.2 54:0.33 57:0.33 58:0.17 59:0.17 60:0.25 63:0.14 66:0.33 67:0.17 68:0.14 71:0.5 74:0.2 75:0.2 79:0.33 80:0.25 85:0.25 86:0.25 87:1.0 91:1.0 92:0.17 95:0.2 96:0.5 97:0.33 98:0.5 99:1.0 100:0.2 101:0.17 102:0.67 103:0.5 105:0.25 109:0.5 113:0.14 115:0.25 117:0.2 118:0.2 122:0.17 123:1.0 124:1.0 125:0.5 126:0.14 127:1.0 129:0.5 130:0.14 131:1.0 132:0.5 143:0.14 144:1.0 146:0.2 
-1.0 -1.0 -1.0 1.0 0.19307308965543724 1.0 1.0 1:0.25 2:0.2 5:0.17 6:0.33 11:0.67 16:0.25 19:0.5 20:0.25 24:0.33 25:0.5 26:0.5 28:0.25 41:1.0 45:0.4 46:0.33 47:0.33 51:0.2 54:0.33 57:0.33 58:0.17 59:0.17 60:0.25 63:0.14 66:0.33 67:0.17 68:0.14 71:0.5 74:0.2 75:0.2 79:0.33 80:0.25 85:0.25 86:0.25 87:1.0 91:1.0 92:0.17 95:0.2 96:0.5 97:0.33 98:0.5 99:1.0 100:0.2 101:0.17 102:0.67 103:0.5 105:0.25 109:0.5 113:0.14 115:0.25 117:0.2 118:0.2 122:0.17 123:1.0 124:1.0 125:0.5 126:0.14 127:1.0 129:0.5 130:0.14 131:1.0 132:0.5 143:0.14 144:1.0 146:0.2 
-0.1440981105766811 -0.3514082112152978 -0.5146076805723271 1.0 1.0 0.0 1.0 1:0.25 2:0.2 5:0.5 6:0.33 9:0.33 11:1.0 12:0.2 14:0.67 15:0.14 16:0.25 17:0.33 19:0.5 20:0.25 22:0.2 24:0.33 25:0.75 26:0.5 27:0.5 28:0.25 29:0.2 32:1.0 33:0.33 38:0.17 39:0.5 41:1.0 44:0.33 45:0.6 46:0.33 47:0.67 51:0.2 54:0.33 57:0.33 58:0.33 59:0.5 60:0.5 63:0.43 66:0.33 67:0.33 68:0.29 69:0.5 70:0.5 71:0.5 74:0.2 75:0.4 79:0.33 80:0.5 81:0.33 85:0.5 86:0.25 87:1.0 88:0.33 89:0.17 91:1.0 92:0.33 93:0.2 94:0.5 95:0.4 96:1.0 97:0.67 98:0.75 99:1.0 100:0.4 101:0.17 102:0.67 103:0.5 105:0.5 107:1.0 108:0.33 109:0.5 110:0.5 113:0.14 115:0.25 117:0.2 118:0.2 120:1.0 122:0.17 123:1.0 124:1.0 125:0.5 126:0.14 127:1.0 129:0.75 130:0.14 131:1.0 132:1.0 139:1.0 143:1.0 144:1.0 146:0.2 
-0.0 -0.0 -0.0 1.0 1.0 0.0 1.0 1:0.25 2:0.2 5:0.5 6:0.33 9:0.33 11:1.0 12:0.2 14:0.67 15:0.14 16:0.25 17:0.33 19:0.5 20:0.25 22:0.2 24:0.33 25:0.75 26:0.5 27:0.5 28:0.25 29:0.2 32:1.0 33:0.33 38:0.17 39:0.5 41:1.0 44:0.33 45:0.6 46:0.33 47:0.67 51:0.2 54:0.33 57:0.33 58:0.33 59:0.5 60:0.5 63:0.43 66:0.33 67:0.33 68:0.29 69:0.5 70:0.5 71:0.5 74:0.2 75:0.4 79:0.33 80:0.5 81:0.33 85:0.5 86:0.25 87:1.0 88:0.33 89:0.17 91:1.0 92:0.33 93:0.2 94:0.5 95:0.4 96:1.0 97:0.67 98:0.75 99:1.0 100:0.4 101:0.17 102:0.67 103:0.5 105:0.5 107:1.0 108:0.33 109:0.5 110:0.5 113:0.14 115:0.25 117:0.2 118:0.2 120:1.0 122:0.17 123:1.0 124:1.0 125:0.5 126:0.14 127:1.0 129:0.75 130:0.14 131:1.0 132:1.0 139:1.0 143:0.86 144:1.0 146:0.2 
-0.9171986180437703 -0.3985350330424597 -0.15132218854065577 1.0 0.9603491087136073 0.9805151107266566 1.0 1:0.25 2:0.2 5:0.17 6:0.33 11:0.67 16:0.25 19:0.5 20:0.25 24:0.33 25:0.5 26:0.5 28:0.25 41:1.0 45:0.4 46:0.33 47:0.33 51:0.2 54:0.33 57:0.33 58:0.17 59:0.17 60:0.25 63:0.14 66:0.33 67:0.17 68:0.14 71:0.5 74:0.2 75:0.2 79:0.33 80:0.25 85:0.25 86:0.25 87:1.0 91:1.0 92:0.17 95:0.2 96:0.5 97:0.33 98:0.5 99:1.0 100:0.2 101:0.17 102:0.67 103:0.5 105:0.25 109:0.5 113:0.14 115:0.25 117:0.2 118:0.2 122:0.17 123:1.0 124:1.0 125:0.5 126:0.14 127:1.0 129:0.5 130:0.14 131:1.0 132:0.5 143:0.14 144:1.0 146:0.2 
-1.0 -1.0 -1.0 1.0 1.0 1.0 1.0 1:0.25 5:0.33 6:0.33 11:0.67 12:0.2 14:0.33 19:0.5 20:0.25 22:0.2 24:0.33 25:0.5 26:0.5 27:0.5 28:0.25 29:0.2 33:0.17 38:0.17 41:1.0 45:0.4 46:0.33 47:0.33 54:0.33 57:0.33 58:0.17 59:0.33 60:0.25 63:0.29 66:0.33 67:0.17 68:0.14 69:0.5 70:0.5 71:0.5 75:0.2 79:0.33 80:0.5 85:0.25 86:0.25 88:0.33 91:1.0 92:0.33 93:0.2 94:0.5 95:0.2 96:1.0 97:0.67 98:0.5 99:0.5 100:0.2 102:0.67 103:0.5 105:0.25 108:0.33 109:0.5 110:0.5 113:0.14 115:0.25 117:0.2 118:0.2 120:1.0 122:0.17 123:0.67 124:1.0 125:0.5 126:0.14 127:1.0 129:0.5 130:0.14 131:1.0 132:0.5 143:0.29 146:0.2 
-1.0 -0.8376766217026308 -1.0 1.0 0.6096720995783135 1.0 1.0 1:0.25 10:0.25 24:0.33 30:1.0 37:0.2 40:0.33 43:0.33 49:0.5 56:0.2 57:0.33 77:0.5 80:0.25 83:0.5 86:0.25 90:0.33 103:0.5 106:0.17 108:0.33 
-1.0 -1.0 -1.0 -1.0 0.0 1.0 1.0 1:0.25 9:0.33 10:0.25 15:0.14 20:0.25 21:0.17 23:0.5 28:0.25 40:0.33 46:0.33 48:0.33 50:0.5 53:0.5 57:0.33 65:0.5 66:0.33 69:0.5 71:0.5 79:0.33 80:0.25 81:0.33 83:0.5 84:1.0 86:0.25 88:0.33 90:0.33 97:0.33 112:0.2 113:0.29 115:0.25 116:0.2 117:0.2 118:0.2 121:0.2 122:0.33 126:0.29 128:0.14 130:0.14 134:0.25 135:0.5 137:0.2 138:0.25 140:0.17 141:0.5 142:0.2 143:0.14 
-1.0 -0.9390818606586059 -0.372689828516099 -1.0 1.0 0.7980564433418538 1.0 1:0.5 2:0.2 3:1.0 5:0.5 6:0.67 8:0.2 9:0.67 11:1.0 12:0.4 13:0.5 14:1.0 15:0.29 16:0.25 17:1.0 18:0.5 19:0.5 20:0.5 21:0.17 22:0.4 23:0.5 24:0.33 25:1.0 26:1.0 27:1.0 28:0.5 29:0.4 32:1.0 33:0.5 35:0.2 38:0.33 39:1.0 41:1.0 42:1.0 44:0.67 45:1.0 46:0.67 47:1.0 48:0.33 50:0.5 51:0.2 52:0.5 54:1.0 55:1.0 57:0.33 58:0.33 59:0.67 60:0.75 63:0.57 66:0.33 67:0.33 68:0.29 69:0.5 70:0.5 71:0.5 72:0.33 73:1.0 74:0.2 75:0.4 76:0.5 79:0.33 80:0.5 81:0.33 85:1.0 86:0.25 88:0.67 89:0.33 91:1.0 92:0.5 93:0.4 94:1.0 95:0.4 96:1.0 97:0.67 98:1.0 99:0.5 100:0.4 101:0.17 102:1.0 103:0.5 105:0.75 107:1.0 108:0.33 109:1.0 110:0.5 113:0.14 115:0.25 117:0.2 118:0.2 120:1.0 122:0.17 123:0.67 124:1.0 125:0.5 126:0.14 127:1.0 129:1.0 130:0.14 131:1.0 132:1.0 139:1.0 143:0.29 146:0.2 
-1.0 -0.0 -1.0 -1.0 0.01385627990946485 1.0 1.0 5:0.33 9:0.67 10:0.25 11:0.33 12:0.2 14:0.67 15:0.29 17:0.33 21:0.17 22:0.2 23:0.5 25:0.25 27:0.5 29:0.2 32:1.0 33:0.33 38:0.17 39:0.5 40:0.33 44:0.33 45:0.2 47:0.33 58:0.17 59:0.33 60:0.25 63:0.29 65:0.5 67:0.17 68:0.14 69:0.5 70:0.5 75:0.2 80:0.25 81:0.67 83:0.5 85:0.25 88:0.33 89:0.17 90:0.33 92:0.17 93:0.2 94:0.5 95:0.2 96:0.5 97:0.33 98:0.25 100:0.2 105:0.25 107:1.0 108:0.33 110:0.5 120:1.0 129:0.25 132:0.5 135:0.5 139:1.0 141:0.5 143:0.29 
-1.0 -0.5631565244936869 -0.051054819927977835 -1.0 1.0 1.0 1.0 3:1.0 5:0.17 6:0.33 8:0.2 9:1.0 10:0.25 11:0.33 12:0.2 13:0.5 14:0.67 15:0.43 17:0.67 21:0.33 23:1.0 25:0.25 26:0.5 27:0.5 32:1.0 33:0.33 39:1.0 40:0.33 42:1.0 44:0.67 45:0.4 47:0.67 52:0.5 54:0.33 55:0.5 59:0.33 60:0.5 63:0.29 65:0.5 72:0.33 73:1.0 76:0.5 81:0.67 83:0.5 85:0.5 89:0.33 90:0.33 92:0.17 94:0.5 98:0.5 102:0.33 105:0.5 107:1.0 109:0.25 129:0.5 132:0.5 135:0.5 139:1.0 141:0.5 143:0.14 
-1.0 -1.0 -1.0 -1.0 1.0 1.0 1.0 1:0.25 5:0.33 6:0.33 9:0.33 11:1.0 14:0.33 15:0.14 17:0.33 19:0.5 20:0.25 24:0.33 25:0.75 26:0.5 28:0.25 32:1.0 33:0.17 39:0.5 41:1.0 44:0.33 45:0.6 46:0.33 47:0.67 54:0.33 57:0.33 59:0.33 60:0.5 63:0.29 66:0.33 71:0.5 79:0.33 80:0.25 81:0.33 85:0.5 86:0.25 89:0.17 91:1.0 92:0.17 96:0.5 97:0.33 98:0.75 99:0.5 102:0.67 103:0.5 105:0.5 107:1.0 109:0.5 113:0.14 115:0.25 117:0.2 118:0.2 122:0.17 123:0.67 124:1.0 125:0.5 126:0.14 127:1.0 129:0.75 130:0.14 131:1.0 132:1.0 139:1.0 143:0.29 146:0.2 
-1.0 -0.26686351535555924 -1.0 -1.0 1.0 0.33314759456253457 1.0 1:0.5 3:1.0 5:0.67 6:1.0 8:0.2 9:0.67 11:1.0 12:0.6 13:0.5 14:1.0 15:0.29 17:0.67 19:0.5 20:0.5 21:0.17 22:0.2 23:0.5 24:0.33 25:0.75 26:1.0 27:1.0 28:0.5 29:0.2 32:1.0 33:0.67 38:0.17 39:1.0 41:1.0 42:1.0 44:1.0 45:0.8 46:0.67 47:1.0 48:0.33 50:0.5 52:1.0 53:0.5 54:0.67 55:0.5 57:0.67 58:0.17 59:0.67 60:1.0 63:0.71 66:0.67 67:0.17 68:0.14 69:1.0 70:1.0 71:1.0 72:0.33 73:1.0 75:0.2 76:1.0 79:0.67 80:0.75 81:0.33 84:1.0 85:0.75 86:0.5 88:0.67 89:0.33 91:1.0 92:0.67 93:0.2 94:1.0 95:0.2 96:1.0 97:1.0 98:1.0 99:0.5 100:0.2 102:1.0 103:0.5 105:1.0 107:1.0 108:0.33 109:0.75 110:0.5 113:0.29 115:0.25 117:0.2 118:0.2 120:1.0 122:0.33 123:0.67 124:1.0 125:0.5 126:0.29 127:1.0 129:1.0 130:0.14 131:1.0 132:1.0 139:1.0 143:0.29 146:0.2 
-1.0 -0.0 -0.0 -1.0 1.0 1.0 1.0 5:0.5 6:0.33 9:0.67 10:0.25 11:0.67 12:0.4 14:0.67 15:0.29 17:0.33 21:0.17 22:0.2 23:0.5 25:0.5 27:0.5 29:0.2 32:1.0 33:0.5 38:0.17 39:0.5 40:0.33 44:0.67 45:0.4 47:0.33 52:0.5 58:0.17 59:0.33 60:0.5 63:0.43 65:0.5 67:0.17 68:0.14 69:0.5 70:1.0 75:0.2 76:0.5 80:0.25 81:0.67 83:0.5 85:0.25 88:0.33 89:0.17 90:0.33 92:0.33 93:0.2 94:0.5 95:0.2 96:0.5 97:0.33 98:0.5 100:0.2 102:0.33 105:0.5 107:1.0 108:0.33 109:0.25 110:0.5 120:1.0 123:0.33 124:0.5 129:0.5 132:0.5 135:0.5 139:1.0 141:0.5 143:0.14 
-1.0 -0.23089809949214782 -1.0 -1.0 0.9861437200905352 1.0 1.0 1:0.75 2:0.2 4:1.0 5:0.5 6:0.67 7:0.2 10:0.25 11:0.33 12:0.4 14:0.33 16:0.25 17:0.33 18:0.5 19:1.0 20:1.0 22:0.4 24:0.67 25:0.5 26:0.5 27:0.5 28:1.0 29:0.4 31:0.2 33:0.33 34:0.5 35:0.2 36:0.5 37:0.2 38:0.33 41:1.0 43:0.33 44:0.33 45:0.4 46:1.0 47:0.33 48:1.0 49:0.5 50:1.0 51:0.2 52:0.5 53:1.0 54:0.67 55:0.5 56:0.2 57:0.67 58:0.33 59:0.33 60:0.5 61:0.2 63:0.43 66:1.0 67:0.33 68:0.29 69:1.0 70:1.0 71:1.0 74:0.2 75:0.4 76:0.5 78:0.17 79:1.0 80:0.75 82:0.25 84:1.0 85:0.5 86:0.75 88:1.0 90:0.33 91:1.0 92:0.5 93:0.4 94:0.5 95:0.4 96:1.0 97:1.0 98:0.25 99:0.5 100:0.4 101:0.17 102:0.33 103:0.5 105:0.5 106:0.17 108:0.67 109:0.5 110:1.0 111:0.25 113:0.29 114:0.5 115:0.25 117:0.2 118:0.2 120:1.0 122:0.33 123:0.33 124:0.5 125:0.5 126:0.43 127:1.0 129:0.25 130:0.29 131:1.0 132:0.5 141:0.5 143:0.14 146:0.2 
-1.0 -1.0 -1.0 -1.0 1.0 1.0 1.0 1:0.25 5:0.33 6:0.33 11:0.33 12:0.2 14:0.33 19:0.5 20:0.25 22:0.2 24:0.33 25:0.25 26:0.5 27:0.5 28:0.25 29:0.2 33:0.17 38:0.17 41:1.0 45:0.2 46:0.33 47:0.33 54:0.33 57:0.33 58:0.17 59:0.33 60:0.25 63:0.29 66:0.33 67:0.17 68:0.14 69:0.5 70:0.5 71:0.5 75:0.2 79:0.33 80:0.5 85:0.25 86:0.25 88:0.33 91:1.0 92:0.33 93:0.2 94:0.5 95:0.2 96:1.0 97:0.67 98:0.25 99:0.5 100:0.2 102:0.33 103:0.5 105:0.25 108:0.33 109:0.25 110:0.5 113:0.14 115:0.25 117:0.2 118:0.2 120:1.0 122:0.17 123:0.33 124:0.5 125:0.5 126:0.14 127:1.0 129:0.25 130:0.14 131:1.0 132:0.5 143:0.29 146:0.2 
-1.0 -1.0 -0.10461953637473964 -1.0 -1.0 1.0 1.0 1:0.25 3:1.0 5:0.83 6:1.0 8:1.0 9:0.67 11:0.67 12:0.8 13:1.0 14:0.67 15:0.86 17:0.67 19:0.5 20:0.25 21:0.83 23:0.5 24:0.33 25:0.5 26:1.0 27:0.5 28:0.25 32:1.0 33:0.83 39:1.0 41:1.0 42:1.0 44:1.0 45:0.6 46:0.33 47:1.0 52:1.0 54:0.67 55:0.5 57:0.33 59:0.83 60:1.0 63:0.86 66:0.33 70:0.5 71:0.5 72:1.0 73:1.0 76:1.0 79:0.33 80:0.25 81:0.67 85:0.75 86:0.25 89:1.0 91:1.0 92:0.83 94:0.5 96:0.5 97:0.33 98:0.75 99:0.5 102:0.67 103:0.5 105:1.0 107:1.0 109:0.5 113:0.14 115:0.25 117:0.2 118:0.2 122:0.17 123:0.33 124:0.5 125:0.5 126:0.14 127:1.0 129:0.75 130:0.14 131:1.0 132:1.0 139:1.0 143:0.86 146:0.2 
-1.0 -1.0 -1.0 -1.0 -1.0 1.0 1.0 1:0.25 5:0.5 6:0.33 9:0.33 11:0.67 12:0.2 14:0.67 15:0.14 17:0.33 19:0.5 20:0.25 22:0.2 24:0.33 25:0.5 26:0.5 27:0.5 28:0.25 29:0.2 32:1.0 33:0.33 38:0.17 39:0.5 41:1.0 44:0.33 45:0.4 46:0.33 47:0.67 54:0.33 57:0.33 58:0.17 59:0.5 60:0.5 63:0.43 66:0.33 67:0.17 68:0.14 69:0.5 70:0.5 71:0.5 75:0.2 79:0.33 80:0.5 81:0.33 85:0.5 86:0.25 88:0.33 89:0.17 91:1.0 92:0.33 93:0.2 94:0.5 95:0.2 96:1.0 97:0.67 98:0.5 99:0.5 100:0.2 102:0.33 103:0.5 105:0.5 107:1.0 108:0.33 109:0.25 110:0.5 112:0.2 113:0.29 115:0.5 116:0.2 117:0.4 118:0.4 120:1.0 121:0.2 122:0.33 123:0.33 124:0.5 125:0.5 126:0.29 127:1.0 128:0.14 129:0.5 130:0.29 131:1.0 132:1.0 134:0.25 137:0.2 138:0.25 139:1.0 140:0.17 142:0.2 143:1.0 146:0.2 
-1.0 -0.7147243121809194 -1.0 -1.0 -1.0 1.0 1.0 1:0.25 3:1.0 5:0.83 6:1.0 8:1.0 9:0.67 11:0.67 12:0.8 13:1.0 14:0.67 15:0.86 17:0.67 19:0.5 20:0.25 21:0.83 23:0.5 24:0.33 25:0.5 26:1.0 27:0.5 28:0.25 32:1.0 33:0.83 39:1.0 41:1.0 42:1.0 44:1.0 45:0.6 46:0.33 47:1.0 52:1.0 54:0.67 55:0.5 57:0.33 59:0.83 60:1.0 63:0.86 66:0.33 70:0.5 71:0.5 72:1.0 73:1.0 76:1.0 79:0.33 80:0.25 81:0.67 85:0.75 86:0.25 89:1.0 91:1.0 92:0.83 94:0.5 96:0.5 97:0.33 98:0.75 99:0.5 102:0.67 103:0.5 105:1.0 107:1.0 109:0.5 113:0.14 115:0.25 117:0.2 118:0.2 122:0.17 123:0.33 124:0.5 125:0.5 126:0.14 127:1.0 129:0.75 130:0.14 131:1.0 132:1.0 139:1.0 143:0.86 146:0.2 
-1.0 -0.28527568781908064 -1.0 -1.0 -1.0 1.0 1.0 1:0.5 2:0.2 3:1.0 5:0.5 6:0.67 8:0.2 9:0.67 11:1.0 12:0.4 13:0.5 14:1.0 15:0.29 16:0.25 17:1.0 18:0.5 19:0.5 20:0.5 21:0.17 22:0.4 23:0.5 24:0.33 25:1.0 26:1.0 27:1.0 28:0.5 29:0.4 32:1.0 33:0.5 35:0.2 38:0.33 39:1.0 41:1.0 42:1.0 44:0.67 45:1.0 46:0.67 47:1.0 48:0.33 50:0.5 51:0.2 52:0.5 54:1.0 55:1.0 57:0.33 58:0.33 59:0.67 60:0.75 63:0.57 66:0.33 67:0.33 68:0.29 69:0.5 70:0.5 71:0.5 72:0.33 73:1.0 74:0.2 75:0.4 76:0.5 79:0.33 80:0.5 81:0.33 85:1.0 86:0.25 88:0.67 89:0.33 91:1.0 92:0.5 93:0.4 94:1.0 95:0.4 96:1.0 97:0.67 98:1.0 99:0.5 100:0.4 101:0.17 102:1.0 103:0.5 105:0.75 107:1.0 108:0.33 109:1.0 110:0.5 112:0.2 113:0.29 115:0.5 116:0.2 117:0.4 118:0.4 120:1.0 121:0.2 122:0.33 123:0.67 124:1.0 125:0.5 126:0.29 127:1.0 128:0.14 129:1.0 130:0.29 131:1.0 132:1.0 134:0.25 137:0.2 138:0.25 139:1.0 140:0.17 142:0.2 143:0.29 146:0.2 
-1.0 -1.0 -1.0 -1.0 -1.0 1.0 1.0 1:0.5 2:0.2 3:1.0 5:0.33 6:0.67 8:0.4 9:0.67 11:1.0 12:0.2 13:1.0 14:0.67 15:0.43 16:0.25 17:1.0 18:0.5 19:0.5 20:0.5 21:0.33 22:0.2 23:0.5 24:0.33 25:1.0 26:1.0 27:0.5 28:0.5 29:0.2 32:1.0 33:0.33 35:0.2 38:0.17 39:1.0 41:1.0 42:1.0 44:0.67 45:1.0 46:0.67 47:1.0 48:0.33 50:0.5 51:0.2 52:0.5 54:1.0 55:1.0 57:0.33 58:0.17 59:0.5 60:0.75 63:0.43 66:0.33 67:0.17 68:0.14 71:0.5 72:0.67 73:1.0 74:0.2 75:0.2 76:0.5 79:0.33 80:0.25 81:0.67 85:1.0 86:0.25 88:0.33 89:0.5 91:1.0 92:0.33 93:0.2 94:0.5 95:0.2 96:0.5 97:0.33 98:1.0 99:0.5 100:0.2 101:0.17 102:1.0 103:0.5 105:0.75 107:1.0 109:1.0 113:0.14 115:0.25 117:0.2 118:0.2 122:0.17 123:0.67 124:1.0 125:0.5 126:0.14 127:1.0 129:1.0 130:0.14 131:1.0 132:1.0 139:1.0 143:1.0 146:0.2 
-1.0 -1.0 -0.7899054034212156 -1.0 -1.0 1.0 1.0 1:0.5 2:0.2 3:1.0 5:0.33 6:0.67 8:0.4 9:0.67 11:1.0 12:0.2 13:1.0 14:0.67 15:0.43 16:0.25 17:1.0 18:0.5 19:0.5 20:0.5 21:0.33 22:0.2 23:0.5 24:0.33 25:1.0 26:1.0 27:0.5 28:0.5 29:0.2 32:1.0 33:0.33 35:0.2 38:0.17 39:1.0 41:1.0 42:1.0 44:0.67 45:1.0 46:0.67 47:1.0 48:0.33 50:0.5 51:0.2 52:0.5 54:1.0 55:1.0 57:0.33 58:0.17 59:0.5 60:0.75 63:0.43 66:0.33 67:0.17 68:0.14 71:0.5 72:0.67 73:1.0 74:0.2 75:0.2 76:0.5 79:0.33 80:0.25 81:0.67 85:1.0 86:0.25 88:0.33 89:0.5 91:1.0 92:0.33 93:0.2 94:0.5 95:0.2 96:0.5 97:0.33 98:1.0 99:0.5 100:0.2 101:0.17 102:1.0 103:0.5 105:0.75 107:1.0 109:1.0 113:0.14 115:0.25 117:0.2 118:0.2 122:0.17 123:0.67 124:1.0 125:0.5 126:0.14 127:1.0 129:1.0 130:0.14 131:1.0 132:1.0 139:1.0 143:1.0 146:0.2 
-0.0 -0.0 -0.0 -1.0 -1.0 0.0 1.0 1:0.25 3:1.0 5:0.83 6:1.0 8:1.0 9:0.67 11:1.0 12:0.8 13:1.0 14:0.67 15:0.86 17:0.67 19:0.5 20:0.25 21:0.83 23:0.5 24:0.33 25:0.75 26:1.0 27:0.5 28:0.25 32:1.0 33:0.83 39:1.0 41:1.0 42:1.0 44:1.0 45:0.8 46:0.33 47:1.0 52:1.0 54:0.67 55:0.5 57:0.33 59:0.83 60:1.0 63:0.86 66:0.33 70:0.5 71:0.5 72:1.0 73:1.0 76:1.0 79:0.33 80:0.25 81:0.67 85:0.75 86:0.25 89:1.0 91:1.0 92:0.83 94:0.5 96:0.5 97:0.33 98:1.0 99:0.5 102:1.0 103:0.5 105:1.0 107:1.0 109:0.75 113:0.14 115:0.25 117:0.2 118:0.2 122:0.17 123:0.67 124:1.0 125:0.5 126:0.14 127:1.0 129:1.0 130:0.14 131:1.0 132:1.0 139:1.0 143:1.0 146:0.2 
-1.0 -1.0 -1.0 -1.0 -1.0 -1.0 1.0 1:0.25 5:0.33 6:0.67 10:0.25 11:0.33 12:0.2 19:0.5 20:0.25 24:0.33 25:0.25 26:0.5 28:0.25 31:0.2 33:0.17 34:0.5 36:0.5 40:0.33 41:1.0 43:0.33 44:0.33 45:0.2 46:0.33 47:0.33 52:0.5 54:0.33 57:0.33 59:0.17 60:0.5 62:1.0 63:0.29 64:1.0 65:0.5 66:0.33 70:0.5 71:0.5 76:0.5 77:0.5 78:0.17 79:0.33 80:0.25 85:0.25 86:0.25 91:1.0 92:0.33 96:0.5 97:0.33 98:0.25 99:0.5 102:0.33 103:0.5 105:0.5 109:0.25 111:0.25 112:0.2 113:0.43 115:0.75 116:0.2 117:0.4 118:0.4 119:1.0 122:0.33 123:0.33 124:0.5 125:1.0 126:0.43 127:1.0 128:0.14 129:0.25 130:0.29 131:1.0 132:0.5 134:0.25 136:0.2 140:0.17 142:0.2 143:0.14 146:0.6 
-1.0 -0.0 -1.0 -0.7121513508494536 -0.1414585450929464 -0.0 1.0 1:0.25 4:1.0 5:0.17 6:0.33 7:1.0 9:0.33 10:1.0 12:0.2 15:0.14 19:0.5 20:0.25 21:0.17 23:0.5 24:0.67 28:0.25 30:1.0 31:1.0 33:0.17 34:1.0 36:1.0 37:1.0 40:1.0 43:1.0 44:0.33 48:0.33 49:1.0 52:0.5 53:0.5 56:1.0 57:0.33 60:0.25 61:1.0 62:1.0 63:0.14 64:1.0 65:1.0 66:0.33 70:0.5 76:0.5 77:1.0 78:1.0 79:0.33 80:0.25 81:0.33 82:1.0 83:1.0 86:0.5 90:1.0 92:0.17 103:0.5 104:1.0 105:0.25 106:1.0 108:0.67 110:0.5 111:1.0 112:0.2 113:0.29 114:1.0 115:0.5 116:0.2 117:0.2 118:0.2 119:1.0 122:0.17 125:0.5 126:0.57 128:0.14 130:0.43 134:0.25 135:1.0 136:0.2 140:0.17 141:1.0 142:0.2 145:1.0 146:0.4 
-1.0 -0.0 -0.08402558746196766 -1.0 -1.0 -0.0 1.0 4:1.0 9:0.33 10:0.5 15:0.14 20:0.25 21:0.17 23:0.5 31:0.6 34:0.5 36:0.5 40:0.33 43:0.33 49:0.5 61:0.8 65:0.5 66:0.33 78:0.67 81:0.33 82:0.75 83:0.5 86:0.25 90:0.67 104:1.0 108:0.33 110:0.5 111:0.75 114:1.0 126:0.14 130:0.14 135:1.0 141:1.0 145:1.0 
-1.0 -1.0 -1.0 -1.0 -1.0 -1.0 1.0 1:0.25 5:0.17 6:0.33 10:0.25 11:0.33 19:0.5 20:0.25 24:0.33 25:0.25 26:0.5 28:0.25 31:0.2 34:0.5 36:0.5 40:0.33 41:1.0 43:0.33 45:0.2 46:0.33 47:0.33 54:0.33 57:0.33 59:0.17 60:0.25 63:0.14 64:1.0 65:0.5 66:0.33 71:0.5 77:0.5 78:0.17 79:0.33 80:0.25 85:0.25 86:0.25 91:1.0 92:0.17 96:0.5 97:0.33 98:0.25 99:0.5 102:0.33 103:0.5 104:1.0 105:0.25 109:0.25 111:0.25 113:0.29 114:0.5 115:0.5 117:0.4 118:0.2 119:1.0 122:0.17 123:0.33 124:0.5 125:1.0 126:0.29 127:1.0 129:0.25 130:0.29 131:1.0 132:0.5 135:0.5 143:0.14 145:1.0 146:0.4 
-1.0 -0.7748074529322194 -1.0 -1.0 -1.0 -1.0 1.0 1:0.25 4:1.0 5:0.17 6:0.33 10:0.5 11:0.33 19:0.5 20:0.5 24:0.33 25:0.25 26:0.5 28:0.25 31:1.0 34:1.0 36:1.0 40:0.33 41:1.0 43:0.67 45:0.2 46:0.33 47:0.33 49:0.5 54:0.33 57:0.33 59:0.17 60:0.25 61:1.0 63:0.14 64:1.0 65:0.5 66:0.67 71:0.5 77:0.5 78:1.0 79:0.33 80:0.25 82:1.0 85:0.25 86:0.5 90:0.33 91:1.0 92:0.17 96:0.5 97:0.33 98:0.25 99:0.5 102:0.33 103:0.5 105:0.25 108:0.33 109:0.25 110:0.5 111:1.0 113:0.29 114:0.5 115:0.5 117:0.4 118:0.2 119:1.0 122:0.17 123:0.33 124:0.5 125:1.0 126:0.57 127:1.0 129:0.25 130:0.57 131:1.0 132:0.5 141:0.5 143:0.14 146:0.4 
-1.0 -0.9403754649478345 -1.0 -1.0 -1.0 -0.9999999999999999 1.0 4:1.0 9:0.33 10:0.5 15:0.14 20:0.25 21:0.17 23:0.5 31:0.6 34:0.5 36:0.5 40:0.33 43:0.33 49:0.5 61:0.8 65:0.5 66:0.33 78:0.67 81:0.33 82:0.75 83:0.5 86:0.25 90:0.67 104:1.0 108:0.33 110:0.5 111:0.75 114:1.0 126:0.14 130:0.14 135:1.0 141:1.0 145:1.0 
-1.0 -0.0 -1.0 -0.929767127750514 -0.989745492811442 -0.0 1.0 1:0.25 4:1.0 5:0.17 6:0.33 7:1.0 9:0.33 10:1.0 12:0.2 15:0.14 19:0.5 20:0.25 21:0.17 23:0.5 24:0.67 28:0.25 30:1.0 31:1.0 33:0.17 34:1.0 36:1.0 37:1.0 40:1.0 43:1.0 44:0.33 48:0.33 49:1.0 52:0.5 53:0.5 56:1.0 57:0.33 60:0.25 61:1.0 62:1.0 63:0.14 64:1.0 65:1.0 66:0.33 70:0.5 76:0.5 77:1.0 78:1.0 79:0.33 80:0.25 81:0.33 82:1.0 83:1.0 86:0.5 90:1.0 92:0.17 103:0.5 104:1.0 105:0.25 106:1.0 108:0.67 110:0.5 111:1.0 112:0.2 113:0.29 114:1.0 115:0.5 116:0.2 117:0.2 118:0.2 119:1.0 122:0.17 125:0.5 126:0.57 128:0.14 130:0.43 134:0.25 135:1.0 136:0.2 140:0.17 141:1.0 142:0.2 145:1.0 146:0.4 
-1.0 -1.0 -1.0 -1.0 -1.0 -1.0 1.0 1:0.25 5:0.33 6:0.67 10:0.25 11:0.33 12:0.2 19:0.5 20:0.25 24:0.33 25:0.25 26:0.5 28:0.25 31:0.2 33:0.17 34:0.5 36:0.5 40:0.33 41:1.0 43:0.33 44:0.33 45:0.2 46:0.33 47:0.33 52:0.5 54:0.33 57:0.33 59:0.17 60:0.5 62:1.0 63:0.29 64:1.0 65:0.5 66:0.33 70:0.5 71:0.5 76:0.5 77:0.5 78:0.17 79:0.33 80:0.25 85:0.25 86:0.25 91:1.0 92:0.33 96:0.5 97:0.33 98:0.25 99:0.5 102:0.33 103:0.5 105:0.5 109:0.25 111:0.25 112:0.2 113:0.43 115:0.75 116:0.2 117:0.4 118:0.4 119:1.0 122:0.33 123:0.33 124:0.5 125:1.0 126:0.43 127:1.0 128:0.14 129:0.25 130:0.29 131:1.0 132:0.5 134:0.25 136:0.2 140:0.17 142:0.2 143:0.14 146:0.6 
-1.0 -0.2848170821199461 -1.0 -1.0 -1.0 -1.0 1.0 1:0.75 2:0.2 4:1.0 5:0.17 6:0.33 10:0.5 11:0.33 16:0.25 17:0.33 18:1.0 19:0.5 20:1.0 22:0.2 24:0.33 25:0.5 26:0.5 28:0.75 29:0.2 31:0.6 34:1.0 35:0.2 36:1.0 38:0.17 40:0.33 41:1.0 43:0.67 45:0.4 46:1.0 47:0.33 48:0.67 49:0.5 50:1.0 51:0.2 53:0.5 54:0.67 55:0.5 57:0.67 58:0.17 59:0.17 60:0.25 61:0.4 63:0.14 64:1.0 65:0.5 66:1.0 67:0.17 68:0.14 69:0.5 71:1.0 74:0.2 75:0.2 77:0.5 78:0.5 79:0.67 80:0.5 82:0.5 84:1.0 85:0.5 86:0.75 88:0.67 90:0.33 91:1.0 92:0.17 93:0.2 95:0.2 96:0.5 97:0.67 98:0.25 99:0.5 100:0.2 101:0.17 102:0.33 103:0.5 104:1.0 105:0.25 108:0.33 109:0.5 110:0.5 111:0.5 113:0.43 114:1.0 115:0.5 117:0.4 118:0.2 119:1.0 122:0.33 123:0.33 124:0.5 125:1.0 126:0.71 127:1.0 129:0.25 130:0.57 131:1.0 132:0.5 135:0.5 141:0.5 143:0.14 145:1.0 146:0.4 
-0.0 -0.0 -1.0 -0.0 -0.0 -0.0 -0.0 1:0.25 5:0.33 6:0.67 10:0.25 11:0.33 12:0.2 19:0.5 20:0.25 24:0.33 25:0.25 26:0.5 28:0.25 31:0.2 33:0.17 34:0.5 36:0.5 40:0.33 41:1.0 43:0.33 44:0.33 45:0.2 46:0.33 47:0.33 52:0.5 54:0.33 57:0.33 59:0.17 60:0.5 62:1.0 63:0.29 64:1.0 65:0.5 66:0.33 70:0.5 71:0.5 76:0.5 77:0.5 78:0.17 79:0.33 80:0.25 85:0.25 86:0.25 91:1.0 92:0.33 96:0.5 97:0.33 98:0.25 99:0.5 102:0.33 103:0.5 105:0.5 109:0.25 111:0.25 112:0.2 113:0.43 115:0.75 116:0.2 117:0.4 118:0.4 119:1.0 122:0.33 123:0.33 124:0.5 125:1.0 126:0.43 127:1.0 128:0.14 129:0.25 130:0.29 131:1.0 132:0.5 134:0.25 136:0.2 140:0.17 142:0.2 143:0.14 146:0.6 
-1.0 -0.0 -1.0 -0.0 -1.0 -0.7046996890300901 -1.0 1:0.75 2:0.2 4:1.0 5:0.5 6:0.67 10:0.5 11:0.33 12:0.4 14:0.33 16:0.25 17:0.33 18:0.5 19:0.5 20:1.0 22:0.4 24:0.33 25:0.5 26:0.5 27:0.5 28:0.75 29:0.4 31:0.6 33:0.33 34:1.0 35:0.2 36:1.0 38:0.33 40:0.33 41:1.0 43:0.67 44:0.33 45:0.4 46:1.0 47:0.33 48:0.67 49:0.5 50:1.0 51:0.2 52:0.5 53:0.5 54:0.67 55:0.5 57:0.67 58:0.33 59:0.33 60:0.5 61:0.4 63:0.43 64:1.0 65:0.5 66:1.0 67:0.33 68:0.29 69:1.0 70:1.0 71:1.0 74:0.2 75:0.4 76:0.5 77:0.5 78:0.5 79:0.67 80:0.75 82:0.5 84:1.0 85:0.5 86:0.75 88:1.0 90:0.33 91:1.0 92:0.5 93:0.4 94:0.5 95:0.4 96:1.0 97:1.0 98:0.25 99:0.5 100:0.4 101:0.17 102:0.33 103:0.5 104:1.0 105:0.5 108:0.67 109:0.5 110:1.0 111:0.5 113:0.43 114:1.0 115:0.5 117:0.4 118:0.2 119:1.0 120:1.0 122:0.33 123:0.33 124:0.5 125:1.0 126:0.71 127:1.0 129:0.25 130:0.57 131:1.0 132:0.5 135:0.5 141:0.5 143:0.14 145:1.0 146:0.4 
-0.4754533694700933 -0.0 -0.0 -0.0 -0.0 -0.0 -0.0 1:0.25 4:1.0 5:0.17 6:0.33 10:0.5 11:0.33 19:0.5 20:0.5 24:0.33 25:0.25 26:0.5 28:0.25 31:1.0 34:1.0 36:1.0 40:0.33 41:1.0 43:0.67 45:0.2 46:0.33 47:0.33 49:0.5 54:0.33 57:0.33 59:0.17 60:0.25 61:1.0 63:0.14 64:1.0 65:0.5 66:0.67 71:0.5 77:0.5 78:1.0 79:0.33 80:0.25 82:1.0 85:0.25 86:0.5 90:0.33 91:1.0 92:0.17 96:0.5 97:0.33 98:0.25 99:0.5 102:0.33 103:0.5 105:0.25 108:0.33 109:0.25 110:0.5 111:1.0 113:0.29 114:0.5 115:0.5 117:0.4 118:0.2 119:1.0 122:0.17 123:0.33 124:0.5 125:1.0 126:0.57 127:1.0 129:0.25 130:0.57 131:1.0 132:0.5 141:0.5 143:0.14 146:0.4 
-1.0 -0.0 -1.0 -0.0 -0.0 -0.0 -1.0 4:1.0 9:0.33 10:0.75 15:0.14 20:0.25 21:0.17 23:0.5 31:1.0 34:1.0 36:1.0 40:0.67 43:0.67 49:0.5 61:1.0 64:1.0 65:1.0 66:0.33 77:0.5 78:1.0 81:0.33 82:1.0 83:0.5 86:0.25 90:0.67 104:1.0 108:0.33 110:0.5 111:1.0 112:0.2 113:0.29 114:1.0 115:0.5 116:0.2 117:0.4 118:0.2 119:1.0 121:0.2 122:0.17 125:0.5 126:0.57 128:0.14 130:0.57 134:0.25 135:1.0 137:0.2 138:0.25 140:0.17 141:1.0 142:0.2 145:1.0 146:0.2 
-1.0 -0.0 -0.0 -0.0 -0.0 -0.0 -0.05695796825593422 1:0.25 4:1.0 5:0.17 6:0.33 10:0.5 11:0.33 19:0.5 20:0.5 24:0.33 25:0.25 26:0.5 28:0.25 31:1.0 34:1.0 36:1.0 40:0.33 41:1.0 43:0.67 45:0.2 46:0.33 47:0.33 49:0.5 54:0.33 57:0.33 59:0.17 60:0.25 61:1.0 63:0.14 64:1.0 65:0.5 66:0.67 71:0.5 77:0.5 78:1.0 79:0.33 80:0.25 82:1.0 85:0.25 86:0.5 90:0.33 91:1.0 92:0.17 96:0.5 97:0.33 98:0.25 99:0.5 102:0.33 103:0.5 105:0.25 108:0.33 109:0.25 110:0.5 111:1.0 113:0.29 114:0.5 115:0.5 117:0.4 118:0.2 119:1.0 122:0.17 123:0.33 124:0.5 125:1.0 126:0.57 127:1.0 129:0.25 130:0.57 131:1.0 132:0.5 141:0.5 143:0.14 146:0.4 
-1.0 -0.0 -0.7829091898923438 -0.0 -0.8090431998445157 -0.0 -1.0 4:1.0 9:0.33 10:0.5 15:0.14 20:0.25 21:0.17 23:0.5 31:0.8 34:0.5 36:0.5 40:0.33 43:0.33 49:0.5 61:1.0 62:1.0 65:0.5 66:0.33 78:0.83 81:0.33 82:1.0 83:0.5 86:0.25 90:0.67 108:0.33 110:0.5 111:0.75 112:0.2 113:0.14 114:0.5 115:0.25 116:0.2 118:0.2 122:0.17 126:0.43 128:0.14 130:0.29 134:0.25 135:0.5 136:0.2 140:0.17 141:1.0 142:0.2 146:0.2 
-0.0 -0.0 -0.0 -1.0 -0.0 -0.0 -0.0 1:0.25 10:0.25 24:0.33 30:1.0 37:0.2 40:0.33 43:0.33 49:0.5 56:0.2 57:0.33 77:0.5 80:0.25 83:0.5 86:0.25 90:0.33 103:0.5 106:0.17 108:0.33 
-0.5126057657978415 -0.0 -0.0 -1.0 -1.0 -0.0 -0.0 1:0.25 10:0.25 24:0.33 30:1.0 37:0.2 40:0.33 43:0.33 49:0.5 56:0.2 57:0.33 77:0.5 80:0.25 83:0.5 86:0.25 90:0.33 103:0.5 106:0.17 108:0.33 
-0.23719401251591418 -0.1022134577867636 -0.0 -1.0 -0.0 -0.0 -1.0 1:0.25 5:0.17 6:0.33 10:0.25 11:0.33 19:0.5 20:0.25 24:0.33 25:0.25 26:0.5 28:0.25 31:0.2 34:0.5 36:0.5 40:0.33 41:1.0 43:0.33 45:0.2 46:0.33 47:0.33 54:0.33 57:0.33 59:0.17 60:0.25 63:0.14 64:1.0 65:0.5 66:0.33 71:0.5 77:0.5 78:0.17 79:0.33 80:0.25 85:0.25 86:0.25 91:1.0 92:0.17 96:0.5 97:0.33 98:0.25 99:0.5 102:0.33 103:0.5 104:1.0 105:0.25 109:0.25 111:0.25 113:0.29 114:0.5 115:0.5 117:0.4 118:0.2 119:1.0 122:0.17 123:0.33 124:0.5 125:1.0 126:0.29 127:1.0 129:0.25 130:0.29 131:1.0 132:0.5 135:0.5 143:0.14 145:1.0 146:0.4 
-1.0 -0.0 -0.40086500910734807 -0.0 -0.0 -0.0 -1.0 1:0.25 4:1.0 5:0.17 6:0.33 10:0.5 11:0.33 19:0.5 20:0.5 24:0.33 25:0.25 26:0.5 28:0.25 31:1.0 34:1.0 36:1.0 40:0.33 41:1.0 43:0.67 45:0.2 46:0.33 47:0.33 49:0.5 54:0.33 57:0.33 59:0.17 60:0.25 61:1.0 63:0.14 64:1.0 65:0.5 66:0.67 71:0.5 77:0.5 78:1.0 79:0.33 80:0.25 82:1.0 85:0.25 86:0.5 90:0.33 91:1.0 92:0.17 96:0.5 97:0.33 98:0.25 99:0.5 102:0.33 103:0.5 105:0.25 108:0.33 109:0.25 110:0.5 111:1.0 113:0.29 114:0.5 115:0.5 117:0.4 118:0.2 119:1.0 122:0.17 123:0.33 124:0.5 125:1.0 126:0.57 127:1.0 129:0.25 130:0.57 131:1.0 132:0.5 141:0.5 143:0.14 146:0.4 
-1.0 -0.0 -1.0 -1.0 -0.0 -0.0 -0.049549987070447124 1:0.5 2:0.2 4:1.0 5:0.33 6:0.33 10:0.5 11:0.33 12:0.2 14:0.33 16:0.25 17:0.33 18:0.5 19:0.5 20:0.75 22:0.4 24:0.33 25:0.5 26:0.5 27:0.5 28:0.5 29:0.4 31:0.6 33:0.17 34:1.0 35:0.2 36:1.0 38:0.33 40:0.33 41:1.0 43:0.67 45:0.4 46:0.67 47:0.33 48:0.33 49:0.5 50:0.5 51:0.2 54:0.67 55:0.5 57:0.33 58:0.33 59:0.33 60:0.25 61:0.4 63:0.29 64:1.0 65:0.5 66:0.67 67:0.33 68:0.29 69:0.5 70:0.5 71:0.5 74:0.2 75:0.4 77:0.5 78:0.5 79:0.33 80:0.5 82:0.5 85:0.5 86:0.5 88:0.67 90:0.33 91:1.0 92:0.33 93:0.4 94:0.5 95:0.4 96:1.0 97:0.67 98:0.25 99:0.5 100:0.4 101:0.17 102:0.33 103:0.5 104:1.0 105:0.25 108:0.67 109:0.5 110:1.0 111:0.5 113:0.29 114:1.0 115:0.5 117:0.4 118:0.2 119:1.0 120:1.0 122:0.17 123:0.33 124:0.5 125:1.0 126:0.57 127:1.0 129:0.25 130:0.57 131:1.0 132:0.5 135:0.5 141:0.5 143:0.14 145:1.0 146:0.4 
-0.942138660784824 -0.0 -0.0 -0.0 -0.0 -0.0 -1.0 1:0.25 4:1.0 5:0.17 6:0.33 10:0.5 11:0.33 19:0.5 20:0.5 24:0.33 25:0.25 26:0.5 28:0.25 31:1.0 34:1.0 36:1.0 40:0.33 41:1.0 43:0.67 45:0.2 46:0.33 47:0.33 49:0.5 54:0.33 57:0.33 59:0.17 60:0.25 61:1.0 63:0.14 64:1.0 65:0.5 66:0.67 71:0.5 77:0.5 78:1.0 79:0.33 80:0.25 82:1.0 85:0.25 86:0.5 90:0.33 91:1.0 92:0.17 96:0.5 97:0.33 98:0.25 99:0.5 102:0.33 103:0.5 105:0.25 108:0.33 109:0.25 110:0.5 111:1.0 113:0.29 114:0.5 115:0.5 117:0.4 118:0.2 119:1.0 122:0.17 123:0.33 124:0.5 125:1.0 126:0.57 127:1.0 129:0.25 130:0.57 131:1.0 132:0.5 141:0.5 143:0.14 146:0.4 
-0.0 -0.0 -0.0 -1.0 -0.0 -0.0 -0.0 1:0.5 5:0.17 6:0.33 7:1.0 10:0.25 11:0.33 19:1.0 20:0.25 24:1.0 25:0.25 26:0.5 28:0.5 30:1.0 37:1.0 40:0.33 41:1.0 43:0.33 45:0.2 46:0.33 47:0.33 48:0.33 49:0.5 53:0.5 54:0.33 56:1.0 57:0.67 59:0.17 60:0.25 63:0.14 66:0.33 71:0.5 77:0.5 79:0.67 80:0.5 83:0.5 85:0.25 86:0.5 90:0.33 91:1.0 92:0.17 96:0.5 97:0.33 98:0.25 99:0.5 102:0.33 103:1.0 105:0.25 106:1.0 108:0.33 109:0.25 113:0.14 115:0.25 117:0.2 118:0.2 122:0.17 123:0.33 124:0.5 125:0.5 126:0.14 127:1.0 129:0.25 130:0.14 131:1.0 132:0.5 143:0.14 146:0.2 
-1.0 -0.0 -0.0 -1.0 -0.1090334424925693 -0.0 -0.0 1:0.25 10:0.25 24:0.33 30:1.0 37:0.2 40:0.33 43:0.33 49:0.5 56:0.2 57:0.33 77:0.5 80:0.25 83:0.5 86:0.25 90:0.33 103:0.5 106:0.17 108:0.33 
-0.0 -0.6197847352402396 -1.0 -1.0 -0.0 -0.4229626220302192 -1.0 1:0.25 5:0.33 6:0.67 10:0.25 11:0.33 12:0.2 19:0.5 20:0.25 24:0.33 25:0.25 26:0.5 28:0.25 31:0.2 33:0.17 34:0.5 36:0.5 40:0.33 41:1.0 43:0.33 44:0.33 45:0.2 46:0.33 47:0.33 52:0.5 54:0.33 57:0.33 59:0.17 60:0.5 62:1.0 63:0.29 64:1.0 65:0.5 66:0.33 70:0.5 71:0.5 76:0.5 77:0.5 78:0.17 79:0.33 80:0.25 85:0.25 86:0.25 91:1.0 92:0.33 96:0.5 97:0.33 98:0.25 99:0.5 102:0.33 103:0.5 105:0.5 109:0.25 111:0.25 112:0.2 113:0.43 115:0.75 116:0.2 117:0.4 118:0.4 119:1.0 122:0.33 123:0.33 124:0.5 125:1.0 126:0.43 127:1.0 128:0.14 129:0.25 130:0.29 131:1.0 132:0.5 134:0.25 136:0.2 140:0.17 142:0.2 143:0.14 146:0.6 
-0.0 -0.0 -1.0 -0.9731651702131101 -0.7765389540803621 -0.0 -0.0 1:0.5 5:0.33 6:0.67 10:0.25 11:0.33 12:0.2 19:0.5 20:0.5 24:0.33 25:0.25 26:0.5 28:0.5 31:0.2 33:0.17 34:0.5 36:0.5 40:0.33 41:1.0 43:0.33 44:0.33 45:0.2 46:0.67 47:0.33 48:0.33 50:0.5 52:0.5 53:0.5 54:0.33 57:0.67 59:0.17 60:0.5 63:0.29 64:1.0 65:0.5 66:0.67 69:0.5 70:0.5 71:1.0 76:0.5 77:0.5 78:0.17 79:0.67 80:0.5 84:1.0 85:0.25 86:0.5 88:0.33 91:1.0 92:0.33 96:0.5 97:0.67 98:0.25 99:0.5 102:0.33 103:0.5 105:0.5 109:0.25 111:0.25 113:0.43 115:0.5 117:0.4 118:0.2 119:1.0 122:0.33 123:0.33 124:0.5 125:1.0 126:0.43 127:1.0 129:0.25 130:0.29 131:1.0 132:0.5 143:0.14 146:0.4 
-0.0 -0.0 -0.0 -1.0 -0.0 -0.0 -0.0 1:0.5 5:0.17 6:0.33 7:1.0 10:0.25 11:0.33 19:1.0 20:0.25 24:1.0 25:0.25 26:0.5 28:0.5 30:1.0 37:1.0 40:0.33 41:1.0 43:0.33 45:0.2 46:0.33 47:0.33 48:0.33 49:0.5 53:0.5 54:0.33 56:1.0 57:0.67 59:0.17 60:0.25 63:0.14 66:0.33 71:0.5 77:0.5 79:0.67 80:0.5 83:0.5 85:0.25 86:0.5 90:0.33 91:1.0 92:0.17 96:0.5 97:0.33 98:0.25 99:0.5 102:0.33 103:1.0 105:0.25 106:1.0 108:0.33 109:0.25 113:0.14 115:0.25 117:0.2 118:0.2 122:0.17 123:0.33 124:0.5 125:0.5 126:0.14 127:1.0 129:0.25 130:0.14 131:1.0 132:0.5 143:0.14 146:0.2 
-0.21327126491871123 -1.0 -0.0 -1.0 -1.0 -1.0 -0.0 1:0.25 5:0.33 6:0.33 11:0.67 12:0.2 14:0.33 19:0.5 20:0.25 22:0.2 24:0.33 25:0.5 26:0.5 27:0.5 28:0.25 29:0.2 33:0.17 38:0.17 41:1.0 45:0.4 46:0.33 47:0.33 54:0.33 57:0.33 58:0.17 59:0.33 60:0.25 63:0.29 66:0.33 67:0.17 68:0.14 69:0.5 70:0.5 71:0.5 75:0.2 79:0.33 80:0.5 85:0.25 86:0.25 88:0.33 91:1.0 92:0.33 93:0.2 94:0.5 95:0.2 96:1.0 97:0.67 98:0.5 99:0.5 100:0.2 102:0.67 103:0.5 105:0.25 108:0.33 109:0.5 110:0.5 113:0.14 115:0.25 117:0.2 118:0.2 120:1.0 122:0.17 123:0.67 124:1.0 125:0.5 126:0.14 127:1.0 129:0.5 130:0.14 131:1.0 132:0.5 143:0.29 146:0.2 
-1.0 -0.0 -0.0 -0.0 -1.0 -0.24175336580486967 -0.8621026280586076 1:0.25 5:0.17 6:0.33 7:0.8 9:0.33 10:0.5 12:0.2 15:0.14 19:0.5 21:0.17 23:0.5 24:0.67 28:0.25 30:1.0 33:0.17 37:1.0 40:0.67 43:0.33 44:0.33 48:0.33 49:0.5 52:0.5 53:0.5 56:0.8 57:0.33 60:0.25 63:0.14 65:0.5 70:0.5 76:0.5 77:0.5 79:0.33 80:0.25 81:0.33 83:1.0 86:0.25 90:0.67 92:0.17 103:0.5 105:0.25 106:0.83 108:0.33 135:0.5 141:0.5 143:0.14 
-1.0 -0.0 -0.0 -0.0684639269250327 -0.0 -0.0 -1.0 1:0.25 2:0.2 7:1.0 9:0.33 10:0.75 11:0.33 15:0.14 16:0.25 19:0.5 21:0.17 23:0.5 24:0.67 25:0.25 28:0.25 30:1.0 31:0.2 34:0.5 36:0.5 37:1.0 40:1.0 43:0.67 45:0.2 48:0.33 49:0.5 51:0.2 53:0.5 56:1.0 57:0.33 58:0.17 64:1.0 65:1.0 67:0.17 68:0.14 74:0.2 75:0.2 77:1.0 78:0.17 79:0.33 80:0.25 81:0.33 83:1.0 86:0.25 87:1.0 90:0.67 95:0.2 98:0.25 99:0.5 100:0.2 101:0.17 102:0.33 103:0.5 104:1.0 106:1.0 108:0.33 109:0.25 111:0.25 113:0.14 114:0.5 115:0.25 117:0.2 119:1.0 123:0.67 124:0.5 125:0.5 126:0.14 129:0.25 130:0.14 135:1.0 141:0.5 144:1.0 145:1.0 146:0.2 
-0.6270100041938914 -0.0 -0.0 -0.0 -0.295234807615873 -0.0 -0.0 1:0.5 7:1.0 9:0.33 10:0.5 15:0.14 19:0.5 20:0.25 21:0.17 23:0.5 24:0.67 28:0.5 30:1.0 37:1.0 40:0.67 43:0.33 46:0.33 48:0.67 49:0.5 50:0.5 53:1.0 56:1.0 57:0.67 65:0.5 66:0.33 69:0.5 71:0.5 77:0.5 79:0.67 80:0.5 81:0.33 83:1.0 84:1.0 86:0.5 88:0.33 90:0.67 97:0.33 103:0.5 106:1.0 108:0.33 113:0.14 122:0.17 126:0.14 135:0.5 141:0.5 
-0.0 -0.6251216548722268 -0.0 -0.7216556896432507 -0.0 -0.7019347065763502 -0.0 1:0.5 5:0.17 6:0.33 7:1.0 10:0.25 11:0.33 19:1.0 20:0.25 24:1.0 25:0.25 26:0.5 28:0.5 30:1.0 37:1.0 40:0.33 41:1.0 43:0.33 45:0.2 46:0.33 47:0.33 48:0.33 49:0.5 53:0.5 54:0.33 56:1.0 57:0.67 59:0.17 60:0.25 63:0.14 66:0.33 71:0.5 77:0.5 79:0.67 80:0.5 83:0.5 85:0.25 86:0.5 90:0.33 91:1.0 92:0.17 96:0.5 97:0.33 98:0.25 99:0.5 102:0.33 103:1.0 105:0.25 106:1.0 108:0.33 109:0.25 113:0.14 115:0.25 117:0.2 118:0.2 122:0.17 123:0.33 124:0.5 125:0.5 126:0.14 127:1.0 129:0.25 130:0.14 131:1.0 132:0.5 143:0.14 146:0.2 
-0.0 -1.0 -1.0 -1.0 -1.0 -1.0 -0.0 1:0.25 5:0.17 6:0.33 11:0.33 19:0.5 20:0.25 24:0.33 25:0.25 26:0.5 28:0.25 41:1.0 45:0.2 46:0.33 47:0.33 54:0.33 57:0.33 59:0.17 60:0.25 63:0.14 66:0.33 71:0.5 79:0.33 80:0.25 85:0.25 86:0.25 91:1.0 92:0.17 96:0.5 97:0.33 98:0.25 99:0.5 102:0.33 103:0.5 105:0.25 109:0.25 112:0.2 113:0.29 115:0.5 116:0.2 117:0.4 118:0.4 121:0.2 122:0.33 123:0.33 124:0.5 125:0.5 126:0.29 127:1.0 128:0.14 129:0.25 130:0.29 131:1.0 132:0.5 134:0.25 137:0.2 138:0.25 140:0.17 142:0.2 143:0.29 146:0.2 
-0.0 -0.7389836157689108 -0.0 -1.0 -1.0 -1.0 -0.0 1:0.25 5:0.67 6:0.67 9:0.33 11:0.67 12:0.4 14:0.67 15:0.14 17:0.33 19:0.5 20:0.25 22:0.2 24:0.33 25:0.5 26:0.5 27:0.5 28:0.25 29:0.2 32:1.0 33:0.5 38:0.17 39:0.5 41:1.0 44:0.67 45:0.4 46:0.33 47:0.67 52:0.5 54:0.33 57:0.33 58:0.17 59:0.5 60:0.75 63:0.57 66:0.33 67:0.17 68:0.14 69:0.5 70:1.0 71:0.5 75:0.2 76:0.5 79:0.33 80:0.5 81:0.33 85:0.5 86:0.25 88:0.33 89:0.17 91:1.0 92:0.5 93:0.2 94:0.5 95:0.2 96:1.0 97:0.67 98:0.5 99:0.5 100:0.2 102:0.33 103:0.5 105:0.75 107:1.0 108:0.33 109:0.25 110:0.5 113:0.14 115:0.25 117:0.2 118:0.2 120:1.0 122:0.17 123:0.33 124:0.5 125:0.5 126:0.14 127:1.0 129:0.5 130:0.14 131:1.0 132:1.0 139:1.0 143:0.29 146:0.2 
-0.9923269223187245 -0.2689939084226422 -0.0 -0.9588222084719277 -0.010149595966680029 -0.0 -0.0 1:0.25 10:0.25 24:0.33 30:1.0 37:0.2 40:0.33 43:0.33 49:0.5 56:0.2 57:0.33 77:0.5 80:0.25 83:0.5 86:0.25 90:0.33 103:0.5 106:0.17 108:0.33 
-0.0 -0.0 -0.8162258010003081 -0.2778930047466788 -0.0 -0.928649616558471 -0.03138941661501091 1:0.25 5:0.33 6:0.67 10:0.25 11:0.33 12:0.2 19:0.5 20:0.25 24:0.33 25:0.25 26:0.5 28:0.25 31:0.2 33:0.17 34:0.5 36:0.5 40:0.33 41:1.0 43:0.33 44:0.33 45:0.2 46:0.33 47:0.33 52:0.5 54:0.33 57:0.33 59:0.17 60:0.5 62:1.0 63:0.29 64:1.0 65:0.5 66:0.33 70:0.5 71:0.5 76:0.5 77:0.5 78:0.17 79:0.33 80:0.25 85:0.25 86:0.25 91:1.0 92:0.33 96:0.5 97:0.33 98:0.25 99:0.5 102:0.33 103:0.5 105:0.5 109:0.25 111:0.25 112:0.2 113:0.43 115:0.75 116:0.2 117:0.4 118:0.4 119:1.0 122:0.33 123:0.33 124:0.5 125:1.0 126:0.43 127:1.0 128:0.14 129:0.25 130:0.29 131:1.0 132:0.5 134:0.25 136:0.2 140:0.17 142:0.2 143:0.14 146:0.6 
-0.0 -0.0 -1.0 -1.0 -0.0 -0.0 -0.0 1:0.25 5:0.17 6:0.33 10:0.25 11:0.33 19:0.5 20:0.25 24:0.33 25:0.25 26:0.5 28:0.25 31:0.2 34:0.5 36:0.5 40:0.33 41:1.0 43:0.33 45:0.2 46:0.33 47:0.33 54:0.33 57:0.33 59:0.17 60:0.25 62:1.0 63:0.14 64:1.0 65:0.5 66:0.33 71:0.5 77:0.5 78:0.17 79:0.33 80:0.25 85:0.25 86:0.25 91:1.0 92:0.17 96:0.5 97:0.33 98:0.25 99:0.5 102:0.33 103:0.5 105:0.25 109:0.25 111:0.25 112:0.2 113:0.43 115:0.75 116:0.2 117:0.4 118:0.4 119:1.0 122:0.33 123:0.33 124:0.5 125:1.0 126:0.43 127:1.0 128:0.14 129:0.25 130:0.29 131:1.0 132:0.5 134:0.25 136:0.2 140:0.17 142:0.2 143:0.14 146:0.6 
-0.0 -0.6449026279092169 -0.0 -1.0 -1.0 -1.0 -0.0 1:0.5 2:0.2 3:1.0 5:0.5 6:0.67 8:0.2 9:0.67 10:0.25 11:1.0 12:0.4 13:0.5 14:1.0 15:0.29 16:0.25 17:1.0 18:0.5 19:0.5 20:0.5 21:0.17 22:0.4 23:0.5 24:0.33 25:1.0 26:1.0 27:1.0 28:0.5 29:0.4 31:0.2 32:1.0 33:0.5 34:0.5 35:0.2 36:0.5 38:0.33 39:1.0 40:0.33 41:1.0 42:1.0 43:0.33 44:0.67 45:1.0 46:0.67 47:1.0 48:0.33 50:0.5 51:0.2 52:0.5 54:1.0 55:1.0 57:0.33 58:0.33 59:0.67 60:0.75 63:0.57 64:1.0 65:0.5 66:0.33 67:0.33 68:0.29 69:0.5 70:0.5 71:0.5 72:0.33 73:1.0 74:0.2 75:0.4 76:0.5 77:0.5 78:0.17 79:0.33 80:0.5 81:0.33 85:1.0 86:0.25 88:0.67 89:0.33 91:1.0 92:0.5 93:0.4 94:1.0 95:0.4 96:1.0 97:0.67 98:1.0 99:0.5 100:0.4 101:0.17 102:1.0 103:0.5 105:0.75 107:1.0 108:0.33 109:1.0 110:0.5 111:0.25 113:0.29 115:0.5 117:0.4 118:0.2 119:1.0 120:1.0 122:0.17 123:0.67 124:1.0 125:1.0 126:0.29 127:1.0 129:1.0 130:0.29 131:1.0 132:1.0 139:1.0 143:0.43 146:0.4 
