svm_type c_svc
kernel_type rbf
gamma 0.005780346820809248
nr_class 8
total_sv 95
rho -0.6197298765182495 0.025861773343934608 0.12736347345245838 -0.06275319989878937 -0.09069431718185354 -0.8680396599808148 0.8985471834312918 0.4641263484954834 0.9766128063201904 0.9668404253622548 0.0671587884426117 0.33616131544113154 1.0511082215318674 0.14400688726147953 0.06755913738842344 -0.10055679751616632 -0.29323226213455195 0.6437008497625447 -0.5422194004058838 -0.4695760584366599 -0.2263048238364187 0.6651190083850244 -0.8294801488969027 -0.11539995670318604 0.7280715088250033 0.012671397242774482 0.5591667814219548 0.9408154925099331
label 3 7 4 0 5 6 2 1
nr_sv 13 6 10 16 10 6 8 26
SV
1.0 1.0 1.0 1.0 0.9233010608758581 0.6745836643801125 1.0 4:0.33 5:1.0 7:0.6 8:0.5 9:0.67 10:0.2 11:1.0 12:0.33 15:0.5 16:0.33 17:0.25 18:1.0 24:0.33 25:1.0 28:0.67 29:0.33 31:0.67 34:0.33 36:1.0 38:0.25 39:1.0 40:0.4 42:0.17 44:0.25 45:0.67 47:0.5 48:0.33 51:0.5 54:0.33 55:0.17 56:0.33 57:0.6 58:0.33 59:0.33 60:0.33 64:0.67 66:0.14 71:0.25 72:0.67 74:0.25 75:0.75 78:0.17 81:0.33 82:0.33 84:1.0 86:0.71 87:0.5 91:0.5 92:0.17 93:1.0 96:0.25 99:0.5 100:0.5 102:0.67 103:0.25 104:0.25 105:0.33 108:0.25 109:1.0 110:0.2 113:1.0 116:0.5 122:0.71 123:1.0 124:1.0 125:0.17 126:0.25 128:0.5 130:1.0 131:0.8 134:0.57 136:0.5 138:0.4 139:0.2 140:1.0 142:0.5 143:0.5 145:0.4 147:0.17 148:0.33 151:0.33 153:0.25 154:1.0 155:1.0 156:0.14 157:0.43 158:0.5 160:1.0 161:0.5 163:0.2 164:0.33 165:0.33 166:0.2 167:0.8 169:0.6 171:0.25 172:0.5 173:0.5 
0.4709153829698003 1.0 1.0 1.0 0.0 0.1722741835416782 1.0 1:0.5 7:0.4 9:0.5 18:0.33 28:0.5 31:0.5 32:0.5 33:0.2 37:0.14 39:0.4 43:1.0 57:0.4 58:0.33 64:1.0 72:0.33 75:0.38 84:0.4 86:0.29 89:0.2 93:0.4 94:0.5 97:0.17 102:0.33 109:0.4 111:0.33 121:0.33 122:0.43 123:1.0 124:0.5 126:0.75 130:1.0 131:0.4 132:0.2 134:0.29 136:0.83 138:0.8 141:1.0 142:0.5 145:0.8 146:1.0 147:0.83 154:0.67 157:0.86 158:0.83 163:0.8 166:0.8 167:0.4 169:0.8 172:0.75 
0.0 0.5354086322930545 0.0 0.15906368620812972 0.0 0.10341737170631196 1.0 1:1.0 2:0.5 3:1.0 4:0.33 5:0.5 6:0.5 7:1.0 9:1.0 10:0.4 11:1.0 12:0.33 14:0.5 16:1.0 18:1.0 19:0.17 21:1.0 28:1.0 30:0.5 31:1.0 32:1.0 33:0.2 34:0.33 36:1.0 37:0.14 38:0.25 39:1.0 40:0.6 42:0.17 43:1.0 44:0.25 45:0.33 47:1.0 48:0.33 49:0.2 50:0.33 51:0.5 55:0.17 56:0.67 57:1.0 58:1.0 59:0.33 60:1.0 64:1.0 66:0.14 68:0.33 69:0.17 71:0.5 72:1.0 73:0.5 74:0.25 75:1.0 76:0.5 78:0.17 80:0.2 82:0.33 83:1.0 84:1.0 85:0.2 86:1.0 87:1.0 89:0.2 90:1.0 91:0.25 92:0.17 93:1.0 94:0.5 95:0.33 97:0.17 100:0.5 101:0.14 102:1.0 103:0.25 105:0.33 106:0.5 107:0.17 108:0.25 109:1.0 110:0.2 111:0.33 114:1.0 116:1.0 121:0.33 122:1.0 123:1.0 124:1.0 125:0.17 126:0.75 127:1.0 128:0.5 130:1.0 131:0.6 132:0.2 134:0.43 136:0.67 138:0.6 139:0.2 141:1.0 142:1.0 144:1.0 145:0.6 146:1.0 147:0.5 148:0.33 149:1.0 151:0.33 152:0.5 154:1.0 157:0.57 158:0.5 163:0.6 166:0.4 167:0.6 169:0.8 171:0.25 172:0.75 173:0.5 
0.0 1.0 0.41972311558818315 0.0 0.0 0.0 1.0 1:0.5 2:0.5 4:0.33 5:0.5 6:0.5 7:0.8 9:0.83 10:0.2 11:1.0 14:0.5 16:0.33 18:1.0 19:0.17 28:0.83 30:0.5 31:0.83 32:0.5 33:0.2 36:1.0 37:0.14 39:1.0 40:0.4 42:0.17 43:1.0 45:0.33 47:0.5 49:0.2 55:0.17 57:0.8 58:0.67 59:0.33 60:0.67 64:1.0 66:0.14 68:0.33 69:0.17 71:0.25 72:0.67 73:0.5 75:0.88 78:0.17 80:0.2 83:1.0 84:1.0 85:0.2 86:0.86 87:0.5 89:0.2 90:1.0 91:0.25 92:0.17 93:1.0 94:0.5 95:0.33 97:0.17 101:0.14 102:0.83 106:0.5 107:0.17 109:1.0 111:0.33 116:1.0 121:0.33 122:0.86 123:1.0 124:1.0 126:0.75 130:1.0 131:0.6 134:0.43 136:0.67 138:0.6 141:1.0 142:1.0 144:0.5 145:0.6 147:0.5 148:0.33 149:1.0 152:0.5 154:1.0 157:0.57 158:0.5 163:0.6 166:0.4 167:0.6 169:0.8 172:0.75 173:0.5 
0.0 0.0 1.0 1.0 0.23291597338657838 0.9934856095099495 1.0 1:0.5 2:0.5 4:0.33 5:0.5 6:0.5 7:0.2 9:0.17 10:0.2 11:1.0 14:0.5 16:0.33 18:0.17 19:0.17 28:0.33 30:0.5 31:0.33 32:0.5 33:0.2 36:1.0 37:0.14 39:0.2 40:0.4 42:0.17 43:1.0 45:0.33 47:0.5 49:0.2 55:0.17 57:0.4 58:0.67 59:0.33 60:0.67 64:0.33 66:0.14 68:0.33 69:0.17 71:0.25 72:0.33 73:0.5 75:0.25 78:0.17 80:0.2 83:1.0 84:0.2 85:0.2 86:0.29 87:0.5 89:0.2 90:1.0 91:0.25 92:0.17 94:0.5 95:0.33 97:0.17 101:0.14 102:0.17 106:0.5 107:0.17 109:0.2 111:0.33 116:1.0 121:0.33 122:0.29 124:0.5 126:0.75 131:0.2 134:0.14 136:0.33 138:0.4 141:1.0 142:1.0 144:0.5 145:0.4 146:1.0 147:0.5 148:0.33 149:1.0 152:0.5 154:0.33 157:0.29 158:0.17 163:0.6 166:0.4 167:0.2 169:0.4 172:0.5 173:0.5 
1.0 1.0 1.0 1.0 1.0 1.0 1.0 4:0.33 5:0.5 8:0.5 10:0.2 12:0.33 15:0.5 17:0.25 24:0.33 25:1.0 29:0.33 34:0.33 38:0.25 40:0.2 42:0.17 43:1.0 44:0.25 45:0.33 48:0.33 51:0.5 54:0.33 55:0.17 56:0.33 59:0.33 66:0.14 71:0.25 74:0.25 78:0.17 81:0.33 82:0.33 91:0.25 92:0.17 96:0.25 99:0.5 100:0.5 103:0.25 104:0.25 105:0.33 108:0.25 110:0.2 113:1.0 125:0.17 126:0.25 128:0.5 131:0.2 134:0.14 136:0.17 138:0.2 139:0.2 140:1.0 141:0.5 143:0.5 145:0.2 146:1.0 147:0.17 148:0.33 151:0.33 153:0.25 155:1.0 156:0.14 157:0.14 160:1.0 161:0.5 163:0.2 164:0.33 165:0.33 166:0.2 167:0.2 169:0.2 171:0.25 172:0.25 173:0.5 
0.0 0.2036960628654283 1.0 0.47306452816630745 0.0 1.0 1.0 1:0.5 2:0.5 4:0.33 5:0.5 6:0.5 7:0.4 9:0.5 10:0.2 11:1.0 14:0.5 16:0.33 18:0.5 19:0.17 28:0.67 30:0.5 31:0.67 32:0.5 33:0.2 36:1.0 37:0.14 39:0.6 40:0.4 42:0.17 43:1.0 45:0.33 47:0.5 49:0.2 55:0.17 57:0.6 58:0.67 59:0.33 60:0.67 64:1.0 66:0.14 68:0.33 69:0.17 71:0.25 72:0.67 73:0.5 75:0.5 78:0.17 80:0.2 83:1.0 84:0.6 85:0.2 86:0.43 87:0.5 89:0.2 90:1.0 91:0.25 92:0.17 93:0.4 94:0.5 95:0.33 97:0.17 101:0.14 102:0.33 106:0.5 107:0.17 109:0.6 111:0.33 116:1.0 121:0.33 122:0.57 123:1.0 124:1.0 126:1.0 130:1.0 131:0.6 134:0.43 136:1.0 138:1.0 141:1.0 142:1.0 144:0.5 145:1.0 147:1.0 148:0.33 149:1.0 152:0.5 154:1.0 157:1.0 158:1.0 163:1.0 166:1.0 167:0.6 169:1.0 172:1.0 173:0.5 
1.0 1.0 1.0 1.0 1.0 0.15314215207820928 1.0 1:0.5 2:0.5 4:0.33 5:0.5 6:0.5 7:0.2 9:0.17 10:0.2 11:1.0 12:0.33 14:0.5 16:0.33 18:0.17 19:0.17 28:0.33 30:0.5 31:0.33 32:0.5 33:0.2 34:0.33 36:1.0 37:0.14 39:0.2 40:0.4 42:0.17 43:1.0 44:0.25 45:0.33 47:0.5 49:0.2 51:0.5 55:0.17 57:0.4 58:0.67 59:0.33 60:0.67 64:0.33 66:0.14 68:0.33 69:0.17 71:0.25 72:0.33 73:0.5 74:0.25 75:0.25 78:0.17 80:0.2 83:1.0 84:0.2 85:0.2 86:0.29 87:0.5 89:0.2 90:1.0 91:0.25 92:0.17 94:0.5 95:0.33 97:0.17 101:0.14 102:0.17 103:0.25 105:0.33 106:0.5 107:0.17 109:0.2 110:0.2 111:0.33 116:1.0 121:0.33 122:0.29 124:0.5 126:0.75 127:1.0 128:0.5 131:0.2 132:0.2 134:0.14 136:0.33 138:0.4 141:1.0 142:1.0 144:1.0 145:0.4 146:1.0 147:0.5 148:0.33 149:1.0 152:0.5 154:0.33 157:0.29 158:0.17 163:0.6 166:0.4 167:0.2 169:0.4 172:0.5 173:0.5 
0.5290846170301997 1.0 1.0 1.0 1.0 0.0 1.0 1:0.5 2:0.5 4:0.33 5:0.5 6:0.5 7:0.2 9:0.17 10:0.2 11:1.0 14:0.5 16:0.33 18:0.17 19:0.17 28:0.33 30:0.5 31:0.33 32:0.5 33:0.2 36:1.0 37:0.14 39:0.2 40:0.4 42:0.17 45:0.33 47:0.5 49:0.2 55:0.17 57:0.4 58:0.67 59:0.33 60:0.67 64:0.33 66:0.14 68:0.33 69:0.17 71:0.25 72:0.33 73:0.5 75:0.25 78:0.17 80:0.2 83:1.0 84:0.2 85:0.2 86:0.29 87:0.5 89:0.2 90:1.0 91:0.25 92:0.17 94:0.5 95:0.33 97:0.17 101:0.14 102:0.17 106:0.5 107:0.17 109:0.2 111:0.33 116:1.0 121:0.33 122:0.29 124:0.5 126:0.5 131:0.2 132:0.2 134:0.14 136:0.17 138:0.2 141:0.5 142:1.0 144:0.5 145:0.2 146:1.0 147:0.33 148:0.33 149:1.0 152:0.5 154:0.33 157:0.14 158:0.17 163:0.4 166:0.2 167:0.2 169:0.2 172:0.25 173:0.5 
0.0 0.019434451435384827 0.0 0.0 0.0 1.0 1.0 1:0.5 5:0.5 7:0.8 9:0.83 11:1.0 16:0.33 18:1.0 28:0.83 31:0.83 32:0.5 33:0.2 36:1.0 37:0.14 39:1.0 40:0.2 43:1.0 45:0.33 47:0.5 57:0.8 58:0.67 60:0.33 64:1.0 72:0.67 75:0.88 84:1.0 86:0.86 87:0.5 89:0.2 91:0.25 93:1.0 94:0.5 97:0.17 102:0.83 109:1.0 111:0.33 116:0.5 121:0.33 122:0.86 123:1.0 124:1.0 126:1.0 130:1.0 131:0.6 132:0.2 134:0.43 136:1.0 138:1.0 141:1.0 142:1.0 145:1.0 146:1.0 147:1.0 154:1.0 157:1.0 158:1.0 163:1.0 166:1.0 167:0.6 169:1.0 172:1.0 
1.0 1.0 1.0 1.0 0.8246193094675841 0.9030970187837386 1.0 4:0.33 5:1.0 7:0.6 8:0.5 9:0.67 10:0.2 11:1.0 12:0.33 15:0.5 16:0.33 17:0.25 18:1.0 24:0.33 25:1.0 28:0.67 29:0.33 31:0.67 34:0.33 36:1.0 38:0.25 39:1.0 40:0.4 42:0.17 44:0.25 45:0.67 47:0.5 48:0.33 51:0.5 54:0.33 55:0.17 56:0.33 57:0.6 58:0.33 59:0.33 60:0.33 64:0.67 66:0.14 71:0.25 72:0.67 74:0.25 75:0.75 78:0.17 81:0.33 82:0.33 84:1.0 86:0.71 87:0.5 91:0.5 92:0.17 93:1.0 96:0.25 99:0.5 100:0.5 102:0.67 103:0.25 104:0.25 105:0.33 108:0.25 109:1.0 110:0.2 113:1.0 116:0.5 122:0.71 123:1.0 124:1.0 125:0.17 126:0.25 128:0.5 130:1.0 131:0.8 134:0.57 136:0.5 138:0.4 139:0.2 140:1.0 142:0.5 143:0.5 145:0.4 147:0.17 148:0.33 151:0.33 153:0.25 154:1.0 155:1.0 156:0.14 157:0.43 158:0.5 160:1.0 161:0.5 163:0.2 164:0.33 165:0.33 166:0.2 167:0.8 169:0.6 171:0.25 172:0.5 173:0.5 
1.0 1.0 1.0 1.0 1.0 1.0 1.0 2:0.5 3:0.17 4:0.67 5:0.5 6:0.5 8:0.5 10:0.4 12:0.33 14:0.5 15:0.5 16:0.33 17:0.25 19:0.17 21:0.2 24:0.33 25:1.0 29:0.33 30:0.5 32:0.5 34:0.33 38:0.25 40:0.4 42:0.33 44:0.25 45:0.33 47:0.5 48:0.33 49:0.2 50:0.33 51:0.5 54:0.33 55:0.33 56:0.67 59:0.67 60:0.33 66:0.29 68:0.33 69:0.17 71:0.5 73:0.5 74:0.25 76:0.5 78:0.33 79:1.0 80:0.2 81:0.33 82:0.67 83:1.0 85:0.2 90:1.0 91:0.25 92:0.33 95:0.33 96:0.25 99:0.5 100:0.5 101:0.14 103:0.25 104:0.25 105:0.33 106:0.5 107:0.17 108:0.5 110:0.2 113:1.0 116:0.5 125:0.33 128:0.5 129:0.17 131:0.2 133:0.2 134:0.29 139:0.4 140:1.0 143:1.0 144:0.5 148:0.67 149:1.0 151:0.67 152:0.5 153:0.5 155:1.0 156:0.14 160:1.0 161:0.5 164:0.67 165:0.67 167:0.4 168:0.25 170:0.5 171:0.5 173:1.0 
0.0 1.0 1.0 0.2292641998105622 0.0 1.0 1.0 1:1.0 3:1.0 4:0.33 5:0.5 7:1.0 9:1.0 10:0.4 11:1.0 16:1.0 18:1.0 21:1.0 23:1.0 27:0.5 28:1.0 31:1.0 32:1.0 33:0.2 36:1.0 37:0.14 38:0.5 39:1.0 40:0.6 45:0.67 47:1.0 48:0.67 50:0.67 56:0.67 57:1.0 58:1.0 60:0.67 64:1.0 68:0.33 71:0.5 72:1.0 75:1.0 76:1.0 81:0.33 82:0.67 84:1.0 86:1.0 87:1.0 89:0.2 91:0.5 93:1.0 94:0.5 97:0.17 99:0.5 100:0.5 102:1.0 106:0.5 108:0.5 109:1.0 111:0.33 114:1.0 116:0.5 121:0.33 122:1.0 123:1.0 124:1.0 125:0.17 126:0.5 130:1.0 131:0.6 134:0.57 136:0.5 138:0.4 139:0.2 141:0.5 142:1.0 145:0.4 147:0.33 151:0.33 153:0.25 154:1.0 157:0.43 158:0.5 163:0.4 164:0.33 166:0.2 167:0.6 169:0.6 171:0.25 172:0.5 
-1.0 1.0 1.0 1.0 1.0 1.0 1.0 4:0.33 5:0.5 6:0.5 8:0.5 10:0.2 12:1.0 13:0.5 15:1.0 17:0.5 20:1.0 24:0.67 25:1.0 29:0.67 33:0.2 34:0.67 35:0.33 37:0.14 38:0.25 40:0.2 41:0.2 42:0.17 44:0.75 45:0.33 48:0.33 51:1.0 52:0.17 54:0.67 55:0.33 56:0.33 59:0.33 61:0.5 62:1.0 65:0.33 66:0.29 67:0.5 71:0.25 73:0.5 74:0.75 77:0.5 78:0.33 81:0.33 82:0.33 88:0.5 89:0.2 91:0.25 92:0.33 94:0.5 95:0.33 96:0.5 97:0.17 98:0.5 99:0.5 100:0.5 103:0.5 104:0.5 105:0.67 108:0.25 110:0.6 112:0.33 113:1.0 115:1.0 117:0.5 119:0.25 121:0.33 125:0.17 127:1.0 128:1.0 131:0.2 134:0.14 139:0.2 140:1.0 143:0.5 144:0.5 148:0.33 151:0.33 153:0.25 155:1.0 156:0.29 159:0.17 160:1.0 161:0.5 164:0.33 165:0.33 167:0.2 171:0.25 173:0.5 
-1.0 1.0 1.0 1.0 1.0 1.0 1.0 4:0.33 5:0.5 8:0.5 10:0.2 12:0.67 13:0.5 15:0.5 17:0.5 24:0.33 25:1.0 29:0.33 30:0.5 33:0.2 34:0.67 35:0.33 37:0.14 38:0.25 40:0.2 42:0.33 44:0.5 45:0.33 48:0.33 51:1.0 52:0.17 54:0.67 55:0.33 56:0.33 59:0.33 61:0.5 65:0.33 66:0.29 71:0.25 74:0.75 78:0.33 81:0.33 82:0.33 91:0.25 92:0.17 95:0.33 96:0.5 98:0.5 99:0.5 100:0.5 103:0.75 104:0.5 105:1.0 108:0.25 110:0.6 111:0.33 112:0.33 113:1.0 118:1.0 121:0.33 125:0.17 127:1.0 128:1.0 131:0.4 132:0.2 134:0.29 135:1.0 139:0.2 140:1.0 143:0.5 144:0.5 148:0.67 151:0.33 153:0.5 155:1.0 156:0.29 159:0.17 160:1.0 161:1.0 162:1.0 164:0.33 165:0.67 167:0.2 170:0.5 171:0.25 173:0.5 
-1.0 1.0 1.0 1.0 1.0 1.0 1.0 4:0.33 5:0.5 6:0.5 8:0.5 10:0.2 12:1.0 13:0.5 15:1.0 17:0.5 20:1.0 24:0.67 25:1.0 29:0.67 33:0.2 34:0.67 35:0.33 37:0.14 38:0.25 40:0.2 41:0.2 42:0.17 44:0.75 45:0.33 48:0.33 51:1.0 52:0.17 54:0.67 55:0.33 56:0.33 59:0.33 61:0.5 62:1.0 65:0.33 66:0.29 67:0.5 71:0.25 73:0.5 74:0.75 77:0.5 78:0.33 81:0.33 82:0.33 88:0.5 89:0.2 91:0.25 92:0.33 94:0.5 95:0.33 96:0.5 97:0.17 98:0.5 99:0.5 100:0.5 103:0.5 104:0.5 105:0.67 108:0.25 110:0.6 112:0.33 113:1.0 115:1.0 117:0.5 119:0.25 121:0.33 125:0.17 127:1.0 128:1.0 131:0.2 134:0.14 139:0.2 140:1.0 143:0.5 144:0.5 148:0.33 151:0.33 153:0.25 155:1.0 156:0.29 159:0.17 160:1.0 161:0.5 164:0.33 165:0.33 167:0.2 171:0.25 173:0.5 
-1.0 1.0 1.0 1.0 1.0 1.0 1.0 4:0.33 5:1.0 8:0.5 10:0.2 11:1.0 12:0.33 15:0.5 16:0.33 17:0.25 18:0.17 24:0.33 25:1.0 28:0.17 29:0.33 31:0.17 33:0.2 34:0.33 36:1.0 37:0.14 38:0.25 39:0.2 40:0.4 41:0.2 42:0.17 43:1.0 44:0.25 45:0.67 47:0.5 48:0.33 51:0.5 52:0.17 54:0.33 55:0.17 56:0.33 57:0.2 58:0.33 59:0.33 60:0.33 66:0.14 67:0.5 71:0.25 72:0.33 74:0.25 75:0.12 78:0.17 81:0.33 82:0.33 84:0.2 86:0.14 87:0.5 89:0.2 91:0.5 92:0.17 96:0.25 97:0.17 99:0.5 100:0.5 103:0.25 104:0.25 105:0.33 108:0.25 109:0.2 110:0.2 111:0.33 112:0.33 113:1.0 116:0.5 119:0.25 122:0.14 124:0.5 125:0.17 126:0.5 128:0.5 131:0.4 134:0.29 136:0.33 138:0.4 139:0.2 140:1.0 141:0.5 142:0.5 143:0.5 145:0.4 147:0.33 148:0.33 151:0.33 153:0.25 154:0.33 155:1.0 156:0.14 157:0.29 158:0.17 159:0.17 160:1.0 161:0.5 163:0.4 164:0.33 165:0.33 166:0.4 167:0.4 169:0.4 171:0.25 172:0.5 173:0.5 
-1.0 1.0 1.0 1.0 1.0 1.0 1.0 4:0.33 5:0.5 8:0.5 10:0.2 12:0.67 13:0.5 15:0.5 17:0.5 24:0.33 25:1.0 29:0.33 30:0.5 33:0.2 34:0.67 35:0.33 37:0.14 38:0.25 40:0.2 42:0.33 44:0.5 45:0.33 48:0.33 51:1.0 52:0.17 54:0.67 55:0.33 56:0.33 59:0.33 61:0.5 65:0.33 66:0.29 71:0.25 74:0.75 78:0.33 81:0.33 82:0.33 91:0.25 92:0.17 95:0.33 96:0.5 98:0.5 99:0.5 100:0.5 103:0.75 104:0.5 105:1.0 108:0.25 110:0.6 111:0.33 112:0.33 113:1.0 118:1.0 121:0.33 125:0.17 127:1.0 128:1.0 131:0.2 132:0.2 134:0.14 135:1.0 139:0.2 140:1.0 143:0.5 144:0.5 148:0.67 151:0.33 153:0.25 155:1.0 156:0.29 159:0.17 160:1.0 161:1.0 162:1.0 164:0.33 165:0.33 167:0.2 171:0.25 173:0.5 
-1.0 1.0 1.0 1.0 1.0 1.0 1.0 2:0.5 4:0.33 5:0.5 8:0.5 10:0.2 12:0.33 15:0.5 17:0.5 24:0.33 25:1.0 29:0.67 34:0.33 38:0.25 40:0.2 42:0.33 44:0.25 45:0.33 48:0.33 51:0.5 54:0.33 55:0.33 56:0.33 59:0.33 65:0.33 66:0.29 71:0.25 74:0.25 77:0.5 78:0.17 81:0.33 82:0.33 91:0.25 92:0.33 96:0.5 99:0.5 100:0.5 103:0.25 104:0.25 105:0.33 108:0.25 110:0.2 113:1.0 117:0.5 125:0.17 128:0.5 131:0.2 132:0.2 134:0.14 139:0.2 140:1.0 143:0.5 148:0.33 151:0.33 153:0.25 155:1.0 156:0.29 160:1.0 161:0.5 164:0.33 165:0.33 167:0.2 171:0.25 173:0.5 
-1.0 -0.0 0.0 0.0 0.0 1.0 1.0 4:0.67 5:1.0 7:0.6 8:0.5 9:0.67 10:0.4 11:1.0 12:0.33 15:0.5 16:0.33 17:0.25 18:1.0 23:1.0 24:0.33 25:1.0 27:0.5 28:0.67 29:0.33 31:0.67 34:0.33 36:1.0 38:0.5 39:1.0 40:0.6 42:0.17 43:1.0 44:0.25 45:1.0 47:0.5 48:0.67 50:0.33 51:0.5 54:0.33 55:0.17 56:0.33 57:0.6 58:0.33 59:0.33 60:0.33 64:0.67 66:0.14 68:0.33 71:0.5 72:0.67 74:0.25 75:0.75 76:0.5 78:0.17 79:1.0 81:0.67 82:0.67 84:1.0 86:0.71 87:0.5 91:0.75 92:0.17 93:1.0 96:0.25 99:1.0 100:0.5 102:0.67 103:0.25 104:0.25 105:0.33 106:0.5 108:0.5 109:1.0 110:0.2 113:1.0 116:0.5 122:0.71 123:1.0 124:1.0 125:0.17 126:0.5 128:0.5 129:1.0 130:1.0 131:1.0 133:1.0 134:1.0 136:0.67 137:1.0 138:0.6 139:0.2 140:1.0 141:0.5 142:0.5 143:1.0 145:0.6 146:1.0 147:0.33 148:0.33 151:0.33 153:1.0 154:1.0 155:1.0 156:0.14 157:0.57 158:0.5 160:1.0 161:0.5 163:0.4 164:1.0 165:1.0 166:0.4 167:1.0 168:1.0 169:0.8 170:1.0 171:0.25 172:0.75 173:0.5 
-1.0 -0.0 1.0 1.0 0.6695082320260627 1.0 1.0 2:0.5 3:0.17 4:1.0 5:1.0 6:0.5 7:0.2 8:0.5 9:0.33 10:0.8 11:1.0 12:0.33 14:0.5 15:0.5 16:0.67 17:0.25 18:0.5 19:0.33 21:0.2 22:0.2 23:1.0 24:0.67 25:1.0 26:0.33 27:1.0 28:0.5 29:0.33 30:0.5 31:0.5 32:0.5 34:0.33 35:0.33 36:1.0 38:0.75 39:0.6 40:0.8 42:0.33 43:1.0 44:0.5 45:1.0 46:0.5 47:1.0 48:0.67 49:0.4 50:1.0 51:0.5 53:0.17 54:0.33 55:0.33 56:0.67 57:0.4 58:0.33 59:0.67 60:0.67 63:0.2 64:0.67 66:0.29 68:1.0 69:0.33 71:0.75 72:0.67 73:0.5 74:0.25 75:0.38 76:1.0 78:0.33 79:1.0 80:0.4 81:1.0 82:1.0 83:1.0 84:0.6 85:0.4 86:0.29 87:0.5 88:0.5 90:1.0 91:1.0 92:0.33 93:0.4 95:0.33 96:0.25 99:1.0 100:0.5 101:0.29 102:0.17 103:0.5 104:0.5 105:0.33 106:1.0 107:0.33 108:1.0 109:0.6 110:0.4 113:1.0 116:1.0 120:0.2 122:0.43 123:1.0 124:1.0 125:0.33 126:0.75 128:0.5 129:1.0 130:1.0 131:1.0 133:1.0 134:1.0 136:1.0 137:1.0 138:1.0 139:0.4 140:1.0 141:0.5 142:0.5 143:1.0 144:0.5 145:1.0 147:0.83 148:0.67 149:1.0 151:0.67 152:0.5 153:1.0 154:1.0 155:1.0 156:0.14 157:1.0 158:1.0 160:1.0 161:0.5 163:0.8 164:1.0 165:1.0 166:1.0 167:1.0 168:1.0 169:1.0 170:1.0 171:0.5 172:1.0 173:1.0 
-1.0 -1.0 1.0 1.0 1.0 0.9075689871763526 1.0 2:0.5 4:1.0 5:0.5 6:0.5 8:0.5 10:0.6 12:0.33 14:0.5 15:0.5 17:0.25 19:0.17 23:1.0 24:0.33 25:1.0 27:0.5 29:0.33 30:0.5 34:0.33 38:0.5 40:0.6 42:0.33 44:0.25 45:0.67 48:0.67 49:0.2 50:0.33 51:0.5 54:0.33 55:0.33 56:0.33 59:0.67 60:0.33 66:0.29 68:0.67 69:0.17 71:0.75 73:0.5 74:0.25 76:0.5 78:0.33 79:1.0 80:0.2 81:0.67 82:0.67 83:1.0 85:0.2 90:1.0 91:0.5 92:0.33 95:0.33 96:0.25 99:1.0 100:0.5 101:0.14 103:0.25 104:0.25 105:0.33 106:1.0 107:0.17 108:0.5 110:0.2 113:1.0 116:0.5 125:0.17 128:0.5 129:1.0 131:0.4 132:0.2 133:1.0 134:0.57 137:1.0 139:0.2 140:1.0 143:1.0 144:0.5 148:0.67 149:1.0 151:0.33 152:0.5 153:1.0 155:1.0 156:0.14 160:1.0 161:0.5 164:1.0 165:1.0 167:0.4 168:1.0 170:1.0 171:0.25 173:1.0 
-1.0 -1.0 1.0 1.0 0.9574310235568038 1.0 1.0 4:0.33 5:1.0 7:0.6 8:0.5 9:0.67 10:0.2 11:1.0 12:0.33 15:0.5 16:0.33 17:0.25 18:1.0 24:0.33 25:1.0 28:0.67 29:0.33 31:0.67 34:0.33 36:1.0 38:0.25 39:1.0 40:0.4 42:0.17 44:0.25 45:0.67 47:0.5 48:0.33 51:0.5 54:0.33 55:0.17 56:0.33 57:0.6 58:0.33 59:0.33 60:0.33 64:0.67 66:0.14 71:0.25 72:0.67 74:0.25 75:0.75 78:0.17 79:1.0 81:0.33 82:0.33 84:1.0 86:0.71 87:0.5 91:0.5 92:0.17 93:1.0 96:0.25 99:0.5 100:0.5 102:0.67 103:0.25 104:0.25 105:0.33 108:0.25 109:1.0 110:0.2 113:1.0 116:0.5 122:0.71 123:1.0 124:1.0 125:0.17 126:0.25 128:0.5 129:1.0 130:1.0 131:1.0 133:1.0 134:0.86 136:0.5 137:1.0 138:0.4 139:0.2 140:1.0 142:0.5 143:1.0 145:0.4 147:0.17 148:0.33 151:0.33 153:0.75 154:1.0 155:1.0 156:0.14 157:0.43 158:0.5 160:1.0 161:0.5 163:0.2 164:0.67 165:1.0 166:0.2 167:1.0 168:1.0 169:0.6 170:1.0 171:0.25 172:0.5 173:0.5 
-1.0 -1.0 1.0 1.0 1.0 1.0 1.0 79:1.0 129:1.0 131:0.2 133:1.0 134:0.29 137:1.0 143:0.5 153:0.5 164:0.33 165:0.67 167:0.2 168:1.0 170:1.0 
-1.0 -0.0 1.0 1.0 0.0 1.0 1.0 2:0.5 4:1.0 5:1.0 6:0.5 7:0.6 8:0.5 9:0.67 10:0.6 11:1.0 12:0.33 14:0.5 15:0.5 16:0.33 17:0.25 18:1.0 19:0.17 23:1.0 24:0.33 25:1.0 27:0.5 28:0.67 29:0.33 30:0.5 31:0.67 34:0.33 36:1.0 38:0.5 39:1.0 40:0.8 42:0.33 43:1.0 44:0.25 45:1.0 47:0.5 48:0.67 49:0.2 50:0.33 51:0.5 54:0.33 55:0.33 56:0.33 57:0.6 58:0.33 59:0.67 60:0.67 64:0.67 66:0.29 68:0.67 69:0.17 71:0.75 72:0.67 73:0.5 74:0.25 75:0.75 76:0.5 78:0.33 79:1.0 80:0.2 81:0.67 82:0.67 83:1.0 84:1.0 85:0.2 86:0.71 87:0.5 90:1.0 91:0.75 92:0.33 93:1.0 95:0.33 96:0.25 99:1.0 100:0.5 101:0.14 102:0.67 103:0.25 104:0.25 105:0.33 106:1.0 107:0.17 108:0.5 109:1.0 110:0.2 113:1.0 116:1.0 122:0.71 123:1.0 124:1.0 125:0.17 126:0.5 128:0.5 129:1.0 130:1.0 131:1.0 133:1.0 134:1.0 136:0.67 137:1.0 138:0.6 139:0.2 140:1.0 141:0.5 142:0.5 143:1.0 144:0.5 145:0.6 147:0.33 148:0.67 149:1.0 151:0.33 152:0.5 153:1.0 154:1.0 155:1.0 156:0.14 157:0.57 158:0.5 160:1.0 161:0.5 163:0.4 164:1.0 165:1.0 166:0.4 167:1.0 168:1.0 169:0.8 170:1.0 171:0.25 172:0.75 173:1.0 
-0.7585391465938677 -1.0 1.0 1.0 1.0 0.0 1.0 3:0.17 4:0.67 5:0.5 8:0.5 10:0.6 12:0.33 15:0.5 16:0.33 17:0.25 19:0.17 21:0.2 22:0.2 23:1.0 24:0.67 25:1.0 26:0.33 27:1.0 29:0.33 32:0.5 34:0.33 35:0.33 38:0.75 40:0.4 42:0.17 44:0.5 45:0.67 46:0.5 47:0.5 48:0.67 49:0.2 50:1.0 51:0.5 53:0.17 54:0.33 55:0.17 56:0.67 59:0.33 63:0.2 66:0.14 68:0.67 69:0.17 71:0.5 74:0.25 76:1.0 78:0.17 79:1.0 80:0.2 81:1.0 82:1.0 85:0.2 88:0.5 91:0.75 92:0.17 96:0.25 99:1.0 100:0.5 101:0.14 103:0.5 104:0.5 105:0.33 106:0.5 107:0.17 108:1.0 110:0.4 113:1.0 120:0.2 125:0.33 128:0.5 129:1.0 131:0.4 132:0.2 133:1.0 134:0.57 137:1.0 139:0.4 140:1.0 143:1.0 146:1.0 148:0.33 151:0.67 153:1.0 155:1.0 156:0.14 160:1.0 161:0.5 164:1.0 165:1.0 167:0.4 168:1.0 170:1.0 171:0.5 173:0.5 
-1.0 -1.0 1.0 1.0 1.0 1.0 1.0 2:0.5 4:0.67 5:0.5 8:0.5 10:0.4 12:0.33 15:0.5 17:0.5 23:1.0 24:0.33 25:1.0 27:0.5 29:0.67 34:0.33 38:0.5 40:0.4 42:0.33 44:0.25 45:0.67 48:0.67 50:0.33 51:0.5 54:0.33 55:0.33 56:0.33 59:0.33 65:0.33 66:0.29 68:0.33 71:0.5 74:0.25 76:0.5 77:0.5 78:0.17 79:1.0 81:0.67 82:0.67 91:0.5 92:0.33 96:0.5 99:1.0 100:0.5 103:0.25 104:0.25 105:0.33 106:0.5 108:0.5 110:0.2 113:1.0 117:0.5 125:0.17 128:0.5 129:1.0 131:0.2 133:1.0 134:0.43 137:1.0 139:0.2 140:1.0 143:1.0 148:0.33 151:0.33 153:0.75 155:1.0 156:0.29 160:1.0 161:0.5 164:1.0 165:0.67 167:0.4 168:1.0 170:0.5 171:0.25 173:0.5 
-1.0 -1.0 0.5009807037665505 0.6895954422625203 0.0 1.0 1.0 2:0.5 4:0.67 5:1.0 7:0.6 8:0.5 9:0.67 10:0.4 11:1.0 12:0.33 15:0.5 16:0.33 17:0.5 18:1.0 23:1.0 24:0.33 25:1.0 27:0.5 28:0.67 29:0.67 31:0.67 34:0.33 36:1.0 38:0.5 39:1.0 40:0.6 42:0.33 44:0.25 45:1.0 47:0.5 48:0.67 50:0.33 51:0.5 54:0.33 55:0.33 56:0.33 57:0.6 58:0.33 59:0.33 60:0.33 64:0.67 65:0.33 66:0.29 68:0.33 71:0.5 72:0.67 74:0.25 75:0.75 76:0.5 77:0.5 78:0.17 79:1.0 81:0.67 82:0.67 84:1.0 86:0.71 87:0.5 91:0.75 92:0.33 93:1.0 96:0.5 99:1.0 100:0.5 102:0.67 103:0.25 104:0.25 105:0.33 106:0.5 108:0.5 109:1.0 110:0.2 113:1.0 116:0.5 117:0.5 122:0.71 123:1.0 124:1.0 125:0.17 126:0.25 128:0.5 129:1.0 130:1.0 131:1.0 133:1.0 134:1.0 136:0.5 137:1.0 138:0.4 139:0.2 140:1.0 142:0.5 143:1.0 145:0.4 147:0.17 148:0.33 151:0.33 153:1.0 154:1.0 155:1.0 156:0.29 157:0.43 158:0.5 160:1.0 161:0.5 163:0.2 164:1.0 165:1.0 166:0.2 167:1.0 168:1.0 169:0.6 170:1.0 171:0.25 172:0.5 173:0.5 
-1.0 -0.0 1.0 0.0 0.0 0.09243101282364745 1.0 4:0.67 5:1.0 7:0.6 8:0.5 9:0.67 10:0.4 11:1.0 12:0.33 15:0.5 16:0.33 17:0.25 18:1.0 23:1.0 24:0.33 25:1.0 27:0.5 28:0.67 29:0.33 31:0.67 34:0.33 36:1.0 38:0.5 39:1.0 40:0.6 42:0.17 44:0.25 45:1.0 47:0.5 48:0.67 50:0.33 51:0.5 54:0.33 55:0.17 56:0.33 57:0.6 58:0.33 59:0.33 60:0.33 64:0.67 66:0.14 68:0.33 71:0.5 72:0.67 74:0.25 75:0.75 76:0.5 78:0.17 79:1.0 81:0.67 82:0.67 84:1.0 86:0.71 87:0.5 91:0.75 92:0.17 93:1.0 96:0.25 99:1.0 100:0.5 102:0.67 103:0.25 104:0.25 105:0.33 106:0.5 108:0.5 109:1.0 110:0.2 113:1.0 116:0.5 122:0.71 123:1.0 124:1.0 125:0.17 126:0.25 128:0.5 129:1.0 130:1.0 131:1.0 133:1.0 134:1.0 136:0.5 137:1.0 138:0.4 139:0.2 140:1.0 142:0.5 143:1.0 145:0.4 147:0.17 148:0.33 151:0.33 153:1.0 154:1.0 155:1.0 156:0.14 157:0.43 158:0.5 160:1.0 161:0.5 163:0.2 164:1.0 165:1.0 166:0.2 167:1.0 168:1.0 169:0.6 170:1.0 171:0.25 172:0.5 173:0.5 
-0.3678604534806143 -1.0 -0.5557487671108138 1.0 1.0 0.026708138358339233 1.0 3:0.17 4:0.33 5:0.5 8:1.0 10:0.2 12:0.67 13:0.5 14:0.5 15:0.5 16:0.33 17:0.5 19:0.17 21:0.2 22:0.2 24:0.33 25:1.0 29:0.33 30:0.5 32:0.5 33:0.4 34:0.67 35:0.33 37:0.29 38:0.25 40:0.2 41:0.2 42:0.33 44:0.5 45:0.33 47:0.5 48:0.33 50:0.33 51:1.0 52:0.33 53:0.17 54:0.67 55:0.33 56:0.67 59:0.67 61:0.5 63:0.2 65:0.33 66:0.29 67:0.5 70:1.0 71:0.25 74:0.75 76:0.5 78:0.33 80:0.2 81:0.33 82:0.67 85:0.2 89:0.2 91:0.25 92:0.17 95:0.33 96:0.5 97:0.17 98:0.5 99:0.5 100:0.5 101:0.14 103:0.75 104:0.5 105:1.0 107:0.17 108:0.5 110:0.6 111:0.67 112:0.67 113:1.0 118:1.0 119:0.25 120:0.2 121:0.33 125:1.0 127:1.0 128:1.0 131:0.2 132:0.4 134:0.14 135:1.0 139:1.0 140:1.0 143:0.5 144:0.5 148:0.67 150:1.0 151:1.0 152:0.5 153:0.25 155:1.0 156:0.29 159:0.33 160:1.0 161:1.0 162:1.0 164:0.33 165:0.33 167:0.2 171:1.0 173:0.5 
-0.0 -0.0 -0.0 0.0 0.0 0.0 1.0 2:0.5 3:0.17 4:0.67 5:0.5 6:0.5 8:1.0 10:0.4 12:0.33 14:1.0 15:0.5 16:0.33 17:0.25 19:0.33 21:0.2 22:0.2 24:0.33 25:1.0 29:0.33 30:0.5 32:0.5 34:0.33 38:0.25 40:0.4 42:0.33 44:0.25 45:0.33 47:0.5 48:0.33 49:0.2 50:0.33 51:0.5 53:0.17 54:0.33 55:0.33 56:0.67 59:1.0 60:0.33 63:0.2 66:0.29 68:0.33 69:0.17 70:1.0 71:0.5 73:0.5 74:0.25 76:0.5 78:0.33 80:0.4 81:0.33 82:0.67 83:1.0 85:0.4 90:1.0 91:0.25 92:0.33 95:0.33 96:0.25 99:0.5 100:0.5 101:0.29 103:0.25 104:0.25 105:0.33 106:0.5 107:0.33 108:0.5 110:0.2 113:1.0 116:0.5 120:0.2 125:1.0 128:0.5 131:0.2 134:0.14 139:1.0 140:1.0 143:0.5 144:0.5 148:0.67 149:1.0 150:1.0 151:1.0 152:1.0 153:0.25 155:1.0 156:0.14 160:1.0 161:0.5 164:0.33 165:0.33 167:0.2 171:1.0 173:1.0 
-1.0 -0.29718346878055446 -0.7115321509392984 1.0 1.0 1.0 1.0 2:0.5 4:0.33 6:0.5 10:0.2 14:0.5 19:0.17 30:0.5 40:0.2 42:0.17 49:0.2 55:0.17 59:0.33 60:0.33 66:0.14 68:0.33 69:0.17 71:0.25 73:0.5 78:0.17 80:0.2 83:1.0 85:0.2 90:1.0 92:0.17 95:0.33 101:0.14 106:0.5 107:0.17 116:0.5 132:0.2 144:0.5 148:0.33 149:1.0 152:0.5 173:0.5 
-1.0 -0.0 -0.1052248642537378 0.14308565547234808 0.0 0.8961649855648537 1.0 8:0.5 10:0.2 14:0.5 19:0.83 22:1.0 24:0.33 26:1.0 27:0.5 33:0.2 35:0.33 37:0.14 38:0.25 41:0.2 44:0.25 46:0.5 49:0.8 50:0.33 52:0.17 53:1.0 59:0.33 63:1.0 67:0.5 68:0.33 69:0.83 70:1.0 80:0.8 81:0.33 85:0.8 88:0.5 89:0.2 91:0.25 97:0.17 101:0.86 103:0.25 104:0.25 107:0.83 108:0.25 110:0.2 111:0.33 112:0.33 119:0.25 120:1.0 125:0.17 132:0.2 139:0.2 150:1.0 152:0.5 159:0.17 171:0.25 
-1.0 -0.0 -0.0 1.0 0.47983914762625857 0.0 1.0 2:0.5 4:0.33 6:0.5 8:0.5 10:0.4 14:1.0 19:1.0 22:1.0 24:0.33 26:1.0 27:0.5 30:0.5 35:0.33 38:0.25 40:0.2 42:0.17 44:0.25 46:0.5 49:1.0 50:0.33 53:1.0 55:0.17 59:0.67 60:0.33 63:1.0 66:0.14 68:0.67 69:1.0 70:1.0 71:0.25 73:0.5 78:0.17 80:1.0 81:0.33 83:1.0 85:1.0 88:0.5 90:1.0 91:0.25 92:0.17 95:0.33 101:1.0 103:0.25 104:0.25 106:0.5 107:1.0 108:0.25 110:0.2 116:0.5 120:1.0 125:0.17 139:0.2 144:0.5 148:0.33 149:1.0 150:1.0 152:1.0 171:0.25 173:0.5 
-0.0 -0.0 -0.0 0.0 0.0 0.0 1.0 2:0.5 3:0.17 4:0.67 5:0.5 6:0.5 8:1.0 10:0.4 12:0.33 14:1.0 15:0.5 16:0.33 17:0.25 19:0.33 21:0.2 22:0.2 24:0.33 25:1.0 29:0.33 30:0.5 32:0.5 34:0.33 38:0.25 40:0.4 42:0.33 44:0.25 45:0.33 47:0.5 48:0.33 49:0.2 50:0.33 51:0.5 53:0.17 54:0.33 55:0.33 56:0.67 59:1.0 60:0.33 63:0.2 66:0.29 68:0.33 69:0.17 70:1.0 71:0.5 73:0.5 74:0.25 76:0.5 78:0.33 80:0.4 81:0.33 82:0.67 83:1.0 85:0.4 90:1.0 91:0.25 92:0.33 95:0.33 96:0.25 99:0.5 100:0.5 101:0.29 103:0.25 104:0.25 105:0.33 106:0.5 107:0.33 108:0.5 110:0.2 113:1.0 116:0.5 120:0.2 125:1.0 128:0.5 131:0.2 134:0.14 139:1.0 140:1.0 143:0.5 144:0.5 148:0.67 149:1.0 150:1.0 151:1.0 152:1.0 153:0.25 155:1.0 156:0.14 160:1.0 161:0.5 164:0.33 165:0.33 167:0.2 171:1.0 173:1.0 
-0.0 -0.0 -0.0 0.0 0.0 0.0 1.0 2:0.5 3:0.17 4:0.67 5:0.5 6:0.5 8:1.0 10:0.4 12:0.33 14:1.0 15:0.5 16:0.33 17:0.25 19:0.33 21:0.2 22:0.2 24:0.33 25:1.0 29:0.33 30:0.5 32:0.5 34:0.33 38:0.25 40:0.4 42:0.33 44:0.25 45:0.33 47:0.5 48:0.33 49:0.2 50:0.33 51:0.5 53:0.17 54:0.33 55:0.33 56:0.67 59:1.0 60:0.33 63:0.2 66:0.29 68:0.33 69:0.17 70:1.0 71:0.5 73:0.5 74:0.25 76:0.5 78:0.33 80:0.4 81:0.33 82:0.67 83:1.0 85:0.4 90:1.0 91:0.25 92:0.33 95:0.33 96:0.25 99:0.5 100:0.5 101:0.29 103:0.25 104:0.25 105:0.33 106:0.5 107:0.33 108:0.5 110:0.2 113:1.0 116:0.5 120:0.2 125:1.0 128:0.5 131:0.2 134:0.14 139:1.0 140:1.0 143:0.5 144:0.5 148:0.67 149:1.0 150:1.0 151:1.0 152:1.0 153:0.25 155:1.0 156:0.14 160:1.0 161:0.5 164:0.33 165:0.33 167:0.2 171:1.0 173:1.0 
-0.05186266210756889 -0.0 -0.1956500732435028 0.0 0.0 0.0 1.0 2:0.5 3:0.17 4:0.67 5:0.5 6:0.5 8:1.0 10:0.4 12:0.33 14:1.0 15:0.5 16:0.33 17:0.25 19:0.33 21:0.2 22:0.2 24:0.33 25:1.0 29:0.33 30:0.5 32:0.5 34:0.33 38:0.25 40:0.4 42:0.33 44:0.25 45:0.33 47:0.5 48:0.33 49:0.2 50:0.33 51:0.5 53:0.17 54:0.33 55:0.33 56:0.67 59:1.0 60:0.33 63:0.2 66:0.29 68:0.33 69:0.17 70:1.0 71:0.5 73:0.5 74:0.25 76:0.5 78:0.33 80:0.4 81:0.33 82:0.67 83:1.0 85:0.4 90:1.0 91:0.25 92:0.33 95:0.33 96:0.25 99:0.5 100:0.5 101:0.29 103:0.25 104:0.25 105:0.33 106:0.5 107:0.33 108:0.5 110:0.2 113:1.0 116:0.5 120:0.2 125:1.0 128:0.5 131:0.2 134:0.14 139:1.0 140:1.0 143:0.5 144:0.5 148:0.67 149:1.0 150:1.0 151:1.0 152:1.0 153:0.25 155:1.0 156:0.14 160:1.0 161:0.5 164:0.33 165:0.33 167:0.2 171:1.0 173:1.0 
-1.0 -0.0 -1.0 0.0 0.0 0.09863046226956766 1.0 2:0.5 3:0.17 4:0.67 5:0.5 6:0.5 8:1.0 10:0.4 12:0.33 14:1.0 15:0.5 16:0.33 17:0.25 19:0.33 21:0.2 22:0.2 24:0.33 25:1.0 29:0.33 30:0.5 32:0.5 34:0.33 38:0.25 40:0.4 42:0.33 44:0.25 45:0.33 47:0.5 48:0.33 49:0.2 50:0.33 51:0.5 53:0.17 54:0.33 55:0.33 56:0.67 59:1.0 60:0.33 63:0.2 66:0.29 68:0.33 69:0.17 70:1.0 71:0.5 73:0.5 74:0.25 76:0.5 78:0.33 80:0.4 81:0.33 82:0.67 83:1.0 85:0.4 90:1.0 91:0.25 92:0.33 95:0.33 96:0.25 99:0.5 100:0.5 101:0.29 103:0.25 104:0.25 105:0.33 106:0.5 107:0.33 108:0.5 110:0.2 113:1.0 116:0.5 120:0.2 125:1.0 128:0.5 131:0.2 134:0.14 139:1.0 140:1.0 143:0.5 144:0.5 148:0.67 149:1.0 150:1.0 151:1.0 152:1.0 153:0.25 155:1.0 156:0.14 160:1.0 161:0.5 164:0.33 165:0.33 167:0.2 171:1.0 173:1.0 
-1.0 -0.0 -1.0 0.8569143445276519 0.0 1.0 1.0 2:0.5 3:0.17 4:0.67 5:0.5 6:0.5 8:1.0 10:0.4 12:0.33 14:1.0 15:0.5 16:0.33 17:0.25 19:0.33 21:0.2 22:0.2 24:0.33 25:1.0 29:0.33 30:0.5 32:0.5 34:0.33 38:0.25 40:0.4 42:0.33 44:0.25 45:0.33 47:0.5 48:0.33 49:0.2 50:0.33 51:0.5 53:0.17 54:0.33 55:0.33 56:0.67 59:1.0 60:0.33 63:0.2 66:0.29 68:0.33 69:0.17 70:1.0 71:0.5 73:0.5 74:0.25 76:0.5 78:0.33 80:0.4 81:0.33 82:0.67 83:1.0 85:0.4 90:1.0 91:0.25 92:0.33 95:0.33 96:0.25 99:0.5 100:0.5 101:0.29 103:0.25 104:0.25 105:0.33 106:0.5 107:0.33 108:0.5 110:0.2 113:1.0 116:0.5 120:0.2 125:1.0 128:0.5 131:0.2 134:0.14 139:1.0 140:1.0 143:0.5 144:0.5 148:0.67 149:1.0 150:1.0 151:1.0 152:1.0 153:0.25 155:1.0 156:0.14 160:1.0 161:0.5 164:0.33 165:0.33 167:0.2 171:1.0 173:1.0 
-1.0 -0.0 -0.9328248482191976 1.0 0.07847572216390442 0.9784964138072395 1.0 2:0.5 3:0.17 4:0.67 5:0.5 6:0.5 8:1.0 10:0.4 12:0.33 14:1.0 15:0.5 16:0.33 17:0.25 19:0.33 21:0.2 22:0.2 24:0.33 25:1.0 29:0.33 30:0.5 32:0.5 34:0.33 38:0.25 40:0.4 42:0.33 44:0.25 45:0.33 47:0.5 48:0.33 49:0.2 50:0.33 51:0.5 53:0.17 54:0.33 55:0.33 56:0.67 59:1.0 60:0.33 63:0.2 66:0.29 68:0.33 69:0.17 70:1.0 71:0.5 73:0.5 74:0.25 76:0.5 78:0.33 80:0.4 81:0.33 82:0.67 83:1.0 85:0.4 90:1.0 91:0.25 92:0.33 95:0.33 96:0.25 99:0.5 100:0.5 101:0.29 103:0.25 104:0.25 105:0.33 106:0.5 107:0.33 108:0.5 110:0.2 113:1.0 116:0.5 120:0.2 125:1.0 128:0.5 131:0.2 134:0.14 139:1.0 140:1.0 143:0.5 144:0.5 148:0.67 149:1.0 150:1.0 151:1.0 152:1.0 153:0.25 155:1.0 156:0.14 160:1.0 161:0.5 164:0.33 165:0.33 167:0.2 171:1.0 173:1.0 
-0.0 -1.0 -0.0 1.0 1.0 0.0 1.0 3:0.17 4:0.33 5:0.5 8:1.0 10:0.2 12:0.67 13:0.5 14:0.5 15:0.5 16:0.33 17:0.5 19:0.17 21:0.2 22:0.2 24:0.33 25:1.0 29:0.33 30:0.5 32:0.5 33:0.4 34:0.67 35:0.33 37:0.29 38:0.25 40:0.2 41:0.2 42:0.33 44:0.5 45:0.33 47:0.5 48:0.33 50:0.33 51:1.0 52:0.33 53:0.17 54:0.67 55:0.33 56:0.67 59:0.67 61:0.5 63:0.2 65:0.33 66:0.29 67:0.5 70:1.0 71:0.25 74:0.75 76:0.5 78:0.33 80:0.2 81:0.33 82:0.67 85:0.2 89:0.2 91:0.25 92:0.17 95:0.33 96:0.5 97:0.17 98:0.5 99:0.5 100:0.5 101:0.14 103:0.75 104:0.5 105:1.0 107:0.17 108:0.5 110:0.6 111:0.67 112:0.67 113:1.0 118:1.0 119:0.25 120:0.2 121:0.33 125:1.0 127:1.0 128:1.0 131:0.2 132:1.0 134:0.14 135:1.0 139:1.0 140:1.0 143:0.5 144:0.5 148:0.67 150:1.0 151:1.0 152:0.5 153:0.25 155:1.0 156:0.71 159:0.83 160:1.0 161:1.0 162:1.0 164:0.33 165:0.33 167:0.2 171:1.0 173:0.5 
-1.0 -1.0 -1.0 1.0 1.0 1.0 1.0 3:0.17 4:0.33 5:0.5 8:1.0 10:0.2 12:0.33 13:0.5 14:0.5 15:0.5 16:0.33 17:0.5 19:0.17 21:0.2 22:0.2 24:0.33 25:1.0 29:0.33 30:0.5 32:0.5 33:0.4 34:0.33 35:0.33 37:0.29 38:0.25 40:0.2 41:0.2 42:0.33 44:0.25 45:0.33 47:0.5 48:0.33 50:0.33 51:0.5 52:0.33 53:0.17 54:0.67 55:0.33 56:0.67 59:0.67 61:0.5 63:0.2 65:0.33 66:0.29 67:0.5 70:1.0 71:0.25 74:0.5 76:0.5 78:0.33 80:0.2 81:0.33 82:0.67 85:0.2 89:0.2 91:0.25 92:0.17 95:0.33 96:0.5 97:0.17 98:0.5 99:0.5 100:0.5 101:0.14 103:0.5 104:0.5 105:0.67 107:0.17 108:0.5 110:0.4 111:0.67 112:0.67 113:1.0 118:1.0 119:0.25 120:0.2 121:0.33 125:1.0 128:0.5 131:0.2 132:0.8 134:0.14 135:1.0 139:1.0 140:1.0 143:0.5 148:0.67 150:1.0 151:1.0 152:0.5 153:0.25 155:1.0 156:0.71 159:0.83 160:1.0 161:1.0 162:1.0 164:0.33 165:0.33 167:0.2 171:1.0 173:0.5 
-1.0 -1.0 -1.0 1.0 1.0 1.0 1.0 2:0.5 4:0.67 5:0.5 6:0.5 8:0.5 10:0.4 12:0.67 14:0.5 15:0.5 17:0.25 19:0.17 24:0.33 25:1.0 29:0.33 30:0.5 34:0.67 38:0.25 40:0.4 42:0.33 44:0.5 45:0.33 48:0.33 49:0.2 51:1.0 54:0.33 55:0.33 56:0.33 59:0.67 60:0.33 66:0.29 68:0.33 69:0.17 71:0.5 73:0.5 74:0.5 78:0.33 80:0.2 81:0.33 82:0.33 83:1.0 85:0.2 90:1.0 91:0.25 92:0.33 95:0.33 96:0.25 99:0.5 100:0.5 101:0.14 103:0.5 104:0.25 105:0.67 106:0.5 107:0.17 108:0.25 110:0.4 113:1.0 116:0.5 125:0.17 127:1.0 128:1.0 131:0.2 132:0.2 134:0.14 139:0.2 140:1.0 143:0.5 144:1.0 148:0.67 149:1.0 151:0.33 152:0.5 153:0.25 155:1.0 156:0.14 160:1.0 161:0.5 164:0.33 165:0.33 167:0.2 171:0.25 173:1.0 
-1.0 -0.7028165312194455 -1.0 1.0 0.39324956725081717 1.0 1.0 1:0.5 5:0.5 7:0.8 9:0.67 11:1.0 16:0.33 18:0.83 28:0.67 31:0.67 32:0.5 33:0.2 36:1.0 37:0.14 39:0.8 40:0.2 43:1.0 45:0.33 47:0.5 57:0.6 58:0.67 60:0.33 64:0.67 72:0.33 75:0.75 84:0.8 86:0.86 87:0.5 89:0.2 91:0.25 93:0.8 94:0.5 97:0.17 102:0.67 109:0.8 111:0.33 116:0.5 121:0.33 122:0.71 124:0.5 126:0.75 130:0.5 131:0.4 134:0.29 136:0.5 138:0.4 141:1.0 142:1.0 145:0.4 147:0.5 154:0.67 157:0.43 158:0.33 163:0.6 166:0.4 167:0.4 169:0.6 172:0.5 
-1.0 -1.0 -1.0 1.0 0.048435562959019934 1.0 1.0 1:0.5 3:0.17 7:0.2 9:0.17 10:0.2 16:0.33 21:0.2 28:0.17 31:0.17 38:0.25 40:0.2 48:0.33 56:0.33 57:0.2 58:0.33 60:0.33 71:0.25 72:0.33 75:0.12 86:0.14 87:0.5 100:0.5 102:0.17 114:1.0 122:0.14 
-1.0 -0.09090917032079032 -1.0 -1.0 0.0 1.0 1.0 1:0.5 2:0.5 4:0.67 6:0.5 7:0.2 9:0.17 10:0.4 12:0.33 14:0.5 19:0.17 23:1.0 27:0.5 28:0.17 30:0.5 31:0.17 32:0.5 33:0.2 34:0.33 37:0.14 38:0.25 40:0.4 42:0.17 44:0.25 45:0.33 48:0.33 49:0.2 50:0.33 51:0.5 55:0.17 57:0.2 58:0.33 59:0.33 60:0.33 64:0.33 66:0.14 68:0.67 69:0.17 71:0.5 73:0.5 74:0.25 75:0.12 76:0.5 78:0.17 80:0.2 81:0.33 82:0.33 83:1.0 85:0.2 86:0.14 89:0.2 90:1.0 91:0.25 92:0.17 94:0.5 95:0.33 97:0.17 99:0.5 101:0.14 102:0.17 103:0.25 105:0.33 106:1.0 107:0.17 108:0.25 110:0.2 111:0.33 116:0.5 121:0.33 122:0.14 126:0.25 127:1.0 128:0.5 132:0.2 134:0.14 141:0.5 142:0.5 144:1.0 147:0.17 148:0.33 149:1.0 152:0.5 153:0.25 163:0.2 164:0.33 173:0.5 
-0.8613924141849993 -0.6699240445702199 -0.023461717180543677 -1.0 1.0 0.0 1.0 2:0.5 4:0.67 5:0.5 6:1.0 8:0.5 10:0.6 12:1.0 13:1.0 14:0.5 15:1.0 17:0.75 19:0.33 20:1.0 22:0.2 24:1.0 25:1.0 26:0.33 27:0.5 29:0.67 30:1.0 33:0.4 34:0.67 35:1.0 37:0.29 38:0.5 40:0.4 41:0.2 42:0.5 44:1.0 45:0.33 46:0.5 48:0.33 49:0.4 50:0.33 51:1.0 52:0.33 53:0.17 54:1.0 55:0.67 56:0.33 59:0.67 60:0.33 61:1.0 62:1.0 63:0.2 65:0.67 66:0.57 67:0.5 68:0.67 69:0.33 71:0.5 73:1.0 74:1.0 77:0.5 78:0.67 80:0.4 81:0.67 82:0.33 83:1.0 85:0.4 88:1.0 89:0.2 90:1.0 91:0.5 92:0.5 94:0.5 95:1.0 96:0.75 97:0.17 98:1.0 99:0.5 100:0.5 101:0.29 103:1.0 104:1.0 105:1.0 106:0.5 107:0.33 108:0.5 110:1.0 111:0.33 112:0.67 113:1.0 115:1.0 116:0.5 117:0.5 118:1.0 119:0.25 120:0.2 121:0.67 125:0.17 127:1.0 128:1.0 131:0.2 132:0.2 134:0.14 135:1.0 139:0.2 140:1.0 143:0.5 144:1.0 148:1.0 149:1.0 151:0.33 152:0.5 153:0.25 155:1.0 156:0.43 159:0.33 160:1.0 161:1.0 162:1.0 164:0.33 165:0.33 167:0.2 171:0.25 173:1.0 
-1.0 -0.0 -1.0 -1.0 0.0 1.0 1.0 1:0.5 2:0.5 4:0.33 6:0.5 7:0.2 9:0.17 10:0.2 13:0.5 14:0.5 17:0.25 19:0.17 28:0.17 30:1.0 31:0.17 32:0.5 33:0.4 35:0.33 37:0.29 40:0.2 42:0.33 49:0.2 52:0.17 54:0.33 55:0.33 57:0.2 58:0.33 59:0.33 60:0.33 61:0.5 64:0.33 65:0.33 66:0.29 68:0.33 69:0.17 71:0.25 73:0.5 74:0.25 75:0.12 78:0.33 80:0.2 83:1.0 85:0.2 86:0.14 89:0.2 90:1.0 92:0.17 94:0.5 95:0.67 96:0.25 97:0.17 98:0.5 101:0.14 102:0.17 103:0.25 104:0.25 105:0.33 106:0.5 107:0.17 110:0.2 111:0.67 112:0.33 116:0.5 118:1.0 121:0.67 122:0.14 126:0.25 131:0.2 132:0.4 134:0.14 135:1.0 141:0.5 142:0.5 144:0.5 147:0.17 148:0.67 149:1.0 152:0.5 153:0.25 156:0.14 159:0.17 161:0.5 162:1.0 163:0.2 165:0.33 170:0.5 173:0.5 
-1.0 -1.0 -0.6661337250819767 -1.0 1.0 1.0 1.0 1:0.5 6:0.5 7:0.2 9:0.17 12:0.33 13:1.0 15:0.5 17:0.5 20:1.0 24:0.33 28:0.17 29:0.33 30:0.5 31:0.17 32:0.5 33:0.6 35:0.67 37:0.43 41:0.2 42:0.17 44:0.25 52:0.33 54:0.67 55:0.33 57:0.2 58:0.33 61:1.0 62:1.0 64:0.33 65:0.67 66:0.29 67:0.5 73:0.5 74:0.5 75:0.12 77:0.5 78:0.33 86:0.14 88:0.5 89:0.4 92:0.17 94:1.0 95:0.67 96:0.5 97:0.33 98:1.0 102:0.17 103:0.25 104:0.5 105:0.33 110:0.4 111:0.67 112:0.67 115:1.0 117:0.5 118:1.0 119:0.25 121:1.0 122:0.14 126:0.25 131:0.2 132:0.2 134:0.14 135:1.0 141:0.5 142:0.5 147:0.17 148:0.33 153:0.25 156:0.29 159:0.33 161:0.5 162:1.0 163:0.2 165:0.33 170:0.5 
-1.0 -1.0 -1.0 -1.0 1.0 1.0 1.0 4:0.33 5:0.5 8:0.5 10:0.2 12:0.67 13:0.5 15:0.5 17:0.5 24:0.33 25:1.0 29:0.33 30:0.5 33:0.2 34:0.67 35:0.33 37:0.14 38:0.25 40:0.2 42:0.33 44:0.5 45:0.33 48:0.33 51:1.0 52:0.17 54:0.67 55:0.33 56:0.33 59:0.33 61:0.5 65:0.33 66:0.29 71:0.25 74:0.75 78:0.33 81:0.33 82:0.33 91:0.25 92:0.17 95:0.33 96:0.5 98:0.5 99:0.5 100:0.5 103:0.75 104:0.5 105:1.0 108:0.25 110:0.6 111:0.33 112:0.33 113:1.0 118:1.0 121:0.33 125:0.17 127:1.0 128:1.0 131:0.2 132:0.2 134:0.14 135:1.0 139:0.2 140:1.0 143:0.5 144:0.5 148:0.67 151:0.33 153:0.25 155:1.0 156:0.29 159:0.17 160:1.0 161:1.0 162:1.0 164:0.33 165:0.33 167:0.2 171:0.25 173:0.5 
-0.0 -0.23916678510898973 -1.0 -1.0 1.0 0.0 1.0 2:1.0 4:1.0 5:0.5 6:1.0 8:0.5 10:0.6 12:1.0 13:1.0 14:0.5 15:1.0 17:1.0 19:0.17 20:1.0 23:1.0 24:0.67 25:1.0 27:0.5 29:1.0 30:1.0 33:0.4 34:1.0 35:0.67 37:0.29 38:0.5 40:0.6 41:0.2 42:0.67 44:0.75 45:0.67 48:0.67 49:0.2 50:0.33 51:1.0 52:0.33 54:1.0 55:0.83 56:0.33 59:0.67 60:0.33 61:1.0 62:1.0 65:1.0 66:0.71 67:0.5 68:0.67 69:0.17 71:0.75 73:1.0 74:1.0 76:0.5 77:1.0 78:0.67 80:0.2 81:0.67 82:0.67 83:1.0 85:0.2 88:0.5 89:0.2 90:1.0 91:0.5 92:0.67 94:0.5 95:1.0 96:1.0 97:0.17 98:1.0 99:1.0 100:0.5 101:0.14 103:0.75 104:0.75 105:1.0 106:1.0 107:0.17 108:0.5 110:0.8 111:0.33 112:0.67 113:1.0 115:1.0 116:0.5 117:1.0 118:1.0 119:0.25 121:0.67 125:0.17 127:1.0 128:1.0 131:0.2 132:0.2 134:0.29 135:1.0 139:0.2 140:1.0 143:0.5 144:1.0 148:1.0 149:1.0 151:0.33 152:0.5 153:0.5 155:1.0 156:0.57 159:0.33 160:1.0 161:1.0 162:1.0 164:0.67 165:0.33 167:0.2 171:0.25 173:1.0 
-1.0 -0.0 -0.0 -1.0 0.3809957230715721 0.7713804138216022 1.0 1:0.5 2:1.0 4:0.33 6:0.5 7:0.2 9:0.17 10:0.2 12:0.33 13:0.5 14:0.5 17:0.5 19:0.17 28:0.17 29:0.33 30:1.0 31:0.17 32:0.5 33:0.4 34:0.67 35:0.33 37:0.29 40:0.2 42:0.5 44:0.25 49:0.2 51:0.5 52:0.17 54:0.33 55:0.5 57:0.2 58:0.33 59:0.33 60:0.33 61:0.5 64:0.33 65:0.67 66:0.43 68:0.33 69:0.17 71:0.25 73:0.5 74:0.5 75:0.12 77:0.5 78:0.33 80:0.2 83:1.0 85:0.2 86:0.14 89:0.2 90:1.0 92:0.33 94:0.5 95:0.67 96:0.5 97:0.17 98:0.5 101:0.14 102:0.17 103:0.5 104:0.25 105:0.67 106:0.5 107:0.17 110:0.4 111:0.67 112:0.33 116:0.5 117:0.5 118:1.0 121:0.67 122:0.14 126:0.25 127:1.0 128:0.5 132:0.2 135:1.0 141:0.5 142:0.5 144:1.0 147:0.17 148:0.67 149:1.0 152:0.5 156:0.29 159:0.17 161:0.5 162:1.0 163:0.2 173:0.5 
-1.0 -1.0 -1.0 -1.0 0.44742114635984787 1.0 1.0 2:1.0 3:0.17 4:1.0 5:1.0 6:0.5 8:0.5 10:0.8 11:1.0 12:0.33 14:0.5 15:0.5 16:0.67 17:0.5 18:0.17 19:0.33 21:0.2 22:0.2 23:1.0 24:0.67 25:1.0 26:0.33 27:1.0 28:0.17 29:0.67 30:0.5 31:0.17 32:0.5 34:0.33 35:0.33 36:1.0 38:0.75 39:0.2 40:0.8 42:0.5 44:0.5 45:1.0 46:0.5 47:1.0 48:0.67 49:0.4 50:1.0 51:0.5 53:0.17 54:0.33 55:0.5 56:0.67 57:0.2 58:0.33 59:0.67 60:0.67 63:0.2 65:0.33 66:0.43 68:1.0 69:0.33 71:0.75 72:0.33 73:0.5 74:0.25 75:0.12 76:1.0 77:0.5 78:0.33 80:0.4 81:1.0 82:1.0 83:1.0 84:0.2 85:0.4 86:0.14 87:0.5 88:0.5 90:1.0 91:1.0 92:0.5 95:0.33 96:0.5 99:1.0 100:0.5 101:0.29 103:0.5 104:0.5 105:0.33 106:1.0 107:0.33 108:1.0 109:0.2 110:0.4 113:1.0 116:1.0 117:0.5 120:0.2 122:0.14 124:0.5 125:0.33 126:0.25 128:0.5 131:0.4 134:0.43 136:0.17 138:0.2 139:0.4 140:1.0 142:0.5 143:0.5 144:0.5 145:0.2 147:0.17 148:0.67 149:1.0 151:0.67 152:0.5 153:0.5 154:0.33 155:1.0 156:0.29 157:0.14 158:0.17 160:1.0 161:0.5 163:0.2 164:0.67 165:0.33 166:0.2 167:0.4 169:0.2 171:0.5 172:0.25 173:1.0 
-1.0 -1.0 -1.0 -1.0 1.0 1.0 1.0 10:0.2 13:0.5 17:0.25 19:0.17 22:0.2 24:0.33 26:0.33 27:0.5 30:0.5 33:0.4 35:0.67 37:0.29 38:0.25 41:0.2 42:0.17 44:0.25 46:0.5 49:0.2 50:0.33 52:0.33 53:0.17 54:0.33 55:0.17 61:0.5 63:0.2 65:0.33 66:0.14 67:0.5 68:0.33 69:0.17 74:0.25 78:0.17 80:0.2 81:0.33 85:0.2 88:0.5 89:0.2 91:0.25 95:0.33 96:0.25 97:0.17 98:0.5 101:0.14 103:0.5 104:0.5 105:0.33 107:0.17 108:0.25 110:0.4 111:0.67 112:0.67 118:1.0 119:0.25 120:0.2 121:0.33 132:0.4 135:1.0 148:0.33 156:0.14 159:0.33 161:0.5 162:1.0 
-1.0 -1.0 -1.0 -1.0 0.17158313056858004 1.0 1.0 2:0.5 4:0.67 5:0.5 6:0.5 8:0.5 10:0.4 12:0.67 14:0.5 15:0.5 17:0.25 19:0.17 24:0.33 25:1.0 29:0.33 30:0.5 34:0.67 38:0.25 40:0.4 42:0.33 44:0.5 45:0.33 48:0.33 49:0.2 51:1.0 54:0.33 55:0.33 56:0.33 59:0.67 60:0.33 66:0.29 68:0.33 69:0.17 71:0.5 73:0.5 74:0.5 78:0.33 80:0.2 81:0.33 82:0.33 83:1.0 85:0.2 90:1.0 91:0.25 92:0.33 95:0.33 96:0.25 99:0.5 100:0.5 101:0.14 103:0.5 104:0.25 105:0.67 106:0.5 107:0.17 108:0.25 110:0.4 113:1.0 116:0.5 125:0.17 127:1.0 128:1.0 131:0.2 132:0.2 134:0.14 139:0.2 140:1.0 143:0.5 144:1.0 148:0.67 149:1.0 151:0.33 152:0.5 153:0.25 155:1.0 156:0.14 160:1.0 161:0.5 164:0.33 165:0.33 167:0.2 171:0.25 173:1.0 
-0.9808363437300206 -1.0 -1.0 -1.0 -1.0 0.679635930502052 1.0 2:0.5 4:0.33 5:0.5 6:0.5 8:0.5 10:0.2 12:0.67 13:1.0 15:1.0 17:1.0 20:1.0 24:0.67 25:1.0 29:1.0 30:0.5 33:0.8 34:0.33 35:0.67 37:0.86 38:0.25 40:0.2 41:1.0 42:0.83 44:0.5 45:0.33 48:0.33 51:0.5 52:1.0 54:1.0 55:0.83 56:0.33 59:0.33 61:1.0 62:1.0 65:1.0 66:0.86 67:1.0 71:0.25 73:0.5 74:0.75 77:1.0 78:0.83 81:0.33 82:0.33 88:0.5 89:0.8 91:0.25 92:0.83 94:0.5 95:0.67 96:1.0 97:0.83 98:1.0 99:0.5 100:0.5 103:0.5 104:0.75 105:0.67 108:0.25 110:0.6 111:0.67 112:1.0 113:1.0 115:1.0 117:1.0 118:1.0 119:1.0 121:0.67 125:0.17 128:0.5 131:0.2 132:0.8 134:0.14 135:1.0 139:0.2 140:1.0 143:0.5 148:0.67 151:0.33 153:0.25 155:1.0 156:1.0 159:1.0 160:1.0 161:1.0 162:1.0 164:0.33 165:0.33 167:0.2 171:0.25 173:0.5 
-1.0 -1.0 -1.0 -1.0 -1.0 1.0 1.0 2:0.5 4:0.67 5:0.5 6:0.5 8:0.5 10:0.4 12:0.33 13:0.5 14:0.5 15:0.5 17:0.5 19:0.17 24:0.33 25:1.0 29:0.33 30:1.0 33:0.2 34:0.33 35:0.33 37:0.14 38:0.25 40:0.4 42:0.5 44:0.25 45:0.33 48:0.33 49:0.2 51:0.5 52:0.17 54:0.67 55:0.5 56:0.33 59:0.67 60:0.33 61:0.5 65:0.33 66:0.43 68:0.33 69:0.17 71:0.5 73:0.5 74:0.5 78:0.5 80:0.2 81:0.33 82:0.33 83:1.0 85:0.2 90:1.0 91:0.25 92:0.33 95:0.67 96:0.5 98:0.5 99:0.5 100:0.5 101:0.14 103:0.5 104:0.5 105:0.67 106:0.5 107:0.17 108:0.25 110:0.4 111:0.33 112:0.33 113:1.0 116:0.5 118:1.0 121:0.33 125:0.17 128:0.5 131:0.2 132:1.0 134:0.14 135:1.0 139:0.2 140:1.0 143:0.5 144:0.5 146:1.0 148:1.0 149:1.0 151:0.33 152:0.5 153:0.25 155:1.0 156:0.71 159:0.67 160:1.0 161:1.0 162:1.0 164:0.33 165:0.33 167:0.2 171:0.25 173:1.0 
-1.0 -1.0 -0.7452849099046197 -1.0 -1.0 1.0 1.0 2:0.5 4:0.33 5:0.5 6:0.5 8:0.5 10:0.2 12:0.67 13:1.0 15:1.0 17:1.0 20:1.0 24:0.67 25:1.0 29:1.0 30:0.5 33:0.8 34:0.33 35:0.67 37:0.86 38:0.25 40:0.2 41:1.0 42:0.83 44:0.5 45:0.33 48:0.33 51:0.5 52:1.0 54:1.0 55:0.83 56:0.33 59:0.33 61:1.0 62:1.0 65:1.0 66:0.86 67:1.0 71:0.25 73:0.5 74:0.75 77:1.0 78:0.83 81:0.33 82:0.33 88:0.5 89:0.8 91:0.25 92:0.83 94:0.5 95:0.67 96:1.0 97:0.83 98:1.0 99:0.5 100:0.5 103:0.5 104:0.75 105:0.67 108:0.25 110:0.6 111:0.67 112:1.0 113:1.0 115:1.0 117:1.0 118:1.0 119:1.0 121:0.67 125:0.17 128:0.5 131:0.2 132:0.8 134:0.14 135:1.0 139:0.2 140:1.0 143:0.5 148:0.67 151:0.33 153:0.25 155:1.0 156:1.0 159:1.0 160:1.0 161:1.0 162:1.0 164:0.33 165:0.33 167:0.2 171:0.25 173:0.5 
-1.0 -1.0 -1.0 -1.0 -1.0 1.0 1.0 2:0.5 4:0.67 5:0.5 6:1.0 8:0.5 10:0.6 12:1.0 13:1.0 14:0.5 15:1.0 17:0.75 19:0.33 20:1.0 22:0.2 24:1.0 25:1.0 26:0.33 27:0.5 29:0.67 30:1.0 33:0.4 34:1.0 35:1.0 37:0.29 38:0.5 40:0.4 41:0.2 42:0.5 44:1.0 45:0.33 46:0.5 48:0.33 49:0.4 50:0.33 51:1.0 52:0.33 53:0.17 54:1.0 55:0.67 56:0.33 59:0.67 60:0.33 61:1.0 62:1.0 63:0.2 65:0.67 66:0.57 67:0.5 68:0.67 69:0.33 71:0.5 73:1.0 74:1.0 77:0.5 78:0.67 80:0.4 81:0.67 82:0.33 83:1.0 85:0.4 88:1.0 89:0.2 90:1.0 91:0.5 92:0.5 94:0.5 95:1.0 96:0.75 97:0.17 98:1.0 99:0.5 100:0.5 101:0.29 103:1.0 104:1.0 105:1.0 106:0.5 107:0.33 108:0.5 110:1.0 111:0.33 112:0.67 113:1.0 115:1.0 116:0.5 117:0.5 118:1.0 119:0.25 120:0.2 121:0.67 125:0.17 127:1.0 128:1.0 131:0.2 132:0.2 134:0.14 135:1.0 139:0.2 140:1.0 143:0.5 144:1.0 146:1.0 148:1.0 149:1.0 151:0.33 152:0.5 153:0.25 155:1.0 156:0.43 159:0.33 160:1.0 161:1.0 162:1.0 164:0.33 165:0.33 167:0.2 171:0.25 173:1.0 
-1.0 -1.0 -1.0 -1.0 -1.0 1.0 1.0 6:0.5 10:0.2 12:0.33 13:1.0 15:0.5 17:0.5 19:0.17 20:1.0 22:0.2 24:0.67 26:0.33 27:0.5 29:0.33 30:0.5 33:0.6 35:1.0 37:0.43 38:0.25 41:0.4 42:0.17 44:0.5 46:0.5 49:0.2 50:0.33 52:0.5 53:0.17 54:0.67 55:0.33 61:1.0 62:1.0 63:0.2 65:0.67 66:0.29 67:1.0 68:0.33 69:0.17 73:0.5 74:0.5 77:0.5 78:0.33 80:0.2 81:0.33 85:0.2 88:1.0 89:0.4 91:0.25 92:0.17 94:0.5 95:0.67 96:0.5 97:0.33 98:1.0 101:0.14 103:0.5 104:0.75 105:0.33 107:0.17 108:0.25 110:0.6 111:0.67 112:1.0 115:1.0 117:0.5 118:1.0 119:0.5 120:0.2 121:0.67 132:1.0 135:1.0 148:0.33 156:0.71 159:1.0 161:0.5 162:1.0 
-1.0 -1.0 -0.8816543456782467 -1.0 -1.0 0.9120577208504215 1.0 2:1.0 4:0.67 5:0.5 6:1.0 8:0.5 10:0.4 12:0.67 13:1.0 14:0.5 15:1.0 17:1.0 19:0.17 20:1.0 24:0.67 25:1.0 29:1.0 30:1.0 33:0.6 34:0.33 35:0.67 37:0.71 38:0.25 40:0.4 41:0.8 42:1.0 44:0.5 45:0.33 48:0.33 49:0.2 51:0.5 52:0.83 54:1.0 55:1.0 56:0.33 59:0.67 60:0.33 61:1.0 62:1.0 65:1.0 66:1.0 67:0.5 68:0.33 69:0.17 71:0.5 73:1.0 74:0.75 77:1.0 78:1.0 80:0.2 81:0.33 82:0.33 83:1.0 85:0.2 88:0.5 89:0.6 90:1.0 91:0.25 92:1.0 94:0.5 95:1.0 96:1.0 97:0.67 98:1.0 99:0.5 100:0.5 101:0.14 103:0.5 104:0.75 105:0.67 106:0.5 107:0.17 108:0.25 110:0.6 111:0.33 112:0.67 113:1.0 115:1.0 116:0.5 117:1.0 118:1.0 119:0.75 121:0.67 125:0.17 128:0.5 131:0.4 132:1.0 134:0.29 135:1.0 139:0.2 140:1.0 143:0.5 144:0.5 148:1.0 149:1.0 151:0.33 152:0.5 153:0.5 155:1.0 156:1.0 159:0.83 160:1.0 161:1.0 162:1.0 164:0.33 165:0.67 167:0.2 170:0.5 171:0.25 173:1.0 
-1.0 -1.0 -1.0 -1.0 -1.0 -1.0 1.0 2:0.5 4:0.33 5:0.5 8:0.5 10:0.2 12:0.33 15:0.5 17:0.5 24:0.33 25:1.0 29:0.67 34:0.33 38:0.25 40:0.2 42:0.33 44:0.25 45:0.33 48:0.33 51:0.5 54:0.33 55:0.33 56:0.33 59:0.33 65:0.33 66:0.29 71:0.25 74:0.25 77:0.5 78:0.17 79:1.0 81:0.33 82:0.33 91:0.25 92:0.33 96:0.5 99:0.5 100:0.5 103:0.25 104:0.25 105:0.33 108:0.25 110:0.2 113:1.0 117:0.5 125:0.17 128:0.5 129:0.17 131:0.2 133:0.2 134:0.29 139:0.2 140:1.0 143:1.0 148:0.33 151:0.33 153:0.5 155:1.0 156:0.29 160:1.0 161:0.5 164:0.67 165:0.67 167:0.4 168:0.25 170:0.5 171:0.25 173:0.5 
-1.0 -0.0 -1.0 -1.0 -0.7713804138216022 -0.0 1.0 1:1.0 2:0.5 3:1.0 5:0.5 7:1.0 9:1.0 10:0.2 11:1.0 16:1.0 17:0.25 18:1.0 21:1.0 28:1.0 29:0.33 31:1.0 32:1.0 33:0.2 36:1.0 37:0.14 38:0.25 39:1.0 40:0.4 42:0.17 43:1.0 45:0.33 47:1.0 48:0.33 50:0.33 55:0.17 56:0.67 57:1.0 58:1.0 60:0.67 64:1.0 65:0.33 66:0.14 71:0.25 72:1.0 75:1.0 76:0.5 77:0.5 79:1.0 82:0.33 84:1.0 86:1.0 87:1.0 89:0.2 91:0.25 92:0.17 93:1.0 94:0.5 96:0.25 97:0.17 100:0.5 102:1.0 108:0.25 109:1.0 111:0.33 114:1.0 116:0.5 117:0.5 121:0.33 122:1.0 123:1.0 124:1.0 125:0.17 126:1.0 129:0.17 130:1.0 131:0.6 133:0.2 134:0.57 136:1.0 138:1.0 139:0.2 141:1.0 142:1.0 143:0.5 145:1.0 147:1.0 151:0.33 153:0.25 154:1.0 156:0.14 157:1.0 158:1.0 163:1.0 164:0.33 165:0.33 166:1.0 167:0.8 168:0.25 169:1.0 170:0.5 171:0.25 172:1.0 
-1.0 -0.5773972558408555 -1.0 -1.0 -1.0 -0.5916936513524734 1.0 1:0.5 2:0.5 4:0.33 5:0.5 6:0.5 7:0.4 9:0.5 10:0.2 11:1.0 14:0.5 16:0.33 18:0.5 19:0.17 28:0.67 30:0.5 31:0.67 32:0.5 33:0.2 36:1.0 37:0.14 39:0.6 40:0.4 42:0.17 43:1.0 45:0.33 47:0.5 49:0.2 55:0.17 57:0.6 58:0.67 59:0.33 60:0.67 64:1.0 66:0.14 68:0.33 69:0.17 71:0.25 72:0.67 73:0.5 75:0.5 78:0.17 80:0.2 83:1.0 84:0.6 85:0.2 86:0.43 87:0.5 89:0.2 90:1.0 91:0.25 92:0.17 93:0.4 94:0.5 95:0.33 97:0.17 101:0.14 102:0.33 106:0.5 107:0.17 109:0.6 111:0.33 116:1.0 121:0.33 122:0.57 123:1.0 124:1.0 126:1.0 130:1.0 131:0.6 134:0.43 136:1.0 138:1.0 141:1.0 142:1.0 144:0.5 145:1.0 147:1.0 148:0.33 149:1.0 152:0.5 154:1.0 157:1.0 158:1.0 163:1.0 166:1.0 167:0.6 169:1.0 172:1.0 173:0.5 
-1.0 -1.0 -1.0 -1.0 -1.0 -1.0 1.0 2:0.5 4:0.67 5:0.5 6:0.5 8:0.5 10:0.4 12:0.33 14:0.5 15:0.5 17:0.25 19:0.17 24:0.33 25:1.0 29:0.33 30:0.5 34:0.33 38:0.25 40:0.4 42:0.33 43:1.0 44:0.25 45:0.33 48:0.33 49:0.2 51:0.5 54:0.33 55:0.33 56:0.33 59:0.67 60:0.33 66:0.29 68:0.33 69:0.17 71:0.5 73:0.5 74:0.25 78:0.33 80:0.2 81:0.33 82:0.33 83:1.0 85:0.2 90:1.0 91:0.25 92:0.33 95:0.33 96:0.25 99:0.5 100:0.5 101:0.14 103:0.25 104:0.25 105:0.33 106:0.5 107:0.17 108:0.25 110:0.2 113:1.0 116:0.5 125:0.17 126:0.25 128:0.5 131:0.2 134:0.14 136:0.17 138:0.2 139:0.2 140:1.0 141:0.5 143:0.5 144:0.5 145:0.2 147:0.17 148:0.67 149:1.0 151:0.33 152:0.5 153:0.25 155:1.0 156:0.14 157:0.14 160:1.0 161:0.5 163:0.2 164:0.33 165:0.33 166:0.2 167:0.2 169:0.2 171:0.25 172:0.25 173:1.0 
-1.0 -1.0 -1.0 -1.0 -1.0 -1.0 1.0 2:0.5 4:0.67 5:1.0 6:0.5 8:0.5 10:0.4 11:1.0 12:0.33 14:0.5 15:0.5 16:0.33 17:0.25 18:0.17 19:0.17 24:0.33 25:1.0 28:0.17 29:0.33 30:0.5 31:0.17 34:0.33 36:1.0 38:0.25 39:0.2 40:0.6 42:0.33 44:0.25 45:0.67 47:0.5 48:0.33 49:0.2 51:0.5 54:0.33 55:0.33 56:0.33 57:0.2 58:0.33 59:0.67 60:0.67 66:0.29 68:0.33 69:0.17 71:0.5 72:0.33 73:0.5 74:0.25 75:0.12 78:0.33 80:0.2 81:0.33 82:0.33 83:1.0 84:0.2 85:0.2 86:0.14 87:0.5 90:1.0 91:0.5 92:0.33 95:0.33 96:0.25 99:0.5 100:0.5 101:0.14 103:0.25 104:0.25 105:0.33 106:0.5 107:0.17 108:0.25 109:0.2 110:0.2 113:1.0 116:1.0 122:0.14 124:0.5 125:0.17 126:0.25 128:0.5 131:0.4 134:0.29 136:0.17 138:0.2 139:0.2 140:1.0 142:0.5 143:0.5 144:0.5 145:0.2 147:0.17 148:0.67 149:1.0 151:0.33 152:0.5 153:0.25 154:0.33 155:1.0 156:0.14 157:0.14 158:0.17 160:1.0 161:0.5 163:0.2 164:0.33 165:0.33 166:0.2 167:0.4 169:0.2 171:0.25 172:0.25 173:1.0 
-1.0 -1.0 -1.0 -1.0 -1.0 -1.0 1.0 1:0.5 5:0.5 7:0.6 9:0.5 11:1.0 16:0.33 18:0.67 28:0.5 31:0.5 32:0.5 33:0.2 36:1.0 37:0.14 39:0.6 40:0.2 43:1.0 45:0.33 47:0.5 57:0.6 58:0.67 60:0.33 64:0.33 72:0.33 75:0.62 84:0.6 86:0.71 87:0.5 89:0.2 91:0.25 93:0.6 94:0.5 97:0.17 102:0.67 109:0.6 111:0.33 116:0.5 121:0.33 122:0.57 124:0.5 126:1.0 131:0.2 134:0.14 136:0.67 138:0.8 141:1.0 142:1.0 145:0.8 147:1.0 154:0.33 157:0.71 158:0.67 163:1.0 166:1.0 167:0.2 169:0.6 172:0.75 
-1.0 -0.4226027441591445 -1.0 -1.0 -1.0 -0.0 1.0 1:1.0 2:0.5 3:1.0 5:0.5 7:1.0 9:1.0 10:0.2 11:1.0 16:1.0 17:0.25 18:1.0 21:1.0 28:1.0 29:0.33 31:1.0 32:1.0 33:0.2 36:1.0 37:0.14 38:0.25 39:1.0 40:0.4 42:0.17 43:1.0 45:0.33 47:1.0 48:0.33 50:0.33 55:0.17 56:0.67 57:1.0 58:1.0 60:0.67 64:1.0 65:0.33 66:0.14 71:0.25 72:1.0 75:1.0 76:0.5 77:0.5 79:1.0 82:0.33 84:1.0 86:1.0 87:1.0 89:0.2 91:0.25 92:0.17 93:1.0 94:0.5 96:0.25 97:0.17 100:0.5 102:1.0 108:0.25 109:1.0 111:0.33 114:1.0 116:0.5 117:0.5 121:0.33 122:1.0 123:1.0 124:1.0 125:0.17 126:1.0 129:0.17 130:1.0 131:0.6 133:0.2 134:0.57 136:1.0 138:1.0 139:0.2 141:1.0 142:1.0 143:0.5 145:1.0 147:1.0 151:0.33 153:0.25 154:1.0 156:0.14 157:1.0 158:1.0 163:1.0 164:0.33 165:0.33 166:1.0 167:0.8 168:0.25 169:1.0 170:0.5 171:0.25 172:1.0 
-1.0 -1.0 -1.0 -1.0 -1.0 -1.0 1.0 4:0.67 5:1.0 7:0.2 8:0.5 9:0.33 10:0.6 11:1.0 12:0.33 15:0.5 16:0.33 17:0.25 18:0.5 19:0.17 22:0.2 23:1.0 24:0.67 25:1.0 26:0.33 27:1.0 28:0.5 29:0.33 31:0.5 34:0.33 35:0.33 36:1.0 38:0.75 39:0.6 40:0.6 42:0.17 43:1.0 44:0.5 45:1.0 46:1.0 47:0.5 48:0.67 49:0.2 50:0.67 51:0.5 53:0.17 54:0.33 55:0.17 56:0.33 57:0.4 58:0.33 59:0.33 60:0.33 63:0.2 64:0.67 66:0.14 68:0.67 69:0.17 71:0.5 72:0.67 74:0.25 75:0.38 76:0.5 78:0.17 80:0.2 81:1.0 82:0.67 84:0.6 85:0.2 86:0.29 87:0.5 88:0.5 91:1.0 92:0.17 93:0.4 96:0.25 99:1.0 100:0.5 101:0.14 102:0.17 103:0.5 104:0.5 105:0.33 106:0.5 107:0.17 108:0.75 109:0.6 110:0.4 113:1.0 116:0.5 120:0.2 122:0.43 123:1.0 124:1.0 125:0.17 126:0.75 128:0.5 130:1.0 131:0.8 134:0.71 136:1.0 138:1.0 139:0.2 140:1.0 141:0.5 142:0.5 143:0.5 145:1.0 147:0.83 148:0.33 151:0.33 153:0.5 154:1.0 155:1.0 156:0.14 157:1.0 158:1.0 160:1.0 161:0.5 163:0.8 164:0.67 165:0.33 166:1.0 167:0.8 169:1.0 171:0.25 172:1.0 173:0.5 
-0.0 -1.0 -1.0 -0.02419702415793737 -0.0 -0.0 -0.0 2:0.5 4:0.33 5:0.5 8:0.5 10:0.2 12:0.33 15:0.5 17:0.5 24:0.33 25:1.0 29:0.67 34:0.33 38:0.25 40:0.2 42:0.33 44:0.25 45:0.33 48:0.33 51:0.5 54:0.33 55:0.33 56:0.33 59:0.33 65:0.33 66:0.29 71:0.25 74:0.25 77:0.5 78:0.17 79:1.0 81:0.33 82:0.33 91:0.25 92:0.33 96:0.5 99:0.5 100:0.5 103:0.25 104:0.25 105:0.33 108:0.25 110:0.2 113:1.0 117:0.5 125:0.17 128:0.5 129:0.17 131:0.2 133:0.2 134:0.29 139:0.2 140:1.0 143:1.0 148:0.33 151:0.33 153:0.5 155:1.0 156:0.29 160:1.0 161:0.5 164:0.67 165:0.67 167:0.4 168:0.25 170:0.5 171:0.25 173:0.5 
-1.0 -0.0 -1.0 -0.0 -0.5924101573479741 -0.2102179444362726 -0.9136398227660896 2:1.0 4:1.0 5:1.0 6:0.5 7:0.2 8:0.5 9:0.33 10:0.8 11:1.0 12:0.33 14:0.5 15:0.5 16:0.33 17:0.5 18:0.5 19:0.33 22:0.2 23:1.0 24:0.67 25:1.0 26:0.33 27:1.0 28:0.5 29:0.67 30:0.5 31:0.5 34:0.33 35:0.33 36:1.0 38:0.75 39:0.6 40:0.8 42:0.5 43:1.0 44:0.5 45:1.0 46:0.5 47:0.5 48:0.67 49:0.4 50:0.67 51:0.5 53:0.17 54:0.33 55:0.5 56:0.33 57:0.4 58:0.33 59:0.67 60:0.67 63:0.2 64:0.67 65:0.33 66:0.43 68:1.0 69:0.33 71:0.75 72:0.67 73:0.5 74:0.25 75:0.38 76:0.5 77:0.5 78:0.33 80:0.4 81:1.0 82:0.67 83:1.0 84:0.6 85:0.4 86:0.29 87:0.5 88:0.5 90:1.0 91:1.0 92:0.5 93:0.4 95:0.33 96:0.5 99:1.0 100:0.5 101:0.29 102:0.17 103:0.5 104:0.5 105:0.33 106:1.0 107:0.33 108:0.75 109:0.6 110:0.4 113:1.0 116:1.0 117:0.5 120:0.2 122:0.43 123:1.0 124:1.0 125:0.17 126:0.75 128:0.5 130:1.0 131:1.0 134:0.86 136:1.0 138:1.0 139:0.2 140:1.0 141:0.5 142:0.5 143:0.5 144:0.5 145:1.0 147:0.83 148:0.67 149:1.0 151:0.33 152:0.5 153:0.75 154:1.0 155:1.0 156:0.29 157:1.0 158:1.0 160:1.0 161:0.5 163:0.8 164:0.67 165:0.67 166:1.0 167:0.8 169:1.0 170:0.5 171:0.25 172:1.0 173:1.0 
-1.0 -0.0 -1.0 -0.0 -0.0 -0.0 -0.0 4:0.33 5:1.0 7:0.6 8:0.5 9:0.67 10:0.2 11:1.0 12:0.33 15:0.5 16:0.33 17:0.25 18:1.0 24:0.33 25:1.0 28:0.67 29:0.33 31:0.67 34:0.33 36:1.0 38:0.25 39:1.0 40:0.4 42:0.17 44:0.25 45:0.67 47:0.5 48:0.33 51:0.5 54:0.33 55:0.17 56:0.33 57:0.6 58:0.33 59:0.33 60:0.33 64:0.67 66:0.14 71:0.25 72:0.67 74:0.25 75:0.75 78:0.17 81:0.33 82:0.33 84:1.0 86:0.71 87:0.5 91:0.5 92:0.17 93:1.0 96:0.25 99:0.5 100:0.5 102:0.67 103:0.25 104:0.25 105:0.33 108:0.25 109:1.0 110:0.2 113:1.0 116:0.5 122:0.71 123:1.0 124:1.0 125:0.17 126:0.25 128:0.5 130:1.0 131:0.8 134:0.57 136:0.5 138:0.4 139:0.2 140:1.0 142:0.5 143:0.5 145:0.4 147:0.17 148:0.33 151:0.33 153:0.25 154:1.0 155:1.0 156:0.14 157:0.43 158:0.5 160:1.0 161:0.5 163:0.2 164:0.33 165:0.33 166:0.2 167:0.8 169:0.6 171:0.25 172:0.5 173:0.5 
-1.0 -0.0 -0.0 -0.0 -0.0 -0.0 -1.0 1:0.5 2:0.5 4:0.33 5:0.5 6:0.5 7:0.2 9:0.17 10:0.2 11:1.0 14:0.5 16:0.33 18:0.17 19:0.17 28:0.33 30:0.5 31:0.33 32:0.5 33:0.2 36:1.0 37:0.14 39:0.2 40:0.4 42:0.17 43:1.0 45:0.33 47:0.5 49:0.2 55:0.17 57:0.4 58:0.67 59:0.33 60:0.67 64:0.33 66:0.14 68:0.33 69:0.17 71:0.25 72:0.33 73:0.5 75:0.25 78:0.17 80:0.2 83:1.0 84:0.2 85:0.2 86:0.29 87:0.5 89:0.2 90:1.0 91:0.25 92:0.17 94:0.5 95:0.33 97:0.17 101:0.14 102:0.17 106:0.5 107:0.17 109:0.2 111:0.33 116:1.0 121:0.33 122:0.29 124:0.5 126:0.75 131:0.2 134:0.14 136:0.33 138:0.4 141:1.0 142:1.0 144:0.5 145:0.4 146:1.0 147:0.5 148:0.33 149:1.0 152:0.5 154:0.33 157:0.29 158:0.17 163:0.6 166:0.4 167:0.2 169:0.4 172:0.5 173:0.5 
-1.0 -0.0 -1.0 -0.0 -0.0 -0.0 -0.0 4:0.33 5:1.0 7:0.6 8:0.5 9:0.67 10:0.2 11:1.0 12:0.33 15:0.5 16:0.33 17:0.25 18:1.0 24:0.33 25:1.0 28:0.67 29:0.33 31:0.67 34:0.33 36:1.0 38:0.25 39:1.0 40:0.4 42:0.17 44:0.25 45:0.67 47:0.5 48:0.33 51:0.5 54:0.33 55:0.17 56:0.33 57:0.6 58:0.33 59:0.33 60:0.33 64:0.67 66:0.14 71:0.25 72:0.67 74:0.25 75:0.75 78:0.17 81:0.33 82:0.33 84:1.0 86:0.71 87:0.5 91:0.5 92:0.17 93:1.0 96:0.25 99:0.5 100:0.5 102:0.67 103:0.25 104:0.25 105:0.33 108:0.25 109:1.0 110:0.2 113:1.0 116:0.5 122:0.71 123:1.0 124:1.0 125:0.17 126:0.25 128:0.5 130:1.0 131:0.8 134:0.57 136:0.5 138:0.4 139:0.2 140:1.0 142:0.5 143:0.5 145:0.4 147:0.17 148:0.33 151:0.33 153:0.25 154:1.0 155:1.0 156:0.14 157:0.43 158:0.5 160:1.0 161:0.5 163:0.2 164:0.33 165:0.33 166:0.2 167:0.8 169:0.6 171:0.25 172:0.5 173:0.5 
-1.0 -0.0 -0.48388999525244947 -0.0 -0.0 -0.0 -1.0 1:0.5 5:0.5 7:0.8 9:0.67 11:1.0 16:0.33 18:0.83 28:0.67 31:0.67 32:0.5 33:0.2 36:1.0 37:0.14 39:0.8 40:0.2 45:0.33 47:0.5 57:0.6 58:0.67 60:0.33 64:0.67 72:0.33 75:0.75 79:1.0 84:0.8 86:0.86 87:0.5 89:0.2 91:0.25 93:0.8 94:0.5 97:0.17 102:0.67 109:0.8 111:0.33 116:0.5 121:0.33 122:0.71 124:0.5 126:0.5 129:0.17 130:0.5 131:0.4 133:0.2 134:0.43 136:0.33 138:0.2 141:0.5 142:1.0 143:0.5 145:0.2 147:0.33 153:0.25 154:0.67 157:0.29 158:0.33 163:0.4 164:0.33 165:0.33 166:0.2 167:0.6 168:0.25 169:0.4 170:0.5 172:0.25 
-0.0 -0.0 -0.0 -1.0 -1.0 -0.8201654129674143 -0.5823119730712639 2:0.5 4:0.67 5:0.5 6:0.5 8:0.5 10:0.4 12:0.33 14:0.5 15:0.5 17:0.25 19:0.17 24:0.33 25:1.0 29:0.33 30:0.5 34:0.33 38:0.25 40:0.4 42:0.33 43:1.0 44:0.25 45:0.33 48:0.33 49:0.2 51:0.5 54:0.33 55:0.33 56:0.33 59:0.67 60:0.33 66:0.29 68:0.33 69:0.17 71:0.5 73:0.5 74:0.25 78:0.33 80:0.2 81:0.33 82:0.33 83:1.0 85:0.2 90:1.0 91:0.25 92:0.33 95:0.33 96:0.25 99:0.5 100:0.5 101:0.14 103:0.25 104:0.25 105:0.33 106:0.5 107:0.17 108:0.25 110:0.2 113:1.0 116:0.5 125:0.17 126:0.25 128:0.5 131:0.2 134:0.14 136:0.17 138:0.2 139:0.2 140:1.0 141:0.5 143:0.5 144:0.5 145:0.2 147:0.17 148:0.67 149:1.0 151:0.33 152:0.5 153:0.25 155:1.0 156:0.14 157:0.14 160:1.0 161:0.5 163:0.2 164:0.33 165:0.33 166:0.2 167:0.2 169:0.2 171:0.25 172:0.25 173:1.0 
-0.0 -0.0 -0.0 -1.0 -0.0 -0.0 -0.0 1:0.5 3:1.0 4:0.33 5:0.5 7:0.2 8:0.5 9:0.17 10:0.4 12:0.33 15:0.5 16:0.67 17:0.25 21:1.0 24:0.33 25:1.0 28:0.17 29:0.33 31:0.17 32:0.5 34:0.33 38:0.5 40:0.4 42:0.17 44:0.25 45:0.33 47:0.5 48:0.67 50:0.33 51:0.5 54:0.33 55:0.17 56:1.0 57:0.2 58:0.33 59:0.33 60:0.33 66:0.14 71:0.5 72:0.33 74:0.25 75:0.12 76:0.5 78:0.17 81:0.33 82:0.67 86:0.14 87:0.5 91:0.25 92:0.17 96:0.25 99:0.5 100:1.0 102:0.17 103:0.25 104:0.25 105:0.33 108:0.5 110:0.2 113:1.0 114:1.0 122:0.14 125:0.33 128:0.5 131:0.2 134:0.14 139:0.4 140:1.0 143:0.5 148:0.33 151:0.67 153:0.25 155:1.0 156:0.14 160:1.0 161:0.5 164:0.33 165:0.33 167:0.2 171:0.5 173:0.5 
-1.0 -0.320321499892726 -0.6967997948355119 -0.0 -0.0 -0.0 -0.798622627175549 4:0.33 5:1.0 7:0.6 8:0.5 9:0.67 10:0.2 11:1.0 12:0.33 15:0.5 16:0.33 17:0.25 18:1.0 24:0.33 25:1.0 28:0.67 29:0.33 31:0.67 34:0.33 36:1.0 38:0.25 39:1.0 40:0.4 42:0.17 44:0.25 45:0.67 47:0.5 48:0.33 51:0.5 54:0.33 55:0.17 56:0.33 57:0.6 58:0.33 59:0.33 60:0.33 64:0.67 66:0.14 71:0.25 72:0.67 74:0.25 75:0.75 78:0.17 81:0.33 82:0.33 84:1.0 86:0.71 87:0.5 91:0.5 92:0.17 93:1.0 96:0.25 99:0.5 100:0.5 102:0.67 103:0.25 104:0.25 105:0.33 108:0.25 109:1.0 110:0.2 113:1.0 116:0.5 122:0.71 123:1.0 124:1.0 125:0.17 126:0.25 128:0.5 130:1.0 131:0.8 134:0.57 136:0.5 138:0.4 139:0.2 140:1.0 142:0.5 143:0.5 145:0.4 147:0.17 148:0.33 151:0.33 153:0.25 154:1.0 155:1.0 156:0.14 157:0.43 158:0.5 160:1.0 161:0.5 163:0.2 164:0.33 165:0.33 166:0.2 167:0.8 169:0.6 171:0.25 172:0.5 173:0.5 
-1.0 -0.0 -1.0 -1.0 -0.0 -0.0 -1.0 2:0.5 4:0.67 5:1.0 6:0.5 7:0.2 8:0.5 9:0.33 10:0.6 11:1.0 12:0.33 14:0.5 15:0.5 16:0.33 17:0.25 18:0.5 19:0.33 22:0.2 24:0.67 25:1.0 26:0.33 27:0.5 28:0.5 29:0.33 30:0.5 31:0.5 34:0.33 35:0.33 36:1.0 38:0.5 39:0.6 40:0.6 42:0.33 43:1.0 44:0.5 45:0.67 46:0.5 47:0.5 48:0.33 49:0.4 50:0.33 51:0.5 53:0.17 54:0.33 55:0.33 56:0.33 57:0.4 58:0.33 59:0.67 60:0.67 63:0.2 64:0.67 66:0.29 68:0.67 69:0.33 71:0.5 72:0.67 73:0.5 74:0.25 75:0.38 78:0.33 80:0.4 81:0.67 82:0.33 83:1.0 84:0.6 85:0.4 86:0.29 87:0.5 88:0.5 90:1.0 91:0.75 92:0.33 93:0.4 95:0.33 96:0.25 99:0.5 100:0.5 101:0.29 102:0.17 103:0.5 104:0.5 105:0.33 106:0.5 107:0.33 108:0.5 109:0.6 110:0.4 113:1.0 116:1.0 120:0.2 122:0.43 123:1.0 124:1.0 125:0.17 126:0.75 128:0.5 130:1.0 131:0.8 134:0.57 136:1.0 138:1.0 139:0.2 140:1.0 141:0.5 142:0.5 143:0.5 144:0.5 145:1.0 147:0.83 148:0.67 149:1.0 151:0.33 152:0.5 153:0.25 154:1.0 155:1.0 156:0.14 157:1.0 158:1.0 160:1.0 161:0.5 163:0.8 164:0.33 165:0.33 166:1.0 167:0.8 169:1.0 171:0.25 172:1.0 173:1.0 
-0.11678522133045247 -0.0 -0.0 -1.0 -0.3687595955612927 -0.0 -0.0 2:0.5 4:0.67 5:1.0 6:0.5 8:0.5 10:0.4 11:1.0 12:0.33 14:0.5 15:0.5 16:0.33 17:0.25 18:0.17 19:0.17 24:0.33 25:1.0 28:0.17 29:0.33 30:0.5 31:0.17 34:0.33 36:1.0 38:0.25 39:0.2 40:0.6 42:0.33 44:0.25 45:0.67 47:0.5 48:0.33 49:0.2 51:0.5 54:0.33 55:0.33 56:0.33 57:0.2 58:0.33 59:0.67 60:0.67 66:0.29 68:0.33 69:0.17 71:0.5 72:0.33 73:0.5 74:0.25 75:0.12 78:0.33 80:0.2 81:0.33 82:0.33 83:1.0 84:0.2 85:0.2 86:0.14 87:0.5 90:1.0 91:0.5 92:0.33 95:0.33 96:0.25 99:0.5 100:0.5 101:0.14 103:0.25 104:0.25 105:0.33 106:0.5 107:0.17 108:0.25 109:0.2 110:0.2 113:1.0 116:1.0 122:0.14 124:0.5 125:0.17 126:0.25 128:0.5 131:0.4 134:0.29 136:0.17 138:0.2 139:0.2 140:1.0 142:0.5 143:0.5 144:0.5 145:0.2 147:0.17 148:0.67 149:1.0 151:0.33 152:0.5 153:0.25 154:0.33 155:1.0 156:0.14 157:0.14 158:0.17 160:1.0 161:0.5 163:0.2 164:0.33 165:0.33 166:0.2 167:0.4 169:0.2 171:0.25 172:0.25 173:1.0 
-0.0 -0.0 -0.0 -1.0 -0.0 -0.0 -0.0 1:0.5 3:1.0 4:0.33 5:0.5 7:0.2 8:0.5 9:0.17 10:0.4 12:0.33 15:0.5 16:0.67 17:0.25 21:1.0 24:0.33 25:1.0 28:0.17 29:0.33 31:0.17 32:0.5 34:0.33 38:0.5 40:0.4 42:0.17 44:0.25 45:0.33 47:0.5 48:0.67 50:0.33 51:0.5 54:0.33 55:0.17 56:1.0 57:0.2 58:0.33 59:0.33 60:0.33 66:0.14 71:0.5 72:0.33 74:0.25 75:0.12 76:0.5 78:0.17 81:0.33 82:0.67 86:0.14 87:0.5 91:0.25 92:0.17 96:0.25 99:0.5 100:1.0 102:0.17 103:0.25 104:0.25 105:0.33 108:0.5 110:0.2 113:1.0 114:1.0 122:0.14 125:0.33 128:0.5 131:0.2 134:0.14 139:0.4 140:1.0 143:0.5 148:0.33 151:0.67 153:0.25 155:1.0 156:0.14 160:1.0 161:0.5 164:0.33 165:0.33 167:0.2 171:0.5 173:0.5 
-0.0 -1.0 -1.0 -1.0 -0.0 -1.0 -0.0 2:0.5 4:0.33 5:0.5 8:0.5 10:0.2 12:0.33 15:0.5 17:0.5 24:0.33 25:1.0 29:0.67 34:0.33 38:0.25 40:0.2 42:0.33 44:0.25 45:0.33 48:0.33 51:0.5 54:0.33 55:0.33 56:0.33 59:0.33 65:0.33 66:0.29 71:0.25 74:0.25 77:0.5 78:0.17 79:1.0 81:0.33 82:0.33 91:0.25 92:0.33 96:0.5 99:0.5 100:0.5 103:0.25 104:0.25 105:0.33 108:0.25 110:0.2 113:1.0 117:0.5 125:0.17 128:0.5 129:0.17 131:0.2 133:0.2 134:0.29 139:0.2 140:1.0 143:1.0 148:0.33 151:0.33 153:0.5 155:1.0 156:0.29 160:1.0 161:0.5 164:0.67 165:0.67 167:0.4 168:0.25 170:0.5 171:0.25 173:0.5 
-0.0 -0.47774864685721896 -1.0 -1.0 -1.0 -0.5113077707289574 -0.0 2:0.5 4:0.67 5:0.5 8:0.5 10:0.4 12:0.33 15:0.5 17:0.5 23:1.0 24:0.33 25:1.0 27:0.5 29:0.67 34:0.33 38:0.5 40:0.4 42:0.33 44:0.25 45:0.67 48:0.67 50:0.33 51:0.5 54:0.33 55:0.33 56:0.33 59:0.33 65:0.33 66:0.29 68:0.33 71:0.5 74:0.25 76:0.5 77:0.5 78:0.17 81:0.67 82:0.67 91:0.5 92:0.33 96:0.5 99:1.0 100:0.5 103:0.25 104:0.25 105:0.33 106:0.5 108:0.5 110:0.2 113:1.0 117:0.5 125:0.17 128:0.5 131:0.4 134:0.43 139:0.2 140:1.0 143:0.5 148:0.33 151:0.33 153:0.75 155:1.0 156:0.29 160:1.0 161:0.5 164:0.67 165:0.67 167:0.2 170:0.5 171:0.25 173:0.5 
-0.0 -0.0 -0.0 -1.0 -0.0 -0.0 -0.0 1:0.5 3:1.0 4:0.33 5:0.5 7:0.2 8:0.5 9:0.17 10:0.4 12:0.33 15:0.5 16:0.67 17:0.25 21:1.0 24:0.33 25:1.0 28:0.17 29:0.33 31:0.17 32:0.5 34:0.33 38:0.5 40:0.4 42:0.17 44:0.25 45:0.33 47:0.5 48:0.67 50:0.33 51:0.5 54:0.33 55:0.17 56:1.0 57:0.2 58:0.33 59:0.33 60:0.33 66:0.14 71:0.5 72:0.33 74:0.25 75:0.12 76:0.5 78:0.17 81:0.33 82:0.67 86:0.14 87:0.5 91:0.25 92:0.17 96:0.25 99:0.5 100:1.0 102:0.17 103:0.25 104:0.25 105:0.33 108:0.5 110:0.2 113:1.0 114:1.0 122:0.14 125:0.33 128:0.5 131:0.2 134:0.14 139:0.4 140:1.0 143:0.5 148:0.33 151:0.67 153:0.25 155:1.0 156:0.14 160:1.0 161:0.5 164:0.33 165:0.33 167:0.2 171:0.5 173:0.5 
-0.976420818022479 -0.0 -0.0 -1.0 -1.0 -0.0 -0.0 2:0.5 4:0.33 6:0.5 10:0.2 14:0.5 19:0.17 30:0.5 40:0.2 42:0.17 49:0.2 55:0.17 59:0.33 60:0.33 66:0.14 68:0.33 69:0.17 71:0.25 73:0.5 78:0.17 80:0.2 83:1.0 85:0.2 90:1.0 92:0.17 95:0.33 101:0.14 106:0.5 107:0.17 116:0.5 132:0.2 144:0.5 148:0.33 149:1.0 152:0.5 173:0.5 
-0.29220482738604403 -0.0 -0.0 -1.0 -1.0 -0.0 -0.0 1:1.0 2:0.5 3:1.0 4:0.33 6:0.5 7:0.4 9:0.33 10:0.4 12:0.33 14:0.5 16:0.67 19:0.17 21:1.0 28:0.33 30:0.5 31:0.33 32:1.0 33:0.2 34:0.33 37:0.14 38:0.25 40:0.4 42:0.17 44:0.25 47:0.5 48:0.33 49:0.2 50:0.33 51:0.5 55:0.17 56:0.67 57:0.4 58:0.67 59:0.33 60:0.67 64:0.33 66:0.14 68:0.33 69:0.17 71:0.5 72:0.33 73:0.5 74:0.25 75:0.25 76:0.5 78:0.17 80:0.2 82:0.33 83:1.0 85:0.2 86:0.29 87:0.5 89:0.2 90:1.0 92:0.17 94:0.5 95:0.33 97:0.17 100:0.5 101:0.14 102:0.33 103:0.25 105:0.33 106:0.5 107:0.17 108:0.25 110:0.2 111:0.33 114:1.0 116:0.5 121:0.33 122:0.29 125:0.17 126:0.25 127:1.0 128:0.5 132:0.2 139:0.2 141:0.5 142:0.5 144:1.0 147:0.17 148:0.33 149:1.0 151:0.33 152:0.5 163:0.2 171:0.25 173:0.5 
-1.0 -0.2460860277170347 -0.0 -1.0 -1.0 -0.18748856788642662 -0.0 1:0.5 2:0.5 4:0.33 6:0.5 7:0.2 9:0.17 10:0.2 12:0.33 14:0.5 19:0.17 28:0.17 30:0.5 31:0.17 32:0.5 33:0.2 34:0.33 37:0.14 40:0.2 42:0.17 44:0.25 49:0.2 51:0.5 55:0.17 57:0.2 58:0.33 59:0.33 60:0.33 64:0.33 66:0.14 68:0.33 69:0.17 71:0.25 73:0.5 74:0.25 75:0.12 78:0.17 80:0.2 83:1.0 85:0.2 86:0.14 89:0.2 90:1.0 92:0.17 94:0.5 95:0.33 97:0.17 101:0.14 102:0.17 103:0.25 105:0.33 106:0.5 107:0.17 110:0.2 111:0.33 116:0.5 121:0.33 122:0.14 126:0.25 127:1.0 128:0.5 141:0.5 142:0.5 144:1.0 146:1.0 147:0.17 148:0.33 149:1.0 152:0.5 163:0.2 173:0.5 
-0.0 -0.40595087588271805 -0.0 -1.0 -1.0 -1.0 -0.0 2:1.0 4:0.67 5:0.5 6:0.5 8:0.5 10:0.4 12:0.33 13:0.5 14:0.5 15:0.5 17:0.75 19:0.17 24:0.33 25:1.0 29:0.67 30:1.0 33:0.2 34:0.33 35:0.33 37:0.14 38:0.25 40:0.4 42:0.67 44:0.25 45:0.33 48:0.33 49:0.2 51:0.5 52:0.17 54:0.67 55:0.67 56:0.33 59:0.67 60:0.33 61:0.5 65:0.67 66:0.57 68:0.33 69:0.17 71:0.5 73:0.5 74:0.5 77:0.5 78:0.5 80:0.2 81:0.33 82:0.33 83:1.0 85:0.2 90:1.0 91:0.25 92:0.5 95:0.67 96:0.75 98:0.5 99:0.5 100:0.5 101:0.14 103:0.5 104:0.5 105:0.67 106:0.5 107:0.17 108:0.25 110:0.4 111:0.33 112:0.33 113:1.0 116:0.5 117:0.5 118:1.0 121:0.33 125:0.17 128:0.5 131:0.2 132:0.2 134:0.14 135:1.0 139:0.2 140:1.0 143:0.5 144:0.5 148:1.0 149:1.0 151:0.33 152:0.5 153:0.25 155:1.0 156:0.43 159:0.17 160:1.0 161:1.0 162:1.0 164:0.33 165:0.33 167:0.2 171:0.25 173:1.0 
-0.8556413907492129 -0.0 -1.0 -0.0 -0.0 -0.0 -0.5420544280389044 1:1.0 3:1.0 4:0.33 7:0.4 9:0.5 10:0.4 16:0.67 18:0.17 21:1.0 23:1.0 27:0.5 28:0.5 31:0.5 32:1.0 33:0.2 37:0.14 38:0.5 39:0.2 40:0.4 45:0.33 47:0.5 48:0.67 50:0.67 56:0.67 57:0.6 58:0.67 60:0.33 64:0.67 68:0.33 71:0.5 72:0.67 75:0.38 76:1.0 79:1.0 81:0.33 82:0.67 84:0.2 86:0.29 87:0.5 89:0.2 91:0.25 93:0.2 94:0.5 97:0.17 99:0.5 100:0.5 102:0.5 106:0.5 108:0.5 109:0.2 111:0.33 114:1.0 121:0.33 122:0.43 123:1.0 124:0.5 125:0.17 126:0.25 129:0.17 130:0.5 131:0.2 133:0.2 134:0.43 136:0.17 138:0.2 139:0.2 141:0.5 142:0.5 143:0.5 145:0.2 147:0.17 151:0.33 153:0.5 154:0.33 157:0.14 158:0.17 163:0.2 164:0.67 165:0.33 167:0.4 168:0.25 169:0.2 170:0.5 171:0.25 172:0.25 
-1.0 -0.0 -0.0 -0.0 -0.0 -0.0 -1.0 1:1.0 3:1.0 5:0.5 7:1.0 9:1.0 10:0.2 11:1.0 16:1.0 18:1.0 21:1.0 28:1.0 31:1.0 32:1.0 33:0.2 36:1.0 37:0.14 38:0.25 39:1.0 40:0.4 43:1.0 45:0.33 47:1.0 48:0.33 50:0.33 56:0.67 57:1.0 58:1.0 60:0.67 64:1.0 71:0.25 72:1.0 75:1.0 76:0.5 82:0.33 84:1.0 86:1.0 87:1.0 89:0.2 91:0.25 93:1.0 94:0.5 97:0.17 100:0.5 102:1.0 108:0.25 109:1.0 111:0.33 114:1.0 116:0.5 121:0.33 122:1.0 123:1.0 124:1.0 125:0.17 126:1.0 130:1.0 131:0.6 134:0.43 136:1.0 138:1.0 139:0.2 141:1.0 142:1.0 145:1.0 147:1.0 151:0.33 154:1.0 157:1.0 158:1.0 163:1.0 166:1.0 167:0.6 169:1.0 171:0.25 172:1.0 
-0.0 -0.879690848835028 -0.0 -0.09701010954075331 -0.0 -0.0 -0.0 1:0.5 3:1.0 4:0.33 5:0.5 7:0.2 8:0.5 9:0.17 10:0.4 12:0.33 15:0.5 16:0.67 17:0.25 21:1.0 24:0.33 25:1.0 28:0.17 29:0.33 31:0.17 32:0.5 34:0.33 38:0.5 40:0.4 42:0.17 44:0.25 45:0.33 47:0.5 48:0.67 50:0.33 51:0.5 54:0.33 55:0.17 56:1.0 57:0.2 58:0.33 59:0.33 60:0.33 66:0.14 71:0.5 72:0.33 74:0.25 75:0.12 76:0.5 78:0.17 81:0.33 82:0.67 86:0.14 87:0.5 91:0.25 92:0.17 96:0.25 99:0.5 100:1.0 102:0.17 103:0.25 104:0.25 105:0.33 108:0.5 110:0.2 113:1.0 114:1.0 122:0.14 125:0.33 128:0.5 131:0.2 134:0.14 139:0.4 140:1.0 143:0.5 148:0.33 151:0.67 153:0.25 155:1.0 156:0.14 160:1.0 161:0.5 164:0.33 165:0.33 167:0.2 171:0.5 173:0.5 
-1.0 -0.0 -0.0 -0.8787928663013094 -0.31411301544695414 -0.0 -0.0 1:1.0 2:0.5 3:1.0 4:0.33 6:0.5 7:0.4 9:0.33 10:0.4 12:0.33 14:0.5 16:0.67 19:0.17 21:1.0 28:0.33 30:0.5 31:0.33 32:1.0 33:0.2 34:0.33 37:0.14 38:0.25 40:0.4 42:0.17 44:0.25 47:0.5 48:0.33 49:0.2 50:0.33 51:0.5 55:0.17 56:0.67 57:0.4 58:0.67 59:0.33 60:0.67 64:0.33 66:0.14 68:0.33 69:0.17 71:0.5 72:0.33 73:0.5 74:0.25 75:0.25 76:0.5 78:0.17 80:0.2 82:0.33 83:1.0 85:0.2 86:0.29 87:0.5 89:0.2 90:1.0 92:0.17 94:0.5 95:0.33 97:0.17 100:0.5 101:0.14 102:0.33 103:0.25 105:0.33 106:0.5 107:0.17 108:0.25 110:0.2 111:0.33 114:1.0 116:0.5 121:0.33 122:0.29 125:0.17 126:0.25 127:1.0 128:0.5 132:0.2 139:0.2 141:0.5 142:0.5 144:1.0 146:1.0 147:0.17 148:0.33 149:1.0 151:0.33 152:0.5 163:0.2 171:0.25 173:0.5 
-0.7589477425118116 -0.14268479183430702 -0.0 -1.0 -1.0 -1.0 -0.3129623051116639 1:0.5 2:0.5 3:0.17 7:0.2 9:0.17 16:0.33 17:0.25 21:0.2 28:0.17 29:0.33 31:0.17 32:1.0 33:0.4 37:0.29 41:0.2 42:0.17 47:0.5 50:0.33 52:0.17 55:0.17 56:0.33 57:0.2 58:0.33 64:0.33 65:0.33 66:0.14 67:0.5 75:0.12 76:0.5 77:0.5 82:0.33 86:0.14 89:0.4 92:0.17 94:0.5 96:0.25 97:0.33 102:0.17 108:0.25 111:0.67 112:0.33 117:0.5 119:0.25 121:0.33 122:0.14 125:0.17 126:0.25 139:0.2 141:0.5 142:0.5 147:0.17 151:0.33 156:0.14 159:0.17 163:0.2 171:0.25 
-0.0 -0.5275173089809674 -0.6971049122005185 -1.0 -0.7247172316437791 -0.27082030398092916 -0.8504088438365291 2:0.5 4:0.33 5:0.5 8:0.5 10:0.2 12:0.33 15:0.5 17:0.5 24:0.33 25:1.0 29:0.67 34:0.33 38:0.25 40:0.2 42:0.33 44:0.25 45:0.33 48:0.33 51:0.5 54:0.33 55:0.33 56:0.33 59:0.33 65:0.33 66:0.29 71:0.25 74:0.25 77:0.5 78:0.17 79:1.0 81:0.33 82:0.33 91:0.25 92:0.33 96:0.5 99:0.5 100:0.5 103:0.25 104:0.25 105:0.33 108:0.25 110:0.2 113:1.0 117:0.5 125:0.17 128:0.5 129:0.17 131:0.2 133:0.2 134:0.29 139:0.2 140:1.0 143:1.0 148:0.33 151:0.33 153:0.5 155:1.0 156:0.29 160:1.0 161:0.5 164:0.67 165:0.67 167:0.4 168:0.25 170:0.5 171:0.25 173:0.5 
-0.0 -1.0 -0.12220529771152014 -1.0 -1.0 -1.0 -0.0 2:0.5 4:0.67 5:0.5 6:1.0 8:0.5 9:0.17 10:0.6 12:1.0 13:1.0 14:0.5 15:1.0 17:0.75 18:0.17 19:0.33 20:1.0 22:0.2 24:1.0 25:1.0 26:0.33 27:0.5 28:0.17 29:0.67 30:1.0 31:0.17 33:0.4 34:0.67 35:1.0 37:0.29 38:0.5 39:0.2 40:0.4 41:0.2 42:0.5 44:1.0 45:0.33 46:0.5 48:0.33 49:0.4 50:0.33 51:1.0 52:0.33 53:0.17 54:1.0 55:0.67 56:0.33 57:0.2 59:0.67 60:0.33 61:1.0 62:1.0 63:0.2 64:0.33 65:0.67 66:0.57 67:0.5 68:0.67 69:0.33 71:0.5 72:0.33 73:1.0 74:1.0 75:0.12 77:0.5 78:0.67 80:0.4 81:0.67 82:0.33 83:1.0 84:0.2 85:0.4 88:1.0 89:0.2 90:1.0 91:0.5 92:0.5 93:0.2 94:0.5 95:1.0 96:0.75 97:0.17 98:1.0 99:0.5 100:0.5 101:0.29 102:0.17 103:1.0 104:1.0 105:1.0 106:0.5 107:0.33 108:0.5 109:0.2 110:1.0 111:0.33 112:0.67 113:1.0 115:1.0 116:0.5 117:0.5 118:1.0 119:0.25 120:0.2 121:0.67 122:0.14 123:1.0 124:0.5 125:0.17 127:1.0 128:1.0 130:0.5 131:0.4 132:0.4 134:0.29 135:1.0 136:0.17 138:0.2 139:0.2 140:1.0 143:0.5 144:1.0 145:0.2 148:1.0 149:1.0 151:0.33 152:0.5 153:0.25 154:0.33 155:1.0 156:0.43 157:0.14 158:0.17 159:0.33 160:1.0 161:1.0 162:1.0 164:0.33 165:0.33 167:0.4 169:0.2 171:0.25 172:0.25 173:1.0 
