svm_type c_svc
kernel_type rbf
gamma 0.006097560975609756
nr_class 8
total_sv 139
rho 0.10449005664053722 0.808058004327112 0.4265618622303009 0.003011571291738847 -0.0578557550907135 0.6906861662864685 1.0 0.1266053127518807 0.14473463512849477 -0.521013617515564 -0.9164624304024678 -0.0231014903256574 0.35913575839778705 0.07763521961815183 -0.11899016897815422 -0.09419817187117613 0.37017410993576055 0.8933828540951697 -0.10354554871139465 -0.17611330333148056 -0.14146372494385043 0.14803914679778726 -0.7966814254009114 -0.030026016708378945 0.22460385393567397 -0.029072842215369148 0.7424532021893122 0.9698550560907145
label 3 7 4 0 5 6 2 1
nr_sv 8 18 12 15 17 8 20 41
SV
1.0 1.0 1.0 1.0 1.0 1.0 1.0 1:0.33 2:0.67 4:0.5 6:1.0 8:0.5 10:0.5 11:0.14 13:0.33 14:0.17 15:0.33 18:1.0 20:0.5 26:0.17 29:1.0 30:0.5 31:0.33 32:0.67 33:0.17 34:0.33 36:0.2 37:0.33 41:0.33 42:0.25 43:0.4 44:0.5 46:0.33 47:0.17 48:0.33 50:0.25 54:0.33 61:0.33 62:0.2 65:1.0 66:0.33 67:0.33 69:0.33 71:0.5 72:0.67 73:0.5 77:0.5 78:0.33 79:0.5 80:0.5 81:0.25 83:0.5 85:0.5 86:0.25 89:0.25 90:0.33 92:0.17 94:0.25 97:1.0 98:0.5 99:0.14 103:0.4 104:0.67 106:0.25 109:0.33 110:0.14 112:0.33 113:0.17 114:1.0 115:1.0 117:0.5 119:1.0 121:1.0 124:0.5 125:1.0 126:1.0 128:0.33 138:1.0 141:1.0 143:0.33 146:1.0 147:0.5 148:0.5 153:1.0 155:1.0 
1.0 1.0 1.0 1.0 1.0 1.0 1.0 1:0.33 2:0.67 4:0.5 6:1.0 8:0.5 10:0.5 11:0.14 13:0.33 14:0.17 15:0.33 18:1.0 20:0.5 26:0.17 29:1.0 30:0.5 31:0.33 32:0.67 33:0.17 34:0.33 36:0.2 37:0.33 41:0.33 42:0.25 43:0.4 44:0.5 46:0.33 47:0.17 48:0.33 50:0.25 54:0.33 61:0.33 62:0.2 65:1.0 66:0.33 67:0.33 69:0.33 71:0.5 72:0.67 73:0.5 77:0.5 78:0.33 79:0.5 80:0.5 81:0.25 83:0.5 85:0.5 86:0.25 89:0.25 90:0.33 92:0.17 94:0.25 97:1.0 98:0.5 99:0.14 103:0.4 104:0.67 106:0.25 109:0.33 110:0.14 112:0.33 113:0.17 114:1.0 115:1.0 117:0.5 119:1.0 121:1.0 124:0.5 125:1.0 126:1.0 128:0.33 138:1.0 141:1.0 143:0.33 146:1.0 147:0.5 148:0.5 153:1.0 155:1.0 
1.0 1.0 1.0 1.0 0.0 1.0 1.0 1:0.33 2:1.0 4:0.75 6:1.0 8:0.75 10:0.5 11:0.14 12:0.33 13:0.33 14:0.17 15:0.67 18:1.0 20:0.5 21:0.33 26:0.17 27:0.5 30:0.5 31:0.67 32:0.67 33:0.17 34:1.0 35:0.4 36:0.2 37:0.33 41:0.33 42:0.5 43:0.6 46:0.67 47:0.17 48:0.67 50:0.25 53:0.33 54:0.67 59:0.5 61:0.33 62:0.6 65:0.5 66:0.33 67:0.33 68:1.0 69:0.67 71:1.0 72:0.67 73:0.75 77:0.75 78:0.33 79:1.0 80:1.0 81:0.25 82:0.67 83:1.0 85:0.5 86:0.75 87:0.5 89:0.25 90:0.33 92:0.17 93:0.5 94:0.25 96:0.67 97:1.0 98:1.0 99:0.14 102:0.33 103:0.8 104:1.0 106:0.75 107:0.67 109:0.33 110:0.14 112:0.33 113:0.17 114:1.0 117:0.5 121:0.5 125:0.5 126:0.5 127:1.0 128:0.33 133:1.0 135:1.0 138:1.0 143:0.33 146:1.0 147:0.5 148:0.5 150:1.0 155:1.0 156:0.5 
1.0 1.0 1.0 1.0 1.0 1.0 1.0 2:0.33 4:0.25 6:1.0 8:0.25 11:0.14 13:0.33 14:0.17 18:1.0 20:0.5 26:0.17 29:1.0 30:0.5 31:0.33 32:0.33 33:0.17 36:0.2 37:0.33 41:0.33 43:0.2 44:0.5 46:0.33 47:0.17 50:0.25 61:0.33 65:0.5 66:0.33 67:0.33 69:0.33 72:0.33 73:0.25 77:0.25 80:0.5 81:0.25 83:0.25 85:0.5 89:0.25 90:0.33 92:0.17 94:0.25 97:1.0 99:0.14 103:0.2 104:0.33 110:0.14 112:0.33 113:0.17 114:1.0 117:0.5 121:0.5 124:0.5 125:1.0 126:1.0 128:0.33 138:1.0 141:0.2 143:0.33 146:0.5 148:0.5 153:0.25 
1.0 1.0 1.0 1.0 1.0 1.0 1.0 2:0.67 4:0.5 6:1.0 8:0.25 11:0.14 12:0.33 13:0.67 14:0.17 17:0.5 18:1.0 20:1.0 26:0.17 27:0.5 30:0.5 31:0.67 32:0.33 33:0.17 34:0.33 35:0.4 36:0.2 37:0.33 41:0.33 42:0.5 43:0.4 46:1.0 47:0.17 50:0.25 53:0.67 54:0.33 55:0.5 58:0.5 61:0.67 62:0.2 66:0.33 67:0.33 68:0.5 69:0.67 72:0.33 73:0.75 74:0.5 77:0.5 80:1.0 81:0.5 82:0.33 83:0.5 84:1.0 85:0.5 86:0.25 87:0.5 89:0.25 90:0.33 92:0.17 93:0.25 94:0.25 96:0.33 97:1.0 98:0.5 99:0.14 102:0.67 103:0.4 104:0.33 106:0.25 107:0.33 108:0.33 110:0.14 112:0.33 113:0.17 114:1.0 117:0.5 118:0.17 125:0.5 126:0.5 127:1.0 128:0.33 130:0.2 134:0.17 135:0.2 138:1.0 140:0.14 143:0.33 145:0.5 146:0.5 148:0.5 154:0.17 156:0.5 157:1.0 158:0.2 160:0.17 164:0.2 
0.5630462481075639 1.0 1.0 0.0 0.6785288054245792 1.0 1.0 1:0.33 2:0.33 4:0.25 5:0.5 7:0.5 8:0.25 10:0.5 12:0.67 15:0.33 21:0.67 27:1.0 29:1.0 31:0.33 34:0.67 35:0.6 42:0.25 43:0.2 44:1.0 46:0.33 48:0.67 49:0.5 53:0.67 54:0.33 59:1.0 62:0.6 65:0.5 68:1.0 69:0.33 71:0.5 73:0.25 77:0.25 79:0.5 80:0.5 82:0.67 83:0.5 86:0.5 87:1.0 93:0.75 96:0.67 98:0.5 102:0.33 103:0.4 104:0.33 106:0.5 107:1.0 109:0.33 115:1.0 117:1.0 119:1.0 121:0.5 124:1.0 125:0.5 126:0.5 127:1.0 128:1.0 133:1.0 135:1.0 141:1.0 150:1.0 153:1.0 156:1.0 161:0.1 
0.9957699457083238 1.0 1.0 0.7189278621105246 1.0 1.0 1.0 1:0.33 2:0.33 4:0.25 5:0.5 7:0.5 8:0.25 10:0.5 12:0.67 15:0.33 21:0.67 27:1.0 29:1.0 31:0.33 34:0.67 35:0.6 42:0.25 43:0.2 44:1.0 46:0.33 48:0.67 49:0.5 53:0.67 54:0.33 59:1.0 62:0.6 65:0.5 68:1.0 69:0.33 71:0.5 73:0.25 77:0.25 79:0.5 80:0.5 82:0.67 83:0.5 86:0.5 87:1.0 93:0.75 96:0.67 98:0.5 102:0.33 103:0.4 104:0.33 106:0.5 107:1.0 109:0.33 115:1.0 117:1.0 119:1.0 121:0.5 124:1.0 125:0.5 126:0.5 127:1.0 128:1.0 133:1.0 135:1.0 141:1.0 150:1.0 153:1.0 156:1.0 161:0.1 
1.0 1.0 1.0 0.8415612032672667 1.0 1.0 1.0 1:0.67 2:0.67 4:0.5 5:0.5 7:0.5 8:0.5 10:1.0 12:0.67 13:0.33 15:0.67 17:0.5 20:0.5 21:0.67 27:1.0 29:1.0 31:0.33 32:0.33 34:1.0 35:0.8 42:0.75 43:0.4 44:1.0 46:0.67 48:1.0 49:0.5 53:1.0 54:0.67 55:0.5 57:0.5 58:0.5 59:1.0 61:0.33 62:0.8 65:1.0 68:1.0 69:0.33 71:1.0 72:0.33 73:0.75 74:0.5 77:0.5 78:0.33 79:1.0 80:0.5 81:0.25 82:0.67 83:0.75 84:1.0 86:0.75 87:1.0 90:0.33 93:0.75 94:0.25 96:0.67 98:1.0 102:0.67 103:0.6 104:0.67 106:0.75 107:1.0 108:0.33 109:0.67 117:1.0 118:0.17 121:1.0 122:1.0 124:1.0 125:0.5 126:0.5 127:1.0 128:1.0 130:0.2 133:1.0 134:0.17 135:1.0 140:0.14 141:0.2 145:0.5 146:0.5 147:0.5 150:1.0 153:0.25 154:0.17 155:1.0 156:1.0 157:1.0 158:0.2 160:0.17 161:0.1 164:0.2 
-0.4896046028984486 1.0 1.0 1.0 0.0 1.0 1.0 2:0.33 4:0.25 6:1.0 7:0.5 8:0.25 11:0.29 13:1.0 14:0.33 16:1.0 17:0.5 18:1.0 20:1.0 23:1.0 26:0.33 30:1.0 31:0.33 32:0.33 33:0.33 35:0.2 36:0.4 37:0.33 38:0.5 41:0.67 42:0.25 43:0.2 46:0.67 47:0.33 50:0.5 53:0.33 55:0.5 56:1.0 57:1.0 58:0.5 61:0.67 66:0.33 67:0.33 69:0.33 72:0.33 73:0.5 74:1.0 77:0.25 80:0.5 81:0.75 83:0.25 84:1.0 85:0.5 88:0.5 89:0.5 90:1.0 92:0.33 94:0.75 97:1.0 99:0.29 102:0.33 103:0.2 104:0.33 108:0.67 110:0.29 112:0.33 113:0.33 114:1.0 118:0.17 122:1.0 125:0.5 126:0.5 130:0.2 134:0.17 137:0.5 138:1.0 139:0.33 140:0.14 143:0.67 144:1.0 145:0.5 146:0.5 148:0.5 151:0.5 154:0.17 157:1.0 158:0.2 159:0.5 160:0.17 161:0.4 164:0.2 
-0.0 0.0 0.0 0.0 0.0 0.0 1.0 1:0.33 3:1.0 5:0.5 7:1.0 10:0.5 11:0.14 12:0.33 13:0.33 14:0.17 16:1.0 21:0.33 23:1.0 24:1.0 26:0.17 27:0.5 30:0.5 33:0.33 35:0.2 36:0.2 38:1.0 41:0.67 44:0.5 45:0.5 47:0.17 48:0.33 49:0.5 50:0.25 51:0.5 52:1.0 53:0.33 56:1.0 57:0.5 58:0.5 59:0.5 62:0.2 74:0.5 81:0.5 87:0.5 88:1.0 89:0.25 90:0.33 92:0.33 93:0.25 94:0.5 99:0.14 107:0.33 108:0.67 109:0.33 110:0.29 112:0.33 113:0.33 124:0.5 128:0.33 131:1.0 132:1.0 136:1.0 137:1.0 139:0.67 143:0.67 144:1.0 145:0.5 148:0.5 151:1.0 156:0.5 159:1.0 161:1.0 
-0.0 0.0 0.0 1.0 0.0 0.0 0.0 1:0.33 3:1.0 5:0.5 7:1.0 10:0.5 11:0.14 12:0.33 13:0.33 14:0.17 16:1.0 21:0.33 23:1.0 24:1.0 26:0.17 27:0.5 30:0.5 33:0.33 35:0.2 36:0.2 38:1.0 41:0.67 44:0.5 45:0.5 47:0.17 48:0.33 49:0.5 50:0.25 51:0.5 52:1.0 53:0.33 56:1.0 57:1.0 58:0.5 59:0.5 62:0.2 74:0.5 81:0.5 87:0.5 88:1.0 89:0.25 90:0.67 92:0.33 93:0.25 94:0.75 99:0.14 107:0.33 108:0.67 109:0.33 110:0.29 112:0.33 113:0.33 122:1.0 124:0.5 128:0.33 131:1.0 132:1.0 136:1.0 137:1.0 139:0.67 143:0.67 144:1.0 145:0.5 148:0.5 151:1.0 156:0.5 159:1.0 161:0.7 
-1.0 1.0 1.0 1.0 0.0 1.0 1.0 2:0.33 4:0.25 6:1.0 7:0.5 8:0.25 11:0.29 13:1.0 14:0.33 16:1.0 17:0.5 18:1.0 20:1.0 23:1.0 26:0.33 30:1.0 31:0.33 32:0.33 33:0.33 35:0.2 36:0.4 37:0.33 38:0.5 41:0.67 42:0.25 43:0.2 46:0.67 47:0.33 50:0.5 53:0.33 55:0.5 56:1.0 57:1.0 58:0.5 61:0.67 66:0.33 67:0.33 69:0.33 72:0.33 73:0.5 74:1.0 77:0.25 80:0.5 81:0.75 83:0.25 84:1.0 85:0.5 88:0.5 89:0.5 90:1.0 92:0.33 94:0.75 97:1.0 99:0.29 102:0.33 103:0.2 104:0.33 108:0.67 110:0.29 112:0.33 113:0.33 114:1.0 118:0.17 122:1.0 125:0.5 126:0.5 130:0.2 134:0.17 137:0.5 138:1.0 139:0.33 140:0.14 143:0.67 144:1.0 145:0.5 146:0.5 148:0.5 151:0.5 154:0.17 157:1.0 158:0.2 159:0.5 160:0.17 161:0.4 164:0.2 
-0.0 0.0 0.0 1.0 0.9179739883279274 0.0 1.0 1:0.33 3:1.0 5:0.5 7:1.0 10:0.5 11:0.14 12:0.33 13:0.33 14:0.17 16:1.0 21:0.33 23:1.0 24:1.0 26:0.17 27:0.5 30:0.5 33:0.33 35:0.2 36:0.2 38:1.0 41:0.67 44:0.5 45:0.5 47:0.17 48:0.33 49:0.5 50:0.25 51:0.5 52:1.0 53:0.33 56:1.0 57:0.5 58:0.5 59:0.5 62:0.2 74:0.5 81:0.5 87:0.5 88:1.0 89:0.25 90:0.33 92:0.33 93:0.25 94:0.5 99:0.14 107:0.33 108:0.67 109:0.33 110:0.29 112:0.33 113:0.33 124:0.5 128:0.33 131:1.0 132:1.0 136:1.0 137:1.0 139:0.67 143:0.67 144:1.0 145:0.5 148:0.5 151:1.0 156:0.5 159:1.0 161:1.0 
-0.0 0.0 0.9288219460055518 1.0 0.6884724460087176 0.0 1.0 2:0.33 3:1.0 4:0.25 6:1.0 7:0.5 8:0.25 9:1.0 11:0.43 13:1.0 14:0.5 16:1.0 17:0.5 18:1.0 19:1.0 20:1.0 22:0.17 23:1.0 24:1.0 25:0.2 26:0.5 28:0.25 30:1.0 31:0.33 32:0.33 33:0.5 35:0.2 36:0.6 37:0.33 38:1.0 40:0.25 41:1.0 42:0.25 43:0.4 45:0.5 46:0.67 47:0.5 50:0.75 51:1.0 52:1.0 53:0.33 55:0.5 56:1.0 57:0.5 58:1.0 61:1.0 63:0.33 64:0.25 66:0.67 67:0.67 69:0.67 72:0.67 73:0.5 74:1.0 75:1.0 77:0.25 78:0.33 80:0.5 81:1.0 83:0.25 84:1.0 85:0.5 88:1.0 89:0.75 90:0.67 91:0.5 92:0.5 94:0.75 95:0.5 97:1.0 99:0.29 101:0.5 102:0.33 103:0.2 104:0.33 105:0.2 108:1.0 110:0.57 111:0.2 112:1.0 113:0.67 114:1.0 118:0.33 120:0.2 125:0.5 126:0.5 129:0.33 130:0.4 131:1.0 132:1.0 134:0.33 136:1.0 137:1.0 138:1.0 139:1.0 140:0.29 142:0.2 143:1.0 144:1.0 145:1.0 146:0.5 148:1.0 149:0.5 151:1.0 152:0.25 154:0.33 157:1.0 158:0.4 159:1.0 160:0.17 161:0.2 162:0.17 163:0.2 164:0.4 
-0.0 0.7228744902031828 0.5416271330167324 1.0 1.0 0.5728627004815231 1.0 1:0.33 3:1.0 5:0.5 7:1.0 10:0.5 11:0.14 12:0.33 13:0.33 14:0.17 16:1.0 21:0.33 23:1.0 24:1.0 26:0.17 27:0.5 30:0.5 33:0.33 35:0.2 36:0.2 38:1.0 41:0.67 44:0.5 45:0.5 47:0.17 48:0.33 49:0.5 50:0.25 51:0.5 52:1.0 53:0.33 56:1.0 57:0.5 58:0.5 59:0.5 62:0.2 74:0.5 81:0.5 87:0.5 88:1.0 89:0.25 90:0.33 92:0.33 93:0.25 94:0.5 99:0.14 107:0.33 108:0.67 109:0.33 110:0.29 112:0.33 113:0.33 124:0.5 128:0.33 131:1.0 132:1.0 136:1.0 137:1.0 139:0.67 143:0.67 144:1.0 145:0.5 148:0.5 151:1.0 156:0.5 159:1.0 161:1.0 
-1.0 1.0 1.0 1.0 0.1302493092061418 1.0 1.0 2:0.33 3:1.0 4:0.25 6:1.0 8:0.25 11:0.14 13:0.67 14:0.17 17:0.5 18:1.0 20:1.0 24:1.0 26:0.17 30:0.5 31:0.33 32:0.33 33:0.33 35:0.2 36:0.2 37:0.33 38:0.5 41:0.67 42:0.25 43:0.2 45:0.5 46:0.67 47:0.17 50:0.25 51:0.5 52:1.0 53:0.33 55:0.5 57:0.5 58:1.0 61:0.67 66:0.33 67:0.33 69:0.33 72:0.33 73:0.5 74:0.5 77:0.25 80:0.5 81:0.75 83:0.25 84:1.0 85:0.5 88:0.5 89:0.25 90:0.67 92:0.33 94:0.75 97:1.0 99:0.14 102:0.33 103:0.2 104:0.33 108:0.67 110:0.29 112:0.67 113:0.33 114:1.0 118:0.17 122:1.0 125:0.5 126:0.5 130:0.2 131:1.0 132:1.0 134:0.17 136:1.0 137:0.5 138:1.0 139:0.33 140:0.14 143:0.67 145:1.0 146:0.5 148:1.0 151:0.5 154:0.17 157:1.0 158:0.2 159:0.5 160:0.17 161:0.4 164:0.2 
-0.5817030951078116 1.0 1.0 1.0 1.0 1.0 1.0 1:0.33 3:1.0 5:0.5 7:1.0 10:0.5 11:0.14 12:0.33 13:0.33 14:0.17 16:1.0 21:0.33 23:1.0 24:1.0 26:0.17 27:0.5 30:0.5 33:0.33 35:0.2 36:0.2 38:1.0 41:0.67 44:0.5 45:0.5 47:0.17 48:0.33 49:0.5 50:0.25 51:0.5 52:1.0 53:0.33 56:1.0 57:0.5 58:0.5 59:0.5 62:0.2 74:0.5 81:0.5 87:0.5 88:1.0 89:0.25 90:0.33 92:0.33 93:0.25 94:0.5 99:0.14 107:0.33 108:0.67 109:0.33 110:0.29 112:0.33 113:0.33 124:0.5 128:0.33 131:1.0 132:1.0 136:1.0 137:1.0 139:0.67 143:0.67 144:1.0 145:0.5 148:0.5 151:1.0 156:0.5 159:1.0 161:1.0 
-0.0 0.0 0.0 1.0 0.8774118486299487 0.0 0.0 1:0.33 3:1.0 5:0.5 7:1.0 9:1.0 10:0.5 11:0.29 12:0.33 13:0.67 14:0.33 16:1.0 17:0.5 20:0.5 21:0.33 23:1.0 24:1.0 26:0.33 27:0.5 30:0.5 33:0.33 35:0.4 36:0.4 38:1.0 41:0.67 42:0.25 44:0.5 45:0.5 46:0.33 47:0.33 48:0.33 49:0.5 50:0.5 51:1.0 52:1.0 53:0.67 55:0.5 56:1.0 57:1.0 58:1.0 59:0.5 61:0.33 62:0.2 66:0.33 67:0.33 73:0.25 74:1.0 75:1.0 78:0.33 81:0.75 84:1.0 87:0.5 88:1.0 89:0.5 90:0.67 91:0.5 92:0.33 93:0.25 94:0.75 95:0.5 99:0.14 101:0.5 102:0.33 107:0.33 108:1.0 109:0.33 110:0.43 112:0.67 113:0.5 118:0.17 122:1.0 124:0.5 128:0.33 130:0.2 131:1.0 132:1.0 134:0.17 136:1.0 137:1.0 139:0.67 140:0.14 143:0.67 144:1.0 145:1.0 148:0.5 151:1.0 154:0.17 156:0.5 157:1.0 158:0.2 159:1.0 160:0.17 161:0.6 164:0.2 
-1.0 0.9603029859548518 1.0 1.0 1.0 0.9066222791598096 1.0 1:0.33 3:1.0 5:0.5 7:1.0 10:0.5 11:0.14 12:0.33 13:0.33 14:0.17 16:1.0 21:0.33 23:1.0 24:1.0 26:0.17 27:0.5 30:0.5 33:0.33 35:0.2 36:0.2 38:1.0 41:0.67 44:0.5 45:0.5 47:0.17 48:0.33 49:0.5 50:0.25 51:0.5 52:1.0 53:0.33 56:1.0 57:0.5 58:0.5 59:0.5 62:0.2 74:0.5 81:0.5 87:0.5 88:1.0 89:0.25 90:0.33 92:0.33 93:0.25 94:0.5 99:0.14 107:0.33 108:0.67 109:0.33 110:0.29 112:0.33 113:0.33 124:0.5 128:0.33 131:1.0 132:1.0 136:1.0 137:1.0 139:0.67 143:0.67 144:1.0 145:0.5 148:0.5 151:1.0 156:0.5 159:1.0 161:1.0 
-0.0 0.0 0.0 1.0 0.2573601274667036 0.0 0.3233584152831317 1:0.33 3:1.0 5:0.5 7:1.0 10:0.5 11:0.14 12:0.33 13:0.33 14:0.17 16:1.0 21:0.33 23:1.0 24:1.0 26:0.17 27:0.5 30:0.5 33:0.33 35:0.2 36:0.2 38:1.0 41:0.67 44:0.5 45:0.5 47:0.17 48:0.33 49:0.5 50:0.25 51:0.5 52:1.0 53:0.33 56:1.0 57:1.0 58:0.5 59:0.5 62:0.2 74:0.5 81:0.5 87:0.5 88:1.0 89:0.25 90:0.67 92:0.33 93:0.25 94:0.75 99:0.14 107:0.33 108:0.67 109:0.33 110:0.29 112:0.33 113:0.33 122:1.0 124:0.5 128:0.33 131:1.0 132:1.0 136:1.0 137:1.0 139:0.67 143:0.67 144:1.0 145:0.5 148:0.5 151:1.0 156:0.5 159:1.0 161:0.7 
-1.0 1.0 1.0 1.0 0.18935809794182357 1.0 1.0 2:0.33 4:0.25 6:1.0 7:0.5 8:0.25 11:0.29 13:1.0 14:0.33 16:1.0 17:0.5 18:1.0 20:1.0 23:1.0 26:0.33 30:1.0 31:0.33 32:0.33 33:0.33 35:0.2 36:0.4 37:0.33 38:0.5 41:0.67 42:0.25 43:0.2 46:0.67 47:0.33 50:0.5 53:0.33 55:0.5 56:1.0 57:0.5 58:0.5 61:0.67 66:0.33 67:0.33 69:0.33 72:0.33 73:0.5 74:1.0 77:0.25 80:0.5 81:0.75 83:0.25 84:1.0 85:0.5 88:0.5 89:0.5 90:0.67 92:0.33 94:0.5 97:1.0 99:0.29 102:0.33 103:0.2 104:0.33 108:0.67 110:0.29 112:0.33 113:0.33 114:1.0 118:0.17 125:0.5 126:0.5 130:0.2 134:0.17 137:0.5 138:1.0 139:0.33 140:0.14 143:0.67 144:1.0 145:0.5 146:0.5 148:0.5 151:0.5 154:0.17 157:1.0 158:0.2 159:0.5 160:0.17 161:0.1 164:0.2 
-0.9957699457083238 1.0 1.0 1.0 0.0 1.0 1.0 2:0.33 4:0.25 6:1.0 7:0.5 8:0.25 11:0.29 13:1.0 14:0.33 16:1.0 17:0.5 18:1.0 20:1.0 23:1.0 26:0.33 30:1.0 31:0.33 32:0.33 33:0.33 35:0.2 36:0.4 37:0.33 38:0.5 41:0.67 42:0.25 43:0.2 46:0.67 47:0.33 50:0.5 53:0.33 55:0.5 56:1.0 57:1.0 58:0.5 61:0.67 66:0.33 67:0.33 69:0.33 72:0.33 73:0.5 74:1.0 77:0.25 80:0.5 81:0.75 83:0.25 84:1.0 85:0.5 88:0.5 89:0.5 90:1.0 92:0.33 94:0.75 97:1.0 99:0.29 102:0.33 103:0.2 104:0.33 108:0.67 110:0.29 112:0.33 113:0.33 114:1.0 118:0.17 122:1.0 125:0.5 126:0.5 130:0.2 134:0.17 137:0.5 138:1.0 139:0.33 140:0.14 143:0.67 144:1.0 145:0.5 146:0.5 148:0.5 151:0.5 154:0.17 157:1.0 158:0.2 159:0.5 160:0.17 161:0.4 164:0.2 
-0.4917385501013037 1.0 1.0 1.0 1.0 1.0 1.0 2:0.33 3:1.0 4:0.25 6:1.0 8:0.25 11:0.14 13:0.67 14:0.17 17:0.5 18:1.0 20:1.0 24:1.0 26:0.17 30:0.5 31:0.33 32:0.33 33:0.33 35:0.2 36:0.2 37:0.33 38:0.5 41:0.67 42:0.25 43:0.2 45:0.5 46:0.67 47:0.17 50:0.25 51:0.5 52:1.0 53:0.33 55:0.5 57:0.5 58:1.0 61:0.67 66:0.33 67:0.33 69:0.33 72:0.33 73:0.5 74:0.5 77:0.25 80:0.5 81:0.75 83:0.25 84:1.0 85:0.5 88:0.5 89:0.25 90:0.67 92:0.33 94:0.75 97:1.0 99:0.14 102:0.33 103:0.2 104:0.33 108:0.67 110:0.29 112:0.67 113:0.33 114:1.0 118:0.17 122:1.0 125:0.5 126:0.5 130:0.2 131:1.0 132:1.0 134:0.17 136:1.0 137:0.5 138:1.0 139:0.33 140:0.14 143:0.67 145:1.0 146:0.5 148:1.0 151:0.5 154:0.17 157:1.0 158:0.2 159:0.5 160:0.17 161:0.4 164:0.2 
-0.0 0.0 0.0 1.0 0.0 0.0 0.0 2:0.33 3:1.0 4:0.25 6:1.0 7:0.5 8:0.25 9:1.0 11:0.86 13:1.0 14:0.83 16:1.0 17:0.5 18:1.0 20:1.0 23:1.0 24:1.0 26:1.0 30:1.0 31:0.33 32:0.33 33:1.0 35:0.2 36:1.0 37:1.0 38:1.0 41:1.0 42:0.25 43:0.2 45:0.5 46:0.67 47:0.83 50:1.0 51:1.0 52:1.0 53:0.33 55:0.5 56:1.0 57:0.5 58:1.0 61:0.67 66:0.67 67:0.67 69:0.33 72:0.33 73:0.5 74:1.0 75:1.0 77:0.25 78:0.33 80:0.5 81:1.0 83:0.25 84:1.0 85:0.5 88:1.0 89:1.0 90:0.67 91:0.5 92:1.0 94:0.75 95:0.5 97:1.0 99:0.86 101:0.5 102:0.33 103:0.2 104:0.33 108:1.0 110:1.0 112:1.0 113:1.0 114:1.0 118:0.17 125:0.5 126:0.5 130:0.2 131:1.0 132:1.0 134:0.17 136:1.0 137:1.0 138:1.0 139:0.67 140:0.14 143:1.0 144:1.0 145:1.0 146:0.5 148:1.0 151:1.0 154:0.17 157:1.0 158:0.2 159:1.0 160:0.17 161:0.2 164:0.2 
-1.0 1.0 1.0 1.0 0.0 1.0 1.0 2:0.33 3:1.0 4:0.25 6:1.0 8:0.25 9:1.0 11:0.29 13:0.33 14:0.33 18:1.0 19:1.0 20:0.5 24:1.0 26:0.33 30:0.5 31:0.33 32:0.33 33:0.33 36:0.4 37:0.33 38:0.5 41:0.67 43:0.2 45:0.5 46:0.33 47:0.33 50:0.5 51:1.0 52:1.0 58:0.5 61:0.33 66:0.67 67:0.67 69:0.33 72:0.33 73:0.25 75:1.0 77:0.25 78:0.33 80:0.5 81:0.5 83:0.25 85:0.5 88:0.5 89:0.5 90:0.33 91:0.5 92:0.33 94:0.5 95:0.5 97:1.0 99:0.14 101:0.5 103:0.2 104:0.33 108:0.33 110:0.43 112:1.0 113:0.5 114:1.0 125:0.5 126:0.5 131:1.0 132:1.0 136:1.0 137:0.5 138:1.0 139:0.33 143:0.67 145:0.5 146:0.5 148:1.0 151:0.5 159:0.5 161:0.1 
-0.0 0.0 0.0 1.0 0.9391741824187374 1.0 1.0 2:0.33 3:1.0 4:0.25 6:1.0 7:0.5 8:0.25 11:0.29 13:0.67 14:0.33 16:1.0 18:1.0 20:0.5 23:1.0 24:1.0 26:0.33 29:1.0 30:1.0 31:0.33 32:0.33 33:0.5 36:0.4 37:0.33 38:1.0 41:1.0 43:0.2 44:0.5 45:0.5 46:0.33 47:0.33 50:0.5 51:0.5 52:1.0 56:1.0 57:1.0 58:0.5 61:0.33 65:0.5 66:0.33 67:0.33 69:0.33 72:0.33 73:0.25 74:0.5 77:0.25 80:0.5 81:0.75 83:0.25 85:0.5 88:1.0 89:0.5 90:1.0 92:0.5 94:1.0 97:1.0 99:0.29 103:0.2 104:0.33 108:0.67 110:0.43 112:0.67 113:0.5 114:1.0 117:0.5 121:0.5 122:1.0 124:0.5 125:1.0 126:1.0 128:0.33 131:1.0 132:1.0 136:1.0 137:1.0 138:1.0 139:0.67 141:0.2 143:1.0 144:1.0 145:0.5 146:0.5 148:1.0 151:1.0 153:0.25 159:1.0 161:0.6 
-0.0 -1.0 1.0 0.891125453503757 0.7090909301157807 1.0 1.0 1:0.33 2:1.0 4:0.75 6:1.0 8:0.5 10:0.5 11:0.14 12:0.33 13:0.67 14:0.17 15:0.33 17:0.5 18:1.0 20:1.0 22:0.33 25:0.4 26:0.17 27:0.5 28:0.5 29:1.0 30:0.5 31:0.67 32:0.67 33:0.17 34:0.67 35:0.4 36:0.2 37:0.33 39:0.5 40:0.5 41:0.33 42:0.75 43:0.8 44:0.5 46:1.0 47:0.17 48:0.33 50:0.25 53:0.67 54:0.67 55:1.0 58:0.5 61:1.0 62:0.4 63:0.67 64:0.5 65:1.0 66:0.67 67:0.33 68:0.5 69:1.0 70:1.0 71:0.5 72:1.0 73:1.0 74:0.5 77:0.75 78:0.33 79:0.5 80:1.0 81:0.5 82:0.33 83:0.75 84:1.0 85:1.0 86:0.5 87:0.5 89:0.25 90:0.33 92:0.17 93:0.25 94:0.25 96:0.33 97:1.0 98:1.0 99:0.14 102:0.67 103:0.6 104:0.67 105:0.4 106:0.5 107:0.33 108:0.33 109:0.33 110:0.14 111:0.4 112:0.33 113:0.17 114:1.0 116:1.0 117:1.0 118:0.33 120:0.4 121:1.0 123:1.0 124:0.5 125:1.0 126:1.0 127:1.0 128:0.67 129:0.67 130:0.4 134:0.5 135:0.2 138:1.0 139:0.33 140:0.43 141:0.2 142:0.4 143:0.33 145:0.5 146:1.0 147:1.0 148:0.5 149:1.0 152:0.5 153:0.25 154:0.5 155:1.0 156:0.5 157:1.0 158:0.6 160:0.33 162:0.33 163:0.4 164:0.6 
-0.49816087481698507 -0.5658547020543438 1.0 0.11928472263514961 0.0 1.0 1.0 1:0.33 2:0.67 4:0.5 6:1.0 8:0.5 10:0.5 11:0.14 13:0.33 14:0.17 15:0.33 18:1.0 20:0.5 22:0.17 25:0.2 26:0.17 28:0.25 29:1.0 30:0.5 31:0.33 32:0.67 33:0.17 34:0.33 36:0.2 37:0.33 39:0.5 40:0.25 41:0.33 42:0.25 43:0.6 44:0.5 46:0.33 47:0.17 48:0.33 50:0.25 54:0.33 61:0.67 62:0.2 63:0.33 64:0.25 65:1.0 66:0.33 67:0.33 69:0.67 71:0.5 72:1.0 73:0.5 77:0.5 78:0.33 79:0.5 80:0.5 81:0.25 83:0.5 85:0.5 86:0.25 89:0.25 90:0.33 92:0.17 94:0.25 97:1.0 98:0.5 99:0.14 103:0.4 104:0.67 105:0.2 106:0.25 109:0.33 110:0.14 111:0.2 112:0.33 113:0.17 114:1.0 115:1.0 116:1.0 117:0.5 118:0.17 119:1.0 120:0.2 121:1.0 124:0.5 125:1.0 126:1.0 128:0.33 129:0.33 130:0.2 134:0.17 138:1.0 139:0.33 140:0.14 141:1.0 142:0.2 143:0.33 146:1.0 147:1.0 148:0.5 149:1.0 152:0.25 153:1.0 154:0.17 155:1.0 158:0.2 162:0.17 163:0.2 164:0.2 
-0.9003253719655048 -0.5126937758867854 1.0 0.4847319380157345 0.08344935093152081 1.0 1.0 1:0.33 2:1.0 4:0.75 6:1.0 8:0.5 10:0.5 11:0.14 12:0.33 13:0.67 14:0.17 15:0.33 17:0.5 18:1.0 20:1.0 22:0.17 25:0.2 26:0.17 27:0.5 28:0.25 29:1.0 30:0.5 31:0.67 32:0.67 33:0.17 34:0.67 35:0.4 36:0.2 37:0.33 39:0.5 40:0.25 41:0.33 42:0.75 43:0.8 44:0.5 46:1.0 47:0.17 48:0.33 50:0.25 53:0.67 54:0.67 55:0.5 58:0.5 61:1.0 62:0.4 63:0.33 64:0.25 65:1.0 66:0.33 67:0.33 68:0.5 69:1.0 71:0.5 72:1.0 73:1.0 74:0.5 77:0.75 78:0.33 79:0.5 80:1.0 81:0.5 82:0.33 83:0.75 84:1.0 85:0.5 86:0.5 87:0.5 89:0.25 90:0.33 92:0.17 93:0.25 94:0.25 96:0.33 97:1.0 98:1.0 99:0.14 102:0.67 103:0.6 104:0.67 105:0.2 106:0.5 107:0.33 108:0.33 109:0.33 110:0.14 111:0.2 112:0.33 113:0.17 114:1.0 115:1.0 116:1.0 117:1.0 118:0.33 119:1.0 120:0.2 121:1.0 124:0.5 125:1.0 126:1.0 127:1.0 128:0.67 129:0.33 130:0.4 134:0.33 135:0.2 138:1.0 139:0.33 140:0.29 141:1.0 142:0.2 143:0.33 145:0.5 146:1.0 147:1.0 148:0.5 149:1.0 152:0.25 153:1.0 154:0.33 155:1.0 156:0.5 157:1.0 158:0.4 160:0.17 162:0.17 163:0.2 164:0.4 
-1.0 -0.6046289982169053 1.0 0.4712113402930805 0.0 1.0 1.0 1:0.33 2:1.0 4:0.75 6:1.0 8:0.75 10:0.5 11:0.14 12:0.33 13:0.33 14:0.17 15:0.67 18:1.0 20:0.5 21:0.33 22:0.17 25:0.2 26:0.17 27:0.5 28:0.25 30:0.5 31:0.67 32:0.67 33:0.17 34:1.0 35:0.4 36:0.2 37:0.33 39:0.5 40:0.25 41:0.33 42:0.5 43:0.8 46:0.67 47:0.17 48:0.67 50:0.25 53:0.33 54:0.67 59:0.5 61:0.67 62:0.6 63:0.33 64:0.25 65:0.5 66:0.33 67:0.33 68:1.0 69:1.0 71:1.0 72:1.0 73:0.75 77:0.75 78:0.33 79:1.0 80:1.0 81:0.25 82:0.67 83:1.0 85:0.5 86:0.75 87:0.5 89:0.25 90:0.33 92:0.17 93:0.5 94:0.25 96:0.67 97:1.0 98:1.0 99:0.14 102:0.33 103:0.8 104:1.0 105:0.2 106:0.75 107:0.67 109:0.33 110:0.14 111:0.2 112:0.33 113:0.17 114:1.0 116:1.0 117:0.5 118:0.17 120:0.2 121:0.5 125:0.5 126:0.5 127:1.0 128:0.33 129:0.33 130:0.2 133:1.0 134:0.17 135:1.0 138:1.0 139:0.33 140:0.14 142:0.2 143:0.33 146:1.0 147:1.0 148:0.5 149:1.0 150:1.0 152:0.25 154:0.17 155:1.0 156:0.5 158:0.2 162:0.17 163:0.2 164:0.2 
-1.0 -1.0 0.9686509140488173 0.08900342485969324 1.0 1.0 1.0 1:0.67 2:0.67 4:0.5 5:0.5 7:0.5 8:0.25 10:1.0 12:0.67 13:0.33 15:0.33 17:0.5 20:0.5 21:0.33 27:1.0 29:1.0 31:0.33 32:0.33 34:0.67 35:0.6 39:0.5 42:0.75 43:0.4 44:1.0 46:0.67 48:0.67 49:0.5 53:1.0 54:0.67 55:0.5 57:0.5 58:0.5 59:0.5 61:0.33 62:0.6 65:1.0 68:0.5 69:0.33 71:0.5 72:0.33 73:0.75 74:0.5 77:0.5 78:0.33 79:0.5 80:0.5 81:0.25 82:0.33 83:0.5 84:1.0 86:0.5 87:1.0 90:0.33 93:0.5 94:0.25 96:0.33 98:1.0 102:0.67 103:0.4 104:0.33 106:0.5 107:0.67 108:0.33 109:0.67 116:1.0 117:1.0 118:0.17 121:1.0 122:1.0 124:1.0 125:0.5 126:0.5 127:1.0 128:1.0 130:0.2 134:0.17 135:0.2 140:0.14 141:0.2 145:0.5 146:0.5 147:1.0 149:0.5 153:0.25 154:0.17 155:1.0 156:1.0 157:1.0 158:0.2 160:0.17 161:0.1 164:0.2 
-0.0 -1.0 1.0 1.0 1.0 1.0 1.0 22:0.17 25:0.2 28:0.25 39:0.5 40:0.25 43:0.2 61:0.33 63:0.33 64:0.25 69:0.33 72:0.33 105:0.2 111:0.2 116:1.0 118:0.17 120:0.2 129:0.33 130:0.2 134:0.17 139:0.33 140:0.14 142:0.2 147:0.5 149:1.0 152:0.25 154:0.17 158:0.2 162:0.17 163:0.2 164:0.2 
-0.0 -1.0 1.0 1.0 1.0 1.0 1.0 22:0.17 25:0.2 28:0.25 39:0.5 40:0.25 43:0.2 61:0.33 63:0.33 64:0.25 69:0.33 72:0.33 105:0.2 111:0.2 116:1.0 118:0.17 120:0.2 129:0.33 130:0.2 134:0.17 139:0.33 140:0.14 142:0.2 147:0.5 149:1.0 152:0.25 154:0.17 158:0.2 162:0.17 163:0.2 164:0.2 
-1.0 -1.0 1.0 1.0 1.0 1.0 1.0 1:0.33 2:0.67 4:0.5 6:1.0 8:0.5 10:0.5 11:0.14 13:0.33 14:0.17 15:0.33 18:1.0 20:0.5 26:0.17 29:1.0 30:0.5 31:0.33 32:0.67 33:0.17 34:0.33 36:0.2 37:0.33 41:0.33 42:0.25 43:0.4 44:0.5 46:0.33 47:0.17 48:0.33 50:0.25 54:0.33 61:0.33 62:0.2 65:1.0 66:0.33 67:0.33 69:0.33 71:0.5 72:0.67 73:0.5 77:0.5 78:0.33 79:0.5 80:0.5 81:0.25 83:0.5 85:0.5 86:0.25 89:0.25 90:0.33 92:0.17 94:0.25 97:1.0 98:0.5 99:0.14 103:0.4 104:0.67 106:0.25 109:0.33 110:0.14 112:0.33 113:0.17 114:1.0 115:1.0 117:0.5 119:1.0 121:1.0 124:0.5 125:1.0 126:1.0 128:0.33 138:1.0 141:1.0 143:0.33 146:1.0 147:0.5 148:0.5 153:1.0 155:1.0 
-1.0 -0.0 1.0 0.0 0.0 1.0 1.0 1:0.33 2:1.0 4:0.75 6:1.0 8:0.75 10:0.5 11:0.14 12:0.33 13:0.33 14:0.17 15:0.67 18:1.0 20:0.5 21:0.33 22:0.17 25:0.2 26:0.17 27:0.5 28:0.25 29:1.0 30:0.5 31:0.67 32:0.67 33:0.17 34:1.0 35:0.4 36:0.2 37:0.33 39:0.5 40:0.25 41:0.33 42:0.5 43:0.8 44:0.5 46:0.67 47:0.17 48:0.67 50:0.25 53:0.33 54:0.67 59:0.5 61:0.67 62:0.6 63:0.33 64:0.25 65:1.0 66:0.33 67:0.33 68:1.0 69:1.0 71:1.0 72:1.0 73:0.75 77:0.75 78:0.33 79:1.0 80:1.0 81:0.25 82:0.67 83:1.0 85:0.5 86:0.75 87:0.5 89:0.25 90:0.33 92:0.17 93:0.5 94:0.25 96:0.67 97:1.0 98:1.0 99:0.14 102:0.33 103:0.8 104:1.0 105:0.2 106:0.75 107:0.67 109:0.33 110:0.14 111:0.2 112:0.33 113:0.17 114:1.0 116:1.0 117:1.0 118:0.17 120:0.2 121:1.0 124:0.5 125:1.0 126:1.0 127:1.0 128:0.67 129:0.33 130:0.2 133:1.0 134:0.17 135:1.0 138:1.0 139:0.33 140:0.14 141:0.2 142:0.2 143:0.33 146:1.0 147:1.0 148:0.5 149:1.0 150:1.0 152:0.25 153:0.25 154:0.17 155:1.0 156:0.5 158:0.2 162:0.17 163:0.2 164:0.2 
-1.0 -1.0 1.0 1.0 1.0 1.0 1.0 2:0.33 4:0.25 6:1.0 8:0.25 11:0.14 13:0.67 14:0.17 17:0.5 18:1.0 20:1.0 26:0.17 29:1.0 30:0.5 31:0.33 32:0.33 33:0.17 35:0.2 36:0.2 37:0.33 41:0.33 42:0.25 43:0.2 44:0.5 46:0.67 47:0.17 50:0.25 53:0.33 55:0.5 57:0.5 58:0.5 61:0.67 65:0.5 66:0.33 67:0.33 69:0.33 72:0.33 73:0.5 74:0.5 77:0.25 80:0.5 81:0.5 83:0.25 84:1.0 85:0.5 89:0.25 90:0.67 92:0.17 94:0.5 97:1.0 99:0.14 102:0.33 103:0.2 104:0.33 108:0.33 110:0.14 112:0.33 113:0.17 114:1.0 117:0.5 118:0.17 121:0.5 122:1.0 124:0.5 125:1.0 126:1.0 128:0.33 130:0.2 134:0.17 138:1.0 140:0.14 141:0.2 143:0.33 145:0.5 146:0.5 148:0.5 153:0.25 154:0.17 157:1.0 158:0.2 160:0.17 164:0.2 
-0.6015137532175101 -1.0 1.0 1.0 1.0 1.0 1.0 22:0.17 25:0.2 28:0.25 39:0.5 40:0.25 43:0.2 61:0.33 63:0.33 64:0.25 69:0.33 72:0.33 105:0.2 111:0.2 116:1.0 118:0.17 120:0.2 129:0.33 130:0.2 134:0.17 139:0.33 140:0.14 142:0.2 147:0.5 149:1.0 152:0.25 154:0.17 158:0.2 162:0.17 163:0.2 164:0.2 
-1.0 -1.0 1.0 1.0 1.0 1.0 1.0 22:0.17 25:0.2 28:0.25 39:0.5 40:0.25 43:0.2 61:0.33 63:0.33 64:0.25 69:0.33 72:0.33 105:0.2 111:0.2 116:1.0 118:0.17 120:0.2 129:0.33 130:0.2 134:0.17 139:0.33 140:0.14 142:0.2 147:0.5 149:1.0 152:0.25 154:0.17 158:0.2 162:0.17 163:0.2 164:0.2 
-0.0 -1.0 -0.0 1.0 1.0 0.6456095452279872 0.9243643994109223 2:0.33 3:1.0 4:0.25 6:1.0 8:0.25 11:0.14 13:0.33 14:0.17 18:1.0 20:0.5 22:1.0 24:1.0 25:1.0 26:0.17 28:1.0 30:0.5 31:0.33 32:0.33 33:0.33 36:0.2 37:0.33 38:0.5 40:1.0 41:0.67 43:0.4 45:0.5 46:0.33 47:0.17 50:0.25 51:0.5 52:1.0 55:0.5 57:0.5 58:0.5 61:0.67 63:1.0 64:1.0 66:0.67 67:0.33 69:0.67 70:1.0 72:0.67 73:0.25 77:0.25 80:0.5 81:0.5 83:0.25 85:1.0 88:0.5 89:0.25 90:0.67 92:0.33 94:0.75 97:1.0 99:0.14 103:0.2 104:0.33 105:1.0 108:0.33 110:0.29 111:1.0 112:0.67 113:0.33 114:1.0 118:0.83 120:1.0 122:1.0 123:1.0 125:0.5 126:0.5 129:1.0 130:0.8 131:1.0 132:1.0 134:0.83 136:1.0 137:0.5 138:1.0 139:0.67 140:0.86 142:1.0 143:0.67 145:0.5 146:0.5 148:1.0 149:0.5 151:0.5 152:1.0 154:0.83 158:0.8 159:0.5 160:0.83 161:0.5 162:1.0 163:1.0 164:0.8 
-1.0 -0.3532517991203933 -1.0 0.4832600819825474 0.0 1.0 1.0 1:0.33 2:0.67 4:0.5 6:1.0 8:0.5 10:0.5 11:0.14 13:0.67 14:0.17 15:0.33 17:0.5 18:1.0 20:1.0 22:1.0 25:1.0 26:0.17 28:1.0 29:1.0 30:0.5 31:0.33 32:0.67 33:0.17 34:0.33 35:0.2 36:0.2 37:0.33 40:1.0 41:0.33 42:0.5 43:0.6 44:0.5 46:0.67 47:0.17 48:0.33 50:0.25 53:0.33 54:0.33 55:1.0 58:0.5 61:1.0 62:0.2 63:1.0 64:1.0 65:1.0 66:0.67 67:0.33 69:0.67 70:1.0 71:0.5 72:1.0 73:0.75 74:0.5 77:0.5 78:0.33 79:0.5 80:0.5 81:0.5 83:0.5 84:1.0 85:1.0 86:0.25 89:0.25 90:0.33 92:0.17 94:0.25 97:1.0 98:0.5 99:0.14 102:0.33 103:0.4 104:0.67 105:1.0 106:0.25 108:0.33 109:0.33 110:0.14 111:1.0 112:0.33 113:0.17 114:1.0 115:1.0 117:0.5 118:1.0 119:1.0 120:1.0 121:1.0 123:1.0 124:0.5 125:1.0 126:1.0 128:0.33 129:1.0 130:1.0 134:1.0 138:1.0 139:0.33 140:1.0 141:1.0 142:1.0 143:0.33 145:0.5 146:1.0 147:0.5 148:0.5 149:0.5 152:1.0 153:1.0 154:1.0 155:1.0 157:1.0 158:1.0 160:1.0 162:1.0 163:1.0 164:1.0 
-1.0 -1.0 -1.0 1.0 0.0 1.0 1.0 2:0.33 4:0.25 6:1.0 8:0.25 9:1.0 11:0.29 13:0.33 14:0.33 18:1.0 20:0.5 22:0.17 25:0.2 26:0.33 28:0.25 30:0.5 31:0.33 32:0.33 33:0.17 36:0.4 37:0.33 40:0.25 41:0.33 43:0.2 46:0.33 47:0.33 50:0.5 51:0.5 55:0.5 61:0.33 63:0.33 64:0.25 66:1.0 67:0.67 69:0.33 70:1.0 72:0.33 73:0.25 75:1.0 77:0.25 78:0.33 80:0.5 81:0.25 83:0.25 85:1.0 89:0.5 90:0.33 91:0.5 92:0.17 94:0.25 95:0.5 97:1.0 99:0.14 101:0.5 103:0.2 104:0.33 105:0.2 110:0.29 111:0.2 112:0.67 113:0.33 114:1.0 120:0.2 123:1.0 125:0.5 126:0.5 129:0.33 134:0.17 138:1.0 140:0.14 142:0.2 143:0.33 146:0.5 148:0.5 152:0.25 154:0.17 158:0.2 160:0.17 162:0.17 163:0.2 164:0.2 
-1.0 -1.0 -1.0 1.0 1.0 1.0 1.0 1:0.33 5:0.5 7:0.5 10:0.5 12:0.33 21:0.33 27:0.5 35:0.2 44:0.5 48:0.33 49:0.5 53:0.33 57:0.5 59:0.5 62:0.2 87:0.5 90:0.33 93:0.25 94:0.25 107:0.33 109:0.33 122:1.0 124:0.5 128:0.33 156:0.5 161:0.2 
-0.0 -1.0 -0.11765470096783211 1.0 1.0 0.0 1.0 2:0.33 3:1.0 4:0.25 6:1.0 7:0.5 8:0.25 11:0.43 13:0.67 14:0.5 16:1.0 18:1.0 20:0.5 22:1.0 23:1.0 24:1.0 25:1.0 26:0.33 28:1.0 30:1.0 31:0.33 32:0.33 33:0.5 36:0.4 37:0.33 38:1.0 40:1.0 41:1.0 43:0.4 45:0.5 46:0.33 47:0.5 49:0.5 50:0.5 51:0.5 52:1.0 55:0.5 56:1.0 57:1.0 58:0.5 61:0.67 63:1.0 64:1.0 66:0.67 67:0.67 69:0.67 70:1.0 72:0.67 73:0.25 74:0.5 76:1.0 77:0.25 80:0.5 81:0.75 83:0.25 85:1.0 88:1.0 89:0.5 90:1.0 92:0.5 94:1.0 97:1.0 99:0.43 101:0.5 103:0.2 104:0.33 105:1.0 108:0.67 110:0.43 111:1.0 112:0.67 113:0.5 114:1.0 118:0.83 120:1.0 122:1.0 123:1.0 125:0.5 126:0.5 129:1.0 130:0.8 131:1.0 132:1.0 134:0.83 136:1.0 137:1.0 138:1.0 139:1.0 140:0.86 142:1.0 143:1.0 144:1.0 145:0.5 146:0.5 148:1.0 149:0.5 151:1.0 152:1.0 154:0.83 158:0.8 159:1.0 160:0.83 161:0.6 162:1.0 163:1.0 164:0.8 
-1.0 -1.0 -1.0 1.0 0.42754635322349915 1.0 1.0 2:0.33 4:0.25 6:1.0 8:0.25 9:1.0 11:0.29 13:0.33 14:0.33 18:1.0 20:0.5 22:0.17 25:0.2 26:0.33 28:0.25 30:0.5 31:0.33 32:0.33 33:0.17 36:0.4 37:0.33 40:0.25 41:0.33 43:0.2 46:0.33 47:0.33 50:0.5 51:0.5 55:0.5 61:0.33 63:0.33 64:0.25 66:1.0 67:0.67 69:0.33 70:1.0 72:0.33 73:0.25 75:1.0 77:0.25 78:0.33 80:0.5 81:0.25 83:0.25 85:1.0 89:0.5 90:0.33 91:0.5 92:0.17 94:0.25 95:0.5 97:1.0 99:0.14 101:0.5 103:0.2 104:0.33 105:0.2 110:0.29 111:0.2 112:0.67 113:0.33 114:1.0 120:0.2 123:1.0 125:0.5 126:0.5 129:0.33 134:0.17 138:1.0 140:0.14 142:0.2 143:0.33 146:0.5 148:0.5 152:0.25 154:0.17 158:0.2 160:0.17 162:0.17 163:0.2 164:0.2 
-1.0 -0.6194785390597481 -1.0 0.16278823430663492 0.0 0.47663604845445523 1.0 1:0.33 2:1.0 4:0.75 6:1.0 8:0.75 10:0.5 11:0.14 12:0.33 13:0.67 14:0.17 15:0.67 17:0.5 18:1.0 20:1.0 21:0.33 22:1.0 25:1.0 26:0.17 27:0.5 28:1.0 30:0.5 31:0.67 32:0.67 33:0.17 34:1.0 35:0.6 36:0.2 37:0.33 40:1.0 41:0.33 42:0.75 43:0.8 46:1.0 47:0.17 48:0.67 50:0.25 53:0.67 54:0.67 55:1.0 58:0.5 59:0.5 61:1.0 62:0.6 63:1.0 64:1.0 65:0.5 66:0.67 67:0.33 68:1.0 69:1.0 70:1.0 71:1.0 72:1.0 73:1.0 74:0.5 77:0.75 78:0.33 79:1.0 80:1.0 81:0.5 82:0.67 83:1.0 84:1.0 85:1.0 86:0.75 87:0.5 89:0.25 90:0.33 92:0.17 93:0.5 94:0.25 96:0.67 97:1.0 98:1.0 99:0.14 102:0.67 103:0.8 104:1.0 105:1.0 106:0.75 107:0.67 108:0.33 109:0.33 110:0.14 111:1.0 112:0.33 113:0.17 114:1.0 117:0.5 118:1.0 120:1.0 121:0.5 123:1.0 125:0.5 126:0.5 127:1.0 128:0.33 129:1.0 130:1.0 133:1.0 134:1.0 135:1.0 138:1.0 139:0.33 140:1.0 142:1.0 143:0.33 145:0.5 146:1.0 147:0.5 148:0.5 149:0.5 150:1.0 152:1.0 154:1.0 155:1.0 156:0.5 157:1.0 158:1.0 160:1.0 162:1.0 163:1.0 164:1.0 
-0.0 -0.0 -1.0 0.0 0.0 1.0 1.0 2:0.67 4:0.5 6:1.0 8:0.25 11:0.14 12:0.33 13:0.33 14:0.17 18:1.0 20:0.5 22:1.0 25:1.0 26:0.17 27:0.5 28:1.0 30:0.5 31:0.67 32:0.33 33:0.17 34:0.33 35:0.2 36:0.2 37:0.33 40:1.0 41:0.33 42:0.25 43:0.6 46:0.67 47:0.17 50:0.25 53:0.33 54:0.33 55:0.5 61:0.67 62:0.2 63:1.0 64:1.0 66:0.67 67:0.33 68:0.5 69:1.0 70:1.0 72:0.67 73:0.5 77:0.5 80:1.0 81:0.25 82:0.33 83:0.5 85:1.0 86:0.25 87:0.5 89:0.25 90:0.33 92:0.17 93:0.25 94:0.25 96:0.33 97:1.0 98:0.5 99:0.14 102:0.33 103:0.4 104:0.33 105:1.0 106:0.25 107:0.33 110:0.14 111:1.0 112:0.33 113:0.17 114:1.0 117:0.5 118:0.83 120:1.0 123:1.0 125:0.5 126:0.5 127:1.0 128:0.33 129:1.0 130:0.8 134:0.83 135:0.2 138:1.0 139:0.33 140:0.86 142:1.0 143:0.33 146:0.5 148:0.5 149:0.5 152:1.0 154:0.83 156:0.5 158:0.8 160:0.83 161:0.1 162:1.0 163:1.0 164:0.8 
-0.16963432130901027 -0.0 -1.0 0.0 0.0 1.0 1.0 2:0.67 4:0.5 6:1.0 8:0.25 11:0.14 12:0.33 13:0.33 14:0.17 18:1.0 20:0.5 22:1.0 25:1.0 26:0.17 27:0.5 28:1.0 30:0.5 31:0.67 32:0.33 33:0.17 34:0.33 35:0.2 36:0.2 37:0.33 40:1.0 41:0.33 42:0.25 43:0.6 46:0.67 47:0.17 50:0.25 53:0.33 54:0.33 55:0.5 61:0.67 62:0.2 63:1.0 64:1.0 66:0.67 67:0.33 68:0.5 69:1.0 70:1.0 72:0.67 73:0.5 77:0.5 80:1.0 81:0.25 82:0.33 83:0.5 85:1.0 86:0.25 87:0.5 89:0.25 90:0.33 92:0.17 93:0.25 94:0.25 96:0.33 97:1.0 98:0.5 99:0.14 102:0.33 103:0.4 104:0.33 105:1.0 106:0.25 107:0.33 110:0.14 111:1.0 112:0.33 113:0.17 114:1.0 117:0.5 118:0.83 120:1.0 123:1.0 125:0.5 126:0.5 127:1.0 128:0.33 129:1.0 130:0.8 134:0.83 135:0.2 138:1.0 139:0.33 140:0.86 142:1.0 143:0.33 146:0.5 148:0.5 149:0.5 152:1.0 154:0.83 156:0.5 158:0.8 160:0.83 161:0.1 162:1.0 163:1.0 164:0.8 
-0.0 -1.0 -0.0 1.0 1.0 0.546412689519618 0.06953332100071638 2:0.33 4:0.25 6:1.0 7:0.5 8:0.25 11:0.29 13:0.67 14:0.33 16:1.0 18:1.0 20:0.5 22:1.0 23:1.0 25:1.0 26:0.33 28:1.0 30:1.0 31:0.33 32:0.33 33:0.33 36:0.4 37:0.33 38:0.5 40:1.0 41:0.67 43:0.4 46:0.33 47:0.33 50:0.5 55:0.5 56:1.0 57:1.0 61:0.67 63:1.0 64:1.0 66:0.67 67:0.33 69:0.67 70:1.0 72:0.67 73:0.25 74:0.5 77:0.25 80:0.5 81:0.5 83:0.25 85:1.0 88:0.5 89:0.5 90:1.0 92:0.33 94:0.75 97:1.0 99:0.29 103:0.2 104:0.33 105:1.0 108:0.33 110:0.29 111:1.0 112:0.33 113:0.33 114:1.0 118:0.83 120:1.0 122:1.0 123:1.0 125:0.5 126:0.5 129:1.0 130:0.8 134:0.83 137:0.5 138:1.0 139:0.67 140:0.86 142:1.0 143:0.67 144:1.0 146:0.5 148:0.5 149:0.5 151:0.5 152:1.0 154:0.83 158:0.8 159:0.5 160:0.83 161:0.5 162:1.0 163:1.0 164:0.8 
-1.0 -1.0 -1.0 1.0 1.0 1.0 1.0 1:0.33 5:0.5 7:0.5 10:0.5 12:0.33 21:0.33 27:0.5 35:0.2 44:0.5 48:0.33 49:0.5 53:0.33 57:0.5 59:0.5 62:0.2 87:0.5 90:0.33 93:0.25 94:0.25 107:0.33 109:0.33 122:1.0 124:0.5 128:0.33 156:0.5 161:0.2 
-0.0 -0.0 -1.0 0.0 0.0 0.7151500483113017 0.9774631111786047 13:0.33 17:0.5 20:0.5 22:1.0 25:1.0 28:1.0 35:0.2 40:1.0 42:0.25 43:0.2 46:0.33 53:0.33 55:1.0 58:0.5 61:0.67 63:1.0 64:1.0 66:0.33 69:0.33 70:1.0 72:0.33 73:0.25 74:0.5 81:0.25 84:1.0 85:0.5 102:0.33 105:1.0 108:0.33 111:1.0 118:1.0 120:1.0 123:1.0 129:1.0 130:1.0 134:1.0 139:0.33 140:1.0 142:1.0 145:0.5 149:0.5 152:1.0 154:1.0 157:1.0 158:1.0 160:1.0 162:1.0 163:1.0 164:1.0 
-0.0 -0.49771874084214274 -0.8509962130809853 0.0 0.5366345020836001 0.9097180383719521 0.9711771844230095 13:0.33 17:0.5 20:0.5 22:1.0 25:1.0 28:1.0 35:0.2 40:1.0 42:0.25 43:0.2 46:0.33 53:0.33 55:1.0 58:0.5 61:0.67 63:1.0 64:1.0 66:0.33 69:0.33 70:1.0 72:0.33 73:0.25 74:0.5 81:0.25 84:1.0 85:0.5 102:0.33 105:1.0 108:0.33 111:1.0 118:1.0 120:1.0 123:1.0 129:1.0 130:1.0 134:1.0 139:0.33 140:1.0 142:1.0 145:0.5 149:0.5 152:1.0 154:1.0 157:1.0 158:1.0 160:1.0 162:1.0 163:1.0 164:1.0 
-1.0 -1.0 -1.0 1.0 1.0 1.0 1.0 2:0.33 4:0.25 6:1.0 8:0.25 9:1.0 11:0.29 13:0.33 14:0.33 18:1.0 20:0.5 22:0.17 25:0.2 26:0.33 28:0.25 30:0.5 31:0.33 32:0.33 33:0.17 36:0.4 37:0.33 40:0.25 41:0.33 43:0.2 46:0.33 47:0.33 50:0.5 51:0.5 55:0.5 61:0.33 63:0.33 64:0.25 66:1.0 67:0.67 69:0.33 70:1.0 72:0.33 73:0.25 75:1.0 77:0.25 78:0.33 80:0.5 81:0.25 83:0.25 85:1.0 89:0.5 90:0.33 91:0.5 92:0.17 94:0.25 95:0.5 97:1.0 99:0.14 101:0.5 103:0.2 104:0.33 105:0.2 110:0.29 111:0.2 112:0.67 113:0.33 114:1.0 120:0.2 123:1.0 125:0.5 126:0.5 129:0.33 134:0.17 138:1.0 140:0.14 142:0.2 143:0.33 146:0.5 148:0.5 152:0.25 154:0.17 158:0.2 160:0.17 162:0.17 163:0.2 164:0.2 
-0.8303656786909898 -1.0 -1.0 1.0 0.971635422744848 1.0 1.0 2:0.33 4:0.25 6:1.0 8:0.25 9:1.0 11:0.29 13:0.33 14:0.33 18:1.0 20:0.5 22:0.17 25:0.2 26:0.33 28:0.25 30:0.5 31:0.33 32:0.33 33:0.17 36:0.4 37:0.33 40:0.25 41:0.33 43:0.2 46:0.33 47:0.33 50:0.5 51:0.5 55:0.5 61:0.33 63:0.33 64:0.25 66:1.0 67:0.67 69:0.33 70:1.0 72:0.33 73:0.25 75:1.0 77:0.25 78:0.33 80:0.5 81:0.25 83:0.25 85:1.0 89:0.5 90:0.33 91:0.5 92:0.17 94:0.25 95:0.5 97:1.0 99:0.14 101:0.5 103:0.2 104:0.33 105:0.2 110:0.29 111:0.2 112:0.67 113:0.33 114:1.0 120:0.2 123:1.0 125:0.5 126:0.5 129:0.33 134:0.17 138:1.0 140:0.14 142:0.2 143:0.33 146:0.5 148:0.5 152:0.25 154:0.17 158:0.2 160:0.17 162:0.17 163:0.2 164:0.2 
-1.0 -1.0 -1.0 -1.0 1.0 1.0 1.0 1:0.33 2:0.67 3:1.0 4:0.5 6:1.0 7:0.5 8:0.5 10:0.5 11:0.29 13:1.0 14:0.33 15:0.33 16:1.0 17:0.5 18:1.0 20:1.0 22:0.17 23:1.0 24:1.0 25:0.2 26:0.33 28:0.25 29:1.0 30:1.0 31:0.33 32:0.67 33:0.5 34:0.33 35:0.2 36:0.4 37:0.33 38:1.0 40:0.25 41:1.0 42:0.5 43:0.6 44:0.5 45:0.5 46:0.67 47:0.33 48:0.33 50:0.5 51:0.5 52:1.0 53:0.33 54:0.33 55:0.5 56:1.0 57:1.0 58:1.0 61:1.0 62:0.2 63:0.33 64:0.25 65:1.0 66:0.33 67:0.33 69:0.67 71:0.5 72:1.0 73:0.75 74:1.0 77:0.5 78:0.33 79:0.5 80:0.5 81:1.0 83:0.5 84:1.0 85:0.5 86:0.25 88:1.0 89:0.5 90:1.0 92:0.5 94:1.0 97:1.0 98:0.5 99:0.29 102:0.33 103:0.4 104:0.67 105:0.2 106:0.25 108:1.0 109:0.33 110:0.43 111:0.2 112:0.67 113:0.5 114:1.0 115:1.0 117:0.5 118:0.33 119:1.0 120:0.2 121:1.0 122:1.0 124:0.5 125:1.0 126:1.0 128:0.33 129:0.33 130:0.4 131:1.0 132:1.0 134:0.33 136:1.0 137:1.0 138:1.0 139:1.0 140:0.29 141:1.0 142:0.2 143:1.0 144:1.0 145:1.0 146:1.0 147:0.5 148:1.0 149:0.5 151:1.0 152:0.25 153:1.0 154:0.33 155:1.0 157:1.0 158:0.4 159:1.0 160:0.17 161:0.5 162:0.17 163:0.2 164:0.4 
-0.0 -1.0 -0.0 -0.0 0.0 0.0 0.0 2:0.33 3:1.0 4:0.25 6:1.0 7:0.5 8:0.25 9:1.0 11:0.43 13:1.0 14:0.5 16:1.0 17:0.5 18:1.0 19:1.0 20:1.0 22:0.17 23:1.0 24:1.0 25:0.2 26:0.5 28:0.25 30:1.0 31:0.33 32:0.33 33:0.5 35:0.2 36:0.6 37:0.33 38:1.0 40:0.25 41:1.0 42:0.25 43:0.4 45:0.5 46:0.67 47:0.5 50:0.75 51:1.0 52:1.0 53:0.33 55:0.5 56:1.0 57:0.5 58:1.0 61:1.0 63:0.33 64:0.25 66:0.67 67:0.67 69:0.67 72:0.67 73:0.5 74:1.0 75:1.0 77:0.25 78:0.33 80:0.5 81:1.0 83:0.25 84:1.0 85:0.5 88:1.0 89:0.75 90:0.67 91:0.5 92:0.5 94:0.75 95:0.5 97:1.0 99:0.29 101:0.5 102:0.33 103:0.2 104:0.33 105:0.2 108:1.0 110:0.57 111:0.2 112:1.0 113:0.67 114:1.0 118:0.33 120:0.2 125:0.5 126:0.5 129:0.33 130:0.4 131:1.0 132:1.0 134:0.33 136:1.0 137:1.0 138:1.0 139:1.0 140:0.29 142:0.2 143:1.0 144:1.0 145:1.0 146:0.5 148:1.0 149:0.5 151:1.0 152:0.25 154:0.33 157:1.0 158:0.4 159:1.0 160:0.17 161:0.2 162:0.17 163:0.2 164:0.4 
-0.0 -1.0 -1.0 -1.0 1.0 1.0 1.0 3:1.0 7:0.5 11:0.14 13:0.33 14:0.17 16:1.0 22:0.17 23:1.0 24:1.0 25:0.2 26:0.17 28:0.25 30:0.5 33:0.33 36:0.2 38:1.0 40:0.25 41:0.67 43:0.2 45:0.5 47:0.17 50:0.25 51:0.5 52:1.0 56:1.0 57:0.5 58:0.5 61:0.33 63:0.33 64:0.25 69:0.33 72:0.33 74:0.5 81:0.5 88:1.0 89:0.25 90:0.33 92:0.33 94:0.5 99:0.14 105:0.2 108:0.67 110:0.29 111:0.2 112:0.33 113:0.33 118:0.17 120:0.2 129:0.33 130:0.2 131:1.0 132:1.0 134:0.17 136:1.0 137:1.0 139:1.0 140:0.14 142:0.2 143:0.67 144:1.0 145:0.5 148:0.5 149:0.5 151:1.0 152:0.25 154:0.17 158:0.2 159:1.0 161:0.3 162:0.17 163:0.2 164:0.2 
-1.0 -1.0 -0.0 -0.0 0.0 0.3589613945296008 1.0 2:0.33 3:1.0 4:0.25 6:1.0 7:0.5 8:0.25 11:0.29 13:0.67 14:0.33 16:1.0 18:1.0 20:0.5 23:1.0 24:1.0 26:0.33 30:1.0 31:0.33 32:0.33 33:0.5 36:0.4 37:0.33 38:1.0 41:1.0 43:0.2 45:0.5 46:0.33 47:0.33 50:0.5 51:0.5 52:1.0 56:1.0 57:1.0 58:0.5 61:0.33 66:0.33 67:0.33 69:0.33 72:0.33 73:0.25 74:0.5 77:0.25 80:0.5 81:0.75 83:0.25 85:0.5 88:1.0 89:0.5 90:1.0 92:0.5 94:1.0 97:1.0 99:0.29 103:0.2 104:0.33 108:0.67 110:0.43 112:0.67 113:0.5 114:1.0 122:1.0 125:0.5 126:0.5 131:1.0 132:1.0 136:1.0 137:1.0 138:1.0 139:0.67 143:1.0 144:1.0 145:0.5 146:0.5 148:1.0 151:1.0 159:1.0 161:0.6 
-0.0 -1.0 -0.0 -0.0 0.0 0.0 0.0 2:0.33 3:1.0 4:0.25 6:1.0 7:0.5 8:0.25 9:1.0 11:0.43 13:1.0 14:0.5 16:1.0 17:0.5 18:1.0 19:1.0 20:1.0 22:0.17 23:1.0 24:1.0 25:0.2 26:0.5 28:0.25 30:1.0 31:0.33 32:0.33 33:0.5 35:0.2 36:0.6 37:0.33 38:1.0 40:0.25 41:1.0 42:0.25 43:0.4 45:0.5 46:0.67 47:0.5 50:0.75 51:1.0 52:1.0 53:0.33 55:0.5 56:1.0 57:0.5 58:1.0 61:1.0 63:0.33 64:0.25 66:0.67 67:0.67 69:0.67 72:0.67 73:0.5 74:1.0 75:1.0 77:0.25 78:0.33 80:0.5 81:1.0 83:0.25 84:1.0 85:0.5 88:1.0 89:0.75 90:0.67 91:0.5 92:0.5 94:0.75 95:0.5 97:1.0 99:0.29 101:0.5 102:0.33 103:0.2 104:0.33 105:0.2 108:1.0 110:0.57 111:0.2 112:1.0 113:0.67 114:1.0 118:0.33 120:0.2 125:0.5 126:0.5 129:0.33 130:0.4 131:1.0 132:1.0 134:0.33 136:1.0 137:1.0 138:1.0 139:1.0 140:0.29 142:0.2 143:1.0 144:1.0 145:1.0 146:0.5 148:1.0 149:0.5 151:1.0 152:0.25 154:0.33 157:1.0 158:0.4 159:1.0 160:0.17 161:0.2 162:0.17 163:0.2 164:0.4 
-1.0 -1.0 -1.0 -1.0 0.14587492466501825 1.0 1.0 2:0.33 3:1.0 4:0.25 6:1.0 8:0.25 9:1.0 11:0.29 13:0.33 14:0.33 18:1.0 19:1.0 20:0.5 24:1.0 26:0.33 30:0.5 31:0.33 32:0.33 33:0.33 36:0.4 37:0.33 38:0.5 41:0.67 43:0.2 45:0.5 46:0.33 47:0.33 50:0.5 51:1.0 52:1.0 58:0.5 61:0.33 66:0.67 67:0.67 69:0.33 72:0.33 73:0.25 75:1.0 77:0.25 78:0.33 80:0.5 81:0.5 83:0.25 85:0.5 88:0.5 89:0.5 90:0.33 91:0.5 92:0.33 94:0.5 95:0.5 97:1.0 99:0.14 101:0.5 103:0.2 104:0.33 108:0.33 110:0.43 112:1.0 113:0.5 114:1.0 125:0.5 126:0.5 131:1.0 132:1.0 136:1.0 137:0.5 138:1.0 139:0.33 143:0.67 145:0.5 146:0.5 148:1.0 151:0.5 159:0.5 161:0.1 
-0.4554322693825636 -1.0 -1.0 -1.0 1.0 1.0 1.0 3:1.0 7:0.5 11:0.14 13:0.33 14:0.17 16:1.0 22:0.17 23:1.0 24:1.0 25:0.2 26:0.17 28:0.25 30:0.5 33:0.33 36:0.2 38:1.0 40:0.25 41:0.67 43:0.2 45:0.5 47:0.17 50:0.25 51:0.5 52:1.0 56:1.0 57:0.5 58:0.5 61:0.33 63:0.33 64:0.25 69:0.33 72:0.33 74:0.5 81:0.5 88:1.0 89:0.25 90:0.33 92:0.33 94:0.5 99:0.14 105:0.2 108:0.67 110:0.29 111:0.2 112:0.33 113:0.33 118:0.17 120:0.2 129:0.33 130:0.2 131:1.0 132:1.0 134:0.17 136:1.0 137:1.0 139:1.0 140:0.14 142:0.2 143:0.67 144:1.0 145:0.5 148:0.5 149:0.5 151:1.0 152:0.25 154:0.17 158:0.2 159:1.0 161:0.3 162:0.17 163:0.2 164:0.2 
-0.0 -1.0 -0.0 -0.0 1.0 0.0 1.0 2:0.33 3:1.0 4:0.25 6:1.0 7:0.5 8:0.25 11:0.43 13:0.67 14:0.5 16:1.0 18:1.0 20:0.5 23:1.0 24:1.0 26:0.33 30:1.0 31:0.33 32:0.33 33:0.5 36:0.4 37:0.33 38:1.0 41:1.0 43:0.2 45:0.5 46:0.33 47:0.5 49:0.5 50:0.5 51:0.5 52:1.0 56:1.0 57:1.0 58:0.5 61:0.33 66:0.33 67:0.67 69:0.33 72:0.33 73:0.25 74:0.5 76:1.0 77:0.25 80:0.5 81:0.75 83:0.25 85:0.5 88:1.0 89:0.5 90:1.0 92:0.5 94:1.0 97:1.0 99:0.43 101:0.5 103:0.2 104:0.33 108:0.67 110:0.43 112:0.67 113:0.5 114:1.0 122:1.0 125:0.5 126:0.5 131:1.0 132:1.0 136:1.0 137:1.0 138:1.0 139:0.67 143:1.0 144:1.0 145:0.5 146:0.5 148:1.0 151:1.0 159:1.0 161:0.6 
-0.0 -1.0 -0.0 -0.06559269086855883 0.0 0.0 0.17145278463614566 2:0.33 3:1.0 4:0.25 6:1.0 7:0.5 8:0.5 9:1.0 11:1.0 13:1.0 14:1.0 15:0.33 16:1.0 17:0.5 18:1.0 20:1.0 21:0.33 22:0.17 23:1.0 24:1.0 25:0.2 26:1.0 28:0.25 30:1.0 31:0.33 32:0.33 33:1.0 34:0.33 35:0.4 36:1.0 37:1.0 38:1.0 40:0.25 41:1.0 42:0.25 43:0.4 45:0.5 46:0.67 47:1.0 48:0.33 49:0.5 50:1.0 51:1.0 52:1.0 53:0.33 55:0.5 56:1.0 57:1.0 58:1.0 59:0.5 61:1.0 62:0.2 63:0.33 64:0.25 66:0.67 67:1.0 68:0.5 69:0.67 71:0.5 72:0.67 73:0.5 74:1.0 75:1.0 76:1.0 77:0.25 78:0.33 79:0.5 80:0.5 81:1.0 82:0.33 83:0.5 84:1.0 85:0.5 86:0.25 88:1.0 89:1.0 90:1.0 91:0.5 92:1.0 93:0.25 94:1.0 95:0.5 96:0.33 97:1.0 99:1.0 101:1.0 102:0.33 103:0.4 104:0.67 105:0.2 106:0.25 107:0.33 108:1.0 110:1.0 111:0.2 112:1.0 113:1.0 114:1.0 118:0.33 120:0.2 122:1.0 125:0.5 126:0.5 129:0.33 130:0.4 131:1.0 132:1.0 133:0.33 134:0.33 135:0.2 136:1.0 137:1.0 138:1.0 139:1.0 140:0.29 142:0.2 143:1.0 144:1.0 145:1.0 146:0.5 148:1.0 149:0.5 151:1.0 152:0.25 154:0.33 157:1.0 158:0.4 159:1.0 160:0.17 161:0.2 162:0.17 163:0.2 164:0.4 
-0.36560704088339524 -1.0 -0.0 -0.5594326149122616 1.0 0.5187984629273676 1.0 2:0.33 3:1.0 4:0.25 6:1.0 7:0.5 8:0.25 11:0.43 13:0.67 14:0.5 16:1.0 18:1.0 20:0.5 23:1.0 24:1.0 26:0.33 30:1.0 31:0.33 32:0.33 33:0.5 36:0.4 37:0.33 38:1.0 41:1.0 43:0.2 45:0.5 46:0.33 47:0.5 49:0.5 50:0.5 51:0.5 52:1.0 56:1.0 57:1.0 58:0.5 61:0.33 66:0.33 67:0.67 69:0.33 72:0.33 73:0.25 74:0.5 76:1.0 77:0.25 80:0.5 81:0.75 83:0.25 85:0.5 88:1.0 89:0.5 90:1.0 92:0.5 94:1.0 97:1.0 99:0.43 101:0.5 103:0.2 104:0.33 108:0.67 110:0.43 112:0.67 113:0.5 114:1.0 122:1.0 125:0.5 126:0.5 131:1.0 132:1.0 136:1.0 137:1.0 138:1.0 139:0.67 143:1.0 144:1.0 145:0.5 146:0.5 148:1.0 151:1.0 159:1.0 161:0.6 
-0.0 -1.0 -1.0 -1.0 0.0 0.0 0.6297650121276971 2:0.33 3:1.0 4:0.25 6:1.0 7:0.5 8:0.25 11:0.29 13:0.67 14:0.33 16:1.0 18:1.0 20:0.5 22:0.17 23:1.0 24:1.0 25:0.2 26:0.33 28:0.25 30:1.0 31:0.33 32:0.33 33:0.5 36:0.4 37:0.33 38:1.0 40:0.25 41:1.0 43:0.4 45:0.5 46:0.33 47:0.33 50:0.5 51:0.5 52:1.0 56:1.0 57:1.0 58:0.5 61:0.67 63:0.33 64:0.25 66:0.33 67:0.33 69:0.67 72:0.67 73:0.25 74:0.5 77:0.25 80:0.5 81:0.75 83:0.25 85:0.5 88:1.0 89:0.5 90:1.0 92:0.5 94:1.0 97:1.0 99:0.29 103:0.2 104:0.33 105:0.2 108:0.67 110:0.43 111:0.2 112:0.67 113:0.5 114:1.0 118:0.17 120:0.2 122:1.0 125:0.5 126:0.5 129:0.33 130:0.2 131:1.0 132:1.0 134:0.17 136:1.0 137:1.0 138:1.0 139:1.0 140:0.14 142:0.2 143:1.0 144:1.0 145:0.5 146:0.5 148:1.0 149:0.5 151:1.0 152:0.25 154:0.17 158:0.2 159:1.0 161:0.6 162:0.17 163:0.2 164:0.2 
-0.7394497551118324 -1.0 -0.0 -0.4018204444485638 0.4990271231010535 1.0 1.0 2:0.33 3:1.0 4:0.25 6:1.0 7:0.5 8:0.25 11:0.29 13:0.67 14:0.33 16:1.0 18:1.0 20:0.5 23:1.0 24:1.0 26:0.33 30:1.0 31:0.33 32:0.33 33:0.5 36:0.4 37:0.33 38:1.0 41:1.0 43:0.2 45:0.5 46:0.33 47:0.33 50:0.5 51:0.5 52:1.0 56:1.0 57:1.0 58:0.5 61:0.33 66:0.33 67:0.33 69:0.33 72:0.33 73:0.25 74:0.5 77:0.25 80:0.5 81:0.75 83:0.25 85:0.5 88:1.0 89:0.5 90:1.0 92:0.5 94:1.0 97:1.0 99:0.29 103:0.2 104:0.33 108:0.67 110:0.43 112:0.67 113:0.5 114:1.0 122:1.0 125:0.5 126:0.5 131:1.0 132:1.0 136:1.0 137:1.0 138:1.0 139:0.67 143:1.0 144:1.0 145:0.5 146:0.5 148:1.0 151:1.0 159:1.0 161:0.6 
-0.0 -1.0 -0.0 -0.6044169191026054 0.3550979522339283 0.0 0.20699039586760506 2:0.33 3:1.0 4:0.25 6:1.0 7:0.5 8:0.25 9:1.0 11:0.43 13:1.0 14:0.5 16:1.0 17:0.5 18:1.0 19:1.0 20:1.0 22:0.17 23:1.0 24:1.0 25:0.2 26:0.5 28:0.25 30:1.0 31:0.33 32:0.33 33:0.5 35:0.2 36:0.6 37:0.33 38:1.0 40:0.25 41:1.0 42:0.25 43:0.4 45:0.5 46:0.67 47:0.5 50:0.75 51:1.0 52:1.0 53:0.33 55:0.5 56:1.0 57:0.5 58:1.0 61:1.0 63:0.33 64:0.25 66:0.67 67:0.67 69:0.67 72:0.67 73:0.5 74:1.0 75:1.0 77:0.25 78:0.33 80:0.5 81:1.0 83:0.25 84:1.0 85:0.5 88:1.0 89:0.75 90:0.67 91:0.5 92:0.5 94:0.75 95:0.5 97:1.0 99:0.29 101:0.5 102:0.33 103:0.2 104:0.33 105:0.2 108:1.0 110:0.57 111:0.2 112:1.0 113:0.67 114:1.0 118:0.33 120:0.2 125:0.5 126:0.5 129:0.33 130:0.4 131:1.0 132:1.0 134:0.33 136:1.0 137:1.0 138:1.0 139:1.0 140:0.29 142:0.2 143:1.0 144:1.0 145:1.0 146:0.5 148:1.0 149:0.5 151:1.0 152:0.25 154:0.33 157:1.0 158:0.4 159:1.0 160:0.17 161:0.2 162:0.17 163:0.2 164:0.4 
-1.0 -1.0 -1.0 -0.014785646957192507 1.0 0.5946833012490894 1.0 3:1.0 7:0.5 8:0.25 11:0.14 13:0.67 14:0.17 15:0.33 16:1.0 17:0.5 20:0.5 21:0.33 23:1.0 24:1.0 26:0.17 30:0.5 33:0.33 34:0.33 35:0.4 36:0.2 38:1.0 41:0.67 42:0.25 45:0.5 46:0.33 47:0.17 48:0.33 50:0.25 51:0.5 52:1.0 53:0.33 55:0.5 56:1.0 57:0.5 58:1.0 59:0.5 61:0.33 62:0.2 68:0.5 71:0.5 73:0.25 74:1.0 79:0.5 81:0.75 82:0.33 83:0.25 84:1.0 86:0.25 88:1.0 89:0.25 90:0.33 92:0.33 93:0.25 94:0.5 96:0.33 99:0.14 102:0.33 103:0.2 104:0.33 106:0.25 107:0.33 108:1.0 110:0.29 112:0.33 113:0.33 118:0.17 130:0.2 131:1.0 132:1.0 133:0.33 134:0.17 135:0.2 136:1.0 137:1.0 139:0.67 140:0.14 143:0.67 144:1.0 145:1.0 148:0.5 151:1.0 154:0.17 157:1.0 158:0.2 159:1.0 160:0.17 161:0.2 164:0.2 
-0.0 -1.0 -0.5241673046918564 -1.0 0.0 0.0 0.0 2:0.33 3:1.0 4:0.25 6:1.0 7:0.5 8:0.25 11:0.43 13:0.67 14:0.5 16:1.0 18:1.0 20:0.5 22:0.17 23:1.0 24:1.0 25:0.2 26:0.33 28:0.25 30:1.0 31:0.33 32:0.33 33:0.5 36:0.4 37:0.33 38:1.0 40:0.25 41:1.0 43:0.4 45:0.5 46:0.33 47:0.5 49:0.5 50:0.5 51:0.5 52:1.0 56:1.0 57:1.0 58:0.5 61:0.67 63:0.33 64:0.25 66:0.33 67:0.67 69:0.67 72:0.67 73:0.25 74:0.5 76:1.0 77:0.25 80:0.5 81:0.75 83:0.25 85:0.5 88:1.0 89:0.5 90:1.0 92:0.5 94:1.0 97:1.0 99:0.43 101:0.5 103:0.2 104:0.33 105:0.2 108:0.67 110:0.43 111:0.2 112:0.67 113:0.5 114:1.0 118:0.17 120:0.2 122:1.0 125:0.5 126:0.5 129:0.33 130:0.2 131:1.0 132:1.0 134:0.17 136:1.0 137:1.0 138:1.0 139:1.0 140:0.14 142:0.2 143:1.0 144:1.0 145:0.5 146:0.5 148:1.0 149:0.5 151:1.0 152:0.25 154:0.17 158:0.2 159:1.0 161:0.3 162:0.17 163:0.2 164:0.2 
-1.0 -1.0 -1.0 -1.0 1.0 1.0 1.0 3:1.0 13:0.33 17:0.5 20:0.5 24:1.0 33:0.17 35:0.2 38:0.5 41:0.33 42:0.25 45:0.5 46:0.33 51:0.5 52:1.0 53:0.33 55:0.5 58:1.0 61:0.33 73:0.25 74:0.5 81:0.5 84:1.0 88:0.5 92:0.17 94:0.25 102:0.33 108:0.67 110:0.14 112:0.33 113:0.17 118:0.17 130:0.2 131:1.0 132:1.0 134:0.17 136:1.0 137:0.5 139:0.33 140:0.14 143:0.33 145:1.0 148:0.5 151:0.5 154:0.17 157:1.0 158:0.2 159:0.5 160:0.17 161:0.1 164:0.2 
-0.0 -1.0 -0.5311895746155585 -1.0 0.0 0.9144875281235837 0.7490089765261883 2:0.33 3:1.0 4:0.25 6:1.0 7:0.5 8:0.25 9:1.0 11:0.86 13:0.67 14:0.83 16:1.0 18:1.0 19:1.0 20:0.5 22:0.17 23:1.0 24:1.0 25:0.2 26:1.0 28:0.25 30:1.0 31:0.33 32:0.33 33:1.0 36:1.0 37:1.0 38:1.0 39:0.5 40:0.25 41:1.0 43:0.4 45:0.5 46:0.33 47:0.83 50:1.0 51:1.0 52:1.0 56:1.0 57:0.5 58:0.5 61:0.67 63:0.33 64:0.25 66:0.67 67:0.67 69:0.67 72:0.67 73:0.25 74:0.5 75:1.0 77:0.25 78:0.33 80:0.5 81:0.75 83:0.25 85:0.5 88:1.0 89:1.0 90:0.67 91:0.5 92:1.0 94:0.75 95:0.5 97:1.0 99:0.86 101:0.5 103:0.2 104:0.33 105:0.2 108:0.67 110:1.0 111:0.2 112:1.0 113:1.0 114:1.0 116:1.0 118:0.17 120:0.2 125:0.5 126:0.5 129:0.33 130:0.2 131:1.0 132:1.0 134:0.17 136:1.0 137:1.0 138:1.0 139:1.0 140:0.14 142:0.2 143:1.0 144:1.0 145:0.5 146:0.5 147:0.5 148:1.0 149:1.0 151:1.0 152:0.25 154:0.17 158:0.2 159:1.0 161:0.2 162:0.17 163:0.2 164:0.2 
-0.6785288054245792 -1.0 -1.0 -1.0 -1.0 1.0 1.0 1:0.33 3:1.0 5:0.5 7:1.0 10:0.5 11:0.14 12:0.33 13:0.33 14:0.17 16:1.0 21:0.33 23:1.0 24:1.0 26:0.17 27:0.5 30:0.5 33:0.33 35:0.2 36:0.2 38:1.0 41:0.67 44:0.5 45:0.5 47:0.17 48:0.33 49:0.5 50:0.25 51:0.5 52:1.0 53:0.33 56:1.0 57:0.5 58:0.5 59:0.5 62:0.2 74:0.5 81:0.5 87:0.5 88:1.0 89:0.25 90:0.33 92:0.33 93:0.25 94:0.5 99:0.14 107:0.33 108:0.67 109:0.33 110:0.29 112:0.33 113:0.33 124:0.5 128:0.33 131:1.0 132:1.0 136:1.0 137:1.0 139:0.67 143:0.67 144:1.0 145:0.5 148:0.5 151:1.0 156:0.5 159:1.0 161:1.0 
-1.0 -1.0 -1.0 -1.0 -1.0 1.0 1.0 3:1.0 13:0.33 17:0.5 20:0.5 24:1.0 33:0.17 35:0.2 38:0.5 41:0.33 42:0.25 45:0.5 46:0.33 51:0.5 52:1.0 53:0.33 55:0.5 58:1.0 61:0.33 73:0.25 74:0.5 81:0.5 84:1.0 88:0.5 92:0.17 94:0.25 102:0.33 108:0.67 110:0.14 112:0.33 113:0.17 118:0.17 130:0.2 131:1.0 132:1.0 134:0.17 136:1.0 137:0.5 139:0.33 140:0.14 143:0.33 145:1.0 148:0.5 151:0.5 154:0.17 157:1.0 158:0.2 159:0.5 160:0.17 161:0.1 164:0.2 
-1.0 -1.0 -0.8436284621140365 -1.0 -1.0 0.921244089810934 1.0 2:0.33 3:1.0 4:0.25 6:1.0 7:0.5 8:0.25 11:0.43 13:1.0 14:0.5 16:1.0 17:0.5 18:1.0 19:1.0 20:1.0 23:1.0 24:1.0 26:0.33 30:1.0 31:0.33 32:0.33 33:0.5 35:0.2 36:0.4 37:0.33 38:1.0 41:1.0 42:0.25 43:0.2 45:0.5 46:0.67 47:0.5 49:0.5 50:0.5 51:0.5 52:1.0 53:0.33 55:0.5 56:1.0 57:0.5 58:1.0 61:0.67 66:0.33 67:0.67 69:0.33 72:0.33 73:0.5 74:1.0 76:1.0 77:0.25 80:0.5 81:1.0 83:0.25 84:1.0 85:0.5 88:1.0 89:0.5 90:0.67 92:0.5 94:0.75 97:1.0 99:0.43 101:0.5 102:0.33 103:0.2 104:0.33 108:1.0 110:0.43 112:0.67 113:0.5 114:1.0 118:0.17 125:0.5 126:0.5 130:0.2 131:1.0 132:1.0 134:0.17 136:1.0 137:1.0 138:1.0 139:0.67 140:0.14 143:1.0 144:1.0 145:1.0 146:0.5 148:1.0 151:1.0 154:0.17 157:1.0 158:0.2 159:1.0 160:0.17 161:0.2 164:0.2 
-1.0 -1.0 -1.0 -0.9358162780519472 -1.0 1.0 1.0 1:0.33 2:0.33 3:1.0 4:0.25 5:0.5 7:1.0 10:0.5 11:0.14 12:0.67 13:0.33 14:0.17 16:1.0 21:0.33 23:1.0 24:1.0 26:0.17 27:1.0 29:1.0 30:0.5 31:0.33 33:0.33 34:0.33 35:0.4 36:0.2 38:1.0 41:0.67 42:0.25 43:0.2 44:1.0 45:0.5 46:0.33 47:0.17 48:0.33 49:0.5 50:0.25 51:0.5 52:1.0 53:0.67 54:0.33 56:1.0 57:1.0 58:0.5 59:0.5 62:0.4 65:0.5 68:0.5 69:0.33 73:0.25 74:0.5 77:0.25 80:0.5 81:0.5 82:0.33 83:0.25 86:0.25 87:1.0 88:1.0 89:0.25 90:0.67 92:0.33 93:0.5 94:0.75 96:0.33 98:0.5 99:0.14 102:0.33 103:0.2 106:0.25 107:0.67 108:0.67 109:0.33 110:0.29 112:0.33 113:0.33 117:1.0 121:0.5 122:1.0 124:1.0 125:0.5 126:0.5 127:1.0 128:1.0 131:1.0 132:1.0 135:0.2 136:1.0 137:1.0 139:0.67 141:0.2 143:0.67 144:1.0 145:0.5 148:0.5 151:1.0 153:0.25 156:1.0 159:1.0 161:1.0 
-0.0 -1.0 -1.0 -1.0 -1.0 1.0 1.0 3:1.0 7:0.5 11:0.14 13:0.67 14:0.17 16:1.0 17:0.5 20:0.5 22:0.17 23:1.0 24:1.0 25:0.2 26:0.17 28:0.25 30:0.5 33:0.33 35:0.2 36:0.2 38:1.0 40:0.25 41:0.67 42:0.25 43:0.2 45:0.5 46:0.33 47:0.17 50:0.25 51:0.5 52:1.0 53:0.33 55:0.5 56:1.0 57:0.5 58:1.0 61:0.67 63:0.33 64:0.25 69:0.33 72:0.33 73:0.25 74:1.0 81:0.75 84:1.0 88:1.0 89:0.25 90:0.33 92:0.33 94:0.5 99:0.14 102:0.33 105:0.2 108:1.0 110:0.29 111:0.2 112:0.33 113:0.33 118:0.33 120:0.2 129:0.33 130:0.4 131:1.0 132:1.0 134:0.33 136:1.0 137:1.0 139:1.0 140:0.29 142:0.2 143:0.67 144:1.0 145:1.0 148:0.5 149:0.5 151:1.0 152:0.25 154:0.33 157:1.0 158:0.4 159:1.0 160:0.17 161:0.2 162:0.17 163:0.2 164:0.4 
-1.0 -1.0 -1.0 -1.0 -1.0 0.8603548539658551 1.0 1:0.33 3:1.0 5:0.5 7:1.0 10:0.5 11:0.14 12:0.33 13:0.33 14:0.17 16:1.0 21:0.33 23:1.0 24:1.0 26:0.17 27:0.5 30:0.5 33:0.33 35:0.2 36:0.2 38:1.0 41:0.67 44:0.5 45:0.5 47:0.17 48:0.33 49:0.5 50:0.25 51:0.5 52:1.0 53:0.33 56:1.0 57:0.5 58:0.5 59:0.5 62:0.2 74:0.5 81:0.5 87:0.5 88:1.0 89:0.25 90:0.33 92:0.33 93:0.25 94:0.5 99:0.14 107:0.33 108:0.67 109:0.33 110:0.29 112:0.33 113:0.33 124:0.5 128:0.33 131:1.0 132:1.0 136:1.0 137:1.0 139:0.67 143:0.67 144:1.0 145:0.5 148:0.5 151:1.0 156:0.5 159:1.0 161:1.0 
-1.0 -1.0 -0.948911818933265 -1.0 -1.0 1.0 1.0 1:0.33 3:1.0 5:0.5 7:1.0 10:0.5 11:0.14 12:0.33 13:0.33 14:0.17 16:1.0 21:0.33 23:1.0 24:1.0 26:0.17 27:0.5 29:1.0 30:0.5 33:0.33 35:0.2 36:0.2 38:1.0 41:0.67 44:1.0 45:0.5 47:0.17 48:0.33 49:0.5 50:0.25 51:0.5 52:1.0 53:0.33 56:1.0 57:1.0 58:0.5 59:0.5 62:0.2 65:0.5 74:0.5 81:0.5 87:0.5 88:1.0 89:0.25 90:0.67 92:0.33 93:0.25 94:0.75 99:0.14 107:0.33 108:0.67 109:0.33 110:0.29 112:0.33 113:0.33 117:0.5 121:0.5 122:1.0 124:1.0 125:0.5 126:0.5 128:0.67 131:1.0 132:1.0 136:1.0 137:1.0 139:0.67 141:0.2 143:0.67 144:1.0 145:0.5 148:0.5 151:1.0 153:0.25 156:0.5 159:1.0 161:1.0 
-1.0 -1.0 -1.0 -1.0 -1.0 1.0 1.0 2:0.33 3:1.0 4:0.25 6:1.0 7:0.5 8:0.25 11:0.43 13:1.0 14:0.5 16:1.0 17:0.5 18:1.0 19:1.0 20:1.0 22:0.17 23:1.0 24:1.0 25:0.2 26:0.33 28:0.25 29:1.0 30:1.0 31:0.33 32:0.33 33:0.5 35:0.2 36:0.4 37:0.33 38:1.0 40:0.25 41:1.0 42:0.25 43:0.4 44:0.5 45:0.5 46:0.67 47:0.5 49:0.5 50:0.5 51:0.5 52:1.0 53:0.33 55:0.5 56:1.0 57:1.0 58:1.0 61:1.0 63:0.33 64:0.25 65:0.5 66:0.33 67:0.67 69:0.67 72:0.67 73:0.5 74:1.0 76:1.0 77:0.25 80:0.5 81:1.0 83:0.25 84:1.0 85:0.5 88:1.0 89:0.5 90:1.0 92:0.5 94:1.0 97:1.0 99:0.43 101:0.5 102:0.33 103:0.2 104:0.33 105:0.2 108:1.0 110:0.43 111:0.2 112:0.67 113:0.5 114:1.0 117:0.5 118:0.33 120:0.2 121:0.5 122:1.0 124:0.5 125:1.0 126:1.0 128:0.33 129:0.33 130:0.4 131:1.0 132:1.0 134:0.33 136:1.0 137:1.0 138:1.0 139:1.0 140:0.29 141:0.2 142:0.2 143:1.0 144:1.0 145:1.0 146:0.5 148:1.0 149:0.5 151:1.0 152:0.25 153:0.25 154:0.33 157:1.0 158:0.4 159:1.0 160:0.17 161:0.5 162:0.17 163:0.2 164:0.4 
-0.0 -1.0 -0.0 -1.0 -0.2704533378703997 -1.0 1.0 2:0.33 4:0.25 6:1.0 8:0.25 11:0.14 13:0.33 14:0.17 18:1.0 20:0.5 26:0.17 29:1.0 30:0.5 31:0.33 32:0.33 33:0.17 36:0.2 37:0.33 41:0.33 43:0.2 44:0.5 46:0.33 47:0.17 50:0.25 61:0.33 65:0.5 66:0.33 67:0.33 69:0.33 72:0.33 73:0.25 77:0.25 80:0.5 81:0.25 83:0.25 85:0.5 89:0.25 90:0.33 92:0.17 94:0.25 97:1.0 99:0.14 103:0.2 104:0.33 110:0.14 112:0.33 113:0.17 114:1.0 117:0.5 121:0.5 124:0.5 125:1.0 126:1.0 128:0.33 138:1.0 141:0.2 143:0.33 146:0.5 148:0.5 153:0.25 
-0.0 -1.0 -0.893304106015002 -1.0 -1.0 -0.5647937503712407 1.0 2:0.33 4:0.25 6:1.0 8:0.25 11:0.14 13:0.33 14:0.17 18:1.0 20:0.5 26:0.17 29:1.0 30:0.5 31:0.33 32:0.33 33:0.17 36:0.2 37:0.33 41:0.33 43:0.2 44:0.5 46:0.33 47:0.17 50:0.25 61:0.33 65:0.5 66:0.33 67:0.33 69:0.33 72:0.33 73:0.25 77:0.25 80:0.5 81:0.25 83:0.25 85:0.5 89:0.25 90:0.33 92:0.17 94:0.25 97:1.0 99:0.14 103:0.2 104:0.33 110:0.14 112:0.33 113:0.17 114:1.0 117:0.5 121:0.5 124:0.5 125:1.0 126:1.0 128:0.33 138:1.0 141:0.2 143:0.33 146:0.5 148:0.5 153:0.25 
-0.0 -0.0 -0.0 -0.0 -0.0 -0.0 1.0 1:0.33 2:0.67 4:0.5 6:1.0 8:0.5 10:0.5 11:0.14 13:0.33 14:0.17 15:0.33 18:1.0 20:0.5 26:0.17 29:1.0 30:0.5 31:0.33 32:0.67 33:0.17 34:0.33 36:0.2 37:0.33 41:0.33 42:0.25 43:0.4 44:0.5 46:0.33 47:0.17 48:0.33 50:0.25 54:0.33 61:0.33 62:0.2 65:1.0 66:0.33 67:0.33 69:0.33 71:0.5 72:0.67 73:0.5 77:0.5 78:0.33 79:0.5 80:0.5 81:0.25 83:0.5 85:0.5 86:0.25 89:0.25 90:0.33 92:0.17 94:0.25 97:1.0 98:0.5 99:0.14 103:0.4 104:0.67 106:0.25 109:0.33 110:0.14 112:0.33 113:0.17 114:1.0 115:1.0 117:0.5 119:1.0 121:1.0 124:0.5 125:1.0 126:1.0 128:0.33 138:1.0 141:1.0 143:0.33 146:1.0 147:0.5 148:0.5 153:1.0 155:1.0 
-0.0 -0.0 -0.10669589398499797 -0.0 -0.0 -0.0 1.0 1:0.33 2:0.67 4:0.5 6:1.0 8:0.5 10:0.5 11:0.14 13:0.33 14:0.17 15:0.33 18:1.0 20:0.5 26:0.17 29:1.0 30:0.5 31:0.33 32:0.67 33:0.17 34:0.33 36:0.2 37:0.33 41:0.33 42:0.25 43:0.4 44:0.5 46:0.33 47:0.17 48:0.33 50:0.25 54:0.33 61:0.33 62:0.2 65:1.0 66:0.33 67:0.33 69:0.33 71:0.5 72:0.67 73:0.5 77:0.5 78:0.33 79:0.5 80:0.5 81:0.25 83:0.5 85:0.5 86:0.25 89:0.25 90:0.33 92:0.17 94:0.25 97:1.0 98:0.5 99:0.14 103:0.4 104:0.67 106:0.25 109:0.33 110:0.14 112:0.33 113:0.17 114:1.0 115:1.0 117:0.5 119:1.0 121:1.0 124:0.5 125:1.0 126:1.0 128:0.33 138:1.0 141:1.0 143:0.33 146:1.0 147:0.5 148:0.5 153:1.0 155:1.0 
-0.0 -0.0 -1.0 -1.0 -0.0 -1.0 1.0 22:0.17 25:0.2 28:0.25 29:1.0 40:0.25 43:0.2 44:0.5 61:0.33 63:0.33 64:0.25 65:0.5 69:0.33 72:0.33 105:0.2 111:0.2 117:0.5 118:0.17 120:0.2 121:0.5 124:0.5 125:0.5 126:0.5 128:0.33 129:0.33 130:0.2 134:0.17 139:0.33 140:0.14 141:0.2 142:0.2 149:0.5 152:0.25 153:0.25 154:0.17 158:0.2 162:0.17 163:0.2 164:0.2 
-0.0 -0.0 -1.0 -0.0 -0.0 -0.0 1.0 1:0.33 2:0.67 4:0.5 6:1.0 8:0.5 10:0.5 11:0.14 13:0.33 14:0.17 15:0.33 18:1.0 20:0.5 26:0.17 29:1.0 30:0.5 31:0.33 32:0.67 33:0.17 34:0.33 36:0.2 37:0.33 41:0.33 42:0.25 43:0.4 44:0.5 46:0.33 47:0.17 48:0.33 50:0.25 54:0.33 61:0.33 62:0.2 65:1.0 66:0.33 67:0.33 69:0.33 71:0.5 72:0.67 73:0.5 77:0.5 78:0.33 79:0.5 80:0.5 81:0.25 83:0.5 85:0.5 86:0.25 89:0.25 90:0.33 92:0.17 94:0.25 97:1.0 98:0.5 99:0.14 103:0.4 104:0.67 106:0.25 109:0.33 110:0.14 112:0.33 113:0.17 114:1.0 115:1.0 117:0.5 119:1.0 121:1.0 124:0.5 125:1.0 126:1.0 128:0.33 138:1.0 141:1.0 143:0.33 146:1.0 147:0.5 148:0.5 153:1.0 155:1.0 
-0.0 -1.0 -0.0 -0.03596439704483261 -0.0 -0.0 1.0 2:0.33 4:0.25 6:1.0 8:0.25 9:1.0 11:0.29 13:0.33 14:0.33 18:1.0 20:0.5 26:0.33 29:1.0 30:0.5 31:0.33 32:0.33 33:0.17 36:0.4 37:0.33 41:0.33 43:0.2 44:0.5 46:0.33 47:0.33 50:0.5 51:0.5 61:0.33 65:0.5 66:0.67 67:0.67 69:0.33 72:0.33 73:0.25 75:1.0 77:0.25 78:0.33 80:0.5 81:0.25 83:0.25 85:0.5 89:0.5 90:0.33 91:0.5 92:0.17 94:0.25 95:0.5 97:1.0 99:0.14 101:0.5 103:0.2 104:0.33 110:0.29 112:0.67 113:0.33 114:1.0 117:0.5 121:0.5 124:0.5 125:1.0 126:1.0 128:0.33 138:1.0 141:0.2 143:0.33 146:0.5 148:0.5 153:0.25 
-0.9325811157665698 -0.0 -1.0 -0.0 -0.0 -0.0 1.0 1:0.33 2:0.67 4:0.5 6:1.0 8:0.5 10:0.5 11:0.14 13:0.33 14:0.17 15:0.33 18:1.0 20:0.5 26:0.17 29:1.0 30:0.5 31:0.33 32:0.67 33:0.17 34:0.33 36:0.2 37:0.33 41:0.33 42:0.25 43:0.4 44:0.5 46:0.33 47:0.17 48:0.33 50:0.25 54:0.33 61:0.33 62:0.2 65:1.0 66:0.33 67:0.33 69:0.33 71:0.5 72:0.67 73:0.5 77:0.5 78:0.33 79:0.5 80:0.5 81:0.25 83:0.5 85:0.5 86:0.25 89:0.25 90:0.33 92:0.17 94:0.25 97:1.0 98:0.5 99:0.14 103:0.4 104:0.67 106:0.25 109:0.33 110:0.14 112:0.33 113:0.17 114:1.0 115:1.0 117:0.5 119:1.0 121:1.0 124:0.5 125:1.0 126:1.0 128:0.33 138:1.0 141:1.0 143:0.33 146:1.0 147:0.5 148:0.5 153:1.0 155:1.0 
-1.0 -0.0 -1.0 -0.0 -0.0 -0.0 1.0 1:0.33 2:0.67 4:0.5 6:1.0 8:0.5 10:0.5 11:0.14 13:0.33 14:0.17 15:0.33 18:1.0 20:0.5 26:0.17 29:1.0 30:0.5 31:0.33 32:0.67 33:0.17 34:0.33 36:0.2 37:0.33 41:0.33 42:0.25 43:0.4 44:0.5 46:0.33 47:0.17 48:0.33 50:0.25 54:0.33 61:0.33 62:0.2 65:1.0 66:0.33 67:0.33 69:0.33 71:0.5 72:0.67 73:0.5 77:0.5 78:0.33 79:0.5 80:0.5 81:0.25 83:0.5 85:0.5 86:0.25 89:0.25 90:0.33 92:0.17 94:0.25 97:1.0 98:0.5 99:0.14 103:0.4 104:0.67 106:0.25 109:0.33 110:0.14 112:0.33 113:0.17 114:1.0 115:1.0 117:0.5 119:1.0 121:1.0 124:0.5 125:1.0 126:1.0 128:0.33 138:1.0 141:1.0 143:0.33 146:1.0 147:0.5 148:0.5 153:1.0 155:1.0 
-1.0 -1.0 -1.0 -1.0 -1.0 -1.0 1.0 2:0.67 4:0.5 6:1.0 8:0.25 9:1.0 11:0.29 12:0.33 13:0.67 14:0.33 17:0.5 18:1.0 20:1.0 22:0.17 25:0.2 26:0.33 27:0.5 28:0.25 29:1.0 30:0.5 31:0.67 32:0.33 33:0.17 34:0.33 35:0.4 36:0.4 37:0.33 40:0.25 41:0.33 42:0.5 43:0.6 44:0.5 46:1.0 47:0.33 50:0.5 51:0.5 53:0.67 54:0.33 55:0.5 58:0.5 61:1.0 62:0.2 63:0.33 64:0.25 65:0.5 66:0.67 67:0.67 68:0.5 69:1.0 72:0.67 73:0.75 74:0.5 75:1.0 77:0.5 78:0.33 80:1.0 81:0.5 82:0.33 83:0.5 84:1.0 85:0.5 86:0.25 87:0.5 89:0.5 90:0.33 91:0.5 92:0.17 93:0.25 94:0.25 95:0.5 96:0.33 97:1.0 98:0.5 99:0.14 101:0.5 102:0.67 103:0.4 104:0.33 105:0.2 106:0.25 107:0.33 108:0.33 110:0.29 111:0.2 112:0.67 113:0.33 114:1.0 117:1.0 118:0.33 120:0.2 121:0.5 124:0.5 125:1.0 126:1.0 127:1.0 128:0.67 129:0.33 130:0.4 134:0.33 135:0.2 138:1.0 139:0.33 140:0.29 141:0.2 142:0.2 143:0.33 145:0.5 146:0.5 148:0.5 149:0.5 152:0.25 153:0.25 154:0.33 156:0.5 157:1.0 158:0.4 160:0.17 162:0.17 163:0.2 164:0.4 
-1.0 -0.0 -1.0 -0.0 -0.0 -0.0 1.0 1:0.33 2:0.67 4:0.5 6:1.0 8:0.5 10:0.5 11:0.14 13:0.33 14:0.17 15:0.33 18:1.0 20:0.5 26:0.17 29:1.0 30:0.5 31:0.33 32:0.67 33:0.17 34:0.33 36:0.2 37:0.33 41:0.33 42:0.25 43:0.4 44:0.5 46:0.33 47:0.17 48:0.33 50:0.25 54:0.33 61:0.33 62:0.2 65:1.0 66:0.33 67:0.33 69:0.33 71:0.5 72:0.67 73:0.5 77:0.5 78:0.33 79:0.5 80:0.5 81:0.25 83:0.5 85:0.5 86:0.25 89:0.25 90:0.33 92:0.17 94:0.25 97:1.0 98:0.5 99:0.14 103:0.4 104:0.67 106:0.25 109:0.33 110:0.14 112:0.33 113:0.17 114:1.0 115:1.0 117:0.5 119:1.0 121:1.0 124:0.5 125:1.0 126:1.0 128:0.33 138:1.0 141:1.0 143:0.33 146:1.0 147:0.5 148:0.5 153:1.0 155:1.0 
-0.06741888423343032 -0.6295264482425125 -1.0 -1.0 -1.0 -1.0 1.0 22:0.17 25:0.2 28:0.25 29:1.0 40:0.25 43:0.2 44:0.5 61:0.33 63:0.33 64:0.25 65:0.5 69:0.33 72:0.33 105:0.2 111:0.2 117:0.5 118:0.17 120:0.2 121:0.5 124:0.5 125:0.5 126:0.5 128:0.33 129:0.33 130:0.2 134:0.17 139:0.33 140:0.14 141:0.2 142:0.2 149:0.5 152:0.25 153:0.25 154:0.17 158:0.2 162:0.17 163:0.2 164:0.2 
-1.0 -1.0 -1.0 -1.0 -1.0 -1.0 1.0 22:0.17 25:0.2 28:0.25 29:1.0 40:0.25 43:0.2 44:0.5 61:0.33 63:0.33 64:0.25 65:0.5 69:0.33 72:0.33 105:0.2 111:0.2 117:0.5 118:0.17 120:0.2 121:0.5 124:0.5 125:0.5 126:0.5 128:0.33 129:0.33 130:0.2 134:0.17 139:0.33 140:0.14 141:0.2 142:0.2 149:0.5 152:0.25 153:0.25 154:0.17 158:0.2 162:0.17 163:0.2 164:0.2 
-1.0 -0.9431644281689772 -1.0 -1.0 -0.8609560755029237 -1.0 1.0 22:0.17 25:0.2 28:0.25 29:1.0 40:0.25 43:0.2 44:0.5 61:0.33 63:0.33 64:0.25 65:0.5 69:0.33 72:0.33 105:0.2 111:0.2 117:0.5 118:0.17 120:0.2 121:0.5 124:0.5 125:0.5 126:0.5 128:0.33 129:0.33 130:0.2 134:0.17 139:0.33 140:0.14 141:0.2 142:0.2 149:0.5 152:0.25 153:0.25 154:0.17 158:0.2 162:0.17 163:0.2 164:0.2 
-1.0 -0.4595836420233017 -1.0 -0.2628564647671204 -0.3337214856449531 -0.0 1.0 1:0.33 2:0.67 4:0.5 6:1.0 8:0.5 10:0.5 11:0.14 13:0.33 14:0.17 15:0.33 18:1.0 20:0.5 26:0.17 29:1.0 30:0.5 31:0.33 32:0.67 33:0.17 34:0.33 36:0.2 37:0.33 41:0.33 42:0.25 43:0.4 44:0.5 46:0.33 47:0.17 48:0.33 50:0.25 54:0.33 61:0.33 62:0.2 65:1.0 66:0.33 67:0.33 69:0.33 71:0.5 72:0.67 73:0.5 77:0.5 78:0.33 79:0.5 80:0.5 81:0.25 83:0.5 85:0.5 86:0.25 89:0.25 90:0.33 92:0.17 94:0.25 97:1.0 98:0.5 99:0.14 103:0.4 104:0.67 106:0.25 109:0.33 110:0.14 112:0.33 113:0.17 114:1.0 115:1.0 117:0.5 119:1.0 121:1.0 124:0.5 125:1.0 126:1.0 128:0.33 138:1.0 141:1.0 143:0.33 146:1.0 147:0.5 148:0.5 153:1.0 155:1.0 
-0.0 -1.0 -0.0 -1.0 -0.0 -0.0 1.0 2:0.33 4:0.25 6:1.0 8:0.25 9:1.0 11:0.29 13:0.33 14:0.33 18:1.0 20:0.5 26:0.33 29:1.0 30:0.5 31:0.33 32:0.33 33:0.17 36:0.4 37:0.33 41:0.33 43:0.2 44:0.5 46:0.33 47:0.33 50:0.5 51:0.5 61:0.33 65:0.5 66:0.67 67:0.67 69:0.33 72:0.33 73:0.25 75:1.0 77:0.25 78:0.33 80:0.5 81:0.25 83:0.25 85:0.5 89:0.5 90:0.33 91:0.5 92:0.17 94:0.25 95:0.5 97:1.0 99:0.14 101:0.5 103:0.2 104:0.33 110:0.29 112:0.67 113:0.33 114:1.0 117:0.5 121:0.5 124:0.5 125:1.0 126:1.0 128:0.33 138:1.0 141:0.2 143:0.33 146:0.5 148:0.5 153:0.25 
-1.0 -0.3899184740749949 -1.0 -1.0 -0.33726884924557327 -0.48145753129018076 1.0 1:0.33 2:1.0 4:0.75 6:1.0 8:0.75 10:0.5 11:0.14 12:0.33 13:0.33 14:0.17 15:0.67 18:1.0 20:0.5 21:0.33 22:0.17 25:0.2 26:0.17 27:0.5 28:0.25 29:1.0 30:0.5 31:0.67 32:0.67 33:0.17 34:1.0 35:0.4 36:0.2 37:0.33 40:0.25 41:0.33 42:0.5 43:0.8 44:0.5 46:0.67 47:0.17 48:0.67 50:0.25 53:0.33 54:0.67 59:0.5 61:0.67 62:0.6 63:0.33 64:0.25 65:1.0 66:0.33 67:0.33 68:1.0 69:1.0 71:1.0 72:1.0 73:0.75 77:0.75 78:0.33 79:1.0 80:1.0 81:0.25 82:0.67 83:1.0 85:0.5 86:0.75 87:0.5 89:0.25 90:0.33 92:0.17 93:0.5 94:0.25 96:0.67 97:1.0 98:1.0 99:0.14 102:0.33 103:0.8 104:1.0 105:0.2 106:0.75 107:0.67 109:0.33 110:0.14 111:0.2 112:0.33 113:0.17 114:1.0 117:1.0 118:0.17 120:0.2 121:1.0 124:0.5 125:1.0 126:1.0 127:1.0 128:0.67 129:0.33 130:0.2 133:1.0 134:0.17 135:1.0 138:1.0 139:0.33 140:0.14 141:0.2 142:0.2 143:0.33 146:1.0 147:0.5 148:0.5 149:0.5 150:1.0 152:0.25 153:0.25 154:0.17 155:1.0 156:0.5 158:0.2 162:0.17 163:0.2 164:0.2 
-0.0 -1.0 -0.0 -1.0 -0.6526735672653987 -0.0 1.0 2:0.33 4:0.25 6:1.0 8:0.25 9:1.0 11:0.29 13:0.33 14:0.33 18:1.0 20:0.5 26:0.33 29:1.0 30:0.5 31:0.33 32:0.33 33:0.17 36:0.4 37:0.33 41:0.33 43:0.2 44:0.5 46:0.33 47:0.33 50:0.5 51:0.5 61:0.33 65:0.5 66:0.67 67:0.67 69:0.33 72:0.33 73:0.25 75:1.0 77:0.25 78:0.33 80:0.5 81:0.25 83:0.25 85:0.5 89:0.5 90:0.33 91:0.5 92:0.17 94:0.25 95:0.5 97:1.0 99:0.14 101:0.5 103:0.2 104:0.33 110:0.29 112:0.67 113:0.33 114:1.0 117:0.5 121:0.5 124:0.5 125:1.0 126:1.0 128:0.33 138:1.0 141:0.2 143:0.33 146:0.5 148:0.5 153:0.25 
-0.0 -1.0 -0.0 -1.0 -1.0 -0.0 1.0 2:0.33 4:0.25 6:1.0 8:0.25 9:1.0 11:0.29 13:0.33 14:0.33 18:1.0 20:0.5 26:0.33 29:1.0 30:0.5 31:0.33 32:0.33 33:0.17 36:0.4 37:0.33 41:0.33 43:0.2 44:0.5 46:0.33 47:0.33 50:0.5 51:0.5 61:0.33 65:0.5 66:0.67 67:0.67 69:0.33 72:0.33 73:0.25 75:1.0 77:0.25 78:0.33 80:0.5 81:0.25 83:0.25 85:0.5 89:0.5 90:0.33 91:0.5 92:0.17 94:0.25 95:0.5 97:1.0 99:0.14 101:0.5 103:0.2 104:0.33 110:0.29 112:0.67 113:0.33 114:1.0 117:0.5 121:0.5 124:0.5 125:1.0 126:1.0 128:0.33 138:1.0 141:0.2 143:0.33 146:0.5 148:0.5 153:0.25 
-0.0 -0.05729198713154648 -0.0 -0.9947055080733612 -0.931857371300393 -0.7353476621153676 1.0 2:0.33 4:0.25 6:1.0 8:0.25 9:1.0 11:0.29 13:0.33 14:0.33 18:1.0 20:0.5 26:0.33 29:1.0 30:0.5 31:0.33 32:0.33 33:0.17 36:0.4 37:0.33 41:0.33 43:0.2 44:0.5 46:0.33 47:0.33 50:0.5 51:0.5 61:0.33 65:0.5 66:0.67 67:0.67 69:0.33 72:0.33 73:0.25 75:1.0 77:0.25 78:0.33 80:0.5 81:0.25 83:0.25 85:0.5 89:0.5 90:0.33 91:0.5 92:0.17 94:0.25 95:0.5 97:1.0 99:0.14 101:0.5 103:0.2 104:0.33 110:0.29 112:0.67 113:0.33 114:1.0 117:0.5 121:0.5 124:0.5 125:1.0 126:1.0 128:0.33 138:1.0 141:0.2 143:0.33 146:0.5 148:0.5 153:0.25 
-0.0 -1.0 -0.0 -0.0 -1.0 -0.5817013279607959 -1.0 2:0.33 4:0.25 6:1.0 8:0.25 11:0.14 13:0.67 14:0.17 17:0.5 18:1.0 20:1.0 26:0.17 29:1.0 30:0.5 31:0.33 32:0.33 33:0.17 35:0.2 36:0.2 37:0.33 41:0.33 42:0.25 43:0.2 44:0.5 46:0.67 47:0.17 50:0.25 53:0.33 55:0.5 58:0.5 61:0.67 65:0.5 66:0.33 67:0.33 69:0.33 72:0.33 73:0.5 74:0.5 77:0.25 80:0.5 81:0.5 83:0.25 84:1.0 85:0.5 89:0.25 90:0.33 92:0.17 94:0.25 97:1.0 99:0.14 102:0.33 103:0.2 104:0.33 108:0.33 110:0.14 112:0.33 113:0.17 114:1.0 117:0.5 118:0.17 121:0.5 124:0.5 125:1.0 126:1.0 128:0.33 130:0.2 134:0.17 138:1.0 140:0.14 141:0.2 143:0.33 145:0.5 146:0.5 148:0.5 153:0.25 154:0.17 157:1.0 158:0.2 160:0.17 164:0.2 
-0.0 -0.0 -0.0 -1.0 -0.0 -0.0 -1.0 2:0.33 4:0.25 6:1.0 8:0.25 9:1.0 11:0.29 13:0.33 14:0.33 18:1.0 20:0.5 26:0.33 29:1.0 30:0.5 31:0.33 32:0.33 33:0.17 36:0.4 37:0.33 41:0.33 43:0.2 44:0.5 46:0.33 47:0.33 50:0.5 51:0.5 61:0.33 65:0.5 66:0.67 67:0.67 69:0.33 72:0.33 73:0.25 75:1.0 77:0.25 78:0.33 80:0.5 81:0.25 83:0.25 85:0.5 89:0.5 90:0.33 91:0.5 92:0.17 94:0.25 95:0.5 97:1.0 99:0.14 101:0.5 103:0.2 104:0.33 110:0.29 112:0.67 113:0.33 114:1.0 117:0.5 121:0.5 124:0.5 125:1.0 126:1.0 128:0.33 138:1.0 141:0.2 143:0.33 146:0.5 148:0.5 153:0.25 
-0.0 -0.0 -0.24600624318871256 -0.0 -0.0 -0.0 -1.0 1:0.33 2:0.67 4:0.5 6:1.0 8:0.5 10:0.5 11:0.14 13:0.33 14:0.17 15:0.33 18:1.0 20:0.5 26:0.17 29:1.0 30:0.5 31:0.33 32:0.67 33:0.17 34:0.33 36:0.2 37:0.33 41:0.33 42:0.25 43:0.4 44:0.5 46:0.33 47:0.17 48:0.33 50:0.25 54:0.33 61:0.33 62:0.2 65:1.0 66:0.33 67:0.33 69:0.33 71:0.5 72:0.67 73:0.5 77:0.5 78:0.33 79:0.5 80:0.5 81:0.25 83:0.5 85:0.5 86:0.25 89:0.25 90:0.33 92:0.17 94:0.25 97:1.0 98:0.5 99:0.14 103:0.4 104:0.67 106:0.25 109:0.33 110:0.14 112:0.33 113:0.17 114:1.0 115:1.0 117:0.5 119:1.0 121:1.0 124:0.5 125:1.0 126:1.0 128:0.33 138:1.0 141:1.0 143:0.33 146:1.0 147:0.5 148:0.5 153:1.0 155:1.0 
-1.0 -0.0 -0.0 -0.7922583560076195 -0.0 -0.0 -1.0 2:0.33 4:0.25 6:1.0 8:0.25 11:0.14 13:0.33 14:0.17 18:1.0 20:0.5 26:0.17 29:1.0 30:0.5 31:0.33 32:0.33 33:0.17 36:0.2 37:0.33 41:0.33 43:0.2 44:0.5 46:0.33 47:0.17 50:0.25 61:0.33 65:0.5 66:0.33 67:0.33 69:0.33 72:0.33 73:0.25 77:0.25 80:0.5 81:0.25 83:0.25 85:0.5 89:0.25 90:0.33 92:0.17 94:0.25 97:1.0 99:0.14 103:0.2 104:0.33 110:0.14 112:0.33 113:0.17 114:1.0 117:0.5 121:0.5 124:0.5 125:1.0 126:1.0 128:0.33 138:1.0 141:0.2 143:0.33 146:0.5 148:0.5 153:0.25 
-0.0 -0.0 -0.0 -1.0 -0.38317398613039266 -0.0 -1.0 2:0.33 4:0.25 6:1.0 8:0.25 9:1.0 11:0.29 13:0.33 14:0.33 18:1.0 20:0.5 26:0.33 29:1.0 30:0.5 31:0.33 32:0.33 33:0.17 36:0.4 37:0.33 41:0.33 43:0.2 44:0.5 46:0.33 47:0.33 50:0.5 51:0.5 61:0.33 65:0.5 66:0.67 67:0.67 69:0.33 72:0.33 73:0.25 75:1.0 77:0.25 78:0.33 80:0.5 81:0.25 83:0.25 85:0.5 89:0.5 90:0.33 91:0.5 92:0.17 94:0.25 95:0.5 97:1.0 99:0.14 101:0.5 103:0.2 104:0.33 110:0.29 112:0.67 113:0.33 114:1.0 117:0.5 121:0.5 124:0.5 125:1.0 126:1.0 128:0.33 138:1.0 141:0.2 143:0.33 146:0.5 148:0.5 153:0.25 
-0.0 -0.8757517943194686 -0.0 -0.2833152932059727 -1.0 -0.0 -1.0 2:0.33 4:0.25 6:1.0 8:0.25 9:1.0 11:0.29 13:0.33 14:0.33 18:1.0 20:0.5 26:0.33 29:1.0 30:0.5 31:0.33 32:0.33 33:0.17 36:0.4 37:0.33 41:0.33 43:0.2 44:0.5 46:0.33 47:0.33 50:0.5 51:0.5 61:0.33 65:0.5 66:0.67 67:0.67 69:0.33 72:0.33 73:0.25 75:1.0 77:0.25 78:0.33 80:0.5 81:0.25 83:0.25 85:0.5 89:0.5 90:0.33 91:0.5 92:0.17 94:0.25 95:0.5 97:1.0 99:0.14 101:0.5 103:0.2 104:0.33 110:0.29 112:0.67 113:0.33 114:1.0 117:0.5 121:0.5 124:0.5 125:1.0 126:1.0 128:0.33 138:1.0 141:0.2 143:0.33 146:0.5 148:0.5 153:0.25 
-1.0 -0.0 -1.0 -0.0 -0.0 -0.0 -1.0 1:0.33 2:0.67 4:0.5 6:1.0 8:0.5 10:0.5 11:0.14 13:0.33 14:0.17 15:0.33 18:1.0 20:0.5 26:0.17 29:1.0 30:0.5 31:0.33 32:0.67 33:0.17 34:0.33 36:0.2 37:0.33 41:0.33 42:0.25 43:0.4 44:0.5 46:0.33 47:0.17 48:0.33 50:0.25 54:0.33 61:0.33 62:0.2 65:1.0 66:0.33 67:0.33 69:0.33 71:0.5 72:0.67 73:0.5 77:0.5 78:0.33 79:0.5 80:0.5 81:0.25 83:0.5 85:0.5 86:0.25 89:0.25 90:0.33 92:0.17 94:0.25 97:1.0 98:0.5 99:0.14 103:0.4 104:0.67 106:0.25 109:0.33 110:0.14 112:0.33 113:0.17 114:1.0 115:1.0 117:0.5 119:1.0 121:1.0 124:0.5 125:1.0 126:1.0 128:0.33 138:1.0 141:1.0 143:0.33 146:1.0 147:0.5 148:0.5 153:1.0 155:1.0 
-0.0 -0.0 -0.15183293947536963 -0.0 -0.0 -0.0 -1.0 1:0.67 2:0.33 4:0.25 5:0.5 7:0.5 8:0.25 10:1.0 12:0.33 15:0.33 21:0.33 27:0.5 29:1.0 32:0.33 34:0.33 35:0.2 39:0.5 42:0.25 43:0.2 44:1.0 48:0.67 49:0.5 53:0.33 54:0.33 57:0.5 59:0.5 62:0.4 65:1.0 71:0.5 72:0.33 73:0.25 77:0.25 78:0.33 79:0.5 83:0.25 86:0.25 87:0.5 90:0.33 93:0.25 94:0.25 98:0.5 103:0.2 104:0.33 106:0.25 107:0.33 109:0.67 115:1.0 116:1.0 117:0.5 119:1.0 121:1.0 122:1.0 124:1.0 125:0.5 126:0.5 128:0.67 141:1.0 146:0.5 147:1.0 149:0.5 153:1.0 155:1.0 156:0.5 161:0.1 
-0.0 -1.0 -0.0 -0.0 -0.8558208127824088 -0.0 -1.0 2:0.33 4:0.25 6:1.0 8:0.25 9:1.0 11:0.29 13:0.33 14:0.33 18:1.0 20:0.5 26:0.33 29:1.0 30:0.5 31:0.33 32:0.33 33:0.17 36:0.4 37:0.33 41:0.33 43:0.2 44:0.5 46:0.33 47:0.33 50:0.5 51:0.5 61:0.33 65:0.5 66:0.67 67:0.67 69:0.33 72:0.33 73:0.25 75:1.0 77:0.25 78:0.33 80:0.5 81:0.25 83:0.25 85:0.5 89:0.5 90:0.33 91:0.5 92:0.17 94:0.25 95:0.5 97:1.0 99:0.14 101:0.5 103:0.2 104:0.33 110:0.29 112:0.67 113:0.33 114:1.0 117:0.5 121:0.5 124:0.5 125:1.0 126:1.0 128:0.33 138:1.0 141:0.2 143:0.33 146:0.5 148:0.5 153:0.25 
-1.0 -0.0 -0.9644031392968093 -0.0 -0.0 -0.0 -1.0 1:0.33 2:0.67 4:0.5 6:1.0 8:0.5 10:0.5 11:0.14 13:0.33 14:0.17 15:0.33 18:1.0 20:0.5 26:0.17 29:1.0 30:0.5 31:0.33 32:0.67 33:0.17 34:0.33 36:0.2 37:0.33 41:0.33 42:0.25 43:0.4 44:0.5 46:0.33 47:0.17 48:0.33 50:0.25 54:0.33 61:0.33 62:0.2 65:1.0 66:0.33 67:0.33 69:0.33 71:0.5 72:0.67 73:0.5 77:0.5 78:0.33 79:0.5 80:0.5 81:0.25 83:0.5 85:0.5 86:0.25 89:0.25 90:0.33 92:0.17 94:0.25 97:1.0 98:0.5 99:0.14 103:0.4 104:0.67 106:0.25 109:0.33 110:0.14 112:0.33 113:0.17 114:1.0 115:1.0 117:0.5 119:1.0 121:1.0 124:0.5 125:1.0 126:1.0 128:0.33 138:1.0 141:1.0 143:0.33 146:1.0 147:0.5 148:0.5 153:1.0 155:1.0 
-0.0 -0.0 -1.0 -0.0 -0.0 -0.0 -1.0 1:0.67 2:0.33 4:0.25 5:0.5 7:0.5 8:0.25 10:1.0 12:0.33 15:0.33 21:0.33 27:0.5 29:1.0 32:0.33 34:0.33 35:0.2 39:0.5 42:0.25 43:0.2 44:1.0 48:0.67 49:0.5 53:0.33 54:0.33 57:0.5 59:0.5 62:0.4 65:1.0 71:0.5 72:0.33 73:0.25 77:0.25 78:0.33 79:0.5 83:0.25 86:0.25 87:0.5 90:0.33 93:0.25 94:0.25 98:0.5 103:0.2 104:0.33 106:0.25 107:0.33 109:0.67 115:1.0 116:1.0 117:0.5 119:1.0 121:1.0 122:1.0 124:1.0 125:0.5 126:0.5 128:0.67 141:1.0 146:0.5 147:1.0 149:0.5 153:1.0 155:1.0 156:0.5 161:0.1 
-0.0 -1.0 -1.0 -1.0 -1.0 -1.0 -1.0 22:0.17 25:0.2 28:0.25 39:0.5 40:0.25 43:0.2 61:0.33 63:0.33 64:0.25 69:0.33 72:0.33 105:0.2 111:0.2 116:1.0 118:0.17 120:0.2 129:0.33 130:0.2 134:0.17 139:0.33 140:0.14 142:0.2 147:0.5 149:1.0 152:0.25 154:0.17 158:0.2 162:0.17 163:0.2 164:0.2 
-0.0 -1.0 -1.0 -1.0 -0.27317219575729496 -0.884145397827052 -1.0 29:1.0 44:0.5 65:0.5 117:0.5 121:0.5 124:0.5 125:0.5 126:0.5 128:0.33 141:0.2 153:0.25 
-0.0 -0.0 -1.0 -0.4536250145338324 -0.0 -0.0 -0.0 2:0.67 4:0.5 6:1.0 8:0.25 11:0.14 12:0.33 13:0.67 14:0.17 17:0.5 18:1.0 20:1.0 22:0.17 25:0.2 26:0.17 27:0.5 28:0.25 29:1.0 30:0.5 31:0.67 32:0.33 33:0.17 34:0.33 35:0.4 36:0.2 37:0.33 39:0.5 40:0.25 41:0.33 42:0.5 43:0.6 44:0.5 46:1.0 47:0.17 50:0.25 53:0.67 54:0.33 55:0.5 58:0.5 61:1.0 62:0.2 63:0.33 64:0.25 65:0.5 66:0.33 67:0.33 68:0.5 69:1.0 72:0.67 73:0.75 74:0.5 77:0.5 80:1.0 81:0.5 82:0.33 83:0.5 84:1.0 85:0.5 86:0.25 87:0.5 89:0.25 90:0.33 92:0.17 93:0.25 94:0.25 96:0.33 97:1.0 98:0.5 99:0.14 102:0.67 103:0.4 104:0.33 105:0.2 106:0.25 107:0.33 108:0.33 110:0.14 111:0.2 112:0.33 113:0.17 114:1.0 116:1.0 117:1.0 118:0.33 120:0.2 121:0.5 124:0.5 125:1.0 126:1.0 127:1.0 128:0.67 129:0.33 130:0.4 134:0.33 135:0.2 138:1.0 139:0.33 140:0.29 141:0.2 142:0.2 143:0.33 145:0.5 146:0.5 147:0.5 148:0.5 149:1.0 152:0.25 153:0.25 154:0.33 156:0.5 157:1.0 158:0.4 160:0.17 162:0.17 163:0.2 164:0.4 
-0.0 -0.5969003606068873 -0.07912054905720026 -1.0 -0.0 -0.5341532742121521 -0.0 1:0.33 2:0.33 4:0.25 5:0.5 7:0.5 9:1.0 10:0.5 11:0.14 12:0.67 13:0.33 14:0.17 17:0.5 20:0.5 21:0.33 22:0.17 25:0.2 26:0.17 27:1.0 28:0.25 31:0.33 34:0.33 35:0.6 36:0.2 40:0.25 42:0.5 43:0.2 44:0.5 46:0.67 47:0.17 48:0.33 49:0.5 50:0.25 51:0.5 53:1.0 54:0.33 55:1.0 58:0.5 59:0.5 61:0.33 62:0.4 63:0.33 64:0.25 66:0.67 67:0.33 68:0.5 69:0.33 70:1.0 73:0.5 74:0.5 75:1.0 77:0.25 78:0.33 80:0.5 81:0.25 82:0.33 83:0.25 84:1.0 85:0.5 86:0.25 87:1.0 89:0.25 91:0.5 93:0.5 95:0.5 96:0.33 98:0.5 101:0.5 102:0.67 103:0.2 105:0.2 106:0.25 107:0.67 108:0.33 109:0.33 110:0.14 111:0.2 112:0.33 113:0.17 117:0.5 118:0.17 120:0.2 123:1.0 124:0.5 127:1.0 128:0.67 129:0.33 130:0.2 134:0.33 135:0.2 140:0.29 142:0.2 145:0.5 152:0.25 154:0.33 156:1.0 157:1.0 158:0.4 160:0.33 161:0.1 162:0.17 163:0.2 164:0.4 
-0.0 -0.0 -0.18968955285551806 -0.0 -0.0 -0.0 -0.0 1:0.67 2:0.67 4:0.5 5:0.5 7:0.5 8:0.5 10:1.0 12:0.67 15:0.67 21:0.67 27:1.0 31:0.33 32:0.33 34:1.0 35:0.6 39:0.5 42:0.5 43:0.4 44:0.5 46:0.33 48:1.0 49:0.5 53:0.67 54:0.67 57:0.5 59:1.0 62:0.8 65:0.5 68:1.0 69:0.33 71:1.0 72:0.33 73:0.5 77:0.5 78:0.33 79:1.0 80:0.5 82:0.67 83:0.75 86:0.75 87:1.0 90:0.33 93:0.75 94:0.25 96:0.67 98:1.0 102:0.33 103:0.6 104:0.67 106:0.75 107:1.0 109:0.67 116:1.0 117:0.5 121:0.5 122:1.0 124:0.5 127:1.0 128:0.67 133:1.0 135:1.0 146:0.5 147:1.0 149:0.5 150:1.0 155:1.0 156:1.0 161:0.1 
-0.0 -0.0 -0.552837978059876 -1.0 -0.0 -0.0 -1.0 2:0.67 4:0.5 6:1.0 8:0.25 9:1.0 11:0.29 12:0.33 13:0.67 14:0.33 17:0.5 18:1.0 20:1.0 22:0.17 25:0.2 26:0.33 27:0.5 28:0.25 29:1.0 30:0.5 31:0.67 32:0.33 33:0.17 34:0.33 35:0.4 36:0.4 37:0.33 40:0.25 41:0.33 42:0.5 43:0.6 44:0.5 46:1.0 47:0.33 50:0.5 51:0.5 53:0.67 54:0.33 55:0.5 58:0.5 61:1.0 62:0.2 63:0.33 64:0.25 65:0.5 66:0.67 67:0.67 68:0.5 69:1.0 72:0.67 73:0.75 74:0.5 75:1.0 77:0.5 78:0.33 80:1.0 81:0.5 82:0.33 83:0.5 84:1.0 85:0.5 86:0.25 87:0.5 89:0.5 90:0.33 91:0.5 92:0.17 93:0.25 94:0.25 95:0.5 96:0.33 97:1.0 98:0.5 99:0.14 101:0.5 102:0.67 103:0.4 104:0.33 105:0.2 106:0.25 107:0.33 108:0.33 110:0.29 111:0.2 112:0.67 113:0.33 114:1.0 117:1.0 118:0.33 120:0.2 121:0.5 124:0.5 125:1.0 126:1.0 127:1.0 128:0.67 129:0.33 130:0.4 134:0.33 135:0.2 138:1.0 139:0.33 140:0.29 141:0.2 142:0.2 143:0.33 145:0.5 146:0.5 148:0.5 149:0.5 152:0.25 153:0.25 154:0.33 156:0.5 157:1.0 158:0.4 160:0.17 162:0.17 163:0.2 164:0.4 
-0.0 -1.0 -0.0 -0.0 -0.0 -0.0 -0.0 2:0.67 4:0.5 6:1.0 8:0.25 11:0.14 12:0.33 13:0.67 14:0.17 17:0.5 18:1.0 20:1.0 26:0.17 27:0.5 30:0.5 31:0.67 32:0.33 33:0.17 34:0.33 35:0.4 36:0.2 37:0.33 41:0.33 42:0.5 43:0.4 46:1.0 47:0.17 50:0.25 53:0.67 54:0.33 55:0.5 58:0.5 61:0.67 62:0.2 66:0.33 67:0.33 68:0.5 69:0.67 72:0.33 73:0.75 74:0.5 77:0.5 80:1.0 81:0.5 82:0.33 83:0.5 84:1.0 85:0.5 86:0.25 87:0.5 89:0.25 90:0.33 92:0.17 93:0.25 94:0.25 96:0.33 97:1.0 98:0.5 99:0.14 102:0.67 103:0.4 104:0.33 106:0.25 107:0.33 108:0.33 110:0.14 112:0.33 113:0.17 114:1.0 117:0.5 118:0.17 125:0.5 126:0.5 127:1.0 128:0.33 130:0.2 134:0.17 135:0.2 138:1.0 140:0.14 143:0.33 145:0.5 146:0.5 148:0.5 154:0.17 156:0.5 157:1.0 158:0.2 160:0.17 164:0.2 
-0.0 -1.0 -1.0 -1.0 -1.0 -0.0 -1.0 2:0.33 4:0.25 6:1.0 8:0.25 11:0.14 13:0.33 14:0.17 18:1.0 20:0.5 26:0.17 30:0.5 31:0.33 32:0.33 33:0.17 36:0.2 37:0.33 39:0.5 41:0.33 43:0.2 46:0.33 47:0.17 50:0.25 57:0.5 61:0.33 66:0.33 67:0.33 69:0.33 72:0.33 73:0.25 77:0.25 80:0.5 81:0.25 83:0.25 85:0.5 89:0.25 90:0.67 92:0.17 94:0.5 97:1.0 99:0.14 103:0.2 104:0.33 110:0.14 112:0.33 113:0.17 114:1.0 116:1.0 122:1.0 125:0.5 126:0.5 138:1.0 143:0.33 146:0.5 147:0.5 148:0.5 149:0.5 
-0.0 -0.0 -0.0 -0.0 -0.0 -0.0 -1.0 1:0.33 2:1.0 4:0.75 6:1.0 8:0.5 10:0.5 11:0.14 12:0.33 13:0.67 14:0.17 15:0.33 17:0.5 18:1.0 20:1.0 26:0.17 27:0.5 29:1.0 30:0.5 31:0.67 32:0.67 33:0.17 34:0.67 35:0.4 36:0.2 37:0.33 41:0.33 42:0.75 43:0.6 44:0.5 46:1.0 47:0.17 48:0.33 50:0.25 53:0.67 54:0.67 55:0.5 58:0.5 61:0.67 62:0.4 65:1.0 66:0.33 67:0.33 68:0.5 69:0.67 71:0.5 72:0.67 73:1.0 74:0.5 77:0.75 78:0.33 79:0.5 80:1.0 81:0.5 82:0.33 83:0.75 84:1.0 85:0.5 86:0.5 87:0.5 89:0.25 90:0.33 92:0.17 93:0.25 94:0.25 96:0.33 97:1.0 98:1.0 99:0.14 102:0.67 103:0.6 104:0.67 106:0.5 107:0.33 108:0.33 109:0.33 110:0.14 112:0.33 113:0.17 114:1.0 115:1.0 117:1.0 118:0.17 119:1.0 121:1.0 124:0.5 125:1.0 126:1.0 127:1.0 128:0.67 130:0.2 134:0.17 135:0.2 138:1.0 140:0.14 141:1.0 143:0.33 145:0.5 146:1.0 147:0.5 148:0.5 153:1.0 154:0.17 155:1.0 156:0.5 157:1.0 158:0.2 160:0.17 164:0.2 
-0.0 -0.0 -0.035641085879858675 -0.0 -0.0 -0.0 -0.0 1:0.67 2:0.67 4:0.5 5:0.5 7:0.5 8:0.5 10:1.0 12:0.67 13:0.33 15:0.67 17:0.5 20:0.5 21:0.67 27:1.0 29:1.0 31:0.33 32:0.33 34:1.0 35:0.8 39:0.5 42:0.75 43:0.4 44:1.0 46:0.67 48:1.0 49:0.5 53:1.0 54:0.67 55:0.5 57:0.5 58:0.5 59:1.0 61:0.33 62:0.8 65:1.0 68:1.0 69:0.33 71:1.0 72:0.33 73:0.75 74:0.5 77:0.5 78:0.33 79:1.0 80:0.5 81:0.25 82:0.67 83:0.75 84:1.0 86:0.75 87:1.0 90:0.33 93:0.75 94:0.25 96:0.67 98:1.0 102:0.67 103:0.6 104:0.67 106:0.75 107:1.0 108:0.33 109:0.67 116:1.0 117:1.0 118:0.17 121:1.0 122:1.0 124:1.0 125:0.5 126:0.5 127:1.0 128:1.0 130:0.2 133:1.0 134:0.17 135:1.0 140:0.14 141:0.2 145:0.5 146:0.5 147:1.0 149:0.5 150:1.0 153:0.25 154:0.17 155:1.0 156:1.0 157:1.0 158:0.2 160:0.17 161:0.1 164:0.2 
-0.0 -0.0 -0.034349834080736705 -0.0 -0.0 -0.0 -0.0 2:0.33 4:0.25 12:0.33 13:0.33 17:0.5 20:0.5 27:0.5 29:1.0 31:0.33 34:0.33 35:0.4 42:0.5 43:0.2 44:0.5 46:0.67 53:0.67 54:0.33 55:0.5 58:0.5 61:0.33 62:0.2 65:0.5 68:0.5 69:0.33 73:0.5 74:0.5 77:0.25 80:0.5 81:0.25 82:0.33 83:0.25 84:1.0 86:0.25 87:0.5 93:0.25 96:0.33 98:0.5 102:0.67 103:0.2 106:0.25 107:0.33 108:0.33 117:1.0 118:0.17 121:0.5 124:0.5 125:0.5 126:0.5 127:1.0 128:0.67 130:0.2 134:0.17 135:0.2 140:0.14 141:0.2 145:0.5 153:0.25 154:0.17 156:0.5 157:1.0 158:0.2 160:0.17 164:0.2 
-0.0 -0.0 -0.0 -0.0 -0.0 -0.0 -1.0 2:0.67 4:0.5 6:1.0 8:0.25 11:0.14 12:0.33 13:0.33 14:0.17 18:1.0 20:0.5 26:0.17 27:0.5 29:1.0 30:0.5 31:0.67 32:0.33 33:0.17 34:0.33 35:0.2 36:0.2 37:0.33 41:0.33 42:0.25 43:0.4 44:0.5 46:0.67 47:0.17 50:0.25 53:0.33 54:0.33 57:0.5 61:0.33 62:0.2 65:0.5 66:0.33 67:0.33 68:0.5 69:0.67 72:0.33 73:0.5 77:0.5 80:1.0 81:0.25 82:0.33 83:0.5 85:0.5 86:0.25 87:0.5 89:0.25 90:0.67 92:0.17 93:0.25 94:0.5 96:0.33 97:1.0 98:0.5 99:0.14 102:0.33 103:0.4 104:0.33 106:0.25 107:0.33 110:0.14 112:0.33 113:0.17 114:1.0 117:1.0 121:0.5 122:1.0 124:0.5 125:1.0 126:1.0 127:1.0 128:0.67 135:0.2 138:1.0 141:0.2 143:0.33 146:0.5 148:0.5 153:0.25 156:0.5 161:0.1 
-0.0 -1.0 -0.0 -0.0 -0.0 -0.0 -0.0 2:0.67 4:0.5 6:1.0 8:0.25 11:0.14 12:0.33 13:0.67 14:0.17 17:0.5 18:1.0 20:1.0 26:0.17 27:0.5 30:0.5 31:0.67 32:0.33 33:0.17 34:0.33 35:0.4 36:0.2 37:0.33 41:0.33 42:0.5 43:0.4 46:1.0 47:0.17 50:0.25 53:0.67 54:0.33 55:0.5 58:0.5 61:0.67 62:0.2 66:0.33 67:0.33 68:0.5 69:0.67 72:0.33 73:0.75 74:0.5 77:0.5 80:1.0 81:0.5 82:0.33 83:0.5 84:1.0 85:0.5 86:0.25 87:0.5 89:0.25 90:0.33 92:0.17 93:0.25 94:0.25 96:0.33 97:1.0 98:0.5 99:0.14 102:0.67 103:0.4 104:0.33 106:0.25 107:0.33 108:0.33 110:0.14 112:0.33 113:0.17 114:1.0 117:0.5 118:0.17 125:0.5 126:0.5 127:1.0 128:0.33 130:0.2 134:0.17 135:0.2 138:1.0 140:0.14 143:0.33 145:0.5 146:0.5 148:0.5 154:0.17 156:0.5 157:1.0 158:0.2 160:0.17 164:0.2 
-0.0 -0.8507062603567758 -0.0 -0.6070645396403493 -0.2450501744875396 -0.0 -0.0 2:0.67 4:0.5 6:1.0 8:0.25 11:0.14 12:0.33 13:0.67 14:0.17 17:0.5 18:1.0 20:1.0 26:0.17 27:0.5 30:0.5 31:0.67 32:0.33 33:0.17 34:0.33 35:0.4 36:0.2 37:0.33 41:0.33 42:0.5 43:0.4 46:1.0 47:0.17 50:0.25 53:0.67 54:0.33 55:0.5 58:0.5 61:0.67 62:0.2 66:0.33 67:0.33 68:0.5 69:0.67 72:0.33 73:0.75 74:0.5 77:0.5 80:1.0 81:0.5 82:0.33 83:0.5 84:1.0 85:0.5 86:0.25 87:0.5 89:0.25 90:0.33 92:0.17 93:0.25 94:0.25 96:0.33 97:1.0 98:0.5 99:0.14 102:0.67 103:0.4 104:0.33 106:0.25 107:0.33 108:0.33 110:0.14 112:0.33 113:0.17 114:1.0 117:0.5 118:0.17 125:0.5 126:0.5 127:1.0 128:0.33 130:0.2 134:0.17 135:0.2 138:1.0 140:0.14 143:0.33 145:0.5 146:0.5 148:0.5 154:0.17 156:0.5 157:1.0 158:0.2 160:0.17 164:0.2 
-1.0 -0.0 -0.0 -0.9027823928583826 -1.0 -0.0 -0.0 2:0.67 4:0.5 6:1.0 8:0.25 11:0.14 12:0.33 13:0.67 14:0.17 17:0.5 18:1.0 20:1.0 26:0.17 27:0.5 30:0.5 31:0.67 32:0.33 33:0.17 34:0.33 35:0.4 36:0.2 37:0.33 41:0.33 42:0.5 43:0.4 46:1.0 47:0.17 50:0.25 53:0.67 54:0.33 55:0.5 58:0.5 61:0.67 62:0.2 66:0.33 67:0.33 68:0.5 69:0.67 72:0.33 73:0.75 74:0.5 77:0.5 80:1.0 81:0.5 82:0.33 83:0.5 84:1.0 85:0.5 86:0.25 87:0.5 89:0.25 90:0.33 92:0.17 93:0.25 94:0.25 96:0.33 97:1.0 98:0.5 99:0.14 102:0.67 103:0.4 104:0.33 106:0.25 107:0.33 108:0.33 110:0.14 112:0.33 113:0.17 114:1.0 117:0.5 118:0.17 125:0.5 126:0.5 127:1.0 128:0.33 130:0.2 134:0.17 135:0.2 138:1.0 140:0.14 143:0.33 145:0.5 146:0.5 148:0.5 154:0.17 156:0.5 157:1.0 158:0.2 160:0.17 164:0.2 
-1.0 -0.0 -0.0 -0.0 -0.0 -0.0 -0.0 1:0.33 2:0.33 4:0.25 5:0.5 7:0.5 8:0.25 10:0.5 12:0.67 15:0.33 21:0.67 27:1.0 29:1.0 31:0.33 34:0.67 35:0.6 42:0.25 43:0.2 44:1.0 46:0.33 48:0.67 49:0.5 53:0.67 54:0.33 59:1.0 62:0.6 65:0.5 68:1.0 69:0.33 71:0.5 73:0.25 77:0.25 79:0.5 80:0.5 82:0.67 83:0.5 86:0.5 87:1.0 93:0.75 96:0.67 98:0.5 102:0.33 103:0.4 104:0.33 106:0.5 107:1.0 109:0.33 115:1.0 117:1.0 119:1.0 121:0.5 124:1.0 125:0.5 126:0.5 127:1.0 128:1.0 133:1.0 135:1.0 141:1.0 150:1.0 153:1.0 156:1.0 161:0.1 
-0.0 -0.0 -1.0 -0.0 -0.0 -0.0 -0.0 1:0.67 2:0.67 4:0.5 5:0.5 7:0.5 8:0.25 10:1.0 12:0.67 13:0.33 15:0.33 17:0.5 20:0.5 21:0.33 27:1.0 31:0.33 32:0.33 34:0.67 35:0.6 39:0.5 42:0.75 43:0.4 44:0.5 46:0.67 48:0.67 49:0.5 53:1.0 54:0.67 55:0.5 57:0.5 58:0.5 59:0.5 61:0.33 62:0.6 65:0.5 68:0.5 69:0.33 71:0.5 72:0.33 73:0.75 74:0.5 77:0.5 78:0.33 79:0.5 80:0.5 81:0.25 82:0.33 83:0.5 84:1.0 86:0.5 87:1.0 90:0.33 93:0.5 94:0.25 96:0.33 98:1.0 102:0.67 103:0.4 104:0.33 106:0.5 107:0.67 108:0.33 109:0.67 116:1.0 117:0.5 118:0.17 121:0.5 122:1.0 124:0.5 127:1.0 128:0.67 130:0.2 134:0.17 135:0.2 140:0.14 145:0.5 146:0.5 147:1.0 149:0.5 154:0.17 155:1.0 156:1.0 157:1.0 158:0.2 160:0.17 161:0.1 164:0.2 
-0.0 -0.0 -0.0 -0.0 -0.0 -0.0 -1.0 2:0.67 4:0.5 6:1.0 8:0.25 11:0.14 12:0.33 13:0.33 14:0.17 18:1.0 20:0.5 26:0.17 27:0.5 29:1.0 30:0.5 31:0.67 32:0.33 33:0.17 34:0.33 35:0.2 36:0.2 37:0.33 41:0.33 42:0.25 43:0.4 44:0.5 46:0.67 47:0.17 50:0.25 53:0.33 54:0.33 57:0.5 61:0.33 62:0.2 65:0.5 66:0.33 67:0.33 68:0.5 69:0.67 72:0.33 73:0.5 77:0.5 80:1.0 81:0.25 82:0.33 83:0.5 85:0.5 86:0.25 87:0.5 89:0.25 90:0.67 92:0.17 93:0.25 94:0.5 96:0.33 97:1.0 98:0.5 99:0.14 102:0.33 103:0.4 104:0.33 106:0.25 107:0.33 110:0.14 112:0.33 113:0.17 114:1.0 117:1.0 121:0.5 122:1.0 124:0.5 125:1.0 126:1.0 127:1.0 128:0.67 135:0.2 138:1.0 141:0.2 143:0.33 146:0.5 148:0.5 153:0.25 156:0.5 161:0.1 
-0.0 -1.0 -0.0 -0.0 -1.0 -1.0 -0.0 2:0.67 3:1.0 4:0.5 6:1.0 8:0.25 11:0.14 12:0.33 13:0.33 14:0.17 18:1.0 20:0.5 24:1.0 26:0.17 27:0.5 29:1.0 30:0.5 31:0.67 32:0.33 33:0.33 34:0.33 35:0.2 36:0.2 37:0.33 38:0.5 41:0.67 42:0.25 43:0.4 44:0.5 45:0.5 46:0.67 47:0.17 50:0.25 51:0.5 52:1.0 53:0.33 54:0.33 57:0.5 58:0.5 61:0.33 62:0.2 65:0.5 66:0.33 67:0.33 68:0.5 69:0.67 72:0.33 73:0.5 77:0.5 80:1.0 81:0.5 82:0.33 83:0.5 85:0.5 86:0.25 87:0.5 88:0.5 89:0.25 90:0.67 92:0.33 93:0.25 94:0.75 96:0.33 97:1.0 98:0.5 99:0.14 102:0.33 103:0.4 104:0.33 106:0.25 107:0.33 108:0.33 110:0.29 112:0.67 113:0.33 114:1.0 117:1.0 121:0.5 122:1.0 124:0.5 125:1.0 126:1.0 127:1.0 128:0.67 131:1.0 132:1.0 135:0.2 136:1.0 137:0.5 138:1.0 139:0.33 141:0.2 143:0.67 145:0.5 146:0.5 148:1.0 151:0.5 153:0.25 156:0.5 159:0.5 161:0.2 
-0.0 -0.0 -1.0 -1.0 -0.0 -0.0 -0.0 2:0.67 4:0.5 6:1.0 8:0.25 11:0.14 12:0.33 13:0.67 14:0.17 17:0.5 18:1.0 20:1.0 22:0.17 25:0.2 26:0.17 27:0.5 28:0.25 29:1.0 30:0.5 31:0.67 32:0.33 33:0.17 34:0.33 35:0.4 36:0.2 37:0.33 39:0.5 40:0.25 41:0.33 42:0.5 43:0.6 44:0.5 46:1.0 47:0.17 50:0.25 53:0.67 54:0.33 55:0.5 57:0.5 58:0.5 61:1.0 62:0.2 63:0.33 64:0.25 65:0.5 66:0.33 67:0.33 68:0.5 69:1.0 72:0.67 73:0.75 74:0.5 77:0.5 80:1.0 81:0.5 82:0.33 83:0.5 84:1.0 85:0.5 86:0.25 87:0.5 89:0.25 90:0.67 92:0.17 93:0.25 94:0.5 96:0.33 97:1.0 98:0.5 99:0.14 102:0.67 103:0.4 104:0.33 105:0.2 106:0.25 107:0.33 108:0.33 110:0.14 111:0.2 112:0.33 113:0.17 114:1.0 116:1.0 117:1.0 118:0.33 120:0.2 121:0.5 122:1.0 124:0.5 125:1.0 126:1.0 127:1.0 128:0.67 129:0.33 130:0.4 134:0.33 135:0.2 138:1.0 139:0.33 140:0.29 141:0.2 142:0.2 143:0.33 145:0.5 146:0.5 147:0.5 148:0.5 149:1.0 152:0.25 153:0.25 154:0.33 156:0.5 157:1.0 158:0.4 160:0.17 162:0.17 163:0.2 164:0.4 
-0.0 -1.0 -0.21420601463338393 -0.9034924197670962 -1.0 -1.0 -0.0 1:0.33 2:1.0 3:1.0 4:0.75 6:1.0 7:0.5 8:0.75 9:1.0 10:0.5 11:0.43 12:0.33 13:1.0 14:0.5 15:0.67 16:1.0 17:0.5 18:1.0 20:1.0 21:0.33 22:0.17 23:1.0 24:1.0 25:0.2 26:0.5 27:0.5 28:0.25 29:1.0 30:1.0 31:0.67 32:0.67 33:0.5 34:1.0 35:0.6 36:0.6 37:0.33 38:1.0 40:0.25 41:1.0 42:0.75 43:0.8 44:0.5 45:0.5 46:1.0 47:0.5 48:0.67 50:0.75 51:1.0 52:1.0 53:0.67 54:0.67 55:0.5 56:1.0 57:0.5 58:1.0 59:0.5 61:1.0 62:0.6 63:0.33 64:0.25 65:1.0 66:0.67 67:0.67 68:1.0 69:1.0 71:1.0 72:1.0 73:1.0 74:1.0 75:1.0 77:0.75 78:0.67 79:1.0 80:1.0 81:1.0 82:0.67 83:1.0 84:1.0 85:0.5 86:0.75 87:0.5 88:1.0 89:0.75 90:0.67 91:0.5 92:0.5 93:0.5 94:0.75 95:0.5 96:0.67 97:1.0 98:1.0 99:0.29 101:0.5 102:0.67 103:0.8 104:1.0 105:0.2 106:0.75 107:0.67 108:1.0 109:0.33 110:0.57 111:0.2 112:1.0 113:0.67 114:1.0 117:1.0 118:0.33 120:0.2 121:1.0 124:0.5 125:1.0 126:1.0 127:1.0 128:0.67 129:0.33 130:0.4 131:1.0 132:1.0 133:1.0 134:0.33 135:1.0 136:1.0 137:1.0 138:1.0 139:1.0 140:0.29 141:0.2 142:0.2 143:1.0 144:1.0 145:1.0 146:1.0 147:0.5 148:1.0 149:0.5 150:1.0 151:1.0 152:0.25 153:0.25 154:0.33 155:1.0 156:0.5 157:1.0 158:0.4 159:1.0 160:0.17 161:0.2 162:0.17 163:0.2 164:0.4 
-0.0 -1.0 -0.0 -1.0 -1.0 -1.0 -0.4615468319113023 1:0.33 3:1.0 5:0.5 7:0.5 10:0.5 12:0.33 21:0.33 24:1.0 27:0.5 29:1.0 33:0.17 35:0.2 38:0.5 41:0.33 44:1.0 45:0.5 48:0.33 49:0.5 51:0.5 52:1.0 53:0.33 57:0.5 58:0.5 59:0.5 62:0.2 65:0.5 81:0.25 87:0.5 88:0.5 90:0.33 92:0.17 93:0.25 94:0.5 107:0.33 108:0.33 109:0.33 110:0.14 112:0.33 113:0.17 117:0.5 121:0.5 122:1.0 124:1.0 125:0.5 126:0.5 128:0.67 131:1.0 132:1.0 136:1.0 137:0.5 139:0.33 141:0.2 143:0.33 145:0.5 148:0.5 151:0.5 153:0.25 156:0.5 159:0.5 161:0.6 
-1.0 -0.0 -0.0 -0.0 -0.0 -0.0 -0.0 1:0.67 2:0.67 4:0.5 5:0.5 7:0.5 8:0.5 10:1.0 12:0.67 13:0.33 15:0.67 17:0.5 20:0.5 21:0.67 27:1.0 29:1.0 31:0.33 32:0.33 34:1.0 35:0.8 42:0.75 43:0.4 44:1.0 46:0.67 48:1.0 49:0.5 53:1.0 54:0.67 55:0.5 57:0.5 58:0.5 59:1.0 61:0.33 62:0.8 65:1.0 68:1.0 69:0.33 71:1.0 72:0.33 73:0.75 74:0.5 77:0.5 78:0.33 79:1.0 80:0.5 81:0.25 82:0.67 83:0.75 84:1.0 86:0.75 87:1.0 90:0.33 93:0.75 94:0.25 96:0.67 98:1.0 102:0.67 103:0.6 104:0.67 106:0.75 107:1.0 108:0.33 109:0.67 117:1.0 118:0.17 121:1.0 122:1.0 124:1.0 125:0.5 126:0.5 127:1.0 128:1.0 130:0.2 133:1.0 134:0.17 135:1.0 140:0.14 141:0.2 145:0.5 146:0.5 147:0.5 150:1.0 153:0.25 154:0.17 155:1.0 156:1.0 157:1.0 158:0.2 160:0.17 161:0.1 164:0.2 
-0.0 -0.0 -1.0 -1.0 -0.0 -0.0 -0.0 1:0.33 2:1.0 4:0.75 6:1.0 8:0.75 10:0.5 11:0.14 12:0.33 13:0.33 14:0.17 15:0.67 18:1.0 20:0.5 21:0.33 22:0.17 25:0.2 26:0.17 27:0.5 28:0.25 30:0.5 31:0.67 32:0.67 33:0.17 34:1.0 35:0.4 36:0.2 37:0.33 39:0.5 40:0.25 41:0.33 42:0.5 43:0.8 46:0.67 47:0.17 48:0.67 50:0.25 53:0.33 54:0.67 59:0.5 61:0.67 62:0.6 63:0.33 64:0.25 65:0.5 66:0.33 67:0.33 68:1.0 69:1.0 71:1.0 72:1.0 73:0.75 77:0.75 78:0.33 79:1.0 80:1.0 81:0.25 82:0.67 83:1.0 85:0.5 86:0.75 87:0.5 89:0.25 90:0.33 92:0.17 93:0.5 94:0.25 96:0.67 97:1.0 98:1.0 99:0.14 102:0.33 103:0.8 104:1.0 105:0.2 106:0.75 107:0.67 109:0.33 110:0.14 111:0.2 112:0.33 113:0.17 114:1.0 116:1.0 117:0.5 118:0.17 120:0.2 121:0.5 125:0.5 126:0.5 127:1.0 128:0.33 129:0.33 130:0.2 133:1.0 134:0.17 135:1.0 138:1.0 139:0.33 140:0.14 142:0.2 143:0.33 146:1.0 147:1.0 148:0.5 149:1.0 150:1.0 152:0.25 154:0.17 155:1.0 156:0.5 158:0.2 162:0.17 163:0.2 164:0.2 
-0.0 -1.0 -0.0 -0.0 -1.0 -1.0 -0.0 1:0.33 2:0.33 4:0.25 5:0.5 7:1.0 10:0.5 11:0.14 12:0.67 13:0.33 14:0.17 16:1.0 21:0.33 23:1.0 26:0.17 27:1.0 29:1.0 30:0.5 31:0.33 33:0.17 34:0.33 35:0.4 36:0.2 38:0.5 41:0.33 42:0.25 43:0.2 44:1.0 46:0.33 47:0.17 48:0.33 49:0.5 50:0.25 53:0.67 54:0.33 56:1.0 57:1.0 59:0.5 62:0.4 65:0.5 68:0.5 69:0.33 73:0.25 74:0.5 77:0.25 80:0.5 81:0.25 82:0.33 83:0.25 86:0.25 87:1.0 88:0.5 89:0.25 90:0.67 92:0.17 93:0.5 94:0.5 96:0.33 98:0.5 99:0.14 102:0.33 103:0.2 106:0.25 107:0.67 108:0.33 109:0.33 110:0.14 113:0.17 117:1.0 121:0.5 122:1.0 124:1.0 125:0.5 126:0.5 127:1.0 128:1.0 135:0.2 137:0.5 139:0.33 141:0.2 143:0.33 144:1.0 151:0.5 153:0.25 156:1.0 159:0.5 161:0.6 
-0.0 -0.0 -0.0 -0.0 -0.0 -0.0 -0.6508050760357195 2:0.67 4:0.5 6:1.0 8:0.25 11:0.14 12:0.33 13:0.33 14:0.17 18:1.0 20:0.5 26:0.17 27:0.5 29:1.0 30:0.5 31:0.67 32:0.33 33:0.17 34:0.33 35:0.2 36:0.2 37:0.33 41:0.33 42:0.25 43:0.4 44:0.5 46:0.67 47:0.17 50:0.25 53:0.33 54:0.33 57:0.5 61:0.33 62:0.2 65:0.5 66:0.33 67:0.33 68:0.5 69:0.67 72:0.33 73:0.5 77:0.5 80:1.0 81:0.25 82:0.33 83:0.5 85:0.5 86:0.25 87:0.5 89:0.25 90:0.67 92:0.17 93:0.25 94:0.5 96:0.33 97:1.0 98:0.5 99:0.14 102:0.33 103:0.4 104:0.33 106:0.25 107:0.33 110:0.14 112:0.33 113:0.17 114:1.0 117:1.0 121:0.5 122:1.0 124:0.5 125:1.0 126:1.0 127:1.0 128:0.67 135:0.2 138:1.0 141:0.2 143:0.33 146:0.5 148:0.5 153:0.25 156:0.5 161:0.1 
-0.0 -0.0 -0.14491499518737727 -0.0 -0.0 -0.0 -0.0 1:0.33 2:1.0 4:0.75 6:1.0 8:0.5 10:0.5 11:0.14 12:0.33 13:0.67 14:0.17 15:0.33 17:0.5 18:1.0 20:1.0 26:0.17 27:0.5 30:0.5 31:0.67 32:0.67 33:0.17 34:0.67 35:0.4 36:0.2 37:0.33 41:0.33 42:0.75 43:0.6 46:1.0 47:0.17 48:0.33 50:0.25 53:0.67 54:0.67 55:0.5 58:0.5 61:0.67 62:0.4 65:0.5 66:0.33 67:0.33 68:0.5 69:0.67 71:0.5 72:0.67 73:1.0 74:0.5 77:0.75 78:0.33 79:0.5 80:1.0 81:0.5 82:0.33 83:0.75 84:1.0 85:0.5 86:0.5 87:0.5 89:0.25 90:0.33 92:0.17 93:0.25 94:0.25 96:0.33 97:1.0 98:1.0 99:0.14 102:0.67 103:0.6 104:0.67 106:0.5 107:0.33 108:0.33 109:0.33 110:0.14 112:0.33 113:0.17 114:1.0 117:0.5 118:0.17 121:0.5 125:0.5 126:0.5 127:1.0 128:0.33 130:0.2 134:0.17 135:0.2 138:1.0 140:0.14 143:0.33 145:0.5 146:1.0 147:0.5 148:0.5 154:0.17 155:1.0 156:0.5 157:1.0 158:0.2 160:0.17 164:0.2 
-1.0 -0.0 -0.0 -0.0 -0.0 -0.0 -0.0 1:0.33 2:0.33 4:0.25 5:0.5 7:0.5 8:0.25 10:0.5 12:0.67 15:0.33 21:0.67 27:1.0 29:1.0 31:0.33 34:0.67 35:0.6 42:0.25 43:0.2 44:1.0 46:0.33 48:0.67 49:0.5 53:0.67 54:0.33 59:1.0 62:0.6 65:0.5 68:1.0 69:0.33 71:0.5 73:0.25 77:0.25 79:0.5 80:0.5 82:0.67 83:0.5 86:0.5 87:1.0 93:0.75 96:0.67 98:0.5 102:0.33 103:0.4 104:0.33 106:0.5 107:1.0 109:0.33 115:1.0 117:1.0 119:1.0 121:0.5 124:1.0 125:0.5 126:0.5 127:1.0 128:1.0 133:1.0 135:1.0 141:1.0 150:1.0 153:1.0 156:1.0 161:0.1 
-0.0 -1.0 -0.0 -0.0 -1.0 -1.0 -0.0 1:0.33 2:1.0 3:1.0 4:0.75 6:1.0 7:0.5 8:0.5 10:0.5 11:0.29 12:0.33 13:0.67 14:0.33 15:0.33 16:1.0 18:1.0 20:0.5 23:1.0 24:1.0 26:0.33 27:0.5 29:1.0 30:1.0 31:0.67 32:0.67 33:0.5 34:0.67 35:0.2 36:0.4 37:0.33 38:1.0 41:1.0 42:0.5 43:0.6 44:0.5 45:0.5 46:0.67 47:0.33 48:0.33 50:0.5 51:0.5 52:1.0 53:0.33 54:0.67 56:1.0 57:1.0 58:0.5 61:0.33 62:0.4 65:1.0 66:0.33 67:0.33 68:0.5 69:0.67 71:0.5 72:0.67 73:0.75 74:0.5 77:0.75 78:0.33 79:0.5 80:1.0 81:0.75 82:0.33 83:0.75 85:0.5 86:0.5 87:0.5 88:1.0 89:0.5 90:1.0 92:0.5 93:0.25 94:1.0 96:0.33 97:1.0 98:1.0 99:0.29 102:0.33 103:0.6 104:0.67 106:0.5 107:0.33 108:0.67 109:0.33 110:0.43 112:0.67 113:0.5 114:1.0 117:1.0 121:1.0 122:1.0 124:0.5 125:1.0 126:1.0 127:1.0 128:0.67 131:1.0 132:1.0 135:0.2 136:1.0 137:1.0 138:1.0 139:0.67 141:0.2 143:1.0 144:1.0 145:0.5 146:1.0 147:0.5 148:1.0 151:1.0 153:0.25 155:1.0 156:0.5 159:1.0 161:0.6 
-1.0 -0.0 -0.3869976682851574 -0.0 -0.0 -0.0 -0.8876480920529782 1:0.33 2:1.0 4:0.75 6:1.0 8:0.75 10:0.5 11:0.14 12:0.33 13:0.33 14:0.17 15:0.67 18:1.0 20:0.5 21:0.33 26:0.17 27:0.5 30:0.5 31:0.67 32:0.67 33:0.17 34:1.0 35:0.4 36:0.2 37:0.33 41:0.33 42:0.5 43:0.6 46:0.67 47:0.17 48:0.67 50:0.25 53:0.33 54:0.67 59:0.5 61:0.33 62:0.6 65:0.5 66:0.33 67:0.33 68:1.0 69:0.67 71:1.0 72:0.67 73:0.75 77:0.75 78:0.33 79:1.0 80:1.0 81:0.25 82:0.67 83:1.0 85:0.5 86:0.75 87:0.5 89:0.25 90:0.33 92:0.17 93:0.5 94:0.25 96:0.67 97:1.0 98:1.0 99:0.14 102:0.33 103:0.8 104:1.0 106:0.75 107:0.67 109:0.33 110:0.14 112:0.33 113:0.17 114:1.0 117:0.5 121:0.5 125:0.5 126:0.5 127:1.0 128:0.33 133:1.0 135:1.0 138:1.0 143:0.33 146:1.0 147:0.5 148:0.5 150:1.0 155:1.0 156:0.5 
