svm_type c_svc
kernel_type rbf
gamma 0.023809523809523808
nr_class 8
total_sv 55
rho 0.8246122002601624 0.8220199281521907 0.8762941041539953 0.6964687705039978 0.8152535259723663 0.8882253766059875 1.0180312354798218 -0.5668893754482269 0.03763488561941263 -0.9945925884848802 -0.9675970077514648 0.058222986517980156 0.34486735119588363 0.7735140074638615 0.41240110993385315 0.018794894218444824 0.8270617723464966 0.9792826196544658 -0.07581023191156534 -0.8868494033813477 -0.3221154510974884 0.12181127090651733 -0.8329483270645142 0.09352765203501455 0.34573286585909646 0.5521245300769806 0.9036741323120675 0.8524853248042676
label 3 7 4 0 5 6 2 1
nr_sv 2 9 3 10 7 3 8 13
SV
1.0 1.0 1.0 1.0 1.0 1.0 1.0 2:0.25 5:0.67 6:0.17 7:0.67 8:0.2 9:1.0 10:0.14 14:0.14 15:0.29 16:0.17 18:0.25 19:0.17 20:0.29 25:0.5 26:0.25 28:1.0 30:0.14 31:0.15 33:0.25 35:1.0 38:0.5 
1.0 1.0 1.0 1.0 1.0 1.0 1.0 1:0.2 2:0.5 4:0.17 5:0.67 6:0.33 7:0.67 8:0.2 9:1.0 14:0.14 15:0.14 16:0.33 18:0.25 19:0.17 20:1.0 25:1.0 26:0.5 30:0.29 31:0.15 32:0.2 33:0.5 34:0.25 35:0.29 37:0.2 38:0.5 
-1.0 1.0 1.0 0.41841562360806006 1.0 1.0 1.0 2:0.25 5:0.67 6:0.17 7:0.33 8:0.2 9:1.0 11:0.14 12:1.0 13:0.5 14:0.29 15:0.29 16:0.17 17:1.0 18:0.25 19:0.17 20:0.29 23:0.5 25:0.5 26:0.25 30:0.14 31:0.46 33:0.25 35:0.29 40:0.17 42:0.25 
-0.0 0.0 0.0 0.5456992831051061 0.0 0.0 0.0 5:0.33 8:0.8 11:1.0 12:1.0 14:0.86 21:1.0 24:1.0 29:1.0 31:0.46 40:1.0 41:1.0 42:1.0 
-0.0 0.0 1.0 1.0 0.0 0.0 0.0 5:0.67 8:1.0 9:0.5 11:1.0 12:1.0 14:1.0 20:0.14 21:1.0 24:1.0 29:1.0 31:0.31 35:0.14 40:1.0 41:1.0 42:1.0 
-0.0 0.0 0.0 1.0 0.0 0.24063705997785878 0.7088861698729558 5:0.33 8:0.8 11:1.0 12:1.0 14:0.86 21:1.0 24:1.0 29:1.0 31:0.46 40:1.0 41:1.0 42:1.0 
-0.0 0.0 0.42248701264552374 1.0 0.0 1.0 1.0 5:0.33 8:0.8 11:1.0 12:1.0 14:0.86 21:1.0 24:1.0 29:1.0 31:0.46 40:1.0 41:1.0 42:1.0 
-0.0 0.0 0.8481629618361329 1.0 1.0 0.0 0.0 5:0.67 8:1.0 9:0.5 11:1.0 12:1.0 14:1.0 20:0.14 21:1.0 24:1.0 29:1.0 31:0.31 35:0.14 40:1.0 41:1.0 42:1.0 
-0.0 0.0 1.0 1.0 0.0 0.9785893657127747 1.0 5:0.33 8:0.8 11:1.0 12:1.0 14:0.86 21:1.0 24:1.0 29:1.0 31:0.46 40:1.0 41:1.0 42:1.0 
-0.7371155964958498 1.0 1.0 1.0 1.0 1.0 1.0 2:0.25 5:1.0 6:0.17 7:0.33 8:1.0 9:1.0 11:0.57 13:0.5 14:0.71 15:0.29 16:0.17 17:1.0 18:0.25 19:0.17 20:0.29 21:1.0 23:0.5 24:0.5 25:0.5 26:0.25 29:1.0 30:0.14 31:0.23 33:0.25 35:0.29 40:0.5 41:0.5 42:0.25 
-0.2628844035041502 1.0 0.869524083767241 0.03588509328683404 0.0 1.0 1.0 5:0.33 7:0.33 8:0.8 10:0.14 11:1.0 12:1.0 14:0.86 15:0.14 21:1.0 24:1.0 28:1.0 29:1.0 31:0.23 35:0.14 38:0.5 40:1.0 41:1.0 42:1.0 
-0.5751776751403459 -1.0 1.0 1.0 1.0 1.0 1.0 1:0.2 2:0.25 4:0.17 6:0.17 7:0.67 10:0.14 13:1.0 15:0.29 16:0.17 17:1.0 20:0.14 23:0.5 25:0.5 26:0.25 28:1.0 30:0.14 31:0.08 32:0.2 33:0.25 34:0.25 35:0.14 36:1.0 37:0.2 38:1.0 
-0.6139756772453818 -1.0 1.0 1.0 1.0 1.0 1.0 13:0.5 36:1.0 
-0.8108466476142723 -1.0 1.0 1.0 1.0 1.0 1.0 2:0.25 5:0.33 6:0.17 7:0.33 9:0.5 13:1.0 15:0.29 16:0.17 17:1.0 18:0.25 19:0.17 20:0.14 23:0.5 25:0.5 26:0.25 30:0.14 31:0.08 33:0.25 35:0.14 36:1.0 
-0.4613327361077373 -1.0 -0.0 1.0 0.8608816676570157 1.0 1.0 2:0.25 5:1.0 6:0.17 7:0.33 8:1.0 9:1.0 11:0.71 14:0.86 15:0.14 16:0.17 18:0.25 19:0.17 20:0.29 21:1.0 22:1.0 23:0.5 24:0.5 25:0.5 26:0.25 27:1.0 29:1.0 30:0.14 31:0.31 33:0.25 35:0.29 40:0.67 41:0.5 42:0.5 
-0.4972437945437933 -0.038337703905610664 -0.6335083423875353 0.0 0.0 1.0 1.0 2:0.25 5:0.33 6:0.17 7:0.67 9:0.5 10:0.14 13:0.5 15:0.43 16:0.17 17:1.0 18:0.25 19:0.17 20:0.14 22:1.0 23:1.0 25:0.5 26:0.25 27:1.0 28:1.0 30:0.14 31:0.08 33:0.25 35:0.29 38:0.5 
-0.0 -1.0 -0.056152388649688745 1.0 1.0 0.16648136443121578 0.86102652581633 2:0.25 5:1.0 6:0.17 7:0.33 8:1.0 9:1.0 11:0.86 12:1.0 14:1.0 15:0.14 16:0.17 18:0.25 19:0.17 20:0.29 21:1.0 22:1.0 23:0.5 24:0.5 25:0.5 26:0.25 27:1.0 29:1.0 30:0.14 31:0.38 33:0.25 35:0.29 40:0.83 41:0.5 42:0.75 
-0.04142346934846945 -1.0 -0.2801417541442062 1.0 0.13911833234298432 1.0 1.0 2:0.25 5:0.67 6:0.17 7:0.33 8:0.2 9:1.0 13:0.5 14:0.14 15:0.29 16:0.17 17:1.0 18:0.25 19:0.17 20:0.29 22:1.0 23:1.0 25:0.5 26:0.25 27:0.17 30:0.14 31:0.15 33:0.25 35:0.29 
-0.0 -0.0 -0.0 0.0 0.0 0.0 0.26756269351541373 13:0.5 15:0.14 17:1.0 22:1.0 23:1.0 27:1.0 
-0.0 -0.0 -0.0 0.0 0.0 1.0 1.0 13:0.5 15:0.14 17:1.0 22:1.0 23:1.0 27:1.0 
-0.0 -0.10183635434328692 -0.0 0.0 0.0 1.0 1.0 13:0.5 15:0.14 17:1.0 22:1.0 23:1.0 27:1.0 
-0.0 -1.0 -0.14779183037875562 0.7169541833557435 0.0 1.0 1.0 13:0.5 15:0.14 17:1.0 22:1.0 23:1.0 27:1.0 
-1.0 -1.0 -0.8865864773374527 1.0 1.0 1.0 1.0 2:0.25 5:0.67 6:0.17 7:0.33 8:0.2 9:1.0 13:0.5 14:0.14 15:0.29 16:0.17 17:1.0 18:0.25 19:0.17 20:0.29 22:1.0 23:1.0 25:0.5 26:0.25 27:0.17 30:0.14 31:0.15 33:0.25 35:0.29 
-0.0 -1.0 -0.9958192071023614 0.9936064136344194 0.0 0.8335186355687842 0.9179236323108722 13:0.5 15:0.14 17:1.0 22:1.0 23:1.0 27:1.0 
-0.0 -1.0 -0.0 -1.0 0.0 0.0 0.0 5:0.67 8:1.0 9:0.5 11:1.0 12:1.0 14:1.0 20:0.14 21:1.0 24:1.0 29:1.0 31:0.31 35:0.14 40:1.0 41:1.0 42:1.0 
-1.0 -1.0 -1.0 -1.0 1.0 1.0 1.0 5:0.33 8:0.2 11:0.57 12:1.0 14:0.43 21:0.25 24:0.5 29:1.0 31:0.23 40:0.67 41:0.5 42:1.0 
-0.0 -1.0 -0.0 -0.41969976055003394 0.0 1.0 1.0 5:0.33 8:0.8 11:1.0 12:1.0 14:0.86 21:1.0 24:1.0 29:1.0 31:0.46 40:1.0 41:1.0 42:1.0 
-0.0 -1.0 -0.0 -1.0 0.0 0.0029802628449656175 0.10125449432057435 5:0.67 8:1.0 9:0.5 11:1.0 12:1.0 14:1.0 20:0.14 21:1.0 24:1.0 29:1.0 31:0.31 35:0.14 40:1.0 41:1.0 42:1.0 
-0.0 -1.0 -0.0 -0.49217219806404183 0.6867500678097735 1.0 0.9517736253719367 5:0.67 8:1.0 9:0.5 11:1.0 12:1.0 14:1.0 20:0.14 21:1.0 24:1.0 29:1.0 31:0.31 35:0.14 40:1.0 41:1.0 42:1.0 
-1.0 -1.0 -1.0 -1.0 1.0 1.0 1.0 2:0.25 5:1.0 6:0.17 7:0.33 8:1.0 9:1.0 11:0.57 13:0.5 14:0.71 15:0.29 16:0.17 17:1.0 18:0.25 19:0.17 20:0.29 21:1.0 23:0.5 24:0.5 25:0.5 26:0.25 29:1.0 30:0.14 31:0.23 33:0.25 35:0.29 40:0.5 41:0.5 42:0.25 
-0.0 -1.0 -1.0 -0.7986886383760872 0.31324993219022645 0.5115176771115602 1.0 5:0.67 8:1.0 9:0.5 11:1.0 12:1.0 13:0.5 14:1.0 20:0.14 21:1.0 24:1.0 29:1.0 31:0.54 35:0.14 36:1.0 40:1.0 41:1.0 42:1.0 
-0.7003441042501926 -1.0 -1.0 -1.0 -1.0 1.0 1.0 2:0.25 5:1.0 6:0.17 7:0.33 8:1.0 9:1.0 11:0.57 13:0.5 14:0.71 15:0.29 16:0.17 17:1.0 18:0.25 19:0.17 20:0.29 21:1.0 23:0.5 24:0.5 25:0.5 26:0.25 29:1.0 30:0.14 31:0.23 33:0.25 35:0.29 40:0.5 41:0.5 42:0.25 
-1.0 -1.0 -1.0 -1.0 -1.0 1.0 1.0 2:0.25 5:1.0 6:0.17 7:0.33 8:0.4 9:1.0 11:0.43 12:1.0 14:0.57 15:0.14 16:0.17 18:0.25 19:0.17 20:0.29 21:0.25 25:0.5 26:0.25 29:1.0 30:0.14 31:1.0 33:0.25 35:0.29 40:0.5 42:0.75 
-0.29965589574980744 -1.0 -1.0 -1.0 -1.0 1.0 1.0 2:0.25 5:1.0 6:0.17 7:0.33 8:0.4 9:1.0 11:0.43 12:1.0 14:0.57 15:0.14 16:0.17 18:0.25 19:0.17 20:0.29 21:0.25 25:0.5 26:0.25 29:1.0 30:0.14 31:1.0 33:0.25 35:0.29 40:0.5 42:0.75 
-0.0 -0.0 -0.0 -1.0 -0.0 -0.0 1.0 2:0.25 5:0.33 6:0.17 7:0.67 9:0.5 10:0.14 13:0.5 15:1.0 16:0.17 17:1.0 18:0.25 19:0.17 20:0.14 23:0.5 25:0.5 26:0.25 28:1.0 30:0.14 31:0.08 33:0.25 35:0.29 38:0.5 
-0.0 -1.0 -0.0 -1.0 -0.05707140233561737 -0.02140958322525673 1.0 2:0.25 5:0.33 6:0.17 7:0.67 9:0.5 10:0.14 13:0.5 15:1.0 16:0.17 17:1.0 18:0.25 19:0.17 20:0.14 23:0.5 25:0.5 26:0.25 28:1.0 30:0.14 31:0.08 33:0.25 35:0.29 38:0.5 
-0.0 -0.0 -0.0 -1.0 -0.0 -0.0 1.0 2:0.25 4:0.17 6:0.17 7:0.33 10:1.0 15:0.14 16:0.17 18:0.25 19:0.17 26:0.25 28:1.0 30:0.14 32:0.2 33:0.25 35:0.14 37:0.2 38:0.5 39:0.2 
-0.0 -0.45173158370227984 -0.0 -1.0 -0.512244731429761 -0.0 1.0 2:0.25 4:0.17 6:0.17 7:0.33 10:1.0 15:0.14 16:0.17 18:0.25 19:0.17 26:0.25 28:1.0 30:0.14 32:0.2 33:0.25 35:0.14 37:0.2 38:0.5 39:0.2 
-0.0 -1.0 -0.07785883336402037 -1.0 -1.0 -0.0 1.0 2:0.25 4:0.17 6:0.17 7:0.33 10:1.0 15:0.14 16:0.17 18:0.25 19:0.17 26:0.25 28:1.0 30:0.14 32:0.2 33:0.25 35:0.14 37:0.2 38:0.5 39:0.2 
-1.0 -1.0 -1.0 -1.0 -1.0 -1.0 1.0 2:0.25 5:0.33 6:0.17 7:0.67 9:0.5 10:0.14 13:0.5 15:1.0 16:0.17 17:1.0 18:0.25 19:0.17 20:0.14 23:0.5 25:0.5 26:0.25 28:1.0 30:0.14 31:0.08 33:0.25 35:0.29 38:0.5 
-0.19138563389784036 -0.7825585627282825 -0.9221411666359797 -1.0 -1.0 -1.0 1.0 2:0.25 5:0.33 6:0.17 7:0.67 9:0.5 10:0.14 13:0.5 15:1.0 16:0.17 17:1.0 18:0.25 19:0.17 20:0.14 23:0.5 25:0.5 26:0.25 28:1.0 30:0.14 31:0.08 33:0.25 35:0.29 38:0.5 
-0.8086143661021596 -0.9849362792600711 -1.0 -1.0 -0.9451818061911474 -0.9785904167747432 1.0 2:0.25 4:0.17 6:0.17 7:0.33 10:1.0 15:0.14 16:0.17 18:0.25 19:0.17 26:0.25 28:1.0 30:0.14 32:0.2 33:0.25 35:0.14 37:0.2 38:0.5 39:0.2 
-0.0 -0.0 -0.0 -1.0 -0.0 -0.0 -1.0 2:0.25 5:0.33 6:0.17 7:0.67 9:0.5 10:0.14 13:0.5 15:1.0 16:0.17 17:1.0 18:0.25 19:0.17 20:0.14 23:0.5 25:0.5 26:0.25 28:1.0 30:0.14 31:0.08 33:0.25 35:0.29 38:0.5 
-0.0 -0.6652586214725295 -0.0 -1.0 -0.0 -0.0 -1.0 2:0.25 5:0.33 6:0.17 7:0.67 9:0.5 10:0.14 13:0.5 15:1.0 16:0.17 17:1.0 18:0.25 19:0.17 20:0.14 23:0.5 25:0.5 26:0.25 28:1.0 30:0.14 31:0.08 33:0.25 35:0.29 38:0.5 
-0.0 -1.0 -0.0 -1.0 -1.0 -1.0 -1.0 2:0.25 5:0.33 6:0.17 7:0.67 9:0.5 10:0.14 13:0.5 15:1.0 16:0.17 17:1.0 18:0.25 19:0.17 20:0.14 23:0.5 25:0.5 26:0.25 28:1.0 30:0.14 31:0.08 33:0.25 35:0.29 38:0.5 
-0.454080793752429 -0.875063249232614 -0.28682667245957794 -1.0 -0.9098601226416513 -0.33476631006509816 -1.0 2:0.25 5:0.33 6:0.17 7:0.67 9:0.5 10:0.14 13:0.5 15:1.0 16:0.17 17:1.0 18:0.25 19:0.17 20:0.14 23:0.5 25:0.5 26:0.25 28:1.0 30:0.14 31:0.08 33:0.25 35:0.29 38:0.5 
-0.6876532016176644 -1.0 -0.7383694347646022 -1.0 -1.0 -0.3993600616328053 -1.0 2:0.25 4:0.17 6:0.17 7:0.33 10:1.0 15:0.14 16:0.17 18:0.25 19:0.17 26:0.25 28:1.0 30:0.14 32:0.2 33:0.25 35:0.14 37:0.2 38:0.5 39:0.2 
-0.0 -1.0 -1.0 -1.0 -1.0 -0.3866113290028605 -1.0 7:0.33 10:0.14 11:0.14 13:1.0 15:0.29 17:1.0 23:0.5 24:0.5 28:1.0 35:0.14 36:1.0 38:0.5 40:0.17 41:0.5 42:0.25 
-0.5646036726876824 -0.0 -0.8010901083472798 -1.0 -0.0 -0.0 -0.6815752306679256 1:0.2 2:0.5 4:0.17 5:0.67 6:0.33 7:1.0 8:0.2 9:1.0 10:0.14 13:1.0 14:0.14 15:0.43 16:0.33 17:1.0 18:0.25 19:0.17 20:0.43 23:0.5 25:1.0 26:0.5 28:1.0 30:0.29 31:0.23 32:0.2 33:0.5 34:0.25 35:0.43 36:1.0 37:0.2 38:1.0 
-0.0 -0.0 -0.0 -0.0 -0.0 -0.0 -0.3116818510642821 1:1.0 2:0.5 3:1.0 4:0.83 6:0.67 7:0.67 10:0.86 13:0.5 15:0.29 16:0.67 17:1.0 18:0.5 19:0.67 20:0.14 23:0.5 25:0.5 26:0.5 28:1.0 30:0.71 32:0.8 33:0.5 34:1.0 35:0.14 37:0.8 38:1.0 39:0.8 
-0.2854244486112493 -0.16856429916781243 -0.0 -1.0 -0.14316799705085975 -0.0 -0.0 1:1.0 2:1.0 3:1.0 4:1.0 5:0.67 6:1.0 7:0.67 8:0.2 9:1.0 10:0.14 11:0.14 14:0.29 15:0.14 16:1.0 18:1.0 19:1.0 20:0.43 22:1.0 23:0.5 25:1.0 26:1.0 27:0.17 30:1.0 31:0.23 32:1.0 33:1.0 34:1.0 35:0.29 37:1.0 38:0.5 39:1.0 40:0.17 42:0.25 
-0.0 -0.0 -0.0 -0.0 -0.0 -0.0 -0.9242579676064823 1:1.0 2:0.5 3:1.0 4:0.83 6:0.67 7:0.67 10:0.86 13:0.5 15:0.29 16:0.67 17:1.0 18:0.5 19:0.67 20:0.14 23:0.5 25:0.5 26:0.5 28:1.0 30:0.71 32:0.8 33:0.5 34:1.0 35:0.14 37:0.8 38:1.0 39:0.8 
-0.008237883330975004 -1.0 -0.0 -0.11314943343503638 -1.0 -0.8792622992992359 -0.0 1:1.0 2:1.0 3:1.0 4:1.0 5:1.0 6:1.0 7:1.0 8:1.0 9:1.0 10:0.29 11:0.86 12:1.0 14:1.0 15:0.29 16:1.0 18:1.0 19:1.0 20:0.43 21:1.0 24:0.5 25:1.0 26:1.0 28:1.0 29:1.0 30:1.0 31:0.38 32:1.0 33:1.0 34:1.0 35:0.43 37:1.0 38:1.0 39:1.0 40:0.83 41:0.5 42:0.75 
-0.0 -0.0 -0.1737137844285402 -0.9333634182075794 -0.0 -0.0 -0.0 1:1.0 2:0.75 3:1.0 4:1.0 6:0.83 7:0.33 10:0.14 13:0.5 15:0.14 16:0.83 17:1.0 18:0.75 19:0.83 20:0.14 23:0.5 25:0.5 26:0.75 30:0.86 32:1.0 33:0.75 34:1.0 37:1.0 38:0.5 39:1.0 
-0.0 -0.0 -0.0 -0.0 -0.0 -0.0 -0.08248495066131008 1:1.0 2:1.0 3:1.0 4:1.0 5:0.33 6:1.0 7:1.0 9:0.5 10:0.29 11:0.14 14:0.14 15:0.86 16:1.0 18:1.0 19:1.0 20:0.29 25:1.0 26:1.0 28:1.0 30:1.0 31:0.15 32:1.0 33:1.0 34:1.0 35:0.29 37:1.0 38:1.0 39:1.0 40:0.17 42:0.25 
