svm_type c_svc
kernel_type rbf
gamma 0.019230769230769232
nr_class 8
total_sv 35
rho -0.3687157928943634 -0.015376429301214 -0.010095715522766113 0.022159039974212646 -0.2853964567184448 -0.4270465398586605 0.40518423914909363 0.6461318731307983 0.95616378812876 0.940761536359787 -0.018706947565078735 0.029083043336868286 0.9680923722067433 0.21393698453903195 0.21074265241622925 -0.6377406716346741 -0.6217247843742371 0.6002200841903687 0.7185256481170654 -0.9549285796216616 -0.9411439597606659 0.9383549247498354 -0.9952669711013725 -0.9020158648490906 0.7010748982429504 0.03062012791633606 0.9719455147260228 0.9571381165083471
label 3 7 4 0 5 6 2 1
nr_sv 3 2 4 5 6 2 2 11
SV
0.05115685310808726 0.6922249191602862 1.0 1.0 0.0 0.3865251057715335 1.0 1:1.0 2:1.0 3:0.26 4:1.0 5:0.11 6:0.14 8:1.0 9:1.0 10:1.0 11:1.0 12:1.0 13:0.12 14:1.0 15:0.5 16:0.08 17:0.33 18:0.5 19:0.33 20:1.0 21:1.0 22:0.12 23:1.0 24:0.2 25:0.5 26:1.0 27:1.0 28:0.14 29:0.25 30:1.0 32:0.5 33:1.0 34:0.14 35:1.0 37:0.14 38:1.0 39:0.33 40:0.33 41:1.0 42:1.0 43:1.0 45:0.2 46:1.0 47:1.0 48:1.0 49:0.14 50:0.17 51:0.25 
1.0 1.0 1.0 1.0 1.0 0.6396315006217318 1.0 1:1.0 2:1.0 3:0.26 4:1.0 5:0.11 6:0.29 8:1.0 9:1.0 10:1.0 11:1.0 12:1.0 13:0.12 14:1.0 15:0.5 16:0.08 17:0.33 18:0.5 19:0.33 20:1.0 21:1.0 22:0.12 23:1.0 24:0.2 25:0.5 26:1.0 27:1.0 28:0.14 29:0.25 30:1.0 32:1.0 33:1.0 34:0.14 35:1.0 37:0.14 38:1.0 39:0.33 40:0.33 41:1.0 42:1.0 43:1.0 45:0.2 46:1.0 47:1.0 48:1.0 49:0.14 50:0.17 51:0.25 
0.9488431468919127 1.0 1.0 1.0 1.0 0.9738433936067347 1.0 1:1.0 2:1.0 3:0.16 4:1.0 5:0.11 8:1.0 9:1.0 10:1.0 11:1.0 12:1.0 13:0.12 14:1.0 17:0.08 18:0.5 20:1.0 21:1.0 22:0.12 23:1.0 24:0.2 25:0.5 26:1.0 27:1.0 28:0.14 29:0.25 33:1.0 35:1.0 37:0.14 38:1.0 39:0.33 40:0.33 41:0.5 42:1.0 43:0.58 45:0.2 46:1.0 47:1.0 48:1.0 49:0.14 50:0.17 
-1.0 1.0 1.0 1.0 1.0 1.0 1.0 2:0.12 3:0.21 4:0.11 5:0.11 6:0.14 8:0.2 10:0.09 11:0.14 12:0.1 13:0.12 14:0.2 15:0.5 16:0.08 17:1.0 19:0.33 20:0.17 21:0.14 22:0.12 23:0.1 26:0.14 27:0.17 28:0.14 30:1.0 32:0.5 33:0.17 34:0.14 37:0.14 38:0.14 39:0.33 40:0.17 41:0.5 42:0.11 43:0.33 45:0.2 47:0.17 48:0.17 49:0.14 50:0.17 51:0.25 
-1.0 1.0 1.0 1.0 1.0 1.0 1.0 3:0.05 5:0.11 6:1.0 13:0.12 15:0.5 16:0.08 17:0.08 19:0.33 22:0.12 28:0.14 32:1.0 34:0.14 37:0.14 39:0.17 40:0.17 41:0.5 43:0.08 45:0.2 49:0.14 50:0.17 51:0.25 
-1.0 -0.0 1.0 1.0 0.0 0.13881527990276296 1.0 1:0.33 2:0.38 3:0.21 4:0.33 5:1.0 6:0.14 8:0.4 9:0.4 10:0.27 11:0.43 12:0.3 13:1.0 14:0.2 15:1.0 16:0.08 17:0.17 18:1.0 19:0.33 20:0.5 21:0.43 22:1.0 23:0.3 24:0.2 25:0.5 26:0.43 27:0.5 28:1.0 29:0.25 31:1.0 32:0.5 33:0.5 34:0.14 36:1.0 37:1.0 38:0.43 39:1.0 40:1.0 41:1.0 42:0.33 43:0.33 44:1.0 45:1.0 47:0.5 48:0.5 49:1.0 50:1.0 51:0.25 
-0.5233488238971344 -0.920415519541339 1.0 1.0 0.5493600581122517 0.0 1.0 1:0.17 2:0.12 3:0.16 4:0.11 5:1.0 6:0.43 9:0.2 10:0.09 11:0.14 12:0.1 13:1.0 15:0.5 16:0.08 17:0.08 19:0.33 20:0.17 21:0.14 22:1.0 23:0.1 26:0.14 27:0.17 28:1.0 31:1.0 32:1.0 33:0.17 34:0.14 37:1.0 38:0.14 39:0.83 40:1.0 41:0.5 42:0.11 43:0.17 44:1.0 45:1.0 47:0.17 48:0.17 49:1.0 50:1.0 51:0.25 
-1.0 -0.07958448045866091 1.0 1.0 1.0 1.0 1.0 2:0.12 3:0.16 4:0.11 5:1.0 6:0.14 8:0.2 10:0.09 11:0.14 12:0.1 13:1.0 14:0.2 15:0.5 16:0.08 17:0.17 19:0.33 20:0.17 21:0.14 22:1.0 23:0.1 26:0.14 27:0.17 28:1.0 31:1.0 32:0.5 33:0.17 34:0.14 37:1.0 38:0.14 39:1.0 40:0.83 41:0.5 42:0.11 43:0.17 44:1.0 45:1.0 47:0.17 48:0.17 49:1.0 50:1.0 51:0.25 
-0.16887609526315178 -1.0 1.0 1.0 0.4506399418877482 0.861184720097237 1.0 2:0.12 3:0.16 4:0.11 5:1.0 6:0.29 8:0.2 10:0.09 11:0.14 12:0.1 13:1.0 14:0.2 15:0.5 16:0.08 17:0.17 19:0.33 20:0.17 21:0.14 22:1.0 23:0.1 26:0.14 27:0.17 28:1.0 31:1.0 32:0.5 33:0.17 34:0.14 37:1.0 38:0.14 39:1.0 40:0.83 41:0.5 42:0.11 43:0.17 44:1.0 45:1.0 47:0.17 48:0.17 49:1.0 50:1.0 51:0.25 
-0.0 -0.0 -1.0 1.0 0.0 0.0 1.0 3:0.05 5:0.11 6:0.14 13:0.12 15:0.5 16:0.08 17:0.08 19:0.33 22:0.12 28:0.14 32:0.5 34:1.0 37:0.14 39:0.17 40:0.17 41:0.5 43:0.08 45:0.2 49:0.14 50:0.17 51:0.25 
-0.0 -0.13802414375476701 -1.0 1.0 0.6008221818437353 0.0 1.0 3:0.05 5:0.11 6:0.14 13:0.12 15:0.5 16:0.08 17:0.08 19:0.33 22:0.12 28:0.14 32:0.5 34:1.0 37:0.14 39:0.17 40:0.17 41:0.5 43:0.08 45:0.2 49:0.14 50:0.17 51:0.25 
-1.0 -1.0 -1.0 1.0 0.9322877385977484 0.4542102938371498 1.0 3:0.05 5:0.11 6:0.14 13:0.12 15:0.5 16:0.08 17:0.08 19:0.33 22:0.12 28:0.14 32:0.5 34:1.0 37:0.14 39:0.17 40:0.17 41:0.5 43:0.08 45:0.2 49:0.14 50:0.17 51:0.25 
-1.0 -0.8016710818932438 -0.1584412325451157 1.0 0.3053116588424748 1.0 1.0 2:0.12 3:0.11 4:0.11 8:0.2 10:0.09 11:0.14 12:0.1 14:0.2 17:0.25 20:0.17 21:0.14 23:0.1 26:0.14 27:0.17 30:0.5 33:0.17 38:0.14 39:0.17 42:0.11 43:0.17 47:0.17 48:0.17 
-1.0 -0.06030477435198926 -0.8415587674548843 1.0 0.1615784207160415 0.5457897061628503 1.0 1:0.17 2:0.12 3:0.05 4:0.11 8:0.2 9:0.2 10:0.09 11:0.14 12:0.1 17:0.08 18:0.5 20:0.17 21:0.14 23:0.1 24:0.2 25:0.5 26:0.14 27:0.17 29:0.25 30:0.5 33:0.17 38:0.14 41:0.5 42:0.11 43:0.17 47:0.17 48:0.17 
-0.0 -0.0 -0.0 -1.0 0.0 0.0 1.0 7:1.0 16:0.08 19:0.67 51:0.75 52:1.0 
-1.0 -0.0 -1.0 -0.12575165752011674 0.0 0.0 1.0 1:0.33 2:0.25 3:0.11 4:0.22 5:0.11 6:0.29 7:1.0 8:0.2 9:0.4 10:0.18 11:0.29 12:0.2 13:0.12 15:1.0 16:0.15 17:0.08 18:1.0 19:1.0 20:0.33 21:0.29 22:0.12 23:0.2 24:0.2 25:0.5 26:0.29 27:0.33 28:0.14 29:0.25 32:1.0 33:0.33 34:0.14 36:1.0 37:0.14 38:0.29 39:0.17 40:0.33 41:1.0 42:0.22 43:0.25 45:0.2 47:0.33 48:0.33 49:0.14 50:0.17 51:1.0 52:1.0 
-0.0 -0.0 -1.0 -1.0 0.8805289838328682 0.0 1.0 3:0.05 5:0.11 6:0.14 7:1.0 13:0.12 15:0.5 16:0.23 17:0.08 19:1.0 22:0.12 28:0.14 32:0.5 34:0.14 37:0.14 39:0.17 40:0.17 41:0.5 43:0.17 45:0.2 49:0.14 50:0.17 51:1.0 52:1.0 
-1.0 -0.40930709725501446 -0.0 -1.0 0.2861769355287012 1.0 1.0 7:1.0 16:0.08 19:0.67 51:0.75 52:1.0 
-0.0 -0.5906929027449855 -1.0 -0.8742483424798833 0.0 0.0 1.0 3:0.05 5:0.11 6:0.29 7:1.0 13:0.12 15:0.5 16:0.15 17:0.17 19:1.0 22:0.12 28:0.14 32:1.0 34:0.14 37:0.14 39:0.17 40:0.17 41:0.5 43:0.08 45:0.2 49:0.14 50:0.17 51:1.0 52:1.0 
-1.0 -1.0 -1.0 -1.0 0.8332940806384306 1.0 1.0 1:0.17 2:0.12 3:0.11 4:0.11 5:0.11 6:0.29 9:0.2 10:0.09 11:0.14 12:0.1 13:0.12 15:1.0 16:0.08 17:0.08 18:0.5 19:0.33 20:0.17 21:0.14 22:0.12 23:0.1 26:0.14 27:0.17 28:0.14 32:1.0 33:0.17 34:0.14 36:1.0 37:0.14 38:0.14 39:0.17 40:0.33 41:0.5 42:0.11 43:0.17 45:0.2 47:0.17 48:0.17 49:0.14 50:0.17 51:0.25 
-1.0 -1.0 -1.0 -1.0 -1.0 1.0 1.0 3:0.05 5:0.11 6:0.14 7:0.33 13:0.12 15:0.5 16:1.0 17:0.08 19:0.67 22:0.12 28:0.14 32:0.5 34:0.14 37:0.14 39:0.17 40:0.17 41:0.5 43:0.08 45:0.2 49:0.14 50:0.17 51:0.5 
-1.0 -1.0 -1.0 -1.0 -1.0 1.0 1.0 3:0.05 5:0.11 6:0.14 7:0.33 13:0.12 15:0.5 16:1.0 17:0.08 19:0.67 22:0.12 28:0.14 32:0.5 34:0.14 37:0.14 39:0.17 40:0.17 41:0.5 43:0.08 45:0.2 49:0.14 50:0.17 51:0.5 
-1.0 -1.0 -1.0 -1.0 -1.0 -1.0 1.0 3:0.11 17:0.17 30:1.0 43:0.33 
-1.0 -1.0 -1.0 -1.0 -1.0 -1.0 1.0 1:0.17 2:0.25 3:1.0 4:0.22 5:0.22 6:0.14 8:0.2 9:0.2 10:0.18 11:0.29 12:0.2 13:0.25 14:0.2 15:0.5 16:0.08 17:0.33 19:0.33 20:0.33 21:0.29 22:0.25 23:0.2 26:0.29 27:0.33 28:0.29 30:1.0 32:0.5 33:0.33 34:0.14 37:0.29 38:0.29 39:0.5 40:0.5 41:0.5 42:0.22 43:0.42 45:0.4 47:0.33 48:0.33 49:0.29 50:0.33 51:0.25 
-1.0 -0.0 -1.0 -0.0 -0.0 -0.0 -0.0 1:0.33 2:0.38 3:0.21 4:0.33 5:0.33 6:0.14 8:0.4 9:0.4 10:0.27 11:0.43 12:0.3 13:0.38 14:0.2 15:1.0 16:0.08 17:0.17 18:1.0 19:0.33 20:0.5 21:0.43 22:0.38 23:0.3 24:0.2 25:0.5 26:0.43 27:0.5 28:0.43 29:0.25 32:0.5 33:0.5 34:0.14 36:1.0 37:0.43 38:0.43 39:0.67 40:0.67 41:1.0 42:0.33 43:0.33 45:0.4 47:0.5 48:0.5 49:0.43 50:0.5 51:0.25 
-0.0 -0.6509859571001655 -0.0 -1.0 -1.0 -0.778360397919503 -0.319826266296728 1:0.17 2:0.12 3:0.05 4:0.11 5:0.11 6:0.14 8:0.2 9:0.2 10:0.09 11:0.14 12:0.1 13:0.12 15:0.5 16:0.08 17:0.08 18:0.5 19:0.33 20:0.17 21:0.14 22:0.12 23:0.1 24:0.2 25:0.5 26:0.14 27:0.17 28:0.14 29:0.25 32:0.5 33:0.17 34:0.14 37:0.14 38:0.14 39:0.17 40:0.17 41:1.0 42:0.11 43:0.17 45:0.2 47:0.17 48:0.17 49:0.14 50:0.17 51:0.25 
-0.0 -0.6171964219805657 -0.0 -0.9292313217503105 -1.0 -0.255616454862825 -0.0 1:0.17 2:0.12 3:0.11 4:0.11 5:0.11 6:0.29 9:0.2 10:0.09 11:0.14 12:0.1 13:0.12 15:1.0 16:0.08 17:0.08 18:0.5 19:0.33 20:0.17 21:0.14 22:0.12 23:0.1 26:0.14 27:0.17 28:0.14 32:1.0 33:0.17 34:0.14 36:1.0 37:0.14 38:0.14 39:0.17 40:0.33 41:0.5 42:0.11 43:0.17 45:0.2 47:0.17 48:0.17 49:0.14 50:0.17 51:0.25 
-0.32140629305619905 -0.0 -1.0 -0.0 -0.5590476092138491 -0.0 -0.3045449142021634 1:0.17 2:0.25 3:0.16 4:0.22 5:0.22 6:0.29 8:0.2 9:0.2 10:0.18 11:0.29 12:0.2 13:0.25 14:0.2 15:1.0 16:0.08 17:0.17 18:0.5 19:0.33 20:0.33 21:0.29 22:0.25 23:0.2 26:0.29 27:0.33 28:0.29 32:0.5 33:0.33 34:0.14 36:1.0 37:0.29 38:0.29 39:0.5 40:0.5 41:0.5 42:0.22 43:0.25 44:0.33 45:0.4 47:0.33 48:0.33 49:0.29 50:0.33 51:0.25 
-0.0 -0.0 -1.0 -0.0 -0.0 -0.0 -0.0 1:0.17 2:0.12 3:0.11 4:0.11 5:0.33 6:0.29 8:0.2 9:0.2 10:0.09 11:0.14 12:0.1 13:0.38 15:1.0 16:0.08 17:0.08 18:1.0 19:0.33 20:0.17 21:0.14 22:0.38 23:0.1 24:1.0 25:1.0 26:0.14 27:0.17 28:0.43 29:1.0 32:0.5 33:0.17 34:0.14 36:1.0 37:0.43 38:0.14 39:0.5 40:0.5 41:1.0 42:0.11 43:0.17 44:0.33 45:0.6 47:0.17 48:0.17 49:0.43 50:0.5 51:0.25 
-1.0 -0.0 -0.0 -0.0 -0.0 -0.0 -0.20951308583410966 1:0.33 2:0.38 3:0.16 4:0.33 8:0.4 9:0.4 10:0.27 11:0.43 12:0.3 14:0.2 15:0.5 17:0.17 18:1.0 20:0.5 21:0.43 23:0.3 24:1.0 25:1.0 26:0.43 27:0.5 29:1.0 30:0.5 33:0.5 36:1.0 38:0.43 39:0.17 40:0.17 41:0.5 42:0.33 43:0.33 47:0.5 48:0.5 
-0.0 -0.0 -0.0 -0.0 -0.4409523907861509 -0.0 -0.0 1:0.17 2:0.12 3:0.05 4:0.11 5:0.11 6:0.14 8:0.2 9:0.2 10:0.09 11:0.14 12:0.1 13:0.12 15:1.0 16:0.08 17:0.08 18:1.0 19:0.33 20:0.17 21:0.14 22:0.12 23:0.1 24:1.0 25:1.0 26:0.14 27:0.17 28:0.14 29:1.0 32:0.5 33:0.17 34:0.14 36:1.0 37:0.14 38:0.14 39:0.17 40:0.17 41:1.0 42:0.11 43:0.17 45:0.2 47:0.17 48:0.17 49:0.14 50:0.17 51:0.25 
-0.0 -0.0 -0.0 -1.0 -1.0 -0.0 -0.1661157336669988 5:0.11 6:0.14 13:0.12 22:0.12 28:0.14 37:0.14 39:0.17 40:0.17 44:0.33 45:0.2 49:0.14 50:0.17 
-0.0 -0.7318176209192688 -1.0 -1.0 -1.0 -0.7441768522943573 -1.0 5:0.11 6:0.14 13:0.12 22:0.12 28:0.14 37:0.14 39:0.17 40:0.17 44:0.33 45:0.2 49:0.14 50:0.17 
-0.0 -0.0 -0.0 -0.6191291465401942 -1.0 -0.22184629492331462 -0.0 1:0.17 2:0.12 3:0.05 4:0.11 6:0.14 7:0.33 9:0.2 10:0.09 11:0.14 12:0.1 15:0.5 16:0.15 18:0.5 19:0.33 20:0.17 21:0.14 23:0.1 26:0.14 27:0.17 32:0.5 33:0.17 36:1.0 38:0.14 40:0.17 42:0.11 43:0.08 47:0.17 48:0.17 51:0.25 
-0.678593706943801 -0.0 -0.0 -0.45163953170949506 -0.0 -0.0 -0.0 1:0.33 2:0.25 3:0.05 4:0.22 6:0.14 8:0.2 9:0.4 10:0.18 11:0.29 12:0.2 18:0.5 20:0.33 21:0.29 23:0.2 24:1.0 25:1.0 26:0.29 27:0.33 29:1.0 32:0.5 33:0.33 38:0.29 40:0.17 41:0.5 42:0.22 43:0.17 47:0.33 48:0.33 
