svm_type c_svc
kernel_type rbf
gamma 0.0196078431372549
nr_class 8
total_sv 47
rho 0.044804900884628296 0.6532280445098877 0.30127570033073425 0.21401280164718628 -0.24005046486854553 0.7377941012382507 0.8171937167644501 0.5092136561870575 0.6543892025947571 0.5952998995780945 -0.36789679527282715 0.7791644036769867 0.8930975682022161 0.13915789127349856 0.005721479654312134 -0.1950569450855255 0.00458940863609314 0.7981127500534058 -0.08528947830200195 -0.3603740036487579 -0.3100748658180237 0.017375895608671203 -0.58177250623703 0.04304736852645874 0.60766866295049 0.41028541326522827 0.41297103318034745 0.9169855651121803
label 3 7 4 0 5 6 2 1
nr_sv 4 4 5 8 5 3 5 13
SV
1.0 1.0 1.0 1.0 1.0 1.0 1.0 3:0.2 6:0.29 10:1.0 11:0.33 13:0.17 14:0.17 16:0.14 17:0.29 18:0.11 27:0.5 30:0.14 31:0.33 32:0.17 34:0.5 36:0.17 37:1.0 38:0.25 40:0.2 42:0.25 43:0.14 44:0.1 45:0.17 47:0.2 48:0.2 49:0.14 50:0.2 
1.0 1.0 1.0 1.0 0.0 1.0 1.0 2:0.5 3:0.2 6:0.29 7:1.0 9:1.0 10:1.0 11:0.33 14:0.17 16:0.14 17:0.14 18:0.33 20:1.0 21:1.0 24:1.0 26:1.0 27:1.0 28:1.0 30:0.14 31:0.33 34:1.0 36:0.17 37:1.0 39:1.0 40:0.2 44:0.2 45:0.17 46:1.0 48:0.2 51:0.33 
1.0 1.0 1.0 1.0 1.0 1.0 1.0 2:0.5 3:0.2 6:0.29 7:0.43 9:0.43 10:1.0 11:0.33 14:0.17 16:0.14 17:0.14 18:0.33 20:0.5 21:0.43 24:0.5 26:0.5 27:1.0 28:0.43 30:0.14 31:0.33 34:1.0 36:0.17 37:1.0 39:1.0 40:0.2 43:0.14 44:0.2 45:0.17 46:0.38 48:0.2 51:0.33 
1.0 1.0 1.0 1.0 1.0 1.0 1.0 2:0.75 7:1.0 9:1.0 18:0.33 20:1.0 21:1.0 24:1.0 26:1.0 27:0.5 28:1.0 34:0.5 39:1.0 44:0.2 46:1.0 51:0.67 
-1.0 1.0 1.0 1.0 1.0 1.0 1.0 3:0.2 6:0.14 10:0.5 11:0.17 13:0.17 14:0.17 16:0.14 17:0.29 18:0.11 27:0.25 30:1.0 31:0.17 32:0.17 34:0.17 35:0.2 36:0.17 37:0.33 38:0.25 40:0.2 43:0.14 44:0.1 45:0.17 47:0.2 48:0.2 49:0.14 50:0.2 
-1.0 1.0 1.0 1.0 1.0 1.0 1.0 3:0.2 6:0.14 10:0.5 11:0.17 13:0.17 14:0.17 16:0.14 17:0.29 18:0.11 27:0.25 30:1.0 31:0.17 32:0.17 34:0.17 35:0.2 36:0.17 37:0.33 38:0.25 40:0.2 43:0.14 44:0.1 45:0.17 47:0.2 48:0.2 49:0.14 50:0.2 
-1.0 1.0 1.0 1.0 0.0 1.0 1.0 3:0.2 6:1.0 10:0.5 11:1.0 14:0.17 16:0.14 17:0.14 18:0.11 27:0.25 30:0.14 31:1.0 34:0.33 36:0.17 37:0.67 40:0.2 44:0.1 45:0.17 48:0.2 
-1.0 1.0 1.0 1.0 1.0 1.0 1.0 3:0.2 6:1.0 10:0.5 11:1.0 14:0.17 16:0.14 17:0.14 18:0.11 27:0.25 30:0.14 31:1.0 34:0.33 36:0.17 37:0.67 40:0.2 44:0.1 45:0.17 48:0.2 
-1.0 -1.0 1.0 1.0 0.2920507608952251 1.0 1.0 2:1.0 3:0.2 6:0.14 7:0.29 9:0.29 10:1.0 11:0.17 14:0.17 16:0.14 17:0.14 18:1.0 20:0.33 21:0.29 24:0.33 26:0.33 27:1.0 28:0.29 30:0.14 31:0.17 34:0.67 36:0.17 37:0.67 39:0.67 40:0.2 44:1.0 45:0.17 46:0.25 48:0.2 51:1.0 
-0.3405846852333758 -1.0 1.0 1.0 1.0 1.0 1.0 2:0.75 3:0.2 6:0.29 7:0.14 9:0.14 10:0.5 11:0.33 14:0.17 16:0.14 17:0.14 18:0.89 20:0.17 21:0.14 24:0.17 26:0.17 27:0.5 28:0.14 30:0.14 31:0.33 34:0.5 36:0.17 37:0.67 39:0.33 40:0.2 44:1.0 45:0.17 46:0.12 48:0.2 51:1.0 
-1.0 -0.0 1.0 1.0 0.0 1.0 1.0 2:1.0 3:0.2 6:0.14 7:0.43 9:0.43 10:1.0 11:0.17 14:0.17 16:0.14 17:0.14 18:1.0 20:0.5 21:0.43 24:0.5 26:0.5 27:1.0 28:0.43 30:0.14 31:0.17 34:0.83 36:0.17 37:0.67 39:1.0 40:0.2 44:1.0 45:0.17 46:0.38 48:0.2 51:1.0 
-0.6594153147666242 -1.0 1.0 1.0 0.7079492391047749 1.0 1.0 2:1.0 3:0.2 6:0.29 7:0.29 9:0.29 10:0.5 11:0.33 14:0.17 16:0.14 17:0.14 18:1.0 20:0.33 21:0.29 24:0.33 26:0.33 27:0.75 28:0.29 30:0.14 31:0.33 34:0.5 36:0.17 37:0.33 39:0.67 40:0.2 44:1.0 45:0.17 46:0.25 48:0.2 51:1.0 
-1.0 -1.0 1.0 1.0 1.0 1.0 1.0 2:1.0 6:0.14 7:0.29 9:0.29 11:0.17 18:0.44 20:0.33 21:0.29 24:0.33 26:0.33 27:0.5 28:0.29 31:0.17 34:0.33 39:0.67 44:0.3 46:0.25 51:1.0 
-0.0 -0.0 -0.0 0.0 0.0 0.0 0.1753301216206716 3:1.0 4:1.0 5:1.0 6:0.14 10:0.5 11:0.17 14:1.0 15:1.0 16:1.0 17:0.14 18:0.11 19:1.0 22:1.0 27:0.25 30:0.14 31:0.17 33:1.0 34:0.17 36:1.0 37:0.33 40:1.0 44:0.1 45:1.0 48:1.0 
-1.0 -1.0 -1.0 1.0 1.0 1.0 1.0 2:0.25 6:0.14 7:0.14 9:0.14 11:0.17 18:0.11 20:0.17 21:0.14 24:0.17 26:0.17 27:0.25 28:0.14 31:0.17 34:0.33 37:0.33 39:0.33 43:0.14 44:0.1 46:0.12 51:0.33 
-0.6318203627141562 -1.0 -0.958767046038714 1.0 0.22842782324772798 0.7600204381108456 1.0 3:0.8 4:1.0 5:1.0 6:0.86 11:0.83 14:0.83 15:1.0 16:0.86 19:1.0 22:1.0 31:0.83 33:1.0 34:0.17 36:0.83 37:0.33 40:0.8 45:0.83 48:0.8 
-0.0 -0.0 -0.0 0.0 0.0 0.0 1.0 3:1.0 4:1.0 5:1.0 6:0.14 10:0.5 11:0.17 14:1.0 15:1.0 16:1.0 17:0.14 18:0.11 19:1.0 22:1.0 27:0.25 30:0.14 31:0.17 33:1.0 34:0.17 36:1.0 37:0.33 40:1.0 44:0.1 45:1.0 48:1.0 
-0.0 -0.0 -0.041232953961285984 0.0 0.0 0.2399795618891544 1.0 3:1.0 4:1.0 5:1.0 6:0.14 10:0.5 11:0.17 14:1.0 15:1.0 16:1.0 17:0.14 18:0.11 19:1.0 22:1.0 27:0.25 30:0.14 31:0.17 33:1.0 34:0.17 36:1.0 37:0.33 40:1.0 44:0.1 45:1.0 48:1.0 
-0.3681796372858438 -0.0 -1.0 1.0 0.0 1.0 1.0 3:1.0 4:1.0 5:1.0 6:0.14 10:0.5 11:0.17 14:1.0 15:1.0 16:1.0 17:0.14 18:0.11 19:1.0 22:1.0 27:0.25 30:0.14 31:0.17 33:1.0 34:0.17 36:1.0 37:0.33 40:1.0 44:0.1 45:1.0 48:1.0 
-1.0 -1.0 -1.0 1.0 0.7715721767522721 1.0 0.9672788326203735 3:1.0 4:1.0 5:1.0 6:0.14 10:0.5 11:0.17 14:1.0 15:1.0 16:1.0 17:0.14 18:0.11 19:1.0 22:1.0 27:0.25 30:0.14 31:0.17 33:1.0 34:0.17 36:1.0 37:0.33 40:1.0 44:0.1 45:1.0 48:1.0 
-1.0 -1.0 -1.0 1.0 1.0 1.0 1.0 7:0.14 9:0.14 13:0.17 17:0.14 20:0.17 21:0.14 24:0.17 26:0.17 28:0.14 32:0.17 38:0.25 42:0.25 43:0.14 46:0.12 47:0.2 49:0.14 50:0.2 
-0.0 -0.0 -1.0 -1.0 1.0 1.0 1.0 1:1.0 8:1.0 13:0.33 17:0.29 23:1.0 25:1.0 29:1.0 30:0.14 32:0.33 35:0.4 38:0.25 42:0.25 43:0.29 47:0.4 49:0.29 50:0.4 
-1.0 -1.0 -1.0 -1.0 0.0 1.0 1.0 1:1.0 2:0.25 3:0.2 6:0.29 7:0.14 8:1.0 9:0.14 10:0.5 11:0.33 13:0.17 14:0.17 16:0.14 17:0.29 18:0.22 20:0.17 21:0.14 23:1.0 24:0.17 25:1.0 26:0.17 27:0.5 28:0.14 29:1.0 30:0.14 31:0.33 32:0.17 34:0.5 35:0.2 36:0.17 37:0.67 39:0.33 40:0.2 42:0.25 43:0.14 44:0.2 45:0.17 46:0.12 47:0.2 48:0.2 49:0.14 50:0.2 51:0.33 
-1.0 -1.0 -1.0 -1.0 1.0 1.0 1.0 1:1.0 8:1.0 13:0.33 17:0.29 23:1.0 25:1.0 29:1.0 30:0.14 32:0.33 35:0.4 38:0.25 42:0.25 43:0.29 47:0.4 49:0.29 50:0.4 
-1.0 -1.0 -1.0 -1.0 0.0 1.0 1.0 1:1.0 8:1.0 13:0.17 17:0.14 23:1.0 25:1.0 29:1.0 32:0.17 35:0.2 42:0.25 43:0.14 47:0.2 49:0.14 50:0.2 
-1.0 -1.0 -1.0 -1.0 1.0 1.0 1.0 2:0.25 3:0.2 6:0.29 7:0.14 9:0.14 10:0.5 11:0.33 14:0.17 16:0.14 17:0.14 18:0.22 20:0.17 21:0.14 24:0.17 26:0.17 27:0.5 28:0.14 30:0.14 31:0.33 34:0.5 36:0.17 37:0.67 39:0.33 40:0.2 44:0.2 45:0.17 46:0.12 48:0.2 51:0.33 
-1.0 -1.0 -1.0 -1.0 -1.0 1.0 1.0 1:0.17 8:0.25 12:1.0 13:1.0 17:0.86 23:0.2 25:0.5 29:0.33 30:0.14 32:1.0 35:1.0 38:1.0 41:1.0 42:1.0 43:1.0 47:1.0 49:1.0 50:1.0 
-1.0 -1.0 -1.0 -1.0 -1.0 1.0 1.0 1:0.17 2:0.25 3:0.2 6:0.14 7:0.14 8:0.25 9:0.14 10:0.5 11:0.17 12:1.0 13:1.0 14:0.17 16:0.14 17:1.0 18:0.22 20:0.17 21:0.14 23:0.2 24:0.17 25:0.5 26:0.17 27:0.5 28:0.14 29:0.33 30:0.29 31:0.17 32:1.0 34:0.33 35:1.0 36:0.17 37:0.33 38:1.0 39:0.33 40:0.2 41:1.0 42:1.0 43:0.86 44:0.2 45:0.17 46:0.12 47:1.0 48:0.2 49:1.0 50:1.0 51:0.33 
-1.0 -1.0 -1.0 -1.0 -1.0 1.0 1.0 1:0.17 3:0.2 6:0.29 8:0.25 10:0.5 11:0.33 12:1.0 13:1.0 14:0.17 16:0.14 17:1.0 18:0.11 23:0.2 25:0.5 27:0.25 29:0.33 30:0.29 31:0.33 32:1.0 34:0.33 35:1.0 36:0.17 37:0.67 38:1.0 40:0.2 41:1.0 42:1.0 43:1.0 44:0.1 45:0.17 47:1.0 48:0.2 49:1.0 50:1.0 
-1.0 -0.0 -1.0 -1.0 -1.0 -0.0 1.0 2:0.5 3:0.2 6:0.14 7:0.43 9:0.43 10:1.0 11:0.17 14:0.17 16:0.14 17:0.14 18:0.33 20:0.5 21:0.43 24:0.5 26:0.5 27:1.0 28:0.43 30:0.14 31:0.17 34:0.83 36:0.17 37:0.67 39:1.0 40:0.2 43:0.14 44:0.2 45:0.17 46:0.38 48:0.2 51:0.33 
-0.5839935186673094 -1.0 -1.0 -1.0 -1.0 -1.0 1.0 3:0.2 6:0.14 10:1.0 11:0.17 14:0.17 16:0.14 17:0.14 18:0.11 27:0.5 30:0.14 31:0.17 34:0.33 36:0.17 37:0.67 40:0.2 44:0.1 45:0.17 48:0.2 
-1.0 -1.0 -1.0 -1.0 -1.0 -1.0 1.0 2:0.75 3:0.2 6:0.29 7:0.43 9:0.43 10:1.0 11:0.33 13:0.17 14:0.17 16:0.14 17:0.29 18:0.44 20:0.5 21:0.43 24:0.5 26:0.5 27:1.0 28:0.43 30:0.14 31:0.33 32:0.17 34:0.67 36:0.17 37:0.67 38:0.25 39:0.67 40:0.2 42:0.25 43:0.14 44:0.3 45:0.17 46:0.38 47:0.2 48:0.2 49:0.14 50:0.2 51:0.67 
-0.4160064813326906 -1.0 -1.0 -1.0 -1.0 -1.0 1.0 2:0.25 18:0.11 44:0.1 51:0.33 
-1.0 -1.0 -1.0 -1.0 -1.0 -0.0 1.0 2:0.75 3:0.2 6:0.14 7:0.29 9:0.29 10:1.0 11:0.17 14:0.17 16:0.14 17:0.14 18:0.44 20:0.33 21:0.29 24:0.33 26:0.33 27:1.0 28:0.29 30:0.14 31:0.17 34:0.67 36:0.17 37:0.67 39:0.67 40:0.2 43:0.14 44:0.3 45:0.17 46:0.25 48:0.2 51:0.67 
-1.0 -0.2477674366349932 -1.0 -1.0 -0.5464046092173757 -0.14295778649848642 -1.0 2:0.5 3:0.2 6:0.14 7:0.14 9:0.14 10:1.0 11:0.17 14:0.17 16:0.14 17:0.14 18:0.33 20:0.17 21:0.14 24:0.17 26:0.17 27:0.75 28:0.14 30:0.14 31:0.17 34:0.5 36:0.17 37:0.67 39:0.33 40:0.2 44:0.2 45:0.17 46:0.12 48:0.2 51:0.33 
-1.0 -0.0 -1.0 -0.14260895424104508 -0.0 -0.0 -1.0 2:0.5 3:0.2 6:0.14 7:0.43 9:0.43 10:0.5 11:0.17 14:0.17 16:0.14 17:0.14 18:0.33 20:0.5 21:0.43 24:0.5 26:0.5 27:0.75 28:0.43 30:0.14 31:0.17 34:0.67 36:0.17 37:0.33 39:1.0 40:0.2 44:0.2 45:0.17 46:0.38 48:0.2 51:0.33 
-1.0 -0.12039469934029086 -0.0 -0.21848314374740163 -0.0 -0.2664699616031965 -0.24019897319193906 3:0.2 6:0.14 7:0.71 9:0.71 10:0.5 11:0.17 14:0.17 16:0.14 17:0.14 18:0.11 20:0.67 21:0.71 24:0.67 26:0.67 27:0.25 28:0.71 30:0.14 31:0.17 34:0.33 36:0.17 37:0.33 39:0.33 40:0.2 44:0.1 45:0.17 46:0.75 48:0.2 
-0.0 -0.0 -0.0 -0.0 -0.0 -0.0 -1.0 2:0.25 7:0.29 9:0.29 10:0.5 18:0.11 20:0.33 21:0.29 24:0.33 26:0.33 27:0.5 28:0.29 34:0.5 37:0.33 39:0.67 46:0.25 
-0.022353381311962826 -0.0 -1.0 -0.0 -0.0 -0.0 -0.27288332463367554 2:0.75 7:0.29 9:0.29 18:0.33 20:0.33 21:0.29 24:0.33 26:0.33 27:0.5 28:0.29 34:0.33 39:0.67 44:0.2 46:0.25 51:0.67 
-0.0 -0.0 -0.0 -1.0 -1.0 -0.0 -0.0 7:0.14 9:0.14 20:0.17 21:0.14 24:0.17 26:0.17 28:0.14 46:0.12 
-0.0 -0.0 -0.0 -0.6511113444123234 -0.9598725900815561 -0.2312229221753489 -0.0 7:0.14 9:0.14 20:0.17 21:0.14 24:0.17 26:0.17 28:0.14 46:0.12 
-0.0 -0.0 -1.0 -0.0 -0.0 -0.0 -0.0 2:0.5 7:0.29 9:0.29 18:0.22 20:0.33 21:0.29 24:0.33 26:0.33 27:0.5 28:0.29 34:0.33 39:0.67 44:0.1 46:0.25 51:0.33 
-0.0 -1.0 -0.0 -1.0 -0.0 -0.0 -0.0 2:0.25 3:0.2 6:0.29 10:0.5 11:0.33 14:0.17 16:0.14 17:0.14 18:0.22 27:0.25 30:0.14 31:0.33 34:0.17 36:0.17 37:0.33 40:0.2 44:0.2 45:0.17 48:0.2 51:0.33 
-0.9776466186880372 -0.0 -0.0 -1.0 -0.0 -0.0 -0.0 3:0.2 4:0.17 5:0.2 6:0.14 7:0.71 9:0.71 10:0.5 11:0.17 14:0.17 15:0.2 16:0.14 19:0.2 20:0.67 21:0.71 22:0.25 24:0.67 26:0.67 27:0.25 28:0.71 31:0.17 33:0.2 34:0.33 36:0.17 37:0.33 39:0.33 45:0.17 46:0.75 48:0.2 
-0.0 -1.0 -0.0 -1.0 -0.4937228007010683 -0.3593493297229683 -1.0 2:0.25 3:0.2 6:0.29 10:0.5 11:0.33 14:0.17 16:0.14 17:0.14 18:0.22 27:0.25 30:0.14 31:0.33 34:0.17 36:0.17 37:0.33 40:0.2 44:0.2 45:0.17 48:0.2 51:0.33 
-0.0 -1.0 -1.0 -1.0 -1.0 -1.0 -0.42855288686350357 2:0.25 3:0.2 6:0.29 10:0.5 11:0.33 14:0.17 16:0.14 17:0.14 18:0.22 27:0.25 30:0.14 31:0.33 34:0.17 36:0.17 37:0.33 40:0.2 44:0.2 45:0.17 48:0.2 51:0.33 
-0.0 -0.631837864024716 -0.0 -0.13040551184027488 -1.0 -1.0 -0.05836481531088178 1:0.17 2:0.25 6:0.14 7:0.14 8:0.25 9:0.14 11:0.17 13:0.33 17:0.29 18:0.11 20:0.17 21:0.14 23:0.2 24:0.17 25:0.5 26:0.17 27:0.25 28:0.14 29:0.33 30:0.14 31:0.17 32:0.33 34:0.33 35:0.4 37:0.33 38:0.25 39:0.33 42:0.25 43:0.29 44:0.1 46:0.12 47:0.4 49:0.29 50:0.4 51:0.33 
