svm_type c_svc
kernel_type rbf
gamma 0.011111111111111112
nr_class 8
total_sv 70
rho -0.6161469519138336 0.02979533704708972 -0.002223391848382048 -0.6852142234237545 -0.7880176468006259 -0.5810595930039829 0.769626284499967 0.04361525177266867 0.05509565946236672 0.6449856758117676 -0.8183148503303528 0.4555627405643463 0.6112832470813817 -0.0047019837218467385 -0.10766053199768066 -0.20840700853160918 -0.10179090728212555 0.0043061605725057215 -0.03996544973203914 -0.48506762868614905 0.09368302258102452 0.11832733345276152 -0.7743931032077054 0.4798489212989807 0.6043989292022975 0.7635276019573212 0.8464967395367878 0.7026845514774323
label 3 7 4 0 5 6 2 1
nr_sv 10 6 8 12 7 4 9 14
SV
0.0 0.0 0.7863012547242213 0.14246808483601808 0.0 1.0 1.0 3:0.33 6:0.17 13:0.33 16:0.17 17:0.67 20:0.17 24:0.5 25:0.2 26:0.17 34:1.0 35:0.33 38:0.2 41:0.33 43:0.2 46:0.17 48:0.5 50:0.5 52:1.0 55:0.5 58:0.29 59:0.25 61:1.0 63:0.12 66:0.14 68:0.17 71:0.25 75:0.33 77:0.4 80:0.29 81:0.17 87:0.2 88:0.25 90:0.2 
1.0 1.0 1.0 1.0 0.15924677556419314 0.16128165029926309 1.0 1:0.2 3:0.33 6:0.17 7:0.5 9:0.17 11:0.17 12:0.2 13:0.5 14:0.33 15:0.14 18:0.12 19:0.2 20:0.33 21:0.2 23:0.2 25:0.4 26:0.17 27:0.5 28:0.14 30:0.2 32:0.17 34:1.0 36:0.14 38:0.2 41:0.33 43:0.4 44:0.33 46:0.17 47:0.2 48:0.5 49:0.33 51:0.2 53:0.17 56:0.29 57:0.2 58:0.14 59:0.5 60:0.2 63:0.12 64:0.17 65:0.17 66:0.14 67:0.25 68:0.17 69:0.17 72:0.5 74:0.17 75:0.5 77:0.2 78:0.33 80:0.43 81:0.17 82:0.14 83:0.2 84:0.5 85:0.2 86:0.33 
0.0 0.0 1.0 0.6334633202822658 0.3449820262999988 1.0 1.0 3:0.33 6:0.17 8:0.5 10:0.25 13:0.33 16:0.17 17:0.67 20:0.17 24:0.5 25:0.2 26:0.17 31:0.2 34:1.0 35:0.67 38:0.2 41:0.33 43:0.2 45:0.25 46:0.17 48:0.5 50:0.5 52:0.67 55:0.5 58:0.29 59:0.25 61:0.4 63:0.12 66:0.14 68:0.17 71:0.25 72:0.5 75:0.33 77:0.4 80:0.29 81:0.17 87:0.2 88:0.25 89:1.0 90:0.2 
0.0 0.0 0.9821547567991333 1.0 0.5310257631679959 0.969250672080034 1.0 3:0.33 6:0.17 13:0.33 16:0.17 17:0.67 20:0.17 24:0.5 25:0.2 26:0.17 34:1.0 35:0.33 38:0.2 41:0.33 43:0.2 46:0.17 48:0.5 50:0.5 52:1.0 55:0.5 58:0.29 59:0.25 61:1.0 63:0.12 66:0.14 68:0.17 71:0.25 75:0.33 77:0.4 80:0.29 81:0.17 87:0.2 88:0.25 90:0.2 
1.0 0.17888447569501248 0.16982809462651172 0.26375298463581626 0.0 1.0 1.0 1:0.2 3:0.67 4:0.5 6:0.17 7:1.0 11:0.17 12:0.2 13:0.33 14:0.33 15:0.14 16:0.17 17:0.67 18:0.12 20:0.33 21:0.2 22:0.2 23:0.2 24:0.5 26:0.33 27:0.25 28:0.14 32:0.17 35:0.33 36:0.14 38:0.2 39:0.14 41:1.0 43:0.4 44:0.67 46:0.17 47:0.2 48:1.0 49:0.17 50:0.5 52:1.0 53:0.17 55:0.5 56:0.14 57:0.2 58:0.14 59:0.25 60:0.4 61:1.0 62:0.17 64:0.17 65:0.33 66:0.14 67:0.25 68:0.33 69:0.17 71:0.25 72:0.5 74:0.17 75:0.33 76:0.25 77:0.6 78:0.17 79:0.2 80:0.29 81:0.17 82:0.14 83:0.2 84:0.25 85:0.2 86:0.17 87:0.2 88:0.25 90:0.2 
1.0 0.37438066586076485 1.0 1.0 0.013137186188266967 1.0 1.0 1:0.2 3:0.67 4:0.5 7:1.0 8:0.5 11:0.17 12:0.2 13:0.17 14:0.33 15:0.14 16:0.17 17:0.33 18:0.12 20:0.17 21:0.2 22:0.2 23:0.2 24:0.25 26:0.17 27:0.25 28:0.14 32:0.17 35:0.33 36:0.14 39:0.14 41:0.67 43:0.2 44:0.67 47:0.2 48:0.5 49:0.17 53:0.17 55:0.5 56:0.14 57:0.2 59:0.25 60:0.4 62:0.17 63:0.12 64:0.17 65:0.33 67:0.25 68:0.17 69:0.17 71:0.25 72:0.5 73:0.2 74:0.17 75:0.17 76:0.25 77:0.4 78:0.17 79:0.2 80:0.14 82:0.14 83:0.2 84:0.25 85:0.2 86:0.17 88:0.25 
0.664732645444311 1.0 0.8082477087645591 0.0 0.853873254817792 1.0 1.0 1:0.2 2:1.0 3:0.67 4:1.0 6:0.17 7:1.0 10:0.25 11:0.17 12:0.2 13:0.5 14:0.33 15:0.14 16:0.33 17:0.67 18:0.12 20:0.33 21:0.2 22:0.2 23:0.2 24:0.5 25:0.2 26:0.33 27:0.25 28:0.14 31:0.2 32:0.17 35:0.33 36:0.14 38:0.2 39:0.14 41:1.0 43:0.4 44:0.67 45:0.25 46:0.17 47:0.2 48:1.0 49:0.17 50:0.5 52:1.0 53:0.17 55:0.5 56:0.14 57:0.2 58:0.14 59:0.25 60:0.4 61:1.0 62:0.17 64:0.17 65:0.33 66:0.14 67:0.25 68:0.33 69:0.17 71:0.25 72:0.5 73:0.2 74:0.17 75:0.33 76:0.25 77:0.6 78:0.17 79:0.2 80:0.43 81:0.17 82:0.14 83:0.2 84:0.25 85:0.2 86:0.17 87:0.2 88:0.5 90:0.2 
0.33526735455568907 1.0 1.0 1.0 1.0 1.0 1.0 1:0.2 3:0.67 6:0.17 7:0.5 11:0.17 12:0.2 13:0.5 14:0.33 15:0.14 16:0.17 17:0.33 18:0.12 20:0.33 21:0.2 23:0.2 24:0.25 25:0.2 26:0.33 27:0.25 28:0.14 32:0.17 34:1.0 35:0.33 36:0.14 38:0.2 41:0.67 43:0.4 44:0.33 46:0.17 47:0.2 48:1.0 49:0.17 50:0.5 52:0.33 53:0.17 56:0.14 57:0.2 58:0.29 59:0.5 60:0.2 61:0.2 63:0.12 64:0.17 65:0.17 66:0.14 67:0.25 68:0.33 69:0.17 71:0.25 72:0.5 74:0.17 75:0.5 77:0.4 78:0.17 80:0.43 81:0.17 82:0.14 83:0.2 84:0.25 85:0.2 86:0.17 87:0.2 88:0.25 90:0.2 
1.0 1.0 1.0 0.9603156102458998 0.09773499396175334 0.869467677620703 1.0 1:0.2 3:0.67 4:0.5 6:0.17 7:1.0 11:0.17 12:0.2 13:0.33 14:0.33 15:0.14 16:0.17 17:0.67 18:0.12 20:0.33 21:0.2 22:0.2 23:0.2 24:0.5 26:0.33 27:0.25 28:0.14 32:0.17 35:0.33 36:0.14 38:0.2 39:0.14 41:1.0 43:0.4 44:0.67 46:0.17 47:0.2 48:1.0 49:0.17 50:0.5 52:1.0 53:0.17 55:0.5 56:0.14 57:0.2 58:0.14 59:0.25 60:0.4 61:1.0 62:0.17 64:0.17 65:0.33 66:0.14 67:0.25 68:0.33 69:0.17 71:0.25 72:0.5 74:0.17 75:0.33 76:0.25 77:0.6 78:0.17 79:0.2 80:0.29 81:0.17 82:0.14 83:0.2 84:0.25 85:0.2 86:0.17 87:0.2 88:0.25 90:0.2 
1.0 1.0 1.0 1.0 1.0 1.0 1.0 1:0.2 3:1.0 4:0.5 6:0.17 7:1.0 8:0.5 11:0.17 12:0.2 13:0.33 14:0.33 15:0.14 16:0.33 17:0.67 18:0.12 20:0.33 21:0.2 22:0.2 23:0.2 24:0.5 26:0.33 27:0.25 28:0.14 32:0.17 35:0.67 36:0.14 38:0.2 39:0.14 41:1.0 43:0.4 44:0.67 46:0.17 47:0.2 48:1.0 49:0.17 50:0.5 52:0.33 53:0.17 55:0.5 56:0.14 57:0.2 58:0.14 59:0.25 60:0.4 61:0.2 62:0.17 63:0.12 64:0.17 65:0.33 66:0.14 67:0.25 68:0.33 69:0.17 71:0.5 72:0.5 73:0.2 74:0.17 75:0.33 76:0.25 77:0.6 78:0.17 79:0.2 80:0.29 81:0.17 82:0.14 83:0.2 84:0.25 85:0.2 86:0.17 87:0.2 88:0.5 90:0.2 
-1.0 1.0 1.0 1.0 1.0 1.0 1.0 1:0.2 3:0.67 4:0.5 6:0.17 7:1.0 11:0.17 12:0.2 13:0.33 14:0.33 15:0.14 16:0.17 17:0.33 18:0.12 20:0.33 21:0.2 22:0.2 23:0.2 24:0.25 26:0.5 27:0.25 28:0.14 32:0.17 35:0.33 36:0.14 38:0.2 39:0.71 41:1.0 43:0.4 44:0.67 46:0.17 47:0.2 48:1.0 49:0.17 50:1.0 52:0.33 53:0.17 54:0.25 56:0.14 57:0.2 58:0.71 59:0.25 60:1.0 61:0.2 62:0.83 64:0.17 65:1.0 66:0.14 67:0.25 68:1.0 69:0.17 71:0.25 72:0.5 74:0.17 75:0.33 76:0.25 77:0.4 78:0.17 79:1.0 80:0.29 81:0.17 82:0.14 83:0.2 84:0.25 85:0.2 86:0.17 87:0.2 88:0.25 90:0.4 
-1.0 1.0 1.0 1.0 1.0 1.0 1.0 1:0.2 4:0.5 5:0.2 7:0.5 11:0.17 13:0.17 14:0.33 15:0.14 18:0.12 20:0.17 22:1.0 24:0.25 25:0.2 26:0.33 28:0.14 29:0.2 32:0.17 36:0.14 37:0.5 39:1.0 40:0.2 41:0.33 42:0.2 43:0.2 44:0.67 47:0.2 50:0.5 53:0.17 54:0.5 58:0.57 59:0.25 60:0.8 62:1.0 64:0.17 65:0.83 68:0.67 69:0.17 74:0.17 75:0.17 76:1.0 77:0.2 79:1.0 80:0.14 82:0.14 83:0.2 90:0.4 
-1.0 1.0 1.0 1.0 1.0 1.0 1.0 1:0.2 3:0.67 4:0.5 6:0.17 7:1.0 11:0.17 12:0.2 13:0.33 14:0.67 15:0.14 16:0.17 17:0.33 18:0.12 20:0.33 21:0.2 22:1.0 23:0.2 24:0.25 26:0.5 27:0.25 28:0.14 32:0.17 35:0.33 36:0.14 37:0.5 38:0.2 39:0.29 41:1.0 43:0.4 44:1.0 46:0.17 47:0.2 48:1.0 49:0.17 50:0.5 52:0.33 53:0.17 54:0.25 56:0.14 57:0.2 58:0.14 59:0.25 60:0.4 61:0.2 62:0.33 64:0.17 65:0.33 66:0.14 67:0.25 68:0.33 69:0.17 71:0.25 72:0.5 74:0.17 75:0.33 76:1.0 77:0.4 78:0.17 79:0.2 80:0.29 81:0.17 82:0.14 83:0.2 84:0.25 85:0.2 86:0.17 87:0.2 88:0.25 90:0.4 
-1.0 0.39637007132398655 0.9315424260705663 1.0 0.0 1.0 1.0 1:0.2 3:0.33 4:0.5 7:1.0 11:0.17 12:0.2 13:0.17 14:0.67 15:0.14 18:0.12 20:0.17 21:0.2 22:1.0 23:0.2 26:0.5 27:0.25 28:0.14 32:0.17 36:0.14 37:0.5 39:1.0 41:0.67 43:0.2 44:1.0 47:0.2 48:0.5 49:0.17 50:0.5 53:0.17 54:0.5 56:0.14 57:0.2 58:0.71 59:0.25 60:1.0 62:1.0 64:0.17 65:1.0 67:0.25 68:0.83 69:0.17 72:0.5 74:0.17 75:0.17 76:1.0 77:0.2 78:0.17 79:1.0 80:0.14 82:0.14 83:0.2 84:0.25 85:0.2 86:0.17 90:0.4 
-1.0 0.0 1.0 1.0 0.06869677633797235 1.0 1.0 4:0.5 7:0.5 14:0.33 22:1.0 26:0.33 37:0.5 39:1.0 41:0.33 44:0.67 50:0.5 54:0.5 58:0.57 60:0.8 62:1.0 65:0.83 68:0.67 76:1.0 79:1.0 90:0.4 
-1.0 1.0 1.0 1.0 0.9313032236620277 1.0 1.0 1:0.2 3:0.67 4:0.5 6:0.33 7:1.0 9:0.17 11:0.17 12:0.2 13:0.33 14:0.67 15:0.14 16:0.17 17:0.33 18:0.12 19:0.2 20:0.33 21:0.2 22:1.0 23:0.2 24:0.25 26:0.67 27:0.25 28:0.14 30:0.2 32:0.17 35:0.33 36:0.14 37:0.5 38:0.4 39:0.86 41:1.0 43:0.4 44:1.0 46:0.33 47:0.2 48:1.0 49:0.33 50:1.0 51:0.2 52:0.33 53:0.17 54:0.5 56:0.29 57:0.2 58:0.86 59:0.25 60:1.0 61:0.2 62:1.0 64:0.17 65:1.0 66:0.29 67:0.25 68:1.0 69:0.17 70:0.2 71:0.25 72:0.5 74:0.17 75:0.33 76:1.0 77:0.4 78:0.33 79:1.0 80:0.29 81:0.33 82:0.14 83:0.2 84:0.5 85:0.2 86:0.33 87:0.4 88:0.25 90:0.6 
-0.19860335399206808 -0.0 0.6075208359447178 0.0 0.0 1.0 0.46149120066061416 1:1.0 2:1.0 3:1.0 4:0.5 5:1.0 6:0.33 7:0.5 8:0.5 9:0.17 10:0.25 11:1.0 12:1.0 13:1.0 14:0.33 15:1.0 16:0.5 17:1.0 18:1.0 19:0.2 20:1.0 21:1.0 23:1.0 24:1.0 25:1.0 26:0.5 27:1.0 28:1.0 29:1.0 30:0.2 31:0.2 32:1.0 33:1.0 34:1.0 35:0.67 36:1.0 38:0.4 40:1.0 41:0.67 42:1.0 43:1.0 44:0.33 45:0.25 46:0.33 47:1.0 48:1.0 49:0.33 50:0.5 51:0.2 52:0.67 53:1.0 54:0.25 55:1.0 56:0.29 57:1.0 58:0.29 59:1.0 60:0.2 61:0.4 63:0.38 64:1.0 65:0.17 66:0.29 67:1.0 68:0.33 69:1.0 71:0.5 72:0.5 73:0.4 74:1.0 75:1.0 77:1.0 78:0.33 80:1.0 81:0.33 82:1.0 83:1.0 84:0.5 85:1.0 86:0.33 87:0.2 88:0.75 90:0.4 
-1.0 -1.0 1.0 1.0 0.8471339002250198 1.0 1.0 1:1.0 3:0.33 5:1.0 7:0.5 11:1.0 12:1.0 13:0.5 14:0.33 15:1.0 18:1.0 20:0.5 21:1.0 23:1.0 24:0.25 25:0.6 26:0.17 27:0.5 28:1.0 29:1.0 32:1.0 33:1.0 34:1.0 36:1.0 40:1.0 41:0.33 42:1.0 43:0.6 44:0.33 47:1.0 48:0.5 49:0.17 53:1.0 56:0.14 57:1.0 58:0.14 59:1.0 60:0.2 63:0.12 64:1.0 65:0.17 67:1.0 68:0.17 69:1.0 72:0.5 74:1.0 75:0.67 77:0.4 78:0.17 80:0.57 82:1.0 83:1.0 84:0.25 85:1.0 86:0.17 
-0.3546617875637092 -0.5590111966666717 0.0 1.0 0.4647096943382175 0.2670387042017098 1.0 1:1.0 2:1.0 3:0.67 4:0.5 5:1.0 6:0.17 7:0.5 8:0.5 10:1.0 11:1.0 12:1.0 13:1.0 14:0.67 15:1.0 16:0.83 17:0.33 18:1.0 20:1.0 21:1.0 23:1.0 24:0.5 25:1.0 26:0.67 27:1.0 28:1.0 29:1.0 31:1.0 32:1.0 33:1.0 34:1.0 35:0.67 36:1.0 37:0.5 38:0.2 40:1.0 41:0.67 42:1.0 43:1.0 44:0.33 45:1.0 46:0.17 47:1.0 48:1.0 49:0.17 50:0.5 52:0.33 53:1.0 54:0.5 56:0.14 57:1.0 58:0.29 59:1.0 60:0.2 61:0.2 63:0.25 64:1.0 65:0.17 66:0.14 67:1.0 68:0.33 69:1.0 71:0.75 72:1.0 73:0.8 74:1.0 75:1.0 77:0.6 78:0.17 80:1.0 81:0.17 82:1.0 83:1.0 84:0.25 85:1.0 86:0.17 87:0.2 88:0.75 89:1.0 90:0.6 
-0.0 -0.0 0.0 0.0 0.0 1.0 1.0 1:1.0 2:1.0 3:1.0 4:0.5 5:1.0 6:0.17 7:0.5 8:1.0 10:0.5 11:1.0 12:1.0 13:1.0 14:0.33 15:1.0 16:0.5 17:0.67 18:1.0 20:1.0 21:1.0 23:1.0 24:0.75 25:1.0 26:0.5 27:1.0 28:1.0 29:1.0 31:0.4 32:1.0 33:1.0 34:1.0 35:1.0 36:1.0 38:0.2 40:1.0 41:0.67 42:1.0 43:1.0 44:0.33 45:0.5 46:0.17 47:1.0 48:1.0 49:0.17 50:0.5 52:0.33 53:1.0 54:0.25 55:0.5 56:0.14 57:1.0 58:0.29 59:1.0 60:0.2 61:0.2 63:0.38 64:1.0 65:0.17 66:0.14 67:1.0 68:0.33 69:1.0 71:0.5 72:1.0 73:0.4 74:1.0 75:1.0 77:0.8 78:0.17 80:1.0 81:0.17 82:1.0 83:1.0 84:0.25 85:1.0 86:0.17 87:0.2 88:0.75 89:1.0 90:0.4 
-1.0 -0.15510425566082864 1.0 0.0 0.6881564054367628 1.0 1.0 1:1.0 2:1.0 3:1.0 4:0.5 5:1.0 6:0.33 7:0.5 8:0.5 9:0.17 10:0.25 11:1.0 12:1.0 13:1.0 14:0.33 15:1.0 16:0.5 17:1.0 18:1.0 19:0.2 20:0.83 21:1.0 23:1.0 24:1.0 25:1.0 26:0.33 27:0.75 28:1.0 29:1.0 30:0.2 31:0.2 32:1.0 33:1.0 34:1.0 35:0.67 36:1.0 38:0.4 40:1.0 41:0.67 42:1.0 43:1.0 44:0.33 45:0.25 46:0.33 47:1.0 48:1.0 49:0.33 50:0.5 51:0.2 52:1.0 53:1.0 55:1.0 56:0.29 57:1.0 58:0.29 59:1.0 60:0.2 61:1.0 63:0.25 64:1.0 65:0.17 66:0.29 67:1.0 68:0.33 69:1.0 71:0.5 72:0.5 73:0.4 74:1.0 75:1.0 77:1.0 78:0.33 80:1.0 81:0.33 82:1.0 83:1.0 84:0.5 85:1.0 86:0.33 87:0.2 88:0.75 90:0.2 
-1.0 -1.0 1.0 1.0 1.0 1.0 0.6408562865734491 1:1.0 3:0.67 5:1.0 6:0.17 7:0.5 11:1.0 12:1.0 13:0.67 14:0.33 15:1.0 16:0.17 17:0.33 18:1.0 20:1.0 21:1.0 23:1.0 24:0.5 25:0.6 26:0.5 27:1.0 28:1.0 29:1.0 32:1.0 33:1.0 35:0.33 36:1.0 38:0.2 40:1.0 41:0.67 42:1.0 43:1.0 44:0.33 46:0.17 47:1.0 48:1.0 49:0.17 50:0.5 52:0.33 53:1.0 54:0.25 56:0.14 57:1.0 58:0.14 59:0.75 60:0.2 61:0.2 63:0.12 64:1.0 65:0.17 66:0.14 67:1.0 68:0.33 69:1.0 71:0.25 72:0.5 74:1.0 75:0.83 77:0.6 78:0.17 80:0.71 81:0.17 82:1.0 83:1.0 84:0.25 85:1.0 86:0.17 87:0.2 88:0.25 90:0.4 
-1.0 -0.6822546189964862 0.0 1.0 0.0 0.5286889581609324 0.0 1:1.0 3:0.67 5:1.0 6:0.17 7:0.5 11:1.0 12:1.0 13:0.83 14:0.33 15:1.0 16:0.17 17:0.33 18:1.0 20:0.83 21:1.0 23:1.0 24:0.5 25:0.8 26:0.33 27:0.75 28:1.0 29:1.0 32:1.0 33:1.0 34:1.0 35:0.33 36:1.0 38:0.2 40:1.0 41:0.67 42:1.0 43:1.0 44:0.33 46:0.17 47:1.0 48:1.0 49:0.17 50:0.5 52:0.33 53:1.0 56:0.14 57:1.0 58:0.43 59:1.0 60:0.2 61:0.2 63:0.12 64:1.0 65:0.17 66:0.14 67:1.0 68:0.33 69:1.0 71:0.25 72:0.5 74:1.0 75:1.0 77:0.6 78:0.17 80:0.86 81:0.17 82:1.0 83:1.0 84:0.25 85:1.0 86:0.17 87:0.2 88:0.25 90:0.2 
-1.0 -1.0 1.0 1.0 1.0 1.0 1.0 1:0.2 3:0.67 6:0.17 7:0.5 11:0.17 12:0.2 13:0.5 14:0.33 15:0.14 16:0.17 17:0.33 18:0.12 20:0.33 21:0.2 23:0.2 24:0.25 25:0.2 26:0.33 27:0.25 28:0.14 32:0.17 34:1.0 35:0.33 36:0.14 38:0.2 41:0.67 43:0.4 44:0.33 46:0.17 47:0.2 48:1.0 49:0.17 50:0.5 52:0.33 53:0.17 56:0.14 57:0.2 58:0.29 59:0.5 60:0.2 61:0.2 63:0.12 64:0.17 65:0.17 66:0.14 67:0.25 68:0.33 69:0.17 71:0.25 72:0.5 74:0.17 75:0.5 77:0.4 78:0.17 80:0.43 81:0.17 82:0.14 83:0.2 84:0.25 85:0.2 86:0.17 87:0.2 88:0.25 90:0.2 
-1.0 -0.0533226405346703 -0.8374720239393331 0.7927888436253859 0.07287091981892535 1.0 1.0 1:0.2 3:0.33 6:0.83 7:0.5 8:0.5 9:1.0 10:0.25 11:0.17 12:0.2 13:0.33 14:0.33 15:0.14 17:0.33 18:0.12 19:1.0 20:0.17 21:0.2 23:0.2 24:0.25 25:0.2 26:0.17 27:0.25 28:0.14 30:1.0 31:0.2 32:0.17 34:1.0 35:0.33 36:0.14 38:0.8 39:0.14 41:0.33 43:0.2 44:0.33 45:0.25 46:0.83 47:0.2 48:0.5 49:1.0 51:1.0 52:0.33 53:0.17 55:0.5 56:1.0 57:0.2 58:0.14 59:0.5 60:0.2 61:0.2 63:0.12 64:0.17 65:0.17 66:0.86 67:0.25 68:0.17 69:0.17 70:1.0 72:1.0 74:0.17 75:0.33 77:0.4 78:1.0 80:0.29 81:0.83 82:0.14 83:0.2 84:1.0 85:0.2 86:1.0 87:0.8 89:1.0 
-0.9430143614174031 -0.04060906691462038 -1.0 0.4029056721905058 0.3493424887166792 1.0 1.0 1:0.4 3:0.33 5:0.4 6:1.0 9:1.0 11:0.17 12:0.2 13:0.33 15:0.29 16:0.17 17:0.33 18:0.25 19:1.0 20:0.5 24:0.5 25:0.4 26:0.17 27:0.25 28:0.29 29:0.2 30:1.0 32:0.17 35:0.33 36:0.29 38:1.0 40:0.4 41:0.33 42:0.4 43:0.6 46:1.0 47:0.4 48:0.5 49:0.83 50:0.5 51:1.0 52:0.33 53:0.33 56:0.86 58:0.14 59:0.5 61:0.2 64:0.33 66:1.0 67:0.25 68:0.17 69:0.33 70:1.0 71:0.25 74:0.33 75:0.5 77:0.4 78:0.83 80:0.43 81:1.0 82:0.29 83:0.4 84:0.75 86:0.83 87:1.0 88:0.25 90:0.2 
-1.0 -1.0 -1.0 0.4106324954620499 1.0 1.0 1.0 1:0.2 2:1.0 3:0.67 4:0.5 6:1.0 7:0.5 9:1.0 10:0.25 11:0.17 12:0.2 13:0.67 14:0.33 15:0.14 16:0.33 17:0.67 18:0.12 19:1.0 20:0.33 21:0.2 23:0.2 24:0.5 25:0.4 26:0.33 27:0.25 28:0.14 30:1.0 31:0.2 32:0.17 34:1.0 35:0.33 36:0.14 38:1.0 41:0.67 43:0.4 44:0.33 45:0.25 46:1.0 47:0.2 48:1.0 49:1.0 50:0.5 51:1.0 52:1.0 53:0.17 55:0.5 56:1.0 57:0.2 58:0.29 59:0.5 60:0.2 61:1.0 63:0.12 64:0.17 65:0.17 66:1.0 67:0.25 68:0.33 69:0.17 70:1.0 71:0.25 72:0.5 73:0.2 74:0.17 75:0.5 77:0.6 78:1.0 80:0.57 81:1.0 82:0.14 83:0.2 84:1.0 85:0.2 86:1.0 87:1.0 88:0.5 90:0.2 
-0.24699141758315252 -0.0 -0.0 0.6151491181308597 0.0 0.6115139451771168 0.0 1:0.2 3:0.67 6:1.0 7:0.5 9:1.0 11:0.17 12:0.2 13:0.5 14:0.33 15:0.14 16:0.17 17:0.33 18:0.12 19:1.0 20:0.33 21:0.2 23:0.2 24:0.25 25:0.2 26:0.33 27:0.25 28:0.14 30:1.0 32:0.17 34:1.0 35:0.33 36:0.14 38:1.0 41:0.67 43:0.4 44:0.33 46:1.0 47:0.2 48:1.0 49:1.0 50:0.5 51:1.0 52:0.33 53:0.17 56:1.0 57:0.2 58:0.29 59:0.5 60:0.2 61:0.2 63:0.12 64:0.17 65:0.17 66:1.0 67:0.25 68:0.33 69:0.17 70:1.0 71:0.25 72:0.5 74:0.17 75:0.5 77:0.4 78:1.0 80:0.43 81:1.0 82:0.14 83:0.2 84:1.0 85:0.2 86:1.0 87:1.0 88:0.25 90:0.2 
-0.8524963748863104 -0.0 -0.0 0.0 0.0 0.0 0.1074372179266044 3:0.33 6:1.0 9:1.0 13:0.17 16:0.17 17:0.33 19:1.0 20:0.17 24:0.25 26:0.17 30:1.0 35:0.33 38:1.0 41:0.33 43:0.2 46:1.0 48:0.5 49:0.83 50:0.5 51:1.0 52:0.33 56:0.86 58:0.14 61:0.2 66:1.0 68:0.17 70:1.0 71:0.25 75:0.17 77:0.2 78:0.83 80:0.14 81:1.0 84:0.75 86:0.83 87:1.0 88:0.25 90:0.2 
-0.0 -1.0 -0.0 0.0 0.0 0.0 0.0 1:0.2 3:0.33 6:0.83 7:0.5 9:1.0 11:0.17 12:0.2 13:0.17 14:0.33 15:0.14 18:0.12 19:1.0 20:0.17 21:0.2 23:0.2 26:0.17 27:0.25 28:0.14 30:1.0 32:0.17 36:0.14 38:0.8 39:0.14 41:0.33 43:0.2 44:0.33 46:0.83 47:0.2 48:0.5 49:1.0 51:1.0 53:0.17 56:1.0 57:0.2 59:0.25 60:0.2 64:0.17 65:0.17 66:0.86 67:0.25 68:0.17 69:0.17 70:1.0 72:0.5 74:0.17 75:0.17 77:0.2 78:1.0 80:0.14 81:0.83 82:0.14 83:0.2 84:1.0 85:0.2 86:1.0 87:0.8 
-1.0 -1.0 -1.0 1.0 1.0 1.0 1.0 1:0.2 3:0.33 4:0.5 7:1.0 11:0.17 12:0.2 13:0.33 14:0.33 15:0.14 18:0.12 20:0.33 21:0.2 22:0.2 23:0.2 25:0.2 26:0.17 27:0.5 28:0.14 32:0.17 36:0.14 39:0.14 41:0.67 43:0.4 44:0.67 47:0.2 48:0.5 49:0.17 53:0.17 56:0.14 57:0.2 58:0.14 59:0.25 60:0.4 62:0.17 64:0.17 65:0.33 67:0.25 68:0.17 69:0.17 72:0.5 74:0.17 75:0.33 76:0.25 77:0.2 78:0.17 79:0.2 80:0.29 82:0.14 83:0.2 84:0.25 85:0.2 86:0.17 
-0.901755235825202 -1.0 -0.0 0.05124641981277652 0.0 0.0 0.0 1:0.2 3:0.33 6:0.83 7:0.5 9:1.0 11:0.17 12:0.2 13:0.17 14:0.33 15:0.14 18:0.12 19:1.0 20:0.17 21:0.2 23:0.2 26:0.17 27:0.25 28:0.14 30:1.0 32:0.17 36:0.14 38:0.8 39:0.14 41:0.33 43:0.2 44:0.33 46:0.83 47:0.2 48:0.5 49:1.0 51:1.0 53:0.17 56:1.0 57:0.2 59:0.25 60:0.2 64:0.17 65:0.17 66:0.86 67:0.25 68:0.17 69:0.17 70:1.0 72:0.5 74:0.17 75:0.17 77:0.2 78:1.0 80:0.14 81:0.83 82:0.14 83:0.2 84:1.0 85:0.2 86:1.0 87:0.8 
-1.0 -0.0 -0.0 0.5936197167628507 0.016959572877375376 0.39436262369292485 1.0 3:0.33 6:1.0 9:1.0 13:0.17 16:0.17 17:0.33 19:1.0 20:0.17 24:0.25 26:0.17 30:1.0 35:0.33 38:1.0 41:0.33 43:0.2 46:1.0 48:0.5 49:0.83 50:0.5 51:1.0 52:0.33 56:0.86 58:0.14 61:0.2 66:1.0 68:0.17 70:1.0 71:0.25 75:0.17 77:0.2 78:0.83 80:0.14 81:1.0 84:0.75 86:0.83 87:1.0 88:0.25 90:0.2 
-0.7975903213056832 -0.7766944151218644 -0.0 1.0 1.0 1.0 0.9812990206223186 3:0.33 6:1.0 9:1.0 13:0.17 16:0.17 17:0.33 19:1.0 20:0.17 24:0.25 26:0.17 30:1.0 35:0.33 38:1.0 41:0.33 43:0.2 46:1.0 48:0.5 49:0.83 50:0.5 51:1.0 52:0.33 56:0.86 58:0.14 61:0.2 66:1.0 68:0.17 70:1.0 71:0.25 75:0.17 77:0.2 78:0.83 80:0.14 81:1.0 84:0.75 86:0.83 87:1.0 88:0.25 90:0.2 
-1.0 -0.060916303499411385 -0.7700488120053848 1.0 0.56082701858702 1.0 0.8804911169718775 1:0.2 3:0.67 6:1.0 7:0.5 9:1.0 11:0.17 12:0.2 13:0.5 14:0.33 15:0.14 16:0.17 17:0.33 18:0.12 19:1.0 20:0.33 21:0.2 23:0.2 24:0.25 25:0.2 26:0.33 27:0.25 28:0.14 30:1.0 32:0.17 34:1.0 35:0.33 36:0.14 38:1.0 41:0.67 43:0.4 44:0.33 46:1.0 47:0.2 48:1.0 49:1.0 50:0.5 51:1.0 52:0.33 53:0.17 56:1.0 57:0.2 58:0.43 59:0.5 60:0.2 61:0.2 63:0.12 64:0.17 65:0.17 66:1.0 67:0.25 68:0.33 69:0.17 70:1.0 71:0.25 72:0.5 74:0.17 75:0.5 77:0.4 78:1.0 80:0.43 81:1.0 82:0.14 83:0.2 84:1.0 85:0.2 86:1.0 87:1.0 88:0.25 90:0.2 
-0.004684103896674421 -1.0 -0.0 1.0 0.0 0.0 0.8497834005169944 1:0.2 3:0.33 6:0.83 7:0.5 9:1.0 11:0.17 12:0.2 13:0.17 14:0.33 15:0.14 18:0.12 19:1.0 20:0.17 21:0.2 23:0.2 26:0.17 27:0.25 28:0.14 30:1.0 32:0.17 36:0.14 38:0.8 39:0.14 41:0.33 43:0.2 44:0.33 46:0.83 47:0.2 48:0.5 49:1.0 51:1.0 53:0.17 56:1.0 57:0.2 59:0.25 60:0.2 64:0.17 65:0.17 66:0.86 67:0.25 68:0.17 69:0.17 70:1.0 72:0.5 74:0.17 75:0.17 77:0.2 78:1.0 80:0.14 81:0.83 82:0.14 83:0.2 84:1.0 85:0.2 86:1.0 87:0.8 
-1.0 -1.0 -0.0 -1.0 1.0 1.0 1.0 3:0.33 6:0.17 13:0.17 14:0.67 16:0.17 17:0.33 20:0.33 22:0.2 24:0.25 26:0.83 27:0.25 35:0.33 37:1.0 38:0.2 39:0.29 41:0.33 43:0.2 44:0.33 46:0.17 48:0.5 50:1.0 52:0.33 54:1.0 58:0.29 60:0.2 61:0.2 62:0.33 63:0.12 65:0.17 66:0.14 68:0.33 71:0.25 75:0.17 76:0.25 77:0.2 79:0.2 80:0.14 81:0.17 87:0.2 88:0.25 90:1.0 
-1.0 -0.0 -1.0 -1.0 0.6139855297731113 1.0 1.0 1:0.2 3:0.67 6:0.17 7:0.5 11:0.17 12:0.2 13:0.5 14:1.0 15:0.14 16:0.17 17:0.33 18:0.12 20:0.5 21:0.2 22:0.2 23:0.2 24:0.25 25:0.2 26:1.0 27:0.5 28:0.14 32:0.17 34:1.0 35:0.33 36:0.14 37:1.0 38:0.2 39:0.29 41:0.67 43:0.4 44:0.67 46:0.17 47:0.2 48:1.0 49:0.17 50:1.0 52:0.33 53:0.17 54:1.0 56:0.14 57:0.2 58:0.43 59:0.5 60:0.4 61:0.2 62:0.33 63:0.25 64:0.17 65:0.33 66:0.14 67:0.25 68:0.5 69:0.17 71:0.25 72:0.5 74:0.17 75:0.5 76:0.25 77:0.4 78:0.17 79:0.2 80:0.43 81:0.17 82:0.14 83:0.2 84:0.25 85:0.2 86:0.17 87:0.2 88:0.25 90:1.0 
-1.0 -1.0 -0.0 -1.0 0.2920909374386154 1.0 1.0 14:0.67 20:0.17 22:0.2 26:0.67 27:0.25 37:1.0 39:0.29 44:0.33 50:0.5 54:1.0 58:0.14 60:0.2 62:0.33 63:0.12 65:0.17 68:0.17 76:0.25 79:0.2 90:0.8 
-1.0 -1.0 -1.0 -1.0 1.0 1.0 1.0 1:0.2 3:0.67 6:0.17 7:0.5 11:0.17 12:0.2 13:0.5 14:1.0 15:0.14 16:0.17 17:0.33 18:0.12 20:0.5 21:0.2 22:0.2 23:0.2 24:0.25 25:0.2 26:1.0 27:0.5 28:0.14 32:0.17 34:1.0 35:0.33 36:0.14 37:1.0 38:0.2 39:0.29 41:0.67 43:0.4 44:0.67 46:0.17 47:0.2 48:1.0 49:0.17 50:1.0 52:0.33 53:0.17 54:1.0 56:0.14 57:0.2 58:0.43 59:0.5 60:0.4 61:0.2 62:0.33 63:0.25 64:0.17 65:0.33 66:0.14 67:0.25 68:0.5 69:0.17 71:0.25 72:0.5 74:0.17 75:0.5 76:0.25 77:0.4 78:0.17 79:0.2 80:0.43 81:0.17 82:0.14 83:0.2 84:0.25 85:0.2 86:0.17 87:0.2 88:0.25 90:1.0 
-1.0 -1.0 -1.0 -1.0 0.47699353872471845 1.0 1.0 1:0.2 3:0.67 6:0.17 7:0.5 11:0.17 12:0.2 13:0.33 14:1.0 15:0.14 16:0.17 17:0.33 18:0.12 20:0.5 21:0.2 22:0.2 23:0.2 24:0.25 26:1.0 27:0.5 28:0.14 32:0.17 35:0.33 36:0.14 37:1.0 38:0.2 39:0.29 41:0.67 43:0.4 44:0.67 46:0.17 47:0.2 48:1.0 49:0.17 50:1.0 52:0.33 53:0.17 54:1.0 56:0.14 57:0.2 58:0.29 59:0.25 60:0.4 61:0.2 62:0.33 63:0.12 64:0.17 65:0.33 66:0.14 67:0.25 68:0.5 69:0.17 71:0.25 72:0.5 74:0.17 75:0.33 76:0.25 77:0.4 78:0.17 79:0.2 80:0.29 81:0.17 82:0.14 83:0.2 84:0.25 85:0.2 86:0.17 87:0.2 88:0.25 90:1.0 
-1.0 -1.0 -1.0 -1.0 0.0 1.0 1.0 1:0.2 3:0.33 7:0.5 11:0.17 12:0.2 13:0.33 14:1.0 15:0.14 18:0.12 20:0.17 21:0.2 22:0.2 23:0.2 25:0.2 26:0.5 27:0.25 28:0.14 32:0.17 34:1.0 36:0.14 37:1.0 39:0.14 41:0.33 43:0.2 44:0.67 47:0.2 48:0.5 49:0.17 53:0.17 54:0.5 56:0.14 57:0.2 58:0.14 59:0.5 60:0.2 62:0.17 63:0.12 64:0.17 65:0.17 67:0.25 68:0.17 69:0.17 72:0.5 74:0.17 75:0.33 76:0.25 77:0.2 78:0.17 80:0.29 82:0.14 83:0.2 84:0.25 85:0.2 86:0.17 90:0.4 
-1.0 -1.0 -1.0 -0.8663422659844285 0.6169299940635549 1.0 1.0 1:0.2 3:0.67 6:0.17 7:0.5 11:0.17 12:0.2 13:0.5 14:1.0 15:0.14 16:0.17 17:0.33 18:0.12 20:0.5 21:0.2 22:0.2 23:0.2 24:0.25 25:0.2 26:1.0 27:0.5 28:0.14 32:0.17 34:1.0 35:0.33 36:0.14 37:1.0 38:0.2 39:0.29 41:0.67 43:0.4 44:0.67 46:0.17 47:0.2 48:1.0 49:0.17 50:1.0 52:0.33 53:0.17 54:1.0 56:0.14 57:0.2 58:0.43 59:0.5 60:0.4 61:0.2 62:0.33 63:0.25 64:0.17 65:0.33 66:0.14 67:0.25 68:0.5 69:0.17 71:0.25 72:0.5 74:0.17 75:0.5 76:0.25 77:0.4 78:0.17 79:0.2 80:0.43 81:0.17 82:0.14 83:0.2 84:0.25 85:0.2 86:0.17 87:0.2 88:0.25 90:1.0 
-1.0 -1.0 -1.0 -1.0 -1.0 1.0 1.0 3:0.33 6:0.17 13:0.17 14:0.67 16:0.17 17:0.33 20:0.33 22:0.2 24:0.25 26:0.83 27:0.25 35:0.33 37:1.0 38:0.2 39:0.29 41:0.33 43:0.2 44:0.33 46:0.17 48:0.5 50:1.0 52:0.33 54:1.0 58:0.29 60:0.2 61:0.2 62:0.33 63:0.12 65:0.17 66:0.14 68:0.33 71:0.25 75:0.17 76:0.25 77:0.2 79:0.2 80:0.14 81:0.17 87:0.2 88:0.25 90:1.0 
-1.0 -1.0 -1.0 -1.0 -1.0 1.0 1.0 1:0.4 2:1.0 3:1.0 4:0.5 5:0.2 6:0.33 7:0.5 8:0.5 9:0.17 10:0.25 11:0.33 12:0.2 13:0.83 14:0.67 15:0.29 16:0.5 17:1.0 18:0.25 19:0.2 20:0.5 21:0.2 22:0.8 23:0.2 24:1.0 25:0.6 26:0.67 27:0.25 28:0.29 29:0.2 30:0.2 31:0.2 32:0.33 34:1.0 35:0.67 36:0.29 37:0.5 38:0.4 39:0.71 40:0.2 41:0.67 42:0.2 43:0.6 44:0.67 45:0.25 46:0.33 47:0.4 48:1.0 49:0.33 50:1.0 51:0.2 52:0.67 53:0.33 54:0.5 55:1.0 56:0.29 57:0.2 58:1.0 59:0.75 60:0.8 61:0.4 62:0.83 63:0.25 64:0.33 65:0.83 66:0.29 67:0.25 68:1.0 69:0.33 71:0.5 72:0.5 73:0.4 74:0.33 75:0.67 76:0.75 77:1.0 78:0.33 79:0.8 80:0.71 81:0.33 82:0.29 83:0.4 84:0.5 85:0.2 86:0.33 87:0.2 88:0.75 90:0.6 
-1.0 -1.0 -1.0 -1.0 -1.0 1.0 1.0 3:0.33 6:0.17 13:0.33 16:0.17 17:0.33 20:0.17 24:0.25 25:0.2 26:0.33 34:1.0 35:0.33 38:0.2 39:0.57 41:0.33 43:0.2 46:0.17 48:0.5 50:1.0 52:0.33 54:0.25 58:1.0 59:0.25 60:0.6 61:0.2 62:0.67 63:0.12 65:0.67 66:0.14 68:0.83 71:0.25 75:0.33 77:0.2 79:0.8 80:0.29 81:0.17 87:0.2 88:0.25 90:0.4 
-1.0 -1.0 -1.0 -1.0 -1.0 1.0 1.0 1:0.2 3:0.67 4:0.5 6:0.17 7:1.0 11:0.17 12:0.2 13:0.33 14:0.33 15:0.14 16:0.17 17:0.33 18:0.12 20:0.33 21:0.2 22:0.2 23:0.2 24:0.25 26:0.5 27:0.25 28:0.14 32:0.17 35:0.33 36:0.14 38:0.2 39:0.71 41:1.0 43:0.4 44:0.67 46:0.17 47:0.2 48:1.0 49:0.17 50:1.0 52:0.33 53:0.17 54:0.25 56:0.14 57:0.2 58:0.71 59:0.25 60:1.0 61:0.2 62:0.83 64:0.17 65:1.0 66:0.14 67:0.25 68:1.0 69:0.17 71:0.25 72:0.5 74:0.17 75:0.33 76:0.25 77:0.4 78:0.17 79:1.0 80:0.29 81:0.17 82:0.14 83:0.2 84:0.25 85:0.2 86:0.17 87:0.2 88:0.25 90:0.4 
-1.0 -1.0 -1.0 -1.0 -1.0 -1.0 1.0 1:0.4 3:1.0 4:0.5 5:0.2 6:0.17 7:1.0 8:1.0 10:0.25 11:0.33 12:0.2 13:0.5 14:0.33 15:0.29 16:0.33 17:1.0 18:0.25 20:0.5 21:0.2 22:0.2 23:0.2 24:1.0 25:0.2 26:0.33 27:0.25 28:0.29 29:0.2 31:0.2 32:0.33 35:1.0 36:0.29 38:0.2 39:0.14 40:0.2 41:1.0 42:0.2 43:0.6 44:0.67 45:0.25 46:0.17 47:0.4 48:1.0 49:0.17 50:0.5 52:0.67 53:0.33 55:1.0 56:0.14 57:0.2 58:0.29 59:0.5 60:0.4 61:0.4 62:0.17 63:0.12 64:0.33 65:0.33 66:0.14 67:0.25 68:0.33 69:0.33 71:0.5 72:1.0 73:0.2 74:0.33 75:0.5 76:0.25 77:1.0 78:0.17 79:0.2 80:0.43 81:0.17 82:0.29 83:0.4 84:0.25 85:0.2 86:0.17 87:0.2 88:0.5 89:1.0 90:0.2 
-1.0 -0.0 -1.0 -0.0 -0.3191838161358649 -0.0 1.0 1:0.4 3:0.67 5:0.4 6:0.17 8:0.5 11:0.17 12:0.2 13:0.67 15:0.29 16:0.33 17:1.0 18:0.25 20:0.83 24:1.0 25:0.8 26:0.33 27:0.75 28:0.29 29:0.2 32:0.17 34:1.0 35:0.67 36:0.29 38:0.2 40:0.4 41:0.33 42:0.4 43:0.8 46:0.17 47:0.4 48:0.5 50:0.5 52:1.0 53:0.33 54:0.25 55:1.0 58:0.29 59:0.75 61:1.0 63:1.0 64:0.33 66:0.14 67:0.25 68:0.17 69:0.33 71:0.5 73:0.2 74:0.33 75:0.83 77:0.8 80:0.71 81:0.17 82:0.29 83:0.4 87:0.2 88:0.5 90:0.4 
-1.0 -1.0 -0.7957276623626423 -1.0 -1.0 -1.0 1.0 3:0.33 8:0.5 13:0.33 16:0.17 17:0.33 20:0.33 24:0.25 25:0.4 26:0.17 27:0.5 34:1.0 35:0.33 43:0.2 54:0.25 55:0.5 58:0.14 59:0.25 63:1.0 71:0.25 73:0.2 75:0.33 77:0.2 80:0.29 88:0.25 90:0.2 
-1.0 -0.0 -1.0 -0.8377769344158423 -1.0 -0.0 1.0 1:0.6 3:1.0 5:0.4 6:0.17 7:0.5 8:0.5 11:0.33 12:0.4 13:0.67 14:0.33 15:0.43 16:0.33 17:1.0 18:0.38 20:0.83 21:0.2 23:0.2 24:1.0 25:0.6 26:0.5 27:0.75 28:0.43 29:0.2 32:0.33 34:1.0 35:0.67 36:0.43 38:0.2 40:0.4 41:0.67 42:0.4 43:0.8 44:0.33 46:0.17 47:0.6 48:1.0 49:0.17 50:0.5 52:1.0 53:0.5 54:0.25 55:1.0 56:0.14 57:0.2 58:0.29 59:1.0 60:0.2 61:1.0 63:1.0 64:0.5 65:0.17 66:0.14 67:0.5 68:0.33 69:0.5 71:0.5 72:0.5 73:0.2 74:0.5 75:0.83 77:1.0 78:0.17 80:0.71 81:0.17 82:0.43 83:0.6 84:0.25 85:0.2 86:0.17 87:0.2 88:0.5 90:0.4 
-1.0 -1.0 -1.0 -0.2293541170200519 -0.0 -0.0 1.0 1:0.6 3:1.0 4:0.5 5:0.4 6:0.17 7:1.0 8:1.0 10:0.25 11:0.33 12:0.4 13:0.5 14:0.33 15:0.43 16:0.33 17:1.0 18:0.38 20:0.67 21:0.2 22:0.2 23:0.2 24:1.0 25:0.4 26:0.33 27:0.5 28:0.43 29:0.2 31:0.2 32:0.33 35:1.0 36:0.43 38:0.2 39:0.14 40:0.4 41:1.0 42:0.4 43:0.8 44:0.67 45:0.25 46:0.17 47:0.6 48:1.0 49:0.17 50:0.5 52:0.67 53:0.5 55:1.0 56:0.14 57:0.2 58:0.14 59:0.75 60:0.4 61:0.4 62:0.17 63:0.12 64:0.5 65:0.33 66:0.14 67:0.5 68:0.33 69:0.5 71:0.5 72:1.0 73:0.2 74:0.5 75:0.67 76:0.25 77:1.0 78:0.17 79:0.2 80:0.57 81:0.17 82:0.43 83:0.6 84:0.25 85:0.2 86:0.17 87:0.2 88:0.5 89:1.0 90:0.2 
-1.0 -1.0 -0.0 -1.0 -1.0 -1.0 1.0 3:0.67 4:0.5 6:0.17 7:0.5 8:0.5 13:0.17 16:0.33 17:1.0 20:0.17 22:0.2 24:0.75 26:0.17 35:0.67 38:0.2 39:0.14 41:0.67 43:0.2 44:0.33 46:0.17 48:0.5 50:0.5 52:0.67 55:1.0 58:0.14 60:0.2 61:0.4 62:0.17 63:0.12 65:0.17 66:0.14 68:0.17 71:0.5 73:0.2 75:0.17 76:0.25 77:0.6 79:0.2 80:0.14 81:0.17 87:0.2 88:0.5 90:0.2 
-1.0 -1.0 -0.0 -1.0 -1.0 -0.0 1.0 3:0.33 8:0.5 13:0.17 16:0.17 17:0.67 20:0.17 24:0.5 25:0.2 26:0.17 27:0.25 34:1.0 35:0.33 52:0.33 54:0.25 55:1.0 58:0.14 59:0.25 61:0.2 63:1.0 71:0.25 73:0.2 75:0.17 77:0.4 80:0.14 88:0.25 90:0.2 
-1.0 -1.0 -1.0 -0.9387455174341474 -0.6808161838641351 -0.0 1.0 1:0.6 3:1.0 4:0.5 5:0.4 6:0.17 7:1.0 8:1.0 10:0.25 11:0.33 12:0.4 13:0.5 14:0.33 15:0.43 16:0.33 17:1.0 18:0.38 20:0.67 21:0.2 22:0.2 23:0.2 24:1.0 25:0.4 26:0.33 27:0.5 28:0.43 29:0.2 31:0.2 32:0.33 35:1.0 36:0.43 38:0.2 39:0.14 40:0.4 41:1.0 42:0.4 43:0.8 44:0.67 45:0.25 46:0.17 47:0.6 48:1.0 49:0.17 50:0.5 52:0.67 53:0.5 55:1.0 56:0.14 57:0.2 58:0.14 59:0.75 60:0.4 61:0.4 62:0.17 63:0.12 64:0.5 65:0.33 66:0.14 67:0.5 68:0.33 69:0.5 71:0.5 72:1.0 73:0.2 74:0.5 75:0.67 76:0.25 77:1.0 78:0.17 79:0.2 80:0.57 81:0.17 82:0.43 83:0.6 84:0.25 85:0.2 86:0.17 87:0.2 88:0.5 89:1.0 90:0.2 
-1.0 -0.0 -1.0 -1.0 -1.0 -1.0 1.0 1:0.4 3:1.0 5:0.2 6:0.17 7:0.5 8:0.5 11:0.33 12:0.2 13:0.67 14:0.33 15:0.29 16:0.33 17:1.0 18:0.25 20:0.67 21:0.2 23:0.2 24:1.0 25:0.4 26:0.5 27:0.5 28:0.29 29:0.2 32:0.33 34:1.0 35:0.67 36:0.29 38:0.2 40:0.2 41:0.67 42:0.2 43:0.6 44:0.33 46:0.17 47:0.4 48:1.0 49:0.17 50:0.5 52:0.67 53:0.33 54:0.25 55:1.0 56:0.14 57:0.2 58:0.43 59:0.75 60:0.2 61:0.4 63:1.0 64:0.33 65:0.17 66:0.14 67:0.25 68:0.33 69:0.33 71:0.5 72:0.5 73:0.2 74:0.33 75:0.67 77:1.0 78:0.17 80:0.57 81:0.17 82:0.29 83:0.4 84:0.25 85:0.2 86:0.17 87:0.2 88:0.5 90:0.4 
-1.0 -0.0 -0.05693064435018648 -0.0 -0.11945795534163473 -0.5566570895035119 -1.0 1:0.2 2:1.0 3:1.0 4:0.5 6:0.17 7:0.5 8:1.0 10:1.0 11:0.17 12:0.2 13:0.67 14:0.33 15:0.14 16:1.0 17:1.0 18:0.12 20:0.33 21:0.2 23:0.2 24:0.75 25:0.4 26:0.5 27:0.25 28:0.14 31:1.0 32:0.17 34:1.0 35:1.0 36:0.14 38:0.2 39:0.14 41:0.67 43:0.4 44:0.33 45:1.0 46:0.17 47:0.2 48:1.0 49:0.17 50:1.0 52:1.0 53:0.17 54:0.25 55:1.0 56:0.14 57:0.2 58:0.43 59:0.5 60:0.4 61:1.0 62:0.17 63:0.25 64:0.17 65:0.33 66:0.14 67:0.25 68:0.5 69:0.17 71:1.0 72:1.0 73:1.0 74:0.17 75:0.5 77:0.8 78:0.17 79:0.2 80:0.57 81:0.17 82:0.14 83:0.2 84:0.25 85:0.2 86:0.17 87:0.2 88:1.0 89:1.0 90:0.4 
-0.0 -0.0 -0.0 -1.0 -0.0 -0.0 -1.0 1:0.2 2:1.0 3:1.0 4:0.5 6:0.33 7:0.5 8:1.0 9:0.17 10:1.0 11:0.17 12:0.2 13:0.67 14:0.33 15:0.14 16:1.0 17:1.0 18:0.12 19:0.2 20:0.5 21:0.2 23:0.2 24:0.75 25:0.4 26:0.5 27:0.5 28:0.14 30:0.2 31:1.0 32:0.17 34:1.0 35:1.0 36:0.14 38:0.4 41:0.67 43:0.4 44:0.33 45:1.0 46:0.33 47:0.2 48:1.0 49:0.33 50:0.5 51:0.2 52:0.67 53:0.17 54:0.25 55:1.0 56:0.29 57:0.2 58:0.29 59:0.5 60:0.2 61:0.4 63:1.0 64:0.17 65:0.17 66:0.29 67:0.25 68:0.33 69:0.17 70:0.2 71:1.0 72:1.0 73:1.0 74:0.17 75:0.5 77:0.8 78:0.33 80:0.57 81:0.33 82:0.14 83:0.2 84:0.5 85:0.2 86:0.33 87:0.4 88:1.0 89:1.0 90:0.4 
-0.6820410519916731 -0.0 -0.0 -0.0 -0.0 -0.1120309977969661 -0.0 2:1.0 3:0.67 4:1.0 6:0.17 7:0.5 8:0.5 10:0.75 13:0.33 16:1.0 17:0.67 20:0.17 22:0.2 24:0.5 25:0.2 26:0.17 31:0.8 35:0.67 38:0.2 39:0.14 41:0.67 43:0.2 44:0.33 45:0.75 46:0.17 48:0.5 50:0.5 52:0.33 55:0.5 58:0.14 60:0.2 61:0.2 62:0.17 63:0.12 65:0.17 66:0.14 68:0.17 71:1.0 73:1.0 75:0.17 76:0.25 77:0.4 79:0.2 80:0.29 81:0.17 87:0.2 88:1.0 90:0.2 
-0.0 -0.0 -0.7694554111027673 -0.0 -0.0 -0.0 -0.0 1:0.2 2:1.0 3:1.0 4:0.5 6:0.17 7:0.5 8:1.0 10:1.0 11:0.17 12:0.2 13:0.67 14:0.33 15:0.14 16:1.0 17:0.67 18:0.12 20:0.5 21:0.2 23:0.2 24:0.5 25:0.4 26:0.5 27:0.5 28:0.14 31:1.0 32:0.17 34:1.0 35:1.0 36:0.14 38:0.2 41:0.67 43:0.4 44:0.33 45:1.0 46:0.17 47:0.2 48:1.0 49:0.17 50:0.5 52:0.33 53:0.17 54:0.25 55:0.5 56:0.14 57:0.2 58:0.29 59:0.5 60:0.2 61:0.2 63:1.0 64:0.17 65:0.17 66:0.14 67:0.25 68:0.33 69:0.17 71:1.0 72:1.0 73:1.0 74:0.17 75:0.5 77:0.6 78:0.17 80:0.57 81:0.17 82:0.14 83:0.2 84:0.25 85:0.2 86:0.17 87:0.2 88:1.0 89:1.0 90:0.4 
-1.0 -1.0 -0.0 -1.0 -1.0 -0.7646379935817578 -1.0 2:1.0 4:1.0 7:0.5 10:0.25 13:0.17 16:0.17 17:0.33 22:0.2 24:0.25 25:0.2 31:0.2 39:0.29 41:0.33 44:0.33 45:0.25 52:0.67 55:0.5 60:0.2 61:0.8 62:0.17 65:0.17 73:0.2 76:0.25 77:0.2 79:0.2 80:0.14 88:0.25 
-0.017216066106794676 -1.0 -0.27596143178110955 -0.0 -0.23956133827320464 -0.0 -0.0 1:0.2 2:1.0 3:0.33 4:1.0 7:1.0 8:0.5 10:1.0 11:0.17 12:0.2 13:0.33 14:0.33 15:0.14 16:0.67 18:0.12 20:0.17 21:0.2 22:0.2 23:0.2 25:0.2 26:0.17 27:0.25 28:0.14 31:1.0 32:0.17 35:0.33 36:0.14 39:0.29 41:0.67 43:0.2 44:0.67 45:1.0 47:0.2 48:0.5 49:0.17 53:0.17 56:0.14 57:0.2 59:0.25 60:0.4 62:0.17 64:0.17 65:0.33 67:0.25 68:0.17 69:0.17 71:0.5 72:1.0 73:0.8 74:0.17 75:0.17 76:0.25 77:0.2 78:0.17 79:0.2 80:0.29 82:0.14 83:0.2 84:0.25 85:0.2 86:0.17 88:0.5 89:1.0 
-0.30074288190153214 -0.0 -1.0 -0.0 -0.0 -0.0 -1.0 1:0.4 2:1.0 3:1.0 4:1.0 5:0.2 6:0.17 7:1.0 8:1.0 10:1.0 11:0.33 12:0.2 13:0.67 14:0.33 15:0.29 16:1.0 17:1.0 18:0.25 20:0.5 21:0.2 22:0.2 23:0.2 24:1.0 25:0.4 26:0.33 27:0.25 28:0.29 29:0.2 31:1.0 32:0.33 35:1.0 36:0.29 38:0.2 39:0.14 40:0.2 41:1.0 42:0.2 43:0.6 44:0.67 45:1.0 46:0.17 47:0.4 48:1.0 49:0.17 50:0.5 52:1.0 53:0.33 55:1.0 56:0.14 57:0.2 58:0.29 59:0.5 60:0.4 61:1.0 62:0.17 63:0.12 64:0.33 65:0.33 66:0.14 67:0.25 68:0.33 69:0.33 71:1.0 72:1.0 73:1.0 74:0.33 75:0.5 76:0.25 77:1.0 78:0.17 79:0.2 80:0.57 81:0.17 82:0.29 83:0.4 84:0.25 85:0.2 86:0.17 87:0.2 88:1.0 89:1.0 90:0.2 
-1.0 -1.0 -0.0 -1.0 -1.0 -0.0 -1.0 3:0.33 4:0.5 7:0.5 8:1.0 10:0.25 13:0.17 16:0.17 17:0.33 20:0.17 22:0.2 24:0.25 25:0.2 27:0.25 31:0.2 35:0.67 39:0.14 41:0.33 43:0.2 44:0.33 45:0.25 55:0.5 58:0.14 60:0.2 62:0.17 63:0.12 65:0.17 71:0.25 72:0.5 73:0.2 75:0.17 76:0.25 77:0.2 79:0.2 80:0.14 88:0.25 89:1.0 
-1.0 -0.0 -0.0 -0.0 -0.0 -0.0 -0.0 2:1.0 4:1.0 7:0.5 10:0.75 13:0.17 16:0.67 17:0.33 22:0.2 24:0.25 25:0.2 31:0.8 39:0.29 41:0.33 44:0.33 45:0.75 52:0.33 55:0.5 60:0.2 61:0.2 62:0.17 65:0.17 71:0.5 73:0.8 76:0.25 77:0.2 79:0.2 80:0.14 88:0.5 
-1.0 -0.36937181245637574 -0.0 -0.8190107560377949 -0.6409807063851606 -0.0 -0.0 2:1.0 4:1.0 7:0.5 10:0.75 13:0.17 16:0.67 17:0.33 22:0.2 24:0.25 25:0.2 31:0.8 39:0.29 41:0.33 44:0.33 45:0.75 52:0.33 55:0.5 60:0.2 61:0.2 62:0.17 65:0.17 71:0.5 73:0.8 76:0.25 77:0.2 79:0.2 80:0.14 88:0.5 
-1.0 -0.3800676012745522 -1.0 -1.0 -1.0 -0.33715442615495217 -1.0 1:0.2 2:1.0 3:1.0 4:0.5 6:0.17 7:0.5 8:0.5 10:0.25 11:0.17 12:0.2 13:0.83 14:0.33 15:0.14 16:0.5 17:0.67 18:0.12 20:0.67 21:0.2 23:0.2 24:0.5 25:0.6 26:0.5 27:0.75 28:0.14 31:0.2 32:0.17 34:1.0 35:0.67 36:0.14 38:0.2 41:0.67 43:0.6 44:0.33 45:0.25 46:0.17 47:0.2 48:1.0 49:0.17 50:0.5 52:0.33 53:0.17 54:0.25 55:0.5 56:0.14 57:0.2 58:0.29 59:0.5 60:0.2 61:0.2 63:1.0 64:0.17 65:0.17 66:0.14 67:0.25 68:0.33 69:0.17 71:0.5 72:0.5 73:0.4 74:0.17 75:0.67 77:0.6 78:0.17 80:0.71 81:0.17 82:0.14 83:0.2 84:0.25 85:0.2 86:0.17 87:0.2 88:0.75 90:0.4 
-1.0 -1.0 -1.0 -1.0 -1.0 -1.0 -1.0 1:0.2 3:0.33 4:0.5 7:1.0 11:0.17 12:0.2 13:0.33 14:0.33 15:0.14 18:0.12 20:0.33 21:0.2 22:0.2 23:0.2 25:0.2 26:0.17 27:0.5 28:0.14 32:0.17 36:0.14 39:0.14 41:0.67 43:0.4 44:0.67 47:0.2 48:0.5 49:0.17 53:0.17 56:0.14 57:0.2 59:0.25 60:0.4 62:0.17 64:0.17 65:0.33 67:0.25 68:0.17 69:0.17 72:0.5 74:0.17 75:0.33 76:0.25 77:0.2 78:0.17 79:0.2 80:0.29 82:0.14 83:0.2 84:0.25 85:0.2 86:0.17 
-1.0 -1.0 -1.0 -1.0 -1.0 -1.0 -1.0 1:0.2 3:1.0 6:0.17 7:0.5 8:0.5 11:0.17 12:0.2 13:0.5 14:0.33 15:0.14 16:0.33 17:0.67 18:0.12 20:0.5 21:0.2 23:0.2 24:0.5 25:0.2 26:0.5 27:0.5 28:0.14 32:0.17 34:1.0 35:0.67 36:0.14 38:0.2 41:0.67 43:0.4 44:0.33 46:0.17 47:0.2 48:1.0 49:0.17 50:0.5 52:0.33 53:0.17 54:0.25 55:0.5 56:0.14 57:0.2 58:0.29 59:0.5 60:0.2 61:0.2 63:1.0 64:0.17 65:0.17 66:0.14 67:0.25 68:0.33 69:0.17 71:0.5 72:0.5 73:0.2 74:0.17 75:0.5 77:0.6 78:0.17 80:0.43 81:0.17 82:0.14 83:0.2 84:0.25 85:0.2 86:0.17 87:0.2 88:0.5 90:0.4 
-1.0 -0.25056058626907207 -1.0 -1.0 -1.0 -0.2295194929628121 -1.0 1:0.2 3:1.0 6:0.33 7:0.5 8:1.0 9:0.17 10:0.25 11:0.17 12:0.2 13:0.5 14:0.33 15:0.14 16:0.33 17:1.0 18:0.12 19:0.2 20:0.33 21:0.2 23:0.2 24:0.75 25:0.2 26:0.33 27:0.25 28:0.14 30:0.2 31:0.2 32:0.17 34:1.0 35:1.0 36:0.14 38:0.4 41:0.67 43:0.4 44:0.33 45:0.25 46:0.33 47:0.2 48:1.0 49:0.33 50:0.5 51:0.2 52:0.67 53:0.17 55:1.0 56:0.29 57:0.2 58:0.29 59:0.5 60:0.2 61:0.4 63:0.25 64:0.17 65:0.17 66:0.29 67:0.25 68:0.33 69:0.17 71:0.5 72:1.0 73:0.2 74:0.17 75:0.5 77:0.8 78:0.33 80:0.43 81:0.33 82:0.14 83:0.2 84:0.5 85:0.2 86:0.33 87:0.2 88:0.5 89:1.0 90:0.2 
