svm_type c_svc
kernel_type rbf
gamma 0.019230769230769232
nr_class 8
total_sv 142
rho -0.10931307077407837 0.1329274681830217 -0.04566573228684588 -0.1331618207068468 -0.07212020474994742 0.8424593035851116 0.9917349848888409 0.14545833747043488 0.059213073250207124 0.3876106142997742 -0.8169572423408269 0.1185316061458754 0.5601075465897003 -0.10884451934833404 -0.2236594259738922 -0.1927873455056565 -0.1285012213311195 0.05000594656574628 -0.001132431321978099 0.06753993064368732 -0.15144695297463917 0.21690709084423104 -0.8170457184314728 0.05050738532599904 0.4599871784250254 0.014468546574920929 0.6136537194252014 1.0154035363647365
label 3 7 4 0 5 6 2 1
nr_sv 9 15 10 17 16 8 20 47
SV
0.006985230105225109 1.0 0.09242261246759244 0.0 0.0 1.0 1.0 2:0.25 3:1.0 6:0.5 7:0.5 9:1.0 10:0.33 11:1.0 13:0.5 14:0.25 15:1.0 20:1.0 23:0.17 24:0.2 26:0.25 29:0.2 31:1.0 33:1.0 34:1.0 37:0.2 38:0.25 43:0.33 44:1.0 45:1.0 48:1.0 50:0.5 51:0.33 52:0.5 
1.0 1.0 1.0 0.0 0.02244594838343226 1.0 1.0 2:0.25 3:1.0 6:0.5 7:0.5 9:1.0 10:0.33 11:1.0 13:0.5 14:0.25 15:1.0 20:1.0 23:0.17 24:0.2 26:0.25 29:0.2 31:1.0 33:1.0 34:1.0 37:0.2 38:0.25 43:0.33 44:1.0 45:1.0 48:1.0 50:0.5 51:0.33 52:0.5 
1.0 1.0 1.0 1.0 1.0 1.0 1.0 2:0.25 3:1.0 6:0.5 7:0.5 8:1.0 10:0.17 11:1.0 13:0.25 14:0.25 15:0.33 20:0.17 23:0.33 24:0.2 26:0.25 27:0.5 29:0.4 33:0.5 34:0.33 38:0.25 43:0.33 47:1.0 48:1.0 50:0.5 51:0.33 52:0.5 
1.0 1.0 1.0 0.8644642191473745 1.0 1.0 1.0 2:0.25 3:1.0 6:0.5 7:0.5 9:1.0 10:0.33 11:1.0 13:0.5 14:0.25 15:1.0 20:1.0 23:0.17 24:0.2 26:0.25 29:0.2 31:1.0 33:1.0 34:1.0 37:0.2 38:0.25 43:0.33 44:1.0 45:1.0 48:1.0 50:0.5 51:0.33 52:0.5 
1.0 1.0 1.0 1.0 0.9947016562457893 1.0 1.0 2:0.25 3:1.0 6:0.5 7:0.5 9:1.0 10:0.33 11:1.0 13:0.5 14:0.25 15:1.0 20:1.0 23:0.17 24:0.2 26:0.25 29:0.2 31:1.0 33:1.0 34:1.0 37:0.2 38:0.25 43:0.33 44:1.0 45:1.0 48:1.0 50:0.5 51:0.33 52:0.5 
1.0 1.0 1.0 1.0 1.0 1.0 1.0 6:1.0 8:1.0 9:0.25 10:0.17 13:0.25 19:1.0 20:0.17 22:0.5 23:0.17 27:1.0 29:0.2 31:1.0 33:0.5 34:0.33 37:0.2 40:0.14 44:0.25 45:0.2 47:1.0 
0.0 0.0 0.8958712461616326 0.0 0.0 1.0 1.0 6:1.0 8:1.0 9:1.0 10:0.17 13:0.25 15:0.67 20:0.83 23:0.17 27:1.0 29:0.2 31:1.0 33:0.5 34:0.67 37:0.2 44:1.0 45:1.0 47:1.0 
0.0 0.6986250436158189 0.27029697886433823 0.0 0.0 1.0 1.0 3:0.5 6:1.0 8:1.0 9:1.0 10:0.17 11:0.5 13:0.25 15:1.0 19:1.0 20:1.0 22:0.5 23:0.17 27:1.0 29:0.2 31:1.0 33:0.5 34:1.0 37:0.2 38:0.25 40:0.14 44:1.0 45:1.0 47:1.0 48:1.0 51:0.17 52:0.25 
0.9930147698947749 0.26411466895178914 1.0 0.6062332262127457 0.8232808916382388 1.0 1.0 6:1.0 8:1.0 9:1.0 10:0.17 13:0.25 15:0.67 20:0.83 23:0.17 27:1.0 29:0.2 31:1.0 33:0.5 34:0.67 37:0.2 44:1.0 45:1.0 47:1.0 
-1.0 1.0 1.0 1.0 0.0 1.0 1.0 2:0.5 3:0.5 7:1.0 10:0.17 11:0.5 12:0.33 13:0.25 14:0.25 17:0.5 18:0.33 19:1.0 22:0.5 23:0.17 24:0.2 26:0.25 29:0.2 30:0.5 33:0.5 40:0.14 41:1.0 43:0.67 46:0.5 50:0.5 51:0.17 52:0.25 
-0.0 0.0 0.0 1.0 0.0 0.0 0.0 2:0.5 4:1.0 7:0.5 12:1.0 17:1.0 18:1.0 21:0.5 25:1.0 27:0.5 30:1.0 41:1.0 42:1.0 43:0.67 46:1.0 50:0.5 
-0.0 0.0 0.0 1.0 1.0 0.0 0.0 2:1.0 3:0.5 4:1.0 7:1.0 10:0.17 11:0.5 12:0.67 13:0.25 14:0.25 17:1.0 18:0.67 21:1.0 23:0.17 24:0.2 25:1.0 26:0.25 29:0.2 30:1.0 33:0.5 41:1.0 42:1.0 43:1.0 46:1.0 50:1.0 51:0.17 52:0.25 
-1.0 1.0 1.0 1.0 0.0 1.0 1.0 2:0.5 3:0.5 7:1.0 10:0.17 11:0.5 12:0.33 13:0.25 14:0.25 17:0.5 18:0.33 19:1.0 22:0.5 23:0.17 24:0.2 26:0.25 29:0.2 30:0.5 33:0.5 40:0.14 41:1.0 43:0.67 46:0.5 50:0.5 51:0.17 52:0.25 
-0.0 0.0 0.0 1.0 1.0 0.0 0.5147033099682438 2:0.5 4:1.0 7:0.5 12:1.0 17:1.0 18:1.0 21:0.5 25:1.0 27:0.5 30:1.0 41:1.0 42:1.0 43:0.67 46:1.0 50:0.5 
-0.0 0.0 1.0 1.0 0.5827997882524932 1.0 0.9640396836015409 2:0.5 4:1.0 7:0.5 12:0.67 17:1.0 18:0.67 21:0.5 25:1.0 30:1.0 41:1.0 42:1.0 43:0.67 46:1.0 50:0.5 
-0.0 0.0 0.0 1.0 1.0 0.0 1.0 2:0.5 4:1.0 7:0.5 12:1.0 17:1.0 18:1.0 21:0.5 25:1.0 27:0.5 30:1.0 41:1.0 42:1.0 43:0.67 46:1.0 50:0.5 
-1.0 0.6520320744145683 1.0 1.0 0.9364441534504583 1.0 1.0 2:0.5 3:0.5 4:1.0 7:0.5 10:0.17 11:0.5 12:0.33 13:0.25 14:0.25 17:0.5 18:0.33 19:1.0 21:0.5 22:0.5 23:0.17 24:0.2 25:1.0 26:0.25 29:0.2 30:0.5 33:0.5 40:0.14 42:1.0 43:0.67 46:0.5 50:1.0 51:0.17 52:0.25 
-0.0 0.0 1.0 1.0 0.030494842973483344 0.0 1.0 2:1.0 3:0.5 4:1.0 7:1.0 10:0.17 11:0.5 12:0.67 13:0.25 14:0.25 17:1.0 18:0.67 19:1.0 21:1.0 22:0.5 23:0.17 24:0.2 25:1.0 26:0.25 29:0.2 30:1.0 33:0.5 40:0.14 41:1.0 42:1.0 43:1.0 46:1.0 50:1.0 51:0.17 52:0.25 
-0.0 0.0 1.0 1.0 1.0 0.0 0.8343009479771833 2:1.0 3:0.5 4:1.0 7:1.0 10:0.17 11:0.5 12:0.67 13:0.25 14:0.25 17:1.0 18:0.67 19:1.0 21:1.0 22:0.5 23:0.17 24:0.2 25:1.0 26:0.25 29:0.2 30:1.0 33:0.5 40:0.14 41:1.0 42:1.0 43:1.0 46:1.0 50:1.0 51:0.17 52:0.25 
-0.0 0.0 0.6293427254885134 1.0 1.0 0.74683808593882 1.0 2:0.5 4:1.0 7:0.5 12:1.0 17:1.0 18:1.0 21:0.5 25:1.0 27:0.5 30:1.0 41:1.0 42:1.0 43:0.67 46:1.0 50:0.5 
-1.0 1.0 1.0 1.0 0.4502612153235651 1.0 1.0 2:0.5 3:0.5 7:1.0 10:0.17 11:0.5 12:0.33 13:0.25 14:0.25 17:0.5 18:0.33 23:0.17 24:0.2 26:0.25 29:0.2 30:0.5 33:0.5 41:1.0 43:0.67 46:0.5 50:0.5 51:0.17 52:0.25 
-1.0 0.5757175802363993 1.0 1.0 0.0 1.0 1.0 2:0.5 3:0.5 7:1.0 10:0.17 11:0.5 12:0.33 13:0.25 14:0.25 17:0.5 18:0.33 19:1.0 22:0.5 23:0.17 24:0.2 26:0.25 29:0.2 30:0.5 33:0.5 40:0.14 41:1.0 43:0.67 46:0.5 50:0.5 51:0.17 52:0.25 
-1.0 1.0 1.0 1.0 0.0 1.0 1.0 2:0.5 4:1.0 12:0.33 17:0.5 18:0.33 21:1.0 25:1.0 30:0.5 42:1.0 43:0.33 46:0.5 50:0.5 
-0.0 0.0 0.0 1.0 1.0 0.0 0.0 2:1.0 3:0.5 4:1.0 7:1.0 10:0.17 11:0.5 12:1.0 13:0.25 14:0.25 17:1.0 18:1.0 21:1.0 23:0.17 24:0.2 25:1.0 26:0.25 29:0.2 30:1.0 33:0.5 41:1.0 42:1.0 43:1.0 46:1.0 50:1.0 51:0.17 52:0.25 
-0.9274560177704996 -0.0 0.0 0.0 0.0 1.0 1.0 1:1.0 2:0.25 3:1.0 5:1.0 6:0.5 7:0.5 9:1.0 10:1.0 11:1.0 13:1.0 14:1.0 15:1.0 20:1.0 23:0.83 24:1.0 26:1.0 29:0.8 31:1.0 32:1.0 33:1.0 34:1.0 35:1.0 36:1.0 37:1.0 38:1.0 39:1.0 43:0.33 44:1.0 45:1.0 48:1.0 49:1.0 50:0.5 51:1.0 52:1.0 
-0.005867297979435847 -0.0 0.0 0.0 0.0 0.0 1.0 1:1.0 2:0.5 3:1.0 5:1.0 6:1.0 7:0.5 8:1.0 9:1.0 10:1.0 11:1.0 13:1.0 14:1.0 15:1.0 19:1.0 20:1.0 21:0.5 22:0.5 23:1.0 24:1.0 26:1.0 27:0.5 29:1.0 31:1.0 32:1.0 33:1.0 34:1.0 35:1.0 36:1.0 37:1.0 38:1.0 39:1.0 40:0.14 43:0.33 44:1.0 45:1.0 47:1.0 48:1.0 49:1.0 50:0.5 51:1.0 52:1.0 
-0.06542053991554793 -0.2404987970442493 0.7331840168514316 0.0 0.0 0.0 1.0 1:1.0 2:0.25 3:1.0 5:1.0 6:0.5 7:0.5 8:1.0 10:0.83 11:1.0 13:0.75 14:1.0 15:0.33 20:0.17 23:1.0 24:1.0 26:1.0 27:0.5 29:1.0 32:1.0 33:0.5 34:0.33 35:1.0 36:1.0 37:0.8 38:1.0 39:1.0 43:0.33 47:1.0 48:1.0 49:1.0 50:0.5 51:1.0 52:1.0 
-0.7942487810843507 -0.0 0.0 0.0 0.0 0.4840738119497825 1.0 1:1.0 2:0.5 3:1.0 5:1.0 6:1.0 7:0.5 8:1.0 9:1.0 10:1.0 11:1.0 13:1.0 14:1.0 15:1.0 19:1.0 20:1.0 21:0.5 22:0.5 23:1.0 24:1.0 26:1.0 27:0.5 29:1.0 31:1.0 32:1.0 33:1.0 34:1.0 35:1.0 36:1.0 37:1.0 38:1.0 39:1.0 40:0.14 43:0.33 44:1.0 45:1.0 47:1.0 48:1.0 49:1.0 50:0.5 51:1.0 52:1.0 
-1.0 -1.0 1.0 1.0 1.0 1.0 1.0 1:1.0 5:1.0 10:0.67 13:0.5 14:0.75 23:0.67 24:0.8 26:0.75 29:0.6 32:1.0 35:1.0 36:1.0 37:0.8 38:0.75 39:1.0 49:1.0 51:0.67 52:0.5 
-1.0 -1.0 1.0 1.0 1.0 1.0 1.0 1:1.0 5:1.0 10:0.67 13:0.5 14:0.75 23:0.67 24:0.8 26:0.75 29:0.6 32:1.0 35:1.0 36:1.0 37:0.8 38:0.75 39:1.0 49:1.0 51:0.67 52:0.5 
-1.0 -1.0 1.0 1.0 1.0 1.0 1.0 2:0.25 3:1.0 6:0.5 7:0.5 9:1.0 10:0.33 11:1.0 13:0.5 14:0.25 15:1.0 20:1.0 23:0.17 24:0.2 26:0.25 29:0.2 31:1.0 33:1.0 34:1.0 37:0.2 38:0.25 43:0.33 44:1.0 45:1.0 48:1.0 50:0.5 51:0.33 52:0.5 
-0.17209054361010465 -0.9872508576067184 1.0 0.24061768940581024 0.5962769553074443 1.0 1.0 1:1.0 2:0.25 3:0.5 5:1.0 6:1.0 7:0.5 8:1.0 9:0.25 10:1.0 11:0.5 13:1.0 14:1.0 19:1.0 20:0.17 22:0.5 23:1.0 24:1.0 26:1.0 27:0.5 29:1.0 31:1.0 32:1.0 33:1.0 34:0.33 35:1.0 36:1.0 37:1.0 38:0.75 39:1.0 40:0.14 43:0.33 44:0.25 45:0.2 47:1.0 49:1.0 50:0.5 51:0.83 52:0.75 
-0.9976565322076693 -0.0 0.0 0.0 0.0 0.9913610590372262 1.0 1:1.0 2:0.5 3:1.0 5:1.0 6:1.0 7:0.5 8:1.0 9:1.0 10:1.0 11:1.0 13:1.0 14:1.0 15:1.0 19:1.0 20:1.0 21:0.5 22:0.5 23:1.0 24:1.0 26:1.0 27:0.5 29:1.0 31:1.0 32:1.0 33:1.0 34:1.0 35:1.0 36:1.0 37:1.0 38:1.0 39:1.0 40:0.14 43:0.33 44:1.0 45:1.0 47:1.0 48:1.0 49:1.0 50:0.5 51:1.0 52:1.0 
-1.0 -1.0 1.0 1.0 1.0 1.0 1.0 2:0.25 3:1.0 6:0.5 7:0.5 9:1.0 10:0.33 11:1.0 13:0.5 14:0.25 15:1.0 20:1.0 23:0.17 24:0.2 26:0.25 29:0.2 31:1.0 33:1.0 34:1.0 37:0.2 38:0.25 43:0.33 44:1.0 45:1.0 48:1.0 50:0.5 51:0.33 52:0.5 
-0.0 -1.0 -0.0 1.0 1.0 0.6477374858801956 1.0 2:0.5 3:0.5 4:1.0 7:0.5 10:0.17 11:0.5 12:0.67 13:0.25 14:0.25 16:1.0 17:0.5 18:0.67 21:0.5 22:0.5 23:0.17 24:0.2 25:1.0 26:0.25 28:1.0 29:0.2 30:0.5 33:0.5 40:0.86 42:1.0 43:0.67 46:0.5 50:1.0 51:0.17 52:0.25 
-1.0 -0.0 -1.0 0.0 0.0 1.0 1.0 2:0.25 3:0.5 6:0.5 7:0.5 9:0.25 10:0.33 11:0.5 13:0.5 14:0.25 16:1.0 19:1.0 20:0.17 22:1.0 23:0.17 24:0.2 26:0.25 28:1.0 29:0.2 31:1.0 33:1.0 34:0.33 37:0.2 40:1.0 43:0.33 44:0.25 45:0.2 50:0.5 51:0.17 52:0.25 
-0.0 -1.0 -0.0 0.8619336306234109 0.0 1.0 1.0 2:0.25 3:0.5 7:0.5 10:0.17 11:0.5 13:0.25 14:0.25 16:1.0 19:1.0 22:1.0 23:0.17 24:0.2 26:0.25 28:0.17 29:0.2 33:0.5 40:0.29 43:0.33 50:0.5 51:0.17 52:0.25 
-0.27507914138081446 -1.0 -0.4493600018069451 1.0 1.0 0.0 1.0 2:0.75 3:0.5 4:1.0 7:1.0 10:0.17 11:0.5 12:1.0 13:0.25 14:0.25 16:1.0 17:1.0 18:1.0 21:0.5 22:0.5 23:0.17 24:0.2 25:1.0 26:0.25 28:1.0 29:0.2 30:1.0 33:0.5 40:0.86 41:1.0 42:1.0 43:1.0 46:1.0 50:1.0 51:0.17 52:0.25 
-1.0 -1.0 -0.1626666881095005 1.0 0.12107739911330655 1.0 1.0 2:0.25 3:0.5 7:0.5 10:0.17 11:0.5 13:0.25 14:0.25 16:1.0 19:1.0 22:1.0 23:0.17 24:0.2 26:0.25 28:0.17 29:0.2 33:0.5 40:0.29 43:0.33 50:0.5 51:0.17 52:0.25 
-1.0 -0.0 -1.0 0.0 0.0 0.9779036510834553 1.0 2:0.25 3:1.0 6:0.5 7:0.5 8:1.0 10:0.17 11:1.0 13:0.25 14:0.25 15:0.33 16:1.0 19:1.0 20:0.17 22:1.0 23:0.33 24:0.2 26:0.25 27:0.5 28:1.0 29:0.4 33:0.5 34:0.33 38:0.25 40:1.0 43:0.33 47:1.0 48:1.0 50:0.5 51:0.33 52:0.5 
-1.0 -0.22013491076806024 -0.1521590852831223 0.0 0.3353231107152079 1.0 1.0 2:0.25 3:0.5 6:0.5 7:0.5 8:1.0 10:0.17 11:0.5 12:0.33 13:0.25 14:0.25 16:1.0 18:0.33 22:0.5 23:0.33 24:0.2 26:0.25 27:0.5 28:1.0 29:0.4 33:0.5 40:0.86 43:0.33 47:1.0 50:0.5 51:0.17 52:0.25 
-1.0 -0.9845532821816628 -0.9965752278950145 0.0 0.8252052110571357 1.0 1.0 2:0.25 3:0.5 6:0.5 7:0.5 8:1.0 10:0.17 11:0.5 12:0.33 13:0.25 14:0.25 16:1.0 18:0.33 22:0.5 23:0.33 24:0.2 26:0.25 27:0.5 28:1.0 29:0.4 33:0.5 40:0.86 43:0.33 47:1.0 50:0.5 51:0.17 52:0.25 
-0.0 -0.0 -0.0 0.0 0.0 0.0 0.7530738059374582 16:1.0 19:1.0 22:1.0 28:1.0 40:1.0 
-0.0 -1.0 -0.0 1.0 1.0 0.8362171548840853 1.0 2:0.5 3:0.5 7:1.0 10:0.17 11:0.5 12:0.67 13:0.25 14:0.25 16:1.0 17:0.5 18:0.67 22:0.5 23:0.17 24:0.2 26:0.25 28:1.0 29:0.2 30:0.5 33:0.5 40:0.86 41:1.0 43:0.67 46:0.5 50:0.5 51:0.17 52:0.25 
-0.0 -0.0 -0.0 0.0 0.0 0.0 1.0 16:1.0 19:1.0 22:1.0 28:1.0 40:1.0 
-0.0 -1.0 -0.0 1.0 1.0 0.0 0.17412905625952052 2:0.5 3:0.5 7:1.0 10:0.17 11:0.5 12:0.33 13:0.25 14:0.25 16:1.0 17:0.5 18:0.33 19:1.0 22:1.0 23:0.17 24:0.2 26:0.25 28:1.0 29:0.2 30:0.5 33:0.5 40:1.0 41:1.0 43:0.67 46:0.5 50:0.5 51:0.17 52:0.25 
-0.0 -0.0 -0.0 0.0 0.0 1.0 1.0 16:1.0 19:1.0 22:1.0 28:1.0 40:1.0 
-1.0 -1.0 -1.0 1.0 1.0 1.0 1.0 2:0.25 3:0.5 7:0.5 10:0.17 11:0.5 13:0.25 14:0.25 16:1.0 19:1.0 22:1.0 23:0.17 24:0.2 26:0.25 28:0.17 29:0.2 33:0.5 40:0.29 43:0.33 50:0.5 51:0.17 52:0.25 
-0.0 -0.0 -0.0 0.0 0.0 1.0 1.0 16:1.0 19:1.0 22:1.0 28:1.0 40:1.0 
-0.0 -0.4246545325387904 -0.0 0.0 0.0 0.5781243909301702 0.8933765888929132 16:1.0 19:1.0 22:1.0 28:1.0 40:1.0 
-0.9835116961127487 -1.0 -0.9724230137568494 1.0 0.9911131178420499 1.0 1.0 2:0.25 3:0.5 7:0.5 10:0.17 11:0.5 13:0.25 14:0.25 16:1.0 19:1.0 22:1.0 23:0.17 24:0.2 26:0.25 28:0.17 29:0.2 33:0.5 40:0.29 43:0.33 50:0.5 51:0.17 52:0.25 
-1.0 -0.2177321136809917 -1.0 -0.8215388239682361 1.0 1.0 1.0 2:1.0 3:0.5 4:1.0 6:0.5 7:1.0 9:0.25 10:0.33 11:0.5 12:0.67 13:0.5 14:0.25 17:1.0 18:0.67 19:1.0 20:0.17 21:1.0 22:0.5 23:0.17 24:0.2 25:1.0 26:0.25 29:0.2 30:1.0 31:1.0 33:1.0 34:0.33 37:0.2 40:0.14 41:1.0 42:1.0 43:1.0 44:0.25 45:0.2 46:1.0 50:1.0 51:0.17 52:0.25 
-0.0 -1.0 -0.0 -0.04039480665517484 0.0 0.0 0.0 2:1.0 3:0.5 4:1.0 7:1.0 10:0.17 11:0.5 12:0.67 13:0.25 14:0.25 17:1.0 18:0.67 19:1.0 21:1.0 22:0.5 23:0.17 24:0.2 25:1.0 26:0.25 29:0.2 30:1.0 33:0.5 40:0.14 41:1.0 42:1.0 43:1.0 46:1.0 50:1.0 51:0.17 52:0.25 
-0.0 -1.0 -0.0 -0.0 0.0 0.0 0.0 2:1.0 3:0.5 4:1.0 7:1.0 10:0.17 11:0.5 12:1.0 13:0.25 14:0.25 17:1.0 18:1.0 21:1.0 23:0.17 24:0.2 25:1.0 26:0.25 29:0.2 30:1.0 33:0.5 41:1.0 42:1.0 43:1.0 46:1.0 50:1.0 51:0.17 52:0.25 
-0.0 -1.0 -0.0 -1.0 0.0 0.0 0.9082167902527847 2:1.0 3:0.5 4:1.0 7:1.0 10:0.17 11:0.5 12:0.67 13:0.25 14:0.25 17:1.0 18:0.67 19:1.0 21:1.0 22:0.5 23:0.17 24:0.2 25:1.0 26:0.25 29:0.2 30:1.0 33:0.5 40:0.14 41:1.0 42:1.0 43:1.0 46:1.0 50:1.0 51:0.17 52:0.25 
-1.0 -1.0 -1.0 -1.0 1.0 1.0 1.0 2:0.5 4:1.0 12:0.33 17:0.5 18:0.33 21:1.0 25:1.0 30:0.5 42:1.0 43:0.33 46:0.5 50:0.5 
-0.0 -1.0 -0.0 -0.0 0.0 0.0 0.0 2:1.0 3:0.5 4:1.0 7:1.0 10:0.17 11:0.5 12:1.0 13:0.25 14:0.25 17:1.0 18:1.0 21:1.0 23:0.17 24:0.2 25:1.0 26:0.25 29:0.2 30:1.0 33:0.5 41:1.0 42:1.0 43:1.0 46:1.0 50:1.0 51:0.17 52:0.25 
-0.0 -1.0 -0.0 -0.0 0.2419525729014205 0.0 0.0 2:1.0 3:0.5 4:1.0 7:1.0 10:0.17 11:0.5 12:1.0 13:0.25 14:0.25 17:1.0 18:1.0 21:1.0 23:0.17 24:0.2 25:1.0 26:0.25 29:0.2 30:1.0 33:0.5 41:1.0 42:1.0 43:1.0 46:1.0 50:1.0 51:0.17 52:0.25 
-0.0 -1.0 -0.0 -1.0 0.0 0.0 1.0 2:1.0 3:0.5 4:1.0 7:1.0 10:0.17 11:0.5 12:0.67 13:0.25 14:0.25 17:1.0 18:0.67 19:1.0 21:1.0 22:0.5 23:0.17 24:0.2 25:1.0 26:0.25 29:0.2 30:1.0 33:0.5 40:0.14 41:1.0 42:1.0 43:1.0 46:1.0 50:1.0 51:0.17 52:0.25 
-0.0 -1.0 -0.0 -0.0 1.0 0.0 0.0 2:1.0 3:0.5 4:1.0 7:1.0 10:0.17 11:0.5 12:1.0 13:0.25 14:0.25 17:1.0 18:1.0 21:1.0 23:0.17 24:0.2 25:1.0 26:0.25 29:0.2 30:1.0 33:0.5 41:1.0 42:1.0 43:1.0 46:1.0 50:1.0 51:0.17 52:0.25 
-0.0 -1.0 -0.0 -0.0 1.0 0.0 0.0 2:1.0 3:0.5 4:1.0 7:1.0 10:0.17 11:0.5 12:1.0 13:0.25 14:0.25 17:1.0 18:1.0 21:1.0 23:0.17 24:0.2 25:1.0 26:0.25 29:0.2 30:1.0 33:0.5 41:1.0 42:1.0 43:1.0 46:1.0 50:1.0 51:0.17 52:0.25 
-1.0 -1.0 -1.0 -1.0 1.0 1.0 1.0 2:0.5 4:1.0 7:0.5 12:1.0 17:1.0 18:1.0 21:0.5 25:1.0 27:0.5 30:1.0 41:1.0 42:1.0 43:0.67 46:1.0 50:0.5 
-0.0 -1.0 -0.0 -1.0 0.0 0.6625111202348477 1.0 2:1.0 3:0.5 4:1.0 7:1.0 10:0.17 11:0.5 12:0.67 13:0.25 14:0.25 17:1.0 18:0.67 19:1.0 21:1.0 22:0.5 23:0.17 24:0.2 25:1.0 26:0.25 29:0.2 30:1.0 33:0.5 40:0.14 41:1.0 42:1.0 43:1.0 46:1.0 50:1.0 51:0.17 52:0.25 
-0.2146246363739375 -1.0 -0.0 -1.0 0.0 1.0 0.7296072008522422 2:1.0 3:0.5 4:1.0 7:1.0 10:0.17 11:0.5 12:0.67 13:0.25 14:0.25 17:1.0 18:0.67 19:1.0 21:1.0 22:0.5 23:0.17 24:0.2 25:1.0 26:0.25 29:0.2 30:1.0 33:0.5 40:0.14 41:1.0 42:1.0 43:1.0 46:1.0 50:1.0 51:0.17 52:0.25 
-0.0 -1.0 -0.0 -0.0 1.0 0.0 0.23935616238471505 2:1.0 3:0.5 4:1.0 7:1.0 10:0.17 11:0.5 12:1.0 13:0.25 14:0.25 17:1.0 18:1.0 21:1.0 23:0.17 24:0.2 25:1.0 26:0.25 29:0.2 30:1.0 33:0.5 41:1.0 42:1.0 43:1.0 46:1.0 50:1.0 51:0.17 52:0.25 
-0.2560728089861826 -0.7822678863190082 -0.24061768940581024 -0.0 1.0 0.0 1.0 2:1.0 3:0.5 4:1.0 7:1.0 10:0.17 11:0.5 12:1.0 13:0.25 14:0.25 17:1.0 18:1.0 21:1.0 23:0.17 24:0.2 25:1.0 26:0.25 29:0.2 30:1.0 33:0.5 41:1.0 42:1.0 43:1.0 46:1.0 50:1.0 51:0.17 52:0.25 
-1.0 -1.0 -1.0 -1.0 0.7580474270985795 1.0 1.0 2:0.5 3:0.5 4:1.0 7:0.5 10:0.17 11:0.5 12:0.33 13:0.25 14:0.25 17:0.5 18:0.33 19:1.0 21:0.5 22:0.5 23:0.17 24:0.2 25:1.0 26:0.25 29:0.2 30:0.5 33:0.5 40:0.14 42:1.0 43:0.67 46:0.5 50:1.0 51:0.17 52:0.25 
-0.0 -1.0 -0.4855464066122709 -1.0 -1.0 0.0 1.0 2:0.5 4:1.0 5:0.25 7:0.5 10:0.17 12:1.0 13:0.25 14:0.25 17:1.0 18:1.0 21:0.5 23:0.17 24:0.2 25:1.0 26:0.25 30:1.0 32:0.25 36:0.17 37:0.2 38:0.25 39:0.17 41:1.0 42:1.0 43:0.67 46:1.0 49:0.14 50:0.5 51:0.17 52:0.25 
-1.0 -1.0 -1.0 -1.0 -1.0 1.0 1.0 2:0.5 4:1.0 12:0.33 17:0.5 18:0.33 21:1.0 25:1.0 30:0.5 42:1.0 43:0.33 46:0.5 50:0.5 
-0.0 -1.0 -0.0 -1.0 -1.0 0.0 1.0 2:1.0 3:0.5 4:1.0 7:1.0 10:0.17 11:0.5 12:0.67 13:0.25 14:0.25 17:1.0 18:0.67 21:1.0 23:0.17 24:0.2 25:1.0 26:0.25 29:0.2 30:1.0 33:0.5 41:1.0 42:1.0 43:1.0 46:1.0 50:1.0 51:0.17 52:0.25 
-1.0 -1.0 -1.0 -1.0 -1.0 1.0 1.0 2:0.75 3:0.5 4:1.0 6:1.0 7:1.0 8:1.0 9:0.25 10:0.33 11:0.5 12:1.0 13:0.5 14:0.25 17:1.0 18:1.0 20:0.17 21:0.5 23:0.33 24:0.2 25:1.0 26:0.25 27:0.5 28:0.17 29:0.4 30:1.0 31:1.0 33:1.0 34:0.33 37:0.2 40:0.14 41:1.0 42:1.0 43:1.0 44:0.25 45:0.2 46:1.0 47:1.0 50:1.0 51:0.17 52:0.25 
-0.0 -1.0 -1.0 -1.0 -1.0 0.8415946934900084 1.0 2:0.5 4:1.0 5:0.25 7:0.5 10:0.17 12:1.0 13:0.25 14:0.25 17:1.0 18:1.0 21:0.5 23:0.17 24:0.2 25:1.0 26:0.25 30:1.0 32:0.25 36:0.17 37:0.2 38:0.25 39:0.17 41:1.0 42:1.0 43:0.67 46:1.0 49:0.14 50:0.5 51:0.17 52:0.25 
-0.8404284962674605 -1.0 -0.0 -1.0 -1.0 1.0 1.0 2:0.5 4:1.0 7:0.5 12:1.0 17:1.0 18:1.0 21:0.5 25:1.0 27:0.5 30:1.0 41:1.0 42:1.0 43:0.67 46:1.0 50:0.5 
-1.0 -1.0 -0.1107305486951736 -0.2727188387277001 -1.0 1.0 1.0 2:0.75 3:0.5 4:1.0 6:0.5 7:1.0 9:0.25 10:0.33 11:0.5 12:1.0 13:0.5 14:0.25 17:1.0 18:1.0 20:0.17 21:0.5 23:0.17 24:0.2 25:1.0 26:0.25 29:0.2 30:1.0 31:1.0 33:1.0 34:0.33 37:0.2 41:1.0 42:1.0 43:1.0 44:0.25 45:0.2 46:1.0 50:1.0 51:0.17 52:0.25 
-1.0 -1.0 -1.0 -1.0 -1.0 1.0 1.0 2:0.75 3:0.5 4:1.0 5:0.25 6:0.5 7:1.0 9:0.25 10:0.5 11:0.5 12:0.67 13:0.75 14:0.5 17:1.0 18:0.67 19:1.0 20:0.17 21:0.5 22:0.5 23:0.33 24:0.4 25:1.0 26:0.5 29:0.2 30:1.0 31:1.0 32:0.25 33:1.0 34:0.33 36:0.17 37:0.4 38:0.25 39:0.17 40:0.14 41:1.0 42:1.0 43:1.0 44:0.25 45:0.2 46:1.0 49:0.14 50:1.0 51:0.33 52:0.5 
-0.0 -0.0 -0.0 -0.0 -0.0 -0.0 1.0 2:0.25 3:1.0 6:0.5 7:0.5 9:1.0 10:0.33 11:1.0 13:0.5 14:0.25 15:1.0 20:1.0 23:0.17 24:0.2 26:0.25 29:0.2 31:1.0 33:1.0 34:1.0 37:0.2 38:0.25 43:0.33 44:1.0 45:1.0 48:1.0 50:0.5 51:0.33 52:0.5 
-0.0 -0.0 -0.0 -0.0 -0.0 -0.0 1.0 2:0.25 3:1.0 6:0.5 7:0.5 9:1.0 10:0.33 11:1.0 13:0.5 14:0.25 15:1.0 20:1.0 23:0.17 24:0.2 26:0.25 29:0.2 31:1.0 33:1.0 34:1.0 37:0.2 38:0.25 43:0.33 44:1.0 45:1.0 48:1.0 50:0.5 51:0.33 52:0.5 
-1.0 -0.0 -0.006808328007334277 -0.0 -0.0 -0.0 1.0 2:0.25 3:1.0 6:0.5 7:0.5 9:1.0 10:0.33 11:1.0 13:0.5 14:0.25 15:1.0 20:1.0 23:0.17 24:0.2 26:0.25 29:0.2 31:1.0 33:1.0 34:1.0 37:0.2 38:0.25 43:0.33 44:1.0 45:1.0 48:1.0 50:0.5 51:0.33 52:0.5 
-1.0 -0.0 -1.0 -0.0 -0.0 -0.0 1.0 2:0.25 3:1.0 6:0.5 7:0.5 9:1.0 10:0.33 11:1.0 13:0.5 14:0.25 15:1.0 20:1.0 23:0.17 24:0.2 26:0.25 29:0.2 31:1.0 33:1.0 34:1.0 37:0.2 38:0.25 43:0.33 44:1.0 45:1.0 48:1.0 50:0.5 51:0.33 52:0.5 
-0.0 -0.0 -0.0 -1.0 -0.0 -0.0 1.0 6:0.5 9:0.25 10:0.17 13:0.25 20:0.17 28:0.17 31:1.0 33:0.5 34:0.33 37:0.2 40:0.14 44:0.25 45:0.2 
-1.0 -0.0 -1.0 -0.0 -0.0 -0.0 1.0 2:0.25 3:1.0 6:0.5 7:0.5 9:1.0 10:0.33 11:1.0 13:0.5 14:0.25 15:1.0 20:1.0 23:0.17 24:0.2 26:0.25 29:0.2 31:1.0 33:1.0 34:1.0 37:0.2 38:0.25 43:0.33 44:1.0 45:1.0 48:1.0 50:0.5 51:0.33 52:0.5 
-0.0 -1.0 -0.0 -1.0 -1.0 -0.3390637265606947 1.0 2:0.25 3:0.5 6:0.5 7:0.5 9:0.25 10:0.33 11:0.5 13:0.5 14:0.25 19:1.0 20:0.17 22:0.5 23:0.17 24:0.2 26:0.25 29:0.2 31:1.0 33:1.0 34:0.33 37:0.2 40:0.14 43:0.33 44:0.25 45:0.2 50:0.5 51:0.17 52:0.25 
-0.0 -1.0 -0.0 -0.0399826827779065 -1.0 -1.0 1.0 2:0.25 6:0.5 9:0.25 10:0.17 13:0.25 20:0.17 21:0.5 31:1.0 33:0.5 34:0.33 37:0.2 44:0.25 45:0.2 
-0.1550445582315688 -1.0 -0.25643312040730315 -1.0 -1.0 -1.0 1.0 2:0.25 6:0.5 9:0.25 10:0.17 13:0.25 20:0.17 21:0.5 31:1.0 33:0.5 34:0.33 37:0.2 44:0.25 45:0.2 
-1.0 -0.0 -0.6819977705252301 -1.0 -0.0 -0.0 1.0 2:0.25 3:0.5 6:1.0 7:0.5 8:1.0 9:0.25 10:0.33 11:0.5 13:0.5 14:0.25 19:1.0 20:0.17 22:0.5 23:0.33 24:0.2 26:0.25 27:0.5 28:0.17 29:0.4 31:1.0 33:1.0 34:0.33 37:0.2 40:0.29 43:0.33 44:0.25 45:0.2 47:1.0 50:0.5 51:0.17 52:0.25 
-1.0 -0.0 -1.0 -0.0 -0.0 -0.0 1.0 2:0.25 3:1.0 6:0.5 7:0.5 9:1.0 10:0.33 11:1.0 13:0.5 14:0.25 15:1.0 20:1.0 23:0.17 24:0.2 26:0.25 29:0.2 31:1.0 33:1.0 34:1.0 37:0.2 38:0.25 43:0.33 44:1.0 45:1.0 48:1.0 50:0.5 51:0.33 52:0.5 
-0.0 -0.0 -0.0 -1.0 -0.0 -0.0 1.0 6:0.5 9:0.25 10:0.17 13:0.25 20:0.17 28:0.17 31:1.0 33:0.5 34:0.33 37:0.2 40:0.14 44:0.25 45:0.2 
-0.0 -1.0 -0.0 -1.0 -1.0 -1.0 1.0 2:0.25 3:0.5 6:0.5 7:0.5 9:0.25 10:0.33 11:0.5 13:0.5 14:0.25 19:1.0 20:0.17 22:0.5 23:0.17 24:0.2 26:0.25 29:0.2 31:1.0 33:1.0 34:0.33 37:0.2 40:0.14 43:0.33 44:0.25 45:0.2 50:0.5 51:0.17 52:0.25 
-0.0 -0.0 -0.0 -1.0 -0.0 -0.0 1.0 6:0.5 9:0.25 10:0.17 13:0.25 20:0.17 28:0.17 31:1.0 33:0.5 34:0.33 37:0.2 40:0.14 44:0.25 45:0.2 
-0.8164460575693616 -0.0 -1.0 -0.0 -0.02071492941980045 -0.06632858023174151 1.0 2:0.25 3:1.0 6:0.5 7:0.5 9:1.0 10:0.33 11:1.0 13:0.5 14:0.25 15:1.0 20:1.0 23:0.17 24:0.2 26:0.25 29:0.2 31:1.0 33:1.0 34:1.0 37:0.2 38:0.25 43:0.33 44:1.0 45:1.0 48:1.0 50:0.5 51:0.33 52:0.5 
-1.0 -0.7978425866210642 -1.0 -1.0 -0.3974444074223306 -0.22457785345792453 1.0 2:0.25 3:0.5 6:1.0 7:0.5 8:1.0 9:0.25 10:0.33 11:0.5 13:0.5 14:0.25 19:1.0 20:0.17 22:0.5 23:0.33 24:0.2 26:0.25 27:0.5 28:0.17 29:0.4 31:1.0 33:1.0 34:0.33 37:0.2 40:0.29 43:0.33 44:0.25 45:0.2 47:1.0 50:0.5 51:0.17 52:0.25 
-0.04268974639522479 -0.7388584843743502 -0.0 -1.0 -0.0 -0.0 1.0 6:0.5 9:0.25 10:0.17 13:0.25 20:0.17 28:0.17 31:1.0 33:0.5 34:0.33 37:0.2 40:0.14 44:0.25 45:0.2 
-0.990594455815112 -0.2613988499051385 -0.8917810824004453 -1.0 -0.24435178339271663 -1.0 1.0 2:0.25 3:1.0 6:1.0 7:0.5 8:1.0 9:0.25 10:0.33 11:1.0 13:0.5 14:0.25 15:0.33 20:0.33 23:0.33 24:0.2 26:0.25 27:0.5 28:0.17 29:0.4 31:1.0 33:1.0 34:0.67 37:0.2 38:0.25 40:0.14 43:0.33 44:0.25 45:0.2 47:1.0 48:1.0 50:0.5 51:0.33 52:0.5 
-0.9952251819887329 -0.948738165038267 -0.0 -1.0 -0.0 -0.2116245332396475 1.0 6:0.5 9:0.25 10:0.17 13:0.25 20:0.17 28:0.17 31:1.0 33:0.5 34:0.33 37:0.2 40:0.14 44:0.25 45:0.2 
-0.0 -1.0 -0.6384145696466956 -1.0 -1.0 -1.0 1.0 2:0.25 3:0.5 6:0.5 7:0.5 9:0.25 10:0.33 11:0.5 13:0.5 14:0.25 19:1.0 20:0.17 22:0.5 23:0.17 24:0.2 26:0.25 29:0.2 31:1.0 33:1.0 34:0.33 37:0.2 40:0.14 43:0.33 44:0.25 45:0.2 50:0.5 51:0.17 52:0.25 
-0.0 -0.0 -0.0 -1.0 -0.0 -0.0 -1.0 2:0.25 3:0.5 6:0.5 7:0.5 9:0.25 10:0.33 11:0.5 13:0.5 14:0.25 19:1.0 20:0.17 22:0.5 23:0.17 24:0.2 26:0.25 29:0.2 31:1.0 33:1.0 34:0.33 37:0.2 40:0.14 43:0.33 44:0.25 45:0.2 50:0.5 51:0.17 52:0.25 
-0.0 -0.0 -0.0 -0.0 -0.0 -0.0 -1.0 2:0.25 3:1.0 6:0.5 7:0.5 9:1.0 10:0.33 11:1.0 13:0.5 14:0.25 15:1.0 20:1.0 23:0.17 24:0.2 26:0.25 29:0.2 31:1.0 33:1.0 34:1.0 37:0.2 38:0.25 43:0.33 44:1.0 45:1.0 48:1.0 50:0.5 51:0.33 52:0.5 
-1.0 -0.0 -0.0 -0.0 -0.0 -0.0 -1.0 2:0.25 3:1.0 6:0.5 7:0.5 9:1.0 10:0.33 11:1.0 13:0.5 14:0.25 15:1.0 20:1.0 23:0.17 24:0.2 26:0.25 29:0.2 31:1.0 33:1.0 34:1.0 37:0.2 38:0.25 43:0.33 44:1.0 45:1.0 48:1.0 50:0.5 51:0.33 52:0.5 
-0.0441355920882093 -1.0 -0.0 -1.0 -0.5458574010497864 -1.0 -1.0 2:0.25 6:0.5 9:0.25 10:0.17 13:0.25 20:0.17 21:0.5 31:1.0 33:0.5 34:0.33 37:0.2 44:0.25 45:0.2 
-0.0 -0.0 -0.0 -1.0 -0.0 -0.0 -1.0 2:0.25 3:0.5 6:0.5 7:0.5 9:0.25 10:0.33 11:0.5 13:0.5 14:0.25 19:1.0 20:0.17 22:0.5 23:0.17 24:0.2 26:0.25 29:0.2 31:1.0 33:1.0 34:0.33 37:0.2 40:0.14 43:0.33 44:0.25 45:0.2 50:0.5 51:0.17 52:0.25 
-0.0 -1.0 -0.0 -1.0 -0.2031449229027271 -0.0 -1.0 2:0.25 3:0.5 6:0.5 7:0.5 9:0.25 10:0.33 11:0.5 13:0.5 14:0.25 19:1.0 20:0.17 22:0.5 23:0.17 24:0.2 26:0.25 29:0.2 31:1.0 33:1.0 34:0.33 37:0.2 40:0.14 43:0.33 44:0.25 45:0.2 50:0.5 51:0.17 52:0.25 
-1.0 -0.0 -0.29312894069732237 -0.0 -0.0 -0.0 -1.0 2:0.25 3:1.0 6:0.5 7:0.5 9:1.0 10:0.33 11:1.0 13:0.5 14:0.25 15:1.0 20:1.0 23:0.17 24:0.2 26:0.25 29:0.2 31:1.0 33:1.0 34:1.0 37:0.2 38:0.25 43:0.33 44:1.0 45:1.0 48:1.0 50:0.5 51:0.33 52:0.5 
-0.03397089262604354 -0.8048793487669456 -0.0 -1.0 -0.9908086637861172 -0.0 -1.0 2:0.25 3:0.5 6:0.5 7:0.5 9:0.25 10:0.33 11:0.5 13:0.5 14:0.25 19:1.0 20:0.17 22:0.5 23:0.17 24:0.2 26:0.25 29:0.2 31:1.0 33:1.0 34:0.33 37:0.2 40:0.14 43:0.33 44:0.25 45:0.2 50:0.5 51:0.17 52:0.25 
-1.0 -0.0 -1.0 -0.0 -0.0 -0.0 -1.0 2:0.25 3:1.0 6:0.5 7:0.5 9:1.0 10:0.33 11:1.0 13:0.5 14:0.25 15:1.0 20:1.0 23:0.17 24:0.2 26:0.25 29:0.2 31:1.0 33:1.0 34:1.0 37:0.2 38:0.25 43:0.33 44:1.0 45:1.0 48:1.0 50:0.5 51:0.33 52:0.5 
-0.0 -0.0 -0.0 -0.0 -0.0 -0.0 -1.0 3:0.5 6:0.5 9:1.0 10:0.33 11:0.5 13:0.25 15:1.0 19:1.0 20:1.0 22:0.5 23:0.17 24:0.2 26:0.25 27:0.5 29:0.2 31:1.0 32:0.25 33:0.5 34:1.0 36:0.17 37:0.4 38:0.25 39:0.17 40:0.14 44:1.0 45:1.0 48:1.0 49:0.14 51:0.33 52:0.5 
-0.9131015923179453 -0.0 -0.972346602131464 -0.0 -0.0 -0.0 -1.0 2:0.25 3:1.0 6:0.5 7:0.5 9:1.0 10:0.33 11:1.0 13:0.5 14:0.25 15:1.0 20:1.0 23:0.17 24:0.2 26:0.25 29:0.2 31:1.0 33:1.0 34:1.0 37:0.2 38:0.25 43:0.33 44:1.0 45:1.0 48:1.0 50:0.5 51:0.33 52:0.5 
-0.008296572702562854 -0.0 -0.040469578708268575 -0.04241164705460299 -0.0 -0.0 -1.0 3:0.5 6:0.5 9:1.0 10:0.33 11:0.5 13:0.25 15:1.0 19:1.0 20:1.0 22:0.5 23:0.17 24:0.2 26:0.25 27:0.5 29:0.2 31:1.0 32:0.25 33:0.5 34:1.0 36:0.17 37:0.4 38:0.25 39:0.17 40:0.14 44:1.0 45:1.0 48:1.0 49:0.14 51:0.33 52:0.5 
-0.0 -0.9089905608213246 -1.0 -1.0 -0.6196163303028588 -0.8994347659930336 -0.31215719703136785 1:1.0 5:1.0 10:0.67 13:0.5 14:0.75 23:0.67 24:0.8 26:0.75 29:0.6 32:1.0 35:1.0 36:1.0 37:0.8 38:0.75 39:1.0 49:1.0 51:0.67 52:0.5 
-0.0 -0.0 -1.0 -0.0 -0.0 -0.0 -0.0 2:0.5 3:1.0 6:1.0 7:0.5 8:1.0 9:1.0 10:0.5 11:1.0 13:0.5 14:0.25 15:1.0 19:1.0 20:1.0 21:0.5 22:0.5 23:0.5 24:0.4 26:0.5 27:0.5 29:0.6 31:1.0 32:0.25 33:1.0 34:1.0 36:0.17 37:0.4 38:0.25 39:0.17 40:0.14 43:0.33 44:1.0 45:1.0 47:1.0 48:1.0 49:0.14 50:0.5 51:0.5 52:0.75 
-0.11186310705296504 -0.0 -0.0 -0.0 -0.0 -0.0 -0.0 2:0.25 3:0.5 6:1.0 7:0.5 8:1.0 9:0.25 10:0.33 11:0.5 13:0.5 14:0.25 19:1.0 20:0.17 22:0.5 23:0.33 24:0.2 26:0.25 27:0.5 28:0.17 29:0.4 31:1.0 33:1.0 34:0.33 37:0.2 40:0.29 43:0.33 44:0.25 45:0.2 47:1.0 50:0.5 51:0.17 52:0.25 
-0.0 -0.0 -1.0 -0.0 -0.0 -0.0 -0.0 1:1.0 2:0.25 3:0.5 5:1.0 6:1.0 7:0.5 8:1.0 9:0.25 10:1.0 11:0.5 13:1.0 14:1.0 19:1.0 20:0.17 22:0.5 23:1.0 24:1.0 26:1.0 27:0.5 29:1.0 31:1.0 32:1.0 33:1.0 34:0.33 35:1.0 36:1.0 37:1.0 38:0.75 39:1.0 40:0.14 43:0.33 44:0.25 45:0.2 47:1.0 49:1.0 50:0.5 51:0.83 52:0.75 
-0.02364754626825554 -0.6322454335839911 -0.0 -1.0 -0.0 -0.10056523400696639 -0.0 6:0.5 8:1.0 12:0.33 16:1.0 18:0.33 22:0.5 23:0.17 27:1.0 28:0.17 29:0.2 40:0.14 47:1.0 
-0.0 -0.0 -1.0 -0.0 -0.0 -0.0 -0.0 2:0.5 3:1.0 6:1.0 7:0.5 8:1.0 9:1.0 10:0.5 11:1.0 13:0.5 14:0.25 15:1.0 19:1.0 20:1.0 21:0.5 22:0.5 23:0.5 24:0.4 26:0.5 27:0.5 29:0.6 31:1.0 32:0.25 33:1.0 34:1.0 36:0.17 37:0.4 38:0.25 39:0.17 40:0.14 43:0.33 44:1.0 45:1.0 47:1.0 48:1.0 49:0.14 50:0.5 51:0.5 52:0.75 
-0.0 -0.0 -0.0 -1.0 -0.0 -0.0 -0.0 2:0.25 3:0.5 6:0.5 7:0.5 8:1.0 10:0.17 11:0.5 13:0.25 14:0.25 19:1.0 22:0.5 23:0.33 24:0.2 26:0.25 27:0.5 29:0.4 33:0.5 40:0.14 43:0.33 47:1.0 50:0.5 51:0.17 52:0.25 
-0.0 -0.0 -0.0 -0.0 -0.0 -0.0 -1.0 2:0.25 3:0.5 6:1.0 7:0.5 8:1.0 9:0.25 10:0.33 11:0.5 12:0.33 13:0.5 14:0.25 18:0.33 20:0.17 23:0.33 24:0.2 26:0.25 27:0.5 28:0.17 29:0.4 31:1.0 33:1.0 34:0.33 37:0.2 40:0.14 43:0.33 44:0.25 45:0.2 47:1.0 50:0.5 51:0.17 52:0.25 
-0.0 -0.0 -1.0 -0.0 -0.0 -0.0 -0.0 2:0.5 3:1.0 6:1.0 7:0.5 8:1.0 9:1.0 10:0.5 11:1.0 13:0.5 14:0.25 15:1.0 19:1.0 20:1.0 21:0.5 22:0.5 23:0.5 24:0.4 26:0.5 27:0.5 29:0.6 31:1.0 32:0.25 33:1.0 34:1.0 36:0.17 37:0.4 38:0.25 39:0.17 40:0.14 43:0.33 44:1.0 45:1.0 47:1.0 48:1.0 49:0.14 50:0.5 51:0.5 52:0.75 
-0.0 -1.0 -1.0 -1.0 -1.0 -1.0 -1.0 2:0.25 3:0.5 7:0.5 10:0.33 11:0.5 13:0.25 14:0.25 19:1.0 22:0.5 23:0.33 24:0.4 26:0.5 29:0.4 32:0.25 33:0.5 36:0.17 37:0.2 39:0.17 40:0.14 43:0.33 49:0.14 50:0.5 51:0.33 52:0.5 
-0.0 -0.0 -1.0 -0.0 -0.0 -0.0 -0.0 2:0.5 3:1.0 6:1.0 7:0.5 8:1.0 9:0.25 10:0.5 11:1.0 13:0.5 14:0.25 15:0.33 19:1.0 20:0.33 21:0.5 22:0.5 23:0.5 24:0.4 26:0.5 27:0.5 29:0.6 31:1.0 32:0.25 33:1.0 34:0.67 36:0.17 37:0.4 38:0.25 39:0.17 40:0.14 43:0.33 44:0.25 45:0.2 47:1.0 48:1.0 49:0.14 50:0.5 51:0.5 52:0.75 
-0.0 -0.0 -0.0 -0.0 -0.0 -0.0 -1.0 2:0.25 3:0.5 6:1.0 7:0.5 8:1.0 9:0.25 10:0.33 11:0.5 12:0.33 13:0.5 14:0.25 18:0.33 20:0.17 23:0.33 24:0.2 26:0.25 27:0.5 28:0.17 29:0.4 31:1.0 33:1.0 34:0.33 37:0.2 40:0.14 43:0.33 44:0.25 45:0.2 47:1.0 50:0.5 51:0.17 52:0.25 
-0.0 -0.0 -0.0 -1.0 -0.0 -0.0 -0.0 2:0.25 3:0.5 6:0.5 7:0.5 8:1.0 10:0.17 11:0.5 13:0.25 14:0.25 19:1.0 22:0.5 23:0.33 24:0.2 26:0.25 27:0.5 29:0.4 33:0.5 40:0.14 43:0.33 47:1.0 50:0.5 51:0.17 52:0.25 
-0.5451478401214371 -0.0 -0.0 -0.0 -0.0 -0.0 -0.0 3:0.5 6:1.0 8:1.0 9:0.25 10:0.17 11:0.5 13:0.25 15:0.33 19:1.0 20:0.33 22:0.5 23:0.17 27:1.0 29:0.2 31:1.0 33:0.5 34:0.67 37:0.2 38:0.25 40:0.14 44:0.25 45:0.2 47:1.0 48:1.0 51:0.17 52:0.25 
-0.0 -0.0 -0.0 -1.0 -0.0 -0.0 -0.0 2:0.25 3:0.5 6:0.5 7:0.5 8:1.0 10:0.17 11:0.5 13:0.25 14:0.25 19:1.0 22:0.5 23:0.33 24:0.2 26:0.25 27:0.5 29:0.4 33:0.5 40:0.14 43:0.33 47:1.0 50:0.5 51:0.17 52:0.25 
-0.0 -0.0 -0.0 -1.0 -0.0 -0.0 -0.0 2:0.25 3:0.5 6:0.5 7:0.5 8:1.0 10:0.17 11:0.5 13:0.25 14:0.25 19:1.0 22:0.5 23:0.33 24:0.2 26:0.25 27:0.5 29:0.4 33:0.5 40:0.14 43:0.33 47:1.0 50:0.5 51:0.17 52:0.25 
-0.0 -0.0 -0.4252710678906437 -0.0 -0.0 -0.0 -0.0 6:0.5 8:1.0 10:0.17 12:0.33 18:0.33 23:0.33 24:0.2 26:0.25 27:1.0 29:0.4 32:0.25 36:0.17 37:0.2 39:0.17 47:1.0 49:0.14 51:0.17 52:0.25 
-0.22388815957585334 -0.0 -0.0 -0.0 -0.0 -0.0 -0.0 6:1.0 8:1.0 9:1.0 10:0.17 13:0.25 15:0.67 20:0.83 23:0.17 27:1.0 29:0.2 31:1.0 33:0.5 34:0.67 37:0.2 44:1.0 45:1.0 47:1.0 
-0.0 -0.5256386711162203 -0.0 -0.0 -1.0 -1.0 -0.0 2:0.75 3:1.0 4:1.0 6:1.0 7:0.5 8:1.0 9:1.0 10:0.33 11:1.0 12:0.33 13:0.5 14:0.25 15:1.0 17:0.5 18:0.33 19:1.0 20:1.0 21:1.0 22:0.5 23:0.33 24:0.2 25:1.0 26:0.25 27:0.5 28:0.17 29:0.4 30:0.5 31:1.0 33:1.0 34:1.0 37:0.2 38:0.25 40:0.29 42:1.0 43:0.67 44:1.0 45:1.0 46:0.5 47:1.0 48:1.0 50:1.0 51:0.33 52:0.5 
-0.0 -0.0 -0.0 -0.0 -0.0 -0.0 -1.0 2:0.25 3:0.5 6:1.0 7:0.5 8:1.0 9:0.25 10:0.33 11:0.5 13:0.5 14:0.25 20:0.17 23:0.33 24:0.2 26:0.25 27:0.5 28:0.17 29:0.4 31:1.0 33:1.0 34:0.33 37:0.2 40:0.14 43:0.33 44:0.25 45:0.2 47:1.0 50:0.5 51:0.17 52:0.25 
-0.0 -0.0 -0.22850640929723992 -0.0 -0.0 -0.0 -0.0 2:0.5 3:1.0 6:1.0 7:0.5 8:1.0 9:0.25 10:0.5 11:1.0 13:0.5 14:0.25 15:0.33 19:1.0 20:0.33 21:0.5 22:0.5 23:0.5 24:0.4 26:0.5 27:0.5 29:0.6 31:1.0 32:0.25 33:1.0 34:0.67 36:0.17 37:0.4 38:0.25 39:0.17 40:0.14 43:0.33 44:0.25 45:0.2 47:1.0 48:1.0 49:0.14 50:0.5 51:0.5 52:0.75 
-0.0 -1.0 -0.0 -0.6099361848050646 -1.0 -1.0 -0.0 2:1.0 3:0.5 4:1.0 6:1.0 7:1.0 8:1.0 9:0.25 10:0.33 11:0.5 12:0.67 13:0.5 14:0.25 17:1.0 18:0.67 19:1.0 20:0.17 21:1.0 22:0.5 23:0.33 24:0.2 25:1.0 26:0.25 27:0.5 29:0.4 30:1.0 31:1.0 33:1.0 34:0.33 37:0.2 40:0.14 41:1.0 42:1.0 43:1.0 44:0.25 45:0.2 46:1.0 47:1.0 50:1.0 51:0.17 52:0.25 
-0.9006597901886911 -0.0 -0.0 -0.0 -0.0 -0.0 -0.0 3:0.5 6:1.0 8:1.0 9:1.0 10:0.17 11:0.5 13:0.25 15:1.0 19:1.0 20:1.0 22:0.5 23:0.17 27:1.0 29:0.2 31:1.0 33:0.5 34:1.0 37:0.2 38:0.25 40:0.14 44:1.0 45:1.0 47:1.0 48:1.0 51:0.17 52:0.25 
-1.0 -0.0 -0.0 -0.0 -0.0 -0.0 -0.0 6:1.0 8:1.0 9:1.0 10:0.17 13:0.25 15:0.67 20:0.83 23:0.17 27:1.0 29:0.2 31:1.0 33:0.5 34:0.67 37:0.2 44:1.0 45:1.0 47:1.0 
-0.0 -0.0 -0.0 -0.0 -0.0 -0.0 -1.0 6:1.0 8:1.0 9:0.25 10:0.17 12:0.33 13:0.25 18:0.33 20:0.17 23:0.17 27:1.0 29:0.2 31:1.0 33:0.5 34:0.33 37:0.2 44:0.25 45:0.2 47:1.0 
-0.0 -0.0 -0.0 -0.0 -0.0 -0.0 -0.3929483378306916 6:1.0 8:1.0 9:0.25 10:0.17 12:0.33 13:0.25 18:0.33 20:0.17 23:0.17 27:1.0 29:0.2 31:1.0 33:0.5 34:0.33 37:0.2 44:0.25 45:0.2 47:1.0 
-0.0 -1.0 -0.04027740127506149 -0.0 -1.0 -1.0 -0.0 2:1.0 3:0.5 4:1.0 6:1.0 7:1.0 8:1.0 9:0.25 10:0.33 11:0.5 12:1.0 13:0.5 14:0.25 17:1.0 18:1.0 20:0.17 21:1.0 23:0.33 24:0.2 25:1.0 26:0.25 27:0.5 29:0.4 30:1.0 31:1.0 33:1.0 34:0.33 37:0.2 41:1.0 42:1.0 43:1.0 44:0.25 45:0.2 46:1.0 47:1.0 50:1.0 51:0.17 52:0.25 
-0.0 -1.0 -0.0 -1.0 -1.0 -1.0 -1.0 2:0.25 4:1.0 6:0.5 9:0.25 10:0.17 12:0.67 13:0.25 17:0.5 18:0.67 20:0.17 21:0.5 25:1.0 27:0.5 30:0.5 31:1.0 33:0.5 34:0.33 37:0.2 42:1.0 43:0.33 44:0.25 45:0.2 46:0.5 50:0.5 
-0.9528075199350227 -0.0 -0.0 -0.0 -0.0 -0.0 -0.8004587354382986 6:1.0 8:1.0 9:1.0 10:0.17 13:0.25 15:0.67 20:0.83 23:0.17 27:1.0 29:0.2 31:1.0 33:0.5 34:0.67 37:0.2 44:1.0 45:1.0 47:1.0 
-0.0 -1.0 -0.0 -1.0 -0.0 -0.0 -0.0 2:0.25 3:0.5 6:0.5 7:0.5 8:1.0 10:0.17 11:0.5 13:0.25 14:0.25 19:1.0 22:0.5 23:0.33 24:0.2 26:0.25 27:0.5 29:0.4 33:0.5 40:0.14 43:0.33 47:1.0 50:0.5 51:0.17 52:0.25 
-0.3297300366772424 -0.44128992725848665 -0.0 -0.9332694294261306 -0.5878530727074427 -0.0 -0.0 2:0.25 3:0.5 6:0.5 7:0.5 8:1.0 10:0.17 11:0.5 13:0.25 14:0.25 19:1.0 22:0.5 23:0.33 24:0.2 26:0.25 27:0.5 29:0.4 33:0.5 40:0.14 43:0.33 47:1.0 50:0.5 51:0.17 52:0.25 
-0.0 -1.0 -0.0 -0.0 -0.9298997627408099 -1.0 -0.0 2:0.25 6:1.0 7:0.5 8:1.0 9:0.25 10:0.17 12:0.67 13:0.25 17:0.5 18:0.67 20:0.17 23:0.17 27:1.0 29:0.2 30:0.5 31:1.0 33:0.5 34:0.33 37:0.2 41:1.0 43:0.33 44:0.25 45:0.2 46:0.5 47:1.0 
-0.023269799835780106 -0.0 -0.0 -0.23496218980409386 -0.0 -0.0 -0.0 3:0.5 6:0.5 8:1.0 10:0.17 11:0.5 15:0.33 19:1.0 20:0.17 22:0.5 23:0.33 24:0.2 26:0.25 27:1.0 29:0.4 32:0.25 34:0.33 36:0.17 37:0.2 38:0.25 39:0.17 40:0.14 47:1.0 48:1.0 49:0.14 51:0.33 52:0.5 
-0.26823113575256863 -0.0 -0.0 -0.0 -0.0 -0.0 -0.05914972523709114 6:1.0 8:1.0 9:0.25 10:0.17 12:0.33 13:0.25 18:0.33 20:0.17 23:0.17 27:1.0 29:0.2 31:1.0 33:0.5 34:0.33 37:0.2 44:0.25 45:0.2 47:1.0 
-0.6212504148574229 -0.0 -0.0 -0.0 -0.0 -0.0 -0.43528600446255067 2:0.25 3:1.0 6:0.5 7:0.5 8:1.0 10:0.17 11:1.0 13:0.25 14:0.25 15:0.33 20:0.17 23:0.33 24:0.2 26:0.25 27:0.5 29:0.4 33:0.5 34:0.33 38:0.25 43:0.33 47:1.0 48:1.0 50:0.5 51:0.33 52:0.5 
