svm_type c_svc
kernel_type rbf
gamma 0.023255813953488372
nr_class 8
total_sv 83
rho 0.05926710367202759 0.6910231054403937 0.0733137745762083 -0.042651121134268645 -0.13640764355659482 0.828713818006675 1.01739137807862 0.21236724639447044 -0.02561911940574646 0.44949743151664734 -0.9487279951572418 0.05812871126273997 0.6172958235936582 -0.11426001241309215 -0.2056092619895935 -0.42634894465663165 0.3322197198867798 0.9279568470527664 -0.07786032600519324 -0.5379755198955536 -0.12703236020290917 0.15346554361907622 -0.8197911617593409 0.07047424553082098 0.4517872503332858 0.26255232375794 0.790904205964925 1.1358913465187301
label 3 7 4 0 5 6 2 1
nr_sv 5 7 8 9 10 4 11 29
SV
1.0 1.0 1.0 1.0 1.0 1.0 1.0 1:1.0 2:1.0 5:0.5 6:0.14 7:0.33 9:0.17 12:0.25 13:0.5 15:0.5 17:1.0 19:0.2 21:0.27 23:0.2 24:0.5 26:0.2 28:1.0 30:0.17 31:0.5 32:0.5 33:1.0 35:0.29 37:0.2 39:0.2 41:0.25 
1.0 1.0 1.0 1.0 1.0 1.0 1.0 2:0.5 13:1.0 17:0.5 20:1.0 21:0.09 31:0.5 32:0.5 33:1.0 35:0.14 
1.0 1.0 0.9663191052427639 0.5400888716112001 0.16884521239519193 1.0 1.0 1:1.0 2:0.5 7:1.0 12:1.0 13:1.0 17:1.0 21:0.09 26:1.0 28:1.0 32:0.5 33:1.0 35:0.14 41:1.0 
1.0 1.0 0.9938280326503426 1.0 1.0 1.0 1.0 1:1.0 2:0.5 7:1.0 12:1.0 13:1.0 17:1.0 21:0.09 26:1.0 28:1.0 32:0.5 33:1.0 35:0.14 41:1.0 
1.0 1.0 1.0 1.0 0.8311547876048081 1.0 1.0 1:1.0 4:0.25 7:1.0 12:1.0 17:0.5 20:1.0 26:1.0 28:1.0 31:0.5 32:1.0 37:0.2 41:1.0 
-1.0 1.0 1.0 1.0 0.0 1.0 1.0 2:1.0 3:1.0 4:0.5 5:0.5 6:0.14 9:0.17 10:0.33 13:0.5 14:1.0 15:0.5 17:0.5 18:1.0 19:0.2 21:0.64 22:1.0 23:0.2 24:0.5 27:0.5 30:0.17 31:0.5 33:1.0 35:0.29 37:0.6 39:0.2 
-0.0 0.021790024622050885 0.0 1.0 0.20425729680434576 0.0 1.0 3:1.0 4:1.0 10:1.0 14:1.0 15:0.5 18:1.0 21:0.82 22:1.0 27:1.0 35:0.86 37:0.8 38:1.0 42:1.0 
-0.0 1.0 0.7607264003611449 1.0 1.0 0.7233797074095437 1.0 3:1.0 4:1.0 10:1.0 14:1.0 15:0.5 18:1.0 21:0.82 22:1.0 27:1.0 35:0.86 37:0.8 38:1.0 42:1.0 
-1.0 1.0 1.0 1.0 0.0 1.0 1.0 2:1.0 3:1.0 4:0.5 5:0.5 6:0.14 9:0.17 10:0.33 13:0.5 14:1.0 15:0.5 17:0.5 18:1.0 19:0.2 21:0.64 22:1.0 23:0.2 24:0.5 27:0.5 30:0.17 31:0.5 33:1.0 35:0.29 37:0.6 39:0.2 
-1.0 1.0 1.0 1.0 0.7957427031956542 1.0 1.0 2:1.0 3:1.0 4:0.5 5:0.5 6:0.14 9:0.17 10:0.33 13:0.5 14:1.0 15:0.5 17:0.5 18:1.0 19:0.2 21:0.64 22:1.0 23:0.2 24:0.5 27:0.5 30:0.17 31:0.5 33:1.0 35:0.29 37:0.6 39:0.2 
-1.0 1.0 1.0 1.0 1.0 1.0 1.0 2:1.0 4:0.25 5:0.5 6:0.14 9:0.17 10:0.33 13:0.5 15:1.0 17:0.5 19:0.2 21:0.55 23:0.2 24:0.5 27:0.5 30:0.17 31:0.5 33:1.0 35:0.86 37:0.4 38:1.0 39:0.2 42:1.0 
-1.0 1.0 1.0 1.0 1.0 1.0 1.0 1:1.0 3:1.0 4:0.75 7:0.33 10:1.0 12:0.25 14:0.75 15:0.5 17:0.5 18:0.75 21:0.45 22:0.8 26:0.2 27:1.0 28:1.0 32:0.5 35:0.29 37:0.6 38:1.0 41:0.25 42:1.0 
-0.5135749447578796 -0.006142578039776212 1.0 0.0 0.0 1.0 1.0 1:1.0 2:1.0 5:1.0 6:0.29 7:0.33 9:0.33 11:0.2 12:0.25 13:0.5 15:0.5 16:1.0 17:1.0 19:0.4 20:1.0 21:0.27 23:0.4 24:1.0 25:1.0 26:0.2 28:1.0 29:1.0 30:0.17 31:1.0 32:1.0 33:1.0 34:0.25 35:0.29 36:0.2 37:0.2 39:0.4 40:0.2 41:0.25 43:0.17 
-1.0 -0.09613621034004194 0.38553094338817506 1.0 0.0 1.0 1.0 1:1.0 2:0.5 5:1.0 6:0.14 7:0.33 9:0.17 12:0.25 15:0.5 17:0.5 19:0.2 21:0.09 23:0.2 24:0.5 25:1.0 26:0.2 28:1.0 29:0.5 30:0.17 31:0.5 32:0.5 37:0.2 39:0.2 41:0.25 
-0.0 -1.0 1.0 1.0 0.3343856101460847 1.0 1.0 2:0.5 5:1.0 6:0.14 9:0.17 15:0.5 19:0.2 20:1.0 21:0.09 23:0.2 24:0.5 25:1.0 29:0.5 30:0.17 31:1.0 32:0.5 37:0.2 39:0.2 
-0.0 -0.925653814282009 1.0 1.0 0.23695005618901546 1.0 1.0 5:0.5 25:1.0 29:1.0 
-1.0 -1.0 0.0 0.42442481070205346 0.6327366934059269 1.0 1.0 1:1.0 2:1.0 4:0.25 5:1.0 6:0.14 7:0.33 9:0.17 12:0.25 13:0.5 14:0.25 15:0.5 17:1.0 18:0.25 19:0.2 20:1.0 21:0.27 22:0.2 23:0.2 24:0.5 25:1.0 26:0.2 28:1.0 29:1.0 30:0.17 31:1.0 32:1.0 33:1.0 35:0.14 37:0.4 39:0.2 41:0.25 
-1.0 -1.0 1.0 1.0 1.0 1.0 1.0 1:1.0 2:0.5 7:1.0 12:1.0 13:1.0 17:1.0 21:0.09 26:1.0 28:1.0 32:0.5 33:1.0 35:0.14 41:1.0 
-0.9943741404957468 -0.9938574219602238 1.0 1.0 0.7959276402589731 1.0 1.0 5:0.5 25:1.0 29:1.0 
-0.49205091474637375 -1.0 1.0 1.0 1.0 1.0 1.0 2:1.0 5:1.0 6:0.14 9:0.17 13:0.5 15:0.5 17:0.5 19:0.2 21:0.18 23:0.2 24:0.5 25:1.0 29:0.5 30:0.17 31:0.5 33:1.0 35:0.14 37:0.2 39:0.2 
-1.0 -1.0 -1.0 1.0 1.0 1.0 1.0 4:0.5 10:0.33 14:0.25 18:0.25 21:0.09 22:0.2 37:0.4 
-1.0 -1.0 -1.0 1.0 1.0 1.0 1.0 2:1.0 4:0.25 5:0.5 6:0.29 9:0.33 11:0.2 13:0.5 14:0.25 15:0.5 16:1.0 17:0.5 18:0.25 19:0.4 21:0.27 22:0.2 23:0.4 24:1.0 30:0.17 31:0.5 33:1.0 34:0.25 35:0.14 36:0.2 37:0.4 39:0.4 40:0.2 43:0.17 
-1.0 -0.7607264003611449 -1.0 0.0 0.0 1.0 1.0 2:0.5 6:0.86 8:1.0 9:0.83 10:0.33 11:1.0 13:0.5 16:1.0 17:0.5 19:0.8 20:1.0 21:0.09 23:0.8 24:0.5 30:0.83 31:0.5 32:0.5 33:1.0 34:1.0 35:0.14 36:1.0 39:0.8 40:1.0 43:1.0 
-0.1330519845620311 -1.0 -0.0 1.0 0.0 0.0 0.03586650927525849 2:1.0 3:0.25 4:0.5 5:0.5 6:1.0 8:1.0 9:1.0 10:0.33 11:1.0 13:0.5 14:0.5 15:0.5 16:1.0 17:0.5 18:0.25 19:1.0 21:0.36 22:0.4 23:1.0 24:1.0 27:0.5 30:1.0 31:0.5 33:1.0 34:1.0 35:0.29 36:1.0 37:0.6 39:1.0 40:1.0 43:1.0 
-0.5781344784206264 -1.0 -0.481976798094543 1.0 1.0 0.6304863001917536 1.0 2:0.5 3:1.0 4:0.5 6:0.86 8:1.0 9:0.83 10:0.67 11:1.0 13:0.5 14:1.0 16:1.0 17:0.5 18:1.0 19:0.8 21:0.55 22:1.0 23:0.8 24:0.5 27:0.5 30:0.83 33:1.0 34:1.0 35:0.29 36:1.0 37:0.4 39:0.8 40:1.0 43:1.0 
-0.0 -0.0 -0.0 0.0 0.0 0.0 0.2182096257236213 2:0.5 5:0.5 6:1.0 8:1.0 9:1.0 11:1.0 15:0.5 16:1.0 19:1.0 21:0.09 23:1.0 24:1.0 30:1.0 31:0.5 34:1.0 36:1.0 37:0.2 39:1.0 40:1.0 43:1.0 
-1.0 -1.0 -1.0 1.0 1.0 1.0 1.0 4:0.5 10:0.33 14:0.25 18:0.25 21:0.09 22:0.2 37:0.4 
-0.0 -0.0 -1.0 0.0 0.0 0.9942826240136668 1.0 2:0.5 5:0.5 6:1.0 8:1.0 9:1.0 11:1.0 15:0.5 16:1.0 19:1.0 21:0.09 23:1.0 24:1.0 30:1.0 31:0.5 34:1.0 36:1.0 37:0.2 39:1.0 40:1.0 43:1.0 
-0.24896067491044896 -0.0 -0.9035541452936321 0.5839099577324083 0.0 0.9721819770260571 1.0 2:0.5 5:0.5 6:1.0 8:1.0 9:1.0 11:1.0 15:0.5 16:1.0 19:1.0 21:0.09 23:1.0 24:1.0 30:1.0 31:0.5 34:1.0 36:1.0 37:0.2 39:1.0 40:1.0 43:1.0 
-1.0 -1.0 -1.0 -0.6715223840811883 0.7642221739745682 1.0 1.0 1:1.0 2:0.5 3:0.25 4:1.0 5:0.5 6:0.14 7:0.33 9:0.17 10:0.67 12:0.25 14:0.5 15:1.0 17:0.5 18:0.25 19:0.2 21:0.36 22:0.4 23:0.2 24:0.5 26:0.2 27:1.0 28:1.0 30:0.17 31:0.5 32:0.5 35:0.29 37:1.0 38:1.0 39:0.2 41:0.25 42:1.0 
-1.0 -1.0 -1.0 -1.0 1.0 1.0 1.0 3:0.25 4:1.0 10:1.0 14:0.5 15:0.5 18:0.25 21:0.27 22:0.4 27:1.0 35:0.29 37:0.8 38:1.0 42:1.0 
-0.0 -1.0 -0.0 -0.0 0.07498753451336879 0.0 0.12567417909674206 2:0.5 3:0.25 4:1.0 5:0.5 6:0.14 9:0.17 10:0.67 14:0.5 15:1.0 18:0.25 19:0.2 21:0.64 22:0.4 23:0.2 24:0.5 27:1.0 30:0.17 31:0.5 35:0.86 37:1.0 38:1.0 39:0.2 42:1.0 
-1.0 -1.0 -1.0 -1.0 1.0 1.0 1.0 2:1.0 4:0.25 5:0.5 6:0.14 9:0.17 10:0.33 13:0.5 15:1.0 17:0.5 19:0.2 21:0.27 23:0.2 24:0.5 27:0.5 30:0.17 31:0.5 33:1.0 35:0.29 37:0.4 38:1.0 39:0.2 42:1.0 
-1.0 -1.0 -1.0 -0.8582579008934592 0.16079029151206295 1.0 1.0 3:0.25 4:1.0 10:1.0 14:0.5 15:0.5 18:0.25 21:0.27 22:0.4 27:1.0 35:0.29 37:0.8 38:1.0 42:1.0 
-0.0 -0.0 -0.0 -0.0 0.0 0.0 1.0 2:0.5 3:0.25 4:1.0 5:0.5 6:0.14 9:0.17 10:0.67 14:0.5 15:1.0 18:0.25 19:0.2 21:0.36 22:0.4 23:0.2 24:0.5 27:1.0 30:0.17 31:0.5 35:0.29 37:1.0 38:1.0 39:0.2 42:1.0 
-0.0 -0.0 -0.42442481070205346 -1.0 0.0 0.5542968405086048 1.0 2:0.5 3:0.25 4:1.0 5:0.5 6:0.14 9:0.17 10:0.67 14:0.5 15:1.0 18:0.25 19:0.2 21:0.36 22:0.4 23:0.2 24:0.5 27:1.0 30:0.17 31:0.5 35:0.29 37:1.0 38:1.0 39:0.2 42:1.0 
-0.0 -1.0 -0.0 -0.0 1.0 0.0 0.9870775608977296 2:0.5 3:0.25 4:1.0 5:0.5 6:0.14 9:0.17 10:0.67 14:0.5 15:1.0 18:0.25 19:0.2 21:0.64 22:0.4 23:0.2 24:0.5 27:1.0 30:0.17 31:0.5 35:0.86 37:1.0 38:1.0 39:0.2 42:1.0 
-0.29997652255265544 -0.47103155100900174 -1.0 -0.8409065307152743 0.0 1.0 1.0 2:0.5 3:0.25 4:1.0 5:0.5 6:0.14 9:0.17 10:0.67 14:0.5 15:1.0 18:0.25 19:0.2 21:0.36 22:0.4 23:0.2 24:0.5 27:1.0 30:0.17 31:0.5 35:0.29 37:1.0 38:1.0 39:0.2 42:1.0 
-0.24011234905854467 -0.5289684489909983 -1.0 -0.2132231420424866 0.0 0.3076983290149786 1.0 2:0.5 3:0.25 4:1.0 5:1.0 6:0.14 9:0.17 10:0.67 14:0.5 15:1.0 18:0.25 19:0.2 21:0.64 22:0.4 23:0.2 24:0.5 25:1.0 27:1.0 29:0.5 30:0.17 31:0.5 35:0.86 37:1.0 38:1.0 39:0.2 42:1.0 
-1.0 -1.0 -1.0 -1.0 -1.0 1.0 1.0 3:0.25 4:0.5 10:1.0 14:0.25 15:0.5 21:0.18 22:0.2 27:1.0 35:0.29 37:0.4 38:1.0 42:1.0 
-1.0 -1.0 -1.0 -1.0 -1.0 1.0 1.0 2:1.0 3:1.0 4:0.75 5:0.5 6:0.14 9:0.17 10:0.67 13:0.5 14:1.0 15:1.0 17:0.5 18:1.0 19:0.2 21:1.0 22:1.0 23:0.2 24:0.5 27:1.0 30:0.17 31:0.5 33:1.0 35:1.0 37:0.8 38:1.0 39:0.2 42:1.0 
-1.0 -1.0 -1.0 -1.0 -1.0 1.0 1.0 2:0.5 3:0.25 4:0.5 10:1.0 13:0.5 14:0.25 15:0.5 17:0.5 21:0.55 22:0.2 27:1.0 33:1.0 35:1.0 37:0.4 38:1.0 42:1.0 
-1.0 -1.0 -1.0 -1.0 -1.0 1.0 1.0 1:1.0 2:1.0 3:1.0 4:0.75 5:0.5 6:0.14 7:0.33 9:0.17 10:0.67 12:0.25 13:0.5 14:1.0 15:1.0 17:1.0 18:1.0 19:0.2 21:1.0 22:1.0 23:0.2 24:0.5 26:0.2 27:1.0 28:1.0 30:0.17 31:0.5 32:0.5 33:1.0 35:1.0 37:0.8 38:1.0 39:0.2 41:0.25 42:1.0 
-1.0 -1.0 -1.0 -0.0 -0.7871233031981213 -1.0 1.0 1:1.0 2:1.0 5:0.5 6:0.14 7:0.33 9:0.17 12:0.25 13:0.5 15:0.5 17:1.0 19:0.2 21:0.27 23:0.2 24:0.5 26:0.2 28:1.0 30:0.17 31:0.5 32:0.5 33:1.0 35:0.29 37:0.2 39:0.2 41:0.25 
-1.0 -1.0 -1.0 -0.10166979169107412 -1.0 -1.0 1.0 1:1.0 2:1.0 5:0.5 6:0.14 7:0.33 9:0.17 12:0.25 13:0.5 15:0.5 17:1.0 19:0.2 21:0.27 23:0.2 24:0.5 26:0.2 28:1.0 30:0.17 31:0.5 32:0.5 33:1.0 35:0.29 37:0.2 39:0.2 41:0.25 
-0.0 -0.0 -0.0 -1.0 -0.0 -0.0 1.0 1:1.0 6:0.14 7:0.33 8:0.25 9:0.17 11:0.2 12:0.25 17:0.5 19:0.2 23:0.2 26:0.2 28:1.0 30:0.17 32:0.5 34:0.25 36:0.2 39:0.2 40:0.2 41:0.25 43:0.17 
-0.0 -0.0 -0.0 -1.0 -0.0 -0.0 1.0 1:1.0 6:0.14 7:0.33 8:0.25 9:0.17 11:0.2 12:0.25 17:0.5 19:0.2 23:0.2 26:0.2 28:1.0 30:0.17 32:0.5 34:0.25 36:0.2 39:0.2 40:0.2 41:0.25 43:0.17 
-1.0 -0.96289076859366 -1.0 -0.0 -1.0 -0.920304553175988 1.0 1:1.0 4:0.25 7:0.33 10:0.33 12:0.25 17:0.5 20:1.0 26:0.2 28:1.0 31:0.5 32:1.0 37:0.2 41:0.25 
-1.0 -0.0 -0.22689856979151168 -0.0 -0.0 -0.0 1.0 1:1.0 2:0.5 7:1.0 12:1.0 13:1.0 17:1.0 21:0.09 26:1.0 28:1.0 32:0.5 33:1.0 35:0.14 41:1.0 
-0.0 -1.0 -1.0 -0.5158392205478095 -1.0 -0.0 1.0 1:1.0 2:0.5 5:0.5 6:0.14 7:0.33 9:0.17 12:0.25 15:0.5 17:0.5 19:0.2 21:0.09 23:0.2 24:0.5 26:0.2 28:1.0 29:0.5 30:0.17 31:0.5 32:0.5 37:0.2 39:0.2 41:0.25 
-0.2267128652938839 -0.11796309787353573 -1.0 -1.0 -0.0 -0.0 1.0 1:1.0 2:1.0 5:0.5 6:0.29 7:0.33 8:0.25 9:0.33 11:0.2 12:0.25 13:0.5 15:0.5 17:1.0 19:0.4 20:1.0 21:0.27 23:0.4 24:0.5 26:0.2 28:1.0 30:0.33 31:1.0 32:1.0 33:1.0 34:0.25 35:0.29 36:0.2 37:0.2 39:0.4 40:0.2 41:0.25 43:0.17 
-0.0 -0.0 -1.0 -1.0 -0.48215325458897157 -0.0 1.0 1:1.0 6:0.14 7:0.33 8:0.25 9:0.17 11:0.2 12:0.25 17:0.5 19:0.2 23:0.2 26:0.2 28:1.0 30:0.17 32:0.5 34:0.25 36:0.2 39:0.2 40:0.2 41:0.25 43:0.17 
-0.07839391288647216 -1.0 -1.0 -0.9794418889925939 -0.5948986164435786 -0.7235798712821458 1.0 1:1.0 2:1.0 5:0.5 6:0.14 7:0.33 9:0.17 12:0.25 13:0.5 15:0.5 17:1.0 19:0.2 21:0.27 23:0.2 24:0.5 26:0.2 28:1.0 30:0.17 31:0.5 32:0.5 33:1.0 35:0.29 37:0.2 39:0.2 41:0.25 
-0.694893221819644 -0.6425258409423481 -0.7731014302084883 -1.0 -0.9978199952929122 -0.35611557554186624 1.0 1:1.0 6:0.14 7:0.33 8:0.25 9:0.17 11:0.2 12:0.25 17:0.5 19:0.2 23:0.2 26:0.2 28:1.0 30:0.17 32:0.5 34:0.25 36:0.2 39:0.2 40:0.2 41:0.25 43:0.17 
-0.0 -0.0 -0.0 -0.0 -0.0 -0.0 -1.0 1:1.0 7:0.33 10:0.33 12:0.25 17:0.5 20:1.0 26:0.2 28:1.0 31:0.5 32:1.0 41:0.25 
-0.06091832293452754 -0.0 -0.0 -0.0 -0.0 -0.0 -0.680780677412993 1:1.0 2:1.0 5:0.5 6:0.14 7:0.33 9:0.17 12:0.25 13:1.0 15:0.5 17:1.0 19:0.2 20:1.0 21:0.18 23:0.2 24:0.5 26:0.2 28:1.0 29:0.5 30:0.17 31:1.0 32:1.0 33:1.0 35:0.14 37:0.2 39:0.2 41:0.25 
-0.714963944785309 -0.0 -0.0 -0.0 -0.0 -0.0 -0.9898628936999547 1:1.0 2:0.5 7:1.0 12:1.0 13:1.0 17:1.0 21:0.09 26:1.0 28:1.0 32:0.5 33:1.0 35:0.14 41:1.0 
-1.0 -0.0 -0.0 -0.0 -0.0 -0.0 -1.0 1:1.0 2:0.5 7:1.0 12:1.0 13:1.0 17:1.0 21:0.09 26:1.0 28:1.0 32:0.5 33:1.0 35:0.14 41:1.0 
-0.9956513878086788 -0.0 -0.8243473907566488 -0.1596106406941221 -0.0 -0.0 -1.0 1:1.0 2:0.5 7:1.0 12:1.0 13:1.0 17:1.0 21:0.09 26:1.0 28:1.0 32:0.5 33:1.0 35:0.14 41:1.0 
-0.0 -0.0 -1.0 -0.0 -0.6281905939178605 -0.0 -1.0 1:1.0 2:0.5 5:1.0 6:0.14 7:0.33 9:0.17 12:0.25 15:0.5 17:0.5 19:0.2 21:0.09 23:0.2 24:0.5 25:1.0 26:0.2 28:1.0 29:0.5 30:0.17 31:0.5 32:0.5 37:0.2 39:0.2 41:0.25 
-0.0 -0.7865872474805647 -1.0 -1.0 -1.0 -0.18624769351259243 -0.6953160760118867 5:0.5 25:1.0 29:1.0 
-0.0 -0.0 -1.0 -0.0 -0.0 -0.0 -0.0 1:1.0 2:1.0 5:1.0 6:0.14 7:0.33 9:0.17 12:0.25 13:0.5 15:0.5 17:1.0 19:0.2 20:1.0 21:0.27 23:0.2 24:0.5 25:1.0 26:0.2 28:1.0 29:1.0 30:0.17 31:1.0 32:1.0 33:1.0 35:0.29 37:0.2 39:0.2 41:0.25 
-0.0 -0.0 -0.0 -0.0 -0.0 -0.0 -0.82665383969681 1:1.0 4:0.25 7:0.33 10:0.33 12:0.25 17:0.5 20:1.0 21:0.09 26:0.2 28:1.0 31:0.5 32:1.0 35:0.14 37:0.2 41:0.25 
-0.0 -1.0 -0.0 -0.0 -0.0 -0.0 -0.0 2:1.0 5:0.5 6:0.14 9:0.17 13:0.5 15:0.5 17:0.5 19:0.2 20:1.0 21:0.27 23:0.2 24:0.5 30:0.17 31:1.0 32:0.5 33:1.0 35:0.29 37:0.2 39:0.2 
-0.3575175614755212 -0.3807597335024942 -0.0 -0.0 -0.7116927396280556 -0.4682858496019338 -0.31021802624095596 2:1.0 5:0.5 6:0.14 9:0.17 13:0.5 15:0.5 17:0.5 19:0.2 20:1.0 21:0.27 23:0.2 24:0.5 30:0.17 31:1.0 32:0.5 33:1.0 35:0.29 37:0.2 39:0.2 
-0.0 -0.832653019016941 -0.15701276312171622 -1.0 -1.0 -0.12898009131817442 -0.08567047199157274 4:0.5 6:0.14 9:0.17 10:0.33 11:0.2 14:0.25 16:1.0 18:0.25 19:0.2 20:1.0 21:0.18 22:0.2 23:0.2 24:0.5 31:0.5 32:0.5 34:0.25 35:0.14 36:0.2 37:0.4 39:0.2 40:0.2 43:0.17 
-0.0 -0.0 -0.3816299641969091 -0.0 -0.0 -0.0 -0.0 1:1.0 2:0.5 4:0.25 5:1.0 6:0.14 7:1.0 9:0.17 12:1.0 13:0.5 15:0.5 17:0.5 19:0.2 20:1.0 21:0.09 23:0.2 24:0.5 25:1.0 26:1.0 28:1.0 29:0.5 30:0.17 31:1.0 32:1.0 37:0.4 39:0.2 41:1.0 
-0.0 -0.0 -0.8972208098318564 -0.39948289528676806 -0.8409234549660534 -0.0 -0.0 2:0.5 5:0.5 6:0.14 9:0.17 15:0.5 19:0.2 20:1.0 21:0.09 23:0.2 24:0.5 29:0.5 30:0.17 31:1.0 32:0.5 37:0.2 39:0.2 
-0.19464926584132797 -1.0 -1.0 -1.0 -1.0 -1.0 -0.39817815654762606 2:0.5 4:0.25 5:0.5 13:0.5 14:0.25 17:0.5 18:0.25 21:0.18 22:0.2 25:1.0 29:0.5 33:1.0 35:0.14 37:0.2 
-0.17602599299450217 -0.0 -0.0 -0.0 -0.0 -0.0 -1.0 1:1.0 7:0.33 10:0.33 12:0.25 17:0.5 20:1.0 26:0.2 28:1.0 31:0.5 32:1.0 41:0.25 
-0.0 -0.0 -0.279613117936823 -0.0 -0.0 -0.0 -0.0 1:1.0 4:0.25 5:0.5 7:0.33 10:0.33 12:0.25 17:0.5 20:1.0 21:0.09 25:1.0 26:0.2 28:1.0 29:0.5 31:0.5 32:1.0 35:0.14 37:0.2 41:0.25 
-0.12924629103139934 -0.0 -0.0 -1.0 -0.0 -0.0 -1.0 1:1.0 2:1.0 5:0.5 6:0.29 7:0.33 8:0.25 9:0.33 11:0.2 12:0.25 13:1.0 15:0.5 17:1.0 19:0.4 20:1.0 21:0.18 23:0.4 24:0.5 26:0.2 28:1.0 30:0.33 31:1.0 32:1.0 33:1.0 34:0.25 35:0.14 36:0.2 37:0.2 39:0.4 40:0.2 41:0.25 43:0.17 
-0.0 -0.0 -0.45185206925166227 -0.0 -0.0 -0.0 -0.0 1:1.0 2:1.0 4:0.25 5:1.0 6:0.14 7:0.33 9:0.17 12:0.25 13:0.5 14:0.25 15:0.5 17:1.0 18:0.25 19:0.2 20:1.0 21:0.27 22:0.2 23:0.2 24:0.5 25:1.0 26:0.2 28:1.0 29:1.0 30:0.17 31:1.0 32:1.0 33:1.0 35:0.14 37:0.4 39:0.2 41:0.25 
-0.0 -1.0 -0.0 -0.20831754552954634 -1.0 -1.0 -0.1919776272296149 1:1.0 2:0.5 3:0.25 4:1.0 5:0.5 6:0.14 7:0.33 9:0.17 10:0.67 12:0.25 14:0.5 15:1.0 17:0.5 18:0.25 19:0.2 20:1.0 21:0.45 22:0.4 23:0.2 24:0.5 26:0.2 27:1.0 28:1.0 30:0.17 31:1.0 32:1.0 35:0.43 37:1.0 38:1.0 39:0.2 41:0.25 42:1.0 
-0.0 -0.0 -0.0 -0.013986949754661599 -0.0 -0.0 -0.0 2:1.0 5:0.5 6:0.14 9:0.17 13:0.5 15:0.5 17:0.5 19:0.2 20:1.0 21:0.18 23:0.2 24:0.5 30:0.17 31:1.0 32:0.5 33:1.0 35:0.14 37:0.2 39:0.2 
-0.4489646036599404 -0.0 -0.0 -0.0 -0.0 -0.0 -0.8213422311685861 1:1.0 4:0.25 7:0.33 10:0.33 12:0.25 17:0.5 20:1.0 21:0.09 26:0.2 28:1.0 31:0.5 32:1.0 35:0.14 37:0.2 41:0.25 
-0.0 -0.0 -1.0 -0.0 -0.0 -0.0 -0.0 2:1.0 4:0.25 5:1.0 6:0.14 9:0.17 13:0.5 14:0.25 15:0.5 17:0.5 18:0.25 19:0.2 20:1.0 21:0.27 22:0.2 23:0.2 24:0.5 25:1.0 29:1.0 30:0.17 31:1.0 32:0.5 33:1.0 35:0.14 37:0.4 39:0.2 
-0.0 -0.0 -0.008323884904384548 -1.0 -0.9319449514825022 -0.0 -0.0 2:0.5 5:0.5 6:0.14 9:0.17 15:0.5 19:0.2 20:1.0 21:0.09 23:0.2 24:0.5 29:0.5 30:0.17 31:1.0 32:0.5 37:0.2 39:0.2 
-0.08330436939745652 -0.0 -0.0 -0.0 -0.0 -0.0 -0.0 1:1.0 2:0.5 7:0.33 10:0.33 12:0.25 13:0.5 17:1.0 20:1.0 21:0.18 26:0.2 28:1.0 29:0.5 31:0.5 32:1.0 33:1.0 35:0.29 41:0.25 
-0.0 -1.0 -0.0 -0.4726781037337816 -1.0 -0.2164863655672994 -0.0 1:1.0 3:1.0 4:0.75 7:0.33 10:0.67 12:0.25 14:1.0 17:0.5 18:1.0 20:1.0 21:0.55 22:1.0 26:0.2 27:0.5 28:1.0 31:0.5 32:1.0 35:0.29 37:0.6 41:0.25 
-0.36707735592384744 -0.0 -0.0 -0.0 -0.0 -0.0 -0.0 1:1.0 4:0.25 7:1.0 12:1.0 17:0.5 20:1.0 26:1.0 28:1.0 31:0.5 32:1.0 37:0.2 41:1.0 
-0.0 -1.0 -0.0 -0.0 -1.0 -1.0 -0.0 1:1.0 2:0.5 3:1.0 4:0.75 7:0.33 10:1.0 12:0.25 13:0.5 14:1.0 15:0.5 17:1.0 18:1.0 20:1.0 21:0.64 22:1.0 26:0.2 27:1.0 28:1.0 29:0.5 31:0.5 32:1.0 33:1.0 35:0.43 37:0.6 38:1.0 41:0.25 42:1.0 
-0.4716809041474896 -0.0 -0.0 -1.0 -0.0 -0.0 -0.0 2:1.0 5:0.5 6:0.14 9:0.17 13:0.5 15:0.5 17:0.5 19:0.2 20:1.0 21:0.18 23:0.2 24:0.5 30:0.17 31:1.0 32:0.5 33:1.0 35:0.14 37:0.2 39:0.2 
