svm_type c_svc
kernel_type rbf
gamma 0.018518518518518517
nr_class 8
total_sv 141
rho -0.4056091010570526 0.03719440993943714 0.021249478835935028 -0.1707188719822504 -0.28218654012471234 -0.8570659508996511 0.12115234581970251 -0.04711607230513273 0.9852912932379126 0.9506586084994851 0.47293704748153687 0.09354217185831719 0.9854761000133196 0.146831134011698 0.00613480806350708 -0.11861640214920044 -0.10274959873448888 0.3065248591070607 -0.2656487822532654 -0.8370379062157544 -0.021253950180761847 0.09068617344728266 -1.0201481792095042 0.07709734086904231 0.5011646423324061 0.19763685795222327 0.5632699093737186 0.9804810971135824
label 3 7 4 0 5 6 2 1
nr_sv 22 8 14 19 14 9 12 43
SV
0.0 0.0 1.0 1.0 0.0 0.0 1.0 1:0.67 2:0.22 3:0.75 7:0.25 8:0.5 9:0.12 12:0.5 13:1.0 14:0.5 17:0.5 21:0.25 23:1.0 24:1.0 25:1.0 26:0.67 30:0.14 32:1.0 36:1.0 37:1.0 42:0.5 43:0.33 46:1.0 48:0.5 51:1.0 53:0.67 
0.0 0.0 0.0 0.0 0.0 0.0 0.6044466504790825 1:0.67 2:0.22 3:1.0 7:0.25 8:1.0 9:0.12 12:0.5 13:1.0 14:1.0 17:0.5 19:1.0 23:1.0 24:1.0 25:1.0 26:1.0 30:0.14 31:0.33 32:1.0 36:1.0 37:1.0 42:1.0 43:0.33 46:1.0 47:1.0 48:0.5 51:1.0 53:1.0 
1.0 1.0 1.0 1.0 1.0 0.5094461407387146 1.0 1:0.67 2:0.22 3:0.5 7:0.25 9:0.12 12:0.5 17:0.5 23:1.0 24:0.67 25:0.67 26:0.67 30:0.14 31:0.33 32:0.4 36:0.5 37:0.33 43:0.33 46:0.4 48:0.5 53:0.67 
0.0 0.9179251149865484 0.7785610807484761 0.0 0.0 0.737983835624495 1.0 1:0.67 2:0.33 3:0.75 4:0.5 5:0.17 7:0.38 8:0.5 9:0.25 12:0.5 13:0.5 14:0.5 15:0.14 16:0.14 17:0.5 19:1.0 23:1.0 24:1.0 25:1.0 26:1.0 27:1.0 28:0.25 29:1.0 30:0.29 31:0.33 32:0.4 34:0.17 35:0.17 36:0.5 37:0.33 42:1.0 43:0.33 44:0.17 46:0.4 47:1.0 48:0.5 50:1.0 51:1.0 52:0.17 53:1.0 54:0.2 
1.0 0.0 1.0 1.0 1.0 0.2551916032170144 1.0 2:0.11 3:0.5 6:0.14 7:0.12 8:1.0 9:0.12 13:1.0 14:1.0 15:0.14 19:1.0 20:0.5 24:0.33 25:0.33 26:0.33 30:0.14 37:0.17 42:1.0 44:0.17 46:0.2 47:1.0 51:1.0 53:0.33 
1.0 0.4956180480153989 1.0 1.0 0.6631771506197761 1.0 1.0 2:0.11 3:0.5 8:1.0 9:0.12 13:1.0 14:1.0 15:0.14 17:0.25 19:1.0 21:0.25 24:0.33 25:0.33 26:0.33 37:0.17 42:1.0 43:0.33 45:0.5 46:0.2 47:1.0 51:1.0 53:0.33 
0.0 0.0 0.0 0.0 0.0 1.0 1.0 1:0.67 2:0.22 3:1.0 7:0.25 8:1.0 9:0.12 12:0.5 13:0.5 14:1.0 17:0.5 19:1.0 23:1.0 24:0.67 25:0.67 26:1.0 30:0.14 32:1.0 36:1.0 37:1.0 42:0.5 43:0.33 46:1.0 47:1.0 48:0.5 53:1.0 
0.0 0.0 0.0 0.0 0.0 0.0 1.0 1:0.67 2:0.22 3:1.0 7:0.25 8:1.0 9:0.12 12:0.5 13:1.0 14:1.0 17:0.5 19:1.0 23:1.0 24:1.0 25:1.0 26:1.0 30:0.14 32:1.0 36:1.0 37:1.0 42:1.0 43:0.33 46:1.0 47:1.0 48:0.5 51:1.0 53:1.0 
1.0 0.36306898002980453 1.0 1.0 1.0 1.0 1.0 2:0.11 3:0.25 4:0.5 5:0.17 7:0.12 8:0.5 9:0.12 14:0.5 15:0.14 16:0.14 19:1.0 26:0.33 27:1.0 28:0.25 29:1.0 30:0.14 34:0.17 35:0.17 42:0.5 44:0.17 47:1.0 50:1.0 52:0.17 53:0.33 54:0.2 
0.0 0.0 0.0 0.0 0.0 0.3893263446715018 1.0 1:0.67 2:0.22 3:1.0 7:0.25 8:1.0 9:0.12 12:0.5 13:0.5 14:1.0 17:0.5 19:1.0 23:1.0 24:0.67 25:0.67 26:1.0 30:0.14 32:1.0 36:1.0 37:1.0 42:0.5 43:0.33 46:1.0 47:1.0 48:0.5 53:1.0 
0.0 1.0 0.0 0.0 0.0 0.0 1.0 1:0.67 2:0.33 3:0.75 4:0.5 5:0.17 7:0.38 8:0.5 9:0.25 12:0.5 13:0.5 14:0.5 15:0.14 16:0.14 17:0.5 19:1.0 21:0.25 23:1.0 24:1.0 25:1.0 26:1.0 27:1.0 28:0.25 29:1.0 30:0.29 31:0.33 32:1.0 34:0.17 35:0.17 36:1.0 37:0.83 42:1.0 43:0.33 44:0.17 46:0.8 47:1.0 48:0.5 50:1.0 51:1.0 52:0.17 53:1.0 54:0.2 
0.9444054320807136 1.0 1.0 0.9963038722171197 0.44977866915250786 1.0 1.0 1:0.67 2:0.33 3:0.75 4:0.5 5:0.17 7:0.38 8:0.5 9:0.25 12:0.5 14:0.5 15:0.14 16:0.14 17:0.5 19:1.0 23:1.0 24:0.67 25:0.67 26:1.0 27:1.0 28:0.25 29:1.0 30:0.29 32:0.4 34:0.17 35:0.17 36:0.5 37:0.33 42:0.5 43:0.33 44:0.17 46:0.4 47:1.0 48:0.5 50:1.0 52:0.17 53:1.0 54:0.2 
0.0 0.0 0.0 0.0 0.0 0.9829597933038445 1.0 1:0.67 2:0.22 3:1.0 7:0.25 8:1.0 9:0.12 12:0.5 13:1.0 14:1.0 17:0.5 19:1.0 21:0.25 23:1.0 24:1.0 25:1.0 26:1.0 30:0.14 32:1.0 36:1.0 37:1.0 42:1.0 43:0.33 46:1.0 47:1.0 48:0.5 51:1.0 53:1.0 
0.0 0.0 0.0 0.0 0.0 0.0 1.0 1:0.67 2:0.22 3:1.0 7:0.25 8:1.0 9:0.12 12:0.5 13:1.0 14:1.0 17:0.5 19:1.0 20:0.5 21:0.25 23:1.0 24:1.0 25:1.0 26:1.0 30:0.14 32:1.0 36:1.0 37:1.0 42:1.0 43:0.33 46:1.0 47:1.0 48:0.5 51:1.0 53:1.0 
0.0 0.0 0.0 0.0 0.0 0.0 1.0 1:0.67 2:0.22 3:1.0 7:0.25 8:1.0 9:0.12 12:0.5 13:1.0 14:1.0 17:0.5 19:1.0 23:1.0 24:1.0 25:1.0 26:1.0 30:0.14 32:1.0 36:1.0 37:1.0 42:1.0 43:0.33 46:1.0 47:1.0 48:0.5 51:1.0 53:1.0 
0.0 0.2474265047261078 0.0 0.0 0.0 1.0 1.0 1:0.67 2:0.33 3:1.0 6:0.14 7:0.38 8:1.0 9:0.25 12:0.5 13:1.0 14:1.0 15:0.14 17:0.5 19:1.0 20:0.5 23:1.0 24:1.0 25:1.0 26:1.0 30:0.29 32:0.4 36:0.5 37:0.5 42:1.0 43:0.33 44:0.17 46:0.6 47:1.0 48:0.5 51:1.0 53:1.0 
0.05559456791928644 0.7194444019101457 1.0 1.0 0.8829185163014377 0.0 1.0 1:0.67 2:0.33 3:0.75 6:0.14 7:0.38 8:0.5 9:0.25 12:0.5 13:1.0 14:0.5 15:0.14 17:0.5 20:0.5 23:1.0 24:1.0 25:1.0 26:0.67 30:0.29 32:1.0 36:1.0 37:1.0 42:0.5 43:0.33 44:0.17 46:1.0 48:0.5 51:1.0 53:0.67 
1.0 1.0 1.0 1.0 1.0 0.8337728140186076 1.0 1:0.67 2:0.33 3:0.75 4:0.5 5:0.17 7:0.38 8:0.5 9:0.25 12:0.5 14:0.5 15:0.14 16:0.14 17:0.5 19:1.0 23:1.0 24:0.67 25:0.67 26:1.0 27:1.0 28:0.25 29:1.0 30:0.29 31:0.33 32:0.4 34:0.17 35:0.17 36:0.5 37:0.33 42:0.5 43:0.33 44:0.17 46:0.4 47:1.0 48:0.5 50:1.0 52:0.17 53:1.0 54:0.2 
0.0 0.0 0.0 0.0 0.0 0.9436209828946228 1.0 1:0.67 2:0.22 3:1.0 7:0.25 8:1.0 9:0.12 12:0.5 13:1.0 14:1.0 17:0.5 19:1.0 21:0.25 23:1.0 24:1.0 25:1.0 26:1.0 30:0.14 32:1.0 36:1.0 37:1.0 42:1.0 43:0.33 46:1.0 47:1.0 48:0.5 51:1.0 53:1.0 
1.0 1.0 1.0 1.0 1.0 0.34769848553119936 1.0 1:0.67 2:0.33 3:0.5 4:0.5 5:0.17 7:0.38 9:0.25 12:0.5 13:0.5 15:0.14 16:0.14 17:0.5 23:1.0 24:1.0 25:1.0 26:0.67 27:1.0 28:0.25 29:1.0 30:0.29 32:1.0 34:0.17 35:0.17 36:1.0 37:0.83 42:0.5 43:0.33 44:0.17 46:0.8 48:0.5 50:1.0 51:1.0 52:0.17 53:0.67 54:0.2 
1.0 1.0 1.0 1.0 1.0 1.0 1.0 1:0.67 2:0.33 3:0.25 4:0.5 5:0.17 6:0.14 7:0.38 9:0.38 12:0.5 15:0.29 16:0.14 17:0.5 21:0.25 22:1.0 23:0.5 24:0.33 25:0.33 26:0.33 27:1.0 28:0.25 29:1.0 30:0.43 32:0.2 34:0.17 35:0.17 36:0.25 37:0.17 43:0.67 44:0.33 45:0.5 46:0.2 48:1.0 50:1.0 52:0.17 53:0.33 54:0.2 
0.0 1.0 0.5574333900704797 0.6289495510822622 0.0 1.0 1.0 1:0.67 2:0.33 3:0.75 7:0.25 8:0.5 9:0.25 12:0.5 13:1.0 14:0.5 15:0.14 17:0.75 21:0.25 23:1.0 24:1.0 25:1.0 26:0.67 30:0.14 32:1.0 36:1.0 37:1.0 42:0.5 43:0.67 45:0.5 46:1.0 48:0.5 51:1.0 53:0.67 
-1.0 1.0 1.0 1.0 1.0 1.0 1.0 31:0.67 
-1.0 0.6171996130931606 1.0 1.0 1.0 1.0 1.0 2:0.11 4:0.5 5:0.17 7:0.12 9:0.12 15:0.14 16:0.14 20:0.5 27:1.0 28:0.25 29:1.0 30:0.14 31:0.67 34:0.17 35:0.17 44:0.17 50:1.0 52:0.17 54:0.2 
-1.0 1.0 1.0 1.0 1.0 1.0 1.0 1:0.33 2:0.22 3:0.25 4:1.0 5:0.17 7:0.25 9:0.25 11:1.0 12:1.0 15:0.14 16:0.14 17:0.25 20:0.5 23:0.5 24:0.33 25:0.33 26:0.33 27:1.0 28:0.25 29:1.0 30:0.29 31:0.33 32:0.2 34:0.17 35:0.17 36:0.25 37:0.17 43:0.33 44:0.17 46:0.2 48:0.5 49:1.0 50:1.0 52:0.17 53:0.33 54:0.2 
-1.0 0.623702626356649 1.0 1.0 1.0 1.0 1.0 31:0.67 
-1.0 1.0 1.0 1.0 1.0 1.0 1.0 2:0.11 4:0.5 5:0.17 7:0.12 9:0.12 15:0.14 16:0.14 20:0.5 27:1.0 28:0.25 29:1.0 30:0.14 34:0.17 35:0.17 44:0.17 50:1.0 52:0.17 54:0.2 
-1.0 0.0 1.0 1.0 1.0 1.0 1.0 2:0.11 4:1.0 5:0.17 7:0.12 9:0.12 11:1.0 12:0.5 15:0.14 16:0.14 20:0.5 27:1.0 28:0.25 29:1.0 30:0.14 31:0.33 34:0.17 35:0.17 44:0.17 49:1.0 50:1.0 52:0.17 54:0.2 
-1.0 1.0 1.0 1.0 1.0 1.0 1.0 1:0.33 2:0.11 3:0.75 7:0.12 8:1.0 13:0.5 14:1.0 17:0.25 19:1.0 23:0.5 24:0.33 25:0.33 26:0.67 32:0.2 36:0.25 37:0.33 42:0.5 46:0.4 47:1.0 53:0.67 
-1.0 1.0 1.0 1.0 1.0 1.0 1.0 2:0.11 4:0.5 5:0.17 7:0.12 9:0.12 15:0.14 16:0.14 20:0.5 27:1.0 28:0.25 29:1.0 30:0.14 34:0.17 35:0.17 44:0.17 50:1.0 52:0.17 54:0.2 
-1.0 -0.0 0.0 0.0 0.0 1.0 0.07862730216040303 1:1.0 2:1.0 3:0.75 4:0.5 5:0.17 6:1.0 7:1.0 8:0.5 9:1.0 12:0.5 13:0.5 14:0.5 15:1.0 16:0.14 17:1.0 19:1.0 21:1.0 22:1.0 23:1.0 24:1.0 25:1.0 26:1.0 27:1.0 28:0.25 29:1.0 30:1.0 32:1.0 34:0.17 35:0.17 36:1.0 37:0.83 42:1.0 43:1.0 44:1.0 45:1.0 46:0.8 47:1.0 48:1.0 50:1.0 51:1.0 52:0.17 53:1.0 54:0.2 
-0.022206842804353224 -0.0 0.0 0.0 0.0 0.028485005406900885 0.2455601008799975 1:1.0 2:1.0 3:0.75 4:0.5 5:0.17 6:1.0 7:1.0 8:0.5 9:1.0 12:0.5 14:0.5 15:1.0 16:0.14 17:1.0 19:1.0 21:0.5 22:1.0 23:1.0 24:0.67 25:0.67 26:1.0 27:1.0 28:0.25 29:1.0 30:1.0 31:0.33 32:0.4 34:0.17 35:0.17 36:0.5 37:0.33 42:0.5 43:1.0 44:1.0 45:1.0 46:0.4 47:1.0 48:1.0 50:1.0 52:0.17 53:1.0 54:0.2 
-0.0 -0.0 1.0 0.0 0.0 0.0 1.0 1:1.0 2:1.0 3:0.5 4:0.5 5:0.17 6:1.0 7:1.0 9:1.0 12:0.5 15:1.0 16:0.14 17:1.0 21:0.5 22:1.0 23:1.0 24:0.67 25:0.67 26:0.67 27:1.0 28:0.25 29:1.0 30:1.0 32:0.4 34:0.17 35:0.17 36:0.5 37:0.33 43:1.0 44:1.0 45:1.0 46:0.4 48:1.0 50:1.0 52:0.17 53:0.67 54:0.2 
-1.0 -0.0 0.0 0.13484287506073198 0.0 1.0 1.0 1:1.0 2:1.0 3:0.75 4:0.5 5:0.17 6:1.0 7:1.0 8:0.5 9:1.0 12:0.5 13:0.5 14:0.5 15:1.0 16:0.14 17:1.0 19:1.0 21:0.5 22:1.0 23:1.0 24:1.0 25:1.0 26:1.0 27:1.0 28:0.25 29:1.0 30:1.0 32:1.0 34:0.17 35:0.17 36:1.0 37:0.83 42:1.0 43:1.0 44:1.0 45:1.0 46:0.8 47:1.0 48:1.0 50:1.0 51:1.0 52:0.17 53:1.0 54:0.2 
-1.0 -1.0 1.0 1.0 1.0 1.0 1.0 1:1.0 2:0.89 3:0.5 4:0.5 5:0.17 6:1.0 7:1.0 9:0.88 12:0.5 15:0.86 16:0.14 17:0.75 21:0.25 22:1.0 23:1.0 24:0.67 25:0.67 26:0.67 27:1.0 28:0.25 29:1.0 30:1.0 32:0.4 34:0.17 35:0.17 36:0.5 37:0.33 43:0.67 44:1.0 45:0.5 46:0.4 48:1.0 50:1.0 52:0.17 53:0.67 54:0.2 
-1.0 -1.0 1.0 1.0 1.0 1.0 1.0 1:0.33 2:0.56 6:1.0 7:0.62 9:0.62 15:0.71 17:0.25 21:0.25 22:1.0 30:0.71 43:0.33 44:0.83 45:0.5 48:0.5 
-0.9975085269753405 -0.24090223944980954 0.9402476297291004 0.0 0.0 1.0 0.8816473535254419 1:1.0 2:1.0 3:0.75 4:0.5 5:0.17 6:1.0 7:1.0 8:0.5 9:1.0 12:0.5 14:0.5 15:1.0 16:0.14 17:1.0 19:1.0 21:0.5 22:1.0 23:1.0 24:0.67 25:0.67 26:1.0 27:1.0 28:0.25 29:1.0 30:1.0 31:0.33 32:0.4 34:0.17 35:0.17 36:0.5 37:0.33 42:0.5 43:1.0 44:1.0 45:1.0 46:0.4 47:1.0 48:1.0 50:1.0 52:0.17 53:1.0 54:0.2 
-1.0 -0.0 0.0 1.0 0.0 1.0 1.0 1:1.0 2:1.0 3:0.75 4:0.5 5:0.17 6:1.0 7:1.0 8:0.5 9:1.0 12:0.5 13:0.5 14:0.5 15:1.0 16:0.14 17:1.0 19:1.0 21:0.5 22:1.0 23:1.0 24:1.0 25:1.0 26:1.0 27:1.0 28:0.25 29:1.0 30:1.0 32:1.0 34:0.17 35:0.17 36:1.0 37:0.83 42:1.0 43:1.0 44:1.0 45:1.0 46:0.8 47:1.0 48:1.0 50:1.0 51:1.0 52:0.17 53:1.0 54:0.2 
-0.0 -1.0 1.0 1.0 1.0 0.0 1.0 1:0.67 2:0.89 3:0.25 4:0.5 5:0.17 6:1.0 7:0.88 9:1.0 12:0.5 15:1.0 16:0.14 17:0.75 20:0.5 21:1.0 22:1.0 23:0.5 24:0.33 25:0.33 26:0.33 27:1.0 28:0.25 29:1.0 30:1.0 32:0.2 34:0.17 35:0.17 36:0.25 37:0.17 43:1.0 44:1.0 45:1.0 46:0.2 48:1.0 50:1.0 52:0.17 53:0.33 54:0.2 
-0.7237676798883116 -0.0 0.0 0.0 0.0 0.246472205927685 0.0 1:1.0 2:1.0 3:0.75 4:0.5 5:0.17 6:1.0 7:1.0 8:0.5 9:1.0 12:0.5 13:0.5 14:0.5 15:1.0 16:0.14 17:1.0 19:1.0 21:1.0 22:1.0 23:1.0 24:1.0 25:1.0 26:1.0 27:1.0 28:0.25 29:1.0 30:1.0 31:0.33 32:0.4 34:0.17 35:0.17 36:0.5 37:0.33 42:1.0 43:1.0 44:1.0 45:1.0 46:0.4 47:1.0 48:1.0 50:1.0 51:1.0 52:0.17 53:1.0 54:0.2 
-0.0 -0.0 0.0 0.0 0.0 0.0 1.0 1:1.0 2:1.0 3:0.5 4:0.5 5:0.17 6:1.0 7:1.0 9:1.0 12:0.5 15:1.0 16:0.14 17:1.0 21:1.0 22:1.0 23:1.0 24:0.67 25:0.67 26:0.67 27:1.0 28:0.25 29:1.0 30:1.0 32:0.4 34:0.17 35:0.17 36:0.5 37:0.33 43:1.0 44:1.0 45:1.0 46:0.4 48:1.0 50:1.0 52:0.17 53:0.67 54:0.2 
-1.0 -1.0 1.0 1.0 1.0 1.0 1.0 1:0.33 2:0.78 4:0.5 5:0.17 6:1.0 7:0.75 9:0.88 15:1.0 16:0.14 17:0.5 21:1.0 22:1.0 27:1.0 28:0.25 29:1.0 30:0.86 34:0.17 35:0.17 43:0.67 44:1.0 45:1.0 48:0.5 50:1.0 52:0.17 54:0.2 
-1.0 -1.0 1.0 1.0 1.0 1.0 1.0 1:1.0 2:0.44 3:0.75 6:0.14 7:0.38 8:0.5 9:0.38 12:0.5 13:0.5 14:0.5 15:0.29 17:1.0 21:1.0 22:1.0 23:1.0 24:0.67 25:0.67 26:0.67 30:0.29 32:0.4 36:0.5 37:0.5 43:1.0 44:0.17 45:1.0 46:0.6 48:1.0 53:0.67 
-1.0 -1.0 1.0 1.0 1.0 1.0 1.0 1:1.0 2:0.44 3:0.75 6:0.14 7:0.38 8:0.5 9:0.38 12:0.5 13:0.5 14:0.5 15:0.29 17:1.0 21:1.0 22:1.0 23:1.0 24:0.67 25:0.67 26:0.67 30:0.29 32:0.4 36:0.5 37:0.5 43:1.0 44:0.17 45:1.0 46:0.6 48:1.0 53:0.67 
-1.0 -0.0 -1.0 1.0 1.0 1.0 1.0 1:0.33 2:0.22 3:0.25 4:0.5 5:0.17 7:0.25 9:0.25 12:0.5 15:0.14 16:0.14 17:0.25 20:0.5 21:0.25 23:0.5 24:0.33 25:0.33 26:0.33 27:1.0 28:0.25 29:1.0 30:0.29 32:0.2 34:0.17 35:0.17 36:0.25 37:0.17 43:0.33 44:0.17 46:0.2 48:0.5 50:1.0 52:0.17 53:0.33 54:0.2 
-0.0 -1.0 -0.0 1.0 0.31891037737488936 0.0 1.0 2:0.11 4:0.5 5:0.17 7:0.12 9:0.12 15:0.14 16:0.14 21:0.25 27:1.0 28:0.25 29:1.0 30:0.14 34:0.17 35:0.17 44:0.17 50:1.0 52:0.17 54:0.2 
-1.0 -1.0 -0.43423142006381327 1.0 0.0 0.6104857448130042 1.0 2:0.22 4:0.5 5:0.17 7:0.12 9:0.25 15:0.29 16:0.14 17:0.25 21:0.25 27:1.0 28:0.25 29:1.0 30:0.14 34:0.17 35:0.17 43:0.33 44:0.17 45:0.5 50:1.0 52:0.17 54:0.2 
-0.0 -0.27369130776241535 -0.0 1.0 0.5953849436895594 0.0 0.25552228565416535 1:0.33 2:0.22 3:0.25 4:1.0 5:1.0 7:0.25 9:0.25 10:1.0 11:1.0 12:1.0 15:0.14 16:1.0 17:0.25 18:1.0 20:1.0 23:0.5 24:0.33 25:0.33 26:0.33 27:1.0 28:1.0 29:1.0 30:0.29 31:0.33 32:0.2 33:1.0 34:1.0 35:1.0 36:0.25 37:0.17 38:1.0 39:1.0 40:1.0 41:1.0 43:0.33 44:0.17 46:0.2 48:0.5 49:1.0 50:1.0 52:1.0 53:0.33 54:1.0 
-1.0 -0.15281586895169194 -1.0 1.0 1.0 1.0 1.0 1:0.33 2:0.11 3:0.25 7:0.12 9:0.12 12:0.5 17:0.25 20:0.5 23:0.5 24:0.33 25:0.33 26:0.33 30:0.14 32:0.2 36:0.25 37:0.17 43:0.33 46:0.2 48:0.5 53:0.33 
-1.0 -0.0 -0.41050510406253027 0.2841458975942168 0.0 1.0 1.0 1:0.33 2:0.11 3:0.5 5:0.83 7:0.12 8:0.5 9:0.12 10:1.0 12:0.5 13:0.5 14:0.5 16:0.86 17:0.25 18:1.0 20:0.5 21:0.25 23:0.5 24:0.33 25:0.33 26:0.33 28:0.75 30:0.14 32:0.2 33:1.0 34:0.83 35:0.83 36:0.25 37:0.33 38:1.0 39:1.0 40:1.0 41:1.0 43:0.33 46:0.4 48:0.5 52:0.83 53:0.33 54:0.8 
-0.0 -0.0 -0.0 0.0 0.0 0.0 0.30675468417253293 2:0.11 4:0.5 5:1.0 7:0.12 9:0.12 10:1.0 15:0.14 16:1.0 18:1.0 27:1.0 28:1.0 29:1.0 30:0.14 33:1.0 34:1.0 35:1.0 38:1.0 39:1.0 40:1.0 41:1.0 44:0.17 50:1.0 52:1.0 54:1.0 
-0.0 -0.0 -0.0 0.0 0.0 0.0 1.0 2:0.11 4:0.5 5:1.0 7:0.12 9:0.12 10:1.0 15:0.14 16:1.0 18:1.0 27:1.0 28:1.0 29:1.0 30:0.14 33:1.0 34:1.0 35:1.0 38:1.0 39:1.0 40:1.0 41:1.0 44:0.17 50:1.0 52:1.0 54:1.0 
-1.0 -1.0 -0.7565189030006783 1.0 1.0 1.0 1.0 1:0.33 2:0.22 3:0.25 4:1.0 5:0.17 7:0.25 9:0.25 11:1.0 12:1.0 15:0.14 16:0.14 17:0.25 20:0.5 23:0.5 24:0.33 25:0.33 26:0.33 27:1.0 28:0.25 29:1.0 30:0.29 31:0.33 32:0.2 34:0.17 35:0.17 36:0.25 37:0.17 43:0.33 44:0.17 46:0.2 48:0.5 49:1.0 50:1.0 52:0.17 53:0.33 54:0.2 
-1.0 -1.0 -0.0 1.0 1.0 0.3671649178610805 1.0 
-0.0 -0.0 -0.0 0.0 0.0 0.0 1.0 2:0.11 4:0.5 5:1.0 7:0.12 9:0.12 10:1.0 15:0.14 16:1.0 18:1.0 27:1.0 28:1.0 29:1.0 30:0.14 33:1.0 34:1.0 35:1.0 38:1.0 39:1.0 40:1.0 41:1.0 44:0.17 50:1.0 52:1.0 54:1.0 
-0.0 -0.0 -0.33899220260207846 1.0 1.0 0.0 1.0 1:0.33 2:0.33 3:0.25 4:1.0 5:1.0 6:0.14 7:0.38 9:0.38 10:1.0 11:1.0 12:1.0 15:0.29 16:1.0 17:0.25 18:1.0 20:1.0 23:0.5 24:0.33 25:0.33 26:0.33 27:1.0 28:1.0 29:1.0 30:0.43 31:0.33 32:0.2 33:1.0 34:1.0 35:1.0 36:0.25 37:0.17 38:1.0 39:1.0 40:1.0 41:1.0 43:0.33 44:0.33 46:0.2 48:0.5 49:1.0 50:1.0 52:1.0 53:0.33 54:1.0 
-0.4148425231572368 -0.0 -0.0 0.7158541024057832 0.0 0.1288070830815589 0.1397074944767365 1:0.33 2:0.22 3:0.25 4:1.0 5:1.0 7:0.25 9:0.25 10:1.0 11:1.0 12:1.0 15:0.14 16:1.0 17:0.25 18:1.0 20:0.5 23:0.5 24:0.33 25:0.33 26:0.33 27:1.0 28:1.0 29:1.0 30:0.29 31:0.33 32:0.2 33:1.0 34:1.0 35:1.0 36:0.25 37:0.17 38:1.0 39:1.0 40:1.0 41:1.0 43:0.33 44:0.17 46:0.2 48:0.5 49:1.0 50:1.0 52:1.0 53:0.33 54:1.0 
-0.9211519476617189 -1.0 -1.0 1.0 0.0 0.6083241451561802 1.0 2:0.22 4:0.5 5:0.17 7:0.12 9:0.25 15:0.29 16:0.14 17:0.25 21:0.25 27:1.0 28:0.25 29:1.0 30:0.14 34:0.17 35:0.17 43:0.33 44:0.17 45:0.5 50:1.0 52:0.17 54:0.2 
-1.0 -0.0 -1.0 1.0 1.0 1.0 1.0 1:0.33 2:0.22 3:0.25 4:0.5 5:0.17 7:0.25 9:0.25 12:0.5 15:0.14 16:0.14 17:0.25 20:0.5 21:0.25 23:0.5 24:0.33 25:0.33 26:0.33 27:1.0 28:0.25 29:1.0 30:0.29 32:0.2 34:0.17 35:0.17 36:0.25 37:0.17 43:0.33 44:0.17 46:0.2 48:0.5 50:1.0 52:0.17 53:0.33 54:0.2 
-0.0 -0.0 -0.0 0.0 0.0 0.0 0.989941156423626 2:0.11 4:0.5 5:1.0 7:0.12 9:0.12 10:1.0 15:0.14 16:1.0 18:1.0 27:1.0 28:1.0 29:1.0 30:0.14 33:1.0 34:1.0 35:1.0 38:1.0 39:1.0 40:1.0 41:1.0 44:0.17 50:1.0 52:1.0 54:1.0 
-1.0 -0.6309403751384719 -1.0 1.0 1.0 1.0 1.0 1:0.33 2:0.22 3:0.25 4:0.5 5:0.17 7:0.25 9:0.25 12:0.5 15:0.14 16:0.14 17:0.25 20:0.5 21:0.25 23:0.5 24:0.33 25:0.33 26:0.33 27:1.0 28:0.25 29:1.0 30:0.29 32:0.2 34:0.17 35:0.17 36:0.25 37:0.17 43:0.33 44:0.17 46:0.2 48:0.5 50:1.0 52:0.17 53:0.33 54:0.2 
-1.0 -0.9425524481474208 -1.0 1.0 0.08570467893555102 1.0 1.0 1:0.33 2:0.11 3:0.75 7:0.12 8:1.0 13:0.5 14:1.0 17:0.25 19:1.0 23:0.5 24:0.33 25:0.33 26:0.67 32:0.2 36:0.25 37:0.33 42:0.5 46:0.4 47:1.0 53:0.67 
-1.0 -1.0 -0.0 1.0 1.0 1.0 1.0 
-0.0 -1.0 -0.0 -1.0 1.0 0.0 1.0 2:0.11 4:1.0 5:0.17 7:0.12 9:0.12 11:1.0 12:0.5 15:0.14 16:0.14 20:0.5 21:0.25 27:1.0 28:0.25 29:1.0 30:0.14 31:1.0 34:0.17 35:0.17 44:0.17 49:1.0 50:1.0 52:0.17 54:0.2 
-1.0 -1.0 -1.0 -1.0 0.0 1.0 1.0 2:0.22 3:0.25 6:0.14 7:0.12 8:0.5 9:0.25 13:0.5 14:0.5 15:0.29 17:0.25 20:0.5 21:0.25 30:0.14 37:0.17 43:0.33 44:0.17 45:0.5 46:0.2 
-1.0 -1.0 -0.0 -1.0 1.0 0.0 1.0 4:0.5 11:1.0 12:0.5 20:0.5 31:0.33 49:1.0 
-1.0 -0.0 -1.0 -1.0 1.0 1.0 1.0 1:0.33 2:0.22 3:0.25 4:1.0 5:0.17 7:0.25 9:0.25 11:1.0 12:1.0 15:0.14 16:0.14 17:0.25 20:1.0 21:0.25 23:0.5 24:0.33 25:0.33 26:0.33 27:1.0 28:0.25 29:1.0 30:0.29 31:0.33 32:0.2 34:0.17 35:0.17 36:0.25 37:0.17 43:0.33 44:0.17 46:0.2 48:0.5 49:1.0 50:1.0 52:0.17 53:0.33 54:0.2 
-0.0 -0.605730373524669 -0.0 -1.0 1.0 0.0 1.0 4:0.5 11:1.0 12:0.5 20:0.5 31:1.0 49:1.0 
-1.0 -0.0 -0.0 -1.0 0.17758621962329008 0.8771487365835857 1.0 3:0.25 4:0.5 8:0.5 11:1.0 12:0.5 13:0.5 14:0.5 20:1.0 21:0.25 31:0.33 37:0.17 46:0.2 49:1.0 
-0.6901081320631833 -0.16955027091115285 -1.0 -1.0 1.0 0.6740193374950973 1.0 2:0.22 4:1.0 5:0.17 7:0.12 9:0.25 11:1.0 12:0.5 15:0.29 16:0.14 17:0.25 20:0.5 21:0.25 27:1.0 28:0.25 29:1.0 30:0.14 31:1.0 34:0.17 35:0.17 43:0.33 44:0.17 45:0.5 49:1.0 50:1.0 52:0.17 54:0.2 
-0.9351452912361986 -1.0 -0.0 -1.0 0.24408052217588783 0.6230661202558467 1.0 2:0.11 4:1.0 5:0.17 7:0.12 9:0.12 11:1.0 12:0.5 15:0.14 16:0.14 20:0.5 27:1.0 28:0.25 29:1.0 30:0.14 31:0.33 34:0.17 35:0.17 44:0.17 49:1.0 50:1.0 52:0.17 54:0.2 
-0.0 -1.0 -0.0 -1.0 1.0 0.0 1.0 2:0.11 4:1.0 5:0.33 7:0.12 9:0.12 10:0.25 11:1.0 12:0.5 15:0.14 16:0.29 18:0.2 20:0.5 27:1.0 28:0.5 29:1.0 30:0.14 31:1.0 33:0.17 34:0.33 35:0.33 38:0.2 39:0.33 41:0.2 44:0.17 49:1.0 50:1.0 52:0.33 54:0.4 
-1.0 -0.05196369659018323 -1.0 -1.0 0.0 1.0 1.0 1:0.67 2:0.33 3:0.75 7:0.25 8:0.5 9:0.25 12:0.5 13:1.0 14:0.5 15:0.14 17:0.75 21:0.75 23:1.0 24:1.0 25:1.0 26:0.67 30:0.14 32:1.0 36:1.0 37:1.0 42:0.5 43:0.67 45:0.5 46:1.0 48:0.5 51:1.0 53:0.67 
-1.0 -1.0 -1.0 -1.0 0.5783332582008222 1.0 1.0 1:0.67 2:0.33 3:0.75 6:0.14 7:0.38 8:0.5 9:0.25 12:0.5 13:1.0 14:0.5 15:0.14 17:0.5 20:0.5 23:1.0 24:1.0 25:1.0 26:0.67 30:0.29 32:1.0 36:1.0 37:1.0 42:0.5 43:0.33 44:0.17 46:1.0 48:0.5 51:1.0 53:0.67 
-1.0 -0.17275565897399497 -1.0 -1.0 1.0 1.0 1.0 1:0.33 2:0.22 3:0.25 4:1.0 5:0.17 7:0.25 9:0.25 11:1.0 12:1.0 15:0.14 16:0.14 17:0.25 20:0.5 23:0.5 24:0.33 25:0.33 26:0.33 27:1.0 28:0.25 29:1.0 30:0.29 31:0.33 32:0.2 34:0.17 35:0.17 36:0.25 37:0.17 43:0.33 44:0.17 46:0.2 48:0.5 49:1.0 50:1.0 52:0.17 53:0.33 54:0.2 
-1.0 -0.0 -0.13484287506073198 -1.0 1.0 1.0 1.0 2:0.11 3:0.25 4:0.5 6:0.14 7:0.12 8:0.5 9:0.12 11:1.0 12:0.5 13:0.5 14:0.5 15:0.14 20:1.0 30:0.14 31:0.33 37:0.17 44:0.17 46:0.2 49:1.0 
-1.0 -1.0 -1.0 -1.0 0.0 1.0 1.0 2:0.22 4:0.5 5:0.17 6:0.14 7:0.25 9:0.25 15:0.29 16:0.14 20:0.5 27:1.0 28:0.25 29:1.0 30:0.29 34:0.17 35:0.17 44:0.33 50:1.0 52:0.17 54:0.2 
-0.0 -1.0 -0.0 -1.0 -1.0 0.0 1.0 2:0.22 4:1.0 5:0.17 6:0.14 7:0.25 9:0.25 11:1.0 12:0.5 15:0.29 16:0.14 20:1.0 27:1.0 28:0.25 29:1.0 30:0.29 31:1.0 34:0.17 35:0.17 44:0.33 49:1.0 50:1.0 52:0.17 54:0.2 
-1.0 -1.0 -0.0 -1.0 -1.0 0.43615601181335967 1.0 4:0.5 11:1.0 12:0.5 20:0.5 31:1.0 49:1.0 
-1.0 -1.0 -1.0 -1.0 -1.0 1.0 1.0 1:0.33 2:0.33 3:0.25 4:1.0 5:0.17 6:0.14 7:0.38 9:0.38 11:1.0 12:1.0 15:0.29 16:0.14 17:0.25 20:1.0 23:0.5 24:0.33 25:0.33 26:0.33 27:1.0 28:0.25 29:1.0 30:0.43 31:0.33 32:0.2 34:0.17 35:0.17 36:0.25 37:0.17 43:0.33 44:0.33 46:0.2 48:0.5 49:1.0 50:1.0 52:0.17 53:0.33 54:0.2 
-1.0 -1.0 -1.0 -1.0 -1.0 1.0 1.0 1:0.33 2:0.11 3:0.25 4:0.5 7:0.12 9:0.12 11:1.0 12:1.0 17:0.25 20:0.5 23:0.5 24:0.33 25:0.33 26:0.33 30:0.14 31:1.0 32:0.2 36:0.25 37:0.17 43:0.33 46:0.2 48:0.5 49:1.0 53:0.33 
-1.0 -1.0 -1.0 -1.0 -1.0 1.0 1.0 2:0.22 4:1.0 5:0.17 6:0.14 7:0.25 9:0.25 11:1.0 12:0.5 15:0.29 16:0.14 20:1.0 27:1.0 28:0.25 29:1.0 30:0.29 31:0.33 34:0.17 35:0.17 44:0.33 49:1.0 50:1.0 52:0.17 54:0.2 
-1.0 -1.0 -1.0 -1.0 -1.0 1.0 1.0 1:0.33 2:0.22 3:0.25 4:1.0 5:0.17 7:0.25 9:0.25 11:1.0 12:1.0 15:0.14 16:0.14 17:0.25 20:0.5 23:0.5 24:0.33 25:0.33 26:0.33 27:1.0 28:0.25 29:1.0 30:0.29 31:1.0 32:0.2 34:0.17 35:0.17 36:0.25 37:0.17 43:0.33 44:0.17 46:0.2 48:0.5 49:1.0 50:1.0 52:0.17 53:0.33 54:0.2 
-1.0 -0.0 -1.0 -1.0 -1.0 1.0 1.0 1:0.33 2:0.11 3:0.25 4:0.5 7:0.12 9:0.12 11:1.0 12:1.0 17:0.25 20:1.0 23:0.5 24:0.33 25:0.33 26:0.33 30:0.14 31:1.0 32:0.2 36:0.25 37:0.17 43:0.33 46:0.2 48:0.5 49:1.0 53:0.33 
-0.9958743360737218 -1.0 -0.0 -1.0 -1.0 0.7011062891431886 1.0 2:0.22 4:1.0 5:0.17 6:0.14 7:0.25 9:0.25 11:1.0 12:0.5 15:0.29 16:0.14 20:1.0 27:1.0 28:0.25 29:1.0 30:0.29 31:1.0 34:0.17 35:0.17 44:0.33 49:1.0 50:1.0 52:0.17 54:0.2 
-1.0 -1.0 -1.0 -1.0 -1.0 1.0 1.0 1:0.33 2:0.11 3:0.25 4:0.5 7:0.12 9:0.12 11:1.0 12:1.0 17:0.25 20:1.0 23:0.5 24:0.33 25:0.33 26:0.33 30:0.14 31:1.0 32:0.2 36:0.25 37:0.17 43:0.33 46:0.2 48:0.5 49:1.0 53:0.33 
-1.0 -1.0 -1.0 -1.0 -1.0 -1.0 1.0 1:0.33 2:0.22 4:0.5 5:0.17 6:0.14 7:0.25 9:0.25 15:0.29 16:0.14 17:0.25 21:0.25 22:1.0 27:1.0 28:0.25 29:1.0 30:0.29 34:0.17 35:0.17 43:0.33 44:0.33 45:0.5 48:0.5 50:1.0 52:0.17 54:0.2 
-1.0 -0.33124503964711643 -1.0 -1.0 -0.6179916108085243 -0.317753041461349 1.0 1:1.0 2:0.33 3:1.0 6:0.14 7:0.38 8:1.0 9:0.25 12:0.5 13:0.5 14:1.0 15:0.14 17:0.75 19:1.0 21:0.25 22:1.0 23:1.0 24:0.67 25:0.67 26:1.0 30:0.29 32:0.4 36:0.5 37:0.5 42:0.5 43:0.67 44:0.17 45:0.5 46:0.6 47:1.0 48:1.0 53:1.0 
-1.0 -1.0 -1.0 -1.0 -1.0 -1.0 1.0 1:0.67 2:0.22 3:1.0 7:0.25 8:1.0 9:0.12 12:0.5 13:0.5 14:1.0 17:0.5 19:1.0 23:1.0 24:0.67 25:0.67 26:1.0 30:0.14 32:1.0 36:1.0 37:1.0 42:0.5 43:0.33 46:1.0 47:1.0 48:0.5 53:1.0 
-1.0 -0.0 -1.0 -0.0 -0.0 -0.0 1.0 1:0.67 2:0.22 3:1.0 7:0.25 8:1.0 9:0.12 12:0.5 13:1.0 14:1.0 17:0.5 19:1.0 21:0.25 23:1.0 24:1.0 25:1.0 26:1.0 30:0.14 32:1.0 36:1.0 37:1.0 42:1.0 43:0.33 46:1.0 47:1.0 48:0.5 51:1.0 53:1.0 
-1.0 -1.0 -1.0 -1.0 -1.0 -1.0 1.0 1:0.67 2:0.33 3:0.5 4:0.5 5:0.17 7:0.38 9:0.25 12:0.5 13:0.5 15:0.14 16:0.14 17:0.5 23:1.0 24:1.0 25:1.0 26:0.67 27:1.0 28:0.25 29:1.0 30:0.29 32:1.0 34:0.17 35:0.17 36:1.0 37:0.83 42:0.5 43:0.33 44:0.17 46:0.8 48:0.5 50:1.0 51:1.0 52:0.17 53:0.67 54:0.2 
-1.0 -0.0 -0.0 -0.7251110290558036 -0.5645622817727707 -0.0 1.0 1:0.67 2:0.22 3:1.0 7:0.25 8:1.0 9:0.12 12:0.5 13:1.0 14:1.0 17:0.5 19:1.0 23:1.0 24:1.0 25:1.0 26:1.0 30:0.14 32:0.4 36:0.5 37:0.5 42:1.0 43:0.33 46:0.6 47:1.0 48:0.5 51:1.0 53:1.0 
-1.0 -1.0 -0.2185812263627875 -1.0 -1.0 -1.0 1.0 3:0.5 8:1.0 13:0.5 14:1.0 19:1.0 26:0.33 37:0.17 42:0.5 46:0.2 47:1.0 53:0.33 
-1.0 -0.8663554764976438 -0.056375984971798375 -0.98967086185602 -0.9916803017532348 -0.0 1.0 1:0.67 2:0.22 3:1.0 7:0.25 8:1.0 9:0.12 12:0.5 13:1.0 14:1.0 17:0.5 19:1.0 23:1.0 24:1.0 25:1.0 26:1.0 30:0.14 32:0.4 36:0.5 37:0.5 42:1.0 43:0.33 46:0.6 47:1.0 48:0.5 51:1.0 53:1.0 
-1.0 -0.0 -1.0 -0.0 -0.0 -0.0 1.0 1:1.0 2:0.33 3:1.0 6:0.14 7:0.38 8:1.0 9:0.25 12:0.5 13:1.0 14:1.0 15:0.14 17:0.75 19:1.0 21:0.25 22:1.0 23:1.0 24:1.0 25:1.0 26:1.0 30:0.29 32:0.4 36:0.5 37:0.5 42:1.0 43:0.67 44:0.17 45:0.5 46:0.6 47:1.0 48:1.0 51:1.0 53:1.0 
-1.0 -0.8023994838552397 -1.0 -1.0 -1.0 -0.8195092594951993 1.0 1:0.67 2:0.44 3:0.75 4:0.5 5:0.17 6:0.14 7:0.5 8:0.5 9:0.38 12:0.5 13:0.5 14:0.5 15:0.29 16:0.14 17:0.5 19:1.0 20:0.5 23:1.0 24:1.0 25:1.0 26:1.0 27:1.0 28:0.25 29:1.0 30:0.43 32:1.0 34:0.17 35:0.17 36:1.0 37:0.83 42:1.0 43:0.33 44:0.33 46:0.8 47:1.0 48:0.5 50:1.0 51:1.0 52:0.17 53:1.0 54:0.2 
-1.0 -1.0 -1.0 -1.0 -1.0 -1.0 1.0 1:0.33 2:0.22 4:0.5 5:0.17 6:0.14 7:0.25 9:0.25 15:0.29 16:0.14 17:0.25 21:0.25 22:1.0 27:1.0 28:0.25 29:1.0 30:0.29 34:0.17 35:0.17 43:0.33 44:0.33 45:0.5 48:0.5 50:1.0 52:0.17 54:0.2 
-1.0 -1.0 -1.0 -1.0 -1.0 -1.0 1.0 1:0.67 2:0.44 3:0.75 4:0.5 5:0.17 7:0.38 8:0.5 9:0.38 12:0.5 14:0.5 15:0.29 16:0.14 17:0.75 19:1.0 21:0.25 23:1.0 24:0.67 25:0.67 26:1.0 27:1.0 28:0.25 29:1.0 30:0.29 32:0.4 34:0.17 35:0.17 36:0.5 37:0.33 42:0.5 43:0.67 44:0.17 45:0.5 46:0.4 47:1.0 48:0.5 50:1.0 52:0.17 53:1.0 54:0.2 
-1.0 -0.0 -0.0 -0.0 -0.0 -0.0 -0.0 1:0.67 2:0.33 3:0.75 7:0.25 8:0.5 9:0.25 12:0.5 13:0.5 14:0.5 15:0.14 17:0.75 21:0.25 23:1.0 24:0.67 25:0.67 26:0.67 30:0.14 32:0.4 36:0.5 37:0.5 43:0.67 45:0.5 46:0.6 48:0.5 53:0.67 
-0.0 -0.0 -0.0 -1.0 -0.0 -0.3685439990327577 -0.0 1:0.33 2:0.22 3:0.25 4:0.5 5:0.17 7:0.25 9:0.25 12:0.5 15:0.14 16:0.14 17:0.25 20:0.5 21:0.25 23:0.5 24:0.33 25:0.33 26:0.33 27:1.0 28:0.25 29:1.0 30:0.29 32:0.2 34:0.17 35:0.17 36:0.25 37:0.17 43:0.33 44:0.17 46:0.2 48:0.5 50:1.0 52:0.17 53:0.33 54:0.2 
-0.0 -0.0 -0.7258084839655622 -0.0 -0.0 -0.0 -0.0 1:0.33 2:0.22 4:0.5 5:0.17 6:0.14 7:0.25 9:0.25 15:0.29 16:0.14 17:0.25 21:0.25 22:1.0 27:1.0 28:0.25 29:1.0 30:0.29 34:0.17 35:0.17 43:0.33 44:0.33 45:0.5 48:0.5 50:1.0 52:0.17 54:0.2 
-1.0 -0.0 -1.0 -0.0 -0.0 -0.0 -0.0 1:0.67 2:0.33 3:0.75 7:0.25 8:0.5 9:0.25 12:0.5 13:0.5 14:0.5 15:0.14 17:0.75 21:0.75 23:1.0 24:0.67 25:0.67 26:0.67 30:0.14 32:0.4 36:0.5 37:0.5 43:0.67 45:0.5 46:0.6 48:0.5 53:0.67 
-0.0 -0.0 -0.0 -1.0 -0.0 -0.0 -0.0 2:0.11 4:0.5 5:0.17 7:0.12 9:0.12 15:0.14 16:0.14 27:1.0 28:0.25 29:1.0 30:0.14 34:0.17 35:0.17 44:0.17 50:1.0 52:0.17 54:0.2 
-0.0 -0.7666921097466632 -0.0 -1.0 -0.0 -0.0 -0.0 2:0.11 4:0.5 5:0.17 7:0.12 9:0.12 15:0.14 16:0.14 27:1.0 28:0.25 29:1.0 30:0.14 34:0.17 35:0.17 44:0.17 50:1.0 52:0.17 54:0.2 
-0.0 -0.8414233297459643 -0.0 -0.0 -1.0 -1.0 -0.0 2:0.22 4:0.5 5:0.17 6:0.14 7:0.25 9:0.25 15:0.29 16:0.14 20:0.5 27:1.0 28:0.25 29:1.0 30:0.29 34:0.17 35:0.17 44:0.33 50:1.0 52:0.17 54:0.2 
-1.0 -0.0 -1.0 -0.6134379625761114 -0.7458180580877602 -0.0 -1.0 1:0.67 2:0.33 3:1.0 7:0.25 8:1.0 9:0.25 12:0.5 13:1.0 14:1.0 15:0.14 17:0.75 19:1.0 21:0.75 23:1.0 24:1.0 25:1.0 26:1.0 30:0.14 32:1.0 36:1.0 37:1.0 42:1.0 43:0.67 45:0.5 46:1.0 47:1.0 48:0.5 51:1.0 53:1.0 
-1.0 -0.0 -0.2953786340465324 -0.9642090616520526 -0.0 -0.0 -0.2730646207400258 1:0.67 2:0.33 3:0.5 4:0.5 5:0.17 7:0.38 9:0.25 12:0.5 15:0.14 16:0.14 17:0.5 23:1.0 24:0.67 25:0.67 26:0.67 27:1.0 28:0.25 29:1.0 30:0.29 32:0.4 34:0.17 35:0.17 36:0.5 37:0.33 43:0.33 44:0.17 46:0.4 48:0.5 50:1.0 52:0.17 53:0.67 54:0.2 
-1.0 -0.0035921132101255147 -0.0 -0.03670229535872424 -0.0 -0.0 -1.0 1:0.67 2:0.22 3:1.0 7:0.25 8:1.0 9:0.12 12:0.5 13:0.5 14:1.0 17:0.5 19:1.0 23:1.0 24:0.67 25:0.67 26:1.0 30:0.14 32:1.0 36:1.0 37:1.0 42:0.5 43:0.33 46:1.0 47:1.0 48:0.5 53:1.0 
-1.0 -0.0 -1.0 -0.0 -0.0 -0.0 -0.5945079603469106 1:0.67 2:0.33 3:0.5 4:0.5 5:0.17 7:0.38 9:0.25 12:0.5 13:0.5 15:0.14 16:0.14 17:0.5 23:1.0 24:1.0 25:1.0 26:0.67 27:1.0 28:0.25 29:1.0 30:0.29 32:1.0 34:0.17 35:0.17 36:1.0 37:0.83 42:0.5 43:0.33 44:0.17 46:0.8 48:0.5 50:1.0 51:1.0 52:0.17 53:0.67 54:0.2 
-1.0 -0.0 -0.0 -0.0 -0.0 -0.0 -0.5803646708723349 2:0.11 3:0.25 4:0.5 5:0.17 7:0.12 8:0.5 9:0.12 13:0.5 14:0.5 15:0.14 16:0.14 19:1.0 24:0.33 25:0.33 26:0.33 27:1.0 28:0.25 29:1.0 30:0.14 34:0.17 35:0.17 42:1.0 44:0.17 47:1.0 50:1.0 51:1.0 52:0.17 53:0.33 54:0.2 
-1.0 -0.0 -0.0 -0.0 -0.0 -0.0 -0.5690830884179023 2:0.11 3:0.25 4:0.5 5:0.17 7:0.12 8:0.5 9:0.12 14:0.5 15:0.14 16:0.14 19:1.0 26:0.33 27:1.0 28:0.25 29:1.0 30:0.14 34:0.17 35:0.17 42:0.5 44:0.17 47:1.0 50:1.0 52:0.17 53:0.33 54:0.2 
-0.0 -1.0 -0.0 -1.0 -0.0 -0.0 -0.0 2:0.11 4:0.5 5:0.17 7:0.12 9:0.12 15:0.14 16:0.14 27:1.0 28:0.25 29:1.0 30:0.14 34:0.17 35:0.17 44:0.17 50:1.0 52:0.17 54:0.2 
-1.0 -0.0 -0.0 -0.0 -0.0 -0.0 -0.976149901912293 1:0.67 2:0.22 3:1.0 7:0.25 8:1.0 9:0.12 12:0.5 13:1.0 14:1.0 17:0.5 19:1.0 21:0.25 23:1.0 24:1.0 25:1.0 26:1.0 30:0.14 32:1.0 36:1.0 37:1.0 42:1.0 43:0.33 46:1.0 47:1.0 48:0.5 51:1.0 53:1.0 
-0.0 -1.0 -0.0 -1.0 -1.0 -1.0 -0.0 
-1.0 -0.10882726259995518 -0.0 -0.0 -1.0 -0.0 -0.0 2:0.11 4:0.5 5:0.17 7:0.12 9:0.12 13:0.5 15:0.14 16:0.14 24:0.33 25:0.33 27:1.0 28:0.25 29:1.0 30:0.14 31:0.33 32:0.6 34:0.17 35:0.17 36:0.5 37:0.5 42:0.5 44:0.17 46:0.4 50:1.0 51:1.0 52:0.17 54:0.2 
-1.0 -0.0 -0.0 -0.0 -0.0 -0.0 -1.0 1:0.67 2:0.22 3:1.0 7:0.25 8:1.0 9:0.12 12:0.5 13:1.0 14:1.0 17:0.5 19:1.0 23:1.0 24:1.0 25:1.0 26:1.0 30:0.14 32:0.4 36:0.5 37:0.5 42:1.0 43:0.33 46:0.6 47:1.0 48:0.5 51:1.0 53:1.0 
-1.0 -0.0 -1.0 -0.008468014560332153 -0.0 -0.0 -0.0 1:0.67 2:0.33 3:0.5 4:0.5 5:0.17 7:0.38 9:0.25 12:0.5 13:0.5 15:0.14 16:0.14 17:0.5 23:1.0 24:1.0 25:1.0 26:0.67 27:1.0 28:0.25 29:1.0 30:0.29 32:1.0 34:0.17 35:0.17 36:1.0 37:0.83 42:0.5 43:0.33 44:0.17 46:0.8 48:0.5 50:1.0 51:1.0 52:0.17 53:0.67 54:0.2 
-1.0 -0.39509049101059296 -1.0 -0.0 -0.0 -0.0 -1.0 1:0.67 2:0.33 3:0.75 4:0.5 5:0.17 7:0.38 8:0.5 9:0.25 12:0.5 14:0.5 15:0.14 16:0.14 17:0.5 19:1.0 21:0.25 23:1.0 24:0.67 25:0.67 26:1.0 27:1.0 28:0.25 29:1.0 30:0.29 31:0.33 32:0.4 34:0.17 35:0.17 36:0.5 37:0.33 42:0.5 43:0.33 44:0.17 46:0.4 47:1.0 48:0.5 50:1.0 52:0.17 53:1.0 54:0.2 
-1.0 -0.47974102457910767 -0.0 -0.0 -0.0 -0.0 -0.1393341621690507 3:0.5 8:1.0 13:0.5 14:1.0 19:1.0 26:0.33 37:0.17 42:0.5 46:0.2 47:1.0 53:0.33 
-1.0 -0.0 -0.0 -0.0 -1.0 -0.1339294555431036 -0.0 1:0.33 2:0.11 3:0.5 7:0.12 8:0.5 9:0.12 12:0.5 13:0.5 14:0.5 17:0.25 20:0.5 21:0.25 23:0.5 24:0.33 25:0.33 26:0.33 30:0.14 32:0.2 36:0.25 37:0.33 43:0.33 46:0.4 48:0.5 53:0.33 
-0.0 -0.0 -0.0 -1.0 -0.774696969946113 -1.0 -0.0 1:0.33 2:0.22 3:0.25 4:0.5 5:0.17 7:0.25 9:0.25 12:0.5 15:0.14 16:0.14 17:0.25 20:0.5 21:0.25 23:0.5 24:0.33 25:0.33 26:0.33 27:1.0 28:0.25 29:1.0 30:0.29 32:0.2 34:0.17 35:0.17 36:0.25 37:0.17 43:0.33 44:0.17 46:0.2 48:0.5 50:1.0 52:0.17 53:0.33 54:0.2 
-0.0 -0.0 -0.0 -1.0 -1.0 -1.0 -0.0 1:0.33 2:0.22 3:0.25 4:0.5 5:0.17 7:0.25 9:0.25 12:0.5 15:0.14 16:0.14 17:0.25 20:0.5 21:0.25 23:0.5 24:0.33 25:0.33 26:0.33 27:1.0 28:0.25 29:1.0 30:0.29 32:0.2 34:0.17 35:0.17 36:0.25 37:0.17 43:0.33 44:0.17 46:0.2 48:0.5 50:1.0 52:0.17 53:0.33 54:0.2 
-0.0 -0.0 -1.0 -0.19642647588346435 -0.0 -0.0 -0.0 1:0.33 2:0.22 3:0.25 6:0.14 7:0.12 8:0.5 9:0.25 13:0.5 14:0.5 15:0.29 17:0.5 21:1.0 22:1.0 30:0.14 37:0.17 43:0.67 44:0.17 45:1.0 46:0.2 48:0.5 
-1.0 -0.0 -1.0 -0.3210643622984969 -0.0 -0.0 -1.0 1:1.0 2:0.33 3:0.75 6:0.14 7:0.38 8:0.5 9:0.25 12:0.5 13:0.5 14:0.5 15:0.14 17:0.75 21:0.25 22:1.0 23:1.0 24:0.67 25:0.67 26:0.67 30:0.29 32:0.4 36:0.5 37:0.5 43:0.67 44:0.17 45:0.5 46:0.6 48:1.0 53:0.67 
-0.0 -0.0 -1.0 -0.0 -0.0 -0.0 -0.0 1:0.33 2:0.22 4:0.5 5:0.17 6:0.14 7:0.25 9:0.25 15:0.29 16:0.14 17:0.25 21:0.25 22:1.0 27:1.0 28:0.25 29:1.0 30:0.29 34:0.17 35:0.17 43:0.33 44:0.33 45:0.5 48:0.5 50:1.0 52:0.17 54:0.2 
-0.0 -0.0 -0.0 -1.0 -0.898475994314411 -0.0 -0.0 2:0.22 4:0.5 5:0.17 7:0.12 9:0.25 15:0.29 16:0.14 17:0.25 21:0.25 27:1.0 28:0.25 29:1.0 30:0.14 34:0.17 35:0.17 43:0.33 44:0.17 45:0.5 50:1.0 52:0.17 54:0.2 
-0.6694861582684645 -0.0 -0.0 -0.6697669361960868 -1.0 -1.0 -0.0 1:0.33 2:0.22 3:0.25 4:0.5 5:0.17 7:0.25 9:0.25 12:0.5 15:0.14 16:0.14 17:0.25 20:0.5 21:0.25 23:0.5 24:0.33 25:0.33 26:0.33 27:1.0 28:0.25 29:1.0 30:0.29 32:0.2 34:0.17 35:0.17 36:0.25 37:0.17 43:0.33 44:0.17 46:0.2 48:0.5 50:1.0 52:0.17 53:0.33 54:0.2 
-0.0 -0.40463366910759113 -0.0 -0.0 -1.0 -0.0 -0.0 3:0.25 8:0.5 13:0.5 14:0.5 20:0.5 21:0.25 37:0.17 46:0.2 
-1.0 -0.0 -0.0 -0.0 -0.0 -0.0 -1.0 1:0.67 2:0.22 3:1.0 7:0.25 8:1.0 9:0.12 12:0.5 13:1.0 14:1.0 17:0.5 19:1.0 23:1.0 24:1.0 25:1.0 26:1.0 30:0.14 32:0.4 36:0.5 37:0.5 42:1.0 43:0.33 46:0.6 47:1.0 48:0.5 51:1.0 53:1.0 
-0.0 -0.0 -0.0 -0.0 -0.4929144422363814 -0.0 -0.0 2:0.11 3:0.25 8:0.5 9:0.12 13:0.5 14:0.5 15:0.14 17:0.25 21:0.5 37:0.17 43:0.33 45:0.5 46:0.2 
-1.0 -0.0 -0.0 -1.0 -0.0 -0.0 -0.0 3:0.5 5:0.17 8:1.0 10:0.25 13:0.5 14:1.0 16:0.14 18:0.2 19:1.0 26:0.33 28:0.25 33:0.17 34:0.17 35:0.17 37:0.17 38:0.2 39:0.33 41:0.2 42:0.5 46:0.2 47:1.0 52:0.17 53:0.33 54:0.2 
-0.0 -0.0 -0.0 -0.8973754803254489 -1.0 -0.49752654542413866 -0.0 2:0.22 4:0.5 5:0.17 6:0.14 7:0.25 9:0.25 15:0.29 16:0.14 20:0.5 27:1.0 28:0.25 29:1.0 30:0.29 34:0.17 35:0.17 44:0.33 50:1.0 52:0.17 54:0.2 
-0.7558311968104707 -1.0 -0.0 -1.0 -1.0 -1.0 -0.0 1:0.33 2:0.22 3:0.25 4:1.0 5:0.17 7:0.25 9:0.25 11:1.0 12:1.0 15:0.14 16:0.14 17:0.25 20:0.5 23:0.5 24:0.33 25:0.33 26:0.33 27:1.0 28:0.25 29:1.0 30:0.29 31:0.33 32:0.2 34:0.17 35:0.17 36:0.25 37:0.17 43:0.33 44:0.17 46:0.2 48:0.5 49:1.0 50:1.0 52:0.17 53:0.33 54:0.2 
-0.0 -0.0 -0.0 -0.932476232686968 -0.0 -0.0 -0.0 2:0.11 4:0.5 5:0.17 7:0.12 9:0.12 15:0.14 16:0.14 21:0.25 27:1.0 28:0.25 29:1.0 30:0.14 34:0.17 35:0.17 44:0.17 50:1.0 52:0.17 54:0.2 
-0.0 -1.0 -0.0 -1.0 -0.0880945354153341 -0.0 -0.0 2:0.11 4:0.5 5:0.17 7:0.12 9:0.12 15:0.14 16:0.14 27:1.0 28:0.25 29:1.0 30:0.14 34:0.17 35:0.17 44:0.17 50:1.0 52:0.17 54:0.2 
-0.17912929540014735 -0.0 -0.1869718922155908 -0.0 -0.0 -0.0 -0.13917759595355325 1:0.33 2:0.22 3:0.25 6:0.14 7:0.12 8:0.5 9:0.25 13:0.5 14:0.5 15:0.29 17:0.5 21:0.5 22:1.0 30:0.14 37:0.17 43:0.67 44:0.17 45:1.0 46:0.2 48:0.5 
-1.0 -0.0 -0.0 -0.0 -0.0 -0.0 -1.0 1:0.67 2:0.22 3:1.0 7:0.25 8:1.0 9:0.12 12:0.5 13:1.0 14:1.0 17:0.5 19:1.0 21:0.25 23:1.0 24:1.0 25:1.0 26:1.0 30:0.14 32:1.0 36:1.0 37:1.0 42:1.0 43:0.33 46:1.0 47:1.0 48:0.5 51:1.0 53:1.0 
-0.0 -0.0 -1.0 -0.0 -0.0 -0.0 -1.0 1:0.33 2:0.22 4:0.5 5:0.17 6:0.14 7:0.25 9:0.25 15:0.29 16:0.14 17:0.25 21:0.25 22:1.0 27:1.0 28:0.25 29:1.0 30:0.29 34:0.17 35:0.17 43:0.33 44:0.33 45:0.5 48:0.5 50:1.0 52:0.17 54:0.2 
-0.0 -0.0 -0.9976757463381569 -0.05199879918937539 -0.0 -0.0 -0.7283179995879296 1:0.33 2:0.22 4:0.5 5:0.17 6:0.14 7:0.25 9:0.25 15:0.29 16:0.14 17:0.25 21:0.25 22:1.0 27:1.0 28:0.25 29:1.0 30:0.29 34:0.17 35:0.17 43:0.33 44:0.33 45:0.5 48:0.5 50:1.0 52:0.17 54:0.2 
-0.0 -1.0 -0.0 -1.0 -1.0 -1.0 -0.0 2:0.11 3:0.25 4:0.5 6:0.14 7:0.12 8:0.5 9:0.12 11:1.0 12:0.5 13:0.5 14:0.5 15:0.14 20:1.0 30:0.14 31:0.67 37:0.17 44:0.17 46:0.2 49:1.0 
-1.0 -0.0 -0.0 -0.0 -1.0 -1.0 -0.0 1:0.33 2:0.11 3:0.5 7:0.12 8:0.5 9:0.12 12:0.5 13:0.5 14:0.5 17:0.25 20:0.5 23:0.5 24:0.33 25:0.33 26:0.33 30:0.14 32:0.2 36:0.25 37:0.33 43:0.33 46:0.4 48:0.5 53:0.33 
