svm_type c_svc
kernel_type rbf
gamma 0.005780346820809248
nr_class 8
total_sv 36
rho -0.6771733164787292 0.6871969401836395 0.5835904181003571 0.3819362521171569 -0.3576646848801377 -0.6726228594779968 0.9565867624612153 0.7352891862392426 0.976811945438385 0.9464608728885651 0.01929667592048645 0.0021386444568634033 1.0075072342587916 0.3425719141960144 0.2192696034908294 -0.4312950670719147 -0.7564526796340942 0.8197940341008471 0.5547405779361725 -0.6423236541214924 -0.9354622485422158 0.9301710248907575 -0.8499697148799896 -0.8688015698495769 0.854469434049935 0.010404020547866821 0.8487984214078432 0.9918674426796931
label 3 7 4 0 5 6 2 1
nr_sv 3 2 4 5 6 2 2 12
SV
0.6974085564826249 1.0 1.0 1.0 0.30560211923929914 0.3599820610393218 1.0 1:0.33 7:1.0 10:1.0 12:0.33 17:0.5 18:1.0 24:1.0 25:0.33 28:1.0 31:1.0 32:0.5 33:1.0 34:0.5 42:0.5 44:1.0 45:0.25 47:0.33 48:1.0 49:1.0 50:0.5 52:0.33 53:0.67 59:0.5 62:0.5 63:1.0 64:1.0 67:1.0 68:0.5 70:1.0 72:0.17 73:1.0 75:1.0 79:0.33 82:0.33 83:1.0 86:1.0 87:0.33 88:0.5 89:1.0 93:1.0 94:1.0 95:0.5 97:0.25 98:1.0 100:0.5 101:0.25 103:1.0 107:0.67 108:1.0 113:1.0 115:1.0 117:1.0 119:0.25 120:0.33 121:0.5 122:0.14 123:0.33 124:0.1 126:1.0 127:1.0 130:0.12 132:0.6 133:0.86 134:1.0 135:0.14 136:0.33 139:0.14 141:1.0 143:1.0 144:0.12 149:1.0 152:0.86 154:1.0 155:1.0 156:1.0 160:1.0 162:0.11 163:1.0 164:0.5 165:1.0 167:1.0 168:1.0 169:0.12 171:1.0 173:0.17 
0.30259144351737505 1.0 1.0 1.0 0.7539673503481227 0.6400179389606782 1.0 1:0.33 4:0.33 6:0.67 7:1.0 8:0.2 10:1.0 12:0.33 14:0.4 17:1.0 21:0.33 22:0.17 24:1.0 26:0.33 28:1.0 29:1.0 30:0.4 31:1.0 32:0.75 33:1.0 34:0.5 35:0.33 37:0.33 38:0.33 40:0.67 41:0.33 42:0.75 43:0.25 44:1.0 45:0.5 46:0.4 48:1.0 49:1.0 50:1.0 51:0.25 52:0.67 53:1.0 54:0.2 55:0.33 56:0.33 57:0.2 58:0.4 60:0.2 61:0.33 62:1.0 63:1.0 64:1.0 65:0.4 66:0.29 67:1.0 68:0.5 69:0.29 70:1.0 71:0.5 73:1.0 74:0.5 75:1.0 76:0.5 81:1.0 82:0.67 83:0.5 84:0.17 85:1.0 86:0.67 87:0.67 88:1.0 89:1.0 90:0.33 91:0.5 93:1.0 94:1.0 95:1.0 97:0.5 98:1.0 99:0.33 100:1.0 101:0.5 102:0.2 103:1.0 104:0.25 105:0.5 106:0.2 107:1.0 108:1.0 111:0.5 112:0.33 113:1.0 114:0.5 115:1.0 117:1.0 118:0.5 119:0.5 120:0.33 123:0.67 124:0.2 125:0.29 126:1.0 127:1.0 129:0.14 130:0.25 132:0.7 133:0.29 134:1.0 135:0.29 136:0.33 138:0.5 139:0.29 140:0.5 141:1.0 142:0.25 143:1.0 144:0.25 145:0.17 148:0.2 149:1.0 150:0.14 152:1.0 153:0.18 154:1.0 155:1.0 156:1.0 157:0.12 160:1.0 161:0.17 162:0.22 163:1.0 164:1.0 165:1.0 167:1.0 168:1.0 169:0.25 170:1.0 171:1.0 173:0.33 
1.0 1.0 1.0 1.0 0.9404305304125783 1.0 1.0 1:0.67 4:0.33 6:0.67 7:0.83 10:1.0 12:1.0 17:1.0 20:0.33 21:0.17 23:1.0 24:0.5 26:0.33 28:0.8 29:0.5 31:1.0 32:0.75 33:0.8 34:1.0 35:0.17 37:0.67 40:0.33 41:0.33 42:1.0 43:0.5 44:1.0 45:1.0 48:1.0 49:0.75 50:0.5 52:1.0 53:0.67 55:0.33 56:0.33 58:0.2 61:0.17 62:0.5 63:0.5 64:1.0 65:0.4 66:0.14 67:1.0 68:0.5 70:1.0 73:1.0 74:1.0 75:1.0 76:0.5 82:0.67 83:0.5 86:0.67 87:1.0 88:1.0 89:1.0 91:0.5 93:1.0 95:0.5 96:1.0 97:1.0 98:1.0 101:1.0 104:0.25 107:0.67 111:0.5 112:1.0 113:0.8 115:1.0 117:1.0 119:0.75 120:0.33 123:1.0 124:0.2 125:0.14 126:1.0 127:1.0 128:0.33 129:0.14 130:0.38 132:0.7 133:0.14 134:1.0 135:0.43 136:0.33 139:0.43 140:0.5 142:0.25 143:1.0 144:0.38 145:0.17 148:0.2 149:0.86 150:0.14 152:1.0 153:0.09 154:1.0 155:1.0 156:1.0 157:0.12 160:1.0 161:0.17 162:0.33 163:1.0 164:0.5 165:1.0 167:1.0 168:1.0 169:0.38 170:1.0 173:0.17 
-1.0 1.0 1.0 1.0 1.0 1.0 1.0 4:0.33 5:0.33 6:0.33 7:0.17 8:0.2 11:0.17 14:0.2 15:0.2 17:1.0 21:0.17 22:0.17 24:0.5 26:0.33 28:0.2 29:0.5 30:0.2 31:0.17 32:0.25 33:0.2 35:0.17 38:0.17 40:0.33 41:0.33 42:0.5 43:0.25 44:1.0 45:0.5 46:0.2 47:0.33 48:0.2 51:0.25 52:0.67 53:0.33 54:0.2 55:0.33 56:0.33 58:0.2 60:0.2 61:0.17 62:0.5 65:0.2 66:0.14 67:0.2 69:0.14 70:0.25 72:0.17 73:0.5 74:0.5 82:0.33 86:0.33 87:0.33 88:0.5 91:0.5 94:1.0 95:0.5 97:0.25 98:1.0 99:0.17 101:0.25 104:0.25 107:0.33 111:0.5 112:0.33 113:0.2 119:0.25 120:0.33 122:0.14 123:0.33 124:0.15 125:0.14 129:0.14 130:0.12 132:0.2 133:0.29 134:0.14 135:0.14 139:0.14 140:0.5 142:0.25 144:0.12 145:0.17 148:0.2 149:0.14 150:0.29 152:0.29 153:0.09 154:0.11 155:0.14 157:0.12 160:0.1 161:0.17 162:0.11 163:0.33 164:1.0 165:0.12 167:0.33 168:0.33 169:0.12 170:1.0 173:1.0 
-1.0 1.0 1.0 1.0 1.0 1.0 1.0 4:0.67 6:0.33 17:0.5 21:0.33 26:0.33 29:0.5 32:0.25 35:0.33 39:0.5 40:0.33 41:0.33 42:0.25 43:0.25 45:0.25 52:0.33 55:0.33 56:0.33 57:0.2 58:0.4 61:0.33 62:0.5 65:0.2 66:0.29 74:0.5 78:0.5 82:0.33 84:0.17 87:0.33 88:0.5 90:0.33 91:0.5 97:0.25 101:0.25 104:0.5 106:0.2 107:0.33 109:1.0 110:0.33 111:0.5 112:0.33 118:0.5 119:0.25 120:0.33 123:0.33 124:0.05 125:1.0 129:0.14 130:0.12 132:0.1 133:0.14 135:0.14 139:0.14 140:0.5 142:0.25 144:0.12 145:0.17 148:0.2 150:0.29 152:0.14 153:0.09 157:0.12 161:0.17 162:0.11 164:0.5 169:0.12 170:1.0 173:0.08 
-1.0 -0.0 1.0 1.0 0.0 0.0 1.0 1:1.0 4:0.33 6:0.67 7:1.0 10:1.0 12:1.0 17:1.0 20:0.33 21:0.17 23:1.0 24:1.0 26:0.33 28:1.0 29:0.5 31:1.0 32:1.0 33:1.0 34:1.0 35:0.17 37:0.67 40:0.33 41:0.33 42:1.0 43:0.5 44:1.0 45:1.0 48:1.0 49:1.0 50:0.5 52:1.0 53:0.67 55:0.33 56:0.33 58:0.2 61:0.17 62:1.0 63:1.0 64:1.0 65:0.4 66:0.14 67:1.0 68:1.0 70:1.0 73:1.0 74:1.0 75:1.0 76:0.5 82:1.0 83:0.5 86:0.67 87:1.0 88:1.0 89:1.0 91:0.5 93:1.0 95:0.5 96:1.0 97:1.0 98:1.0 100:0.5 101:1.0 103:1.0 104:0.25 107:1.0 108:1.0 111:0.5 112:1.0 113:1.0 115:1.0 117:1.0 119:1.0 120:0.33 123:1.0 124:0.2 125:0.14 126:1.0 127:1.0 128:1.0 129:0.14 130:1.0 132:1.0 133:0.14 134:1.0 135:1.0 136:1.0 139:1.0 140:0.5 141:1.0 142:0.25 143:1.0 144:1.0 145:0.17 148:0.2 149:1.0 150:0.14 152:1.0 153:0.09 154:1.0 155:1.0 156:1.0 157:0.12 158:1.0 160:1.0 161:0.17 162:1.0 163:1.0 164:0.5 165:1.0 167:1.0 168:1.0 169:1.0 170:1.0 171:1.0 173:0.17 
-0.5487972671071762 -1.0 1.0 1.0 1.0 1.0 1.0 1:0.33 4:0.33 6:1.0 7:0.17 12:0.67 14:0.2 17:0.5 21:0.33 23:0.5 26:0.33 28:0.2 29:1.0 30:0.2 31:0.17 32:0.5 33:0.2 34:1.0 35:0.33 37:0.67 38:0.17 40:0.67 41:0.33 42:0.5 43:0.25 45:0.5 46:0.2 48:0.2 49:0.25 50:1.0 52:0.67 53:0.33 55:0.33 56:0.33 57:0.2 58:0.4 61:0.33 62:0.5 65:0.4 66:0.29 67:0.2 68:0.5 69:0.14 70:0.25 71:0.5 74:1.0 75:0.25 76:1.0 81:1.0 82:0.67 84:0.17 85:1.0 87:0.67 88:0.5 90:0.33 91:0.5 93:0.25 95:0.5 96:1.0 97:0.75 99:0.17 100:0.5 101:0.5 102:0.2 104:0.25 105:0.5 106:0.2 107:0.33 111:0.5 112:0.67 113:0.2 114:0.5 118:0.5 119:0.5 120:0.33 123:1.0 124:0.4 125:0.29 126:0.33 127:0.33 128:1.0 129:0.14 130:1.0 132:0.5 133:0.14 135:1.0 136:1.0 138:0.5 139:1.0 140:0.5 142:0.25 143:0.17 144:1.0 145:0.17 148:0.2 150:0.14 152:0.14 153:0.18 154:0.11 155:0.14 157:0.12 158:1.0 160:0.1 161:0.17 162:1.0 164:0.5 165:0.12 167:0.33 168:0.33 169:1.0 170:1.0 173:0.08 
-1.0 -1.0 1.0 1.0 1.0 0.39483636511170295 1.0 1:0.67 4:0.67 6:0.67 7:1.0 12:0.67 17:1.0 21:0.33 23:0.5 24:1.0 26:0.33 28:1.0 29:0.5 31:0.83 32:0.75 33:1.0 34:1.0 35:0.33 37:0.33 39:0.5 40:0.33 41:0.33 42:0.75 43:0.25 44:1.0 45:0.75 48:1.0 49:1.0 50:0.5 52:1.0 53:0.33 55:0.33 56:0.33 57:0.2 58:0.4 61:0.33 62:1.0 63:0.5 65:0.2 66:0.29 67:1.0 68:1.0 70:1.0 73:0.5 74:1.0 75:1.0 76:0.5 78:0.5 82:1.0 84:0.17 86:0.33 87:0.67 88:0.5 90:0.33 91:0.5 93:0.75 95:0.5 96:1.0 97:0.75 98:1.0 100:0.5 101:0.5 103:1.0 104:0.5 106:0.2 107:0.67 108:1.0 109:1.0 110:0.33 111:0.5 112:0.67 113:1.0 118:0.5 119:0.75 120:0.33 123:1.0 124:0.15 125:0.29 126:0.33 127:0.67 128:1.0 129:0.14 130:1.0 132:1.0 133:0.14 134:0.29 135:1.0 136:1.0 139:1.0 140:0.5 141:1.0 142:0.25 143:0.33 144:1.0 145:0.17 148:0.2 149:0.29 150:0.29 152:0.29 153:0.09 154:0.44 155:0.29 157:0.12 158:1.0 160:0.5 161:0.17 162:1.0 163:0.67 164:0.5 165:0.38 167:0.67 168:0.67 169:1.0 170:1.0 171:1.0 173:0.17 
-0.45120273289282375 -0.0 1.0 1.0 0.0 0.605163634888297 1.0 1:1.0 4:0.33 6:0.67 7:1.0 12:1.0 17:1.0 20:0.33 21:0.17 23:1.0 24:1.0 26:0.33 28:1.0 29:0.5 31:0.83 32:0.75 33:1.0 34:1.0 35:0.17 37:0.67 40:0.33 41:0.33 42:0.75 43:0.5 44:1.0 45:1.0 48:1.0 49:1.0 50:0.5 52:1.0 53:0.33 55:0.33 56:0.33 58:0.2 61:0.17 62:1.0 63:0.5 65:0.4 66:0.14 67:1.0 68:1.0 70:1.0 73:0.5 74:1.0 75:1.0 76:0.5 82:1.0 86:0.33 87:0.67 88:0.5 91:0.5 93:0.75 95:0.5 96:1.0 97:1.0 98:1.0 100:0.5 101:0.75 103:1.0 104:0.25 107:0.67 108:1.0 111:0.5 112:1.0 113:1.0 119:1.0 120:0.33 123:1.0 124:0.2 125:0.14 126:0.33 127:0.67 128:1.0 129:0.14 130:1.0 132:1.0 133:0.14 134:0.29 135:1.0 136:1.0 139:1.0 140:0.5 141:1.0 142:0.25 143:0.33 144:1.0 145:0.17 148:0.2 149:0.29 150:0.14 152:0.29 153:0.09 154:0.44 155:0.29 157:0.12 158:1.0 160:0.5 161:0.17 162:1.0 163:0.67 164:0.5 165:0.38 167:0.67 168:0.67 169:1.0 170:1.0 171:1.0 173:0.17 
-0.051642347924578585 -0.0 -1.0 1.0 0.29784236984690904 0.040075690465790036 1.0 1:0.33 4:0.33 6:0.67 7:0.17 8:0.2 9:1.0 14:0.4 17:0.5 21:0.33 22:0.17 24:0.5 26:0.33 28:0.2 29:1.0 30:0.4 32:0.5 33:0.2 35:0.33 37:0.33 38:0.33 40:1.0 41:0.33 42:0.25 43:0.25 45:0.25 46:0.2 49:0.25 50:0.5 51:0.25 52:0.33 53:0.33 54:0.2 55:0.33 56:0.33 57:0.2 58:0.4 60:0.2 61:0.33 62:1.0 63:0.5 65:0.4 66:0.29 68:0.5 69:0.29 71:0.5 74:0.5 76:0.5 81:1.0 82:0.67 84:0.17 85:1.0 87:0.33 88:0.5 90:0.33 91:0.5 95:0.5 97:0.25 99:0.33 100:1.0 101:0.25 102:0.2 103:1.0 104:0.25 105:0.5 106:0.2 107:0.67 108:1.0 111:1.0 112:0.33 113:0.2 114:1.0 118:0.5 119:0.5 120:0.33 123:0.33 124:0.1 125:0.14 129:0.14 130:0.12 132:0.2 133:0.14 135:0.14 138:1.0 139:0.14 140:0.5 141:1.0 142:0.25 144:0.12 145:0.17 148:0.2 149:0.14 150:0.14 152:0.14 153:0.18 157:0.12 161:0.17 162:0.11 164:0.5 169:0.12 170:1.0 171:1.0 173:0.08 
-0.0 -0.0 -0.0 1.0 0.0 0.0 1.0 6:0.33 8:1.0 9:1.0 14:1.0 21:0.17 22:1.0 29:0.5 30:1.0 35:0.17 37:0.33 38:1.0 40:0.67 46:1.0 50:0.5 51:1.0 53:0.33 54:1.0 57:0.2 58:0.2 60:1.0 61:0.17 65:0.2 66:0.14 69:1.0 71:0.5 76:0.5 81:1.0 84:0.17 85:1.0 90:0.33 95:0.5 99:1.0 100:0.5 102:0.2 105:0.5 106:0.2 111:0.5 114:1.0 118:0.5 124:0.05 138:1.0 153:0.09 173:0.08 
-1.0 -0.738274243471956 -1.0 1.0 0.9844379944458437 1.0 1.0 1:0.33 4:0.33 6:0.67 7:0.17 8:0.2 9:1.0 14:0.4 17:0.5 21:0.33 22:0.17 24:0.5 26:0.33 28:0.2 29:1.0 30:0.4 32:0.5 33:0.2 35:0.33 37:0.33 38:0.33 40:1.0 41:0.33 42:0.25 43:0.25 45:0.25 46:0.2 49:0.25 50:0.5 51:0.25 52:0.33 53:0.33 54:0.2 55:0.33 56:0.33 57:0.2 58:0.4 60:0.2 61:0.33 62:1.0 63:0.5 65:0.4 66:0.29 68:0.5 69:0.29 71:0.5 74:0.5 76:0.5 81:1.0 82:0.67 84:0.17 85:1.0 87:0.33 88:0.5 90:0.33 91:0.5 95:0.5 97:0.25 99:0.33 100:1.0 101:0.25 102:0.2 103:1.0 104:0.25 105:0.5 106:0.2 107:0.67 108:1.0 111:1.0 112:0.33 113:0.2 114:1.0 118:0.5 119:0.5 120:0.33 123:0.33 124:0.1 125:0.14 129:0.14 130:0.12 132:0.2 133:0.14 135:0.14 138:1.0 139:0.14 140:0.5 141:1.0 142:0.25 144:0.12 145:0.17 148:0.2 149:0.14 150:0.14 152:0.14 153:0.18 157:0.12 161:0.17 162:0.11 164:0.5 169:0.12 170:1.0 171:1.0 173:0.08 
-1.0 -0.26172575652804403 -1.0 1.0 0.043386598179957506 0.27490518008593456 1.0 1:0.33 7:1.0 12:0.33 17:0.5 18:1.0 24:1.0 25:0.33 28:1.0 31:0.83 32:0.25 33:1.0 34:0.5 42:0.25 44:1.0 45:0.25 47:0.33 48:1.0 49:1.0 50:0.5 52:0.33 53:0.33 59:0.5 62:0.5 63:0.5 67:1.0 68:0.5 70:1.0 72:0.17 73:0.5 75:1.0 79:0.33 82:0.33 83:0.5 86:0.67 93:0.75 94:1.0 95:0.5 97:0.25 98:1.0 100:0.5 103:1.0 107:0.33 108:1.0 113:1.0 119:0.25 120:0.33 121:0.5 122:0.14 123:0.33 124:0.1 126:0.33 127:0.67 130:0.12 132:0.6 133:0.29 134:0.29 135:0.14 136:0.33 139:0.14 141:1.0 143:0.33 144:0.12 149:0.29 152:0.14 154:0.44 155:0.29 160:0.5 162:0.11 163:0.67 164:0.5 165:0.38 167:0.67 168:0.67 169:0.12 171:1.0 173:0.17 
-0.9483576520754214 -1.0 -1.0 1.0 0.6743330375272898 0.6850191294482755 1.0 8:0.2 10:0.25 14:0.2 22:0.17 30:0.2 31:0.17 32:0.25 38:0.17 42:0.25 46:0.2 51:0.25 53:0.33 54:0.2 60:0.2 63:0.5 64:1.0 69:0.14 73:0.5 83:0.5 86:0.33 87:0.33 88:0.5 93:0.25 99:0.17 101:0.25 107:0.33 115:0.33 117:0.2 134:0.14 143:0.17 149:0.14 152:0.14 154:0.11 155:0.14 156:1.0 160:0.1 165:0.12 173:0.08 
-0.0 -0.0 -1.0 -1.0 0.0 0.0 1.0 4:0.33 5:0.33 6:0.33 11:0.17 13:1.0 16:1.0 17:0.5 19:0.67 20:0.33 21:0.33 25:0.33 26:0.67 27:0.5 29:0.5 32:0.25 35:0.33 36:0.5 40:0.33 41:0.67 42:0.25 43:0.5 45:0.25 47:0.33 52:0.33 55:1.0 56:0.67 57:0.2 58:0.2 61:0.17 62:0.5 65:0.4 66:0.29 74:0.5 77:0.5 79:0.33 82:0.33 84:0.17 87:0.33 88:0.5 91:0.5 92:0.5 97:0.25 101:0.25 102:0.2 104:0.5 107:0.33 110:0.33 111:0.5 112:0.33 116:1.0 119:0.25 120:0.33 122:0.14 123:0.33 124:0.05 125:0.14 129:0.29 130:0.12 132:0.1 133:0.14 135:0.14 137:1.0 139:0.14 140:1.0 142:0.5 144:0.12 145:0.33 148:0.4 150:0.29 151:0.5 152:0.14 153:0.27 157:0.25 159:1.0 161:0.33 162:0.11 164:0.5 166:1.0 169:0.12 170:1.0 173:0.08 
-1.0 -0.0 -1.0 -1.0 0.0 0.0485193838979797 1.0 1:0.33 5:0.33 6:0.33 7:0.17 10:1.0 11:0.17 13:1.0 14:0.2 16:1.0 18:1.0 19:0.67 20:0.33 21:0.33 24:0.5 25:0.33 26:0.33 27:0.5 28:0.2 29:0.5 30:0.2 31:0.17 32:0.5 33:0.2 35:0.33 36:0.5 37:0.33 38:0.17 40:0.33 41:0.33 42:0.25 43:0.25 46:0.2 47:0.67 49:0.25 50:0.5 53:0.67 55:0.67 56:0.33 57:0.4 58:0.2 59:0.5 61:0.17 62:0.5 63:1.0 64:1.0 65:0.4 66:0.29 68:0.5 69:0.14 71:0.5 72:0.17 73:0.5 76:0.5 77:0.5 79:0.67 81:1.0 82:0.33 83:1.0 84:0.33 85:1.0 86:0.67 87:0.33 88:0.5 89:1.0 90:0.33 92:0.5 93:0.25 95:0.5 99:0.17 100:1.0 101:0.25 102:0.4 103:1.0 104:0.25 105:0.5 106:0.2 107:0.67 108:1.0 110:0.33 113:0.2 114:0.5 115:1.0 116:1.0 117:1.0 118:0.5 119:0.25 122:0.29 124:0.05 125:0.14 126:0.67 127:0.33 129:0.14 132:0.1 134:0.71 137:1.0 138:0.5 140:0.5 141:1.0 142:0.25 143:0.67 145:0.17 148:0.2 149:0.86 150:0.14 151:0.5 152:0.71 153:0.27 154:0.56 155:0.71 156:1.0 157:0.12 159:1.0 160:0.5 161:0.17 163:0.33 165:0.62 166:1.0 167:0.33 168:0.33 171:1.0 
-0.0 -0.0 -0.0 -0.6900040681760029 1.0 0.0 1.0 2:1.0 3:1.0 4:0.33 5:0.67 11:0.33 13:1.0 15:0.2 18:1.0 19:0.67 20:0.67 21:0.17 25:0.67 26:0.33 27:1.0 35:0.33 36:1.0 39:0.5 43:0.5 47:0.67 55:0.33 56:0.67 57:0.4 59:1.0 61:0.17 65:0.4 66:0.29 71:0.5 72:0.33 77:1.0 78:0.5 79:1.0 80:1.0 83:0.5 84:0.33 86:0.33 91:0.5 92:0.5 102:0.4 104:0.5 105:0.5 106:0.2 110:0.67 116:1.0 120:0.33 121:0.5 122:0.43 129:0.29 131:0.5 142:0.25 145:0.33 148:0.4 150:0.29 151:0.5 153:0.55 157:0.25 159:1.0 161:0.33 166:0.5 
-0.2884710927489998 -0.22290102361618713 -0.6934667782339252 -0.3099959318239971 0.6842483259855724 0.43405676219656125 1.0 4:0.33 5:0.33 6:0.33 11:0.17 13:1.0 16:1.0 17:0.5 19:0.67 20:0.33 21:0.33 25:0.33 26:0.67 27:0.5 29:0.5 32:0.25 35:0.33 36:0.5 40:0.33 41:0.67 42:0.25 43:0.5 45:0.25 47:0.33 52:0.33 55:1.0 56:0.67 57:0.2 58:0.2 61:0.17 62:0.5 65:0.4 66:0.29 74:0.5 77:0.5 79:0.33 82:0.33 84:0.17 87:0.33 88:0.5 91:0.5 92:0.5 97:0.25 101:0.25 102:0.2 104:0.5 107:0.33 110:0.33 111:0.5 112:0.33 116:1.0 119:0.25 120:0.33 122:0.14 123:0.33 124:0.05 125:0.14 129:0.29 130:0.12 132:0.1 133:0.14 135:0.14 137:1.0 139:0.14 140:1.0 142:0.5 144:0.12 145:0.33 148:0.4 150:0.29 151:0.5 152:0.14 153:0.27 157:0.25 159:1.0 161:0.33 162:0.11 164:0.5 166:1.0 169:0.12 170:1.0 173:0.08 
-0.7115289072510003 -0.7770989763838129 -0.30653322176607484 -1.0 0.0 0.5174238539054591 1.0 5:0.67 11:0.33 13:1.0 15:0.2 19:0.33 20:0.33 21:0.17 25:0.33 27:0.5 35:0.17 36:0.5 43:0.25 47:0.67 55:0.33 56:0.33 57:0.2 65:0.2 66:0.14 72:0.17 77:0.5 79:0.33 84:0.17 102:0.2 104:0.25 110:0.33 116:1.0 122:0.29 125:0.14 129:0.14 142:0.25 145:0.17 148:0.2 150:0.29 151:0.5 153:0.09 157:0.12 159:1.0 161:0.17 166:0.5 173:0.08 
-1.0 -1.0 -1.0 -1.0 0.3157516740144276 1.0 1.0 4:0.33 6:0.67 14:0.2 16:1.0 17:0.5 19:0.33 21:0.33 26:0.67 29:1.0 30:0.2 32:0.25 35:0.33 37:0.33 38:0.17 40:0.67 41:0.67 42:0.25 43:0.25 45:0.25 46:0.2 50:0.5 52:0.33 53:0.33 55:0.67 56:0.33 57:0.2 58:0.4 61:0.33 62:0.5 65:0.4 66:0.29 69:0.14 71:0.5 74:0.5 76:0.5 81:1.0 82:0.33 84:0.17 85:1.0 87:0.33 88:0.5 90:0.33 91:0.5 92:0.5 95:0.5 97:0.25 99:0.17 100:0.5 101:0.25 102:0.2 104:0.25 105:0.5 106:0.2 107:0.33 111:0.5 112:0.33 114:0.5 118:0.5 119:0.25 120:0.33 123:0.33 124:0.1 125:0.29 129:0.14 130:0.12 132:0.1 133:0.14 135:0.14 137:1.0 138:0.5 139:0.14 140:1.0 142:0.25 144:0.12 145:0.17 148:0.2 150:0.14 152:0.14 153:0.27 157:0.12 161:0.17 162:0.11 164:0.5 166:0.5 169:0.12 170:1.0 173:0.08 
-1.0 -1.0 -1.0 -1.0 -1.0 1.0 1.0 2:1.0 3:1.0 4:0.67 5:0.67 6:0.67 11:0.33 13:1.0 14:0.2 15:0.2 16:1.0 17:0.5 19:1.0 20:0.67 21:0.5 25:0.67 26:1.0 27:1.0 29:1.0 30:0.2 32:0.25 35:0.67 36:1.0 37:0.33 38:0.17 39:0.5 40:0.67 41:0.67 42:0.25 43:0.75 45:0.25 46:0.2 47:0.33 50:0.5 52:0.33 53:0.33 55:1.0 56:1.0 57:0.6 58:0.4 59:0.5 61:0.5 62:0.5 65:0.8 66:0.57 69:0.14 71:1.0 72:0.17 74:0.5 76:0.5 77:1.0 78:0.5 79:0.67 80:1.0 81:1.0 82:0.33 84:0.5 85:1.0 87:0.33 88:0.5 90:0.33 91:1.0 92:1.0 95:0.5 97:0.25 99:0.17 100:0.5 101:0.25 102:0.6 104:0.75 105:1.0 106:0.4 107:0.33 110:0.67 111:0.5 112:0.33 114:0.5 116:1.0 118:0.5 119:0.25 120:0.67 121:0.5 122:0.29 123:0.33 124:0.1 125:0.14 129:1.0 130:0.12 131:1.0 132:0.1 133:0.14 135:0.14 137:1.0 138:0.5 139:0.14 140:1.0 142:1.0 144:0.12 145:1.0 146:1.0 147:1.0 148:1.0 150:0.71 151:1.0 152:0.14 153:1.0 157:1.0 159:1.0 161:1.0 162:0.11 164:0.5 166:1.0 169:0.12 170:1.0 172:1.0 173:0.08 
-1.0 -1.0 -1.0 -1.0 -1.0 1.0 1.0 2:1.0 3:1.0 4:1.0 5:1.0 6:0.33 11:1.0 13:1.0 15:1.0 17:0.5 19:0.67 20:0.67 21:0.83 25:0.67 26:0.67 27:1.0 29:0.5 32:0.25 35:0.83 36:1.0 39:1.0 40:0.33 41:0.33 42:0.25 43:0.75 45:0.25 47:0.67 52:0.33 55:0.67 56:1.0 57:0.8 58:0.8 59:0.5 61:0.83 62:0.5 65:0.6 66:0.86 71:0.5 72:0.83 74:0.5 77:1.0 78:1.0 79:0.67 80:1.0 82:0.33 84:0.83 87:0.33 88:0.5 90:0.67 91:1.0 92:0.5 97:0.25 101:0.25 102:0.8 104:1.0 105:0.5 106:0.8 107:0.33 109:1.0 110:1.0 111:0.5 112:0.33 116:1.0 118:0.5 119:0.25 120:0.67 121:0.5 122:0.86 123:0.33 124:0.05 125:0.29 129:1.0 130:0.12 131:1.0 132:0.1 133:0.14 135:0.14 139:0.14 140:0.5 142:1.0 144:0.12 145:1.0 146:1.0 147:1.0 148:1.0 150:1.0 151:1.0 152:0.14 153:0.45 157:1.0 159:1.0 161:1.0 162:0.11 164:0.5 166:0.5 169:0.12 170:1.0 172:1.0 173:0.17 
-1.0 -1.0 -1.0 -1.0 -1.0 -1.0 1.0 4:0.33 6:0.33 17:0.5 21:0.17 25:0.33 26:0.33 29:0.5 32:0.25 35:0.17 40:0.33 41:0.33 42:0.25 43:0.25 45:0.25 52:0.33 55:0.33 56:0.33 58:0.2 61:0.17 62:0.5 65:0.2 66:0.14 74:0.5 82:0.33 87:0.33 88:0.5 91:0.5 94:1.0 97:0.25 101:0.25 104:0.25 107:0.33 111:0.5 112:0.33 119:0.25 120:0.67 121:0.5 123:0.33 124:0.1 125:0.14 129:0.14 130:0.12 132:0.1 133:1.0 135:0.14 139:0.14 140:0.5 142:0.25 144:0.12 145:0.17 148:0.2 150:0.14 152:0.14 153:0.09 157:0.12 161:0.17 162:0.11 164:1.0 169:0.12 170:1.0 173:0.17 
-1.0 -1.0 -1.0 -1.0 -1.0 -1.0 1.0 1:0.67 4:0.33 6:1.0 7:0.17 12:0.67 14:0.2 17:1.0 20:0.33 21:0.33 23:1.0 24:0.5 26:0.33 28:0.2 29:1.0 30:0.2 31:0.17 32:0.5 33:0.2 34:0.5 35:0.33 37:1.0 38:0.17 40:0.67 41:0.33 42:0.75 43:0.5 44:1.0 45:1.0 46:0.2 48:0.2 50:0.5 52:1.0 53:0.67 55:0.33 56:0.33 57:0.2 58:0.4 61:0.33 62:0.5 65:0.6 66:0.29 67:0.2 68:0.5 69:0.14 70:0.25 71:0.5 73:0.5 74:1.0 76:1.0 81:1.0 82:0.67 84:0.17 85:1.0 86:0.33 87:0.67 88:0.5 90:0.33 91:0.5 94:1.0 95:1.0 96:1.0 97:0.75 98:1.0 99:0.17 100:0.5 101:0.75 102:0.2 104:0.25 105:0.5 106:0.2 107:0.33 111:0.5 112:1.0 113:0.2 114:0.5 118:0.5 119:0.75 120:0.33 123:0.67 124:1.0 125:0.14 128:0.33 129:0.14 130:0.25 132:0.3 133:0.29 134:0.14 135:0.29 138:0.5 139:0.29 140:0.5 142:0.25 144:0.25 145:0.17 148:0.2 149:0.14 150:0.14 152:0.29 153:0.18 154:0.11 155:0.14 157:0.12 160:0.1 161:0.17 162:0.22 163:0.33 164:1.0 165:0.12 167:0.33 168:0.33 169:0.25 170:1.0 173:0.25 
-1.0 -0.17701221661011546 -1.0 -0.0 -0.025135195279268486 -0.01067329940163521 -0.3939422704473817 1:0.67 4:0.33 6:0.67 7:0.83 10:1.0 12:1.0 17:1.0 20:0.33 21:0.17 23:1.0 24:0.5 26:0.33 28:0.8 29:0.5 31:1.0 32:0.75 33:0.8 34:1.0 35:0.17 37:0.67 40:0.33 41:0.33 42:1.0 43:0.5 44:1.0 45:1.0 48:1.0 49:0.75 50:0.5 52:1.0 53:0.67 55:0.33 56:0.33 58:0.2 61:0.17 62:0.5 63:0.5 64:1.0 65:0.4 66:0.14 67:1.0 68:0.5 70:1.0 73:1.0 74:1.0 75:1.0 76:0.5 82:0.67 83:0.5 86:0.67 87:1.0 88:1.0 89:1.0 91:0.5 93:1.0 95:0.5 96:1.0 97:1.0 98:1.0 101:1.0 104:0.25 107:0.67 111:0.5 112:1.0 113:0.8 115:1.0 117:1.0 119:0.75 120:0.33 123:1.0 124:0.2 125:0.14 126:1.0 127:1.0 128:0.33 129:0.14 130:0.38 132:0.7 133:0.14 134:1.0 135:0.43 136:0.33 139:0.43 140:0.5 142:0.25 143:1.0 144:0.38 145:0.17 148:0.2 149:0.86 150:0.14 152:1.0 153:0.09 154:1.0 155:1.0 156:1.0 157:0.12 160:1.0 161:0.17 162:0.33 163:1.0 164:0.5 165:1.0 167:1.0 168:1.0 169:0.38 170:1.0 173:0.17 
-0.0 -0.2960052976880544 -0.3440951609470284 -1.0 -1.0 -0.0 -0.6859487392893178 4:0.33 6:0.67 14:0.2 16:1.0 17:0.5 19:0.33 21:0.33 26:0.67 29:1.0 30:0.2 32:0.25 35:0.33 37:0.33 38:0.17 40:0.67 41:0.67 42:0.25 43:0.25 45:0.25 46:0.2 50:0.5 52:0.33 53:0.33 55:0.67 56:0.33 57:0.2 58:0.4 61:0.33 62:0.5 65:0.4 66:0.29 69:0.14 71:0.5 74:0.5 76:0.5 81:1.0 82:0.33 84:0.17 85:1.0 87:0.33 88:0.5 90:0.33 91:0.5 92:0.5 95:0.5 97:0.25 99:0.17 100:0.5 101:0.25 102:0.2 104:0.25 105:0.5 106:0.2 107:0.33 111:0.5 112:0.33 114:0.5 118:0.5 119:0.25 120:0.33 123:0.33 124:0.1 125:0.29 129:0.14 130:0.12 132:0.1 133:0.14 135:0.14 137:1.0 138:0.5 139:0.14 140:1.0 142:0.25 144:0.12 145:0.17 148:0.2 150:0.14 152:0.14 153:0.27 157:0.12 161:0.17 162:0.11 164:0.5 166:0.5 169:0.12 170:1.0 173:0.08 
-0.331493256586674 -0.01834758734405842 -1.0 -1.0 -0.0 -0.0 -0.0 1:0.33 4:0.33 6:0.33 7:1.0 12:0.33 14:0.2 17:0.5 18:1.0 21:0.33 24:1.0 28:1.0 29:0.5 30:0.2 31:0.83 32:0.25 33:1.0 34:0.5 35:0.33 37:0.33 38:0.17 39:0.5 40:0.33 42:0.25 44:1.0 45:0.25 46:0.2 47:0.33 48:1.0 49:1.0 50:1.0 52:0.33 53:0.67 57:0.4 58:0.4 59:0.5 61:0.33 62:0.5 63:0.5 65:0.2 66:0.29 67:1.0 68:0.5 69:0.14 70:1.0 71:0.5 72:0.17 73:0.5 75:1.0 76:0.5 78:0.5 79:0.33 81:1.0 82:0.33 83:0.5 84:0.33 85:1.0 86:0.67 90:0.67 93:0.75 95:1.0 97:0.25 98:1.0 99:0.17 100:1.0 102:0.2 103:1.0 104:0.25 105:0.5 106:0.4 107:0.33 108:1.0 109:1.0 110:0.33 113:1.0 114:0.5 118:1.0 119:0.25 122:0.14 123:0.33 124:0.1 125:0.14 126:0.33 127:0.67 130:0.25 132:0.7 134:0.29 135:0.29 136:0.33 138:0.5 139:0.29 141:1.0 143:0.33 144:0.25 149:0.29 150:0.14 152:0.14 153:0.09 154:0.44 155:0.29 160:0.5 162:0.22 163:0.67 165:0.38 167:0.67 168:0.67 169:0.25 171:1.0 173:0.08 
-0.0 -0.0 -0.0 -1.0 -0.5278217948613121 -0.0 -0.0 8:0.2 10:0.25 14:0.2 22:0.17 30:0.2 31:0.17 32:0.25 38:0.17 42:0.25 46:0.2 51:0.25 53:0.33 54:0.2 60:0.2 63:0.5 64:1.0 69:0.14 73:0.5 83:0.5 86:0.33 87:0.33 88:0.5 93:0.25 99:0.17 101:0.25 107:0.33 115:0.33 117:0.2 134:0.14 143:0.17 149:0.14 152:0.14 154:0.11 155:0.14 156:1.0 160:0.1 165:0.12 173:0.08 
-0.0 -0.33514772601710385 -0.0 -0.6665002734010248 -0.9586440486230374 -0.0 -0.00953184526389142 8:0.2 10:0.25 14:0.2 22:0.17 30:0.2 31:0.17 32:0.25 38:0.17 42:0.25 46:0.2 51:0.25 53:0.33 54:0.2 60:0.2 63:0.5 64:1.0 69:0.14 73:0.5 83:0.5 86:0.33 87:0.33 88:0.5 93:0.25 99:0.17 101:0.25 107:0.33 115:0.33 117:0.2 134:0.14 143:0.17 149:0.14 152:0.14 154:0.11 155:0.14 156:1.0 160:0.1 165:0.12 173:0.08 
-0.07303504104719272 -0.0 -1.0 -0.0 -0.0 -0.15047438157322654 -0.012438376942464153 1:1.0 4:0.67 6:0.67 7:0.17 10:1.0 12:0.67 17:0.5 20:0.33 21:0.33 23:1.0 24:0.5 26:0.33 28:0.2 29:0.5 31:0.17 32:1.0 33:0.2 34:0.5 35:0.33 37:0.67 39:0.5 40:0.33 41:0.33 42:0.75 43:0.5 45:0.75 49:0.25 52:0.67 53:0.33 55:0.33 56:0.33 57:0.2 58:0.4 61:0.33 62:1.0 63:1.0 64:1.0 65:0.4 66:0.29 68:1.0 73:0.5 74:1.0 76:0.5 78:0.5 82:1.0 83:0.5 84:0.17 86:0.33 87:1.0 88:1.0 89:1.0 90:0.33 91:0.5 93:0.25 96:1.0 97:0.75 100:0.5 101:1.0 103:1.0 104:0.5 106:0.2 107:1.0 108:1.0 109:1.0 110:0.33 111:0.5 112:1.0 113:0.2 115:1.0 117:1.0 118:0.5 119:1.0 120:0.33 123:0.67 124:0.15 125:0.29 126:0.67 127:0.33 128:0.33 129:0.14 130:0.38 132:0.4 133:0.14 134:0.71 135:0.43 139:0.43 140:0.5 141:1.0 142:0.25 143:0.67 144:0.38 145:0.17 148:0.2 149:0.86 150:0.29 152:0.86 153:0.09 154:0.56 155:0.71 156:1.0 157:0.12 160:0.5 161:0.17 162:0.33 163:0.33 164:0.5 165:0.62 167:0.33 168:0.33 169:0.38 170:1.0 171:1.0 173:0.08 
-1.0 -0.0 -0.23171444874236963 -0.14978031607447886 -0.0 -0.0 -0.0 1:0.33 6:0.33 7:1.0 10:1.0 12:0.33 14:0.2 17:0.5 18:1.0 21:0.17 24:1.0 28:1.0 29:0.5 30:0.2 31:1.0 32:0.5 33:1.0 34:0.5 35:0.17 37:0.33 38:0.17 40:0.33 42:0.5 44:1.0 45:0.25 46:0.2 47:0.33 48:1.0 49:1.0 50:1.0 52:0.33 53:1.0 57:0.2 58:0.2 59:0.5 61:0.17 62:0.5 63:1.0 64:1.0 65:0.2 66:0.14 67:1.0 68:0.5 69:0.14 70:1.0 71:0.5 72:0.17 73:1.0 75:1.0 76:0.5 79:0.33 81:1.0 82:0.33 83:1.0 84:0.17 85:1.0 86:1.0 87:0.33 88:0.5 89:1.0 90:0.33 93:1.0 94:1.0 95:1.0 97:0.25 98:1.0 99:0.17 100:1.0 101:0.25 102:0.2 103:1.0 105:0.5 106:0.2 107:0.67 108:1.0 113:1.0 114:0.5 115:1.0 117:1.0 118:0.5 119:0.25 122:0.14 123:0.33 124:0.35 126:1.0 127:1.0 130:0.12 132:0.6 133:0.14 134:1.0 135:0.14 136:0.33 138:0.5 139:0.14 141:1.0 143:1.0 144:0.12 149:1.0 152:0.86 153:0.09 154:1.0 155:1.0 156:1.0 160:1.0 162:0.11 163:1.0 164:0.5 165:1.0 167:1.0 168:1.0 169:0.12 171:1.0 173:0.17 
-0.5954717023661332 -0.010197452746928674 -0.0 -0.4224001511335849 -0.32762512758180484 -0.0 -0.0 1:0.33 4:0.33 6:0.33 7:0.17 10:1.0 17:0.5 21:0.17 24:0.5 26:0.33 28:0.2 29:0.5 31:0.17 32:0.75 33:0.2 35:0.17 40:0.33 41:0.33 42:0.5 43:0.25 45:0.25 49:0.25 52:0.33 53:0.33 55:0.33 56:0.33 58:0.2 61:0.17 62:1.0 63:1.0 64:1.0 65:0.2 66:0.14 68:0.5 73:0.5 74:0.5 82:0.67 83:0.5 86:0.33 87:0.67 88:1.0 89:1.0 91:0.5 93:0.25 97:0.25 100:0.5 101:0.5 103:1.0 104:0.25 107:1.0 108:1.0 111:0.5 112:0.33 113:0.2 115:1.0 117:1.0 119:0.5 120:0.33 123:0.33 124:0.05 125:0.14 126:0.67 127:0.33 129:0.14 130:0.12 132:0.2 133:0.14 134:0.71 135:0.14 139:0.14 140:0.5 141:1.0 142:0.25 143:0.67 144:0.12 145:0.17 148:0.2 149:0.86 150:0.14 152:0.86 153:0.09 154:0.56 155:0.71 156:1.0 157:0.12 160:0.5 161:0.17 162:0.11 163:0.33 164:0.5 165:0.62 167:0.33 168:0.33 169:0.12 170:1.0 171:1.0 173:0.08 
-0.0 -0.16328971959373922 -0.0 -0.7613192593909115 -0.4609974174145876 -0.38809801462903293 -0.2313212127545463 4:0.67 6:0.67 14:0.2 17:0.5 21:0.5 26:0.33 29:1.0 30:0.2 32:0.25 35:0.5 37:0.33 38:0.17 39:0.5 40:0.67 41:0.33 42:0.25 43:0.25 45:0.25 46:0.2 50:0.5 52:0.33 53:0.33 55:0.33 56:0.33 57:0.4 58:0.6 61:0.5 62:0.5 65:0.4 66:0.43 69:0.14 71:0.5 74:0.5 76:0.5 78:0.5 81:1.0 82:0.33 84:0.33 85:1.0 87:0.33 88:0.5 90:0.67 91:0.5 95:0.5 97:0.25 99:0.17 100:0.5 101:0.25 102:0.2 104:0.5 105:0.5 106:0.4 107:0.33 109:1.0 110:0.33 111:0.5 112:0.33 114:0.5 118:1.0 119:0.25 120:0.33 123:0.33 124:0.1 125:0.29 129:0.14 130:0.25 132:0.2 133:0.14 135:0.29 138:0.5 139:0.29 140:0.5 142:0.25 144:0.25 145:0.17 148:0.2 150:0.29 152:0.14 153:0.18 157:0.12 161:0.17 162:0.22 164:0.5 169:0.25 170:1.0 173:0.08 
-0.0 -1.0 -0.424190390310602 -0.0 -1.0 -0.45075430439610537 -0.6668175553023987 4:0.67 6:0.33 17:0.5 21:0.33 26:0.33 29:0.5 32:0.25 35:0.33 39:0.5 40:0.33 41:0.33 42:0.25 43:0.25 45:0.25 52:0.33 55:0.33 56:0.33 57:0.2 58:0.4 61:0.33 62:0.5 65:0.2 66:0.29 74:0.5 78:0.5 82:0.33 84:0.17 87:0.33 88:0.5 90:0.33 91:0.5 97:0.25 101:0.25 104:0.5 106:0.2 107:0.33 109:1.0 110:0.33 111:0.5 112:0.33 118:0.5 119:0.25 120:0.33 123:0.33 124:0.05 125:0.29 129:0.14 130:0.25 132:0.2 133:0.14 135:0.29 139:0.29 140:0.5 142:0.25 144:0.25 145:0.17 148:0.2 150:0.29 152:0.14 153:0.09 157:0.12 161:0.17 162:0.22 164:0.5 169:0.25 170:1.0 173:0.08 
-0.0 -0.0 -0.0 -0.0 -1.0 -1.0 -0.0 2:1.0 3:1.0 4:0.33 5:0.67 6:0.33 11:0.33 13:1.0 14:0.2 15:0.2 16:1.0 18:1.0 19:1.0 20:0.67 21:0.33 25:1.0 26:0.67 27:1.0 29:0.5 30:0.2 35:0.5 36:1.0 37:0.33 38:0.17 39:0.5 40:0.33 41:0.33 43:0.5 46:0.2 47:0.67 50:0.5 53:0.33 55:0.67 56:0.67 57:0.6 58:0.2 59:1.0 61:0.33 65:0.6 66:0.43 69:0.14 71:1.0 72:0.33 76:0.5 77:1.0 78:0.5 79:1.0 80:1.0 81:1.0 83:0.5 84:0.5 85:1.0 86:0.33 90:0.33 91:0.5 92:1.0 95:0.5 99:0.17 100:0.5 102:0.6 104:0.5 105:1.0 106:0.4 110:0.67 114:0.5 116:1.0 118:0.5 120:0.67 121:1.0 122:0.43 124:0.05 125:0.14 129:0.29 131:0.5 133:0.14 137:1.0 138:0.5 140:0.5 142:0.25 145:0.33 148:0.4 150:0.29 151:0.5 153:0.73 157:0.25 159:1.0 161:0.33 166:1.0 
-0.0 -0.0 -0.0 -0.0 -0.6997764162399895 -0.0 -0.0 1:0.33 6:0.33 7:0.17 10:1.0 14:0.2 16:1.0 18:1.0 19:0.33 21:0.17 24:0.5 26:0.33 28:0.2 29:0.5 30:0.2 31:0.17 32:0.5 33:0.2 35:0.17 37:0.33 38:0.17 40:0.33 41:0.33 42:0.25 46:0.2 47:0.33 49:0.25 50:0.5 53:0.67 55:0.33 57:0.2 58:0.2 59:0.5 61:0.17 62:0.5 63:1.0 64:1.0 65:0.2 66:0.14 68:0.5 69:0.14 71:0.5 72:0.17 73:0.5 76:0.5 79:0.33 81:1.0 82:0.33 83:1.0 84:0.17 85:1.0 86:0.67 87:0.33 88:0.5 89:1.0 90:0.33 92:0.5 93:0.25 95:0.5 99:0.17 100:1.0 101:0.25 102:0.2 103:1.0 105:0.5 106:0.2 107:0.67 108:1.0 113:0.2 114:0.5 115:1.0 117:1.0 118:0.5 119:0.25 122:0.14 124:0.05 125:0.14 126:0.67 127:0.33 132:0.1 134:0.71 137:1.0 138:0.5 140:0.5 141:1.0 143:0.67 149:0.86 152:0.71 153:0.18 154:0.56 155:0.71 156:1.0 160:0.5 163:0.33 165:0.62 166:0.5 167:0.33 168:0.33 171:1.0 
